<?xml version="1.0"?>
<MethodSetup Method="BDT::BDTG">
  <GeneralInfo>
    <Info name="TMVA Release" value="4.2.1 [262657]"/>
    <Info name="ROOT Release" value="6.06/08 [394760]"/>
    <Info name="Creator" value="vischia"/>
    <Info name="Date" value="Sun Aug  6 05:21:23 2017"/>
    <Info name="Host" value="Linux fanae127.geol.uniovi.es 2.6.32-642.4.2.el6.x86_64 #1 SMP Wed Aug 24 09:19:54 CEST 2016 x86_64 x86_64 x86_64 GNU/Linux"/>
    <Info name="Dir" value="/mnt_pool/ciencias_users/user/vischia/workarea/chargedHiggs/chargedHiggs13TeV"/>
    <Info name="Training events" value="284798"/>
    <Info name="TrainingTime" value="1.67943304e+02"/>
    <Info name="AnalysisType" value="Classification"/>
  </GeneralInfo>
  <Options>
    <Option name="V" modified="Yes">False</Option>
    <Option name="VerbosityLevel" modified="No">Default</Option>
    <Option name="VarTransform" modified="No">None</Option>
    <Option name="H" modified="Yes">False</Option>
    <Option name="CreateMVAPdfs" modified="No">False</Option>
    <Option name="IgnoreNegWeightsInTraining" modified="No">False</Option>
    <Option name="NTrees" modified="Yes">500</Option>
    <Option name="MaxDepth" modified="Yes">2</Option>
    <Option name="MinNodeSize" modified="Yes">2.5%</Option>
    <Option name="nCuts" modified="Yes">20</Option>
    <Option name="BoostType" modified="Yes">Grad</Option>
    <Option name="AdaBoostR2Loss" modified="No">quadratic</Option>
    <Option name="UseBaggedBoost" modified="Yes">True</Option>
    <Option name="Shrinkage" modified="Yes">5.000000e-01</Option>
    <Option name="AdaBoostBeta" modified="No">5.000000e-01</Option>
    <Option name="UseRandomisedTrees" modified="No">False</Option>
    <Option name="UseNvars" modified="Yes">5</Option>
    <Option name="UsePoissonNvars" modified="Yes">True</Option>
    <Option name="BaggedSampleFraction" modified="Yes">5.000000e-01</Option>
    <Option name="UseYesNoLeaf" modified="No">True</Option>
    <Option name="NegWeightTreatment" modified="Yes">pray</Option>
    <Option name="Css" modified="No">1.000000e+00</Option>
    <Option name="Cts_sb" modified="No">1.000000e+00</Option>
    <Option name="Ctb_ss" modified="No">1.000000e+00</Option>
    <Option name="Cbb" modified="No">1.000000e+00</Option>
    <Option name="NodePurityLimit" modified="No">5.000000e-01</Option>
    <Option name="SeparationType" modified="No">giniindex</Option>
    <Option name="DoBoostMonitor" modified="No">False</Option>
    <Option name="UseFisherCuts" modified="No">False</Option>
    <Option name="MinLinCorrForFisher" modified="No">8.000000e-01</Option>
    <Option name="UseExclusiveVars" modified="No">False</Option>
    <Option name="DoPreselection" modified="No">False</Option>
    <Option name="SigToBkgFraction" modified="No">1.000000e+00</Option>
    <Option name="PruneMethod" modified="No">nopruning</Option>
    <Option name="PruneStrength" modified="No">0.000000e+00</Option>
    <Option name="PruningValFraction" modified="No">5.000000e-01</Option>
    <Option name="nEventsMin" modified="No">0</Option>
    <Option name="UseBaggedGrad" modified="No">False</Option>
    <Option name="GradBaggingFraction" modified="No">5.000000e-01</Option>
    <Option name="UseNTrainEvents" modified="No">0</Option>
    <Option name="NNodesMax" modified="No">0</Option>
  </Options>
  <Variables NVar="13">
    <Variable VarIndex="0" Expression="bjet_pt[0]" Label="bjet_pt[0]" Title="p_{T} 1st bjet" Unit="GeV" Internal="bjet_pt_0_" Type="F" Min="4.01017036e+01" Max="2.40034180e+03"/>
    <Variable VarIndex="1" Expression="ht" Label="ht" Title="H_{T}" Unit="GeV" Internal="ht" Type="F" Min="2.08944229e+02" Max="6.42187500e+03"/>
    <Variable VarIndex="2" Expression="DRl1b1" Label="DRl1b1" Title="#Delta R(l_{1},b_{1})" Unit="" Internal="DRl1b1" Type="F" Min="4.00007725e-01" Max="5.57011175e+00"/>
    <Variable VarIndex="3" Expression="DRlbmaxPT" Label="DRlbmaxPT" Title="DRlbmaxPT" Unit="" Internal="DRlbmaxPT" Type="F" Min="4.00007725e-01" Max="5.57011175e+00"/>
    <Variable VarIndex="4" Expression="DEtaMaxBB" Label="DEtaMaxBB" Title="DEtaMaxBB" Unit="" Internal="DEtaMaxBB" Type="F" Min="3.80991469e-06" Max="4.76933718e+00"/>
    <Variable VarIndex="5" Expression="MassMinlb" Label="MassMinlb" Title="M(lb)^{min}" Unit="GeV" Internal="MassMinlb" Type="F" Min="1.68242092e+01" Max="2.41153784e+03"/>
    <Variable VarIndex="6" Expression="AvCSVPt" Label="AvCSVPt" Title="AvCSVPt" Unit="GeV" Internal="AvCSVPt" Type="F" Min="3.34411114e-02" Max="8.48129034e-01"/>
    <Variable VarIndex="7" Expression="MJJJmaxPt" Label="MJJJmaxPt" Title="M(JJJ)^{max p_{T}}" Unit="GeV" Internal="MJJJmaxPt" Type="F" Min="4.71482964e+01" Max="4.95565186e+03"/>
    <Variable VarIndex="8" Expression="FW2" Label="FW2" Title="Fox-Wolfram moment" Unit="" Internal="FW2" Type="F" Min="2.11732858e-03" Max="9.72314775e-01"/>
    <Variable VarIndex="9" Expression="Cen" Label="Cen" Title="Centrality" Unit="" Internal="Cen" Type="F" Min="2.16708586e-01" Max="9.91238892e-01"/>
    <Variable VarIndex="10" Expression="DRbbmin" Label="DRbbmin" Title="#Delta R(bb)^{min}" Unit="" Internal="DRbbmin" Type="F" Min="3.87250572e-01" Max="5.50607109e+00"/>
    <Variable VarIndex="11" Expression="DRlbmin" Label="DRlbmin" Title="DRlbmin" Unit="" Internal="DRlbmin" Type="F" Min="4.00007725e-01" Max="5.01433039e+00"/>
    <Variable VarIndex="12" Expression="AvDRBB" Label="AvDRBB" Title="&lt;#Delta R(bb)&gt;" Unit="" Internal="AvDRBB" Type="F" Min="7.95023143e-01" Max="1.10121422e+01"/>
  </Variables>
  <Spectators NSpec="5">
    <Spectator SpecIndex="0" Expression="mc" Label="mc" Title="mc" Unit="" Internal="mc" Type="F" Min="1.40000000e+01" Max="1.27000000e+02"/>
    <Spectator SpecIndex="1" Expression="lep_category" Label="lep_category" Title="lep_category" Unit="" Internal="lep_category" Type="F" Min="1.00000000e+00" Max="2.00000000e+00"/>
    <Spectator SpecIndex="2" Expression="run" Label="run" Title="run" Unit="" Internal="run" Type="F" Min="1.00000000e+00" Max="1.00000000e+00"/>
    <Spectator SpecIndex="3" Expression="lumi" Label="lumi" Title="lumi" Unit="" Internal="lumi" Type="F" Min="1.00000000e+00" Max="1.12146800e+06"/>
    <Spectator SpecIndex="4" Expression="evt" Label="evt" Title="evt" Unit="" Internal="evt" Type="F" Min="2.10000000e+01" Max="1.59996144e+08"/>
  </Spectators>
  <Classes NClass="2">
    <Class Name="Signal" Index="0"/>
    <Class Name="Background" Index="1"/>
  </Classes>
  <Transformations NTransformations="0"/>
  <MVAPdfs/>
  <Weights NTrees="500" AnalysisType="1">
    <BinaryTree type="DecisionTree" boostWeight="1.0000000000000000e+00" itree="0">
      <Node pos="s" depth="0" NCoef="0" IVar="1" Cut="1.0965057373046875e+03" cType="1" res="4.7344923950731754e-03" rms="4.9997758865356445e-01" purity="5.0473445653915405e-01" nType="0">
        <Node pos="l" depth="1" NCoef="0" IVar="1" Cut="9.2743603515625000e+02" cType="1" res="-4.6079045534133911e-01" rms="1.9409319758415222e-01" purity="3.9209555834531784e-02" nType="0">
          <Node pos="l" depth="2" NCoef="0" IVar="-1" Cut="0.0000000000000000e+00" cType="1" res="-6.6874310374259949e-02" rms="1.3154497742652893e-01" purity="1.7614347860217094e-02" nType="-99"/>
          <Node pos="r" depth="2" NCoef="0" IVar="-1" Cut="0.0000000000000000e+00" cType="1" res="-1.1656881310045719e-02" rms="4.6046128869056702e-01" purity="3.0512726306915283e-01" nType="-99"/>
        </Node>
        <Node pos="r" depth="1" NCoef="0" IVar="1" Cut="1.3501070556640625e+03" cType="1" res="4.4120565056800842e-01" rms="2.3523941636085510e-01" purity="9.4120568037033081e-01" nType="0">
          <Node pos="l" depth="2" NCoef="0" IVar="-1" Cut="0.0000000000000000e+00" cType="1" res="3.5429843701422215e-03" rms="4.8719719052314758e-01" purity="6.1242288351058960e-01" nType="-99"/>
          <Node pos="r" depth="2" NCoef="0" IVar="-1" Cut="0.0000000000000000e+00" cType="1" res="7.0618130266666412e-03" rms="1.6538432240486145e-01" purity="9.7185599803924561e-01" nType="-99"/>
        </Node>
      </Node>
    </BinaryTree>
    <BinaryTree type="DecisionTree" boostWeight="1.0000000000000000e+00" itree="1">
      <Node pos="s" depth="0" NCoef="0" IVar="1" Cut="1.0965057373046875e+03" cType="1" res="6.7914533428847790e-03" rms="4.8377126455307007e-01" purity="4.9314546585083008e-01" nType="0">
        <Node pos="l" depth="1" NCoef="0" IVar="7" Cut="6.6903863525390625e+02" cType="1" res="-4.4502282142639160e-01" rms="1.4981035888195038e-01" purity="2.3344676941633224e-02" nType="0">
          <Node pos="l" depth="2" NCoef="0" IVar="-1" Cut="0.0000000000000000e+00" cType="1" res="-6.0946572571992874e-02" rms="1.0675540566444397e-01" purity="1.1591523885726929e-02" nType="-99"/>
          <Node pos="r" depth="2" NCoef="0" IVar="-1" Cut="0.0000000000000000e+00" cType="1" res="-1.9682442769408226e-02" rms="3.7000370025634766e-01" purity="1.6728182137012482e-01" nType="-99"/>
        </Node>
        <Node pos="r" depth="1" NCoef="0" IVar="1" Cut="1.3501021728515625e+03" cType="1" res="4.3444368243217468e-01" rms="2.4125687777996063e-01" purity="9.3782228231430054e-01" nType="0">
          <Node pos="l" depth="2" NCoef="0" IVar="-1" Cut="0.0000000000000000e+00" cType="1" res="2.5312411598861217e-03" rms="4.9247750639915466e-01" purity="5.8640563488006592e-01" nType="-99"/>
          <Node pos="r" depth="2" NCoef="0" IVar="-1" Cut="0.0000000000000000e+00" cType="1" res="6.9383704103529453e-03" rms="1.6749052703380585e-01" purity="9.7111243009567261e-01" nType="-99"/>
        </Node>
      </Node>
    </BinaryTree>
    <BinaryTree type="DecisionTree" boostWeight="1.0000000000000000e+00" itree="2">
      <Node pos="s" depth="0" NCoef="0" IVar="1" Cut="1.1035312500000000e+03" cType="1" res="3.9975561201572418e-02" rms="4.6888518333435059e-01" purity="5.1572781801223755e-01" nType="0">
        <Node pos="l" depth="1" NCoef="0" IVar="1" Cut="9.3466717529296875e+02" cType="1" res="-4.1427823901176453e-01" rms="1.5475288033485413e-01" purity="2.5844236835837364e-02" nType="0">
          <Node pos="l" depth="2" NCoef="0" IVar="-1" Cut="0.0000000000000000e+00" cType="1" res="-5.8335367590188980e-02" rms="9.5374919474124908e-02" purity="9.2837987467646599e-03" nType="-99"/>
          <Node pos="r" depth="2" NCoef="0" IVar="-1" Cut="0.0000000000000000e+00" cType="1" res="-1.2474445626139641e-02" rms="4.2830979824066162e-01" purity="2.4683867394924164e-01" nType="-99"/>
        </Node>
        <Node pos="r" depth="1" NCoef="0" IVar="1" Cut="1.3568073730468750e+03" cType="1" res="4.3432083725929260e-01" rms="2.3511810600757599e-01" purity="9.4100397825241089e-01" nType="0">
          <Node pos="l" depth="2" NCoef="0" IVar="-1" Cut="0.0000000000000000e+00" cType="1" res="2.2328495979309082e-03" rms="4.9393084645271301e-01" purity="5.7721388339996338e-01" nType="-99"/>
          <Node pos="r" depth="2" NCoef="0" IVar="-1" Cut="0.0000000000000000e+00" cType="1" res="7.4047665111720562e-03" rms="1.6010528802871704e-01" purity="9.7367322444915771e-01" nType="-99"/>
        </Node>
      </Node>
    </BinaryTree>
    <BinaryTree type="DecisionTree" boostWeight="1.0000000000000000e+00" itree="3">
      <Node pos="s" depth="0" NCoef="0" IVar="1" Cut="1.0827124023437500e+03" cType="1" res="2.9903979972004890e-02" rms="4.5477154850959778e-01" purity="4.9244612455368042e-01" nType="0">
        <Node pos="l" depth="1" NCoef="0" IVar="0" Cut="2.2665039062500000e+02" cType="1" res="-3.9222797751426697e-01" rms="1.3706560432910919e-01" purity="2.0131340250372887e-02" nType="0">
          <Node pos="l" depth="2" NCoef="0" IVar="-1" Cut="0.0000000000000000e+00" cType="1" res="-5.4394222795963287e-02" rms="8.9403048157691956e-02" purity="8.4601240232586861e-03" nType="-99"/>
          <Node pos="r" depth="2" NCoef="0" IVar="-1" Cut="0.0000000000000000e+00" cType="1" res="-3.2096896320581436e-02" rms="2.9368609189987183e-01" purity="9.8783001303672791e-02" nType="-99"/>
        </Node>
        <Node pos="r" depth="1" NCoef="0" IVar="1" Cut="1.3311264648437500e+03" cType="1" res="4.2810818552970886e-01" rms="2.3984971642494202e-01" purity="9.3798869848251343e-01" nType="0">
          <Node pos="l" depth="2" NCoef="0" IVar="-1" Cut="0.0000000000000000e+00" cType="1" res="1.0085640242323279e-03" rms="4.9846112728118896e-01" purity="5.3600722551345825e-01" nType="-99"/>
          <Node pos="r" depth="2" NCoef="0" IVar="-1" Cut="0.0000000000000000e+00" cType="1" res="6.7681618966162205e-03" rms="1.6953872144222260e-01" purity="9.7035121917724609e-01" nType="-99"/>
        </Node>
      </Node>
    </BinaryTree>
    <BinaryTree type="DecisionTree" boostWeight="1.0000000000000000e+00" itree="4">
      <Node pos="s" depth="0" NCoef="0" IVar="1" Cut="1.0981182861328125e+03" cType="1" res="5.3943388164043427e-02" rms="4.4240859150886536e-01" purity="5.0789171457290649e-01" nType="0">
        <Node pos="l" depth="1" NCoef="0" IVar="1" Cut="8.0234881591796875e+02" cType="1" res="-3.6066147685050964e-01" rms="1.5901741385459900e-01" purity="2.7687266469001770e-02" nType="0">
          <Node pos="l" depth="2" NCoef="0" IVar="-1" Cut="0.0000000000000000e+00" cType="1" res="-5.8265089988708496e-02" rms="7.5885623693466187e-02" purity="5.9910379350185394e-03" nType="-99"/>
          <Node pos="r" depth="2" NCoef="0" IVar="-1" Cut="0.0000000000000000e+00" cType="1" res="-1.9380256533622742e-02" rms="3.5617911815643311e-01" purity="1.5349118411540985e-01" nType="-99"/>
        </Node>
        <Node pos="r" depth="1" NCoef="0" IVar="1" Cut="1.3516528320312500e+03" cType="1" res="4.2945662140846252e-01" rms="2.3107206821441650e-01" purity="9.4281929731369019e-01" nType="0">
          <Node pos="l" depth="2" NCoef="0" IVar="-1" Cut="0.0000000000000000e+00" cType="1" res="2.5792017113417387e-03" rms="4.9170669913291931e-01" purity="5.8951157331466675e-01" nType="-99"/>
          <Node pos="r" depth="2" NCoef="0" IVar="-1" Cut="0.0000000000000000e+00" cType="1" res="7.2303405031561852e-03" rms="1.6423697769641876e-01" purity="9.7225350141525269e-01" nType="-99"/>
        </Node>
      </Node>
    </BinaryTree>
    <BinaryTree type="DecisionTree" boostWeight="1.0000000000000000e+00" itree="5">
      <Node pos="s" depth="0" NCoef="0" IVar="1" Cut="1.3923596191406250e+03" cType="1" res="4.7556400299072266e-02" rms="4.3002733588218689e-01" purity="4.8983389139175415e-01" nType="0">
        <Node pos="l" depth="1" NCoef="0" IVar="1" Cut="9.9787152099609375e+02" cType="1" res="-3.0445376038551331e-01" rms="2.3354580998420715e-01" purity="7.2838380932807922e-02" nType="0">
          <Node pos="l" depth="2" NCoef="0" IVar="-1" Cut="0.0000000000000000e+00" cType="1" res="-4.8912156373262405e-02" rms="9.8523639142513275e-02" purity="1.0205768048763275e-02" nType="-99"/>
          <Node pos="r" depth="2" NCoef="0" IVar="-1" Cut="0.0000000000000000e+00" cType="1" res="-2.9013406219746685e-06" rms="4.9458116292953491e-01" purity="4.8730632662773132e-01" nType="-99"/>
        </Node>
        <Node pos="r" depth="1" NCoef="0" IVar="1" Cut="1.6318992919921875e+03" cType="1" res="4.5607134699821472e-01" rms="1.5983147919178009e-01" purity="9.7376567125320435e-01" nType="0">
          <Node pos="l" depth="2" NCoef="0" IVar="-1" Cut="0.0000000000000000e+00" cType="1" res="7.8781060874462128e-03" rms="3.3618846535682678e-01" purity="8.7010443210601807e-01" nType="-99"/>
          <Node pos="r" depth="2" NCoef="0" IVar="-1" Cut="0.0000000000000000e+00" cType="1" res="6.5012671984732151e-03" rms="1.1159084737300873e-01" purity="9.8738843202590942e-01" nType="-99"/>
        </Node>
      </Node>
    </BinaryTree>
    <BinaryTree type="DecisionTree" boostWeight="1.0000000000000000e+00" itree="6">
      <Node pos="s" depth="0" NCoef="0" IVar="1" Cut="1.3921309814453125e+03" cType="1" res="6.8761870265007019e-02" rms="4.1919237375259399e-01" purity="5.0388747453689575e-01" nType="0">
        <Node pos="l" depth="1" NCoef="0" IVar="1" Cut="1.0003368530273438e+03" cType="1" res="-2.8323182463645935e-01" rms="2.3356114327907562e-01" purity="7.3489844799041748e-02" nType="0">
          <Node pos="l" depth="2" NCoef="0" IVar="-1" Cut="0.0000000000000000e+00" cType="1" res="-4.6764995902776718e-02" rms="1.3056519627571106e-01" purity="1.8284393474459648e-02" nType="-99"/>
          <Node pos="r" depth="2" NCoef="0" IVar="-1" Cut="0.0000000000000000e+00" cType="1" res="-4.3829416972585022e-04" rms="4.9296033382415771e-01" purity="4.7210565209388733e-01" nType="-99"/>
        </Node>
        <Node pos="r" depth="1" NCoef="0" IVar="1" Cut="1.6300395507812500e+03" cType="1" res="4.5432639122009277e-01" rms="1.5515770018100739e-01" purity="9.7533345222473145e-01" nType="0">
          <Node pos="l" depth="2" NCoef="0" IVar="-1" Cut="0.0000000000000000e+00" cType="1" res="6.4825392328202724e-03" rms="3.5812723636627197e-01" purity="8.4889775514602661e-01" nType="-99"/>
          <Node pos="r" depth="2" NCoef="0" IVar="-1" Cut="0.0000000000000000e+00" cType="1" res="6.8222992122173309e-03" rms="1.0405804961919785e-01" purity="9.8905229568481445e-01" nType="-99"/>
        </Node>
      </Node>
    </BinaryTree>
    <BinaryTree type="DecisionTree" boostWeight="1.0000000000000000e+00" itree="7">
      <Node pos="s" depth="0" NCoef="0" IVar="1" Cut="1.0914891357421875e+03" cType="1" res="8.4431611001491547e-02" rms="4.0858700871467590e-01" purity="5.1350831985473633e-01" nType="0">
        <Node pos="l" depth="1" NCoef="0" IVar="1" Cut="9.2336743164062500e+02" cType="1" res="-2.9531753063201904e-01" rms="1.5394382178783417e-01" purity="2.7216097339987755e-02" nType="0">
          <Node pos="l" depth="2" NCoef="0" IVar="-1" Cut="0.0000000000000000e+00" cType="1" res="-4.8379339277744293e-02" rms="9.6852928400039673e-02" purity="9.7156688570976257e-03" nType="-99"/>
          <Node pos="r" depth="2" NCoef="0" IVar="-1" Cut="0.0000000000000000e+00" cType="1" res="-9.2067075893282890e-03" rms="4.3081247806549072e-01" purity="2.4997340142726898e-01" nType="-99"/>
        </Node>
        <Node pos="r" depth="1" NCoef="0" IVar="1" Cut="1.3437077636718750e+03" cType="1" res="4.1739192605018616e-01" rms="2.3502105474472046e-01" purity="9.3988460302352905e-01" nType="0">
          <Node pos="l" depth="2" NCoef="0" IVar="-1" Cut="0.0000000000000000e+00" cType="1" res="3.1878489535301924e-03" rms="4.8885044455528259e-01" purity="6.0222941637039185e-01" nType="-99"/>
          <Node pos="r" depth="2" NCoef="0" IVar="-1" Cut="0.0000000000000000e+00" cType="1" res="7.0051522925496101e-03" rms="1.6477133333683014e-01" purity="9.7201818227767944e-01" nType="-99"/>
        </Node>
      </Node>
    </BinaryTree>
    <BinaryTree type="DecisionTree" boostWeight="1.0000000000000000e+00" itree="8">
      <Node pos="s" depth="0" NCoef="0" IVar="1" Cut="1.3988198242187500e+03" cType="1" res="8.8200591504573822e-02" rms="3.9783525466918945e-01" purity="5.0894016027450562e-01" nType="0">
        <Node pos="l" depth="1" NCoef="0" IVar="1" Cut="1.1173946533203125e+03" cType="1" res="-2.5005882978439331e-01" rms="2.2190967202186584e-01" purity="7.0512101054191589e-02" nType="0">
          <Node pos="l" depth="2" NCoef="0" IVar="-1" Cut="0.0000000000000000e+00" cType="1" res="-3.8934487849473953e-02" rms="1.4452902972698212e-01" purity="2.3163478821516037e-02" nType="-99"/>
          <Node pos="r" depth="2" NCoef="0" IVar="-1" Cut="0.0000000000000000e+00" cType="1" res="2.0452905446290970e-03" rms="4.9092140793800354e-01" purity="5.9237593412399292e-01" nType="-99"/>
        </Node>
        <Node pos="r" depth="1" NCoef="0" IVar="1" Cut="1.6380677490234375e+03" cType="1" res="4.5006388425827026e-01" rms="1.4683750271797180e-01" purity="9.7796183824539185e-01" nType="0">
          <Node pos="l" depth="2" NCoef="0" IVar="-1" Cut="0.0000000000000000e+00" cType="1" res="9.2267692089080811e-03" rms="2.8764629364013672e-01" purity="9.0897780656814575e-01" nType="-99"/>
          <Node pos="r" depth="2" NCoef="0" IVar="-1" Cut="0.0000000000000000e+00" cType="1" res="6.8357498385012150e-03" rms="1.1000362783670425e-01" purity="9.8774915933609009e-01" nType="-99"/>
        </Node>
      </Node>
    </BinaryTree>
    <BinaryTree type="DecisionTree" boostWeight="1.0000000000000000e+00" itree="9">
      <Node pos="s" depth="0" NCoef="0" IVar="1" Cut="1.3702779541015625e+03" cType="1" res="8.3835810422897339e-02" rms="3.9002543687820435e-01" purity="4.9518236517906189e-01" nType="0">
        <Node pos="l" depth="1" NCoef="0" IVar="1" Cut="1.0942119140625000e+03" cType="1" res="-2.3477497696876526e-01" rms="2.2059535980224609e-01" purity="6.9644406437873840e-02" nType="0">
          <Node pos="l" depth="2" NCoef="0" IVar="-1" Cut="0.0000000000000000e+00" cType="1" res="-3.8895122706890106e-02" rms="1.5267518162727356e-01" purity="2.6143129914999008e-02" nType="-99"/>
          <Node pos="r" depth="2" NCoef="0" IVar="-1" Cut="0.0000000000000000e+00" cType="1" res="1.7146285390481353e-03" rms="4.9365597963333130e-01" purity="5.6936603784561157e-01" nType="-99"/>
        </Node>
        <Node pos="r" depth="1" NCoef="0" IVar="1" Cut="1.6050877685546875e+03" cType="1" res="4.4150304794311523e-01" rms="1.6241025924682617e-01" purity="9.7288435697555542e-01" nType="0">
          <Node pos="l" depth="2" NCoef="0" IVar="-1" Cut="0.0000000000000000e+00" cType="1" res="7.1555576287209988e-03" rms="3.4318256378173828e-01" purity="8.6326110363006592e-01" nType="-99"/>
          <Node pos="r" depth="2" NCoef="0" IVar="-1" Cut="0.0000000000000000e+00" cType="1" res="6.5869027748703957e-03" rms="1.1650125682353973e-01" purity="9.8624199628829956e-01" nType="-99"/>
        </Node>
      </Node>
    </BinaryTree>
    <BinaryTree type="DecisionTree" boostWeight="1.0000000000000000e+00" itree="10">
      <Node pos="s" depth="0" NCoef="0" IVar="1" Cut="1.3923596191406250e+03" cType="1" res="8.5482358932495117e-02" rms="3.8215166330337524e-01" purity="4.8914340138435364e-01" nType="0">
        <Node pos="l" depth="1" NCoef="0" IVar="1" Cut="9.9786859130859375e+02" cType="1" res="-2.1590095758438110e-01" rms="2.2762592136859894e-01" purity="7.6655998826026917e-02" nType="0">
          <Node pos="l" depth="2" NCoef="0" IVar="-1" Cut="0.0000000000000000e+00" cType="1" res="-4.2570687830448151e-02" rms="1.2348897010087967e-01" purity="1.6184229403734207e-02" nType="-99"/>
          <Node pos="r" depth="2" NCoef="0" IVar="-1" Cut="0.0000000000000000e+00" cType="1" res="8.0649083247408271e-04" rms="4.9155265092849731e-01" purity="4.9982908368110657e-01" nType="-99"/>
        </Node>
        <Node pos="r" depth="1" NCoef="0" IVar="1" Cut="1.6318992919921875e+03" cType="1" res="4.4113308191299438e-01" rms="1.5348635613918304e-01" purity="9.7590368986129761e-01" nType="0">
          <Node pos="l" depth="2" NCoef="0" IVar="-1" Cut="0.0000000000000000e+00" cType="1" res="8.2741435617208481e-03" rms="3.1439721584320068e-01" purity="8.8877588510513306e-01" nType="-99"/>
          <Node pos="r" depth="2" NCoef="0" IVar="-1" Cut="0.0000000000000000e+00" cType="1" res="6.2239421531558037e-03" rms="1.0771566629409790e-01" purity="9.8826044797897339e-01" nType="-99"/>
        </Node>
      </Node>
    </BinaryTree>
    <BinaryTree type="DecisionTree" boostWeight="1.0000000000000000e+00" itree="11">
      <Node pos="s" depth="0" NCoef="0" IVar="1" Cut="1.3688498535156250e+03" cType="1" res="9.8459027707576752e-02" rms="3.7348797917366028e-01" purity="4.9837616086006165e-01" nType="0">
        <Node pos="l" depth="1" NCoef="0" IVar="1" Cut="9.8466906738281250e+02" cType="1" res="-2.0039950311183929e-01" rms="2.2407193481922150e-01" purity="7.7492445707321167e-02" nType="0">
          <Node pos="l" depth="2" NCoef="0" IVar="-1" Cut="0.0000000000000000e+00" cType="1" res="-4.1723720729351044e-02" rms="1.0286507755517960e-01" purity="1.0848657228052616e-02" nType="-99"/>
          <Node pos="r" depth="2" NCoef="0" IVar="-1" Cut="0.0000000000000000e+00" cType="1" res="1.8094237893819809e-03" rms="4.8860278725624084e-01" purity="5.1635867357254028e-01" nType="-99"/>
        </Node>
        <Node pos="r" depth="1" NCoef="0" IVar="1" Cut="1.6021180419921875e+03" cType="1" res="4.3607118725776672e-01" rms="1.5961158275604248e-01" purity="9.7383677959442139e-01" nType="0">
          <Node pos="l" depth="2" NCoef="0" IVar="-1" Cut="0.0000000000000000e+00" cType="1" res="6.7235906608402729e-03" rms="3.5896128416061401e-01" purity="8.4757900238037109e-01" nType="-99"/>
          <Node pos="r" depth="2" NCoef="0" IVar="-1" Cut="0.0000000000000000e+00" cType="1" res="6.5654003992676735e-03" rms="1.0921142250299454e-01" purity="9.8793077468872070e-01" nType="-99"/>
        </Node>
      </Node>
    </BinaryTree>
    <BinaryTree type="DecisionTree" boostWeight="1.0000000000000000e+00" itree="12">
      <Node pos="s" depth="0" NCoef="0" IVar="1" Cut="1.3988198242187500e+03" cType="1" res="1.0103303939104080e-01" rms="3.6612018942832947e-01" purity="4.9542897939682007e-01" nType="0">
        <Node pos="l" depth="1" NCoef="0" IVar="1" Cut="1.0610946044921875e+03" cType="1" res="-1.9004538655281067e-01" rms="2.2086082398891449e-01" purity="7.6530180871486664e-02" nType="0">
          <Node pos="l" depth="2" NCoef="0" IVar="-1" Cut="0.0000000000000000e+00" cType="1" res="-3.7181403487920761e-02" rms="1.2660573422908783e-01" purity="1.7979484051465988e-02" nType="-99"/>
          <Node pos="r" depth="2" NCoef="0" IVar="-1" Cut="0.0000000000000000e+00" cType="1" res="1.7829105490818620e-03" rms="4.9530833959579468e-01" purity="5.5293226242065430e-01" nType="-99"/>
        </Node>
        <Node pos="r" depth="1" NCoef="0" IVar="1" Cut="1.6380992431640625e+03" cType="1" res="4.3544840812683105e-01" rms="1.5109033882617950e-01" purity="9.7669523954391479e-01" nType="0">
          <Node pos="l" depth="2" NCoef="0" IVar="-1" Cut="0.0000000000000000e+00" cType="1" res="7.8035108745098114e-03" rms="3.1462347507476807e-01" purity="8.8861483335494995e-01" nType="-99"/>
          <Node pos="r" depth="2" NCoef="0" IVar="-1" Cut="0.0000000000000000e+00" cType="1" res="6.2923571094870567e-03" rms="1.0327637195587158e-01" purity="9.8921775817871094e-01" nType="-99"/>
        </Node>
      </Node>
    </BinaryTree>
    <BinaryTree type="DecisionTree" boostWeight="1.0000000000000000e+00" itree="13">
      <Node pos="s" depth="0" NCoef="0" IVar="1" Cut="1.3702779541015625e+03" cType="1" res="1.0919899493455887e-01" rms="3.6068984866142273e-01" purity="4.9850887060165405e-01" nType="0">
        <Node pos="l" depth="1" NCoef="0" IVar="1" Cut="1.0942097167968750e+03" cType="1" res="-1.7173974215984344e-01" rms="2.2929327189922333e-01" purity="8.1048011779785156e-02" nType="0">
          <Node pos="l" depth="2" NCoef="0" IVar="-1" Cut="0.0000000000000000e+00" cType="1" res="-3.3581566065549850e-02" rms="1.6340561211109161e-01" purity="2.9605818912386894e-02" nType="-99"/>
          <Node pos="r" depth="2" NCoef="0" IVar="-1" Cut="0.0000000000000000e+00" cType="1" res="2.6030109729617834e-03" rms="4.8812726140022278e-01" purity="6.0024255514144897e-01" nType="-99"/>
        </Node>
        <Node pos="r" depth="1" NCoef="0" IVar="1" Cut="1.6049692382812500e+03" cType="1" res="4.2820143699645996e-01" rms="1.6352200508117676e-01" purity="9.7253042459487915e-01" nType="0">
          <Node pos="l" depth="2" NCoef="0" IVar="-1" Cut="0.0000000000000000e+00" cType="1" res="6.5035456791520119e-03" rms="3.5264033079147339e-01" purity="8.5385066270828247e-01" nType="-99"/>
          <Node pos="r" depth="2" NCoef="0" IVar="-1" Cut="0.0000000000000000e+00" cType="1" res="6.4734369516372681e-03" rms="1.1462206393480301e-01" purity="9.8669260740280151e-01" nType="-99"/>
        </Node>
      </Node>
    </BinaryTree>
    <BinaryTree type="DecisionTree" boostWeight="1.0000000000000000e+00" itree="14">
      <Node pos="s" depth="0" NCoef="0" IVar="1" Cut="1.3508874511718750e+03" cType="1" res="1.1676621437072754e-01" rms="3.5402402281761169e-01" purity="5.0301426649093628e-01" nType="0">
        <Node pos="l" depth="1" NCoef="0" IVar="1" Cut="9.7270642089843750e+02" cType="1" res="-1.5983122587203979e-01" rms="2.2871230542659760e-01" purity="8.2520022988319397e-02" nType="0">
          <Node pos="l" depth="2" NCoef="0" IVar="-1" Cut="0.0000000000000000e+00" cType="1" res="-3.8588639348745346e-02" rms="1.3042840361595154e-01" purity="1.7657697200775146e-02" nType="-99"/>
          <Node pos="r" depth="2" NCoef="0" IVar="-1" Cut="0.0000000000000000e+00" cType="1" res="2.0911993924528360e-03" rms="4.8377141356468201e-01" purity="5.1403373479843140e-01" nType="-99"/>
        </Node>
        <Node pos="r" depth="1" NCoef="0" IVar="1" Cut="1.5805589599609375e+03" cType="1" res="4.2642411589622498e-01" rms="1.5983213484287262e-01" purity="9.7376835346221924e-01" nType="0">
          <Node pos="l" depth="2" NCoef="0" IVar="-1" Cut="0.0000000000000000e+00" cType="1" res="6.7335907369852066e-03" rms="3.5013321042060852e-01" purity="8.5674113035202026e-01" nType="-99"/>
          <Node pos="r" depth="2" NCoef="0" IVar="-1" Cut="0.0000000000000000e+00" cType="1" res="6.4613912254571915e-03" rms="1.1435193568468094e-01" purity="9.8676407337188721e-01" nType="-99"/>
        </Node>
      </Node>
    </BinaryTree>
    <BinaryTree type="DecisionTree" boostWeight="1.0000000000000000e+00" itree="15">
      <Node pos="s" depth="0" NCoef="0" IVar="1" Cut="1.3643717041015625e+03" cType="1" res="1.1324770003557205e-01" rms="3.4815362095832825e-01" purity="4.9481138586997986e-01" nType="0">
        <Node pos="l" depth="1" NCoef="0" IVar="7" Cut="9.1080407714843750e+02" cType="1" res="-1.6192887723445892e-01" rms="2.1118842065334320e-01" purity="6.8569071590900421e-02" nType="0">
          <Node pos="l" depth="2" NCoef="0" IVar="-1" Cut="0.0000000000000000e+00" cType="1" res="-2.7569217607378960e-02" rms="1.6524353623390198e-01" purity="3.7941396236419678e-02" nType="-99"/>
          <Node pos="r" depth="2" NCoef="0" IVar="-1" Cut="0.0000000000000000e+00" cType="1" res="7.3521542362868786e-03" rms="4.4563066959381104e-01" purity="5.5159121751785278e-01" nType="-99"/>
        </Node>
        <Node pos="r" depth="1" NCoef="0" IVar="1" Cut="1.8313369140625000e+03" cType="1" res="4.2123359441757202e-01" rms="1.6537767648696899e-01" purity="9.7187459468841553e-01" nType="0">
          <Node pos="l" depth="2" NCoef="0" IVar="-1" Cut="0.0000000000000000e+00" cType="1" res="6.7171249538660049e-03" rms="3.0203744769096375e-01" purity="8.9836120605468750e-01" nType="-99"/>
          <Node pos="r" depth="2" NCoef="0" IVar="-1" Cut="0.0000000000000000e+00" cType="1" res="6.0099931433796883e-03" rms="8.4044210612773895e-02" purity="9.9288594722747803e-01" nType="-99"/>
        </Node>
      </Node>
    </BinaryTree>
    <BinaryTree type="DecisionTree" boostWeight="1.0000000000000000e+00" itree="16">
      <Node pos="s" depth="0" NCoef="0" IVar="1" Cut="1.3938824462890625e+03" cType="1" res="1.1550227552652359e-01" rms="3.4254971146583557e-01" purity="4.9244245886802673e-01" nType="0">
        <Node pos="l" depth="1" NCoef="0" IVar="7" Cut="8.0713000488281250e+02" cType="1" res="-1.4900720119476318e-01" rms="2.1608270704746246e-01" purity="7.4511222541332245e-02" nType="0">
          <Node pos="l" depth="2" NCoef="0" IVar="-1" Cut="0.0000000000000000e+00" cType="1" res="-2.5662906467914581e-02" rms="1.6319625079631805e-01" purity="3.7135954946279526e-02" nType="-99"/>
          <Node pos="r" depth="2" NCoef="0" IVar="-1" Cut="0.0000000000000000e+00" cType="1" res="5.3568142466247082e-03" rms="4.3973395228385925e-01" purity="4.9466860294342041e-01" nType="-99"/>
        </Node>
        <Node pos="r" depth="1" NCoef="0" IVar="1" Cut="1.6334296875000000e+03" cType="1" res="4.2049193382263184e-01" rms="1.5845979750156403e-01" purity="9.7433334589004517e-01" nType="0">
          <Node pos="l" depth="2" NCoef="0" IVar="-1" Cut="0.0000000000000000e+00" cType="1" res="5.5643459782004356e-03" rms="3.5283178091049194e-01" purity="8.5426259040832520e-01" nType="-99"/>
          <Node pos="r" depth="2" NCoef="0" IVar="-1" Cut="0.0000000000000000e+00" cType="1" res="6.1423387378454208e-03" rms="1.1079538613557816e-01" purity="9.8757290840148926e-01" nType="-99"/>
        </Node>
      </Node>
    </BinaryTree>
    <BinaryTree type="DecisionTree" boostWeight="1.0000000000000000e+00" itree="17">
      <Node pos="s" depth="0" NCoef="0" IVar="1" Cut="1.3938824462890625e+03" cType="1" res="1.2450224161148071e-01" rms="3.3662471175193787e-01" purity="5.0205999612808228e-01" nType="0">
        <Node pos="l" depth="1" NCoef="0" IVar="1" Cut="1.0558161621093750e+03" cType="1" res="-1.3592530786991119e-01" rms="2.1967543661594391e-01" purity="8.3251714706420898e-02" nType="0">
          <Node pos="l" depth="2" NCoef="0" IVar="-1" Cut="0.0000000000000000e+00" cType="1" res="-3.3536534756422043e-02" rms="1.2690997123718262e-01" purity="1.8244575709104538e-02" nType="-99"/>
          <Node pos="r" depth="2" NCoef="0" IVar="-1" Cut="0.0000000000000000e+00" cType="1" res="3.3663082867860794e-03" rms="4.8171895742416382e-01" purity="5.8927202224731445e-01" nType="-99"/>
        </Node>
        <Node pos="r" depth="1" NCoef="0" IVar="1" Cut="1.8727613525390625e+03" cType="1" res="4.1938528418540955e-01" rms="1.5241704881191254e-01" purity="9.7627812623977661e-01" nType="0">
          <Node pos="l" depth="2" NCoef="0" IVar="-1" Cut="0.0000000000000000e+00" cType="1" res="6.9476822391152382e-03" rms="2.6718404889106750e-01" purity="9.2273133993148804e-01" nType="-99"/>
          <Node pos="r" depth="2" NCoef="0" IVar="-1" Cut="0.0000000000000000e+00" cType="1" res="6.1675012111663818e-03" rms="8.7565824389457703e-02" purity="9.9227255582809448e-01" nType="-99"/>
        </Node>
      </Node>
    </BinaryTree>
    <BinaryTree type="DecisionTree" boostWeight="1.0000000000000000e+00" itree="18">
      <Node pos="s" depth="0" NCoef="0" IVar="1" Cut="1.4001740722656250e+03" cType="1" res="1.3207113742828369e-01" rms="3.3367243409156799e-01" purity="5.0925195217132568e-01" nType="0">
        <Node pos="l" depth="1" NCoef="0" IVar="1" Cut="1.1187492675781250e+03" cType="1" res="-1.2577009201049805e-01" rms="2.2581544518470764e-01" purity="8.4579311311244965e-02" nType="0">
          <Node pos="l" depth="2" NCoef="0" IVar="-1" Cut="0.0000000000000000e+00" cType="1" res="-2.9864255338907242e-02" rms="1.6289153695106506e-01" purity="3.1155131757259369e-02" nType="-99"/>
          <Node pos="r" depth="2" NCoef="0" IVar="-1" Cut="0.0000000000000000e+00" cType="1" res="3.5799534525722265e-03" rms="4.8089092969894409e-01" purity="6.2913185358047485e-01" nType="-99"/>
        </Node>
        <Node pos="r" depth="1" NCoef="0" IVar="1" Cut="1.6394864501953125e+03" cType="1" res="4.1467899084091187e-01" rms="1.5729954838752747e-01" purity="9.7471600770950317e-01" nType="0">
          <Node pos="l" depth="2" NCoef="0" IVar="-1" Cut="0.0000000000000000e+00" cType="1" res="7.5912447646260262e-03" rms="3.2155197858810425e-01" purity="8.8290917873382568e-01" nType="-99"/>
          <Node pos="r" depth="2" NCoef="0" IVar="-1" Cut="0.0000000000000000e+00" cType="1" res="6.5733841620385647e-03" rms="1.1355476826429367e-01" purity="9.8694109916687012e-01" nType="-99"/>
        </Node>
      </Node>
    </BinaryTree>
    <BinaryTree type="DecisionTree" boostWeight="1.0000000000000000e+00" itree="19">
      <Node pos="s" depth="0" NCoef="0" IVar="1" Cut="1.3628488769531250e+03" cType="1" res="1.2894329428672791e-01" rms="3.2669511437416077e-01" purity="5.0295978784561157e-01" nType="0">
        <Node pos="l" depth="1" NCoef="0" IVar="7" Cut="8.0670465087890625e+02" cType="1" res="-1.3394404947757721e-01" rms="1.9885665178298950e-01" purity="6.3983812928199768e-02" nType="0">
          <Node pos="l" depth="2" NCoef="0" IVar="-1" Cut="0.0000000000000000e+00" cType="1" res="-2.5100855156779289e-02" rms="1.4840416610240936e-01" purity="3.1661257147789001e-02" nType="-99"/>
          <Node pos="r" depth="2" NCoef="0" IVar="-1" Cut="0.0000000000000000e+00" cType="1" res="4.7714002430438995e-03" rms="4.3941617012023926e-01" purity="4.6269068121910095e-01" nType="-99"/>
        </Node>
        <Node pos="r" depth="1" NCoef="0" IVar="1" Cut="1.5963823242187500e+03" cType="1" res="4.1118037700653076e-01" rms="1.5813381969928741e-01" purity="9.7424644231796265e-01" nType="0">
          <Node pos="l" depth="2" NCoef="0" IVar="-1" Cut="0.0000000000000000e+00" cType="1" res="4.7318716533482075e-03" rms="3.6879229545593262e-01" purity="8.3469027280807495e-01" nType="-99"/>
          <Node pos="r" depth="2" NCoef="0" IVar="-1" Cut="0.0000000000000000e+00" cType="1" res="6.5084835514426231e-03" rms="1.1607968807220459e-01" purity="9.8635834455490112e-01" nType="-99"/>
        </Node>
      </Node>
    </BinaryTree>
    <BinaryTree type="DecisionTree" boostWeight="1.0000000000000000e+00" itree="20">
      <Node pos="s" depth="0" NCoef="0" IVar="1" Cut="1.3923596191406250e+03" cType="1" res="1.3225585222244263e-01" rms="3.2300433516502380e-01" purity="5.0341558456420898e-01" nType="0">
        <Node pos="l" depth="1" NCoef="0" IVar="7" Cut="8.0620886230468750e+02" cType="1" res="-1.1988507211208344e-01" rms="2.1161639690399170e-01" purity="7.4381768703460693e-02" nType="0">
          <Node pos="l" depth="2" NCoef="0" IVar="-1" Cut="0.0000000000000000e+00" cType="1" res="-2.2256782278418541e-02" rms="1.6786538064479828e-01" purity="4.0767367929220200e-02" nType="-99"/>
          <Node pos="r" depth="2" NCoef="0" IVar="-1" Cut="0.0000000000000000e+00" cType="1" res="4.3702879920601845e-03" rms="4.3328735232353210e-01" purity="4.7630113363265991e-01" nType="-99"/>
        </Node>
        <Node pos="r" depth="1" NCoef="0" IVar="1" Cut="1.6319047851562500e+03" cType="1" res="4.1070330142974854e-01" rms="1.4951308071613312e-01" purity="9.7721177339553833e-01" nType="0">
          <Node pos="l" depth="2" NCoef="0" IVar="-1" Cut="0.0000000000000000e+00" cType="1" res="8.5524246096611023e-03" rms="3.0473464727401733e-01" purity="8.9636904001235962e-01" nType="-99"/>
          <Node pos="r" depth="2" NCoef="0" IVar="-1" Cut="0.0000000000000000e+00" cType="1" res="6.0463412664830685e-03" rms="1.0222034156322479e-01" purity="9.8944795131683350e-01" nType="-99"/>
        </Node>
      </Node>
    </BinaryTree>
    <BinaryTree type="DecisionTree" boostWeight="1.0000000000000000e+00" itree="21">
      <Node pos="s" depth="0" NCoef="0" IVar="1" Cut="1.3938824462890625e+03" cType="1" res="1.3810934126377106e-01" rms="3.2085883617401123e-01" purity="5.0925546884536743e-01" nType="0">
        <Node pos="l" depth="1" NCoef="0" IVar="0" Cut="3.4972256469726562e+02" cType="1" res="-1.0705862939357758e-01" rms="2.2435688972473145e-01" purity="8.4057897329330444e-02" nType="0">
          <Node pos="l" depth="2" NCoef="0" IVar="-1" Cut="0.0000000000000000e+00" cType="1" res="-2.1227758377790451e-02" rms="1.8107651174068451e-01" purity="4.8232767730951309e-02" nType="-99"/>
          <Node pos="r" depth="2" NCoef="0" IVar="-1" Cut="0.0000000000000000e+00" cType="1" res="7.6334010809659958e-03" rms="4.4431558251380920e-01" purity="5.5451637506484985e-01" nType="-99"/>
        </Node>
        <Node pos="r" depth="1" NCoef="0" IVar="1" Cut="1.6333342285156250e+03" cType="1" res="4.0836802124977112e-01" rms="1.4714232087135315e-01" purity="9.7796815633773804e-01" nType="0">
          <Node pos="l" depth="2" NCoef="0" IVar="-1" Cut="0.0000000000000000e+00" cType="1" res="8.3105405792593956e-03" rms="2.9326385259628296e-01" purity="9.0500074625015259e-01" nType="-99"/>
          <Node pos="r" depth="2" NCoef="0" IVar="-1" Cut="0.0000000000000000e+00" cType="1" res="6.2598008662462234e-03" rms="1.0760538280010223e-01" purity="9.8829180002212524e-01" nType="-99"/>
        </Node>
      </Node>
    </BinaryTree>
    <BinaryTree type="DecisionTree" boostWeight="1.0000000000000000e+00" itree="22">
      <Node pos="s" depth="0" NCoef="0" IVar="1" Cut="1.1004157714843750e+03" cType="1" res="1.3277634978294373e-01" rms="3.1955122947692871e-01" purity="4.9563029408454895e-01" nType="0">
        <Node pos="l" depth="1" NCoef="0" IVar="7" Cut="6.6305395507812500e+02" cType="1" res="-1.1710982024669647e-01" rms="1.7663888633251190e-01" purity="3.8153681904077530e-02" nType="0">
          <Node pos="l" depth="2" NCoef="0" IVar="-1" Cut="0.0000000000000000e+00" cType="1" res="-3.3930879086256027e-02" rms="1.2275358289480209e-01" purity="1.5995629131793976e-02" nType="-99"/>
          <Node pos="r" depth="2" NCoef="0" IVar="-1" Cut="0.0000000000000000e+00" cType="1" res="4.3089422397315502e-03" rms="4.0755701065063477e-01" purity="2.6081058382987976e-01" nType="-99"/>
        </Node>
        <Node pos="r" depth="1" NCoef="0" IVar="1" Cut="1.6072694091796875e+03" cType="1" res="3.7534689903259277e-01" rms="2.2692105174064636e-01" purity="9.3971401453018188e-01" nType="0">
          <Node pos="l" depth="2" NCoef="0" IVar="-1" Cut="0.0000000000000000e+00" cType="1" res="4.6631409786641598e-03" rms="4.2957431077957153e-01" purity="7.3022139072418213e-01" nType="-99"/>
          <Node pos="r" depth="2" NCoef="0" IVar="-1" Cut="0.0000000000000000e+00" cType="1" res="5.9798657894134521e-03" rms="1.2261807173490524e-01" purity="9.8475205898284912e-01" nType="-99"/>
        </Node>
      </Node>
    </BinaryTree>
    <BinaryTree type="DecisionTree" boostWeight="1.0000000000000000e+00" itree="23">
      <Node pos="s" depth="0" NCoef="0" IVar="1" Cut="1.3938824462890625e+03" cType="1" res="1.4879931509494781e-01" rms="3.1295475363731384e-01" purity="5.1997721195220947e-01" nType="0">
        <Node pos="l" depth="1" NCoef="0" IVar="1" Cut="9.4316815185546875e+02" cType="1" res="-8.9002437889575958e-02" rms="2.3033623397350311e-01" purity="9.1203726828098297e-02" nType="0">
          <Node pos="l" depth="2" NCoef="0" IVar="-1" Cut="0.0000000000000000e+00" cType="1" res="-3.3852420747280121e-02" rms="1.2713164091110229e-01" purity="1.7274079844355583e-02" nType="-99"/>
          <Node pos="r" depth="2" NCoef="0" IVar="-1" Cut="0.0000000000000000e+00" cType="1" res="3.1548442784696817e-03" rms="4.6624997258186340e-01" purity="4.9143567681312561e-01" nType="-99"/>
        </Node>
        <Node pos="r" depth="1" NCoef="0" IVar="1" Cut="1.6333315429687500e+03" cType="1" res="4.0338948369026184e-01" rms="1.4365689456462860e-01" purity="9.7902148962020874e-01" nType="0">
          <Node pos="l" depth="2" NCoef="0" IVar="-1" Cut="0.0000000000000000e+00" cType="1" res="8.2517638802528381e-03" rms="2.8540396690368652e-01" purity="9.1051769256591797e-01" nType="-99"/>
          <Node pos="r" depth="2" NCoef="0" IVar="-1" Cut="0.0000000000000000e+00" cType="1" res="6.3577569089829922e-03" rms="1.0542549937963486e-01" purity="9.8876661062240601e-01" nType="-99"/>
        </Node>
      </Node>
    </BinaryTree>
    <BinaryTree type="DecisionTree" boostWeight="1.0000000000000000e+00" itree="24">
      <Node pos="s" depth="0" NCoef="0" IVar="1" Cut="1.3921309814453125e+03" cType="1" res="1.3527283072471619e-01" rms="3.0975341796875000e-01" purity="4.9571141600608826e-01" nType="0">
        <Node pos="l" depth="1" NCoef="0" IVar="1" Cut="1.0562947998046875e+03" cType="1" res="-8.9064031839370728e-02" rms="2.2054372727870941e-01" purity="8.3830550312995911e-02" nType="0">
          <Node pos="l" depth="2" NCoef="0" IVar="-1" Cut="0.0000000000000000e+00" cType="1" res="-2.9679151251912117e-02" rms="1.4255869388580322e-01" purity="2.1501436829566956e-02" nType="-99"/>
          <Node pos="r" depth="2" NCoef="0" IVar="-1" Cut="0.0000000000000000e+00" cType="1" res="3.3627902157604694e-03" rms="4.7914916276931763e-01" purity="5.7227826118469238e-01" nType="-99"/>
        </Node>
        <Node pos="r" depth="1" NCoef="0" IVar="1" Cut="1.8678577880859375e+03" cType="1" res="3.9649692177772522e-01" rms="1.5554197132587433e-01" purity="9.7531694173812866e-01" nType="0">
          <Node pos="l" depth="2" NCoef="0" IVar="-1" Cut="0.0000000000000000e+00" cType="1" res="6.2025967054069042e-03" rms="2.7831554412841797e-01" purity="9.1546154022216797e-01" nType="-99"/>
          <Node pos="r" depth="2" NCoef="0" IVar="-1" Cut="0.0000000000000000e+00" cType="1" res="5.8408468030393124e-03" rms="8.6575925350189209e-02" purity="9.9244767427444458e-01" nType="-99"/>
        </Node>
      </Node>
    </BinaryTree>
    <BinaryTree type="DecisionTree" boostWeight="1.0000000000000000e+00" itree="25">
      <Node pos="s" depth="0" NCoef="0" IVar="1" Cut="1.3938824462890625e+03" cType="1" res="1.3606359064579010e-01" rms="3.0343273282051086e-01" purity="4.9279123544692993e-01" nType="0">
        <Node pos="l" depth="1" NCoef="0" IVar="5" Cut="2.4787864685058594e+02" cType="1" res="-8.1155747175216675e-02" rms="2.1775795519351959e-01" purity="8.8183350861072540e-02" nType="0">
          <Node pos="l" depth="2" NCoef="0" IVar="-1" Cut="0.0000000000000000e+00" cType="1" res="-1.6890063881874084e-02" rms="1.8813347816467285e-01" purity="5.9776268899440765e-02" nType="-99"/>
          <Node pos="r" depth="2" NCoef="0" IVar="-1" Cut="0.0000000000000000e+00" cType="1" res="1.1120148934423923e-02" rms="3.7643143534660339e-01" purity="5.6356918811798096e-01" nType="-99"/>
        </Node>
        <Node pos="r" depth="1" NCoef="0" IVar="1" Cut="1.8727561035156250e+03" cType="1" res="3.9692282676696777e-01" rms="1.4485850930213928e-01" purity="9.7868579626083374e-01" nType="0">
          <Node pos="l" depth="2" NCoef="0" IVar="-1" Cut="0.0000000000000000e+00" cType="1" res="6.2754270620644093e-03" rms="2.6090934872627258e-01" purity="9.2663955688476562e-01" nType="-99"/>
          <Node pos="r" depth="2" NCoef="0" IVar="-1" Cut="0.0000000000000000e+00" cType="1" res="5.6428452953696251e-03" rms="7.2457492351531982e-02" purity="9.9472206830978394e-01" nType="-99"/>
        </Node>
      </Node>
    </BinaryTree>
    <BinaryTree type="DecisionTree" boostWeight="1.0000000000000000e+00" itree="26">
      <Node pos="s" depth="0" NCoef="0" IVar="1" Cut="1.3893635253906250e+03" cType="1" res="1.4845572412014008e-01" rms="3.0122289061546326e-01" purity="5.1086360216140747e-01" nType="0">
        <Node pos="l" depth="1" NCoef="0" IVar="5" Cut="2.4110110473632812e+02" cType="1" res="-7.6685488224029541e-02" rms="2.2174119949340820e-01" purity="8.3393819630146027e-02" nType="0">
          <Node pos="l" depth="2" NCoef="0" IVar="-1" Cut="0.0000000000000000e+00" cType="1" res="-1.5947056934237480e-02" rms="1.9432908296585083e-01" purity="5.9092130511999130e-02" nType="-99"/>
          <Node pos="r" depth="2" NCoef="0" IVar="-1" Cut="0.0000000000000000e+00" cType="1" res="9.4006704166531563e-03" rms="3.9731809496879578e-01" purity="4.9508652091026306e-01" nType="-99"/>
        </Node>
        <Node pos="r" depth="1" NCoef="0" IVar="1" Cut="1.8653072509765625e+03" cType="1" res="3.9554226398468018e-01" rms="1.4025610685348511e-01" purity="9.8000043630599976e-01" nType="0">
          <Node pos="l" depth="2" NCoef="0" IVar="-1" Cut="0.0000000000000000e+00" cType="1" res="7.2395037859678268e-03" rms="2.4761733412742615e-01" purity="9.3432086706161499e-01" nType="-99"/>
          <Node pos="r" depth="2" NCoef="0" IVar="-1" Cut="0.0000000000000000e+00" cType="1" res="6.0978573746979237e-03" rms="7.4029490351676941e-02" purity="9.9448943138122559e-01" nType="-99"/>
        </Node>
      </Node>
    </BinaryTree>
    <BinaryTree type="DecisionTree" boostWeight="1.0000000000000000e+00" itree="27">
      <Node pos="s" depth="0" NCoef="0" IVar="1" Cut="1.3893635253906250e+03" cType="1" res="1.4589431881904602e-01" rms="3.0071899294853210e-01" purity="5.0729644298553467e-01" nType="0">
        <Node pos="l" depth="1" NCoef="0" IVar="1" Cut="9.4140515136718750e+02" cType="1" res="-7.1090474724769592e-02" rms="2.2553627192974091e-01" purity="8.8897034525871277e-02" nType="0">
          <Node pos="l" depth="2" NCoef="0" IVar="-1" Cut="0.0000000000000000e+00" cType="1" res="-3.3564537763595581e-02" rms="1.0669550299644470e-01" purity="1.1597366072237492e-02" nType="-99"/>
          <Node pos="r" depth="2" NCoef="0" IVar="-1" Cut="0.0000000000000000e+00" cType="1" res="4.4082687236368656e-03" rms="4.6962398290634155e-01" purity="4.9608457088470459e-01" nType="-99"/>
        </Node>
        <Node pos="r" depth="1" NCoef="0" IVar="1" Cut="1.8653631591796875e+03" cType="1" res="3.8943019509315491e-01" rms="1.5061633288860321e-01" purity="9.7689288854598999e-01" nType="0">
          <Node pos="l" depth="2" NCoef="0" IVar="-1" Cut="0.0000000000000000e+00" cType="1" res="6.3296612352132797e-03" rms="2.6965513825416565e-01" purity="9.2107605934143066e-01" nType="-99"/>
          <Node pos="r" depth="2" NCoef="0" IVar="-1" Cut="0.0000000000000000e+00" cType="1" res="6.0247858054935932e-03" rms="8.5049070417881012e-02" purity="9.9271363019943237e-01" nType="-99"/>
        </Node>
      </Node>
    </BinaryTree>
    <BinaryTree type="DecisionTree" boostWeight="1.0000000000000000e+00" itree="28">
      <Node pos="s" depth="0" NCoef="0" IVar="1" Cut="1.3856707763671875e+03" cType="1" res="1.5212424099445343e-01" rms="2.9476147890090942e-01" purity="5.1909822225570679e-01" nType="0">
        <Node pos="l" depth="1" NCoef="0" IVar="0" Cut="3.5476931762695312e+02" cType="1" res="-7.5738012790679932e-02" rms="2.1102763712406158e-01" purity="7.5057059526443481e-02" nType="0">
          <Node pos="l" depth="2" NCoef="0" IVar="-1" Cut="0.0000000000000000e+00" cType="1" res="-1.8161656334996223e-02" rms="1.7360466718673706e-01" purity="4.2316243052482605e-02" nType="-99"/>
          <Node pos="r" depth="2" NCoef="0" IVar="-1" Cut="0.0000000000000000e+00" cType="1" res="5.7166214101016521e-03" rms="4.3607649207115173e-01" purity="5.2530610561370850e-01" nType="-99"/>
        </Node>
        <Node pos="r" depth="1" NCoef="0" IVar="1" Cut="1.6238269042968750e+03" cType="1" res="3.8762417435646057e-01" rms="1.4674396812915802e-01" purity="9.7802323102951050e-01" nType="0">
          <Node pos="l" depth="2" NCoef="0" IVar="-1" Cut="0.0000000000000000e+00" cType="1" res="6.4812269993126392e-03" rms="3.2559126615524292e-01" purity="8.7778854370117188e-01" nType="-99"/>
          <Node pos="r" depth="2" NCoef="0" IVar="-1" Cut="0.0000000000000000e+00" cType="1" res="6.5114381723105907e-03" rms="1.0350568592548370e-01" purity="9.8919641971588135e-01" nType="-99"/>
        </Node>
      </Node>
    </BinaryTree>
    <BinaryTree type="DecisionTree" boostWeight="1.0000000000000000e+00" itree="29">
      <Node pos="s" depth="0" NCoef="0" IVar="1" Cut="1.3856707763671875e+03" cType="1" res="1.3962103426456451e-01" rms="2.9457491636276245e-01" purity="4.9386721849441528e-01" nType="0">
        <Node pos="l" depth="1" NCoef="0" IVar="1" Cut="1.1614333496093750e+03" cType="1" res="-6.7492775619029999e-02" rms="2.1563509106636047e-01" purity="8.0220371484756470e-02" nType="0">
          <Node pos="l" depth="2" NCoef="0" IVar="-1" Cut="0.0000000000000000e+00" cType="1" res="-2.0704854279756546e-02" rms="1.7235453426837921e-01" purity="3.7873908877372742e-02" nType="-99"/>
          <Node pos="r" depth="2" NCoef="0" IVar="-1" Cut="0.0000000000000000e+00" cType="1" res="4.4526401907205582e-03" rms="4.6144828200340271e-01" purity="6.6268730163574219e-01" nType="-99"/>
        </Node>
        <Node pos="r" depth="1" NCoef="0" IVar="1" Cut="1.6239250488281250e+03" cType="1" res="3.7962532043457031e-01" rms="1.6166625916957855e-01" purity="9.7320288419723511e-01" nType="0">
          <Node pos="l" depth="2" NCoef="0" IVar="-1" Cut="0.0000000000000000e+00" cType="1" res="6.0889502055943012e-03" rms="3.3726108074188232e-01" purity="8.6777222156524658e-01" nType="-99"/>
          <Node pos="r" depth="2" NCoef="0" IVar="-1" Cut="0.0000000000000000e+00" cType="1" res="5.6010354310274124e-03" rms="1.1498776078224182e-01" purity="9.8662304878234863e-01" nType="-99"/>
        </Node>
      </Node>
    </BinaryTree>
    <BinaryTree type="DecisionTree" boostWeight="1.0000000000000000e+00" itree="30">
      <Node pos="s" depth="0" NCoef="0" IVar="1" Cut="1.3687551269531250e+03" cType="1" res="1.3962942361831665e-01" rms="2.8997901082038879e-01" purity="4.9401479959487915e-01" nType="0">
        <Node pos="l" depth="1" NCoef="0" IVar="1" Cut="9.8211541748046875e+02" cType="1" res="-6.7747421562671661e-02" rms="2.0468793809413910e-01" purity="7.4855014681816101e-02" nType="0">
          <Node pos="l" depth="2" NCoef="0" IVar="-1" Cut="0.0000000000000000e+00" cType="1" res="-3.2559111714363098e-02" rms="1.0423149913549423e-01" purity="1.1743097566068172e-02" nType="-99"/>
          <Node pos="r" depth="2" NCoef="0" IVar="-1" Cut="0.0000000000000000e+00" cType="1" res="3.6532906815409660e-03" rms="4.7158011794090271e-01" purity="5.1053118705749512e-01" nType="-99"/>
        </Node>
        <Node pos="r" depth="1" NCoef="0" IVar="1" Cut="1.6035946044921875e+03" cType="1" res="3.7597128748893738e-01" rms="1.6523344814777374e-01" purity="9.7171998023986816e-01" nType="0">
          <Node pos="l" depth="2" NCoef="0" IVar="-1" Cut="0.0000000000000000e+00" cType="1" res="5.1972852088510990e-03" rms="3.6537238955497742e-01" purity="8.3803135156631470e-01" nType="-99"/>
          <Node pos="r" depth="2" NCoef="0" IVar="-1" Cut="0.0000000000000000e+00" cType="1" res="5.7706036604940891e-03" rms="1.1562023311853409e-01" purity="9.8649626970291138e-01" nType="-99"/>
        </Node>
      </Node>
    </BinaryTree>
    <BinaryTree type="DecisionTree" boostWeight="1.0000000000000000e+00" itree="31">
      <Node pos="s" depth="0" NCoef="0" IVar="1" Cut="1.3687551269531250e+03" cType="1" res="1.4092153310775757e-01" rms="2.9061368107795715e-01" purity="4.8825317621231079e-01" nType="0">
        <Node pos="l" depth="1" NCoef="0" IVar="1" Cut="1.1478012695312500e+03" cType="1" res="-5.4050300270318985e-02" rms="2.2331054508686066e-01" purity="8.4055356681346893e-02" nType="0">
          <Node pos="l" depth="2" NCoef="0" IVar="-1" Cut="0.0000000000000000e+00" cType="1" res="-1.9531207159161568e-02" rms="1.8049743771553040e-01" purity="4.0766470134258270e-02" nType="-99"/>
          <Node pos="r" depth="2" NCoef="0" IVar="-1" Cut="0.0000000000000000e+00" cType="1" res="5.0902999937534332e-03" rms="4.7097164392471313e-01" purity="6.4438086748123169e-01" nType="-99"/>
        </Node>
        <Node pos="r" depth="1" NCoef="0" IVar="1" Cut="1.6034870605468750e+03" cType="1" res="3.7505951523780823e-01" rms="1.5975716710090637e-01" purity="9.7364675998687744e-01" nType="0">
          <Node pos="l" depth="2" NCoef="0" IVar="-1" Cut="0.0000000000000000e+00" cType="1" res="6.0791084542870522e-03" rms="3.3463156223297119e-01" purity="8.6941623687744141e-01" nType="-99"/>
          <Node pos="r" depth="2" NCoef="0" IVar="-1" Cut="0.0000000000000000e+00" cType="1" res="5.5328737944364548e-03" rms="1.1524162441492081e-01" purity="9.8656094074249268e-01" nType="-99"/>
        </Node>
      </Node>
    </BinaryTree>
    <BinaryTree type="DecisionTree" boostWeight="1.0000000000000000e+00" itree="32">
      <Node pos="s" depth="0" NCoef="0" IVar="1" Cut="1.3871936035156250e+03" cType="1" res="1.4476314187049866e-01" rms="2.8259807825088501e-01" purity="4.9919542670249939e-01" nType="0">
        <Node pos="l" depth="1" NCoef="0" IVar="7" Cut="8.0645611572265625e+02" cType="1" res="-5.9139236807823181e-02" rms="2.0573799312114716e-01" purity="7.7621504664421082e-02" nType="0">
          <Node pos="l" depth="2" NCoef="0" IVar="-1" Cut="0.0000000000000000e+00" cType="1" res="-1.7526829615235329e-02" rms="1.5647570788860321e-01" purity="3.8393467664718628e-02" nType="-99"/>
          <Node pos="r" depth="2" NCoef="0" IVar="-1" Cut="0.0000000000000000e+00" cType="1" res="8.8027017191052437e-03" rms="4.2560258507728577e-01" purity="5.2430313825607300e-01" nType="-99"/>
        </Node>
        <Node pos="r" depth="1" NCoef="0" IVar="1" Cut="1.8633571777343750e+03" cType="1" res="3.7631741166114807e-01" rms="1.4715105295181274e-01" purity="9.7794049978256226e-01" nType="0">
          <Node pos="l" depth="2" NCoef="0" IVar="-1" Cut="0.0000000000000000e+00" cType="1" res="6.0641206800937653e-03" rms="2.6566955447196960e-01" purity="9.2346966266632080e-01" nType="-99"/>
          <Node pos="r" depth="2" NCoef="0" IVar="-1" Cut="0.0000000000000000e+00" cType="1" res="5.8258064091205597e-03" rms="8.2946926355361938e-02" purity="9.9307221174240112e-01" nType="-99"/>
        </Node>
      </Node>
    </BinaryTree>
    <BinaryTree type="DecisionTree" boostWeight="1.0000000000000000e+00" itree="33">
      <Node pos="s" depth="0" NCoef="0" IVar="1" Cut="1.3923596191406250e+03" cType="1" res="1.4829932153224945e-01" rms="2.8373315930366516e-01" purity="5.0417113304138184e-01" nType="0">
        <Node pos="l" depth="1" NCoef="0" IVar="1" Cut="9.9778894042968750e+02" cType="1" res="-5.3090918809175491e-02" rms="2.1640031039714813e-01" purity="7.9162798821926117e-02" nType="0">
          <Node pos="l" depth="2" NCoef="0" IVar="-1" Cut="0.0000000000000000e+00" cType="1" res="-2.7597403153777122e-02" rms="1.3083432614803314e-01" purity="1.7891932278871536e-02" nType="-99"/>
          <Node pos="r" depth="2" NCoef="0" IVar="-1" Cut="0.0000000000000000e+00" cType="1" res="3.1090211123228073e-03" rms="4.7476482391357422e-01" purity="4.9975284934043884e-01" nType="-99"/>
        </Node>
        <Node pos="r" depth="1" NCoef="0" IVar="1" Cut="1.8713980712890625e+03" cType="1" res="3.7234655022621155e-01" rms="1.5050056576728821e-01" purity="9.7699403762817383e-01" nType="0">
          <Node pos="l" depth="2" NCoef="0" IVar="-1" Cut="0.0000000000000000e+00" cType="1" res="6.4720609225332737e-03" rms="2.7089300751686096e-01" purity="9.2046207189559937e-01" nType="-99"/>
          <Node pos="r" depth="2" NCoef="0" IVar="-1" Cut="0.0000000000000000e+00" cType="1" res="5.7997382245957851e-03" rms="6.9259054958820343e-02" purity="9.9517989158630371e-01" nType="-99"/>
        </Node>
      </Node>
    </BinaryTree>
    <BinaryTree type="DecisionTree" boostWeight="1.0000000000000000e+00" itree="34">
      <Node pos="s" depth="0" NCoef="0" IVar="1" Cut="1.3923596191406250e+03" cType="1" res="1.4655977487564087e-01" rms="2.7863112092018127e-01" purity="5.0428926944732666e-01" nType="0">
        <Node pos="l" depth="1" NCoef="0" IVar="8" Cut="5.4413682222366333e-01" cType="1" res="-5.7644147425889969e-02" rms="2.0145742595195770e-01" purity="7.1077324450016022e-02" nType="0">
          <Node pos="l" depth="2" NCoef="0" IVar="-1" Cut="0.0000000000000000e+00" cType="1" res="-1.4354908838868141e-02" rms="1.6795711219310760e-01" purity="4.3769817799329758e-02" nType="-99"/>
          <Node pos="r" depth="2" NCoef="0" IVar="-1" Cut="0.0000000000000000e+00" cType="1" res="7.6780063100159168e-03" rms="3.5758635401725769e-01" purity="3.3890083432197571e-01" nType="-99"/>
        </Node>
        <Node pos="r" depth="1" NCoef="0" IVar="1" Cut="1.6320184326171875e+03" cType="1" res="3.6920350790023804e-01" rms="1.5164501965045929e-01" purity="9.7662073373794556e-01" nType="0">
          <Node pos="l" depth="2" NCoef="0" IVar="-1" Cut="0.0000000000000000e+00" cType="1" res="6.0619032010436058e-03" rms="3.2048588991165161e-01" purity="8.8367068767547607e-01" nType="-99"/>
          <Node pos="r" depth="2" NCoef="0" IVar="-1" Cut="0.0000000000000000e+00" cType="1" res="5.8804592117667198e-03" rms="1.1272130161523819e-01" purity="9.8715430498123169e-01" nType="-99"/>
        </Node>
      </Node>
    </BinaryTree>
    <BinaryTree type="DecisionTree" boostWeight="1.0000000000000000e+00" itree="35">
      <Node pos="s" depth="0" NCoef="0" IVar="1" Cut="1.4033890380859375e+03" cType="1" res="1.3407075405120850e-01" rms="2.7595445513725281e-01" purity="4.8109236359596252e-01" nType="0">
        <Node pos="l" depth="1" NCoef="0" IVar="0" Cut="3.5950433349609375e+02" cType="1" res="-6.0086831450462341e-02" rms="1.9424219429492950e-01" purity="6.6746421158313751e-02" nType="0">
          <Node pos="l" depth="2" NCoef="0" IVar="-1" Cut="0.0000000000000000e+00" cType="1" res="-1.5961349010467529e-02" rms="1.5776917338371277e-01" purity="3.7878155708312988e-02" nType="-99"/>
          <Node pos="r" depth="2" NCoef="0" IVar="-1" Cut="0.0000000000000000e+00" cType="1" res="4.9555259756743908e-03" rms="4.3874797224998474e-01" purity="5.0537306070327759e-01" nType="-99"/>
        </Node>
        <Node pos="r" depth="1" NCoef="0" IVar="1" Cut="1.6423822021484375e+03" cType="1" res="3.6620932817459106e-01" rms="1.5207822620868683e-01" purity="9.7649252414703369e-01" nType="0">
          <Node pos="l" depth="2" NCoef="0" IVar="-1" Cut="0.0000000000000000e+00" cType="1" res="6.0968766920268536e-03" rms="3.0823680758476257e-01" purity="8.9367127418518066e-01" nType="-99"/>
          <Node pos="r" depth="2" NCoef="0" IVar="-1" Cut="0.0000000000000000e+00" cType="1" res="5.4185609333217144e-03" rms="1.1168094724416733e-01" purity="9.8738884925842285e-01" nType="-99"/>
        </Node>
      </Node>
    </BinaryTree>
    <BinaryTree type="DecisionTree" boostWeight="1.0000000000000000e+00" itree="36">
      <Node pos="s" depth="0" NCoef="0" IVar="1" Cut="1.3724478759765625e+03" cType="1" res="1.4644515514373779e-01" rms="2.7531275153160095e-01" purity="4.9906301498413086e-01" nType="0">
        <Node pos="l" depth="1" NCoef="0" IVar="3" Cut="3.1083123683929443e+00" cType="1" res="-4.4208079576492310e-02" rms="2.1010783314704895e-01" purity="7.9707182943820953e-02" nType="0">
          <Node pos="l" depth="2" NCoef="0" IVar="-1" Cut="0.0000000000000000e+00" cType="1" res="-1.2742277234792709e-02" rms="1.7113934457302094e-01" purity="4.9342561513185501e-02" nType="-99"/>
          <Node pos="r" depth="2" NCoef="0" IVar="-1" Cut="0.0000000000000000e+00" cType="1" res="1.3141068629920483e-02" rms="3.7866440415382385e-01" purity="3.8512969017028809e-01" nType="-99"/>
        </Node>
        <Node pos="r" depth="1" NCoef="0" IVar="1" Cut="1.6072009277343750e+03" cType="1" res="3.6302828788757324e-01" rms="1.5347059071063995e-01" purity="9.7545349597930908e-01" nType="0">
          <Node pos="l" depth="2" NCoef="0" IVar="-1" Cut="0.0000000000000000e+00" cType="1" res="6.0962131246924400e-03" rms="3.2193332910537720e-01" purity="8.7720829248428345e-01" nType="-99"/>
          <Node pos="r" depth="2" NCoef="0" IVar="-1" Cut="0.0000000000000000e+00" cType="1" res="5.3964029066264629e-03" rms="1.0848146677017212e-01" purity="9.8811811208724976e-01" nType="-99"/>
        </Node>
      </Node>
    </BinaryTree>
    <BinaryTree type="DecisionTree" boostWeight="1.0000000000000000e+00" itree="37">
      <Node pos="s" depth="0" NCoef="0" IVar="1" Cut="1.3216184082031250e+03" cType="1" res="1.4838582277297974e-01" rms="2.7425619959831238e-01" purity="5.0655901432037354e-01" nType="0">
        <Node pos="l" depth="1" NCoef="0" IVar="1" Cut="1.0049470214843750e+03" cType="1" res="-5.2679926156997681e-02" rms="1.9647350907325745e-01" purity="6.4914010465145111e-02" nType="0">
          <Node pos="l" depth="2" NCoef="0" IVar="-1" Cut="0.0000000000000000e+00" cType="1" res="-2.8468286618590355e-02" rms="1.0970093309879303e-01" purity="1.2542913667857647e-02" nType="-99"/>
          <Node pos="r" depth="2" NCoef="0" IVar="-1" Cut="0.0000000000000000e+00" cType="1" res="3.3289401326328516e-03" rms="4.7459030151367188e-01" purity="4.7307851910591125e-01" nType="-99"/>
        </Node>
        <Node pos="r" depth="1" NCoef="0" IVar="1" Cut="1.7701604003906250e+03" cType="1" res="3.6029741168022156e-01" rms="1.6214646399021149e-01" purity="9.7202718257904053e-01" nType="0">
          <Node pos="l" depth="2" NCoef="0" IVar="-1" Cut="0.0000000000000000e+00" cType="1" res="6.1874696984887123e-03" rms="3.0856889486312866e-01" purity="8.9027541875839233e-01" nType="-99"/>
          <Node pos="r" depth="2" NCoef="0" IVar="-1" Cut="0.0000000000000000e+00" cType="1" res="5.6924805976450443e-03" rms="8.4599271416664124e-02" purity="9.9279946088790894e-01" nType="-99"/>
        </Node>
      </Node>
    </BinaryTree>
    <BinaryTree type="DecisionTree" boostWeight="1.0000000000000000e+00" itree="38">
      <Node pos="s" depth="0" NCoef="0" IVar="1" Cut="1.3983607177734375e+03" cType="1" res="1.4546698331832886e-01" rms="2.7757769823074341e-01" purity="4.9775084853172302e-01" nType="0">
        <Node pos="l" depth="1" NCoef="0" IVar="1" Cut="1.1731384277343750e+03" cType="1" res="-3.5105727612972260e-02" rms="2.2515767812728882e-01" purity="8.8700518012046814e-02" nType="0">
          <Node pos="l" depth="2" NCoef="0" IVar="-1" Cut="0.0000000000000000e+00" cType="1" res="-1.4702259562909603e-02" rms="1.8118518590927124e-01" purity="4.2025111615657806e-02" nType="-99"/>
          <Node pos="r" depth="2" NCoef="0" IVar="-1" Cut="0.0000000000000000e+00" cType="1" res="4.7423960641026497e-03" rms="4.6861335635185242e-01" purity="6.4698964357376099e-01" nType="-99"/>
        </Node>
        <Node pos="r" depth="1" NCoef="0" IVar="1" Cut="1.8769140625000000e+03" cType="1" res="3.5568889975547791e-01" rms="1.5992589294910431e-01" purity="9.7396534681320190e-01" nType="0">
          <Node pos="l" depth="2" NCoef="0" IVar="-1" Cut="0.0000000000000000e+00" cType="1" res="6.1484645120799541e-03" rms="2.7549484372138977e-01" purity="9.1754376888275146e-01" nType="-99"/>
          <Node pos="r" depth="2" NCoef="0" IVar="-1" Cut="0.0000000000000000e+00" cType="1" res="5.2036554552614689e-03" rms="8.1622600555419922e-02" purity="9.9329274892807007e-01" nType="-99"/>
        </Node>
      </Node>
    </BinaryTree>
    <BinaryTree type="DecisionTree" boostWeight="1.0000000000000000e+00" itree="39">
      <Node pos="s" depth="0" NCoef="0" IVar="1" Cut="1.3923596191406250e+03" cType="1" res="1.4869706332683563e-01" rms="2.6795697212219238e-01" purity="5.0703579187393188e-01" nType="0">
        <Node pos="l" depth="1" NCoef="0" IVar="3" Cut="3.3373837471008301e+00" cType="1" res="-3.9886537939310074e-02" rms="2.0512901246547699e-01" purity="8.0626092851161957e-02" nType="0">
          <Node pos="l" depth="2" NCoef="0" IVar="-1" Cut="0.0000000000000000e+00" cType="1" res="-1.0307413525879383e-02" rms="1.8118110299110413e-01" purity="5.6756466627120972e-02" nType="-99"/>
          <Node pos="r" depth="2" NCoef="0" IVar="-1" Cut="0.0000000000000000e+00" cType="1" res="1.2785073369741440e-02" rms="3.6093422770500183e-01" purity="4.8783197999000549e-01" nType="-99"/>
        </Node>
        <Node pos="r" depth="1" NCoef="0" IVar="1" Cut="1.6319876708984375e+03" cType="1" res="3.5682615637779236e-01" rms="1.4844900369644165e-01" purity="9.7764021158218384e-01" nType="0">
          <Node pos="l" depth="2" NCoef="0" IVar="-1" Cut="0.0000000000000000e+00" cType="1" res="6.8538999184966087e-03" rms="2.9752793908119202e-01" purity="9.0175348520278931e-01" nType="-99"/>
          <Node pos="r" depth="2" NCoef="0" IVar="-1" Cut="0.0000000000000000e+00" cType="1" res="5.6599751114845276e-03" rms="1.0845699161291122e-01" purity="9.8812079429626465e-01" nType="-99"/>
        </Node>
      </Node>
    </BinaryTree>
    <BinaryTree type="DecisionTree" boostWeight="1.0000000000000000e+00" itree="40">
      <Node pos="s" depth="0" NCoef="0" IVar="1" Cut="1.3702779541015625e+03" cType="1" res="1.4146633446216583e-01" rms="2.7222585678100586e-01" purity="4.8879969120025635e-01" nType="0">
        <Node pos="l" depth="1" NCoef="0" IVar="3" Cut="3.3135292530059814e+00" cType="1" res="-3.3202055841684341e-02" rms="2.1704885363578796e-01" purity="8.3410896360874176e-02" nType="0">
          <Node pos="l" depth="2" NCoef="0" IVar="-1" Cut="0.0000000000000000e+00" cType="1" res="-1.0855096392333508e-02" rms="1.9088852405548096e-01" purity="5.7537898421287537e-02" nType="-99"/>
          <Node pos="r" depth="2" NCoef="0" IVar="-1" Cut="0.0000000000000000e+00" cType="1" res="1.5719665214419365e-02" rms="3.7446308135986328e-01" purity="4.6654826402664185e-01" nType="-99"/>
        </Node>
        <Node pos="r" depth="1" NCoef="0" IVar="1" Cut="1.6049873046875000e+03" cType="1" res="3.4986767172813416e-01" rms="1.6274258494377136e-01" purity="9.7247952222824097e-01" nType="0">
          <Node pos="l" depth="2" NCoef="0" IVar="-1" Cut="0.0000000000000000e+00" cType="1" res="4.7736675478518009e-03" rms="3.5892468690872192e-01" purity="8.4304875135421753e-01" nType="-99"/>
          <Node pos="r" depth="2" NCoef="0" IVar="-1" Cut="0.0000000000000000e+00" cType="1" res="5.3853536956012249e-03" rms="1.1612239480018616e-01" purity="9.8638087511062622e-01" nType="-99"/>
        </Node>
      </Node>
    </BinaryTree>
    <BinaryTree type="DecisionTree" boostWeight="1.0000000000000000e+00" itree="41">
      <Node pos="s" depth="0" NCoef="0" IVar="1" Cut="1.3402058105468750e+03" cType="1" res="1.4479090273380280e-01" rms="2.7017167210578918e-01" purity="4.9924945831298828e-01" nType="0">
        <Node pos="l" depth="1" NCoef="0" IVar="1" Cut="8.0361291503906250e+02" cType="1" res="-4.0384028106927872e-02" rms="2.0634749531745911e-01" purity="6.4756773412227631e-02" nType="0">
          <Node pos="l" depth="2" NCoef="0" IVar="-1" Cut="0.0000000000000000e+00" cType="1" res="-3.3828355371952057e-02" rms="8.2621149718761444e-02" purity="6.9215521216392517e-03" nType="-99"/>
          <Node pos="r" depth="2" NCoef="0" IVar="-1" Cut="0.0000000000000000e+00" cType="1" res="2.8002413455396891e-03" rms="4.1018727421760559e-01" purity="2.8360769152641296e-01" nType="-99"/>
        </Node>
        <Node pos="r" depth="1" NCoef="0" IVar="1" Cut="1.7965571289062500e+03" cType="1" res="3.4532207250595093e-01" rms="1.6906274855136871e-01" purity="9.6977382898330688e-01" nType="0">
          <Node pos="l" depth="2" NCoef="0" IVar="-1" Cut="0.0000000000000000e+00" cType="1" res="5.9722573496401310e-03" rms="3.0415159463882446e-01" purity="8.9277255535125732e-01" nType="-99"/>
          <Node pos="r" depth="2" NCoef="0" IVar="-1" Cut="0.0000000000000000e+00" cType="1" res="5.6030079722404480e-03" rms="9.2719674110412598e-02" purity="9.9133634567260742e-01" nType="-99"/>
        </Node>
      </Node>
    </BinaryTree>
    <BinaryTree type="DecisionTree" boostWeight="1.0000000000000000e+00" itree="42">
      <Node pos="s" depth="0" NCoef="0" IVar="1" Cut="1.3747561035156250e+03" cType="1" res="1.5092402696609497e-01" rms="2.6830917596817017e-01" purity="5.0914883613586426e-01" nType="0">
        <Node pos="l" depth="1" NCoef="0" IVar="7" Cut="8.0902252197265625e+02" cType="1" res="-3.0798764899373055e-02" rms="2.1795128285884857e-01" purity="7.8157179057598114e-02" nType="0">
          <Node pos="l" depth="2" NCoef="0" IVar="-1" Cut="0.0000000000000000e+00" cType="1" res="-1.1212112382054329e-02" rms="1.8316727876663208e-01" purity="4.5790020376443863e-02" nType="-99"/>
          <Node pos="r" depth="2" NCoef="0" IVar="-1" Cut="0.0000000000000000e+00" cType="1" res="7.4106077663600445e-03" rms="4.2147657275199890e-01" purity="4.7014176845550537e-01" nType="-99"/>
        </Node>
        <Node pos="r" depth="1" NCoef="0" IVar="1" Cut="1.6092197265625000e+03" cType="1" res="3.4747061133384705e-01" rms="1.5532813966274261e-01" purity="9.7529792785644531e-01" nType="0">
          <Node pos="l" depth="2" NCoef="0" IVar="-1" Cut="0.0000000000000000e+00" cType="1" res="5.3247320465743542e-03" rms="3.3644148707389832e-01" purity="8.6951017379760742e-01" nType="-99"/>
          <Node pos="r" depth="2" NCoef="0" IVar="-1" Cut="0.0000000000000000e+00" cType="1" res="5.7018762454390526e-03" rms="1.1449013650417328e-01" purity="9.8675686120986938e-01" nType="-99"/>
        </Node>
      </Node>
    </BinaryTree>
    <BinaryTree type="DecisionTree" boostWeight="1.0000000000000000e+00" itree="43">
      <Node pos="s" depth="0" NCoef="0" IVar="1" Cut="1.3961575927734375e+03" cType="1" res="1.4589978754520416e-01" rms="2.6472371816635132e-01" purity="5.0495630502700806e-01" nType="0">
        <Node pos="l" depth="1" NCoef="0" IVar="1" Cut="9.4878228759765625e+02" cType="1" res="-3.5595152527093887e-02" rms="2.0839278399944305e-01" purity="7.4835389852523804e-02" nType="0">
          <Node pos="l" depth="2" NCoef="0" IVar="-1" Cut="0.0000000000000000e+00" cType="1" res="-2.9945703223347664e-02" rms="9.5934927463531494e-02" purity="9.4291372224688530e-03" nType="-99"/>
          <Node pos="r" depth="2" NCoef="0" IVar="-1" Cut="0.0000000000000000e+00" cType="1" res="3.4230041783303022e-03" rms="4.7038465738296509e-01" purity="4.4900298118591309e-01" nType="-99"/>
        </Node>
        <Node pos="r" depth="1" NCoef="0" IVar="1" Cut="1.6338808593750000e+03" cType="1" res="3.4463506937026978e-01" rms="1.5393567085266113e-01" purity="9.7593480348587036e-01" nType="0">
          <Node pos="l" depth="2" NCoef="0" IVar="-1" Cut="0.0000000000000000e+00" cType="1" res="5.7777496986091137e-03" rms="3.2187065482139587e-01" purity="8.8239890336990356e-01" nType="-99"/>
          <Node pos="r" depth="2" NCoef="0" IVar="-1" Cut="0.0000000000000000e+00" cType="1" res="5.5760708637535572e-03" rms="1.1022718250751495e-01" purity="9.8772680759429932e-01" nType="-99"/>
        </Node>
      </Node>
    </BinaryTree>
    <BinaryTree type="DecisionTree" boostWeight="1.0000000000000000e+00" itree="44">
      <Node pos="s" depth="0" NCoef="0" IVar="1" Cut="1.0965057373046875e+03" cType="1" res="1.5151283144950867e-01" rms="2.6352816820144653e-01" purity="5.1140409708023071e-01" nType="0">
        <Node pos="l" depth="1" NCoef="0" IVar="2" Cut="3.4759161472320557e+00" cType="1" res="-4.1092757135629654e-02" rms="1.5938915312290192e-01" purity="3.0871488153934479e-02" nType="0">
          <Node pos="l" depth="2" NCoef="0" IVar="-1" Cut="0.0000000000000000e+00" cType="1" res="-2.2440349683165550e-02" rms="1.2684810161590576e-01" purity="1.8049715086817741e-02" nType="-99"/>
          <Node pos="r" depth="2" NCoef="0" IVar="-1" Cut="0.0000000000000000e+00" cType="1" res="1.7779855057597160e-02" rms="3.5976052284240723e-01" purity="2.0488122105598450e-01" nType="-99"/>
        </Node>
        <Node pos="r" depth="1" NCoef="0" IVar="1" Cut="1.6037647705078125e+03" cType="1" res="3.2340681552886963e-01" rms="2.1470442414283752e-01" purity="9.4026327133178711e-01" nType="0">
          <Node pos="l" depth="2" NCoef="0" IVar="-1" Cut="0.0000000000000000e+00" cType="1" res="5.3370306268334389e-03" rms="4.0668886899948120e-01" purity="7.4256193637847900e-01" nType="-99"/>
          <Node pos="r" depth="2" NCoef="0" IVar="-1" Cut="0.0000000000000000e+00" cType="1" res="5.5066086351871490e-03" rms="1.1738517135381699e-01" purity="9.8607748746871948e-01" nType="-99"/>
        </Node>
      </Node>
    </BinaryTree>
    <BinaryTree type="DecisionTree" boostWeight="1.0000000000000000e+00" itree="45">
      <Node pos="s" depth="0" NCoef="0" IVar="1" Cut="1.3702779541015625e+03" cType="1" res="1.5241777896881104e-01" rms="2.5925436615943909e-01" purity="5.1161384582519531e-01" nType="0">
        <Node pos="l" depth="1" NCoef="0" IVar="1" Cut="1.1494235839843750e+03" cType="1" res="-2.0985981449484825e-02" rms="2.1361197531223297e-01" purity="8.4102101624011993e-02" nType="0">
          <Node pos="l" depth="2" NCoef="0" IVar="-1" Cut="0.0000000000000000e+00" cType="1" res="-1.3768872246146202e-02" rms="1.7047803103923798e-01" purity="3.9178803563117981e-02" nType="-99"/>
          <Node pos="r" depth="2" NCoef="0" IVar="-1" Cut="0.0000000000000000e+00" cType="1" res="6.0312729328870773e-03" rms="4.5830798149108887e-01" purity="6.6444820165634155e-01" nType="-99"/>
        </Node>
        <Node pos="r" depth="1" NCoef="0" IVar="1" Cut="1.6049873046875000e+03" cType="1" res="3.4118467569351196e-01" rms="1.4947210252285004e-01" purity="9.7700202465057373e-01" nType="0">
          <Node pos="l" depth="2" NCoef="0" IVar="-1" Cut="0.0000000000000000e+00" cType="1" res="6.2192184850573540e-03" rms="3.1724464893341064e-01" purity="8.8388109207153320e-01" nType="-99"/>
          <Node pos="r" depth="2" NCoef="0" IVar="-1" Cut="0.0000000000000000e+00" cType="1" res="5.7541043497622013e-03" rms="1.0795006155967712e-01" purity="9.8825228214263916e-01" nType="-99"/>
        </Node>
      </Node>
    </BinaryTree>
    <BinaryTree type="DecisionTree" boostWeight="1.0000000000000000e+00" itree="46">
      <Node pos="s" depth="0" NCoef="0" IVar="1" Cut="1.0953990478515625e+03" cType="1" res="1.4486038684844971e-01" rms="2.6196515560150146e-01" purity="4.9551314115524292e-01" nType="0">
        <Node pos="l" depth="1" NCoef="0" IVar="1" Cut="8.0142358398437500e+02" cType="1" res="-3.5108629614114761e-02" rms="1.6628730297088623e-01" purity="3.2415386289358139e-02" nType="0">
          <Node pos="l" depth="2" NCoef="0" IVar="-1" Cut="0.0000000000000000e+00" cType="1" res="-3.0241848900914192e-02" rms="9.6587002277374268e-02" purity="9.6849780529737473e-03" nType="-99"/>
          <Node pos="r" depth="2" NCoef="0" IVar="-1" Cut="0.0000000000000000e+00" cType="1" res="5.2703078836202621e-03" rms="3.5119751095771790e-01" purity="1.5863864123821259e-01" nType="-99"/>
        </Node>
        <Node pos="r" depth="1" NCoef="0" IVar="1" Cut="1.5993731689453125e+03" cType="1" res="3.1649431586265564e-01" rms="2.1761283278465271e-01" purity="9.3716305494308472e-01" nType="0">
          <Node pos="l" depth="2" NCoef="0" IVar="-1" Cut="0.0000000000000000e+00" cType="1" res="5.7594007812440395e-03" rms="3.9446565508842468e-01" purity="7.5471574068069458e-01" nType="-99"/>
          <Node pos="r" depth="2" NCoef="0" IVar="-1" Cut="0.0000000000000000e+00" cType="1" res="5.0727967172861099e-03" rms="1.1530495434999466e-01" purity="9.8658263683319092e-01" nType="-99"/>
        </Node>
      </Node>
    </BinaryTree>
    <BinaryTree type="DecisionTree" boostWeight="1.0000000000000000e+00" itree="47">
      <Node pos="s" depth="0" NCoef="0" IVar="1" Cut="1.3960523681640625e+03" cType="1" res="1.4606823027133942e-01" rms="2.5326222181320190e-01" purity="5.0292128324508667e-01" nType="0">
        <Node pos="l" depth="1" NCoef="0" IVar="1" Cut="1.0581739501953125e+03" cType="1" res="-2.8307767584919930e-02" rms="2.0107354223728180e-01" purity="7.0665746927261353e-02" nType="0">
          <Node pos="l" depth="2" NCoef="0" IVar="-1" Cut="0.0000000000000000e+00" cType="1" res="-2.0972695201635361e-02" rms="1.2863384187221527e-01" purity="1.7228443175554276e-02" nType="-99"/>
          <Node pos="r" depth="2" NCoef="0" IVar="-1" Cut="0.0000000000000000e+00" cType="1" res="2.9708044603466988e-03" rms="4.7830834984779358e-01" purity="5.3373575210571289e-01" nType="-99"/>
        </Node>
        <Node pos="r" depth="1" NCoef="0" IVar="1" Cut="1.6353927001953125e+03" cType="1" res="3.3857899904251099e-01" rms="1.4031825959682465e-01" purity="9.8013061285018921e-01" nType="0">
          <Node pos="l" depth="2" NCoef="0" IVar="-1" Cut="0.0000000000000000e+00" cType="1" res="6.2066800892353058e-03" rms="3.0044436454772949e-01" purity="8.9965671300888062e-01" nType="-99"/>
          <Node pos="r" depth="2" NCoef="0" IVar="-1" Cut="0.0000000000000000e+00" cType="1" res="5.6212861090898514e-03" rms="9.3080356717109680e-02" purity="9.9128508567810059e-01" nType="-99"/>
        </Node>
      </Node>
    </BinaryTree>
    <BinaryTree type="DecisionTree" boostWeight="1.0000000000000000e+00" itree="48">
      <Node pos="s" depth="0" NCoef="0" IVar="1" Cut="1.3988198242187500e+03" cType="1" res="1.4575038850307465e-01" rms="2.5766563415527344e-01" purity="5.0010627508163452e-01" nType="0">
        <Node pos="l" depth="1" NCoef="0" IVar="7" Cut="6.1311932373046875e+02" cType="1" res="-2.0830361172556877e-02" rms="2.1610088646411896e-01" purity="7.6568797230720520e-02" nType="0">
          <Node pos="l" depth="2" NCoef="0" IVar="-1" Cut="0.0000000000000000e+00" cType="1" res="-1.3955115340650082e-02" rms="1.4955905079841614e-01" purity="3.1795524060726166e-02" nType="-99"/>
          <Node pos="r" depth="2" NCoef="0" IVar="-1" Cut="0.0000000000000000e+00" cType="1" res="6.7448904737830162e-03" rms="4.1456055641174316e-01" purity="3.4477704763412476e-01" nType="-99"/>
        </Node>
        <Node pos="r" depth="1" NCoef="0" IVar="1" Cut="1.6380488281250000e+03" cType="1" res="3.3359378576278687e-01" rms="1.4839427173137665e-01" purity="9.7770476341247559e-01" nType="0">
          <Node pos="l" depth="2" NCoef="0" IVar="-1" Cut="0.0000000000000000e+00" cType="1" res="6.1719021759927273e-03" rms="3.0607792735099792e-01" purity="8.9547377824783325e-01" nType="-99"/>
          <Node pos="r" depth="2" NCoef="0" IVar="-1" Cut="0.0000000000000000e+00" cType="1" res="5.4284008219838142e-03" rms="1.0635243356227875e-01" purity="9.8858475685119629e-01" nType="-99"/>
        </Node>
      </Node>
    </BinaryTree>
    <BinaryTree type="DecisionTree" boostWeight="1.0000000000000000e+00" itree="49">
      <Node pos="s" depth="0" NCoef="0" IVar="1" Cut="1.3923596191406250e+03" cType="1" res="1.3756096363067627e-01" rms="2.5144943594932556e-01" purity="4.9133291840553284e-01" nType="0">
        <Node pos="l" depth="1" NCoef="0" IVar="1" Cut="1.1104747314453125e+03" cType="1" res="-2.6919595897197723e-02" rms="1.9527015089988708e-01" purity="7.4850007891654968e-02" nType="0">
          <Node pos="l" depth="2" NCoef="0" IVar="-1" Cut="0.0000000000000000e+00" cType="1" res="-1.8882321193814278e-02" rms="1.2805294990539551e-01" purity="1.8465811386704445e-02" nType="-99"/>
          <Node pos="r" depth="2" NCoef="0" IVar="-1" Cut="0.0000000000000000e+00" cType="1" res="3.8099074736237526e-03" rms="4.6563538908958435e-01" purity="6.0419154167175293e-01" nType="-99"/>
        </Node>
        <Node pos="r" depth="1" NCoef="0" IVar="1" Cut="1.6318992919921875e+03" cType="1" res="3.2864308357238770e-01" rms="1.5633428096771240e-01" purity="9.7517389059066772e-01" nType="0">
          <Node pos="l" depth="2" NCoef="0" IVar="-1" Cut="0.0000000000000000e+00" cType="1" res="4.2044064030051231e-03" rms="3.4338510036468506e-01" purity="8.6284136772155762e-01" nType="-99"/>
          <Node pos="r" depth="2" NCoef="0" IVar="-1" Cut="0.0000000000000000e+00" cType="1" res="5.2722184918820858e-03" rms="1.1274399608373642e-01" purity="9.8715299367904663e-01" nType="-99"/>
        </Node>
      </Node>
    </BinaryTree>
    <BinaryTree type="DecisionTree" boostWeight="1.0000000000000000e+00" itree="50">
      <Node pos="s" depth="0" NCoef="0" IVar="1" Cut="1.3938824462890625e+03" cType="1" res="1.4334864914417267e-01" rms="2.5308373570442200e-01" purity="4.9830654263496399e-01" nType="0">
        <Node pos="l" depth="1" NCoef="0" IVar="7" Cut="8.0620886230468750e+02" cType="1" res="-1.5056247822940350e-02" rms="2.1073588728904724e-01" purity="8.5310034453868866e-02" nType="0">
          <Node pos="l" depth="2" NCoef="0" IVar="-1" Cut="0.0000000000000000e+00" cType="1" res="-8.4688402712345123e-03" rms="1.7368423938751221e-01" purity="5.0955250859260559e-02" nType="-99"/>
          <Node pos="r" depth="2" NCoef="0" IVar="-1" Cut="0.0000000000000000e+00" cType="1" res="8.2956990227103233e-03" rms="4.1211566329002380e-01" purity="4.8220562934875488e-01" nType="-99"/>
        </Node>
        <Node pos="r" depth="1" NCoef="0" IVar="1" Cut="1.6333288574218750e+03" cType="1" res="3.2630768418312073e-01" rms="1.5582738816738129e-01" purity="9.7532117366790771e-01" nType="0">
          <Node pos="l" depth="2" NCoef="0" IVar="-1" Cut="0.0000000000000000e+00" cType="1" res="6.0292799025774002e-03" rms="3.1264540553092957e-01" purity="8.9011394977569580e-01" nType="-99"/>
          <Node pos="r" depth="2" NCoef="0" IVar="-1" Cut="0.0000000000000000e+00" cType="1" res="5.2577289752662182e-03" rms="1.1306436359882355e-01" purity="9.8707544803619385e-01" nType="-99"/>
        </Node>
      </Node>
    </BinaryTree>
    <BinaryTree type="DecisionTree" boostWeight="1.0000000000000000e+00" itree="51">
      <Node pos="s" depth="0" NCoef="0" IVar="1" Cut="1.3687551269531250e+03" cType="1" res="1.4601235091686249e-01" rms="2.4658238887786865e-01" purity="5.0365889072418213e-01" nType="0">
        <Node pos="l" depth="1" NCoef="0" IVar="1" Cut="1.0925684814453125e+03" cType="1" res="-2.0345516502857208e-02" rms="1.9862821698188782e-01" purity="7.0826642215251923e-02" nType="0">
          <Node pos="l" depth="2" NCoef="0" IVar="-1" Cut="0.0000000000000000e+00" cType="1" res="-1.5985950827598572e-02" rms="1.4269883930683136e-01" purity="2.3241266608238220e-02" nType="-99"/>
          <Node pos="r" depth="2" NCoef="0" IVar="-1" Cut="0.0000000000000000e+00" cType="1" res="3.6031894851475954e-03" rms="4.7019860148429871e-01" purity="5.8471745252609253e-01" nType="-99"/>
        </Node>
        <Node pos="r" depth="1" NCoef="0" IVar="1" Cut="1.6035037841796875e+03" cType="1" res="3.2860031723976135e-01" rms="1.4325565099716187e-01" purity="9.7871869802474976e-01" nType="0">
          <Node pos="l" depth="2" NCoef="0" IVar="-1" Cut="0.0000000000000000e+00" cType="1" res="4.5041055418550968e-03" rms="3.3438518643379211e-01" purity="8.6719381809234619e-01" nType="-99"/>
          <Node pos="r" depth="2" NCoef="0" IVar="-1" Cut="0.0000000000000000e+00" cType="1" res="5.3967549465596676e-03" rms="1.0235803574323654e-01" purity="9.8946356773376465e-01" nType="-99"/>
        </Node>
      </Node>
    </BinaryTree>
    <BinaryTree type="DecisionTree" boostWeight="1.0000000000000000e+00" itree="52">
      <Node pos="s" depth="0" NCoef="0" IVar="1" Cut="1.3365130615234375e+03" cType="1" res="1.3790419697761536e-01" rms="2.4782867729663849e-01" purity="4.9469971656799316e-01" nType="0">
        <Node pos="l" depth="1" NCoef="0" IVar="8" Cut="5.5716621875762939e-01" cType="1" res="-3.0549887567758560e-02" rms="1.8272061645984650e-01" purity="5.3711265325546265e-02" nType="0">
          <Node pos="l" depth="2" NCoef="0" IVar="-1" Cut="0.0000000000000000e+00" cType="1" res="-1.1172136291861534e-02" rms="1.5293835103511810e-01" purity="3.6027036607265472e-02" nType="-99"/>
          <Node pos="r" depth="2" NCoef="0" IVar="-1" Cut="0.0000000000000000e+00" cType="1" res="8.8291289284825325e-03" rms="3.6181861162185669e-01" purity="2.7021527290344238e-01" nType="-99"/>
        </Node>
        <Node pos="r" depth="1" NCoef="0" IVar="1" Cut="1.7930029296875000e+03" cType="1" res="3.1972903013229370e-01" rms="1.6729281842708588e-01" purity="9.7069078683853149e-01" nType="0">
          <Node pos="l" depth="2" NCoef="0" IVar="-1" Cut="0.0000000000000000e+00" cType="1" res="5.7132598012685776e-03" rms="2.9955324530601501e-01" purity="8.9888936281204224e-01" nType="-99"/>
          <Node pos="r" depth="2" NCoef="0" IVar="-1" Cut="0.0000000000000000e+00" cType="1" res="5.0669978372752666e-03" rms="9.2482902109622955e-02" purity="9.9138003587722778e-01" nType="-99"/>
        </Node>
      </Node>
    </BinaryTree>
    <BinaryTree type="DecisionTree" boostWeight="1.0000000000000000e+00" itree="53">
      <Node pos="s" depth="0" NCoef="0" IVar="1" Cut="1.3464093017578125e+03" cType="1" res="1.4258107542991638e-01" rms="2.5049993395805359e-01" purity="4.9943384528160095e-01" nType="0">
        <Node pos="l" depth="1" NCoef="0" IVar="7" Cut="8.2120220947265625e+02" cType="1" res="-1.4062770642340183e-02" rms="2.0520450174808502e-01" purity="7.3097273707389832e-02" nType="0">
          <Node pos="l" depth="2" NCoef="0" IVar="-1" Cut="0.0000000000000000e+00" cType="1" res="-8.5956277325749397e-03" rms="1.6986608505249023e-01" purity="4.3762288987636566e-02" nType="-99"/>
          <Node pos="r" depth="2" NCoef="0" IVar="-1" Cut="0.0000000000000000e+00" cType="1" res="9.5522198826074600e-03" rms="4.2416280508041382e-01" purity="4.7466278076171875e-01" nType="-99"/>
        </Node>
        <Node pos="r" depth="1" NCoef="0" IVar="1" Cut="1.8060839843750000e+03" cType="1" res="3.1546181440353394e-01" rms="1.6900490224361420e-01" purity="9.6996229887008667e-01" nType="0">
          <Node pos="l" depth="2" NCoef="0" IVar="-1" Cut="0.0000000000000000e+00" cType="1" res="5.8154896833002567e-03" rms="2.9851344227790833e-01" purity="8.9827662706375122e-01" nType="-99"/>
          <Node pos="r" depth="2" NCoef="0" IVar="-1" Cut="0.0000000000000000e+00" cType="1" res="5.0019747577607632e-03" rms="8.7098166346549988e-02" purity="9.9236160516738892e-01" nType="-99"/>
        </Node>
      </Node>
    </BinaryTree>
    <BinaryTree type="DecisionTree" boostWeight="1.0000000000000000e+00" itree="54">
      <Node pos="s" depth="0" NCoef="0" IVar="1" Cut="1.3916717529296875e+03" cType="1" res="1.3947089016437531e-01" rms="2.4661360681056976e-01" purity="4.9415397644042969e-01" nType="0">
        <Node pos="l" depth="1" NCoef="0" IVar="5" Cut="2.3516403198242188e+02" cType="1" res="-1.3170021586120129e-02" rms="2.0373904705047607e-01" purity="7.9145230352878571e-02" nType="0">
          <Node pos="l" depth="2" NCoef="0" IVar="-1" Cut="0.0000000000000000e+00" cType="1" res="-6.3939024694263935e-03" rms="1.7838902771472931e-01" purity="5.7438641786575317e-02" nType="-99"/>
          <Node pos="r" depth="2" NCoef="0" IVar="-1" Cut="0.0000000000000000e+00" cType="1" res="1.0354388505220413e-02" rms="3.9144647121429443e-01" purity="4.5452404022216797e-01" nType="-99"/>
        </Node>
        <Node pos="r" depth="1" NCoef="0" IVar="1" Cut="1.8674466552734375e+03" cType="1" res="3.1618535518646240e-01" rms="1.5802001953125000e-01" purity="9.7461521625518799e-01" nType="0">
          <Node pos="l" depth="2" NCoef="0" IVar="-1" Cut="0.0000000000000000e+00" cType="1" res="4.8995246179401875e-03" rms="2.9084756970405579e-01" purity="9.0678054094314575e-01" nType="-99"/>
          <Node pos="r" depth="2" NCoef="0" IVar="-1" Cut="0.0000000000000000e+00" cType="1" res="5.1663611084222794e-03" rms="7.7812969684600830e-02" purity="9.9390822649002075e-01" nType="-99"/>
        </Node>
      </Node>
    </BinaryTree>
    <BinaryTree type="DecisionTree" boostWeight="1.0000000000000000e+00" itree="55">
      <Node pos="s" depth="0" NCoef="0" IVar="1" Cut="1.3923596191406250e+03" cType="1" res="1.3899245858192444e-01" rms="2.4751341342926025e-01" purity="4.9574112892150879e-01" nType="0">
        <Node pos="l" depth="1" NCoef="0" IVar="8" Cut="5.8468091487884521e-01" cType="1" res="-1.3229260221123695e-02" rms="2.0986849069595337e-01" purity="8.1567823886871338e-02" nType="0">
          <Node pos="l" depth="2" NCoef="0" IVar="-1" Cut="0.0000000000000000e+00" cType="1" res="-6.6902749240398407e-03" rms="1.8372245132923126e-01" purity="5.6868422776460648e-02" nType="-99"/>
          <Node pos="r" depth="2" NCoef="0" IVar="-1" Cut="0.0000000000000000e+00" cType="1" res="1.2845010496675968e-02" rms="3.7001237273216248e-01" purity="4.2075043916702271e-01" nType="-99"/>
        </Node>
        <Node pos="r" depth="1" NCoef="0" IVar="1" Cut="1.6320184326171875e+03" cType="1" res="3.1568574905395508e-01" rms="1.5209189057350159e-01" purity="9.7649812698364258e-01" nType="0">
          <Node pos="l" depth="2" NCoef="0" IVar="-1" Cut="0.0000000000000000e+00" cType="1" res="5.7356110773980618e-03" rms="3.0813780426979065e-01" purity="8.9343297481536865e-01" nType="-99"/>
          <Node pos="r" depth="2" NCoef="0" IVar="-1" Cut="0.0000000000000000e+00" cType="1" res="5.1547340117394924e-03" rms="1.1057414859533310e-01" purity="9.8764812946319580e-01" nType="-99"/>
        </Node>
      </Node>
    </BinaryTree>
    <BinaryTree type="DecisionTree" boostWeight="1.0000000000000000e+00" itree="56">
      <Node pos="s" depth="0" NCoef="0" IVar="1" Cut="1.3923596191406250e+03" cType="1" res="1.3537122309207916e-01" rms="2.4251449108123779e-01" purity="4.9113762378692627e-01" nType="0">
        <Node pos="l" depth="1" NCoef="0" IVar="7" Cut="8.0754455566406250e+02" cType="1" res="-1.5991440042853355e-02" rms="1.9748806953430176e-01" purity="7.7522784471511841e-02" nType="0">
          <Node pos="l" depth="2" NCoef="0" IVar="-1" Cut="0.0000000000000000e+00" cType="1" res="-9.4429431483149529e-03" rms="1.5472199022769928e-01" purity="4.0583554655313492e-02" nType="-99"/>
          <Node pos="r" depth="2" NCoef="0" IVar="-1" Cut="0.0000000000000000e+00" cType="1" res="8.3963600918650627e-03" rms="4.1443234682083130e-01" purity="5.1262277364730835e-01" nType="-99"/>
        </Node>
        <Node pos="r" depth="1" NCoef="0" IVar="1" Cut="1.6319876708984375e+03" cType="1" res="3.1278443336486816e-01" rms="1.5396614372730255e-01" purity="9.7593837976455688e-01" nType="0">
          <Node pos="l" depth="2" NCoef="0" IVar="-1" Cut="0.0000000000000000e+00" cType="1" res="5.1081343553960323e-03" rms="3.2103732228279114e-01" purity="8.8296693563461304e-01" nType="-99"/>
          <Node pos="r" depth="2" NCoef="0" IVar="-1" Cut="0.0000000000000000e+00" cType="1" res="5.0466512329876423e-03" rms="1.1037831753492355e-01" purity="9.8770004510879517e-01" nType="-99"/>
        </Node>
      </Node>
    </BinaryTree>
    <BinaryTree type="DecisionTree" boostWeight="1.0000000000000000e+00" itree="57">
      <Node pos="s" depth="0" NCoef="0" IVar="1" Cut="1.3643717041015625e+03" cType="1" res="1.3820467889308929e-01" rms="2.4184894561767578e-01" purity="4.9859344959259033e-01" nType="0">
        <Node pos="l" depth="1" NCoef="0" IVar="5" Cut="2.2242295837402344e+02" cType="1" res="-1.5651106834411621e-02" rms="1.9719974696636200e-01" purity="7.1635477244853973e-02" nType="0">
          <Node pos="l" depth="2" NCoef="0" IVar="-1" Cut="0.0000000000000000e+00" cType="1" res="-7.6900785788893700e-03" rms="1.7251123487949371e-01" purity="5.0245758146047592e-02" nType="-99"/>
          <Node pos="r" depth="2" NCoef="0" IVar="-1" Cut="0.0000000000000000e+00" cType="1" res="1.0401046834886074e-02" rms="3.7493973970413208e-01" purity="4.1143581271171570e-01" nType="-99"/>
        </Node>
        <Node pos="r" depth="1" NCoef="0" IVar="1" Cut="1.5978927001953125e+03" cType="1" res="3.0959311127662659e-01" rms="1.5679562091827393e-01" purity="9.7420555353164673e-01" nType="0">
          <Node pos="l" depth="2" NCoef="0" IVar="-1" Cut="0.0000000000000000e+00" cType="1" res="4.9596629105508327e-03" rms="3.3652290701866150e-01" purity="8.6159771680831909e-01" nType="-99"/>
          <Node pos="r" depth="2" NCoef="0" IVar="-1" Cut="0.0000000000000000e+00" cType="1" res="5.1770638674497604e-03" rms="1.1081124097108841e-01" purity="9.8762220144271851e-01" nType="-99"/>
        </Node>
      </Node>
    </BinaryTree>
    <BinaryTree type="DecisionTree" boostWeight="1.0000000000000000e+00" itree="58">
      <Node pos="s" depth="0" NCoef="0" IVar="1" Cut="1.0965057373046875e+03" cType="1" res="1.4212687313556671e-01" rms="2.4471695721149445e-01" purity="5.0602304935455322e-01" nType="0">
        <Node pos="l" depth="1" NCoef="0" IVar="1" Cut="7.1610192871093750e+02" cType="1" res="-2.2366655990481377e-02" rms="1.5829195082187653e-01" purity="3.0337586998939514e-02" nType="0">
          <Node pos="l" depth="2" NCoef="0" IVar="-1" Cut="0.0000000000000000e+00" cType="1" res="-3.6680508404970169e-02" rms="3.8022778928279877e-02" purity="1.4646337367594242e-03" nType="-99"/>
          <Node pos="r" depth="2" NCoef="0" IVar="-1" Cut="0.0000000000000000e+00" cType="1" res="8.7959999218583107e-03" rms="3.1833419203758240e-01" purity="1.3046793639659882e-01" nType="-99"/>
        </Node>
        <Node pos="r" depth="1" NCoef="0" IVar="1" Cut="1.6036954345703125e+03" cType="1" res="2.9216858744621277e-01" rms="2.1086248755455017e-01" purity="9.3991637229919434e-01" nType="0">
          <Node pos="l" depth="2" NCoef="0" IVar="-1" Cut="0.0000000000000000e+00" cType="1" res="4.7429744154214859e-03" rms="4.0301170945167542e-01" purity="7.3535287380218506e-01" nType="-99"/>
          <Node pos="r" depth="2" NCoef="0" IVar="-1" Cut="0.0000000000000000e+00" cType="1" res="5.2493950352072716e-03" rms="1.1902082711458206e-01" purity="9.8569810390472412e-01" nType="-99"/>
        </Node>
      </Node>
    </BinaryTree>
    <BinaryTree type="DecisionTree" boostWeight="1.0000000000000000e+00" itree="59">
      <Node pos="s" depth="0" NCoef="0" IVar="1" Cut="1.3706633300781250e+03" cType="1" res="1.3803219795227051e-01" rms="2.4567537009716034e-01" purity="4.9632143974304199e-01" nType="0">
        <Node pos="l" depth="1" NCoef="0" IVar="1" Cut="9.8656488037109375e+02" cType="1" res="-4.8732655122876167e-03" rms="2.1377535164356232e-01" purity="8.2669794559478760e-02" nType="0">
          <Node pos="l" depth="2" NCoef="0" IVar="-1" Cut="0.0000000000000000e+00" cType="1" res="-1.9364861771464348e-02" rms="1.2730686366558075e-01" purity="1.7710665240883827e-02" nType="-99"/>
          <Node pos="r" depth="2" NCoef="0" IVar="-1" Cut="0.0000000000000000e+00" cType="1" res="5.6504793465137482e-03" rms="4.6601563692092896e-01" purity="5.1225334405899048e-01" nType="-99"/>
        </Node>
        <Node pos="r" depth="1" NCoef="0" IVar="1" Cut="1.8370605468750000e+03" cType="1" res="3.0243760347366333e-01" rms="1.6338406503200531e-01" purity="9.7220635414123535e-01" nType="0">
          <Node pos="l" depth="2" NCoef="0" IVar="-1" Cut="0.0000000000000000e+00" cType="1" res="4.6766065061092377e-03" rms="2.9589241743087769e-01" purity="8.9994180202484131e-01" nType="-99"/>
          <Node pos="r" depth="2" NCoef="0" IVar="-1" Cut="0.0000000000000000e+00" cType="1" res="5.1107453182339668e-03" rms="9.2808417975902557e-02" purity="9.9131637811660767e-01" nType="-99"/>
        </Node>
      </Node>
    </BinaryTree>
    <BinaryTree type="DecisionTree" boostWeight="1.0000000000000000e+00" itree="60">
      <Node pos="s" depth="0" NCoef="0" IVar="1" Cut="1.3938824462890625e+03" cType="1" res="1.3646450638771057e-01" rms="2.4033443629741669e-01" purity="4.9658378958702087e-01" nType="0">
        <Node pos="l" depth="1" NCoef="0" IVar="1" Cut="1.1685043945312500e+03" cType="1" res="-9.2839673161506653e-03" rms="2.0391723513603210e-01" purity="7.7804908156394958e-02" nType="0">
          <Node pos="l" depth="2" NCoef="0" IVar="-1" Cut="0.0000000000000000e+00" cType="1" res="-9.4944043084979057e-03" rms="1.5870103240013123e-01" purity="3.2192185521125793e-02" nType="-99"/>
          <Node pos="r" depth="2" NCoef="0" IVar="-1" Cut="0.0000000000000000e+00" cType="1" res="4.8473021015524864e-03" rms="4.6024188399314880e-01" purity="6.6577196121215820e-01" nType="-99"/>
        </Node>
        <Node pos="r" depth="1" NCoef="0" IVar="1" Cut="1.8727613525390625e+03" cType="1" res="3.0311483144760132e-01" rms="1.5555654466152191e-01" purity="9.7541999816894531e-01" nType="0">
          <Node pos="l" depth="2" NCoef="0" IVar="-1" Cut="0.0000000000000000e+00" cType="1" res="5.4817642085254192e-03" rms="2.6864823698997498e-01" purity="9.2189598083496094e-01" nType="-99"/>
          <Node pos="r" depth="2" NCoef="0" IVar="-1" Cut="0.0000000000000000e+00" cType="1" res="4.8845880664885044e-03" rms="8.1960938870906830e-02" purity="9.9323678016662598e-01" nType="-99"/>
        </Node>
      </Node>
    </BinaryTree>
    <BinaryTree type="DecisionTree" boostWeight="1.0000000000000000e+00" itree="61">
      <Node pos="s" depth="0" NCoef="0" IVar="1" Cut="1.3923596191406250e+03" cType="1" res="1.3827924430370331e-01" rms="2.4057196080684662e-01" purity="5.0452655553817749e-01" nType="0">
        <Node pos="l" depth="1" NCoef="0" IVar="8" Cut="4.1801056265830994e-01" cType="1" res="-1.1110237799584866e-02" rms="2.0606616139411926e-01" purity="7.3434449732303619e-02" nType="0">
          <Node pos="l" depth="2" NCoef="0" IVar="-1" Cut="0.0000000000000000e+00" cType="1" res="-9.6189826726913452e-03" rms="1.6752792894840240e-01" purity="3.6351598799228668e-02" nType="-99"/>
          <Node pos="r" depth="2" NCoef="0" IVar="-1" Cut="0.0000000000000000e+00" cType="1" res="5.9697725810110569e-03" rms="2.9854199290275574e-01" purity="2.1494133770465851e-01" nType="-99"/>
        </Node>
        <Node pos="r" depth="1" NCoef="0" IVar="1" Cut="1.6320184326171875e+03" cType="1" res="3.0166378617286682e-01" rms="1.5371342003345490e-01" purity="9.7600412368774414e-01" nType="0">
          <Node pos="l" depth="2" NCoef="0" IVar="-1" Cut="0.0000000000000000e+00" cType="1" res="5.2836039103567600e-03" rms="3.1865546107292175e-01" purity="8.8512891530990601e-01" nType="-99"/>
