<?xml version="1.0"?>
<MethodSetup Method="BDT::BDTG">
  <GeneralInfo>
    <Info name="TMVA Release" value="4.2.1 [262657]"/>
    <Info name="ROOT Release" value="6.06/08 [394760]"/>
    <Info name="Creator" value="vischia"/>
    <Info name="Date" value="Sun Aug  6 04:01:48 2017"/>
    <Info name="Host" value="Linux fanae127.geol.uniovi.es 2.6.32-642.4.2.el6.x86_64 #1 SMP Wed Aug 24 09:19:54 CEST 2016 x86_64 x86_64 x86_64 GNU/Linux"/>
    <Info name="Dir" value="/mnt_pool/ciencias_users/user/vischia/workarea/chargedHiggs/chargedHiggs13TeV"/>
    <Info name="Training events" value="1084817"/>
    <Info name="TrainingTime" value="6.26722984e+02"/>
    <Info name="AnalysisType" value="Classification"/>
  </GeneralInfo>
  <Options>
    <Option name="V" modified="Yes">False</Option>
    <Option name="VerbosityLevel" modified="No">Default</Option>
    <Option name="VarTransform" modified="No">None</Option>
    <Option name="H" modified="Yes">False</Option>
    <Option name="CreateMVAPdfs" modified="No">False</Option>
    <Option name="IgnoreNegWeightsInTraining" modified="No">False</Option>
    <Option name="NTrees" modified="Yes">500</Option>
    <Option name="MaxDepth" modified="Yes">2</Option>
    <Option name="MinNodeSize" modified="Yes">2.5%</Option>
    <Option name="nCuts" modified="Yes">20</Option>
    <Option name="BoostType" modified="Yes">Grad</Option>
    <Option name="AdaBoostR2Loss" modified="No">quadratic</Option>
    <Option name="UseBaggedBoost" modified="Yes">True</Option>
    <Option name="Shrinkage" modified="Yes">5.000000e-01</Option>
    <Option name="AdaBoostBeta" modified="No">5.000000e-01</Option>
    <Option name="UseRandomisedTrees" modified="No">False</Option>
    <Option name="UseNvars" modified="Yes">5</Option>
    <Option name="UsePoissonNvars" modified="Yes">True</Option>
    <Option name="BaggedSampleFraction" modified="Yes">5.000000e-01</Option>
    <Option name="UseYesNoLeaf" modified="No">True</Option>
    <Option name="NegWeightTreatment" modified="Yes">pray</Option>
    <Option name="Css" modified="No">1.000000e+00</Option>
    <Option name="Cts_sb" modified="No">1.000000e+00</Option>
    <Option name="Ctb_ss" modified="No">1.000000e+00</Option>
    <Option name="Cbb" modified="No">1.000000e+00</Option>
    <Option name="NodePurityLimit" modified="No">5.000000e-01</Option>
    <Option name="SeparationType" modified="No">giniindex</Option>
    <Option name="DoBoostMonitor" modified="No">False</Option>
    <Option name="UseFisherCuts" modified="No">False</Option>
    <Option name="MinLinCorrForFisher" modified="No">8.000000e-01</Option>
    <Option name="UseExclusiveVars" modified="No">False</Option>
    <Option name="DoPreselection" modified="No">False</Option>
    <Option name="SigToBkgFraction" modified="No">1.000000e+00</Option>
    <Option name="PruneMethod" modified="No">nopruning</Option>
    <Option name="PruneStrength" modified="No">0.000000e+00</Option>
    <Option name="PruningValFraction" modified="No">5.000000e-01</Option>
    <Option name="nEventsMin" modified="No">0</Option>
    <Option name="UseBaggedGrad" modified="No">False</Option>
    <Option name="GradBaggingFraction" modified="No">5.000000e-01</Option>
    <Option name="UseNTrainEvents" modified="No">0</Option>
    <Option name="NNodesMax" modified="No">0</Option>
  </Options>
  <Variables NVar="13">
    <Variable VarIndex="0" Expression="bjet_pt[0]" Label="bjet_pt[0]" Title="p_{T} 1st bjet" Unit="GeV" Internal="bjet_pt_0_" Type="F" Min="4.00682373e+01" Max="2.40034180e+03"/>
    <Variable VarIndex="1" Expression="ht" Label="ht" Title="H_{T}" Unit="GeV" Internal="ht" Type="F" Min="2.08573029e+02" Max="6.42187500e+03"/>
    <Variable VarIndex="2" Expression="DRl1b1" Label="DRl1b1" Title="#Delta R(l_{1},b_{1})" Unit="" Internal="DRl1b1" Type="F" Min="4.00007725e-01" Max="5.64579391e+00"/>
    <Variable VarIndex="3" Expression="DRlbmaxPT" Label="DRlbmaxPT" Title="DRlbmaxPT" Unit="" Internal="DRlbmaxPT" Type="F" Min="4.00007725e-01" Max="5.64579391e+00"/>
    <Variable VarIndex="4" Expression="DEtaMaxBB" Label="DEtaMaxBB" Title="DEtaMaxBB" Unit="" Internal="DEtaMaxBB" Type="F" Min="1.23871985e-06" Max="4.76933718e+00"/>
    <Variable VarIndex="5" Expression="MassMinlb" Label="MassMinlb" Title="M(lb)^{min}" Unit="GeV" Internal="MassMinlb" Type="F" Min="1.63790855e+01" Max="2.41153784e+03"/>
    <Variable VarIndex="6" Expression="AvCSVPt" Label="AvCSVPt" Title="AvCSVPt" Unit="GeV" Internal="AvCSVPt" Type="F" Min="3.34411114e-02" Max="8.48321259e-01"/>
    <Variable VarIndex="7" Expression="MJJJmaxPt" Label="MJJJmaxPt" Title="M(JJJ)^{max p_{T}}" Unit="GeV" Internal="MJJJmaxPt" Type="F" Min="3.59102135e+01" Max="4.95565186e+03"/>
    <Variable VarIndex="8" Expression="FW2" Label="FW2" Title="Fox-Wolfram moment" Unit="" Internal="FW2" Type="F" Min="1.05116458e-03" Max="9.84050453e-01"/>
    <Variable VarIndex="9" Expression="Cen" Label="Cen" Title="Centrality" Unit="" Internal="Cen" Type="F" Min="2.07087502e-01" Max="9.92251754e-01"/>
    <Variable VarIndex="10" Expression="DRbbmin" Label="DRbbmin" Title="#Delta R(bb)^{min}" Unit="" Internal="DRbbmin" Type="F" Min="3.81242782e-01" Max="5.57718992e+00"/>
    <Variable VarIndex="11" Expression="DRlbmin" Label="DRlbmin" Title="DRlbmin" Unit="" Internal="DRlbmin" Type="F" Min="4.00007725e-01" Max="4.93654823e+00"/>
    <Variable VarIndex="12" Expression="AvDRBB" Label="AvDRBB" Title="&lt;#Delta R(bb)&gt;" Unit="" Internal="AvDRBB" Type="F" Min="7.88170755e-01" Max="1.11543798e+01"/>
  </Variables>
  <Spectators NSpec="5">
    <Spectator SpecIndex="0" Expression="mc" Label="mc" Title="mc" Unit="" Internal="mc" Type="F" Min="1.40000000e+01" Max="1.27000000e+02"/>
    <Spectator SpecIndex="1" Expression="lep_category" Label="lep_category" Title="lep_category" Unit="" Internal="lep_category" Type="F" Min="1.00000000e+00" Max="2.00000000e+00"/>
    <Spectator SpecIndex="2" Expression="run" Label="run" Title="run" Unit="" Internal="run" Type="F" Min="1.00000000e+00" Max="1.00000000e+00"/>
    <Spectator SpecIndex="3" Expression="lumi" Label="lumi" Title="lumi" Unit="" Internal="lumi" Type="F" Min="1.00000000e+00" Max="1.12149400e+06"/>
    <Spectator SpecIndex="4" Expression="evt" Label="evt" Title="evt" Unit="" Internal="evt" Type="F" Min="5.00000000e+00" Max="1.59999760e+08"/>
  </Spectators>
  <Classes NClass="2">
    <Class Name="Signal" Index="0"/>
    <Class Name="Background" Index="1"/>
  </Classes>
  <Transformations NTransformations="0"/>
  <MVAPdfs/>
  <Weights NTrees="500" AnalysisType="1">
    <BinaryTree type="DecisionTree" boostWeight="1.0000000000000000e+00" itree="0">
      <Node pos="s" depth="0" NCoef="0" IVar="1" Cut="1.0784841308593750e+03" cType="1" res="2.7853341307491064e-03" rms="4.9999225139617920e-01" purity="5.0278532505035400e-01" nType="0">
        <Node pos="l" depth="1" NCoef="0" IVar="1" Cut="8.2992102050781250e+02" cType="1" res="-4.6898645162582397e-01" rms="1.7335431277751923e-01" purity="3.1013555824756622e-02" nType="0">
          <Node pos="l" depth="2" NCoef="0" IVar="-1" Cut="0.0000000000000000e+00" cType="1" res="-8.7809868156909943e-02" rms="9.8705634474754333e-02" purity="9.8396204411983490e-03" nType="-99"/>
          <Node pos="r" depth="2" NCoef="0" IVar="-1" Cut="0.0000000000000000e+00" cType="1" res="-4.8983092419803143e-03" rms="4.3385356664657593e-01" purity="2.5146210193634033e-01" nType="-99"/>
        </Node>
        <Node pos="r" depth="1" NCoef="0" IVar="1" Cut="1.3270303955078125e+03" cType="1" res="4.6479770541191101e-01" rms="1.8429079651832581e-01" purity="9.6479767560958862e-01" nType="0">
          <Node pos="l" depth="2" NCoef="0" IVar="-1" Cut="0.0000000000000000e+00" cType="1" res="1.4485938008874655e-03" rms="4.6039712429046631e-01" purity="6.9502437114715576e-01" nType="-99"/>
          <Node pos="r" depth="2" NCoef="0" IVar="-1" Cut="0.0000000000000000e+00" cType="1" res="1.8766459543257952e-03" rms="1.1915495246648788e-01" purity="9.8559457063674927e-01" nType="-99"/>
        </Node>
      </Node>
    </BinaryTree>
    <BinaryTree type="DecisionTree" boostWeight="1.0000000000000000e+00" itree="1">
      <Node pos="s" depth="0" NCoef="0" IVar="1" Cut="1.0953590087890625e+03" cType="1" res="1.4811797067523003e-02" rms="4.7999328374862671e-01" purity="4.9517810344696045e-01" nType="0">
        <Node pos="l" depth="1" NCoef="0" IVar="1" Cut="9.2731970214843750e+02" cType="1" res="-4.2928421497344971e-01" rms="1.6755729913711548e-01" purity="3.0813910067081451e-02" nType="0">
          <Node pos="l" depth="2" NCoef="0" IVar="-1" Cut="0.0000000000000000e+00" cType="1" res="-6.8180799484252930e-02" rms="7.0199534296989441e-02" purity="4.8552900552749634e-03" nType="-99"/>
          <Node pos="r" depth="2" NCoef="0" IVar="-1" Cut="0.0000000000000000e+00" cType="1" res="-8.9909334201365709e-04" rms="4.9610167741775513e-01" purity="4.3882033228874207e-01" nType="-99"/>
        </Node>
        <Node pos="r" depth="1" NCoef="0" IVar="1" Cut="1.3473356933593750e+03" cType="1" res="4.6531352400779724e-01" rms="1.8058812618255615e-01" purity="9.6624034643173218e-01" nType="0">
          <Node pos="l" depth="2" NCoef="0" IVar="-1" Cut="0.0000000000000000e+00" cType="1" res="8.8501232676208019e-04" rms="4.7697481513023376e-01" purity="6.4995193481445312e-01" nType="-99"/>
          <Node pos="r" depth="2" NCoef="0" IVar="-1" Cut="0.0000000000000000e+00" cType="1" res="1.8309346633031964e-03" rms="1.1403810977935791e-01" purity="9.8682165145874023e-01" nType="-99"/>
        </Node>
      </Node>
    </BinaryTree>
    <BinaryTree type="DecisionTree" boostWeight="1.0000000000000000e+00" itree="2">
      <Node pos="s" depth="0" NCoef="0" IVar="1" Cut="1.0962033691406250e+03" cType="1" res="3.6199074238538742e-02" rms="4.6443724632263184e-01" purity="5.0131165981292725e-01" nType="0">
        <Node pos="l" depth="1" NCoef="0" IVar="1" Cut="7.1578887939453125e+02" cType="1" res="-3.9913743734359741e-01" rms="1.6137531399726868e-01" purity="2.8812240809202194e-02" nType="0">
          <Node pos="l" depth="2" NCoef="0" IVar="-1" Cut="0.0000000000000000e+00" cType="1" res="-9.1300278902053833e-02" rms="3.4582380205392838e-02" purity="1.1973748914897442e-03" nType="-99"/>
          <Node pos="r" depth="2" NCoef="0" IVar="-1" Cut="0.0000000000000000e+00" cType="1" res="-7.9600801691412926e-03" rms="3.6839631199836731e-01" purity="1.6739623248577118e-01" nType="-99"/>
        </Node>
        <Node pos="r" depth="1" NCoef="0" IVar="1" Cut="1.6034152832031250e+03" cType="1" res="4.6614283323287964e-01" rms="1.7604158818721771e-01" purity="9.6795803308486938e-01" nType="0">
          <Node pos="l" depth="2" NCoef="0" IVar="-1" Cut="0.0000000000000000e+00" cType="1" res="1.9915446173399687e-03" rms="3.7019571661949158e-01" purity="8.3596044778823853e-01" nType="-99"/>
          <Node pos="r" depth="2" NCoef="0" IVar="-1" Cut="0.0000000000000000e+00" cType="1" res="1.8568465020507574e-03" rms="7.2408877313137054e-02" purity="9.9472916126251221e-01" nType="-99"/>
        </Node>
      </Node>
    </BinaryTree>
    <BinaryTree type="DecisionTree" boostWeight="1.0000000000000000e+00" itree="3">
      <Node pos="s" depth="0" NCoef="0" IVar="1" Cut="1.0961876220703125e+03" cType="1" res="5.3346004337072372e-02" rms="4.4605305790901184e-01" purity="5.0027006864547729e-01" nType="0">
        <Node pos="l" depth="1" NCoef="0" IVar="1" Cut="8.4258300781250000e+02" cType="1" res="-3.6071443557739258e-01" rms="1.6065636277198792e-01" purity="3.0056791380047798e-02" nType="0">
          <Node pos="l" depth="2" NCoef="0" IVar="-1" Cut="0.0000000000000000e+00" cType="1" res="-6.4601719379425049e-02" rms="9.4615302979946136e-02" purity="9.4588501378893852e-03" nType="-99"/>
          <Node pos="r" depth="2" NCoef="0" IVar="-1" Cut="0.0000000000000000e+00" cType="1" res="-4.2016506195068359e-03" rms="4.3247804045677185e-01" purity="2.5083345174789429e-01" nType="-99"/>
        </Node>
        <Node pos="r" depth="1" NCoef="0" IVar="1" Cut="1.3498293457031250e+03" cType="1" res="4.6494445204734802e-01" rms="1.7676739394664764e-01" purity="9.6768742799758911e-01" nType="0">
          <Node pos="l" depth="2" NCoef="0" IVar="-1" Cut="0.0000000000000000e+00" cType="1" res="1.7386192921549082e-03" rms="4.4509890675544739e-01" purity="7.2776740789413452e-01" nType="-99"/>
          <Node pos="r" depth="2" NCoef="0" IVar="-1" Cut="0.0000000000000000e+00" cType="1" res="1.8571068067103624e-03" rms="1.0989549756050110e-01" purity="9.8777431249618530e-01" nType="-99"/>
        </Node>
      </Node>
    </BinaryTree>
    <BinaryTree type="DecisionTree" boostWeight="1.0000000000000000e+00" itree="4">
      <Node pos="s" depth="0" NCoef="0" IVar="1" Cut="1.0799746093750000e+03" cType="1" res="6.3564583659172058e-02" rms="4.3285062909126282e-01" purity="4.9677202105522156e-01" nType="0">
        <Node pos="l" depth="1" NCoef="0" IVar="4" Cut="2.2474188804626465e+00" cType="1" res="-3.3269843459129333e-01" rms="1.5946052968502045e-01" purity="2.9987683519721031e-02" nType="0">
          <Node pos="l" depth="2" NCoef="0" IVar="-1" Cut="0.0000000000000000e+00" cType="1" res="-4.9920465797185898e-02" rms="1.1446975171566010e-01" purity="1.4278605580329895e-02" nType="-99"/>
          <Node pos="r" depth="2" NCoef="0" IVar="-1" Cut="0.0000000000000000e+00" cType="1" res="-7.5525850988924503e-03" rms="3.4053328633308411e-01" purity="1.6773770749568939e-01" nType="-99"/>
        </Node>
        <Node pos="r" depth="1" NCoef="0" IVar="1" Cut="1.3284694824218750e+03" cType="1" res="4.5919951796531677e-01" rms="1.8903042376041412e-01" purity="9.6281647682189941e-01" nType="0">
          <Node pos="l" depth="2" NCoef="0" IVar="-1" Cut="0.0000000000000000e+00" cType="1" res="1.2372507480904460e-03" rms="4.7103804349899292e-01" purity="6.6725140810012817e-01" nType="-99"/>
          <Node pos="r" depth="2" NCoef="0" IVar="-1" Cut="0.0000000000000000e+00" cType="1" res="1.8309465376660228e-03" rms="1.2016477435827255e-01" purity="9.8534542322158813e-01" nType="-99"/>
        </Node>
      </Node>
    </BinaryTree>
    <BinaryTree type="DecisionTree" boostWeight="1.0000000000000000e+00" itree="5">
      <Node pos="s" depth="0" NCoef="0" IVar="1" Cut="1.0983541259765625e+03" cType="1" res="8.0868676304817200e-02" rms="4.2222604155540466e-01" purity="5.0574630498886108e-01" nType="0">
        <Node pos="l" depth="1" NCoef="0" IVar="1" Cut="9.2935150146484375e+02" cType="1" res="-3.1436455249786377e-01" rms="1.5206183493137360e-01" purity="2.8228286653757095e-02" nType="0">
          <Node pos="l" depth="2" NCoef="0" IVar="-1" Cut="0.0000000000000000e+00" cType="1" res="-5.2747201174497604e-02" rms="1.0341838747262955e-01" purity="1.1458480730652809e-02" nType="-99"/>
          <Node pos="r" depth="2" NCoef="0" IVar="-1" Cut="0.0000000000000000e+00" cType="1" res="-1.9674436189234257e-03" rms="4.6953195333480835e-01" purity="3.4164929389953613e-01" nType="-99"/>
        </Node>
        <Node pos="r" depth="1" NCoef="0" IVar="1" Cut="1.6053645019531250e+03" cType="1" res="4.6366676688194275e-01" rms="1.7526106536388397e-01" purity="9.6824026107788086e-01" nType="0">
          <Node pos="l" depth="2" NCoef="0" IVar="-1" Cut="0.0000000000000000e+00" cType="1" res="2.0186011679470539e-03" rms="3.6426597833633423e-01" purity="8.4232550859451294e-01" nType="-99"/>
          <Node pos="r" depth="2" NCoef="0" IVar="-1" Cut="0.0000000000000000e+00" cType="1" res="1.8724499968811870e-03" rms="7.3308870196342468e-02" purity="9.9459660053253174e-01" nType="-99"/>
        </Node>
      </Node>
    </BinaryTree>
    <BinaryTree type="DecisionTree" boostWeight="1.0000000000000000e+00" itree="6">
      <Node pos="s" depth="0" NCoef="0" IVar="1" Cut="1.0962033691406250e+03" cType="1" res="8.4500104188919067e-02" rms="4.1186246275901794e-01" purity="4.9773386120796204e-01" nType="0">
        <Node pos="l" depth="1" NCoef="0" IVar="3" Cut="2.8980197906494141e+00" cType="1" res="-2.9467719793319702e-01" rms="1.4549680054187775e-01" purity="2.5363514199852943e-02" nType="0">
          <Node pos="l" depth="2" NCoef="0" IVar="-1" Cut="0.0000000000000000e+00" cType="1" res="-3.8958840072154999e-02" rms="1.2235555797815323e-01" purity="1.7376890406012535e-02" nType="-99"/>
          <Node pos="r" depth="2" NCoef="0" IVar="-1" Cut="0.0000000000000000e+00" cType="1" res="-6.4298366196453571e-03" rms="3.1766125559806824e-01" purity="1.4167948067188263e-01" nType="-99"/>
        </Node>
        <Node pos="r" depth="1" NCoef="0" IVar="1" Cut="1.3498162841796875e+03" cType="1" res="4.5996224880218506e-01" rms="1.8247984349727631e-01" purity="9.6547585725784302e-01" nType="0">
          <Node pos="l" depth="2" NCoef="0" IVar="-1" Cut="0.0000000000000000e+00" cType="1" res="1.4539163094013929e-03" rms="4.5745921134948730e-01" purity="7.0174980163574219e-01" nType="-99"/>
          <Node pos="r" depth="2" NCoef="0" IVar="-1" Cut="0.0000000000000000e+00" cType="1" res="1.8351441249251366e-03" rms="1.1668377369642258e-01" purity="9.8619627952575684e-01" nType="-99"/>
        </Node>
      </Node>
    </BinaryTree>
    <BinaryTree type="DecisionTree" boostWeight="1.0000000000000000e+00" itree="7">
      <Node pos="s" depth="0" NCoef="0" IVar="1" Cut="1.0740701904296875e+03" cType="1" res="9.2870771884918213e-02" rms="4.0479856729507446e-01" purity="4.9803724884986877e-01" nType="0">
        <Node pos="l" depth="1" NCoef="0" IVar="5" Cut="1.5186984252929688e+02" cType="1" res="-2.7193191647529602e-01" rms="1.6383013129234314e-01" purity="3.2061122357845306e-02" nType="0">
          <Node pos="l" depth="2" NCoef="0" IVar="-1" Cut="0.0000000000000000e+00" cType="1" res="-4.4962424784898758e-02" rms="1.3229101896286011e-01" purity="1.9497770816087723e-02" nType="-99"/>
          <Node pos="r" depth="2" NCoef="0" IVar="-1" Cut="0.0000000000000000e+00" cType="1" res="-2.1161017939448357e-03" rms="3.9481022953987122e-01" purity="2.5552871823310852e-01" nType="-99"/>
        </Node>
        <Node pos="r" depth="1" NCoef="0" IVar="1" Cut="1.3213609619140625e+03" cType="1" res="4.5703393220901489e-01" rms="1.8756529688835144e-01" purity="9.6319639682769775e-01" nType="0">
          <Node pos="l" depth="2" NCoef="0" IVar="-1" Cut="0.0000000000000000e+00" cType="1" res="8.9411705266684294e-04" rms="4.8303687572479248e-01" purity="6.2584370374679565e-01" nType="-99"/>
          <Node pos="r" depth="2" NCoef="0" IVar="-1" Cut="0.0000000000000000e+00" cType="1" res="1.8557829316705465e-03" rms="1.1960402876138687e-01" purity="9.8548406362533569e-01" nType="-99"/>
        </Node>
      </Node>
    </BinaryTree>
    <BinaryTree type="DecisionTree" boostWeight="1.0000000000000000e+00" itree="8">
      <Node pos="s" depth="0" NCoef="0" IVar="1" Cut="1.0953590087890625e+03" cType="1" res="1.0101222246885300e-01" rms="3.9623224735260010e-01" purity="4.9766749143600464e-01" nType="0">
        <Node pos="l" depth="1" NCoef="0" IVar="7" Cut="7.2827648925781250e+02" cType="1" res="-2.5164565443992615e-01" rms="1.7084029316902161e-01" purity="3.6217559128999710e-02" nType="0">
          <Node pos="l" depth="2" NCoef="0" IVar="-1" Cut="0.0000000000000000e+00" cType="1" res="-3.9991252124309540e-02" rms="1.3542947173118591e-01" purity="2.1167846396565437e-02" nType="-99"/>
          <Node pos="r" depth="2" NCoef="0" IVar="-1" Cut="0.0000000000000000e+00" cType="1" res="-1.4064433053135872e-03" rms="4.1617542505264282e-01" purity="2.8897812962532043e-01" nType="-99"/>
        </Node>
        <Node pos="r" depth="1" NCoef="0" IVar="1" Cut="1.5993090820312500e+03" cType="1" res="4.5968455076217651e-01" rms="1.7849071323871613e-01" purity="9.6698731184005737e-01" nType="0">
          <Node pos="l" depth="2" NCoef="0" IVar="-1" Cut="0.0000000000000000e+00" cType="1" res="1.9485102966427803e-03" rms="3.7740349769592285e-01" purity="8.2765543460845947e-01" nType="-99"/>
          <Node pos="r" depth="2" NCoef="0" IVar="-1" Cut="0.0000000000000000e+00" cType="1" res="1.8193434225395322e-03" rms="7.1271166205406189e-02" purity="9.9489438533782959e-01" nType="-99"/>
        </Node>
      </Node>
    </BinaryTree>
    <BinaryTree type="DecisionTree" boostWeight="1.0000000000000000e+00" itree="9">
      <Node pos="s" depth="0" NCoef="0" IVar="1" Cut="1.0911708984375000e+03" cType="1" res="1.0688048601150513e-01" rms="3.8839560747146606e-01" purity="4.9737930297851562e-01" nType="0">
        <Node pos="l" depth="1" NCoef="0" IVar="1" Cut="9.2303253173828125e+02" cType="1" res="-2.4364231526851654e-01" rms="1.5090803802013397e-01" purity="2.8955424204468727e-02" nType="0">
          <Node pos="l" depth="2" NCoef="0" IVar="-1" Cut="0.0000000000000000e+00" cType="1" res="-4.6889353543519974e-02" rms="1.0188718885183334e-01" purity="1.1153798550367355e-02" nType="-99"/>
          <Node pos="r" depth="2" NCoef="0" IVar="-1" Cut="0.0000000000000000e+00" cType="1" res="-1.4564472949132323e-03" rms="4.6079078316688538e-01" purity="3.4051042795181274e-01" nType="-99"/>
        </Node>
        <Node pos="r" depth="1" NCoef="0" IVar="1" Cut="1.3433591308593750e+03" cType="1" res="4.5686867833137512e-01" rms="1.8320243060588837e-01" purity="9.6508878469467163e-01" nType="0">
          <Node pos="l" depth="2" NCoef="0" IVar="-1" Cut="0.0000000000000000e+00" cType="1" res="1.4152720104902983e-03" rms="4.5665365457534790e-01" purity="7.0125985145568848e-01" nType="-99"/>
          <Node pos="r" depth="2" NCoef="0" IVar="-1" Cut="0.0000000000000000e+00" cType="1" res="1.8329351441934705e-03" rms="1.1744356155395508e-01" purity="9.8601412773132324e-01" nType="-99"/>
        </Node>
      </Node>
    </BinaryTree>
    <BinaryTree type="DecisionTree" boostWeight="1.0000000000000000e+00" itree="10">
      <Node pos="s" depth="0" NCoef="0" IVar="1" Cut="1.0543027343750000e+03" cType="1" res="1.2749519944190979e-01" rms="3.7981086969375610e-01" purity="5.1372468471527100e-01" nType="0">
        <Node pos="l" depth="1" NCoef="0" IVar="9" Cut="3.5712301731109619e-01" cType="1" res="-2.2977417707443237e-01" rms="1.3885691761970520e-01" purity="2.3085365071892738e-02" nType="0">
          <Node pos="l" depth="2" NCoef="0" IVar="-1" Cut="0.0000000000000000e+00" cType="1" res="-6.0148141346871853e-03" rms="3.0799949169158936e-01" purity="1.4531773328781128e-01" nType="-99"/>
          <Node pos="r" depth="2" NCoef="0" IVar="-1" Cut="0.0000000000000000e+00" cType="1" res="-3.5205598920583725e-02" rms="1.1940698325634003e-01" purity="1.5997583046555519e-02" nType="-99"/>
        </Node>
        <Node pos="r" depth="1" NCoef="0" IVar="1" Cut="1.2959440917968750e+03" cType="1" res="4.5458787679672241e-01" rms="1.8661604821681976e-01" purity="9.6292215585708618e-01" nType="0">
          <Node pos="l" depth="2" NCoef="0" IVar="-1" Cut="0.0000000000000000e+00" cType="1" res="1.2865687021985650e-03" rms="4.7247120738029480e-01" purity="6.4827060699462891e-01" nType="-99"/>
          <Node pos="r" depth="2" NCoef="0" IVar="-1" Cut="0.0000000000000000e+00" cType="1" res="1.9609855953603983e-03" rms="1.1845162510871887e-01" purity="9.8576319217681885e-01" nType="-99"/>
        </Node>
      </Node>
    </BinaryTree>
    <BinaryTree type="DecisionTree" boostWeight="1.0000000000000000e+00" itree="11">
      <Node pos="s" depth="0" NCoef="0" IVar="1" Cut="1.0962033691406250e+03" cType="1" res="1.3071605563163757e-01" rms="3.7524557113647461e-01" purity="5.0976103544235229e-01" nType="0">
        <Node pos="l" depth="1" NCoef="0" IVar="7" Cut="7.3596728515625000e+02" cType="1" res="-2.0611213147640228e-01" rms="1.7306293547153473e-01" purity="3.7546783685684204e-02" nType="0">
          <Node pos="l" depth="2" NCoef="0" IVar="-1" Cut="0.0000000000000000e+00" cType="1" res="-3.5880722105503082e-02" rms="1.3810040056705475e-01" purity="2.2609852254390717e-02" nType="-99"/>
          <Node pos="r" depth="2" NCoef="0" IVar="-1" Cut="0.0000000000000000e+00" cType="1" res="-6.6458410583436489e-04" rms="4.2450919747352600e-01" purity="2.9068219661712646e-01" nType="-99"/>
        </Node>
        <Node pos="r" depth="1" NCoef="0" IVar="1" Cut="1.3498162841796875e+03" cType="1" res="4.5672690868377686e-01" rms="1.7892666161060333e-01" purity="9.6680998802185059e-01" nType="0">
          <Node pos="l" depth="2" NCoef="0" IVar="-1" Cut="0.0000000000000000e+00" cType="1" res="1.6073243459686637e-03" rms="4.4966408610343933e-01" purity="7.1857702732086182e-01" nType="-99"/>
          <Node pos="r" depth="2" NCoef="0" IVar="-1" Cut="0.0000000000000000e+00" cType="1" res="1.8544772174209356e-03" rms="1.1085522919893265e-01" purity="9.8755908012390137e-01" nType="-99"/>
        </Node>
      </Node>
    </BinaryTree>
    <BinaryTree type="DecisionTree" boostWeight="1.0000000000000000e+00" itree="12">
      <Node pos="s" depth="0" NCoef="0" IVar="1" Cut="1.0983541259765625e+03" cType="1" res="1.2270026654005051e-01" rms="3.6784544587135315e-01" purity="4.9229720234870911e-01" nType="0">
        <Node pos="l" depth="1" NCoef="0" IVar="1" Cut="9.2935314941406250e+02" cType="1" res="-2.0282293856143951e-01" rms="1.4744307100772858e-01" purity="2.8349606320261955e-02" nType="0">
          <Node pos="l" depth="2" NCoef="0" IVar="-1" Cut="0.0000000000000000e+00" cType="1" res="-4.3957185000181198e-02" rms="1.0087782144546509e-01" purity="1.1035494506359100e-02" nType="-99"/>
          <Node pos="r" depth="2" NCoef="0" IVar="-1" Cut="0.0000000000000000e+00" cType="1" res="-7.9950119834393263e-04" rms="4.6325984597206116e-01" purity="3.5509485006332397e-01" nType="-99"/>
        </Node>
        <Node pos="r" depth="1" NCoef="0" IVar="1" Cut="1.6053572998046875e+03" cType="1" res="4.5530211925506592e-01" rms="1.8015861511230469e-01" purity="9.6633356809616089e-01" nType="0">
          <Node pos="l" depth="2" NCoef="0" IVar="-1" Cut="0.0000000000000000e+00" cType="1" res="1.6819684533402324e-03" rms="3.8316723704338074e-01" purity="8.2078611850738525e-01" nType="-99"/>
          <Node pos="r" depth="2" NCoef="0" IVar="-1" Cut="0.0000000000000000e+00" cType="1" res="1.7851766897365451e-03" rms="7.8241355717182159e-02" purity="9.9384033679962158e-01" nType="-99"/>
        </Node>
      </Node>
    </BinaryTree>
    <BinaryTree type="DecisionTree" boostWeight="1.0000000000000000e+00" itree="13">
      <Node pos="s" depth="0" NCoef="0" IVar="1" Cut="1.0999910888671875e+03" cType="1" res="1.4238177239894867e-01" rms="3.6173188686370850e-01" purity="5.1033300161361694e-01" nType="0">
        <Node pos="l" depth="1" NCoef="0" IVar="7" Cut="7.5520489501953125e+02" cType="1" res="-1.8392790853977203e-01" rms="1.6075903177261353e-01" purity="3.4120228141546249e-02" nType="0">
          <Node pos="l" depth="2" NCoef="0" IVar="-1" Cut="0.0000000000000000e+00" cType="1" res="-3.4847501665353775e-02" rms="1.2358199805021286e-01" purity="1.8448200076818466e-02" nType="-99"/>
          <Node pos="r" depth="2" NCoef="0" IVar="-1" Cut="0.0000000000000000e+00" cType="1" res="3.4684395359363407e-05" rms="4.2675578594207764e-01" purity="3.1965020298957825e-01" nType="-99"/>
        </Node>
        <Node pos="r" depth="1" NCoef="0" IVar="1" Cut="1.6068518066406250e+03" cType="1" res="4.5572355389595032e-01" rms="1.7678757011890411e-01" purity="9.6762043237686157e-01" nType="0">
          <Node pos="l" depth="2" NCoef="0" IVar="-1" Cut="0.0000000000000000e+00" cType="1" res="2.1314388141036034e-03" rms="3.6802232265472412e-01" purity="8.3810472488403320e-01" nType="-99"/>
          <Node pos="r" depth="2" NCoef="0" IVar="-1" Cut="0.0000000000000000e+00" cType="1" res="1.8272063462063670e-03" rms="7.2613969445228577e-02" purity="9.9469912052154541e-01" nType="-99"/>
        </Node>
      </Node>
    </BinaryTree>
    <BinaryTree type="DecisionTree" boostWeight="1.0000000000000000e+00" itree="14">
      <Node pos="s" depth="0" NCoef="0" IVar="1" Cut="1.0403620605468750e+03" cType="1" res="1.4382383227348328e-01" rms="3.5542616248130798e-01" purity="5.0576269626617432e-01" nType="0">
        <Node pos="l" depth="1" NCoef="0" IVar="1" Cut="7.6307897949218750e+02" cType="1" res="-1.8228751420974731e-01" rms="1.2874901294708252e-01" purity="2.0862519741058350e-02" nType="0">
          <Node pos="l" depth="2" NCoef="0" IVar="-1" Cut="0.0000000000000000e+00" cType="1" res="-6.0104437172412872e-02" rms="4.1271533817052841e-02" purity="1.9273775396868587e-03" nType="-99"/>
          <Node pos="r" depth="2" NCoef="0" IVar="-1" Cut="0.0000000000000000e+00" cType="1" res="-3.9190310053527355e-03" rms="3.5636007785797119e-01" purity="1.6627566516399384e-01" nType="-99"/>
        </Node>
        <Node pos="r" depth="1" NCoef="0" IVar="1" Cut="1.5156785888671875e+03" cType="1" res="4.5012429356575012e-01" rms="1.8895472586154938e-01" purity="9.6120584011077881e-01" nType="0">
          <Node pos="l" depth="2" NCoef="0" IVar="-1" Cut="0.0000000000000000e+00" cType="1" res="1.4937628293409944e-03" rms="4.3437939882278442e-01" purity="7.3482412099838257e-01" nType="-99"/>
          <Node pos="r" depth="2" NCoef="0" IVar="-1" Cut="0.0000000000000000e+00" cType="1" res="1.8893424421548843e-03" rms="8.3158060908317566e-02" purity="9.9303728342056274e-01" nType="-99"/>
        </Node>
      </Node>
    </BinaryTree>
    <BinaryTree type="DecisionTree" boostWeight="1.0000000000000000e+00" itree="15">
      <Node pos="s" depth="0" NCoef="0" IVar="1" Cut="1.0961876220703125e+03" cType="1" res="1.4446499943733215e-01" rms="3.4736603498458862e-01" purity="4.9709331989288330e-01" nType="0">
        <Node pos="l" depth="1" NCoef="0" IVar="2" Cut="3.0106208324432373e+00" cType="1" res="-1.6528475284576416e-01" rms="1.3507783412933350e-01" purity="2.5727925822138786e-02" nType="0">
          <Node pos="l" depth="2" NCoef="0" IVar="-1" Cut="0.0000000000000000e+00" cType="1" res="-3.2863721251487732e-02" rms="7.7049285173416138e-02" purity="7.4873622506856918e-03" nType="-99"/>
          <Node pos="r" depth="2" NCoef="0" IVar="-1" Cut="0.0000000000000000e+00" cType="1" res="-4.3013733811676502e-03" rms="2.7454289793968201e-01" purity="1.2107864767313004e-01" nType="-99"/>
        </Node>
        <Node pos="r" depth="1" NCoef="0" IVar="1" Cut="1.3498121337890625e+03" cType="1" res="4.5331969857215881e-01" rms="1.7811639606952667e-01" purity="9.6709656715393066e-01" nType="0">
          <Node pos="l" depth="2" NCoef="0" IVar="-1" Cut="0.0000000000000000e+00" cType="1" res="8.3296984666958451e-04" rms="4.7702988982200623e-01" purity="6.4904761314392090e-01" nType="-99"/>
          <Node pos="r" depth="2" NCoef="0" IVar="-1" Cut="0.0000000000000000e+00" cType="1" res="1.8091457895934582e-03" rms="1.1116734147071838e-01" purity="9.8748737573623657e-01" nType="-99"/>
        </Node>
      </Node>
    </BinaryTree>
    <BinaryTree type="DecisionTree" boostWeight="1.0000000000000000e+00" itree="16">
      <Node pos="s" depth="0" NCoef="0" IVar="1" Cut="1.0784841308593750e+03" cType="1" res="1.4975807070732117e-01" rms="3.4361299872398376e-01" purity="4.9958130717277527e-01" nType="0">
        <Node pos="l" depth="1" NCoef="0" IVar="2" Cut="3.1478295326232910e+00" cType="1" res="-1.5932276844978333e-01" rms="1.2690821290016174e-01" purity="2.0671403035521507e-02" nType="0">
          <Node pos="l" depth="2" NCoef="0" IVar="-1" Cut="0.0000000000000000e+00" cType="1" res="-3.3399108797311783e-02" rms="9.8028555512428284e-02" purity="1.1096836999058723e-02" nType="-99"/>
          <Node pos="r" depth="2" NCoef="0" IVar="-1" Cut="0.0000000000000000e+00" cType="1" res="-4.1902670636773109e-03" rms="2.6618927717208862e-01" purity="1.0791470110416412e-01" nType="-99"/>
        </Node>
        <Node pos="r" depth="1" NCoef="0" IVar="1" Cut="1.3270543212890625e+03" cType="1" res="4.4909754395484924e-01" rms="1.8626923859119415e-01" purity="9.6339720487594604e-01" nType="0">
          <Node pos="l" depth="2" NCoef="0" IVar="-1" Cut="0.0000000000000000e+00" cType="1" res="8.1856182077899575e-04" rms="4.8076537251472473e-01" purity="6.2314563989639282e-01" nType="-99"/>
          <Node pos="r" depth="2" NCoef="0" IVar="-1" Cut="0.0000000000000000e+00" cType="1" res="1.8589311512187123e-03" rms="1.1907917261123657e-01" purity="9.8561090230941772e-01" nType="-99"/>
        </Node>
      </Node>
    </BinaryTree>
    <BinaryTree type="DecisionTree" boostWeight="1.0000000000000000e+00" itree="17">
      <Node pos="s" depth="0" NCoef="0" IVar="1" Cut="1.0784841308593750e+03" cType="1" res="1.5787604451179504e-01" rms="3.4013670682907104e-01" purity="5.0454270839691162e-01" nType="0">
        <Node pos="l" depth="1" NCoef="0" IVar="4" Cut="2.4945144653320312e+00" cType="1" res="-1.4477279782295227e-01" rms="1.4561909437179565e-01" purity="2.7426382526755333e-02" nType="0">
          <Node pos="l" depth="2" NCoef="0" IVar="-1" Cut="0.0000000000000000e+00" cType="1" res="-2.9008332639932632e-02" rms="1.1755157262086868e-01" purity="1.5216189436614513e-02" nType="-99"/>
          <Node pos="r" depth="2" NCoef="0" IVar="-1" Cut="0.0000000000000000e+00" cType="1" res="-1.0062998626381159e-03" rms="3.2635661959648132e-01" purity="1.9291117787361145e-01" nType="-99"/>
        </Node>
        <Node pos="r" depth="1" NCoef="0" IVar="1" Cut="1.3270303955078125e+03" cType="1" res="4.5004022121429443e-01" rms="1.8200179934501648e-01" purity="9.6513032913208008e-01" nType="0">
          <Node pos="l" depth="2" NCoef="0" IVar="-1" Cut="0.0000000000000000e+00" cType="1" res="1.3559104409068823e-03" rms="4.6433815360069275e-01" purity="6.7888158559799194e-01" nType="-99"/>
          <Node pos="r" depth="2" NCoef="0" IVar="-1" Cut="0.0000000000000000e+00" cType="1" res="1.8290695734322071e-03" rms="1.1744449287652969e-01" purity="9.8600882291793823e-01" nType="-99"/>
        </Node>
      </Node>
    </BinaryTree>
    <BinaryTree type="DecisionTree" boostWeight="1.0000000000000000e+00" itree="18">
      <Node pos="s" depth="0" NCoef="0" IVar="1" Cut="1.0790112304687500e+03" cType="1" res="1.5582275390625000e-01" rms="3.3553901314735413e-01" purity="4.9755573272705078e-01" nType="0">
        <Node pos="l" depth="1" NCoef="0" IVar="1" Cut="9.1333038330078125e+02" cType="1" res="-1.4032326638698578e-01" rms="1.3442704081535339e-01" purity="2.5029178708791733e-02" nType="0">
          <Node pos="l" depth="2" NCoef="0" IVar="-1" Cut="0.0000000000000000e+00" cType="1" res="-3.8931671530008316e-02" rms="8.5511900484561920e-02" purity="8.2412622869014740e-03" nType="-99"/>
          <Node pos="r" depth="2" NCoef="0" IVar="-1" Cut="0.0000000000000000e+00" cType="1" res="-3.2912191818468273e-04" rms="4.4034039974212646e-01" purity="3.2429224252700806e-01" nType="-99"/>
        </Node>
        <Node pos="r" depth="1" NCoef="0" IVar="1" Cut="1.3275812988281250e+03" cType="1" res="4.4850990176200867e-01" rms="1.8345139920711517e-01" purity="9.6456331014633179e-01" nType="0">
          <Node pos="l" depth="2" NCoef="0" IVar="-1" Cut="0.0000000000000000e+00" cType="1" res="1.2387980241328478e-03" rms="4.6098133921623230e-01" purity="6.8596148490905762e-01" nType="-99"/>
          <Node pos="r" depth="2" NCoef="0" IVar="-1" Cut="0.0000000000000000e+00" cType="1" res="1.8300088122487068e-03" rms="1.1998099088668823e-01" purity="9.8539012670516968e-01" nType="-99"/>
        </Node>
      </Node>
    </BinaryTree>
    <BinaryTree type="DecisionTree" boostWeight="1.0000000000000000e+00" itree="19">
      <Node pos="s" depth="0" NCoef="0" IVar="1" Cut="1.3089233398437500e+03" cType="1" res="1.5480752289295197e-01" rms="3.3197316527366638e-01" purity="4.8877999186515808e-01" nType="0">
        <Node pos="l" depth="1" NCoef="0" IVar="5" Cut="1.5684648132324219e+02" cType="1" res="-1.1456607282161713e-01" rms="1.8853600323200226e-01" purity="6.1042606830596924e-02" nType="0">
          <Node pos="l" depth="2" NCoef="0" IVar="-1" Cut="0.0000000000000000e+00" cType="1" res="-1.3857840560376644e-02" rms="1.5503478050231934e-01" purity="3.6878023296594620e-02" nType="-99"/>
          <Node pos="r" depth="2" NCoef="0" IVar="-1" Cut="0.0000000000000000e+00" cType="1" res="1.6096751205623150e-03" rms="3.8729265332221985e-01" purity="4.4703966379165649e-01" nType="-99"/>
        </Node>
        <Node pos="r" depth="1" NCoef="0" IVar="1" Cut="1.9770098876953125e+03" cType="1" res="4.6707415580749512e-01" rms="1.2299619615077972e-01" purity="9.8462706804275513e-01" nType="0">
          <Node pos="l" depth="2" NCoef="0" IVar="-1" Cut="0.0000000000000000e+00" cType="1" res="1.8662150250747800e-03" rms="2.1488690376281738e-01" purity="9.5143461227416992e-01" nType="-99"/>
          <Node pos="r" depth="2" NCoef="0" IVar="-1" Cut="0.0000000000000000e+00" cType="1" res="1.7288676463067532e-03" rms="4.2975381016731262e-02" purity="9.9814969301223755e-01" nType="-99"/>
        </Node>
      </Node>
    </BinaryTree>
    <BinaryTree type="DecisionTree" boostWeight="1.0000000000000000e+00" itree="20">
      <Node pos="s" depth="0" NCoef="0" IVar="1" Cut="1.0543027343750000e+03" cType="1" res="1.5931510925292969e-01" rms="3.2928839325904846e-01" purity="4.9406430125236511e-01" nType="0">
        <Node pos="l" depth="1" NCoef="0" IVar="9" Cut="4.3157795071601868e-01" cType="1" res="-1.3223549723625183e-01" rms="1.2014096975326538e-01" purity="1.6921069473028183e-02" nType="0">
          <Node pos="l" depth="2" NCoef="0" IVar="-1" Cut="0.0000000000000000e+00" cType="1" res="-6.9143245927989483e-03" rms="2.2421951591968536e-01" purity="6.9886803627014160e-02" nType="-99"/>
          <Node pos="r" depth="2" NCoef="0" IVar="-1" Cut="0.0000000000000000e+00" cType="1" res="-3.0675528571009636e-02" rms="8.2220643758773804e-02" purity="6.1353230848908424e-03" nType="-99"/>
        </Node>
        <Node pos="r" depth="1" NCoef="0" IVar="1" Cut="1.2959600830078125e+03" cType="1" res="4.4440025091171265e-01" rms="1.8961298465728760e-01" purity="9.6062630414962769e-01" nType="0">
          <Node pos="l" depth="2" NCoef="0" IVar="-1" Cut="0.0000000000000000e+00" cType="1" res="1.4930635225027800e-03" rms="4.6804678440093994e-01" purity="6.5140134096145630e-01" nType="-99"/>
          <Node pos="r" depth="2" NCoef="0" IVar="-1" Cut="0.0000000000000000e+00" cType="1" res="1.8033602973446250e-03" rms="1.2400684505701065e-01" purity="9.8435890674591064e-01" nType="-99"/>
        </Node>
      </Node>
    </BinaryTree>
    <BinaryTree type="DecisionTree" boostWeight="1.0000000000000000e+00" itree="21">
      <Node pos="s" depth="0" NCoef="0" IVar="1" Cut="1.0911708984375000e+03" cType="1" res="1.5994848310947418e-01" rms="3.2775342464447021e-01" purity="4.8967087268829346e-01" nType="0">
        <Node pos="l" depth="1" NCoef="0" IVar="8" Cut="5.6281435489654541e-01" cType="1" res="-1.1549806594848633e-01" rms="1.5361510217189789e-01" purity="3.1662769615650177e-02" nType="0">
          <Node pos="l" depth="2" NCoef="0" IVar="-1" Cut="0.0000000000000000e+00" cType="1" res="-2.3410931229591370e-02" rms="1.2449093163013458e-01" purity="1.9545584917068481e-02" nType="-99"/>
          <Node pos="r" depth="2" NCoef="0" IVar="-1" Cut="0.0000000000000000e+00" cType="1" res="2.6295028874301352e-05" rms="3.3557119965553284e-01" purity="1.8652400374412537e-01" nType="-99"/>
        </Node>
        <Node pos="r" depth="1" NCoef="0" IVar="1" Cut="1.3433741455078125e+03" cType="1" res="4.4506105780601501e-01" rms="1.8538105487823486e-01" purity="9.6375149488449097e-01" nType="0">
          <Node pos="l" depth="2" NCoef="0" IVar="-1" Cut="0.0000000000000000e+00" cType="1" res="9.9348172079771757e-04" rms="4.7394976019859314e-01" purity="6.5129339694976807e-01" nType="-99"/>
          <Node pos="r" depth="2" NCoef="0" IVar="-1" Cut="0.0000000000000000e+00" cType="1" res="1.7216384876519442e-03" rms="1.1745849251747131e-01" purity="9.8601055145263672e-01" nType="-99"/>
        </Node>
      </Node>
    </BinaryTree>
    <BinaryTree type="DecisionTree" boostWeight="1.0000000000000000e+00" itree="22">
      <Node pos="s" depth="0" NCoef="0" IVar="1" Cut="1.3362274169921875e+03" cType="1" res="1.7039540410041809e-01" rms="3.2224759459495544e-01" purity="5.0486606359481812e-01" nType="0">
        <Node pos="l" depth="1" NCoef="0" IVar="1" Cut="1.0677200927734375e+03" cType="1" res="-1.0036236792802811e-01" rms="1.8254530429840088e-01" purity="6.4267218112945557e-02" nType="0">
          <Node pos="l" depth="2" NCoef="0" IVar="-1" Cut="0.0000000000000000e+00" cType="1" res="-2.1716453135013580e-02" rms="1.1154670268297195e-01" purity="1.5747131779789925e-02" nType="-99"/>
          <Node pos="r" depth="2" NCoef="0" IVar="-1" Cut="0.0000000000000000e+00" cType="1" res="1.4858267968520522e-03" rms="4.6105247735977173e-01" purity="6.8045854568481445e-01" nType="-99"/>
        </Node>
        <Node pos="r" depth="1" NCoef="0" IVar="1" Cut="2.0209163818359375e+03" cType="1" res="4.6649715304374695e-01" rms="1.1453012377023697e-01" purity="9.8670667409896851e-01" nType="0">
          <Node pos="l" depth="2" NCoef="0" IVar="-1" Cut="0.0000000000000000e+00" cType="1" res="2.4277130141854286e-03" rms="1.8033254146575928e-01" purity="9.6634471416473389e-01" nType="-99"/>
          <Node pos="r" depth="2" NCoef="0" IVar="-1" Cut="0.0000000000000000e+00" cType="1" res="1.6501771751791239e-03" rms="4.2292274534702301e-02" purity="9.9820816516876221e-01" nType="-99"/>
        </Node>
      </Node>
    </BinaryTree>
    <BinaryTree type="DecisionTree" boostWeight="1.0000000000000000e+00" itree="23">
      <Node pos="s" depth="0" NCoef="0" IVar="1" Cut="1.0961876220703125e+03" cType="1" res="1.7691206932067871e-01" rms="3.2209867238998413e-01" purity="5.0940334796905518e-01" nType="0">
        <Node pos="l" depth="1" NCoef="0" IVar="4" Cut="2.7124223709106445e+00" cType="1" res="-1.0294564813375473e-01" rms="1.5958654880523682e-01" purity="3.5150386393070221e-02" nType="0">
          <Node pos="l" depth="2" NCoef="0" IVar="-1" Cut="0.0000000000000000e+00" cType="1" res="-2.3452224209904671e-02" rms="1.3311882317066193e-01" purity="2.1850561723113060e-02" nType="-99"/>
          <Node pos="r" depth="2" NCoef="0" IVar="-1" Cut="0.0000000000000000e+00" cType="1" res="2.4181122425943613e-03" rms="3.7067049741744995e-01" purity="2.8603211045265198e-01" nType="-99"/>
        </Node>
        <Node pos="r" depth="1" NCoef="0" IVar="1" Cut="1.3498121337890625e+03" cType="1" res="4.4762742519378662e-01" rms="1.7441737651824951e-01" purity="9.6816331148147583e-01" nType="0">
          <Node pos="l" depth="2" NCoef="0" IVar="-1" Cut="0.0000000000000000e+00" cType="1" res="1.8404953880235553e-03" rms="4.3397396802902222e-01" purity="7.4491292238235474e-01" nType="-99"/>
          <Node pos="r" depth="2" NCoef="0" IVar="-1" Cut="0.0000000000000000e+00" cType="1" res="1.8308126600459218e-03" rms="1.1048478633165359e-01" purity="9.8764920234680176e-01" nType="-99"/>
        </Node>
      </Node>
    </BinaryTree>
    <BinaryTree type="DecisionTree" boostWeight="1.0000000000000000e+00" itree="24">
      <Node pos="s" depth="0" NCoef="0" IVar="1" Cut="1.3689523925781250e+03" cType="1" res="1.6322007775306702e-01" rms="3.1781649589538574e-01" purity="4.8652881383895874e-01" nType="0">
        <Node pos="l" depth="1" NCoef="0" IVar="1" Cut="1.0375633544921875e+03" cType="1" res="-9.1613478958606720e-02" rms="1.8354198336601257e-01" purity="6.3848294317722321e-02" nType="0">
          <Node pos="l" depth="2" NCoef="0" IVar="-1" Cut="0.0000000000000000e+00" cType="1" res="-2.1177759394049644e-02" rms="1.1024560779333115e-01" purity="1.4287791214883327e-02" nType="-99"/>
          <Node pos="r" depth="2" NCoef="0" IVar="-1" Cut="0.0000000000000000e+00" cType="1" res="9.6349901286885142e-04" rms="4.6604040265083313e-01" purity="6.3359761238098145e-01" nType="-99"/>
        </Node>
        <Node pos="r" depth="1" NCoef="0" IVar="-1" Cut="0.0000000000000000e+00" cType="1" res="1.7311621922999620e-03" rms="1.1290692538022995e-01" purity="9.8709410429000854e-01" nType="-99"/>
      </Node>
    </BinaryTree>
    <BinaryTree type="DecisionTree" boostWeight="1.0000000000000000e+00" itree="25">
      <Node pos="s" depth="0" NCoef="0" IVar="1" Cut="1.0976781005859375e+03" cType="1" res="1.7535012960433960e-01" rms="3.1608435511589050e-01" purity="5.0185889005661011e-01" nType="0">
        <Node pos="l" depth="1" NCoef="0" IVar="3" Cut="3.0106208324432373e+00" cType="1" res="-9.8316542804241180e-02" rms="1.4566677808761597e-01" purity="2.9797157272696495e-02" nType="0">
          <Node pos="l" depth="2" NCoef="0" IVar="-1" Cut="0.0000000000000000e+00" cType="1" res="-2.1292179822921753e-02" rms="1.1296189576387405e-01" purity="1.6083925962448120e-02" nType="-99"/>
          <Node pos="r" depth="2" NCoef="0" IVar="-1" Cut="0.0000000000000000e+00" cType="1" res="2.3561988491564989e-03" rms="3.6801028251647949e-01" purity="2.6108095049858093e-01" nType="-99"/>
        </Node>
        <Node pos="r" depth="1" NCoef="0" IVar="1" Cut="1.6047596435546875e+03" cType="1" res="4.4552087783813477e-01" rms="1.7511609196662903e-01" purity="9.6789026260375977e-01" nType="0">
          <Node pos="l" depth="2" NCoef="0" IVar="-1" Cut="0.0000000000000000e+00" cType="1" res="1.5682284720242023e-03" rms="3.8585346937179565e-01" purity="8.1524020433425903e-01" nType="-99"/>
          <Node pos="r" depth="2" NCoef="0" IVar="-1" Cut="0.0000000000000000e+00" cType="1" res="1.8169597024098039e-03" rms="7.3495216667652130e-02" purity="9.9457150697708130e-01" nType="-99"/>
        </Node>
      </Node>
    </BinaryTree>
    <BinaryTree type="DecisionTree" boostWeight="1.0000000000000000e+00" itree="26">
      <Node pos="s" depth="0" NCoef="0" IVar="1" Cut="1.0961876220703125e+03" cType="1" res="1.7548269033432007e-01" rms="3.1372499465942383e-01" purity="4.9996167421340942e-01" nType="0">
        <Node pos="l" depth="1" NCoef="0" IVar="8" Cut="5.5432736873626709e-01" cType="1" res="-9.8207049071788788e-02" rms="1.3580606877803802e-01" purity="2.3831004276871681e-02" nType="0">
          <Node pos="l" depth="2" NCoef="0" IVar="-1" Cut="0.0000000000000000e+00" cType="1" res="-2.0656351000070572e-02" rms="1.0006473213434219e-01" purity="1.1212047189474106e-02" nType="-99"/>
          <Node pos="r" depth="2" NCoef="0" IVar="-1" Cut="0.0000000000000000e+00" cType="1" res="3.9086939068511128e-04" rms="3.2474905252456665e-01" purity="1.7247886955738068e-01" nType="-99"/>
        </Node>
        <Node pos="r" depth="1" NCoef="0" IVar="1" Cut="1.6034191894531250e+03" cType="1" res="4.4407972693443298e-01" rms="1.7680099606513977e-01" purity="9.6723264455795288e-01" nType="0">
          <Node pos="l" depth="2" NCoef="0" IVar="-1" Cut="0.0000000000000000e+00" cType="1" res="1.8346684519201517e-03" rms="3.7321653962135315e-01" purity="8.3035659790039062e-01" nType="-99"/>
          <Node pos="r" depth="2" NCoef="0" IVar="-1" Cut="0.0000000000000000e+00" cType="1" res="1.7697401344776154e-03" rms="7.4248492717742920e-02" purity="9.9445879459381104e-01" nType="-99"/>
        </Node>
      </Node>
    </BinaryTree>
    <BinaryTree type="DecisionTree" boostWeight="1.0000000000000000e+00" itree="27">
      <Node pos="s" depth="0" NCoef="0" IVar="1" Cut="1.2589250488281250e+03" cType="1" res="1.8008090555667877e-01" rms="3.1215888261795044e-01" purity="5.0491076707839966e-01" nType="0">
        <Node pos="l" depth="1" NCoef="0" IVar="5" Cut="1.5402717590332031e+02" cType="1" res="-8.0691963434219360e-02" rms="1.7977532744407654e-01" purity="5.6692373007535934e-02" nType="0">
          <Node pos="l" depth="2" NCoef="0" IVar="-1" Cut="0.0000000000000000e+00" cType="1" res="-1.3441042974591255e-02" rms="1.4663934707641602e-01" purity="3.1358286738395691e-02" nType="-99"/>
          <Node pos="r" depth="2" NCoef="0" IVar="-1" Cut="0.0000000000000000e+00" cType="1" res="2.2388447541743517e-03" rms="3.6492097377777100e-01" purity="4.2916747927665710e-01" nType="-99"/>
        </Node>
        <Node pos="r" depth="1" NCoef="0" IVar="1" Cut="1.8966397705078125e+03" cType="1" res="4.5790812373161316e-01" rms="1.3110478222370148e-01" purity="9.8244243860244751e-01" nType="0">
          <Node pos="l" depth="2" NCoef="0" IVar="-1" Cut="0.0000000000000000e+00" cType="1" res="2.0306173246353865e-03" rms="2.3767480254173279e-01" purity="9.3965780735015869e-01" nType="-99"/>
          <Node pos="r" depth="2" NCoef="0" IVar="-1" Cut="0.0000000000000000e+00" cType="1" res="1.7532849451526999e-03" rms="5.0441488623619080e-02" purity="9.9744981527328491e-01" nType="-99"/>
        </Node>
      </Node>
    </BinaryTree>
    <BinaryTree type="DecisionTree" boostWeight="1.0000000000000000e+00" itree="28">
      <Node pos="s" depth="0" NCoef="0" IVar="1" Cut="1.0962033691406250e+03" cType="1" res="1.8084914982318878e-01" rms="3.1260421872138977e-01" purity="5.0147539377212524e-01" nType="0">
        <Node pos="l" depth="1" NCoef="0" IVar="5" Cut="1.5165095520019531e+02" cType="1" res="-8.0235563218593597e-02" rms="1.6731539368629456e-01" purity="3.7397220730781555e-02" nType="0">
          <Node pos="l" depth="2" NCoef="0" IVar="-1" Cut="0.0000000000000000e+00" cType="1" res="-2.1045349538326263e-02" rms="1.3733145594596863e-01" purity="2.2909203544259071e-02" nType="-99"/>
          <Node pos="r" depth="2" NCoef="0" IVar="-1" Cut="0.0000000000000000e+00" cType="1" res="3.2795737497508526e-03" rms="3.8739842176437378e-01" purity="2.8752732276916504e-01" nType="-99"/>
        </Node>
        <Node pos="r" depth="1" NCoef="0" IVar="1" Cut="1.6034316406250000e+03" cType="1" res="4.4326722621917725e-01" rms="1.7443585395812988e-01" purity="9.6792358160018921e-01" nType="0">
          <Node pos="l" depth="2" NCoef="0" IVar="-1" Cut="0.0000000000000000e+00" cType="1" res="1.8020950956270099e-03" rms="3.7236484885215759e-01" purity="8.3018624782562256e-01" nType="-99"/>
          <Node pos="r" depth="2" NCoef="0" IVar="-1" Cut="0.0000000000000000e+00" cType="1" res="1.7467978177592158e-03" rms="7.3820486664772034e-02" purity="9.9452394247055054e-01" nType="-99"/>
        </Node>
      </Node>
    </BinaryTree>
    <BinaryTree type="DecisionTree" boostWeight="1.0000000000000000e+00" itree="29">
      <Node pos="s" depth="0" NCoef="0" IVar="1" Cut="1.3684545898437500e+03" cType="1" res="1.7367309331893921e-01" rms="3.0757120251655579e-01" purity="4.9124997854232788e-01" nType="0">
        <Node pos="l" depth="1" NCoef="0" IVar="0" Cut="2.9256896972656250e+02" cType="1" res="-7.5120203197002411e-02" rms="1.8035955727100372e-01" purity="6.1734206974506378e-02" nType="0">
          <Node pos="l" depth="2" NCoef="0" IVar="-1" Cut="0.0000000000000000e+00" cType="1" res="-9.5233591273427010e-03" rms="1.3996101915836334e-01" purity="2.9789868742227554e-02" nType="-99"/>
          <Node pos="r" depth="2" NCoef="0" IVar="-1" Cut="0.0000000000000000e+00" cType="1" res="1.5498960856348276e-03" rms="4.0625938773155212e-01" purity="5.4111313819885254e-01" nType="-99"/>
        </Node>
        <Node pos="r" depth="1" NCoef="0" IVar="-1" Cut="0.0000000000000000e+00" cType="1" res="1.7533679492771626e-03" rms="1.0990428179502487e-01" purity="9.8778122663497925e-01" nType="-99"/>
      </Node>
    </BinaryTree>
    <BinaryTree type="DecisionTree" boostWeight="1.0000000000000000e+00" itree="30">
      <Node pos="s" depth="0" NCoef="0" IVar="1" Cut="1.2754633789062500e+03" cType="1" res="1.8247447907924652e-01" rms="3.0901312828063965e-01" purity="5.0144469738006592e-01" nType="0">
        <Node pos="l" depth="1" NCoef="0" IVar="1" Cut="9.7063732910156250e+02" cType="1" res="-6.4389981329441071e-02" rms="1.9681714475154877e-01" purity="6.7132383584976196e-02" nType="0">
          <Node pos="l" depth="2" NCoef="0" IVar="-1" Cut="0.0000000000000000e+00" cType="1" res="-2.4775704368948936e-02" rms="1.2649567425251007e-01" purity="1.7876554280519485e-02" nType="-99"/>
          <Node pos="r" depth="2" NCoef="0" IVar="-1" Cut="0.0000000000000000e+00" cType="1" res="1.5525952912867069e-03" rms="4.6589088439941406e-01" purity="5.6802463531494141e-01" nType="-99"/>
        </Node>
        <Node pos="r" depth="1" NCoef="0" IVar="1" Cut="1.9232559814453125e+03" cType="1" res="4.5681703090667725e-01" rms="1.2477560341358185e-01" purity="9.8409962654113770e-01" nType="0">
          <Node pos="l" depth="2" NCoef="0" IVar="-1" Cut="0.0000000000000000e+00" cType="1" res="2.1735150367021561e-03" rms="2.1236942708492279e-01" purity="9.5235162973403931e-01" nType="-99"/>
          <Node pos="r" depth="2" NCoef="0" IVar="-1" Cut="0.0000000000000000e+00" cType="1" res="1.6427417285740376e-03" rms="4.9050755798816681e-02" purity="9.9758869409561157e-01" nType="-99"/>
        </Node>
      </Node>
    </BinaryTree>
    <BinaryTree type="DecisionTree" boostWeight="1.0000000000000000e+00" itree="31">
      <Node pos="s" depth="0" NCoef="0" IVar="1" Cut="1.0784841308593750e+03" cType="1" res="1.8564310669898987e-01" rms="3.0541184544563293e-01" purity="5.0599747896194458e-01" nType="0">
        <Node pos="l" depth="1" NCoef="0" IVar="8" Cut="5.5449825525283813e-01" cType="1" res="-7.9009659588336945e-02" rms="1.4215579628944397e-01" purity="2.5853296741843224e-02" nType="0">
          <Node pos="l" depth="2" NCoef="0" IVar="-1" Cut="0.0000000000000000e+00" cType="1" res="-2.0181996747851372e-02" rms="1.1329078674316406e-01" purity="1.5258533880114555e-02" nType="-99"/>
          <Node pos="r" depth="2" NCoef="0" IVar="-1" Cut="0.0000000000000000e+00" cType="1" res="7.9607614316046238e-04" rms="3.1915381550788879e-01" purity="1.5674686431884766e-01" nType="-99"/>
        </Node>
        <Node pos="r" depth="1" NCoef="0" IVar="1" Cut="1.3270303955078125e+03" cType="1" res="4.3880522251129150e-01" rms="1.7911152541637421e-01" purity="9.6529483795166016e-01" nType="0">
          <Node pos="l" depth="2" NCoef="0" IVar="-1" Cut="0.0000000000000000e+00" cType="1" res="1.4763864455744624e-03" rms="4.5170590281486511e-01" purity="6.9664645195007324e-01" nType="-99"/>
          <Node pos="r" depth="2" NCoef="0" IVar="-1" Cut="0.0000000000000000e+00" cType="1" res="1.8138159066438675e-03" rms="1.1813481897115707e-01" purity="9.8583894968032837e-01" nType="-99"/>
        </Node>
      </Node>
    </BinaryTree>
    <BinaryTree type="DecisionTree" boostWeight="1.0000000000000000e+00" itree="32">
      <Node pos="s" depth="0" NCoef="0" IVar="1" Cut="1.0954765625000000e+03" cType="1" res="1.9034175574779510e-01" rms="3.0215471982955933e-01" purity="5.1248174905776978e-01" nType="0">
        <Node pos="l" depth="1" NCoef="0" IVar="7" Cut="7.4607006835937500e+02" cType="1" res="-7.5784839689731598e-02" rms="1.4098434150218964e-01" purity="2.8105728328227997e-02" nType="0">
          <Node pos="l" depth="2" NCoef="0" IVar="-1" Cut="0.0000000000000000e+00" cType="1" res="-2.2396728396415710e-02" rms="1.0091728717088699e-01" purity="1.2451299466192722e-02" nType="-99"/>
          <Node pos="r" depth="2" NCoef="0" IVar="-1" Cut="0.0000000000000000e+00" cType="1" res="2.5028793606907129e-03" rms="3.9679288864135742e-01" purity="2.9815495014190674e-01" nType="-99"/>
        </Node>
        <Node pos="r" depth="1" NCoef="0" IVar="1" Cut="1.5994091796875000e+03" cType="1" res="4.4146233797073364e-01" rms="1.6970489919185638e-01" purity="9.6954554319381714e-01" nType="0">
          <Node pos="l" depth="2" NCoef="0" IVar="-1" Cut="0.0000000000000000e+00" cType="1" res="1.9935900345444679e-03" rms="3.6039975285530090e-01" purity="8.4235328435897827e-01" nType="-99"/>
          <Node pos="r" depth="2" NCoef="0" IVar="-1" Cut="0.0000000000000000e+00" cType="1" res="1.8105061026290059e-03" rms="7.3091641068458557e-02" purity="9.9463319778442383e-01" nType="-99"/>
        </Node>
      </Node>
    </BinaryTree>
    <BinaryTree type="DecisionTree" boostWeight="1.0000000000000000e+00" itree="33">
      <Node pos="s" depth="0" NCoef="0" IVar="1" Cut="1.0806507568359375e+03" cType="1" res="1.8975387513637543e-01" rms="3.0058380961418152e-01" purity="5.1007771492004395e-01" nType="0">
        <Node pos="l" depth="1" NCoef="0" IVar="0" Cut="2.1979248046875000e+02" cType="1" res="-7.4714697897434235e-02" rms="1.3319770991802216e-01" purity="2.3514486849308014e-02" nType="0">
          <Node pos="l" depth="2" NCoef="0" IVar="-1" Cut="0.0000000000000000e+00" cType="1" res="-2.6485275477170944e-02" rms="7.8285895287990570e-02" purity="6.9817150942981243e-03" nType="-99"/>
          <Node pos="r" depth="2" NCoef="0" IVar="-1" Cut="0.0000000000000000e+00" cType="1" res="1.3349992223083973e-03" rms="3.4797418117523193e-01" purity="1.8878434598445892e-01" nType="-99"/>
        </Node>
        <Node pos="r" depth="1" NCoef="0" IVar="1" Cut="1.3291164550781250e+03" cType="1" res="4.3766069412231445e-01" rms="1.7717586457729340e-01" purity="9.6617102622985840e-01" nType="0">
          <Node pos="l" depth="2" NCoef="0" IVar="-1" Cut="0.0000000000000000e+00" cType="1" res="1.3184136478230357e-03" rms="4.5650088787078857e-01" purity="6.8628668785095215e-01" nType="-99"/>
          <Node pos="r" depth="2" NCoef="0" IVar="-1" Cut="0.0000000000000000e+00" cType="1" res="1.8642252543941140e-03" rms="1.1683207005262375e-01" purity="9.8615723848342896e-01" nType="-99"/>
        </Node>
      </Node>
    </BinaryTree>
    <BinaryTree type="DecisionTree" boostWeight="1.0000000000000000e+00" itree="34">
      <Node pos="s" depth="0" NCoef="0" IVar="1" Cut="1.0740544433593750e+03" cType="1" res="1.8696922063827515e-01" rms="2.9802268743515015e-01" purity="5.0424051284790039e-01" nType="0">
        <Node pos="l" depth="1" NCoef="0" IVar="4" Cut="9.0670686960220337e-01" cType="1" res="-7.7169083058834076e-02" rms="1.1396510899066925e-01" purity="1.4915547333657742e-02" nType="0">
          <Node pos="l" depth="2" NCoef="0" IVar="-1" Cut="0.0000000000000000e+00" cType="1" res="-2.6609504595398903e-02" rms="0.0000000000000000e+00" purity="-4.3909102678298950e-03" nType="-99"/>
          <Node pos="r" depth="2" NCoef="0" IVar="-1" Cut="0.0000000000000000e+00" cType="1" res="-9.0399878099560738e-03" rms="1.6136302053928375e-01" purity="3.2639566808938980e-02" nType="-99"/>
        </Node>
        <Node pos="r" depth="1" NCoef="0" IVar="1" Cut="1.3213365478515625e+03" cType="1" res="4.3521431088447571e-01" rms="1.8134962022304535e-01" purity="9.6412283182144165e-01" nType="0">
          <Node pos="l" depth="2" NCoef="0" IVar="-1" Cut="0.0000000000000000e+00" cType="1" res="1.2051898520439863e-03" rms="4.6961811184883118e-01" purity="6.4862406253814697e-01" nType="-99"/>
          <Node pos="r" depth="2" NCoef="0" IVar="-1" Cut="0.0000000000000000e+00" cType="1" res="1.8160003237426281e-03" rms="1.1717125028371811e-01" purity="9.8607242107391357e-01" nType="-99"/>
        </Node>
      </Node>
    </BinaryTree>
    <BinaryTree type="DecisionTree" boostWeight="1.0000000000000000e+00" itree="35">
      <Node pos="s" depth="0" NCoef="0" IVar="1" Cut="1.0911866455078125e+03" cType="1" res="1.9080039858818054e-01" rms="2.9928630590438843e-01" purity="5.0525492429733276e-01" nType="0">
        <Node pos="l" depth="1" NCoef="0" IVar="4" Cut="2.2641668319702148e+00" cType="1" res="-6.1924915760755539e-02" rms="1.5504363179206848e-01" purity="3.0306685715913773e-02" nType="0">
          <Node pos="l" depth="2" NCoef="0" IVar="-1" Cut="0.0000000000000000e+00" cType="1" res="-1.8104335293173790e-02" rms="1.1934532225131989e-01" purity="1.6883682459592819e-02" nType="-99"/>
          <Node pos="r" depth="2" NCoef="0" IVar="-1" Cut="0.0000000000000000e+00" cType="1" res="1.4294873690232635e-03" rms="3.2102048397064209e-01" purity="1.5066620707511902e-01" nType="-99"/>
        </Node>
        <Node pos="r" depth="1" NCoef="0" IVar="1" Cut="1.3433571777343750e+03" cType="1" res="4.3658274412155151e-01" rms="1.7544601857662201e-01" purity="9.6715515851974487e-01" nType="0">
          <Node pos="l" depth="2" NCoef="0" IVar="-1" Cut="0.0000000000000000e+00" cType="1" res="1.4480387326329947e-03" rms="4.4775885343551636e-01" purity="7.1199452877044678e-01" nType="-99"/>
          <Node pos="r" depth="2" NCoef="0" IVar="-1" Cut="0.0000000000000000e+00" cType="1" res="1.7953244969248772e-03" rms="1.1199432611465454e-01" purity="9.8730355501174927e-01" nType="-99"/>
        </Node>
      </Node>
    </BinaryTree>
    <BinaryTree type="DecisionTree" boostWeight="1.0000000000000000e+00" itree="36">
      <Node pos="s" depth="0" NCoef="0" IVar="1" Cut="1.3925568847656250e+03" cType="1" res="1.8042308092117310e-01" rms="2.9772159457206726e-01" purity="4.8630148172378540e-01" nType="0">
        <Node pos="l" depth="1" NCoef="0" IVar="1" Cut="8.2901605224609375e+02" cType="1" res="-4.3263964354991913e-02" rms="1.9917836785316467e-01" purity="7.7938422560691833e-02" nType="0">
          <Node pos="l" depth="2" NCoef="0" IVar="-1" Cut="0.0000000000000000e+00" cType="1" res="-3.9654530584812164e-02" rms="7.5034722685813904e-02" purity="5.9494138695299625e-03" nType="-99"/>
          <Node pos="r" depth="2" NCoef="0" IVar="-1" Cut="0.0000000000000000e+00" cType="1" res="1.2233402812853456e-03" rms="4.3601632118225098e-01" purity="4.5796152949333191e-01" nType="-99"/>
        </Node>
        <Node pos="r" depth="1" NCoef="0" IVar="-1" Cut="0.0000000000000000e+00" cType="1" res="1.6656385269016027e-03" rms="1.0849384218454361e-01" purity="9.8810142278671265e-01" nType="-99"/>
      </Node>
    </BinaryTree>
    <BinaryTree type="DecisionTree" boostWeight="1.0000000000000000e+00" itree="37">
      <Node pos="s" depth="0" NCoef="0" IVar="1" Cut="1.0961876220703125e+03" cType="1" res="1.8157544732093811e-01" rms="2.9510164260864258e-01" purity="4.8484769463539124e-01" nType="0">
        <Node pos="l" depth="1" NCoef="0" IVar="1" Cut="8.4256939697265625e+02" cType="1" res="-5.6183490902185440e-02" rms="1.4745435118675232e-01" purity="2.9129749163985252e-02" nType="0">
          <Node pos="l" depth="2" NCoef="0" IVar="-1" Cut="0.0000000000000000e+00" cType="1" res="-3.4488279372453690e-02" rms="8.3258286118507385e-02" purity="7.3718423955142498e-03" nType="-99"/>
          <Node pos="r" depth="2" NCoef="0" IVar="-1" Cut="0.0000000000000000e+00" cType="1" res="1.3736049877479672e-03" rms="4.0900024771690369e-01" purity="2.6196536421775818e-01" nType="-99"/>
        </Node>
        <Node pos="r" depth="1" NCoef="0" IVar="1" Cut="1.3498293457031250e+03" cType="1" res="4.3152630329132080e-01" rms="1.8404987454414368e-01" purity="9.6393406391143799e-01" nType="0">
          <Node pos="l" depth="2" NCoef="0" IVar="-1" Cut="0.0000000000000000e+00" cType="1" res="1.3538424391299486e-03" rms="4.5130619406700134e-01" purity="7.0663213729858398e-01" nType="-99"/>
          <Node pos="r" depth="2" NCoef="0" IVar="-1" Cut="0.0000000000000000e+00" cType="1" res="1.6243386780843139e-03" rms="1.1833595484495163e-01" purity="9.8580497503280640e-01" nType="-99"/>
        </Node>
      </Node>
    </BinaryTree>
    <BinaryTree type="DecisionTree" boostWeight="1.0000000000000000e+00" itree="38">
      <Node pos="s" depth="0" NCoef="0" IVar="1" Cut="1.3684545898437500e+03" cType="1" res="1.9135525822639465e-01" rms="2.9124075174331665e-01" purity="5.0138288736343384e-01" nType="0">
        <Node pos="l" depth="1" NCoef="0" IVar="3" Cut="3.1478054523468018e+00" cType="1" res="-4.1509356349706650e-02" rms="1.8470945954322815e-01" purity="6.8841122090816498e-02" nType="0">
          <Node pos="l" depth="2" NCoef="0" IVar="-1" Cut="0.0000000000000000e+00" cType="1" res="-4.7801649197936058e-03" rms="1.5534122288227081e-01" purity="4.3985713273286819e-02" nType="-99"/>
          <Node pos="r" depth="2" NCoef="0" IVar="-1" Cut="0.0000000000000000e+00" cType="1" res="2.9686093330383301e-03" rms="3.6094126105308533e-01" purity="5.1234513521194458e-01" nType="-99"/>
        </Node>
        <Node pos="r" depth="1" NCoef="0" IVar="-1" Cut="0.0000000000000000e+00" cType="1" res="1.7803376540541649e-03" rms="1.1125393211841583e-01" purity="9.8748016357421875e-01" nType="-99"/>
      </Node>
    </BinaryTree>
    <BinaryTree type="DecisionTree" boostWeight="1.0000000000000000e+00" itree="39">
      <Node pos="s" depth="0" NCoef="0" IVar="1" Cut="1.3858680419921875e+03" cType="1" res="1.9103398919105530e-01" rms="2.9213413596153259e-01" purity="4.9842950701713562e-01" nType="0">
        <Node pos="l" depth="1" NCoef="0" IVar="1" Cut="9.9362091064453125e+02" cType="1" res="-3.2276634126901627e-02" rms="2.0018172264099121e-01" purity="8.1172943115234375e-02" nType="0">
          <Node pos="l" depth="2" NCoef="0" IVar="-1" Cut="0.0000000000000000e+00" cType="1" res="-1.8137779086828232e-02" rms="1.2015402317047119e-01" purity="1.6239073127508163e-02" nType="-99"/>
          <Node pos="r" depth="2" NCoef="0" IVar="-1" Cut="0.0000000000000000e+00" cType="1" res="1.5586145455017686e-03" rms="4.5349803566932678e-01" purity="6.3965564966201782e-01" nType="-99"/>
        </Node>
        <Node pos="r" depth="1" NCoef="0" IVar="-1" Cut="0.0000000000000000e+00" cType="1" res="1.7666468629613519e-03" rms="1.0513667762279510e-01" purity="9.8883432149887085e-01" nType="-99"/>
      </Node>
    </BinaryTree>
    <BinaryTree type="DecisionTree" boostWeight="1.0000000000000000e+00" itree="40">
      <Node pos="s" depth="0" NCoef="0" IVar="1" Cut="1.0961876220703125e+03" cType="1" res="1.9856256246566772e-01" rms="2.8976044058799744e-01" purity="5.1117718219757080e-01" nType="0">
        <Node pos="l" depth="1" NCoef="0" IVar="7" Cut="4.4905560302734375e+02" cType="1" res="-5.0981633365154266e-02" rms="1.4391113817691803e-01" purity="2.6001326739788055e-02" nType="0">
          <Node pos="l" depth="2" NCoef="0" IVar="-1" Cut="0.0000000000000000e+00" cType="1" res="-2.8115754947066307e-02" rms="8.2144491374492645e-02" purity="7.6516116969287395e-03" nType="-99"/>
          <Node pos="r" depth="2" NCoef="0" IVar="-1" Cut="0.0000000000000000e+00" cType="1" res="-5.0502498197602108e-05" rms="2.8697657585144043e-01" purity="1.1103468388319016e-01" nType="-99"/>
        </Node>
        <Node pos="r" depth="1" NCoef="0" IVar="1" Cut="1.6034311523437500e+03" cType="1" res="4.3384560942649841e-01" rms="1.7182983458042145e-01" purity="9.6862584352493286e-01" nType="0">
          <Node pos="l" depth="2" NCoef="0" IVar="-1" Cut="0.0000000000000000e+00" cType="1" res="1.9630165770649910e-03" rms="3.6354804039001465e-01" purity="8.3862322568893433e-01" nType="-99"/>
          <Node pos="r" depth="2" NCoef="0" IVar="-1" Cut="0.0000000000000000e+00" cType="1" res="1.8294218461960554e-03" rms="7.4303843080997467e-02" purity="9.9445271492004395e-01" nType="-99"/>
        </Node>
      </Node>
    </BinaryTree>
    <BinaryTree type="DecisionTree" boostWeight="1.0000000000000000e+00" itree="41">
      <Node pos="s" depth="0" NCoef="0" IVar="1" Cut="1.1006572265625000e+03" cType="1" res="1.8683817982673645e-01" rms="2.8956174850463867e-01" purity="4.8782587051391602e-01" nType="0">
        <Node pos="l" depth="1" NCoef="0" IVar="7" Cut="7.1691162109375000e+02" cType="1" res="-4.7765925526618958e-02" rms="1.4660826325416565e-01" purity="2.6713810861110687e-02" nType="0">
          <Node pos="l" depth="2" NCoef="0" IVar="-1" Cut="0.0000000000000000e+00" cType="1" res="-1.7429560422897339e-02" rms="1.1202637106180191e-01" purity="1.5342897735536098e-02" nType="-99"/>
          <Node pos="r" depth="2" NCoef="0" IVar="-1" Cut="0.0000000000000000e+00" cType="1" res="2.0245260093361139e-03" rms="3.9419758319854736e-01" purity="2.1517787873744965e-01" nType="-99"/>
        </Node>
        <Node pos="r" depth="1" NCoef="0" IVar="1" Cut="1.6074653320312500e+03" cType="1" res="4.2988985776901245e-01" rms="1.7985594272613525e-01" purity="9.6554160118103027e-01" nType="0">
          <Node pos="l" depth="2" NCoef="0" IVar="-1" Cut="0.0000000000000000e+00" cType="1" res="1.7275691498070955e-03" rms="3.7280997633934021e-01" purity="8.2826286554336548e-01" nType="-99"/>
          <Node pos="r" depth="2" NCoef="0" IVar="-1" Cut="0.0000000000000000e+00" cType="1" res="1.6330712242051959e-03" rms="7.8177578747272491e-02" purity="9.9385553598403931e-01" nType="-99"/>
        </Node>
      </Node>
    </BinaryTree>
    <BinaryTree type="DecisionTree" boostWeight="1.0000000000000000e+00" itree="42">
      <Node pos="s" depth="0" NCoef="0" IVar="1" Cut="1.0911708984375000e+03" cType="1" res="1.9492337107658386e-01" rms="2.8705346584320068e-01" purity="5.0113284587860107e-01" nType="0">
        <Node pos="l" depth="1" NCoef="0" IVar="1" Cut="8.8102648925781250e+02" cType="1" res="-4.3501678854227066e-02" rms="1.4659786224365234e-01" purity="3.0188374221324921e-02" nType="0">
          <Node pos="l" depth="2" NCoef="0" IVar="-1" Cut="0.0000000000000000e+00" cType="1" res="-2.8507217764854431e-02" rms="9.2706225812435150e-02" purity="9.4047561287879944e-03" nType="-99"/>
          <Node pos="r" depth="2" NCoef="0" IVar="-1" Cut="0.0000000000000000e+00" cType="1" res="2.0742639899253845e-03" rms="4.2034196853637695e-01" purity="3.1152594089508057e-01" nType="-99"/>
        </Node>
        <Node pos="r" depth="1" NCoef="0" IVar="1" Cut="1.3433591308593750e+03" cType="1" res="4.3081626296043396e-01" rms="1.7542332410812378e-01" purity="9.6707558631896973e-01" nType="0">
          <Node pos="l" depth="2" NCoef="0" IVar="-1" Cut="0.0000000000000000e+00" cType="1" res="1.3297817204147577e-03" rms="4.5690190792083740e-01" purity="6.9608223438262939e-01" nType="-99"/>
          <Node pos="r" depth="2" NCoef="0" IVar="-1" Cut="0.0000000000000000e+00" cType="1" res="1.7345938831567764e-03" rms="1.1228194087743759e-01" purity="9.8722946643829346e-01" nType="-99"/>
        </Node>
      </Node>
    </BinaryTree>
    <BinaryTree type="DecisionTree" boostWeight="1.0000000000000000e+00" itree="43">
      <Node pos="s" depth="0" NCoef="0" IVar="1" Cut="1.3853850097656250e+03" cType="1" res="1.9451303780078888e-01" rms="2.8496280312538147e-01" purity="5.0035864114761353e-01" nType="0">
        <Node pos="l" depth="1" NCoef="0" IVar="0" Cut="3.0628363037109375e+02" cType="1" res="-2.9843829572200775e-02" rms="1.8801900744438171e-01" purity="7.1874395012855530e-02" nType="0">
          <Node pos="l" depth="2" NCoef="0" IVar="-1" Cut="0.0000000000000000e+00" cType="1" res="-5.2334140054881573e-03" rms="1.5093268454074860e-01" purity="3.3190920948982239e-02" nType="-99"/>
          <Node pos="r" depth="2" NCoef="0" IVar="-1" Cut="0.0000000000000000e+00" cType="1" res="2.0883583929389715e-03" rms="3.8245701789855957e-01" purity="6.3821476697921753e-01" nType="-99"/>
        </Node>
        <Node pos="r" depth="1" NCoef="0" IVar="-1" Cut="0.0000000000000000e+00" cType="1" res="1.7649983055889606e-03" rms="1.0258801281452179e-01" purity="9.8937577009201050e-01" nType="-99"/>
      </Node>
    </BinaryTree>
    <BinaryTree type="DecisionTree" boostWeight="1.0000000000000000e+00" itree="44">
      <Node pos="s" depth="0" NCoef="0" IVar="1" Cut="1.0962033691406250e+03" cType="1" res="2.0074166357517242e-01" rms="2.8676742315292358e-01" purity="5.0873178243637085e-01" nType="0">
        <Node pos="l" depth="1" NCoef="0" IVar="1" Cut="7.1578887939453125e+02" cType="1" res="-3.6016140133142471e-02" rms="1.6074950993061066e-01" purity="3.4154880791902542e-02" nType="0">
          <Node pos="l" depth="2" NCoef="0" IVar="-1" Cut="0.0000000000000000e+00" cType="1" res="-4.7367680817842484e-02" rms="7.3841117322444916e-02" purity="5.6068580597639084e-03" nType="-99"/>
          <Node pos="r" depth="2" NCoef="0" IVar="-1" Cut="0.0000000000000000e+00" cType="1" res="1.4305463992059231e-03" rms="3.4685948491096497e-01" purity="1.7504931986331940e-01" nType="-99"/>
        </Node>
        <Node pos="r" depth="1" NCoef="0" IVar="1" Cut="1.3498121337890625e+03" cType="1" res="4.2978578805923462e-01" rms="1.7350542545318604e-01" purity="9.6784657239913940e-01" nType="0">
          <Node pos="l" depth="2" NCoef="0" IVar="-1" Cut="0.0000000000000000e+00" cType="1" res="1.5368505846709013e-03" rms="4.4423294067382812e-01" purity="7.2118371725082397e-01" nType="-99"/>
          <Node pos="r" depth="2" NCoef="0" IVar="-1" Cut="0.0000000000000000e+00" cType="1" res="1.8286253325641155e-03" rms="1.1074529588222504e-01" purity="9.8758399486541748e-01" nType="-99"/>
        </Node>
      </Node>
    </BinaryTree>
    <BinaryTree type="DecisionTree" boostWeight="1.0000000000000000e+00" itree="45">
      <Node pos="s" depth="0" NCoef="0" IVar="1" Cut="1.3684545898437500e+03" cType="1" res="1.9759520888328552e-01" rms="2.8331276774406433e-01" purity="5.0168842077255249e-01" nType="0">
        <Node pos="l" depth="1" NCoef="0" IVar="1" Cut="9.8176855468750000e+02" cType="1" res="-2.0157819613814354e-02" rms="1.9552876055240631e-01" purity="7.8193105757236481e-02" nType="0">
          <Node pos="l" depth="2" NCoef="0" IVar="-1" Cut="0.0000000000000000e+00" cType="1" res="-1.6128363087773323e-02" rms="1.2013278901576996e-01" purity="1.7146151512861252e-02" nType="-99"/>
          <Node pos="r" depth="2" NCoef="0" IVar="-1" Cut="0.0000000000000000e+00" cType="1" res="1.3885296648368239e-03" rms="4.5320716500282288e-01" purity="6.0769134759902954e-01" nType="-99"/>
        </Node>
        <Node pos="r" depth="1" NCoef="0" IVar="-1" Cut="0.0000000000000000e+00" cType="1" res="1.7451491439715028e-03" rms="1.0696644335985184e-01" purity="9.8843824863433838e-01" nType="-99"/>
      </Node>
    </BinaryTree>
    <BinaryTree type="DecisionTree" boostWeight="1.0000000000000000e+00" itree="46">
      <Node pos="s" depth="0" NCoef="0" IVar="1" Cut="1.3367104492187500e+03" cType="1" res="1.9152872264385223e-01" rms="2.8032332658767700e-01" purity="4.9129155278205872e-01" nType="0">
        <Node pos="l" depth="1" NCoef="0" IVar="1" Cut="1.0145438842773438e+03" cType="1" res="-2.7888288721442223e-02" rms="1.7718917131423950e-01" purity="6.3146568834781647e-02" nType="0">
          <Node pos="l" depth="2" NCoef="0" IVar="-1" Cut="0.0000000000000000e+00" cType="1" res="-1.5120157040655613e-02" rms="1.0240782052278519e-01" purity="1.2214940041303635e-02" nType="-99"/>
          <Node pos="r" depth="2" NCoef="0" IVar="-1" Cut="0.0000000000000000e+00" cType="1" res="1.4021594543009996e-03" rms="4.6435651183128357e-01" purity="6.1188274621963501e-01" nType="-99"/>
        </Node>
        <Node pos="r" depth="1" NCoef="0" IVar="2" Cut="2.1463327407836914e+00" cType="1" res="4.4548800587654114e-01" rms="1.1391349136829376e-01" purity="9.8683834075927734e-01" nType="0">
          <Node pos="l" depth="2" NCoef="0" IVar="-1" Cut="0.0000000000000000e+00" cType="1" res="1.6447908710688353e-03" rms="1.4098916947841644e-01" purity="9.7968953847885132e-01" nType="-99"/>
          <Node pos="r" depth="2" NCoef="0" IVar="-1" Cut="0.0000000000000000e+00" cType="1" res="1.7074986826628447e-03" rms="8.3999566733837128e-02" purity="9.9288952350616455e-01" nType="-99"/>
        </Node>
      </Node>
    </BinaryTree>
    <BinaryTree type="DecisionTree" boostWeight="1.0000000000000000e+00" itree="47">
      <Node pos="s" depth="0" NCoef="0" IVar="1" Cut="1.3459935302734375e+03" cType="1" res="1.9447785615921021e-01" rms="2.8007441759109497e-01" purity="4.9651476740837097e-01" nType="0">
        <Node pos="l" depth="1" NCoef="0" IVar="1" Cut="9.6735186767578125e+02" cType="1" res="-2.4859193712472916e-02" rms="1.8108990788459778e-01" purity="6.6283635795116425e-02" nType="0">
          <Node pos="l" depth="2" NCoef="0" IVar="-1" Cut="0.0000000000000000e+00" cType="1" res="-1.6971062868833542e-02" rms="1.0222538560628891e-01" purity="1.1200317181646824e-02" nType="-99"/>
          <Node pos="r" depth="2" NCoef="0" IVar="-1" Cut="0.0000000000000000e+00" cType="1" res="1.2179914629086852e-03" rms="4.5305204391479492e-01" purity="5.6677240133285522e-01" nType="-99"/>
        </Node>
        <Node pos="r" depth="1" NCoef="0" IVar="3" Cut="1.7459517717361450e+00" cType="1" res="4.4432830810546875e-01" rms="1.1494999378919601e-01" purity="9.8659819364547729e-01" nType="0">
          <Node pos="l" depth="2" NCoef="0" IVar="-1" Cut="0.0000000000000000e+00" cType="1" res="1.5930917579680681e-03" rms="1.4882650971412659e-01" purity="9.7731959819793701e-01" nType="-99"/>
          <Node pos="r" depth="2" NCoef="0" IVar="-1" Cut="0.0000000000000000e+00" cType="1" res="1.8033945234492421e-03" rms="8.1930093467235565e-02" purity="9.9323850870132446e-01" nType="-99"/>
        </Node>
      </Node>
    </BinaryTree>
    <BinaryTree type="DecisionTree" boostWeight="1.0000000000000000e+00" itree="48">
      <Node pos="s" depth="0" NCoef="0" IVar="1" Cut="1.3362274169921875e+03" cType="1" res="2.0014405250549316e-01" rms="2.7942267060279846e-01" purity="5.0524771213531494e-01" nType="0">
        <Node pos="l" depth="1" NCoef="0" IVar="1" Cut="9.6034173583984375e+02" cType="1" res="-2.1914415061473846e-02" rms="1.8412268161773682e-01" purity="6.6131040453910828e-02" nType="0">
          <Node pos="l" depth="2" NCoef="0" IVar="-1" Cut="0.0000000000000000e+00" cType="1" res="-2.0660642534494400e-02" rms="9.2237360775470734e-02" purity="8.6650019511580467e-03" nType="-99"/>
          <Node pos="r" depth="2" NCoef="0" IVar="-1" Cut="0.0000000000000000e+00" cType="1" res="1.4660933520644903e-03" rms="4.6705880761146545e-01" purity="5.7465535402297974e-01" nType="-99"/>
        </Node>
        <Node pos="r" depth="1" NCoef="0" IVar="6" Cut="3.4585186839103699e-01" cType="1" res="4.4356867671012878e-01" rms="1.1486244201660156e-01" purity="9.8661553859710693e-01" nType="0">
          <Node pos="l" depth="2" NCoef="0" IVar="-1" Cut="0.0000000000000000e+00" cType="1" res="1.6922862268984318e-03" rms="1.4232695102691650e-01" purity="9.7929942607879639e-01" nType="-99"/>
          <Node pos="r" depth="2" NCoef="0" IVar="-1" Cut="0.0000000000000000e+00" cType="1" res="1.8489129142835736e-03" rms="8.9023128151893616e-02" purity="9.9200075864791870e-01" nType="-99"/>
        </Node>
      </Node>
    </BinaryTree>
    <BinaryTree type="DecisionTree" boostWeight="1.0000000000000000e+00" itree="49">
      <Node pos="s" depth="0" NCoef="0" IVar="1" Cut="1.3720467529296875e+03" cType="1" res="2.0085808634757996e-01" rms="2.7917945384979248e-01" purity="5.0480335950851440e-01" nType="0">
        <Node pos="l" depth="1" NCoef="0" IVar="1" Cut="9.8568225097656250e+02" cType="1" res="-1.6863070428371429e-02" rms="1.9150687754154205e-01" purity="7.1874044835567474e-02" nType="0">
          <Node pos="l" depth="2" NCoef="0" IVar="-1" Cut="0.0000000000000000e+00" cType="1" res="-1.5736354514956474e-02" rms="1.1381732672452927e-01" purity="1.3650871813297272e-02" nType="-99"/>
          <Node pos="r" depth="2" NCoef="0" IVar="-1" Cut="0.0000000000000000e+00" cType="1" res="1.3954197056591511e-03" rms="4.6364927291870117e-01" purity="6.0785931348800659e-01" nType="-99"/>
        </Node>
        <Node pos="r" depth="1" NCoef="0" IVar="-1" Cut="0.0000000000000000e+00" cType="1" res="1.7856996273621917e-03" rms="1.1002670973539352e-01" purity="9.8775726556777954e-01" nType="-99"/>
      </Node>
    </BinaryTree>
    <BinaryTree type="DecisionTree" boostWeight="1.0000000000000000e+00" itree="50">
      <Node pos="s" depth="0" NCoef="0" IVar="1" Cut="1.0961876220703125e+03" cType="1" res="1.9676062464714050e-01" rms="2.7614217996597290e-01" purity="4.9959850311279297e-01" nType="0">
        <Node pos="l" depth="1" NCoef="0" IVar="7" Cut="7.3094830322265625e+02" cType="1" res="-3.5356622189283371e-02" rms="1.2596614658832550e-01" purity="2.1210977807641029e-02" nType="0">
          <Node pos="l" depth="2" NCoef="0" IVar="-1" Cut="0.0000000000000000e+00" cType="1" res="-1.4217071235179901e-02" rms="9.3682184815406799e-02" purity="9.9685844033956528e-03" nType="-99"/>
          <Node pos="r" depth="2" NCoef="0" IVar="-1" Cut="0.0000000000000000e+00" cType="1" res="2.3796365130692720e-03" rms="3.5978829860687256e-01" purity="2.1949054300785065e-01" nType="-99"/>
        </Node>
        <Node pos="r" depth="1" NCoef="0" IVar="1" Cut="1.3498293457031250e+03" cType="1" res="4.2329865694046021e-01" rms="1.7688189446926117e-01" purity="9.6648734807968140e-01" nType="0">
          <Node pos="l" depth="2" NCoef="0" IVar="-1" Cut="0.0000000000000000e+00" cType="1" res="1.3220187975093722e-03" rms="4.4839054346084595e-01" purity="7.1315276622772217e-01" nType="-99"/>
          <Node pos="r" depth="2" NCoef="0" IVar="-1" Cut="0.0000000000000000e+00" cType="1" res="1.7106496961787343e-03" rms="1.1410631984472275e-01" purity="9.8680347204208374e-01" nType="-99"/>
        </Node>
      </Node>
    </BinaryTree>
    <BinaryTree type="DecisionTree" boostWeight="1.0000000000000000e+00" itree="51">
      <Node pos="s" depth="0" NCoef="0" IVar="1" Cut="1.3853850097656250e+03" cType="1" res="2.0265305042266846e-01" rms="2.7517145872116089e-01" purity="5.0862705707550049e-01" nType="0">
        <Node pos="l" depth="1" NCoef="0" IVar="1" Cut="9.9310656738281250e+02" cType="1" res="-1.4028396457433701e-02" rms="1.8715700507164001e-01" purity="7.5970798730850220e-02" nType="0">
          <Node pos="l" depth="2" NCoef="0" IVar="-1" Cut="0.0000000000000000e+00" cType="1" res="-1.4658313244581223e-02" rms="1.0954456031322479e-01" purity="1.3018614612519741e-02" nType="-99"/>
          <Node pos="r" depth="2" NCoef="0" IVar="-1" Cut="0.0000000000000000e+00" cType="1" res="1.4800784410908818e-03" rms="4.4398483633995056e-01" purity="6.3467031717300415e-01" nType="-99"/>
        </Node>
        <Node pos="r" depth="1" NCoef="0" IVar="-1" Cut="0.0000000000000000e+00" cType="1" res="1.7954048234969378e-03" rms="1.0436265915632248e-01" purity="9.8900026082992554e-01" nType="-99"/>
      </Node>
    </BinaryTree>
    <BinaryTree type="DecisionTree" boostWeight="1.0000000000000000e+00" itree="52">
      <Node pos="s" depth="0" NCoef="0" IVar="1" Cut="1.3445859375000000e+03" cType="1" res="1.9305591285228729e-01" rms="2.7660498023033142e-01" purity="4.8776444792747498e-01" nType="0">
        <Node pos="l" depth="1" NCoef="0" IVar="5" Cut="1.6606646728515625e+02" cType="1" res="-1.7599681392312050e-02" rms="1.8505428731441498e-01" purity="6.2413480132818222e-02" nType="0">
          <Node pos="l" depth="2" NCoef="0" IVar="-1" Cut="0.0000000000000000e+00" cType="1" res="-3.5368369426578283e-03" rms="1.5852616727352142e-01" purity="4.4593311846256256e-02" nType="-99"/>
          <Node pos="r" depth="2" NCoef="0" IVar="-1" Cut="0.0000000000000000e+00" cType="1" res="1.9280259730294347e-03" rms="3.9548999071121216e-01" purity="4.1682642698287964e-01" nType="-99"/>
        </Node>
        <Node pos="r" depth="1" NCoef="0" IVar="3" Cut="1.7459517717361450e+00" cType="1" res="4.4024685025215149e-01" rms="1.1371167749166489e-01" purity="9.8688679933547974e-01" nType="0">
          <Node pos="l" depth="2" NCoef="0" IVar="-1" Cut="0.0000000000000000e+00" cType="1" res="1.5733443433418870e-03" rms="1.4567112922668457e-01" purity="9.7828608751296997e-01" nType="-99"/>
          <Node pos="r" depth="2" NCoef="0" IVar="-1" Cut="0.0000000000000000e+00" cType="1" res="1.7278419109061360e-03" rms="8.1924751400947571e-02" purity="9.9324136972427368e-01" nType="-99"/>
        </Node>
      </Node>
    </BinaryTree>
    <BinaryTree type="DecisionTree" boostWeight="1.0000000000000000e+00" itree="53">
      <Node pos="s" depth="0" NCoef="0" IVar="1" Cut="1.3445859375000000e+03" cType="1" res="1.8953350186347961e-01" rms="2.7618902921676636e-01" purity="4.8178660869598389e-01" nType="0">
        <Node pos="l" depth="1" NCoef="0" IVar="5" Cut="1.6122187805175781e+02" cType="1" res="-1.2371487915515900e-02" rms="1.8914030492305756e-01" purity="7.2766453027725220e-02" nType="0">
          <Node pos="l" depth="2" NCoef="0" IVar="-1" Cut="0.0000000000000000e+00" cType="1" res="-3.4898102749139071e-03" rms="1.5795142948627472e-01" purity="4.5311652123928070e-02" nType="-99"/>
          <Node pos="r" depth="2" NCoef="0" IVar="-1" Cut="0.0000000000000000e+00" cType="1" res="2.6928796432912350e-03" rms="3.6656573414802551e-01" purity="5.1425969600677490e-01" nType="-99"/>
        </Node>
        <Node pos="r" depth="1" NCoef="0" IVar="6" Cut="3.4498810768127441e-01" cType="1" res="4.3828219175338745e-01" rms="1.1868024617433548e-01" purity="9.8570293188095093e-01" nType="0">
          <Node pos="l" depth="2" NCoef="0" IVar="-1" Cut="0.0000000000000000e+00" cType="1" res="1.6312107909470797e-03" rms="1.4194747805595398e-01" purity="9.7941154241561890e-01" nType="-99"/>
          <Node pos="r" depth="2" NCoef="0" IVar="-1" Cut="0.0000000000000000e+00" cType="1" res="1.5478653367608786e-03" rms="9.4163194298744202e-02" purity="9.9105209112167358e-01" nType="-99"/>
        </Node>
      </Node>
    </BinaryTree>
    <BinaryTree type="DecisionTree" boostWeight="1.0000000000000000e+00" itree="54">
      <Node pos="s" depth="0" NCoef="0" IVar="1" Cut="1.3684694824218750e+03" cType="1" res="1.9254022836685181e-01" rms="2.7531224489212036e-01" purity="4.8854956030845642e-01" nType="0">
        <Node pos="l" depth="1" NCoef="0" IVar="7" Cut="7.3970965576171875e+02" cType="1" res="-1.5950197353959084e-02" rms="1.8618977069854736e-01" purity="6.7263111472129822e-02" nType="0">
          <Node pos="l" depth="2" NCoef="0" IVar="-1" Cut="0.0000000000000000e+00" cType="1" res="-3.7192511372268200e-03" rms="1.4196452498435974e-01" purity="3.4612119197845459e-02" nType="-99"/>
          <Node pos="r" depth="2" NCoef="0" IVar="-1" Cut="0.0000000000000000e+00" cType="1" res="1.9660827238112688e-03" rms="4.0863132476806641e-01" purity="4.5156601071357727e-01" nType="-99"/>
        </Node>
        <Node pos="r" depth="1" NCoef="0" IVar="-1" Cut="0.0000000000000000e+00" cType="1" res="1.6324269818142056e-03" rms="1.0932680219411850e-01" purity="9.8791259527206421e-01" nType="-99"/>
      </Node>
    </BinaryTree>
    <BinaryTree type="DecisionTree" boostWeight="1.0000000000000000e+00" itree="55">
      <Node pos="s" depth="0" NCoef="0" IVar="1" Cut="1.3853702392578125e+03" cType="1" res="1.9360309839248657e-01" rms="2.7332344651222229e-01" purity="4.9304136633872986e-01" nType="0">
        <Node pos="l" depth="1" NCoef="0" IVar="0" Cut="3.0240689086914062e+02" cType="1" res="-1.3112128712236881e-02" rms="1.8527793884277344e-01" purity="7.6302967965602875e-02" nType="0">
          <Node pos="l" depth="2" NCoef="0" IVar="-1" Cut="0.0000000000000000e+00" cType="1" res="-3.5269747022539377e-03" rms="1.4574076235294342e-01" purity="3.8154147565364838e-02" nType="-99"/>
          <Node pos="r" depth="2" NCoef="0" IVar="-1" Cut="0.0000000000000000e+00" cType="1" res="2.0953323692083359e-03" rms="3.9524027705192566e-01" purity="6.2355977296829224e-01" nType="-99"/>
        </Node>
        <Node pos="r" depth="1" NCoef="0" IVar="-1" Cut="0.0000000000000000e+00" cType="1" res="1.6736976103857160e-03" rms="1.0748042166233063e-01" purity="9.8832488059997559e-01" nType="-99"/>
      </Node>
    </BinaryTree>
    <BinaryTree type="DecisionTree" boostWeight="1.0000000000000000e+00" itree="56">
      <Node pos="s" depth="0" NCoef="0" IVar="1" Cut="1.0961876220703125e+03" cType="1" res="1.9608786702156067e-01" rms="2.7350103855133057e-01" purity="4.9789777398109436e-01" nType="0">
        <Node pos="l" depth="1" NCoef="0" IVar="1" Cut="9.2710620117187500e+02" cType="1" res="-2.8165470808744431e-02" rms="1.3542546331882477e-01" purity="2.5831131264567375e-02" nType="0">
          <Node pos="l" depth="2" NCoef="0" IVar="-1" Cut="0.0000000000000000e+00" cType="1" res="-2.2206071764230728e-02" rms="8.5799582302570343e-02" purity="8.1058973446488380e-03" nType="-99"/>
          <Node pos="r" depth="2" NCoef="0" IVar="-1" Cut="0.0000000000000000e+00" cType="1" res="2.2170033771544695e-03" rms="4.3923810124397278e-01" purity="3.4217861294746399e-01" nType="-99"/>
        </Node>
        <Node pos="r" depth="1" NCoef="0" IVar="1" Cut="1.3498162841796875e+03" cType="1" res="4.1841146349906921e-01" rms="1.7746861279010773e-01" purity="9.6590232849121094e-01" nType="0">
          <Node pos="l" depth="2" NCoef="0" IVar="-1" Cut="0.0000000000000000e+00" cType="1" res="1.5262316446751356e-03" rms="4.4709777832031250e-01" purity="7.1429938077926636e-01" nType="-99"/>
          <Node pos="r" depth="2" NCoef="0" IVar="-1" Cut="0.0000000000000000e+00" cType="1" res="1.7054280033335090e-03" rms="1.1397933959960938e-01" purity="9.8682862520217896e-01" nType="-99"/>
        </Node>
      </Node>
    </BinaryTree>
    <BinaryTree type="DecisionTree" boostWeight="1.0000000000000000e+00" itree="57">
      <Node pos="s" depth="0" NCoef="0" IVar="1" Cut="1.3853702392578125e+03" cType="1" res="2.0296917855739594e-01" rms="2.7305242419242859e-01" purity="5.0829517841339111e-01" nType="0">
        <Node pos="l" depth="1" NCoef="0" IVar="0" Cut="3.0231939697265625e+02" cType="1" res="-5.1792827434837818e-03" rms="1.9644856452941895e-01" purity="8.3082363009452820e-02" nType="0">
          <Node pos="l" depth="2" NCoef="0" IVar="-1" Cut="0.0000000000000000e+00" cType="1" res="-2.9626062605530024e-03" rms="1.6092385351657867e-01" purity="4.4304955750703812e-02" nType="-99"/>
          <Node pos="r" depth="2" NCoef="0" IVar="-1" Cut="0.0000000000000000e+00" cType="1" res="2.2597692441195250e-03" rms="3.8993978500366211e-01" purity="6.3395160436630249e-01" nType="-99"/>
        </Node>
        <Node pos="r" depth="1" NCoef="0" IVar="-1" Cut="0.0000000000000000e+00" cType="1" res="1.7358572222292423e-03" rms="1.0419095307588577e-01" purity="9.8903667926788330e-01" nType="-99"/>
      </Node>
    </BinaryTree>
    <BinaryTree type="DecisionTree" boostWeight="1.0000000000000000e+00" itree="58">
      <Node pos="s" depth="0" NCoef="0" IVar="1" Cut="1.3625483398437500e+03" cType="1" res="1.9588162004947662e-01" rms="2.7391174435615540e-01" purity="4.9416500329971313e-01" nType="0">
        <Node pos="l" depth="1" NCoef="0" IVar="7" Cut="8.4892681884765625e+02" cType="1" res="-1.0400910861790180e-02" rms="1.9144146144390106e-01" purity="6.9821350276470184e-02" nType="0">
          <Node pos="l" depth="2" NCoef="0" IVar="-1" Cut="0.0000000000000000e+00" cType="1" res="-3.0943930614739656e-03" rms="1.5580512583255768e-01" purity="3.7485461682081223e-02" nType="-99"/>
          <Node pos="r" depth="2" NCoef="0" IVar="-1" Cut="0.0000000000000000e+00" cType="1" res="2.9630416538566351e-03" rms="4.0176045894622803e-01" purity="5.5992698669433594e-01" nType="-99"/>
        </Node>
        <Node pos="r" depth="1" NCoef="0" IVar="-1" Cut="0.0000000000000000e+00" cType="1" res="1.6671379562467337e-03" rms="1.1297519505023956e-01" purity="9.8707550764083862e-01" nType="-99"/>
      </Node>
    </BinaryTree>
    <BinaryTree type="DecisionTree" boostWeight="1.0000000000000000e+00" itree="59">
      <Node pos="s" depth="0" NCoef="0" IVar="1" Cut="1.3639559326171875e+03" cType="1" res="1.9940294325351715e-01" rms="2.7283897995948792e-01" purity="5.0317382812500000e-01" nType="0">
        <Node pos="l" depth="1" NCoef="0" IVar="7" Cut="8.7111480712890625e+02" cType="1" res="-1.1098185554146767e-02" rms="1.8992820382118225e-01" purity="7.0931456983089447e-02" nType="0">
          <Node pos="l" depth="2" NCoef="0" IVar="-1" Cut="0.0000000000000000e+00" cType="1" res="-2.4525704793632030e-03" rms="1.6144268214702606e-01" purity="4.2494982481002808e-02" nType="-99"/>
          <Node pos="r" depth="2" NCoef="0" IVar="-1" Cut="0.0000000000000000e+00" cType="1" res="2.4898564442992210e-03" rms="3.9109528064727783e-01" purity="5.5191987752914429e-01" nType="-99"/>
        </Node>
        <Node pos="r" depth="1" NCoef="0" IVar="-1" Cut="0.0000000000000000e+00" cType="1" res="1.7420545918866992e-03" rms="1.0992368310689926e-01" purity="9.8777437210083008e-01" nType="-99"/>
      </Node>
    </BinaryTree>
    <BinaryTree type="DecisionTree" boostWeight="1.0000000000000000e+00" itree="60">
      <Node pos="s" depth="0" NCoef="0" IVar="1" Cut="1.3645944824218750e+03" cType="1" res="1.9836141169071198e-01" rms="2.6965403556823730e-01" purity="5.0344902276992798e-01" nType="0">
        <Node pos="l" depth="1" NCoef="0" IVar="1" Cut="9.8007574462890625e+02" cType="1" res="-9.7425626590847969e-03" rms="1.8381072580814362e-01" purity="7.6971791684627533e-02" nType="0">
          <Node pos="l" depth="2" NCoef="0" IVar="-1" Cut="0.0000000000000000e+00" cType="1" res="-1.7679298296570778e-02" rms="7.7160954475402832e-02" purity="6.9892527535557747e-03" nType="-99"/>
          <Node pos="r" depth="2" NCoef="0" IVar="-1" Cut="0.0000000000000000e+00" cType="1" res="1.8836271483451128e-03" rms="4.5330521464347839e-01" purity="6.3845825195312500e-01" nType="-99"/>
        </Node>
        <Node pos="r" depth="1" NCoef="0" IVar="-1" Cut="0.0000000000000000e+00" cType="1" res="1.7091379268094897e-03" rms="1.0872908681631088e-01" purity="9.8804050683975220e-01" nType="-99"/>
      </Node>
    </BinaryTree>
    <BinaryTree type="DecisionTree" boostWeight="1.0000000000000000e+00" itree="61">
      <Node pos="s" depth="0" NCoef="0" IVar="1" Cut="1.0740544433593750e+03" cType="1" res="2.0392175018787384e-01" rms="2.7285075187683105e-01" purity="5.0907558202743530e-01" nType="0">
        <Node pos="l" depth="1" NCoef="0" IVar="0" Cut="2.5561315917968750e+02" cType="1" res="-1.8493279814720154e-02" rms="1.5310537815093994e-01" purity="2.9549440369009972e-02" nType="0">
          <Node pos="l" depth="2" NCoef="0" IVar="-1" Cut="0.0000000000000000e+00" cType="1" res="-1.2047249823808670e-02" rms="1.2494019418954849e-01" purity="1.7734376713633537e-02" nType="-99"/>
          <Node pos="r" depth="2" NCoef="0" IVar="-1" Cut="0.0000000000000000e+00" cType="1" res="4.1948626749217510e-03" rms="3.7550637125968933e-01" purity="2.3358397185802460e-01" nType="-99"/>
        </Node>
        <Node pos="r" depth="1" NCoef="0" IVar="1" Cut="1.3213365478515625e+03" cType="1" res="4.1559639573097229e-01" rms="1.7636589705944061e-01" purity="9.6544539928436279e-01" nType="0">
          <Node pos="l" depth="2" NCoef="0" IVar="-1" Cut="0.0000000000000000e+00" cType="1" res="1.8712757155299187e-03" rms="4.4941109418869019e-01" purity="7.0801544189453125e-01" nType="-99"/>
          <Node pos="r" depth="2" NCoef="0" IVar="-1" Cut="0.0000000000000000e+00" cType="1" res="1.7246375791728497e-03" rms="1.2006205320358276e-01" purity="9.8529523611068726e-01" nType="-99"/>
        </Node>
      </Node>
    </BinaryTree>
    <BinaryTree type="DecisionTree" boostWeight="1.0000000000000000e+00" itree="62">
      <Node pos="s" depth="0" NCoef="0" IVar="1" Cut="1.3684694824218750e+03" cType="1" res="1.9642415642738342e-01" rms="2.6868391036987305e-01" purity="4.9913692474365234e-01" nType="0">
        <Node pos="l" depth="1" NCoef="0" IVar="1" Cut="9.8183953857421875e+02" cType="1" res="-9.5720468088984489e-03" rms="1.8240711092948914e-01" purity="7.3005415499210358e-02" nType="0">
          <Node pos="l" depth="2" NCoef="0" IVar="-1" Cut="0.0000000000000000e+00" cType="1" res="-1.3810093514621258e-02" rms="1.0038176178932190e-01" purity="1.1834206990897655e-02" nType="-99"/>
          <Node pos="r" depth="2" NCoef="0" IVar="-1" Cut="0.0000000000000000e+00" cType="1" res="1.4345411909744143e-03" rms="4.5029255747795105e-01" purity="6.1443686485290527e-01" nType="-99"/>
        </Node>
        <Node pos="r" depth="1" NCoef="0" IVar="-1" Cut="0.0000000000000000e+00" cType="1" res="1.6917446628212929e-03" rms="1.1158959567546844e-01" purity="9.8739886283874512e-01" nType="-99"/>
      </Node>
    </BinaryTree>
    <BinaryTree type="DecisionTree" boostWeight="1.0000000000000000e+00" itree="63">
      <Node pos="s" depth="0" NCoef="0" IVar="1" Cut="1.3961256103515625e+03" cType="1" res="2.0081394910812378e-01" rms="2.6902568340301514e-01" purity="5.0633138418197632e-01" nType="0">
        <Node pos="l" depth="1" NCoef="0" IVar="1" Cut="9.4557440185546875e+02" cType="1" res="-6.5014362335205078e-03" rms="1.9004242122173309e-01" purity="7.5830526649951935e-02" nType="0">
          <Node pos="l" depth="2" NCoef="0" IVar="-1" Cut="0.0000000000000000e+00" cType="1" res="-1.6971385106444359e-02" rms="1.0776154696941376e-01" purity="1.2799557298421860e-02" nType="-99"/>
          <Node pos="r" depth="2" NCoef="0" IVar="-1" Cut="0.0000000000000000e+00" cType="1" res="1.1839087819680572e-03" rms="4.4870904088020325e-01" purity="5.7195687294006348e-01" nType="-99"/>
        </Node>
        <Node pos="r" depth="1" NCoef="0" IVar="-1" Cut="0.0000000000000000e+00" cType="1" res="1.7254990525543690e-03" rms="1.0385804623365402e-01" purity="9.8910707235336304e-01" nType="-99"/>
      </Node>
    </BinaryTree>
    <BinaryTree type="DecisionTree" boostWeight="1.0000000000000000e+00" itree="64">
      <Node pos="s" depth="0" NCoef="0" IVar="1" Cut="1.3892675781250000e+03" cType="1" res="1.9610992074012756e-01" rms="2.6867890357971191e-01" purity="4.9633529782295227e-01" nType="0">
        <Node pos="l" depth="1" NCoef="0" IVar="1" Cut="9.9724444580078125e+02" cType="1" res="-3.5187907051295042e-03" rms="1.9184376299381256e-01" purity="7.9581514000892639e-02" nType="0">
          <Node pos="l" depth="2" NCoef="0" IVar="-1" Cut="0.0000000000000000e+00" cType="1" res="-1.0898704640567303e-02" rms="1.1564967036247253e-01" purity="1.4894025400280952e-02" nType="-99"/>
          <Node pos="r" depth="2" NCoef="0" IVar="-1" Cut="0.0000000000000000e+00" cType="1" res="1.4474479248747230e-03" rms="4.4860574603080750e-01" purity="6.4096707105636597e-01" nType="-99"/>
        </Node>
        <Node pos="r" depth="1" NCoef="0" IVar="-1" Cut="0.0000000000000000e+00" cType="1" res="1.6779387369751930e-03" rms="1.0639169812202454e-01" purity="9.8856306076049805e-01" nType="-99"/>
      </Node>
    </BinaryTree>
    <BinaryTree type="DecisionTree" boostWeight="1.0000000000000000e+00" itree="65">
      <Node pos="s" depth="0" NCoef="0" IVar="1" Cut="1.3941053466796875e+03" cType="1" res="2.0214617252349854e-01" rms="2.7012592554092407e-01" purity="5.0545173883438110e-01" nType="0">
        <Node pos="l" depth="1" NCoef="0" IVar="5" Cut="1.5732151794433594e+02" cType="1" res="3.0716031324118376e-03" rms="2.0314602553844452e-01" purity="8.5097663104534149e-02" nType="0">
          <Node pos="l" depth="2" NCoef="0" IVar="-1" Cut="0.0000000000000000e+00" cType="1" res="-1.8548365915194154e-03" rms="1.7227648198604584e-01" purity="4.8992600291967392e-02" nType="-99"/>
          <Node pos="r" depth="2" NCoef="0" IVar="-1" Cut="0.0000000000000000e+00" cType="1" res="2.9577887617051601e-03" rms="3.4264418482780457e-01" purity="5.5611675977706909e-01" nType="-99"/>
        </Node>
        <Node pos="r" depth="1" NCoef="0" IVar="-1" Cut="0.0000000000000000e+00" cType="1" res="1.7074090428650379e-03" rms="1.0753978788852692e-01" purity="9.8831146955490112e-01" nType="-99"/>
      </Node>
    </BinaryTree>
    <BinaryTree type="DecisionTree" boostWeight="1.0000000000000000e+00" itree="66">
      <Node pos="s" depth="0" NCoef="0" IVar="1" Cut="1.3684545898437500e+03" cType="1" res="1.9100116193294525e-01" rms="2.6702147722244263e-01" purity="4.8826548457145691e-01" nType="0">
        <Node pos="l" depth="1" NCoef="0" IVar="7" Cut="8.7111480712890625e+02" cType="1" res="-7.6019396074116230e-03" rms="1.8384595215320587e-01" purity="7.2214409708976746e-02" nType="0">
          <Node pos="l" depth="2" NCoef="0" IVar="-1" Cut="0.0000000000000000e+00" cType="1" res="-2.2445968352258205e-03" rms="1.5331752598285675e-01" purity="4.4288754463195801e-02" nType="-99"/>
          <Node pos="r" depth="2" NCoef="0" IVar="-1" Cut="0.0000000000000000e+00" cType="1" res="2.5532348081469536e-03" rms="3.9448127150535583e-01" purity="5.4500538110733032e-01" nType="-99"/>
        </Node>
        <Node pos="r" depth="1" NCoef="0" IVar="-1" Cut="0.0000000000000000e+00" cType="1" res="1.6261531272903085e-03" rms="1.1011209338903427e-01" purity="9.8772960901260376e-01" nType="-99"/>
      </Node>
    </BinaryTree>
    <BinaryTree type="DecisionTree" boostWeight="1.0000000000000000e+00" itree="67">
      <Node pos="s" depth="0" NCoef="0" IVar="1" Cut="1.3853702392578125e+03" cType="1" res="1.9410912692546844e-01" rms="2.6875072717666626e-01" purity="4.9260443449020386e-01" nType="0">
