<?xml version="1.0"?>
<MethodSetup Method="DNN::DNN_NanoV9_VAUG_2020_BB_x1">
  <GeneralInfo>
    <Info name="TMVA Release" value="4.2.1 [262657]"/>
    <Info name="ROOT Release" value="6.12/07 [396295]"/>
    <Info name="Creator" value="hum"/>
    <Info name="Date" value="Wed Aug  3 07:51:51 2022"/>
    <Info name="Host" value="Linux vocms0301.cern.ch 2.6.32-696.30.1.el6.x86_64 #1 SMP Tue May 22 06:09:36 CEST 2018 x86_64 x86_64 x86_64 GNU/Linux"/>
    <Info name="Dir" value="/afs/cern.ch/work/h/hum/public/CMSSW_10_2_13/src/ChargedHiggs/Analysis"/>
    <Info name="Training events" value="24965"/>
    <Info name="TrainingTime" value="3.20501018e+00"/>
    <Info name="AnalysisType" value="Classification"/>
  </GeneralInfo>
  <Options>
    <Option name="V" modified="Yes">True</Option>
    <Option name="VerbosityLevel" modified="No">Verbose</Option>
    <Option name="VarTransform" modified="Yes">N</Option>
    <Option name="H" modified="Yes">False</Option>
    <Option name="CreateMVAPdfs" modified="No">False</Option>
    <Option name="IgnoreNegWeightsInTraining" modified="No">False</Option>
    <Option name="Layout" modified="Yes">TANH|32,ReLU|16,SIGMOID|16,LINEAR</Option>
    <Option name="ValidationSize" modified="No">20%</Option>
    <Option name="ErrorStrategy" modified="Yes">CROSSENTROPY</Option>
    <Option name="WeightInitialization" modified="Yes">XAVIERUNIFORM</Option>
    <Option name="Architecture" modified="Yes">CPU</Option>
    <Option name="TrainingStrategy" modified="Yes">LearningRate=1e-1,Momentum=0.9,Repetitions=1,ConvergenceSteps=20,BatchSize=256,TestRepetitions=10,WeightDecay=1e-4,Regularization=L2,DropConfig=0.0+0.1+0.25+0.5,</Option>
  </Options>
  <Variables NVar="17">
    <Variable VarIndex="0" Expression="j1QGL" Label="j1QGL" Title="j1QGL" Unit="" Internal="j1QGL" Type="F" Min="-1.00000000e+00" Max="1.00000000e+00"/>
    <Variable VarIndex="1" Expression="j2QGL" Label="j2QGL" Title="j2QGL" Unit="" Internal="j2QGL" Type="F" Min="-1.00000000e+00" Max="9.99511719e-01"/>
    <Variable VarIndex="2" Expression="varMjj" Label="varMjj" Title="varMjj" Unit="" Internal="varMjj" Type="F" Min="5.00033295e+02" Max="8.20146387e+03"/>
    <Variable VarIndex="3" Expression="varDetajj" Label="varDetajj" Title="varDetajj" Unit="" Internal="varDetajj" Type="F" Min="2.50000000e+00" Max="8.87304688e+00"/>
    <Variable VarIndex="4" Expression="abs(varJet1Eta)" Label="abs(varJet1Eta)" Title="abs(varJet1Eta)" Unit="" Internal="abs_varJet1Eta_" Type="F" Min="1.72495842e-04" Max="4.62988281e+00"/>
    <Variable VarIndex="5" Expression="varJet1Pt" Label="varJet1Pt" Title="varJet1Pt" Unit="" Internal="varJet1Pt" Type="F" Min="5.03750000e+01" Max="1.79000000e+03"/>
    <Variable VarIndex="6" Expression="abs(varJet2Eta)" Label="abs(varJet2Eta)" Title="abs(varJet2Eta)" Unit="" Internal="abs_varJet2Eta_" Type="F" Min="2.73108482e-04" Max="4.67968750e+00"/>
    <Variable VarIndex="7" Expression="varJet2Pt" Label="varJet2Pt" Title="varJet2Pt" Unit="" Internal="varJet2Pt" Type="F" Min="5.00000000e+01" Max="8.95000000e+02"/>
    <Variable VarIndex="8" Expression="varMVV" Label="varMVV" Title="varMVV" Unit="" Internal="varMVV" Type="F" Min="5.00394440e+02" Max="5.81469629e+03"/>
    <Variable VarIndex="9" Expression="varPTV1" Label="varPTV1" Title="varPTV1" Unit="" Internal="varPTV1" Type="F" Min="4.00000000e+02" Max="1.96600000e+03"/>
    <Variable VarIndex="10" Expression="varPTV2" Label="varPTV2" Title="varPTV2" Unit="" Internal="varPTV2" Type="F" Min="3.00000000e+02" Max="1.72800000e+03"/>
    <Variable VarIndex="11" Expression="max(abs(bosV1Eta),abs(bosV2Eta))" Label="max(abs(bosV1Eta),abs(bosV2Eta))" Title="varEtaMaxV" Unit="" Internal="max_abs_bosV1Eta_,abs_bosV2Eta__" Type="F" Min="5.03540039e-03" Max="2.49853516e+00"/>
    <Variable VarIndex="12" Expression="varCen" Label="varCen" Title="varCen" Unit="" Internal="varCen" Type="F" Min="-2.45392704e+00" Max="3.78002930e+00"/>
    <Variable VarIndex="13" Expression="varzepVV" Label="varzepVV" Title="varzepVV" Unit="" Internal="varzepVV" Type="F" Min="4.72383690e-05" Max="2.09058785e+00"/>
    <Variable VarIndex="14" Expression="varDRV1j" Label="varDRV1j" Title="varDRV1j" Unit="" Internal="varDRV1j" Type="F" Min="1.20034230e+00" Max="4.76362371e+00"/>
    <Variable VarIndex="15" Expression="varDRV2j" Label="varDRV2j" Title="varDRV2j" Unit="" Internal="varDRV2j" Type="F" Min="1.20000470e+00" Max="4.82438421e+00"/>
    <Variable VarIndex="16" Expression="varnormPTVVjj" Label="varnormPTVVjj" Title="varnormPTVVjj" Unit="" Internal="varnormPTVVjj" Type="F" Min="1.73272929e-04" Max="5.66159487e-01"/>
  </Variables>
  <Spectators NSpec="0"/>
  <Classes NClass="2">
    <Class Name="Signal" Index="0"/>
    <Class Name="Background" Index="1"/>
  </Classes>
  <Transformations NTransformations="1">
    <Transform Name="Normalize">
      <Selection>
        <Input NInputs="17">
          <Input Type="Variable" Label="j1QGL" Expression="j1QGL"/>
          <Input Type="Variable" Label="j2QGL" Expression="j2QGL"/>
          <Input Type="Variable" Label="varMjj" Expression="varMjj"/>
          <Input Type="Variable" Label="varDetajj" Expression="varDetajj"/>
          <Input Type="Variable" Label="abs(varJet1Eta)" Expression="abs(varJet1Eta)"/>
          <Input Type="Variable" Label="varJet1Pt" Expression="varJet1Pt"/>
          <Input Type="Variable" Label="abs(varJet2Eta)" Expression="abs(varJet2Eta)"/>
          <Input Type="Variable" Label="varJet2Pt" Expression="varJet2Pt"/>
          <Input Type="Variable" Label="varMVV" Expression="varMVV"/>
          <Input Type="Variable" Label="varPTV1" Expression="varPTV1"/>
          <Input Type="Variable" Label="varPTV2" Expression="varPTV2"/>
          <Input Type="Variable" Label="max(abs(bosV1Eta),abs(bosV2Eta))" Expression="max(abs(bosV1Eta),abs(bosV2Eta))"/>
          <Input Type="Variable" Label="varCen" Expression="varCen"/>
          <Input Type="Variable" Label="varzepVV" Expression="varzepVV"/>
          <Input Type="Variable" Label="varDRV1j" Expression="varDRV1j"/>
          <Input Type="Variable" Label="varDRV2j" Expression="varDRV2j"/>
          <Input Type="Variable" Label="varnormPTVVjj" Expression="varnormPTVVjj"/>
        </Input>
        <Output NOutputs="17">
          <Output Type="Variable" Label="j1QGL" Expression="j1QGL"/>
          <Output Type="Variable" Label="j2QGL" Expression="j2QGL"/>
          <Output Type="Variable" Label="varMjj" Expression="varMjj"/>
          <Output Type="Variable" Label="varDetajj" Expression="varDetajj"/>
          <Output Type="Variable" Label="abs(varJet1Eta)" Expression="abs(varJet1Eta)"/>
          <Output Type="Variable" Label="varJet1Pt" Expression="varJet1Pt"/>
          <Output Type="Variable" Label="abs(varJet2Eta)" Expression="abs(varJet2Eta)"/>
          <Output Type="Variable" Label="varJet2Pt" Expression="varJet2Pt"/>
          <Output Type="Variable" Label="varMVV" Expression="varMVV"/>
          <Output Type="Variable" Label="varPTV1" Expression="varPTV1"/>
          <Output Type="Variable" Label="varPTV2" Expression="varPTV2"/>
          <Output Type="Variable" Label="max(abs(bosV1Eta),abs(bosV2Eta))" Expression="max(abs(bosV1Eta),abs(bosV2Eta))"/>
          <Output Type="Variable" Label="varCen" Expression="varCen"/>
          <Output Type="Variable" Label="varzepVV" Expression="varzepVV"/>
          <Output Type="Variable" Label="varDRV1j" Expression="varDRV1j"/>
          <Output Type="Variable" Label="varDRV2j" Expression="varDRV2j"/>
          <Output Type="Variable" Label="varnormPTVVjj" Expression="varnormPTVVjj"/>
        </Output>
      </Selection>
      <Class ClassIndex="0">
        <Ranges>
          <Range Index="0" Min="-1.0000000000000000e+00" Max="1.0000000000000000e+00"/>
          <Range Index="1" Min="-1.0000000000000000e+00" Max="9.9951171875000000e-01"/>
          <Range Index="2" Min="5.0027105712890625e+02" Max="8.2014638671875000e+03"/>
          <Range Index="3" Min="2.5008544921875000e+00" Max="8.7324218750000000e+00"/>
          <Range Index="4" Min="5.5990219116210938e-03" Max="4.3681640625000000e+00"/>
          <Range Index="5" Min="5.2843750000000000e+01" Max="1.4200000000000000e+03"/>
          <Range Index="6" Min="2.5177001953125000e-02" Max="4.6796875000000000e+00"/>
          <Range Index="7" Min="5.0031250000000000e+01" Max="8.9500000000000000e+02"/>
          <Range Index="8" Min="5.0210705566406250e+02" Max="5.8146962890625000e+03"/>
          <Range Index="9" Min="4.0000000000000000e+02" Max="1.7610000000000000e+03"/>
          <Range Index="10" Min="3.0000000000000000e+02" Max="1.7280000000000000e+03"/>
          <Range Index="11" Min="1.4429092407226562e-02" Max="2.4902343750000000e+00"/>
          <Range Index="12" Min="-2.0780029296875000e+00" Max="3.7800292968750000e+00"/>
          <Range Index="13" Min="1.9090417481493205e-04" Max="1.8444145917892456e+00"/>
          <Range Index="14" Min="1.2003422975540161e+00" Max="4.5591673851013184e+00"/>
          <Range Index="15" Min="1.2000939846038818e+00" Max="4.8243842124938965e+00"/>
          <Range Index="16" Min="9.9803810007870197e-04" Max="4.8530828952789307e-01"/>
        </Ranges>
      </Class>
      <Class ClassIndex="1">
        <Ranges>
          <Range Index="0" Min="-1.0000000000000000e+00" Max="1.0000000000000000e+00"/>
          <Range Index="1" Min="-1.0000000000000000e+00" Max="9.9951171875000000e-01"/>
          <Range Index="2" Min="5.0003329467773438e+02" Max="6.6567504882812500e+03"/>
          <Range Index="3" Min="2.5000000000000000e+00" Max="8.8730468750000000e+00"/>
          <Range Index="4" Min="1.7249584197998047e-04" Max="4.6298828125000000e+00"/>
          <Range Index="5" Min="5.0375000000000000e+01" Max="1.7900000000000000e+03"/>
          <Range Index="6" Min="2.7310848236083984e-04" Max="4.6718750000000000e+00"/>
          <Range Index="7" Min="5.0000000000000000e+01" Max="8.7800000000000000e+02"/>
          <Range Index="8" Min="5.0039443969726562e+02" Max="4.9399516601562500e+03"/>
          <Range Index="9" Min="4.0000000000000000e+02" Max="1.9660000000000000e+03"/>
          <Range Index="10" Min="3.0000000000000000e+02" Max="1.6390000000000000e+03"/>
          <Range Index="11" Min="5.0354003906250000e-03" Max="2.4985351562500000e+00"/>
          <Range Index="12" Min="-2.4539270401000977e+00" Max="3.6582031250000000e+00"/>
          <Range Index="13" Min="4.7238369006663561e-05" Max="2.0905878543853760e+00"/>
          <Range Index="14" Min="1.2007080316543579e+00" Max="4.7636237144470215e+00"/>
          <Range Index="15" Min="1.2000046968460083e+00" Max="4.3573517799377441e+00"/>
          <Range Index="16" Min="1.7327292880509049e-04" Max="5.6615948677062988e-01"/>
        </Ranges>
      </Class>
      <Class ClassIndex="2">
        <Ranges>
          <Range Index="0" Min="-1.0000000000000000e+00" Max="1.0000000000000000e+00"/>
          <Range Index="1" Min="-1.0000000000000000e+00" Max="9.9951171875000000e-01"/>
          <Range Index="2" Min="5.0003329467773438e+02" Max="8.2014638671875000e+03"/>
          <Range Index="3" Min="2.5000000000000000e+00" Max="8.8730468750000000e+00"/>
          <Range Index="4" Min="1.7249584197998047e-04" Max="4.6298828125000000e+00"/>
          <Range Index="5" Min="5.0375000000000000e+01" Max="1.7900000000000000e+03"/>
          <Range Index="6" Min="2.7310848236083984e-04" Max="4.6796875000000000e+00"/>
          <Range Index="7" Min="5.0000000000000000e+01" Max="8.9500000000000000e+02"/>
          <Range Index="8" Min="5.0039443969726562e+02" Max="5.8146962890625000e+03"/>
          <Range Index="9" Min="4.0000000000000000e+02" Max="1.9660000000000000e+03"/>
          <Range Index="10" Min="3.0000000000000000e+02" Max="1.7280000000000000e+03"/>
          <Range Index="11" Min="5.0354003906250000e-03" Max="2.4985351562500000e+00"/>
          <Range Index="12" Min="-2.4539270401000977e+00" Max="3.7800292968750000e+00"/>
          <Range Index="13" Min="4.7238369006663561e-05" Max="2.0905878543853760e+00"/>
          <Range Index="14" Min="1.2003422975540161e+00" Max="4.7636237144470215e+00"/>
          <Range Index="15" Min="1.2000046968460083e+00" Max="4.8243842124938965e+00"/>
          <Range Index="16" Min="1.7327292880509049e-04" Max="5.6615948677062988e-01"/>
        </Ranges>
      </Class>
    </Transform>
  </Transformations>
  <MVAPdfs/>
  <Weights InputWidth="17" Depth="4" LossFunction="C" OutputFunction="S">
    <Layer ActivationFunction="3">
      <Weights rows="32" cols="17">
        3.5235524177551270e-01 2.4177418649196625e-01 6.5777468681335449e-01 -1.3930502533912659e-01 -4.6488609164953232e-02 6.0468960553407669e-02 1.4754372835159302e-01 3.1527647376060486e-01 1.2104604393243790e-01 2.6496991515159607e-01 2.8285494446754456e-01 6.3723489642143250e-02 3.8855177164077759e-01 9.8556362092494965e-02 -8.1555396318435669e-02 -7.5878031551837921e-02 -5.5601823329925537e-01 4.8478595912456512e-02 4.0080732107162476e-01 4.2971205711364746e-01 -1.9166643917560577e-01 1.6701024770736694e-01 1.8405832350254059e-01 1.1548767983913422e-01 8.6779715493321419e-03 2.1166436374187469e-01 1.7955926060676575e-01 -5.5712915956974030e-02 -2.9493549838662148e-02 -6.7405048757791519e-03 5.6013420224189758e-02 -4.5272722840309143e-02 -1.8855815753340721e-02 -1.5746572613716125e-01 -1.9038878381252289e-01 -2.3700113594532013e-01 -6.0223656892776489e-01 2.5159537792205811e-01 2.1570799872279167e-02 -8.8802836835384369e-02 1.4877674169838428e-02 -4.2663526535034180e-01 1.1208485811948776e-01 -2.1280986070632935e-01 -2.0437210798263550e-01 -1.6995292901992798e-01 -3.0815705657005310e-01 9.1950958594679832e-03 6.6001757979393005e-02 -8.1380024552345276e-02 6.9206750392913818e-01 -1.0279276221990585e-01 -2.2776332497596741e-01 3.0216097831726074e-01 -5.0339225679636002e-02 1.5417757630348206e-01 4.9955103546380997e-02 2.6046645641326904e-01 2.0372930169105530e-01 -1.1660597473382950e-01 -2.7694437652826309e-02 2.3386837542057037e-01 -5.2197445183992386e-02 2.5840115547180176e-01 -1.8862657248973846e-01 -1.8429988622665405e-01 4.6684831380844116e-02 -2.0899355411529541e-01 -8.3699576556682587e-02 -1.6562257707118988e-01 -1.7775127291679382e-01 3.1673628836870193e-03 -1.6918402910232544e-01 -2.1410611271858215e-01 1.7281563580036163e-01 -1.9918847084045410e-01 2.0849041640758514e-02 -1.4207193255424500e-01 -2.2248397767543793e-01 1.4540611207485199e-01 5.0154507160186768e-02 2.6022026315331459e-02 -5.6851547211408615e-02 1.1982624232769012e-01 3.0479389429092407e-01 -4.6047486364841461e-02 1.8986389040946960e-01 -2.3260695859789848e-02 -7.5309020467102528e-03 1.7198824882507324e-01 6.7269122228026390e-03 1.8357840180397034e-01 9.5176562666893005e-02 2.5947839021682739e-02 1.6708334907889366e-02 2.2112308442592621e-01 1.5670926868915558e-01 2.1447342634201050e-01 -1.7700847983360291e-01 -6.1934474855661392e-02 6.8930953741073608e-02 2.5684608146548271e-02 -1.1543542891740799e-01 -9.9937438964843750e-02 5.0374650955200195e-01 8.7901532649993896e-02 7.8398704528808594e-02 2.8487021103501320e-02 1.0288903117179871e-01 2.4922433495521545e-01 -5.6389276869595051e-03 1.6990900039672852e-01 1.0947688668966293e-01 5.6794494390487671e-02 2.5646582245826721e-01 -2.4256701767444611e-01 -3.4972216933965683e-02 -2.3945253342390060e-02 -3.7705489993095398e-01 -2.1536929905414581e-01 8.7939523160457611e-02 -4.2331504821777344e-01 -1.6899861395359039e-01 2.8259241953492165e-02 -4.1437659412622452e-02 -5.9294976294040680e-02 -2.4052310734987259e-02 2.8709378093481064e-02 -8.4826864302158356e-02 -3.1475860625505447e-02 -1.8101724982261658e-01 -2.5928613543510437e-01 1.5136018395423889e-01 -4.4544525444507599e-02 1.5124425292015076e-01 2.6582109928131104e-01 1.1305573396384716e-02 2.3019585013389587e-01 -3.0209539458155632e-02 8.9290387928485870e-02 -1.0645165108144283e-02 -1.1346039921045303e-01 2.4851618334650993e-02 -7.6430678367614746e-02 6.5056197345256805e-02 2.1488690376281738e-01 2.1232822537422180e-01 -1.5992177650332451e-02 1.2293491512537003e-01 1.1510823667049408e-01 6.0648000799119473e-03 -1.5684005618095398e-01 -4.9600802361965179e-02 2.3931302130222321e-01 1.0568895190954208e-01 4.2260992527008057e-01 9.0004308149218559e-03 -1.1963945813477039e-02 -1.2641373276710510e-01 6.2857377342879772e-03 1.9117757678031921e-01 7.6850831508636475e-02 3.3429819345474243e-01 2.5118747353553772e-01 7.0125296711921692e-02 1.6043896973133087e-01 -9.4284759834408760e-03 -2.4242056906223297e-01 -1.4320540428161621e-01 -2.8133624792098999e-01 -1.5363423526287079e-01 -5.1186358928680420e-01 -6.4967852830886841e-01 -6.7492322996258736e-03 -7.1205243468284607e-02 -1.5140923857688904e-01 -6.5479055047035217e-02 -3.4743398427963257e-01 1.0057865083217621e-01 -1.4666061103343964e-01 -1.4938130974769592e-01 -1.3839313387870789e-01 -8.5165619850158691e-02 1.4126494526863098e-01 -1.3078949414193630e-02 -8.7386891245841980e-03 3.9818575978279114e-01 1.2056738138198853e-02 -2.8912696987390518e-02 -1.1091800034046173e-01 2.0326821506023407e-01 -9.9785305792465806e-05 1.0130008682608604e-02 -1.1931680142879486e-01 8.0623000860214233e-02 1.3538207113742828e-01 -6.7897580564022064e-02 2.8476048260927200e-02 1.3969078660011292e-01 -1.1078917235136032e-01 4.9455802887678146e-02 2.0649014413356781e-01 2.2810010705143213e-03 2.7675783261656761e-02 -1.7112946510314941e-01 -1.5952616930007935e-01 -2.8713202476501465e-01 1.3642829842865467e-02 6.9051362574100494e-02 9.6094489097595215e-02 -1.3436804711818695e-01 -1.7191277444362640e-01 5.7675383985042572e-02 -3.3672362565994263e-01 -2.7642956376075745e-01 -1.2662847340106964e-01 -2.1036770939826965e-01 1.2141692452132702e-02 1.4631557464599609e-01 -4.1806221008300781e-02 3.1158900260925293e-01 -2.2639928758144379e-01 -1.4934873580932617e-01 -1.5715198218822479e-01 4.9120862036943436e-02 -1.8241859972476959e-02 -6.2756203114986420e-02 5.0136268138885498e-02 -2.7215191721916199e-01 1.0446717590093613e-01 -1.7682428658008575e-01 -3.7028379738330841e-02 -1.3828882575035095e-01 -1.6721285879611969e-02 7.0735484361648560e-02 2.0312227308750153e-02 -2.1350342780351639e-02 1.9691394269466400e-01 -1.7569769918918610e-01 5.7427324354648590e-02 -4.8817172646522522e-01 1.5524902939796448e-01 -7.4754789471626282e-02 -1.5230958163738251e-01 -2.0469987392425537e-01 -9.8500801250338554e-03 -1.6637165844440460e-01 -3.1386658549308777e-01 -1.1955244094133377e-01 3.1752154231071472e-02 -3.1708732247352600e-01 -1.2998890131711960e-02 5.1089759916067123e-02 -1.1863611638545990e-02 5.2442950010299683e-01 1.0555163025856018e-01 3.4190735220909119e-01 -5.8604961633682251e-01 -8.8375188410282135e-02 -3.1404156237840652e-02 -1.9049528241157532e-01 -2.3507641255855560e-01 -2.8473463654518127e-01 -8.5092797875404358e-02 -3.2754811644554138e-01 5.8170691132545471e-02 -1.3074337504804134e-02 -2.1454961597919464e-01 2.3097985982894897e-01 -4.9102962017059326e-02 6.4533755183219910e-02 5.5706512928009033e-01 2.0042559131979942e-02 -2.1702989935874939e-01 -3.3123952150344849e-01 5.1641032099723816e-02 -1.9165811827406287e-03 -1.1605989187955856e-01 4.8517458140850067e-02 1.8939947709441185e-02 2.3725216742604971e-03 -7.0057854056358337e-02 9.3397945165634155e-02 6.2904760241508484e-02 -4.9008898437023163e-02 -6.3040733337402344e-02 5.6829039007425308e-02 -4.6446289867162704e-02 1.0040895640850067e-01 2.0996624231338501e-01 -2.7074301242828369e-01 5.1267832517623901e-01 2.4517081677913666e-02 -1.5027311444282532e-01 1.9648234546184540e-01 2.7852761745452881e-01 2.4491935968399048e-01 -1.9214762374758720e-02 -9.3392059206962585e-03 1.1554269492626190e-01 -8.2756318151950836e-02 1.9859494268894196e-01 -1.8485805392265320e-01 -1.0001955181360245e-01 -7.3508404195308685e-02 -1.0283769667148590e-01 8.8680133223533630e-02 1.0675806552171707e-01 -8.6682617664337158e-02 8.3444461226463318e-02 8.5248224437236786e-02 1.2380774319171906e-01 1.4972455799579620e-01 -7.2243832051753998e-02 -7.4356123805046082e-02 -1.0401709377765656e-01 -2.1334202960133553e-02 -1.0712017863988876e-01 -2.8361981734633446e-02 -1.3190536201000214e-01 1.3325636088848114e-01 -2.2295607253909111e-02 -2.1438844501972198e-01 -2.0160579681396484e-01 -6.7843921482563019e-02 -2.6448839902877808e-01 -5.7510877959430218e-03 -5.5328093469142914e-02 -1.5618180856108665e-02 1.2834188342094421e-01 2.1663835272192955e-02 -8.9431993663311005e-02 6.1015225946903229e-02 -1.9890113174915314e-01 -2.3102201521396637e-02 -1.8494164943695068e-01 1.0284449160099030e-01 -3.8541600108146667e-02 1.4380186796188354e-01 1.8049356341362000e-01 1.7710322141647339e-01 -5.3762692213058472e-01 -4.2458912730216980e-01 -3.8063187152147293e-02 -2.8883001208305359e-01 -1.2907727062702179e-01 2.6398396492004395e-01 -2.5684601068496704e-01 -3.3958677202463150e-02 -2.2946891188621521e-01 -2.0268027484416962e-01 -8.6685091257095337e-02 3.4057259559631348e-02 -1.2338972836732864e-01 -2.1524943411350250e-02 1.9366425275802612e-01 2.8669503331184387e-01 3.1023579835891724e-01 5.2795976400375366e-01 2.5546169281005859e-01 -6.4142599701881409e-02 -7.9915978014469147e-02 1.7033986747264862e-01 -2.1738936007022858e-01 1.7294791340827942e-01 7.2764232754707336e-02 4.0839022397994995e-01 2.7277350425720215e-01 7.3000967502593994e-02 1.5115116536617279e-01 9.6143215894699097e-02 -2.0224416255950928e-01 1.0787489265203476e-01 -1.5932744741439819e-01 3.1585142016410828e-01 3.8154453039169312e-02 4.5560595393180847e-01 -3.8798473775386810e-02 1.4398941397666931e-01 -2.1880220621824265e-02 -1.8198812007904053e-01 2.5963461399078369e-01 -1.4947083592414856e-01 2.2306972742080688e-01 4.5337051153182983e-02 1.0307125747203827e-01 -5.4645087569952011e-02 -1.9190295040607452e-01 -1.0335332155227661e-01 4.3883007019758224e-02 -3.7281689047813416e-01 6.7793630063533783e-02 2.9664907604455948e-02 3.0347222089767456e-01 -1.7694798111915588e-01 9.5735311508178711e-02 -1.2446717172861099e-01 -1.0358618944883347e-01 2.7626402676105499e-02 1.7695787549018860e-01 1.0816837847232819e-01 1.8283918499946594e-01 1.0451464354991913e-01 1.1140019446611404e-01 -1.0401816666126251e-01 -6.0900975018739700e-02 1.3953417539596558e-01 -2.7998161315917969e-01 4.3840691447257996e-02 2.5879868865013123e-01 5.8781582117080688e-01 -2.0022533833980560e-01 -2.0035536587238312e-01 8.3128072321414948e-02 -8.7040709331631660e-03 9.1053538024425507e-02 -6.1412561684846878e-02 1.8870127201080322e-01 1.3209055364131927e-01 1.5373261272907257e-01 2.2810849547386169e-01 -9.5088087022304535e-02 -1.3190813362598419e-01 1.0170237720012665e-01 -4.0417677164077759e-01 -2.3303072154521942e-01 -6.1122741550207138e-02 -3.7344434857368469e-01 4.7934427857398987e-02 -1.9117932021617889e-01 1.4500649273395538e-01 9.6373409032821655e-02 -1.5058849938213825e-02 1.0660033673048019e-01 -1.5291658043861389e-01 -1.9467189908027649e-01 8.6412362754344940e-02 -6.7628413438796997e-02 1.5719175338745117e-01 -6.8011306226253510e-02 -1.0156049579381943e-01 2.7076745033264160e-01 1.1797312647104263e-01 2.6081055402755737e-01 3.8564720749855042e-01 -5.9941101819276810e-02 -7.8710526227951050e-02 1.1758785694837570e-01 1.4642165601253510e-01 1.0687166452407837e-01 9.5056705176830292e-03 -1.3338453136384487e-02 1.1567374318838120e-01 6.9697380065917969e-02 -7.5602382421493530e-02 -5.6196663528680801e-02 6.4860753715038300e-02 -1.3277661800384521e-01 -1.8160280585289001e-01 1.6423907876014709e-01 8.1692719832062721e-03 9.2263750731945038e-02 9.5591910183429718e-02 1.1951747536659241e-01 6.8807061761617661e-03 -1.0108672082424164e-02 7.4410840868949890e-02 -1.8013717234134674e-01 1.2161732651293278e-02 -4.1916992515325546e-02 -1.4073094725608826e-01 -1.5403874218463898e-01 7.5386248528957367e-02 -7.3296152055263519e-02 4.1537553071975708e-02 -6.5962992608547211e-02 1.2018403410911560e-01 -3.4594871103763580e-02 -4.8144012689590454e-01 1.1073702573776245e-01 -2.1643577516078949e-01 -1.1696253716945648e-01 6.2676243484020233e-02 -3.7648852914571762e-02 4.9312181770801544e-02 -1.4069031178951263e-01 -9.0154938399791718e-02 -8.0202845856547356e-03 -1.9358330965042114e-01 2.3149820044636726e-03 9.2925593256950378e-02 -1.1267162859439850e-02 3.9668050408363342e-01 3.4985084086656570e-02 2.7930321171879768e-02 2.8817212581634521e-01 -1.0054790414869785e-02 -1.6265532001852989e-02 1.8813006579875946e-01 -1.8707315623760223e-01 5.9410180896520615e-02 -1.3439415395259857e-01 -1.6599094495177269e-02 1.7247699433937669e-03 -6.5036080777645111e-02 2.5137346237897873e-02 -6.1283826828002930e-02 -1.7179302871227264e-02 -5.4296344518661499e-02 -1.8685834109783173e-01 -2.4001109600067139e-01 -6.0599133372306824e-02 -3.0073758959770203e-01 -1.8233993649482727e-01 -1.8496343493461609e-01 7.4883483350276947e-02 -2.1522045135498047e-02 -1.9823746383190155e-01 1.1893907934427261e-01 -7.6115474104881287e-02 1.2766396999359131e-01 -5.1686916500329971e-02 -1.5423865616321564e-01 -1.2209778279066086e-01 5.4739542305469513e-02 1.3611905276775360e-01 2.5818449258804321e-01 1.2563744187355042e-01 -1.2733368575572968e-01 1.4829204976558685e-01 -1.3488541543483734e-01 -1.3607394695281982e-01 -9.3013104051351547e-03 1.6756831109523773e-01 9.6137098968029022e-02 -8.5632823407649994e-02 3.4368236083537340e-03 3.3388845622539520e-03 1.4893680810928345e-01 -7.5273536145687103e-02 -5.9347022324800491e-02 1.4396424591541290e-01 -3.9241008460521698e-02 -1.5138672292232513e-01 
      </Weights>
      <Biases rows="32" cols="1">
        5.5267959833145142e-01 2.6480948925018311e-01 -4.2035064101219177e-01 5.0331261008977890e-02 -2.0483867824077606e-01 1.0117982327938080e-01 2.8348028659820557e-01 -5.8637648820877075e-02 5.2240941673517227e-02 3.5751202702522278e-01 -5.1852333545684814e-01 -7.1299813687801361e-02 -2.5640323758125305e-01 -1.4214082062244415e-01 -3.1601861119270325e-01 -2.8985610604286194e-01 -1.0901918262243271e-01 1.3046261668205261e-01 -8.7461266666650772e-03 -1.1309228837490082e-01 -2.2071827948093414e-01 2.8820934891700745e-01 4.1308927536010742e-01 2.0265997946262360e-01 4.0219283103942871e-01 -2.7443355321884155e-01 2.3446853458881378e-01 6.0052998363971710e-02 -1.1099833995103836e-01 1.1350343376398087e-01 -2.0359982550144196e-01 -1.8497260287404060e-02 
      </Biases>
    </Layer>
    <Layer ActivationFunction="3">
      <Weights rows="16" cols="32">
        2.0285478234291077e-01 9.1135859489440918e-02 -8.2752712070941925e-02 -1.4231118373572826e-02 -1.8463350832462311e-01 4.4156320393085480e-02 1.8989971280097961e-01 4.2290031909942627e-02 9.0691134333610535e-02 8.5788436233997345e-02 -4.9526650458574295e-02 6.5775595605373383e-02 3.7248384207487106e-02 7.1829445660114288e-02 -2.5553734973073006e-02 -7.5979001820087433e-02 -2.8171246871352196e-02 2.6632191613316536e-02 7.4697300791740417e-02 -3.5576643422245979e-03 -2.3176991939544678e-01 1.8818172812461853e-01 1.8798577785491943e-01 1.6909509897232056e-01 -1.0120241902768612e-02 2.6347087696194649e-02 4.7193020582199097e-02 -7.2461865842342377e-02 -6.2707647681236267e-02 -7.0427060127258301e-02 -1.7057836055755615e-02 2.1030867472290993e-02 1.7634493112564087e-01 1.7858333885669708e-01 -2.5178983807563782e-01 2.8347847983241081e-03 -7.9882413148880005e-02 1.2976263463497162e-01 1.1187805235385895e-01 -2.4994336068630219e-02 4.8926812596619129e-03 4.4466823339462280e-02 -1.9264947623014450e-02 -3.7487274967133999e-03 -9.8119370639324188e-02 -1.4904816448688507e-01 -2.7892315387725830e-01 -1.3018356263637543e-01 -1.2172894924879074e-01 1.9055938348174095e-02 8.7746374309062958e-02 -1.1326695978641510e-01 -2.7288690209388733e-01 1.5515933930873871e-01 6.2901578843593597e-02 1.8818883597850800e-01 8.9952379465103149e-02 2.8520738705992699e-03 1.2909784913063049e-01 -5.3465090692043304e-02 -2.1396908164024353e-01 1.5356613695621490e-01 -1.3665017485618591e-01 1.0895549505949020e-01 -2.3816432058811188e-01 -1.8648552894592285e-01 1.8715475499629974e-01 -1.1543206870555878e-01 5.8887782506644726e-03 -7.1418792009353638e-02 -2.5322530418634415e-02 2.4583613499999046e-02 -1.5783002972602844e-01 -2.3595811426639557e-01 2.4768036603927612e-01 -2.4103825911879539e-02 1.1160403490066528e-01 3.5090491175651550e-02 -2.6879743672907352e-03 2.2654585540294647e-01 1.4405930042266846e-01 -4.3354596942663193e-02 -5.6755308061838150e-02 1.3644431531429291e-01 2.0280313491821289e-01 -1.6760557889938354e-01 6.8408106453716755e-03 -1.5602752566337585e-01 -1.0148192942142487e-01 1.9053788483142853e-01 -5.7193197309970856e-02 8.1803329288959503e-02 1.3891799747943878e-01 -3.9536453783512115e-02 3.1997721642255783e-02 1.3081976771354675e-01 2.4956257641315460e-01 1.5087370574474335e-01 -2.1664872765541077e-01 4.6636890619993210e-02 -5.4802997037768364e-03 1.5646490454673767e-01 -7.1175470948219299e-03 -1.2012565135955811e-01 8.6902849376201630e-02 1.4659747481346130e-01 -8.3416737616062164e-02 -8.4435775876045227e-02 -5.6757144629955292e-02 6.2501132488250732e-02 -1.4681960642337799e-01 -1.2553809583187103e-01 -2.9535070061683655e-02 1.6634443402290344e-01 -9.0070581063628197e-03 -1.5266405045986176e-01 -8.0173633992671967e-02 9.5274128019809723e-02 5.9391468763351440e-02 -9.1071948409080505e-02 1.9605778157711029e-01 -2.0728254318237305e-01 -4.0126092731952667e-02 8.2550458610057831e-02 -5.1975894719362259e-02 2.0806279033422470e-02 -2.1085208281874657e-03 7.9666920006275177e-02 1.8887370824813843e-01 1.0734794288873672e-01 -3.1916165351867676e-01 -6.0175362974405289e-02 2.1901547908782959e-02 -3.3081028610467911e-02 2.0181414484977722e-01 5.1752687431871891e-03 -3.1183872371912003e-02 2.1931400895118713e-01 -2.9239165782928467e-01 -7.6031677424907684e-02 -1.0360038280487061e-01 -1.9638991355895996e-01 -1.4865671098232269e-01 -2.3528756201267242e-01 -5.3950332105159760e-02 2.0975047349929810e-01 7.7286154031753540e-02 -9.7659453749656677e-02 -6.5652176737785339e-02 1.9686153531074524e-01 1.5161338448524475e-01 -7.6899148523807526e-02 1.7656312882900238e-01 -6.4295358955860138e-02 4.3293356895446777e-02 1.0753497481346130e-01 -4.5157559216022491e-02 9.4537310302257538e-02 -1.9074517488479614e-01 2.7531580999493599e-02 1.9419258832931519e-01 1.0243270546197891e-01 1.7041329992935061e-03 1.7595252394676208e-01 -2.4026855826377869e-02 7.7748984098434448e-02 9.2176809906959534e-02 -1.8067011237144470e-01 -5.6449312716722488e-02 1.5192647278308868e-01 -1.2919102609157562e-01 -1.2062180787324905e-01 -1.3074897229671478e-01 -1.0208315402269363e-01 -1.5199653804302216e-01 -2.0189265906810760e-01 -7.0048399269580841e-02 -5.1492713391780853e-03 2.4664338678121567e-02 -6.1599039472639561e-03 -1.4459373056888580e-01 -5.5602286010980606e-04 1.7014452815055847e-01 1.2673784792423248e-01 -1.4512769877910614e-02 -1.1500954627990723e-01 -2.8165493160486221e-02 6.2994202598929405e-03 -1.0192264616489410e-01 -6.7297518253326416e-03 4.6006146818399429e-02 -2.6515092700719833e-02 1.2743200361728668e-01 -6.5825477242469788e-02 -4.2261511087417603e-02 1.9916953146457672e-01 -5.9974581003189087e-02 8.4370583295822144e-02 2.2966274619102478e-01 -1.9135127961635590e-01 5.8324847370386124e-02 2.0467244088649750e-01 -1.1952867358922958e-01 -4.9961119890213013e-02 -1.3210225105285645e-01 -7.9339720308780670e-02 -8.2255825400352478e-02 -1.5564195811748505e-01 5.3113196045160294e-02 2.2778286039829254e-01 -1.3970349729061127e-01 -7.9050227999687195e-02 6.2345778569579124e-03 -3.6898743361234665e-02 -2.4554455652832985e-02 -6.0698315501213074e-02 2.3252686485648155e-02 -9.1847725212574005e-02 6.8167731165885925e-02 -2.6107303798198700e-02 -5.5038515478372574e-02 -9.4973549246788025e-02 -1.3402283191680908e-01 6.9679461419582367e-02 -1.7519712448120117e-01 -9.5532454550266266e-02 1.8279409408569336e-01 -3.2213576138019562e-02 -2.9165243729948997e-02 2.2047575563192368e-02 -1.5979187190532684e-01 1.1919833719730377e-01 -1.0113316029310226e-01 -1.1401113122701645e-01 2.4092642962932587e-01 1.9199170172214508e-02 8.8288217782974243e-02 9.7501128911972046e-02 5.5405311286449432e-02 2.7440854907035828e-01 7.1210251189768314e-03 -6.5412774682044983e-02 -2.8840886428952217e-02 1.3502505607903004e-02 5.3846228867769241e-02 -4.2938146740198135e-02 -2.3182570934295654e-01 -1.5394891798496246e-01 -1.2732225656509399e-01 1.6932201385498047e-01 -2.0456418395042419e-01 -8.6461983621120453e-02 2.0706288516521454e-02 -1.0424420982599258e-01 2.1172888576984406e-01 -3.2145802397280931e-03 2.8503021597862244e-01 -5.4527632892131805e-03 -2.2396470606327057e-01 4.5808613300323486e-02 -1.6585332155227661e-01 -5.5048078298568726e-02 -2.1211346611380577e-02 -1.3784645497798920e-01 -9.2946410179138184e-02 2.4463045597076416e-01 -2.5755673646926880e-01 -3.7319421768188477e-02 -1.8432464450597763e-02 -1.8977817893028259e-01 -1.2750691175460815e-01 -1.5183833427727222e-02 -4.5558188110589981e-02 2.5386318564414978e-02 -1.5696386992931366e-01 -5.5334128439426422e-02 -1.2540802359580994e-01 8.5431732237339020e-02 1.7666184902191162e-01 1.2560726702213287e-01 1.6231514513492584e-01 -8.4002651274204254e-02 2.0254535973072052e-01 1.0724717378616333e-01 -9.1856449842453003e-02 3.5787556320428848e-02 -8.1377476453781128e-02 5.7658571749925613e-03 9.5195263624191284e-02 1.4845663309097290e-01 -2.8981879353523254e-01 2.0606864988803864e-01 -8.6105346679687500e-02 -3.1379558145999908e-02 1.8283295631408691e-01 -2.2859398275613785e-02 7.8400954604148865e-02 5.0929281860589981e-02 -2.2625006735324860e-01 -1.0063809156417847e-01 -1.3823068141937256e-01 -1.5605222433805466e-02 -2.3643320798873901e-01 -2.0743022859096527e-01 -1.4164330065250397e-01 1.7878353595733643e-01 3.4925080835819244e-02 -9.6157277002930641e-03 -2.3543873429298401e-01 1.0219124704599380e-01 1.2187843769788742e-01 8.9385166764259338e-02 2.2636932134628296e-01 -1.7012548446655273e-01 -2.6730202138423920e-02 -9.2548877000808716e-02 -1.6362667083740234e-01 -2.0591062493622303e-03 -1.0692685097455978e-01 -5.6544225662946701e-02 -4.2160540819168091e-02 -6.9366201758384705e-02 2.4398330599069595e-02 -1.6027824580669403e-01 3.7695828825235367e-02 -8.1329300999641418e-02 -7.0065066218376160e-02 5.8824554085731506e-02 -5.3298631682991982e-03 9.3163806013762951e-04 2.0468513667583466e-01 3.3103995025157928e-02 1.8607980012893677e-01 -4.3750219047069550e-02 1.2914951145648956e-01 2.1140204742550850e-02 1.3926450908184052e-01 -1.3435633480548859e-01 1.0666631907224655e-01 1.2350008636713028e-01 1.9680212438106537e-01 -2.2326733171939850e-01 -2.0150430500507355e-01 -8.9295439422130585e-02 -1.7687547206878662e-01 2.6596795767545700e-02 8.1887617707252502e-03 -1.6497957706451416e-01 8.8959887623786926e-02 -7.4189558625221252e-02 4.1957121342420578e-02 -1.3852977752685547e-01 2.5648006796836853e-01 2.5173950940370560e-02 -2.0100031793117523e-01 1.5417948365211487e-01 -4.7633022069931030e-02 1.7055250704288483e-01 1.7682820558547974e-01 -1.5053755044937134e-01 1.8020773306488991e-02 3.7006586790084839e-02 -5.0477761775255203e-02 -1.6771903634071350e-01 -6.0203175991773605e-02 -4.8769187182188034e-02 -3.1073870137333870e-02 -5.8343175798654556e-02 -7.3257852345705032e-03 1.5584114193916321e-01 -5.7052735239267349e-02 -9.8227545619010925e-02 -7.3594413697719574e-03 2.0665970444679260e-01 2.0076470077037811e-01 -1.4831337146461010e-02 1.8962509930133820e-01 -4.3617695569992065e-02 1.4575289189815521e-01 -3.1174453906714916e-03 -1.6049095988273621e-01 1.5575833618640900e-01 -1.4135882258415222e-01 9.6781820058822632e-02 1.0129981487989426e-01 1.0617621988058090e-01 -2.1665680408477783e-01 -4.0953282266855240e-02 -4.1135203093290329e-02 6.5090447664260864e-02 2.2812865674495697e-02 -4.6127956360578537e-02 -6.6121421754360199e-02 1.2835058569908142e-01 -1.9874389469623566e-01 2.8567178174853325e-02 -1.3816177845001221e-01 -1.3855452835559845e-01 -8.7606742978096008e-02 5.4870642721652985e-02 -3.6173604428768158e-02 1.4327201247215271e-01 6.1585523188114166e-02 -1.4283450320363045e-02 -1.4731177687644958e-01 7.5057968497276306e-02 1.9393946230411530e-01 -1.5570961404591799e-03 3.2682102173566818e-02 1.3671662658452988e-02 1.3062283396720886e-01 -4.6694166958332062e-02 -1.8520051240921021e-01 3.3952627331018448e-02 -6.1037663370370865e-02 -4.4644720852375031e-02 -1.6574758291244507e-01 -4.8950511962175369e-02 1.4862994849681854e-01 2.8935773298144341e-02 1.3525232672691345e-01 -5.0436712801456451e-02 -6.3916333019733429e-02 1.8326167762279510e-01 -1.5889564529061317e-02 -1.8187409639358521e-01 1.2560641765594482e-01 -4.1032060980796814e-02 8.0322362482547760e-02 -9.2546112835407257e-02 2.3787446320056915e-01 1.9571286439895630e-01 6.8649351596832275e-02 -1.7975086346268654e-02 -3.8475643843412399e-02 -6.4332835376262665e-02 1.6876244544982910e-01 -5.7989258319139481e-02 -1.9879722967743874e-03 -1.4317530393600464e-01 -1.7443385720252991e-01 9.8531007766723633e-02 -3.1644232571125031e-02 5.5617704987525940e-02 1.9896143674850464e-01 -6.0802165418863297e-02 -2.9130926355719566e-02 7.0292077958583832e-02 1.4361181855201721e-01 4.1611086577177048e-02 -7.3059825226664543e-03 -6.1074070632457733e-02 4.4214729219675064e-02 6.3325420022010803e-02 -1.1096474528312683e-01 -2.9945956543087959e-02 1.0964722931385040e-01 -7.5855247676372528e-02 8.9129218831658363e-03 8.6888119578361511e-02 2.0844873506575823e-03 4.4786296784877777e-02 6.4110323786735535e-02 7.9723514616489410e-02 1.0396725265309215e-03 1.9380412995815277e-02 6.2726952135562897e-02 -1.3650682568550110e-01 9.6322707831859589e-03 1.7190831713378429e-03 -1.1229783296585083e-01 -1.0181829333305359e-01 7.0517681539058685e-02 -7.2322607040405273e-02 4.4338058680295944e-02 -2.1888816729187965e-02 6.7458547651767731e-02 1.8888356164097786e-02 -1.0137514770030975e-01 9.9086061120033264e-02 -2.4978141486644745e-01 -6.8020097911357880e-02 2.3821413516998291e-01 3.3322378993034363e-02 1.7460162937641144e-01 5.6730460375547409e-02 1.4081220142543316e-02 8.7649196386337280e-02 -6.5846405923366547e-02 -6.5261915326118469e-02 1.7225004732608795e-01 9.0674087405204773e-02 2.0544548332691193e-01 6.8996258080005646e-02 1.1580016463994980e-01 1.7539468407630920e-01 7.9881541430950165e-02 -1.2021815031766891e-01 1.2171542644500732e-01 -3.1039448454976082e-02 8.5279278457164764e-02 -2.2437725961208344e-01 -1.8823422491550446e-01 -7.7897392213344574e-02 -1.7904788255691528e-01 1.0094289481639862e-01 -9.4441361725330353e-02 -4.4351857155561447e-02 5.4304223507642746e-02 -1.1818022280931473e-01 -7.1417144499719143e-03 -3.9497863501310349e-02 
      </Weights>
      <Biases rows="16" cols="1">
        4.5009303838014603e-02 1.4050357043743134e-01 -1.2513934075832367e-01 1.1563806980848312e-01 3.1086352467536926e-01 2.5427615270018578e-02 4.4154282659292221e-02 -1.0075884312391281e-01 2.1527467668056488e-01 2.4476955831050873e-01 -2.0930622518062592e-01 1.2406300753355026e-01 9.1714158654212952e-02 -1.0184218734502792e-01 3.4243028610944748e-02 -2.9601019620895386e-01 
      </Biases>
    </Layer>
    <Layer ActivationFunction="2">
      <Weights rows="16" cols="16">
        1.5573419630527496e-01 7.5766466557979584e-02 -3.3840965479612350e-02 -4.4503733515739441e-03 -6.8560183048248291e-02 5.9399705380201340e-02 2.2589834034442902e-01 7.2736941277980804e-02 1.4719460904598236e-01 5.0433989614248276e-02 6.5960548818111420e-02 1.7689141631126404e-01 1.9779026508331299e-01 1.0642608255147934e-01 1.3068273663520813e-01 -4.5133117586374283e-02 -1.9504599273204803e-02 -1.2051393091678619e-01 2.3195652663707733e-01 -1.8989302217960358e-02 -2.5622370839118958e-01 -1.4343983493745327e-03 4.3356657028198242e-02 2.7748116850852966e-01 -2.3410858213901520e-01 6.9876305758953094e-02 8.5938677191734314e-02 -2.5339153409004211e-01 -7.7143646776676178e-02 -6.8272739648818970e-02 4.9599666148424149e-02 1.6788692772388458e-01 1.2196642160415649e-01 2.8545594215393066e-01 -2.7192595601081848e-01 9.8598398268222809e-02 1.9694501161575317e-01 3.0015063285827637e-01 1.7712263762950897e-01 -1.2519223988056183e-01 1.5124645829200745e-01 7.2562128305435181e-02 2.6572845876216888e-02 2.0886497199535370e-01 1.0432759672403336e-01 -2.6345977187156677e-01 -1.6152341663837433e-01 -1.5539474785327911e-01 -7.6538391411304474e-02 -1.8440499901771545e-01 2.6816296577453613e-01 -1.6561481356620789e-01 -2.9608249664306641e-01 -2.0018633455038071e-02 -1.4373926818370819e-01 2.5133317708969116e-01 -1.1342836171388626e-01 1.2850130908191204e-02 1.6313959658145905e-01 -2.4563789367675781e-01 -2.5081804394721985e-01 2.0498318970203400e-01 -4.8320863395929337e-02 2.4395778775215149e-01 -1.6019085049629211e-01 -2.7656438946723938e-01 1.8495479226112366e-01 -3.0104321241378784e-01 -3.2082042098045349e-01 -2.1803677082061768e-01 -7.6334327459335327e-02 9.2828437685966492e-02 -3.2385522127151489e-01 -4.4077652692794800e-01 3.1436285376548767e-01 -2.5014433264732361e-01 -8.6108319461345673e-02 8.1442132592201233e-02 -1.3677816092967987e-01 3.7119749188423157e-01 1.6781273484230042e-01 1.6408160328865051e-01 -2.8122416138648987e-01 2.7812922000885010e-01 2.6260998845100403e-01 6.1310395598411560e-02 2.6103243231773376e-01 -3.1575837731361389e-01 1.5336173772811890e-01 3.4082555770874023e-01 -1.5646491944789886e-01 2.7969741821289062e-01 1.7334610223770142e-01 -1.1258077621459961e-01 -6.8548008799552917e-02 4.7837418969720602e-04 2.0641253888607025e-01 2.4720863997936249e-01 -2.9018667340278625e-01 1.5802749991416931e-01 2.6626914739608765e-01 2.7761772274971008e-01 -8.5337636992335320e-03 -1.7736554145812988e-01 2.4528436362743378e-01 2.8217917680740356e-01 -7.2978481650352478e-02 6.7946650087833405e-02 1.3121831417083740e-01 2.0335301756858826e-02 -5.9047937393188477e-02 -1.6718448698520660e-01 8.2078233361244202e-02 1.6200946271419525e-01 -4.5072603970766068e-02 -5.7768080383539200e-02 9.7488075494766235e-02 1.0038960725069046e-01 3.2407615333795547e-02 -2.7235707640647888e-01 2.4746528267860413e-01 -7.4277058243751526e-02 -2.1677632629871368e-01 1.1496009677648544e-01 6.0420602560043335e-02 -9.4833530485630035e-02 7.1183703839778900e-02 -2.0322373893577605e-04 8.0013141036033630e-02 1.4173337817192078e-01 -2.5712254643440247e-01 -6.9869212806224823e-02 2.4979837238788605e-01 -1.1677625589072704e-02 2.4777527153491974e-01 8.4554016590118408e-02 5.5970933288335800e-02 2.8868445754051208e-01 -2.5419738888740540e-01 1.3395756483078003e-01 3.2191395759582520e-02 -2.2428269684314728e-01 -6.2405196949839592e-03 -2.2841712832450867e-01 9.9389508366584778e-02 2.2568196058273315e-01 2.1592073142528534e-02 1.1751154810190201e-01 2.1066989004611969e-01 2.1303896605968475e-01 1.3470241427421570e-01 -2.8240990638732910e-01 1.7216652631759644e-01 2.6070004701614380e-01 -1.3675160706043243e-01 1.5381373465061188e-01 1.6373071074485779e-01 -8.8375300168991089e-02 -1.6679453849792480e-01 -1.8432249128818512e-01 1.4327098429203033e-01 1.1807060241699219e-01 8.5118509829044342e-02 2.4783581495285034e-01 1.2825030088424683e-01 1.0316967219114304e-01 7.6949611306190491e-02 -2.1844716370105743e-01 -3.2529294490814209e-02 1.7960295081138611e-01 -9.0452544391155243e-02 -9.7959525883197784e-02 -1.7834786325693130e-02 -1.6203311085700989e-01 -6.8140976130962372e-02 -2.0605927705764771e-01 -9.1909483075141907e-02 -2.1567358076572418e-01 1.6709962487220764e-01 -1.5634229406714439e-02 -1.2220238894224167e-01 -2.2125644981861115e-01 3.2865554094314575e-02 2.0980390906333923e-01 -2.3119553923606873e-01 -1.1866384744644165e-01 -3.4546289592981339e-02 -9.7115747630596161e-02 -1.0441281646490097e-01 1.1194832623004913e-02 1.2966510653495789e-01 5.3097959607839584e-02 5.6900847703218460e-02 -1.5741027891635895e-02 -8.8535405695438385e-02 3.8814714550971985e-01 1.8625275790691376e-01 2.3209656774997711e-01 3.4450507164001465e-01 -2.9079338908195496e-01 2.6631715893745422e-01 4.1322073340415955e-01 -2.0112043619155884e-01 9.4904452562332153e-02 7.6373569667339325e-02 -2.3129013180732727e-01 4.9750827252864838e-02 -2.3531563580036163e-01 9.9434480071067810e-02 1.6931565105915070e-01 -1.8551836907863617e-01 -4.3610684224404395e-04 1.6579546034336090e-01 -1.5666326880455017e-01 -1.5809679031372070e-01 -1.4983974397182465e-01 -7.0085696876049042e-02 6.1102259904146194e-02 3.5967342555522919e-02 -6.0965590178966522e-02 3.9169970899820328e-02 -1.9924558699131012e-01 -1.3849522173404694e-01 5.1394794136285782e-02 -6.2610246241092682e-02 -1.6018959879875183e-01 1.5372584760189056e-01 -1.6712439060211182e-01 -3.4215888381004333e-01 -4.8918146640062332e-02 -2.2945371270179749e-01 2.4386344850063324e-01 -3.1985187530517578e-01 -1.9958902895450592e-01 2.4969500303268433e-01 -1.7051327228546143e-01 -1.6081136465072632e-01 1.5629874169826508e-01 -1.7822302877902985e-01 3.5434523224830627e-01 2.3477353155612946e-02 1.9924643635749817e-01 -3.0337834358215332e-01 6.1711031943559647e-02 9.1569814831018448e-03 3.1120994687080383e-01 4.8915117979049683e-02 -2.9455456137657166e-01 1.7488867044448853e-01 2.1783716976642609e-01 -3.3974340558052063e-01 7.7238082885742188e-02 1.2956912629306316e-02 -2.2283679246902466e-01 1.6336216032505035e-01 -1.8781891465187073e-01 
      </Weights>
      <Biases rows="16" cols="1">
        -5.9301208704710007e-02 -4.2877234518527985e-02 -2.8177632018923759e-02 -7.8013233840465546e-02 -1.9240492582321167e-01 1.6233820468187332e-02 3.5534994676709175e-03 -6.2978997826576233e-02 -6.5776379778981209e-03 4.0834681130945683e-03 -5.1708061248064041e-02 -5.5082239210605621e-02 2.5520000606775284e-02 -4.1504222899675369e-02 -1.1090371012687683e-01 -5.0260368734598160e-02 
      </Biases>
    </Layer>
    <Layer ActivationFunction="0">
      <Weights rows="1" cols="16">
        2.4653646349906921e-01 -3.4102210402488708e-01 6.1476653814315796e-01 -1.4029632508754730e-01 -7.1058589220046997e-01 6.1484473943710327e-01 3.0298483371734619e-01 2.4179995059967041e-01 8.6928814649581909e-02 2.2040612995624542e-01 1.3138556480407715e-01 -3.6113286018371582e-01 6.4359253644943237e-01 -2.1679705381393433e-01 -6.6848969459533691e-01 6.1934012174606323e-01 
      </Weights>
      <Biases rows="1" cols="1">
        -5.6922757625579834e-01 
      </Biases>
    </Layer>
  </Weights>
</MethodSetup>
