<?xml version="1.0"?>
<MethodSetup Method="DNN::DNN_NanoV9_V2_2020_BBtag_x2_test">
  <GeneralInfo>
    <Info name="TMVA Release" value="4.2.1 [262657]"/>
    <Info name="ROOT Release" value="6.12/07 [396295]"/>
    <Info name="Creator" value="hum"/>
    <Info name="Date" value="Mon Mar 14 10:32:19 2022"/>
    <Info name="Host" value="Linux vocms0301.cern.ch 2.6.32-696.30.1.el6.x86_64 #1 SMP Tue May 22 06:09:36 CEST 2018 x86_64 x86_64 x86_64 GNU/Linux"/>
    <Info name="Dir" value="/afs/cern.ch/work/h/hum/public/CMSSW_10_2_13/src/ChargedHiggs/Analysis"/>
    <Info name="Training events" value="8265"/>
    <Info name="TrainingTime" value="2.61145806e+00"/>
    <Info name="AnalysisType" value="Classification"/>
  </GeneralInfo>
  <Options>
    <Option name="V" modified="Yes">True</Option>
    <Option name="VerbosityLevel" modified="No">Verbose</Option>
    <Option name="VarTransform" modified="Yes">N</Option>
    <Option name="H" modified="Yes">False</Option>
    <Option name="CreateMVAPdfs" modified="No">False</Option>
    <Option name="IgnoreNegWeightsInTraining" modified="No">False</Option>
    <Option name="Layout" modified="Yes">TANH|32,ReLU|16,SIGMOID|16,LINEAR</Option>
    <Option name="ValidationSize" modified="No">20%</Option>
    <Option name="ErrorStrategy" modified="Yes">CROSSENTROPY</Option>
    <Option name="WeightInitialization" modified="Yes">XAVIERUNIFORM</Option>
    <Option name="Architecture" modified="Yes">CPU</Option>
    <Option name="TrainingStrategy" modified="Yes">LearningRate=1e-1,Momentum=0.9,Repetitions=1,ConvergenceSteps=20,BatchSize=256,TestRepetitions=10,WeightDecay=1e-4,Regularization=L2,DropConfig=0.0+0.1+0.25+0.5,</Option>
  </Options>
  <Variables NVar="16">
    <Variable VarIndex="0" Expression="j1QGL" Label="j1QGL" Title="j1QGL" Unit="" Internal="j1QGL" Type="F" Min="-1.00000000e+00" Max="1.00000000e+00"/>
    <Variable VarIndex="1" Expression="j2QGL" Label="j2QGL" Title="j2QGL" Unit="" Internal="j2QGL" Type="F" Min="-1.00000000e+00" Max="9.99511719e-01"/>
    <Variable VarIndex="2" Expression="varMjj" Label="varMjj" Title="varMjj" Unit="" Internal="varMjj" Type="F" Min="5.00147461e+02" Max="6.45378076e+03"/>
    <Variable VarIndex="3" Expression="varDetajj" Label="varDetajj" Title="varDetajj" Unit="" Internal="varDetajj" Type="F" Min="2.50024414e+00" Max="8.42578125e+00"/>
    <Variable VarIndex="4" Expression="abs(varJet1Eta)" Label="abs(varJet1Eta)" Title="abs(varJet1Eta)" Unit="" Internal="abs_varJet1Eta_" Type="F" Min="1.45211816e-05" Max="4.64355469e+00"/>
    <Variable VarIndex="5" Expression="varJet1Pt" Label="varJet1Pt" Title="varJet1Pt" Unit="" Internal="varJet1Pt" Type="F" Min="5.08750000e+01" Max="1.75300000e+03"/>
    <Variable VarIndex="6" Expression="abs(varJet2Eta)" Label="abs(varJet2Eta)" Title="abs(varJet2Eta)" Unit="" Internal="abs_varJet2Eta_" Type="F" Min="5.84220886e-03" Max="4.64550781e+00"/>
    <Variable VarIndex="7" Expression="varJet2Pt" Label="varJet2Pt" Title="varJet2Pt" Unit="" Internal="varJet2Pt" Type="F" Min="5.00000000e+01" Max="9.18000000e+02"/>
    <Variable VarIndex="8" Expression="varMVV" Label="varMVV" Title="varMVV" Unit="" Internal="varMVV" Type="F" Min="5.02049774e+02" Max="3.67874023e+03"/>
    <Variable VarIndex="9" Expression="varPTV1" Label="varPTV1" Title="varPTV1" Unit="" Internal="varPTV1" Type="F" Min="3.00000000e+02" Max="1.91400000e+03"/>
    <Variable VarIndex="10" Expression="varPTV2" Label="varPTV2" Title="varPTV2" Unit="" Internal="varPTV2" Type="F" Min="3.00000000e+02" Max="1.72000000e+03"/>
    <Variable VarIndex="11" Expression="varCen" Label="varCen" Title="varCen" Unit="" Internal="varCen" Type="F" Min="-2.04846191e+00" Max="3.78759766e+00"/>
    <Variable VarIndex="12" Expression="varzepVV" Label="varzepVV" Title="varzepVV" Unit="" Internal="varzepVV" Type="F" Min="1.50948836e-04" Max="2.22451210e+00"/>
    <Variable VarIndex="13" Expression="varDRV1j" Label="varDRV1j" Title="varDRV1j" Unit="" Internal="varDRV1j" Type="F" Min="1.20024276e+00" Max="4.66205406e+00"/>
    <Variable VarIndex="14" Expression="varDRV2j" Label="varDRV2j" Title="varDRV2j" Unit="" Internal="varDRV2j" Type="F" Min="1.20047331e+00" Max="4.65473938e+00"/>
    <Variable VarIndex="15" Expression="varnormPTVVjj" Label="varnormPTVVjj" Title="varnormPTVVjj" Unit="" Internal="varnormPTVVjj" Type="F" Min="2.81532761e-04" Max="6.09279156e-01"/>
  </Variables>
  <Spectators NSpec="0"/>
  <Classes NClass="2">
    <Class Name="Signal" Index="0"/>
    <Class Name="Background" Index="1"/>
  </Classes>
  <Transformations NTransformations="1">
    <Transform Name="Normalize">
      <Selection>
        <Input NInputs="16">
          <Input Type="Variable" Label="j1QGL" Expression="j1QGL"/>
          <Input Type="Variable" Label="j2QGL" Expression="j2QGL"/>
          <Input Type="Variable" Label="varMjj" Expression="varMjj"/>
          <Input Type="Variable" Label="varDetajj" Expression="varDetajj"/>
          <Input Type="Variable" Label="abs(varJet1Eta)" Expression="abs(varJet1Eta)"/>
          <Input Type="Variable" Label="varJet1Pt" Expression="varJet1Pt"/>
          <Input Type="Variable" Label="abs(varJet2Eta)" Expression="abs(varJet2Eta)"/>
          <Input Type="Variable" Label="varJet2Pt" Expression="varJet2Pt"/>
          <Input Type="Variable" Label="varMVV" Expression="varMVV"/>
          <Input Type="Variable" Label="varPTV1" Expression="varPTV1"/>
          <Input Type="Variable" Label="varPTV2" Expression="varPTV2"/>
          <Input Type="Variable" Label="varCen" Expression="varCen"/>
          <Input Type="Variable" Label="varzepVV" Expression="varzepVV"/>
          <Input Type="Variable" Label="varDRV1j" Expression="varDRV1j"/>
          <Input Type="Variable" Label="varDRV2j" Expression="varDRV2j"/>
          <Input Type="Variable" Label="varnormPTVVjj" Expression="varnormPTVVjj"/>
        </Input>
        <Output NOutputs="16">
          <Output Type="Variable" Label="j1QGL" Expression="j1QGL"/>
          <Output Type="Variable" Label="j2QGL" Expression="j2QGL"/>
          <Output Type="Variable" Label="varMjj" Expression="varMjj"/>
          <Output Type="Variable" Label="varDetajj" Expression="varDetajj"/>
          <Output Type="Variable" Label="abs(varJet1Eta)" Expression="abs(varJet1Eta)"/>
          <Output Type="Variable" Label="varJet1Pt" Expression="varJet1Pt"/>
          <Output Type="Variable" Label="abs(varJet2Eta)" Expression="abs(varJet2Eta)"/>
          <Output Type="Variable" Label="varJet2Pt" Expression="varJet2Pt"/>
          <Output Type="Variable" Label="varMVV" Expression="varMVV"/>
          <Output Type="Variable" Label="varPTV1" Expression="varPTV1"/>
          <Output Type="Variable" Label="varPTV2" Expression="varPTV2"/>
          <Output Type="Variable" Label="varCen" Expression="varCen"/>
          <Output Type="Variable" Label="varzepVV" Expression="varzepVV"/>
          <Output Type="Variable" Label="varDRV1j" Expression="varDRV1j"/>
          <Output Type="Variable" Label="varDRV2j" Expression="varDRV2j"/>
          <Output Type="Variable" Label="varnormPTVVjj" Expression="varnormPTVVjj"/>
        </Output>
      </Selection>
      <Class ClassIndex="0">
        <Ranges>
          <Range Index="0" Min="-1.0000000000000000e+00" Max="1.0000000000000000e+00"/>
          <Range Index="1" Min="-1.0000000000000000e+00" Max="9.9951171875000000e-01"/>
          <Range Index="2" Min="5.0074884033203125e+02" Max="6.4537807617187500e+03"/>
          <Range Index="3" Min="2.5002441406250000e+00" Max="8.4257812500000000e+00"/>
          <Range Index="4" Min="7.1344375610351562e-03" Max="4.6230468750000000e+00"/>
          <Range Index="5" Min="5.2718750000000000e+01" Max="1.7530000000000000e+03"/>
          <Range Index="6" Min="2.6340484619140625e-02" Max="4.6455078125000000e+00"/>
          <Range Index="7" Min="5.0000000000000000e+01" Max="8.3050000000000000e+02"/>
          <Range Index="8" Min="5.0204977416992188e+02" Max="3.6787402343750000e+03"/>
          <Range Index="9" Min="3.0000000000000000e+02" Max="1.9140000000000000e+03"/>
          <Range Index="10" Min="3.0000000000000000e+02" Max="1.7200000000000000e+03"/>
          <Range Index="11" Min="-2.0223388671875000e+00" Max="3.7875976562500000e+00"/>
          <Range Index="12" Min="1.5094883565325290e-04" Max="1.8344415426254272e+00"/>
          <Range Index="13" Min="1.2002427577972412e+00" Max="4.6620540618896484e+00"/>
          <Range Index="14" Min="1.2006237506866455e+00" Max="4.6089529991149902e+00"/>
          <Range Index="15" Min="2.8153276070952415e-04" Max="6.0927915573120117e-01"/>
        </Ranges>
      </Class>
      <Class ClassIndex="1">
        <Ranges>
          <Range Index="0" Min="-1.0000000000000000e+00" Max="1.0000000000000000e+00"/>
          <Range Index="1" Min="-1.0000000000000000e+00" Max="9.9951171875000000e-01"/>
          <Range Index="2" Min="5.0014746093750000e+02" Max="5.3762480468750000e+03"/>
          <Range Index="3" Min="2.5009765625000000e+00" Max="8.3935546875000000e+00"/>
          <Range Index="4" Min="1.4521181583404541e-05" Max="4.6435546875000000e+00"/>
          <Range Index="5" Min="5.0875000000000000e+01" Max="1.6090000000000000e+03"/>
          <Range Index="6" Min="5.8422088623046875e-03" Max="4.6113281250000000e+00"/>
          <Range Index="7" Min="5.0000000000000000e+01" Max="9.1800000000000000e+02"/>
          <Range Index="8" Min="5.0331961059570312e+02" Max="3.6528342285156250e+03"/>
          <Range Index="9" Min="3.0000000000000000e+02" Max="1.5960000000000000e+03"/>
          <Range Index="10" Min="3.0000000000000000e+02" Max="1.6150000000000000e+03"/>
          <Range Index="11" Min="-2.0484619140625000e+00" Max="3.6993408203125000e+00"/>
          <Range Index="12" Min="2.6363672805018723e-04" Max="2.2245121002197266e+00"/>
          <Range Index="13" Min="1.2003294229507446e+00" Max="4.4168601036071777e+00"/>
          <Range Index="14" Min="1.2004733085632324e+00" Max="4.6547393798828125e+00"/>
          <Range Index="15" Min="7.8848132397979498e-04" Max="5.4213297367095947e-01"/>
        </Ranges>
      </Class>
      <Class ClassIndex="2">
        <Ranges>
          <Range Index="0" Min="-1.0000000000000000e+00" Max="1.0000000000000000e+00"/>
          <Range Index="1" Min="-1.0000000000000000e+00" Max="9.9951171875000000e-01"/>
          <Range Index="2" Min="5.0014746093750000e+02" Max="6.4537807617187500e+03"/>
          <Range Index="3" Min="2.5002441406250000e+00" Max="8.4257812500000000e+00"/>
          <Range Index="4" Min="1.4521181583404541e-05" Max="4.6435546875000000e+00"/>
          <Range Index="5" Min="5.0875000000000000e+01" Max="1.7530000000000000e+03"/>
          <Range Index="6" Min="5.8422088623046875e-03" Max="4.6455078125000000e+00"/>
          <Range Index="7" Min="5.0000000000000000e+01" Max="9.1800000000000000e+02"/>
          <Range Index="8" Min="5.0204977416992188e+02" Max="3.6787402343750000e+03"/>
          <Range Index="9" Min="3.0000000000000000e+02" Max="1.9140000000000000e+03"/>
          <Range Index="10" Min="3.0000000000000000e+02" Max="1.7200000000000000e+03"/>
          <Range Index="11" Min="-2.0484619140625000e+00" Max="3.7875976562500000e+00"/>
          <Range Index="12" Min="1.5094883565325290e-04" Max="2.2245121002197266e+00"/>
          <Range Index="13" Min="1.2002427577972412e+00" Max="4.6620540618896484e+00"/>
          <Range Index="14" Min="1.2004733085632324e+00" Max="4.6547393798828125e+00"/>
          <Range Index="15" Min="2.8153276070952415e-04" Max="6.0927915573120117e-01"/>
        </Ranges>
      </Class>
    </Transform>
  </Transformations>
  <MVAPdfs/>
  <Weights InputWidth="16" Depth="4" LossFunction="C" OutputFunction="S">
    <Layer ActivationFunction="3">
      <Weights rows="32" cols="16">
        -1.0730101168155670e-01 -7.1749788522720337e-01 -6.2224400043487549e-01 -2.5893714278936386e-02 -1.3066165149211884e-01 -2.7506768703460693e-01 1.0658881068229675e-01 -1.2995572388172150e-01 -3.3263024687767029e-01 -5.0325989723205566e-01 2.3507885634899139e-02 -1.0705656558275223e-01 -3.8635410368442535e-02 -1.2673729658126831e-01 2.1183452010154724e-01 6.0004776716232300e-01 -5.5251872539520264e-01 -9.3406438827514648e-01 -1.2012039422988892e+00 1.9875919818878174e-01 -1.6419543325901031e-01 -2.4154436588287354e-01 2.0852801203727722e-01 -3.4979376196861267e-01 -4.3183350563049316e-01 -4.3873474001884460e-01 -3.3392748236656189e-01 -5.3574138879776001e-01 -1.4283870160579681e-01 4.7678607702255249e-01 1.6933855414390564e-01 5.5573171377182007e-01 4.2360001802444458e-01 -5.9265398979187012e-01 -5.4527628421783447e-01 7.0023491978645325e-02 -5.1651638746261597e-01 -2.5765791535377502e-02 4.2702306061983109e-02 1.3026668131351471e-01 -2.9837158322334290e-01 -5.6698441505432129e-01 -5.0407993793487549e-01 -4.3154323101043701e-01 2.2648883983492851e-02 -6.6007837653160095e-02 3.5127571225166321e-01 2.0589423179626465e-01 7.9013511538505554e-02 4.9455757252871990e-03 1.3701138496398926e+00 -1.7475144565105438e-01 1.4427677961066365e-03 7.4642980098724365e-01 3.0497661791741848e-03 1.3721092045307159e-01 1.9675326347351074e-01 3.4196266531944275e-01 3.2012903690338135e-01 -4.1716493666172028e-02 -8.5156396031379700e-02 -1.3636704534292221e-02 -3.1509656459093094e-02 -1.6527752876281738e+00 6.1260229349136353e-01 1.0782752931118011e-01 -7.5444984436035156e-01 -1.9599950313568115e-01 -2.6555594801902771e-01 9.2752493917942047e-02 -1.5696997940540314e-01 -3.1231081485748291e-01 -1.5457163751125336e-01 -2.6096355915069580e-01 -5.8887040615081787e-01 -6.5545380115509033e-01 1.5227828919887543e-01 1.3245505094528198e-01 -2.2327229380607605e-01 8.9172768592834473e-01 2.7883610129356384e-01 3.0176490545272827e-01 3.9983574301004410e-02 -6.8231619894504547e-02 3.0906277894973755e-01 5.2850395441055298e-01 -1.7312446236610413e-01 -1.4003817737102509e-01 -1.3636139221489429e-02 -9.8685845732688904e-02 -1.6492874920368195e-01 -9.0607196092605591e-02 -8.4375683218240738e-03 2.7105557918548584e-01 1.4260527491569519e-01 -1.6323119401931763e-02 2.3927138745784760e-01 -1.1502543091773987e-01 1.9458782672882080e-01 -3.1597217917442322e-01 -4.7034893184900284e-02 -1.9254203885793686e-02 -1.2079332023859024e-01 2.7517783641815186e-01 2.1791897714138031e-01 5.2708167582750320e-02 -1.7251734435558319e-01 9.8266236484050751e-02 1.3895554840564728e-01 -4.4660636782646179e-01 1.9594813883304596e-01 -3.8803181052207947e-01 1.1659321933984756e-01 3.2280456274747849e-02 -4.1521929204463959e-02 4.5019361376762390e-01 9.0768553316593170e-02 8.8007614016532898e-02 9.7174525260925293e-02 -6.1074808239936829e-02 -2.5061160326004028e-01 -2.2823974490165710e-01 -5.8574575930833817e-02 -5.3935896605253220e-02 2.4249933660030365e-01 5.3084689378738403e-01 3.0846911668777466e-01 2.2996388375759125e-01 -5.6018054485321045e-01 5.7062381505966187e-01 -4.4254875183105469e-01 3.1406968832015991e-02 4.3507322669029236e-01 -2.5354030728340149e-01 -3.6884438991546631e-01 2.5259096175432205e-02 -1.1283498257398605e-01 -7.4086201190948486e-01 -1.1847174912691116e-01 -2.9749879240989685e-01 -1.2733940780162811e-01 -1.3330668210983276e-01 3.1207880377769470e-01 4.2307558655738831e-01 1.1777846813201904e+00 6.1420625448226929e-01 8.1269216537475586e-01 -3.3077612519264221e-01 -3.6288371682167053e-01 3.1000199913978577e-01 3.5531613975763321e-02 3.0591788887977600e-01 2.9338741302490234e-01 7.1594154834747314e-01 5.3099048137664795e-01 -8.5700497031211853e-02 4.2904415726661682e-01 4.6949291229248047e-01 -8.7872689962387085e-01 -2.4320764839649200e-01 -1.7777542769908905e-01 1.4089381694793701e-01 -1.9209954142570496e-01 -1.3193421065807343e-01 1.2649987637996674e-01 1.4192798733711243e-01 -1.1610247939825058e-01 2.7465587854385376e-01 1.5194779634475708e-01 -3.5357591509819031e-01 -2.6075115799903870e-01 -1.7352242767810822e-01 8.2649871706962585e-02 -1.2943427264690399e-01 -1.7342230677604675e-01 6.5785370767116547e-02 1.3335837423801422e-01 -2.5049655232578516e-04 1.2531340122222900e-01 -2.4778638780117035e-01 1.0592035949230194e-01 2.6673075556755066e-01 2.0254307985305786e-01 2.6837828755378723e-01 -2.4859680235385895e-01 -2.5557694956660271e-02 -1.4109916985034943e-01 -6.9381363689899445e-02 -1.3084959983825684e-01 -2.7250516414642334e-01 -1.8676476553082466e-02 -2.3753117024898529e-01 -5.9216551482677460e-02 1.0010156035423279e-01 -2.6096746325492859e-01 -3.0025157332420349e-01 -1.8557181954383850e-01 -6.2127232551574707e-02 -2.6454800739884377e-02 -1.7598398029804230e-01 -3.0197721719741821e-01 1.2039025127887726e-01 -1.9121997058391571e-01 2.4455142556689680e-04 -2.0142894983291626e-01 -5.0455309450626373e-02 -2.6731189340353012e-02 -1.8189331889152527e-01 -1.3539564609527588e-01 2.7174830436706543e-01 2.9324072599411011e-01 9.7224265336990356e-02 1.0937466472387314e-01 -2.9779475927352905e-01 7.2925545275211334e-02 -1.2291952222585678e-01 2.8632199764251709e-01 2.1676860749721527e-01 5.4488772153854370e-01 5.4517614841461182e-01 -1.5616680681705475e-01 1.7115856707096100e-01 -1.1385059356689453e-01 4.9305409193038940e-03 -6.8946436047554016e-02 -1.2495374679565430e-01 -1.1912363022565842e-01 -1.4963485300540924e-01 -1.2396941334009171e-01 3.4893605858087540e-02 1.0827101767063141e-01 -8.5347078740596771e-02 7.1394652128219604e-02 2.2185178101062775e-01 -1.2523651123046875e-01 2.2593048214912415e-01 -1.9232958555221558e-01 3.3918321132659912e-01 5.9900663793087006e-02 -1.5076291561126709e-01 -1.5784519910812378e-01 3.2922530174255371e-01 -4.2709636688232422e-01 -1.1759226769208908e-01 2.6012904942035675e-02 7.3910668492317200e-02 -2.8018781542778015e-01 1.2928584590554237e-02 -2.2911339998245239e-01 -1.3129551708698273e-01 -1.4549294114112854e-01 -4.8714929819107056e-01 3.2141512632369995e-01 1.0641503334045410e-01 1.4863605797290802e-01 8.8312685489654541e-02 -8.2386320829391479e-01 -2.1845012903213501e-01 -9.7228688001632690e-01 -3.0516517162322998e-01 -5.6473451852798462e-01 2.9277488589286804e-02 -2.6992076635360718e-01 -7.4404776096343994e-02 -1.2146705389022827e-01 -1.7771646380424500e-01 -5.7872176170349121e-02 -3.0883195996284485e-01 4.0461841225624084e-01 -1.5624059736728668e-01 -1.6900029778480530e-01 5.6629443168640137e-01 -4.3817111849784851e-01 -3.4392181038856506e-01 -5.3930532932281494e-01 -3.4081810712814331e-01 -4.3762493133544922e-01 -6.1479102820158005e-02 -2.3872710764408112e-01 6.0443181544542313e-02 -1.4785164594650269e-01 -5.5270437151193619e-02 -1.6167418658733368e-01 -6.5342777967453003e-01 1.6588558256626129e-01 -5.6036334484815598e-02 1.5392522513866425e-01 1.8033030629158020e-01 -2.2346484661102295e-01 -8.2862788438796997e-01 -2.7110600471496582e-01 -1.3969135284423828e-01 -3.6995503306388855e-01 -3.9068746566772461e-01 2.3571895062923431e-01 -2.2155253589153290e-01 6.3634961843490601e-02 6.6165722906589508e-02 -2.7448388934135437e-01 2.2282017394900322e-02 -1.1344923079013824e-01 1.7313121259212494e-01 -3.1128159165382385e-01 1.3865171372890472e-01 -9.1280668973922729e-02 -1.7985691130161285e-01 -3.6150896549224854e-01 -1.4749139547348022e-01 -2.9056975245475769e-01 -1.4090020954608917e-01 -1.0593110322952271e-01 -1.7819520086050034e-02 5.7111833244562149e-02 3.4259904175996780e-02 -1.8978975713253021e-01 -2.8280642628669739e-01 6.1762049794197083e-02 -1.0111936181783676e-01 -2.9235646128654480e-01 5.1890796422958374e-01 -1.4581227302551270e-01 2.7822297811508179e-01 4.9461102485656738e-01 -4.3625548481941223e-01 -5.2794832736253738e-02 2.7214139699935913e-01 1.0840690881013870e-01 9.1463968157768250e-02 -7.1097351610660553e-02 2.0545013248920441e-02 1.6473448276519775e-01 -2.5331258773803711e-01 1.9887183606624603e-01 -2.9874169826507568e-01 8.2040540874004364e-02 -5.1729553937911987e-01 -8.6536236107349396e-02 -4.0379917621612549e-01 -9.8982036113739014e-02 2.5854009389877319e-01 1.2190937995910645e-01 -2.0343005657196045e-01 5.9543013572692871e-02 -7.9088896512985229e-02 -1.0176809132099152e-01 -5.5379569530487061e-02 2.3824410513043404e-02 -1.6944748163223267e-01 -1.8427267670631409e-01 1.7892399430274963e-01 -4.2290571145713329e-03 -1.6458255052566528e-01 -4.5897677540779114e-01 1.7828415334224701e-01 -2.0775057375431061e-01 3.3370323479175568e-02 1.1002659797668457e-01 -7.4464082717895508e-02 -2.9014733433723450e-01 -8.0541931092739105e-02 -8.2395765930414200e-03 1.7063164710998535e-01 1.1349555104970932e-01 -2.6524534821510315e-01 -1.0276450216770172e-01 -2.7291756868362427e-01 -9.7827591001987457e-02 5.5428367108106613e-02 -3.6594319343566895e-01 2.4582387506961823e-01 -8.8200885057449341e-01 4.5207455754280090e-01 -1.2303055264055729e-02 -3.8550370931625366e-01 7.4994474649429321e-02 -2.1176655590534210e-01 -2.4148349463939667e-01 -5.0989693403244019e-01 -7.6276302337646484e-02 2.6359153911471367e-02 2.2373902797698975e-01 3.8787680864334106e-01 3.3202442526817322e-01 9.1828835010528564e-01 1.8263408541679382e-01 8.8040363788604736e-01 6.1119586229324341e-01 -9.2206992208957672e-02 1.8500031530857086e-01 -8.8633090257644653e-02 -2.6420041918754578e-01 -1.2096330523490906e-02 3.4778967499732971e-01 2.8844133019447327e-01 2.1644262969493866e-01 2.0336316525936127e-01 9.2769227921962738e-02 -2.5840070098638535e-02 1.5023016929626465e-01 -8.5641764104366302e-02 8.8645201176404953e-03 -1.9678263366222382e-01 -2.3152621090412140e-01 1.1377478390932083e-01 2.7874981984496117e-02 -4.4792175292968750e-01 -5.9979677200317383e-02 1.3027100265026093e-01 -5.6720305234193802e-02 -3.0662378668785095e-01 -3.1615551561117172e-02 2.9497027397155762e-01 -2.7742907404899597e-01 3.7300875782966614e-01 -7.4977711774408817e-03 5.6288284063339233e-01 5.0831627100706100e-02 -2.2919149696826935e-01 2.7718529105186462e-01 1.4744405634701252e-02 2.3244254291057587e-02 -2.2798730432987213e-01 1.0279690474271774e-01 -1.9896504282951355e-01 2.2822226583957672e-01 8.5234008729457855e-02 7.5534306466579437e-02 -3.4736160188913345e-02 -2.1829481422901154e-01 5.3313288837671280e-02 1.9012846052646637e-01 -2.0132222771644592e-01 4.0717432275414467e-03 -4.4093632698059082e-01 1.7199376598000526e-02 -3.7131673097610474e-01 -2.7025127410888672e-01 -1.7047171294689178e-01 2.3761475086212158e-01 -1.6311603784561157e-01 8.7206974625587463e-02 2.2044995427131653e-01 1.2431889027357101e-01 -3.8016432523727417e-01 1.9870914518833160e-01 -3.2847356796264648e-01 -3.3153608441352844e-01 4.7334574162960052e-02 -9.6188671886920929e-02 2.5037217140197754e-01 8.2195442914962769e-01 -2.1795953810214996e-01 -8.6269617080688477e-02 1.6622562706470490e-01 2.7896305918693542e-01 2.6298388838768005e-01 2.3035970330238342e-01 2.4490839242935181e-01 4.0507078170776367e-02 -4.6145111322402954e-02 7.6547719538211823e-02 -1.3912601396441460e-02 3.9197526872158051e-02 -9.0867435932159424e-01 -7.1910202503204346e-02 -4.0704250335693359e-01 -2.0628041028976440e-01 1.3628017902374268e-01 -4.0305060148239136e-01 4.7219764441251755e-02 -1.7664122581481934e-01 -9.4057522714138031e-02 1.1851009726524353e-01 -2.0313912630081177e-01 7.1215488016605377e-02 -3.9286959171295166e-01 -9.3748092651367188e-02 -1.2853221595287323e-01 -2.4156740307807922e-01 2.8179228305816650e-01 -2.0873591303825378e-01 -4.8221102356910706e-01 3.7015947699546814e-01 2.3310896754264832e-01 1.3662867248058319e-01 3.2761156558990479e-02 4.1322469711303711e-01 -5.1980301737785339e-02 3.0502140522003174e-01 5.8012920618057251e-01 2.5435763597488403e-01 4.4028836488723755e-01 -4.5308241248130798e-01 -1.3258457183837891e-01 -1.5492346882820129e-01 -3.8700991868972778e-01 2.2180181741714478e-01 1.4015282690525055e-01 -1.5942816734313965e+00 2.8424406051635742e-01 -1.6342170536518097e-02 -5.6660890579223633e-01 -2.4959025904536247e-02 -6.4197832345962524e-01 -1.1172768473625183e-01 -6.3652396202087402e-01 -3.7524932622909546e-01 -4.2616999149322510e-01 8.0563016235828400e-02 1.3412633538246155e-01 1.0318788886070251e-01 2.2548274993896484e+00 
      </Weights>
      <Biases rows="32" cols="1">
        -3.3229580521583557e-01 -6.7392700910568237e-01 -4.0247130393981934e-01 9.3036359548568726e-01 -3.9739516377449036e-01 8.2268062978982925e-03 1.6964474320411682e-01 -1.2365436553955078e-01 -2.3753236234188080e-01 4.9774581193923950e-01 -2.0324647426605225e-01 2.0222409069538116e-01 2.5403682142496109e-02 7.4416682124137878e-02 -7.2543434798717499e-02 -1.6176913678646088e-01 -7.4427300691604614e-01 -3.8164222240447998e-01 -1.7446251213550568e-01 -2.4463576078414917e-01 4.1754394769668579e-01 -1.3110253214836121e-01 -5.8812886476516724e-02 -6.5149033069610596e-01 2.1564613282680511e-01 -3.3874577283859253e-01 -3.3850744366645813e-02 -8.0222412943840027e-02 6.0920917987823486e-01 -7.2764709591865540e-02 4.4514840841293335e-01 -1.2870862483978271e+00 
      </Biases>
    </Layer>
    <Layer ActivationFunction="3">
      <Weights rows="16" cols="32">
        -6.6709958016872406e-02 -3.4009939432144165e-01 -8.5502430796623230e-02 1.1225553601980209e-01 -1.1599505692720413e-01 -1.0453371703624725e-01 9.5368409529328346e-03 6.7935988306999207e-02 -1.5206636488437653e-01 8.9377574622631073e-02 1.5555901825428009e-01 -6.5099420025944710e-03 -4.7039858996868134e-02 -4.7934118658304214e-02 1.5779496729373932e-01 4.1197173297405243e-02 -1.6598238050937653e-01 -2.2267642617225647e-01 -2.0999519526958466e-01 1.3688453473150730e-02 1.9302004575729370e-01 -1.1088890023529530e-02 -2.8724208474159241e-02 -9.7535312175750732e-02 -2.9316661879420280e-02 -1.9954135641455650e-02 -9.5099613070487976e-02 -2.4971395730972290e-01 8.2447096705436707e-02 7.4026517570018768e-02 4.9845051020383835e-02 -4.0109547972679138e-01 -1.8886110046878457e-03 -1.3334923982620239e-01 -1.0206062346696854e-01 4.4917067885398865e-01 -3.8831654191017151e-01 -1.7250914871692657e-01 9.4076193869113922e-02 6.1235339380800724e-03 -1.4490255713462830e-01 3.9119739085435867e-02 -1.0532186180353165e-01 3.1921796500682831e-02 5.2221789956092834e-03 -7.0596516132354736e-02 3.0617702007293701e-01 -1.4951951801776886e-01 3.7161558866500854e-02 -4.6559467911720276e-02 2.3932935297489166e-01 4.2633228003978729e-02 2.4091130495071411e-01 1.7860867083072662e-01 -3.0554037075489759e-03 -4.4148328900337219e-01 2.8797281906008720e-02 -2.0199690759181976e-01 1.0631798207759857e-01 -1.1980807036161423e-01 1.4963907003402710e-01 5.7784173637628555e-02 1.6075851023197174e-01 -7.0898216962814331e-01 1.7450118064880371e-01 2.3800292611122131e-01 3.3406737446784973e-01 -5.8100629597902298e-02 2.4807229638099670e-01 2.0109139382839203e-01 2.6303308084607124e-02 -7.3534317314624786e-02 3.7455532699823380e-02 9.1623710468411446e-03 -9.4467058777809143e-02 2.3777452111244202e-01 1.5897248685359955e-01 -3.9402386546134949e-01 -4.6551968902349472e-02 1.1971453577280045e-01 -2.0325979217886925e-02 1.9370689988136292e-01 -1.9948581233620644e-02 -3.2531552016735077e-02 1.1347100138664246e-01 2.3069924116134644e-01 -3.0567196011543274e-01 -2.1868686378002167e-01 -1.7121799290180206e-01 -7.6568908989429474e-02 -5.0793770700693130e-02 9.6018724143505096e-02 -1.0412720590829849e-01 2.2522114217281342e-01 -1.6752189397811890e-01 1.6586989164352417e-01 4.0054920315742493e-01 3.1524908542633057e-01 2.1050380170345306e-01 -8.9771695435047150e-02 1.4999319612979889e-01 -2.0788082480430603e-01 -4.6573383733630180e-03 1.3046799600124359e-01 -1.2296736985445023e-01 -3.0172193050384521e-01 -2.6109102368354797e-01 2.2308942675590515e-01 2.4876180291175842e-01 -2.0268461108207703e-01 2.4300351738929749e-01 -2.9887431859970093e-01 1.3002812862396240e-01 1.2101391702890396e-01 4.3441748619079590e-01 1.9884926080703735e-01 -2.2466349601745605e-01 3.0372887849807739e-01 -1.4824776351451874e-01 -4.3089490383863449e-02 -4.8993903398513794e-01 4.0430292487144470e-02 1.5646140277385712e-01 2.0117577910423279e-01 3.0519532039761543e-02 3.3979961276054382e-01 3.6013343930244446e-01 1.7396011948585510e-01 -1.3780730962753296e-01 5.0097233057022095e-01 1.0306963324546814e-01 -3.9901271462440491e-01 2.0376534759998322e-01 -2.1659515798091888e-02 -4.3462973833084106e-01 3.3277457952499390e-01 2.0433311164379120e-01 -3.4376913309097290e-01 4.0402054786682129e-02 -3.7422057986259460e-01 -3.5571640729904175e-01 2.7190640568733215e-01 1.3254050910472870e-01 6.6478915512561798e-02 1.9427797198295593e-01 4.0223147720098495e-02 2.3928391933441162e-01 -1.1524710571393371e-03 -4.6136367321014404e-01 1.8636155128479004e-01 5.1142401993274689e-02 5.1389026641845703e-01 -8.9852601289749146e-02 4.8005858063697815e-01 7.7173560857772827e-02 -1.9800910353660583e-01 -1.0271499305963516e-01 1.2719455361366272e-01 -1.7571382224559784e-01 6.7198240756988525e-01 -7.7677428722381592e-02 1.3766287267208099e-01 1.3849702663719654e-02 -1.3424214720726013e-01 1.9550590217113495e-01 1.4116768538951874e-01 1.0798612609505653e-02 1.4927375316619873e-01 3.6531591415405273e-01 -3.5696607828140259e-01 2.9548190534114838e-02 1.0701432824134827e-01 -5.8009624481201172e-02 -1.7496894299983978e-01 -1.7034938931465149e-01 3.6577019840478897e-02 2.2517777979373932e-01 1.0187401622533798e-01 -1.0405846685171127e-01 -1.5668921172618866e-01 1.7901542782783508e-01 4.6796299517154694e-02 1.8106779456138611e-01 2.1864795684814453e-01 -1.7736266553401947e-01 -1.6323912143707275e-01 -1.7375212907791138e-01 -1.6903775930404663e-01 1.5453220345079899e-02 -9.7939535975456238e-02 -2.0788057148456573e-01 2.2988887503743172e-02 -6.7657858133316040e-02 3.8207065314054489e-02 -3.3038735389709473e-01 -1.1287330090999603e-01 -3.4714040160179138e-01 -3.5023304820060730e-01 -3.5706949420273304e-03 -2.1762205660343170e-01 -4.7449821233749390e-01 3.3586561679840088e-01 -2.9537066817283630e-01 -1.5595705807209015e-01 -1.1516110599040985e-01 2.4874846637248993e-01 1.4152508974075317e-01 -4.0283012390136719e-01 -9.3317091464996338e-02 -1.2898156046867371e-01 2.4206645786762238e-01 -1.9229031167924404e-03 -2.0236322283744812e-01 1.9172029569745064e-02 -1.1187214404344559e-01 -2.5658735632896423e-01 -5.3142448887228966e-03 1.5141437947750092e-01 2.3538294434547424e-01 2.3657996952533722e-01 -9.3088239431381226e-02 4.1249837726354599e-02 2.8303682804107666e-01 -3.5230055451393127e-02 1.4805929735302925e-02 1.4240587130188942e-02 -3.2442328333854675e-01 -1.2748262286186218e-01 -4.4673734903335571e-01 -1.6031609475612640e-01 1.3563154265284538e-02 -9.1922894120216370e-02 -3.7679478526115417e-02 5.3332440555095673e-02 -2.1402099728584290e-01 -7.8814513981342316e-02 -2.7485799789428711e-01 3.7301349639892578e-01 9.8828725516796112e-02 -2.4191978573799133e-01 -6.7534096539020538e-02 9.6863076090812683e-02 -6.5862759947776794e-02 -9.4702281057834625e-02 3.9946092292666435e-03 8.3394095301628113e-02 -5.7727652601897717e-03 9.7194693982601166e-02 -1.3164238771423697e-03 1.8286854028701782e-01 1.3559636473655701e-01 -1.6589699685573578e-01 1.5790218114852905e-01 4.8082739114761353e-02 4.2212072014808655e-01 -3.0752888321876526e-01 -1.4360344409942627e-01 -3.8841836154460907e-02 3.9818845689296722e-02 1.3881294429302216e-01 -2.5700455904006958e-01 4.0462425351142883e-01 -2.1737146377563477e-01 2.8968763351440430e-01 -6.0884490609169006e-02 3.8222450762987137e-02 -1.6406567394733429e-01 2.9426261782646179e-01 2.8725767135620117e-01 -1.7901296960189939e-03 9.0364590287208557e-02 -2.6026588678359985e-01 -5.6616652011871338e-01 -6.1054140329360962e-01 -3.3465209603309631e-01 -4.4835287332534790e-01 -3.3403277397155762e-01 1.4115846157073975e-01 -3.5814413428306580e-01 2.6427567005157471e-01 1.0715424269437790e-01 2.6624730229377747e-01 1.1949161440134048e-01 -6.2913823127746582e-01 3.1662460416555405e-02 -3.3058935403823853e-01 1.0352893173694611e-01 -2.9868748784065247e-01 -1.4115557074546814e-01 -4.0285211801528931e-01 1.1025937646627426e-01 -2.2769081406295300e-03 -2.5230893492698669e-01 2.3239249363541603e-02 1.7457772791385651e-01 -7.1475356817245483e-02 4.4963151216506958e-02 3.1757816672325134e-01 -1.5569692850112915e-01 1.4725787937641144e-01 -4.2179752141237259e-02 1.3703472912311554e-01 -1.6163347661495209e-01 -8.4061659872531891e-02 -2.0767965912818909e-01 -1.1358950287103653e-01 -1.8362428247928619e-01 -1.2426269054412842e-01 -1.1100719869136810e-01 -9.4342455267906189e-02 -1.0647003352642059e-01 2.9272705316543579e-02 2.1405230462551117e-01 1.3120393455028534e-01 -7.9168327152729034e-02 -1.7330145835876465e-01 -5.6482637301087379e-03 -1.7922762036323547e-01 -2.0701889693737030e-01 -1.4983131550252438e-02 1.0964315384626389e-02 2.4773055315017700e-01 4.2234542965888977e-01 -1.5609034895896912e-01 4.2306300997734070e-01 2.7342540025711060e-01 1.8441224098205566e-01 -2.1459421142935753e-02 -4.8300925642251968e-02 -1.3162462413311005e-01 1.9180437922477722e-01 1.7748479545116425e-01 3.0158078670501709e-01 -2.5455084443092346e-01 3.4058850258588791e-02 7.0633865892887115e-02 -2.2849798202514648e-02 1.1109434999525547e-03 -5.7495232671499252e-02 2.6506084203720093e-01 1.3537973165512085e-01 -1.5992671251296997e-01 -1.3644906878471375e-01 -1.1775737255811691e-01 -2.2480539977550507e-01 -1.1551935970783234e-01 -8.3436528220772743e-03 -2.6248529553413391e-02 -1.7692470550537109e-01 1.4880850911140442e-01 -2.7221587300300598e-01 1.2965258955955505e-01 -2.9750716686248779e-01 -6.0702029615640640e-02 -8.4200449287891388e-02 5.7037895917892456e-01 -1.0383824259042740e-01 6.9748610258102417e-02 -6.9367788732051849e-02 -3.1325224786996841e-02 -1.7445231974124908e-01 4.4048276543617249e-01 1.0882294178009033e-01 -1.1399811133742332e-02 -2.0172299817204475e-02 -2.4759754538536072e-01 6.6774725914001465e-02 -1.8681850284337997e-02 -2.1838024258613586e-01 1.4723962545394897e-01 -1.4598052203655243e-01 7.0165336132049561e-02 1.6522429883480072e-01 -6.8385884165763855e-02 -3.5229347646236420e-02 -2.8037589788436890e-01 -1.4230125816538930e-04 -3.0371940135955811e-01 1.0263859480619431e-01 1.9802877306938171e-01 4.4713699817657471e-01 4.7328099608421326e-02 1.7523477971553802e-01 -4.9102014303207397e-01 2.2038702666759491e-01 2.2423531115055084e-01 1.6038282215595245e-01 -3.0264726281166077e-01 1.7870809137821198e-01 -1.0711777722463012e-03 -1.9180223345756531e-01 2.3512473329901695e-02 2.4380680918693542e-01 -8.0002970993518829e-02 -5.0427895039319992e-02 -4.4970523566007614e-02 4.8179201781749725e-02 7.5125612318515778e-02 7.5574768707156181e-03 1.2063888460397720e-01 3.8498081266880035e-02 -1.3339701294898987e-01 -2.4963339790701866e-02 -2.3198077455163002e-02 -1.2387022376060486e-01 -1.8524263799190521e-01 -1.1935806274414062e-01 3.6472177505493164e-01 -5.3213216364383698e-02 -6.5980732440948486e-02 -4.5097101479768753e-02 1.5566885471343994e-01 -3.4780284762382507e-01 1.6460804641246796e-01 -5.5223889648914337e-02 5.4597169160842896e-01 1.2109810113906860e-01 1.4770589768886566e-01 6.7551128566265106e-02 -2.5781020522117615e-01 4.8693131655454636e-02 -2.1041499078273773e-01 -3.7911202758550644e-02 -1.5791903436183929e-01 1.6962060332298279e-01 -1.9331936538219452e-01 4.1289888322353363e-02 -2.6018840074539185e-01 -2.7196863293647766e-01 4.4625713489949703e-03 8.9866608381271362e-02 -6.6946566104888916e-02 3.3825477957725525e-01 1.8156345933675766e-02 2.1459053456783295e-01 -1.0345163941383362e-01 -7.7016040682792664e-02 -9.0191349387168884e-02 2.2938363254070282e-01 -3.8426905870437622e-02 -4.3490715324878693e-02 1.8511082231998444e-01 1.1253579519689083e-02 -6.6087223589420319e-02 -2.9404828324913979e-02 5.8153420686721802e-03 -1.5320256352424622e-01 1.6777820885181427e-01 6.1493735760450363e-02 3.2130885124206543e-01 1.0722786933183670e-01 -3.7250444293022156e-01 6.8319924175739288e-02 7.4390538036823273e-02 4.8173196613788605e-02 2.1861585974693298e-01 2.2078853845596313e-01 -2.1577599644660950e-01 -2.8870295733213425e-02 -3.4568572044372559e-01 -1.1167091131210327e-01 1.5688167512416840e-01 5.6169420480728149e-02 -1.4815950766205788e-02 1.7120628058910370e-01 -1.0626877844333649e-01 1.0393872857093811e-01 1.7169830203056335e-01 -3.3916386961936951e-01 1.7587025463581085e-01 -1.2635637819766998e-01 2.6542499661445618e-01 6.6431015729904175e-02 1.2432622909545898e-01 7.7542804181575775e-02 -2.1840108931064606e-01 -2.8565481305122375e-01 1.6214294359087944e-02 -1.1515855044126511e-01 4.9558112025260925e-01 -1.0163586586713791e-01 -3.1226447224617004e-01 -5.8078307658433914e-02 2.0777501165866852e-01 1.3507735729217529e-01 1.3248242437839508e-01 6.7022673785686493e-02 -6.6594205796718597e-02 3.1394463032484055e-02 2.9821887612342834e-01 -4.1375425644218922e-03 7.9113774001598358e-02 -2.3443410173058510e-02 -7.0556990802288055e-02 -7.3013305664062500e-02 8.4774732589721680e-02 -1.8352289497852325e-01 -1.8640355765819550e-01 -8.3376400172710419e-02 -6.1142627149820328e-02 4.3534729629755020e-02 -1.3037292659282684e-01 -1.7329111695289612e-01 -1.5925762057304382e-01 2.3250474035739899e-01 -1.2628797441720963e-02 -1.2673704326152802e-01 -1.6076241433620453e-01 1.4154572784900665e-01 -1.6212593019008636e-01 -5.1472742110490799e-02 6.1549406498670578e-02 
      </Weights>
      <Biases rows="16" cols="1">
        4.1810892522335052e-02 3.1014189124107361e-01 1.7627461254596710e-01 -8.9032258838415146e-03 -6.2229359149932861e-01 -7.3246657848358154e-02 1.4856162667274475e-01 -1.2772979214787483e-02 5.5891686677932739e-01 1.9589881598949432e-01 1.1517358571290970e-01 4.0815013647079468e-01 -3.1281545758247375e-01 -3.5699036717414856e-01 -4.4457361102104187e-01 2.0765946805477142e-01 
      </Biases>
    </Layer>
    <Layer ActivationFunction="2">
      <Weights rows="16" cols="16">
        8.3498470485210419e-02 -1.3753084838390350e-01 -1.5450097620487213e-01 -2.2809615731239319e-01 1.8426293134689331e-01 -3.1596460938453674e-01 1.6557061672210693e-01 2.9911139607429504e-01 -3.8647044450044632e-02 1.7126003280282021e-02 7.8066259622573853e-02 2.5443619489669800e-01 -2.6717560365796089e-02 -1.1975695937871933e-01 1.8576270341873169e-01 1.6944035887718201e-01 -2.0636852085590363e-01 -4.0611469745635986e-01 -1.0154630243778229e-01 2.8318455815315247e-01 4.3834134936332703e-01 1.7236414551734924e-01 -1.9196192920207977e-01 5.1241116598248482e-03 -3.8391622900962830e-01 -4.8689376562833786e-02 -2.8737959265708923e-01 -3.9442116022109985e-01 8.8550984859466553e-02 3.4352642297744751e-01 2.6453849673271179e-01 -2.7359992265701294e-01 2.5573316216468811e-01 1.5040609240531921e-01 -4.3117243051528931e-01 -8.6536601185798645e-02 -1.3176837563514709e-01 -3.3550965785980225e-01 4.2469781637191772e-01 6.4094519615173340e-01 1.0062234103679657e-01 -8.7744593620300293e-02 -5.9227901697158813e-01 1.1154720187187195e-01 -1.8686455488204956e-01 -2.8678406029939651e-02 1.7919299006462097e-01 -2.3266009986400604e-01 7.2147071361541748e-02 -1.3350389897823334e-01 8.3754010498523712e-02 2.1637591719627380e-01 3.5403662919998169e-01 2.4381338059902191e-01 -4.4044662266969681e-02 -1.6096925735473633e-01 -1.2696003913879395e-01 -2.1828928589820862e-01 -1.7993982881307602e-02 -2.6853817701339722e-01 -1.2665365636348724e-01 3.1605643033981323e-01 2.7258339524269104e-01 -2.7478769421577454e-01 2.4418722093105316e-01 1.6204798221588135e-01 -1.5341162681579590e-01 -4.7472006082534790e-01 -1.5572606027126312e-01 -5.1009997725486755e-02 2.8846436738967896e-01 1.2841065227985382e-01 2.8211498260498047e-01 3.7348446249961853e-01 -2.4647955596446991e-01 1.3257704675197601e-01 -6.8998858332633972e-02 -2.7649915218353271e-01 -1.8232789635658264e-01 1.4496101438999176e-01 3.7138439714908600e-02 6.9921344518661499e-02 -1.7307233810424805e-01 1.3726238161325455e-02 3.6359661817550659e-01 3.4189015626907349e-01 -2.3146109282970428e-01 -2.6515874266624451e-01 -2.1835535764694214e-01 -2.1548695862293243e-01 -6.6617131233215332e-02 -1.3203325867652893e-01 -3.8528610020875931e-02 3.9891436696052551e-01 2.4617388844490051e-01 -1.4711922407150269e-01 1.1357942968606949e-01 -1.5017230808734894e-01 1.8944997340440750e-02 -7.9022966325283051e-02 1.8159922957420349e-01 -7.2710193693637848e-02 -3.2767791301012039e-02 1.3642553985118866e-01 -2.1714631002396345e-03 -1.6415309906005859e-01 -2.7441594004631042e-01 2.4126598611474037e-02 1.3118857145309448e-01 -1.0514595359563828e-01 3.5705280303955078e-01 -2.7601650357246399e-01 1.5524560213088989e-01 1.3239689171314240e-02 -3.8040161132812500e-02 7.7771715819835663e-02 -4.7009382396936417e-02 7.4898414313793182e-02 1.6065008938312531e-01 2.1718937158584595e-01 -1.8300634622573853e-01 2.0153038203716278e-02 -1.9687673076987267e-02 3.0569277703762054e-02 1.5051911771297455e-01 2.5315478444099426e-01 2.9236215353012085e-01 8.9049227535724640e-02 -1.7611356079578400e-01 2.6796019077301025e-01 3.5860944539308548e-02 -1.1803076416254044e-01 3.1012734770774841e-01 -1.2152501195669174e-01 -2.5948729366064072e-02 3.2067626714706421e-01 1.1342115700244904e-01 -2.0292884111404419e-01 4.0737975388765335e-02 -9.9081784486770630e-02 -2.1327029168605804e-01 -5.5653741583228111e-03 1.8071632087230682e-01 -1.7820574343204498e-02 2.8375846147537231e-01 3.3291769027709961e-01 -2.1762598305940628e-02 -1.3678705692291260e-01 -1.9346341490745544e-01 4.5678801834583282e-03 4.6477952599525452e-01 2.5317475199699402e-01 1.7312905192375183e-01 2.5537478923797607e-01 7.0579878985881805e-02 -4.0481355972588062e-03 1.3350614905357361e-01 2.1673974394798279e-01 -2.7035927772521973e-01 1.7898435890674591e-01 2.0620584487915039e-02 1.7740735411643982e-01 -2.2444230318069458e-01 -3.2999694347381592e-01 -8.3897076547145844e-02 1.2000815011560917e-02 1.4798173308372498e-01 4.8007136583328247e-01 3.2385742664337158e-01 -2.0541960000991821e-01 -3.2400980591773987e-01 1.8477106094360352e-01 -1.8986491858959198e-01 -1.5397833287715912e-01 -2.0249639451503754e-01 -1.1427846550941467e-01 4.3297551572322845e-02 -1.8832227587699890e-01 -7.4960626661777496e-02 8.7692059576511383e-02 3.8766828179359436e-01 2.9640144109725952e-01 -1.1785942316055298e-01 2.4227574467658997e-02 -5.3319847583770752e-01 -3.8849636912345886e-01 -1.8333594501018524e-01 -4.2515000700950623e-01 1.2410242110490799e-01 9.1458097100257874e-02 2.4280934035778046e-01 -2.2031375765800476e-01 -4.2886897921562195e-02 2.3959185183048248e-01 -3.7346461415290833e-01 -3.7092503905296326e-01 -1.9717431068420410e-01 -2.9536363482475281e-01 2.7680444717407227e-01 6.2538199126720428e-02 1.2702591717243195e-02 3.1157091259956360e-01 -2.7196574211120605e-01 2.8079581260681152e-01 -2.0756806433200836e-01 -4.9183674156665802e-02 -9.1771841049194336e-02 -1.1457466334104538e-01 -1.0280408710241318e-01 -7.3848761618137360e-02 2.4812042713165283e-02 1.4201550185680389e-01 2.4724903702735901e-01 -6.8210557103157043e-02 -3.3937662839889526e-02 -2.8799498081207275e-01 -2.6020947098731995e-01 -2.1538585424423218e-01 1.5083204209804535e-01 5.9421777725219727e-02 2.4764237925410271e-02 2.7917766571044922e-01 8.3459980785846710e-02 -1.0945756919682026e-02 1.7083080112934113e-01 2.3493666946887970e-01 -3.3260065317153931e-01 -5.1465290784835815e-01 -1.7513683438301086e-01 -8.1292681396007538e-02 3.5226133465766907e-01 2.2453394532203674e-01 3.3454966545104980e-01 2.7091032266616821e-01 -2.9320669174194336e-01 4.4438633322715759e-01 -1.9238114356994629e-01 1.5619680285453796e-01 -5.3106252104043961e-02 -1.1823886632919312e-01 -2.2361035645008087e-01 1.1184080690145493e-01 -1.1016254127025604e-01 1.5237076580524445e-01 2.3047664761543274e-01 1.6893774271011353e-01 -2.0823366940021515e-01 -8.6672808974981308e-03 -2.7555683255195618e-01 -5.9314863756299019e-03 -3.6360170692205429e-02 -2.7777656912803650e-01 2.0561254024505615e-01 4.0451508760452271e-01 3.5827106237411499e-01 -2.5672906637191772e-01 
      </Weights>
      <Biases rows="16" cols="1">
        -2.5137597322463989e-01 -3.3763322234153748e-01 -2.4276320636272430e-01 -3.2219746708869934e-01 -1.5398199856281281e-01 -2.7768319845199585e-01 -2.4251431226730347e-01 -2.7635022997856140e-01 -2.6315230131149292e-01 -2.1268090605735779e-01 -1.6757442057132721e-01 -2.9671272635459900e-01 -1.0985637456178665e-01 -2.6801377534866333e-01 -1.5743406116962433e-01 -2.8046956658363342e-01 
      </Biases>
    </Layer>
    <Layer ActivationFunction="0">
      <Weights rows="1" cols="16">
        4.2337328195571899e-01 -5.2426290512084961e-01 8.7325078248977661e-01 -2.2440466284751892e-01 7.4527597427368164e-01 -2.6097795367240906e-01 -2.4370379745960236e-01 3.5255891084671021e-01 5.1012158393859863e-02 8.0917023122310638e-02 5.5545759201049805e-01 -6.2670689821243286e-01 3.8202723860740662e-01 -2.2273051738739014e-01 9.9095034599304199e-01 -3.7370598316192627e-01 
      </Weights>
      <Biases rows="1" cols="1">
        -4.2126801609992981e-01 
      </Biases>
    </Layer>
  </Weights>
</MethodSetup>
