<?xml version="1.0"?>
<MethodSetup Method="DNN::DNN_NanoV9_VAUG_2020_BBtag_x2">
  <GeneralInfo>
    <Info name="TMVA Release" value="4.2.1 [262657]"/>
    <Info name="ROOT Release" value="6.12/07 [396295]"/>
    <Info name="Creator" value="hum"/>
    <Info name="Date" value="Wed Aug  3 07:41:38 2022"/>
    <Info name="Host" value="Linux vocms0301.cern.ch 2.6.32-696.30.1.el6.x86_64 #1 SMP Tue May 22 06:09:36 CEST 2018 x86_64 x86_64 x86_64 GNU/Linux"/>
    <Info name="Dir" value="/afs/cern.ch/work/h/hum/public/CMSSW_10_2_13/src/ChargedHiggs/Analysis"/>
    <Info name="Training events" value="9671"/>
    <Info name="TrainingTime" value="1.11811399e+00"/>
    <Info name="AnalysisType" value="Classification"/>
  </GeneralInfo>
  <Options>
    <Option name="V" modified="Yes">True</Option>
    <Option name="VerbosityLevel" modified="No">Verbose</Option>
    <Option name="VarTransform" modified="Yes">N</Option>
    <Option name="H" modified="Yes">False</Option>
    <Option name="CreateMVAPdfs" modified="No">False</Option>
    <Option name="IgnoreNegWeightsInTraining" modified="No">False</Option>
    <Option name="Layout" modified="Yes">TANH|32,ReLU|16,SIGMOID|16,LINEAR</Option>
    <Option name="ValidationSize" modified="No">20%</Option>
    <Option name="ErrorStrategy" modified="Yes">CROSSENTROPY</Option>
    <Option name="WeightInitialization" modified="Yes">XAVIERUNIFORM</Option>
    <Option name="Architecture" modified="Yes">CPU</Option>
    <Option name="TrainingStrategy" modified="Yes">LearningRate=1e-1,Momentum=0.9,Repetitions=1,ConvergenceSteps=20,BatchSize=256,TestRepetitions=10,WeightDecay=1e-4,Regularization=L2,DropConfig=0.0+0.1+0.25+0.5,</Option>
  </Options>
  <Variables NVar="16">
    <Variable VarIndex="0" Expression="j1QGL" Label="j1QGL" Title="j1QGL" Unit="" Internal="j1QGL" Type="F" Min="-1.00000000e+00" Max="1.00000000e+00"/>
    <Variable VarIndex="1" Expression="j2QGL" Label="j2QGL" Title="j2QGL" Unit="" Internal="j2QGL" Type="F" Min="-1.00000000e+00" Max="9.99511719e-01"/>
    <Variable VarIndex="2" Expression="varMjj" Label="varMjj" Title="varMjj" Unit="" Internal="varMjj" Type="F" Min="5.00030548e+02" Max="7.54331641e+03"/>
    <Variable VarIndex="3" Expression="varDetajj" Label="varDetajj" Title="varDetajj" Unit="" Internal="varDetajj" Type="F" Min="2.50024414e+00" Max="8.48828125e+00"/>
    <Variable VarIndex="4" Expression="abs(varJet1Eta)" Label="abs(varJet1Eta)" Title="abs(varJet1Eta)" Unit="" Internal="abs_varJet1Eta_" Type="F" Min="1.45211816e-05" Max="4.64355469e+00"/>
    <Variable VarIndex="5" Expression="varJet1Pt" Label="varJet1Pt" Title="varJet1Pt" Unit="" Internal="varJet1Pt" Type="F" Min="5.08750000e+01" Max="1.60900000e+03"/>
    <Variable VarIndex="6" Expression="abs(varJet2Eta)" Label="abs(varJet2Eta)" Title="abs(varJet2Eta)" Unit="" Internal="abs_varJet2Eta_" Type="F" Min="1.60670280e-03" Max="4.67089844e+00"/>
    <Variable VarIndex="7" Expression="varJet2Pt" Label="varJet2Pt" Title="varJet2Pt" Unit="" Internal="varJet2Pt" Type="F" Min="5.00000000e+01" Max="9.18000000e+02"/>
    <Variable VarIndex="8" Expression="varMVV" Label="varMVV" Title="varMVV" Unit="" Internal="varMVV" Type="F" Min="5.00429260e+02" Max="6.36485400e+03"/>
    <Variable VarIndex="9" Expression="varPTV1" Label="varPTV1" Title="varPTV1" Unit="" Internal="varPTV1" Type="F" Min="3.00000000e+02" Max="2.24800000e+03"/>
    <Variable VarIndex="10" Expression="varPTV2" Label="varPTV2" Title="varPTV2" Unit="" Internal="varPTV2" Type="F" Min="3.00000000e+02" Max="1.74200000e+03"/>
    <Variable VarIndex="11" Expression="varCen" Label="varCen" Title="varCen" Unit="" Internal="varCen" Type="F" Min="-2.25991821e+00" Max="4.13812256e+00"/>
    <Variable VarIndex="12" Expression="varzepVV" Label="varzepVV" Title="varzepVV" Unit="" Internal="varzepVV" Type="F" Min="4.14315509e-05" Max="2.22451210e+00"/>
    <Variable VarIndex="13" Expression="varDRV1j" Label="varDRV1j" Title="varDRV1j" Unit="" Internal="varDRV1j" Type="F" Min="1.20024276e+00" Max="4.66205406e+00"/>
    <Variable VarIndex="14" Expression="varDRV2j" Label="varDRV2j" Title="varDRV2j" Unit="" Internal="varDRV2j" Type="F" Min="1.20121408e+00" Max="4.77641678e+00"/>
    <Variable VarIndex="15" Expression="varnormPTVVjj" Label="varnormPTVVjj" Title="varnormPTVVjj" Unit="" Internal="varnormPTVVjj" Type="F" Min="2.81532761e-04" Max="6.09279156e-01"/>
  </Variables>
  <Spectators NSpec="0"/>
  <Classes NClass="2">
    <Class Name="Signal" Index="0"/>
    <Class Name="Background" Index="1"/>
  </Classes>
  <Transformations NTransformations="1">
    <Transform Name="Normalize">
      <Selection>
        <Input NInputs="16">
          <Input Type="Variable" Label="j1QGL" Expression="j1QGL"/>
          <Input Type="Variable" Label="j2QGL" Expression="j2QGL"/>
          <Input Type="Variable" Label="varMjj" Expression="varMjj"/>
          <Input Type="Variable" Label="varDetajj" Expression="varDetajj"/>
          <Input Type="Variable" Label="abs(varJet1Eta)" Expression="abs(varJet1Eta)"/>
          <Input Type="Variable" Label="varJet1Pt" Expression="varJet1Pt"/>
          <Input Type="Variable" Label="abs(varJet2Eta)" Expression="abs(varJet2Eta)"/>
          <Input Type="Variable" Label="varJet2Pt" Expression="varJet2Pt"/>
          <Input Type="Variable" Label="varMVV" Expression="varMVV"/>
          <Input Type="Variable" Label="varPTV1" Expression="varPTV1"/>
          <Input Type="Variable" Label="varPTV2" Expression="varPTV2"/>
          <Input Type="Variable" Label="varCen" Expression="varCen"/>
          <Input Type="Variable" Label="varzepVV" Expression="varzepVV"/>
          <Input Type="Variable" Label="varDRV1j" Expression="varDRV1j"/>
          <Input Type="Variable" Label="varDRV2j" Expression="varDRV2j"/>
          <Input Type="Variable" Label="varnormPTVVjj" Expression="varnormPTVVjj"/>
        </Input>
        <Output NOutputs="16">
          <Output Type="Variable" Label="j1QGL" Expression="j1QGL"/>
          <Output Type="Variable" Label="j2QGL" Expression="j2QGL"/>
          <Output Type="Variable" Label="varMjj" Expression="varMjj"/>
          <Output Type="Variable" Label="varDetajj" Expression="varDetajj"/>
          <Output Type="Variable" Label="abs(varJet1Eta)" Expression="abs(varJet1Eta)"/>
          <Output Type="Variable" Label="varJet1Pt" Expression="varJet1Pt"/>
          <Output Type="Variable" Label="abs(varJet2Eta)" Expression="abs(varJet2Eta)"/>
          <Output Type="Variable" Label="varJet2Pt" Expression="varJet2Pt"/>
          <Output Type="Variable" Label="varMVV" Expression="varMVV"/>
          <Output Type="Variable" Label="varPTV1" Expression="varPTV1"/>
          <Output Type="Variable" Label="varPTV2" Expression="varPTV2"/>
          <Output Type="Variable" Label="varCen" Expression="varCen"/>
          <Output Type="Variable" Label="varzepVV" Expression="varzepVV"/>
          <Output Type="Variable" Label="varDRV1j" Expression="varDRV1j"/>
          <Output Type="Variable" Label="varDRV2j" Expression="varDRV2j"/>
          <Output Type="Variable" Label="varnormPTVVjj" Expression="varnormPTVVjj"/>
        </Output>
      </Selection>
      <Class ClassIndex="0">
        <Ranges>
          <Range Index="0" Min="-1.0000000000000000e+00" Max="1.0000000000000000e+00"/>
          <Range Index="1" Min="-1.0000000000000000e+00" Max="9.9951171875000000e-01"/>
          <Range Index="2" Min="5.0074884033203125e+02" Max="6.4537807617187500e+03"/>
          <Range Index="3" Min="2.5002441406250000e+00" Max="8.4257812500000000e+00"/>
          <Range Index="4" Min="7.1344375610351562e-03" Max="4.6230468750000000e+00"/>
          <Range Index="5" Min="5.3000000000000000e+01" Max="1.6080000000000000e+03"/>
          <Range Index="6" Min="2.6340484619140625e-02" Max="4.6416015625000000e+00"/>
          <Range Index="7" Min="5.0000000000000000e+01" Max="8.3050000000000000e+02"/>
          <Range Index="8" Min="5.0204977416992188e+02" Max="3.6787402343750000e+03"/>
          <Range Index="9" Min="3.0000000000000000e+02" Max="1.9140000000000000e+03"/>
          <Range Index="10" Min="3.0000000000000000e+02" Max="1.7200000000000000e+03"/>
          <Range Index="11" Min="-2.0223388671875000e+00" Max="3.7875976562500000e+00"/>
          <Range Index="12" Min="2.3918139049783349e-04" Max="1.8344415426254272e+00"/>
          <Range Index="13" Min="1.2002427577972412e+00" Max="4.6620540618896484e+00"/>
          <Range Index="14" Min="1.2034926414489746e+00" Max="4.6089529991149902e+00"/>
          <Range Index="15" Min="2.8153276070952415e-04" Max="6.0927915573120117e-01"/>
        </Ranges>
      </Class>
      <Class ClassIndex="1">
        <Ranges>
          <Range Index="0" Min="-1.0000000000000000e+00" Max="1.0000000000000000e+00"/>
          <Range Index="1" Min="-1.0000000000000000e+00" Max="9.9951171875000000e-01"/>
          <Range Index="2" Min="5.0003054809570312e+02" Max="7.5433164062500000e+03"/>
          <Range Index="3" Min="2.5009765625000000e+00" Max="8.4882812500000000e+00"/>
          <Range Index="4" Min="1.4521181583404541e-05" Max="4.6435546875000000e+00"/>
          <Range Index="5" Min="5.0875000000000000e+01" Max="1.6090000000000000e+03"/>
          <Range Index="6" Min="1.6067028045654297e-03" Max="4.6708984375000000e+00"/>
          <Range Index="7" Min="5.0000000000000000e+01" Max="9.1800000000000000e+02"/>
          <Range Index="8" Min="5.0042926025390625e+02" Max="6.3648540039062500e+03"/>
          <Range Index="9" Min="3.0000000000000000e+02" Max="2.2480000000000000e+03"/>
          <Range Index="10" Min="3.0000000000000000e+02" Max="1.7420000000000000e+03"/>
          <Range Index="11" Min="-2.2599182128906250e+00" Max="4.1381225585937500e+00"/>
          <Range Index="12" Min="4.1431550926063210e-05" Max="2.2245121002197266e+00"/>
          <Range Index="13" Min="1.2003294229507446e+00" Max="4.4168601036071777e+00"/>
          <Range Index="14" Min="1.2012140750885010e+00" Max="4.7764167785644531e+00"/>
          <Range Index="15" Min="7.8848132397979498e-04" Max="5.4213297367095947e-01"/>
        </Ranges>
      </Class>
      <Class ClassIndex="2">
        <Ranges>
          <Range Index="0" Min="-1.0000000000000000e+00" Max="1.0000000000000000e+00"/>
          <Range Index="1" Min="-1.0000000000000000e+00" Max="9.9951171875000000e-01"/>
          <Range Index="2" Min="5.0003054809570312e+02" Max="7.5433164062500000e+03"/>
          <Range Index="3" Min="2.5002441406250000e+00" Max="8.4882812500000000e+00"/>
          <Range Index="4" Min="1.4521181583404541e-05" Max="4.6435546875000000e+00"/>
          <Range Index="5" Min="5.0875000000000000e+01" Max="1.6090000000000000e+03"/>
          <Range Index="6" Min="1.6067028045654297e-03" Max="4.6708984375000000e+00"/>
          <Range Index="7" Min="5.0000000000000000e+01" Max="9.1800000000000000e+02"/>
          <Range Index="8" Min="5.0042926025390625e+02" Max="6.3648540039062500e+03"/>
          <Range Index="9" Min="3.0000000000000000e+02" Max="2.2480000000000000e+03"/>
          <Range Index="10" Min="3.0000000000000000e+02" Max="1.7420000000000000e+03"/>
          <Range Index="11" Min="-2.2599182128906250e+00" Max="4.1381225585937500e+00"/>
          <Range Index="12" Min="4.1431550926063210e-05" Max="2.2245121002197266e+00"/>
          <Range Index="13" Min="1.2002427577972412e+00" Max="4.6620540618896484e+00"/>
          <Range Index="14" Min="1.2012140750885010e+00" Max="4.7764167785644531e+00"/>
          <Range Index="15" Min="2.8153276070952415e-04" Max="6.0927915573120117e-01"/>
        </Ranges>
      </Class>
    </Transform>
  </Transformations>
  <MVAPdfs/>
  <Weights InputWidth="16" Depth="4" LossFunction="C" OutputFunction="S">
    <Layer ActivationFunction="3">
      <Weights rows="32" cols="16">
        1.8622678518295288e-01 -4.8836518079042435e-02 -1.3822136819362640e-01 -2.5001242756843567e-01 -1.0016049444675446e-01 -5.8297753334045410e-02 -2.7067244052886963e-01 1.0097003728151321e-01 1.2978550046682358e-02 -2.3672893643379211e-01 -1.3213141262531281e-01 -2.1389394998550415e-01 -1.6634756326675415e-01 -2.4766248464584351e-01 -1.6239804029464722e-01 2.9107302427291870e-01 -1.2892116606235504e-01 -1.6099786153063178e-03 2.3147970438003540e-01 -1.0612960904836655e-01 -7.4165262281894684e-02 7.7373355627059937e-02 1.8792204558849335e-01 -9.2611014842987061e-02 1.2597104907035828e-01 1.1734759062528610e-01 -2.1308240294456482e-01 1.6659632325172424e-01 1.8166799843311310e-01 1.7509560286998749e-01 -2.1857263147830963e-01 -1.5909300744533539e-01 -2.7891844511032104e-01 4.0642097592353821e-02 -4.5903109014034271e-02 3.4214299917221069e-01 9.9656254053115845e-02 -1.6120266914367676e-01 2.0655311644077301e-01 -2.6681759953498840e-01 -2.1396712958812714e-01 -4.1746571660041809e-01 -1.8537174165248871e-01 -6.3510850071907043e-02 2.7427327632904053e-01 7.8325197100639343e-02 -1.2895266711711884e-01 7.1563202142715454e-01 -2.9135006666183472e-01 2.2874177992343903e-01 3.7038630247116089e-01 1.3285763561725616e-01 3.3096191287040710e-01 -2.9486307501792908e-01 4.2444735765457153e-02 2.8942930698394775e-01 2.5224438309669495e-01 8.0635555088520050e-02 3.6947444081306458e-01 5.2535641938447952e-02 -2.9470214247703552e-01 1.0436690598726273e-01 -3.0493009090423584e-01 -1.7059157788753510e-01 6.7526206374168396e-02 -4.4241238385438919e-02 -2.5190809369087219e-01 5.9815701097249985e-02 2.2768439352512360e-01 -1.3959717750549316e-01 6.3328072428703308e-02 2.1543189883232117e-01 -2.1440708637237549e-01 -3.4223386645317078e-01 -6.1774220317602158e-02 -1.2920628488063812e-01 3.2468783855438232e-01 1.9477434456348419e-01 1.8013013526797295e-02 3.2899579405784607e-01 2.8431057929992676e-02 1.3245061039924622e-01 8.0312556028366089e-01 -9.0238563716411591e-03 1.7981889843940735e-01 3.7493497133255005e-01 6.6575154662132263e-02 7.8372806310653687e-02 -5.1312143914401531e-03 6.2746542692184448e-01 4.6634125709533691e-01 4.1479477286338806e-01 -2.1155650913715363e-01 -1.2082423269748688e-01 -1.5159395337104797e-01 -9.5465850830078125e-01 1.8685381859540939e-02 -1.8732999265193939e-01 -3.8184437155723572e-01 -4.2602933943271637e-02 -1.4388753101229668e-02 -2.2982105612754822e-01 1.0467206686735153e-01 -2.7461093664169312e-01 4.5005012303590775e-02 1.2430878728628159e-01 -9.3181930482387543e-02 -2.0168450474739075e-01 1.9441939890384674e-01 -1.9275751709938049e-01 1.0598710924386978e-01 2.5831168889999390e-01 3.8465368747711182e-01 1.9968312978744507e-01 1.8980811536312103e-01 -2.4250063300132751e-01 -1.6961973905563354e-01 -1.0395196080207825e-01 1.0065705329179764e-01 2.6955634355545044e-01 3.2261270284652710e-01 -3.6990053951740265e-02 3.0150473117828369e-02 7.0543341338634491e-02 -6.8862035870552063e-02 1.8707868456840515e-01 1.2791016697883606e-01 -1.3144145905971527e-01 1.9418250024318695e-01 1.5839502215385437e-01 3.2175907492637634e-01 -1.5980146825313568e-01 -8.7312094867229462e-02 -3.3038504421710968e-02 2.1063688397407532e-01 -2.0725545287132263e-01 -1.8000048398971558e-01 -1.8239696323871613e-01 -2.1802945435047150e-01 5.2060291171073914e-02 1.9242729246616364e-01 2.1565645933151245e-01 -1.5435674786567688e-01 -1.9634741544723511e-01 4.6677261590957642e-01 6.3552871346473694e-02 3.8383311033248901e-01 -3.6710241436958313e-01 -1.9259615242481232e-01 2.7125066518783569e-01 -1.9116854667663574e-01 1.5396052598953247e-01 -1.1195205897092819e-01 3.2307037711143494e-01 2.3479041457176208e-01 -1.2078359723091125e-01 2.3714672774076462e-02 -3.0419400334358215e-01 -1.3300569355487823e-01 -3.0533835291862488e-01 -4.6977642178535461e-01 -1.9370744004845619e-02 6.8755093961954117e-03 1.5947210788726807e-01 4.6733032912015915e-02 -3.8403224945068359e-01 -1.5781374648213387e-02 -3.1232595443725586e-01 -1.7179553210735321e-01 -5.1120382547378540e-01 1.6992749273777008e-01 -1.3095173239707947e-01 -1.4630928635597229e-01 4.9691043794155121e-02 -1.3399857282638550e-01 5.0752359628677368e-01 -3.3573269844055176e-01 1.6603857278823853e-01 -4.7406158410012722e-03 4.5922059565782547e-02 -1.8803332746028900e-01 -1.2762996554374695e-01 -1.8688496947288513e-01 -2.0487392321228981e-02 9.4002805650234222e-02 1.9163119792938232e-01 1.5092951059341431e-01 -2.3214788734912872e-01 2.1020853519439697e-01 -1.9461973011493683e-01 -1.6919541358947754e-01 -1.6517709195613861e-01 -3.3843061327934265e-01 3.7467667460441589e-01 4.1603735089302063e-01 -1.2848755717277527e-01 4.1298392415046692e-01 1.5575073659420013e-01 -7.8810416162014008e-02 7.5472436845302582e-02 1.3680002093315125e-01 4.5333319902420044e-01 9.6127420663833618e-02 2.6186358928680420e-01 -7.7191732823848724e-02 -7.5644463300704956e-02 1.8017621338367462e-01 -3.5373666882514954e-01 3.9189183712005615e-01 -1.0606810450553894e-01 4.2723923921585083e-01 1.1015596240758896e-01 1.4135336875915527e-01 1.8776074051856995e-01 3.1920266151428223e-01 -1.1419836431741714e-01 8.1457264721393585e-02 9.9422354251146317e-03 -6.6631898283958435e-02 2.5553086400032043e-01 -1.4404627680778503e-01 2.5921370834112167e-02 9.9940247833728790e-02 -4.0773928165435791e-01 -3.4610405564308167e-01 2.4366201460361481e-01 -9.1575840488076210e-03 -2.7424985170364380e-01 -1.2395542860031128e-01 1.1222240515053272e-02 2.2188414633274078e-01 8.9793644845485687e-02 -1.0160373896360397e-01 2.3880559206008911e-01 2.1547337528318167e-03 -1.7265616357326508e-01 2.1168786287307739e-01 2.0923443138599396e-01 -1.8120749294757843e-01 -3.0095189809799194e-01 -1.0541053116321564e-01 -4.5726615190505981e-01 -7.2164559364318848e-01 -7.5609475374221802e-02 1.8345923721790314e-01 -3.2733422517776489e-01 1.7409466207027435e-01 1.7040589451789856e-01 -1.3209357857704163e-01 -4.3810883164405823e-01 -2.9347497224807739e-01 1.3172996044158936e-01 -1.0786860436201096e-01 -5.3805403411388397e-02 -4.0781695395708084e-02 7.2907721996307373e-01 -2.6797124743461609e-01 -1.4289800822734833e-01 -6.3944317400455475e-02 -1.2504474818706512e-01 -2.8053965419530869e-02 2.4515259265899658e-01 -2.3625035583972931e-01 -9.6005961298942566e-02 4.6927672810852528e-03 6.7642852663993835e-02 -8.5765391588211060e-02 1.2498252093791962e-01 2.7261888980865479e-01 -3.1559765338897705e-01 2.3219822347164154e-01 -2.7221503853797913e-01 -1.1978922039270401e-01 1.1965870857238770e-01 -3.5602655261754990e-02 -1.5170066058635712e-01 1.4531609416007996e-01 -2.0311641693115234e-01 1.2603393197059631e-01 -1.2748007476329803e-01 2.6902636885643005e-01 -1.2555141746997833e-01 1.5014743432402611e-02 5.9780325740575790e-02 -1.1448226869106293e-01 8.9720465242862701e-02 2.5008931756019592e-01 5.1240015774965286e-02 -6.8474304676055908e-01 8.2628391683101654e-02 -5.7247686386108398e-01 4.8969220370054245e-02 2.3215360939502716e-01 -3.1806114315986633e-01 -2.5159576535224915e-01 -4.5338052511215210e-01 -1.4443294145166874e-02 -5.2921956777572632e-01 -5.7531155645847321e-02 3.6146312952041626e-02 -1.9811078906059265e-01 -1.2688322365283966e-01 3.6822238564491272e-01 7.1960270404815674e-01 5.5307900905609131e-01 -1.7821361124515533e-01 5.5390173196792603e-01 -1.6337250173091888e-01 8.6871713399887085e-02 6.5163083374500275e-02 4.6494567394256592e-01 4.0681216120719910e-01 2.9943826794624329e-01 6.0431516170501709e-01 2.5592771172523499e-01 -7.4172080494463444e-03 -1.5211446583271027e-01 -1.4027643017470837e-02 -4.5609322190284729e-01 -7.5676339864730835e-01 6.8942472338676453e-02 -1.6508044302463531e-01 -1.4135408401489258e-01 -1.7978610098361969e-01 6.5068393945693970e-02 1.1056029051542282e-01 -1.7175807058811188e-01 2.4039943516254425e-01 2.0050588250160217e-01 2.5636208057403564e-01 -2.2630304098129272e-01 -2.7538692951202393e-01 -6.6517323255538940e-02 2.6924136281013489e-01 -2.0291949808597565e-01 -2.4996487796306610e-01 1.0300774872303009e-01 -1.4116826653480530e-01 1.4136266894638538e-02 -8.8947139680385590e-02 -1.2093567103147507e-01 6.0143540613353252e-03 -1.8465411663055420e-01 -1.9320558011531830e-01 2.0738659799098969e-01 -3.1615367531776428e-01 -6.5792582929134369e-02 -2.7699086070060730e-01 3.1264916062355042e-01 -7.4400976300239563e-02 -4.6359457075595856e-02 -1.5095702372491360e-02 1.6185107827186584e-01 5.6093841791152954e-01 6.1476588249206543e-01 1.0170718282461166e-01 3.2724833488464355e-01 3.3730328083038330e-01 -5.8480322360992432e-02 2.8749912977218628e-01 3.3240005373954773e-01 5.8544361591339111e-01 -2.7176037430763245e-02 1.8960718810558319e-01 -2.2515843808650970e-01 -2.7900794148445129e-01 -1.4855227433145046e-02 -6.1110758781433105e-01 -7.4585527181625366e-02 -8.0626353621482849e-02 -4.4231867790222168e-01 -2.9980648308992386e-02 1.8168108165264130e-01 2.7441933751106262e-01 -2.6866656541824341e-01 -2.9382634162902832e-01 -3.2644754648208618e-01 -2.2690366208553314e-01 -3.9152970910072327e-01 1.0615098290145397e-02 2.4916411936283112e-01 -1.7064864933490753e-01 2.6092112064361572e-01 5.7322639226913452e-01 -1.9309161603450775e-01 1.3235256075859070e-01 3.0389505624771118e-01 -2.1419699490070343e-01 -2.0840489864349365e-01 -1.7668470740318298e-01 1.1006346344947815e-01 -1.9811855256557465e-01 -1.4155745506286621e-01 -1.9636186957359314e-01 1.0794226080179214e-01 1.2433808296918869e-01 -1.4164990186691284e-01 2.0096589624881744e-01 2.1933941543102264e-01 -1.2236310541629791e-01 3.0883970856666565e-01 -1.1144471913576126e-01 -7.1739900112152100e-01 -1.2795673310756683e-01 -1.9482506811618805e-01 -5.1662240177392960e-02 -1.5773014724254608e-01 -4.1152054071426392e-01 -4.1039358824491501e-02 -2.9173040390014648e-01 1.8623100593686104e-02 -2.5831452012062073e-01 6.4931020140647888e-02 2.7426949143409729e-01 2.6216274127364159e-02 6.0218387842178345e-01 7.4563860893249512e-02 -8.4611064195632935e-01 -6.4479988813400269e-01 -7.6028235256671906e-02 -4.9407202005386353e-01 -4.8942930996417999e-02 2.4677564203739166e-01 -3.2230791449546814e-01 1.7257216386497021e-03 -5.5784398317337036e-01 -1.6441208124160767e-01 -1.9325834512710571e-01 3.0165720731019974e-02 1.9455797970294952e-01 -1.0878927260637283e-01 5.2931517362594604e-01 2.0199662446975708e-01 5.5397819727659225e-02 1.0553362369537354e+00 -1.5109354257583618e-01 1.3741682469844818e-01 3.4212428331375122e-01 9.4381116330623627e-02 3.5341444611549377e-01 9.0587556362152100e-02 5.5650705099105835e-01 3.6066475510597229e-01 4.1368904709815979e-01 -2.5353720784187317e-01 -9.3906961381435394e-02 -1.3182619214057922e-01 -1.1787267923355103e+00 2.2645500302314758e-01 -3.0989399552345276e-01 -3.7781840562820435e-01 -9.8149254918098450e-02 -3.3582627773284912e-01 3.8047686219215393e-02 -1.4034911990165710e-01 -1.5765342116355896e-01 8.8212169706821442e-02 4.7997042536735535e-02 1.2695522606372833e-01 -1.1553074419498444e-01 1.2003459036350250e-01 -4.1734171099960804e-03 5.5483996868133545e-02 -8.7759584188461304e-02 -3.0070367455482483e-01 -1.8668574094772339e-01 -1.5923710167407990e-01 2.4209910631179810e-01 7.8461356461048126e-02 -4.7602090984582901e-02 2.1580655872821808e-01 -2.9097878932952881e-01 1.0507468879222870e-01 -1.7293691635131836e-01 4.5145984739065170e-02 2.3496305942535400e-01 2.0618252456188202e-01 3.4641352295875549e-01 1.4077648520469666e-01 1.4428667724132538e-01 3.5966932773590088e-02 -7.8739874064922333e-02 6.3106244802474976e-01 -1.9106230139732361e-01 1.5649972856044769e-01 7.5098440051078796e-02 2.1612970530986786e-01 6.7508975043892860e-03 3.7762939929962158e-01 6.3710176944732666e-01 4.0654864907264709e-01 3.2361149787902832e-01 -1.3914482295513153e-01 -4.9000099301338196e-02 -1.1248089373111725e-01 -9.6604037284851074e-01 2.5410026311874390e-01 4.4839408248662949e-02 -4.3767765164375305e-02 3.4514480829238892e-01 3.9289575815200806e-01 -2.9776960611343384e-01 3.1265872716903687e-01 -1.6758805513381958e-01 1.3500100374221802e-01 -1.8723697960376740e-01 -1.4883323013782501e-01 -1.4606620185077190e-02 -1.9486281275749207e-01 2.1329173445701599e-01 6.7794293165206909e-02 -1.1358843743801117e-01 
      </Weights>
      <Biases rows="32" cols="1">
        -6.2050979584455490e-02 5.5471532046794891e-02 -5.5521774291992188e-01 1.9194267690181732e-01 -3.0270496010780334e-01 7.7058374881744385e-01 -2.5512677431106567e-01 1.3250735402107239e-01 1.1008185893297195e-01 4.7290858626365662e-01 -3.8278448581695557e-01 4.4899091124534607e-02 3.8769638538360596e-01 2.2199085354804993e-01 3.4576810896396637e-02 -6.1815553903579712e-01 8.6897231638431549e-02 -1.2692764401435852e-01 -3.6980777978897095e-01 3.6781537532806396e-01 1.1095714569091797e-01 -1.3573794066905975e-01 5.9264737367630005e-01 -2.2654962539672852e-01 -3.8270574063062668e-02 -3.4126806259155273e-01 -3.5573235154151917e-01 8.7371736764907837e-01 -4.8274450004100800e-02 -6.8716034293174744e-02 6.3494729995727539e-01 1.1073604226112366e-01 
      </Biases>
    </Layer>
    <Layer ActivationFunction="3">
      <Weights rows="16" cols="32">
        6.9674447178840637e-02 1.7787704244256020e-02 -1.6437031328678131e-01 -7.6940730214118958e-02 -8.4255687892436981e-02 -2.5768779218196869e-02 -2.0395644009113312e-01 7.1963176131248474e-02 1.0035100392997265e-02 -1.6640035808086395e-01 -2.1328589320182800e-01 -1.8034690618515015e-01 -1.1314126104116440e-01 -7.0593938231468201e-02 -1.8050646781921387e-01 8.1984065473079681e-02 -1.0978222638368607e-01 1.5924399718642235e-02 4.3224390596151352e-02 3.2447613775730133e-02 -1.0478088259696960e-01 1.0099660139530897e-03 2.2929038107395172e-01 -1.4722204208374023e-01 7.5458832085132599e-02 -3.6950405687093735e-02 -2.8100410103797913e-01 2.2918488085269928e-01 9.6629545092582703e-02 1.2146539986133575e-01 -4.2788412421941757e-02 1.4813087182119489e-03 -8.2654200494289398e-02 1.1401563137769699e-01 2.8994026780128479e-01 5.9661556035280228e-02 1.1125342547893524e-01 -1.6730844974517822e-01 1.3777878880500793e-01 -2.1717950701713562e-01 -1.7354674637317657e-01 -2.1795351803302765e-01 8.8479861617088318e-02 -8.6660785600543022e-03 3.0705032870173454e-02 -2.2490908205509186e-01 -8.6005873978137970e-02 3.4241041541099548e-01 -1.6950933635234833e-01 1.3153727352619171e-01 2.4641181528568268e-01 -7.8059449791908264e-02 1.8184335529804230e-01 -1.6356082260608673e-01 -1.1434542387723923e-01 1.9832924008369446e-01 1.3679429888725281e-01 -6.2034662812948227e-02 3.2808500528335571e-01 -2.5302001833915710e-01 -1.5458424389362335e-01 2.3947238922119141e-01 -3.6480596661567688e-01 -1.5336547046899796e-02 1.4164811372756958e-01 -1.4457871206104755e-02 7.7802598476409912e-02 -8.7384514510631561e-02 2.1215805411338806e-01 -2.1787349879741669e-01 1.3683611154556274e-01 1.6509334743022919e-01 -2.0141912996768951e-01 -1.7129237949848175e-01 1.4114786684513092e-01 9.6512697637081146e-03 8.8168852031230927e-02 -7.6853394508361816e-02 8.2306535914540291e-03 1.5388280153274536e-01 -3.2563786953687668e-02 1.8602218478918076e-02 2.3201031982898712e-01 -9.4772666692733765e-02 8.6891517043113708e-02 2.0788100361824036e-01 -1.0544053465127945e-01 6.3525200821459293e-03 -1.2239815294742584e-01 3.8904879242181778e-02 2.7010869979858398e-01 -9.2945694923400879e-02 2.0412696525454521e-02 7.9945817589759827e-02 -1.2406725436449051e-01 -9.1853089630603790e-02 1.7409878969192505e-01 -1.3862146437168121e-01 -6.0102682560682297e-02 -1.9736349582672119e-01 8.8010601699352264e-02 -3.0859053134918213e-01 1.5064191818237305e-01 -2.0368067920207977e-01 3.0791494064033031e-03 1.5770256519317627e-01 4.9791403114795685e-02 -6.2208548188209534e-02 2.9181320220232010e-02 -3.1179720163345337e-01 4.3508153408765793e-02 6.2142491340637207e-02 2.2540062665939331e-01 1.4343865215778351e-01 1.3917893171310425e-01 -3.7108609080314636e-01 -8.5323773324489594e-02 -1.1675113439559937e-01 -9.0924456715583801e-02 3.1229516863822937e-01 1.6320118308067322e-01 -3.6584094166755676e-02 1.1852151714265347e-02 -1.6615048050880432e-01 -4.6062488108873367e-02 1.0121403634548187e-01 -6.0931809246540070e-02 -2.6675054803490639e-02 2.1359011530876160e-01 1.5928868204355240e-02 2.0578001439571381e-01 -2.7321183681488037e-01 -8.4586538374423981e-02 -1.2287476658821106e-01 1.4070096611976624e-01 -1.3367486000061035e-01 -1.6091480851173401e-01 -1.4298826456069946e-01 -1.3048106431961060e-01 2.5253094732761383e-02 1.2226887047290802e-01 1.1209507286548615e-01 -1.6167782247066498e-01 -4.6737451106309891e-02 1.6891601681709290e-01 -3.4760504961013794e-02 2.2823348641395569e-01 -2.5983574986457825e-01 -1.2421707063913345e-01 1.7876280844211578e-01 -1.8613111972808838e-01 2.0639906823635101e-01 -4.4794004410505295e-02 2.0808437466621399e-01 2.5239491462707520e-01 -2.0990180969238281e-01 1.1249355226755142e-01 -1.3810755312442780e-01 -1.1850624531507492e-01 -2.3598372936248779e-02 -2.1272356808185577e-01 -1.3997451961040497e-01 4.1873732209205627e-01 -1.0246937721967697e-01 1.5650190412998199e-01 -3.3685705065727234e-01 2.5506194680929184e-02 -7.9783275723457336e-02 -1.4111974835395813e-01 -3.6687776446342468e-01 3.8998255133628845e-01 -3.0001142621040344e-01 -2.5755318999290466e-01 -6.3662908971309662e-02 -3.5725373029708862e-01 3.6835613846778870e-01 -3.4042355418205261e-01 1.7403931915760040e-01 3.4764832258224487e-01 -2.7307522296905518e-01 -2.3880161345005035e-01 -1.3014489412307739e-01 -2.7235320210456848e-01 1.7096525430679321e-01 1.0702137835323811e-02 3.0727559328079224e-01 1.5427340567111969e-01 -4.5579952001571655e-01 -1.2775496579706669e-02 5.7008381932973862e-02 -4.6127977967262268e-01 -7.3656454682350159e-02 -1.6845573484897614e-01 1.1255770921707153e-01 1.0861015319824219e-01 -3.9461340755224228e-02 1.2850290536880493e-01 2.3737293481826782e-01 -3.8715653121471405e-02 4.8377085477113724e-02 9.7576059401035309e-02 1.5769591927528381e-01 6.1022516340017319e-02 1.0681710392236710e-01 9.2283181846141815e-02 8.2679972052574158e-02 1.2072216719388962e-01 -3.8312472403049469e-02 1.4412301778793335e-01 -1.6688950359821320e-01 1.1578615009784698e-01 9.9024295806884766e-02 7.9115159809589386e-02 3.0480902642011642e-02 2.2417446970939636e-01 -1.7053498327732086e-01 2.8408465906977654e-02 -1.8201267719268799e-01 -1.3259789347648621e-01 2.0559373497962952e-01 -1.6153623163700104e-01 1.8272427842020988e-02 1.1538589745759964e-01 -1.2165580689907074e-01 -9.9396854639053345e-02 1.7667251825332642e-01 -2.1954515576362610e-01 -1.6108779609203339e-01 -1.6493457555770874e-01 4.7570541501045227e-02 1.8345206975936890e-01 5.8498427271842957e-02 2.1538289263844490e-02 1.7011277377605438e-01 -2.1538969874382019e-01 -1.8448412418365479e-01 1.5245783329010010e-01 3.6239999532699585e-01 -1.5847700834274292e-01 -2.9874879121780396e-01 -2.1785050630569458e-02 -1.1823568493127823e-01 -3.7631714344024658e-01 3.4216088242828846e-03 7.9894423484802246e-02 -1.7315027117729187e-01 2.5249066948890686e-01 1.3511931896209717e-01 7.7686603181064129e-03 -7.2026111185550690e-02 -2.4876882135868073e-01 3.0771821737289429e-01 -1.1713997274637222e-01 -2.4049805104732513e-01 2.2118354681879282e-03 1.9922162592411041e-01 -2.1843118965625763e-01 -9.8174087703227997e-02 4.2248619720339775e-03 1.9088010489940643e-01 1.0158858262002468e-02 2.6662269234657288e-01 -1.5170207619667053e-01 -8.4798313677310944e-02 1.0155971162021160e-02 5.5616844445466995e-02 -4.5972704887390137e-02 1.6430412232875824e-01 3.1128150224685669e-01 -1.5357244014739990e-01 1.2875331938266754e-01 -2.4381165206432343e-01 -1.6509547829627991e-02 1.3218885660171509e-01 -4.9526166170835495e-02 -1.0795842111110687e-01 1.1655807495117188e-02 -1.8747700750827789e-01 2.9924449324607849e-01 -1.5782672166824341e-01 9.0037137269973755e-02 -2.8189441561698914e-01 -2.7198576927185059e-01 1.2172848731279373e-01 -1.9427902996540070e-01 1.3658386655151844e-02 2.5419545173645020e-01 9.8883569240570068e-02 -9.2125102877616882e-02 -4.9000579863786697e-02 5.2777137607336044e-02 -2.9979917407035828e-01 1.9962039589881897e-01 -3.1545922160148621e-01 -3.4489575773477554e-02 -3.8791753351688385e-02 5.2408009767532349e-02 4.2060576379299164e-03 1.6193568706512451e-01 8.2104980945587158e-02 -2.2223123908042908e-01 -8.7661355733871460e-02 8.0689027905464172e-02 1.5461657941341400e-01 1.2418962270021439e-01 -2.9098462313413620e-02 2.5429573655128479e-01 -3.8382750749588013e-01 5.3624145686626434e-02 3.6622639745473862e-02 1.1426103115081787e-01 3.5024055838584900e-01 9.4167597591876984e-02 2.0262409746646881e-01 6.1658054590225220e-02 -3.5602316260337830e-01 -2.0269167423248291e-01 -1.5406152606010437e-01 -4.3020316958427429e-01 -2.5873914361000061e-01 1.8354541063308716e-01 -1.7827308177947998e-01 -1.2021268904209137e-01 -3.4811016917228699e-01 1.6831280291080475e-01 -1.1673527210950851e-01 -8.1494778394699097e-02 2.1699264645576477e-01 2.2427710890769958e-01 2.1033753454685211e-01 -1.5072461962699890e-01 -1.5163315832614899e-01 -2.2837382555007935e-01 8.1577882170677185e-02 -4.3085157871246338e-02 -2.5196222588419914e-02 9.0898096561431885e-02 -7.9247303307056427e-02 1.0522390156984329e-01 -1.0297196358442307e-01 1.4132463932037354e-01 1.0392022132873535e-01 -3.2162603735923767e-01 2.4957610294222832e-02 1.7125762999057770e-01 1.0228411853313446e-01 2.2052012383937836e-01 -3.2477244734764099e-01 2.5188055634498596e-01 -7.5112931430339813e-02 -2.4218669533729553e-01 -2.3233097791671753e-01 1.2210135161876678e-01 8.2973212003707886e-02 -6.1630811542272568e-03 4.4341333210468292e-02 9.1036215424537659e-02 1.6876880824565887e-01 -2.9028085991740227e-02 1.0377022624015808e-01 1.6614307463169098e-01 5.3046230226755142e-02 -1.5918128192424774e-01 3.0238002538681030e-02 -8.6146943271160126e-02 -9.3367867171764374e-02 -7.7639888040721416e-03 8.1437416374683380e-03 -2.0711412653326988e-02 -8.5875160992145538e-02 -6.9594234228134155e-02 5.1289955154061317e-03 1.8171317875385284e-01 1.9816249608993530e-01 -1.6818620264530182e-01 -9.1618493199348450e-02 -1.2473966926336288e-01 1.3815139234066010e-01 -1.8838137388229370e-01 8.8654555380344391e-02 1.9814868271350861e-01 -1.3379368185997009e-01 8.7529711425304413e-02 1.5633364021778107e-01 -1.3092294335365295e-01 3.8462880998849869e-02 3.6217704415321350e-01 -2.1781134605407715e-01 -4.8263330012559891e-02 -2.5236970186233521e-01 8.3344593644142151e-02 -1.4313231408596039e-01 -2.2330796718597412e-01 -2.6957139372825623e-01 3.0299460887908936e-01 1.7516821622848511e-01 -2.4852029979228973e-01 -8.0885663628578186e-02 1.6067616641521454e-01 5.2794232964515686e-02 7.2788715362548828e-02 -7.3577418923377991e-02 5.7358395308256149e-02 -2.6568990945816040e-01 1.1006634682416916e-01 4.2652725242078304e-03 -3.4879148006439209e-01 -1.1875528842210770e-01 3.6492366343736649e-02 1.9848616421222687e-01 2.2840556502342224e-01 -3.3117371797561646e-01 -1.0005325078964233e-01 2.5902247428894043e-01 -1.8732722103595734e-01 -5.3081750869750977e-02 -8.0359302461147308e-02 -1.8309272825717926e-01 -5.8439955115318298e-02 -7.1127131581306458e-02 -1.9858032464981079e-01 1.5157881379127502e-01 3.4739669412374496e-02 -1.4296514913439751e-02 1.9757485389709473e-01 3.5617694258689880e-02 6.6789373755455017e-02 -1.0284312069416046e-01 -2.6831336319446564e-02 1.0192468762397766e-01 -1.2127631157636642e-01 -1.1036747135221958e-02 7.1030274033546448e-02 1.4486789703369141e-02 1.0561696439981461e-01 1.7115101218223572e-02 9.2259449884295464e-03 9.3178324401378632e-02 9.1927409172058105e-02 4.0880288928747177e-02 -3.2468561083078384e-02 -1.9852900505065918e-01 3.1719114631414413e-02 1.9443278014659882e-01 -3.8633748888969421e-02 3.5008069127798080e-02 7.5991757214069366e-02 -6.0422573238611221e-02 2.1473768353462219e-01 -1.6406361758708954e-01 -1.9328938424587250e-01 -8.3446554839611053e-02 -1.9827413558959961e-01 5.9780620038509369e-02 -7.4569515883922577e-02 -2.6888005435466766e-02 1.5334708988666534e-01 1.7561011016368866e-01 1.1979614198207855e-01 -5.3906485438346863e-02 2.4580677971243858e-02 3.6876130849123001e-02 3.9717193692922592e-02 -1.7748598754405975e-01 -1.7813377082347870e-01 -1.5702280402183533e-01 -9.6023969352245331e-02 1.6695053875446320e-01 -8.6633674800395966e-03 3.5875447094440460e-02 1.8966843187808990e-01 -1.5798565745353699e-01 1.2382663786411285e-01 -6.2312271445989609e-02 1.7562594264745712e-02 1.8590046465396881e-01 1.5926168859004974e-01 1.2665769457817078e-01 1.5209493041038513e-01 1.2066418677568436e-01 -8.4747701883316040e-02 1.8247861415147781e-02 -2.8786951676011086e-02 9.6927747130393982e-02 -1.7772585153579712e-02 2.3377221822738647e-01 5.4326299577951431e-03 -1.5798453986644745e-01 1.5561465919017792e-01 -1.8922531977295876e-02 1.0416071116924286e-01 7.3873519897460938e-02 1.3163021206855774e-01 1.3381421566009521e-01 5.2072457969188690e-02 -2.2215379774570465e-01 1.2462103366851807e-01 -1.4470806345343590e-02 -1.9716982543468475e-01 2.8740569949150085e-01 1.7493720352649689e-01 -2.4716818332672119e-01 2.9827511310577393e-01 -2.4693119525909424e-01 1.1845060437917709e-01 -3.3736953139305115e-01 -2.0334252715110779e-01 1.4778374135494232e-01 -1.5492215752601624e-01 9.7746208310127258e-02 1.8130905926227570e-01 5.5289812386035919e-02 
      </Weights>
      <Biases rows="16" cols="1">
        1.0292331874370575e-01 -2.6366099715232849e-01 -2.4168393015861511e-01 -6.1755642294883728e-02 -8.2683824002742767e-02 -5.4232496023178101e-01 1.4349865727126598e-02 4.3178847432136536e-01 1.1511617153882980e-01 -2.1411320567131042e-01 -5.2920270711183548e-02 5.9751991182565689e-02 -4.8302313685417175e-01 4.4953860342502594e-02 1.3227973878383636e-01 1.0873911529779434e-01 
      </Biases>
    </Layer>
    <Layer ActivationFunction="2">
      <Weights rows="16" cols="16">
        1.5846656262874603e-01 -5.3785396739840508e-03 -1.7572785913944244e-01 -3.8945117592811584e-01 -2.4463699758052826e-01 -2.3159502446651459e-01 -1.2823808193206787e-01 2.1847784519195557e-01 2.0925745368003845e-01 -4.8123857378959656e-01 -4.7537952661514282e-01 -1.4769291877746582e-01 -2.8400874137878418e-01 -2.3048821091651917e-01 -2.8881677985191345e-01 3.4153714776039124e-01 -1.7687080800533295e-01 1.8291892111301422e-01 3.0314689874649048e-01 2.0408423151820898e-03 7.2709605097770691e-02 1.9299815595149994e-01 9.8656155169010162e-02 -3.7271186709403992e-01 -8.0659948289394379e-02 2.3469378054141998e-01 -9.8732369951903820e-04 1.0146165639162064e-01 3.2934963703155518e-01 1.3073986768722534e-01 -2.1997256577014923e-01 -2.0772191882133484e-01 -1.5850174427032471e-01 3.5802161693572998e-01 3.7056282162666321e-01 2.3539015650749207e-01 1.6388595104217529e-01 3.6917112767696381e-02 1.4574170112609863e-01 -5.7917231321334839e-01 -4.0439683198928833e-01 9.2031873762607574e-02 1.3394309580326080e-01 -1.4861203730106354e-01 3.3201482892036438e-01 -2.2985026240348816e-01 -1.3811324536800385e-01 1.7019711434841156e-01 -1.9466646015644073e-01 6.7766524851322174e-02 2.7301914989948273e-02 -2.0780680701136589e-02 9.0647913515567780e-02 -3.6945584416389465e-01 1.6112494468688965e-01 3.4569051861763000e-01 3.4553056955337524e-01 -3.3399659395217896e-01 5.1739465445280075e-02 -9.8118878901004791e-02 -3.0823320150375366e-01 2.5107643008232117e-01 -2.6056876778602600e-01 1.7045845091342926e-01 9.2515215277671814e-02 1.7811535298824310e-01 7.4411258101463318e-02 1.5173102915287018e-01 3.2297939062118530e-01 3.0770193785429001e-02 7.2385139763355255e-02 -4.2371716350317001e-02 -3.8759043812751770e-01 1.1980244517326355e-01 1.8388234078884125e-01 -9.1457463800907135e-02 3.7459921836853027e-01 4.8248071223497391e-02 -5.4632268846035004e-02 -7.0719897747039795e-02 -4.7501597553491592e-02 4.5467022806406021e-02 1.2058095633983612e-01 1.0602796822786331e-01 9.3129791319370270e-02 3.2507655024528503e-01 6.2207076698541641e-02 -1.8109570443630219e-01 -1.5935789048671722e-01 -3.2877273857593536e-02 2.5779157876968384e-01 1.4614681899547577e-01 1.3102242350578308e-01 2.4999736342579126e-04 2.4779297411441803e-02 -3.5713355988264084e-02 1.1601096391677856e-01 -4.7095067799091339e-02 -2.4503810703754425e-01 -5.8704037219285965e-02 1.8031314015388489e-02 -2.4251395463943481e-01 1.7725531756877899e-01 -2.5751975178718567e-01 8.8251024484634399e-02 2.3769965767860413e-01 -1.6168387234210968e-01 -1.5347868204116821e-01 1.2053033709526062e-01 -2.5453868508338928e-01 1.9337968900799751e-02 -1.9204427953809500e-03 2.1045917272567749e-01 9.4888158142566681e-02 -8.1166133284568787e-02 -4.0551620721817017e-01 -3.0099353194236755e-01 -3.8537514209747314e-01 1.2189766019582748e-01 2.9501202702522278e-01 3.9962258934974670e-01 -4.1203877329826355e-01 -2.5491398572921753e-01 2.3181248456239700e-02 -1.3920305669307709e-01 2.1327212452888489e-01 1.7537799477577209e-01 1.8068531155586243e-01 2.7930167317390442e-01 2.4510167539119720e-02 1.4997772872447968e-01 -3.3524793386459351e-01 -2.7457550168037415e-01 -1.5374694764614105e-01 2.5584787130355835e-01 -3.3318784087896347e-02 -1.2194062583148479e-02 -4.0377447009086609e-01 -4.3369445204734802e-01 -1.3077191077172756e-02 1.3242119550704956e-01 3.0213013291358948e-01 -2.4053764343261719e-01 -1.6640955582261086e-02 1.9436614215373993e-01 3.3014599233865738e-02 2.7886539697647095e-01 -1.5599009394645691e-01 -1.2698554992675781e-01 4.0773043036460876e-01 -1.9948087632656097e-01 3.4013152122497559e-02 -1.4666832983493805e-01 2.9882779717445374e-01 3.0340263247489929e-01 -2.1920417249202728e-01 2.9554238915443420e-01 -2.3052458465099335e-01 -1.4110361039638519e-01 1.2584697455167770e-02 -2.0077605545520782e-01 -1.0935758799314499e-01 1.0895711183547974e-01 -2.2006003558635712e-01 -2.5144028663635254e-01 -4.3981498479843140e-01 1.3655662536621094e-01 8.6610592901706696e-02 1.9940017163753510e-01 -5.8765941858291626e-01 -1.5970619022846222e-01 -1.5487658977508545e-01 -2.8269988298416138e-01 3.0416451394557953e-02 -2.6421207189559937e-01 3.3036762475967407e-01 -2.8146019577980042e-01 2.6045057177543640e-01 9.0887099504470825e-02 1.3779596984386444e-01 -1.3598787784576416e-01 7.9814508557319641e-02 -1.9971540570259094e-01 -2.5279581546783447e-01 -6.7125409841537476e-02 3.8286861777305603e-01 3.6138001084327698e-01 -3.0678293108940125e-01 3.3404693007469177e-01 -2.7857658267021179e-01 -1.6894990205764771e-01 -2.0886893570423126e-01 -1.6400168836116791e-01 2.7928283810615540e-01 2.3319809138774872e-01 1.6202878206968307e-02 3.4600237011909485e-01 4.2251324653625488e-01 -9.6055939793586731e-02 -1.7129434645175934e-01 -6.4568504691123962e-02 5.0281673669815063e-01 3.7294325232505798e-01 9.7520545125007629e-02 1.9303438067436218e-01 2.2452427074313164e-02 2.0035465061664581e-01 -1.1156664788722992e-01 2.4211049079895020e-01 -1.8714873492717743e-01 1.9968853890895844e-01 1.4025810360908508e-01 1.5314273536205292e-01 2.5852698087692261e-01 2.2997026145458221e-01 -2.4216166138648987e-01 2.4727690964937210e-02 -1.1517631262540817e-01 -1.6975678503513336e-01 1.9756764173507690e-01 -8.6639799177646637e-02 -5.4189912974834442e-02 -2.5028388947248459e-02 -2.7520793676376343e-01 -2.7994430065155029e-01 3.5793247818946838e-01 -2.2600537165999413e-02 -1.5696614980697632e-01 -1.4376975595951080e-02 1.0005045682191849e-01 1.9372209906578064e-01 -2.0947638154029846e-01 -3.2337707281112671e-01 2.7414506673812866e-01 1.0364395380020142e-01 -1.7775577306747437e-01 2.8644776344299316e-01 1.9894243776798248e-01 -2.1126742660999298e-01 -3.4238716959953308e-01 -4.5098803937435150e-02 -2.8725913166999817e-01 -3.3080896735191345e-01 -3.1552633643150330e-01 1.0871483385562897e-01 -4.4677698612213135e-01 2.6469019055366516e-01 4.7814014554023743e-01 1.2720240652561188e-01 -2.4145439267158508e-01 -3.8358020782470703e-01 2.5488662719726562e-01 -3.3316850662231445e-01 -1.2198180705308914e-01 -1.2341896444559097e-01 2.0346911251544952e-01 
      </Weights>
      <Biases rows="16" cols="1">
        -4.1863419115543365e-02 -1.5906277298927307e-01 -2.3807941377162933e-01 -4.4191431254148483e-02 -1.5105588734149933e-01 -1.1642280966043472e-01 -1.0191728919744492e-01 -3.4673489630222321e-02 -5.1329199224710464e-02 -1.3280649483203888e-01 -2.2411322221159935e-02 -1.7355459928512573e-01 -1.6195327043533325e-01 -1.2045225501060486e-01 -1.3044488430023193e-01 7.7891089022159576e-02 
      </Biases>
    </Layer>
    <Layer ActivationFunction="0">
      <Weights rows="1" cols="16">
        7.5049513578414917e-01 -5.7650458812713623e-01 -8.8207149505615234e-01 1.1217806488275528e-01 -3.9531421661376953e-01 -5.4641347378492355e-02 1.4231885969638824e-01 2.0141847431659698e-01 4.0375313162803650e-01 -5.4026708006858826e-02 6.7422729730606079e-01 -4.3722003698348999e-01 -6.3351404666900635e-01 9.2882305383682251e-02 -3.1618976593017578e-01 3.5240164399147034e-01 
      </Weights>
      <Biases rows="1" cols="1">
        6.0656595230102539e-01 
      </Biases>
    </Layer>
  </Weights>
</MethodSetup>
