<?xml version="1.0"?>
<MethodSetup Method="DNN::DNN_NanoV2_2020_morestat_BMET_x0">
  <GeneralInfo>
    <Info name="TMVA Release" value="4.2.1 [262657]"/>
    <Info name="ROOT Release" value="6.12/07 [396295]"/>
    <Info name="Creator" value="hum"/>
    <Info name="Date" value="Sat Sep 25 07:38:08 2021"/>
    <Info name="Host" value="Linux vocms0301.cern.ch 2.6.32-696.30.1.el6.x86_64 #1 SMP Tue May 22 06:09:36 CEST 2018 x86_64 x86_64 x86_64 GNU/Linux"/>
    <Info name="Dir" value="/afs/cern.ch/work/h/hum/public/CMSSW_10_2_13/src/ChargedHiggs/Analysis"/>
    <Info name="Training events" value="5240"/>
    <Info name="TrainingTime" value="9.59120035e-01"/>
    <Info name="AnalysisType" value="Classification"/>
  </GeneralInfo>
  <Options>
    <Option name="V" modified="Yes">True</Option>
    <Option name="VerbosityLevel" modified="No">Verbose</Option>
    <Option name="VarTransform" modified="Yes">N</Option>
    <Option name="H" modified="Yes">False</Option>
    <Option name="CreateMVAPdfs" modified="No">False</Option>
    <Option name="IgnoreNegWeightsInTraining" modified="No">False</Option>
    <Option name="Layout" modified="Yes">SIGMOID|32,TANH|16,TANH|16,LINEAR</Option>
    <Option name="ValidationSize" modified="No">20%</Option>
    <Option name="ErrorStrategy" modified="Yes">CROSSENTROPY</Option>
    <Option name="WeightInitialization" modified="Yes">XAVIERUNIFORM</Option>
    <Option name="Architecture" modified="Yes">CPU</Option>
    <Option name="TrainingStrategy" modified="Yes">LearningRate=1e-1,Momentum=0.9,Repetitions=1,ConvergenceSteps=20,BatchSize=256,TestRepetitions=10,WeightDecay=1e-4,Regularization=L2,DropConfig=0.0+0.1+0.25+0.5,</Option>
  </Options>
  <Variables NVar="9">
    <Variable VarIndex="0" Expression="j1QGL" Label="j1QGL" Title="j1QGL" Unit="" Internal="j1QGL" Type="F" Min="-1.00000000e+00" Max="1.00000000e+00"/>
    <Variable VarIndex="1" Expression="j2QGL" Label="j2QGL" Title="j2QGL" Unit="" Internal="j2QGL" Type="F" Min="-1.00000000e+00" Max="9.99511719e-01"/>
    <Variable VarIndex="2" Expression="varMjj" Label="varMjj" Title="varMjj" Unit="" Internal="varMjj" Type="F" Min="5.00129761e+02" Max="6.16059277e+03"/>
    <Variable VarIndex="3" Expression="varDetajj" Label="varDetajj" Title="varDetajj" Unit="" Internal="varDetajj" Type="F" Min="2.50097656e+00" Max="8.77441406e+00"/>
    <Variable VarIndex="4" Expression="varJet1Pt" Label="varJet1Pt" Title="varJet1Pt" Unit="" Internal="varJet1Pt" Type="F" Min="5.24687500e+01" Max="1.72900000e+03"/>
    <Variable VarIndex="5" Expression="varJet2Pt" Label="varJet2Pt" Title="varJet2Pt" Unit="" Internal="varJet2Pt" Type="F" Min="5.00000000e+01" Max="1.15400000e+03"/>
    <Variable VarIndex="6" Expression="varMTVV" Label="varMTVV" Title="varMTVV" Unit="" Internal="varMTVV" Type="F" Min="5.81410461e+02" Max="4.61553369e+03"/>
    <Variable VarIndex="7" Expression="varCen" Label="varCen" Title="varCen" Unit="" Internal="varCen" Type="F" Min="-1.85058594e+00" Max="3.82831955e+00"/>
    <Variable VarIndex="8" Expression="varnormPTVVjj" Label="varnormPTVVjj" Title="varnormPTVVjj" Unit="" Internal="varnormPTVVjj" Type="F" Min="3.10590345e-04" Max="2.48236731e-01"/>
  </Variables>
  <Spectators NSpec="0"/>
  <Classes NClass="2">
    <Class Name="Signal" Index="0"/>
    <Class Name="Background" Index="1"/>
  </Classes>
  <Transformations NTransformations="1">
    <Transform Name="Normalize">
      <Selection>
        <Input NInputs="9">
          <Input Type="Variable" Label="j1QGL" Expression="j1QGL"/>
          <Input Type="Variable" Label="j2QGL" Expression="j2QGL"/>
          <Input Type="Variable" Label="varMjj" Expression="varMjj"/>
          <Input Type="Variable" Label="varDetajj" Expression="varDetajj"/>
          <Input Type="Variable" Label="varJet1Pt" Expression="varJet1Pt"/>
          <Input Type="Variable" Label="varJet2Pt" Expression="varJet2Pt"/>
          <Input Type="Variable" Label="varMTVV" Expression="varMTVV"/>
          <Input Type="Variable" Label="varCen" Expression="varCen"/>
          <Input Type="Variable" Label="varnormPTVVjj" Expression="varnormPTVVjj"/>
        </Input>
        <Output NOutputs="9">
          <Output Type="Variable" Label="j1QGL" Expression="j1QGL"/>
          <Output Type="Variable" Label="j2QGL" Expression="j2QGL"/>
          <Output Type="Variable" Label="varMjj" Expression="varMjj"/>
          <Output Type="Variable" Label="varDetajj" Expression="varDetajj"/>
          <Output Type="Variable" Label="varJet1Pt" Expression="varJet1Pt"/>
          <Output Type="Variable" Label="varJet2Pt" Expression="varJet2Pt"/>
          <Output Type="Variable" Label="varMTVV" Expression="varMTVV"/>
          <Output Type="Variable" Label="varCen" Expression="varCen"/>
          <Output Type="Variable" Label="varnormPTVVjj" Expression="varnormPTVVjj"/>
        </Output>
      </Selection>
      <Class ClassIndex="0">
        <Ranges>
          <Range Index="0" Min="-1.0000000000000000e+00" Max="1.0000000000000000e+00"/>
          <Range Index="1" Min="-1.0000000000000000e+00" Max="9.9951171875000000e-01"/>
          <Range Index="2" Min="5.0042843627929688e+02" Max="6.1462333984375000e+03"/>
          <Range Index="3" Min="2.5021972656250000e+00" Max="8.7744140625000000e+00"/>
          <Range Index="4" Min="5.4156250000000000e+01" Max="1.7080000000000000e+03"/>
          <Range Index="5" Min="5.0000000000000000e+01" Max="7.5700000000000000e+02"/>
          <Range Index="6" Min="5.8314239501953125e+02" Max="3.5970830078125000e+03"/>
          <Range Index="7" Min="-1.8371582031250000e+00" Max="3.8283195495605469e+00"/>
          <Range Index="8" Min="3.1059034517966211e-04" Max="2.3771499097347260e-01"/>
        </Ranges>
      </Class>
      <Class ClassIndex="1">
        <Ranges>
          <Range Index="0" Min="-1.0000000000000000e+00" Max="1.0000000000000000e+00"/>
          <Range Index="1" Min="-1.0000000000000000e+00" Max="9.9951171875000000e-01"/>
          <Range Index="2" Min="5.0012976074218750e+02" Max="6.1605927734375000e+03"/>
          <Range Index="3" Min="2.5009765625000000e+00" Max="7.7031250000000000e+00"/>
          <Range Index="4" Min="5.2468750000000000e+01" Max="1.7290000000000000e+03"/>
          <Range Index="5" Min="5.0000000000000000e+01" Max="1.1540000000000000e+03"/>
          <Range Index="6" Min="5.8141046142578125e+02" Max="4.6155336914062500e+03"/>
          <Range Index="7" Min="-1.8505859375000000e+00" Max="3.4395751953125000e+00"/>
          <Range Index="8" Min="1.7611811636015773e-03" Max="2.4823673069477081e-01"/>
        </Ranges>
      </Class>
      <Class ClassIndex="2">
        <Ranges>
          <Range Index="0" Min="-1.0000000000000000e+00" Max="1.0000000000000000e+00"/>
          <Range Index="1" Min="-1.0000000000000000e+00" Max="9.9951171875000000e-01"/>
          <Range Index="2" Min="5.0012976074218750e+02" Max="6.1605927734375000e+03"/>
          <Range Index="3" Min="2.5009765625000000e+00" Max="8.7744140625000000e+00"/>
          <Range Index="4" Min="5.2468750000000000e+01" Max="1.7290000000000000e+03"/>
          <Range Index="5" Min="5.0000000000000000e+01" Max="1.1540000000000000e+03"/>
          <Range Index="6" Min="5.8141046142578125e+02" Max="4.6155336914062500e+03"/>
          <Range Index="7" Min="-1.8505859375000000e+00" Max="3.8283195495605469e+00"/>
          <Range Index="8" Min="3.1059034517966211e-04" Max="2.4823673069477081e-01"/>
        </Ranges>
      </Class>
    </Transform>
  </Transformations>
  <MVAPdfs/>
  <Weights InputWidth="9" Depth="4" LossFunction="C" OutputFunction="S">
    <Layer ActivationFunction="2">
      <Weights rows="32" cols="9">
        5.2264553308486938e-01 1.6061669588088989e-01 9.0676265954971313e-01 -3.9241734892129898e-02 -1.8622057139873505e-01 2.2886751592159271e-01 6.3407671451568604e-01 -1.6816904768347740e-02 1.0913964360952377e-01 2.8476917743682861e-01 2.0521458983421326e-01 1.0619801282882690e+00 4.6729585528373718e-01 -1.6010665893554688e-01 3.4917071461677551e-01 9.4299632310867310e-01 -2.3607380688190460e-01 -5.0963711738586426e-01 -2.9161089658737183e-01 8.2279279828071594e-02 -6.5580368041992188e-01 -3.4331744909286499e-01 -3.0112230777740479e-01 -2.0990985631942749e-01 -7.2081014513969421e-02 -1.6580544412136078e-02 6.6291970014572144e-01 9.5528274774551392e-02 -3.8460978865623474e-01 2.0116432011127472e-01 3.5252454876899719e-01 4.4379580020904541e-01 3.1586313247680664e-01 4.3467125296592712e-01 3.6411693692207336e-01 -1.8272433429956436e-02 3.3119800686836243e-01 5.1911842823028564e-01 1.6150056123733521e+00 2.6685416698455811e-01 -1.6078716143965721e-02 3.1794676184654236e-01 1.2175645828247070e+00 1.2616315484046936e-01 -8.4702086448669434e-01 -5.6881982088088989e-01 -1.8220524489879608e-01 -4.9863163381814957e-02 -3.3026769757270813e-02 -2.6931419968605042e-01 -1.1101682484149933e-01 -4.5042747259140015e-01 -2.8976523876190186e-01 1.2556126713752747e-01 5.9466952085494995e-01 3.0572649836540222e-01 1.2833100557327271e+00 -2.7980914711952209e-01 4.1217890381813049e-01 4.5217952132225037e-01 6.7249482870101929e-01 7.7067315578460693e-02 -2.7667161077260971e-02 -4.0003173053264618e-02 1.3385763764381409e-01 -5.6871449947357178e-01 1.1429032683372498e-01 -8.1452511250972748e-02 -2.7220162749290466e-01 -3.2660529017448425e-01 -1.6376753151416779e-01 1.3983289897441864e-01 -4.0362200140953064e-01 2.9050844907760620e-01 -1.1832897365093231e-01 2.3023784160614014e-02 -2.7448427677154541e-01 3.8954153656959534e-01 1.4681410789489746e-01 -2.2433251142501831e-01 3.9818367362022400e-01 -5.0699084997177124e-02 1.5562410652637482e-01 -9.1086886823177338e-02 -3.5193824768066406e-01 -1.2633642554283142e-01 -3.2997983694076538e-01 -1.0488565266132355e-01 3.5470992326736450e-01 8.5327073931694031e-02 1.8408493697643280e-01 3.6072289943695068e-01 7.2873270511627197e-01 -1.7034834623336792e-01 1.6747477650642395e-01 2.9325178265571594e-01 5.7007741928100586e-01 1.6089285910129547e-01 1.7845608294010162e-01 -1.6212457418441772e-01 -2.8745999932289124e-01 6.5347224473953247e-01 -4.3284177780151367e-02 1.7707002162933350e-01 5.1291793584823608e-01 1.0755670815706253e-01 -3.9742508530616760e-01 -2.2703601419925690e-01 2.5409731268882751e-01 2.3985769599676132e-02 -2.2782728075981140e-01 -3.3130177855491638e-01 8.1221230328083038e-02 -1.1771544069051743e-01 3.1075426936149597e-01 -8.0347687005996704e-02 -1.0155607759952545e-01 1.9671933352947235e-01 1.8729539215564728e-01 7.5817966461181641e-01 -3.4408393502235413e-01 2.4121898412704468e-01 6.2446206808090210e-01 1.4800974726676941e-01 4.6518839895725250e-02 3.1443744897842407e-01 4.4012602418661118e-02 1.9436529278755188e-01 3.0702840536832809e-02 -3.0965024232864380e-01 -3.2119056582450867e-01 2.3610183596611023e-01 1.1570213735103607e-01 -6.8353086709976196e-02 -1.7319963872432709e-01 3.6652946472167969e-01 -4.3872258067131042e-01 -3.2777628302574158e-01 1.5099355578422546e-01 -2.0367324352264404e-01 1.9473244249820709e-01 -3.8458579778671265e-01 4.1303181648254395e-01 4.9826102331280708e-03 -4.1581600904464722e-01 -1.9303452968597412e-01 -3.7742349505424500e-01 -1.5510682761669159e-01 1.6741496324539185e-01 -3.7358942627906799e-01 -2.9206070303916931e-01 -1.0288940370082855e-01 -1.5533304214477539e-01 3.0396512150764465e-01 -2.1790896356105804e-01 1.0796894133090973e-01 3.5791152715682983e-01 4.1492184996604919e-01 6.1471216380596161e-02 2.6576671004295349e-01 2.3754401504993439e-01 2.6177493855357170e-02 -4.1245058178901672e-02 -9.9465876817703247e-02 2.1456968784332275e-01 -1.9702723622322083e-01 -8.9659184217453003e-02 -1.7351774871349335e-01 -7.7585689723491669e-02 -4.4022554159164429e-01 -1.7139835655689240e-01 -4.3372759222984314e-01 2.5520277023315430e-01 -3.7412369251251221e-01 -1.7834477126598358e-01 -3.0709141492843628e-01 -2.1328581869602203e-01 -4.7852647304534912e-01 8.3944089710712433e-02 3.5161548852920532e-01 5.6959211826324463e-02 2.6068469882011414e-01 3.3521637320518494e-01 -2.1491290628910065e-01 5.7485133409500122e-01 -1.3208310306072235e-01 4.4627532362937927e-01 2.0032756030559540e-01 -1.4910705387592316e-01 -3.9795318245887756e-01 4.3283898383378983e-02 -1.2836822271347046e+00 -1.1867146939039230e-01 -2.2772528231143951e-01 -5.1995474100112915e-01 -4.1517615318298340e-01 -2.4518904089927673e-01 8.7050855159759521e-01 -1.2886995077133179e-01 -2.6756674051284790e-01 1.0737012624740601e+00 5.2315894514322281e-02 1.1634753644466400e-01 -1.8559068441390991e-01 7.8204852342605591e-01 4.3811711668968201e-01 -1.4515037834644318e-01 1.7413741350173950e-01 -5.3971982002258301e-01 -9.3819022178649902e-01 -2.2120108827948570e-02 -2.4519385397434235e-01 -3.6362406611442566e-01 -3.2240846753120422e-01 -3.1216350197792053e-01 3.5781493782997131e-01 1.9317175447940826e-01 -1.2840099632740021e-01 -9.3099337816238403e-01 -3.5431000590324402e-01 -4.8237197101116180e-02 -5.5833339691162109e-02 -2.8123605251312256e-01 1.1710974574089050e-01 6.0049450397491455e-01 -1.3794642686843872e-01 -4.4622993469238281e-01 2.3262761533260345e-01 3.7112998962402344e-01 -2.4236746132373810e-01 4.7613743692636490e-02 2.0185354351997375e-01 -1.4687599241733551e-01 2.3456804454326630e-01 -1.2095086276531219e-01 -2.9695528745651245e-01 -6.2914574146270752e-01 -3.0795747041702271e-01 -1.9952058792114258e-01 2.5827613472938538e-01 -6.5333378314971924e-01 -3.6382764577865601e-01 -8.0811113119125366e-02 -4.4795399904251099e-01 2.1189258992671967e-01 -3.0847057700157166e-01 -3.6226395517587662e-02 -1.5226638317108154e-01 3.8600146770477295e-01 -1.4900712668895721e-01 -8.3806373178958893e-02 -1.4168602228164673e-01 -1.1136615276336670e-01 2.6845616102218628e-01 5.9808987379074097e-01 1.7208883166313171e-01 5.9825927019119263e-02 2.8915414214134216e-01 -9.4793073832988739e-02 8.3061158657073975e-02 -2.2412861883640289e-01 1.1814314126968384e-01 5.9632128477096558e-01 9.5930373668670654e-01 2.1725617349147797e-02 3.7658959627151489e-01 4.0020015835762024e-01 8.4223234653472900e-01 3.3918809145689011e-02 -3.7909325957298279e-01 -2.0524124801158905e-01 -5.0513476133346558e-01 5.1699936389923096e-01 -2.4993552267551422e-01 3.1309685111045837e-01 -1.2559829652309418e-01 4.7554478049278259e-01 2.3972174525260925e-01 -2.0545962452888489e-01 -6.5763436257839203e-02 3.2375580072402954e-01 9.8675096035003662e-01 2.3763163387775421e-01 4.9630251526832581e-01 3.1041324138641357e-01 2.3356458544731140e-01 -3.0102553963661194e-01 -5.4801648855209351e-01 
      </Weights>
      <Biases rows="32" cols="1">
        9.0401977300643921e-02 4.8178523778915405e-01 -3.7077030539512634e-01 1.1097957938909531e-01 9.8759430646896362e-01 -1.8617901206016541e-01 8.8178807497024536e-01 -3.0541202425956726e-01 -1.2627539038658142e-01 -1.8369220197200775e-01 7.9755865037441254e-02 1.0774197429418564e-01 -1.4568912982940674e-01 7.5934641063213348e-02 -1.7771658301353455e-01 -1.9576773047447205e-01 -2.4602693319320679e-01 -9.0422339737415314e-02 -1.7333769798278809e-01 -3.6326104402542114e-01 -9.6815042197704315e-02 -8.5121828317642212e-01 4.7153115272521973e-01 -3.4237879514694214e-01 -2.4455904960632324e-01 -9.1233775019645691e-02 -3.0873683094978333e-01 -1.8838952481746674e-01 -1.2961779534816742e-01 5.3217655420303345e-01 -4.6348642557859421e-02 2.5401788949966431e-01 
      </Biases>
    </Layer>
    <Layer ActivationFunction="3">
      <Weights rows="16" cols="32">
        1.7397072911262512e-01 -1.2390485405921936e-01 1.5460695326328278e-01 -1.7908640205860138e-01 -4.0878182649612427e-01 1.8890991806983948e-02 -7.2384975850582123e-02 1.0480548441410065e-01 9.2804476618766785e-02 1.0466088354587555e-01 7.1127214469015598e-03 -3.4055471420288086e-02 1.6843350231647491e-01 -3.8786372542381287e-01 -3.3244520425796509e-02 6.4230673015117645e-02 -3.4040901809930801e-02 -1.3317036628723145e-01 -1.4045380987226963e-02 1.3485547900199890e-01 -1.3285395503044128e-01 -5.6614302098751068e-02 -2.8170505166053772e-01 -4.0412660688161850e-02 4.2496971786022186e-02 -3.6452148109674454e-02 2.3668247461318970e-01 2.8475964441895485e-02 -1.2600889801979065e-01 -2.8117823600769043e-01 1.1828406155109406e-01 1.3591954112052917e-01 4.1850684210658073e-03 -6.1022870242595673e-02 1.9545097649097443e-01 -6.4593277871608734e-02 -5.2659474313259125e-02 5.6658670306205750e-02 -8.5354618728160858e-02 1.7336855828762054e-01 -1.2873709201812744e-01 -5.1824241876602173e-02 5.5817630141973495e-02 1.0013174265623093e-01 -2.0240610837936401e-01 -3.1779131293296814e-01 -1.3609121739864349e-01 1.4935943484306335e-01 -2.8122559189796448e-02 -1.1747130751609802e-01 -4.4333759695291519e-02 -8.2502208650112152e-02 -1.8459400534629822e-01 6.9018162786960602e-02 1.2640397250652313e-01 4.6036958694458008e-02 1.3235214352607727e-01 -8.1921271979808807e-02 1.9752179086208344e-01 1.0599976778030396e-01 -9.5552034676074982e-02 7.5683683156967163e-02 1.3772501051425934e-01 -7.0372052490711212e-02 -2.5415634736418724e-03 -7.6858931779861450e-01 4.6037347055971622e-04 -4.4661867618560791e-01 -7.4312299489974976e-01 -7.1269765496253967e-02 -8.0391114950180054e-01 2.7564764022827148e-01 -2.5031909346580505e-01 3.7933582067489624e-01 -2.7412286400794983e-01 -4.7577768564224243e-02 -2.4214634299278259e-01 -2.6041030883789062e-01 1.2189634889364243e-01 -8.7312802672386169e-02 1.8668696284294128e-01 -5.2245732396841049e-02 -1.1264313943684101e-03 2.9020446538925171e-01 -9.6381410956382751e-02 4.4306215643882751e-01 -5.0944483280181885e-01 2.7200260758399963e-01 2.8427898883819580e-01 -7.9881206154823303e-02 2.0847022533416748e-01 1.9509075582027435e-01 -7.2305150330066681e-02 -6.1733359098434448e-01 -3.2256793975830078e-01 -1.5787136554718018e-01 -5.3278296254575253e-03 -1.2115790694952011e-01 1.3275752961635590e-01 -2.6738056540489197e-01 -3.5543066263198853e-01 2.1568070352077484e-01 -2.9985329508781433e-01 1.0134172439575195e-01 1.6007554531097412e-01 -2.2176885977387428e-03 -3.3669143915176392e-01 -9.8547831177711487e-02 1.0608698427677155e-01 -5.0581056624650955e-02 -1.9312888383865356e-01 -1.2117269635200500e-01 -2.6926271617412567e-02 -1.9527901709079742e-01 -2.3383408784866333e-02 7.2351573035120964e-03 -8.6443781852722168e-02 2.8687685728073120e-01 -1.6383011825382710e-04 2.6060307025909424e-01 -6.1614871025085449e-02 2.1204857155680656e-02 2.3148220777511597e-01 -2.3689395189285278e-01 -7.3706740513443947e-03 -7.6693572103977203e-02 -3.5452194511890411e-02 4.4311158359050751e-02 6.3805572688579559e-02 -3.3924577292054892e-03 -1.8096482753753662e-01 1.7853212356567383e-01 2.7243667840957642e-01 -4.6066746115684509e-02 1.0280776023864746e-01 1.8562310934066772e-01 -1.2537550926208496e-01 -1.9375789165496826e-01 1.5909303724765778e-01 -1.2295175343751907e-01 1.4984463155269623e-01 -3.8901537656784058e-02 2.1505111455917358e-01 -3.0716432956978679e-04 -1.3482528924942017e-01 -1.7630510032176971e-02 -1.3946282677352428e-02 -9.2509165406227112e-02 1.1398876458406448e-01 -3.0852383375167847e-01 2.8107339516282082e-02 -1.2579478323459625e-01 -1.7224308848381042e-01 2.0451098680496216e-01 -5.0606578588485718e-02 -8.8268890976905823e-02 2.4256584048271179e-01 3.0241310596466064e-01 1.1128989979624748e-02 8.2077175378799438e-02 1.4039506018161774e-01 3.6504797637462616e-02 8.2583725452423096e-02 3.6915715783834457e-02 1.1038544028997421e-01 -1.3741923868656158e-01 -9.6064895391464233e-02 -9.8463356494903564e-02 -8.0014005303382874e-02 -1.7793852090835571e-01 -1.1693824082612991e-01 -1.3555459678173065e-01 1.8841758370399475e-01 2.8729379177093506e-02 -1.1416357010602951e-01 -1.0361151397228241e-01 -7.1037165820598602e-02 -7.6091386377811432e-02 6.0360055416822433e-02 8.9439444243907928e-02 5.4602179443463683e-04 1.9064016640186310e-01 -1.1938123963773251e-02 -1.4789755642414093e-01 1.9914102554321289e-01 -1.6108264029026031e-01 1.3419239223003387e-01 1.1727452278137207e-01 -1.0148675180971622e-02 -4.8699699342250824e-02 1.3469950854778290e-01 -1.1496504396200180e-01 -1.1220324039459229e-01 -4.6633172035217285e-01 -7.5895741581916809e-02 -1.4207166433334351e-01 -5.9379827976226807e-01 1.9970829784870148e-01 -7.0490562915802002e-01 2.2115764021873474e-01 4.8696704208850861e-02 2.2295297682285309e-01 -2.3163574934005737e-01 -2.1834068000316620e-01 4.9112979322671890e-03 -5.5181182920932770e-02 1.4979130029678345e-01 2.7862042188644409e-01 -7.7920071780681610e-02 -1.9241115450859070e-01 -9.9120475351810455e-03 6.2337078154087067e-02 1.7065847292542458e-02 4.4307473301887512e-01 -4.3663305044174194e-01 2.2561867535114288e-01 3.4629493951797485e-01 -1.1396196484565735e-01 -4.7825597226619720e-02 -1.5785372257232666e-01 -3.3732015639543533e-02 -2.9483464360237122e-01 -1.0497933626174927e-01 -2.3736655712127686e-02 2.7422571182250977e-01 6.0437726974487305e-01 -1.5487605333328247e-01 4.8674175143241882e-01 7.7266424894332886e-01 -1.7061734199523926e-01 7.2132551670074463e-01 -1.5886998176574707e-01 7.2351098060607910e-02 -2.7187265455722809e-02 4.3843230605125427e-01 -3.4377802163362503e-02 1.8100728094577789e-01 3.1727692484855652e-01 -3.3237334340810776e-02 1.7859363555908203e-01 -2.1665239334106445e-01 -4.7711845487356186e-02 -7.3159955441951752e-02 -3.0177116394042969e-01 9.6544116735458374e-02 -5.3225547075271606e-01 4.0001508593559265e-01 -2.7867093682289124e-01 9.3168076127767563e-03 -9.3345325440168381e-03 -1.7765580117702484e-01 -1.2056568264961243e-01 1.6686657071113586e-01 7.9896205663681030e-01 4.6975582838058472e-01 1.9439496099948883e-01 -1.2001238018274307e-01 -4.0985193848609924e-01 -9.7951367497444153e-02 -2.2705799341201782e-01 -6.2288177013397217e-01 -1.1347305960953236e-02 -3.6408117413520813e-01 1.9349983334541321e-01 -7.5834549963474274e-02 2.2191244363784790e-01 -1.7741572856903076e-01 6.6563867032527924e-02 -5.9391289949417114e-02 -3.4978774189949036e-01 -2.2268714383244514e-02 -6.0676999390125275e-02 2.0746907591819763e-01 -2.1472322940826416e-01 -2.6582462713122368e-02 -7.9977534711360931e-02 1.2517194449901581e-01 5.1734465360641479e-01 -4.2417004704475403e-01 5.6995905935764313e-02 2.5485873222351074e-01 1.5701708197593689e-01 2.2732180356979370e-01 1.2599885463714600e-01 -6.5638922154903412e-02 -5.0032371282577515e-01 -3.7300425767898560e-01 -2.5096997618675232e-01 -1.9796746969223022e-01 1.2695731222629547e-01 1.0436084121465683e-01 1.9043188542127609e-02 2.2152070701122284e-01 -2.0777603983879089e-01 2.3658207058906555e-01 -6.2530338764190674e-03 1.7050591111183167e-01 -5.6795395910739899e-02 1.1882063001394272e-01 -3.0272798612713814e-02 -1.6981409490108490e-01 1.0881289839744568e-01 -4.2529452592134476e-02 -1.3475631177425385e-01 -1.7569066584110260e-01 -7.2922229766845703e-02 3.1807836145162582e-02 -9.2986330389976501e-02 1.5509194135665894e-01 4.5493341982364655e-02 1.9666630029678345e-01 -3.0794721841812134e-01 -3.0256819725036621e-01 1.9297569990158081e-01 -1.4000912010669708e-01 3.4074500203132629e-02 1.6321590542793274e-01 3.3775848150253296e-01 -3.5490252077579498e-02 1.2138438969850540e-01 -1.1303663998842239e-01 -4.9187305569648743e-01 -4.0916770696640015e-02 -1.1454136669635773e-01 -3.2544821500778198e-01 1.3204826414585114e-01 -5.3728812932968140e-01 3.4962040185928345e-01 -1.4317153021693230e-02 3.4433747641742229e-03 -3.1696189194917679e-02 -2.1444767713546753e-01 3.2263465225696564e-02 -3.5824695229530334e-01 -3.3276215195655823e-02 -1.0111549496650696e-01 6.5721176564693451e-02 -2.4723085761070251e-01 1.5251897275447845e-01 1.3813175261020660e-01 2.1632893383502960e-01 1.5636542439460754e-01 -3.3015400171279907e-01 1.2025833129882812e-01 1.0000578314065933e-01 -1.3466116786003113e-01 4.6885475516319275e-02 -1.1696656048297882e-01 1.4415595680475235e-02 -3.3986905217170715e-01 -1.1305515468120575e-01 7.2210431098937988e-02 -1.2200798373669386e-03 -8.3907949924468994e-01 7.4136383831501007e-02 -3.1744772195816040e-01 -8.8050019741058350e-01 9.2043370008468628e-02 -1.0504817962646484e+00 3.1878867745399475e-01 5.6470368057489395e-02 3.4663578867912292e-01 -2.8785702586174011e-01 -2.1487118676304817e-02 -1.0496506094932556e-01 -3.8897070288658142e-01 2.1849682927131653e-01 4.4092826545238495e-02 1.6244615614414215e-01 6.2064919620752335e-03 -8.8661760091781616e-02 2.2320435941219330e-01 2.1582359075546265e-01 6.7383366823196411e-01 -6.0703134536743164e-01 2.4881160259246826e-01 9.6327282488346100e-02 -1.0781589895486832e-01 1.2481737881898880e-01 -1.9724565744400024e-01 -2.5324153900146484e-01 -6.0109019279479980e-01 -1.3470137119293213e-01 -3.3702561259269714e-01 3.0442597344517708e-02 5.5540621280670166e-01 -2.6338532567024231e-01 7.3730371892452240e-02 6.0367888212203979e-01 -5.4496120661497116e-02 7.7889990806579590e-01 -2.1851277351379395e-01 -6.4578436315059662e-02 -2.4800962209701538e-01 3.0463197827339172e-01 -5.4973397403955460e-02 -9.3807689845561981e-03 4.7023618221282959e-01 8.3667449653148651e-02 -3.4479293227195740e-01 6.6863633692264557e-02 2.3803563416004181e-01 1.2741076946258545e-01 2.7498962357640266e-02 1.0166432708501816e-02 -4.2523226141929626e-01 4.1977778077125549e-01 -4.3467575311660767e-01 -2.7413496375083923e-01 -2.2763444576412439e-03 -1.2213620357215405e-02 9.4622336328029633e-02 2.4932899978011847e-03 4.7587317228317261e-01 3.6733126640319824e-01 2.0363511145114899e-01 1.4929541945457458e-01 5.3611308336257935e-01 5.9425003826618195e-02 3.6747336387634277e-01 5.8457344770431519e-01 -7.4231848120689392e-02 4.7237324714660645e-01 -4.4728532433509827e-02 1.5115647017955780e-01 -3.7151418626308441e-02 4.2100673913955688e-01 2.5317856669425964e-01 1.8955858051776886e-01 4.6865820884704590e-01 8.3093820139765739e-03 -1.3243028894066811e-02 -4.4748507440090179e-02 -1.2386269122362137e-01 1.5072364360094070e-02 -2.8598231077194214e-01 -5.0354670733213425e-02 -5.1661920547485352e-01 4.0031585097312927e-01 -3.5520783066749573e-01 -2.6964664459228516e-01 1.0633727908134460e-01 -2.7187085151672363e-01 -7.3988072574138641e-02 -5.1885191351175308e-03 5.7290226221084595e-01 1.0377964936196804e-02 -9.4785138964653015e-02 -1.2120865285396576e-01 1.7754676938056946e-01 -9.2937834560871124e-02 2.6091587543487549e-01 2.0123565196990967e-01 5.6458979845046997e-02 2.1187815070152283e-01 5.5700749158859253e-02 -6.5630532801151276e-02 1.4012628793716431e-01 5.2265223115682602e-02 1.0293729603290558e-01 1.9517220556735992e-01 2.2460676729679108e-02 1.6306759417057037e-01 1.4273542165756226e-01 -8.4773294627666473e-02 7.0718064904212952e-02 -1.7698784172534943e-01 -1.7470978200435638e-01 1.8567684292793274e-01 -2.4064441025257111e-01 1.2657454609870911e-01 2.6015354320406914e-02 -2.8904492035508156e-02 -1.8731668591499329e-01 -2.0923447608947754e-01 7.3241703212261200e-02 -7.7365323901176453e-02 1.2309982441365719e-02 6.7412652075290680e-02 -1.9123166799545288e-01 1.8754325807094574e-01 2.1005347371101379e-01 -2.3377841711044312e-01 5.5644538253545761e-02 3.9551609754562378e-01 8.2146272063255310e-02 4.5158792287111282e-02 5.6291772052645683e-03 1.7088519036769867e-01 1.3682507909834385e-02 2.7551496028900146e-01 2.2754473984241486e-01 4.8193108290433884e-02 1.4796744287014008e-01 1.5408737957477570e-01 -1.6769652068614960e-01 -2.3810055851936340e-01 2.0998373627662659e-01 -2.0012554526329041e-01 -1.8909129500389099e-01 -6.9207507185637951e-03 -3.6095160245895386e-01 -4.5845948159694672e-02 7.5639933347702026e-02 2.4194395169615746e-02 1.9404438138008118e-01 -3.6687999963760376e-02 -1.7459966242313385e-01 -7.7452644705772400e-02 2.5418233871459961e-01 5.5966861546039581e-02 1.3927866518497467e-01 
      </Weights>
      <Biases rows="16" cols="1">
        -2.3845339193940163e-02 -9.2435017228126526e-02 -1.0176438838243484e-01 -4.0579807013273239e-02 9.8963066935539246e-02 4.4023290276527405e-02 1.2452151626348495e-02 1.6329091787338257e-01 -3.0378751456737518e-02 -6.2922284007072449e-02 -1.5505362302064896e-02 -1.1716192215681076e-01 -4.1346993297338486e-02 2.0802404731512070e-02 -1.5581740997731686e-02 -8.1644672900438309e-03 
      </Biases>
    </Layer>
    <Layer ActivationFunction="3">
      <Weights rows="16" cols="16">
        2.1387563645839691e-01 1.0112053900957108e-01 1.9070297479629517e-01 -4.1589885950088501e-02 -2.3702500760555267e-01 -4.2989011853933334e-02 2.4200417101383209e-01 -1.0749737918376923e-01 1.7904898524284363e-01 -1.5458139590919018e-02 1.3184481859207153e-01 -1.4799498021602631e-01 1.3902364671230316e-01 -2.4743510782718658e-01 -7.6610028743743896e-02 2.1230677142739296e-02 -7.3086865246295929e-02 -1.8296216428279877e-01 7.4018180370330811e-02 1.6809013485908508e-01 -2.0212483406066895e-01 -3.0648839473724365e-01 -6.2391426414251328e-02 -2.5643143057823181e-01 1.6336998343467712e-01 -1.0393138974905014e-01 2.7409318089485168e-01 1.0779257863759995e-01 -1.7145690321922302e-01 -1.9953981041908264e-01 1.9864684343338013e-01 1.3780450820922852e-01 1.1105661839246750e-01 4.7916833311319351e-02 2.5155553221702576e-01 1.8070235848426819e-02 1.3828144967556000e-01 7.0611283183097839e-02 1.2613083422183990e-01 1.5786875784397125e-01 -1.4171057939529419e-01 -1.2121600657701492e-01 1.5531773865222931e-01 1.7022465169429779e-01 -2.8641098737716675e-01 -2.3630741238594055e-01 -1.4514835178852081e-01 1.6750265657901764e-01 4.1021611541509628e-02 -9.9270693957805634e-02 6.9854497909545898e-02 -8.2944884896278381e-02 -2.5093379616737366e-01 -5.6627530604600906e-02 3.1862705945968628e-01 -6.5171785652637482e-02 2.5913098454475403e-01 -1.6254559159278870e-01 2.2166168689727783e-01 1.8898366391658783e-01 -1.2896074354648590e-01 1.3664945960044861e-01 1.4527031779289246e-01 -4.9306344240903854e-02 9.5236584544181824e-02 -2.3538292944431305e-01 5.3734797984361649e-02 -7.9540483653545380e-02 -1.6320754587650299e-01 -1.5160629153251648e-01 -1.4089103043079376e-01 7.6588639058172703e-04 -1.3780862092971802e-01 3.0519917607307434e-01 1.0609551519155502e-01 8.2855761051177979e-02 -1.2252735346555710e-01 2.5601461529731750e-01 2.1531118452548981e-01 -8.3656981587409973e-02 1.3629180192947388e-01 2.1727314218878746e-02 9.4548203051090240e-02 2.2354835271835327e-01 -2.1007785201072693e-01 -5.6732665747404099e-02 -8.7766721844673157e-02 -3.0892247334122658e-02 3.0901268124580383e-01 -9.1103911399841309e-02 1.2323461472988129e-01 2.1166844666004181e-01 -3.1216254457831383e-02 -1.5055750310420990e-01 -1.1359744518995285e-01 -8.8943488895893097e-02 -3.9053346961736679e-02 1.9742231070995331e-01 2.7465812861919403e-02 -2.0576843619346619e-01 -1.5180295705795288e-01 3.2059428095817566e-01 -1.4071664214134216e-01 3.4386250376701355e-01 2.3166736960411072e-01 8.2613773643970490e-02 -2.3300492763519287e-01 -1.0057724267244339e-01 3.5852462053298950e-01 2.3239980638027191e-01 -2.1941623091697693e-01 -1.6492643952369690e-01 -7.7618628740310669e-02 -1.2417236715555191e-01 1.1808068305253983e-01 -5.3285922855138779e-02 -2.0289655029773712e-01 2.1375879645347595e-01 1.4958085119724274e-01 3.4452319145202637e-01 -2.5566071271896362e-01 1.8553967773914337e-01 3.2791021466255188e-01 -8.9839965105056763e-02 1.8033535778522491e-01 1.8105229735374451e-01 1.3920360803604126e-01 2.5348564982414246e-01 -1.2274062633514404e-01 -1.3186635076999664e-01 -4.8528221249580383e-01 3.4818835556507111e-02 -3.1654659658670425e-02 5.3687475156039000e-04 -1.8938934803009033e-01 6.5672826766967773e-01 -3.6747521162033081e-01 -9.9129751324653625e-02 1.0603174567222595e-02 -2.5516554713249207e-01 9.8865620791912079e-02 -1.8410022556781769e-01 4.2711317539215088e-01 7.2976328432559967e-02 -1.2478521466255188e-01 -4.5355752110481262e-02 -1.0643964260816574e-01 -1.5638244152069092e-01 3.1830940395593643e-02 -2.0111460983753204e-01 -1.4553184807300568e-01 6.3345849514007568e-02 -2.4083828926086426e-01 3.6413484811782837e-01 -3.0111089348793030e-02 -1.4345911331474781e-02 2.5381720066070557e-01 9.6299536526203156e-02 -8.5712723433971405e-02 8.1676105037331581e-03 1.0746606439352036e-01 -6.4483634196221828e-03 -6.3589513301849365e-02 -6.9596529006958008e-02 1.5171957015991211e-01 -1.2188678979873657e-01 -2.3021958768367767e-01 5.0576429814100266e-02 -2.3252102732658386e-01 -1.9757792353630066e-01 -2.1393495798110962e-01 -2.2107148170471191e-01 2.7536815404891968e-01 1.4850828051567078e-01 -8.4646612405776978e-02 -4.0270108729600906e-02 -9.7823046147823334e-02 -1.7379522323608398e-01 -6.6213076934218407e-03 1.0535069555044174e-01 -2.3831402882933617e-02 1.5665081143379211e-01 1.5252815559506416e-02 -3.4326934814453125e-01 1.9682863354682922e-01 -3.3973333239555359e-01 8.4592767059803009e-02 3.0887514352798462e-02 -1.0881135612726212e-01 -2.5161584839224815e-02 1.0128563642501831e-01 -1.3003459572792053e-01 -1.5552859008312225e-01 8.6912550032138824e-03 -2.6399049162864685e-01 1.2529234588146210e-01 -3.1142958998680115e-01 2.8663247823715210e-01 -2.6487150788307190e-01 1.4235070347785950e-01 1.2880773842334747e-01 1.1020909249782562e-01 -5.8109275996685028e-03 -1.6703604161739349e-01 1.4894264936447144e-01 2.9130443930625916e-01 1.9832718372344971e-01 3.3686238527297974e-01 -2.7881869673728943e-01 -1.4268960058689117e-01 5.4697290062904358e-02 -5.0361368805170059e-02 -1.6613925993442535e-01 1.6862937808036804e-01 -2.5213882327079773e-01 6.2051605433225632e-02 2.6391533017158508e-01 -5.4812226444482803e-02 -2.3482902348041534e-01 -1.5348319709300995e-01 1.1168156564235687e-01 7.8916825354099274e-02 1.4342463016510010e-01 1.2371381372213364e-01 2.7673608064651489e-01 -3.7061136681586504e-03 -3.2376861572265625e-01 5.6838974356651306e-02 1.9925412535667419e-01 -1.8531231582164764e-01 -1.0264516621828079e-01 2.0340777933597565e-01 -1.6351822018623352e-01 2.5544357299804688e-01 7.5465299189090729e-02 -1.1437954008579254e-01 5.7830836623907089e-02 -2.1081240475177765e-01 5.6887841783463955e-03 3.6276635527610779e-01 -2.1859246492385864e-01 -1.9005039334297180e-01 -1.9411681592464447e-01 -2.3868270218372345e-01 1.3750888407230377e-01 -1.6756150126457214e-01 -7.5009800493717194e-02 1.1457667686045170e-02 2.0116961002349854e-01 -8.9801467955112457e-02 -2.3031074553728104e-02 -1.2267134338617325e-01 1.4778403565287590e-02 2.9595330357551575e-01 2.1339242160320282e-01 8.9935563504695892e-02 
      </Weights>
      <Biases rows="16" cols="1">
        5.3140465170145035e-02 -1.3046732172369957e-02 9.9799685180187225e-02 -2.7890553697943687e-02 1.4035652391612530e-02 -1.7386712133884430e-02 -2.9629981145262718e-02 -8.1463173031806946e-02 1.4938004314899445e-01 -1.0761829465627670e-01 1.6678057610988617e-02 1.1305736005306244e-01 5.0311009399592876e-03 -3.9321675896644592e-02 -1.4798952266573906e-02 3.0451660975813866e-02 
      </Biases>
    </Layer>
    <Layer ActivationFunction="0">
      <Weights rows="1" cols="16">
        -2.8079423308372498e-01 -1.1373016983270645e-01 -1.7993907630443573e-01 -1.9013202190399170e-01 9.8742038011550903e-02 -5.3197454661130905e-02 2.2624817490577698e-01 1.9611182808876038e-01 3.0180245637893677e-01 3.2821738719940186e-01 2.7600267529487610e-01 -1.7548549175262451e-01 1.4591971039772034e-01 6.9082550704479218e-02 2.0920737087726593e-01 2.4368177354335785e-01 
      </Weights>
      <Biases rows="1" cols="1">
        -3.1007215380668640e-01 
      </Biases>
    </Layer>
  </Weights>
</MethodSetup>
