<?xml version="1.0"?>
<MethodSetup Method="DNN::DNN_NanoV9_V1_2020_BMET_x2_test">
  <GeneralInfo>
    <Info name="TMVA Release" value="4.2.1 [262657]"/>
    <Info name="ROOT Release" value="6.12/07 [396295]"/>
    <Info name="Creator" value="hum"/>
    <Info name="Date" value="Mon Feb 28 13:01:59 2022"/>
    <Info name="Host" value="Linux vocms0301.cern.ch 2.6.32-696.30.1.el6.x86_64 #1 SMP Tue May 22 06:09:36 CEST 2018 x86_64 x86_64 x86_64 GNU/Linux"/>
    <Info name="Dir" value="/afs/cern.ch/work/h/hum/public/CMSSW_10_2_13/src/ChargedHiggs/Analysis"/>
    <Info name="Training events" value="12551"/>
    <Info name="TrainingTime" value="5.35704899e+00"/>
    <Info name="AnalysisType" value="Classification"/>
  </GeneralInfo>
  <Options>
    <Option name="V" modified="Yes">True</Option>
    <Option name="VerbosityLevel" modified="No">Verbose</Option>
    <Option name="VarTransform" modified="Yes">N</Option>
    <Option name="H" modified="Yes">False</Option>
    <Option name="CreateMVAPdfs" modified="No">False</Option>
    <Option name="IgnoreNegWeightsInTraining" modified="No">False</Option>
    <Option name="Layout" modified="Yes">SIGMOID|16,TANH|16,TANH|16,LINEAR</Option>
    <Option name="ValidationSize" modified="No">20%</Option>
    <Option name="ErrorStrategy" modified="Yes">CROSSENTROPY</Option>
    <Option name="WeightInitialization" modified="Yes">XAVIERUNIFORM</Option>
    <Option name="Architecture" modified="Yes">CPU</Option>
    <Option name="TrainingStrategy" modified="Yes">LearningRate=1e-1,Momentum=0.4,Repetitions=1,ConvergenceSteps=20,BatchSize=256,TestRepetitions=10,WeightDecay=1e-4,Regularization=L2,DropConfig=0.0+0.1+0.25+0.5,</Option>
  </Options>
  <Variables NVar="11">
    <Variable VarIndex="0" Expression="j1QGL" Label="j1QGL" Title="j1QGL" Unit="" Internal="j1QGL" Type="F" Min="-1.00000000e+00" Max="1.00000000e+00"/>
    <Variable VarIndex="1" Expression="j2QGL" Label="j2QGL" Title="j2QGL" Unit="" Internal="j2QGL" Type="F" Min="-1.00000000e+00" Max="9.99511719e-01"/>
    <Variable VarIndex="2" Expression="varMjj" Label="varMjj" Title="varMjj" Unit="" Internal="varMjj" Type="F" Min="5.00027679e+02" Max="7.07509961e+03"/>
    <Variable VarIndex="3" Expression="varDetajj" Label="varDetajj" Title="varDetajj" Unit="" Internal="varDetajj" Type="F" Min="2.50073242e+00" Max="8.68750000e+00"/>
    <Variable VarIndex="4" Expression="varJet1Pt" Label="varJet1Pt" Title="varJet1Pt" Unit="" Internal="varJet1Pt" Type="F" Min="5.00312500e+01" Max="1.94400000e+03"/>
    <Variable VarIndex="5" Expression="abs(varJet2Eta)" Label="abs(varJet2Eta)" Title="abs(varJet2Eta)" Unit="" Internal="abs_varJet2Eta_" Type="F" Min="4.16946411e-03" Max="4.68847656e+00"/>
    <Variable VarIndex="6" Expression="varJet2Pt" Label="varJet2Pt" Title="varJet2Pt" Unit="" Internal="varJet2Pt" Type="F" Min="5.00000000e+01" Max="1.21300000e+03"/>
    <Variable VarIndex="7" Expression="varMTVV" Label="varMTVV" Title="varMTVV" Unit="" Internal="varMTVV" Type="F" Min="5.83506653e+02" Max="4.00659546e+03"/>
    <Variable VarIndex="8" Expression="varCen" Label="varCen" Title="varCen" Unit="" Internal="varCen" Type="F" Min="-1.99127197e+00" Max="4.08085442e+00"/>
    <Variable VarIndex="9" Expression="varDRV2j" Label="varDRV2j" Title="varDRV2j" Unit="" Internal="varDRV2j" Type="F" Min="1.20072842e+00" Max="4.76206589e+00"/>
    <Variable VarIndex="10" Expression="varnormPTVVjj" Label="varnormPTVVjj" Title="varnormPTVVjj" Unit="" Internal="varnormPTVVjj" Type="F" Min="5.32732869e-04" Max="2.49424726e-01"/>
  </Variables>
  <Spectators NSpec="0"/>
  <Classes NClass="2">
    <Class Name="Signal" Index="0"/>
    <Class Name="Background" Index="1"/>
  </Classes>
  <Transformations NTransformations="1">
    <Transform Name="Normalize">
      <Selection>
        <Input NInputs="11">
          <Input Type="Variable" Label="j1QGL" Expression="j1QGL"/>
          <Input Type="Variable" Label="j2QGL" Expression="j2QGL"/>
          <Input Type="Variable" Label="varMjj" Expression="varMjj"/>
          <Input Type="Variable" Label="varDetajj" Expression="varDetajj"/>
          <Input Type="Variable" Label="varJet1Pt" Expression="varJet1Pt"/>
          <Input Type="Variable" Label="abs(varJet2Eta)" Expression="abs(varJet2Eta)"/>
          <Input Type="Variable" Label="varJet2Pt" Expression="varJet2Pt"/>
          <Input Type="Variable" Label="varMTVV" Expression="varMTVV"/>
          <Input Type="Variable" Label="varCen" Expression="varCen"/>
          <Input Type="Variable" Label="varDRV2j" Expression="varDRV2j"/>
          <Input Type="Variable" Label="varnormPTVVjj" Expression="varnormPTVVjj"/>
        </Input>
        <Output NOutputs="11">
          <Output Type="Variable" Label="j1QGL" Expression="j1QGL"/>
          <Output Type="Variable" Label="j2QGL" Expression="j2QGL"/>
          <Output Type="Variable" Label="varMjj" Expression="varMjj"/>
          <Output Type="Variable" Label="varDetajj" Expression="varDetajj"/>
          <Output Type="Variable" Label="varJet1Pt" Expression="varJet1Pt"/>
          <Output Type="Variable" Label="abs(varJet2Eta)" Expression="abs(varJet2Eta)"/>
          <Output Type="Variable" Label="varJet2Pt" Expression="varJet2Pt"/>
          <Output Type="Variable" Label="varMTVV" Expression="varMTVV"/>
          <Output Type="Variable" Label="varCen" Expression="varCen"/>
          <Output Type="Variable" Label="varDRV2j" Expression="varDRV2j"/>
          <Output Type="Variable" Label="varnormPTVVjj" Expression="varnormPTVVjj"/>
        </Output>
      </Selection>
      <Class ClassIndex="0">
        <Ranges>
          <Range Index="0" Min="-1.0000000000000000e+00" Max="1.0000000000000000e+00"/>
          <Range Index="1" Min="-1.0000000000000000e+00" Max="9.9951171875000000e-01"/>
          <Range Index="2" Min="5.0002767944335938e+02" Max="7.0750996093750000e+03"/>
          <Range Index="3" Min="2.5007324218750000e+00" Max="8.6875000000000000e+00"/>
          <Range Index="4" Min="5.0031250000000000e+01" Max="1.6860000000000000e+03"/>
          <Range Index="5" Min="4.1694641113281250e-03" Max="4.6884765625000000e+00"/>
          <Range Index="6" Min="5.0000000000000000e+01" Max="1.2130000000000000e+03"/>
          <Range Index="7" Min="5.8350665283203125e+02" Max="4.0065954589843750e+03"/>
          <Range Index="8" Min="-1.9912719726562500e+00" Max="4.0808544158935547e+00"/>
          <Range Index="9" Min="1.2007284164428711e+00" Max="4.7620658874511719e+00"/>
          <Range Index="10" Min="9.0885261306539178e-04" Max="2.4731655418872833e-01"/>
        </Ranges>
      </Class>
      <Class ClassIndex="1">
        <Ranges>
          <Range Index="0" Min="-1.0000000000000000e+00" Max="1.0000000000000000e+00"/>
          <Range Index="1" Min="-1.0000000000000000e+00" Max="9.9951171875000000e-01"/>
          <Range Index="2" Min="5.0030410766601562e+02" Max="6.1605927734375000e+03"/>
          <Range Index="3" Min="2.5020751953125000e+00" Max="7.1733398437500000e+00"/>
          <Range Index="4" Min="5.1281250000000000e+01" Max="1.9440000000000000e+03"/>
          <Range Index="5" Min="1.3732910156250000e-02" Max="4.5917968750000000e+00"/>
          <Range Index="6" Min="5.0031250000000000e+01" Max="9.4700000000000000e+02"/>
          <Range Index="7" Min="5.8414392089843750e+02" Max="3.0335588378906250e+03"/>
          <Range Index="8" Min="-1.6416473388671875e+00" Max="3.4127807617187500e+00"/>
          <Range Index="9" Min="1.2013461589813232e+00" Max="4.0383768081665039e+00"/>
          <Range Index="10" Min="5.3273286903277040e-04" Max="2.4942472577095032e-01"/>
        </Ranges>
      </Class>
      <Class ClassIndex="2">
        <Ranges>
          <Range Index="0" Min="-1.0000000000000000e+00" Max="1.0000000000000000e+00"/>
          <Range Index="1" Min="-1.0000000000000000e+00" Max="9.9951171875000000e-01"/>
          <Range Index="2" Min="5.0002767944335938e+02" Max="7.0750996093750000e+03"/>
          <Range Index="3" Min="2.5007324218750000e+00" Max="8.6875000000000000e+00"/>
          <Range Index="4" Min="5.0031250000000000e+01" Max="1.9440000000000000e+03"/>
          <Range Index="5" Min="4.1694641113281250e-03" Max="4.6884765625000000e+00"/>
          <Range Index="6" Min="5.0000000000000000e+01" Max="1.2130000000000000e+03"/>
          <Range Index="7" Min="5.8350665283203125e+02" Max="4.0065954589843750e+03"/>
          <Range Index="8" Min="-1.9912719726562500e+00" Max="4.0808544158935547e+00"/>
          <Range Index="9" Min="1.2007284164428711e+00" Max="4.7620658874511719e+00"/>
          <Range Index="10" Min="5.3273286903277040e-04" Max="2.4942472577095032e-01"/>
        </Ranges>
      </Class>
    </Transform>
  </Transformations>
  <MVAPdfs/>
  <Weights InputWidth="11" Depth="4" LossFunction="C" OutputFunction="S">
    <Layer ActivationFunction="2">
      <Weights rows="16" cols="11">
        3.6804711818695068e-01 9.0510472655296326e-02 8.5922437906265259e-01 4.8716136813163757e-01 -1.7794217914342880e-02 -1.2236093170940876e-02 8.1281013786792755e-02 4.2739865183830261e-01 4.1105736047029495e-02 -2.0372088253498077e-01 -1.6194942593574524e-01 1.3898229598999023e-01 1.0463282465934753e-01 2.0342221260070801e+00 4.5859220623970032e-01 -4.5290243625640869e-01 -5.7973526418209076e-02 -1.6789415478706360e-01 1.1831970214843750e+00 6.4724689722061157e-01 -9.2542834579944611e-02 -1.0595580339431763e+00 -5.0030271522700787e-03 1.5282419323921204e-01 -1.5465550124645233e-01 -7.5227513909339905e-02 -1.5446913242340088e-01 3.3922624588012695e-01 3.1759092211723328e-01 -2.4489475786685944e-01 2.5886017084121704e-01 -1.8366096913814545e-01 6.9114528596401215e-02 -2.0517836511135101e-01 5.5223584175109863e-02 1.0842718183994293e-01 -2.4670234322547913e-01 -2.0178690552711487e-01 3.7900921702384949e-01 2.0996662974357605e-01 -4.1212182492017746e-02 1.9762898981571198e-01 -2.5523549318313599e-01 -2.2192819416522980e-01 -1.2780191376805305e-02 -4.9492076039314270e-01 -8.3212327957153320e-01 -4.8282569646835327e-01 1.2142443656921387e-01 1.4667771756649017e-02 -3.2932624220848083e-01 -1.2252371013164520e-01 -6.2010216712951660e-01 1.2313765473663807e-02 4.3216380476951599e-01 -1.6252562403678894e-01 5.4202739149332047e-02 -5.4481691122055054e-01 -2.8000631928443909e-01 6.8768620491027832e-02 2.9412126168608665e-02 2.3275823891162872e-01 -5.1162868738174438e-01 -7.0910818874835968e-02 3.6806020140647888e-01 1.6140377521514893e-01 7.0965118706226349e-02 6.7741423845291138e-02 5.8701080083847046e-01 -1.7348654568195343e-01 2.0535129308700562e-01 3.9316173642873764e-02 9.6414700150489807e-02 2.2550009191036224e-01 1.6588048636913300e-01 5.3938012570142746e-02 -3.4427630901336670e-01 -5.5921471118927002e-01 -7.4791502952575684e-01 -1.0032927989959717e+00 -5.1402407884597778e-01 -2.5803205370903015e-01 1.5877944231033325e-01 8.9911788702011108e-02 -7.9965323209762573e-01 -2.7052745223045349e-01 6.1448357999324799e-02 7.2985386848449707e-01 2.5401392579078674e-01 2.5528705120086670e-01 8.5351389646530151e-01 1.3366302847862244e-01 2.5941953063011169e-01 -2.5181645154953003e-01 -6.6347680985927582e-02 4.7328212857246399e-01 -5.7615891098976135e-02 -3.0280622839927673e-01 2.4826472997665405e-01 -7.6503157615661621e-02 -4.0264922380447388e-01 -8.0395966768264771e-01 3.5160368680953979e-01 -1.3487505912780762e-01 3.3149808645248413e-01 -2.2138854861259460e-01 -4.5199880003929138e-01 9.0929120779037476e-02 -9.8368540406227112e-02 4.9620404839515686e-01 -4.0904366970062256e-01 -6.1704777181148529e-02 -6.5432494878768921e-01 3.2823336124420166e-01 -6.8222889676690102e-03 1.5091343224048615e-01 -1.8318127095699310e-01 -4.0853592753410339e-01 -8.1227391958236694e-02 1.5345332026481628e-01 -9.1024227440357208e-02 -8.6946144700050354e-02 -6.1341637372970581e-01 -1.0129466056823730e+00 -5.2365440130233765e-01 -1.8405513465404510e-01 2.6149445772171021e-01 1.5447059273719788e-01 -3.4330636262893677e-01 -6.8948961794376373e-02 -7.8536070883274078e-02 6.5111249685287476e-01 -2.7281582355499268e-01 -5.1867413520812988e-01 -3.7794107198715210e-01 -2.6310399174690247e-01 -2.8788802027702332e-01 -1.8410997465252876e-02 -1.0604422539472580e-02 -4.3698093295097351e-01 8.2970127463340759e-02 4.0561437606811523e-01 1.1582732200622559e-02 5.2461707592010498e-01 -6.3519567251205444e-02 1.0646054744720459e+00 5.8240765333175659e-01 1.8006290495395660e-01 8.5977036505937576e-03 2.5937157869338989e-01 7.2516727447509766e-01 5.8525198698043823e-01 -4.4396862387657166e-01 -6.9843226671218872e-01 -2.8200963139533997e-01 -2.2892902791500092e-01 -3.9001712203025818e-01 2.8731262683868408e-01 -1.1957575567066669e-02 -1.1671862006187439e-01 -3.6108371615409851e-01 -3.1472244858741760e-01 1.7577797174453735e-01 -6.9217391312122345e-02 3.6681345105171204e-01 -8.6190856993198395e-02 2.5292786955833435e-01 1.2580903768539429e+00 -1.2937298417091370e-01 3.3304024487733841e-02 5.0266351550817490e-02 4.6460300683975220e-02 5.0337147712707520e-01 5.7850009202957153e-01 -3.1952002644538879e-01 -3.5164460539817810e-01 
      </Weights>
      <Biases rows="16" cols="1">
        1.1944430321455002e-01 6.3831079006195068e-01 -1.4446386694908142e-01 -1.1525140702724457e-01 -2.5573617219924927e-01 -1.9898462295532227e-01 -2.3911247029900551e-02 -3.4190925955772400e-01 3.0579885840415955e-01 -2.5944674015045166e-01 -3.2780513167381287e-01 -1.7254409193992615e-01 -1.9595329463481903e-01 5.3356140851974487e-01 -1.9617131352424622e-01 3.1082904338836670e-01 
      </Biases>
    </Layer>
    <Layer ActivationFunction="3">
      <Weights rows="16" cols="16">
        3.1322053074836731e-01 4.9150180816650391e-01 2.9081385582685471e-03 1.3743038475513458e-01 -3.0191460624337196e-02 -1.7868709564208984e-01 -4.1429717093706131e-02 -2.3941428959369659e-01 6.6327773034572601e-02 -2.9926255345344543e-01 -2.6152837276458740e-01 -3.0148804187774658e-01 -1.2795142829418182e-01 5.7511341571807861e-01 -1.8179582431912422e-02 1.2328731268644333e-01 -1.1456617712974548e-01 -7.7576977014541626e-01 2.1245850622653961e-01 1.7143124341964722e-01 1.4958594739437103e-01 -1.0422587394714355e-01 -2.3651704192161560e-02 2.7398100495338440e-01 -4.2059460282325745e-01 7.1138054132461548e-02 1.0510183125734329e-01 4.2476072907447815e-01 3.1224167346954346e-01 -5.2447217702865601e-01 3.2035744190216064e-01 -5.7505369186401367e-01 1.2178850360214710e-02 3.7387069314718246e-02 6.8485818803310394e-02 4.6193744987249374e-02 -1.9435580074787140e-01 -3.2038480043411255e-01 3.0606359243392944e-01 -1.5219481661915779e-02 -4.6275250613689423e-02 2.2991645336151123e-01 -2.7363425493240356e-01 -2.4765063822269440e-01 2.9769176244735718e-01 -1.7392700910568237e-01 -1.0998053103685379e-01 -1.0394895076751709e-01 1.6113539040088654e-01 -2.2482972592115402e-02 -1.5286560356616974e-01 2.4763031303882599e-01 -2.0297795534133911e-01 -1.0225975513458252e-01 5.3658403456211090e-02 1.2556376866996288e-02 1.9518359005451202e-01 -2.0848245918750763e-01 -1.3553270697593689e-01 -2.9927745461463928e-02 2.2114036604762077e-02 2.4458929896354675e-01 -2.4404011666774750e-01 1.5497240424156189e-01 2.8912153840065002e-01 9.7755968570709229e-02 -7.8833632171154022e-02 2.3611592128872871e-02 9.3925617635250092e-02 -2.6852017641067505e-01 3.1741153448820114e-02 -5.8380682021379471e-02 -8.1765376031398773e-02 -5.8698318898677826e-03 3.4730270504951477e-02 6.9905832409858704e-02 -1.7932488024234772e-01 -2.4904621765017509e-02 -2.5956612825393677e-01 2.2547680139541626e-01 -4.9442535638809204e-01 -6.6474181413650513e-01 -3.8702394813299179e-02 3.1197953224182129e-01 -7.6112039387226105e-02 1.3731010258197784e-01 -3.5273697972297668e-01 2.4772064387798309e-01 -2.3340398073196411e-01 8.2651212811470032e-02 3.9943736791610718e-01 3.3384704589843750e-01 3.1057783961296082e-01 -5.4244959354400635e-01 2.1255951374769211e-02 -2.1489609777927399e-01 1.7668488621711731e-01 5.9518420696258545e-01 2.3075705766677856e-01 7.8732021152973175e-02 2.1056238561868668e-02 -2.6755461096763611e-01 4.6988019347190857e-01 -2.0857322216033936e-01 6.6813182830810547e-01 -4.0769329667091370e-01 -4.1454082727432251e-01 2.3712405934929848e-02 -3.5574421286582947e-01 6.9225019216537476e-01 -3.5348960757255554e-01 6.0791772603988647e-01 -2.7725630998611450e-01 3.8112452626228333e-01 -1.2602397799491882e-01 2.0361566543579102e-01 -2.5618761777877808e-01 -2.4912020564079285e-01 2.8657928109169006e-02 2.0766075700521469e-02 -1.9408509135246277e-01 2.0764337480068207e-01 -2.6720771193504333e-01 -7.3038361966609955e-02 -1.7713087797164917e-01 -5.0435751676559448e-02 1.2747755646705627e-01 3.3753648400306702e-01 4.0083217620849609e-01 6.6987133026123047e-01 -2.8961303830146790e-01 1.0100247710943222e-01 -1.1780171189457178e-03 -3.0025359988212585e-01 2.0427905023097992e-01 -2.7662184834480286e-01 2.9015711043030024e-03 -2.3844495415687561e-01 -2.2514565289020538e-01 -2.6404899358749390e-01 2.4028938263654709e-02 4.7578734159469604e-01 -2.6803189516067505e-01 4.0689787268638611e-01 -3.7724539637565613e-01 -4.9473172426223755e-01 2.4782499670982361e-01 2.7732869982719421e-01 -9.9951356649398804e-02 1.2474408000707626e-01 -1.0578864254057407e-02 2.4454012513160706e-01 -2.7360337972640991e-01 6.5056659281253815e-02 4.7195903956890106e-02 -2.2155063226819038e-02 7.0791259407997131e-02 1.1726059764623642e-01 9.2261042445898056e-03 -2.3298950493335724e-01 -4.7613897919654846e-01 -5.5364489555358887e-01 2.0935596525669098e-01 -8.2876622676849365e-02 1.4256316423416138e-01 -1.5759132802486420e-01 -4.7780793160200119e-02 2.9657578468322754e-01 -5.3170961141586304e-01 2.4088765680789948e-01 3.2180577516555786e-01 3.3988781273365021e-02 8.7462276220321655e-02 -6.0121845453977585e-02 2.9275422915816307e-02 -3.5840654373168945e-01 1.6315090656280518e-01 1.0895048826932907e-01 1.0894093662500381e-01 -2.4432049691677094e-01 1.5249465405941010e-01 1.6375795006752014e-01 -2.5837013125419617e-01 -1.5636160969734192e-01 1.7609681934118271e-02 1.5094384551048279e-01 -3.9611309766769409e-01 -2.9163849353790283e-01 1.6277371346950531e-01 1.4606763422489166e-01 -4.6567235141992569e-02 1.1655084043741226e-01 7.8395955264568329e-02 7.0178538560867310e-02 -3.1587424874305725e-01 3.9662353694438934e-02 -3.2409611344337463e-01 -1.8036246299743652e-02 1.8936862051486969e-01 -5.3767831996083260e-03 -2.4588978290557861e-01 5.6645004078745842e-03 9.5988638699054718e-02 2.7659443020820618e-01 -1.4481852948665619e-01 1.9866703450679779e-01 2.9291909933090210e-01 1.6546468436717987e-01 1.1696217209100723e-01 -4.7450858354568481e-01 -1.6850359737873077e-01 -8.0734817311167717e-03 2.4336779117584229e-01 -1.1638195812702179e-01 2.4925623834133148e-01 5.4375402629375458e-02 2.1228063106536865e-01 2.9351446032524109e-01 -5.5035989731550217e-02 3.5538166761398315e-01 -4.7666564583778381e-02 3.1418125145137310e-03 -8.3115592598915100e-02 -9.0905874967575073e-02 -1.4776198565959930e-01 -4.9975559115409851e-01 -8.5019506514072418e-04 -2.8907667845487595e-02 -5.3477715700864792e-02 -8.6979560554027557e-02 -6.8904340267181396e-02 5.0831663608551025e-01 -5.2675181627273560e-01 3.9575266838073730e-01 2.2800960578024387e-03 5.8941796422004700e-02 2.0152013748884201e-02 -4.2790201306343079e-01 1.4643639326095581e-02 -5.4149162769317627e-01 -1.1513347178697586e-01 -8.8856595754623413e-01 1.4246679842472076e-01 2.3190985620021820e-01 2.6244062185287476e-01 3.6442422866821289e-01 2.4550023674964905e-01 4.2998474836349487e-01 1.2938827276229858e-01 1.6144630312919617e-01 -2.6190770789980888e-02 1.7088486254215240e-01 7.9148963093757629e-02 -2.1034431457519531e-01 -4.4984612613916397e-02 -2.6559656858444214e-01 
      </Weights>
      <Biases rows="16" cols="1">
        4.7275438904762268e-02 -2.2211852669715881e-01 1.2052839621901512e-02 1.4798687398433685e-01 -7.8166779130697250e-03 -1.7635807394981384e-01 2.2680209577083588e-01 8.2572951912879944e-02 1.2762272357940674e-01 -4.7880588099360466e-03 -1.2552349269390106e-01 2.7727505657821894e-03 -4.3769404292106628e-02 2.6781637221574783e-02 -7.3208093643188477e-02 -2.1707192063331604e-02 
      </Biases>
    </Layer>
    <Layer ActivationFunction="3">
      <Weights rows="16" cols="16">
        2.7265539765357971e-01 -7.7406540513038635e-02 1.4154264330863953e-01 2.1533189713954926e-01 -9.2165566980838776e-02 -1.2211552262306213e-01 -3.2720651477575302e-02 -9.6331154927611351e-03 -5.4277598857879639e-02 -1.3767352700233459e-01 -2.6719966903328896e-02 -7.1750722825527191e-02 1.9131777808070183e-02 1.6931067407131195e-01 4.4426821172237396e-02 -3.4835064411163330e-01 1.9225174188613892e-01 -1.8156829476356506e-01 3.3321443200111389e-01 2.2255240008234978e-02 2.3978230357170105e-01 -2.2143268585205078e-01 5.3524687886238098e-02 1.2567986547946930e-01 -8.2111842930316925e-02 -1.1598333716392517e-01 -1.9035443663597107e-01 3.7771070003509521e-01 1.5582205355167389e-01 -3.4072861075401306e-01 2.5957173109054565e-01 -2.9386377334594727e-01 1.2426681816577911e-01 -1.6955663263797760e-01 1.8621622025966644e-01 4.9162603681907058e-04 -2.1231056749820709e-01 -2.4998213350772858e-01 4.5010757446289062e-01 -7.6412716880440712e-03 -2.7037892490625381e-02 1.6043497622013092e-01 -2.3759338259696960e-01 -1.4532507956027985e-01 1.4379042387008667e-01 -2.8511682152748108e-01 -2.0706474781036377e-01 -2.2000810503959656e-01 4.3925029039382935e-01 -8.9497625827789307e-02 -1.8982283771038055e-01 1.1121242493391037e-01 -1.4669792354106903e-01 -1.4083023369312286e-01 5.3844094276428223e-01 -2.8650137782096863e-01 2.1989703178405762e-01 -3.1576812267303467e-01 -3.9691206812858582e-01 2.5400985032320023e-03 -9.3977116048336029e-02 -8.7889671325683594e-02 -7.0272755622863770e-01 -1.0564789921045303e-01 2.1374452114105225e-01 5.2832264453172684e-02 -8.0831855535507202e-02 2.6954123750329018e-02 9.1575086116790771e-02 -1.6919577121734619e-01 -1.1194726452231407e-02 1.3199801323935390e-03 -1.3276524841785431e-01 -3.5210177302360535e-02 1.1487471312284470e-01 6.9959387183189392e-02 -2.3987697064876556e-01 3.6994855850934982e-02 -2.1134349703788757e-01 2.2358581423759460e-01 -3.6991015076637268e-01 -1.0971865057945251e-01 -7.0826485753059387e-02 2.5671976804733276e-01 -8.2344159483909607e-02 -1.6263160854578018e-02 -3.1646329164505005e-01 1.4152438938617706e-01 -3.8790814578533173e-03 -3.2296240329742432e-02 2.0728176832199097e-01 1.3150049746036530e-01 2.0608910918235779e-01 -2.0421281456947327e-01 -1.2865185737609863e-01 1.4423407614231110e-01 -7.7399775385856628e-02 -5.4524775594472885e-02 2.9129919409751892e-01 1.3936078548431396e-01 -7.9713754355907440e-02 -1.4639663696289062e-01 3.0822980403900146e-01 -1.4765559136867523e-01 2.7160996198654175e-01 -1.4545005559921265e-01 -9.4144620001316071e-02 1.9702158868312836e-01 -2.1321241557598114e-01 2.5779372453689575e-01 -2.0685604214668274e-01 8.8661320507526398e-02 -3.5707128047943115e-01 2.8124919533729553e-01 -1.9663271307945251e-01 1.8380314111709595e-01 -2.3752763867378235e-01 -2.0641911029815674e-01 -4.6378947794437408e-02 5.6943997740745544e-02 -2.3818901181221008e-01 1.5086710453033447e-01 -2.5481536984443665e-01 -6.8997837603092194e-02 -2.1219989657402039e-01 -6.7109562456607819e-02 1.7187201976776123e-01 3.0750072002410889e-01 5.8150839060544968e-02 2.6797738671302795e-01 -3.0528399348258972e-01 2.7686089277267456e-01 -4.3358244001865387e-02 -9.9001541733741760e-02 9.4189561903476715e-02 -1.8844534456729889e-01 -3.0287185311317444e-01 3.0145004391670227e-02 1.2356071174144745e-01 -1.7340010404586792e-01 1.9035041332244873e-01 3.8920649886131287e-01 -8.8169895112514496e-02 2.6123109459877014e-01 -3.9487153291702271e-01 -2.1542432904243469e-01 1.5156662464141846e-01 2.1024511754512787e-01 -1.1082260310649872e-01 1.8755464255809784e-01 -4.3004438281059265e-02 1.7539156973361969e-01 -2.4656194448471069e-01 -2.2529404610395432e-02 -2.1778762340545654e-02 -1.1436083912849426e-01 -1.1290867812931538e-02 3.3101418614387512e-01 3.7406861782073975e-02 -4.8034708946943283e-02 -1.8202117085456848e-01 -1.4877735078334808e-01 2.6386231184005737e-01 -1.7558436095714569e-01 1.7185996472835541e-01 -3.3943709731101990e-01 7.3080189526081085e-02 2.1268188953399658e-01 -2.1768727898597717e-01 2.5095758959650993e-02 3.7801906466484070e-02 -3.2515306025743484e-02 -4.0029186755418777e-02 1.5770973265171051e-01 -1.8476009368896484e-01 -1.3825219869613647e-01 -6.8410798907279968e-02 -1.8668383359909058e-02 2.6960795745253563e-02 -1.6903318464756012e-01 1.7064549028873444e-01 3.2371872663497925e-01 -3.3912107348442078e-01 -6.4905330538749695e-02 -1.2120317667722702e-01 2.4734194576740265e-01 -2.6234674453735352e-01 -2.7842369675636292e-01 1.8805955350399017e-01 1.9294910132884979e-01 7.2790965437889099e-02 1.5352755784988403e-01 5.0320219248533249e-02 1.3556921482086182e-01 -3.4875077009201050e-01 5.2633177489042282e-02 -3.0369240045547485e-01 1.1179560795426369e-02 2.2478124499320984e-01 -2.0696090068668127e-03 -2.1151907742023468e-01 -2.4910536594688892e-03 1.2625750899314880e-01 2.5494900345802307e-01 -1.2774029374122620e-01 3.0196014046669006e-01 3.0239000916481018e-01 2.7957803010940552e-01 3.4143978357315063e-01 -2.2126789391040802e-01 -1.0325643420219421e-01 -9.2366211116313934e-02 2.5682392716407776e-01 -2.4407976865768433e-01 3.8106113672256470e-01 -1.2231022119522095e-01 3.3475232124328613e-01 1.9403599202632904e-01 -2.4401044845581055e-01 2.9899817705154419e-01 -1.6346232593059540e-01 2.7026934549212456e-04 -2.5834780931472778e-01 -2.0262839272618294e-02 1.7812380194664001e-01 -1.5972289443016052e-01 -1.6292408108711243e-03 -1.4226685464382172e-01 -3.0734183266758919e-02 -8.5613623261451721e-02 4.4715862721204758e-02 2.2134545445442200e-01 -1.6743567585945129e-01 3.5309262573719025e-02 -3.0016759037971497e-01 -2.9584202915430069e-02 -2.6383200287818909e-01 -1.3504603505134583e-01 -1.2033393234014511e-01 -3.1296706199645996e-01 8.8174760341644287e-02 -2.3728765547275543e-01 5.6307811290025711e-02 1.3924388587474823e-01 2.6997786760330200e-01 1.5385404229164124e-01 2.6635438203811646e-01 2.0078030228614807e-01 2.0692342519760132e-01 1.0209293663501740e-01 -2.9361668229103088e-01 6.3942833803594112e-03 7.1122959256172180e-02 -7.3808148503303528e-02 -1.7357812821865082e-01 -1.4221276156604290e-02 
      </Weights>
      <Biases rows="16" cols="1">
        -5.2585527300834656e-02 4.3705371208488941e-03 7.4211843311786652e-02 3.0426520109176636e-01 -6.1042897868901491e-04 1.5244637615978718e-02 -2.5655237957835197e-02 -5.2047003060579300e-02 2.8750851750373840e-02 2.1689936518669128e-02 -7.5475974008440971e-03 8.5720375180244446e-02 5.7678505778312683e-02 5.8766722679138184e-02 6.3718356192111969e-02 1.9502155482769012e-03 
      </Biases>
    </Layer>
    <Layer ActivationFunction="0">
      <Weights rows="1" cols="16">
        4.6330195665359497e-01 3.1656739115715027e-01 3.2542032003402710e-01 7.1363556385040283e-01 -7.8765720129013062e-02 -8.6713492870330811e-02 -2.5717331096529961e-02 -9.9138945341110229e-02 -4.0571466088294983e-01 -3.1448999047279358e-01 2.3662796616554260e-01 -3.2940831780433655e-01 -2.1782456338405609e-01 2.1063511073589325e-01 3.6193267442286015e-03 2.4963435530662537e-01 
      </Weights>
      <Biases rows="1" cols="1">
        -5.7217463850975037e-02 
      </Biases>
    </Layer>
  </Weights>
</MethodSetup>
