<?xml version="1.0"?>
<MethodSetup Method="DNN::DNN_NanoV9_V1_2020_BMET_x0">
  <GeneralInfo>
    <Info name="TMVA Release" value="4.2.1 [262657]"/>
    <Info name="ROOT Release" value="6.12/07 [396295]"/>
    <Info name="Creator" value="hum"/>
    <Info name="Date" value="Mon Feb 28 12:55:56 2022"/>
    <Info name="Host" value="Linux vocms0301.cern.ch 2.6.32-696.30.1.el6.x86_64 #1 SMP Tue May 22 06:09:36 CEST 2018 x86_64 x86_64 x86_64 GNU/Linux"/>
    <Info name="Dir" value="/afs/cern.ch/work/h/hum/public/CMSSW_10_2_13/src/ChargedHiggs/Analysis"/>
    <Info name="Training events" value="12714"/>
    <Info name="TrainingTime" value="4.54838490e+00"/>
    <Info name="AnalysisType" value="Classification"/>
  </GeneralInfo>
  <Options>
    <Option name="V" modified="Yes">True</Option>
    <Option name="VerbosityLevel" modified="No">Verbose</Option>
    <Option name="VarTransform" modified="Yes">N</Option>
    <Option name="H" modified="Yes">False</Option>
    <Option name="CreateMVAPdfs" modified="No">False</Option>
    <Option name="IgnoreNegWeightsInTraining" modified="No">False</Option>
    <Option name="Layout" modified="Yes">SIGMOID|32,TANH|16,TANH|16,LINEAR</Option>
    <Option name="ValidationSize" modified="No">20%</Option>
    <Option name="ErrorStrategy" modified="Yes">CROSSENTROPY</Option>
    <Option name="WeightInitialization" modified="Yes">XAVIERUNIFORM</Option>
    <Option name="Architecture" modified="Yes">CPU</Option>
    <Option name="TrainingStrategy" modified="Yes">LearningRate=1e-1,Momentum=0.4,Repetitions=1,ConvergenceSteps=20,BatchSize=256,TestRepetitions=10,WeightDecay=1e-4,Regularization=L2,DropConfig=0.0+0.1+0.25+0.5,</Option>
  </Options>
  <Variables NVar="11">
    <Variable VarIndex="0" Expression="j1QGL" Label="j1QGL" Title="j1QGL" Unit="" Internal="j1QGL" Type="F" Min="-1.00000000e+00" Max="1.00000000e+00"/>
    <Variable VarIndex="1" Expression="j2QGL" Label="j2QGL" Title="j2QGL" Unit="" Internal="j2QGL" Type="F" Min="-1.00000000e+00" Max="9.99511719e-01"/>
    <Variable VarIndex="2" Expression="varMjj" Label="varMjj" Title="varMjj" Unit="" Internal="varMjj" Type="F" Min="5.00013641e+02" Max="7.07509961e+03"/>
    <Variable VarIndex="3" Expression="varDetajj" Label="varDetajj" Title="varDetajj" Unit="" Internal="varDetajj" Type="F" Min="2.50036621e+00" Max="8.68750000e+00"/>
    <Variable VarIndex="4" Expression="varJet1Pt" Label="varJet1Pt" Title="varJet1Pt" Unit="" Internal="varJet1Pt" Type="F" Min="5.12812500e+01" Max="1.95400000e+03"/>
    <Variable VarIndex="5" Expression="abs(varJet2Eta)" Label="abs(varJet2Eta)" Title="abs(varJet2Eta)" Unit="" Internal="abs_varJet2Eta_" Type="F" Min="2.68816948e-04" Max="4.68554688e+00"/>
    <Variable VarIndex="6" Expression="varJet2Pt" Label="varJet2Pt" Title="varJet2Pt" Unit="" Internal="varJet2Pt" Type="F" Min="5.00000000e+01" Max="1.31400000e+03"/>
    <Variable VarIndex="7" Expression="varMTVV" Label="varMTVV" Title="varMTVV" Unit="" Internal="varMTVV" Type="F" Min="5.84729919e+02" Max="4.15952832e+03"/>
    <Variable VarIndex="8" Expression="varCen" Label="varCen" Title="varCen" Unit="" Internal="varCen" Type="F" Min="-1.85156250e+00" Max="4.30202484e+00"/>
    <Variable VarIndex="9" Expression="varDRV2j" Label="varDRV2j" Title="varDRV2j" Unit="" Internal="varDRV2j" Type="F" Min="1.20115197e+00" Max="4.58880568e+00"/>
    <Variable VarIndex="10" Expression="varnormPTVVjj" Label="varnormPTVVjj" Title="varnormPTVVjj" Unit="" Internal="varnormPTVVjj" Type="F" Min="4.41970478e-04" Max="2.49424726e-01"/>
  </Variables>
  <Spectators NSpec="0"/>
  <Classes NClass="2">
    <Class Name="Signal" Index="0"/>
    <Class Name="Background" Index="1"/>
  </Classes>
  <Transformations NTransformations="1">
    <Transform Name="Normalize">
      <Selection>
        <Input NInputs="11">
          <Input Type="Variable" Label="j1QGL" Expression="j1QGL"/>
          <Input Type="Variable" Label="j2QGL" Expression="j2QGL"/>
          <Input Type="Variable" Label="varMjj" Expression="varMjj"/>
          <Input Type="Variable" Label="varDetajj" Expression="varDetajj"/>
          <Input Type="Variable" Label="varJet1Pt" Expression="varJet1Pt"/>
          <Input Type="Variable" Label="abs(varJet2Eta)" Expression="abs(varJet2Eta)"/>
          <Input Type="Variable" Label="varJet2Pt" Expression="varJet2Pt"/>
          <Input Type="Variable" Label="varMTVV" Expression="varMTVV"/>
          <Input Type="Variable" Label="varCen" Expression="varCen"/>
          <Input Type="Variable" Label="varDRV2j" Expression="varDRV2j"/>
          <Input Type="Variable" Label="varnormPTVVjj" Expression="varnormPTVVjj"/>
        </Input>
        <Output NOutputs="11">
          <Output Type="Variable" Label="j1QGL" Expression="j1QGL"/>
          <Output Type="Variable" Label="j2QGL" Expression="j2QGL"/>
          <Output Type="Variable" Label="varMjj" Expression="varMjj"/>
          <Output Type="Variable" Label="varDetajj" Expression="varDetajj"/>
          <Output Type="Variable" Label="varJet1Pt" Expression="varJet1Pt"/>
          <Output Type="Variable" Label="abs(varJet2Eta)" Expression="abs(varJet2Eta)"/>
          <Output Type="Variable" Label="varJet2Pt" Expression="varJet2Pt"/>
          <Output Type="Variable" Label="varMTVV" Expression="varMTVV"/>
          <Output Type="Variable" Label="varCen" Expression="varCen"/>
          <Output Type="Variable" Label="varDRV2j" Expression="varDRV2j"/>
          <Output Type="Variable" Label="varnormPTVVjj" Expression="varnormPTVVjj"/>
        </Output>
      </Selection>
      <Class ClassIndex="0">
        <Ranges>
          <Range Index="0" Min="-1.0000000000000000e+00" Max="1.0000000000000000e+00"/>
          <Range Index="1" Min="-1.0000000000000000e+00" Max="9.9951171875000000e-01"/>
          <Range Index="2" Min="5.0001364135742188e+02" Max="7.0750996093750000e+03"/>
          <Range Index="3" Min="2.5003662109375000e+00" Max="8.6875000000000000e+00"/>
          <Range Index="4" Min="5.1593750000000000e+01" Max="1.7640000000000000e+03"/>
          <Range Index="5" Min="3.4251213073730469e-03" Max="4.6855468750000000e+00"/>
          <Range Index="6" Min="5.0000000000000000e+01" Max="8.0950000000000000e+02"/>
          <Range Index="7" Min="5.8472991943359375e+02" Max="4.1595283203125000e+03"/>
          <Range Index="8" Min="-1.7744750976562500e+00" Max="4.3020248413085938e+00"/>
          <Range Index="9" Min="1.2011519670486450e+00" Max="4.5888056755065918e+00"/>
          <Range Index="10" Min="4.4197047827765346e-04" Max="2.3935316503047943e-01"/>
        </Ranges>
      </Class>
      <Class ClassIndex="1">
        <Ranges>
          <Range Index="0" Min="-1.0000000000000000e+00" Max="9.9951171875000000e-01"/>
          <Range Index="1" Min="-1.0000000000000000e+00" Max="9.9951171875000000e-01"/>
          <Range Index="2" Min="5.0034268188476562e+02" Max="6.1605927734375000e+03"/>
          <Range Index="3" Min="2.5010986328125000e+00" Max="7.8945312500000000e+00"/>
          <Range Index="4" Min="5.1281250000000000e+01" Max="1.9540000000000000e+03"/>
          <Range Index="5" Min="2.6881694793701172e-04" Max="4.5917968750000000e+00"/>
          <Range Index="6" Min="5.0062500000000000e+01" Max="1.3140000000000000e+03"/>
          <Range Index="7" Min="5.8688348388671875e+02" Max="3.0335588378906250e+03"/>
          <Range Index="8" Min="-1.8515625000000000e+00" Max="3.6512451171875000e+00"/>
          <Range Index="9" Min="1.2013461589813232e+00" Max="4.1458735466003418e+00"/>
          <Range Index="10" Min="6.9583830190822482e-04" Max="2.4942472577095032e-01"/>
        </Ranges>
      </Class>
      <Class ClassIndex="2">
        <Ranges>
          <Range Index="0" Min="-1.0000000000000000e+00" Max="1.0000000000000000e+00"/>
          <Range Index="1" Min="-1.0000000000000000e+00" Max="9.9951171875000000e-01"/>
          <Range Index="2" Min="5.0001364135742188e+02" Max="7.0750996093750000e+03"/>
          <Range Index="3" Min="2.5003662109375000e+00" Max="8.6875000000000000e+00"/>
          <Range Index="4" Min="5.1281250000000000e+01" Max="1.9540000000000000e+03"/>
          <Range Index="5" Min="2.6881694793701172e-04" Max="4.6855468750000000e+00"/>
          <Range Index="6" Min="5.0000000000000000e+01" Max="1.3140000000000000e+03"/>
          <Range Index="7" Min="5.8472991943359375e+02" Max="4.1595283203125000e+03"/>
          <Range Index="8" Min="-1.8515625000000000e+00" Max="4.3020248413085938e+00"/>
          <Range Index="9" Min="1.2011519670486450e+00" Max="4.5888056755065918e+00"/>
          <Range Index="10" Min="4.4197047827765346e-04" Max="2.4942472577095032e-01"/>
        </Ranges>
      </Class>
    </Transform>
  </Transformations>
  <MVAPdfs/>
  <Weights InputWidth="11" Depth="4" LossFunction="C" OutputFunction="S">
    <Layer ActivationFunction="2">
      <Weights rows="32" cols="11">
        6.1562895774841309e-02 -4.1046026349067688e-01 -5.3075653314590454e-01 1.1811719834804535e-01 3.7386971712112427e-01 -1.0781860351562500e-01 -1.4904293417930603e-01 -1.1753255128860474e-01 -4.1453230381011963e-01 -2.5564390420913696e-01 2.1320360898971558e-01 -4.0920653939247131e-01 6.9695778191089630e-02 -3.9195939898490906e-01 1.8489470705389977e-02 -2.0877252519130707e-01 -3.2028672099113464e-01 1.8599510192871094e-01 -4.9661326408386230e-01 -2.1196752786636353e-01 9.9158310331404209e-04 1.9156067073345184e-01 -4.0681460499763489e-01 -2.7484267950057983e-01 -1.7876793444156647e-01 -5.6194639764726162e-03 -1.0442347079515457e-01 -2.1096891164779663e-01 -3.4782946109771729e-01 -1.1014258116483688e-01 -1.2638254463672638e-01 9.6415892243385315e-02 1.9128634035587311e-01 -2.4518668651580811e-01 -5.5389052629470825e-01 -4.3528288602828979e-01 1.7291277647018433e-01 -2.0943988859653473e-01 1.5720681846141815e-01 -3.7958168983459473e-01 -3.9201831817626953e-01 -1.8042688071727753e-01 -1.3838270679116249e-02 1.0282565653324127e-01 -4.0716317296028137e-01 -2.5798666477203369e-01 -1.2077267467975616e-01 -4.0321940183639526e-01 -3.9581829309463501e-01 -1.0087806731462479e-01 3.0011618137359619e-01 -2.9131162166595459e-01 2.4820972979068756e-01 -2.7978020906448364e-01 7.3527984321117401e-02 2.4754862487316132e-01 2.6293972134590149e-01 1.1319794654846191e+00 2.6924714446067810e-01 -2.8845873475074768e-01 -1.1993514001369476e-01 3.4292051196098328e-01 7.9383635520935059e-01 5.5363309383392334e-01 1.1703576147556305e-01 -7.5828653573989868e-01 1.5346333384513855e-01 -6.6348063945770264e-01 -7.3370838165283203e-01 -1.7481948435306549e-01 -1.8975433707237244e-01 1.3595303893089294e-01 -4.0790930390357971e-01 -3.5532784461975098e-01 -1.1863120831549168e-02 2.9436790943145752e-01 3.8780137896537781e-01 3.9799600839614868e-01 3.1309953331947327e-01 5.6497859954833984e-01 -2.7272526174783707e-02 1.0527161508798599e-01 -3.9564016461372375e-01 5.1601207256317139e-01 6.0702776908874512e-01 -1.6770464181900024e-01 1.3436239957809448e-01 -2.7250203490257263e-01 2.6354959607124329e-01 -1.2651095166802406e-03 1.2101001739501953e+00 1.8613888323307037e-01 -6.6738098859786987e-02 -3.0594953894615173e-01 3.8255997002124786e-02 6.4578729867935181e-01 3.3935335278511047e-01 -3.7200769782066345e-01 -6.3951432704925537e-01 -3.2619124650955200e-01 -4.5323017239570618e-01 7.1569782495498657e-01 1.1180271208286285e-01 3.0999019742012024e-01 4.9197215586900711e-02 -1.1758801341056824e-01 4.6711432933807373e-01 6.3975316286087036e-01 1.3983078300952911e-01 -5.7399195432662964e-01 3.2795336842536926e-01 4.9541929364204407e-01 9.3295544385910034e-01 5.4601395130157471e-01 2.7235656976699829e-01 -2.8161583468317986e-02 2.2881452739238739e-01 7.7806186676025391e-01 3.3934360742568970e-01 -5.2342665195465088e-01 -6.5981352329254150e-01 -2.1794106066226959e-01 5.4962593317031860e-01 4.4116282463073730e-01 1.2562614679336548e-01 2.9464045166969299e-01 -1.0076119750738144e-01 4.2722091078758240e-01 6.7620664834976196e-01 2.5012964010238647e-01 -1.5744762122631073e-01 -8.6911089718341827e-02 1.7042431235313416e-01 -1.8606309592723846e-01 4.4438013434410095e-01 -7.0483207702636719e-02 -1.7949606478214264e-01 3.1786426901817322e-01 5.4089277982711792e-01 5.3167998790740967e-01 3.6591070890426636e-01 -9.1104954481124878e-02 -6.8968757987022400e-02 4.4062352180480957e-01 -1.0608563572168350e-01 1.0998457670211792e+00 4.3863141536712646e-01 5.2807871252298355e-02 9.9274292588233948e-02 1.6587546467781067e-01 2.3978814482688904e-01 -9.1499075293540955e-02 -4.3977060914039612e-01 -4.3172547221183777e-01 -3.4436959028244019e-01 -2.5412622094154358e-01 3.3744585514068604e-01 -5.0317790359258652e-02 -2.5598770380020142e-01 6.7320041358470917e-02 2.4438247084617615e-01 2.3054629564285278e-01 2.9835221171379089e-01 6.5694831311702728e-02 8.8929064571857452e-02 1.1266862601041794e-01 -1.1150950938463211e-01 1.0359327793121338e+00 5.6839936971664429e-01 7.0201836526393890e-02 -1.9784051179885864e-01 4.0084648877382278e-02 1.4822562038898468e-01 -6.8672262132167816e-02 -3.0491846799850464e-01 -4.0666061639785767e-01 2.1909789741039276e-01 -4.3962508440017700e-02 -3.5438659787178040e-01 -2.1641378104686737e-01 -1.5837806463241577e-01 -3.7853679060935974e-01 5.1414217799901962e-02 -2.6483437418937683e-01 -6.2627956271171570e-02 -2.8283450752496719e-02 -2.6104271411895752e-01 -6.2929600477218628e-02 -9.0217724442481995e-02 2.9549991711974144e-02 -7.2738453745841980e-02 2.5766289234161377e-01 -3.4157380461692810e-02 4.0860947966575623e-01 2.3819489777088165e-01 6.2881760299205780e-02 -2.4026553332805634e-01 3.2558822631835938e-01 -3.1725418567657471e-01 -3.1657087802886963e-01 -5.3368538618087769e-01 -2.1747246384620667e-01 1.9758451730012894e-02 -1.7600439488887787e-01 -1.8050724267959595e-01 -7.3642529547214508e-02 -4.4934177398681641e-01 1.8805083632469177e-01 8.7130524218082428e-02 3.2691791653633118e-01 -3.4911352396011353e-01 -1.4337354898452759e-01 3.1927654147148132e-01 -1.8298570811748505e-01 -1.7349089682102203e-01 4.7718477249145508e-01 3.1777027249336243e-01 -1.1793421208858490e-01 1.2198712676763535e-01 5.1852658390998840e-02 -1.5293443202972412e-01 -2.0567488670349121e-01 -6.0002458095550537e-01 -1.5974853932857513e-01 -3.4490400552749634e-01 -2.6256909966468811e-01 -4.6603336930274963e-02 -3.9123639464378357e-01 -5.9990811347961426e-01 -4.4387716799974442e-02 5.8132559061050415e-01 -3.3533599972724915e-01 -7.8886754810810089e-02 4.5870837569236755e-01 3.8539767265319824e-01 1.0239359736442566e-01 -3.2935735583305359e-01 2.9279917478561401e-01 -2.0342482626438141e-01 1.3113352656364441e-01 -2.8194162249565125e-01 -6.3397280871868134e-02 -6.1124682426452637e-02 -2.0578251779079437e-01 -4.6764162182807922e-01 -8.7447099387645721e-02 2.4377939105033875e-01 -1.4773461222648621e-01 -2.9038828611373901e-01 -3.4985461831092834e-01 1.6253495216369629e-01 3.4822103381156921e-01 -1.4175534248352051e-01 -4.2155486345291138e-01 1.9675809144973755e-01 2.6424255967140198e-01 2.4862874299287796e-02 -2.1223244071006775e-01 -3.5034510493278503e-01 -6.0605518519878387e-02 -1.8794801831245422e-01 1.0781592875719070e-01 -2.9130196571350098e-01 4.1468113660812378e-01 -1.3153903186321259e-01 -4.6180534362792969e-01 -6.8734079599380493e-01 -3.7413236498832703e-01 -4.4111795723438263e-02 -2.9886844754219055e-01 -3.5990476608276367e-01 1.7303301393985748e-01 1.0835634171962738e-01 3.4499797224998474e-01 2.9270225763320923e-01 -2.7305069565773010e-01 -1.5770460665225983e-01 -4.5826485753059387e-01 -3.9345580339431763e-01 -2.8612181544303894e-01 1.1352293938398361e-01 -2.7588430047035217e-01 -1.6108283400535583e-01 -6.3018023967742920e-01 2.1867227554321289e-01 4.3576464056968689e-01 -2.8227034211158752e-01 -2.3309741914272308e-01 8.7983649969100952e-01 1.4450730383396149e-01 -1.2480439990758896e-01 -2.9906222224235535e-01 1.4592623710632324e-01 3.3201515674591064e-01 2.4953019618988037e-01 3.4444364905357361e-01 -4.3757537007331848e-01 1.4585238695144653e-01 -3.6177736520767212e-01 -5.0682139396667480e-01 9.7131524235010147e-03 3.7315639853477478e-01 -9.9663756787776947e-02 1.6719414293766022e-01 -1.6533195972442627e-01 -4.4565799832344055e-01 -2.5923940539360046e-01 2.5406518578529358e-01 1.0675706714391708e-01 2.0014421641826630e-01 -4.8505938053131104e-01 -2.4956665933132172e-01 -1.7303618788719177e-01 -2.9052501916885376e-01 -3.5148215293884277e-01 1.1365225166082382e-01 -5.2763772010803223e-01 -2.6174432039260864e-01 5.5283463001251221e-01 2.4419766664505005e-01 -2.8550308942794800e-01 3.5140402615070343e-02 5.0287269055843353e-02 -1.5127480030059814e-01 1.9403944909572601e-01 -4.2551200836896896e-02 -5.6407678127288818e-01 -6.7137114703655243e-02 -1.3184976577758789e-01 2.6493290066719055e-01 -3.2741385698318481e-01 -5.5164974927902222e-01 -8.0682438611984253e-01 2.6333582401275635e-01 -2.1359549462795258e-01 2.1892528235912323e-01 -3.8174885511398315e-01 -5.3366309404373169e-01 5.9167508035898209e-02 2.5787365436553955e-01 1.9556695222854614e-01 -2.6227684691548347e-02 -3.5107669234275818e-01 7.3166964575648308e-03 -8.4942102432250977e-02 1.2196268886327744e-01 2.0692063868045807e-01 3.6667701601982117e-01 -2.4631409347057343e-01 -2.7746441960334778e-01 -6.2026061117649078e-02 3.6911657452583313e-01 
      </Weights>
      <Biases rows="32" cols="1">
        -8.1057205796241760e-02 -1.2671162188053131e-01 -1.1214472353458405e-01 -1.6942809522151947e-01 -1.2537157535552979e-01 3.1519442796707153e-01 -2.6229947805404663e-01 1.8126483261585236e-01 3.0450341105461121e-01 5.0283867865800858e-02 3.1966781616210938e-01 1.9556739926338196e-01 1.0756930708885193e-01 2.4353644251823425e-01 -4.6428792178630829e-02 1.4064078032970428e-01 -1.1544307321310043e-01 -2.8174916282296181e-02 -1.1929384618997574e-01 -5.1277030259370804e-02 -1.8756736814975739e-01 -2.7611646801233292e-02 -1.5706773102283478e-01 -9.8627835512161255e-02 -1.7688328027725220e-01 -1.4401185512542725e-01 1.3907948136329651e-01 -5.7188481092453003e-02 -1.0981777310371399e-01 -8.8712401688098907e-02 -3.3847805857658386e-01 -4.4056702405214310e-02 
      </Biases>
    </Layer>
    <Layer ActivationFunction="3">
      <Weights rows="16" cols="32">
        1.6806423664093018e-01 -1.1143691092729568e-01 -1.0132841020822525e-01 1.8340165913105011e-01 2.8294885158538818e-01 -9.3745790421962738e-02 8.9779123663902283e-02 -3.3025138545781374e-03 -2.2785456478595734e-01 -2.1122540533542633e-01 6.9432400166988373e-02 -2.3365777730941772e-01 7.2710908949375153e-02 -4.7722415183670819e-04 4.4178798794746399e-02 -8.2511171698570251e-02 -1.4315913617610931e-01 1.8063895404338837e-01 -9.8767198622226715e-02 -5.4051604121923447e-02 4.7133613377809525e-02 9.0514041483402252e-02 -1.1488217860460281e-01 -8.0253034830093384e-02 -5.7792987674474716e-02 -4.8738052137196064e-03 -9.6565276384353638e-02 -7.8079149127006531e-02 -1.4218744635581970e-01 3.7447385489940643e-02 6.5299298148602247e-04 7.0023365318775177e-02 2.1289242804050446e-01 1.4745685458183289e-01 -5.5985867977142334e-02 1.4918826520442963e-01 1.1294013261795044e-01 -5.8298951387405396e-01 3.0402117967605591e-01 -6.2775874137878418e-01 -6.4672350883483887e-01 -3.4165596961975098e-01 -5.5447596311569214e-01 -5.0360387563705444e-01 -4.3552991747856140e-01 -6.4034700393676758e-01 -1.5398742398247123e-03 -4.3391191959381104e-01 -2.1725721657276154e-01 -3.1230461597442627e-01 4.1241100430488586e-01 -1.5405279397964478e-01 3.3186036348342896e-01 -3.2835659384727478e-01 1.6934695839881897e-01 3.4212585538625717e-02 1.0649899393320084e-01 1.8310908973217010e-01 -8.2618966698646545e-02 -6.3673943281173706e-02 8.9052923023700714e-02 1.1995718628168106e-01 4.6054145693778992e-01 9.2085853219032288e-02 6.4245991408824921e-02 -3.7173283100128174e-01 6.3990548253059387e-02 -3.5869738459587097e-01 -1.7504337430000305e-01 2.9178318381309509e-01 -3.0235281586647034e-01 4.0418070554733276e-01 2.7305862307548523e-01 2.2781488299369812e-01 5.3055560588836670e-01 5.2954584360122681e-01 3.4617668390274048e-01 6.8993943929672241e-01 1.5146242082118988e-01 1.5397343039512634e-01 2.4670302867889404e-02 3.0546298623085022e-01 -3.3254548907279968e-01 2.6399216055870056e-01 4.9657911062240601e-02 -4.2989730834960938e-02 -2.6422668248414993e-02 -6.3940651714801788e-02 1.1911568045616150e-01 -1.3849389553070068e-01 3.7931054830551147e-01 -4.1442658752202988e-02 -6.2037117779254913e-02 -2.1437305212020874e-01 -3.0540028214454651e-01 1.4999829232692719e-01 -2.9097093269228935e-02 -3.0474334955215454e-01 -2.1468684077262878e-01 -2.1874710917472839e-01 -2.1348549425601959e-01 2.0844456553459167e-01 -1.6351096332073212e-01 3.8001194596290588e-01 2.4998901784420013e-01 -5.5196650326251984e-02 2.6651743054389954e-01 4.6307927370071411e-01 2.0421215891838074e-01 7.1622915565967560e-02 2.0937412977218628e-01 1.7042861878871918e-01 1.3446092605590820e-02 3.6368650197982788e-01 1.2789677083492279e-01 1.2453722208738327e-01 -6.7270815372467041e-02 1.8976923823356628e-01 -4.8317145556211472e-02 -1.9023279845714569e-01 -1.1834689229726791e-01 -1.3375191390514374e-01 2.5411644577980042e-01 -1.7582595348358154e-01 5.3285941481590271e-02 1.5533769130706787e-01 2.2169440053403378e-03 1.5762238204479218e-01 1.0154921561479568e-01 -1.4593109954148531e-03 -2.3741677403450012e-02 8.9440075680613518e-03 5.1824521273374557e-02 -1.4816663227975368e-02 -6.8098239600658417e-02 3.2711382955312729e-02 1.0399251244962215e-02 2.8029069304466248e-01 3.3836975693702698e-01 2.8043609857559204e-01 1.7072147130966187e-01 1.3579627871513367e-01 5.8778017759323120e-02 2.6372620463371277e-01 -1.1436127126216888e-01 2.3408016562461853e-01 1.2385260313749313e-01 7.2681695222854614e-02 6.9339051842689514e-02 -3.4300822764635086e-02 -1.7413802444934845e-01 -2.0243948698043823e-01 -2.3244246840476990e-01 -1.2867079675197601e-01 -1.3553726673126221e-01 -1.1820826679468155e-01 1.2976481020450592e-01 -4.7976475208997726e-02 -2.4279938638210297e-01 7.1230635046958923e-02 7.0311212912201881e-03 -2.1810350939631462e-02 1.4423955976963043e-01 -1.6341479495167732e-02 1.2752185575664043e-02 2.4162632226943970e-01 -2.3164138197898865e-01 2.8986465930938721e-01 4.3021333217620850e-01 1.8089962005615234e-01 5.0264541059732437e-02 5.2724298089742661e-02 -6.5250545740127563e-02 -1.7716227099299431e-02 -7.7656678855419159e-02 -5.9904478490352631e-02 1.8915823101997375e-01 1.5338680148124695e-01 -2.6343691349029541e-01 -8.7312616407871246e-02 -1.5065924823284149e-01 -1.9197773933410645e-01 -7.7311061322689056e-02 -1.7774449288845062e-01 -2.7117369696497917e-02 -3.2956130802631378e-02 -1.3254565000534058e-01 -1.1148446798324585e-01 -2.7562111616134644e-02 -2.2407293319702148e-01 -1.2361645698547363e-01 9.4134464859962463e-02 2.4178151041269302e-02 1.3352096080780029e-01 3.4358419477939606e-02 8.1377467140555382e-03 -1.2794421613216400e-01 9.1481000185012817e-02 -1.1466383934020996e-01 -7.3999874293804169e-02 3.3940058201551437e-02 -9.4936110079288483e-02 6.6632524132728577e-02 -1.0383711755275726e-01 3.2511156052350998e-02 1.8687476217746735e-01 -1.6725164651870728e-01 1.1308532953262329e-01 4.0044073015451431e-02 2.2524620592594147e-01 -1.7894752323627472e-01 -1.4494162797927856e-01 2.0561306178569794e-01 -1.3510853052139282e-01 -1.1739934235811234e-01 2.3224510252475739e-01 1.5428413450717926e-01 -5.9472545981407166e-02 5.4554283618927002e-02 7.3604106903076172e-02 -5.2593573927879333e-03 -4.9040107987821102e-03 8.0920774489641190e-03 6.3514359295368195e-02 -3.7750861048698425e-01 -4.7041597962379456e-01 -4.1710570454597473e-02 -1.4005173742771149e-01 -1.8873779475688934e-01 4.5991304516792297e-01 -9.8121099174022675e-02 2.5339531898498535e-01 5.6398159265518188e-01 5.8917337656021118e-01 7.5622224807739258e-01 6.0511189699172974e-01 1.3194172084331512e-01 7.1489733457565308e-01 -8.1450128927826881e-03 3.1549894809722900e-01 -1.0689420253038406e-01 1.8555696308612823e-01 -1.6545815765857697e-01 1.5690714120864868e-02 -2.9492309689521790e-01 6.8030573427677155e-02 -1.1520159244537354e-01 -4.8546820878982544e-02 -2.3309810459613800e-01 -2.0828765630722046e-01 3.7998870015144348e-01 -6.4903064630925655e-03 -2.3368933796882629e-01 -2.4896377325057983e-01 -8.7779864668846130e-02 2.5809964537620544e-01 -6.2988743185997009e-02 -2.4953630566596985e-01 -2.2758644819259644e-01 -1.0736823827028275e-01 -1.0588020831346512e-01 4.0143486857414246e-01 -3.0518674850463867e-01 4.2969432473182678e-01 3.1034165620803833e-01 6.9996759295463562e-02 9.4934083521366119e-02 1.3033261895179749e-01 1.3610796630382538e-01 1.0097513347864151e-01 -7.9258978366851807e-02 2.9945880174636841e-01 1.7739351093769073e-01 3.0462533235549927e-01 -3.9218738675117493e-02 -3.6654595285654068e-02 -1.9550284370779991e-02 2.8881144523620605e-01 -1.8364320695400238e-01 -5.2251160144805908e-02 1.2473212555050850e-02 -1.1130555067211390e-03 3.1892865896224976e-01 -2.9096084833145142e-01 3.5952266305685043e-02 6.8551555275917053e-02 -2.6996928453445435e-01 -1.2934170663356781e-01 1.9823868572711945e-01 -3.0720816925168037e-02 -9.3409277498722076e-02 -2.3526537418365479e-01 7.6778708025813103e-03 1.2611120939254761e-01 7.6007004827260971e-04 3.3556842803955078e-01 3.6618751473724842e-03 1.5846844017505646e-01 -6.6656939685344696e-02 -4.3879155069589615e-02 1.0244486480951309e-01 3.4707328677177429e-01 -4.4646244496107101e-02 2.0044031739234924e-01 3.5303860902786255e-02 -1.3646598160266876e-01 -1.8759307265281677e-01 1.2802448868751526e-01 1.1233902722597122e-01 1.4351581037044525e-01 -4.6566542237997055e-02 -7.1149490773677826e-02 -6.1663199216127396e-02 -1.9008348882198334e-01 -7.3545239865779877e-02 2.0405514538288116e-01 -2.1583007276058197e-01 -1.8641589581966400e-01 1.5929792821407318e-01 2.1812665462493896e-01 -1.2461172789335251e-01 1.6464191675186157e-01 3.6566227674484253e-02 -1.3318401575088501e-01 1.1716464161872864e-01 1.9693125784397125e-01 -2.8165861964225769e-01 2.1903669834136963e-01 1.0714077949523926e-01 2.1446757018566132e-01 1.0171501338481903e-01 9.4439171254634857e-02 -3.9644274860620499e-02 3.9449185132980347e-01 -1.2114219367504120e-01 1.7022071778774261e-01 -7.8742474317550659e-02 -5.5642135441303253e-02 1.0702142864465714e-01 1.4033974707126617e-01 -1.7176914960145950e-02 5.9343941509723663e-02 -2.0658142864704132e-01 4.4796443544328213e-03 -4.2601820081472397e-02 8.8467605412006378e-02 1.8747352063655853e-01 2.0858338475227356e-01 -1.8948817253112793e-01 -1.2312217056751251e-01 -9.1600671410560608e-02 2.2950708866119385e-01 5.8039225637912750e-02 -8.0228380858898163e-02 -1.1126106232404709e-01 6.5593995153903961e-02 3.6626912653446198e-02 -1.9742253422737122e-01 5.1198087632656097e-02 -8.8148780167102814e-02 -3.0708214640617371e-01 -3.8211953639984131e-01 -2.2792221605777740e-01 -1.6792957484722137e-01 -2.3258826136589050e-01 -2.6390343904495239e-01 -2.2932119667530060e-01 -3.2230671495199203e-02 1.3221433758735657e-01 1.6221323609352112e-01 -1.1793995648622513e-01 5.9187706559896469e-02 2.9066896438598633e-01 1.8718516826629639e-01 3.2711289823055267e-02 8.3393879234790802e-02 1.7725776135921478e-01 2.1189799904823303e-01 -2.9367771744728088e-01 1.7125020921230316e-01 -8.8720675557851791e-03 2.9391896724700928e-01 2.1026727557182312e-01 1.0344505310058594e-01 -1.9084952771663666e-01 5.1619723439216614e-02 -1.1380721628665924e-01 1.1399350315332413e-01 1.5780508518218994e-01 3.0384829267859459e-02 -3.0857464298605919e-02 2.9337799549102783e-01 1.1950021982192993e-01 2.5661283731460571e-01 2.8907310962677002e-01 -3.6580529063940048e-02 -1.2907749414443970e-01 1.2282865494489670e-01 2.4485316872596741e-01 -8.7762892246246338e-02 -1.9070425629615784e-01 2.1459171175956726e-01 6.9731570780277252e-02 -1.1879494041204453e-01 1.4226472377777100e-01 -1.2699113786220551e-01 -1.3368894159793854e-01 3.0867479741573334e-02 1.2112691067159176e-02 1.0023596882820129e-01 7.2729207575321198e-02 1.4464363455772400e-01 -2.3674908280372620e-01 -2.8696229681372643e-02 -2.4377022683620453e-01 -3.6737188696861267e-02 -2.0074450969696045e-01 -7.0752277970314026e-02 1.3549358118325472e-03 -1.2327593564987183e-01 -1.6832809150218964e-01 5.9036636352539062e-01 -4.2555055022239685e-01 1.6716304421424866e-01 4.2368978261947632e-01 2.3354050517082214e-01 5.7578200101852417e-01 4.9355071783065796e-01 3.3822995424270630e-01 2.4344396591186523e-01 2.7257323265075684e-01 1.3007231056690216e-01 -2.3412373661994934e-01 2.5528070330619812e-01 -1.3816637918353081e-02 5.2954368293285370e-02 -1.5656897425651550e-01 -1.3655674457550049e-01 -1.9676062464714050e-01 1.6595904529094696e-01 1.2774439528584480e-02 -2.0023375749588013e-01 9.6695691347122192e-02 -3.7298646569252014e-01 -4.6245392411947250e-02 3.1469278037548065e-02 -2.8598862886428833e-01 -9.4966679811477661e-02 6.5139077603816986e-02 1.7628286778926849e-01 1.2751224637031555e-01 -1.9716110080480576e-02 8.3930067718029022e-02 -2.9461014270782471e-01 2.5020420551300049e-01 -4.1395714879035950e-01 -4.3683731555938721e-01 -4.5415616035461426e-01 -1.4275661110877991e-01 -3.3673113584518433e-01 5.6714165955781937e-02 -2.9598945379257202e-01 -1.6116325557231903e-01 -7.1135446429252625e-02 -2.2412287071347237e-02 -1.7724682390689850e-01 2.1278512477874756e-01 -9.6842393279075623e-02 4.9922142177820206e-02 3.6410953849554062e-02 1.7330768704414368e-01 -1.3404984772205353e-01 -9.4480261206626892e-02 6.8248681724071503e-02 -2.3567520081996918e-01 3.2683241367340088e-01 2.9932910203933716e-01 3.5826243460178375e-02 1.8332000076770782e-01 1.8831053376197815e-01 5.8352679014205933e-02 2.7306818962097168e-01 1.8216814100742340e-01 2.4612651765346527e-01 -9.0089261531829834e-02 -1.2163569033145905e-01 -1.4151921868324280e-01 -1.1864241957664490e-01 -4.1679346561431885e-01 -7.8585334122180939e-02 -2.2763428092002869e-01 -4.2120632529258728e-01 -3.2498472929000854e-01 -2.9866433143615723e-01 -1.6987812519073486e-01 -3.5786601901054382e-01 -1.9298300147056580e-01 -5.6076072156429291e-02 2.2581781446933746e-01 -2.5168591737747192e-01 2.2748601436614990e-01 -1.2263313680887222e-01 1.3438412547111511e-01 1.0130526497960091e-02 1.9167689979076385e-01 1.0398964583873749e-01 -3.6209732294082642e-02 5.6613683700561523e-02 1.9465705752372742e-01 2.2323612123727798e-02 1.5682999789714813e-01 -3.1516425311565399e-02 
      </Weights>
      <Biases rows="16" cols="1">
        1.2043616920709610e-01 -1.1632840335369110e-01 1.4577369391918182e-01 7.0452496409416199e-02 4.3305460363626480e-02 4.4850498437881470e-02 3.4770097583532333e-02 1.6178888082504272e-01 1.0997919738292694e-01 4.8657096922397614e-02 1.0172416269779205e-01 4.2671676725149155e-02 3.8715355098247528e-02 -1.1468654498457909e-02 -2.4966977536678314e-02 -1.5640459954738617e-01 
      </Biases>
    </Layer>
    <Layer ActivationFunction="3">
      <Weights rows="16" cols="16">
        7.9245299100875854e-02 -3.5612148046493530e-01 -1.7852163314819336e-01 2.3371931910514832e-01 3.6042335629463196e-01 -6.2287323176860809e-02 -4.8896446824073792e-02 1.2935970723628998e-01 -2.0982110500335693e-01 -2.5476941466331482e-01 9.7143873572349548e-02 -3.2825633883476257e-01 1.3152477145195007e-01 7.7573955059051514e-02 -5.3158883005380630e-02 -2.4474972486495972e-01 -1.6302369534969330e-01 4.6197593212127686e-01 -3.9470937848091125e-01 -2.8682473301887512e-01 -1.7991806566715240e-01 9.4633497297763824e-02 -3.1703802943229675e-01 -3.3278158307075500e-01 -2.7992370724678040e-01 -1.4522039890289307e-01 -1.3536962866783142e-01 -1.5831713378429413e-01 -3.3888638019561768e-01 -8.4372580051422119e-02 4.2706884443759918e-02 2.3457589745521545e-01 1.2255032360553741e-01 -4.6126950532197952e-02 -2.8376638889312744e-01 -1.7481914162635803e-01 1.1459322273731232e-01 -2.4142763018608093e-01 1.0476840287446976e-01 -3.2076328992843628e-01 -2.4044385552406311e-01 -4.9708507955074310e-02 -5.9758506715297699e-02 7.2247460484504700e-02 -2.6172453165054321e-01 -1.2983922660350800e-01 3.0629709362983704e-01 -2.2623130679130554e-01 -3.1527620553970337e-01 -1.2878204882144928e-01 3.3337476849555969e-01 -4.2821358889341354e-02 3.4255957603454590e-01 -2.1971476078033447e-01 -9.5149777829647064e-02 2.0315320789813995e-01 1.1977283656597137e-01 2.4241210520267487e-01 1.4394909143447876e-01 -2.4071221053600311e-01 3.5821325145661831e-03 8.6046703159809113e-02 1.8160979449748993e-01 2.1492385864257812e-01 2.1680751442909241e-01 -3.9229509234428406e-01 2.6067337393760681e-01 -1.8273892998695374e-01 -1.8365621566772461e-01 -1.1912569403648376e-01 -2.0294594764709473e-01 1.1488318443298340e-01 -1.8980507552623749e-01 -8.8163971900939941e-02 1.1132907122373581e-01 5.3075619041919708e-02 1.5048293769359589e-01 3.4299680590629578e-01 -1.0275369882583618e-01 -9.1140307486057281e-02 -3.8673818111419678e-02 1.7257723212242126e-01 -2.6787364482879639e-01 1.4077351987361908e-01 1.4998739957809448e-01 -2.9178646206855774e-01 2.0128540694713593e-01 -2.1278923749923706e-01 1.5239331126213074e-01 -1.8189570307731628e-01 3.2604771852493286e-01 6.1121206730604172e-02 -2.0888732746243477e-02 -3.2265728712081909e-01 -9.2505991458892822e-02 1.6124916076660156e-01 4.2887583374977112e-02 -2.7694728970527649e-01 -2.6782616972923279e-01 -2.1279813349246979e-01 -2.9321449995040894e-01 5.7417716830968857e-02 -1.0160535573959351e-01 2.0146316289901733e-01 1.0675876401364803e-02 -3.1625127792358398e-01 6.4549498260021210e-02 3.0953672528266907e-01 1.0338247567415237e-01 -2.7378767728805542e-01 1.8229439854621887e-01 1.0680796205997467e-01 -6.0281090438365936e-02 2.9843398928642273e-01 2.5270617008209229e-01 6.3387744128704071e-02 -9.1221049427986145e-02 1.5718972682952881e-01 4.7274146229028702e-02 -3.1669721007347107e-01 -1.8199959397315979e-01 -2.0332561433315277e-01 2.4789772927761078e-01 -2.2234943509101868e-01 9.0005792677402496e-02 2.2311474382877350e-01 1.5445868670940399e-01 1.4968119561672211e-01 2.2127047181129456e-01 1.8088546395301819e-01 5.3670316934585571e-02 -9.1937281191349030e-02 1.2302425689995289e-02 -2.4073199927806854e-01 1.6049185069277883e-03 -2.5813004374504089e-01 -2.6319837570190430e-01 3.5783261060714722e-01 3.2368028163909912e-01 3.6283087730407715e-01 9.6501566469669342e-02 -1.5458410978317261e-01 2.6194685697555542e-01 3.2699522376060486e-01 -1.3279977440834045e-01 3.0726510286331177e-01 2.0757138729095459e-01 -2.4597307667136192e-02 7.0486113429069519e-02 -9.8929777741432190e-02 -1.6915217041969299e-01 -3.8190367817878723e-01 -3.6763486266136169e-01 -1.6935731470584869e-01 -2.2065286338329315e-01 -8.3692058920860291e-02 1.5366567671298981e-01 -1.2687116861343384e-01 -1.3681904971599579e-01 1.0690965503454208e-01 7.9431302845478058e-02 3.8780387490987778e-02 2.3852415382862091e-01 1.1736135184764862e-01 9.5400623977184296e-02 4.9411762505769730e-02 -2.3041158914566040e-01 2.7533698081970215e-01 3.4426668286323547e-01 -2.5884602218866348e-02 -1.7068649828433990e-01 -2.8589725494384766e-01 -2.0263488590717316e-01 -2.3553128540515900e-01 -3.2381796836853027e-01 -1.4878180623054504e-01 2.5920096039772034e-01 2.2866939008235931e-01 -3.3597949147224426e-01 -3.4474906325340271e-01 -2.7832385897636414e-01 -2.7601620554924011e-01 -4.0523391216993332e-02 -3.3378484845161438e-01 -1.4830151200294495e-01 -9.9591255187988281e-02 -3.0655047297477722e-01 -5.7881027460098267e-02 -8.6728364229202271e-02 -1.7868976294994354e-01 -4.0663457475602627e-03 2.3174448311328888e-01 -4.6503365039825439e-02 1.1757599562406540e-01 3.8453951478004456e-02 8.0530323088169098e-02 -1.7706352472305298e-01 1.6740381717681885e-01 -1.6939373314380646e-01 -1.3491088151931763e-01 4.6543784439563751e-02 -1.2368670850992203e-01 6.6076368093490601e-02 -2.2788074612617493e-01 4.9141321331262589e-02 2.1346482634544373e-01 -3.2028335332870483e-01 6.2525384128093719e-02 -2.7013984508812428e-03 2.1475079655647278e-01 -2.5823572278022766e-01 -2.2534060478210449e-01 2.3386578261852264e-01 -2.0403338968753815e-01 -1.6400642693042755e-01 3.3434674143791199e-01 1.9376586377620697e-01 -1.2369965016841888e-01 7.7572166919708252e-02 1.2600928312167525e-04 -2.7044557034969330e-02 -2.5230500847101212e-02 -4.3516740202903748e-02 -3.0828641727566719e-02 -3.1386348605155945e-01 -3.5776677727699280e-01 1.6422915458679199e-01 5.4847523570060730e-02 -2.3029075562953949e-01 -7.6944351196289062e-02 1.6849431395530701e-01 -1.5663230419158936e-01 9.6608243882656097e-02 2.6431024074554443e-01 3.2463788986206055e-01 -2.0331585779786110e-02 -2.0473402738571167e-01 1.7336280643939972e-01 -3.7891742587089539e-01 1.4644930139183998e-02 -1.4129680395126343e-01 -2.8033096343278885e-02 5.3787808865308762e-02 -1.9324120879173279e-01 -3.5029217600822449e-01 -1.5129464864730835e-01 1.5111078321933746e-01 -2.3434513807296753e-01 -2.8001666069030762e-01 -2.3638254404067993e-01 1.8181526660919189e-01 3.1767565011978149e-01 -1.8028375506401062e-01 -3.0337065458297729e-01 3.7392437458038330e-01 3.0143144726753235e-01 
      </Weights>
      <Biases rows="16" cols="1">
        -3.1361218541860580e-02 -1.9741041958332062e-01 7.2442427277565002e-02 -5.8374341577291489e-02 -1.1196547420695424e-03 2.4103347212076187e-02 -1.4015075750648975e-02 1.9801529124379158e-02 9.8742052912712097e-02 -6.7456901073455811e-02 3.3643037080764771e-02 -1.3189502060413361e-01 2.0326131954789162e-02 1.4722977764904499e-02 -2.0182669162750244e-02 -3.0249012634158134e-02 
      </Biases>
    </Layer>
    <Layer ActivationFunction="0">
      <Weights rows="1" cols="16">
        1.0116662830114365e-01 -6.1457896232604980e-01 -2.5999543070793152e-01 4.3534025549888611e-02 1.7516176402568817e-01 -2.5919562578201294e-01 -5.0026863813400269e-02 5.9109952300786972e-02 -5.2872061729431152e-01 -2.2207683324813843e-01 1.3097999989986420e-01 -6.6078644990921021e-01 9.5261335372924805e-02 5.2865769714117050e-02 3.7766641378402710e-01 -1.6740798950195312e-01 
      </Weights>
      <Biases rows="1" cols="1">
        -1.8959984183311462e-01 
      </Biases>
    </Layer>
  </Weights>
</MethodSetup>
