<?xml version="1.0"?>
<MethodSetup Method="DNN::DNN_NanoV2_2020_morestat_BMET_x1">
  <GeneralInfo>
    <Info name="TMVA Release" value="4.2.1 [262657]"/>
    <Info name="ROOT Release" value="6.12/07 [396295]"/>
    <Info name="Creator" value="hum"/>
    <Info name="Date" value="Sat Sep 25 08:06:50 2021"/>
    <Info name="Host" value="Linux vocms0301.cern.ch 2.6.32-696.30.1.el6.x86_64 #1 SMP Tue May 22 06:09:36 CEST 2018 x86_64 x86_64 x86_64 GNU/Linux"/>
    <Info name="Dir" value="/afs/cern.ch/work/h/hum/public/CMSSW_10_2_13/src/ChargedHiggs/Analysis"/>
    <Info name="Training events" value="5324"/>
    <Info name="TrainingTime" value="2.08432388e+00"/>
    <Info name="AnalysisType" value="Classification"/>
  </GeneralInfo>
  <Options>
    <Option name="V" modified="Yes">True</Option>
    <Option name="VerbosityLevel" modified="No">Verbose</Option>
    <Option name="VarTransform" modified="Yes">N</Option>
    <Option name="H" modified="Yes">False</Option>
    <Option name="CreateMVAPdfs" modified="No">False</Option>
    <Option name="IgnoreNegWeightsInTraining" modified="No">False</Option>
    <Option name="Layout" modified="Yes">SIGMOID|32,TANH|16,TANH|16,LINEAR</Option>
    <Option name="ValidationSize" modified="No">20%</Option>
    <Option name="ErrorStrategy" modified="Yes">CROSSENTROPY</Option>
    <Option name="WeightInitialization" modified="Yes">XAVIERUNIFORM</Option>
    <Option name="Architecture" modified="Yes">CPU</Option>
    <Option name="TrainingStrategy" modified="Yes">LearningRate=1e-1,Momentum=0.2,Repetitions=1,ConvergenceSteps=20,BatchSize=256,TestRepetitions=10,WeightDecay=1e-4,Regularization=L2,DropConfig=0.0+0.1+0.25+0.5,</Option>
  </Options>
  <Variables NVar="9">
    <Variable VarIndex="0" Expression="j1QGL" Label="j1QGL" Title="j1QGL" Unit="" Internal="j1QGL" Type="F" Min="-1.00000000e+00" Max="1.00000000e+00"/>
    <Variable VarIndex="1" Expression="j2QGL" Label="j2QGL" Title="j2QGL" Unit="" Internal="j2QGL" Type="F" Min="-1.00000000e+00" Max="1.00000000e+00"/>
    <Variable VarIndex="2" Expression="varMjj" Label="varMjj" Title="varMjj" Unit="" Internal="varMjj" Type="F" Min="5.00577911e+02" Max="6.14623340e+03"/>
    <Variable VarIndex="3" Expression="varDetajj" Label="varDetajj" Title="varDetajj" Unit="" Internal="varDetajj" Type="F" Min="2.50000000e+00" Max="8.36669922e+00"/>
    <Variable VarIndex="4" Expression="varJet1Pt" Label="varJet1Pt" Title="varJet1Pt" Unit="" Internal="varJet1Pt" Type="F" Min="5.40625000e+01" Max="1.70800000e+03"/>
    <Variable VarIndex="5" Expression="varJet2Pt" Label="varJet2Pt" Title="varJet2Pt" Unit="" Internal="varJet2Pt" Type="F" Min="5.00000000e+01" Max="1.15400000e+03"/>
    <Variable VarIndex="6" Expression="varMTVV" Label="varMTVV" Title="varMTVV" Unit="" Internal="varMTVV" Type="F" Min="5.81410461e+02" Max="3.59708301e+03"/>
    <Variable VarIndex="7" Expression="varCen" Label="varCen" Title="varCen" Unit="" Internal="varCen" Type="F" Min="-1.85058594e+00" Max="4.02624512e+00"/>
    <Variable VarIndex="8" Expression="varnormPTVVjj" Label="varnormPTVVjj" Title="varnormPTVVjj" Unit="" Internal="varnormPTVVjj" Type="F" Min="1.50949752e-03" Max="2.48427317e-01"/>
  </Variables>
  <Spectators NSpec="0"/>
  <Classes NClass="2">
    <Class Name="Signal" Index="0"/>
    <Class Name="Background" Index="1"/>
  </Classes>
  <Transformations NTransformations="1">
    <Transform Name="Normalize">
      <Selection>
        <Input NInputs="9">
          <Input Type="Variable" Label="j1QGL" Expression="j1QGL"/>
          <Input Type="Variable" Label="j2QGL" Expression="j2QGL"/>
          <Input Type="Variable" Label="varMjj" Expression="varMjj"/>
          <Input Type="Variable" Label="varDetajj" Expression="varDetajj"/>
          <Input Type="Variable" Label="varJet1Pt" Expression="varJet1Pt"/>
          <Input Type="Variable" Label="varJet2Pt" Expression="varJet2Pt"/>
          <Input Type="Variable" Label="varMTVV" Expression="varMTVV"/>
          <Input Type="Variable" Label="varCen" Expression="varCen"/>
          <Input Type="Variable" Label="varnormPTVVjj" Expression="varnormPTVVjj"/>
        </Input>
        <Output NOutputs="9">
          <Output Type="Variable" Label="j1QGL" Expression="j1QGL"/>
          <Output Type="Variable" Label="j2QGL" Expression="j2QGL"/>
          <Output Type="Variable" Label="varMjj" Expression="varMjj"/>
          <Output Type="Variable" Label="varDetajj" Expression="varDetajj"/>
          <Output Type="Variable" Label="varJet1Pt" Expression="varJet1Pt"/>
          <Output Type="Variable" Label="varJet2Pt" Expression="varJet2Pt"/>
          <Output Type="Variable" Label="varMTVV" Expression="varMTVV"/>
          <Output Type="Variable" Label="varCen" Expression="varCen"/>
          <Output Type="Variable" Label="varnormPTVVjj" Expression="varnormPTVVjj"/>
        </Output>
      </Selection>
      <Class ClassIndex="0">
        <Ranges>
          <Range Index="0" Min="-1.0000000000000000e+00" Max="1.0000000000000000e+00"/>
          <Range Index="1" Min="-1.0000000000000000e+00" Max="9.9951171875000000e-01"/>
          <Range Index="2" Min="5.0119616699218750e+02" Max="6.1462333984375000e+03"/>
          <Range Index="3" Min="2.5004882812500000e+00" Max="8.3666992187500000e+00"/>
          <Range Index="4" Min="5.4593750000000000e+01" Max="1.7080000000000000e+03"/>
          <Range Index="5" Min="5.0000000000000000e+01" Max="7.7550000000000000e+02"/>
          <Range Index="6" Min="5.9291308593750000e+02" Max="3.5970830078125000e+03"/>
          <Range Index="7" Min="-1.8371582031250000e+00" Max="4.0262451171875000e+00"/>
          <Range Index="8" Min="1.5094975242391229e-03" Max="2.4842731654644012e-01"/>
        </Ranges>
      </Class>
      <Class ClassIndex="1">
        <Ranges>
          <Range Index="0" Min="-1.0000000000000000e+00" Max="1.0000000000000000e+00"/>
          <Range Index="1" Min="-1.0000000000000000e+00" Max="1.0000000000000000e+00"/>
          <Range Index="2" Min="5.0057791137695312e+02" Max="5.3438715820312500e+03"/>
          <Range Index="3" Min="2.5000000000000000e+00" Max="7.7031250000000000e+00"/>
          <Range Index="4" Min="5.4062500000000000e+01" Max="1.5160000000000000e+03"/>
          <Range Index="5" Min="5.0000000000000000e+01" Max="1.1540000000000000e+03"/>
          <Range Index="6" Min="5.8141046142578125e+02" Max="3.1321386718750000e+03"/>
          <Range Index="7" Min="-1.8505859375000000e+00" Max="3.4395751953125000e+00"/>
          <Range Index="8" Min="1.7611811636015773e-03" Max="2.4589727818965912e-01"/>
        </Ranges>
      </Class>
      <Class ClassIndex="2">
        <Ranges>
          <Range Index="0" Min="-1.0000000000000000e+00" Max="1.0000000000000000e+00"/>
          <Range Index="1" Min="-1.0000000000000000e+00" Max="1.0000000000000000e+00"/>
          <Range Index="2" Min="5.0057791137695312e+02" Max="6.1462333984375000e+03"/>
          <Range Index="3" Min="2.5000000000000000e+00" Max="8.3666992187500000e+00"/>
          <Range Index="4" Min="5.4062500000000000e+01" Max="1.7080000000000000e+03"/>
          <Range Index="5" Min="5.0000000000000000e+01" Max="1.1540000000000000e+03"/>
          <Range Index="6" Min="5.8141046142578125e+02" Max="3.5970830078125000e+03"/>
          <Range Index="7" Min="-1.8505859375000000e+00" Max="4.0262451171875000e+00"/>
          <Range Index="8" Min="1.5094975242391229e-03" Max="2.4842731654644012e-01"/>
        </Ranges>
      </Class>
    </Transform>
  </Transformations>
  <MVAPdfs/>
  <Weights InputWidth="9" Depth="4" LossFunction="C" OutputFunction="S">
    <Layer ActivationFunction="2">
      <Weights rows="32" cols="9">
        -2.1290524303913116e-01 6.1481766402721405e-02 -6.8420499563217163e-02 1.6237869858741760e-01 -3.9015707373619080e-01 -4.3670535087585449e-01 3.9978262037038803e-02 -1.7872434854507446e-01 2.2419245541095734e-01 -3.4554224461317062e-02 -3.4804809093475342e-01 -4.6564599871635437e-01 3.1020477414131165e-01 3.2141458988189697e-01 -1.3045796751976013e-01 -6.0120433568954468e-01 -4.5345166325569153e-01 -3.3499488234519958e-01 2.6978197693824768e-01 4.7648602724075317e-01 8.2688105106353760e-01 -9.7071275115013123e-02 -1.9823037087917328e-02 -2.0377492904663086e-01 6.2218141555786133e-01 2.7661439776420593e-01 1.2700672447681427e-01 1.6155816614627838e-01 -4.4803103804588318e-01 -9.5921292901039124e-02 -4.3317013978958130e-01 -3.3107423782348633e-01 -4.1367766261100769e-01 -3.2963964343070984e-01 -1.9382996857166290e-01 6.6246730275452137e-03 5.0372695922851562e-01 3.5703471302986145e-01 7.6735699176788330e-01 -1.7175623774528503e-01 4.2564636468887329e-01 -7.9787500202655792e-02 7.3323750495910645e-01 -1.7308674752712250e-01 2.2040750831365585e-02 -1.2761577963829041e-01 -6.3225261867046356e-02 1.2078317254781723e-01 -3.9142343401908875e-01 -4.4838744401931763e-01 -1.3486313819885254e-01 -1.5322582423686981e-01 -2.5889828801155090e-01 3.4486427903175354e-01 -2.4356690049171448e-01 2.2755490243434906e-01 -5.8920866250991821e-01 -4.6746604144573212e-02 -4.4271442294120789e-01 -4.2280814051628113e-01 1.2451919168233871e-01 -1.4992864429950714e-01 -8.0421149730682373e-02 -2.8603345155715942e-01 -3.0866992473602295e-01 4.0790751576423645e-01 4.9382913857698441e-02 -9.6996217966079712e-02 -3.1976270675659180e-01 5.3617292642593384e-01 3.3776858448982239e-01 -1.9430942833423615e-01 -6.5818410366773605e-03 -1.9908176362514496e-01 -6.2562376260757446e-01 4.5243069529533386e-02 -3.5007858276367188e-01 8.9932531118392944e-03 -3.9535090327262878e-01 -8.3680577576160431e-02 -1.7563393712043762e-01 1.5739496797323227e-02 -1.7302939295768738e-01 4.1101577877998352e-01 2.1364091336727142e-01 4.6577624976634979e-02 -1.0998446494340897e-01 6.2416130304336548e-01 -3.2533952593803406e-01 -1.3378976285457611e-01 -6.9450050592422485e-01 -5.8272528648376465e-01 -9.2331027984619141e-01 -2.5237339735031128e-01 -3.9117312431335449e-01 -2.6450148224830627e-01 -8.6580932140350342e-01 -4.5828360319137573e-01 8.8147777318954468e-01 1.9438560307025909e-01 -4.1883260011672974e-02 6.7208856344223022e-01 4.1355672478675842e-01 5.2546209096908569e-01 3.8654346019029617e-02 5.8669877052307129e-01 1.1931389570236206e-01 -6.7403721809387207e-01 1.4202933013439178e-01 1.2312095612287521e-01 -3.8743990659713745e-01 4.0593773126602173e-02 -6.1505455523729324e-02 5.6387577205896378e-03 -3.1501153111457825e-01 -3.1291985511779785e-01 3.7866067886352539e-01 2.2128872573375702e-01 9.9568076431751251e-02 1.8237704038619995e-01 -3.1553539633750916e-01 1.4556472003459930e-01 3.9327645301818848e-01 -6.5573714673519135e-02 1.9094333052635193e-02 -3.5423219203948975e-01 1.7515900731086731e-01 3.9927393198013306e-01 -2.8989252448081970e-01 6.1582211405038834e-02 -3.6468759179115295e-01 -1.6579630970954895e-01 2.5672763586044312e-01 3.7436282634735107e-01 -4.3968135118484497e-01 -1.3698589801788330e-01 -4.0317681431770325e-01 -2.5234258174896240e-01 -1.5318436920642853e-01 1.9921560585498810e-01 2.3657040297985077e-01 5.0068601965904236e-02 2.4394652247428894e-01 -2.5257661938667297e-01 2.2239892184734344e-01 2.2948080301284790e-01 4.9351751804351807e-01 2.4041698873043060e-01 1.2019866704940796e-01 -2.1155381202697754e-01 -9.5469325780868530e-02 3.4351047873497009e-01 3.1323769688606262e-01 -3.9579737186431885e-01 -4.5571339130401611e-01 -5.1461911201477051e-01 -4.0657645463943481e-01 -2.7105242013931274e-01 3.4326082468032837e-01 -2.2777141630649567e-01 1.6995701193809509e-01 6.9487184286117554e-02 -1.3802711665630341e-01 -2.3869548738002777e-01 2.4779262021183968e-03 3.4122863411903381e-01 -3.3380067348480225e-01 3.0799928307533264e-01 4.4212508201599121e-01 3.8075733184814453e-01 -4.9436628818511963e-01 4.9247318506240845e-01 4.8642125725746155e-01 5.4375100135803223e-01 1.2673716247081757e-01 5.5298203229904175e-01 4.9292489886283875e-01 3.6543583869934082e-01 -3.6794602870941162e-01 7.6205670833587646e-02 -2.0629416406154633e-01 -1.7536260187625885e-01 3.6561634391546249e-02 5.4826784133911133e-01 3.4593254327774048e-01 5.3690288215875626e-02 1.6549374163150787e-01 2.5774741172790527e-01 -5.3435146808624268e-01 -3.3895435929298401e-01 3.7534308433532715e-01 8.2521277666091919e-01 -1.7662855982780457e-01 3.2173213362693787e-01 3.2071286439895630e-01 7.2533369064331055e-02 -3.8109049201011658e-01 -5.2543056011199951e-01 -2.7012002468109131e-01 5.2958577871322632e-01 -7.1740904822945595e-03 2.6032334566116333e-01 6.1432361602783203e-01 4.5773610472679138e-01 9.3315783888101578e-03 4.9454241991043091e-01 -3.2180827856063843e-01 7.2170726954936981e-02 1.9365960359573364e-01 3.2385087013244629e-01 2.6070145890116692e-02 4.0690365433692932e-01 4.4827800989151001e-01 3.9015978574752808e-01 3.2396268844604492e-01 1.6799354553222656e-01 -2.5775149464607239e-01 3.9022710919380188e-01 4.1287171840667725e-01 2.3179640993475914e-03 2.2217662632465363e-01 2.6664903387427330e-02 -5.1614001393318176e-02 -2.6235077530145645e-02 3.6289063096046448e-01 -1.7475752532482147e-01 4.7455722093582153e-01 5.3900957107543945e-01 1.1857055872678757e-01 9.5777504146099091e-02 3.3790373802185059e-01 7.2692072391510010e-01 -4.0409248322248459e-03 -6.6970437765121460e-01 -3.7830755114555359e-01 -3.5043233633041382e-01 -2.0140806213021278e-02 -2.8804859519004822e-01 -5.0408743321895599e-02 -3.0414339900016785e-01 4.2095336318016052e-01 1.3367128372192383e-01 -3.0582414939999580e-02 -3.2378417253494263e-01 4.2309388518333435e-01 -2.4768152832984924e-01 1.8763074278831482e-01 -3.4783688187599182e-01 -5.9988792985677719e-02 3.5638391971588135e-01 -2.1469876170158386e-01 1.3857546448707581e-01 2.3205304145812988e-01 -3.9331868290901184e-01 1.5828797221183777e-01 1.8640044331550598e-01 -3.2547083497047424e-01 -3.3262220025062561e-01 -4.1773069649934769e-02 -3.7783500552177429e-01 -3.5793641209602356e-01 1.2477229535579681e-01 9.6209077164530754e-03 -4.0547201037406921e-01 -4.0423890948295593e-01 3.4463945031166077e-01 -1.9731421768665314e-01 6.8270549178123474e-02 3.0076584219932556e-01 -2.5908902287483215e-02 2.5974273681640625e-01 -3.2994160056114197e-01 5.1886450499296188e-02 -1.8367404118180275e-02 1.8431477248668671e-02 1.9917626678943634e-01 -4.1772600263357162e-02 2.0932155847549438e-01 -8.2151822745800018e-02 -1.1745686084032059e-01 -2.2768624126911163e-01 -1.4582103490829468e-01 -7.2720766067504883e-02 3.6592996120452881e-01 2.6230865716934204e-01 -6.6135987639427185e-02 -3.5676363110542297e-01 -2.4537375569343567e-01 
      </Weights>
      <Biases rows="32" cols="1">
        -5.4107110947370529e-02 -5.9872370213270187e-02 -1.8345557153224945e-02 -1.1781357228755951e-01 1.3866186141967773e-01 -4.4842403382062912e-02 -1.1666185408830643e-01 -3.1191648915410042e-02 -1.4608655869960785e-01 2.4959951639175415e-02 -3.4771275520324707e-01 2.7985325455665588e-01 -4.8487178981304169e-02 -4.4041167944669724e-02 -4.2397730052471161e-02 -4.3560814112424850e-02 -4.8096068203449249e-02 -2.7711480855941772e-02 -2.7751635760068893e-02 1.8062296509742737e-01 -2.5155922397971153e-02 6.7840740084648132e-02 -2.5908243842422962e-03 1.0367497056722641e-01 -1.8374361097812653e-02 1.2774819135665894e-01 -3.6277730017900467e-02 -3.3046472817659378e-02 -4.6708796173334122e-02 -3.3311642706394196e-02 -4.3114889413118362e-02 -3.4666836261749268e-02 
      </Biases>
    </Layer>
    <Layer ActivationFunction="3">
      <Weights rows="16" cols="32">
        -6.7726813256740570e-02 1.2139549106359482e-01 7.4644526466727257e-03 1.3540080189704895e-01 -2.5498262047767639e-01 -1.5636877715587616e-01 1.1952322721481323e-01 -9.7606502473354340e-02 1.8073682487010956e-01 -4.7068711370229721e-02 -4.9723174422979355e-02 -2.2120489180088043e-01 2.1659819781780243e-01 2.0480252802371979e-01 -1.7073627561330795e-02 -2.3170447349548340e-01 -2.1544510126113892e-01 -2.0663726329803467e-01 1.0789173096418381e-01 1.4661514759063721e-01 2.1833020448684692e-01 -1.9475707411766052e-01 -1.0884740948677063e-01 -2.7439948916435242e-01 1.6056649386882782e-01 2.7801023796200752e-02 1.6402998566627502e-01 1.7796432971954346e-01 -1.5278850495815277e-01 9.1683708131313324e-02 -1.9859634339809418e-01 -9.8548211157321930e-02 -1.8553216755390167e-01 -5.8843534439802170e-02 -9.6647590398788452e-02 -7.6653882861137390e-02 1.1946145445108414e-01 1.5802761912345886e-01 2.2249397635459900e-01 -1.0904014855623245e-01 2.3810879886150360e-01 -1.2350604683160782e-01 3.2605072855949402e-01 -1.9823092222213745e-01 1.6853390634059906e-01 -3.2496847212314606e-02 6.7973444238305092e-03 2.0577248930931091e-01 -1.8332488834857941e-01 -1.3702453672885895e-01 -3.1149109825491905e-02 -3.3872209489345551e-02 -1.2401595711708069e-01 2.7731576934456825e-02 -5.7296521961688995e-02 1.2080054730176926e-01 -2.3181025683879852e-01 -9.6405692398548126e-02 -2.1686257421970367e-01 -2.0750191807746887e-01 1.1329055577516556e-01 -3.2735761255025864e-02 -1.6022932529449463e-01 -1.0901658982038498e-01 -1.7591033875942230e-01 3.9386536926031113e-02 3.7939082831144333e-02 -1.2702848017215729e-01 -1.6959437727928162e-01 1.4391964673995972e-01 1.5281449258327484e-01 -2.6055697351694107e-02 -1.0127699933946133e-02 1.0496679693460464e-02 -2.6070490479469299e-01 8.3265379071235657e-02 -1.9347345829010010e-01 4.3420549482107162e-03 -1.3225911557674408e-01 -2.3372557014226913e-02 -1.5393698215484619e-01 -6.0599632561206818e-03 -8.3111785352230072e-02 1.3936218619346619e-01 1.2071543186903000e-01 4.5634228736162186e-02 -1.2367906421422958e-01 2.9050582647323608e-01 -1.8509009480476379e-01 6.7358598113059998e-02 -2.1553820371627808e-01 -1.1514331400394440e-01 -1.4381186664104462e-01 -1.4545103907585144e-01 -5.1276862621307373e-02 -1.3865160942077637e-01 -2.5204831361770630e-01 -2.4265144765377045e-01 2.0971359312534332e-01 -4.2336810380220413e-02 -5.2531167864799500e-02 7.6184123754501343e-02 1.9364593923091888e-01 2.3787695169448853e-01 -9.0112827718257904e-02 1.8771760165691376e-01 -1.0792350023984909e-01 -7.1335434913635254e-02 6.1771631240844727e-02 8.8057518005371094e-02 -8.6362414062023163e-02 3.4460440278053284e-02 2.2630281746387482e-02 1.9577611237764359e-02 -3.2440677285194397e-02 -7.6886095106601715e-02 1.4731156826019287e-01 1.8980813026428223e-01 2.6825055480003357e-02 7.4964150786399841e-02 -1.9969341158866882e-01 1.0499713569879532e-01 1.5481479465961456e-01 -1.3137400150299072e-01 -1.6980530694127083e-02 -1.8215703964233398e-01 1.0531047731637955e-01 1.7135478556156158e-01 -1.7016650736331940e-01 -1.8316283822059631e-02 -1.4927165210247040e-01 -1.0466755181550980e-01 2.4773195385932922e-01 1.7136107385158539e-01 -1.8210923671722412e-01 -2.4699936620891094e-03 -2.5836268067359924e-01 -5.3716368973255157e-02 -1.6424696147441864e-01 2.1730436384677887e-01 8.5868418216705322e-02 3.8526896387338638e-02 1.6987277567386627e-01 -1.0958865284919739e-01 1.3677017390727997e-01 1.1311715096235275e-01 1.8564718961715698e-01 1.9559432566165924e-01 4.0700644254684448e-02 -3.9170239120721817e-02 -1.3772030174732208e-01 2.8465226292610168e-01 2.4947372078895569e-01 -1.7056303098797798e-02 -1.3681605458259583e-01 -9.9479436874389648e-02 -1.3139832019805908e-01 -4.5457597821950912e-02 2.9713490605354309e-01 -3.8352366536855698e-02 5.7063311338424683e-02 -2.0374451577663422e-01 -2.2294519469141960e-02 -1.7096666991710663e-01 8.5499167442321777e-02 5.0016343593597412e-02 -2.2475728392601013e-01 1.5626020729541779e-01 -3.8123037666082382e-02 2.9630327224731445e-01 -4.0201389789581299e-01 3.6078423261642456e-01 8.2035176455974579e-02 8.0080911517143250e-02 6.8914204835891724e-02 2.4928011000156403e-01 2.2224946320056915e-01 8.6794681847095490e-03 -1.8130211532115936e-01 3.5879179835319519e-01 -9.5168113708496094e-02 8.0544829368591309e-02 -1.8224692344665527e-01 4.3220925331115723e-01 9.2819489538669586e-02 1.7451503872871399e-01 -1.3434268534183502e-02 7.5903452932834625e-02 -2.1062591671943665e-01 -2.5499078631401062e-01 2.6499414443969727e-01 1.3025653362274170e-01 -1.6884997487068176e-01 -7.1077771484851837e-02 1.6618163883686066e-01 -1.5348339080810547e-01 8.7594492360949516e-03 -3.2362124323844910e-01 -1.5482129156589508e-01 3.0858236551284790e-01 -4.2061728239059448e-01 2.3697228729724884e-01 7.2314120829105377e-02 3.8130915164947510e-01 -2.2180968523025513e-01 2.1126800775527954e-01 -7.6630495488643646e-02 5.4911807179450989e-02 5.7783611118793488e-02 2.2742621600627899e-02 7.3608309030532837e-02 3.9049556851387024e-01 2.6378202438354492e-01 3.4390619397163391e-01 1.0695431381464005e-01 4.1287305951118469e-01 -1.0502678155899048e-01 4.4715115427970886e-01 1.9998666644096375e-01 -3.0080232769250870e-02 7.7728465199470520e-02 -5.6334938853979111e-02 4.1422024369239807e-02 -1.3797754049301147e-01 1.7586308717727661e-01 -2.5248974561691284e-01 2.4162216484546661e-01 3.5150956362485886e-02 1.7151181399822235e-01 -9.5863938331604004e-02 1.0239323973655701e-01 2.1223944425582886e-01 -1.8326844274997711e-01 -1.8783983588218689e-01 -3.2720044255256653e-01 -2.6313541457056999e-02 -4.3078646063804626e-02 -1.3919301331043243e-01 -2.7039578184485435e-02 -1.6766430437564850e-01 2.2689828276634216e-01 3.6624617874622345e-02 -4.4912990182638168e-02 -5.5360455065965652e-02 2.4493530392646790e-01 -1.9388813525438309e-02 7.4869923293590546e-02 -8.9614100754261017e-02 -3.3248193562030792e-02 3.3297172188758850e-01 -1.1333095282316208e-01 4.1266005486249924e-02 1.1150863766670227e-01 -2.3762337863445282e-01 7.7621422708034515e-02 1.3851622119545937e-02 -1.7035491764545441e-01 -1.4650267362594604e-01 -4.1417121887207031e-02 -1.5130837261676788e-01 -2.1429117023944855e-01 1.4341869950294495e-01 6.3074313104152679e-02 -1.2992484867572784e-01 -1.1754144728183746e-01 1.9902920722961426e-01 -2.8915582224726677e-02 7.4102044105529785e-02 2.2319650650024414e-01 -3.0856944620609283e-02 1.8969784677028656e-01 -1.4576935768127441e-01 -8.1634961068630219e-02 4.4696470722556114e-03 -5.0647348165512085e-02 5.6064748205244541e-03 -1.5572251379489899e-01 7.9155161976814270e-02 -1.3668205356225371e-03 -1.0227675735950470e-01 -1.3120909035205841e-01 -1.5180909633636475e-01 -5.7784736156463623e-02 1.9678959250450134e-01 1.5509152412414551e-01 -2.0689340308308601e-02 -1.9075478613376617e-01 -5.7902827858924866e-02 1.8419443070888519e-01 -4.9927800893783569e-02 -1.0034009069204330e-01 -8.6302608251571655e-03 -2.4533565342426300e-01 1.4708480238914490e-01 -1.0082244127988815e-01 -1.3784722983837128e-01 5.7281970977783203e-02 -2.8035330772399902e-01 2.0959548652172089e-01 -2.3093102499842644e-02 1.3911689817905426e-01 2.0372409373521805e-02 -5.1205493509769440e-02 2.0669987425208092e-02 1.0244004428386688e-01 -2.6902687549591064e-01 2.1362049877643585e-01 -2.0443490147590637e-01 1.2498735636472702e-01 -2.7950918674468994e-01 -1.6184169054031372e-01 1.3733839988708496e-01 -7.9424776136875153e-02 -1.5153171122074127e-01 -8.3007588982582092e-02 1.4385426044464111e-01 -8.1520393490791321e-02 2.3403640091419220e-01 -1.1073022335767746e-01 1.8667718768119812e-01 -1.4856992661952972e-01 -4.7174873948097229e-01 1.7798791825771332e-01 -1.2121392786502838e-01 6.7690950632095337e-01 -2.3729312419891357e-01 -1.2482982128858566e-02 1.8052983283996582e-01 -3.3250677585601807e-01 3.9353731274604797e-01 -6.2564420700073242e-01 4.9136301875114441e-01 -3.0594968795776367e-01 3.3090550452470779e-02 7.3204212822020054e-03 2.6507027447223663e-02 1.1314799077808857e-02 -2.0797520875930786e-01 1.5889157354831696e-01 6.3991874456405640e-01 2.5479030609130859e-01 6.5833407640457153e-01 8.5702858865261078e-02 4.9136689305305481e-01 1.3385957479476929e-01 5.3049033880233765e-01 1.3759928941726685e-01 1.1318729817867279e-01 2.0413629710674286e-01 -7.5165912508964539e-02 2.6770538091659546e-01 -2.3141837120056152e-01 -1.8697789311408997e-01 2.5626316666603088e-02 1.8792432546615601e-01 -2.2272099554538727e-01 2.2229994833469391e-01 -2.4528247117996216e-01 -2.0674802362918854e-04 -5.7035569101572037e-02 -1.3424693048000336e-01 1.6152736544609070e-01 -4.5508375763893127e-01 4.7293096780776978e-01 4.4893354177474976e-02 -8.7088279426097870e-02 9.6597839146852493e-03 -5.0252679735422134e-02 1.6124691069126129e-01 -1.9237041473388672e-01 2.9433560371398926e-01 3.1825852394104004e-01 -8.2376040518283844e-02 4.7013670206069946e-01 2.1235600113868713e-01 1.9563612341880798e-01 -1.6303175687789917e-01 2.9922226071357727e-01 -3.9729006588459015e-02 -3.9891046471893787e-03 -1.6321629285812378e-01 1.1165921390056610e-01 -2.6548583991825581e-04 6.0796909034252167e-02 -8.2066595554351807e-02 -1.2554591894149780e-01 -1.4800027012825012e-01 2.4218428134918213e-01 -1.6871261596679688e-01 -1.7346721887588501e-01 5.5869475007057190e-02 -9.1795355081558228e-02 -1.0571196675300598e-01 -2.0537018775939941e-01 -1.7806707322597504e-01 2.1840853616595268e-02 8.7461329996585846e-02 1.2939567863941193e-01 -8.9415356516838074e-02 -2.2165492177009583e-01 1.6771867871284485e-01 -1.8608832359313965e-01 2.3128642141819000e-01 -4.7317858785390854e-02 2.0384697616100311e-01 7.9200051724910736e-02 -7.6177366077899933e-02 -1.8481665849685669e-01 -1.2128315120935440e-01 -4.3954458087682724e-02 -5.4713860154151917e-03 1.4496204257011414e-01 -7.8777275979518890e-02 1.7739021778106689e-01 -1.6911119222640991e-01 1.1377087235450745e-01 -2.9748635366559029e-02 1.3787595927715302e-01 2.3119328916072845e-01 -2.3900410532951355e-01 9.1475941240787506e-02 -2.3019814491271973e-01 -1.5132750570774078e-01 5.9701729565858841e-02 -1.7667354643344879e-01 -1.2112278491258621e-02 -1.1728402227163315e-01 2.3708942532539368e-01 1.0446074604988098e-01 -1.7592892050743103e-01 -6.8563753738999367e-03 1.9065012037754059e-01 -1.4774096198379993e-02 -1.1728621274232864e-01 2.0214758813381195e-01 1.1977162212133408e-01 2.5962153077125549e-01 -6.3606135547161102e-02 -3.4872796386480331e-02 9.6313327550888062e-02 1.3667909801006317e-01 2.7162536978721619e-01 -2.1987870335578918e-01 4.7833085060119629e-02 2.2351650893688202e-01 -9.9667787551879883e-02 5.9631794691085815e-02 5.9808794409036636e-02 -9.1277383267879486e-02 -1.1900911107659340e-02 -2.3689338937401772e-02 -6.1318185180425644e-02 -3.5974505543708801e-01 -1.7275641858577728e-01 -3.0364900827407837e-02 1.4252708852291107e-01 2.2988158464431763e-01 1.1824765056371689e-01 3.1723263859748840e-01 -2.1812343597412109e-01 8.6889296770095825e-02 -1.7623116075992584e-01 -6.9137141108512878e-02 -1.2796881794929504e-01 2.0190367102622986e-01 -1.0791154205799103e-01 1.2655615806579590e-01 -2.9787791892886162e-02 -2.0774519443511963e-01 -1.2086208164691925e-01 -2.6034994516521692e-04 5.7129245251417160e-02 -5.7463984936475754e-02 4.0178662165999413e-03 -2.3658707737922668e-01 2.3672758042812347e-01 -4.9506500363349915e-02 5.4123871028423309e-02 -1.2854096293449402e-01 3.0010879039764404e-01 -8.9807540178298950e-02 -6.8644247949123383e-02 2.2534418106079102e-01 1.3031935691833496e-01 2.1143233776092529e-01 -2.9705205559730530e-01 -9.8795397207140923e-03 1.4996580779552460e-01 -2.8395292162895203e-01 3.4372749924659729e-01 -1.1583430320024490e-01 2.8925880789756775e-01 -2.2579605877399445e-01 -3.2998133450746536e-02 -6.2747359275817871e-02 -6.1832524836063385e-02 -9.6015378832817078e-02 -1.2995070219039917e-01 1.7789320647716522e-01 1.3001713156700134e-01 6.4081385731697083e-02 2.5924709439277649e-01 1.3921920955181122e-01 4.0938600897789001e-01 2.0079693198204041e-01 3.4886845946311951e-01 -1.3761627674102783e-01 -1.0052558965981007e-02 -1.4342759549617767e-01 6.8220004439353943e-02 8.8818393647670746e-02 9.0134084224700928e-02 
      </Weights>
      <Biases rows="16" cols="1">
        4.1536409407854080e-02 2.4284221231937408e-02 -3.0566365458071232e-03 -3.4066300839185715e-02 4.1273307055234909e-02 -2.8158012777566910e-02 -2.6291374117136002e-02 -3.0601914972066879e-02 6.4765200018882751e-02 -2.7265993412584066e-03 -4.5398984104394913e-02 -4.0635380893945694e-02 6.3936352729797363e-02 -1.8745765089988708e-02 2.1508749574422836e-02 5.7011108845472336e-02 
      </Biases>
    </Layer>
    <Layer ActivationFunction="3">
      <Weights rows="16" cols="16">
        -4.2249992489814758e-02 9.5755286514759064e-02 -3.0135173350572586e-02 9.9082924425601959e-02 -3.4825056791305542e-01 -4.0642002224922180e-01 -6.3910640776157379e-02 -1.7419850826263428e-01 1.7619509994983673e-01 1.2018299102783203e-01 -3.4681603312492371e-01 -3.0323633551597595e-01 2.7803528308868408e-01 2.9069611430168152e-01 -2.2294605150818825e-03 -5.0559747219085693e-01 -3.5259103775024414e-01 -3.4836748242378235e-01 1.9247722625732422e-01 3.0486953258514404e-01 3.8299238681793213e-01 -9.6017718315124512e-02 -1.0275892913341522e-01 -2.3978555202484131e-01 2.2071355581283569e-01 1.3982832431793213e-01 2.6658588647842407e-01 2.5201603770256042e-01 -2.3982787132263184e-01 8.1235051155090332e-02 -3.1437286734580994e-01 -1.2222857773303986e-01 -3.2126316428184509e-01 -1.6505508124828339e-01 -1.0241918265819550e-01 -1.3389198482036591e-01 2.9044583439826965e-01 1.7994081974029541e-01 3.2978832721710205e-01 -1.3227999210357666e-01 1.9715228676795959e-01 -1.4225764572620392e-01 3.3265179395675659e-01 -1.6033281385898590e-01 1.7236974835395813e-01 -4.6291857957839966e-02 -5.5776438675820827e-03 3.2086771726608276e-01 -2.3621727526187897e-01 -2.0752334594726562e-01 -6.4886137843132019e-02 2.8474407270550728e-02 -2.0982082188129425e-01 8.8318854570388794e-02 -1.6084414720535278e-01 2.4057929217815399e-01 -2.8215703368186951e-01 8.0996593460440636e-03 -3.5182559490203857e-01 -3.5111466050148010e-01 1.7879764735698700e-01 -7.9825147986412048e-02 -1.9393123686313629e-01 -2.9940372705459595e-01 -2.1367503702640533e-01 1.4033354818820953e-01 -7.6155913993716240e-03 -1.7797872424125671e-01 -3.7243640422821045e-01 1.4820063114166260e-01 8.8180713355541229e-02 -1.5627188980579376e-01 9.6571996808052063e-02 2.7710109949111938e-02 -4.9692681431770325e-01 -1.2503364682197571e-01 -2.3386862874031067e-01 -1.7415193840861320e-02 -1.1288677155971527e-01 -1.5882618725299835e-01 -1.4897413551807404e-01 2.5912763550877571e-02 -2.4940443038940430e-01 1.9129976630210876e-02 -1.1616984382271767e-02 -2.3370192945003510e-01 -4.2110374569892883e-01 1.8141518533229828e-01 -1.6666108369827271e-01 9.7260162234306335e-02 -4.4226798415184021e-01 -3.4627789258956909e-01 -1.2324663996696472e-01 -1.6842252016067505e-01 -9.4223514199256897e-02 -3.8660955429077148e-01 -3.4249645471572876e-01 -2.7046030759811401e-01 2.6173821091651917e-01 6.8579325452446938e-03 -1.4597018063068390e-01 2.4332763254642487e-01 3.8453003764152527e-01 3.5614362359046936e-01 -5.7099731639027596e-03 1.6156435012817383e-01 6.9369956851005554e-02 -1.4901958405971527e-01 1.2679277360439301e-01 1.4018411934375763e-01 -1.2470167130231857e-01 1.3929034769535065e-01 3.5938460379838943e-02 7.2248823940753937e-02 -4.0044572204351425e-02 -1.9318331778049469e-01 1.8562000989913940e-01 1.3303817808628082e-01 1.7648389562964439e-02 -2.0648730918765068e-02 -2.9901301860809326e-01 5.7938653975725174e-02 1.6041830182075500e-01 -2.1881860494613647e-01 -1.6698082908987999e-02 -2.2818338871002197e-01 1.6492454707622528e-01 2.8402820229530334e-01 -2.5613459944725037e-01 3.0395675450563431e-02 -3.1317034363746643e-01 -1.6670632362365723e-01 1.6435824334621429e-01 2.8486883640289307e-01 -3.2247287034988403e-01 -7.0676371455192566e-02 -2.5950437784194946e-01 -2.1288383007049561e-01 -1.0201328992843628e-01 1.5604163706302643e-01 1.6256141662597656e-01 1.9763790071010590e-02 1.8231981992721558e-01 -2.0086544752120972e-01 1.8471550941467285e-01 1.5623171627521515e-01 1.2683832645416260e-01 1.0713924467563629e-01 -7.9533591866493225e-02 -3.0429971218109131e-01 -3.0829039216041565e-01 2.0232351124286652e-01 3.2982766628265381e-01 -1.7467303574085236e-01 -3.2764363288879395e-01 -2.0486466586589813e-01 -2.3249147832393646e-01 -8.5638932883739471e-02 3.6080405116081238e-01 -1.0626506060361862e-01 2.2726038098335266e-01 -6.0611471533775330e-02 -1.3344654440879822e-01 -2.3073460161685944e-01 -2.2805061936378479e-01 1.1731863766908646e-01 -4.3625643849372864e-01 1.1024630069732666e-01 2.3123294115066528e-01 2.9964584112167358e-01 -3.6654299497604370e-01 1.9549338519573212e-01 2.4595127999782562e-01 1.2187425792217255e-01 1.3789112865924835e-01 1.8216653168201447e-01 3.1255960464477539e-01 4.1008029133081436e-02 -2.7790814638137817e-01 2.5977113842964172e-01 -1.8294785916805267e-01 -1.7894124984741211e-01 -2.3147107660770416e-01 3.3598217368125916e-01 1.0040503740310669e-01 -4.7865174710750580e-02 -8.0067776143550873e-02 1.1878988891839981e-01 -3.0646026134490967e-01 -3.2864096760749817e-01 2.5644317269325256e-01 3.2663524150848389e-01 -2.0102064311504364e-01 9.6631795167922974e-02 1.8297408521175385e-01 -1.7336079478263855e-01 -2.5420954823493958e-01 -2.0179317891597748e-01 -1.5087272226810455e-01 3.7916845083236694e-01 -2.8030160069465637e-01 5.3738825023174286e-02 4.0395283699035645e-01 3.1673431396484375e-01 -1.9744947552680969e-01 3.2599851489067078e-01 -1.4412567019462585e-01 1.4281074702739716e-01 2.2119596600532532e-02 4.1855797171592712e-02 1.1644133925437927e-01 2.4473409354686737e-01 3.9318016171455383e-01 2.3574283719062805e-01 4.1661137342453003e-01 3.1135106086730957e-01 -2.2460062801837921e-01 1.2939622998237610e-01 4.0057581663131714e-01 1.4424841105937958e-01 1.0221861302852631e-01 -1.3763977214694023e-02 -1.9283580780029297e-01 1.6603115200996399e-01 3.1192731857299805e-01 -2.3654922842979431e-01 2.7251648902893066e-01 1.0345762223005295e-01 5.0862930715084076e-02 -6.1570338904857635e-02 1.3960732519626617e-01 2.6784741878509521e-01 -6.9974206387996674e-02 -3.1017488241195679e-01 -2.9322654008865356e-01 -2.5579893589019775e-01 1.7216874286532402e-02 -1.9777464866638184e-01 -1.4378463849425316e-02 -2.6257133483886719e-01 3.9158868789672852e-01 1.5990228950977325e-01 -1.7804750800132751e-01 -2.6454854011535645e-01 1.8846070766448975e-01 -3.2865318655967712e-01 -7.7181570231914520e-02 -3.5575473308563232e-01 -1.9105896353721619e-02 3.8652405142784119e-01 -2.9671674966812134e-01 -2.9133245348930359e-02 2.2734653949737549e-01 -2.8589230775833130e-01 1.3804633915424347e-01 -1.1473343521356583e-01 
      </Weights>
      <Biases rows="16" cols="1">
        -1.5298045240342617e-02 -1.7646554857492447e-02 2.0904488861560822e-02 -1.4806201681494713e-02 -3.7596058100461960e-02 -6.2745973467826843e-02 6.8567381240427494e-03 -1.3799882493913174e-02 -1.7277201637625694e-02 -7.2317372541874647e-05 2.2410742938518524e-02 -2.3814723826944828e-03 -1.1234536767005920e-02 -2.8498373925685883e-02 3.9724535308778286e-03 1.5160073526203632e-02 
      </Biases>
    </Layer>
    <Layer ActivationFunction="0">
      <Weights rows="1" cols="16">
        -5.2058380842208862e-01 2.5771731138229370e-01 8.6377464234828949e-02 -3.2135871052742004e-01 -7.6511673629283905e-02 -7.8510898351669312e-01 2.5337383151054382e-01 9.2523701488971710e-02 6.2944367527961731e-02 -1.6407208144664764e-01 -5.5485951900482178e-01 -2.2499013692140579e-02 3.3050245046615601e-01 2.2298888862133026e-01 7.6171711087226868e-02 -5.9249675273895264e-01 
      </Weights>
      <Biases rows="1" cols="1">
        5.3358718752861023e-02 
      </Biases>
    </Layer>
  </Weights>
</MethodSetup>
