<?xml version="1.0"?>
<MethodSetup Method="DNN::DNN_NanoV9_V2_2020_BBtag_x2">
  <GeneralInfo>
    <Info name="TMVA Release" value="4.2.1 [262657]"/>
    <Info name="ROOT Release" value="6.12/07 [396295]"/>
    <Info name="Creator" value="hum"/>
    <Info name="Date" value="Sun Mar 13 15:02:15 2022"/>
    <Info name="Host" value="Linux vocms0301.cern.ch 2.6.32-696.30.1.el6.x86_64 #1 SMP Tue May 22 06:09:36 CEST 2018 x86_64 x86_64 x86_64 GNU/Linux"/>
    <Info name="Dir" value="/afs/cern.ch/work/h/hum/public/CMSSW_10_2_13/src/ChargedHiggs/Analysis"/>
    <Info name="Training events" value="8265"/>
    <Info name="TrainingTime" value="3.09758520e+00"/>
    <Info name="AnalysisType" value="Classification"/>
  </GeneralInfo>
  <Options>
    <Option name="V" modified="Yes">True</Option>
    <Option name="VerbosityLevel" modified="No">Verbose</Option>
    <Option name="VarTransform" modified="Yes">N</Option>
    <Option name="H" modified="Yes">False</Option>
    <Option name="CreateMVAPdfs" modified="No">False</Option>
    <Option name="IgnoreNegWeightsInTraining" modified="No">False</Option>
    <Option name="Layout" modified="Yes">TANH|32,ReLU|32,SIGMOID|16,LINEAR</Option>
    <Option name="ValidationSize" modified="No">20%</Option>
    <Option name="ErrorStrategy" modified="Yes">CROSSENTROPY</Option>
    <Option name="WeightInitialization" modified="Yes">XAVIERUNIFORM</Option>
    <Option name="Architecture" modified="Yes">CPU</Option>
    <Option name="TrainingStrategy" modified="Yes">LearningRate=1e-1,Momentum=0.2,Repetitions=1,ConvergenceSteps=20,BatchSize=256,TestRepetitions=10,WeightDecay=1e-4,Regularization=L2,DropConfig=0.0+0.1+0.2+0.5,</Option>
  </Options>
  <Variables NVar="16">
    <Variable VarIndex="0" Expression="j1QGL" Label="j1QGL" Title="j1QGL" Unit="" Internal="j1QGL" Type="F" Min="-1.00000000e+00" Max="1.00000000e+00"/>
    <Variable VarIndex="1" Expression="j2QGL" Label="j2QGL" Title="j2QGL" Unit="" Internal="j2QGL" Type="F" Min="-1.00000000e+00" Max="9.99511719e-01"/>
    <Variable VarIndex="2" Expression="varMjj" Label="varMjj" Title="varMjj" Unit="" Internal="varMjj" Type="F" Min="5.00147461e+02" Max="6.45378076e+03"/>
    <Variable VarIndex="3" Expression="varDetajj" Label="varDetajj" Title="varDetajj" Unit="" Internal="varDetajj" Type="F" Min="2.50024414e+00" Max="8.42578125e+00"/>
    <Variable VarIndex="4" Expression="abs(varJet1Eta)" Label="abs(varJet1Eta)" Title="abs(varJet1Eta)" Unit="" Internal="abs_varJet1Eta_" Type="F" Min="1.45211816e-05" Max="4.64355469e+00"/>
    <Variable VarIndex="5" Expression="varJet1Pt" Label="varJet1Pt" Title="varJet1Pt" Unit="" Internal="varJet1Pt" Type="F" Min="5.08750000e+01" Max="1.75300000e+03"/>
    <Variable VarIndex="6" Expression="abs(varJet2Eta)" Label="abs(varJet2Eta)" Title="abs(varJet2Eta)" Unit="" Internal="abs_varJet2Eta_" Type="F" Min="5.84220886e-03" Max="4.64550781e+00"/>
    <Variable VarIndex="7" Expression="varJet2Pt" Label="varJet2Pt" Title="varJet2Pt" Unit="" Internal="varJet2Pt" Type="F" Min="5.00000000e+01" Max="9.18000000e+02"/>
    <Variable VarIndex="8" Expression="varMVV" Label="varMVV" Title="varMVV" Unit="" Internal="varMVV" Type="F" Min="5.02049774e+02" Max="3.67874023e+03"/>
    <Variable VarIndex="9" Expression="varPTV1" Label="varPTV1" Title="varPTV1" Unit="" Internal="varPTV1" Type="F" Min="3.00000000e+02" Max="1.91400000e+03"/>
    <Variable VarIndex="10" Expression="varPTV2" Label="varPTV2" Title="varPTV2" Unit="" Internal="varPTV2" Type="F" Min="3.00000000e+02" Max="1.72000000e+03"/>
    <Variable VarIndex="11" Expression="varCen" Label="varCen" Title="varCen" Unit="" Internal="varCen" Type="F" Min="-2.04846191e+00" Max="3.78759766e+00"/>
    <Variable VarIndex="12" Expression="varzepVV" Label="varzepVV" Title="varzepVV" Unit="" Internal="varzepVV" Type="F" Min="1.50948836e-04" Max="2.22451210e+00"/>
    <Variable VarIndex="13" Expression="varDRV1j" Label="varDRV1j" Title="varDRV1j" Unit="" Internal="varDRV1j" Type="F" Min="1.20024276e+00" Max="4.66205406e+00"/>
    <Variable VarIndex="14" Expression="varDRV2j" Label="varDRV2j" Title="varDRV2j" Unit="" Internal="varDRV2j" Type="F" Min="1.20047331e+00" Max="4.65473938e+00"/>
    <Variable VarIndex="15" Expression="varnormPTVVjj" Label="varnormPTVVjj" Title="varnormPTVVjj" Unit="" Internal="varnormPTVVjj" Type="F" Min="2.81532761e-04" Max="6.09279156e-01"/>
  </Variables>
  <Spectators NSpec="0"/>
  <Classes NClass="2">
    <Class Name="Signal" Index="0"/>
    <Class Name="Background" Index="1"/>
  </Classes>
  <Transformations NTransformations="1">
    <Transform Name="Normalize">
      <Selection>
        <Input NInputs="16">
          <Input Type="Variable" Label="j1QGL" Expression="j1QGL"/>
          <Input Type="Variable" Label="j2QGL" Expression="j2QGL"/>
          <Input Type="Variable" Label="varMjj" Expression="varMjj"/>
          <Input Type="Variable" Label="varDetajj" Expression="varDetajj"/>
          <Input Type="Variable" Label="abs(varJet1Eta)" Expression="abs(varJet1Eta)"/>
          <Input Type="Variable" Label="varJet1Pt" Expression="varJet1Pt"/>
          <Input Type="Variable" Label="abs(varJet2Eta)" Expression="abs(varJet2Eta)"/>
          <Input Type="Variable" Label="varJet2Pt" Expression="varJet2Pt"/>
          <Input Type="Variable" Label="varMVV" Expression="varMVV"/>
          <Input Type="Variable" Label="varPTV1" Expression="varPTV1"/>
          <Input Type="Variable" Label="varPTV2" Expression="varPTV2"/>
          <Input Type="Variable" Label="varCen" Expression="varCen"/>
          <Input Type="Variable" Label="varzepVV" Expression="varzepVV"/>
          <Input Type="Variable" Label="varDRV1j" Expression="varDRV1j"/>
          <Input Type="Variable" Label="varDRV2j" Expression="varDRV2j"/>
          <Input Type="Variable" Label="varnormPTVVjj" Expression="varnormPTVVjj"/>
        </Input>
        <Output NOutputs="16">
          <Output Type="Variable" Label="j1QGL" Expression="j1QGL"/>
          <Output Type="Variable" Label="j2QGL" Expression="j2QGL"/>
          <Output Type="Variable" Label="varMjj" Expression="varMjj"/>
          <Output Type="Variable" Label="varDetajj" Expression="varDetajj"/>
          <Output Type="Variable" Label="abs(varJet1Eta)" Expression="abs(varJet1Eta)"/>
          <Output Type="Variable" Label="varJet1Pt" Expression="varJet1Pt"/>
          <Output Type="Variable" Label="abs(varJet2Eta)" Expression="abs(varJet2Eta)"/>
          <Output Type="Variable" Label="varJet2Pt" Expression="varJet2Pt"/>
          <Output Type="Variable" Label="varMVV" Expression="varMVV"/>
          <Output Type="Variable" Label="varPTV1" Expression="varPTV1"/>
          <Output Type="Variable" Label="varPTV2" Expression="varPTV2"/>
          <Output Type="Variable" Label="varCen" Expression="varCen"/>
          <Output Type="Variable" Label="varzepVV" Expression="varzepVV"/>
          <Output Type="Variable" Label="varDRV1j" Expression="varDRV1j"/>
          <Output Type="Variable" Label="varDRV2j" Expression="varDRV2j"/>
          <Output Type="Variable" Label="varnormPTVVjj" Expression="varnormPTVVjj"/>
        </Output>
      </Selection>
      <Class ClassIndex="0">
        <Ranges>
          <Range Index="0" Min="-1.0000000000000000e+00" Max="1.0000000000000000e+00"/>
          <Range Index="1" Min="-1.0000000000000000e+00" Max="9.9951171875000000e-01"/>
          <Range Index="2" Min="5.0074884033203125e+02" Max="6.4537807617187500e+03"/>
          <Range Index="3" Min="2.5002441406250000e+00" Max="8.4257812500000000e+00"/>
          <Range Index="4" Min="7.1344375610351562e-03" Max="4.6230468750000000e+00"/>
          <Range Index="5" Min="5.2718750000000000e+01" Max="1.7530000000000000e+03"/>
          <Range Index="6" Min="2.6340484619140625e-02" Max="4.6455078125000000e+00"/>
          <Range Index="7" Min="5.0000000000000000e+01" Max="8.3050000000000000e+02"/>
          <Range Index="8" Min="5.0204977416992188e+02" Max="3.6787402343750000e+03"/>
          <Range Index="9" Min="3.0000000000000000e+02" Max="1.9140000000000000e+03"/>
          <Range Index="10" Min="3.0000000000000000e+02" Max="1.7200000000000000e+03"/>
          <Range Index="11" Min="-2.0223388671875000e+00" Max="3.7875976562500000e+00"/>
          <Range Index="12" Min="1.5094883565325290e-04" Max="1.8344415426254272e+00"/>
          <Range Index="13" Min="1.2002427577972412e+00" Max="4.6620540618896484e+00"/>
          <Range Index="14" Min="1.2006237506866455e+00" Max="4.6089529991149902e+00"/>
          <Range Index="15" Min="2.8153276070952415e-04" Max="6.0927915573120117e-01"/>
        </Ranges>
      </Class>
      <Class ClassIndex="1">
        <Ranges>
          <Range Index="0" Min="-1.0000000000000000e+00" Max="1.0000000000000000e+00"/>
          <Range Index="1" Min="-1.0000000000000000e+00" Max="9.9951171875000000e-01"/>
          <Range Index="2" Min="5.0014746093750000e+02" Max="5.3762480468750000e+03"/>
          <Range Index="3" Min="2.5009765625000000e+00" Max="8.3935546875000000e+00"/>
          <Range Index="4" Min="1.4521181583404541e-05" Max="4.6435546875000000e+00"/>
          <Range Index="5" Min="5.0875000000000000e+01" Max="1.6090000000000000e+03"/>
          <Range Index="6" Min="5.8422088623046875e-03" Max="4.6113281250000000e+00"/>
          <Range Index="7" Min="5.0000000000000000e+01" Max="9.1800000000000000e+02"/>
          <Range Index="8" Min="5.0331961059570312e+02" Max="3.6528342285156250e+03"/>
          <Range Index="9" Min="3.0000000000000000e+02" Max="1.5960000000000000e+03"/>
          <Range Index="10" Min="3.0000000000000000e+02" Max="1.6150000000000000e+03"/>
          <Range Index="11" Min="-2.0484619140625000e+00" Max="3.6993408203125000e+00"/>
          <Range Index="12" Min="2.6363672805018723e-04" Max="2.2245121002197266e+00"/>
          <Range Index="13" Min="1.2003294229507446e+00" Max="4.4168601036071777e+00"/>
          <Range Index="14" Min="1.2004733085632324e+00" Max="4.6547393798828125e+00"/>
          <Range Index="15" Min="7.8848132397979498e-04" Max="5.4213297367095947e-01"/>
        </Ranges>
      </Class>
      <Class ClassIndex="2">
        <Ranges>
          <Range Index="0" Min="-1.0000000000000000e+00" Max="1.0000000000000000e+00"/>
          <Range Index="1" Min="-1.0000000000000000e+00" Max="9.9951171875000000e-01"/>
          <Range Index="2" Min="5.0014746093750000e+02" Max="6.4537807617187500e+03"/>
          <Range Index="3" Min="2.5002441406250000e+00" Max="8.4257812500000000e+00"/>
          <Range Index="4" Min="1.4521181583404541e-05" Max="4.6435546875000000e+00"/>
          <Range Index="5" Min="5.0875000000000000e+01" Max="1.7530000000000000e+03"/>
          <Range Index="6" Min="5.8422088623046875e-03" Max="4.6455078125000000e+00"/>
          <Range Index="7" Min="5.0000000000000000e+01" Max="9.1800000000000000e+02"/>
          <Range Index="8" Min="5.0204977416992188e+02" Max="3.6787402343750000e+03"/>
          <Range Index="9" Min="3.0000000000000000e+02" Max="1.9140000000000000e+03"/>
          <Range Index="10" Min="3.0000000000000000e+02" Max="1.7200000000000000e+03"/>
          <Range Index="11" Min="-2.0484619140625000e+00" Max="3.7875976562500000e+00"/>
          <Range Index="12" Min="1.5094883565325290e-04" Max="2.2245121002197266e+00"/>
          <Range Index="13" Min="1.2002427577972412e+00" Max="4.6620540618896484e+00"/>
          <Range Index="14" Min="1.2004733085632324e+00" Max="4.6547393798828125e+00"/>
          <Range Index="15" Min="2.8153276070952415e-04" Max="6.0927915573120117e-01"/>
        </Ranges>
      </Class>
    </Transform>
  </Transformations>
  <MVAPdfs/>
  <Weights InputWidth="16" Depth="4" LossFunction="C" OutputFunction="S">
    <Layer ActivationFunction="3">
      <Weights rows="32" cols="16">
        -3.1740638613700867e-01 7.5227789580821991e-02 -3.6771228909492493e-01 4.1818273067474365e-01 -2.9584988951683044e-01 -1.8946096301078796e-01 2.0605428144335747e-02 -6.7855671048164368e-02 5.3736932575702667e-02 -1.4062142372131348e-01 -3.2184562087059021e-01 -1.9823102653026581e-01 2.1674466133117676e-01 3.0696934461593628e-01 -1.8750680983066559e-01 3.8762307167053223e-01 1.6459265351295471e-01 -7.7647186815738678e-02 5.0035095214843750e-01 7.2375483810901642e-02 7.4381651356816292e-03 2.6383820176124573e-01 -3.1765902042388916e-01 -1.1161483824253082e-01 -1.5251855552196503e-01 3.4614261984825134e-01 3.5249391198158264e-01 -2.7190577983856201e-01 -1.4524260163307190e-01 -2.0488455891609192e-01 -7.7773883938789368e-02 -7.4023383855819702e-01 -2.0596241950988770e-01 4.5349504798650742e-02 3.3216342329978943e-01 -4.3778616935014725e-02 1.8139785528182983e-01 3.6097398400306702e-01 2.2587679326534271e-01 -2.1994075179100037e-01 1.2066414207220078e-01 -4.5995123684406281e-02 2.3590190708637238e-01 2.1705929934978485e-01 -7.5149215757846832e-02 -1.3574454188346863e-01 2.8825139999389648e-01 -3.0750530958175659e-01 3.0217432975769043e-01 -5.3257573395967484e-02 -2.7092921733856201e-01 7.8450024127960205e-02 1.5757228434085846e-01 2.2959220409393311e-01 -1.4714583754539490e-01 -2.8020021319389343e-01 -2.2451913356781006e-01 -1.3108833134174347e-01 1.0542329400777817e-01 -1.6398561000823975e-01 1.9008323550224304e-01 -9.3064673244953156e-02 3.4553259611129761e-01 3.4238168597221375e-01 2.7065314352512360e-03 -2.0312666893005371e-01 -5.1050364971160889e-01 8.7216131389141083e-02 7.2226181626319885e-02 3.2261468470096588e-02 -1.9808214157819748e-02 9.6977978944778442e-02 -4.5543670654296875e-02 2.3702651262283325e-02 1.4231628738343716e-03 -1.3580136001110077e-01 -2.2572299838066101e-01 2.6303336024284363e-01 -1.9154933094978333e-01 6.5003402531147003e-02 -2.9238349199295044e-01 -2.3413610458374023e-01 1.8739795684814453e-01 -5.0063584931194782e-03 1.1443399637937546e-01 1.7481100559234619e-01 1.2025240063667297e-01 -2.5331022217869759e-02 -1.3952286541461945e-01 -1.0650372505187988e-01 -3.0225005745887756e-01 1.3012400828301907e-02 -3.0443277955055237e-01 -2.7284961938858032e-01 1.6403272747993469e-01 1.5592668950557709e-01 -8.9712381362915039e-02 -3.5539653152227402e-02 -2.3240597546100616e-01 1.1606203019618988e-01 2.7314689755439758e-01 -2.9937833547592163e-01 -2.6642323937267065e-03 -1.5775495767593384e-01 1.7094722390174866e-01 2.1372020244598389e-01 7.4584759771823883e-02 2.8738003969192505e-01 3.2468929886817932e-02 9.9425308406352997e-02 -1.0249198973178864e-01 -2.2752084769308567e-03 -3.2230892777442932e-01 -1.1710225790739059e-01 -3.6056303977966309e-01 2.5033774971961975e-01 -3.1425526738166809e-01 7.3306471109390259e-02 -6.7007273435592651e-02 -2.8117558360099792e-01 -2.6611715555191040e-01 -3.9667230844497681e-01 -7.0615157485008240e-02 -3.2860553264617920e-01 1.9884093105792999e-01 2.2444730997085571e-01 -8.0399118363857269e-02 4.5336332917213440e-01 3.6679759621620178e-02 1.7477497458457947e-01 2.3597629368305206e-01 1.3947554863989353e-02 3.3294647932052612e-02 3.2716152071952820e-01 1.8863908946514130e-01 2.8977793455123901e-01 3.3103507757186890e-01 -6.0472760349512100e-02 6.8993970751762390e-02 -2.9428526759147644e-01 -9.3175284564495087e-02 2.6615422964096069e-01 -2.3480728268623352e-01 -5.2594304084777832e-01 -5.6006066501140594e-02 1.6570962965488434e-01 1.7898268997669220e-01 -2.2157971560955048e-01 -1.7651155591011047e-01 -9.5368184149265289e-02 -2.8133496642112732e-01 2.7230045199394226e-01 1.3444563746452332e-01 3.4499672055244446e-01 -3.7783470004796982e-02 3.1424900889396667e-01 -2.0801001787185669e-01 -3.6499586701393127e-01 -3.4545618295669556e-01 -3.4166342020034790e-01 -2.4236306548118591e-01 -3.6698243021965027e-01 -3.9568570256233215e-01 1.9147217273712158e-01 1.0425406694412231e-01 -5.1450407505035400e-01 -1.0157282650470734e-01 -9.6441790461540222e-02 -5.1633242517709732e-02 -4.1983202099800110e-01 1.1130129545927048e-01 -1.2712788581848145e-01 -2.4056160449981689e-01 -2.8810343146324158e-01 1.6963540017604828e-01 6.7690390348434448e-01 -2.5233390927314758e-01 -1.9878256320953369e-01 1.3197739422321320e-01 -2.4029144644737244e-01 -3.1089866161346436e-01 -2.7315652370452881e-01 1.2152162380516529e-02 -1.5843439102172852e-01 2.4054158478975296e-02 -1.3084956444799900e-03 2.7519059181213379e-01 -2.1419613063335419e-01 2.1886268258094788e-01 3.5422500222921371e-02 -2.5691923499107361e-01 -8.9878430590033531e-03 -2.7424648404121399e-01 -1.6420175135135651e-01 -2.9932567477226257e-01 -1.3298629224300385e-01 -2.2131061553955078e-01 -1.4682804048061371e-01 -2.7747070789337158e-01 2.3060357570648193e-01 -2.0717765390872955e-01 9.6282824873924255e-02 2.2788429260253906e-01 -3.0793410539627075e-01 5.5182673037052155e-02 -2.9809394851326942e-02 -2.7457755804061890e-01 2.5763791799545288e-01 2.4579626321792603e-01 3.2815310359001160e-01 1.5930187702178955e-01 1.9178605079650879e-01 1.9627720117568970e-01 -1.9983828067779541e-01 1.5512222051620483e-01 2.4309013783931732e-01 1.3167935609817505e-01 1.2842647731304169e-01 3.7731835246086121e-01 1.0604096204042435e-01 1.2245520204305649e-01 -3.0111899971961975e-01 -2.2933265566825867e-01 -4.1217986494302750e-02 2.0843884348869324e-01 6.4435969106853008e-03 -5.3478336334228516e-01 -1.4396476745605469e-01 -2.1952553093433380e-01 8.9685022830963135e-02 -8.7227888405323029e-02 -1.7892234027385712e-01 -3.3533185720443726e-01 9.7266294062137604e-02 -2.7820986509323120e-01 -5.5377081036567688e-02 2.0191425085067749e-01 8.6665228009223938e-02 5.2042562514543533e-02 4.0887326002120972e-01 -2.2528767585754395e-01 5.1036227494478226e-02 1.2454739212989807e-01 2.8766521811485291e-01 2.2903203964233398e-01 -6.1050173826515675e-03 2.0949356257915497e-01 -1.1664564162492752e-01 -2.0273756980895996e-01 -6.1758942902088165e-02 5.6922513991594315e-02 1.0889294743537903e-01 3.6822333931922913e-02 -1.5269945561885834e-01 2.0224486291408539e-01 -2.7087509632110596e-01 -7.4539788067340851e-02 3.4173417091369629e-01 2.9298064112663269e-01 2.2785191237926483e-01 7.0455729961395264e-02 -3.2234065234661102e-02 2.2809830307960510e-01 -4.7564029693603516e-02 1.8409554660320282e-01 3.1853869557380676e-01 1.5204210579395294e-01 1.8531900644302368e-01 2.2100543975830078e-01 -2.6889222860336304e-01 3.0556920170783997e-01 -8.6571887135505676e-02 2.3384800553321838e-01 1.3223053514957428e-01 5.5765992403030396e-01 1.7143785953521729e-01 1.9477297365665436e-01 3.5482814908027649e-01 -1.3439264893531799e-01 2.3947242647409439e-02 -5.2352538332343102e-03 3.7517197430133820e-02 1.4737388491630554e-01 3.7077957391738892e-01 -8.0113120377063751e-02 -1.6908785700798035e-01 -1.6070193052291870e-01 -6.0715878009796143e-01 -1.2357501313090324e-02 3.0146306380629539e-02 -5.0892133265733719e-02 1.5794762969017029e-01 -1.6766004264354706e-01 9.7019277513027191e-02 -1.1707244813442230e-01 -1.0300369001924992e-02 6.3863866031169891e-02 -7.1575328707695007e-02 9.3222647905349731e-02 1.9280072301626205e-02 6.5195262432098389e-02 2.7185580134391785e-01 3.0423843860626221e-01 -1.0609509050846100e-01 2.5431483983993530e-02 -1.0786055028438568e-01 2.1461059153079987e-01 2.4274452030658722e-01 3.0293023586273193e-01 1.6103060543537140e-01 2.0606039464473724e-01 1.3039883971214294e-01 -2.6622970472089946e-04 3.2459661364555359e-01 -3.0942005105316639e-03 2.2594152390956879e-01 6.4590908586978912e-02 2.7874889969825745e-01 -9.2838510870933533e-02 2.1369652450084686e-01 2.3325186222791672e-02 2.1627272665500641e-01 5.0668728351593018e-01 7.1327418088912964e-02 -2.4478614330291748e-01 1.9029203057289124e-01 1.2368535995483398e-01 9.7009405493736267e-02 -2.9085674881935120e-01 1.8922412395477295e-01 -1.9739687442779541e-01 1.2559051811695099e-01 1.6208952665328979e-01 4.1426628828048706e-02 1.3275213539600372e-01 -4.2405378818511963e-01 2.8871687129139900e-02 2.7556282281875610e-01 -3.3245000988245010e-02 -3.4042716026306152e-01 1.6921356320381165e-01 1.7225841060280800e-02 -2.5317516922950745e-01 -1.8750748038291931e-01 -1.3232998549938202e-01 -9.8200432956218719e-02 -1.5895740687847137e-01 -1.9371861219406128e-01 -2.5545669719576836e-02 1.8732205498963594e-03 3.4626555442810059e-01 -1.1416684836149216e-01 -1.0003788024187088e-01 -3.9074665307998657e-01 -8.5016377270221710e-02 3.4200415015220642e-01 -3.6562439799308777e-01 2.8342911973595619e-02 -1.0409248620271683e-01 -2.6308432221412659e-02 -3.3807331323623657e-01 -3.8483083248138428e-01 9.5010414719581604e-02 1.5795238316059113e-01 2.1662171185016632e-01 -2.5674140453338623e-01 -1.4539340510964394e-02 -1.2087065726518631e-01 2.4946337938308716e-01 1.8663549423217773e-01 2.0260396599769592e-01 -2.4311363697052002e-01 2.4959256872534752e-02 -3.0381536483764648e-01 -1.1842849850654602e-01 -2.2909878194332123e-01 -2.4124602973461151e-01 1.7259031534194946e-01 -3.0583712458610535e-01 -1.9223058596253395e-02 -2.0338676869869232e-01 -3.3106458187103271e-01 -1.2895052134990692e-01 -2.7872091159224510e-03 2.6475206017494202e-01 2.4244509637355804e-01 -2.6588246226310730e-01 -1.4626295864582062e-01 1.4682787656784058e-01 -4.9583032727241516e-02 4.7460123896598816e-02 -1.2226723879575729e-01 -6.2645740807056427e-02 -1.5426604077219963e-03 -1.5294817090034485e-01 -2.0615480840206146e-01 1.8147175014019012e-01 1.8509667366743088e-02 1.9273829460144043e-01 2.6361408829689026e-01 1.3239699602127075e-01 1.2572146952152252e-01 -2.4183569848537445e-01 -2.6757171750068665e-01 3.7717092782258987e-02 2.9902538657188416e-01 2.5972047448158264e-01 -6.5821073949337006e-02 2.0463535189628601e-01 -2.2138859331607819e-01 -2.1417941153049469e-01 -2.2674304246902466e-01 1.5983025729656219e-01 3.0823338031768799e-01 2.7850488200783730e-02 -2.4116945266723633e-01 2.8924992680549622e-01 1.7645961046218872e-01 2.6303967833518982e-01 -1.5861569344997406e-01 -2.0184440910816193e-01 -5.1504131406545639e-02 2.8506028652191162e-01 -3.5451497882604599e-02 3.7456539273262024e-01 3.0978775024414062e-01 2.0778788626194000e-01 -7.0533424615859985e-02 -1.5088249742984772e-01 1.9089901447296143e-01 -2.1013340353965759e-01 -2.3553323745727539e-01 2.3799379169940948e-01 -3.8475200533866882e-01 -3.8781875371932983e-01 -4.5344591140747070e-02 -3.5213315486907959e-01 -3.1139606237411499e-01 4.0585651993751526e-01 1.7881117761135101e-01 -1.2024307996034622e-01 9.4990454614162445e-02 -3.2638832926750183e-01 -3.6600333452224731e-01 3.2727267593145370e-02 -2.1926201879978180e-02 -5.4015036672353745e-02 3.1642535328865051e-01 -3.0355498194694519e-01 -5.3824428468942642e-03 -5.1859891414642334e-01 1.0607495158910751e-01 2.7356979250907898e-01 1.9307689368724823e-01 1.3155944645404816e-01 -2.7133265137672424e-01 -2.7769398689270020e-01 -2.7452224493026733e-01 -4.0543246269226074e-01 -2.3893660306930542e-01 -1.0309842973947525e-01 -1.5415921807289124e-01 2.3514200747013092e-01 6.8670070171356201e-01 -1.8429999053478241e-01 1.7260669171810150e-01 -4.5066215097904205e-03 3.2071039080619812e-02 -9.0981647372245789e-02 4.7066971659660339e-02 1.5183238685131073e-01 -2.8906127810478210e-01 2.0561483502388000e-01 -1.5938511490821838e-01 2.3565438389778137e-01 6.1594657599925995e-02 2.5944992899894714e-02 -1.3774116337299347e-01 3.6684803664684296e-02 3.6274209618568420e-01 -2.6026779413223267e-01 9.3888208270072937e-02 -4.2178475856781006e-01 5.5119175463914871e-02 2.6803651452064514e-01 -2.1660166978836060e-01 -1.1044242419302464e-02 -1.9991780817508698e-01 -2.6631540060043335e-01 1.6774727031588554e-02 2.7454987168312073e-01 1.5358746051788330e-01 9.5632068812847137e-02 -2.3997762799263000e-01 1.0274270176887512e-01 1.2014331668615341e-01 2.4114933609962463e-01 3.8710623979568481e-02 -6.1076723039150238e-02 2.5207099318504333e-01 1.5531983971595764e-01 1.3926461338996887e-02 1.7609429359436035e-01 1.7638157308101654e-01 -2.2083412110805511e-01 -3.1600362062454224e-01 -8.8498994708061218e-02 -9.2844627797603607e-02 -2.9985404014587402e-01 2.1312145888805389e-01 -1.6256934404373169e-01 -3.0028405785560608e-01 
      </Weights>
      <Biases rows="32" cols="1">
        -2.7938663959503174e-01 3.5433822870254517e-01 3.9571676403284073e-02 -6.4001850783824921e-02 -1.3624964654445648e-01 -2.0231435075402260e-02 -1.2291300110518932e-02 -2.2841450572013855e-01 2.4367253482341766e-01 1.6035006940364838e-01 -1.9477856159210205e-01 -9.2469707131385803e-02 -6.9915451109409332e-02 8.4133632481098175e-02 -1.3149106502532959e-01 -7.0448685437440872e-03 1.8684032559394836e-01 2.2012750804424286e-01 4.8622414469718933e-02 8.7115518748760223e-02 2.2736838459968567e-01 -8.7403677403926849e-02 -5.9665873646736145e-02 1.9844902679324150e-02 -9.4322577118873596e-02 2.2407209500670433e-02 8.0432005226612091e-02 -7.2189524769783020e-02 -1.9085152447223663e-01 -4.2149815708398819e-02 -1.1007655411958694e-01 -2.5365699082612991e-02 
      </Biases>
    </Layer>
    <Layer ActivationFunction="3">
      <Weights rows="32" cols="32">
        -2.5063920021057129e-01 2.3531946539878845e-01 -8.0083101987838745e-02 1.3835486769676208e-01 -2.7957221865653992e-01 -1.7099249362945557e-01 -6.3129998743534088e-02 -2.1673677861690521e-01 9.5870926976203918e-02 4.0270183235406876e-02 -3.8110563158988953e-01 -7.9375185072422028e-02 1.0201408714056015e-01 2.0939159393310547e-01 -2.7312630414962769e-01 8.2843430340290070e-02 8.2708090543746948e-02 8.1659369170665741e-02 8.0638237297534943e-02 5.3243096917867661e-03 1.0854583233594894e-01 1.2571386992931366e-01 -1.9475905597209930e-01 4.3597491458058357e-03 -1.5489582717418671e-01 1.4022789895534515e-01 2.6840671896934509e-01 -3.1766366958618164e-01 -2.9730775952339172e-01 -1.0558120906352997e-01 -3.7093810737133026e-02 -7.9289540648460388e-02 -1.3913929462432861e-01 7.5756907463073730e-02 6.7038081586360931e-02 -3.9475567638874054e-02 9.6208684146404266e-02 1.5139520168304443e-01 1.7051249742507935e-01 -2.6642972230911255e-01 3.6589674651622772e-02 -1.4649184048175812e-01 4.5857071876525879e-02 1.2531192600727081e-01 -1.2297788262367249e-01 -9.1800093650817871e-02 1.6101135313510895e-01 -1.0076175630092621e-01 2.2261096537113190e-01 -2.1182032302021980e-02 -1.5095141530036926e-01 7.5314324349164963e-03 1.1710189282894135e-01 1.6233418881893158e-01 -1.2606398761272430e-01 -1.9558537006378174e-01 -1.6764952242374420e-01 -7.3818378150463104e-02 9.4129204750061035e-02 -1.4660950005054474e-01 1.3078565895557404e-01 -8.3627179265022278e-02 2.2386464476585388e-01 1.8346321582794189e-01 1.0478720813989639e-01 -2.0256678760051727e-01 -2.7475869655609131e-01 9.8015829920768738e-02 9.8814189434051514e-02 9.6621006727218628e-02 7.9668071120977402e-03 1.9168911874294281e-01 -6.6175825893878937e-02 3.1268429011106491e-02 1.4191789925098419e-01 -7.4662335216999054e-02 -9.0309254825115204e-02 1.6850255429744720e-01 -6.1327751725912094e-02 -1.4542233943939209e-01 -2.5393131375312805e-01 -2.9320931434631348e-01 1.5184997022151947e-01 3.7677571177482605e-02 1.7120009288191795e-02 1.4066180586814880e-01 6.6839657723903656e-02 -3.9429705590009689e-02 -6.8553484976291656e-02 -6.5431274473667145e-02 -2.6996135711669922e-01 7.5767047703266144e-02 -8.5195869207382202e-02 -2.1256829798221588e-01 1.2087529897689819e-01 3.7582259625196457e-02 -1.7094952054321766e-03 -1.2970024347305298e-01 -2.4059389531612396e-01 1.1170701682567596e-01 2.0874142646789551e-01 -2.0220793783664703e-01 1.7817709594964981e-02 -3.3508580178022385e-02 3.1993843615055084e-02 8.5303850471973419e-02 1.2591256201267242e-01 1.8447463214397430e-01 8.1957951188087463e-02 3.7612654268741608e-02 -1.0499042458832264e-02 -2.4763256311416626e-02 -2.6632511615753174e-01 -1.7917770147323608e-01 -1.0261081159114838e-01 1.2857408821582794e-01 -2.8493550419807434e-01 1.1011923849582672e-01 -7.6199293136596680e-02 -1.9142580032348633e-01 -1.4456622302532196e-01 -1.9560839235782623e-01 -8.0115988850593567e-02 -1.5536539256572723e-01 2.8020989894866943e-01 9.2116296291351318e-02 -6.7303963005542755e-02 6.6474080085754395e-02 -9.1753877699375153e-02 1.6772913932800293e-01 7.5944818556308746e-02 4.8134651035070419e-02 -1.2079803273081779e-02 1.8752562999725342e-01 1.4628836512565613e-01 1.2402361631393433e-01 2.9368659853935242e-01 -6.2302790582180023e-02 -4.3860040605068207e-02 -2.2471015155315399e-01 -1.3841702044010162e-01 2.6027044653892517e-01 -1.9392986595630646e-01 -9.6636891365051270e-02 3.0671151354908943e-02 2.3535992205142975e-01 4.8408344388008118e-02 -1.0640976577997208e-01 -1.7266221344470978e-02 -1.0893342643976212e-01 -1.9366963207721710e-01 1.9253619015216827e-01 7.0755861699581146e-02 1.9475878775119781e-01 2.5391310453414917e-02 1.6492328047752380e-01 -2.5468659400939941e-01 -1.8136452138423920e-01 -2.3386391997337341e-01 -5.6703072041273117e-02 -2.5327689945697784e-03 -4.1168007254600525e-01 -7.3447637259960175e-02 1.4914001524448395e-01 1.3592471182346344e-01 -1.8674929440021515e-01 -4.7174539417028427e-02 2.0160226523876190e-01 -7.8890524804592133e-02 -2.1810419857501984e-01 3.5372179746627808e-01 -1.2352374941110611e-01 1.8784577026963234e-02 -2.6147070527076721e-01 2.3579031229019165e-01 1.5970535576343536e-01 -2.4438217282295227e-01 -3.1901770830154419e-01 1.5745469927787781e-01 -9.3466803431510925e-02 -3.4263187646865845e-01 -1.0962394624948502e-01 1.1140368878841400e-03 -1.1730459332466125e-01 9.8990522325038910e-02 5.5617712438106537e-02 1.3973240554332733e-01 -1.6603082418441772e-02 3.2393872737884521e-01 3.8577350787818432e-03 -1.4035063982009888e-01 -1.6172976791858673e-01 -1.8588414788246155e-01 -6.6502854228019714e-02 -1.3022136688232422e-01 -1.2728852033615112e-01 -1.5395598113536835e-01 -8.2182809710502625e-02 -2.3282636702060699e-01 1.3532467186450958e-01 -1.1802862584590912e-01 1.2633669376373291e-01 1.3871768116950989e-01 -1.9680996239185333e-01 4.3402478098869324e-02 -8.4497667849063873e-03 -2.3135325312614441e-01 1.1913289874792099e-01 1.7105948925018311e-01 2.2153756022453308e-01 -6.3884325325489044e-02 1.2913027405738831e-01 1.4261963963508606e-01 -2.3464393615722656e-01 1.3588351011276245e-01 1.1880653351545334e-01 2.5969527661800385e-02 -1.4388603158295155e-02 2.0885629951953888e-01 2.0920177921652794e-02 1.7639767378568649e-02 -1.9271375238895416e-01 -1.6021983325481415e-01 1.0701170563697815e-01 1.8208746612071991e-01 -7.5909070670604706e-02 -2.4692623317241669e-01 -9.5400989055633545e-02 -1.1526703834533691e-01 1.4189980924129486e-01 -5.9026442468166351e-02 1.6475778073072433e-02 -2.6530307531356812e-01 1.2914182245731354e-01 -5.2602708339691162e-02 1.0927618481218815e-02 2.3107695579528809e-01 1.3028729707002640e-02 9.9107481539249420e-02 7.6139077544212341e-02 -1.7823900282382965e-01 -6.8067744374275208e-02 1.4628547430038452e-01 2.4715024232864380e-01 1.0244074463844299e-01 5.6150376796722412e-02 1.6556921601295471e-01 -5.9827074408531189e-02 -8.8109463453292847e-02 8.3108898252248764e-03 3.0539141967892647e-02 1.5731303393840790e-01 1.0441259294748306e-01 -1.0476484149694443e-01 1.8284313380718231e-01 -2.6184165477752686e-01 -9.9959701299667358e-02 2.4471893906593323e-01 2.0243246853351593e-01 1.6476829349994659e-01 1.4818582683801651e-02 -1.2688387185335159e-02 1.7007246613502502e-01 -7.4044644832611084e-02 2.0342032611370087e-01 2.6830604672431946e-01 3.9090953767299652e-02 9.3221582472324371e-02 1.5994487702846527e-01 -1.0981492698192596e-01 1.7247699201107025e-01 1.1371502280235291e-01 1.8272095918655396e-01 1.7901915311813354e-01 2.0220245420932770e-01 1.2793803215026855e-01 1.9993504881858826e-01 1.9026674330234528e-01 -6.3506670296192169e-02 2.7397064492106438e-02 -5.1746543496847153e-02 -6.8202421069145203e-02 1.0547761619091034e-01 1.8100456893444061e-01 -1.8631550669670105e-01 -8.9297667145729065e-02 -1.3315835595130920e-01 -1.4407816529273987e-01 -8.3129681646823883e-02 5.6888114660978317e-02 -5.4946388117969036e-03 7.4014663696289062e-02 -1.3743427395820618e-01 5.3263783454895020e-02 -1.0872952640056610e-01 -7.8358605504035950e-02 1.0088595747947693e-01 -1.9569026306271553e-02 -1.0746926069259644e-02 -1.1744684539735317e-02 1.2575114145874977e-02 2.2056791186332703e-01 1.5582886338233948e-01 3.2009386923164129e-03 5.0154745578765869e-02 -7.1972543373703957e-03 1.3983638584613800e-01 1.7838914692401886e-01 2.8479343652725220e-01 1.1252661794424057e-01 1.1571613699197769e-01 1.1879314482212067e-01 -1.8565755337476730e-02 2.2170577943325043e-01 5.7071059942245483e-02 8.9190199971199036e-02 1.1001163162291050e-02 2.3067049682140350e-01 -5.9914950281381607e-02 2.4901558458805084e-01 -1.2916393578052521e-01 2.1857342123985291e-01 2.5179779529571533e-01 5.6337740272283554e-02 -2.2382706403732300e-01 4.2102508246898651e-02 1.1638079583644867e-01 -6.9693893194198608e-02 -1.6181111335754395e-01 9.1769427061080933e-02 -2.9671368002891541e-01 7.7186644077301025e-02 2.2481238469481468e-02 1.0065273940563202e-01 3.7255220115184784e-02 -5.5745965801179409e-03 1.1730366200208664e-01 3.1094485521316528e-01 3.7183884531259537e-02 -2.6583203673362732e-01 2.2565183043479919e-01 -2.9563765972852707e-02 -1.8289220333099365e-01 -1.3768617808818817e-01 -1.2974999845027924e-01 -5.4518066346645355e-02 -3.9697110652923584e-02 -1.9050723314285278e-01 -1.5922088921070099e-01 3.4694090485572815e-02 2.0426861941814423e-01 -9.6999369561672211e-02 -6.7764438688755035e-02 -2.1925877034664154e-01 8.0329440534114838e-02 2.3083223402500153e-01 -2.3687973618507385e-01 7.9265765845775604e-02 -8.4792293608188629e-02 2.7102457825094461e-03 -1.8651723861694336e-01 -1.9575627148151398e-01 1.1465770751237869e-01 1.2189987301826477e-01 1.5069958567619324e-01 -1.8171314895153046e-01 -1.7917402088642120e-02 -1.6813023388385773e-01 1.9958822429180145e-01 1.5388429164886475e-01 1.3156311213970184e-01 -1.5713791549205780e-01 2.8667805716395378e-02 -2.2375179827213287e-01 -9.2543728649616241e-02 -1.6573527455329895e-01 -1.7118787765502930e-01 1.0911463946104050e-01 -2.0730486512184143e-01 -3.1294755637645721e-02 -1.4121212065219879e-01 -2.2530716657638550e-01 -9.4384342432022095e-02 2.0168982446193695e-02 2.3512892425060272e-01 1.0904220491647720e-01 -1.4578482508659363e-01 -7.2024002671241760e-02 1.4128911495208740e-01 -1.8910618498921394e-02 5.8154944330453873e-02 -2.9319735243916512e-02 -7.8950598835945129e-02 1.6975407488644123e-03 -4.4245101511478424e-02 -1.2202953547239304e-01 1.6198608279228210e-01 7.0384894497692585e-03 1.8949580192565918e-01 7.2937384247779846e-02 5.9721838682889938e-02 1.4479248784482479e-03 -2.1950784325599670e-01 -1.7649124562740326e-01 -1.7101550474762917e-02 2.0689445734024048e-01 1.6742040216922760e-01 -6.0689657926559448e-02 1.5130706131458282e-01 -1.7060996592044830e-01 -1.9980555772781372e-01 -1.3713511824607849e-01 1.8484617769718170e-01 2.1071909368038177e-01 2.7262739837169647e-02 -1.6006229817867279e-01 2.2392751276493073e-01 1.2195264548063278e-01 -1.0438497178256512e-02 -8.3955235779285431e-02 -1.6474452614784241e-01 -1.3049297034740448e-01 2.3265486955642700e-01 -9.1885685920715332e-02 2.1852821111679077e-01 1.2212507426738739e-01 7.9723775386810303e-02 -5.7157609611749649e-02 -1.6264882683753967e-01 1.4401084184646606e-01 -1.4823327958583832e-01 -4.0094520896673203e-02 9.8952770233154297e-02 -2.0637397468090057e-01 -1.0492556542158127e-01 -6.1192840337753296e-02 -2.0071700215339661e-01 -1.4193651080131531e-01 2.3817625641822815e-01 1.9406941533088684e-01 -3.3628217875957489e-02 1.7947119474411011e-01 -1.6745252907276154e-01 -2.3259265720844269e-01 7.5251623988151550e-02 -2.2214077413082123e-02 -2.9664376750588417e-02 1.1043398082256317e-01 -1.8664556741714478e-01 -5.0103034824132919e-02 -7.5324960052967072e-02 5.9507925063371658e-02 2.2430905699729919e-01 2.3809558153152466e-01 8.8062033057212830e-02 -1.1176363378763199e-01 -1.3718514144420624e-01 -3.2209739089012146e-02 -1.8778273463249207e-01 -1.3676676154136658e-01 3.6639701575040817e-02 -7.9773508012294769e-02 1.5716589987277985e-01 2.3302268981933594e-01 -1.2081636488437653e-01 1.1594759672880173e-01 6.7704245448112488e-02 4.9524281173944473e-02 -5.0251331180334091e-02 5.0298567861318588e-02 1.0463037341833115e-01 -2.0699076354503632e-01 1.6003145277500153e-01 -8.3356566727161407e-02 1.8924117088317871e-01 6.8809829652309418e-02 3.8222037255764008e-02 -8.6375810205936432e-02 4.1997592896223068e-02 1.9201417267322540e-01 -1.5038453042507172e-01 9.6260137856006622e-02 -1.9724343717098236e-01 -5.2563450299203396e-04 1.8685835599899292e-01 -1.3752762973308563e-01 -1.6211710870265961e-02 -1.6296978294849396e-01 -1.6554640233516693e-01 6.2245443463325500e-02 1.9331216812133789e-01 1.2443289905786514e-01 4.9464184790849686e-02 -1.6841821372509003e-01 3.4442234784364700e-02 -1.6386386007070541e-02 1.9611006975173950e-01 6.7170120775699615e-02 -5.4631002247333527e-02 1.4875145256519318e-01 1.2206422537565231e-01 -6.5090730786323547e-03 1.2581197917461395e-01 1.2286558747291565e-01 -1.6881822049617767e-01 -2.3130328953266144e-01 -5.1076162606477737e-02 -7.9451628029346466e-02 -2.5117057561874390e-01 1.4072525501251221e-01 -1.2710228562355042e-01 -2.0777331292629242e-01 1.6750296950340271e-01 -1.4565625786781311e-01 -2.3582960665225983e-01 -7.2044774889945984e-02 1.1039230972528458e-01 -1.9750057160854340e-01 2.1483972668647766e-01 1.0471919924020767e-01 -2.2891089320182800e-01 -1.4935286343097687e-01 2.4204558134078979e-01 1.2641657888889313e-01 2.3878610134124756e-01 1.5867756307125092e-01 -1.1170692741870880e-01 -1.9960127770900726e-01 1.2998525798320770e-01 -1.0834054648876190e-01 -1.7708458006381989e-01 -4.7850720584392548e-03 -1.9600671529769897e-01 1.3126055896282196e-01 6.8316506221890450e-03 1.6453354060649872e-01 -1.8114233016967773e-01 -1.5842285007238388e-02 1.0130501538515091e-01 5.8639701455831528e-03 1.2499839067459106e-01 1.7019754648208618e-01 -6.2598913908004761e-02 -2.2452160716056824e-02 1.5469905734062195e-01 -1.8307666480541229e-01 -3.1457644701004028e-01 3.0539977550506592e-01 2.6476162672042847e-01 -1.4621871709823608e-01 -4.7396037727594376e-02 -5.3850817494094372e-03 -3.1844550371170044e-01 -8.2333452999591827e-02 2.3463767766952515e-01 1.9569936394691467e-01 -1.5405851602554321e-01 7.1646884083747864e-02 2.8528103232383728e-01 4.4658113270998001e-02 3.6238498985767365e-02 -2.7452081441879272e-01 4.6901810914278030e-02 -5.0984550267457962e-02 1.1624731868505478e-01 1.7735178768634796e-01 -1.8507152795791626e-01 1.8983134627342224e-01 1.3577319681644440e-01 -6.9860987365245819e-02 -2.3644005879759789e-02 2.7904972434043884e-01 3.1854048371315002e-01 2.3653416335582733e-01 8.4369465708732605e-02 -1.4351511001586914e-01 -1.3315363228321075e-01 1.4109180867671967e-01 1.1390431225299835e-01 -1.9664674997329712e-02 -4.5906491577625275e-02 1.4763593673706055e-01 1.1150124669075012e-01 -1.3719677925109863e-01 -1.7924387753009796e-01 -4.1085001081228256e-02 6.6043317317962646e-02 1.3211210072040558e-01 -4.1097566485404968e-02 -3.7894945591688156e-02 1.3352392613887787e-01 -7.3130853474140167e-02 1.7230443656444550e-02 -1.8631358444690704e-01 1.3679836690425873e-01 -1.9843250513076782e-01 -1.8004176020622253e-01 1.4501704275608063e-01 1.1198267340660095e-02 1.1949654668569565e-01 2.0649848505854607e-02 -4.0920358151197433e-02 -5.2075587213039398e-02 1.2962080538272858e-01 -8.7344378232955933e-02 -8.8221825659275055e-02 1.9628588110208511e-02 9.4230309128761292e-02 -2.6606559753417969e-01 -1.4060272276401520e-01 5.4669011384248734e-02 -1.1249155551195145e-01 -1.8942510709166527e-02 1.3417404890060425e-01 9.0632669627666473e-02 -3.5051032900810242e-02 6.6202200949192047e-02 1.0880076885223389e-01 -6.9963172078132629e-02 6.2066074460744858e-03 -1.0724497586488724e-01 6.6855676472187042e-02 -1.0520099848508835e-01 2.6026181876659393e-02 -1.7670668661594391e-01 1.7666886746883392e-01 1.8842749297618866e-01 -3.8906913250684738e-03 2.8019076585769653e-01 -6.6048912703990936e-02 -1.7131464183330536e-01 -3.0389349907636642e-02 5.3895920515060425e-02 -1.4710210263729095e-02 -4.2148262262344360e-02 -7.2320446372032166e-02 -2.8772071003913879e-01 2.4945016950368881e-02 -2.1373465657234192e-01 -6.2194846570491791e-02 2.6795715093612671e-01 -3.8258999586105347e-01 -5.4155334830284119e-02 4.8468548804521561e-02 2.7083379030227661e-01 1.8957175314426422e-01 2.2984519600868225e-01 2.1726629137992859e-01 -1.8531447649002075e-01 -2.1228380501270294e-01 3.1109565868973732e-02 -1.0346440970897675e-01 8.8650546967983246e-02 -2.1817721426486969e-01 1.3095125555992126e-01 5.7594969868659973e-02 -1.8966938555240631e-01 -9.8757296800613403e-02 -1.3266309164464474e-02 8.6560316383838654e-02 -1.8163464963436127e-01 1.6425532102584839e-01 -8.1008434295654297e-02 -1.7039752006530762e-01 1.2489978224039078e-01 -1.6351151280105114e-03 -1.7192256450653076e-01 2.8674542903900146e-01 3.8060685992240906e-01 2.4769581854343414e-01 -1.0939397662878036e-01 4.4807054102420807e-02 -1.9344711303710938e-01 -1.2704928219318390e-01 -9.9696494638919830e-02 -2.0475473999977112e-01 -1.2298380583524704e-01 1.1977983266115189e-01 -1.0560017079114914e-01 -8.2142062485218048e-02 -1.5265759825706482e-01 1.5825779736042023e-01 -4.6852510422468185e-02 -7.3539860546588898e-02 -1.0296988487243652e-01 6.5589550649747252e-04 -8.5834696888923645e-02 -1.1118669807910919e-01 -5.6236289441585541e-02 1.1816553026437759e-01 1.9422270357608795e-01 1.3291350007057190e-01 -7.8745514154434204e-02 -2.3834916949272156e-01 -1.2931014597415924e-01 -1.0796279460191727e-01 -3.6789251025766134e-03 2.7067927643656731e-02 4.1834123432636261e-02 -3.7434194236993790e-02 -1.4245285093784332e-01 -8.3588501438498497e-03 -5.9193256311118603e-03 1.0656362026929855e-01 -2.6824715733528137e-01 3.8323482871055603e-01 7.9262122511863708e-02 -1.4778169803321362e-02 1.3717624545097351e-01 -9.0540729463100433e-02 7.6939910650253296e-02 -2.8123092651367188e-01 3.4823138266801834e-02 2.9474520683288574e-01 -3.5514572262763977e-01 -4.4612992554903030e-02 -2.6129904389381409e-01 2.6638922095298767e-01 8.7248003110289574e-03 1.9235966727137566e-02 1.1200372129678726e-01 2.8249500319361687e-02 -1.2347649037837982e-01 1.1898467689752579e-01 2.7000987529754639e-01 -7.0016406476497650e-02 -5.8360025286674500e-03 1.1781817302107811e-02 1.6357852146029472e-02 9.5562890172004700e-02 1.7023646831512451e-01 -1.4941276609897614e-01 -2.4206867814064026e-01 2.6958378031849861e-02 -1.8406988680362701e-01 4.1988234966993332e-02 8.1289984285831451e-02 2.8132978081703186e-01 -4.8192374408245087e-02 -2.7778267860412598e-01 -6.3240028917789459e-02 1.6281624138355255e-01 -2.0927391946315765e-01 -3.1545394659042358e-01 1.3786025345325470e-01 -4.6394564211368561e-02 -2.4402813613414764e-01 -1.9086743891239166e-01 -2.2784435749053955e-01 -3.5824861377477646e-02 -1.3303104043006897e-01 -1.7509800195693970e-01 -7.7137708663940430e-02 2.0908305048942566e-01 1.4888192526996136e-02 1.1816851049661636e-01 2.7701234817504883e-01 -2.0620743930339813e-01 -8.8548343628644943e-03 1.6259035095572472e-02 -2.6651728153228760e-01 -8.8699251413345337e-02 1.3752180337905884e-01 9.4850465655326843e-02 -1.3018177449703217e-01 -1.5755069255828857e-01 -9.1489583253860474e-02 -1.1337047070264816e-01 -1.8875902891159058e-01 -1.1068386025726795e-02 1.1055590212345123e-01 -3.5666041076183319e-02 -1.2448741495609283e-01 -1.5664581954479218e-01 -2.8881208971142769e-02 2.3172761499881744e-01 -1.3957355916500092e-01 3.5196214914321899e-02 -1.0488530248403549e-01 2.2395128011703491e-01 1.3281512260437012e-01 -1.9638197124004364e-01 5.0923153758049011e-02 -1.0835506767034531e-01 -3.0186157673597336e-02 1.8757784366607666e-01 -1.6581487655639648e-01 8.8996998965740204e-02 6.0333432629704475e-03 6.8550027906894684e-02 -3.8203060626983643e-02 1.8207071721553802e-01 2.4880743026733398e-01 2.9611210338771343e-03 -1.2794798612594604e-01 1.2327364087104797e-01 2.7885356545448303e-01 -1.3507156074047089e-01 5.7908695191144943e-02 1.6347438097000122e-01 6.5770648419857025e-02 6.2774747610092163e-02 -1.0032576322555542e-01 -9.1016720980405807e-03 1.1133826524019241e-01 7.3814533650875092e-02 1.6658924520015717e-01 -2.7662485372275114e-03 3.8254972547292709e-02 1.4029963314533234e-01 1.6976608335971832e-01 3.6993123590946198e-02 -6.7735165357589722e-02 -2.4267214536666870e-01 -1.0864499956369400e-02 3.0121721327304840e-02 -8.3701051771640778e-02 6.3989624381065369e-02 -1.8555490300059319e-02 1.3199831545352936e-01 -6.7561841569840908e-03 -6.6339261829853058e-02 -1.0244473814964294e-01 -1.8011516332626343e-01 -1.3065157458186150e-02 1.4109963178634644e-01 6.8737030029296875e-02 2.1180717647075653e-01 -1.0228321701288223e-01 1.3247196376323700e-01 1.9785808399319649e-02 -3.6390781402587891e-02 1.1590981855988503e-02 -1.9745644927024841e-01 6.2912806868553162e-02 1.8128053843975067e-01 -9.7631871700286865e-02 -8.1322699785232544e-02 -1.9975146651268005e-01 -6.1788223683834076e-02 -2.5383108854293823e-01 1.5414668619632721e-01 7.1805603802204132e-02 -2.2637481987476349e-01 2.4177202582359314e-01 1.2108791619539261e-01 1.2326431274414062e-01 1.1706560105085373e-01 1.9483013451099396e-01 1.4420713484287262e-01 -9.5705859363079071e-02 1.9343994557857513e-01 1.3557961583137512e-01 2.4342431128025055e-01 3.8439501076936722e-02 3.7962719798088074e-02 1.0687393695116043e-01 6.6306091845035553e-02 -3.7521928548812866e-02 2.4608828127384186e-01 -9.2146448791027069e-02 1.3943062722682953e-01 -1.4544963836669922e-01 1.4423668384552002e-01 2.6269206777215004e-02 2.6332728564739227e-02 -3.4405174665153027e-03 -1.4916059374809265e-01 -6.8513289093971252e-02 1.9768504798412323e-01 8.5417397320270538e-02 2.7270367741584778e-01 1.3293586671352386e-01 6.3314184546470642e-02 2.0252329111099243e-01 -3.1794153153896332e-02 2.9141142964363098e-01 -2.6768704876303673e-02 3.1894624233245850e-01 1.7593190073966980e-01 -8.5968196392059326e-02 -2.1818430721759796e-01 4.7437142580747604e-02 1.8420618027448654e-02 -2.1438258886337280e-01 -1.8268196284770966e-01 7.5566351413726807e-02 -1.6618296504020691e-01 7.8475415706634521e-02 9.8708190023899078e-02 -1.9739460945129395e-01 6.1409760266542435e-02 3.3820576965808868e-02 8.4868393838405609e-02 2.0284876227378845e-02 -1.4472557604312897e-01 -1.9946618378162384e-01 1.0777552425861359e-01 -1.2617143988609314e-01 -1.2060011737048626e-02 -2.3655155301094055e-01 -2.8548020869493484e-02 3.5615306347608566e-02 -8.2779452204704285e-02 1.6092441510409117e-03 1.0680014640092850e-01 -1.0758420079946518e-01 8.9122213423252106e-02 -2.4028019979596138e-02 2.1841686964035034e-01 -5.9068329632282257e-02 1.2533678114414215e-01 1.1095274984836578e-01 -8.1048473715782166e-02 2.2541366517543793e-02 4.4574443250894547e-02 5.8446496725082397e-02 1.0435466654598713e-02 4.0326267480850220e-02 -2.0712348818778992e-01 -1.0001397877931595e-01 9.9690696224570274e-03 9.8957583308219910e-02 7.1459792554378510e-02 4.2010579258203506e-02 1.1186184361577034e-02 -2.3864912986755371e-01 5.4223556071519852e-02 -5.3417637944221497e-02 2.2375154495239258e-01 1.4266335964202881e-01 -1.3357628881931305e-01 1.1808998137712479e-01 -2.6278778910636902e-01 1.9787649810314178e-01 -2.5673589110374451e-01 2.8754955530166626e-01 2.3100431263446808e-01 -2.7567440271377563e-01 1.0152407735586166e-01 1.2831217050552368e-01 -1.9848652184009552e-02 -2.5196141004562378e-01 1.7007648944854736e-01 2.2579413652420044e-01 1.1804830282926559e-01 -8.7414532899856567e-03 -1.0173309128731489e-03 8.0569863319396973e-02 -2.4154385924339294e-01 -1.6428808867931366e-01 1.5298542380332947e-01 4.8427976667881012e-02 -2.3582594096660614e-01 2.4762961268424988e-01 -3.3412188291549683e-01 -1.4312098920345306e-01 2.1266390383243561e-01 -1.7313416302204132e-01 7.0170447230339050e-02 7.2251625359058380e-02 -2.0734742283821106e-01 -1.1168138589709997e-03 9.3453481793403625e-02 2.5704777240753174e-01 2.2297435998916626e-01 -3.3862806856632233e-02 -2.1468518301844597e-02 -2.1319929510354996e-02 -3.7678424268960953e-02 1.6474683582782745e-01 1.3581916689872742e-01 -1.9728645682334900e-01 1.3611586391925812e-01 2.1215096116065979e-01 -1.0197270661592484e-01 6.0951497405767441e-02 -1.6896496713161469e-01 -1.5942932665348053e-01 -1.5067304484546185e-03 1.3217078149318695e-01 1.7796690762042999e-01 1.4852215349674225e-01 -1.1393773555755615e-01 2.3854377865791321e-01 -1.7755492031574249e-01 -9.6542507410049438e-02 -4.8628054559230804e-02 2.6003301143646240e-01 -1.7935724556446075e-01 2.0271134376525879e-01 3.5983309149742126e-02 -7.5290925800800323e-02 2.7596144005656242e-02 9.4956442713737488e-02 -2.0848263800144196e-01 6.2980771064758301e-02 -1.9557595252990723e-01 -1.8259564042091370e-01 -2.0269037783145905e-01 9.5308415591716766e-02 -1.1807900667190552e-01 1.0115040093660355e-01 9.2023119330406189e-02 -2.2332827746868134e-01 1.4537917077541351e-01 6.1158191412687302e-02 -2.1087698638439178e-01 -2.8392091393470764e-02 -3.5879816859960556e-02 -1.1445219814777374e-01 5.6063756346702576e-02 -2.3919367231428623e-03 7.6436869800090790e-02 1.2344006448984146e-01 1.5496686100959778e-01 7.3938943445682526e-02 8.1357620656490326e-02 1.4987749047577381e-02 -5.5143624544143677e-02 9.5750212669372559e-02 2.1515406668186188e-01 2.2024616599082947e-01 8.5575774312019348e-02 
      </Weights>
      <Biases rows="32" cols="1">
        1.4743986725807190e-01 1.1511148884892464e-02 -7.9802349209785461e-02 -3.5446677356958389e-02 3.4943446516990662e-02 -8.9766725897789001e-02 2.2451950237154961e-02 -4.4640123844146729e-02 8.0327279865741730e-02 2.7995074167847633e-02 6.7212201654911041e-02 -3.3703751396387815e-03 -3.2210931181907654e-02 6.7337476648390293e-03 -2.1091308444738388e-02 3.0067987740039825e-02 -5.5916808545589447e-02 -1.2162350118160248e-01 -3.6418758332729340e-02 6.9400183856487274e-02 -1.6068778932094574e-01 2.3531712591648102e-02 9.8576590418815613e-02 1.2933093309402466e-01 -2.9396662488579750e-02 -1.4467068947851658e-02 -5.1109483465552330e-03 -3.9313171058893204e-02 6.8322174251079559e-02 1.1056862771511078e-01 -5.1424194127321243e-02 2.6930309832096100e-02 
      </Biases>
    </Layer>
    <Layer ActivationFunction="2">
      <Weights rows="16" cols="32">
        -2.5469160079956055e-01 5.4307226091623306e-02 -6.1827663332223892e-02 2.7855432033538818e-01 -2.8583550453186035e-01 2.0709054544568062e-02 -7.0205271244049072e-02 -1.8307806923985481e-02 -7.9186083748936653e-03 -4.3411683291196823e-02 -3.1155931949615479e-01 -9.2910468578338623e-02 1.9774039089679718e-01 1.7471484839916229e-01 -1.9669765233993530e-01 -4.3961605988442898e-03 1.3520520925521851e-01 3.0765557661652565e-02 1.3563516736030579e-01 6.6108673810958862e-02 1.4008644223213196e-01 7.2484798729419708e-02 -3.1011623144149780e-01 -1.9947841763496399e-01 -7.8776679933071136e-02 1.2615485489368439e-01 1.8202061951160431e-01 -1.3790355622768402e-01 -1.7029190063476562e-01 -2.6062294840812683e-01 3.9372861385345459e-02 -1.8647775053977966e-01 -1.3922266662120819e-01 2.9541673138737679e-02 8.4225662052631378e-02 5.5783418938517570e-03 7.6373420655727386e-02 2.2190509736537933e-01 1.5786075592041016e-01 -2.0223659276962280e-01 3.3152031246572733e-03 -1.6247163712978363e-01 4.2632021009922028e-02 1.1936193704605103e-01 -8.7604254484176636e-02 -1.0190697014331818e-01 1.8830730020999908e-01 -1.3167133927345276e-01 2.3103062808513641e-01 -1.4651011675596237e-02 -1.3674728572368622e-01 -3.6394065245985985e-03 1.4039877057075500e-01 1.5046784281730652e-01 -1.5378251671791077e-01 -2.4077512323856354e-01 -1.3530519604682922e-01 -6.0358662158250809e-02 8.0733716487884521e-02 -8.8379800319671631e-02 1.5154159069061279e-01 -1.4218561351299286e-01 2.5443512201309204e-01 1.7246901988983154e-01 4.3207973241806030e-02 -8.1400237977504730e-02 -2.5723478198051453e-01 1.6878735274076462e-02 9.6695922315120697e-02 1.3033120194450021e-03 9.1094477102160454e-03 5.1384758204221725e-02 8.1482036039233208e-03 8.5023276507854462e-02 7.2820641100406647e-02 -5.6886427104473114e-02 -1.6735675930976868e-01 1.9211564958095551e-01 -1.4614777266979218e-01 -8.0229923129081726e-02 -2.3421342670917511e-01 -2.0759853720664978e-01 1.2140216678380966e-01 2.8514689765870571e-03 5.0173707306385040e-02 1.5024456381797791e-01 8.9948646724224091e-02 3.4343726933002472e-02 -1.3187848031520844e-01 -8.0854237079620361e-02 -2.1949774026870728e-01 -3.8031123578548431e-02 -1.8157629668712616e-01 -1.4960141479969025e-01 8.3871707320213318e-02 9.3790471553802490e-02 7.4020512402057648e-02 3.3526503830216825e-04 -2.9679873585700989e-01 -1.5790991019457579e-03 2.5507074594497681e-01 -4.2363047599792480e-01 7.6687522232532501e-02 -2.1013715863227844e-01 1.2088128924369812e-01 9.0701803565025330e-02 1.3694109022617340e-01 1.4765794575214386e-01 -1.7335882876068354e-03 7.8400745987892151e-02 -6.2298756092786789e-02 4.9713484942913055e-02 -3.3138519525527954e-01 -2.2689254581928253e-01 -1.0744531452655792e-01 1.9775596261024475e-01 -4.2015036940574646e-01 1.4328736066818237e-01 6.8389587104320526e-02 -2.2478388622403145e-02 -2.1968977153301239e-01 -2.0810708403587341e-01 1.1867646127939224e-02 -3.1984543800354004e-01 1.8878306448459625e-01 3.1687337160110474e-01 -1.7907810211181641e-01 1.1344211548566818e-01 -1.4280852675437927e-01 4.5407284051179886e-02 1.1574869602918625e-01 1.4350128173828125e-01 -4.3684087693691254e-02 3.6689409613609314e-01 9.3691498041152954e-02 2.9328453540802002e-01 2.0870146155357361e-01 -7.0606902241706848e-02 -4.6353783458471298e-02 -1.8358494341373444e-01 -4.3754521757364273e-02 2.1899028122425079e-01 -1.3614964485168457e-01 -1.7282317578792572e-01 6.5246619284152985e-02 2.6051038503646851e-01 5.6375317275524139e-02 -1.7361465096473694e-01 7.6223671436309814e-02 -1.4147089421749115e-01 -3.2363337278366089e-01 4.7770261764526367e-02 1.4981102943420410e-01 2.0701171457767487e-01 -5.8503933250904083e-02 3.1944718956947327e-01 -1.8491409718990326e-01 -3.8419318199157715e-01 -1.4101143181324005e-01 -1.0316178202629089e-01 -1.4315280318260193e-01 -2.1957041323184967e-01 -1.9382663071155548e-02 3.6280069500207901e-02 9.3702845275402069e-02 -2.8726044297218323e-01 -1.0134303569793701e-01 -1.2509573251008987e-02 4.9804829061031342e-02 -1.2218461930751801e-01 2.0872458815574646e-01 -8.0451466143131256e-02 -7.1681000292301178e-02 -2.2643212974071503e-01 8.8085971772670746e-02 2.4550306797027588e-01 -1.6114403307437897e-01 -1.3888409733772278e-01 1.3956093788146973e-01 -1.6581366956233978e-01 -2.4080058932304382e-01 -1.5765254199504852e-01 2.7132973074913025e-02 -8.1647269427776337e-02 6.2477635219693184e-03 1.7784258350729942e-02 2.0546442270278931e-01 -1.5250656008720398e-01 1.4302292466163635e-01 6.4720056951045990e-02 -2.0999015867710114e-01 -1.0993077605962753e-01 -1.5714479982852936e-01 -1.1366640776395798e-01 -1.4077384769916534e-01 -1.0375469923019409e-01 -1.4663922786712646e-01 -5.9487659484148026e-02 -2.2273312509059906e-01 1.8144924938678741e-01 -1.4010603725910187e-01 1.0282881557941437e-01 1.6959813237190247e-01 -2.0811028778553009e-01 5.9112533926963806e-02 -1.6214199364185333e-02 -2.0180742442607880e-01 1.0642839968204498e-01 1.5758849680423737e-01 1.8282929062843323e-01 -5.9604797512292862e-02 1.4892584085464478e-01 1.2716007232666016e-01 -2.2757740318775177e-01 1.2488286942243576e-01 1.0876836627721786e-01 4.5655816793441772e-02 -4.8252986744046211e-03 1.9731338322162628e-01 5.6306611746549606e-02 6.1569992452859879e-02 -2.0563708245754242e-01 -1.4840476214885712e-01 9.2302143573760986e-02 8.1538565456867218e-02 -1.7080778488889337e-03 -1.9442391395568848e-01 -1.2498918175697327e-01 -1.5333533287048340e-01 1.3791334629058838e-01 -9.7164347767829895e-02 -7.6345212757587433e-02 -2.0796272158622742e-01 1.7688380181789398e-01 -1.5158428251743317e-01 1.0077107697725296e-02 1.8040624260902405e-01 3.4943103790283203e-02 2.2281166166067123e-02 1.1545124650001526e-01 -1.1422884464263916e-01 6.7177601158618927e-02 1.4967212080955505e-01 2.0380795001983643e-01 1.8928764760494232e-01 2.5895817205309868e-02 1.3989076018333435e-01 -7.7858664095401764e-02 -1.1218378692865372e-01 -1.0615668259561062e-02 6.4307078719139099e-02 1.1058954894542694e-01 1.6351632773876190e-02 -1.2292654067277908e-01 1.6437841951847076e-01 -2.2665642201900482e-01 -1.0049381293356419e-02 1.8286092579364777e-01 1.3347719609737396e-01 1.9268618524074554e-01 5.8066733181476593e-02 -2.9194870963692665e-02 2.0980900526046753e-01 -6.0190041549503803e-03 1.6402028501033783e-01 2.1800117194652557e-01 1.5133853256702423e-01 8.8940389454364777e-02 1.9698046147823334e-01 -1.2905842065811157e-01 2.3520232737064362e-01 9.1154269874095917e-02 1.3652043044567108e-01 4.0068421512842178e-02 2.0028381049633026e-01 2.1434660255908966e-01 1.0395421832799911e-01 2.1359655261039734e-01 -2.9955981299281120e-02 3.7120789289474487e-02 -4.7571722418069839e-02 -7.1958564221858978e-02 6.2842644751071930e-02 2.1094289422035217e-01 -8.7082825601100922e-02 -3.2147467136383057e-02 -1.3276396691799164e-01 -2.0327128469944000e-01 -1.5024648979306221e-02 -4.2559835128486156e-03 -5.0671964883804321e-02 1.1668375134468079e-01 -1.2031552195549011e-01 7.7529154717922211e-02 -9.5510214567184448e-02 1.1067356914281845e-02 5.0631508231163025e-02 -5.3705245256423950e-02 6.4279109239578247e-02 -3.5303779877722263e-03 6.8059690296649933e-02 1.8886703252792358e-01 2.2241228818893433e-01 -3.1878899782896042e-02 3.2962525729089975e-03 -1.0449656099081039e-01 1.3469628989696503e-01 1.9164291024208069e-01 2.2598256170749664e-01 1.3115422427654266e-01 1.3491593301296234e-01 1.2240907549858093e-01 7.4211084283888340e-03 2.3929373919963837e-01 1.3861648738384247e-02 1.5105575323104858e-01 8.7941229343414307e-02 2.2102533280849457e-01 -4.0221285074949265e-02 2.2078278660774231e-01 -1.9295249879360199e-01 8.1405617296695709e-02 2.7503228187561035e-01 1.9384314119815826e-01 -2.5243619084358215e-01 2.6138645410537720e-01 5.4932557046413422e-02 1.4300361275672913e-01 -2.5322720408439636e-01 7.0587940514087677e-02 -2.7708861231803894e-01 1.2471528351306915e-01 1.2728086113929749e-01 5.2127040922641754e-02 1.1345551162958145e-01 -9.6881143748760223e-02 1.6117461025714874e-01 3.1740739941596985e-01 3.3125426620244980e-02 -3.2698115706443787e-01 3.3276343345642090e-01 -5.0141889601945877e-02 -3.2394856214523315e-01 -3.1092464923858643e-01 -5.0848215818405151e-02 -3.5997126251459122e-02 -1.4527569711208344e-01 1.0688641108572483e-02 -3.7509679794311523e-02 -1.9090619683265686e-01 3.0278185009956360e-01 -1.7324997484683990e-01 -1.3239942491054535e-01 -2.4022418260574341e-01 1.1926294118165970e-01 2.7300873398780823e-01 -2.7181550860404968e-01 1.7716148495674133e-01 -1.2137234210968018e-01 6.2201231718063354e-02 -2.0647554099559784e-01 -1.8200223147869110e-01 7.0413634181022644e-02 1.4887072145938873e-01 1.8610937893390656e-01 -1.9405238330364227e-01 -1.2613396160304546e-02 -1.9960099458694458e-01 2.3773163557052612e-01 2.1599699556827545e-01 1.2828497588634491e-01 -2.1097804605960846e-01 1.1494044959545135e-01 -2.4591575562953949e-01 -1.6046822071075439e-01 -2.3811379075050354e-01 -1.4765265583992004e-01 1.1727408319711685e-01 -2.3221103847026825e-01 3.0474886298179626e-02 -1.3826107978820801e-01 -3.2817998528480530e-01 -5.1253516227006912e-02 9.8467189818620682e-03 2.9706096649169922e-01 2.0113074779510498e-01 -1.9119672477245331e-01 -1.4524109661579132e-01 1.7334769666194916e-01 -1.6978985071182251e-01 1.0638635605573654e-01 -1.4849381148815155e-01 -1.8651517108082771e-02 7.4902148917317390e-03 -2.6204003021121025e-02 -1.3714323937892914e-01 1.0201713442802429e-01 2.5250241160392761e-02 1.5360437333583832e-01 1.3331624865531921e-01 5.1237661391496658e-03 -4.5143172144889832e-02 -2.3858289420604706e-01 -1.2591442465782166e-01 -1.1350502818822861e-01 2.4537667632102966e-01 2.7888339757919312e-01 7.1215018630027771e-02 8.1882350146770477e-02 -1.7041756212711334e-01 -1.3794617354869843e-01 -2.5105038285255432e-01 1.4011628925800323e-01 3.6837539076805115e-01 -4.7012262046337128e-02 -1.2924399971961975e-01 3.8924044370651245e-01 1.6263253986835480e-01 -1.1174702644348145e-01 -1.6388911008834839e-01 -8.9656159281730652e-02 -3.5956937074661255e-01 3.3497491478919983e-01 -1.8283893167972565e-01 2.4625702202320099e-01 6.0837153345346451e-02 2.1442398428916931e-01 -9.8652049899101257e-02 -1.9827216863632202e-01 1.5604023635387421e-01 -1.2726129591464996e-01 2.3434828966856003e-02 -3.3242113888263702e-02 -4.0050420165061951e-01 -1.0058794915676117e-01 6.2566943466663361e-02 -4.3143886327743530e-01 -7.8363388776779175e-02 4.0091347694396973e-01 3.8507148623466492e-01 -7.4925325810909271e-02 1.7150028049945831e-01 -1.1005324125289917e-01 -3.4481498599052429e-01 7.7766381204128265e-02 2.2340096533298492e-01 -1.2977914512157440e-01 1.1737918853759766e-01 -3.0888798832893372e-01 -8.2245983183383942e-02 7.1406252682209015e-03 1.1214917153120041e-01 1.6068625450134277e-01 3.8059735298156738e-01 1.5150356106460094e-02 -5.2846290171146393e-02 -1.5648023784160614e-01 -1.8391724443063140e-03 -2.7445489168167114e-01 -1.0475341975688934e-01 6.9306038320064545e-02 -9.3458883464336395e-02 1.3655672967433929e-01 2.0525528490543365e-01 -3.9651639759540558e-02 2.5292283296585083e-01 7.5690932571887970e-02 -4.7685429453849792e-02 9.8750062286853790e-02 4.7195856459438801e-03 -1.6518248245120049e-02 -3.2482832670211792e-01 2.0433379709720612e-01 -8.1964939832687378e-02 1.5930519998073578e-01 1.4987932145595551e-01 1.3102775439620018e-02 -2.6364684104919434e-01 1.0083302855491638e-01 1.9347067177295685e-01 -7.1601040661334991e-02 1.0391677916049957e-01 -2.5742843747138977e-01 -1.6076736152172089e-02 2.2685866057872772e-01 -2.1165360510349274e-01 2.0859273150563240e-02 -1.7705467343330383e-01 -1.6028279066085815e-01 4.4774070382118225e-02 2.6009634137153625e-01 1.1281464248895645e-01 4.8258349299430847e-02 -1.7086994647979736e-01 5.8274373412132263e-02 -3.7309629842638969e-03 1.3571955263614655e-01 -3.0399017035961151e-02 -6.7977756261825562e-02 2.1133211255073547e-01 1.8785255029797554e-02 3.5892765969038010e-02 1.9375166296958923e-01 1.8769428133964539e-01 -1.9112554192543030e-01 -2.2763967514038086e-01 -5.1485441625118256e-02 -1.1316226422786713e-01 -2.1104022860527039e-01 2.3812089860439301e-01 -1.6108085215091705e-01 -2.2630055248737335e-01 
      </Weights>
      <Biases rows="16" cols="1">
        -3.2678447663784027e-02 -7.8606493771076202e-03 -6.8726367317140102e-03 7.5387328863143921e-02 -4.6199195086956024e-02 -1.4098961837589741e-03 -5.7609314098954201e-03 -9.1949366033077240e-03 -1.8688044510781765e-03 -5.7888231240212917e-03 -8.9354574680328369e-02 -3.7601687014102936e-02 1.6795542091131210e-02 9.2735163867473602e-02 -4.3818108737468719e-02 8.3375461399555206e-03 
      </Biases>
    </Layer>
    <Layer ActivationFunction="0">
      <Weights rows="1" cols="16">
        -6.3872689008712769e-01 -3.4811297059059143e-01 4.7093245387077332e-01 7.9346680641174316e-01 -6.7993462085723877e-01 2.5942286849021912e-01 -4.7607488930225372e-02 -9.8400898277759552e-02 1.5509626269340515e-01 -7.9432725906372070e-02 -6.5182918310165405e-01 -2.2425313293933868e-01 4.6218410134315491e-01 9.7257268428802490e-01 -5.7744288444519043e-01 3.1896018981933594e-01 
      </Weights>
      <Biases rows="1" cols="1">
        2.1382918953895569e-01 
      </Biases>
    </Layer>
  </Weights>
</MethodSetup>
