<?xml version="1.0"?>
<MethodSetup Method="DNN::DNN_NanoV9_V2_2020_RBtag_x0">
  <GeneralInfo>
    <Info name="TMVA Release" value="4.2.1 [262657]"/>
    <Info name="ROOT Release" value="6.12/07 [396295]"/>
    <Info name="Creator" value="hum"/>
    <Info name="Date" value="Mon Mar 14 10:09:33 2022"/>
    <Info name="Host" value="Linux vocms0301.cern.ch 2.6.32-696.30.1.el6.x86_64 #1 SMP Tue May 22 06:09:36 CEST 2018 x86_64 x86_64 x86_64 GNU/Linux"/>
    <Info name="Dir" value="/afs/cern.ch/work/h/hum/public/CMSSW_10_2_13/src/ChargedHiggs/Analysis"/>
    <Info name="Training events" value="23761"/>
    <Info name="TrainingTime" value="2.08568411e+01"/>
    <Info name="AnalysisType" value="Classification"/>
  </GeneralInfo>
  <Options>
    <Option name="V" modified="Yes">True</Option>
    <Option name="VerbosityLevel" modified="No">Verbose</Option>
    <Option name="VarTransform" modified="Yes">N</Option>
    <Option name="H" modified="Yes">False</Option>
    <Option name="CreateMVAPdfs" modified="No">False</Option>
    <Option name="IgnoreNegWeightsInTraining" modified="No">False</Option>
    <Option name="Layout" modified="Yes">TANH|32,ReLU|16,SIGMOID|16,LINEAR</Option>
    <Option name="ValidationSize" modified="No">20%</Option>
    <Option name="ErrorStrategy" modified="Yes">CROSSENTROPY</Option>
    <Option name="WeightInitialization" modified="Yes">XAVIERUNIFORM</Option>
    <Option name="Architecture" modified="Yes">CPU</Option>
    <Option name="TrainingStrategy" modified="Yes">LearningRate=1e-1,Momentum=0.9,Repetitions=1,ConvergenceSteps=20,BatchSize=256,TestRepetitions=10,WeightDecay=1e-4,Regularization=L2,DropConfig=0.0+0.1+0.25+0.5,</Option>
  </Options>
  <Variables NVar="16">
    <Variable VarIndex="0" Expression="j1QGL" Label="j1QGL" Title="j1QGL" Unit="" Internal="j1QGL" Type="F" Min="6.97374344e-05" Max="1.00000000e+00"/>
    <Variable VarIndex="1" Expression="j2QGL" Label="j2QGL" Title="j2QGL" Unit="" Internal="j2QGL" Type="F" Min="5.92172146e-05" Max="1.00000000e+00"/>
    <Variable VarIndex="2" Expression="varMjj" Label="varMjj" Title="varMjj" Unit="" Internal="varMjj" Type="F" Min="5.00025940e+02" Max="8.18600684e+03"/>
    <Variable VarIndex="3" Expression="varDetajj" Label="varDetajj" Title="varDetajj" Unit="" Internal="varDetajj" Type="F" Min="2.50015259e+00" Max="9.17089844e+00"/>
    <Variable VarIndex="4" Expression="abs(varJet1Eta)" Label="abs(varJet1Eta)" Title="abs(varJet1Eta)" Unit="" Internal="abs_varJet1Eta_" Type="F" Min="1.12533569e-04" Max="4.58593750e+00"/>
    <Variable VarIndex="5" Expression="varJet1Pt" Label="varJet1Pt" Title="varJet1Pt" Unit="" Internal="varJet1Pt" Type="F" Min="5.06562500e+01" Max="1.79500000e+03"/>
    <Variable VarIndex="6" Expression="abs(varJet2Eta)" Label="abs(varJet2Eta)" Title="abs(varJet2Eta)" Unit="" Internal="abs_varJet2Eta_" Type="F" Min="2.04515457e-03" Max="4.67968750e+00"/>
    <Variable VarIndex="7" Expression="varJet2Pt" Label="varJet2Pt" Title="varJet2Pt" Unit="" Internal="varJet2Pt" Type="F" Min="5.00312500e+01" Max="1.17800000e+03"/>
    <Variable VarIndex="8" Expression="varMVV" Label="varMVV" Title="varMVV" Unit="" Internal="varMVV" Type="F" Min="5.00002228e+02" Max="3.78478467e+03"/>
    <Variable VarIndex="9" Expression="varPTV1" Label="varPTV1" Title="varPTV1" Unit="" Internal="varPTV1" Type="F" Min="3.00000000e+02" Max="2.37600000e+03"/>
    <Variable VarIndex="10" Expression="varPTV2" Label="varPTV2" Title="varPTV2" Unit="" Internal="varPTV2" Type="F" Min="8.56519043e-01" Max="1.06964807e+03"/>
    <Variable VarIndex="11" Expression="varCen" Label="varCen" Title="varCen" Unit="" Internal="varCen" Type="F" Min="-5.77074766e+00" Max="4.02219582e+00"/>
    <Variable VarIndex="12" Expression="varzepVV" Label="varzepVV" Title="varzepVV" Unit="" Internal="varzepVV" Type="F" Min="4.97574945e-07" Max="1.75558448e+00"/>
    <Variable VarIndex="13" Expression="varDRV1j" Label="varDRV1j" Title="varDRV1j" Unit="" Internal="varDRV1j" Type="F" Min="1.20016408e+00" Max="4.79853725e+00"/>
    <Variable VarIndex="14" Expression="varnormPTVVjj" Label="varnormPTVVjj" Title="varnormPTVVjj" Unit="" Internal="varnormPTVVjj" Type="F" Min="3.67430621e-04" Max="9.86429989e-01"/>
    <Variable VarIndex="15" Expression="bosV2discr" Label="bosV2discr" Title="bosV2discr" Unit="" Internal="bosV2discr" Type="F" Min="6.00089133e-01" Max="9.94931459e-01"/>
  </Variables>
  <Spectators NSpec="0"/>
  <Classes NClass="2">
    <Class Name="Signal" Index="0"/>
    <Class Name="Background" Index="1"/>
  </Classes>
  <Transformations NTransformations="1">
    <Transform Name="Normalize">
      <Selection>
        <Input NInputs="16">
          <Input Type="Variable" Label="j1QGL" Expression="j1QGL"/>
          <Input Type="Variable" Label="j2QGL" Expression="j2QGL"/>
          <Input Type="Variable" Label="varMjj" Expression="varMjj"/>
          <Input Type="Variable" Label="varDetajj" Expression="varDetajj"/>
          <Input Type="Variable" Label="abs(varJet1Eta)" Expression="abs(varJet1Eta)"/>
          <Input Type="Variable" Label="varJet1Pt" Expression="varJet1Pt"/>
          <Input Type="Variable" Label="abs(varJet2Eta)" Expression="abs(varJet2Eta)"/>
          <Input Type="Variable" Label="varJet2Pt" Expression="varJet2Pt"/>
          <Input Type="Variable" Label="varMVV" Expression="varMVV"/>
          <Input Type="Variable" Label="varPTV1" Expression="varPTV1"/>
          <Input Type="Variable" Label="varPTV2" Expression="varPTV2"/>
          <Input Type="Variable" Label="varCen" Expression="varCen"/>
          <Input Type="Variable" Label="varzepVV" Expression="varzepVV"/>
          <Input Type="Variable" Label="varDRV1j" Expression="varDRV1j"/>
          <Input Type="Variable" Label="varnormPTVVjj" Expression="varnormPTVVjj"/>
          <Input Type="Variable" Label="bosV2discr" Expression="bosV2discr"/>
        </Input>
        <Output NOutputs="16">
          <Output Type="Variable" Label="j1QGL" Expression="j1QGL"/>
          <Output Type="Variable" Label="j2QGL" Expression="j2QGL"/>
          <Output Type="Variable" Label="varMjj" Expression="varMjj"/>
          <Output Type="Variable" Label="varDetajj" Expression="varDetajj"/>
          <Output Type="Variable" Label="abs(varJet1Eta)" Expression="abs(varJet1Eta)"/>
          <Output Type="Variable" Label="varJet1Pt" Expression="varJet1Pt"/>
          <Output Type="Variable" Label="abs(varJet2Eta)" Expression="abs(varJet2Eta)"/>
          <Output Type="Variable" Label="varJet2Pt" Expression="varJet2Pt"/>
          <Output Type="Variable" Label="varMVV" Expression="varMVV"/>
          <Output Type="Variable" Label="varPTV1" Expression="varPTV1"/>
          <Output Type="Variable" Label="varPTV2" Expression="varPTV2"/>
          <Output Type="Variable" Label="varCen" Expression="varCen"/>
          <Output Type="Variable" Label="varzepVV" Expression="varzepVV"/>
          <Output Type="Variable" Label="varDRV1j" Expression="varDRV1j"/>
          <Output Type="Variable" Label="varnormPTVVjj" Expression="varnormPTVVjj"/>
          <Output Type="Variable" Label="bosV2discr" Expression="bosV2discr"/>
        </Output>
      </Selection>
      <Class ClassIndex="0">
        <Ranges>
          <Range Index="0" Min="1.8799304962158203e-04" Max="1.0000000000000000e+00"/>
          <Range Index="1" Min="5.9217214584350586e-05" Max="1.0000000000000000e+00"/>
          <Range Index="2" Min="5.0069506835937500e+02" Max="8.1860068359375000e+03"/>
          <Range Index="3" Min="2.5028076171875000e+00" Max="8.3144531250000000e+00"/>
          <Range Index="4" Min="3.6988258361816406e-03" Max="4.3847656250000000e+00"/>
          <Range Index="5" Min="5.2156250000000000e+01" Max="1.5810000000000000e+03"/>
          <Range Index="6" Min="1.3330459594726562e-02" Max="4.6796875000000000e+00"/>
          <Range Index="7" Min="5.0031250000000000e+01" Max="1.0670000000000000e+03"/>
          <Range Index="8" Min="5.0004251098632812e+02" Max="3.4407341308593750e+03"/>
          <Range Index="9" Min="3.0000000000000000e+02" Max="2.3760000000000000e+03"/>
          <Range Index="10" Min="1.2792637348175049e+00" Max="7.5615954589843750e+02"/>
          <Range Index="11" Min="-5.1570653915405273e+00" Max="3.4016125202178955e+00"/>
          <Range Index="12" Min="4.9757494480218156e-07" Max="1.4207689762115479e+00"/>
          <Range Index="13" Min="1.2018138170242310e+00" Max="4.7198038101196289e+00"/>
          <Range Index="14" Min="3.6743062082678080e-04" Max="8.4706789255142212e-01"/>
          <Range Index="15" Min="6.0092592239379883e-01" Max="9.9445712566375732e-01"/>
        </Ranges>
      </Class>
      <Class ClassIndex="1">
        <Ranges>
          <Range Index="0" Min="6.9737434387207031e-05" Max="1.0000000000000000e+00"/>
          <Range Index="1" Min="1.0192394256591797e-04" Max="1.0000000000000000e+00"/>
          <Range Index="2" Min="5.0002593994140625e+02" Max="7.6980703125000000e+03"/>
          <Range Index="3" Min="2.5001525878906250e+00" Max="9.1708984375000000e+00"/>
          <Range Index="4" Min="1.1253356933593750e-04" Max="4.5859375000000000e+00"/>
          <Range Index="5" Min="5.0656250000000000e+01" Max="1.7950000000000000e+03"/>
          <Range Index="6" Min="2.0451545715332031e-03" Max="4.6572265625000000e+00"/>
          <Range Index="7" Min="5.0031250000000000e+01" Max="1.1780000000000000e+03"/>
          <Range Index="8" Min="5.0000222778320312e+02" Max="3.7847846679687500e+03"/>
          <Range Index="9" Min="3.0000000000000000e+02" Max="1.8970000000000000e+03"/>
          <Range Index="10" Min="8.5651904344558716e-01" Max="1.0696480712890625e+03"/>
          <Range Index="11" Min="-5.7707476615905762e+00" Max="4.0221958160400391e+00"/>
          <Range Index="12" Min="6.1957412981428206e-05" Max="1.7555844783782959e+00"/>
          <Range Index="13" Min="1.2001640796661377e+00" Max="4.7985372543334961e+00"/>
          <Range Index="14" Min="5.1785138202831149e-04" Max="9.8642998933792114e-01"/>
          <Range Index="15" Min="6.0008913278579712e-01" Max="9.9493145942687988e-01"/>
        </Ranges>
      </Class>
      <Class ClassIndex="2">
        <Ranges>
          <Range Index="0" Min="6.9737434387207031e-05" Max="1.0000000000000000e+00"/>
          <Range Index="1" Min="5.9217214584350586e-05" Max="1.0000000000000000e+00"/>
          <Range Index="2" Min="5.0002593994140625e+02" Max="8.1860068359375000e+03"/>
          <Range Index="3" Min="2.5001525878906250e+00" Max="9.1708984375000000e+00"/>
          <Range Index="4" Min="1.1253356933593750e-04" Max="4.5859375000000000e+00"/>
          <Range Index="5" Min="5.0656250000000000e+01" Max="1.7950000000000000e+03"/>
          <Range Index="6" Min="2.0451545715332031e-03" Max="4.6796875000000000e+00"/>
          <Range Index="7" Min="5.0031250000000000e+01" Max="1.1780000000000000e+03"/>
          <Range Index="8" Min="5.0000222778320312e+02" Max="3.7847846679687500e+03"/>
          <Range Index="9" Min="3.0000000000000000e+02" Max="2.3760000000000000e+03"/>
          <Range Index="10" Min="8.5651904344558716e-01" Max="1.0696480712890625e+03"/>
          <Range Index="11" Min="-5.7707476615905762e+00" Max="4.0221958160400391e+00"/>
          <Range Index="12" Min="4.9757494480218156e-07" Max="1.7555844783782959e+00"/>
          <Range Index="13" Min="1.2001640796661377e+00" Max="4.7985372543334961e+00"/>
          <Range Index="14" Min="3.6743062082678080e-04" Max="9.8642998933792114e-01"/>
          <Range Index="15" Min="6.0008913278579712e-01" Max="9.9493145942687988e-01"/>
        </Ranges>
      </Class>
    </Transform>
  </Transformations>
  <MVAPdfs/>
  <Weights InputWidth="16" Depth="4" LossFunction="C" OutputFunction="S">
    <Layer ActivationFunction="3">
      <Weights rows="32" cols="16">
        -4.8470493406057358e-02 3.0417870730161667e-03 -1.6376538574695587e-01 6.2870390713214874e-02 1.3838776946067810e-01 -2.9311662539839745e-02 -1.3357850909233093e-01 -1.5218462049961090e-01 -5.7024776935577393e-02 -3.1682520639151335e-03 4.4825121760368347e-02 -1.5095493197441101e-01 1.1344292014837265e-01 -1.1452545970678329e-01 7.2163112461566925e-02 8.0911993980407715e-02 8.0116212368011475e-02 -8.5594505071640015e-02 -8.5397481918334961e-02 1.1556015908718109e-01 -1.8628802150487900e-02 -1.8898228183388710e-02 1.8095685541629791e-01 -3.7495311349630356e-02 6.9762006402015686e-02 1.7224401235580444e-02 -1.9983621314167976e-02 -1.0335768014192581e-01 1.2480353564023972e-01 -5.5546656250953674e-02 -2.5073814392089844e-01 -2.4244782328605652e-01 2.2670252621173859e-01 1.4724576473236084e-01 6.6608524322509766e-01 4.2667547240853310e-03 -1.1782111972570419e-01 7.8313745558261871e-02 3.4156624227762222e-02 2.5181809067726135e-01 4.1456905007362366e-01 4.6906712651252747e-01 8.7236091494560242e-02 2.5305804610252380e-01 2.7414068579673767e-01 2.2276198491454124e-02 -1.1346237659454346e+00 -2.9582279920578003e-01 6.2990558147430420e-01 -6.6506367921829224e-01 3.1083652377128601e-01 -2.1665835753083229e-02 1.2226847410202026e+00 -5.6180819869041443e-02 -8.3125722408294678e-01 -3.8891628384590149e-01 -2.0680017769336700e-01 2.1554604172706604e-01 -3.3236008882522583e-01 2.3240344226360321e-01 -2.9254186153411865e-01 -1.2957623600959778e-01 -1.3037426769733429e-01 6.3814878463745117e-02 4.3969009071588516e-02 2.5363716483116150e-01 5.5811518430709839e-01 -9.6872232854366302e-02 -2.5480601936578751e-02 7.8936688601970673e-02 -1.1454937607049942e-01 1.6189187765121460e-01 3.5202932357788086e-01 4.3009552359580994e-01 -6.3682623207569122e-02 4.5956850051879883e-02 2.0610634982585907e-01 -1.0035120695829391e-01 -8.1539154052734375e-01 6.7601405084133148e-02 -1.9224593043327332e-01 -5.4690822958946228e-02 -5.4275971651077271e-01 1.0252114385366440e-01 2.5545737147331238e-01 -2.7771955728530884e-01 -8.9392222464084625e-02 -3.5036170482635498e-01 -3.0647549033164978e-01 -3.4922593832015991e-01 1.0832957923412323e-01 -2.6027521491050720e-01 -5.4194267839193344e-02 -9.2396378517150879e-02 9.0352421998977661e-01 1.2799586355686188e-01 -1.1913798749446869e-02 9.6758723258972168e-02 2.2258472442626953e-01 1.9617746770381927e-01 2.6732251048088074e-01 -2.4198397994041443e-02 2.1365627646446228e-02 -6.0988049954175949e-02 -2.2016799077391624e-02 -1.6497284173965454e-02 -6.0563288629055023e-02 6.1514198780059814e-02 -1.2066109478473663e-01 -1.6447804868221283e-01 3.0275318026542664e-01 1.1150163412094116e-01 -1.0518614202737808e-02 8.8959753513336182e-02 -3.7204456329345703e-01 4.9578394740819931e-02 1.6080883145332336e-01 -2.2375272214412689e-01 -8.1565953791141510e-02 -3.5137012600898743e-02 -2.5437828898429871e-01 -1.8295291066169739e-01 1.3717408291995525e-03 -1.4929875731468201e-01 1.0328999161720276e-01 1.1989263445138931e-01 2.3699276149272919e-01 -9.2663317918777466e-02 1.6752232611179352e-01 3.1845602393150330e-01 2.5872427225112915e-01 2.6972281932830811e-01 1.1867085844278336e-01 -1.5463571250438690e-01 1.1522871255874634e-01 4.5379243791103363e-02 1.8529610335826874e-01 2.5723665952682495e-01 -3.7764146924018860e-02 1.1609779298305511e-01 -1.8371678888797760e-01 -1.7788961529731750e-01 2.5340142846107483e-01 7.5534693896770477e-02 1.2828110158443451e-01 1.5014185011386871e-01 1.3323684036731720e-01 2.5355228781700134e-01 1.8153734505176544e-01 3.8018908351659775e-02 1.7872346937656403e-01 -8.7082594633102417e-02 1.6418749094009399e-01 3.4339702688157558e-03 -3.8983676582574844e-02 1.2250047177076340e-01 -1.5116469562053680e-01 -8.5987910628318787e-02 3.6484528332948685e-02 3.8011867552995682e-02 1.8475775420665741e-01 -1.4288340508937836e-01 4.4084742665290833e-02 -6.4042471349239349e-02 -8.5291326045989990e-02 1.4544361829757690e-01 -1.8425230681896210e-01 -2.4264757521450520e-03 -7.6751075685024261e-02 1.9512450695037842e-01 -1.7322085797786713e-02 8.1391613930463791e-03 -1.6159348189830780e-01 -2.2098988294601440e-02 -2.1254378557205200e-01 -2.0621234178543091e-01 -3.1135439872741699e-01 1.3251136243343353e-01 -1.0687752068042755e-01 -2.0177426934242249e-01 -4.4326609373092651e-01 2.2126150131225586e-01 1.8109995126724243e-01 -7.8623741865158081e-04 -1.1951432377099991e-01 -1.2988248839974403e-02 -5.7153049856424332e-02 -2.0005463063716888e-01 1.8269422650337219e-01 8.4105610847473145e-02 2.2286525368690491e-01 -1.5864640474319458e-01 1.3777459389530122e-04 1.2309651076793671e-01 3.6812916398048401e-02 3.7194438278675079e-02 1.5410730242729187e-01 7.2984375059604645e-02 2.6368057355284691e-02 3.2363172620534897e-02 7.0360630750656128e-02 1.4864124357700348e-01 7.1946583688259125e-02 1.1479874700307846e-01 4.5027383603155613e-03 -3.4103848040103912e-02 -1.5216125547885895e-01 4.4232748448848724e-02 4.9260899424552917e-02 -1.2148524075746536e-01 -1.0280760005116463e-02 -1.5374372899532318e-01 -2.2759604454040527e-01 -1.1364741623401642e-01 -1.5030562877655029e-01 8.0267250537872314e-02 5.1443297415971756e-02 -9.4863437116146088e-02 3.0671291053295135e-02 -7.3101925663650036e-03 -6.9009721279144287e-02 9.3495570123195648e-02 2.6829088106751442e-02 5.2523165941238403e-02 -2.8802946209907532e-02 1.5797530114650726e-01 1.4112785458564758e-01 1.5755903720855713e-01 1.7728969454765320e-01 6.6290766000747681e-02 1.6209991276264191e-01 1.6978406347334385e-03 9.6571296453475952e-02 2.7436718344688416e-01 -1.3801202178001404e-01 1.4069136977195740e-01 -1.4211997389793396e-02 -1.7421101033687592e-01 -2.3047523573040962e-02 5.4110985249280930e-02 -6.9659039378166199e-02 -1.4008341729640961e-01 2.2642187774181366e-01 7.3684878647327423e-02 -1.4317581057548523e-01 -2.0277779549360275e-02 1.3471251726150513e-01 8.1305369734764099e-02 8.1170140765607357e-04 2.7166333794593811e-01 -1.4057360589504242e-01 3.1098773702979088e-02 1.1938068084418774e-02 9.6272699534893036e-02 -2.7965831756591797e-01 -1.0717561841011047e-01 1.0736431926488876e-01 1.9135576486587524e-01 5.5500292778015137e-01 1.6502451896667480e-01 3.0609676241874695e-01 -5.1716778427362442e-02 4.7691994905471802e-01 7.0971526205539703e-02 -3.1190095469355583e-02 1.6029444336891174e-01 -1.5742823481559753e-01 -1.5885043889284134e-02 -2.6256638765335083e-01 1.3669218122959137e-01 -7.7711734920740128e-03 -1.6469693183898926e-01 -3.2792252302169800e-01 -1.7804123461246490e-02 -6.8127733469009399e-01 -3.8270756602287292e-02 6.0369722545146942e-02 1.1774745769798756e-02 -4.5841148495674133e-01 -2.7990517020225525e-01 -4.4232654571533203e-01 -3.8311651349067688e-01 2.5030633807182312e-01 -5.7039786130189896e-02 -6.7317515611648560e-02 -1.5917010605335236e-02 6.5571266412734985e-01 2.3047974705696106e-01 2.5768598914146423e-01 7.3213778436183929e-02 -6.8652343750000000e-01 2.9618522524833679e-01 8.1281438469886780e-02 -4.3093338608741760e-01 -7.9156689345836639e-02 -3.4645330905914307e-01 -3.6178913712501526e-01 -7.8608053922653198e-01 3.6166727542877197e-02 -3.1148743629455566e-01 2.1359899640083313e-01 -1.5023150481283665e-02 1.1423017978668213e+00 -1.8372528254985809e-01 -2.8766103088855743e-02 -1.2196117639541626e-01 1.9485267996788025e-01 -7.5795181095600128e-02 -7.6346680521965027e-02 -3.1124809756875038e-02 6.4176686108112335e-02 1.0523045808076859e-01 1.8822288513183594e-01 -2.1922295913100243e-02 -2.1431855857372284e-02 -8.5949525237083435e-02 1.1467692442238331e-02 1.1311059445142746e-01 -3.0381086468696594e-01 4.3372131884098053e-02 1.3279284536838531e-01 -5.5949907749891281e-02 2.3108701407909393e-01 -7.0419996976852417e-02 -2.6313403248786926e-01 2.6792547106742859e-01 -9.9175535142421722e-03 1.1899670213460922e-01 1.6632798314094543e-01 2.9385483264923096e-01 -6.1854701489210129e-02 2.8192901983857155e-02 7.2468124330043793e-02 -4.3402943760156631e-02 -3.2614850997924805e-01 2.6435723900794983e-01 1.8370966613292694e-01 -1.6006647050380707e-01 -7.5268751382827759e-01 5.3471360355615616e-02 -9.5468148589134216e-02 -2.5173833966255188e-01 1.5902477502822876e-01 -3.6052569746971130e-01 -3.2368680834770203e-01 -7.9353523254394531e-01 3.3131003379821777e-01 -2.2334988415241241e-01 1.6156820952892303e-01 6.0218550264835358e-02 7.3014897108078003e-01 -3.7272959947586060e-01 5.7214800268411636e-02 3.0269601941108704e-01 5.9328508377075195e-01 3.8901820778846741e-02 2.6140660047531128e-01 1.1565977334976196e-01 1.1621422320604324e-01 1.5880547463893890e-01 1.7766299843788147e-01 3.5013848543167114e-01 -7.7594824135303497e-02 2.0498968660831451e-01 -1.8240889906883240e-01 -1.3253347575664520e-01 -1.6439053416252136e-01 1.5171642601490021e-01 1.8817043304443359e-01 -4.5531702041625977e-01 -6.1790180206298828e-01 5.3362932056188583e-02 -2.9241710901260376e-01 -3.2215568423271179e-01 2.8263756632804871e-01 -2.6094803214073181e-01 -2.9959008097648621e-01 -4.7277063131332397e-01 3.7938147783279419e-02 -1.3017518818378448e-01 -4.7172043472528458e-02 1.3664776086807251e-01 7.1734410524368286e-01 -4.9647949635982513e-03 -1.3397558033466339e-01 -1.5010930597782135e-01 -4.9841144680976868e-01 1.0519045591354370e-01 8.6466521024703979e-02 -2.9093316197395325e-01 -1.2303449958562851e-01 -2.8075310587882996e-01 -7.1056172251701355e-02 -5.2898091077804565e-01 1.9231267273426056e-01 -1.6029904782772064e-01 1.3942579925060272e-01 7.1885332465171814e-02 3.0321627855300903e-01 -2.5580683350563049e-01 -3.0068134889006615e-02 1.1151041835546494e-01 -1.2911906465888023e-02 1.0903621464967728e-01 1.5336796641349792e-01 1.0941015928983688e-01 3.8031801581382751e-02 1.2528854608535767e-01 1.8896117806434631e-01 -1.5489462763071060e-02 -8.1471011042594910e-02 5.3719148039817810e-02 -7.9433778300881386e-03 -8.9338935911655426e-02 -7.7218115329742432e-02 3.9694264531135559e-02 -1.7616693675518036e-01 -2.1273010969161987e-01 -3.7319180369377136e-01 -1.5217421948909760e-01 1.7666894942522049e-02 3.2878089696168900e-02 -1.6235303878784180e-01 -1.1101431399583817e-01 4.9713499844074249e-02 -2.8770360350608826e-01 1.2888082861900330e-01 -1.8282707035541534e-01 1.3095988333225250e-01 7.1097910404205322e-02 -7.5206108391284943e-02 1.5097013115882874e-01 3.3008658885955811e-01 -1.8250939249992371e-01 7.8611813485622406e-02 -4.6192104928195477e-03 4.0010169148445129e-01 9.1153159737586975e-02 -1.2208358198404312e-01 8.3223201334476471e-02 -8.4171868860721588e-02 -1.5373835340142250e-02 -3.1434687972068787e-01 2.0094345510005951e-01 -1.1772138066589832e-02 9.9276103079319000e-02 -1.9563423097133636e-01 -1.3482595980167389e-01 -3.2020306587219238e-01 5.4842356592416763e-02 -3.9436820149421692e-01 4.2734179645776749e-02 1.6361239552497864e-01 -2.0325352251529694e-01 -3.1566575169563293e-01 -6.8355590105056763e-02 -4.1415178775787354e-01 -1.2813201546669006e-01 -1.3526147603988647e-01 -1.5809333324432373e-01 -1.8552601337432861e-01 -1.1885986477136612e-01 6.1865007877349854e-01 4.0481719374656677e-01 -3.8895417004823685e-02 -2.5861591100692749e-02 -9.5514319837093353e-02 8.2515515387058258e-02 -2.4094969034194946e-02 4.0270630270242691e-02 -1.6201426088809967e-01 -5.3720552474260330e-02 -4.8983957618474960e-02 -2.2138309478759766e-01 -1.2005409598350525e-01 -1.1174710467457771e-02 -4.7548834234476089e-02 1.9492787541821599e-03 1.9101785123348236e-01 1.3366453349590302e-01 3.4179303795099258e-02 -2.5133293867111206e-01 -6.4207607507705688e-01 1.6960573196411133e-01 -1.0581350326538086e-01 -2.1233214437961578e-01 6.2152061611413956e-02 -1.9175037741661072e-01 -1.3190567493438721e-01 -5.3731906414031982e-01 1.6064336895942688e-01 -5.4795309901237488e-02 1.3673043809831142e-02 7.2745881974697113e-02 5.9455484151840210e-01 -2.0712871849536896e-01 2.1436955034732819e-01 2.4163067340850830e-01 4.4321271777153015e-01 5.2002640441060066e-03 -2.0158251747488976e-02 1.2099036574363708e-01 2.1478611230850220e-01 -5.4778765887022018e-02 5.0233930349349976e-02 3.3628097176551819e-01 2.0785450469702482e-03 2.9299505054950714e-02 -1.9368200004100800e-01 -1.1546023190021515e-01 6.6357970237731934e-02 2.0959754288196564e-01 
      </Weights>
      <Biases rows="32" cols="1">
        -5.3838334977626801e-02 6.8276789970695972e-03 4.5777383446693420e-01 6.5362304449081421e-01 3.1620416045188904e-01 -5.1196610927581787e-01 7.1102224290370941e-02 -2.3112402856349945e-01 4.2706063389778137e-01 1.0811936855316162e-01 1.9868049025535583e-01 -4.1375061869621277e-01 7.2401031851768494e-02 -1.1372583359479904e-01 2.0967142283916473e-01 9.7493492066860199e-02 6.3471442461013794e-01 -7.1431273221969604e-01 -5.4754304885864258e-01 3.5368945449590683e-02 2.3444692790508270e-01 -5.1644235849380493e-01 6.5030831098556519e-01 -6.2485855817794800e-01 -4.1527047753334045e-01 1.1222130060195923e-01 -3.7700611352920532e-01 3.6857140064239502e-01 -3.3370828628540039e-01 -4.6227551996707916e-02 -3.1008821725845337e-01 3.8185539841651917e-01 
      </Biases>
    </Layer>
    <Layer ActivationFunction="3">
      <Weights rows="16" cols="32">
        -5.3352743387222290e-02 -1.5981633216142654e-02 2.1436659991741180e-01 2.0001612603664398e-01 3.3141389489173889e-01 -1.7848914861679077e-01 -1.6152457892894745e-01 -1.7398291826248169e-01 -1.0747080296278000e-01 1.3986388221383095e-02 1.3029529154300690e-01 -1.7303322255611420e-01 1.0368093103170395e-01 -5.3421530872583389e-02 3.2864715903997421e-02 1.2262916564941406e-01 1.4224513433873653e-02 -1.2536275386810303e-01 -4.0136179327964783e-01 1.2746100127696991e-01 1.4606519043445587e-01 -2.8981071710586548e-01 1.1756791919469833e-01 -2.7915197610855103e-01 -1.0679298639297485e-01 3.1465560197830200e-02 8.7461676448583603e-03 9.0694176033139229e-03 -1.0784330964088440e-01 -1.4343865215778351e-01 -2.1651747822761536e-01 -5.4387845098972321e-02 -8.7881304323673248e-02 1.8910764157772064e-01 4.4706347584724426e-01 2.9410594701766968e-01 1.7582130432128906e-01 -4.3034985661506653e-01 -2.8901502490043640e-01 -1.2926548719406128e-01 -2.4251216650009155e-01 -4.6165227890014648e-02 1.8830317258834839e-01 -9.8123215138912201e-03 1.0585387237370014e-02 5.4055161774158478e-02 -1.4315430819988251e-01 1.7117618024349213e-01 1.6665551066398621e-01 -4.0987300872802734e-01 -2.8719615936279297e-01 8.4968715906143188e-02 1.9270747900009155e-01 -2.1081490814685822e-01 -3.6378089338541031e-02 -3.0019640922546387e-01 -2.0903383195400238e-01 -3.9121583104133606e-02 -7.5313799083232880e-02 1.1303464323282242e-01 -5.0349211692810059e-01 -1.2128917872905731e-01 -1.6356582939624786e-01 -8.4204599261283875e-02 -1.6171459108591080e-02 6.9663539528846741e-02 1.6590632498264313e-01 7.6420992612838745e-02 4.7873888164758682e-02 -1.1273983120918274e-01 -6.2036655843257904e-02 -8.0218784511089325e-02 1.0530399531126022e-01 6.7508220672607422e-02 7.7575503382831812e-04 -1.3304345309734344e-01 1.0853001475334167e-01 -5.8960124850273132e-02 -7.1713201701641083e-02 8.9675128459930420e-02 1.5601546503603458e-02 -1.3766056299209595e-01 -1.0527103394269943e-01 2.3046392016112804e-03 1.2453252077102661e-01 -1.3651998341083527e-01 6.6471032798290253e-02 -1.6432867944240570e-01 -4.9332343041896820e-02 5.0818827003240585e-02 8.3699525566771626e-04 -5.6896608322858810e-02 -4.7438006848096848e-02 -7.8962244093418121e-02 1.3902219012379646e-02 2.7576912194490433e-02 -2.4725599214434624e-02 -7.5581811368465424e-02 2.6533013582229614e-01 1.8247720599174500e-01 3.1402552127838135e-01 -1.2271218001842499e-01 -5.7332284748554230e-02 -1.5642619132995605e-01 -7.8362770378589630e-02 -3.0817205086350441e-02 1.2807074934244156e-02 -7.2642400860786438e-02 2.6550099253654480e-02 -4.5919980853796005e-02 9.2115744948387146e-02 1.2376629561185837e-01 -4.8184074461460114e-02 1.8697012215852737e-02 -4.1428932547569275e-01 6.6210702061653137e-02 2.2529636323451996e-01 -3.7868753075599670e-01 9.6394866704940796e-02 -1.8135339021682739e-01 -2.3997631669044495e-01 5.6404583156108856e-02 -2.4406190961599350e-02 -4.6605840325355530e-03 -1.0230375453829765e-02 7.5121223926544189e-02 -2.0712202787399292e-01 9.4668297097086906e-03 5.0896231085062027e-02 8.7117724120616913e-02 1.1604975908994675e-01 2.7510309219360352e-01 8.4893211722373962e-02 -1.4795035123825073e-01 -6.7586623132228851e-02 -1.4501948840916157e-02 1.5591283142566681e-01 1.0787652432918549e-01 6.1278849840164185e-02 -6.3923031091690063e-02 -4.5298128388822079e-03 -9.4871565699577332e-02 1.4638322591781616e-01 8.6431555449962616e-02 2.4245260655879974e-01 -1.0900873690843582e-01 -1.4507266879081726e-01 6.2745884060859680e-02 7.3503136634826660e-02 -7.7967636287212372e-02 1.2484665960073471e-01 -2.0324885845184326e-01 -3.4069694578647614e-02 -6.4596801996231079e-02 -1.4688219130039215e-01 1.2435667216777802e-01 -1.7962616682052612e-01 -1.0214310139417648e-01 -1.2145148962736130e-01 1.8616609275341034e-01 1.2375468015670776e-01 -1.2041217088699341e-01 -3.5098311305046082e-01 -1.8673667311668396e-01 -2.6149091124534607e-01 2.6384454965591431e-01 3.4230433404445648e-02 9.2778116464614868e-02 3.6782130599021912e-02 5.4829519242048264e-02 -8.4708616137504578e-02 9.6768774092197418e-02 -8.0090127885341644e-02 -5.0193939357995987e-02 -2.8172457590699196e-02 -2.0551849901676178e-01 -1.0189545899629593e-01 2.5495150685310364e-01 2.9702639579772949e-01 -1.7926189303398132e-01 -2.0297102630138397e-01 2.4479500949382782e-01 5.1582023501396179e-02 1.1837936937808990e-01 1.1034412309527397e-02 3.3516548573970795e-02 -5.5632892996072769e-02 -9.8057903349399567e-02 3.0172163248062134e-01 9.4396509230136871e-02 1.3456401228904724e-01 -4.2238261550664902e-02 -1.9494064152240753e-02 2.1901388466358185e-01 -1.7670795321464539e-01 -3.4378191828727722e-01 -7.5202286243438721e-02 1.3310593552887440e-02 -1.5653270483016968e-01 4.3686971068382263e-02 -1.7352442443370819e-01 -6.6855035722255707e-02 1.3777625747025013e-02 1.4511865377426147e-01 4.1622836142778397e-03 -4.3674822896718979e-02 -1.9977828860282898e-01 5.2904896438121796e-02 -8.0544702708721161e-02 -3.9196968078613281e-02 2.7275305986404419e-01 1.1058424599468708e-02 -1.7639301717281342e-01 1.4979916810989380e-01 -2.6149851083755493e-01 3.2534807920455933e-01 2.5971639156341553e-01 -5.6476220488548279e-02 1.4166253805160522e-01 -2.1310547366738319e-02 -1.1462610960006714e-01 6.6205568611621857e-02 1.9037818908691406e-01 -1.7157033085823059e-01 -1.0314457863569260e-01 2.3544967174530029e-02 -6.0538634657859802e-02 4.5836922526359558e-01 -3.1231274828314781e-02 1.5315513312816620e-01 2.8823229670524597e-01 -2.3003332316875458e-02 2.8355008363723755e-01 2.9940813779830933e-01 -1.1531036347150803e-01 -1.7169861495494843e-01 9.1025710105895996e-02 -1.7757032811641693e-01 9.8798461258411407e-02 -2.2937130182981491e-02 3.0793538689613342e-01 -1.7365908622741699e-01 1.5832430124282837e-01 -1.5281814150512218e-02 -1.5982913970947266e-01 -1.1072751879692078e-01 2.2133027017116547e-01 -5.1572129130363464e-02 -9.1586887836456299e-02 1.0503391176462173e-01 -2.6879134774208069e-01 8.6942188441753387e-02 2.1007278934121132e-02 4.2167723178863525e-02 -1.1319226771593094e-01 1.2258204072713852e-01 -9.9644072353839874e-02 1.5164759755134583e-01 4.5665258169174194e-01 1.3718882203102112e-01 3.2592993974685669e-01 -3.1440573930740356e-01 -3.9402857422828674e-02 -4.1598618030548096e-02 -1.5918365120887756e-01 1.5018593519926071e-02 1.5152776241302490e-01 -1.7997996509075165e-01 -7.8925594687461853e-02 1.1372003704309464e-01 4.8595648258924484e-02 6.0243848711252213e-02 -2.2668337449431419e-02 -2.5736370682716370e-01 -3.7802848219871521e-01 9.8675183951854706e-02 1.1356306821107864e-01 -1.1724280565977097e-01 -1.9145520403981209e-02 -3.0964797735214233e-01 -2.0063520967960358e-01 3.1040864065289497e-02 5.2302341908216476e-02 1.6746655106544495e-01 -3.6870983242988586e-01 -8.8691592216491699e-02 -8.1919498741626740e-02 8.1704580225050449e-04 5.1873095333576202e-02 -6.3542164862155914e-02 2.5370260700583458e-02 1.9564740359783173e-01 4.0425542742013931e-02 -1.2780252099037170e-01 -2.5724828243255615e-02 -6.5852485597133636e-02 1.1116087436676025e-01 -2.8210584074258804e-02 -4.6132531017065048e-02 -9.9922508001327515e-02 9.5975615084171295e-02 3.5397012252360582e-03 1.1047574877738953e-01 -2.8596181422472000e-02 7.8081250190734863e-02 -1.6442105174064636e-01 1.3032273855060339e-03 -1.3116192072629929e-02 4.6234045177698135e-02 -1.3826818764209747e-01 1.3196747004985809e-01 -6.5747089684009552e-02 -2.3353960365056992e-02 -7.4726022779941559e-02 -1.0373135656118393e-01 -7.5975291430950165e-02 -6.3748642802238464e-02 7.0913799107074738e-02 -1.2266828864812851e-01 1.4431734383106232e-01 7.4461027979850769e-02 -7.1896746754646301e-02 -8.7086454033851624e-02 2.2117793560028076e-02 -1.3332997262477875e-01 1.2290971726179123e-01 -3.9718531072139740e-02 -1.1545811779797077e-02 1.7376810312271118e-02 3.4214105457067490e-02 3.0149254947900772e-02 -1.5197098255157471e-02 7.0419013500213623e-02 -2.9783995822072029e-02 3.8110274821519852e-02 9.1420881450176239e-02 7.1758657693862915e-02 -6.3865147531032562e-02 -1.7286026850342751e-02 -9.5211490988731384e-02 -8.7026663124561310e-02 1.0467745363712311e-01 -1.2306171702221036e-03 3.8679905235767365e-02 -1.5405522659420967e-02 -9.4210274517536163e-02 1.0713084042072296e-01 2.2196428850293159e-02 6.2979750335216522e-02 -5.0295952707529068e-02 9.9860116839408875e-02 -1.1656916886568069e-01 -2.8453683480620384e-03 5.0400134176015854e-02 1.8067528307437897e-01 4.4827821850776672e-01 7.1346625685691833e-02 7.4485480785369873e-02 1.3155485689640045e-01 -2.0085183903574944e-02 2.4260340631008148e-01 1.4744375646114349e-01 5.1298536360263824e-02 -2.0368160307407379e-01 -9.6379565075039864e-03 -1.4638820290565491e-01 1.3792181015014648e-01 1.1667101085186005e-01 4.2116832733154297e-01 -3.3130213618278503e-01 -6.1676070094108582e-02 -1.2783634662628174e-01 -1.2593820691108704e-01 -2.7250313758850098e-01 2.5004717707633972e-01 -1.6149981319904327e-01 -1.1806790530681610e-01 2.0133586600422859e-02 -3.0055937170982361e-01 1.6835904121398926e-01 -9.5003843307495117e-02 -5.6170418858528137e-02 -6.8765282630920410e-02 1.5349206328392029e-01 5.0085978582501411e-03 -8.7585650384426117e-02 1.0816650092601776e-01 1.3396841287612915e-01 1.8818590044975281e-01 -1.5293554961681366e-01 -4.4241342693567276e-02 -9.4262704253196716e-02 1.0091678798198700e-01 -5.3611550480127335e-02 7.3113650083541870e-02 -1.7291724681854248e-02 8.7110348045825958e-02 3.8266066461801529e-02 2.6910228654742241e-02 -2.0379161462187767e-02 -4.1206805035471916e-03 -5.7937707751989365e-02 -2.2256940603256226e-01 6.1692174524068832e-02 1.1719434708356857e-01 -3.9164204150438309e-02 7.0905059576034546e-02 -4.3353602290153503e-02 9.9994819611310959e-03 -6.8788275122642517e-02 -9.1215468943119049e-02 6.2018032185733318e-03 -5.0446309149265289e-02 -7.4003703892230988e-02 -1.0760203748941422e-01 6.4406290650367737e-02 -6.8242415785789490e-02 -8.0194965004920959e-02 -1.5013185143470764e-01 2.2529022768139839e-02 1.2950830161571503e-02 6.7015603184700012e-02 6.9020546972751617e-02 -3.5786870867013931e-02 1.0789342969655991e-01 -4.9662306904792786e-02 2.2757809609174728e-02 -7.2958908975124359e-02 4.6938613057136536e-02 4.8572003841400146e-02 -3.2662227749824524e-02 6.5481901168823242e-02 6.2973096966743469e-02 7.1476258337497711e-02 2.3977754637598991e-02 -5.1911264657974243e-02 5.2463591098785400e-02 1.2061455845832825e-01 -4.4925197958946228e-02 1.5764057636260986e-01 -2.9313942417502403e-02 -1.0353025048971176e-01 -8.7386690080165863e-02 8.5358172655105591e-02 1.3232891261577606e-01 6.9469459354877472e-02 -8.4068337455391884e-03 -4.2153626680374146e-02 -1.2889350764453411e-02 1.8267601728439331e-01 -1.8138544261455536e-01 -4.3336167931556702e-02 -1.5787070989608765e-01 4.5009762048721313e-02 -5.7733543217182159e-02 1.6209787130355835e-01 -2.2038955241441727e-02 5.9902526438236237e-02 -9.4763644039630890e-02 -2.1308192983269691e-02 -9.6601635217666626e-02 -5.7987347245216370e-02 2.4465039372444153e-02 3.0750310048460960e-02 4.0298178791999817e-02 6.8394549190998077e-02 3.2415822148323059e-01 4.5659832656383514e-02 -1.4586366713047028e-01 3.5269844532012939e-01 -1.8929965794086456e-01 2.5986677408218384e-01 2.0925028622150421e-01 -9.7306333482265472e-02 -7.1713820099830627e-02 -6.1903111636638641e-02 7.0801749825477600e-03 1.1311621405184269e-02 2.4321144819259644e-01 -5.2581965923309326e-02 -2.3589739575982094e-02 -1.0377658903598785e-01 -3.2436415553092957e-02 4.4370168447494507e-01 -7.3865830898284912e-02 2.4488952010869980e-02 2.4824628233909607e-01 2.4231631308794022e-02 3.6797741055488586e-01 1.7785361409187317e-01 4.4440921396017075e-02 -9.2410042881965637e-02 4.9300190061330795e-02 -2.3966897279024124e-02 2.0467713475227356e-01 -9.2626608908176422e-02 3.5778704285621643e-01 -6.0933928936719894e-02 6.2927588820457458e-02 -1.1169194430112839e-01 -7.8056238591670990e-02 -6.6341526806354523e-02 2.2405745089054108e-01 -2.0403718948364258e-01 -8.7722927331924438e-02 9.0487800538539886e-02 -1.1506122350692749e-01 -2.3115299642086029e-02 -5.0395682454109192e-02 -5.6120924651622772e-02 1.1701727285981178e-02 3.0818003416061401e-01 
      </Weights>
      <Biases rows="16" cols="1">
        1.3671784661710262e-02 3.6240538954734802e-01 1.4040063135325909e-02 5.4278904572129250e-03 2.1907760202884674e-01 -1.1505278944969177e-01 -1.1035967618227005e-01 2.9929062724113464e-01 1.5270254015922546e-01 2.2715227678418159e-02 2.6163801550865173e-02 4.6000799536705017e-01 3.5398334264755249e-02 7.4426755309104919e-02 -8.2359530031681061e-02 2.9455813765525818e-01 
      </Biases>
    </Layer>
    <Layer ActivationFunction="2">
      <Weights rows="16" cols="16">
        -1.8395787477493286e-01 -1.1343235522508621e-01 -7.7634759247303009e-02 -5.9179455041885376e-02 5.6739594787359238e-02 1.7043656110763550e-01 9.8517134785652161e-02 -3.0597144365310669e-01 -1.0401181131601334e-01 -3.2671511173248291e-02 7.8058123588562012e-02 -3.1888529658317566e-01 9.0966336429119110e-02 -1.4586481451988220e-01 1.0900205373764038e-01 -1.3898092508316040e-01 -1.1627282202243805e-01 -1.8288187682628632e-01 -1.3622564077377319e-01 -4.3427366763353348e-02 -7.9939946532249451e-02 1.4203482866287231e-01 3.3551204204559326e-01 -3.4182059764862061e-01 -6.6420115530490875e-02 -1.7434878647327423e-01 -3.2286994159221649e-02 -3.4802722930908203e-01 5.3243249654769897e-02 -1.7531715333461761e-01 -2.6869503781199455e-02 -3.4592553973197937e-01 3.6939013004302979e-01 2.4862104654312134e-01 2.1999494731426239e-01 3.3647778630256653e-01 1.8498810008168221e-02 -3.6162060499191284e-01 -3.2746574282646179e-01 7.6783046126365662e-02 2.2648678719997406e-01 1.4948388934135437e-01 -7.8183762729167938e-02 2.2337366640567780e-01 1.5501123666763306e-01 -8.3103440701961517e-02 -2.8577026724815369e-01 -1.4428240060806274e-01 5.4519917815923691e-02 -1.5874767303466797e-01 2.9977038502693176e-02 -1.0126969218254089e-01 2.7976332232356071e-02 -3.7843524478375912e-03 9.7495496273040771e-02 -2.8973501920700073e-01 -1.6539861261844635e-01 -8.8391192257404327e-02 -6.2602363526821136e-02 -1.6127596795558929e-01 -1.3881783187389374e-01 -3.0479762703180313e-02 -1.9899290055036545e-02 -2.1137079596519470e-01 2.7656555175781250e-01 2.5741598010063171e-01 1.9741171598434448e-01 1.8034514784812927e-01 2.6893030852079391e-02 -2.9840737581253052e-01 -2.8287222981452942e-01 5.1881600171327591e-02 2.5676959753036499e-01 1.4783211052417755e-01 -1.0076483339071274e-01 7.5756549835205078e-02 1.8924473226070404e-01 -1.2847088277339935e-01 -2.7289280295372009e-01 8.6130879819393158e-02 -2.2570930421352386e-01 -2.0058822631835938e-01 -8.1637233495712280e-02 -1.5956978499889374e-01 3.6521192640066147e-02 1.1110381036996841e-01 2.5078421831130981e-01 -3.2011514902114868e-01 -1.1587190628051758e-01 -7.4946530163288116e-02 8.3397753536701202e-02 -3.5542804002761841e-01 2.0854810252785683e-02 -8.1128068268299103e-02 2.0617687702178955e-01 -1.7266528308391571e-01 -4.4299937784671783e-02 -5.3650602698326111e-02 1.4027208089828491e-01 9.6997447311878204e-02 1.0431209951639175e-01 2.6901513338088989e-02 -8.8249906897544861e-02 -6.7233324050903320e-02 4.4561135582625866e-03 -6.2131777405738831e-02 -1.0899692773818970e-01 -3.2866936177015305e-02 -1.3190004974603653e-02 -1.6843619942665100e-01 8.0212332308292389e-02 6.0503944754600525e-02 -1.5501786023378372e-02 8.6881913244724274e-02 -1.1440668255090714e-01 2.1937679499387741e-02 9.1994158923625946e-02 -1.1540868878364563e-01 2.0126925664953887e-04 -8.8089480996131897e-03 -1.2584468722343445e-01 1.9804948940873146e-02 -7.7795617282390594e-02 -1.5424898266792297e-01 8.7348647415637970e-02 9.9622219800949097e-02 -4.2771361768245697e-02 -1.2133131176233292e-01 3.0303290486335754e-01 2.4483355879783630e-01 4.1951838880777359e-02 2.8215929865837097e-01 8.1465475261211395e-02 -2.6505291461944580e-01 -2.3413299024105072e-01 8.9802786707878113e-02 2.4456417560577393e-01 1.4581991732120514e-01 -2.3336742073297501e-02 8.6563646793365479e-02 3.9056647568941116e-02 -1.3514158129692078e-01 6.7110420204699039e-03 2.8387991711497307e-02 2.9915052652359009e-01 2.0650377869606018e-01 2.3755282163619995e-02 2.3752242326736450e-01 1.3485690951347351e-01 -1.1833149939775467e-01 -8.9891232550144196e-02 -5.7845465838909149e-02 2.2160117328166962e-01 -2.5480991229414940e-02 -9.0280570089817047e-02 2.0744505524635315e-01 -6.7626550793647766e-02 -1.0299690812826157e-01 -2.1274006366729736e-01 1.0494836419820786e-01 -3.4533191472291946e-02 -1.4279024302959442e-01 -1.0799513757228851e-01 -2.9163155704736710e-02 -1.7237000167369843e-01 1.5272302925586700e-01 2.8504584915935993e-03 -1.8301124870777130e-01 -1.8751692771911621e-01 -5.8218087069690228e-03 5.3065914660692215e-02 -1.5684907138347626e-01 -1.2277738749980927e-01 -2.3978184908628464e-02 -2.1590562537312508e-02 -2.2027094662189484e-01 -2.4315181374549866e-01 -2.4619916453957558e-02 -3.4341512946411967e-04 -2.8380405902862549e-01 -1.7089374363422394e-01 2.8764820098876953e-01 2.2633352875709534e-01 -2.0772349834442139e-01 -1.9720315933227539e-01 -3.9052110165357590e-02 -9.2613644897937775e-02 -2.3923109471797943e-01 2.2302040830254555e-02 -1.5284116379916668e-02 1.9561254978179932e-01 -1.1056209355592728e-01 2.2140036523342133e-01 2.5150635838508606e-01 -5.0356999039649963e-02 2.3522095382213593e-01 2.1228100359439850e-01 -2.4055635929107666e-01 -2.7601182460784912e-01 6.3680052757263184e-02 1.4430876076221466e-01 1.5144088864326477e-01 9.3105528503656387e-03 3.1468328833580017e-01 1.0079067945480347e-01 -7.5281120836734772e-02 -3.1014841794967651e-01 1.0460089892148972e-01 1.4945730566978455e-01 -9.0416684746742249e-02 1.4009040594100952e-01 -1.5742996707558632e-02 -1.3429279625415802e-01 -1.6545705497264862e-01 -1.6763167083263397e-01 1.3059143722057343e-01 1.5825238823890686e-01 1.1203200556337833e-02 -2.7226997539401054e-02 3.3174596726894379e-02 -8.5141971707344055e-02 3.4864742308855057e-02 3.9070472121238708e-02 4.8138357698917389e-02 1.8657803535461426e-01 2.5472494959831238e-01 4.2545411735773087e-02 3.8752168416976929e-01 1.6741323471069336e-01 -2.2366276383399963e-01 -1.3967809081077576e-01 4.5809857547283173e-02 2.5526770949363708e-01 2.5673437118530273e-01 -1.4486081898212433e-01 2.9423752427101135e-01 1.7098070681095123e-01 -1.9432745873928070e-01 -2.4115788936614990e-01 5.7207558304071426e-02 -2.9076859354972839e-01 -2.6033148169517517e-01 7.6652444899082184e-02 -1.2398767471313477e-01 -1.6461154818534851e-01 2.2057965397834778e-01 3.4431570768356323e-01 -2.4603544175624847e-01 -2.2899049520492554e-01 -7.4775367975234985e-02 -1.4377473294734955e-01 -2.6918998360633850e-01 -5.5977709591388702e-02 8.7359547615051270e-02 1.3720632530748844e-02 -2.3058864474296570e-01 
      </Weights>
      <Biases rows="16" cols="1">
        -1.6165320575237274e-01 -2.4742001295089722e-01 -1.3319733738899231e-01 -1.7566598951816559e-01 -5.7186093181371689e-02 -1.3461950421333313e-01 -1.6474978625774384e-01 -1.7042423784732819e-01 -7.9527013003826141e-02 -7.1198061108589172e-02 -1.9087381660938263e-01 -1.4493626356124878e-01 -3.1356532126665115e-02 -1.6256128251552582e-01 -6.8490259349346161e-02 -1.8998858332633972e-01 
      </Biases>
    </Layer>
    <Layer ActivationFunction="0">
      <Weights rows="1" cols="16">
        -3.3461061120033264e-01 -6.6217952966690063e-01 5.6047099828720093e-01 -1.8506671488285065e-01 4.4908773899078369e-01 -5.6727337837219238e-01 -4.9502616748213768e-03 -6.6463455557823181e-02 2.0311796665191650e-01 1.1512343585491180e-01 -1.9986012578010559e-01 -3.3392378687858582e-01 5.0191491842269897e-01 2.3290827870368958e-01 4.6763244271278381e-01 -8.9513069391250610e-01 
      </Weights>
      <Biases rows="1" cols="1">
        4.2120924592018127e-01 
      </Biases>
    </Layer>
  </Weights>
</MethodSetup>
