<?xml version="1.0"?>
<MethodSetup Method="DNN::DNN_NanoV9_V1_2020_BBtag_x2">
  <GeneralInfo>
    <Info name="TMVA Release" value="4.2.1 [262657]"/>
    <Info name="ROOT Release" value="6.12/07 [396295]"/>
    <Info name="Creator" value="hum"/>
    <Info name="Date" value="Sun Feb 27 23:58:49 2022"/>
    <Info name="Host" value="Linux vocms0301.cern.ch 2.6.32-696.30.1.el6.x86_64 #1 SMP Tue May 22 06:09:36 CEST 2018 x86_64 x86_64 x86_64 GNU/Linux"/>
    <Info name="Dir" value="/afs/cern.ch/work/h/hum/public/CMSSW_10_2_13/src/ChargedHiggs/Analysis"/>
    <Info name="Training events" value="4560"/>
    <Info name="TrainingTime" value="1.49190211e+00"/>
    <Info name="AnalysisType" value="Classification"/>
  </GeneralInfo>
  <Options>
    <Option name="V" modified="Yes">True</Option>
    <Option name="VerbosityLevel" modified="No">Verbose</Option>
    <Option name="VarTransform" modified="Yes">N</Option>
    <Option name="H" modified="Yes">False</Option>
    <Option name="CreateMVAPdfs" modified="No">False</Option>
    <Option name="IgnoreNegWeightsInTraining" modified="No">False</Option>
    <Option name="Layout" modified="Yes">SIGMOID|32,TANH|16,TANH|16,LINEAR</Option>
    <Option name="ValidationSize" modified="No">20%</Option>
    <Option name="ErrorStrategy" modified="Yes">CROSSENTROPY</Option>
    <Option name="WeightInitialization" modified="Yes">XAVIERUNIFORM</Option>
    <Option name="Architecture" modified="Yes">CPU</Option>
    <Option name="TrainingStrategy" modified="Yes">LearningRate=1e-1,Momentum=0.4,Repetitions=1,ConvergenceSteps=20,BatchSize=256,TestRepetitions=10,WeightDecay=1e-4,Regularization=L2,DropConfig=0.0+0.1+0.25+0.5,</Option>
  </Options>
  <Variables NVar="13">
    <Variable VarIndex="0" Expression="j1QGL" Label="j1QGL" Title="j1QGL" Unit="" Internal="j1QGL" Type="F" Min="-1.00000000e+00" Max="1.00000000e+00"/>
    <Variable VarIndex="1" Expression="j2QGL" Label="j2QGL" Title="j2QGL" Unit="" Internal="j2QGL" Type="F" Min="-1.00000000e+00" Max="9.99511719e-01"/>
    <Variable VarIndex="2" Expression="varMjj" Label="varMjj" Title="varMjj" Unit="" Internal="varMjj" Type="F" Min="5.00147461e+02" Max="6.45378076e+03"/>
    <Variable VarIndex="3" Expression="varDetajj" Label="varDetajj" Title="varDetajj" Unit="" Internal="varDetajj" Type="F" Min="2.50183105e+00" Max="8.42578125e+00"/>
    <Variable VarIndex="4" Expression="varJet1Pt" Label="varJet1Pt" Title="varJet1Pt" Unit="" Internal="varJet1Pt" Type="F" Min="5.19687500e+01" Max="1.75300000e+03"/>
    <Variable VarIndex="5" Expression="abs(varJet2Eta)" Label="abs(varJet2Eta)" Title="abs(varJet2Eta)" Unit="" Internal="abs_varJet2Eta_" Type="F" Min="1.10565186e-01" Max="4.64160156e+00"/>
    <Variable VarIndex="6" Expression="varJet2Pt" Label="varJet2Pt" Title="varJet2Pt" Unit="" Internal="varJet2Pt" Type="F" Min="5.00312500e+01" Max="9.18000000e+02"/>
    <Variable VarIndex="7" Expression="varPTV1" Label="varPTV1" Title="varPTV1" Unit="" Internal="varPTV1" Type="F" Min="3.00000000e+02" Max="1.91400000e+03"/>
    <Variable VarIndex="8" Expression="varPTV2" Label="varPTV2" Title="varPTV2" Unit="" Internal="varPTV2" Type="F" Min="3.00000000e+02" Max="1.72000000e+03"/>
    <Variable VarIndex="9" Expression="varCen" Label="varCen" Title="varCen" Unit="" Internal="varCen" Type="F" Min="4.39453125e-03" Max="3.78759766e+00"/>
    <Variable VarIndex="10" Expression="varzepVV" Label="varzepVV" Title="varzepVV" Unit="" Internal="varzepVV" Type="F" Min="1.57543560e-04" Max="1.71634245e+00"/>
    <Variable VarIndex="11" Expression="varDRV1j" Label="varDRV1j" Title="varDRV1j" Unit="" Internal="varDRV1j" Type="F" Min="1.20024276e+00" Max="4.66205406e+00"/>
    <Variable VarIndex="12" Expression="varnormPTVVjj" Label="varnormPTVVjj" Title="varnormPTVVjj" Unit="" Internal="varnormPTVVjj" Type="F" Min="2.81532761e-04" Max="6.09279156e-01"/>
  </Variables>
  <Spectators NSpec="0"/>
  <Classes NClass="2">
    <Class Name="Signal" Index="0"/>
    <Class Name="Background" Index="1"/>
  </Classes>
  <Transformations NTransformations="1">
    <Transform Name="Normalize">
      <Selection>
        <Input NInputs="13">
          <Input Type="Variable" Label="j1QGL" Expression="j1QGL"/>
          <Input Type="Variable" Label="j2QGL" Expression="j2QGL"/>
          <Input Type="Variable" Label="varMjj" Expression="varMjj"/>
          <Input Type="Variable" Label="varDetajj" Expression="varDetajj"/>
          <Input Type="Variable" Label="varJet1Pt" Expression="varJet1Pt"/>
          <Input Type="Variable" Label="abs(varJet2Eta)" Expression="abs(varJet2Eta)"/>
          <Input Type="Variable" Label="varJet2Pt" Expression="varJet2Pt"/>
          <Input Type="Variable" Label="varPTV1" Expression="varPTV1"/>
          <Input Type="Variable" Label="varPTV2" Expression="varPTV2"/>
          <Input Type="Variable" Label="varCen" Expression="varCen"/>
          <Input Type="Variable" Label="varzepVV" Expression="varzepVV"/>
          <Input Type="Variable" Label="varDRV1j" Expression="varDRV1j"/>
          <Input Type="Variable" Label="varnormPTVVjj" Expression="varnormPTVVjj"/>
        </Input>
        <Output NOutputs="13">
          <Output Type="Variable" Label="j1QGL" Expression="j1QGL"/>
          <Output Type="Variable" Label="j2QGL" Expression="j2QGL"/>
          <Output Type="Variable" Label="varMjj" Expression="varMjj"/>
          <Output Type="Variable" Label="varDetajj" Expression="varDetajj"/>
          <Output Type="Variable" Label="varJet1Pt" Expression="varJet1Pt"/>
          <Output Type="Variable" Label="abs(varJet2Eta)" Expression="abs(varJet2Eta)"/>
          <Output Type="Variable" Label="varJet2Pt" Expression="varJet2Pt"/>
          <Output Type="Variable" Label="varPTV1" Expression="varPTV1"/>
          <Output Type="Variable" Label="varPTV2" Expression="varPTV2"/>
          <Output Type="Variable" Label="varCen" Expression="varCen"/>
          <Output Type="Variable" Label="varzepVV" Expression="varzepVV"/>
          <Output Type="Variable" Label="varDRV1j" Expression="varDRV1j"/>
          <Output Type="Variable" Label="varnormPTVVjj" Expression="varnormPTVVjj"/>
        </Output>
      </Selection>
      <Class ClassIndex="0">
        <Ranges>
          <Range Index="0" Min="-1.0000000000000000e+00" Max="1.0000000000000000e+00"/>
          <Range Index="1" Min="-1.0000000000000000e+00" Max="9.9951171875000000e-01"/>
          <Range Index="2" Min="5.0183966064453125e+02" Max="6.4537807617187500e+03"/>
          <Range Index="3" Min="2.5028076171875000e+00" Max="8.4257812500000000e+00"/>
          <Range Index="4" Min="5.2718750000000000e+01" Max="1.7530000000000000e+03"/>
          <Range Index="5" Min="1.2001037597656250e-01" Max="4.6416015625000000e+00"/>
          <Range Index="6" Min="5.0031250000000000e+01" Max="8.3050000000000000e+02"/>
          <Range Index="7" Min="3.0000000000000000e+02" Max="1.9140000000000000e+03"/>
          <Range Index="8" Min="3.0000000000000000e+02" Max="1.7200000000000000e+03"/>
          <Range Index="9" Min="4.3945312500000000e-03" Max="3.7875976562500000e+00"/>
          <Range Index="10" Min="1.5754355990793556e-04" Max="1.7163424491882324e+00"/>
          <Range Index="11" Min="1.2002427577972412e+00" Max="4.6620540618896484e+00"/>
          <Range Index="12" Min="2.8153276070952415e-04" Max="6.0927915573120117e-01"/>
        </Ranges>
      </Class>
      <Class ClassIndex="1">
        <Ranges>
          <Range Index="0" Min="-1.0000000000000000e+00" Max="1.0000000000000000e+00"/>
          <Range Index="1" Min="-1.0000000000000000e+00" Max="9.9951171875000000e-01"/>
          <Range Index="2" Min="5.0014746093750000e+02" Max="5.3762480468750000e+03"/>
          <Range Index="3" Min="2.5018310546875000e+00" Max="8.3935546875000000e+00"/>
          <Range Index="4" Min="5.1968750000000000e+01" Max="1.2370000000000000e+03"/>
          <Range Index="5" Min="1.1056518554687500e-01" Max="4.6113281250000000e+00"/>
          <Range Index="6" Min="5.0031250000000000e+01" Max="9.1800000000000000e+02"/>
          <Range Index="7" Min="3.0000000000000000e+02" Max="1.5960000000000000e+03"/>
          <Range Index="8" Min="3.0000000000000000e+02" Max="1.6150000000000000e+03"/>
          <Range Index="9" Min="5.3710937500000000e-03" Max="3.6993408203125000e+00"/>
          <Range Index="10" Min="2.6363672805018723e-04" Max="1.5011012554168701e+00"/>
          <Range Index="11" Min="1.2088896036148071e+00" Max="4.3695983886718750e+00"/>
          <Range Index="12" Min="7.8848132397979498e-04" Max="5.4213297367095947e-01"/>
        </Ranges>
      </Class>
      <Class ClassIndex="2">
        <Ranges>
          <Range Index="0" Min="-1.0000000000000000e+00" Max="1.0000000000000000e+00"/>
          <Range Index="1" Min="-1.0000000000000000e+00" Max="9.9951171875000000e-01"/>
          <Range Index="2" Min="5.0014746093750000e+02" Max="6.4537807617187500e+03"/>
          <Range Index="3" Min="2.5018310546875000e+00" Max="8.4257812500000000e+00"/>
          <Range Index="4" Min="5.1968750000000000e+01" Max="1.7530000000000000e+03"/>
          <Range Index="5" Min="1.1056518554687500e-01" Max="4.6416015625000000e+00"/>
          <Range Index="6" Min="5.0031250000000000e+01" Max="9.1800000000000000e+02"/>
          <Range Index="7" Min="3.0000000000000000e+02" Max="1.9140000000000000e+03"/>
          <Range Index="8" Min="3.0000000000000000e+02" Max="1.7200000000000000e+03"/>
          <Range Index="9" Min="4.3945312500000000e-03" Max="3.7875976562500000e+00"/>
          <Range Index="10" Min="1.5754355990793556e-04" Max="1.7163424491882324e+00"/>
          <Range Index="11" Min="1.2002427577972412e+00" Max="4.6620540618896484e+00"/>
          <Range Index="12" Min="2.8153276070952415e-04" Max="6.0927915573120117e-01"/>
        </Ranges>
      </Class>
    </Transform>
  </Transformations>
  <MVAPdfs/>
  <Weights InputWidth="13" Depth="4" LossFunction="C" OutputFunction="S">
    <Layer ActivationFunction="2">
      <Weights rows="32" cols="13">
        1.0441569238901138e-01 5.4612457752227783e-02 -1.9891645014286041e-01 -3.1068080663681030e-01 3.2083648443222046e-01 -1.1963225901126862e-01 9.3507185578346252e-02 -5.8866885956376791e-04 -7.6909296214580536e-02 -3.0549573898315430e-01 -2.0693723857402802e-01 1.2503747642040253e-01 -2.7946126461029053e-01 1.8313427269458771e-01 6.9610676728188992e-03 4.2516097426414490e-01 2.1314804255962372e-01 2.0077732205390930e-01 -1.5864418447017670e-01 9.8005086183547974e-02 4.7970497608184814e-01 1.8983212113380432e-01 3.1335240602493286e-01 1.8145789206027985e-01 -3.6273923516273499e-01 -3.3636683225631714e-01 3.3970829844474792e-01 9.4018049538135529e-02 2.3334081470966339e-01 2.1637532114982605e-01 6.9949246942996979e-02 -2.5234684348106384e-01 -1.1679343879222870e-01 -3.4491896629333496e-02 3.2155867666006088e-02 1.4564432203769684e-01 -2.3266050219535828e-01 2.9000860452651978e-01 -3.7340101599693298e-01 -2.8990413993597031e-03 1.1720584332942963e-01 3.2973292469978333e-01 -3.1587406992912292e-01 1.0775023698806763e-01 3.8449469208717346e-01 -1.1278070509433746e-01 4.7660070657730103e-01 4.6665099263191223e-01 3.2311338186264038e-01 -8.6692854762077332e-02 1.1600638180971146e-01 -2.4063012003898621e-01 6.3687038421630859e-01 5.4439109563827515e-01 7.8655552864074707e-01 1.8736028671264648e-01 3.6660680174827576e-01 4.0304255485534668e-01 4.7316184639930725e-01 3.0370536446571350e-01 4.4417038559913635e-01 7.3273435235023499e-02 1.4572528004646301e-01 2.5788635015487671e-01 -1.0935286283493042e+00 3.3568587899208069e-01 1.5229679644107819e-01 5.9446215629577637e-01 -6.4965374767780304e-02 1.7703567445278168e-01 -1.6425561904907227e-01 3.7767556309700012e-01 5.9604322910308838e-01 4.9891665577888489e-01 -1.2943914532661438e-01 -2.9935437440872192e-01 -1.6805028915405273e-01 -8.5114854574203491e-01 7.7269889414310455e-02 -2.3917730152606964e-01 -4.0605300664901733e-01 1.6179129481315613e-01 -3.0043336749076843e-01 1.4170041680335999e-01 -2.8805306553840637e-01 -2.1518328785896301e-01 -7.5022868812084198e-02 -1.3447302579879761e-01 -1.1084110289812088e-01 -2.6546916365623474e-01 2.3078890144824982e-01 -4.0921014547348022e-01 -2.0851917564868927e-01 2.4458789825439453e-01 -3.8544511795043945e-01 -2.1974161267280579e-01 -4.0597537159919739e-01 -2.8811496496200562e-01 -4.5047369599342346e-01 -1.5578480064868927e-01 1.5886476635932922e-01 3.2817330211400986e-02 1.9323746860027313e-01 -1.5518966317176819e-01 -1.5457127988338470e-01 2.7141872048377991e-01 1.9267979264259338e-01 -2.2778257727622986e-01 5.3323572874069214e-01 3.6060315370559692e-01 4.0134900808334351e-01 -6.5029047429561615e-02 -1.3931741006672382e-02 -2.8747612237930298e-01 2.1938376128673553e-01 3.1202933192253113e-01 -4.4492760300636292e-01 -1.8395252525806427e-01 2.9970321059226990e-01 -3.6399462819099426e-01 -2.7793064713478088e-01 -2.0626068115234375e-01 3.2648974657058716e-01 2.2327471524477005e-03 -1.7754933238029480e-01 -8.7109573185443878e-02 1.8911507725715637e-01 -5.7708729058504105e-02 -2.2448061406612396e-01 4.0356073528528214e-02 3.8116258382797241e-01 -1.1230155825614929e-02 7.2765994071960449e-01 2.9229226708412170e-01 9.0511059388518333e-03 2.5088223814964294e-01 4.7160136699676514e-01 2.5184687972068787e-01 8.4296911954879761e-02 -1.2235002219676971e-01 -3.1244546175003052e-01 -2.4231603741645813e-01 -4.9743244051933289e-01 -2.2435706853866577e-01 -6.8009607493877411e-02 -3.0813574790954590e-01 1.8954624235630035e-01 -3.2400238513946533e-01 -1.3099260628223419e-01 -6.6728465259075165e-02 -4.4415590167045593e-01 5.3255330771207809e-02 5.5715266615152359e-02 -3.0698078870773315e-01 -1.2544006109237671e-01 2.8861132264137268e-01 1.9069834053516388e-01 -1.6258607804775238e-01 3.7347737699747086e-02 -3.0282220244407654e-01 4.0728420019149780e-01 -1.7010554671287537e-01 -4.1433509439229965e-02 -1.9923412799835205e-01 1.5772752463817596e-01 2.5878167152404785e-01 3.4952551126480103e-01 1.0685104131698608e-01 9.5497816801071167e-02 -3.9751759171485901e-01 -1.3893456757068634e-01 -4.5662954449653625e-01 -2.2504071891307831e-01 -4.1728413105010986e-01 1.8826869130134583e-01 -9.0196862816810608e-02 -1.2634766101837158e-01 -2.9079159721732140e-02 -1.7527882754802704e-01 2.8659570217132568e-01 2.6307249069213867e-01 2.6543694734573364e-01 1.1794153600931168e-01 2.4825216829776764e-01 3.8267686963081360e-02 3.0155417323112488e-01 -1.6695323586463928e-01 1.9105301797389984e-01 2.5449332594871521e-01 -3.0681154131889343e-01 4.0294462442398071e-01 1.7732723057270050e-01 3.6488971114158630e-01 2.7901668101549149e-02 1.3060197234153748e-01 1.6359262168407440e-01 -2.2941248118877411e-01 -2.5294744968414307e-01 -1.0514478199183941e-02 2.1579155325889587e-01 -1.8691146373748779e-01 2.9556915163993835e-01 -4.2768064141273499e-01 -3.5443291068077087e-01 -3.8422134518623352e-01 -6.5191350877285004e-02 7.6209488324820995e-03 -1.4204490929841995e-02 -3.2758027315139771e-02 -3.9517083764076233e-01 1.8799357116222382e-01 4.4741105288267136e-02 -2.4253891408443451e-01 2.2390481829643250e-01 -3.8528379518538713e-03 2.4424847215414047e-02 3.6394777894020081e-01 1.1432665400207043e-02 -2.9420840740203857e-01 2.5777021050453186e-01 7.2064310312271118e-02 -3.4112834930419922e-01 -3.6255592107772827e-01 -2.1331734955310822e-01 -2.4239178746938705e-02 5.4651591926813126e-02 -2.6983812451362610e-01 -3.0839434266090393e-01 -3.5457420349121094e-01 -1.9090245664119720e-01 2.9698817059397697e-02 5.9088025242090225e-02 -1.5035973489284515e-01 4.1369706392288208e-01 -1.3822785019874573e-01 -1.3063064776360989e-02 5.5326437950134277e-01 -1.6386529803276062e-01 6.1603244394063950e-02 -2.2449004650115967e-01 -6.8097837269306183e-02 2.3771603405475616e-01 2.0016536116600037e-01 3.8230195641517639e-01 8.7719820439815521e-02 -3.3953201770782471e-01 -4.0768760442733765e-01 1.0658084601163864e-01 -7.0982970297336578e-02 -3.1067347526550293e-01 -3.1261056661605835e-02 1.8785145878791809e-01 2.5737339258193970e-01 -3.5242566466331482e-01 -4.3849086761474609e-01 -2.1829644218087196e-02 2.5248336791992188e-01 3.7382125854492188e-01 -1.6955433413386345e-02 -1.2028380483388901e-01 3.0708780884742737e-01 -2.4757011234760284e-01 1.4608174562454224e-01 -7.9685561358928680e-02 -3.8467887043952942e-01 3.1548821926116943e-01 -3.0827465653419495e-01 3.3518537878990173e-02 -1.6458161175251007e-01 -2.2384957969188690e-01 4.0808743238449097e-01 1.1467247456312180e-01 2.7818137407302856e-01 2.2609928250312805e-01 -2.3281683027744293e-01 -4.9315124750137329e-01 -1.6455861926078796e-01 -2.1544856950640678e-02 -8.1680029630661011e-02 2.0898714661598206e-01 -1.8531171604990959e-02 -1.5827190876007080e-01 -3.7154811620712280e-01 1.1850594729185104e-01 -8.7095022201538086e-02 5.5372524261474609e-01 -1.5700347721576691e-01 -2.2465081512928009e-01 8.7944872677326202e-02 5.9290532022714615e-02 -4.4097048044204712e-01 2.0504562556743622e-01 -2.4265249073505402e-01 -1.0114514082670212e-01 -4.5165890455245972e-01 2.5115540623664856e-01 2.7156755328178406e-01 8.4982207044959068e-03 3.5991317033767700e-01 -1.5419924259185791e-01 -3.1682276725769043e-01 -1.7921733856201172e-01 -1.0801775008440018e-01 1.8694564700126648e-02 6.6193476319313049e-02 -2.0960028469562531e-01 -2.5024616718292236e-01 -4.0638241171836853e-01 -2.9033637046813965e-01 -3.2909244298934937e-01 6.5874472260475159e-02 2.6850369572639465e-01 -2.8771629929542542e-01 1.5347090363502502e-01 -1.6743548214435577e-01 3.3799606561660767e-01 8.3222957327961922e-03 -2.3859278857707977e-01 -7.8938882797956467e-03 -5.1438647508621216e-01 -1.6358122229576111e-01 -5.6757781654596329e-02 -1.6129733994603157e-02 -1.0127950459718704e-01 6.0058367252349854e-01 -1.2084214389324188e-01 -3.7362876534461975e-01 -5.4571604728698730e-01 1.2208938598632812e-01 1.0306890308856964e-01 -3.1409021466970444e-02 1.7610226571559906e-01 -2.0258420705795288e-01 -3.1444516777992249e-01 -3.5642892122268677e-01 1.9661068916320801e-01 -1.0861725360155106e-01 1.7309013009071350e-01 2.8158026933670044e-01 -4.6211215667426586e-03 6.0853409767150879e-01 4.1656989604234695e-02 -1.2764734216034412e-02 -3.8429908454418182e-02 4.1237428784370422e-01 2.2527736425399780e-01 5.3474670648574829e-01 -2.5046542286872864e-01 -2.4585336446762085e-01 -3.0253657698631287e-01 -2.2304168343544006e-01 -3.0276110768318176e-01 -1.4703865349292755e-01 -5.9007799625396729e-01 2.4200712144374847e-01 -1.6872847080230713e-01 2.6487362384796143e-01 1.0305181890726089e-01 -5.4353362321853638e-01 -4.8377165198326111e-01 3.3158943057060242e-02 2.7655655145645142e-01 2.0552955567836761e-01 1.1395743489265442e-01 -2.1497699618339539e-01 -3.4180739521980286e-01 -1.1797112971544266e-01 9.8209924995899200e-02 -1.3997063040733337e-02 -3.3580309152603149e-01 -2.7558633685112000e-01 8.3245605230331421e-02 -3.8256891071796417e-02 1.7932979762554169e-01 1.5715028345584869e-01 2.1079247817397118e-02 -1.7160986363887787e-01 1.3291859626770020e-01 -3.2027673721313477e-01 -4.0866488218307495e-01 -2.9080924391746521e-01 2.5579497218132019e-01 -2.3610757291316986e-01 -2.0634835585951805e-02 -1.1606202274560928e-01 -3.9637663960456848e-01 6.7595645785331726e-02 1.2193039804697037e-01 1.3982720673084259e-01 -1.1127934604883194e-01 2.9566183686256409e-01 -2.0465515553951263e-01 -2.7802976965904236e-01 1.4392876625061035e-01 -2.5428903102874756e-01 5.1288828253746033e-02 -3.1748279929161072e-01 -3.3372697234153748e-01 -8.8348209857940674e-02 -9.9862530827522278e-02 -2.3343454301357269e-01 -1.4029531180858612e-01 1.0588719695806503e-01 1.6542141139507294e-01 -2.3208120465278625e-01 5.6063467264175415e-01 -2.4452878534793854e-01 1.7334992298856378e-03 3.3230140805244446e-01 -1.1306920647621155e-01 2.5556674227118492e-02 4.5067849755287170e-01 5.7685427367687225e-02 2.8711482882499695e-01 -1.5519557893276215e-01 -4.6149876713752747e-01 
      </Weights>
      <Biases rows="32" cols="1">
        -3.5682551562786102e-02 9.8663896322250366e-02 -1.3264631852507591e-02 5.9481881558895111e-02 1.9561702013015747e-01 1.5604765713214874e-01 -1.0749670118093491e-01 -5.9331730008125305e-02 1.4645058661699295e-02 -2.8469935059547424e-02 -2.7536215260624886e-02 -9.4110690057277679e-02 -2.5128109380602837e-02 -6.1415582895278931e-02 -2.0951684564352036e-02 -5.6396417319774628e-02 -3.3188398927450180e-02 -3.1338609755039215e-02 2.7530614286661148e-02 -4.5520551502704620e-02 -5.4212056100368500e-02 -2.0526472479104996e-02 -4.8790920525789261e-02 -1.0719727724790573e-01 -2.0157610997557640e-03 -4.7693349421024323e-02 8.3061419427394867e-02 -1.5438657999038696e-01 -3.6407783627510071e-02 -4.0084663778543472e-02 -8.4980562329292297e-02 -4.6766139566898346e-03 
      </Biases>
    </Layer>
    <Layer ActivationFunction="3">
      <Weights rows="16" cols="32">
        -1.2880210578441620e-01 -3.1926545500755310e-01 -3.0362236499786377e-01 -5.3181618452072144e-01 -2.7033486962318420e-01 -4.8675626516342163e-01 5.5440282449126244e-04 -1.1437751352787018e-02 -2.6356825232505798e-01 -2.5069780647754669e-02 -4.7870969772338867e-01 2.2433623671531677e-01 -2.4397030472755432e-01 3.9628821611404419e-01 -3.7546884268522263e-02 2.8100535273551941e-01 6.2975049018859863e-02 2.1876126527786255e-01 -3.2292458415031433e-01 1.3070902228355408e-01 2.1999087929725647e-01 3.1426435708999634e-01 3.3720153570175171e-01 3.0529642105102539e-01 9.3791270628571510e-03 2.9608502984046936e-01 -1.3567905128002167e-01 2.6955410838127136e-01 -1.1623381078243256e-01 2.2775553166866302e-01 9.9268950521945953e-02 -4.6268907189369202e-01 -2.4565996229648590e-01 -3.1414347887039185e-01 -1.8944953382015228e-01 -6.9606408476829529e-02 -2.7216511964797974e-01 4.4174842536449432e-02 -1.3945269584655762e-01 -6.4210250973701477e-02 -3.8893315941095352e-02 6.4193375408649445e-02 -3.0321660637855530e-01 1.7888570437207818e-03 1.8506971001625061e-01 -7.6789021492004395e-02 1.1175325512886047e-01 1.8271203339099884e-01 1.7527492344379425e-01 -5.0894252955913544e-02 -2.0148636773228645e-02 4.5568153262138367e-02 1.8038718402385712e-01 2.6900187134742737e-01 1.9496825337409973e-01 2.0010966062545776e-01 1.0560024529695511e-01 3.2079318165779114e-01 1.2878356873989105e-01 -9.4660043716430664e-02 -2.1154357120394707e-02 5.7342998683452606e-02 1.5914399921894073e-01 7.7654197812080383e-02 -1.0213142633438110e-01 2.3062153160572052e-01 1.1256022751331329e-01 2.6335859298706055e-01 7.7824145555496216e-02 1.3045950233936310e-01 -8.7497688829898834e-02 2.4643598496913910e-01 2.2340808808803558e-01 1.3855576515197754e-01 8.5761081427335739e-03 -1.6991227865219116e-01 -6.5301030874252319e-02 -2.0231236517429352e-01 1.2665753066539764e-01 -7.6943337917327881e-02 -1.8131799995899200e-01 9.2627055943012238e-02 -8.8741302490234375e-02 1.3247695565223694e-01 -1.7616158723831177e-01 -1.4694529771804810e-01 -3.8673453032970428e-02 -1.0654139518737793e-01 -1.7033007740974426e-01 -2.5099474191665649e-01 1.3683050870895386e-01 -2.1423472464084625e-01 9.2018917202949524e-03 2.5440990924835205e-01 -2.3753152787685394e-01 2.7559438720345497e-02 -1.1707197409123182e-03 1.5976263582706451e-01 -5.0347395241260529e-02 2.4064154922962189e-01 5.1422822475433350e-01 3.4916469454765320e-01 1.8017499148845673e-01 -1.8244551122188568e-01 6.4638301730155945e-02 3.9891283959150314e-02 2.1366591751575470e-01 -2.4073940515518188e-01 2.7904036641120911e-01 -2.3839229717850685e-02 2.1230992674827576e-01 -2.8322517871856689e-01 -5.7649683207273483e-02 -2.9340797662734985e-01 3.2463207840919495e-01 1.4144483208656311e-01 -7.8677080571651459e-02 -3.0663633346557617e-01 8.7000854313373566e-02 -3.6098453402519226e-01 -3.8178825378417969e-01 -4.0475189685821533e-01 4.9605906009674072e-01 -1.7251197993755341e-01 7.4544938979670405e-04 -1.1868868768215179e-01 -1.2268536724150181e-02 2.3468925058841705e-01 5.3517654538154602e-02 2.7251893281936646e-01 3.8179808855056763e-01 2.2857131063938141e-01 4.8600098490715027e-01 4.9488162994384766e-01 -9.4384372234344482e-02 1.6874092817306519e-01 3.6855703592300415e-01 -2.0828245580196381e-01 7.4758701026439667e-02 -1.9259198009967804e-01 -1.5467931330204010e-01 -3.3406278491020203e-01 -6.7574270069599152e-02 -1.0178556293249130e-01 8.0094553530216217e-02 -1.4239987730979919e-01 3.1175887584686279e-01 -1.7848737537860870e-01 -4.3143339455127716e-02 -1.7498934268951416e-01 -2.3924723267555237e-01 -2.6219831779599190e-03 -1.1353774368762970e-01 -4.4202598929405212e-01 1.7537133395671844e-01 -1.4221431314945221e-01 2.2369466722011566e-01 -1.4436790347099304e-01 -1.1122855544090271e-01 4.3711282312870026e-02 7.7079035341739655e-02 -2.9325473308563232e-01 -1.7389744520187378e-01 -3.6530363559722900e-01 -1.5002626180648804e-01 -4.7765318304300308e-02 1.5634432435035706e-01 1.6169473528862000e-02 -1.3004601933062077e-03 -1.7100444436073303e-01 -1.9571860134601593e-01 -1.2561084330081940e-01 -1.9924587011337280e-01 -9.4281166791915894e-02 1.0200165212154388e-01 -2.1587025374174118e-02 2.2661786526441574e-02 1.0465929657220840e-01 -2.2224271297454834e-01 1.7872683703899384e-01 1.4356219768524170e-01 4.4064071029424667e-02 8.9442975819110870e-02 1.8745581805706024e-01 6.8134360015392303e-02 2.9282858967781067e-01 -2.7979528903961182e-01 1.7417114973068237e-01 7.5567550957202911e-02 -2.0204286277294159e-01 2.6027131080627441e-01 -4.3291214853525162e-02 1.6437630355358124e-01 -1.3625636696815491e-01 2.3487593978643417e-02 1.9918547943234444e-02 -2.6762881875038147e-01 -2.3471258580684662e-01 -9.3263492453843355e-04 1.9693605601787567e-01 -1.7968386411666870e-01 2.8308114409446716e-01 -2.8194335103034973e-01 -9.1529175639152527e-02 -2.4019102752208710e-01 7.4813410639762878e-02 6.8422704935073853e-03 -8.0120801925659180e-02 -2.0342385396361351e-02 -1.7555192112922668e-01 4.1553691029548645e-02 7.4146181344985962e-02 -1.4500334858894348e-01 2.5897088646888733e-01 4.7777898609638214e-02 1.0073272138834000e-01 3.3102691173553467e-01 1.5540406107902527e-01 -3.2570323348045349e-01 2.7890872955322266e-01 -3.8081407546997070e-03 -9.3213327229022980e-02 -7.7467262744903564e-02 -7.5826652348041534e-02 -9.1635383665561676e-02 -3.9865143597126007e-02 -2.1348521113395691e-01 -3.0605813860893250e-01 -2.4835114181041718e-01 -1.9457864761352539e-01 5.6127242743968964e-02 4.9777116626501083e-02 -1.5363147854804993e-01 1.9796657562255859e-01 -2.1461349725723267e-01 6.2219008803367615e-02 2.0457454025745392e-01 3.8431916385889053e-02 -4.2505327612161636e-02 -9.6858449280261993e-02 -1.0281971842050552e-01 8.1129349768161774e-02 -7.7604420483112335e-02 2.9737690091133118e-01 8.0293275415897369e-02 -8.5426859557628632e-02 -2.4529272690415382e-02 1.6598372161388397e-01 8.3803460001945496e-02 1.0999849066138268e-02 -1.6163626313209534e-01 2.7984172105789185e-01 1.5300822257995605e-01 -1.5508204698562622e-01 -1.3683147728443146e-01 -1.0695482045412064e-01 8.9776627719402313e-02 1.3072483241558075e-01 -7.1616925299167633e-02 -2.5704091787338257e-01 1.5438236296176910e-01 -2.3430736362934113e-01 1.0696227103471756e-01 -6.5200753509998322e-02 -3.0350631475448608e-01 2.4962711334228516e-01 -2.7381119132041931e-01 9.8442189395427704e-02 -1.1888165771961212e-01 -8.4022432565689087e-02 2.3899871110916138e-01 7.8536711633205414e-02 8.5973776876926422e-02 1.8954189121723175e-01 -2.0210058987140656e-01 -1.7368535697460175e-01 -1.1866763234138489e-01 1.2553225457668304e-01 -2.5485867634415627e-02 2.1627457439899445e-01 1.9213363528251648e-01 9.1471858322620392e-02 -3.0761432647705078e-01 1.5977035462856293e-01 -1.0632409155368805e-01 2.1432942152023315e-01 -1.7930418252944946e-02 -1.9715890288352966e-01 1.8022581934928894e-01 5.8011610060930252e-02 -1.9699746370315552e-01 1.6805072128772736e-01 -1.0623170435428619e-01 6.0843948274850845e-02 -1.9817905128002167e-01 1.8757392466068268e-01 1.8685559928417206e-01 2.8583267703652382e-02 1.2113093584775925e-01 -2.2933777421712875e-02 -1.1732632666826248e-01 -2.6331949047744274e-03 -8.3165578544139862e-02 7.0259369909763336e-02 6.9699630141258240e-02 -1.1932691931724548e-01 -2.6358108967542648e-02 -1.7888426780700684e-01 -1.6371884942054749e-01 -2.3631809651851654e-01 4.8901267349720001e-02 -1.5137267298996449e-02 -1.7730043828487396e-01 1.0489264130592346e-01 5.6036036461591721e-02 2.2183296084403992e-01 1.1216071248054504e-01 -1.2993885576725006e-01 7.0574574172496796e-02 -1.2677969038486481e-01 1.1406619101762772e-01 1.4076425135135651e-01 1.0073751956224442e-01 7.9570643603801727e-02 4.1796559095382690e-01 1.4133308827877045e-01 -1.7462037503719330e-01 -1.7956283688545227e-01 1.4044132828712463e-01 1.0828586667776108e-01 1.0764608532190323e-01 1.1127730458974838e-01 8.2905486226081848e-02 -1.9125415384769440e-01 -2.0459569990634918e-01 1.1475377529859543e-01 -3.2858721911907196e-02 -1.3951352238655090e-01 2.2810854017734528e-01 -7.8831993043422699e-02 2.2345131635665894e-01 -3.6068901419639587e-02 -1.4455433189868927e-01 -9.6113502979278564e-02 1.1956846714019775e-01 -1.5885289013385773e-01 3.7655398249626160e-01 -2.5465029478073120e-01 -1.1567802727222443e-01 -2.3579207062721252e-01 3.4993596374988556e-02 3.0496675521135330e-02 2.0560818910598755e-01 8.9931316673755646e-02 3.0636385083198547e-01 2.3257218301296234e-01 5.9534788131713867e-01 4.3531575798988342e-01 -1.5419729053974152e-01 -1.9589680433273315e-01 2.0618948340415955e-01 7.8846281394362450e-03 3.9557081460952759e-01 -3.0065044760704041e-01 -3.2432202249765396e-02 -4.0288111567497253e-01 -3.9693792350590229e-03 1.2471704743802547e-02 1.1589819937944412e-01 -2.7436780929565430e-01 2.2727467119693756e-02 3.5475954413414001e-02 1.8209419213235378e-03 -4.8526976257562637e-02 -3.7720166146755219e-02 -1.1709639430046082e-01 -3.6026510596275330e-01 -1.5509650111198425e-01 1.1592240631580353e-01 -3.5464012622833252e-01 -1.0844831168651581e-01 1.1003794521093369e-01 -2.6308274269104004e-01 2.5068566203117371e-01 8.3819897845387459e-03 -2.2660273313522339e-01 6.0416396707296371e-02 4.6219546347856522e-02 9.6276804804801941e-02 -1.7589706182479858e-01 2.3868210613727570e-01 -8.4175445139408112e-02 -1.6711091995239258e-01 1.2194834649562836e-01 -1.7210821807384491e-01 8.0407500267028809e-02 -2.1931484341621399e-01 -1.6140624880790710e-01 -2.6271225884556770e-02 -4.1738081723451614e-02 -1.3701854646205902e-01 -6.5273307263851166e-02 -3.4181211143732071e-02 1.3835649192333221e-01 -1.2319072335958481e-01 2.4265332520008087e-01 -1.2996961176395416e-01 -5.3927548229694366e-02 2.3742775619029999e-01 -8.1841506063938141e-02 -1.7135104537010193e-01 2.1369750797748566e-01 2.1524593234062195e-02 2.0381115376949310e-01 -7.0279851555824280e-02 -1.2916074693202972e-01 1.3232272863388062e-01 3.3296123147010803e-01 2.6870405673980713e-01 -1.2123873084783554e-01 1.9355815649032593e-01 2.7357631921768188e-01 -2.0821757614612579e-01 -1.8252152204513550e-01 -5.9162497520446777e-02 -1.5246304869651794e-01 -8.2519941031932831e-02 1.4078377187252045e-01 -1.2907379865646362e-01 -1.4152073860168457e-01 -9.6141867339611053e-02 9.4780862331390381e-02 5.3152542561292648e-02 1.4555132389068604e-01 1.5290705859661102e-01 -1.8039925023913383e-02 -1.1457329243421555e-01 -1.8106900155544281e-01 -2.2061054408550262e-01 9.6459798514842987e-02 4.3014422059059143e-02 7.2874337434768677e-02 -6.5848767757415771e-02 -5.2293587476015091e-02 -5.8876696974039078e-02 -2.2805032134056091e-01 -5.2797433454543352e-05 2.2417055070400238e-01 -1.2204172462224960e-01 -2.7415722608566284e-01 6.7978322505950928e-02 -6.5596967935562134e-02 -4.4773992896080017e-01 -3.3085334300994873e-01 -2.5884656235575676e-02 8.7598644196987152e-02 -3.0359664559364319e-01 3.3115947246551514e-01 -1.5784938633441925e-01 3.4791305661201477e-01 -1.6312257945537567e-01 5.1585413515567780e-02 -9.6167609095573425e-02 7.7582135796546936e-02 -9.6158385276794434e-02 2.6328921318054199e-02 4.1817016899585724e-02 9.4185136258602142e-02 -1.5651360154151917e-01 4.4003214687108994e-02 3.3206261694431305e-02 -4.4808708131313324e-02 2.0275697112083435e-01 1.1462984234094620e-01 -2.4933300912380219e-01 3.1284916400909424e-01 -1.2673227488994598e-01 2.2935442626476288e-01 2.0465956628322601e-01 -3.5569080710411072e-01 1.7456597089767456e-01 1.0749345272779465e-01 -2.0779417827725410e-02 -1.4602702856063843e-01 -1.8788412213325500e-01 3.1180148944258690e-02 7.5536504387855530e-02 4.7486625611782074e-02 -1.2448502331972122e-01 -7.3145717382431030e-02 2.3875217139720917e-01 1.7428402602672577e-01 -1.6450443863868713e-01 7.6339535415172577e-02 1.9036148488521576e-01 1.7753246426582336e-01 8.5997097194194794e-02 1.1117194592952728e-01 -1.2760999798774719e-01 -1.4559403061866760e-01 4.5440245419740677e-02 2.4880242347717285e-01 -1.0300374776124954e-01 7.1399658918380737e-02 3.0987510457634926e-02 -8.7734177708625793e-02 -1.6833214461803436e-01 -1.3555949926376343e-01 -1.8328247964382172e-01 -1.8301968276500702e-01 -1.2282531708478928e-01 1.7112363874912262e-01 
      </Weights>
      <Biases rows="16" cols="1">
        -1.2286327779293060e-01 -7.0575051009654999e-02 8.7884388864040375e-02 1.2461629509925842e-01 1.3165420293807983e-01 -9.4599403440952301e-02 -8.1061497330665588e-03 -1.3099670410156250e-02 -2.9069833457469940e-02 3.4744109958410263e-02 5.7391311973333359e-02 1.1400500684976578e-01 4.8918347805738449e-02 2.9505532234907150e-02 -1.4674413017928600e-02 1.1925851926207542e-02 
      </Biases>
    </Layer>
    <Layer ActivationFunction="3">
      <Weights rows="16" cols="16">
        1.0386119782924652e-01 5.7672046124935150e-02 -1.2849986553192139e-01 -2.3728856444358826e-01 3.4392172098159790e-01 -7.8468315303325653e-02 3.2122187316417694e-02 -4.4025365263223648e-02 -1.1216091364622116e-01 -2.3787087202072144e-01 -2.2687661647796631e-01 1.5902733802795410e-01 -2.8713139891624451e-01 1.7155638337135315e-01 -6.1779543757438660e-02 2.9105010628700256e-01 2.0063632726669312e-01 1.2618036568164825e-01 -1.1942885816097260e-01 1.1987385898828506e-01 3.5112574696540833e-01 1.0645876079797745e-01 2.7745345234870911e-01 1.5700218081474304e-01 -3.2124707102775574e-01 -4.5415099710226059e-02 3.1957301497459412e-01 9.9932633340358734e-02 -1.2596182525157928e-02 1.9064213335514069e-01 -1.1266896873712540e-01 -2.4267442524433136e-01 -1.7266467213630676e-02 -1.3988900184631348e-01 -2.0663537085056305e-01 -9.4564817845821381e-03 -3.7010279297828674e-01 2.8826972842216492e-01 -4.6525157988071442e-02 4.3369140475988388e-02 1.8598285317420959e-01 3.4205239266157150e-02 -3.3514532446861267e-01 -1.1705320328474045e-01 3.4135949611663818e-01 -1.8090642988681793e-01 2.7412876486778259e-01 2.8103572130203247e-01 3.9273670315742493e-01 -3.5931298043578863e-04 4.2399924248456955e-02 1.8868098035454750e-02 2.0239204168319702e-01 3.3975899219512939e-01 3.2816106081008911e-01 3.1403893232345581e-01 1.3065209984779358e-01 3.0482694506645203e-01 2.7984094619750977e-01 -2.7782645821571350e-01 6.8094879388809204e-02 6.3716582953929901e-02 2.9006761312484741e-01 2.9313677549362183e-01 -3.8805767893791199e-01 4.4386714696884155e-02 6.5186128020286560e-02 2.5050953030586243e-01 5.2379738539457321e-02 -6.9707916118204594e-03 -2.7117368578910828e-01 2.4554985761642456e-01 1.3587330281734467e-01 2.3917426168918610e-01 -1.0200610011816025e-01 -1.5949866175651550e-01 -1.5924471616744995e-01 -1.9813294708728790e-01 1.0346882045269012e-01 -1.5521778166294098e-01 -2.7446186542510986e-01 1.5718778967857361e-01 -2.7075007557868958e-01 1.4350400865077972e-01 -3.2526248693466187e-01 -1.5343640744686127e-01 -2.2138414904475212e-02 -9.9292010068893433e-02 -1.4918991923332214e-01 -2.4895854294300079e-01 2.0876897498965263e-02 -2.7918750047683716e-01 -8.5434742271900177e-02 3.2818546891212463e-01 -3.1200358271598816e-01 -1.3137361407279968e-01 -4.2825561761856079e-01 -2.9830452799797058e-01 -2.9756405949592590e-01 -2.8683677315711975e-02 2.3194095492362976e-01 -5.9344120323657990e-02 1.2735088169574738e-01 -3.3780881762504578e-01 -2.3774112761020660e-01 2.2614921629428864e-01 -5.2456185221672058e-02 -1.6302707791328430e-01 3.0322283506393433e-01 3.1387114524841309e-01 2.0434027910232544e-01 -3.5890805721282959e-01 -3.7812763452529907e-01 -3.5924187302589417e-01 2.1613121032714844e-01 3.2036891579627991e-01 1.9772523082792759e-03 -2.2268702089786530e-01 1.7088960111141205e-01 -4.1273698210716248e-01 -3.5990130901336670e-01 -1.7293745279312134e-01 3.1420618295669556e-01 8.6372330784797668e-02 -1.6605611145496368e-01 -5.1151398569345474e-02 5.2283551543951035e-02 -6.0431074351072311e-02 -2.9524853825569153e-01 -7.6407477259635925e-02 3.0642074346542358e-01 -1.8641557544469833e-02 3.3790925145149231e-01 2.1407884359359741e-01 -2.8169825673103333e-01 1.6110773384571075e-01 1.9873633980751038e-01 -1.7515137791633606e-01 -2.2947376966476440e-01 -1.4560990035533905e-01 -3.2181972265243530e-01 -2.5550854206085205e-01 -1.5279322862625122e-01 -1.1731919646263123e-01 2.9580104351043701e-01 4.0702287107706070e-02 6.2054261565208435e-02 -3.5799261927604675e-01 -3.1936764717102051e-01 1.7944339662790298e-02 -1.1450346559286118e-01 2.5773814320564270e-01 2.1029224991798401e-01 -3.8117021322250366e-01 -1.9639150798320770e-01 -1.6119219362735748e-01 1.7014324665069580e-01 -2.0758256316184998e-01 7.3925361037254333e-02 -2.3669216036796570e-01 5.4435217380523682e-01 2.0515717566013336e-02 -1.8339565396308899e-01 -4.2688515782356262e-01 -2.1077251434326172e-01 2.3444482684135437e-01 4.7911590337753296e-01 2.3574022948741913e-01 2.9368764162063599e-01 -3.2042527198791504e-01 -1.7794965207576752e-01 -4.1194480657577515e-01 -1.9880951941013336e-01 -3.1105118989944458e-01 3.7981256842613220e-01 2.0708080381155014e-02 1.3133500516414642e-01 1.4354294538497925e-01 -1.6610634326934814e-01 2.4012605845928192e-01 2.1138890087604523e-01 -2.8067531064152718e-02 8.7915740907192230e-02 2.1628764271736145e-01 7.6285083778202534e-03 2.5423759222030640e-01 -1.8447467684745789e-01 1.4499533176422119e-01 1.9960805773735046e-01 -3.0219638347625732e-01 3.4359043836593628e-01 1.4054679870605469e-01 4.7192576527595520e-01 1.3547812402248383e-01 1.7203915864229202e-02 1.1084023118019104e-01 -3.1896737217903137e-01 -9.9398702383041382e-02 7.5137346982955933e-02 2.8051459789276123e-01 -9.9461235105991364e-02 2.3615601658821106e-01 -3.3054336905479431e-01 -3.7126806378364563e-01 -3.2973450422286987e-01 -1.4063864946365356e-01 1.0643281787633896e-01 -1.5878640115261078e-01 -1.2782284617424011e-01 -4.1646099090576172e-01 1.9832420349121094e-01 1.0382416099309921e-01 -1.3174293935298920e-01 1.9145408272743225e-01 -1.0241387784481049e-01 -5.2514549344778061e-02 2.4115417897701263e-01 3.6410819739103317e-02 -2.4563975632190704e-01 3.1538432836532593e-01 1.7190547659993172e-02 -1.9330865144729614e-01 -3.2787197828292847e-01 4.6577174216508865e-03 2.0204015076160431e-01 3.0274838209152222e-01 -2.6953288912773132e-01 -3.0350428819656372e-01 -2.8613308072090149e-01 3.2562848180532455e-02 1.8209224939346313e-01 1.2019906938076019e-01 -4.5021967962384224e-03 1.0965135693550110e-01 -1.9877932965755463e-01 -1.7049033939838409e-01 3.3524999022483826e-01 -1.6880235075950623e-01 7.9204864799976349e-02 -1.8583755195140839e-01 -3.7131735682487488e-01 -1.5596701204776764e-01 1.1901964992284775e-01 4.3685087561607361e-01 2.7531233429908752e-01 -3.3690017461776733e-01 -2.8856873512268066e-01 -1.3601077720522881e-02 -1.6843765974044800e-01 -1.8444016575813293e-01 5.1617026329040527e-02 3.4965723752975464e-01 2.0701913535594940e-01 -2.7949675917625427e-01 -5.0591862201690674e-01 -2.2174224257469177e-02 
      </Weights>
      <Biases rows="16" cols="1">
        3.4083351492881775e-03 1.2545917183160782e-02 -2.5495972484350204e-02 6.4677704358473420e-04 2.3199971765279770e-02 -2.8221406042575836e-02 1.7866864800453186e-02 5.7678375393152237e-02 -8.9790290221571922e-03 -3.2785084098577499e-02 -1.1984228342771530e-01 1.4409492723643780e-02 -2.5296006351709366e-02 2.3354576900601387e-02 -4.1681166738271713e-02 7.8990370035171509e-02 
      </Biases>
    </Layer>
    <Layer ActivationFunction="0">
      <Weights rows="1" cols="16">
        1.5011128783226013e-01 3.2910533249378204e-02 -4.2495360970497131e-01 -3.0326896905899048e-01 7.6983161270618439e-02 9.4062788411974907e-03 2.4839049577713013e-01 2.0316903293132782e-01 1.3918507099151611e-01 -4.8062798380851746e-01 -4.5720648765563965e-01 -9.7913080826401711e-03 -5.0161775201559067e-02 2.6877999305725098e-01 -4.2095822095870972e-01 5.2301985025405884e-01 
      </Weights>
      <Biases rows="1" cols="1">
        6.1420194804668427e-02 
      </Biases>
    </Layer>
  </Weights>
</MethodSetup>
