<?xml version="1.0"?>
<MethodSetup Method="DNN::DNN_NanoV9_V1_2020_RBtag_x1">
  <GeneralInfo>
    <Info name="TMVA Release" value="4.2.1 [262657]"/>
    <Info name="ROOT Release" value="6.12/07 [396295]"/>
    <Info name="Creator" value="hum"/>
    <Info name="Date" value="Thu Mar  3 13:26:58 2022"/>
    <Info name="Host" value="Linux vocms0301.cern.ch 2.6.32-696.30.1.el6.x86_64 #1 SMP Tue May 22 06:09:36 CEST 2018 x86_64 x86_64 x86_64 GNU/Linux"/>
    <Info name="Dir" value="/afs/cern.ch/work/h/hum/public/CMSSW_10_2_13/src/ChargedHiggs/Analysis"/>
    <Info name="Training events" value="11349"/>
    <Info name="TrainingTime" value="5.10660505e+00"/>
    <Info name="AnalysisType" value="Classification"/>
  </GeneralInfo>
  <Options>
    <Option name="V" modified="Yes">True</Option>
    <Option name="VerbosityLevel" modified="No">Verbose</Option>
    <Option name="VarTransform" modified="Yes">N</Option>
    <Option name="H" modified="Yes">False</Option>
    <Option name="CreateMVAPdfs" modified="No">False</Option>
    <Option name="IgnoreNegWeightsInTraining" modified="No">False</Option>
    <Option name="Layout" modified="Yes">SIGMOID|32,TANH|16,TANH|16,LINEAR</Option>
    <Option name="ValidationSize" modified="No">20%</Option>
    <Option name="ErrorStrategy" modified="Yes">CROSSENTROPY</Option>
    <Option name="WeightInitialization" modified="Yes">XAVIERUNIFORM</Option>
    <Option name="Architecture" modified="Yes">CPU</Option>
    <Option name="TrainingStrategy" modified="Yes">LearningRate=1e-1,Momentum=0.4,Repetitions=1,ConvergenceSteps=20,BatchSize=256,TestRepetitions=10,WeightDecay=1e-4,Regularization=L2,DropConfig=0.0+0.1+0.25+0.5,</Option>
  </Options>
  <Variables NVar="12">
    <Variable VarIndex="0" Expression="j1QGL" Label="j1QGL" Title="j1QGL" Unit="" Internal="j1QGL" Type="F" Min="1.72495842e-04" Max="1.00000000e+00"/>
    <Variable VarIndex="1" Expression="j2QGL" Label="j2QGL" Title="j2QGL" Unit="" Internal="j2QGL" Type="F" Min="5.77419996e-06" Max="9.99511719e-01"/>
    <Variable VarIndex="2" Expression="varMjj" Label="varMjj" Title="varMjj" Unit="" Internal="varMjj" Type="F" Min="5.00089111e+02" Max="8.18600684e+03"/>
    <Variable VarIndex="3" Expression="varDetajj" Label="varDetajj" Title="varDetajj" Unit="" Internal="varDetajj" Type="F" Min="2.50012207e+00" Max="8.53808594e+00"/>
    <Variable VarIndex="4" Expression="varJet1Pt" Label="varJet1Pt" Title="varJet1Pt" Unit="" Internal="varJet1Pt" Type="F" Min="5.06562500e+01" Max="1.65300000e+03"/>
    <Variable VarIndex="5" Expression="abs(varJet2Eta)" Label="abs(varJet2Eta)" Title="abs(varJet2Eta)" Unit="" Internal="abs_varJet2Eta_" Type="F" Min="2.61192322e-02" Max="4.66992188e+00"/>
    <Variable VarIndex="6" Expression="varJet2Pt" Label="varJet2Pt" Title="varJet2Pt" Unit="" Internal="varJet2Pt" Type="F" Min="5.00312500e+01" Max="1.06700000e+03"/>
    <Variable VarIndex="7" Expression="varMVV" Label="varMVV" Title="varMVV" Unit="" Internal="varMVV" Type="F" Min="5.00042633e+02" Max="3.07449438e+03"/>
    <Variable VarIndex="8" Expression="varPTV1" Label="varPTV1" Title="varPTV1" Unit="" Internal="varPTV1" Type="F" Min="3.00000000e+02" Max="1.82000000e+03"/>
    <Variable VarIndex="9" Expression="varzepVV" Label="varzepVV" Title="varzepVV" Unit="" Internal="varzepVV" Type="F" Min="6.37727935e-05" Max="1.37280118e+00"/>
    <Variable VarIndex="10" Expression="varnormPTVVjj" Label="varnormPTVVjj" Title="varnormPTVVjj" Unit="" Internal="varnormPTVVjj" Type="F" Min="1.33056863e-04" Max="9.15163875e-01"/>
    <Variable VarIndex="11" Expression="bosV2discr" Label="bosV2discr" Title="bosV2discr" Unit="" Internal="bosV2discr" Type="F" Min="6.00118399e-01" Max="9.88830626e-01"/>
  </Variables>
  <Spectators NSpec="0"/>
  <Classes NClass="2">
    <Class Name="Signal" Index="0"/>
    <Class Name="Background" Index="1"/>
  </Classes>
  <Transformations NTransformations="1">
    <Transform Name="Normalize">
      <Selection>
        <Input NInputs="12">
          <Input Type="Variable" Label="j1QGL" Expression="j1QGL"/>
          <Input Type="Variable" Label="j2QGL" Expression="j2QGL"/>
          <Input Type="Variable" Label="varMjj" Expression="varMjj"/>
          <Input Type="Variable" Label="varDetajj" Expression="varDetajj"/>
          <Input Type="Variable" Label="varJet1Pt" Expression="varJet1Pt"/>
          <Input Type="Variable" Label="abs(varJet2Eta)" Expression="abs(varJet2Eta)"/>
          <Input Type="Variable" Label="varJet2Pt" Expression="varJet2Pt"/>
          <Input Type="Variable" Label="varMVV" Expression="varMVV"/>
          <Input Type="Variable" Label="varPTV1" Expression="varPTV1"/>
          <Input Type="Variable" Label="varzepVV" Expression="varzepVV"/>
          <Input Type="Variable" Label="varnormPTVVjj" Expression="varnormPTVVjj"/>
          <Input Type="Variable" Label="bosV2discr" Expression="bosV2discr"/>
        </Input>
        <Output NOutputs="12">
          <Output Type="Variable" Label="j1QGL" Expression="j1QGL"/>
          <Output Type="Variable" Label="j2QGL" Expression="j2QGL"/>
          <Output Type="Variable" Label="varMjj" Expression="varMjj"/>
          <Output Type="Variable" Label="varDetajj" Expression="varDetajj"/>
          <Output Type="Variable" Label="varJet1Pt" Expression="varJet1Pt"/>
          <Output Type="Variable" Label="abs(varJet2Eta)" Expression="abs(varJet2Eta)"/>
          <Output Type="Variable" Label="varJet2Pt" Expression="varJet2Pt"/>
          <Output Type="Variable" Label="varMVV" Expression="varMVV"/>
          <Output Type="Variable" Label="varPTV1" Expression="varPTV1"/>
          <Output Type="Variable" Label="varzepVV" Expression="varzepVV"/>
          <Output Type="Variable" Label="varnormPTVVjj" Expression="varnormPTVVjj"/>
          <Output Type="Variable" Label="bosV2discr" Expression="bosV2discr"/>
        </Output>
      </Selection>
      <Class ClassIndex="0">
        <Ranges>
          <Range Index="0" Min="1.8799304962158203e-04" Max="1.0000000000000000e+00"/>
          <Range Index="1" Min="5.5503845214843750e-04" Max="9.9951171875000000e-01"/>
          <Range Index="2" Min="5.0172079467773438e+02" Max="8.1860068359375000e+03"/>
          <Range Index="3" Min="2.5056457519531250e+00" Max="8.3144531250000000e+00"/>
          <Range Index="4" Min="5.2156250000000000e+01" Max="1.4400000000000000e+03"/>
          <Range Index="5" Min="5.7533264160156250e-02" Max="4.6699218750000000e+00"/>
          <Range Index="6" Min="5.0031250000000000e+01" Max="1.0670000000000000e+03"/>
          <Range Index="7" Min="5.0004263305664062e+02" Max="3.0744943847656250e+03"/>
          <Range Index="8" Min="3.0000000000000000e+02" Max="1.8200000000000000e+03"/>
          <Range Index="9" Min="1.6631076869089156e-04" Max="1.2339075803756714e+00"/>
          <Range Index="10" Min="1.3305686297826469e-04" Max="8.0908805131912231e-01"/>
          <Range Index="11" Min="6.0011839866638184e-01" Max="9.8883062601089478e-01"/>
        </Ranges>
      </Class>
      <Class ClassIndex="1">
        <Ranges>
          <Range Index="0" Min="1.7249584197998047e-04" Max="1.0000000000000000e+00"/>
          <Range Index="1" Min="5.7741999626159668e-06" Max="9.9951171875000000e-01"/>
          <Range Index="2" Min="5.0008911132812500e+02" Max="6.0361591796875000e+03"/>
          <Range Index="3" Min="2.5001220703125000e+00" Max="8.5380859375000000e+00"/>
          <Range Index="4" Min="5.0656250000000000e+01" Max="1.6530000000000000e+03"/>
          <Range Index="5" Min="2.6119232177734375e-02" Max="4.6572265625000000e+00"/>
          <Range Index="6" Min="5.0031250000000000e+01" Max="7.3250000000000000e+02"/>
          <Range Index="7" Min="5.0008148193359375e+02" Max="2.5737939453125000e+03"/>
          <Range Index="8" Min="3.0000000000000000e+02" Max="1.6310000000000000e+03"/>
          <Range Index="9" Min="6.3772793509997427e-05" Max="1.3728011846542358e+00"/>
          <Range Index="10" Min="9.1828440781682730e-04" Max="9.1516387462615967e-01"/>
          <Range Index="11" Min="6.0019099712371826e-01" Max="9.8437005281448364e-01"/>
        </Ranges>
      </Class>
      <Class ClassIndex="2">
        <Ranges>
          <Range Index="0" Min="1.7249584197998047e-04" Max="1.0000000000000000e+00"/>
          <Range Index="1" Min="5.7741999626159668e-06" Max="9.9951171875000000e-01"/>
          <Range Index="2" Min="5.0008911132812500e+02" Max="8.1860068359375000e+03"/>
          <Range Index="3" Min="2.5001220703125000e+00" Max="8.5380859375000000e+00"/>
          <Range Index="4" Min="5.0656250000000000e+01" Max="1.6530000000000000e+03"/>
          <Range Index="5" Min="2.6119232177734375e-02" Max="4.6699218750000000e+00"/>
          <Range Index="6" Min="5.0031250000000000e+01" Max="1.0670000000000000e+03"/>
          <Range Index="7" Min="5.0004263305664062e+02" Max="3.0744943847656250e+03"/>
          <Range Index="8" Min="3.0000000000000000e+02" Max="1.8200000000000000e+03"/>
          <Range Index="9" Min="6.3772793509997427e-05" Max="1.3728011846542358e+00"/>
          <Range Index="10" Min="1.3305686297826469e-04" Max="9.1516387462615967e-01"/>
          <Range Index="11" Min="6.0011839866638184e-01" Max="9.8883062601089478e-01"/>
        </Ranges>
      </Class>
    </Transform>
  </Transformations>
  <MVAPdfs/>
  <Weights InputWidth="12" Depth="4" LossFunction="C" OutputFunction="S">
    <Layer ActivationFunction="2">
      <Weights rows="32" cols="12">
        5.6845077779144049e-04 -1.1885494738817215e-01 9.0721523761749268e-01 2.1743376553058624e-01 3.2972857356071472e-01 -4.7496765851974487e-02 4.6080815792083740e-01 2.6225024461746216e-01 1.8805867433547974e-01 1.0108874738216400e-01 -9.5272952318191528e-01 3.2333227992057800e-01 -2.8762167692184448e-01 -1.7451779916882515e-02 5.7016611099243164e-01 1.5584710240364075e-01 3.0175292491912842e-01 -4.0478181838989258e-01 3.2348704338073730e-01 -8.4323607385158539e-02 -9.6576333045959473e-02 -3.4235870838165283e-01 2.1641351282596588e-01 -4.7701448202133179e-02 2.5120124220848083e-01 -3.3042216300964355e-01 3.7619188427925110e-01 3.1941968202590942e-01 -2.6995303109288216e-02 4.7654330730438232e-02 1.8035629391670227e-01 1.5891572833061218e-01 -1.3463981449604034e-01 2.9291543364524841e-01 4.5357242226600647e-02 1.7578199505805969e-01 8.5815973579883575e-03 2.2790123522281647e-01 2.3146623373031616e-01 -1.4077357947826385e-01 3.0241015553474426e-01 -1.6202653944492340e-01 1.7842979729175568e-01 -3.5368934273719788e-02 2.5183206796646118e-01 1.0648569464683533e-01 -3.2798722386360168e-01 3.5121688246726990e-01 1.7104184627532959e-01 5.0330561399459839e-01 3.6103999614715576e-01 1.1379542946815491e-01 4.6696320176124573e-01 9.5053315162658691e-02 4.1664171218872070e-01 2.3854929208755493e-01 6.0703319311141968e-01 -1.6336919367313385e-01 -6.9637453556060791e-01 7.6794214546680450e-02 -3.5798591375350952e-01 -3.8097377866506577e-02 -5.6716613471508026e-02 1.8587866425514221e-01 1.3697342574596405e-01 -1.5835054218769073e-01 -3.8193753361701965e-01 2.0054002106189728e-01 -3.6505365371704102e-01 -1.1321540176868439e-01 3.4886446595191956e-01 1.5546572208404541e-01 -3.3792254328727722e-01 2.9968449473381042e-01 -1.3699521124362946e-01 -5.1021423190832138e-02 -3.5258823633193970e-01 -1.3082362711429596e-01 -2.2385631501674652e-01 1.5037641860544682e-02 -2.1834064275026321e-02 -2.4346932768821716e-01 -1.4750686287879944e-01 2.0894405245780945e-01 -3.6085349321365356e-01 -5.0112134218215942e-01 -4.6052804589271545e-01 3.7835273891687393e-02 -2.9382017254829407e-01 -6.3075162470340729e-02 -4.5068973302841187e-01 -7.4880063533782959e-02 -3.6576730012893677e-01 2.4125695228576660e-01 6.9731646776199341e-01 -3.6022666096687317e-01 2.1217238903045654e-01 6.5167628228664398e-02 8.0353893339633942e-02 3.5299524664878845e-01 2.5807328522205353e-02 -2.5125475600361824e-02 -3.7189540266990662e-01 -3.6364454030990601e-01 -3.7252053618431091e-01 1.6941519081592560e-01 1.1051116883754730e-01 1.9364304840564728e-01 -3.7608385086059570e-01 1.0938148200511932e-01 -1.4377053081989288e-01 2.6606243848800659e-01 -4.7831317782402039e-01 -2.7363619208335876e-01 -2.7990797162055969e-01 3.7067599594593048e-02 -1.5946473181247711e-01 2.9248046875000000e-01 3.9916772395372391e-02 -4.2587301135063171e-01 6.9064684212207794e-02 8.5952162742614746e-02 5.6127291917800903e-01 2.7321207523345947e-01 2.0007744431495667e-01 -9.1944023966789246e-02 3.8998499512672424e-01 -2.7517807483673096e-01 4.8581749200820923e-01 -4.9470269680023193e-01 9.9865742027759552e-02 1.3681526482105255e-01 1.2613853812217712e-01 -2.4777820706367493e-01 -5.8214533329010010e-01 1.2597882188856602e-02 -1.2129007279872894e-01 4.9997683614492416e-02 -2.1335150301456451e-01 1.6150981187820435e-01 -2.7166223526000977e-01 -2.6141807436943054e-01 3.9848676323890686e-01 -2.5684043765068054e-01 9.9672339856624603e-02 3.4884059429168701e-01 1.2353965640068054e-01 -1.2578964233398438e-01 -1.8490524590015411e-01 2.4031798541545868e-01 -3.0204012989997864e-01 1.4897270500659943e-01 6.7445732653141022e-02 -3.3907282352447510e-01 9.7837433218955994e-02 7.9300343990325928e-02 -3.6198404431343079e-01 1.0291343182325363e-01 4.1321080923080444e-01 -3.2960657030344009e-02 -3.7619643262587488e-04 -3.4628901630640030e-02 3.2037487626075745e-01 -7.0510290563106537e-02 9.7781062126159668e-02 -1.3149021565914154e-01 -1.7453821003437042e-01 -3.7354433536529541e-01 2.7457073330879211e-01 1.7429460585117340e-01 -1.8055543303489685e-01 3.2697317004203796e-01 -1.6919817030429840e-01 3.1167945265769958e-01 3.0792170763015747e-01 3.7757712602615356e-01 -7.8436106443405151e-02 3.0743110179901123e-01 1.3958561234176159e-02 3.2919970154762268e-01 2.0336633920669556e-01 2.8303974866867065e-01 -3.7878832221031189e-01 -1.2196606956422329e-02 -2.3889961838722229e-01 1.3766238093376160e-01 -2.9364740476012230e-02 -1.3153132796287537e-01 3.0491519719362259e-02 -2.3733828961849213e-01 1.9364887475967407e-01 -2.2199923172593117e-02 3.5917058587074280e-02 -9.7509995102882385e-02 3.7384429574012756e-01 2.5155040621757507e-01 1.0946365445852280e-01 -2.6663085818290710e-01 1.1509595066308975e-01 3.0389568209648132e-01 1.3286131434142590e-02 1.9543758034706116e-01 -3.8142240047454834e-01 7.4132904410362244e-02 1.5631040930747986e-01 2.8952148556709290e-01 1.2487288564443588e-01 -1.8789944052696228e-01 -3.9161715656518936e-02 -7.1402654051780701e-02 2.9284486174583435e-01 2.6000969111919403e-02 -2.2996088489890099e-02 -2.6457557082176208e-01 3.5707619786262512e-01 -3.3305323123931885e-01 1.0360326617956161e-01 2.6668785139918327e-03 -1.0365895926952362e-01 -3.0687481164932251e-02 2.6005977392196655e-01 1.9852848351001740e-01 4.6248996257781982e-01 4.0862491726875305e-01 3.3222299814224243e-01 -2.8779783844947815e-01 -1.2955859303474426e-01 4.4035676866769791e-02 3.1559246778488159e-01 3.5014039278030396e-01 -2.6409053802490234e-01 2.0061032474040985e-01 2.7240499854087830e-01 -3.2299168407917023e-02 -2.3059022426605225e-01 -1.0782373696565628e-01 -6.6647663712501526e-02 -3.1972315907478333e-01 -3.4141936898231506e-01 1.7647219821810722e-02 -2.0418992638587952e-01 -3.3412748575210571e-01 5.5722944438457489e-02 -3.2927888631820679e-01 -3.6808085441589355e-01 1.8147675693035126e-01 -4.6897061169147491e-02 -1.1922688782215118e-01 2.4190559983253479e-01 2.6276192069053650e-01 1.9796052575111389e-01 -1.0175423324108124e-01 -2.1645322442054749e-01 -5.0185762345790863e-02 -3.0844300985336304e-01 -2.8189465403556824e-01 -1.6831541061401367e-01 1.7373812198638916e-01 3.6418712139129639e-01 -3.2615786790847778e-01 -2.8104946017265320e-01 9.4678290188312531e-03 -2.4658660590648651e-01 3.7503802776336670e-01 -1.3182143867015839e-01 7.7050658874213696e-03 -4.1605597734451294e-01 -1.3404504954814911e-01 -1.8986906111240387e-01 -1.5572642441838980e-03 9.8690249025821686e-02 1.7491918802261353e-01 -2.4473178386688232e-01 2.6413649320602417e-01 3.7903480231761932e-02 3.2254315447062254e-03 -2.5088202953338623e-01 -2.7451658248901367e-01 -1.9269151985645294e-01 2.5619980692863464e-01 -5.8271217346191406e-01 -1.1687807738780975e-01 7.4316922109574080e-04 -1.5776206552982330e-01 -3.4376090764999390e-01 4.4173860549926758e-01 3.1604185700416565e-01 4.7915339469909668e-02 7.2443783283233643e-02 2.0922099053859711e-01 -3.6050429940223694e-01 1.9221545755863190e-01 -1.0630460083484650e-01 4.8762619495391846e-02 5.4675266146659851e-02 -4.1564550995826721e-01 -4.4226920604705811e-01 1.7312681674957275e-01 -1.6366688907146454e-01 -3.7204095721244812e-01 2.1362590789794922e-01 3.6784523725509644e-01 4.2578336596488953e-01 -1.2102571316063404e-02 1.1716645956039429e-01 -7.2981171309947968e-02 5.0209057331085205e-01 -9.7664259374141693e-02 5.8805322647094727e-01 -2.8320828080177307e-01 -4.8569896817207336e-01 7.2923190891742706e-02 -1.4734609425067902e-01 4.5096278190612793e-02 -1.1856173723936081e-01 3.7436023354530334e-01 4.1114829480648041e-02 1.1159794777631760e-01 8.7988898158073425e-02 1.8583890795707703e-01 1.3095486164093018e-01 2.8025984764099121e-01 2.4964407086372375e-01 -1.9585014879703522e-01 2.9691585898399353e-01 -7.2392150759696960e-02 8.3276313543319702e-01 -1.2792973220348358e-01 3.6058786511421204e-01 -2.2593487519770861e-03 -1.9900191575288773e-02 3.4601646661758423e-01 3.1755715608596802e-01 -2.9342696070671082e-01 -5.4626923799514771e-01 8.5723765194416046e-02 2.1723845601081848e-01 1.4722897112369537e-01 -1.2128936499357224e-01 1.5528601408004761e-01 3.0815035104751587e-01 2.7698269486427307e-01 3.3713912963867188e-01 1.8087182939052582e-01 -2.5695270299911499e-01 1.2925204634666443e-01 -1.0035371780395508e-01 -1.4268626272678375e-01 -1.9966816902160645e-01 -3.3586585521697998e-01 -2.1570117771625519e-01 -3.5695859789848328e-01 2.4838735163211823e-01 -3.0007818341255188e-01 3.1785586476325989e-01 2.0768108963966370e-01 3.0463349819183350e-01 7.5154535472393036e-02 -1.2780722975730896e-01 -1.8326179683208466e-01 2.3544412851333618e-01 -1.7902463674545288e-01 -3.0199137330055237e-01 3.2112300395965576e-01 3.5961320996284485e-01 -1.9197978079319000e-01 2.3482349514961243e-01 -2.4488136172294617e-01 1.0578717291355133e-01 1.9984295964241028e-01 2.5617292523384094e-01 3.8018104434013367e-01 -3.8055652379989624e-01 -3.9436656236648560e-01 1.7049040645360947e-02 -2.4784688651561737e-01 -2.1547334268689156e-02 2.2375147044658661e-01 1.8310387432575226e-01 1.6116373240947723e-01 2.9572984576225281e-01 3.5289102792739868e-01 -1.2018236517906189e-01 6.3367183320224285e-03 
      </Weights>
      <Biases rows="32" cols="1">
        2.2862532734870911e-01 7.9854242503643036e-03 -1.1170852929353714e-02 -3.8068890571594238e-02 3.0005338788032532e-01 -1.5994468703866005e-02 -4.6797182410955429e-02 -4.0689148008823395e-02 -3.8940083235502243e-02 -4.4332724064588547e-02 1.2819546461105347e-01 -5.9857022017240524e-02 -2.2584844380617142e-02 -2.2640490904450417e-02 -1.8680013716220856e-02 -5.4109647870063782e-02 -2.0447231363505125e-03 -2.3823408409953117e-02 2.3049753159284592e-02 -3.6323443055152893e-02 -3.0529484152793884e-02 -2.8767362236976624e-02 -4.8301391303539276e-02 -4.2374741286039352e-02 -6.6826060414314270e-02 6.5564543008804321e-02 -1.3562743552029133e-02 1.7237864434719086e-01 -2.6728395372629166e-02 6.4597795717418194e-03 -1.9160216674208641e-02 -1.9550036638975143e-02 
      </Biases>
    </Layer>
    <Layer ActivationFunction="3">
      <Weights rows="16" cols="32">
        -2.5914125144481659e-02 -2.2745481133460999e-01 1.4972698688507080e-01 8.6305439472198486e-02 -1.6072062775492668e-02 3.2324183732271194e-02 1.2795408070087433e-01 1.2649480998516083e-01 -9.0228609740734100e-02 2.2154164314270020e-01 -2.8383734822273254e-01 9.3835294246673584e-02 -2.1016550064086914e-01 -5.2414543926715851e-02 1.7314918339252472e-01 5.5914692580699921e-02 8.4374696016311646e-02 -2.3500975966453552e-01 8.1757545471191406e-02 -1.2089180946350098e-01 -1.4471775293350220e-01 -1.7334544658660889e-01 1.6969923675060272e-01 -2.6828505098819733e-02 1.5836122632026672e-01 -2.7125054597854614e-01 1.0407370328903198e-01 1.1400048434734344e-01 -1.0118155926465988e-01 -1.5049111098051071e-03 3.6765843629837036e-02 3.0477868393063545e-02 -1.7356413602828979e-01 1.6543380916118622e-01 4.6500422060489655e-02 7.4241109192371368e-02 8.3325216546654701e-03 7.4645727872848511e-02 -1.0327692329883575e-01 -1.4926758408546448e-01 3.6031980067491531e-02 -1.0604394227266312e-01 -1.7240636050701141e-02 -1.5318863093852997e-01 -2.9138192534446716e-02 4.7574665397405624e-02 -1.3700182735919952e-01 1.9853122532367706e-01 1.0046242922544479e-01 2.2247985005378723e-01 -7.5915232300758362e-02 1.1253163963556290e-01 1.0848189890384674e-01 1.1870348453521729e-01 1.2179330736398697e-01 8.8382944464683533e-02 1.9248768687248230e-01 4.9168303608894348e-02 -6.7833319306373596e-02 2.5780646130442619e-02 -2.1461579203605652e-01 -1.7772493883967400e-02 1.1165545135736465e-01 9.4833038747310638e-02 3.5206306725740433e-02 -1.6284590959548950e-01 -2.1517521142959595e-01 1.3068649172782898e-01 -2.4233271181583405e-01 -3.6686204373836517e-02 1.5209737420082092e-01 1.5928848087787628e-01 -1.8096171319484711e-01 2.8314203023910522e-01 -1.3601225614547729e-01 2.1300872787833214e-02 -2.0591597259044647e-01 -6.9403953850269318e-02 -1.6061852872371674e-01 4.0660087019205093e-02 -4.1623782366514206e-02 -2.0251134037971497e-01 -2.0337191224098206e-01 1.3693526387214661e-01 -8.2569047808647156e-02 -1.2511941790580750e-01 1.5621204674243927e-01 1.1448586732149124e-01 1.5595711767673492e-01 -1.7472876608371735e-01 -2.1002495661377907e-02 -3.2035920768976212e-02 4.1616316884756088e-02 1.2625819072127342e-02 1.9040212035179138e-01 -1.7174592614173889e-01 4.9872508645057678e-01 1.9095709919929504e-01 2.3605456948280334e-01 3.4230911731719971e-01 3.4368094801902771e-01 -1.9076798856258392e-01 -2.1109966933727264e-01 -4.1406893730163574e-01 -2.1034024655818939e-01 -3.7252005189657211e-02 2.7882021665573120e-01 -3.7569072097539902e-02 -1.6949272155761719e-01 1.7242473363876343e-01 1.6806823015213013e-01 7.7067047357559204e-02 -6.0428824275732040e-02 -1.7065343260765076e-01 6.8566247820854187e-02 1.1420785635709763e-01 -1.6857576370239258e-01 -4.5980941504240036e-02 -7.3912508785724640e-02 -3.3095133304595947e-01 -1.7616787552833557e-01 2.2649751603603363e-01 1.2248416244983673e-01 4.4248777627944946e-01 7.1544311940670013e-02 1.1503031104803085e-01 1.0592496395111084e-01 -1.2850214540958405e-01 4.3700918555259705e-01 -1.1932511627674103e-01 3.3880165219306946e-01 1.2975859642028809e-01 3.0279439687728882e-01 -2.0963214337825775e-01 -1.7674420773983002e-01 -1.0308385640382767e-01 2.9967568814754486e-02 -6.8133182823657990e-02 1.0451457649469376e-01 5.9479992836713791e-02 -3.9848491549491882e-02 -1.6366955637931824e-01 1.9217450916767120e-01 -1.7017321288585663e-01 1.5119022130966187e-01 2.5293585658073425e-01 1.3864225149154663e-01 -3.2080244272947311e-02 -2.4367122352123260e-01 7.9982377588748932e-02 -1.9260890781879425e-01 5.1499195396900177e-03 -1.1237307637929916e-01 -6.6190958023071289e-02 5.5422421544790268e-02 2.3469349741935730e-01 -1.8581075966358185e-01 1.4870962500572205e-01 1.7788277566432953e-01 1.8135853111743927e-02 3.3715876936912537e-01 8.5779748857021332e-02 3.1694737076759338e-01 5.2010484039783478e-02 3.9527264237403870e-01 -2.5122824311256409e-01 -9.1367125511169434e-02 -4.1154447197914124e-01 1.6380247473716736e-01 -7.5476385653018951e-02 1.0529408603906631e-01 2.0448490977287292e-04 -1.0091763734817505e-01 2.0631125569343567e-01 2.3197381198406219e-01 1.1900173127651215e-01 5.2962996065616608e-02 2.3693369328975677e-01 2.0787325501441956e-01 2.5866547226905823e-01 -1.6768950223922729e-01 -4.1616640985012054e-02 -1.8479481339454651e-01 -1.8651366233825684e-01 -3.2583430409431458e-01 2.8373187780380249e-01 -6.6894933581352234e-02 2.6709872484207153e-01 9.2292040586471558e-02 -9.9310323596000671e-02 1.9265679642558098e-02 -3.8672806695103645e-03 -2.2881156206130981e-01 -1.5901666879653931e-01 4.7112990170717239e-02 5.2165545523166656e-02 -2.1443219482898712e-01 -6.5339349210262299e-02 8.4524331614375114e-03 2.7103683352470398e-01 -7.9812459647655487e-02 1.8759419023990631e-01 -4.0853267908096313e-01 1.4868205785751343e-01 1.9448384642601013e-02 1.1965210735797882e-01 -4.5236989855766296e-02 -9.8656460642814636e-02 -1.7396014928817749e-01 -7.9640127718448639e-02 2.9338218737393618e-03 -9.1458424925804138e-02 6.3963994383811951e-02 -6.2029413878917694e-02 1.9263850152492523e-01 -1.2262837588787079e-01 1.7859588563442230e-01 -1.8819881975650787e-01 -1.9369941949844360e-01 -2.4963866174221039e-01 1.9030528143048286e-02 7.0233538746833801e-02 2.1909105777740479e-01 1.5593604743480682e-01 1.4376138336956501e-02 -1.9055004417896271e-01 -3.6608353257179260e-02 1.8770353868603706e-02 1.2442128360271454e-01 2.6103827357292175e-01 -1.8410630524158478e-01 1.7091362178325653e-01 1.5803910791873932e-01 1.9894421100616455e-02 -2.0609101653099060e-01 -4.4351890683174133e-02 -4.3332688510417938e-02 -1.9864384829998016e-01 -1.9890287518501282e-01 3.8287371397018433e-02 -1.3700680434703827e-01 -1.8320764601230621e-01 7.2119981050491333e-02 -1.6227571666240692e-01 -1.6157272458076477e-01 1.7231528460979462e-01 7.7082780189812183e-03 -4.4118463993072510e-02 2.6635676622390747e-01 1.1769013851881027e-01 9.1873027384281158e-02 -8.8742159307003021e-02 -1.7240545153617859e-01 -9.7320333123207092e-02 -1.5127767622470856e-01 -2.0502680540084839e-01 -5.0716185569763184e-01 -6.9260358810424805e-02 5.9022583067417145e-02 -3.2110491394996643e-01 -4.6656447649002075e-01 1.8328878283500671e-01 -1.2902632355690002e-01 3.6144274473190308e-01 -8.8536636903882027e-03 1.7958907783031464e-01 -3.4389135241508484e-01 8.8627845048904419e-02 -3.1270790845155716e-02 -3.9463091641664505e-02 8.6600795388221741e-02 2.4997013807296753e-01 -1.7977869510650635e-01 1.0812605917453766e-01 -2.0335109531879425e-01 5.8287918567657471e-02 3.2555893063545227e-02 5.3320802748203278e-02 1.0528024286031723e-01 2.6589277386665344e-01 2.2541241720318794e-02 -2.9297101497650146e-01 1.5386301279067993e-01 -2.7357977628707886e-01 -8.7549261748790741e-02 6.4882673323154449e-02 1.4717701077461243e-01 -1.7008017748594284e-02 4.3409410119056702e-01 3.2047671079635620e-01 1.2807917594909668e-01 2.5442019104957581e-01 2.8711655735969543e-01 -1.5712264180183411e-01 1.0600846260786057e-01 -3.6286121606826782e-01 -1.2494313716888428e-01 -5.6341402232646942e-02 1.8801152706146240e-02 -3.1518122553825378e-01 1.0081472247838974e-01 1.8504148721694946e-01 3.0727636069059372e-02 -1.0167916119098663e-01 2.5227530859410763e-03 1.2122170999646187e-02 2.7897322177886963e-01 -1.1475118994712830e-01 4.1862770915031433e-02 -2.5177854299545288e-01 -1.3002480566501617e-01 -6.8502165377140045e-02 -3.1996345520019531e-01 2.0086610317230225e-01 -9.2958830296993256e-02 4.2945811152458191e-01 4.8623241484165192e-02 2.0439723134040833e-01 -2.2394672036170959e-02 1.8450224399566650e-01 2.2617393732070923e-01 2.2154545783996582e-01 2.1693603694438934e-01 -8.6364753544330597e-02 3.4830874204635620e-01 -2.3138371109962463e-01 1.7479352653026581e-01 -1.6193501651287079e-01 7.2480104863643646e-02 -2.4748489260673523e-02 -3.7238664925098419e-02 1.0280942171812057e-01 1.5384485945105553e-02 -6.1336413025856018e-02 -6.9194026291370392e-02 -7.4891053140163422e-02 1.7974928021430969e-01 7.9781316220760345e-02 -1.1532106250524521e-01 8.4842085838317871e-02 4.4050615280866623e-02 9.4960257411003113e-02 1.4004866778850555e-01 1.8754296004772186e-02 -3.3977040648460388e-01 1.5586990118026733e-01 -6.3536599278450012e-02 2.3995105177164078e-02 -7.7393613755702972e-02 -1.2119337916374207e-01 -1.4737206697463989e-01 -1.9423666596412659e-01 2.9584935307502747e-01 -9.8113209009170532e-02 2.6073691248893738e-01 1.3820394873619080e-01 2.5694632530212402e-01 -2.4213619530200958e-02 -1.2125634402036667e-01 -1.1477308720350266e-01 1.1374924331903458e-01 -1.8355789780616760e-01 -1.6823329031467438e-01 1.6058760881423950e-01 1.5903849899768829e-01 -1.2385346740484238e-01 1.0482139885425568e-01 -2.0276939868927002e-01 5.0316210836172104e-02 1.2087082117795944e-01 1.8212166428565979e-01 1.8301434814929962e-01 -2.4854049086570740e-01 -2.5769022107124329e-01 6.8506091833114624e-02 -1.6354261338710785e-01 -6.7458860576152802e-02 1.8182279169559479e-01 1.3350433111190796e-01 1.5094988048076630e-01 2.0025987923145294e-01 2.2081439197063446e-01 -1.6128227114677429e-01 7.9754091799259186e-02 -2.2743682563304901e-01 -1.0235679894685745e-01 -6.0636561363935471e-02 1.2747839093208313e-01 -1.6106869280338287e-01 4.1923739016056061e-02 7.5774013996124268e-02 2.4115527048707008e-02 2.0101888105273247e-02 -1.1043208651244640e-02 2.6612935587763786e-02 8.8257730007171631e-02 -5.9171874076128006e-02 -1.0900826752185822e-01 3.0092898756265640e-02 -9.6856532618403435e-03 -1.9483145326375961e-02 4.3303996324539185e-02 4.1460867971181870e-02 1.9510781764984131e-01 1.5879179537296295e-01 4.2917728424072266e-02 -7.6630786061286926e-02 3.2343387603759766e-02 1.0608413070440292e-01 -8.5450895130634308e-02 -1.3152419030666351e-01 -9.1642521321773529e-02 -7.6418235898017883e-02 -1.9553403556346893e-01 4.4548142701387405e-02 -1.7923147976398468e-01 -1.9802795350551605e-01 -1.8457837402820587e-01 8.9949980378150940e-02 1.8259078497067094e-03 -1.5347226290032268e-03 -4.1803080588579178e-02 -2.2680975496768951e-01 1.7131701111793518e-01 1.3215166330337524e-01 2.2457425296306610e-01 -1.9849644601345062e-01 2.6818946003913879e-01 -2.6324760913848877e-01 1.3765709102153778e-01 1.6795350611209869e-01 -1.1865740641951561e-02 -1.0310546308755875e-01 1.7389969527721405e-01 4.6308897435665131e-02 -1.3455806672573090e-01 2.7402320504188538e-01 -1.1243911832571030e-01 -9.0526521671563387e-04 -4.9451034516096115e-02 3.0369732528924942e-02 -3.1734541058540344e-01 2.4311141669750214e-01 -1.3054862618446350e-01 1.0332316160202026e-01 -3.5666745156049728e-02 -2.2711141034960747e-02 -3.8659710437059402e-02 3.6287572979927063e-01 3.2346683740615845e-01 1.2089092284440994e-01 1.7584736645221710e-01 3.6592206358909607e-01 -2.1905721724033356e-01 -1.0781970620155334e-01 -1.4325428009033203e-01 -2.2030910849571228e-01 -2.2602786123752594e-01 3.7410077452659607e-01 -2.0429405570030212e-01 9.1333545744419098e-02 -2.1239466965198517e-02 -3.3244498074054718e-02 -2.4406240880489349e-01 7.8044086694717407e-02 -1.6286548972129822e-01 1.8500415980815887e-01 -1.6303476691246033e-01 2.9809022322297096e-02 -1.7801959812641144e-01 7.8008763492107391e-02 7.9515874385833740e-02 2.9573380947113037e-02 2.0492444932460785e-01 3.9187721908092499e-02 1.1024625599384308e-01 3.6518130451440811e-02 2.8415837883949280e-01 1.1033263057470322e-02 -4.2339023202657700e-02 -5.3485161066055298e-01 -3.4675132483243942e-02 -1.4303696155548096e-01 -2.5220587849617004e-01 -4.9684286117553711e-01 -9.4668101519346237e-04 1.8040204048156738e-01 3.7543170154094696e-02 -1.9368194043636322e-01 1.5308873355388641e-01 -3.3292996883392334e-01 1.7205528914928436e-01 4.2912326753139496e-02 8.4992676973342896e-02 4.0735129266977310e-02 8.1712305545806885e-02 8.4783494472503662e-02 -4.7536522150039673e-02 -1.4562922716140747e-01 1.6476647555828094e-01 -7.1230947971343994e-02 2.7901268005371094e-01 -1.7970256507396698e-01 2.5643336772918701e-01 3.5266312956809998e-01 -2.7023932337760925e-01 -1.2291409820318222e-01 -4.1004967689514160e-01 -2.2883364558219910e-01 -1.2484047561883926e-01 -1.1324280500411987e-01 -5.6920018047094345e-02 
      </Weights>
      <Biases rows="16" cols="1">
        -3.0246740207076073e-02 -4.7233249992132187e-02 -1.2896792031824589e-03 -1.4440294355154037e-02 3.7875436246395111e-02 -8.7335985153913498e-03 -4.4667601585388184e-02 4.8191200941801071e-02 2.7253506705164909e-02 -1.5161816962063313e-02 -2.7533687651157379e-02 -3.3078368753194809e-02 6.6015049815177917e-02 -3.1708672642707825e-02 -1.4637365005910397e-02 -4.1119210422039032e-02 
      </Biases>
    </Layer>
    <Layer ActivationFunction="3">
      <Weights rows="16" cols="16">
        1.2789626605808735e-02 -3.0377480387687683e-01 2.3086893558502197e-01 2.1693295240402222e-01 1.1453271657228470e-01 2.4105465039610863e-02 2.1459315717220306e-01 1.1745578050613403e-01 -1.9564859569072723e-01 4.3355315923690796e-01 -2.6694712042808533e-01 2.1290628612041473e-01 -2.7903851866722107e-01 -5.1273617893457413e-02 3.5625901818275452e-01 4.2914659716188908e-03 2.2795841097831726e-01 -2.1878799796104431e-01 2.5164160132408142e-01 -2.4430671334266663e-01 -3.4244003891944885e-01 -3.2497346401214600e-01 2.3244030773639679e-01 1.0704445838928223e-01 3.8134503364562988e-01 -5.4766476154327393e-01 7.4415124952793121e-02 8.6868636310100555e-02 -1.2199907004833221e-01 -1.0458055185154080e-03 -5.2595987915992737e-02 2.9464751482009888e-01 -2.5982776284217834e-01 2.2843948006629944e-01 5.9581637382507324e-02 1.7268666625022888e-01 4.2053475975990295e-02 1.7590297758579254e-01 -1.1052618175745010e-01 -1.8791204690933228e-01 5.3837052546441555e-03 -2.5207230821251869e-02 -2.0096031948924065e-02 -9.7570732235908508e-02 1.4902604743838310e-02 1.1204167455434799e-01 -1.5358419716358185e-01 2.4323296546936035e-01 7.2669722139835358e-02 2.5546309351921082e-01 -1.8203459680080414e-01 2.3566508293151855e-01 2.8889101743698120e-01 2.5763827562332153e-01 2.3933525383472443e-01 1.3368128240108490e-01 2.0041961967945099e-01 2.4789185822010040e-01 9.0825464576482773e-03 1.1967613548040390e-01 -2.9080301523208618e-01 5.1799025386571884e-02 2.4203585088253021e-01 5.2076924592256546e-02 2.0062020421028137e-01 -2.0732890069484711e-01 -2.3781195282936096e-01 2.6717600226402283e-01 -1.3642993569374084e-01 -1.3480800390243530e-01 2.1244598925113678e-01 1.0889847576618195e-01 -2.8340056538581848e-01 3.9350503683090210e-01 -2.0622747018933296e-02 -1.7071695765480399e-03 -2.7042743563652039e-01 -8.3510935306549072e-02 -1.4296373724937439e-01 -3.7354558706283569e-02 2.6936192065477371e-02 -2.6085129380226135e-01 -1.8146316707134247e-01 2.3501540720462799e-01 -2.3533934354782104e-01 -2.8025403618812561e-01 2.1871720254421234e-01 8.5286818444728851e-02 1.3277249038219452e-01 -1.5119032561779022e-01 -7.3892302811145782e-02 1.1415147036314011e-01 9.4700492918491364e-02 5.4087117314338684e-02 2.4921591579914093e-01 -2.2074185311794281e-01 8.8774688541889191e-02 -2.4355281144380569e-02 3.4358602017164230e-02 3.4538683295249939e-01 1.0706287622451782e-01 -3.8880560547113419e-02 -3.1096771359443665e-01 -3.5355886816978455e-01 -4.0950146317481995e-01 2.8735202550888062e-01 1.0465186834335327e-01 2.3969903588294983e-01 -2.5845378637313843e-01 2.3171581327915192e-01 2.2452913224697113e-01 1.1770321428775787e-01 -3.3030882477760315e-01 -3.2176044583320618e-01 -1.9353492558002472e-01 1.8315052986145020e-01 1.3803198933601379e-01 1.8037110567092896e-01 -1.0447204113006592e-01 -4.0822708606719971e-01 -8.6800508201122284e-02 2.7383646368980408e-01 3.1734642386436462e-01 3.9364978671073914e-01 4.1514921933412552e-02 3.8279481232166290e-02 3.5358577966690063e-01 -4.7274252772331238e-01 1.9726414978504181e-01 -3.2036197185516357e-01 2.4420994520187378e-01 8.3100743591785431e-02 1.4600861072540283e-01 -1.8990141153335571e-01 -2.8725680708885193e-01 -3.6721944808959961e-02 -7.3990613222122192e-02 1.2869746983051300e-01 -2.3792773485183716e-02 2.5238758325576782e-01 -1.4836983382701874e-01 -2.4900507926940918e-01 2.5591403245925903e-01 -2.8514957427978516e-01 5.3934048861265182e-02 2.2806878387928009e-01 7.8295152634382248e-03 -7.1488164365291595e-02 -1.3624949753284454e-01 2.3833850026130676e-01 -3.0642268061637878e-01 3.8408059626817703e-02 -9.3221880495548248e-02 -1.7864280939102173e-01 1.1959895491600037e-01 1.6108006238937378e-01 -3.0509039759635925e-01 1.0431218892335892e-01 3.4017160534858704e-01 -1.5758530795574188e-01 3.6664638668298721e-02 6.2569096684455872e-02 2.9353412985801697e-01 -1.6956543922424316e-01 -6.6097997128963470e-02 -1.4311474561691284e-01 -1.6162437200546265e-01 -1.9267529249191284e-01 3.6858052015304565e-01 -8.2832597196102142e-02 -3.2137745618820190e-01 1.2359275668859482e-01 -2.1432882547378540e-01 2.1871723234653473e-01 1.0244061052799225e-01 4.6454212069511414e-01 -2.0859616994857788e-01 1.9595484435558319e-01 -4.9006365239620209e-02 3.3298316597938538e-01 2.2960020601749420e-01 2.7023586630821228e-01 -2.4417352676391602e-01 -1.3084782660007477e-01 -3.2172778248786926e-01 3.0964702367782593e-01 7.4279598891735077e-02 -5.1985634490847588e-03 5.5530048906803131e-02 -1.8295469880104065e-01 1.8241326510906219e-01 -2.0644448697566986e-01 7.8853823244571686e-02 -2.5947486981749535e-02 2.6340413093566895e-01 1.5736889839172363e-01 5.5978195741772652e-03 -2.4451740086078644e-01 6.2734693288803101e-02 2.8231382369995117e-01 4.8136573284864426e-02 9.0780384838581085e-02 -3.1822782754898071e-01 3.0728741548955441e-03 7.1646027266979218e-02 2.2707758843898773e-01 -3.5246867686510086e-02 -8.3139799535274506e-02 -5.2775558084249496e-02 7.3279533535242081e-04 2.3979173600673676e-01 -6.9873087108135223e-02 -1.3680614531040192e-01 -2.5395235419273376e-01 2.9804474115371704e-01 -2.1667960286140442e-01 1.8672968447208405e-01 -1.6042681038379669e-01 -3.5170182585716248e-01 -1.1508607864379883e-01 1.0642223805189133e-01 1.9867698848247528e-01 2.2547301650047302e-01 3.8033264875411987e-01 1.7441092431545258e-01 -2.2481015324592590e-01 2.2932924330234528e-02 5.3458690643310547e-02 2.6351416110992432e-01 3.1043785810470581e-01 -3.0226942896842957e-01 1.4974699914455414e-01 1.7330481112003326e-01 -6.3232034444808960e-02 -2.7986234426498413e-01 -1.1503900587558746e-01 -8.1263892352581024e-02 -3.0342903733253479e-01 -3.0195957422256470e-01 2.7418727986514568e-03 -2.1148017048835754e-01 -3.0829146504402161e-01 9.0326339006423950e-02 -2.7795821428298950e-01 -2.7328297495841980e-01 1.3227632641792297e-01 -1.3084571808576584e-02 -1.0571661591529846e-01 2.1526546776294708e-01 2.4602143466472626e-01 1.4006179571151733e-01 -6.0899969190359116e-02 -2.6342174410820007e-01 -7.2816155850887299e-02 -2.6255214214324951e-01 -2.9912614822387695e-01 
      </Weights>
      <Biases rows="16" cols="1">
        -5.8692609891295433e-03 -2.3883737623691559e-02 -2.7086637914180756e-02 -4.2081654071807861e-02 -8.7637295946478844e-03 3.4472018014639616e-03 -9.2690207064151764e-02 2.7056816965341568e-02 1.2951607815921307e-02 -4.1952136904001236e-02 5.1060812547802925e-03 -1.9372330978512764e-02 2.5650562718510628e-02 -2.4618376046419144e-03 1.0454311966896057e-02 -1.2662446126341820e-02 
      </Biases>
    </Layer>
    <Layer ActivationFunction="0">
      <Weights rows="1" cols="16">
        1.5821798145771027e-01 -4.4656467437744141e-01 9.9965438246726990e-02 3.5846927762031555e-01 1.7694084346294403e-01 -6.9215811789035797e-02 4.0379443764686584e-01 3.5323366522789001e-01 1.9867949187755585e-01 1.8658135831356049e-01 -3.7601569294929504e-01 4.7809657454490662e-01 -2.8081079944968224e-02 -2.2976574301719666e-01 -1.7837607860565186e-01 1.7048940062522888e-01 
      </Weights>
      <Biases rows="1" cols="1">
        -1.7397864162921906e-01 
      </Biases>
    </Layer>
  </Weights>
</MethodSetup>
