<?xml version="1.0"?>
<MethodSetup Method="DNN::DNN_NanoV9_VAUG_2020_BMET_x2">
  <GeneralInfo>
    <Info name="TMVA Release" value="4.2.1 [262657]"/>
    <Info name="ROOT Release" value="6.12/07 [396295]"/>
    <Info name="Creator" value="hum"/>
    <Info name="Date" value="Wed Aug  3 06:57:48 2022"/>
    <Info name="Host" value="Linux vocms0301.cern.ch 2.6.32-696.30.1.el6.x86_64 #1 SMP Tue May 22 06:09:36 CEST 2018 x86_64 x86_64 x86_64 GNU/Linux"/>
    <Info name="Dir" value="/afs/cern.ch/work/h/hum/public/CMSSW_10_2_13/src/ChargedHiggs/Analysis"/>
    <Info name="Training events" value="36114"/>
    <Info name="TrainingTime" value="8.02657199e+00"/>
    <Info name="AnalysisType" value="Classification"/>
  </GeneralInfo>
  <Options>
    <Option name="V" modified="Yes">True</Option>
    <Option name="VerbosityLevel" modified="No">Verbose</Option>
    <Option name="VarTransform" modified="Yes">N</Option>
    <Option name="H" modified="Yes">False</Option>
    <Option name="CreateMVAPdfs" modified="No">False</Option>
    <Option name="IgnoreNegWeightsInTraining" modified="No">False</Option>
    <Option name="Layout" modified="Yes">SIGMOID|16,TANH|16,TANH|16,LINEAR</Option>
    <Option name="ValidationSize" modified="No">20%</Option>
    <Option name="ErrorStrategy" modified="Yes">CROSSENTROPY</Option>
    <Option name="WeightInitialization" modified="Yes">XAVIERUNIFORM</Option>
    <Option name="Architecture" modified="Yes">CPU</Option>
    <Option name="TrainingStrategy" modified="Yes">LearningRate=1e-1,Momentum=0.9,Repetitions=1,ConvergenceSteps=20,BatchSize=256,TestRepetitions=10,WeightDecay=1e-4,Regularization=L2,DropConfig=0.0+0.1+0.25+0.5,</Option>
  </Options>
  <Variables NVar="15">
    <Variable VarIndex="0" Expression="j1QGL" Label="j1QGL" Title="j1QGL" Unit="" Internal="j1QGL" Type="F" Min="-1.00000000e+00" Max="1.00000000e+00"/>
    <Variable VarIndex="1" Expression="j2QGL" Label="j2QGL" Title="j2QGL" Unit="" Internal="j2QGL" Type="F" Min="-1.00000000e+00" Max="1.00000000e+00"/>
    <Variable VarIndex="2" Expression="varMjj" Label="varMjj" Title="varMjj" Unit="" Internal="varMjj" Type="F" Min="5.00009735e+02" Max="8.50564258e+03"/>
    <Variable VarIndex="3" Expression="varDetajj" Label="varDetajj" Title="varDetajj" Unit="" Internal="varDetajj" Type="F" Min="2.50000000e+00" Max="8.68750000e+00"/>
    <Variable VarIndex="4" Expression="abs(varJet1Eta)" Label="abs(varJet1Eta)" Title="abs(varJet1Eta)" Unit="" Internal="abs_varJet1Eta_" Type="F" Min="1.40890479e-05" Max="4.68945312e+00"/>
    <Variable VarIndex="5" Expression="varJet1Pt" Label="varJet1Pt" Title="varJet1Pt" Unit="" Internal="varJet1Pt" Type="F" Min="5.00312500e+01" Max="2.06200000e+03"/>
    <Variable VarIndex="6" Expression="abs(varJet2Eta)" Label="abs(varJet2Eta)" Title="abs(varJet2Eta)" Unit="" Internal="abs_varJet2Eta_" Type="F" Min="6.97851181e-04" Max="4.69531250e+00"/>
    <Variable VarIndex="7" Expression="varJet2Pt" Label="varJet2Pt" Title="varJet2Pt" Unit="" Internal="varJet2Pt" Type="F" Min="5.00000000e+01" Max="1.21300000e+03"/>
    <Variable VarIndex="8" Expression="varMTVV" Label="varMTVV" Title="varMTVV" Unit="" Internal="varMTVV" Type="F" Min="5.32944031e+02" Max="3.81953540e+03"/>
    <Variable VarIndex="9" Expression="varPTV1" Label="varPTV1" Title="varPTV1" Unit="" Internal="varPTV1" Type="F" Min="2.00007935e+02" Max="1.91862537e+03"/>
    <Variable VarIndex="10" Expression="varPTV2" Label="varPTV2" Title="varPTV2" Unit="" Internal="varPTV2" Type="F" Min="3.00000000e+02" Max="2.04000000e+03"/>
    <Variable VarIndex="11" Expression="varCen" Label="varCen" Title="varCen" Unit="" Internal="varCen" Type="F" Min="-2.29409027e+00" Max="4.08085442e+00"/>
    <Variable VarIndex="12" Expression="varDRV2j" Label="varDRV2j" Title="varDRV2j" Unit="" Internal="varDRV2j" Type="F" Min="1.20020425e+00" Max="4.76206589e+00"/>
    <Variable VarIndex="13" Expression="varnormPTVVjj" Label="varnormPTVVjj" Title="varnormPTVVjj" Unit="" Internal="varnormPTVVjj" Type="F" Min="6.09129609e-04" Max="2.49946803e-01"/>
    <Variable VarIndex="14" Expression="varFW2j" Label="varFW2j" Title="varnormFW2j" Unit="" Internal="varFW2j" Type="F" Min="1.29875630e-01" Max="9.99869227e-01"/>
  </Variables>
  <Spectators NSpec="0"/>
  <Classes NClass="2">
    <Class Name="Signal" Index="0"/>
    <Class Name="Background" Index="1"/>
  </Classes>
  <Transformations NTransformations="1">
    <Transform Name="Normalize">
      <Selection>
        <Input NInputs="15">
          <Input Type="Variable" Label="j1QGL" Expression="j1QGL"/>
          <Input Type="Variable" Label="j2QGL" Expression="j2QGL"/>
          <Input Type="Variable" Label="varMjj" Expression="varMjj"/>
          <Input Type="Variable" Label="varDetajj" Expression="varDetajj"/>
          <Input Type="Variable" Label="abs(varJet1Eta)" Expression="abs(varJet1Eta)"/>
          <Input Type="Variable" Label="varJet1Pt" Expression="varJet1Pt"/>
          <Input Type="Variable" Label="abs(varJet2Eta)" Expression="abs(varJet2Eta)"/>
          <Input Type="Variable" Label="varJet2Pt" Expression="varJet2Pt"/>
          <Input Type="Variable" Label="varMTVV" Expression="varMTVV"/>
          <Input Type="Variable" Label="varPTV1" Expression="varPTV1"/>
          <Input Type="Variable" Label="varPTV2" Expression="varPTV2"/>
          <Input Type="Variable" Label="varCen" Expression="varCen"/>
          <Input Type="Variable" Label="varDRV2j" Expression="varDRV2j"/>
          <Input Type="Variable" Label="varnormPTVVjj" Expression="varnormPTVVjj"/>
          <Input Type="Variable" Label="varFW2j" Expression="varFW2j"/>
        </Input>
        <Output NOutputs="15">
          <Output Type="Variable" Label="j1QGL" Expression="j1QGL"/>
          <Output Type="Variable" Label="j2QGL" Expression="j2QGL"/>
          <Output Type="Variable" Label="varMjj" Expression="varMjj"/>
          <Output Type="Variable" Label="varDetajj" Expression="varDetajj"/>
          <Output Type="Variable" Label="abs(varJet1Eta)" Expression="abs(varJet1Eta)"/>
          <Output Type="Variable" Label="varJet1Pt" Expression="varJet1Pt"/>
          <Output Type="Variable" Label="abs(varJet2Eta)" Expression="abs(varJet2Eta)"/>
          <Output Type="Variable" Label="varJet2Pt" Expression="varJet2Pt"/>
          <Output Type="Variable" Label="varMTVV" Expression="varMTVV"/>
          <Output Type="Variable" Label="varPTV1" Expression="varPTV1"/>
          <Output Type="Variable" Label="varPTV2" Expression="varPTV2"/>
          <Output Type="Variable" Label="varCen" Expression="varCen"/>
          <Output Type="Variable" Label="varDRV2j" Expression="varDRV2j"/>
          <Output Type="Variable" Label="varnormPTVVjj" Expression="varnormPTVVjj"/>
          <Output Type="Variable" Label="varFW2j" Expression="varFW2j"/>
        </Output>
      </Selection>
      <Class ClassIndex="0">
        <Ranges>
          <Range Index="0" Min="-1.0000000000000000e+00" Max="1.0000000000000000e+00"/>
          <Range Index="1" Min="-1.0000000000000000e+00" Max="9.9951171875000000e-01"/>
          <Range Index="2" Min="5.0002767944335938e+02" Max="8.5056425781250000e+03"/>
          <Range Index="3" Min="2.5007324218750000e+00" Max="8.6875000000000000e+00"/>
          <Range Index="4" Min="9.1397762298583984e-04" Max="4.6894531250000000e+00"/>
          <Range Index="5" Min="5.0031250000000000e+01" Max="1.7090000000000000e+03"/>
          <Range Index="6" Min="7.7366828918457031e-04" Max="4.6884765625000000e+00"/>
          <Range Index="7" Min="5.0000000000000000e+01" Max="1.2130000000000000e+03"/>
          <Range Index="8" Min="5.3753674316406250e+02" Max="3.8195354003906250e+03"/>
          <Range Index="9" Min="2.0002545166015625e+02" Max="1.9186253662109375e+03"/>
          <Range Index="10" Min="3.0000000000000000e+02" Max="2.0400000000000000e+03"/>
          <Range Index="11" Min="-1.9912719726562500e+00" Max="4.0808544158935547e+00"/>
          <Range Index="12" Min="1.2007284164428711e+00" Max="4.7620658874511719e+00"/>
          <Range Index="13" Min="6.0912960907444358e-04" Max="2.4994680285453796e-01"/>
          <Range Index="14" Min="1.3396844267845154e-01" Max="9.9986922740936279e-01"/>
        </Ranges>
      </Class>
      <Class ClassIndex="1">
        <Ranges>
          <Range Index="0" Min="-1.0000000000000000e+00" Max="1.0000000000000000e+00"/>
          <Range Index="1" Min="-1.0000000000000000e+00" Max="1.0000000000000000e+00"/>
          <Range Index="2" Min="5.0000973510742188e+02" Max="6.1605927734375000e+03"/>
          <Range Index="3" Min="2.5000000000000000e+00" Max="8.2651367187500000e+00"/>
          <Range Index="4" Min="1.4089047908782959e-05" Max="4.6611328125000000e+00"/>
          <Range Index="5" Min="5.0062500000000000e+01" Max="2.0620000000000000e+03"/>
          <Range Index="6" Min="6.9785118103027344e-04" Max="4.6953125000000000e+00"/>
          <Range Index="7" Min="5.0000000000000000e+01" Max="1.0710000000000000e+03"/>
          <Range Index="8" Min="5.3294403076171875e+02" Max="3.4463049316406250e+03"/>
          <Range Index="9" Min="2.0000793457031250e+02" Max="1.6937590332031250e+03"/>
          <Range Index="10" Min="3.0000000000000000e+02" Max="2.0120000000000000e+03"/>
          <Range Index="11" Min="-2.2940902709960938e+00" Max="3.7935752868652344e+00"/>
          <Range Index="12" Min="1.2002042531967163e+00" Max="4.3206644058227539e+00"/>
          <Range Index="13" Min="6.3868361758068204e-04" Max="2.4929924309253693e-01"/>
          <Range Index="14" Min="1.2987563014030457e-01" Max="9.9933815002441406e-01"/>
        </Ranges>
      </Class>
      <Class ClassIndex="2">
        <Ranges>
          <Range Index="0" Min="-1.0000000000000000e+00" Max="1.0000000000000000e+00"/>
          <Range Index="1" Min="-1.0000000000000000e+00" Max="1.0000000000000000e+00"/>
          <Range Index="2" Min="5.0000973510742188e+02" Max="8.5056425781250000e+03"/>
          <Range Index="3" Min="2.5000000000000000e+00" Max="8.6875000000000000e+00"/>
          <Range Index="4" Min="1.4089047908782959e-05" Max="4.6894531250000000e+00"/>
          <Range Index="5" Min="5.0031250000000000e+01" Max="2.0620000000000000e+03"/>
          <Range Index="6" Min="6.9785118103027344e-04" Max="4.6953125000000000e+00"/>
          <Range Index="7" Min="5.0000000000000000e+01" Max="1.2130000000000000e+03"/>
          <Range Index="8" Min="5.3294403076171875e+02" Max="3.8195354003906250e+03"/>
          <Range Index="9" Min="2.0000793457031250e+02" Max="1.9186253662109375e+03"/>
          <Range Index="10" Min="3.0000000000000000e+02" Max="2.0400000000000000e+03"/>
          <Range Index="11" Min="-2.2940902709960938e+00" Max="4.0808544158935547e+00"/>
          <Range Index="12" Min="1.2002042531967163e+00" Max="4.7620658874511719e+00"/>
          <Range Index="13" Min="6.0912960907444358e-04" Max="2.4994680285453796e-01"/>
          <Range Index="14" Min="1.2987563014030457e-01" Max="9.9986922740936279e-01"/>
        </Ranges>
      </Class>
    </Transform>
  </Transformations>
  <MVAPdfs/>
  <Weights InputWidth="15" Depth="4" LossFunction="C" OutputFunction="S">
    <Layer ActivationFunction="2">
      <Weights rows="16" cols="15">
        1.4903062582015991e-01 1.2995916604995728e+00 1.7203603982925415e+00 -1.3132208585739136e-01 3.6338204145431519e-01 1.2206312268972397e-01 -3.7825310230255127e-01 7.9708367586135864e-01 1.1181172132492065e+00 3.9905220270156860e-01 2.1633943915367126e-01 2.9885438084602356e-01 -3.3362290263175964e-01 -6.0591828823089600e-01 1.5177060663700104e-01 -2.2900453209877014e-01 -2.9070436954498291e-01 -8.6451405286788940e-01 -1.5664542093873024e-02 -1.5813097357749939e-01 3.8403673097491264e-03 -5.7233232073485851e-03 -3.6599734425544739e-01 -5.2854716777801514e-01 -6.6660761833190918e-02 -3.9811272174119949e-02 -2.7993333339691162e-01 2.3266477882862091e-01 3.8812342286109924e-01 -4.7981943935155869e-02 -2.4742346256971359e-02 1.2695170640945435e+00 1.1645566225051880e+00 -9.0039789676666260e-02 4.8590373992919922e-01 2.2119508683681488e-01 -4.5332619547843933e-01 5.9667664766311646e-01 7.3969447612762451e-01 3.3222323656082153e-01 2.3961754143238068e-01 8.0616898834705353e-02 -2.2086228430271149e-01 -3.4321036934852600e-01 1.7026384174823761e-01 -1.8722669780254364e-01 -1.2484271824359894e-01 -4.6507808566093445e-01 4.6995919197797775e-02 -3.6598131060600281e-02 2.1962586790323257e-02 -5.5122092366218567e-02 -2.1334283053874969e-01 -2.3583999276161194e-01 -2.8803236782550812e-02 -1.8667189404368401e-02 -1.9466845691204071e-01 1.1264143139123917e-01 2.2038991749286652e-01 -8.5909046232700348e-02 -2.3615936934947968e-01 -2.2346796095371246e-01 -9.9638372659683228e-01 5.8605171740055084e-02 -1.3623423874378204e-01 -1.0187648981809616e-01 -2.7954090386629105e-02 -4.2775017023086548e-01 -5.1151198148727417e-01 -1.4939239621162415e-01 -9.8060384392738342e-02 -2.4361900985240936e-01 2.1860854327678680e-01 3.3987763524055481e-01 2.6332037523388863e-02 -1.1907404661178589e-01 -9.5752738416194916e-02 7.0393964648246765e-02 7.7278144657611847e-02 1.6860060393810272e-02 8.6158208549022675e-02 -4.0864657610654831e-02 1.2880979478359222e-01 6.9496870040893555e-02 1.3271200656890869e-01 1.4651738107204437e-01 -4.6935365535318851e-03 5.7827975600957870e-02 1.2948955595493317e-01 -6.4086899161338806e-02 -2.3408895730972290e-01 -2.7204567193984985e-01 -1.2127320766448975e+00 -9.8910778760910034e-03 -1.4943988621234894e-01 -7.7895164489746094e-02 2.1840833127498627e-02 -4.8203665018081665e-01 -6.8135774135589600e-01 -1.9272184371948242e-01 -5.9641104191541672e-02 -2.9298934340476990e-01 2.4720847606658936e-01 4.5927813649177551e-01 -1.5442433767020702e-02 1.4243300259113312e-01 -1.4168853759765625e+00 1.4535293579101562e+00 2.8987145423889160e-01 -3.4123805165290833e-01 -8.1255935132503510e-02 9.1512340307235718e-01 6.1396765708923340e-01 6.2516635656356812e-01 3.1176766380667686e-02 4.3483387678861618e-02 7.2623527050018311e-01 -8.4524169564247131e-02 -4.2818149924278259e-01 -2.8696706891059875e-01 -4.5403176546096802e-01 -1.6770222783088684e-01 -1.1362718343734741e+00 1.3105516135692596e-01 -7.1993887424468994e-02 -4.4176995754241943e-02 -3.8881801068782806e-02 -5.2735894918441772e-01 -5.9563523530960083e-01 -4.2822446674108505e-02 -7.5305916368961334e-02 -2.1290992200374603e-01 2.3170234262943268e-01 2.4702443182468414e-01 -2.6381038129329681e-02 8.9408345520496368e-02 3.6022216081619263e-02 1.5100830793380737e+00 1.3543620705604553e-01 1.5618382394313812e-01 2.6043586432933807e-02 1.4046034216880798e-01 6.1105138063430786e-01 8.3877736330032349e-01 2.4580666422843933e-01 6.6409684717655182e-02 4.6271300315856934e-01 -2.4507005512714386e-01 -6.2706053256988525e-01 -4.3023400008678436e-02 1.2836797535419464e-01 -1.1723137646913528e-01 5.2908384799957275e-01 5.9383530169725418e-02 5.2162870764732361e-02 5.4128032177686691e-02 1.3495682179927826e-01 3.0096682906150818e-01 3.6319094896316528e-01 1.8565075099468231e-01 1.3833644986152649e-01 1.3760828971862793e-01 -3.8285020738840103e-02 -1.0874861478805542e-01 8.4302932024002075e-02 3.5079386085271835e-02 -2.3680981993675232e-01 4.8511520028114319e-01 9.2178441584110260e-02 8.6974641308188438e-03 2.9568746685981750e-02 1.4243720471858978e-01 2.8184831142425537e-01 2.8899395465850830e-01 9.8077893257141113e-02 9.1563366353511810e-02 1.7588627338409424e-01 -4.0833909064531326e-02 -2.1121224388480186e-02 4.5395277440547943e-02 3.7509500980377197e-01 4.4782423973083496e-01 1.5158095359802246e+00 -1.0822153091430664e-01 7.4811764061450958e-02 1.4385773241519928e-01 -4.7909405082464218e-02 7.5248372554779053e-01 8.4892094135284424e-01 2.2496873140335083e-01 1.4074045419692993e-01 3.1210190057754517e-01 -2.4946700036525726e-01 -3.7620961666107178e-01 -1.7291216179728508e-02 -4.8578031361103058e-02 -1.6870412975549698e-02 2.5453636050224304e-01 1.1014311760663986e-01 9.1611422598361969e-02 7.4667438864707947e-02 1.7086066305637360e-02 1.8371415138244629e-01 1.7073519527912140e-01 1.6502411663532257e-01 1.7314596474170685e-01 8.5595265030860901e-02 4.4084563851356506e-03 -1.8223671242594719e-02 1.6002715565264225e-03 2.5577995181083679e-01 1.6242843866348267e-01 1.5682978630065918e+00 -6.4968138933181763e-02 7.9347610473632812e-02 1.1035891622304916e-01 8.4160886704921722e-02 7.8928202390670776e-01 8.2217502593994141e-01 2.1361279487609863e-01 1.5698377788066864e-01 3.9853703975677490e-01 -2.1102122962474823e-01 -3.4645080566406250e-01 -1.0004031658172607e-01 2.2518913447856903e-01 1.9861072301864624e-01 9.0113925933837891e-01 -2.5253131985664368e-02 5.9496484696865082e-02 1.1640672385692596e-01 -1.7295461148023605e-03 4.8723787069320679e-01 5.7707196474075317e-01 1.3446015119552612e-01 1.0378290712833405e-01 2.1578074991703033e-01 -1.4188754558563232e-01 -1.1033482104539871e-01 -5.1034640520811081e-02 
      </Weights>
      <Biases rows="16" cols="1">
        1.7816755771636963e+00 -9.9731945991516113e-01 1.1452341079711914e+00 -6.6480547189712524e-01 -1.6987475156784058e+00 -4.6055242419242859e-01 -1.7612228393554688e+00 1.0893152952194214e+00 -1.4903880357742310e+00 1.8753730058670044e+00 2.0410145819187164e-01 -4.2033109068870544e-01 1.9568260908126831e+00 -4.8051059246063232e-01 2.3171098232269287e+00 1.1100059747695923e+00 
      </Biases>
    </Layer>
    <Layer ActivationFunction="3">
      <Weights rows="16" cols="16">
        6.8935579061508179e-01 -3.4256479144096375e-01 2.0154653489589691e-01 -2.9572927951812744e-01 -2.2903649508953094e-01 6.9759197533130646e-02 -3.0542394518852234e-01 7.3467224836349487e-01 -2.6150417327880859e-01 5.9707373380661011e-01 2.2623099386692047e-01 4.1788065433502197e-01 2.4420619010925293e-01 2.4020352959632874e-01 3.0559703707695007e-01 -3.3714517951011658e-02 -3.8506987690925598e-01 1.7086590826511383e-01 -1.2465038895606995e-01 6.9989986717700958e-02 1.6169323027133942e-01 9.6835168078541756e-03 1.8804652988910675e-01 -2.5596785545349121e-01 7.7858544886112213e-02 -3.3025544881820679e-01 -1.8696649372577667e-01 -3.9627630263566971e-02 -4.8130325973033905e-02 -4.6996802091598511e-02 -6.7267805337905884e-02 6.7401468753814697e-02 1.5249812602996826e-01 -7.1594685316085815e-02 1.3276898860931396e-01 -4.0385067462921143e-02 -2.2502236068248749e-02 4.6942815184593201e-02 -1.1211106926202774e-01 1.9675569236278534e-01 8.2752509042620659e-03 2.2898850962519646e-02 -1.0920332279056311e-03 9.4269581139087677e-02 1.6488237679004669e-01 3.2859504222869873e-02 1.3074187934398651e-01 1.1488210409879684e-01 -2.4764027446508408e-02 7.5731195509433746e-02 -1.1660398542881012e-01 1.2666241265833378e-02 -3.9209764450788498e-02 -1.1869802139699459e-02 2.4408103898167610e-02 -1.8324635922908783e-01 5.0338331609964371e-02 3.9638332091271877e-03 -1.3003475032746792e-02 -1.5136955678462982e-01 -1.4256781339645386e-01 -9.1144949197769165e-02 -1.6304233670234680e-01 -4.6858049929141998e-02 -4.1934421658515930e-01 1.4777123928070068e-01 -3.7815463542938232e-01 9.7675390541553497e-02 7.6848208904266357e-02 -1.4842635393142700e-01 2.2848494350910187e-02 -5.1749593019485474e-01 4.8835563659667969e-01 -1.1253197491168976e-01 -1.4232441782951355e-01 -3.9419040083885193e-01 -4.2109051346778870e-01 -1.1604893952608109e-01 -3.5975304245948792e-01 -3.0098170042037964e-01 -4.1087999939918518e-01 1.7162413895130157e-01 -1.4627917110919952e-01 1.2109766155481339e-01 1.3319025933742523e-01 1.2739351019263268e-02 1.8783167004585266e-01 -3.4979799389839172e-01 1.5566365420818329e-01 -3.4177228808403015e-01 -1.9150829315185547e-01 -1.9422084093093872e-01 -2.2582121193408966e-01 -1.3725942373275757e-01 -1.6447199881076813e-01 -4.3891318142414093e-02 -3.4282377362251282e-01 2.0952408015727997e-01 -2.4472576379776001e-01 1.1415300518274307e-01 9.6520416438579559e-02 -8.0506995320320129e-02 2.0327138900756836e-01 -4.0027025341987610e-01 1.8580731749534607e-01 -2.8679278492927551e-01 -1.5003472566604614e-01 -2.4168080091476440e-01 -2.9435068368911743e-01 -1.1911506205797195e-01 -2.4977834522724152e-01 -1.3368430733680725e-01 4.8062872886657715e-01 -2.4310113489627838e-01 2.0606315135955811e-01 -1.8752978742122650e-01 -1.2647272646427155e-01 9.9377296864986420e-02 -2.5972765684127808e-01 5.3270775079727173e-01 -2.3680669069290161e-01 3.0615076422691345e-01 1.3706927001476288e-01 3.3091518282890320e-01 2.5640216469764709e-01 2.1373371779918671e-01 2.0741173624992371e-01 7.8496001660823822e-02 1.2888218276202679e-02 6.9247119128704071e-02 -6.5936766564846039e-02 3.1072452664375305e-02 1.9598636776208878e-02 -2.9650885611772537e-02 -8.6091319099068642e-04 -6.9914817810058594e-02 1.4239319600164890e-02 5.5818188935518265e-02 5.0724957138299942e-02 -5.6502252817153931e-02 -1.5982912853360176e-02 1.2642183341085911e-02 -2.7363823726773262e-02 -1.8445124849677086e-02 -9.9477320909500122e-02 2.5530343875288963e-02 -7.8243754804134369e-02 5.6727688759565353e-02 6.8915754556655884e-02 -1.9892593845725060e-02 1.1970712989568710e-01 -1.1216942220926285e-01 -5.1167372614145279e-02 -1.6204625368118286e-01 -7.7025815844535828e-02 -4.8825196921825409e-02 -3.4525548107922077e-03 2.6649089530110359e-02 -2.6272149756550789e-02 3.3287394791841507e-02 -1.3865767419338226e-01 7.8264459967613220e-02 -9.8010666668415070e-02 8.1117168068885803e-02 1.0189414769411087e-01 -5.0891712307929993e-02 1.5088587999343872e-01 -2.3161901533603668e-01 5.2465139888226986e-03 -1.2199022620916367e-01 -1.0664363950490952e-01 -9.1825991868972778e-02 -1.4380386471748352e-01 -6.3915148377418518e-02 -1.6331979632377625e-01 -8.7844103574752808e-02 2.9023453593254089e-01 -1.5572924911975861e-01 1.2047622352838516e-01 -8.2989916205406189e-02 -1.1765804886817932e-01 -9.7805960103869438e-03 -1.7856882512569427e-01 1.7764276266098022e-01 -5.6911818683147430e-02 2.7691218256950378e-01 7.8440681099891663e-02 8.5612244904041290e-02 4.5100867748260498e-02 5.1150176674127579e-02 6.2729358673095703e-02 -6.2579070217907429e-03 3.1114336848258972e-01 -2.2129635512828827e-01 2.4011591076850891e-01 -1.3315057754516602e-01 -2.5043006986379623e-02 3.3655095845460892e-02 -1.1951664835214615e-01 3.9668327569961548e-01 -2.3904423415660858e-01 1.5694347023963928e-01 1.0511312633752823e-01 1.6546484827995300e-01 2.8582382202148438e-01 1.4232969284057617e-01 2.7417722344398499e-01 1.5515278279781342e-01 3.1616881489753723e-01 -1.6205312311649323e-01 1.6841867566108704e-01 -1.3779352605342865e-01 -4.5812956988811493e-02 -6.6226246417500079e-05 -1.8346437811851501e-01 2.9058957099914551e-01 -1.6501896083354950e-01 2.5806546211242676e-01 1.1239604651927948e-01 1.7621859908103943e-01 2.5934404134750366e-01 8.5760779678821564e-02 2.0110523700714111e-01 1.4254522323608398e-01 3.1554725766181946e-01 -1.7571566998958588e-01 2.3299971222877502e-01 -1.8843270838260651e-01 -9.0841345489025116e-02 4.0648344904184341e-02 -2.1187591552734375e-01 3.6690866947174072e-01 -1.7843176424503326e-01 2.5170361995697021e-01 1.0853448510169983e-01 1.7018175125122070e-01 2.8005579113960266e-01 6.8524375557899475e-02 2.3384824395179749e-01 1.0614836215972900e-01 4.8755249381065369e-01 -2.2783671319484711e-01 4.1064825654029846e-01 -1.5849016606807709e-01 -1.5089584887027740e-01 5.4602280259132385e-02 -2.8028470277786255e-01 6.5467435121536255e-01 -2.3998005688190460e-01 2.1895922720432281e-01 2.1047267317771912e-01 4.0274220705032349e-01 5.2663975954055786e-01 1.2392035871744156e-01 5.1224201917648315e-01 4.2902928590774536e-01 
      </Weights>
      <Biases rows="16" cols="1">
        -7.9198306798934937e-01 1.7656664550304413e-01 -2.2937195003032684e-01 2.0682661235332489e-01 4.6774515509605408e-01 3.6098515987396240e-01 3.2585322856903076e-01 -3.5733473300933838e-01 -5.1546007394790649e-02 5.2088934928178787e-02 1.8790744245052338e-01 -1.0524164140224457e-01 -2.8801041841506958e-01 -3.0818197131156921e-01 -2.4062809348106384e-01 -4.3360042572021484e-01 
      </Biases>
    </Layer>
    <Layer ActivationFunction="3">
      <Weights rows="16" cols="16">
        1.3013494014739990e-01 1.3587111607193947e-03 -1.9519921392202377e-02 -1.4899809844791889e-02 -6.3688293099403381e-02 -4.7308329492807388e-02 -4.7913197427988052e-02 6.3563756644725800e-02 -2.2541008889675140e-02 2.1337075158953667e-02 -1.8548039719462395e-02 6.6303193569183350e-02 5.0220608711242676e-02 4.7107905149459839e-02 8.4448494017124176e-02 9.5109902322292328e-02 -2.3023487627506256e-01 3.6899972707033157e-02 -6.6313482820987701e-02 2.3313360288739204e-02 1.0045257955789566e-01 8.0656399950385094e-03 1.2055649608373642e-01 -1.1744112521409988e-01 3.3632788807153702e-02 4.7924868762493134e-02 1.6512135043740273e-02 -3.8478341884911060e-03 -4.6952906996011734e-03 -6.5461874008178711e-02 -9.2781521379947662e-02 -1.7907270789146423e-01 2.8849107027053833e-01 1.7110019922256470e-02 9.3092992901802063e-02 -9.6781440079212189e-02 -8.6540527641773224e-02 -4.6365227550268173e-02 -1.2057781964540482e-01 2.3549430072307587e-01 2.6484400033950806e-02 -9.3249671161174774e-02 -1.1893469840288162e-01 -2.3408108390867710e-03 1.3952533900737762e-01 5.2526174113154411e-03 1.3694639503955841e-01 3.4331279993057251e-01 -1.1443088948726654e-01 3.9846250414848328e-01 8.4407418966293335e-02 -1.1347652226686478e-01 -1.1162671446800232e-01 3.3126944303512573e-01 2.0854049921035767e-01 -2.0087738335132599e-01 -8.1783458590507507e-02 1.1381739377975464e-01 5.0386413931846619e-03 -3.2209080457687378e-01 -3.4372054040431976e-02 -1.3004541397094727e-01 -1.8764795362949371e-01 -9.6906341612339020e-02 -2.6916706562042236e-01 -3.4512456506490707e-02 -8.3148375153541565e-02 5.0560858100652695e-02 4.8467822372913361e-02 4.0731623768806458e-02 9.7379237413406372e-02 -2.0427703857421875e-01 6.1844211071729660e-02 8.7504789233207703e-02 9.3667052686214447e-02 -7.0085234940052032e-02 -1.0570388287305832e-01 -2.3503795266151428e-02 -1.1634428799152374e-01 -3.0794054269790649e-01 -2.5095584988594055e-01 -2.3443760350346565e-02 -2.6607634499669075e-02 1.1882555484771729e-01 4.4542834162712097e-01 6.9999866187572479e-02 1.3129353523254395e-01 -1.9462928175926208e-01 6.8088904954493046e-03 -5.6273065507411957e-02 1.0147782042622566e-02 1.7833968624472618e-02 -2.4759572744369507e-01 -1.5133349597454071e-01 -1.1571130901575089e-01 -1.1460684984922409e-01 -1.0182744264602661e-01 7.9886484891176224e-03 -3.1838968396186829e-02 1.7222328111529350e-02 6.7109704017639160e-02 2.2832439281046391e-03 5.4392334073781967e-02 -5.1126390695571899e-02 -7.2958925738930702e-03 -2.4613015353679657e-02 1.3931343331933022e-02 -2.8013264760375023e-02 -7.8478045761585236e-03 -6.0778665356338024e-03 -2.8944617137312889e-02 -9.4432592391967773e-02 1.7416092753410339e-01 -2.3041184991598129e-02 -1.5404007397592068e-02 -7.1405477821826935e-02 -6.2809526920318604e-02 -3.2318484038114548e-02 -9.9351383745670319e-02 1.2990926206111908e-01 -4.2480845004320145e-02 -1.6405129805207253e-02 -7.3160327970981598e-02 1.8804725259542465e-02 4.8479594290256500e-02 2.5984672829508781e-02 3.6980889737606049e-02 1.6544063389301300e-01 2.8444489836692810e-01 3.1933385878801346e-02 1.5751976519823074e-02 -9.9067047238349915e-02 -4.1154512763023376e-01 -6.9019436836242676e-02 -1.2787511944770813e-01 1.8339625000953674e-01 5.8965235948562622e-03 8.4892265498638153e-02 1.5889411792159081e-02 -4.0105130523443222e-02 2.0448154211044312e-01 1.5939487516880035e-01 1.1062893271446228e-01 1.1215968430042267e-01 1.5158815681934357e-01 -5.6191295385360718e-02 -2.0939113572239876e-02 -2.1130381152033806e-02 -3.6015782505273819e-02 -5.3100395947694778e-02 -4.8134524375200272e-02 7.8173026442527771e-02 -2.3234952241182327e-02 -8.4143616259098053e-02 -5.3617630153894424e-02 3.4199949353933334e-02 7.6610647141933441e-02 4.2840201407670975e-02 6.6007889807224274e-02 1.5978842973709106e-01 2.9624652862548828e-01 -8.4517318755388260e-03 7.8973472118377686e-02 -7.9101592302322388e-02 -9.2801436781883240e-02 -7.5757659971714020e-02 -1.7347958683967590e-01 1.6619521379470825e-01 -2.4261372163891792e-02 -4.5177083462476730e-02 -9.2400707304477692e-02 4.8400752246379852e-02 8.9293166995048523e-02 4.2075239121913910e-02 6.9521516561508179e-02 3.8138857483863831e-01 1.2992595136165619e-01 -7.3253422975540161e-02 5.9252887964248657e-02 -2.0410483703017235e-02 -3.2591409981250763e-02 -4.8572320491075516e-02 -4.6456184238195419e-02 5.5333711206912994e-02 -2.7459414675831795e-02 -1.9063299521803856e-02 -6.2652893364429474e-02 2.4159433320164680e-02 1.3253005221486092e-02 2.4296065792441368e-02 8.7891183793544769e-02 9.7672872245311737e-02 1.6678424179553986e-01 -1.5291506424546242e-03 4.4715166091918945e-02 -3.6055490374565125e-02 -4.6807032078504562e-02 -2.6633070781826973e-02 -7.0988260209560394e-02 9.7047030925750732e-02 -3.9203386753797531e-02 -3.5022374242544174e-02 -3.3440321683883667e-02 -1.0975674726068974e-02 1.0025966912508011e-02 6.4894586801528931e-02 4.6748042106628418e-02 1.7261266708374023e-01 1.9436918199062347e-01 -9.3492669984698296e-03 2.1860346198081970e-02 -9.0436749160289764e-02 -4.8960536718368530e-02 -7.7538304030895233e-02 -8.1375867128372192e-02 1.0444235801696777e-01 -5.8894893154501915e-03 -2.0799465477466583e-02 -4.6799235045909882e-02 4.0597997605800629e-02 8.4802225232124329e-02 -1.9241057452745736e-04 1.0710100829601288e-01 2.2620332241058350e-01 -2.0558038353919983e-01 8.3553709089756012e-02 1.9464336801320314e-03 9.0113962069153786e-03 9.1741099953651428e-02 6.3534796237945557e-02 7.5705118477344513e-02 -1.2146469205617905e-01 -1.1624749749898911e-02 5.8530494570732117e-02 3.5857945680618286e-02 -7.7897153794765472e-02 -5.3087830543518066e-02 -8.1141255795955658e-02 -5.1891706883907318e-02 -2.3778490722179413e-01 1.9087146222591400e-01 3.2028015702962875e-02 4.1672822088003159e-02 -4.3575480580329895e-02 -5.9808880090713501e-02 -6.8972066044807434e-02 -8.4575846791267395e-02 1.7691645026206970e-01 -1.9741520285606384e-02 -7.1994543075561523e-02 -4.3820396065711975e-02 2.7000565081834793e-02 6.3033364713191986e-02 -8.4154801443219185e-03 8.3425998687744141e-02 2.3460008203983307e-01 
      </Weights>
      <Biases rows="16" cols="1">
        -2.5030793622136116e-02 4.8561912029981613e-02 2.5050632655620575e-02 5.1576709747314453e-01 2.2060289047658443e-03 -4.3187141418457031e-02 3.6587826907634735e-02 -6.8189643323421478e-02 9.9693693220615387e-02 -7.3831640183925629e-02 -1.2649212032556534e-02 1.2001598952338099e-03 -8.9059680700302124e-02 -4.1457030922174454e-02 9.0259149670600891e-02 -8.2587726414203644e-02 
      </Biases>
    </Layer>
    <Layer ActivationFunction="0">
      <Weights rows="1" cols="16">
        1.4103791117668152e-01 -1.9844447076320648e-01 3.4282904863357544e-01 -3.9771524071693420e-01 -3.5232886672019958e-01 -3.4165236353874207e-01 -8.3194620907306671e-02 1.6364692151546478e-01 3.8220226764678955e-01 1.7217919230461121e-01 4.2140477895736694e-01 1.6239461302757263e-01 1.6698265075683594e-01 2.1423512697219849e-01 -2.1912324428558350e-01 2.7793717384338379e-01 
      </Weights>
      <Biases rows="1" cols="1">
        -7.8654594719409943e-02 
      </Biases>
    </Layer>
  </Weights>
</MethodSetup>
