<?xml version="1.0"?>
<MethodSetup Method="DNN::DNN_NanoV9_V1_2020_BMET_x1_test">
  <GeneralInfo>
    <Info name="TMVA Release" value="4.2.1 [262657]"/>
    <Info name="ROOT Release" value="6.12/07 [396295]"/>
    <Info name="Creator" value="hum"/>
    <Info name="Date" value="Mon Feb 28 12:58:21 2022"/>
    <Info name="Host" value="Linux vocms0301.cern.ch 2.6.32-696.30.1.el6.x86_64 #1 SMP Tue May 22 06:09:36 CEST 2018 x86_64 x86_64 x86_64 GNU/Linux"/>
    <Info name="Dir" value="/afs/cern.ch/work/h/hum/public/CMSSW_10_2_13/src/ChargedHiggs/Analysis"/>
    <Info name="Training events" value="12687"/>
    <Info name="TrainingTime" value="3.19199014e+00"/>
    <Info name="AnalysisType" value="Classification"/>
  </GeneralInfo>
  <Options>
    <Option name="V" modified="Yes">True</Option>
    <Option name="VerbosityLevel" modified="No">Verbose</Option>
    <Option name="VarTransform" modified="Yes">N</Option>
    <Option name="H" modified="Yes">False</Option>
    <Option name="CreateMVAPdfs" modified="No">False</Option>
    <Option name="IgnoreNegWeightsInTraining" modified="No">False</Option>
    <Option name="Layout" modified="Yes">SIGMOID|16,TANH|16,TANH|16,LINEAR</Option>
    <Option name="ValidationSize" modified="No">20%</Option>
    <Option name="ErrorStrategy" modified="Yes">CROSSENTROPY</Option>
    <Option name="WeightInitialization" modified="Yes">XAVIERUNIFORM</Option>
    <Option name="Architecture" modified="Yes">CPU</Option>
    <Option name="TrainingStrategy" modified="Yes">LearningRate=1e-1,Momentum=0.4,Repetitions=1,ConvergenceSteps=20,BatchSize=256,TestRepetitions=10,WeightDecay=1e-4,Regularization=L2,DropConfig=0.0+0.1+0.25+0.5,</Option>
  </Options>
  <Variables NVar="11">
    <Variable VarIndex="0" Expression="j1QGL" Label="j1QGL" Title="j1QGL" Unit="" Internal="j1QGL" Type="F" Min="-1.00000000e+00" Max="1.00000000e+00"/>
    <Variable VarIndex="1" Expression="j2QGL" Label="j2QGL" Title="j2QGL" Unit="" Internal="j2QGL" Type="F" Min="-1.00000000e+00" Max="9.99511719e-01"/>
    <Variable VarIndex="2" Expression="varMjj" Label="varMjj" Title="varMjj" Unit="" Internal="varMjj" Type="F" Min="5.00013641e+02" Max="7.04330469e+03"/>
    <Variable VarIndex="3" Expression="varDetajj" Label="varDetajj" Title="varDetajj" Unit="" Internal="varDetajj" Type="F" Min="2.50036621e+00" Max="8.62402344e+00"/>
    <Variable VarIndex="4" Expression="varJet1Pt" Label="varJet1Pt" Title="varJet1Pt" Unit="" Internal="varJet1Pt" Type="F" Min="5.00312500e+01" Max="1.95400000e+03"/>
    <Variable VarIndex="5" Expression="abs(varJet2Eta)" Label="abs(varJet2Eta)" Title="abs(varJet2Eta)" Unit="" Internal="abs_varJet2Eta_" Type="F" Min="2.68816948e-04" Max="4.68847656e+00"/>
    <Variable VarIndex="6" Expression="varJet2Pt" Label="varJet2Pt" Title="varJet2Pt" Unit="" Internal="varJet2Pt" Type="F" Min="5.00000000e+01" Max="1.31400000e+03"/>
    <Variable VarIndex="7" Expression="varMTVV" Label="varMTVV" Title="varMTVV" Unit="" Internal="varMTVV" Type="F" Min="5.83506653e+02" Max="4.15952832e+03"/>
    <Variable VarIndex="8" Expression="varCen" Label="varCen" Title="varCen" Unit="" Internal="varCen" Type="F" Min="-1.99127197e+00" Max="4.30202484e+00"/>
    <Variable VarIndex="9" Expression="varDRV2j" Label="varDRV2j" Title="varDRV2j" Unit="" Internal="varDRV2j" Type="F" Min="1.20072842e+00" Max="4.76206589e+00"/>
    <Variable VarIndex="10" Expression="varnormPTVVjj" Label="varnormPTVVjj" Title="varnormPTVVjj" Unit="" Internal="varnormPTVVjj" Type="F" Min="4.41970478e-04" Max="2.49216720e-01"/>
  </Variables>
  <Spectators NSpec="0"/>
  <Classes NClass="2">
    <Class Name="Signal" Index="0"/>
    <Class Name="Background" Index="1"/>
  </Classes>
  <Transformations NTransformations="1">
    <Transform Name="Normalize">
      <Selection>
        <Input NInputs="11">
          <Input Type="Variable" Label="j1QGL" Expression="j1QGL"/>
          <Input Type="Variable" Label="j2QGL" Expression="j2QGL"/>
          <Input Type="Variable" Label="varMjj" Expression="varMjj"/>
          <Input Type="Variable" Label="varDetajj" Expression="varDetajj"/>
          <Input Type="Variable" Label="varJet1Pt" Expression="varJet1Pt"/>
          <Input Type="Variable" Label="abs(varJet2Eta)" Expression="abs(varJet2Eta)"/>
          <Input Type="Variable" Label="varJet2Pt" Expression="varJet2Pt"/>
          <Input Type="Variable" Label="varMTVV" Expression="varMTVV"/>
          <Input Type="Variable" Label="varCen" Expression="varCen"/>
          <Input Type="Variable" Label="varDRV2j" Expression="varDRV2j"/>
          <Input Type="Variable" Label="varnormPTVVjj" Expression="varnormPTVVjj"/>
        </Input>
        <Output NOutputs="11">
          <Output Type="Variable" Label="j1QGL" Expression="j1QGL"/>
          <Output Type="Variable" Label="j2QGL" Expression="j2QGL"/>
          <Output Type="Variable" Label="varMjj" Expression="varMjj"/>
          <Output Type="Variable" Label="varDetajj" Expression="varDetajj"/>
          <Output Type="Variable" Label="varJet1Pt" Expression="varJet1Pt"/>
          <Output Type="Variable" Label="abs(varJet2Eta)" Expression="abs(varJet2Eta)"/>
          <Output Type="Variable" Label="varJet2Pt" Expression="varJet2Pt"/>
          <Output Type="Variable" Label="varMTVV" Expression="varMTVV"/>
          <Output Type="Variable" Label="varCen" Expression="varCen"/>
          <Output Type="Variable" Label="varDRV2j" Expression="varDRV2j"/>
          <Output Type="Variable" Label="varnormPTVVjj" Expression="varnormPTVVjj"/>
        </Output>
      </Selection>
      <Class ClassIndex="0">
        <Ranges>
          <Range Index="0" Min="-1.0000000000000000e+00" Max="1.0000000000000000e+00"/>
          <Range Index="1" Min="-1.0000000000000000e+00" Max="9.9951171875000000e-01"/>
          <Range Index="2" Min="5.0001364135742188e+02" Max="7.0433046875000000e+03"/>
          <Range Index="3" Min="2.5003662109375000e+00" Max="8.6240234375000000e+00"/>
          <Range Index="4" Min="5.0031250000000000e+01" Max="1.7640000000000000e+03"/>
          <Range Index="5" Min="3.4251213073730469e-03" Max="4.6884765625000000e+00"/>
          <Range Index="6" Min="5.0000000000000000e+01" Max="1.2130000000000000e+03"/>
          <Range Index="7" Min="5.8350665283203125e+02" Max="4.1595283203125000e+03"/>
          <Range Index="8" Min="-1.9912719726562500e+00" Max="4.3020248413085938e+00"/>
          <Range Index="9" Min="1.2007284164428711e+00" Max="4.7620658874511719e+00"/>
          <Range Index="10" Min="4.4197047827765346e-04" Max="2.4731655418872833e-01"/>
        </Ranges>
      </Class>
      <Class ClassIndex="1">
        <Ranges>
          <Range Index="0" Min="-1.0000000000000000e+00" Max="1.0000000000000000e+00"/>
          <Range Index="1" Min="-1.0000000000000000e+00" Max="9.9951171875000000e-01"/>
          <Range Index="2" Min="5.0030410766601562e+02" Max="5.8036440429687500e+03"/>
          <Range Index="3" Min="2.5010986328125000e+00" Max="7.8945312500000000e+00"/>
          <Range Index="4" Min="5.1625000000000000e+01" Max="1.9540000000000000e+03"/>
          <Range Index="5" Min="2.6881694793701172e-04" Max="4.5205078125000000e+00"/>
          <Range Index="6" Min="5.0031250000000000e+01" Max="1.3140000000000000e+03"/>
          <Range Index="7" Min="5.8414392089843750e+02" Max="2.8000776367187500e+03"/>
          <Range Index="8" Min="-1.8515625000000000e+00" Max="3.6512451171875000e+00"/>
          <Range Index="9" Min="1.2022379636764526e+00" Max="4.1458735466003418e+00"/>
          <Range Index="10" Min="5.3273286903277040e-04" Max="2.4921672046184540e-01"/>
        </Ranges>
      </Class>
      <Class ClassIndex="2">
        <Ranges>
          <Range Index="0" Min="-1.0000000000000000e+00" Max="1.0000000000000000e+00"/>
          <Range Index="1" Min="-1.0000000000000000e+00" Max="9.9951171875000000e-01"/>
          <Range Index="2" Min="5.0001364135742188e+02" Max="7.0433046875000000e+03"/>
          <Range Index="3" Min="2.5003662109375000e+00" Max="8.6240234375000000e+00"/>
          <Range Index="4" Min="5.0031250000000000e+01" Max="1.9540000000000000e+03"/>
          <Range Index="5" Min="2.6881694793701172e-04" Max="4.6884765625000000e+00"/>
          <Range Index="6" Min="5.0000000000000000e+01" Max="1.3140000000000000e+03"/>
          <Range Index="7" Min="5.8350665283203125e+02" Max="4.1595283203125000e+03"/>
          <Range Index="8" Min="-1.9912719726562500e+00" Max="4.3020248413085938e+00"/>
          <Range Index="9" Min="1.2007284164428711e+00" Max="4.7620658874511719e+00"/>
          <Range Index="10" Min="4.4197047827765346e-04" Max="2.4921672046184540e-01"/>
        </Ranges>
      </Class>
    </Transform>
  </Transformations>
  <MVAPdfs/>
  <Weights InputWidth="11" Depth="4" LossFunction="C" OutputFunction="S">
    <Layer ActivationFunction="2">
      <Weights rows="16" cols="11">
        3.2245993614196777e-01 -2.2942450642585754e-01 1.1478583812713623e+00 2.2997295856475830e-01 2.9096403717994690e-01 3.2556843757629395e-01 1.4466606080532074e-02 5.6489390134811401e-01 3.3829417824745178e-01 7.6021738350391388e-02 -8.8744908571243286e-01 9.3191944062709808e-02 4.7150433063507080e-01 1.0738573074340820e+00 1.7170657217502594e-01 -6.8176008760929108e-02 4.3817874044179916e-02 1.7213223874568939e-01 3.6878892779350281e-01 3.6170989274978638e-01 -2.6109486818313599e-01 -4.7410243749618530e-01 3.1596386432647705e-01 5.5678153038024902e-01 1.6857360601425171e+00 4.8072960972785950e-01 -1.3252995908260345e-01 -1.8249596655368805e-01 1.6313669085502625e-01 8.7865614891052246e-01 2.3857034742832184e-01 -3.5002937912940979e-01 -1.2187652587890625e+00 1.1714306473731995e-01 3.1325089931488037e-01 3.3376842737197876e-01 1.7537389695644379e-01 -6.1623532325029373e-02 -2.6407536864280701e-01 2.9439103603363037e-01 2.6349481940269470e-01 2.0432095229625702e-01 -5.9308195486664772e-03 -3.8482651114463806e-01 -5.3963321447372437e-01 -4.3199881911277771e-01 -1.0619249343872070e+00 -7.3990142345428467e-01 5.6293819099664688e-02 2.5560575723648071e-01 1.1458572745323181e-01 -2.9889872670173645e-01 -7.3514968156814575e-01 5.4634653031826019e-02 5.8511346578598022e-01 -1.7622613906860352e-01 6.6420555114746094e-01 7.3342525959014893e-01 5.3557172417640686e-02 3.8574746251106262e-01 -1.2442508712410927e-02 1.2568642199039459e-01 6.3201987743377686e-01 2.7414050698280334e-01 1.4357912540435791e-01 -3.8268187642097473e-01 3.4604191780090332e-01 1.6198767721652985e-01 -2.3945704102516174e-01 -5.1519300788640976e-02 1.7865860462188721e-01 2.1366229653358459e-01 7.1273654699325562e-02 -3.2543173432350159e-01 -9.4833910465240479e-02 2.1083527803421021e-01 -1.2127542495727539e-01 -4.8190787434577942e-02 -5.6717261672019958e-02 -1.4129795134067535e-01 -2.6680275797843933e-01 -3.4664678573608398e-01 3.5748004913330078e-01 3.2899194955825806e-01 -7.9052053391933441e-02 -7.4502319097518921e-02 2.0271228253841400e-01 5.1109081506729126e-01 -2.9153802990913391e-01 2.3592977225780487e-01 -6.2326711416244507e-01 -7.5891382992267609e-02 9.4395212829113007e-02 3.1795179843902588e-01 -2.3493970930576324e-01 -5.0679817795753479e-02 -2.1188947558403015e-01 4.9311548471450806e-01 3.2114022970199585e-01 -1.4214651286602020e-01 -3.6030691862106323e-01 -7.6720374822616577e-01 -3.5734593868255615e-01 2.6597099378705025e-02 -2.0406760275363922e-01 -1.4986887574195862e-01 -5.4435938596725464e-01 -5.0449138879776001e-01 2.8881292790174484e-02 8.3990001678466797e-01 1.4431810379028320e-01 -4.4212046265602112e-01 -4.0072521567344666e-01 -3.9469292759895325e-01 1.0278767347335815e-01 3.1652113795280457e-01 -2.9415065050125122e-01 8.3411894738674164e-02 1.6974790021777153e-02 1.2651978433132172e-01 5.3837561607360840e-01 -5.4980617761611938e-01 -8.1673353910446167e-02 -5.8235454559326172e-01 -2.1340940892696381e-01 -1.0826823115348816e-01 1.2644621729850769e-01 -3.5023844242095947e-01 -6.7548871040344238e-02 1.0145600885152817e-01 2.2375445067882538e-01 -3.5175744444131851e-02 -8.3152018487453461e-02 -2.5772073864936829e-01 -5.0881493091583252e-01 1.6008006036281586e-01 -2.2811812162399292e-01 -1.9439314305782318e-01 -1.2030435353517532e-01 -3.1120961904525757e-01 -1.2663412094116211e-01 2.3763519525527954e-01 2.8329834342002869e-01 -1.5894123911857605e-01 4.1142693161964417e-01 1.3137950003147125e-01 4.9218204617500305e-01 4.4858369231224060e-01 -1.4071138203144073e-01 2.4555127322673798e-01 3.0955743789672852e-01 3.6094322800636292e-01 -2.5940936803817749e-01 -7.5835503637790680e-02 -8.9593432843685150e-02 -4.5362478494644165e-01 -2.6194751262664795e-01 3.7338931113481522e-02 -3.1917876005172729e-01 2.1635155379772186e-01 -1.0666576772928238e-01 9.2150665819644928e-02 2.3463450372219086e-02 4.2184296250343323e-01 -1.3250541687011719e-01 -4.2738544940948486e-01 -1.5520232915878296e-01 -9.7325956821441650e-01 -3.8501885533332825e-01 -2.9040235280990601e-01 -2.4529248476028442e-01 2.7124178409576416e-01 -4.3195429444313049e-01 -3.4761473536491394e-01 2.6581417769193649e-03 6.9133526086807251e-01 
      </Weights>
      <Biases rows="16" cols="1">
        3.6590594053268433e-01 4.6863041818141937e-02 4.4861581921577454e-01 -7.4427746236324310e-02 -2.7624738216400146e-01 3.0314090847969055e-01 -1.1858648806810379e-01 -6.5376929938793182e-02 -2.0898255705833435e-01 -1.8422926962375641e-01 -9.6341548487544060e-03 -2.1058031916618347e-01 -1.3349653780460358e-01 2.9887543991208076e-02 -8.2979992032051086e-02 -2.8372660279273987e-01 
      </Biases>
    </Layer>
    <Layer ActivationFunction="3">
      <Weights rows="16" cols="16">
        4.7859951853752136e-01 -2.3669769987463951e-02 5.0305908918380737e-01 4.6231228858232498e-02 1.3171088695526123e-01 5.5909073352813721e-01 -2.2004050016403198e-01 6.4800046384334564e-02 -5.1027375459671021e-01 1.3722823560237885e-01 -2.7581462264060974e-01 -1.3099518418312073e-01 3.3720776438713074e-02 1.9705189764499664e-01 -1.5828453004360199e-01 -2.6396501064300537e-01 1.9310051202774048e-01 3.0392432585358620e-02 7.1859322488307953e-02 1.8841025233268738e-01 -7.5013391673564911e-02 -4.9111223779618740e-04 -6.2344953417778015e-02 3.5341694951057434e-02 1.4910554885864258e-01 -1.4960314333438873e-01 -3.1319928169250488e-01 -1.6643521189689636e-01 -4.1966274380683899e-02 2.1288120746612549e-01 -2.2118276357650757e-01 -4.9131132662296295e-02 2.2942213341593742e-02 2.6948997378349304e-01 4.7738599777221680e-01 -2.5509681552648544e-02 -3.1413964927196503e-02 -1.4974449574947357e-01 -1.3925921916961670e-01 1.1071617156267166e-01 -2.4482919275760651e-01 4.2843192815780640e-02 1.5271984040737152e-02 -1.7159256339073181e-01 -2.1185761690139771e-01 -4.4956676661968231e-02 -1.6538323462009430e-01 -1.9489879906177521e-01 1.6610313951969147e-01 2.0946583151817322e-01 1.4998435974121094e-01 -2.6931503787636757e-02 -4.2127725481987000e-01 -1.4398653805255890e-01 -5.6071445345878601e-02 -3.3474913239479065e-01 2.4591629207134247e-01 6.2702931463718414e-02 -1.9040779769420624e-01 2.4364717304706573e-01 4.6634204685688019e-02 8.6219906806945801e-02 2.2897966206073761e-01 -8.6538039147853851e-02 4.9193954467773438e-01 2.8283154964447021e-01 4.5285335183143616e-01 1.7663973569869995e-01 -2.4176102876663208e-01 6.7259095609188080e-02 -9.4385743141174316e-02 8.5237972438335419e-02 -1.5091915428638458e-01 -3.7485265731811523e-01 -1.7713931202888489e-01 5.3196910768747330e-02 -2.1918269991874695e-01 5.6813046336174011e-02 -2.1351022645831108e-02 6.5436832606792450e-02 -1.5998658537864685e-01 -3.3797758817672729e-01 2.2045920789241791e-01 2.4148413538932800e-01 -1.6877813264727592e-02 -1.8085978925228119e-02 7.7293522655963898e-02 2.2188685834407806e-01 -8.6342193186283112e-02 2.7353507280349731e-01 -4.3559305369853973e-02 9.3546234071254730e-02 1.1747938394546509e-01 1.7480251193046570e-01 -1.9405443966388702e-01 1.6614985466003418e-01 2.4491727352142334e-01 5.1167857646942139e-01 3.3653208613395691e-01 1.8513350188732147e-01 -1.5318390727043152e-01 1.5501281619071960e-01 -7.0619650185108185e-02 1.0918612033128738e-01 -3.4274545311927795e-01 -1.2011580914258957e-01 -2.5444126129150391e-01 -1.5577912330627441e-01 -2.7167186141014099e-01 2.2673097252845764e-01 1.8864050507545471e-01 -3.3640781044960022e-01 4.6466806530952454e-01 1.7602419853210449e-01 4.9175792932510376e-01 4.3631070852279663e-01 -2.4980434775352478e-01 5.5220121145248413e-01 1.4598330482840538e-02 6.0685325413942337e-02 4.6179391443729401e-02 -3.2068383693695068e-01 -2.3615766316652298e-02 -1.7857262492179871e-01 -1.9708500802516937e-01 -4.6793319284915924e-02 3.2989490777254105e-02 -3.7247747182846069e-01 1.9248741865158081e-01 3.2588803768157959e-01 1.2240598350763321e-01 -2.1499414741992950e-01 9.0860426425933838e-02 -6.4586438238620758e-02 -1.4269462227821350e-01 2.8579968214035034e-01 -2.5731521844863892e-01 -1.5681776404380798e-01 -9.5350243151187897e-02 -1.1362259835004807e-01 -8.2014109939336777e-03 1.3681216537952423e-01 7.0924520492553711e-02 -6.8011268973350525e-02 5.3393429517745972e-01 6.6746592521667480e-02 5.5642533302307129e-01 4.1057083010673523e-01 -1.3337370753288269e-01 3.5072991251945496e-01 -6.3864752650260925e-02 1.8410104513168335e-01 -3.8351759314537048e-01 3.5360362380743027e-04 -1.3797825574874878e-01 -3.7305107712745667e-01 -3.2890996336936951e-01 8.6593165993690491e-02 -3.0496701598167419e-01 1.5055836737155914e-01 6.2766335904598236e-02 2.5957018136978149e-01 2.5008496642112732e-01 3.9557740092277527e-01 -2.1789893507957458e-01 3.8026355206966400e-02 -1.7296599224209785e-02 -3.0586075782775879e-01 -1.1581780016422272e-01 -2.3083753883838654e-01 -2.8678637742996216e-01 1.9913658499717712e-01 -2.4229858815670013e-01 4.3616302311420441e-02 -1.6829922795295715e-01 1.4763467013835907e-01 5.1318442821502686e-01 3.3982133865356445e-01 5.5940765142440796e-01 -1.0212115943431854e-02 2.0137168467044830e-02 5.5983554571866989e-02 5.6392531841993332e-02 -3.0579948425292969e-01 -3.9354461431503296e-01 -4.1372421383857727e-01 2.1586623042821884e-02 7.2729319334030151e-02 -3.9403015375137329e-01 -1.9016471505165100e-01 2.8888469934463501e-01 2.8862524032592773e-01 -1.6488116979598999e-01 -3.5008305311203003e-01 -6.1339253187179565e-01 1.5515127219259739e-02 7.1688771247863770e-02 -4.9420738220214844e-01 2.5181448459625244e-01 2.3644046485424042e-01 4.1411072015762329e-01 2.5246745347976685e-01 1.9485588371753693e-01 1.7492571473121643e-01 2.2967436909675598e-01 -1.7510104179382324e-01 -9.4874940812587738e-02 2.0573738217353821e-01 -2.0558929443359375e-01 -2.4488888680934906e-01 1.5817716717720032e-01 -1.9081965088844299e-02 -7.9746268689632416e-02 4.5063100755214691e-02 1.6258209943771362e-02 -3.1707897782325745e-02 -8.3478637039661407e-02 -2.6854071021080017e-01 -2.3383526504039764e-01 -1.5609097480773926e-01 -1.8993835151195526e-01 -4.6617370098829269e-02 -8.4631137549877167e-02 -5.2577927708625793e-02 -2.8582714498043060e-02 -1.8069477379322052e-01 5.0709968805313110e-01 1.1351873725652695e-01 -1.3022663071751595e-02 3.8496127724647522e-01 -3.3000680804252625e-01 -2.5308364629745483e-01 8.2708366215229034e-02 -2.2939918935298920e-01 -2.0259539783000946e-01 -3.2285094261169434e-01 2.2026155889034271e-01 -1.5274831652641296e-01 -3.3165283501148224e-02 2.9935702681541443e-01 7.2502267360687256e-01 5.7585883140563965e-01 3.1563028693199158e-01 5.6950736045837402e-01 -4.7151643037796021e-01 3.5839095711708069e-01 5.4825145751237869e-02 -2.7633696794509888e-02 -5.5564302206039429e-01 1.4811661839485168e-01 -9.9051326513290405e-02 -5.4463956505060196e-02 5.7043293491005898e-03 5.0799738615751266e-02 -1.7541842535138130e-02 -3.3114138245582581e-01 
      </Weights>
      <Biases rows="16" cols="1">
        5.8844342827796936e-02 4.0840793401002884e-02 1.9575046002864838e-01 -7.0154063403606415e-02 3.5380129702389240e-03 -1.2354082614183426e-01 8.8082835078239441e-02 9.8135069012641907e-02 5.2163381129503250e-02 5.0542116165161133e-02 9.2863187193870544e-02 1.5024526044726372e-02 -1.0895229876041412e-01 6.7938856780529022e-02 9.3835085630416870e-02 2.7291032671928406e-01 
      </Biases>
    </Layer>
    <Layer ActivationFunction="3">
      <Weights rows="16" cols="16">
        1.6964830458164215e-01 -3.0138683319091797e-01 2.0248043537139893e-01 -1.8715141713619232e-01 1.7847968637943268e-01 2.6914736628532410e-01 2.2482760250568390e-02 1.3563531637191772e-01 -1.2796232104301453e-01 2.6875692605972290e-01 -1.2002235651016235e-01 -6.7825466394424438e-02 2.1534331142902374e-01 2.5606825947761536e-01 -1.5800398588180542e-01 -2.2554042935371399e-01 -5.3256206214427948e-02 -8.9502803981304169e-02 -2.3863589763641357e-01 1.1155734956264496e-01 -2.4543979763984680e-01 -7.9221270978450775e-02 -4.9455851316452026e-02 -1.6476577520370483e-01 1.7255042493343353e-01 -3.4745898842811584e-01 -2.9279607534408569e-01 -3.2010033726692200e-02 2.4029891192913055e-01 2.4196464568376541e-02 -2.9221212863922119e-01 -4.0242925286293030e-01 -2.8099122643470764e-01 3.9576053619384766e-02 1.2307856976985931e-01 -2.2176121175289154e-01 -1.2229678034782410e-01 -2.5474286079406738e-01 -2.1353355050086975e-01 -3.1758792698383331e-02 -1.8115589022636414e-01 -9.3080200254917145e-02 -4.5633178204298019e-02 -2.2056815028190613e-01 -1.0512037575244904e-01 -2.4002723395824432e-01 -2.5627738237380981e-01 -4.1366377472877502e-01 1.5016548335552216e-01 1.8623551726341248e-01 1.3108314573764801e-01 1.3393923640251160e-02 -3.4869289398193359e-01 -1.2895625829696655e-01 -1.5219409018754959e-02 -3.1043046712875366e-01 2.9760527610778809e-01 8.9582078158855438e-02 -1.5657389163970947e-01 2.7745926380157471e-01 1.1319267004728317e-01 9.6348777413368225e-02 2.6643395423889160e-01 -3.3144541084766388e-02 4.5641556382179260e-01 9.4527892768383026e-02 3.9147225022315979e-01 5.5632632225751877e-02 -1.5837828814983368e-01 -5.3673431277275085e-02 1.4441022276878357e-01 3.2635390758514404e-01 1.0946265608072281e-01 2.4605691432952881e-03 -4.4727336615324020e-02 8.6353562772274017e-02 -2.4380424618721008e-01 1.8571224808692932e-01 5.3649707697331905e-03 3.5349729657173157e-01 -7.5269602239131927e-02 -1.9228309392929077e-01 3.1462380290031433e-01 2.8268995881080627e-01 1.0279048234224319e-01 2.8082357719540596e-02 1.8180528283119202e-01 3.2987064123153687e-01 -8.4922369569540024e-03 3.4758403897285461e-01 3.3534642308950424e-02 1.1663276702165604e-01 6.2379837036132812e-02 2.2086362540721893e-01 -1.1805446445941925e-01 2.9838466644287109e-01 -2.1679408382624388e-03 2.8580629825592041e-01 4.8117782920598984e-02 5.8197565376758575e-02 -1.1531892418861389e-01 -3.3894594758749008e-02 4.3404083698987961e-02 1.1903331428766251e-01 -1.8625171482563019e-01 -7.2253681719303131e-02 -2.0216986536979675e-01 -1.0576120764017105e-01 -8.5291273891925812e-02 1.4907863736152649e-01 1.5938235819339752e-01 -3.2685571908950806e-01 9.4261802732944489e-02 -1.1579179763793945e-01 2.1321704983711243e-01 2.7620434761047363e-01 -1.3739982247352600e-01 2.9802075028419495e-01 1.7274498939514160e-01 8.1406362354755402e-02 2.8922051191329956e-01 -3.0114120244979858e-01 8.1189163029193878e-02 -1.6629332304000854e-01 -4.6338934451341629e-02 -7.2778269648551941e-02 1.0729558765888214e-01 -3.0291059613227844e-01 1.1223298311233521e-01 2.0779891312122345e-01 7.3541842401027679e-02 -2.7950796484947205e-01 -1.5831440687179565e-02 -1.2616501748561859e-01 -1.3533926010131836e-01 2.6301267743110657e-01 -1.6685117781162262e-01 -1.4192987978458405e-01 -9.3904592096805573e-02 -1.2790408730506897e-01 2.5116952136158943e-02 1.7188477516174316e-01 4.2970575392246246e-02 -1.3050843775272369e-01 3.6763539910316467e-01 -1.4006587862968445e-01 3.5203740000724792e-01 3.7359353899955750e-01 -2.2277789190411568e-02 2.3585344851016998e-01 1.9166824221611023e-01 3.6607962846755981e-01 -1.5382307767868042e-01 1.6173610091209412e-01 -2.8233723714947701e-02 -3.3186787366867065e-01 -2.3460058867931366e-01 1.4596284925937653e-01 -3.4546336531639099e-01 2.8241702914237976e-01 -6.5218746662139893e-02 5.4299291223287582e-02 1.3491863012313843e-01 2.9845380783081055e-01 -2.1114556491374969e-01 -1.5811942517757416e-01 9.0929150581359863e-02 -2.7331438660621643e-01 -2.9201934114098549e-02 -9.1672040522098541e-02 -2.3505218327045441e-01 2.0402371883392334e-01 -2.3404805362224579e-01 9.1033414006233215e-02 -1.5258903801441193e-01 2.1224030852317810e-01 3.1255185604095459e-01 1.1156495660543442e-01 4.0989363193511963e-01 -2.3035433888435364e-01 9.5906712114810944e-02 -9.7493581473827362e-02 3.4453260898590088e-01 -4.7971252351999283e-02 -7.3538306169211864e-03 -1.6083386726677418e-03 1.6840024292469025e-01 2.1260559558868408e-01 -3.4191915392875671e-01 -1.1605715751647949e-01 2.8353422880172729e-01 4.9525380134582520e-01 2.4422319233417511e-01 -2.6911394670605659e-02 -7.2302818298339844e-02 8.1394679844379425e-02 1.2561899423599243e-01 -2.1157169342041016e-01 1.1785177141427994e-01 3.4084400534629822e-01 3.0686739087104797e-01 3.6626011133193970e-01 1.5484915673732758e-01 3.5811267793178558e-02 -1.6586183011531830e-01 8.7147681042551994e-03 2.5167265906929970e-02 4.8281469941139221e-01 -3.3602961897850037e-01 -2.7435573935508728e-01 -1.5606252476572990e-02 -6.2822759151458740e-02 -1.1834456026554108e-01 -6.9749876856803894e-02 -3.0837466940283775e-02 -1.2442925572395325e-01 -1.1769772320985794e-01 -4.1895440220832825e-01 -2.3323149979114532e-01 -1.5888789296150208e-01 -1.3611899316310883e-01 -1.7229224741458893e-01 -1.0934643447399139e-01 -2.1262921392917633e-01 -3.4232777357101440e-01 -3.9025202393531799e-01 2.1953736245632172e-01 7.8008942306041718e-02 -1.6161449253559113e-01 9.8436720669269562e-02 -4.2694330215454102e-01 -4.2539602518081665e-01 -3.7431612610816956e-02 -4.8095455765724182e-01 -2.2131730616092682e-01 -2.5162163376808167e-01 5.5456596612930298e-01 -2.7080321311950684e-01 -2.5582697987556458e-01 1.1408657580614090e-01 4.8538397997617722e-02 1.4797167479991913e-01 -2.1486972272396088e-01 2.4085663259029388e-01 -3.8947498798370361e-01 5.1988963969051838e-03 1.1372826993465424e-01 -2.1773687005043030e-01 -4.2989647388458252e-01 -2.1869784593582153e-01 -2.4097857996821404e-02 -1.2960357964038849e-01 3.8425624370574951e-01 -9.2102520167827606e-02 -2.1429069340229034e-02 -5.1518815755844116e-01 
      </Weights>
      <Biases rows="16" cols="1">
        2.8752978891134262e-02 -8.4379129111766815e-02 3.7900183349847794e-02 2.8784316033124924e-02 1.8421454727649689e-01 2.2235376760363579e-02 4.1401397436857224e-02 -2.4478749837726355e-03 2.6940474286675453e-02 1.1390610784292221e-01 -3.2651361078023911e-02 1.3662959635257721e-01 6.1213932931423187e-02 -2.6747878640890121e-02 4.3964117765426636e-02 -1.2798294425010681e-01 
      </Biases>
    </Layer>
    <Layer ActivationFunction="0">
      <Weights rows="1" cols="16">
        2.9612737894058228e-01 -4.2401608824729919e-01 -2.4916264414787292e-01 2.3421213030815125e-01 6.4911234378814697e-01 1.0268735140562057e-01 3.6474871449172497e-03 2.3333286866545677e-02 7.0495031774044037e-02 -1.2144257128238678e-01 3.2211187481880188e-01 2.6384332776069641e-01 2.7619656920433044e-01 -7.3474876582622528e-02 -4.7052729129791260e-01 -2.1144726872444153e-01 
      </Weights>
      <Biases rows="1" cols="1">
        2.7201327681541443e-01 
      </Biases>
    </Layer>
  </Weights>
</MethodSetup>
