<?xml version="1.0"?>
<MethodSetup Method="DNN::DNN_NanoV2_2020_taufix_BMET_x2">
  <GeneralInfo>
    <Info name="TMVA Release" value="4.2.1 [262657]"/>
    <Info name="ROOT Release" value="6.12/07 [396295]"/>
    <Info name="Creator" value="hum"/>
    <Info name="Date" value="Sat Sep 11 09:21:42 2021"/>
    <Info name="Host" value="Linux vocms0301.cern.ch 2.6.32-696.30.1.el6.x86_64 #1 SMP Tue May 22 06:09:36 CEST 2018 x86_64 x86_64 x86_64 GNU/Linux"/>
    <Info name="Dir" value="/afs/cern.ch/work/h/hum/public/CMSSW_10_2_13/src/ChargedHiggs/Analysis"/>
    <Info name="Training events" value="5491"/>
    <Info name="TrainingTime" value="1.57858109e+00"/>
    <Info name="AnalysisType" value="Classification"/>
  </GeneralInfo>
  <Options>
    <Option name="V" modified="Yes">True</Option>
    <Option name="VerbosityLevel" modified="No">Verbose</Option>
    <Option name="VarTransform" modified="Yes">N</Option>
    <Option name="H" modified="Yes">False</Option>
    <Option name="CreateMVAPdfs" modified="No">False</Option>
    <Option name="IgnoreNegWeightsInTraining" modified="No">False</Option>
    <Option name="Layout" modified="Yes">SIGMOID|32,TANH|16,TANH|16,LINEAR</Option>
    <Option name="ValidationSize" modified="No">20%</Option>
    <Option name="ErrorStrategy" modified="Yes">CROSSENTROPY</Option>
    <Option name="WeightInitialization" modified="Yes">XAVIERUNIFORM</Option>
    <Option name="Architecture" modified="Yes">CPU</Option>
    <Option name="TrainingStrategy" modified="Yes">LearningRate=1e-1,Momentum=0.9,Repetitions=1,ConvergenceSteps=20,BatchSize=256,TestRepetitions=10,WeightDecay=1e-4,Regularization=L2,DropConfig=0.0+0.1+0.25+0.5,</Option>
  </Options>
  <Variables NVar="10">
    <Variable VarIndex="0" Expression="j1QGL" Label="j1QGL" Title="j1QGL" Unit="" Internal="j1QGL" Type="F" Min="-1.00000000e+00" Max="1.00000000e+00"/>
    <Variable VarIndex="1" Expression="j2QGL" Label="j2QGL" Title="j2QGL" Unit="" Internal="j2QGL" Type="F" Min="-1.00000000e+00" Max="1.00000000e+00"/>
    <Variable VarIndex="2" Expression="varMjj" Label="varMjj" Title="varMjj" Unit="" Internal="varMjj" Type="F" Min="5.00428436e+02" Max="6.16059277e+03"/>
    <Variable VarIndex="3" Expression="varDetajj" Label="varDetajj" Title="varDetajj" Unit="" Internal="varDetajj" Type="F" Min="2.50000000e+00" Max="8.77441406e+00"/>
    <Variable VarIndex="4" Expression="abs(varJet1Eta)" Label="abs(varJet1Eta)" Title="abs(varJet1Eta)" Unit="" Internal="abs_varJet1Eta_" Type="F" Min="5.76019287e-03" Max="4.54882812e+00"/>
    <Variable VarIndex="5" Expression="varJet1Pt" Label="varJet1Pt" Title="varJet1Pt" Unit="" Internal="varJet1Pt" Type="F" Min="5.24062500e+01" Max="1.80000000e+03"/>
    <Variable VarIndex="6" Expression="varJet2Pt" Label="varJet2Pt" Title="varJet2Pt" Unit="" Internal="varJet2Pt" Type="F" Min="5.00000000e+01" Max="1.01000000e+03"/>
    <Variable VarIndex="7" Expression="varMTVV" Label="varMTVV" Title="varMTVV" Unit="" Internal="varMTVV" Type="F" Min="5.83142395e+02" Max="4.61553369e+03"/>
    <Variable VarIndex="8" Expression="varCen" Label="varCen" Title="varCen" Unit="" Internal="varCen" Type="F" Min="-1.74444580e+00" Max="4.02624512e+00"/>
    <Variable VarIndex="9" Expression="varnormPTVVjj" Label="varnormPTVVjj" Title="varnormPTVVjj" Unit="" Internal="varnormPTVVjj" Type="F" Min="3.10590345e-04" Max="2.48427317e-01"/>
  </Variables>
  <Spectators NSpec="0"/>
  <Classes NClass="2">
    <Class Name="Signal" Index="0"/>
    <Class Name="Background" Index="1"/>
  </Classes>
  <Transformations NTransformations="1">
    <Transform Name="Normalize">
      <Selection>
        <Input NInputs="10">
          <Input Type="Variable" Label="j1QGL" Expression="j1QGL"/>
          <Input Type="Variable" Label="j2QGL" Expression="j2QGL"/>
          <Input Type="Variable" Label="varMjj" Expression="varMjj"/>
          <Input Type="Variable" Label="varDetajj" Expression="varDetajj"/>
          <Input Type="Variable" Label="abs(varJet1Eta)" Expression="abs(varJet1Eta)"/>
          <Input Type="Variable" Label="varJet1Pt" Expression="varJet1Pt"/>
          <Input Type="Variable" Label="varJet2Pt" Expression="varJet2Pt"/>
          <Input Type="Variable" Label="varMTVV" Expression="varMTVV"/>
          <Input Type="Variable" Label="varCen" Expression="varCen"/>
          <Input Type="Variable" Label="varnormPTVVjj" Expression="varnormPTVVjj"/>
        </Input>
        <Output NOutputs="10">
          <Output Type="Variable" Label="j1QGL" Expression="j1QGL"/>
          <Output Type="Variable" Label="j2QGL" Expression="j2QGL"/>
          <Output Type="Variable" Label="varMjj" Expression="varMjj"/>
          <Output Type="Variable" Label="varDetajj" Expression="varDetajj"/>
          <Output Type="Variable" Label="abs(varJet1Eta)" Expression="abs(varJet1Eta)"/>
          <Output Type="Variable" Label="varJet1Pt" Expression="varJet1Pt"/>
          <Output Type="Variable" Label="varJet2Pt" Expression="varJet2Pt"/>
          <Output Type="Variable" Label="varMTVV" Expression="varMTVV"/>
          <Output Type="Variable" Label="varCen" Expression="varCen"/>
          <Output Type="Variable" Label="varnormPTVVjj" Expression="varnormPTVVjj"/>
        </Output>
      </Selection>
      <Class ClassIndex="0">
        <Ranges>
          <Range Index="0" Min="-1.0000000000000000e+00" Max="1.0000000000000000e+00"/>
          <Range Index="1" Min="-1.0000000000000000e+00" Max="9.9951171875000000e-01"/>
          <Range Index="2" Min="5.0042843627929688e+02" Max="6.1024248046875000e+03"/>
          <Range Index="3" Min="2.5004882812500000e+00" Max="8.7744140625000000e+00"/>
          <Range Index="4" Min="5.7601928710937500e-03" Max="4.5488281250000000e+00"/>
          <Range Index="5" Min="5.4156250000000000e+01" Max="1.5440000000000000e+03"/>
          <Range Index="6" Min="5.0000000000000000e+01" Max="7.7550000000000000e+02"/>
          <Range Index="7" Min="5.8314239501953125e+02" Max="2.9092182617187500e+03"/>
          <Range Index="8" Min="-1.5736083984375000e+00" Max="4.0262451171875000e+00"/>
          <Range Index="9" Min="3.1059034517966211e-04" Max="2.4842731654644012e-01"/>
        </Ranges>
      </Class>
      <Class ClassIndex="1">
        <Ranges>
          <Range Index="0" Min="-1.0000000000000000e+00" Max="1.0000000000000000e+00"/>
          <Range Index="1" Min="-1.0000000000000000e+00" Max="1.0000000000000000e+00"/>
          <Range Index="2" Min="5.0044863891601562e+02" Max="6.1605927734375000e+03"/>
          <Range Index="3" Min="2.5000000000000000e+00" Max="7.6787109375000000e+00"/>
          <Range Index="4" Min="7.0543289184570312e-03" Max="4.5283203125000000e+00"/>
          <Range Index="5" Min="5.2406250000000000e+01" Max="1.8000000000000000e+03"/>
          <Range Index="6" Min="5.0000000000000000e+01" Max="1.0100000000000000e+03"/>
          <Range Index="7" Min="5.8432653808593750e+02" Max="4.6155336914062500e+03"/>
          <Range Index="8" Min="-1.7444458007812500e+00" Max="3.4231872558593750e+00"/>
          <Range Index="9" Min="6.0445792041718960e-04" Max="2.4823673069477081e-01"/>
        </Ranges>
      </Class>
      <Class ClassIndex="2">
        <Ranges>
          <Range Index="0" Min="-1.0000000000000000e+00" Max="1.0000000000000000e+00"/>
          <Range Index="1" Min="-1.0000000000000000e+00" Max="1.0000000000000000e+00"/>
          <Range Index="2" Min="5.0042843627929688e+02" Max="6.1605927734375000e+03"/>
          <Range Index="3" Min="2.5000000000000000e+00" Max="8.7744140625000000e+00"/>
          <Range Index="4" Min="5.7601928710937500e-03" Max="4.5488281250000000e+00"/>
          <Range Index="5" Min="5.2406250000000000e+01" Max="1.8000000000000000e+03"/>
          <Range Index="6" Min="5.0000000000000000e+01" Max="1.0100000000000000e+03"/>
          <Range Index="7" Min="5.8314239501953125e+02" Max="4.6155336914062500e+03"/>
          <Range Index="8" Min="-1.7444458007812500e+00" Max="4.0262451171875000e+00"/>
          <Range Index="9" Min="3.1059034517966211e-04" Max="2.4842731654644012e-01"/>
        </Ranges>
      </Class>
    </Transform>
  </Transformations>
  <MVAPdfs/>
  <Weights InputWidth="10" Depth="4" LossFunction="C" OutputFunction="S">
    <Layer ActivationFunction="2">
      <Weights rows="32" cols="10">
        -2.2298280894756317e-01 1.0442654043436050e-01 1.7684136331081390e-01 -2.5757545232772827e-01 1.9147504866123199e-01 4.9764160066843033e-02 -1.1994861066341400e-01 6.3512706756591797e-01 1.4181499183177948e-01 1.4527507126331329e-01 -4.1306769847869873e-01 -1.5548007190227509e-01 -8.1711061298847198e-02 -4.5651648193597794e-02 -1.6767509281635284e-01 -5.4282379150390625e-01 2.2982189059257507e-01 -3.7883150577545166e-01 -5.8127392083406448e-02 2.7057895064353943e-01 -2.9362061619758606e-01 7.1414284408092499e-02 -3.3978259563446045e-01 3.7727317214012146e-01 -3.7681373953819275e-01 2.3807887732982635e-01 -4.3496161699295044e-02 -4.8848900198936462e-01 1.0779304802417755e-01 1.4334619045257568e-01 -3.3310243487358093e-01 -5.2090408280491829e-04 -2.9999470710754395e-01 -1.0989017784595490e-01 1.1743452399969101e-01 2.8497460484504700e-01 -1.9906227290630341e-01 -3.5489693284034729e-01 -1.1844964325428009e-01 -1.2202588468790054e-01 -9.8972931504249573e-02 -9.1106392443180084e-02 -5.7130658626556396e-01 -1.1668720096349716e-01 -7.9553104937076569e-02 -2.8075370192527771e-01 1.7607957124710083e-02 -4.8205927014350891e-01 -7.7558592893183231e-03 5.7534331083297729e-01 6.8042978644371033e-02 4.0796983242034912e-01 4.7199153900146484e-01 2.6814636588096619e-01 2.8980365395545959e-01 5.8070504665374756e-01 4.6074980497360229e-01 1.1399759352207184e-01 1.5173175930976868e-01 -1.4614671468734741e-01 -3.2873293757438660e-01 -3.6492764949798584e-01 -1.6592739522457123e-01 -1.4923807978630066e-01 -1.0955384373664856e-01 -2.8828743100166321e-01 -2.5096631050109863e-01 -5.2286320924758911e-01 -3.3575448393821716e-01 1.2641252577304840e-01 -8.6111657321453094e-02 6.1532113701105118e-02 -3.1005048751831055e-01 -8.8639341294765472e-02 -8.1022791564464569e-02 2.2870292887091637e-02 -3.2855078577995300e-01 -1.0483551770448685e-01 -3.5845002532005310e-01 -4.3990705162286758e-02 -7.7096723020076752e-02 -6.0288983583450317e-01 -1.1038953065872192e+00 -3.0958006158471107e-02 -3.9667245745658875e-01 -6.0666465759277344e-01 -1.3845287263393402e-01 -3.8340470194816589e-01 -1.0930249467492104e-02 6.2692505121231079e-01 4.2315390706062317e-01 3.3024728298187256e-01 7.0564550161361694e-01 2.5104451179504395e-01 -6.8461067974567413e-02 7.2513914108276367e-01 2.6966798305511475e-01 2.6258555054664612e-01 1.7248776555061340e-01 1.0995100438594818e-01 1.7990328371524811e-01 -2.1188744902610779e-01 9.1470368206501007e-02 -1.4459151029586792e-01 1.0920421220362186e-02 1.7400072515010834e-01 9.8570138216018677e-02 3.6003220081329346e-01 3.7590503692626953e-02 -3.0299150943756104e-01 -2.9565629363059998e-01 -4.6047613024711609e-01 -6.6926646232604980e-01 2.4068213999271393e-01 8.6986487731337547e-03 -4.8392078280448914e-01 -2.9147633910179138e-01 -2.1675801277160645e-01 -2.4394935369491577e-01 1.8563343212008476e-02 9.4498269259929657e-02 -5.7108674198389053e-02 1.8641965091228485e-01 -7.1315579116344452e-02 -2.8485712409019470e-01 8.0707833170890808e-02 -2.4258357286453247e-01 2.9392239451408386e-01 3.4672748297452927e-02 3.7190896272659302e-01 -2.8567093610763550e-01 -3.1619989871978760e-01 -6.8794184923171997e-01 1.4627657830715179e-01 -1.7264564335346222e-01 -5.0848191976547241e-01 -2.1129691973328590e-02 -3.1734555959701538e-01 -4.5761859416961670e-01 4.1075080633163452e-01 2.6601165533065796e-01 2.8790602087974548e-01 7.9094249010086060e-01 -1.3325743377208710e-01 2.6340660452842712e-01 2.7894017100334167e-01 2.5941765308380127e-01 6.9815856218338013e-01 3.9719140529632568e-01 -5.2323114871978760e-01 1.9554415345191956e-01 1.9739259779453278e-01 3.8700124621391296e-01 2.2563378512859344e-01 -1.8730865418910980e-01 3.8597184419631958e-01 2.6186680793762207e-01 2.2764774039387703e-02 3.1236898899078369e-01 4.1659504175186157e-02 -1.7001783475279808e-02 -4.0225753188133240e-01 -7.6646804809570312e-01 6.3744634389877319e-02 6.3837215304374695e-02 -1.4834505319595337e-01 -2.4327072501182556e-01 -4.3978714942932129e-01 -2.1108746528625488e-02 4.4420954585075378e-01 -3.5953938961029053e-02 1.9853062927722931e-01 -4.5149113982915878e-02 3.8651642203330994e-01 3.1903645396232605e-01 3.5242083668708801e-01 2.2553886473178864e-01 3.5439717769622803e-01 -2.1701861917972565e-01 3.7784183025360107e-01 -2.7302923798561096e-01 -1.1911977827548981e-01 2.9498478770256042e-01 -7.8866675496101379e-02 3.5139077901840210e-01 1.6467931866645813e-01 3.9512440562248230e-01 2.8662106394767761e-01 -2.8872203826904297e-01 -1.1573359370231628e-03 -2.7176836133003235e-01 1.5409113466739655e-01 5.3342062234878540e-01 -8.5606001317501068e-02 1.0519509203732014e-02 5.0649726390838623e-01 -2.3151107132434845e-01 8.2692188024520874e-01 -5.2203096449375153e-02 -4.0274500846862793e-01 -3.8658317923545837e-01 2.0295868813991547e-01 -7.2302788496017456e-02 -8.9901857078075409e-02 -3.3952784538269043e-01 -4.8910278081893921e-01 2.8144976496696472e-01 -6.1233532428741455e-01 1.9844305515289307e-01 3.3432230353355408e-01 -4.2447548359632492e-02 5.3087961673736572e-01 8.1248700618743896e-01 1.6011776030063629e-01 7.4560478329658508e-02 3.5920828580856323e-01 1.6171963512897491e-01 8.8081640005111694e-01 5.4733240604400635e-01 -4.2153733968734741e-01 -1.5136896073818207e-01 -3.7175783514976501e-01 4.9850353598594666e-01 -2.5572037696838379e-01 -5.2260834723711014e-02 5.1748806238174438e-01 2.2867152094841003e-01 -2.8272526338696480e-02 -1.3855564594268799e-01 4.0289200842380524e-02 3.2490447163581848e-01 4.4908482581377029e-02 6.7508798837661743e-01 -1.9267293810844421e-01 2.8707399964332581e-01 4.8091331124305725e-01 2.2637078166007996e-01 7.3127841949462891e-01 -1.7981693148612976e-01 -3.9744418859481812e-01 4.0392270684242249e-01 2.6594218611717224e-01 9.2804533243179321e-01 8.5182420909404755e-02 2.9571902751922607e-01 5.8006131649017334e-01 -1.5486304461956024e-01 6.0268098115921021e-01 5.3862374275922775e-02 1.0786698758602142e-01 -2.4317726492881775e-01 6.9057871587574482e-03 -3.7862908840179443e-01 2.8467169404029846e-01 2.1158258616924286e-01 1.2296731024980545e-01 1.5461854636669159e-01 -4.9781605601310730e-01 -3.4627634286880493e-01 3.5838329792022705e-01 -8.9558027684688568e-02 -9.2910587787628174e-02 4.3654736876487732e-01 2.6104420423507690e-01 -5.8005768805742264e-02 6.8384766578674316e-01 3.0438333749771118e-01 2.2097535431385040e-01 3.4466689825057983e-01 -4.8279482126235962e-01 6.4120322465896606e-02 1.3698522746562958e-01 9.5543366670608521e-01 2.9076096415519714e-01 2.9507610946893692e-02 5.2271252870559692e-01 7.3521360754966736e-02 2.4532377719879150e-01 3.5092830657958984e-01 -4.0030902624130249e-01 3.2563239336013794e-01 3.7939205765724182e-01 1.3218920230865479e+00 3.8249518722295761e-02 3.4717157483100891e-01 4.4110777974128723e-01 1.5283888578414917e-01 7.6842802762985229e-01 5.8626487851142883e-02 -7.8048598766326904e-01 -3.1103080511093140e-01 -4.7556677460670471e-01 -7.0062869787216187e-01 9.7579233348369598e-02 -3.1568118929862976e-01 -1.5891313552856445e-01 7.1280457079410553e-02 -7.6875013113021851e-01 -4.5382119715213776e-02 1.9230996072292328e-01 -2.5325474143028259e-01 -4.0069994330406189e-01 -3.4333395957946777e-01 -1.9054565578699112e-02 1.6402673721313477e-01 -2.1456132829189301e-01 1.0164966434240341e-01 -5.3808331489562988e-02 -2.8860223293304443e-01 8.2902619615197182e-03 -1.4911873638629913e-01 2.3586435243487358e-02 5.5673074722290039e-01 1.9393610954284668e-01 4.9461275339126587e-02 2.1929590404033661e-01 1.6705201566219330e-01 5.3375500440597534e-01 -2.9872521758079529e-02 -1.0881147533655167e-01 
      </Weights>
      <Biases rows="32" cols="1">
        -1.1202536523342133e-01 -1.4525032043457031e-01 -1.5370580554008484e-01 -1.7288863658905029e-01 -2.6549407839775085e-01 3.6888998001813889e-02 -2.3476159572601318e-01 -2.2568923234939575e-01 -5.6880819797515869e-01 2.5342461466789246e-01 -1.3965985178947449e-01 -3.7237128615379333e-01 -1.6681614518165588e-01 -3.4334918856620789e-01 1.7287965118885040e-01 -9.9476031959056854e-02 -4.1198688745498657e-01 -3.8417212665081024e-02 9.4242319464683533e-03 1.6892409324645996e-01 -2.1834833920001984e-01 5.0505065917968750e-01 1.4403183013200760e-02 2.6201936602592468e-01 3.6034283041954041e-01 -1.0029122978448868e-01 1.2972220778465271e-01 2.3672308027744293e-01 5.7207393646240234e-01 -2.8317993879318237e-01 -1.5934213995933533e-01 1.5954242646694183e-01 
      </Biases>
    </Layer>
    <Layer ActivationFunction="3">
      <Weights rows="16" cols="32">
        -1.5651372075080872e-01 2.1986329555511475e-01 -1.7485970631241798e-02 4.1872471570968628e-02 1.5793788433074951e-01 -2.9676121473312378e-01 7.1411117911338806e-02 2.3263339698314667e-01 3.2906636595726013e-01 -2.0991903543472290e-01 -1.6073310375213623e-01 8.2534477114677429e-02 1.5576966106891632e-01 -1.0532007552683353e-02 -2.4691221117973328e-01 -2.3383739590644836e-01 3.0280435085296631e-01 -1.1754027009010315e-01 -1.0323860496282578e-01 -1.2833823263645172e-01 -5.3739488124847412e-02 -3.5257250070571899e-01 -2.2426529228687286e-01 -1.5819309651851654e-01 -5.7070755958557129e-01 3.2120206952095032e-01 -1.9775386154651642e-01 -4.3949800729751587e-01 -4.2263767123222351e-01 2.8009036183357239e-01 -5.8916736394166946e-02 -3.0606806278228760e-01 -8.0002792179584503e-02 -1.7176663875579834e-01 -1.0310770943760872e-02 7.8171283006668091e-02 -2.0593354105949402e-01 -4.2350940406322479e-02 -1.3546897470951080e-01 -1.4590007066726685e-01 -9.8999537527561188e-02 1.8030571937561035e-01 -4.5037148520350456e-03 -1.3872931897640228e-01 5.9211432933807373e-02 1.8904386088252068e-02 1.3908664882183075e-01 -2.5422843173146248e-02 3.4613329917192459e-02 2.5035685300827026e-01 1.3367137312889099e-01 2.8708040714263916e-01 -1.0836339741945267e-01 3.7465476989746094e-01 2.1182017028331757e-01 3.1941041350364685e-01 3.5975614190101624e-01 -2.4691262841224670e-01 1.6432838141918182e-01 4.6631924808025360e-02 9.2443868517875671e-02 -2.2613850235939026e-01 1.2541796267032623e-01 5.2944580093026161e-03 -2.5075597688555717e-02 -5.2435215562582016e-02 -1.1344398558139801e-01 -1.4939768612384796e-01 -1.6695952415466309e-01 1.1547897011041641e-01 -8.0170422792434692e-02 1.1168984323740005e-01 -8.6098343133926392e-02 3.6014638841152191e-02 -4.0507158264517784e-03 5.4733619093894958e-02 -1.7826682329177856e-01 4.5063372701406479e-02 -8.3876572549343109e-02 -7.0104517042636871e-02 -1.8050003796815872e-02 -9.8175175487995148e-02 -6.9869592785835266e-02 1.6234615817666054e-02 -1.9464884698390961e-01 9.0938247740268707e-02 7.0757279172539711e-03 2.3508393764495850e-01 2.5832593441009521e-01 8.6745530366897583e-02 2.6859536767005920e-01 1.8144613504409790e-01 2.2923684120178223e-01 7.0051349699497223e-02 -1.2217762321233749e-01 3.1276312470436096e-01 1.0873224586248398e-01 -1.1055680364370346e-01 7.5502216815948486e-02 1.9461505115032196e-01 1.8883578479290009e-01 -1.0268466919660568e-01 -6.1155527830123901e-02 -8.9474409818649292e-02 5.8743484318256378e-02 -7.8770220279693604e-02 1.4270866289734840e-02 7.7895201742649078e-02 3.0613308772444725e-02 -1.2465500831604004e-01 -6.0295104980468750e-02 -8.7649069726467133e-02 -2.4954162538051605e-02 1.2396340817213058e-01 4.5708127319812775e-02 -1.2326114624738693e-01 -1.4633579552173615e-01 4.5082229189574718e-03 -5.2780777215957642e-02 -1.4042761921882629e-01 8.6407020688056946e-02 8.6707465350627899e-02 9.5963165163993835e-02 -7.2376951575279236e-02 -2.2755441069602966e-01 6.0819547623395920e-02 -1.2082753330469131e-01 4.9446173012256622e-02 -1.0723282396793365e-01 2.5498655438423157e-01 -4.6472363173961639e-02 2.6739579439163208e-01 7.0203974843025208e-02 -2.4849259853363037e-01 1.9979952275753021e-01 -2.7072845026850700e-02 4.0316861867904663e-01 -3.2509383559226990e-01 -1.8441882729530334e-01 1.9709284603595734e-01 9.1344796121120453e-02 1.2608195841312408e-01 -2.1180978417396545e-01 -1.8811322748661041e-01 2.9358056187629700e-01 -1.7819479107856750e-01 -1.2106525897979736e-01 -2.2874771058559418e-01 2.0013713836669922e-01 -7.9873818159103394e-01 -8.2414068281650543e-02 -3.6619615554809570e-01 -4.7872900962829590e-01 2.6999130845069885e-01 -3.9407235383987427e-01 -2.9947072267532349e-01 -6.6979730129241943e-01 1.7591083049774170e-01 2.8271874785423279e-01 -4.5876792073249817e-01 1.0481657087802887e-01 -1.4183904230594635e-01 -1.9604115188121796e-01 -7.7076144516468048e-02 5.5679451674222946e-02 8.7342038750648499e-02 -1.7479896545410156e-01 -1.4059475064277649e-01 3.5585448145866394e-02 1.3544489443302155e-01 -1.1202459223568439e-02 7.4575521051883698e-02 -1.5289649367332458e-01 2.0786124467849731e-01 1.9491784274578094e-01 9.7679279744625092e-02 4.4740960001945496e-02 1.1646408587694168e-01 -1.2435979396104813e-01 2.5993475317955017e-01 -1.8540796637535095e-01 6.5196797251701355e-02 1.3066181540489197e-01 5.9320215135812759e-02 3.0460754036903381e-01 9.5208844868466258e-04 2.6029714941978455e-01 1.0245775431394577e-01 -5.8169551193714142e-02 -1.0257321596145630e-01 -1.8077097833156586e-01 1.7765566706657410e-01 7.6393581926822662e-02 -1.5689554810523987e-01 -1.6118413209915161e-01 -1.6730469465255737e-01 -2.4383331835269928e-01 4.0731352567672729e-01 -3.2590889930725098e-01 -2.2346241772174835e-01 -3.9373600482940674e-01 4.8600932955741882e-01 1.6172780096530914e-01 -1.5492337942123413e-01 -1.3000153005123138e-01 -1.8241548538208008e-01 3.8324290513992310e-01 -6.1805587261915207e-02 3.0355106573551893e-03 1.9625420868396759e-01 9.4210110604763031e-02 4.0677240490913391e-01 -9.7118854522705078e-02 6.8302226066589355e-01 1.4736413955688477e-01 3.4740975499153137e-01 5.0753879547119141e-01 -3.9501305669546127e-02 4.2505520582199097e-01 2.8023248910903931e-01 5.4783326387405396e-01 -4.3470773100852966e-01 5.2054870873689651e-02 2.4979989230632782e-01 -2.0438756048679352e-01 3.3906385302543640e-01 1.0367804765701294e-01 1.2761683203279972e-02 -5.7719729840755463e-02 -2.4342061579227448e-01 2.8900414705276489e-01 -2.8812652453780174e-03 2.4431815743446350e-01 -3.7565797567367554e-01 7.4000246822834015e-02 1.4041376113891602e-01 -5.9819216839969158e-03 6.0544833540916443e-02 -4.0565258264541626e-01 -3.0645078420639038e-01 2.6978984475135803e-01 -1.8316496908664703e-01 -1.3794378936290741e-01 -2.2301805019378662e-01 1.8822199106216431e-01 -5.0977605581283569e-01 -3.9911803603172302e-01 -5.1261544227600098e-01 -5.2765703201293945e-01 2.9827737808227539e-01 -4.4027730822563171e-01 -3.1265467405319214e-01 -6.7789685726165771e-01 3.7555435299873352e-01 1.8955750763416290e-01 -2.2366648912429810e-01 1.4374326169490814e-01 -2.1396294236183167e-01 -2.2214068472385406e-01 1.0929589718580246e-01 -1.0868977755308151e-01 -4.8049766570329666e-02 -1.7636740207672119e-01 6.2903471291065216e-02 -2.0516213774681091e-01 2.8126236796379089e-01 9.0306289494037628e-02 -2.4399472773075104e-01 1.5427234768867493e-01 -1.4857985079288483e-01 1.0640942305326462e-01 -8.0636376515030861e-03 6.8811096251010895e-02 2.5446683168411255e-01 6.3734347932040691e-03 1.5624783933162689e-01 -1.2114299833774567e-01 1.7005795612931252e-02 2.3816008865833282e-01 9.0104825794696808e-02 3.8624888658523560e-01 -1.3244669884443283e-02 2.6090848445892334e-01 2.0464649796485901e-01 3.5708037018775940e-01 -1.4320380985736847e-01 2.2138340398669243e-02 6.0417622327804565e-02 -1.2968061491847038e-02 -2.1811425685882568e-01 -1.6370336711406708e-01 -1.7992793023586273e-01 -7.4216954410076141e-02 7.9816676676273346e-02 -1.7363174259662628e-01 1.1495710164308548e-01 3.5730004310607910e-02 -7.4901498854160309e-02 9.1342382133007050e-02 3.5280406475067139e-02 -5.5749911814928055e-02 -1.6112659871578217e-01 2.5695033371448517e-02 3.3498842269182205e-02 9.4184242188930511e-02 -8.0716740339994431e-03 9.0460784733295441e-02 1.0725323855876923e-01 -1.5703248977661133e-01 9.6841581165790558e-02 -1.9153444096446037e-02 1.5367570519447327e-01 2.7309179306030273e-01 1.1941920220851898e-01 8.8298618793487549e-02 1.1614630371332169e-01 2.4996276199817657e-01 5.9556163847446442e-02 -5.0567444413900375e-02 4.9443561583757401e-02 -9.1036669909954071e-03 3.7898086011409760e-02 -5.1983352750539780e-03 -1.8793863058090210e-01 -2.6692023873329163e-01 6.3498526811599731e-02 -3.5062035918235779e-01 -1.4361003041267395e-01 -3.5845783352851868e-01 7.7952511608600616e-02 -1.4598920941352844e-02 -2.7360534667968750e-01 1.5196000039577484e-01 -1.2286375463008881e-01 2.5764301419258118e-01 -1.0411129891872406e-01 1.6072973608970642e-02 2.5849306583404541e-01 3.1541783362627029e-02 3.9952674508094788e-01 -5.8787218295037746e-03 3.8232988119125366e-01 2.9373800754547119e-01 4.6699041128158569e-01 4.2092886567115784e-01 -1.2325406819581985e-01 3.0715867877006531e-01 1.0496814548969269e-01 5.3261232376098633e-01 -8.0868385732173920e-02 -2.3254264891147614e-01 1.5038931369781494e-01 -1.7692676186561584e-01 1.9342595338821411e-01 1.8762718141078949e-01 1.5259386599063873e-01 6.4177945256233215e-02 4.6173546463251114e-02 4.1280700825154781e-03 1.7659489810466766e-01 5.1041085273027420e-02 -3.0337948352098465e-02 1.0889901220798492e-01 -2.9946753755211830e-02 -1.4385400712490082e-01 5.3139705210924149e-02 -1.8000765144824982e-01 1.0205883532762527e-01 -9.4362460076808929e-02 1.7301312088966370e-01 1.5210076235234737e-02 4.3981399387121201e-02 -4.7260485589504242e-02 -2.4799437820911407e-01 6.5301600843667984e-03 -2.7970027923583984e-01 -2.7419316768646240e-01 2.4980083107948303e-02 -3.0085619073361158e-03 4.9984663724899292e-02 -2.3551160097122192e-01 -3.5365622490644455e-02 4.2848214507102966e-02 -2.9861977696418762e-01 1.5960566699504852e-01 -1.1812835186719894e-01 -2.9595747590065002e-01 -2.2295118868350983e-01 -1.3752506673336029e-01 1.6269215941429138e-01 -2.1782543510198593e-02 -2.5539475679397583e-01 -3.3052504062652588e-01 3.4308886528015137e-01 1.1672321707010269e-01 -3.2248072326183319e-02 2.4174337089061737e-01 1.8316615372896194e-02 2.6194396615028381e-01 -1.2328675389289856e-01 3.3084932714700699e-02 -9.8990365862846375e-02 -9.2007055878639221e-02 3.2710623741149902e-01 -1.9956573843955994e-01 1.3774818181991577e-01 2.0749097689986229e-02 3.4588095545768738e-01 2.8056773543357849e-01 1.0154905170202255e-01 2.3117031902074814e-02 1.5261651575565338e-01 3.8516107201576233e-01 -2.3420898616313934e-01 6.8507581949234009e-02 3.3732959628105164e-01 -2.5469490885734558e-01 -3.2024275511503220e-02 1.3673783838748932e-01 1.6573786735534668e-01 1.1807891726493835e-01 -3.9116367697715759e-01 1.2040618062019348e-01 1.9639323651790619e-01 4.7915112972259521e-01 -9.8519302904605865e-02 2.0911773666739464e-02 2.3850362002849579e-01 -1.4368855953216553e-01 1.4747865498065948e-01 -3.1529062986373901e-01 -2.0685783028602600e-01 2.4963113665580750e-01 -4.9361195415258408e-02 -2.0473739504814148e-01 -3.5777619481086731e-01 2.2624303400516510e-01 -5.4815042018890381e-01 -1.0532277077436447e-01 -3.4274789690971375e-01 -2.7427634596824646e-01 -8.1284642219543457e-02 -3.5472448915243149e-02 -4.6310275793075562e-01 -6.9090294837951660e-01 4.5669716596603394e-01 -9.9334931001067162e-03 -1.5611393749713898e-01 4.3129041790962219e-02 1.1593639105558395e-01 1.7154325544834137e-01 1.5988111495971680e-01 3.1423658132553101e-01 -8.0544523894786835e-02 5.6692156940698624e-02 2.0278999209403992e-01 1.2925842404365540e-01 -4.4876855611801147e-01 1.2287863343954086e-01 2.9320767521858215e-01 -1.8501624464988708e-01 2.2340364754199982e-01 -8.5441507399082184e-03 -2.3631405830383301e-01 2.9925212264060974e-01 -1.4085149765014648e-01 -2.0849630236625671e-01 -3.3468550443649292e-01 8.1278264522552490e-02 -6.5172332525253296e-01 -5.2004385739564896e-02 -4.2707544565200806e-01 -5.6438088417053223e-01 -2.5016868487000465e-02 -3.5699978470802307e-01 -4.3003460764884949e-01 -5.5437290668487549e-01 1.4138565957546234e-01 1.2922406196594238e-01 -2.7214485406875610e-01 6.2959991395473480e-02 -5.7260584086179733e-02 -1.0260088741779327e-01 -1.5306928753852844e-01 -1.2985163927078247e-01 1.9135376438498497e-02 -3.4648448228836060e-02 4.6374969184398651e-02 2.5993701815605164e-01 -6.2680341303348541e-02 1.5500110387802124e-01 -1.2083180248737335e-01 1.1066339910030365e-01 -6.2135130167007446e-02 -1.8207904696464539e-01 1.4653575420379639e-01 1.2206350266933441e-01 1.7486356198787689e-01 -2.0445656776428223e-01 -1.4983706176280975e-02 5.2147544920444489e-02 -2.3269066214561462e-01 8.7822332978248596e-02 7.8344225883483887e-02 1.4822347462177277e-01 3.0356284696608782e-03 1.2189723551273346e-01 -1.3484777510166168e-01 -1.8008780479431152e-01 -8.4829017519950867e-02 -1.0507975704967976e-02 1.1782278865575790e-01 
      </Weights>
      <Biases rows="16" cols="1">
        -3.5239078104496002e-02 1.5771534293889999e-02 3.1888414174318314e-02 8.1383846700191498e-02 -7.5009435415267944e-02 -2.1993437781929970e-02 9.3669131398200989e-02 -1.3545177876949310e-01 -6.0024643316864967e-03 7.7819913625717163e-02 3.7711039185523987e-02 3.9620831608772278e-02 5.4544187150895596e-03 -4.3947231024503708e-02 -4.9234915524721146e-02 -2.0934580825269222e-03 
      </Biases>
    </Layer>
    <Layer ActivationFunction="3">
      <Weights rows="16" cols="16">
        -6.4775645732879639e-02 6.9765150547027588e-02 -8.3895571529865265e-02 -2.1686394512653351e-01 1.2879127264022827e-01 -1.8702623248100281e-01 -2.4833680689334869e-01 3.2176551222801208e-01 -1.7294285353273153e-03 3.9988290518522263e-02 -3.4698390960693359e-01 -1.9574327394366264e-02 1.5244078636169434e-01 1.3274453813210130e-03 3.3605437725782394e-02 -2.7292820811271667e-01 3.0348148941993713e-01 -1.2493054568767548e-01 -5.8065652847290039e-03 1.5994942188262939e-01 -5.9529080986976624e-02 7.4528522789478302e-02 -1.3245145976543427e-01 3.2827088236808777e-01 -3.2040029764175415e-01 2.2282740473747253e-01 -1.2981919944286346e-01 -2.1845246851444244e-01 1.0696107894182205e-01 9.6442118287086487e-02 -1.2839011847972870e-01 1.5898292884230614e-02 -2.1386972069740295e-01 -5.8466039597988129e-02 1.0378402471542358e-01 1.7786325514316559e-01 -2.6921764016151428e-01 -8.4570802748203278e-02 -6.1079453676939011e-02 -2.2274205088615417e-01 1.0050883889198303e-01 1.2476387619972229e-01 1.3889402151107788e-01 -1.6416606307029724e-01 1.1529317498207092e-01 -1.7948837950825691e-02 -1.2345801293849945e-01 -5.7138908654451370e-02 1.4273527264595032e-01 1.9687725603580475e-01 2.1116603165864944e-02 2.6704281568527222e-01 8.5790239274501801e-02 8.9023999869823456e-02 -6.2312204390764236e-03 2.4055066704750061e-01 4.6794161200523376e-02 -3.0821165442466736e-01 -5.7593040168285370e-02 -1.5163916163146496e-02 -3.4065073728561401e-01 -2.8404882177710533e-02 3.3669918775558472e-01 -2.2518378496170044e-01 -8.2772329449653625e-02 -1.0737624950706959e-02 -1.4569111168384552e-01 -8.5041649639606476e-02 -2.0328409969806671e-01 2.8773941099643707e-02 3.6322658415883780e-03 1.6670244932174683e-01 8.1123374402523041e-03 -9.4744458794593811e-02 -6.8558375351130962e-03 1.2319473177194595e-01 -2.5466865301132202e-01 7.6214037835597992e-02 -2.0621496438980103e-01 -1.4883917570114136e-01 1.0736709833145142e-01 -2.7357918024063110e-01 -1.9604508578777313e-01 -1.0725999623537064e-01 -1.4601123332977295e-01 -1.9875583052635193e-01 -1.5205460786819458e-01 2.3049245774745941e-01 2.6890585198998451e-02 1.5749587118625641e-01 1.4243362843990326e-01 1.1836680769920349e-01 -8.0279834568500519e-02 3.1310293078422546e-01 -2.2659080103039742e-02 2.2928585112094879e-01 1.8036137521266937e-01 -2.4264393746852875e-01 2.3389715701341629e-02 1.7453931272029877e-01 2.2313798964023590e-01 -2.1912895143032074e-01 -2.2271837294101715e-01 -7.7822268009185791e-02 -1.4497974514961243e-01 -1.2275062501430511e-01 -1.3002954423427582e-01 1.0683189332485199e-01 -9.9611461162567139e-02 -1.9396251440048218e-01 4.4652778655290604e-02 -1.9704644381999969e-01 -3.4840799868106842e-02 1.4378622174263000e-01 8.4551982581615448e-02 -1.6343149542808533e-01 -1.7666813731193542e-01 1.5010747313499451e-01 -7.2961062192916870e-02 -1.8838146328926086e-01 2.2207269072532654e-01 5.9370260685682297e-02 1.3529801368713379e-01 -1.2657015025615692e-01 -1.0665224492549896e-01 -1.7998900264501572e-02 -3.1088316440582275e-01 2.0618128776550293e-01 -2.0149923861026764e-02 2.2964152693748474e-01 -7.8825958073139191e-02 -4.4749438762664795e-02 -1.7390695214271545e-01 9.2852964997291565e-02 -1.6006890684366226e-02 -2.2026324272155762e-01 1.0588011145591736e-01 3.9176505059003830e-02 -1.9496425986289978e-01 6.7485116422176361e-02 2.5604668259620667e-01 1.5162802301347256e-03 -3.3403746783733368e-02 -8.2990407943725586e-02 4.0579572319984436e-02 -2.3035997524857521e-02 1.1109023541212082e-01 6.4626276493072510e-02 8.0759175121784210e-02 -1.3837958872318268e-01 3.0030620098114014e-01 -1.4412334188818932e-02 1.5670745074748993e-01 1.7886199057102203e-01 -8.6130529642105103e-02 1.8821865320205688e-02 1.4783486723899841e-01 -3.3533900976181030e-01 4.4326916337013245e-02 4.1169337928295135e-02 1.1266952753067017e-01 -1.0291592776775360e-01 -2.3387606441974640e-01 -2.8573065996170044e-02 6.4408227801322937e-02 -2.1695544943213463e-02 -2.4430859088897705e-01 -1.3090862892568111e-02 3.5859599709510803e-02 8.5622303187847137e-02 -1.8428578972816467e-02 1.9293910264968872e-01 -3.0980101227760315e-01 3.1648668646812439e-01 2.7094411849975586e-01 4.7241825610399246e-02 6.8414695560932159e-02 1.4254434406757355e-01 -1.8044599890708923e-01 2.2457617521286011e-01 -1.7111334204673767e-01 1.7834370955824852e-02 6.6240385174751282e-02 -1.5526452660560608e-01 3.0402007699012756e-01 6.1906076967716217e-02 2.8455552458763123e-01 5.0710339099168777e-02 -1.8422971665859222e-01 1.2197023024782538e-03 -3.1788724660873413e-01 1.7672818899154663e-01 -1.1294573545455933e-01 -4.0558099746704102e-02 -1.0961811244487762e-01 1.0015191137790680e-01 -3.1967565417289734e-01 3.1452360749244690e-01 -5.4448187351226807e-02 -3.1454715132713318e-01 -1.0522472113370895e-01 2.7945095300674438e-01 3.2600355148315430e-01 -1.3341858983039856e-01 -1.3428074121475220e-01 -3.3180102705955505e-01 1.3269650936126709e-01 -2.2876563668251038e-01 2.1452370285987854e-01 1.6490302979946136e-01 -1.0526820272207260e-01 1.3941834867000580e-01 -6.4836613833904266e-02 2.1564781665802002e-01 -1.2542872130870819e-01 -7.5785733759403229e-02 9.1842062771320343e-02 1.5003314614295959e-01 2.7519533038139343e-01 -8.7525345385074615e-02 -7.1362778544425964e-02 -2.1095150709152222e-01 1.4600037038326263e-01 -1.8187065422534943e-01 -7.8788354992866516e-02 2.7733516693115234e-01 1.5116752684116364e-01 -2.7184295654296875e-01 -1.7452871799468994e-01 9.5124125480651855e-02 1.8661873042583466e-01 -1.2505871057510376e-01 6.9522842764854431e-02 -6.1595201492309570e-02 1.9819842278957367e-01 2.7000954374670982e-02 1.1160027235746384e-01 1.1374143511056900e-01 -2.8295698761940002e-01 -1.6119337081909180e-01 2.1175873279571533e-01 -1.0620000772178173e-02 -4.4465186074376106e-03 1.3806585967540741e-01 1.4075775444507599e-01 -5.8551635593175888e-02 -1.7752136290073395e-01 9.7849061712622643e-03 -4.2551495134830475e-02 1.5066505968570709e-01 -2.1423217654228210e-01 7.9315602779388428e-02 -1.4610038697719574e-01 1.7618915438652039e-01 2.5835058093070984e-01 1.3809558749198914e-01 
      </Weights>
      <Biases rows="16" cols="1">
        -2.4391664192080498e-02 1.6366785392165184e-02 -2.0374124869704247e-02 -1.6869429498910904e-02 -4.0520716458559036e-02 -4.9833111464977264e-02 4.5800425112247467e-02 1.7151942476630211e-02 -4.1847317479550838e-03 1.1037188768386841e-01 6.2781356275081635e-02 4.0995560586452484e-02 3.6085177212953568e-02 4.9087884835898876e-03 2.2608334198594093e-02 8.3674669265747070e-02 
      </Biases>
    </Layer>
    <Layer ActivationFunction="0">
      <Weights rows="1" cols="16">
        -3.1732413172721863e-01 -2.7240011096000671e-01 3.1724452972412109e-01 -2.7127346396446228e-01 5.1845781505107880e-02 -2.4444201588630676e-01 -2.1862210333347321e-01 4.7405727207660675e-02 2.0044501125812531e-01 2.6186001300811768e-01 -3.3802178502082825e-01 1.1773207038640976e-01 2.1661974489688873e-01 7.9340353608131409e-02 2.7296397089958191e-01 -2.1159538626670837e-01 
      </Weights>
      <Biases rows="1" cols="1">
        -1.5245685353875160e-02 
      </Biases>
    </Layer>
  </Weights>
</MethodSetup>
