<?xml version="1.0"?>
<MethodSetup Method="DNN::DNN_NanoV9_V2_2020_RBtag_x2">
  <GeneralInfo>
    <Info name="TMVA Release" value="4.2.1 [262657]"/>
    <Info name="ROOT Release" value="6.12/07 [396295]"/>
    <Info name="Creator" value="hum"/>
    <Info name="Date" value="Mon Mar 14 10:13:00 2022"/>
    <Info name="Host" value="Linux vocms0301.cern.ch 2.6.32-696.30.1.el6.x86_64 #1 SMP Tue May 22 06:09:36 CEST 2018 x86_64 x86_64 x86_64 GNU/Linux"/>
    <Info name="Dir" value="/afs/cern.ch/work/h/hum/public/CMSSW_10_2_13/src/ChargedHiggs/Analysis"/>
    <Info name="Training events" value="23718"/>
    <Info name="TrainingTime" value="2.81959450e+01"/>
    <Info name="AnalysisType" value="Classification"/>
  </GeneralInfo>
  <Options>
    <Option name="V" modified="Yes">True</Option>
    <Option name="VerbosityLevel" modified="No">Verbose</Option>
    <Option name="VarTransform" modified="Yes">N</Option>
    <Option name="H" modified="Yes">False</Option>
    <Option name="CreateMVAPdfs" modified="No">False</Option>
    <Option name="IgnoreNegWeightsInTraining" modified="No">False</Option>
    <Option name="Layout" modified="Yes">TANH|32,ReLU|16,SIGMOID|16,LINEAR</Option>
    <Option name="ValidationSize" modified="No">20%</Option>
    <Option name="ErrorStrategy" modified="Yes">CROSSENTROPY</Option>
    <Option name="WeightInitialization" modified="Yes">XAVIERUNIFORM</Option>
    <Option name="Architecture" modified="Yes">CPU</Option>
    <Option name="TrainingStrategy" modified="Yes">LearningRate=1e-1,Momentum=0.9,Repetitions=1,ConvergenceSteps=20,BatchSize=256,TestRepetitions=10,WeightDecay=1e-4,Regularization=L2,DropConfig=0.0+0.1+0.25+0.5,</Option>
  </Options>
  <Variables NVar="16">
    <Variable VarIndex="0" Expression="j1QGL" Label="j1QGL" Title="j1QGL" Unit="" Internal="j1QGL" Type="F" Min="6.50994480e-07" Max="1.00000000e+00"/>
    <Variable VarIndex="1" Expression="j2QGL" Label="j2QGL" Title="j2QGL" Unit="" Internal="j2QGL" Type="F" Min="4.53591347e-05" Max="1.00000000e+00"/>
    <Variable VarIndex="2" Expression="varMjj" Label="varMjj" Title="varMjj" Unit="" Internal="varMjj" Type="F" Min="5.00025940e+02" Max="8.10894287e+03"/>
    <Variable VarIndex="3" Expression="varDetajj" Label="varDetajj" Title="varDetajj" Unit="" Internal="varDetajj" Type="F" Min="2.50012207e+00" Max="9.17089844e+00"/>
    <Variable VarIndex="4" Expression="abs(varJet1Eta)" Label="abs(varJet1Eta)" Title="abs(varJet1Eta)" Unit="" Internal="abs_varJet1Eta_" Type="F" Min="1.12533569e-04" Max="4.61718750e+00"/>
    <Variable VarIndex="5" Expression="varJet1Pt" Label="varJet1Pt" Title="varJet1Pt" Unit="" Internal="varJet1Pt" Type="F" Min="5.06875000e+01" Max="1.79500000e+03"/>
    <Variable VarIndex="6" Expression="abs(varJet2Eta)" Label="abs(varJet2Eta)" Title="abs(varJet2Eta)" Unit="" Internal="abs_varJet2Eta_" Type="F" Min="2.04515457e-03" Max="4.67968750e+00"/>
    <Variable VarIndex="7" Expression="varJet2Pt" Label="varJet2Pt" Title="varJet2Pt" Unit="" Internal="varJet2Pt" Type="F" Min="5.00312500e+01" Max="1.17800000e+03"/>
    <Variable VarIndex="8" Expression="varMVV" Label="varMVV" Title="varMVV" Unit="" Internal="varMVV" Type="F" Min="5.00002228e+02" Max="3.78478467e+03"/>
    <Variable VarIndex="9" Expression="varPTV1" Label="varPTV1" Title="varPTV1" Unit="" Internal="varPTV1" Type="F" Min="3.00000000e+02" Max="2.37600000e+03"/>
    <Variable VarIndex="10" Expression="varPTV2" Label="varPTV2" Title="varPTV2" Unit="" Internal="varPTV2" Type="F" Min="1.27926373e+00" Max="9.08028442e+02"/>
    <Variable VarIndex="11" Expression="varCen" Label="varCen" Title="varCen" Unit="" Internal="varCen" Type="F" Min="-5.15706539e+00" Max="4.02219582e+00"/>
    <Variable VarIndex="12" Expression="varzepVV" Label="varzepVV" Title="varzepVV" Unit="" Internal="varzepVV" Type="F" Min="4.97574945e-07" Max="1.81213617e+00"/>
    <Variable VarIndex="13" Expression="varDRV1j" Label="varDRV1j" Title="varDRV1j" Unit="" Internal="varDRV1j" Type="F" Min="1.20016408e+00" Max="4.79853725e+00"/>
    <Variable VarIndex="14" Expression="varnormPTVVjj" Label="varnormPTVVjj" Title="varnormPTVVjj" Unit="" Internal="varnormPTVVjj" Type="F" Min="1.33056863e-04" Max="9.86429989e-01"/>
    <Variable VarIndex="15" Expression="bosV2discr" Label="bosV2discr" Title="bosV2discr" Unit="" Internal="bosV2discr" Type="F" Min="6.00044787e-01" Max="9.94931459e-01"/>
  </Variables>
  <Spectators NSpec="0"/>
  <Classes NClass="2">
    <Class Name="Signal" Index="0"/>
    <Class Name="Background" Index="1"/>
  </Classes>
  <Transformations NTransformations="1">
    <Transform Name="Normalize">
      <Selection>
        <Input NInputs="16">
          <Input Type="Variable" Label="j1QGL" Expression="j1QGL"/>
          <Input Type="Variable" Label="j2QGL" Expression="j2QGL"/>
          <Input Type="Variable" Label="varMjj" Expression="varMjj"/>
          <Input Type="Variable" Label="varDetajj" Expression="varDetajj"/>
          <Input Type="Variable" Label="abs(varJet1Eta)" Expression="abs(varJet1Eta)"/>
          <Input Type="Variable" Label="varJet1Pt" Expression="varJet1Pt"/>
          <Input Type="Variable" Label="abs(varJet2Eta)" Expression="abs(varJet2Eta)"/>
          <Input Type="Variable" Label="varJet2Pt" Expression="varJet2Pt"/>
          <Input Type="Variable" Label="varMVV" Expression="varMVV"/>
          <Input Type="Variable" Label="varPTV1" Expression="varPTV1"/>
          <Input Type="Variable" Label="varPTV2" Expression="varPTV2"/>
          <Input Type="Variable" Label="varCen" Expression="varCen"/>
          <Input Type="Variable" Label="varzepVV" Expression="varzepVV"/>
          <Input Type="Variable" Label="varDRV1j" Expression="varDRV1j"/>
          <Input Type="Variable" Label="varnormPTVVjj" Expression="varnormPTVVjj"/>
          <Input Type="Variable" Label="bosV2discr" Expression="bosV2discr"/>
        </Input>
        <Output NOutputs="16">
          <Output Type="Variable" Label="j1QGL" Expression="j1QGL"/>
          <Output Type="Variable" Label="j2QGL" Expression="j2QGL"/>
          <Output Type="Variable" Label="varMjj" Expression="varMjj"/>
          <Output Type="Variable" Label="varDetajj" Expression="varDetajj"/>
          <Output Type="Variable" Label="abs(varJet1Eta)" Expression="abs(varJet1Eta)"/>
          <Output Type="Variable" Label="varJet1Pt" Expression="varJet1Pt"/>
          <Output Type="Variable" Label="abs(varJet2Eta)" Expression="abs(varJet2Eta)"/>
          <Output Type="Variable" Label="varJet2Pt" Expression="varJet2Pt"/>
          <Output Type="Variable" Label="varMVV" Expression="varMVV"/>
          <Output Type="Variable" Label="varPTV1" Expression="varPTV1"/>
          <Output Type="Variable" Label="varPTV2" Expression="varPTV2"/>
          <Output Type="Variable" Label="varCen" Expression="varCen"/>
          <Output Type="Variable" Label="varzepVV" Expression="varzepVV"/>
          <Output Type="Variable" Label="varDRV1j" Expression="varDRV1j"/>
          <Output Type="Variable" Label="varnormPTVVjj" Expression="varnormPTVVjj"/>
          <Output Type="Variable" Label="bosV2discr" Expression="bosV2discr"/>
        </Output>
      </Selection>
      <Class ClassIndex="0">
        <Ranges>
          <Range Index="0" Min="2.3341178894042969e-04" Max="1.0000000000000000e+00"/>
          <Range Index="1" Min="8.9645385742187500e-04" Max="9.9951171875000000e-01"/>
          <Range Index="2" Min="5.0172079467773438e+02" Max="8.1089428710937500e+03"/>
          <Range Index="3" Min="2.5028076171875000e+00" Max="8.3027343750000000e+00"/>
          <Range Index="4" Min="3.6988258361816406e-03" Max="4.5380859375000000e+00"/>
          <Range Index="5" Min="5.2875000000000000e+01" Max="1.5810000000000000e+03"/>
          <Range Index="6" Min="1.3330459594726562e-02" Max="4.6796875000000000e+00"/>
          <Range Index="7" Min="5.0031250000000000e+01" Max="8.7150000000000000e+02"/>
          <Range Index="8" Min="5.0004251098632812e+02" Max="3.4500432128906250e+03"/>
          <Range Index="9" Min="3.0000000000000000e+02" Max="2.3760000000000000e+03"/>
          <Range Index="10" Min="1.2792637348175049e+00" Max="7.3530535888671875e+02"/>
          <Range Index="11" Min="-5.1570653915405273e+00" Max="3.3924560546875000e+00"/>
          <Range Index="12" Min="4.9757494480218156e-07" Max="1.4207689762115479e+00"/>
          <Range Index="13" Min="1.2021034955978394e+00" Max="4.6154365539550781e+00"/>
          <Range Index="14" Min="1.3305686297826469e-04" Max="9.1319668292999268e-01"/>
          <Range Index="15" Min="6.0073041915893555e-01" Max="9.9445712566375732e-01"/>
        </Ranges>
      </Class>
      <Class ClassIndex="1">
        <Ranges>
          <Range Index="0" Min="6.5099447965621948e-07" Max="1.0000000000000000e+00"/>
          <Range Index="1" Min="4.5359134674072266e-05" Max="1.0000000000000000e+00"/>
          <Range Index="2" Min="5.0002593994140625e+02" Max="7.6980703125000000e+03"/>
          <Range Index="3" Min="2.5001220703125000e+00" Max="9.1708984375000000e+00"/>
          <Range Index="4" Min="1.1253356933593750e-04" Max="4.6171875000000000e+00"/>
          <Range Index="5" Min="5.0687500000000000e+01" Max="1.7950000000000000e+03"/>
          <Range Index="6" Min="2.0451545715332031e-03" Max="4.6640625000000000e+00"/>
          <Range Index="7" Min="5.0031250000000000e+01" Max="1.1780000000000000e+03"/>
          <Range Index="8" Min="5.0000222778320312e+02" Max="3.7847846679687500e+03"/>
          <Range Index="9" Min="3.0000000000000000e+02" Max="1.8970000000000000e+03"/>
          <Range Index="10" Min="2.9955656528472900e+00" Max="9.0802844238281250e+02"/>
          <Range Index="11" Min="-4.2744889259338379e+00" Max="4.0221958160400391e+00"/>
          <Range Index="12" Min="6.2571593844040763e-06" Max="1.8121361732482910e+00"/>
          <Range Index="13" Min="1.2001640796661377e+00" Max="4.7985372543334961e+00"/>
          <Range Index="14" Min="3.0906949541531503e-04" Max="9.8642998933792114e-01"/>
          <Range Index="15" Min="6.0004478693008423e-01" Max="9.9493145942687988e-01"/>
        </Ranges>
      </Class>
      <Class ClassIndex="2">
        <Ranges>
          <Range Index="0" Min="6.5099447965621948e-07" Max="1.0000000000000000e+00"/>
          <Range Index="1" Min="4.5359134674072266e-05" Max="1.0000000000000000e+00"/>
          <Range Index="2" Min="5.0002593994140625e+02" Max="8.1089428710937500e+03"/>
          <Range Index="3" Min="2.5001220703125000e+00" Max="9.1708984375000000e+00"/>
          <Range Index="4" Min="1.1253356933593750e-04" Max="4.6171875000000000e+00"/>
          <Range Index="5" Min="5.0687500000000000e+01" Max="1.7950000000000000e+03"/>
          <Range Index="6" Min="2.0451545715332031e-03" Max="4.6796875000000000e+00"/>
          <Range Index="7" Min="5.0031250000000000e+01" Max="1.1780000000000000e+03"/>
          <Range Index="8" Min="5.0000222778320312e+02" Max="3.7847846679687500e+03"/>
          <Range Index="9" Min="3.0000000000000000e+02" Max="2.3760000000000000e+03"/>
          <Range Index="10" Min="1.2792637348175049e+00" Max="9.0802844238281250e+02"/>
          <Range Index="11" Min="-5.1570653915405273e+00" Max="4.0221958160400391e+00"/>
          <Range Index="12" Min="4.9757494480218156e-07" Max="1.8121361732482910e+00"/>
          <Range Index="13" Min="1.2001640796661377e+00" Max="4.7985372543334961e+00"/>
          <Range Index="14" Min="1.3305686297826469e-04" Max="9.8642998933792114e-01"/>
          <Range Index="15" Min="6.0004478693008423e-01" Max="9.9493145942687988e-01"/>
        </Ranges>
      </Class>
    </Transform>
  </Transformations>
  <MVAPdfs/>
  <Weights InputWidth="16" Depth="4" LossFunction="C" OutputFunction="S">
    <Layer ActivationFunction="3">
      <Weights rows="32" cols="16">
        -1.8531310558319092e-01 -4.8868086189031601e-02 -7.3029756546020508e-01 4.2909346520900726e-02 -1.4837238192558289e-01 -3.1033542752265930e-01 -6.1802830547094345e-02 -7.5902335345745087e-02 -5.6574162095785141e-02 -4.2530629038810730e-01 1.1700826883316040e-01 2.4836461525410414e-03 1.8916246294975281e-01 -1.1027818173170090e-01 3.9938053488731384e-01 1.0039362311363220e-01 -1.0864088684320450e-01 -5.6117691099643707e-02 -1.0301930457353592e-01 -6.4480453729629517e-02 -1.0972698777914047e-01 2.3905713111162186e-02 -1.0149390995502472e-01 -2.6120081543922424e-02 -8.1881351768970490e-02 -1.7947159707546234e-01 3.4506421536207199e-02 1.7912711948156357e-02 2.4951325729489326e-02 1.4605143107473850e-02 -2.4102969467639923e-01 7.8490220010280609e-02 1.5534672141075134e-01 6.0079749673604965e-03 3.6351639032363892e-01 7.8567512333393097e-02 -4.4723462313413620e-02 2.3054204881191254e-01 1.7630079388618469e-01 5.9161383658647537e-02 1.6091616824269295e-02 2.4977314472198486e-01 -1.5118190646171570e-01 1.7173643410205841e-01 -1.4569123089313507e-01 -6.7403234541416168e-02 7.3159091174602509e-02 -4.4654887169599533e-02 -1.0774039030075073e+00 4.7556528449058533e-01 -1.9586682319641113e-01 -1.0683880187571049e-02 -1.0734561681747437e+00 -1.6190290451049805e-01 8.1692689657211304e-01 4.0143233537673950e-01 2.4791219830513000e-01 -1.6688410937786102e-01 -1.6154281795024872e-01 -1.8088144063949585e-01 4.1685885190963745e-01 7.2721105813980103e-01 1.1011782288551331e-01 -3.1066721677780151e-01 7.4355043470859528e-02 2.7202367782592773e-02 1.4549742639064789e-01 -5.1948845386505127e-02 4.6093706041574478e-02 1.3231500983238220e-01 -1.2100157141685486e-01 1.2023323029279709e-01 1.3470529019832611e-01 2.3146525025367737e-01 2.5498906150460243e-02 -1.2588651850819588e-02 -7.9695709049701691e-02 4.8641338944435120e-03 -4.0933805704116821e-01 -7.5896143913269043e-02 -2.1671541035175323e-01 -1.4544364809989929e-01 -5.0333583354949951e-01 -1.7305633425712585e-01 -8.4916472434997559e-02 -2.3234246671199799e-01 -1.4456391334533691e-01 -1.5224677324295044e-01 -5.1159925758838654e-02 -3.6241695284843445e-01 -1.0064972937107086e-01 -1.8684095144271851e-01 4.4670756906270981e-02 5.9220507740974426e-02 3.9475563168525696e-01 -2.9321869835257530e-02 -2.4051502346992493e-01 5.4299283027648926e-01 3.9288181066513062e-01 4.6101823449134827e-02 -4.5470580458641052e-01 1.4579857885837555e-01 5.6506997346878052e-01 2.8766535222530365e-02 4.0866609662771225e-02 1.7008687555789948e-01 -1.1997553706169128e-01 -7.4099496006965637e-02 -9.4000637531280518e-02 1.8411727622151375e-02 -1.2791547179222107e-01 -7.6998770236968994e-02 3.8353005051612854e-01 -5.2285145968198776e-02 3.5494467616081238e-01 1.5585020883008838e-03 -1.7252977192401886e-01 2.1562010049819946e-01 2.4683405458927155e-01 2.1849229931831360e-01 2.6537266373634338e-01 3.2124772667884827e-01 8.8830687105655670e-02 6.4961813390254974e-02 2.4797799997031689e-03 3.8754347711801529e-02 -1.1878793686628342e-01 -3.5553032159805298e-01 -1.6737699508666992e-02 -8.1508584320545197e-02 8.4563247859477997e-02 -3.0049949884414673e-02 -2.2336993366479874e-02 1.4137758873403072e-02 -5.3616993129253387e-02 1.4650651812553406e-01 -1.2956786900758743e-02 1.3101928867399693e-02 8.5711680352687836e-02 3.2865960383787751e-04 5.8766417205333710e-02 -2.6748613454401493e-03 -3.0799490213394165e-01 -6.0819797217845917e-02 -1.5684159100055695e-01 -5.8353222906589508e-02 -1.7070369422435760e-01 -1.1730307340621948e-01 -1.9896270334720612e-01 -7.3276996612548828e-02 -7.1215778589248657e-02 8.7309986352920532e-02 2.0177429541945457e-02 -1.6628701984882355e-01 1.1142196506261826e-01 -4.1841808706521988e-02 1.2432509660720825e-01 1.4813478291034698e-01 -9.9614389240741730e-02 7.4721075594425201e-02 -1.2227481603622437e-01 -6.0108853504061699e-03 -2.9282242059707642e-01 -2.4968067184090614e-02 -4.9325145781040192e-02 -1.0531643778085709e-01 -1.9478271901607513e-01 1.2049825489521027e-01 -6.5419912338256836e-02 -8.1374824047088623e-02 1.0674481093883514e-01 -6.3636466860771179e-02 2.0676460117101669e-02 -2.6985933072865009e-03 -3.0183646082878113e-01 1.4390745759010315e-01 1.6140811145305634e-02 7.0579290390014648e-02 -9.8089918494224548e-02 3.1329032033681870e-02 5.5137146264314651e-02 -3.8108967244625092e-02 1.3191565871238708e-01 -1.9841715693473816e-01 3.0865535140037537e-02 -3.3081158995628357e-02 2.6987051591277122e-02 -5.6869935244321823e-02 -9.9837630987167358e-02 -8.3392485976219177e-02 4.7512382268905640e-01 6.0828379355370998e-03 -2.9601760208606720e-02 -5.1175609230995178e-02 -3.1926491856575012e-01 -2.2483943030238152e-02 -4.4096328318119049e-02 -2.1712744235992432e-01 8.1186123192310333e-02 -9.6380874514579773e-02 -1.2701426446437836e-01 -2.8617000579833984e-01 1.4390940777957439e-02 1.3687194325029850e-02 1.2927615083754063e-02 3.3451087772846222e-02 3.8809329271316528e-01 -3.3629485405981541e-03 -2.3839925229549408e-01 3.3639371395111084e-02 8.9171677827835083e-01 -2.6957625150680542e-01 -1.6606082022190094e-01 6.4230191707611084e-01 -8.5688985884189606e-02 7.4992597103118896e-01 1.3973236083984375e-01 4.6925973892211914e-01 1.1123569309711456e-01 7.6164873316884041e-03 -6.2236248049885035e-04 -2.0772451162338257e-01 -1.9398572444915771e+00 -7.5933583080768585e-02 4.3571665883064270e-02 -1.0919254273176193e-01 -1.2635569274425507e-01 5.4574268870055676e-03 -1.5095354616641998e-01 5.0632590427994728e-03 4.9874212592840195e-02 -7.0349149405956268e-02 -8.4695748984813690e-02 -1.0095709562301636e-01 8.6218960583209991e-02 2.7511838823556900e-02 1.4682646095752716e-01 -8.8638283312320709e-02 -9.8441265523433685e-02 -7.5831457972526550e-02 -2.4526195600628853e-02 -6.3511192798614502e-02 1.1235603690147400e-01 -1.8683696165680885e-02 3.2966136932373047e-02 -3.8084730505943298e-02 -9.1501362621784210e-02 1.9645446538925171e-01 1.3876061141490936e-01 1.5367873013019562e-01 3.5557605326175690e-02 1.1888171546161175e-02 5.0647471100091934e-02 -4.3070655316114426e-02 -5.4620790481567383e-01 5.5551353842020035e-02 -6.1622824519872665e-02 1.7264141142368317e-01 5.2049082517623901e-01 4.6687040477991104e-02 2.3527354001998901e-01 1.8415604531764984e-01 -1.3388317823410034e-01 4.9362829327583313e-01 1.7720329761505127e-01 4.2134058475494385e-01 1.4844672381877899e-01 8.7254703044891357e-02 -4.5527465641498566e-02 1.0888490825891495e-01 -1.1438442468643188e+00 -7.4164360761642456e-02 2.1037615835666656e-02 1.5284970402717590e-01 3.3954966068267822e-01 9.5502495765686035e-02 1.6307303309440613e-01 1.7351999878883362e-01 2.5288244709372520e-02 1.1587066203355789e-01 8.4507480263710022e-02 2.6238206028938293e-01 -8.2805223762989044e-02 1.2438754737377167e-01 -1.1212504655122757e-01 -1.1111999629065394e-03 -1.5171745419502258e-01 6.2766489572823048e-03 1.4893841743469238e-01 4.8140667378902435e-02 3.9512532949447632e-01 1.8052818253636360e-02 6.8122610449790955e-02 6.8989336490631104e-02 2.7067145705223083e-01 -1.0090158879756927e-01 3.6924313753843307e-02 1.1973141133785248e-01 -1.7565223574638367e-01 1.5343759953975677e-01 -5.3280554711818695e-02 -1.2291600555181503e-01 5.7473844289779663e-01 -1.0249766707420349e-01 -6.3121579587459564e-02 3.0364552140235901e-01 2.8743693232536316e-01 5.6801483035087585e-02 2.9003354907035828e-01 1.8124392256140709e-02 -2.0120061933994293e-01 1.0793067514896393e-01 1.2758961319923401e-01 3.3627736568450928e-01 4.7803815454244614e-02 -4.1489261202514172e-03 -1.0266733169555664e-01 1.5695677697658539e-01 -3.4893597476184368e-03 -9.1270022094249725e-02 -9.4977103173732758e-02 -1.2203072011470795e-01 -5.5651021003723145e-01 -1.2549848854541779e-01 -1.3642284274101257e-01 -1.7057979106903076e-01 -2.0144180953502655e-01 2.0436875522136688e-02 5.3280722349882126e-02 -3.4299474954605103e-01 1.6817195713520050e-01 -2.2337734699249268e-02 9.8957926034927368e-02 1.2464054673910141e-01 -3.4225210547447205e-01 1.2321283668279648e-01 2.1084232628345490e-01 -6.5960311889648438e-01 -4.8133453726768494e-01 -8.7702358141541481e-03 7.0882427692413330e-01 2.7482720091938972e-02 -9.9181509017944336e-01 1.4028605818748474e-01 1.7198208719491959e-02 -1.2080179899930954e-01 6.5770894289016724e-02 1.9783540070056915e-01 -5.0756670534610748e-02 -4.8284590244293213e-02 1.5276411175727844e-01 4.0893867611885071e-02 4.4319093227386475e-02 -1.6726229339838028e-02 2.9148313403129578e-01 3.3822555094957352e-02 7.6441623270511627e-02 8.2639247179031372e-02 8.4452420473098755e-02 1.9766342639923096e-01 6.6995672881603241e-02 2.3084649443626404e-01 3.6919217556715012e-02 -2.5809148326516151e-02 -8.0371879041194916e-02 4.9136355519294739e-02 -4.2426297068595886e-01 -1.1858162283897400e-01 1.5124437212944031e-01 -9.0200230479240417e-02 -9.6773225069046021e-01 1.3058723509311676e-01 8.0678522586822510e-02 -6.2243854999542236e-01 1.0338946431875229e-01 -6.1209380626678467e-01 -5.9333015233278275e-02 -7.5755190849304199e-01 1.5459358692169189e-01 -3.1734520196914673e-01 2.6493704319000244e-01 1.2000459432601929e-01 1.1671590805053711e+00 -5.4246318340301514e-01 -1.1245108395814896e-01 -5.4584726691246033e-02 -7.8062897920608521e-01 6.0228679329156876e-02 -3.2119475305080414e-02 -4.1553944349288940e-01 -1.4092499017715454e-01 -2.2525596618652344e-01 -7.2361961007118225e-02 -3.6983647942543030e-01 9.9825575947761536e-02 -1.9720126688480377e-01 1.9308526813983917e-01 -9.2844329774379730e-03 1.7368023097515106e-01 -1.1263004690408707e-01 -1.8881729245185852e-01 -1.3261709362268448e-02 -3.6087656021118164e-01 1.1834581382572651e-02 9.9379807710647583e-02 -7.9699441790580750e-02 3.4762531518936157e-02 -1.4401084184646606e-01 -1.7422880232334137e-01 -3.0623024702072144e-01 -1.3834048807621002e-01 8.4913179278373718e-02 2.0502042025327682e-02 -4.5316938310861588e-02 5.2096903324127197e-01 2.3309782147407532e-01 -9.4159424304962158e-02 -6.7073643207550049e-02 -2.2529406845569611e-01 6.0993056744337082e-02 -1.6026109457015991e-02 -6.7633599042892456e-02 -5.5454600602388382e-02 -7.0134021341800690e-02 -6.9122560322284698e-02 -3.2041877508163452e-02 7.0176236331462860e-03 3.0632622539997101e-02 2.5072924792766571e-02 -6.8586103618144989e-02 -1.0322375223040581e-02 -1.2785264290869236e-02 -9.7405023872852325e-02 -5.9557426720857620e-02 -2.8804168105125427e-01 -8.3736062049865723e-02 -5.0955031067132950e-02 -2.1160735189914703e-01 -8.6598150432109833e-02 -3.2484453171491623e-02 -5.3293198347091675e-02 -2.7793967723846436e-01 -3.1499207019805908e-02 -4.1897781193256378e-02 -2.3375535383820534e-02 1.1063368991017342e-02 3.5870876908302307e-01 5.3056918084621429e-02 -1.3673765957355499e-01 -1.2311063706874847e-01 -4.1544589400291443e-01 -6.5057113766670227e-02 -4.0091849863529205e-02 -7.4689023196697235e-02 -1.4990147948265076e-01 -2.3196810856461525e-02 -4.6653274446725845e-02 -2.3996427655220032e-01 1.0230458527803421e-01 -1.5201188623905182e-01 6.8007871508598328e-02 1.1978352069854736e-01 -2.6497751474380493e-01 1.8049158155918121e-02 8.9490056037902832e-02 3.3813066780567169e-02 6.4300364255905151e-01 -8.1776857376098633e-02 1.5757590532302856e-01 2.6957631111145020e-01 1.4491762965917587e-02 4.5868730545043945e-01 2.4641756713390350e-01 3.6688062548637390e-01 1.3822853565216064e-01 -4.2591178789734840e-03 6.5221577882766724e-02 9.1396525502204895e-02 -1.1665431261062622e+00 -1.2794117629528046e-01 -3.2604503631591797e-01 -2.3586547002196312e-02 -2.6309168338775635e-01 4.2422611266374588e-02 -2.6342067122459412e-01 -6.8717651069164276e-02 1.1804642528295517e-01 7.8377790749073029e-02 3.7034757435321808e-02 -8.2442909479141235e-02 1.0543680936098099e-01 -1.3096057809889317e-02 9.5855779945850372e-02 2.2813555598258972e-01 -3.1685609370470047e-02 -4.2406689375638962e-02 6.6072553396224976e-02 9.2312395572662354e-02 3.6995398998260498e-01 -9.2663234099745750e-03 1.4418965578079224e-01 1.6042879223823547e-01 1.0487405583262444e-02 -2.7341816574335098e-02 3.2033845782279968e-02 2.7117016911506653e-01 -5.6424040347337723e-02 -1.5310101211071014e-02 -1.7974656820297241e-01 8.9310534298419952e-02 1.1324889212846756e-01 4.2126003652811050e-02 
      </Weights>
      <Biases rows="32" cols="1">
        -8.7580043077468872e-01 -3.1682687997817993e-01 4.2215731739997864e-01 -8.2819741964340210e-01 1.8919849395751953e-01 -8.9570403099060059e-01 1.0338457822799683e+00 6.3888883590698242e-01 4.6262618154287338e-02 -2.7525818347930908e-01 -3.8803967833518982e-01 4.4940050691366196e-02 -3.5760912299156189e-01 7.8740942478179932e-01 -4.5662522315979004e-02 -1.7168732360005379e-02 2.6509842276573181e-01 4.9649319052696228e-01 4.6824157238006592e-01 3.7410980463027954e-01 -8.8587754964828491e-01 -9.7623902559280396e-01 2.8907516598701477e-01 -5.6066393852233887e-01 -9.9720484018325806e-01 -3.2534614205360413e-01 -2.7275016903877258e-01 -3.9367756247520447e-01 -6.5489584207534790e-01 5.3718483448028564e-01 -3.9869675040245056e-01 4.4586116075515747e-01 
      </Biases>
    </Layer>
    <Layer ActivationFunction="3">
      <Weights rows="16" cols="32">
        -2.1867501735687256e-01 -1.0679618269205093e-01 1.1192706227302551e-01 -2.2127775847911835e-01 -5.5223599076271057e-02 -1.5878288447856903e-01 2.5733718276023865e-01 2.0136618614196777e-01 -6.4928188920021057e-02 -1.1649932712316513e-01 -1.6664752364158630e-01 1.2589116394519806e-01 2.0666837226599455e-03 -2.7951782569289207e-02 -3.2056108117103577e-02 -6.8119928240776062e-02 -2.2361429408192635e-02 6.4731486141681671e-02 2.6269134879112244e-01 4.5766308903694153e-03 -3.4792175889015198e-01 -2.6004564762115479e-01 -3.3799655735492706e-02 -1.5102033317089081e-01 -2.7289149165153503e-01 -7.4729271233081818e-02 -1.0600151121616364e-01 -4.2044736444950104e-02 -2.5333768129348755e-01 6.2692247331142426e-02 -1.6972790658473969e-01 1.2621437013149261e-01 1.2998697161674500e-01 -8.0383315682411194e-02 -1.3692939653992653e-02 1.6977195441722870e-01 -1.6429577767848969e-01 1.3795873522758484e-01 1.1871404014527798e-02 -7.5100168585777283e-02 -1.5582050383090973e-01 -6.4971007406711578e-02 -1.7861418426036835e-01 2.4317139387130737e-01 1.3457976281642914e-01 -5.2207106351852417e-01 -4.0944796055555344e-03 -2.3502060770988464e-01 -4.3495577573776245e-01 -2.0684512332081795e-02 1.7274813354015350e-01 -3.7733539938926697e-02 -1.9466330111026764e-01 9.3924358487129211e-02 -1.3768309354782104e-01 4.2306610941886902e-01 9.3240752816200256e-02 1.4742307364940643e-01 -3.0462512746453285e-02 9.3206621706485748e-02 -9.5941945910453796e-02 -3.6886695027351379e-01 1.4988897368311882e-02 3.3293604850769043e-02 1.0831388086080551e-01 7.1418412029743195e-02 -6.9300442934036255e-02 1.4842352271080017e-01 1.2121583335101604e-02 3.8126099854707718e-02 -8.0151908099651337e-02 -9.1057531535625458e-02 5.0962299108505249e-02 6.7231513559818268e-02 5.5440768599510193e-02 -1.1897480115294456e-02 5.0114892423152924e-02 -1.4672976732254028e-01 8.2690380513668060e-02 -6.7078307271003723e-02 -2.1053518354892731e-01 -6.8855553865432739e-02 2.1610079333186150e-02 -2.1111118793487549e-01 1.0371351242065430e-01 2.7404224500060081e-02 -4.1086893528699875e-02 1.2683092057704926e-01 5.8293804526329041e-02 4.4269021600484848e-02 -2.0874753594398499e-02 -1.3536297716200352e-02 2.8331512585282326e-02 -1.2573410570621490e-01 4.9522984772920609e-02 -1.2437441200017929e-01 8.9709442108869553e-03 1.0346696525812149e-01 -6.0011878609657288e-02 1.0362504422664642e-01 -6.3124969601631165e-02 1.1198568157851696e-02 -3.7814959883689880e-02 5.9360349550843239e-03 5.2712518721818924e-02 6.8697363138198853e-02 4.2605984956026077e-02 -2.5815857574343681e-02 -2.0411748439073563e-02 7.4793058447539806e-03 3.2343056052923203e-02 2.7714626863598824e-02 3.7722885608673096e-02 -4.2516082525253296e-02 -1.1358465999364853e-01 -2.3716125637292862e-02 6.1717568896710873e-03 5.6733261793851852e-02 4.0180973708629608e-02 7.7841669321060181e-02 9.3604266643524170e-02 4.5707309618592262e-03 3.5948265343904495e-02 2.0735748112201691e-02 3.2763436436653137e-02 1.5129321254789829e-02 4.4614385813474655e-02 -6.8619653582572937e-02 9.3181235715746880e-03 -1.0904893279075623e-02 5.4434929043054581e-02 3.9254100993275642e-03 -3.7036009132862091e-02 3.1191112473607063e-02 2.5492597371339798e-02 3.1977207399904728e-03 -5.3920514881610870e-02 -2.6887917891144753e-02 2.5196161121129990e-02 3.3213492482900620e-02 1.0844730585813522e-01 -1.5866030752658844e-01 4.7922868281602859e-02 -1.4231245219707489e-01 -1.7799009382724762e-01 -2.1725120022892952e-02 9.0512759983539581e-02 -1.0657869279384613e-01 -7.4979670345783234e-02 -5.0059072673320770e-03 -1.0027731209993362e-01 1.9504803419113159e-01 3.7520941346883774e-02 7.2817012667655945e-02 6.2210306525230408e-02 2.5183301419019699e-02 3.0072035267949104e-02 -1.1817798018455505e-01 2.4267600849270821e-02 3.9753526449203491e-02 1.4727851748466492e-01 1.7516142129898071e-01 -2.1015331149101257e-01 3.3156108856201172e-01 -2.4449810385704041e-02 3.0974099412560463e-02 -1.5070617198944092e-01 -2.8284534811973572e-02 1.0417757555842400e-02 1.6604436933994293e-01 2.1389994025230408e-01 -4.8882011324167252e-02 3.1742993742227554e-02 -5.9601202607154846e-02 1.0907090455293655e-01 1.4836759865283966e-01 -1.3212591409683228e-01 -6.7329578101634979e-02 -2.3721255362033844e-01 -1.9147801399230957e-01 2.3922501504421234e-01 2.0863944292068481e-01 1.0613296180963516e-02 1.7949773371219635e-01 2.0791430771350861e-01 2.8793357312679291e-02 1.1161633580923080e-01 -2.1760242059826851e-02 1.0048573464155197e-01 -1.2511561810970306e-01 1.9362919032573700e-01 -2.1551583707332611e-01 -2.2535434365272522e-01 -1.8435941636562347e-01 1.8123337626457214e-01 -4.2712342739105225e-01 -2.8963953256607056e-02 -2.0602564513683319e-01 2.5387719273567200e-01 1.5498815476894379e-01 -6.6278085112571716e-02 -1.5908411145210266e-01 -1.9776032865047455e-01 1.1125908046960831e-01 -1.1489512026309967e-01 3.0725978314876556e-02 -1.0087927430868149e-01 -7.5708433985710144e-02 7.4463873170316219e-03 1.1196728050708771e-01 3.0392038822174072e-01 1.2110369652509689e-01 -3.4511739015579224e-01 -3.1343898177146912e-01 9.8509065806865692e-02 -1.1395851522684097e-01 -2.1891139447689056e-01 -4.2147557251155376e-03 -9.6108332276344299e-02 -9.7744293510913849e-02 -2.0229254662990570e-01 7.9611144959926605e-02 -2.2562108933925629e-01 1.8838623166084290e-01 1.3449764251708984e-01 -2.1126206219196320e-01 4.1290808469057083e-02 7.5744539499282837e-02 -1.6770087182521820e-01 1.0879366844892502e-01 -6.9625601172447205e-02 -8.5711807012557983e-02 -1.8301935493946075e-01 -1.1181838810443878e-01 -1.4397287368774414e-01 2.6964342594146729e-01 1.9263535737991333e-01 -7.9388368129730225e-01 -1.2465947866439819e-01 -2.5040978193283081e-01 -3.9183825254440308e-01 3.7178604397922754e-03 3.6126977205276489e-01 9.1296762228012085e-02 -1.9136942923069000e-01 4.6639349311590195e-02 -1.9125869870185852e-01 4.7698250412940979e-01 7.8776992857456207e-02 2.4777543544769287e-01 5.9090023860335350e-03 1.1947852373123169e-01 -2.0414932072162628e-01 -4.8739799857139587e-01 -1.0625840723514557e-01 1.4635433256626129e-01 -1.1923448741436005e-01 -1.1159614473581314e-01 1.6195256263017654e-02 -1.6725686192512512e-01 1.0699146240949631e-01 -3.9279181510210037e-02 -8.9410217478871346e-03 1.5231913328170776e-01 -3.4128408879041672e-02 1.0721622966229916e-02 7.4150450527667999e-03 8.6337896063923836e-03 -1.2683260440826416e-01 1.2968763709068298e-01 -1.5802732110023499e-01 -3.2626476604491472e-04 1.9579964876174927e-01 1.0270181298255920e-01 -1.2640726752579212e-02 2.1812237799167633e-01 2.7394692879170179e-03 -6.6665999591350555e-02 1.6870494931936264e-02 -1.5734051167964935e-01 -3.7558335810899734e-02 -1.0858669131994247e-01 -6.7295305430889130e-02 8.3903819322586060e-03 -7.6567418873310089e-02 1.5468436479568481e-01 -2.7429960668087006e-02 9.4377584755420685e-02 7.7756442129611969e-02 1.1418720707297325e-02 3.0551915988326073e-02 2.5133928284049034e-02 -2.0140433683991432e-02 -2.9719041660428047e-02 5.2171729505062103e-02 -3.1587541103363037e-02 3.1167663633823395e-02 -3.6090344190597534e-02 -5.2986253052949905e-02 6.7616216838359833e-02 4.9730766564607620e-02 -9.0468585491180420e-02 6.1985753476619720e-02 -2.3986911401152611e-02 -1.1340764164924622e-01 1.2285191332921386e-03 7.4660792015492916e-03 -1.8371811136603355e-02 6.5969713032245636e-02 3.7417527288198471e-02 -7.1704804897308350e-02 9.5231086015701294e-02 3.0799549072980881e-02 8.1320874392986298e-02 6.6098630428314209e-02 -1.0777018032968044e-02 2.5515250861644745e-02 -1.3254558667540550e-02 6.7441761493682861e-02 -8.0782487988471985e-02 1.8260093033313751e-01 8.5027627646923065e-02 -2.3630401492118835e-01 1.2295898795127869e-01 1.6363047063350677e-02 1.6706588864326477e-01 -2.6463979482650757e-01 -1.7127740383148193e-01 8.5553623735904694e-02 5.7891037315130234e-02 2.2183044254779816e-01 -3.0507970601320267e-02 1.9325762987136841e-02 1.6856616362929344e-02 -5.8514770353212953e-04 1.3096387684345245e-01 4.7879792749881744e-02 -1.2159759551286697e-01 -2.9657202959060669e-01 -7.3312828317284584e-03 3.5891246795654297e-01 3.5788556933403015e-01 -9.4031706452369690e-02 1.5483364462852478e-01 2.5596311688423157e-01 -5.0618872046470642e-02 7.8492924571037292e-02 1.3200883567333221e-01 2.1358998119831085e-01 -4.9923013895750046e-02 3.4185338765382767e-02 -1.3428145647048950e-01 -9.1059274971485138e-02 -1.9571058452129364e-02 2.4234885349869728e-02 -8.2751244306564331e-02 1.4407068490982056e-01 -8.3477951586246490e-02 -6.9678681902587414e-03 8.5169874131679535e-02 7.9681858420372009e-02 6.7860230803489685e-02 5.5954847484827042e-02 -1.4978902041912079e-01 -1.5722908079624176e-01 4.1291898488998413e-01 -5.3941816091537476e-02 1.1451382189989090e-01 3.0753132700920105e-01 3.9191540330648422e-02 -1.6728128492832184e-01 5.7467482984066010e-03 9.6997126936912537e-02 1.9184948876500130e-02 1.4932212233543396e-01 -2.8092411160469055e-01 -3.9497993886470795e-02 -1.8504242599010468e-01 1.6728440299630165e-02 -1.5016216039657593e-01 1.1322585493326187e-01 2.9473644495010376e-01 1.3531303964555264e-02 -3.4534633159637451e-02 9.1163039207458496e-02 1.4927950501441956e-01 -1.9554126262664795e-01 3.5647466778755188e-01 5.3119782358407974e-02 1.4951191842556000e-01 -1.9881854951381683e-01 -1.6845801472663879e-01 2.3410469293594360e-02 1.4825014770030975e-01 1.6229818761348724e-01 -1.0400611907243729e-01 3.5954665392637253e-02 3.2617717981338501e-02 -1.5130982734262943e-02 2.0263055339455605e-02 -7.9055756330490112e-02 -1.0639341175556183e-01 -2.7039271593093872e-01 -1.0234396159648895e-01 3.6596554517745972e-01 3.3328038454055786e-01 1.1562244966626167e-02 1.4900097250938416e-01 1.7113219201564789e-01 -2.0955117419362068e-02 7.4302819557487965e-03 1.4219272136688232e-01 2.5356823205947876e-01 -4.5324668288230896e-02 1.5388400852680206e-01 -6.5995737910270691e-02 5.2501250058412552e-02 -8.2724904641509056e-03 -2.0025691017508507e-02 1.1833833903074265e-01 -7.3789611458778381e-02 1.0233346372842789e-01 -6.1508435755968094e-02 -1.0493250936269760e-01 -1.2066166102886200e-01 2.8754396364092827e-02 -9.4220325350761414e-02 1.3769872486591339e-01 8.3251766860485077e-02 -3.7876248359680176e-01 1.8422851338982582e-02 -1.9522500038146973e-01 -3.3453458547592163e-01 -4.6056419610977173e-02 1.5547379851341248e-01 -1.3850048184394836e-01 -9.6913859248161316e-02 -1.1034313589334488e-02 -1.4452101290225983e-01 3.0417129397392273e-01 1.9868355244398117e-02 8.0458141863346100e-02 1.7934249714016914e-02 8.3588369190692902e-02 -7.7594511210918427e-02 -3.4056970477104187e-01 2.6557143777608871e-02 -1.4468228444457054e-02 3.6828935146331787e-02 2.7866672724485397e-02 -8.7528452277183533e-02 1.3255207240581512e-01 -1.7072608694434166e-02 7.7961437404155731e-02 2.5667755398899317e-03 -1.1001995950937271e-01 -2.1443670615553856e-02 1.5125376172363758e-02 3.7945110350847244e-02 -4.3988861143589020e-02 2.9578560963273048e-02 -8.2182310521602631e-02 1.3577702455222607e-02 -6.6906794905662537e-02 -1.8122199177742004e-01 -7.0487104356288910e-02 1.2414413504302502e-02 -1.7500352859497070e-01 1.0399556905031204e-01 4.9186158925294876e-02 -3.5615872591733932e-02 2.1240310370922089e-01 9.9730595946311951e-02 7.3723763227462769e-02 -3.0963509343564510e-03 -1.8058801069855690e-02 2.4044848978519440e-02 -7.0164360105991364e-02 1.1201367713510990e-02 -9.5247410237789154e-02 -1.2111314386129379e-01 4.0708910673856735e-02 8.2855150103569031e-03 -2.0525867119431496e-02 5.6053549051284790e-02 -5.8661963790655136e-02 1.1516592465341091e-02 8.2384072244167328e-02 5.9994049370288849e-02 3.1043052673339844e-02 5.9363227337598801e-02 3.5613644868135452e-03 -1.0270795226097107e-01 2.2287715971469879e-01 2.7163522318005562e-03 7.6596334576606750e-02 1.8452383577823639e-01 4.1905634105205536e-02 1.3509021140635014e-02 3.7812069058418274e-02 6.3911825418472290e-02 6.2888577580451965e-02 2.5534601882100105e-02 -1.9826385378837585e-01 -3.8522806018590927e-02 -4.5994836837053299e-02 2.4950292427092791e-03 -1.0243652015924454e-01 -1.9990969449281693e-02 2.2321277856826782e-01 -1.8359623849391937e-02 4.7899723052978516e-02 
      </Weights>
      <Biases rows="16" cols="1">
        4.5469900965690613e-01 1.4500425755977631e-01 8.1992767751216888e-02 2.9951939359307289e-02 2.4245572090148926e-01 -3.5509213805198669e-01 5.1614195108413696e-01 -1.9849599897861481e-01 -9.0229392051696777e-02 3.0695598572492599e-02 -4.9598997831344604e-01 3.4576497972011566e-02 -3.5874333977699280e-01 1.9772337377071381e-01 3.9955064654350281e-02 -1.0390280932188034e-01 
      </Biases>
    </Layer>
    <Layer ActivationFunction="2">
      <Weights rows="16" cols="16">
        -5.7001131772994995e-01 1.0373689979314804e-01 1.4043046534061432e-01 9.8069608211517334e-02 -1.6188019514083862e-01 3.0835199356079102e-01 -4.0583994984626770e-01 2.0234195888042450e-01 -1.1773549765348434e-01 -6.9443739950656891e-02 3.7973773479461670e-01 9.2424891889095306e-02 4.0416917204856873e-01 -2.7403155341744423e-02 1.1686212569475174e-01 7.2043430991470814e-03 -6.4166046679019928e-02 -3.7333205342292786e-01 -1.6084468364715576e-01 -1.9797569140791893e-02 -2.1877939999103546e-01 -1.0941363871097565e-01 1.2219324707984924e-01 -5.0047492980957031e-01 1.4731574058532715e-01 -1.4726234972476959e-01 -2.0734697580337524e-02 2.3065194487571716e-01 -4.8406671732664108e-02 -2.4214605987071991e-01 -1.9444890320301056e-01 2.1177424490451813e-01 2.5606784969568253e-02 -4.7095265984535217e-01 -2.1387733519077301e-01 1.0245589166879654e-01 -1.7549221217632294e-01 -1.0112194716930389e-01 1.6212892532348633e-01 -4.6428421139717102e-01 2.0660556852817535e-01 -1.2180602550506592e-01 -5.6187715381383896e-02 2.0317073166370392e-01 -1.3293223455548286e-02 -2.8159460425376892e-01 -1.4730706810951233e-01 1.6737747192382812e-01 -3.0012017488479614e-01 1.5488207340240479e-01 4.6286962926387787e-02 1.3840505853295326e-02 -1.2095922976732254e-01 2.8277832269668579e-01 -1.9930003583431244e-01 1.9009616971015930e-01 -4.7093629837036133e-02 -1.3873394578695297e-02 1.2427712231874466e-01 -3.2542444765567780e-02 2.1746297180652618e-01 1.3172262907028198e-01 8.5138030350208282e-02 -3.2662939280271530e-02 -1.8256339430809021e-01 9.1900087893009186e-02 4.6575475484132767e-02 2.5713708251714706e-02 -7.6509653590619564e-03 2.4124807119369507e-01 -3.4713757038116455e-01 1.1960564553737640e-01 9.7278328612446785e-03 7.1225635707378387e-02 2.3646768927574158e-01 -8.3703152835369110e-02 1.5499113500118256e-01 -5.5589997209608555e-03 5.6261468678712845e-02 -8.3846159279346466e-02 4.3550625443458557e-02 -2.1298268437385559e-01 -9.3192271888256073e-02 -9.5260322093963623e-02 1.6880653798580170e-02 -1.6756488382816315e-01 1.9642852246761322e-01 -2.5058096647262573e-01 2.1162660419940948e-01 -6.6588990390300751e-02 -1.4710122346878052e-01 4.7832313925027847e-02 -9.8062388598918915e-02 -1.2694594264030457e-01 -1.0101224482059479e-01 4.6638753265142441e-02 -1.0487843304872513e-01 1.1173438280820847e-01 -2.8337297961115837e-02 1.1142145097255707e-01 -1.4273729920387268e-01 3.7957940250635147e-02 -6.8776935338973999e-02 7.0797726511955261e-02 6.9574236869812012e-02 9.3453094363212585e-02 1.0846618562936783e-01 4.4112443923950195e-02 5.4846193641424179e-02 -6.1004760209470987e-04 3.6539755761623383e-02 3.6974113434553146e-02 1.0032316297292709e-01 -1.2478812783956528e-01 -1.7039285600185394e-01 1.2212794274091721e-02 -1.5559169650077820e-01 -5.9758152812719345e-02 1.3639308512210846e-01 -7.3568902909755707e-02 1.5849283337593079e-01 -2.6962632313370705e-02 -3.8736090064048767e-02 1.2319867312908173e-01 -7.3079019784927368e-02 -5.3207948803901672e-02 -4.5835226774215698e-02 3.4960351884365082e-02 -3.5722214728593826e-02 -9.6655681729316711e-02 6.1896331608295441e-02 1.0519718052819371e-03 -2.6369700208306313e-02 2.2738641127943993e-02 -7.2740800678730011e-02 7.1487896144390106e-02 4.3170012533664703e-02 -1.4801409095525742e-02 1.0423763841390610e-01 -1.4024701900780201e-02 1.0897992551326752e-01 -3.0369499698281288e-02 -2.9040856286883354e-02 -6.0192827135324478e-02 -2.5292882323265076e-01 7.2953447699546814e-02 1.2821900844573975e-01 -4.1241198778152466e-02 -1.2896244227886200e-01 1.7483882606029510e-01 -2.5125879049301147e-01 1.5509425103664398e-01 2.9485304839909077e-03 -4.4442426413297653e-02 2.2784931957721710e-01 5.4489879403263330e-04 2.1178114414215088e-01 3.1598296016454697e-02 1.2093116343021393e-01 7.0628024637699127e-02 -5.4925626516342163e-01 1.3120359182357788e-01 1.2794056534767151e-01 1.4319151639938354e-02 -1.6019541025161743e-01 3.0440458655357361e-01 -4.8685792088508606e-01 1.3495148718357086e-01 -1.7476707696914673e-01 2.6257673278450966e-02 3.8720458745956421e-01 -1.3777059502899647e-03 3.1877455115318298e-01 2.9750757385045290e-03 3.9301641285419464e-02 2.7796659618616104e-02 -4.4857777655124664e-02 -2.9690489172935486e-01 -2.2266954183578491e-01 -1.6025586053729057e-02 -1.2080498784780502e-01 -1.4277990162372589e-01 2.0141056180000305e-01 -4.1234657168388367e-01 3.0046436190605164e-01 -4.7328788787126541e-02 3.7375889718532562e-02 8.1177905201911926e-02 -1.0749558359384537e-01 -2.8749504685401917e-01 -8.7070740759372711e-02 1.4254818856716156e-01 3.2821059226989746e-02 -3.2229328155517578e-01 -1.8456076085567474e-01 -6.1459686607122421e-02 -7.4137359857559204e-02 -2.5847402215003967e-01 2.3439703881740570e-01 -2.6472610235214233e-01 1.8843469023704529e-01 -1.3851627707481384e-01 1.1670862324535847e-02 1.3476406037807465e-01 -7.9282887279987335e-02 -1.3310799002647400e-01 -2.0074446499347687e-01 8.4626786410808563e-02 -2.5241667032241821e-01 1.8712402880191803e-01 1.3597615063190460e-01 7.6722286641597748e-02 -3.3708535134792328e-02 2.5555312633514404e-01 -2.1266841888427734e-01 1.7670625448226929e-01 -6.1941068619489670e-02 1.6864264383912086e-02 1.6891366243362427e-01 -3.0043784528970718e-02 1.7322781682014465e-01 -7.0408829487860203e-03 1.0988173307850957e-03 3.7623435258865356e-02 -5.7043299078941345e-02 -3.5013924352824688e-03 3.1515169888734818e-02 6.3179478049278259e-02 -8.9563541114330292e-02 1.4272990822792053e-01 -1.2942475080490112e-01 4.5529235154390335e-02 -1.0177072137594223e-01 1.8789442256093025e-02 1.9029323756694794e-01 5.0005335360765457e-02 2.0843723416328430e-01 -6.5937817096710205e-02 -3.5890445113182068e-02 -6.9736748933792114e-02 2.9612664133310318e-02 -3.2301440834999084e-01 -1.0322788357734680e-01 6.5926752984523773e-02 -1.2984380125999451e-02 -2.0747523009777069e-01 1.0731658339500427e-01 -2.5940054655075073e-01 2.6085945963859558e-01 4.4317465275526047e-02 -3.6634776741266251e-02 1.4248849451541901e-01 2.8181051835417747e-02 -2.2271654009819031e-01 -1.7686805129051208e-01 2.1276202797889709e-01 
      </Weights>
      <Biases rows="16" cols="1">
        -3.2353052496910095e-01 -3.3780482411384583e-01 -3.2673490047454834e-01 -2.5849425792694092e-01 -2.1988357603549957e-01 -2.8287225961685181e-01 -2.1899917721748352e-01 -2.0273764431476593e-01 -2.6831591129302979e-01 -3.2459366321563721e-01 -3.3061107993125916e-01 -3.2193401455879211e-01 -3.2073062658309937e-01 -2.2883222997188568e-01 -2.3699118196964264e-01 -1.9970266520977020e-01 
      </Biases>
    </Layer>
    <Layer ActivationFunction="0">
      <Weights rows="1" cols="16">
        -8.4681183099746704e-01 5.7049435377120972e-01 7.8135389089584351e-01 -4.9519664049148560e-01 -4.3075457215309143e-01 3.4761273860931396e-01 -2.4005864560604095e-01 7.8869335353374481e-02 1.2542352080345154e-01 -1.5657772123813629e-01 -7.5484466552734375e-01 5.0869232416152954e-01 5.5358117818832397e-01 -3.5274082422256470e-01 -2.9132917523384094e-01 2.9117348790168762e-01 
      </Weights>
      <Biases rows="1" cols="1">
        1.0591545142233372e-02 
      </Biases>
    </Layer>
  </Weights>
</MethodSetup>
