<?xml version="1.0"?>
<MethodSetup Method="DNN::DNN_NanoV2_2020_morestat_BMET_x2">
  <GeneralInfo>
    <Info name="TMVA Release" value="4.2.1 [262657]"/>
    <Info name="ROOT Release" value="6.12/07 [396295]"/>
    <Info name="Creator" value="hum"/>
    <Info name="Date" value="Sat Sep 25 08:46:00 2021"/>
    <Info name="Host" value="Linux vocms0301.cern.ch 2.6.32-696.30.1.el6.x86_64 #1 SMP Tue May 22 06:09:36 CEST 2018 x86_64 x86_64 x86_64 GNU/Linux"/>
    <Info name="Dir" value="/afs/cern.ch/work/h/hum/public/CMSSW_10_2_13/src/ChargedHiggs/Analysis"/>
    <Info name="Training events" value="5322"/>
    <Info name="TrainingTime" value="2.62073016e+00"/>
    <Info name="AnalysisType" value="Classification"/>
  </GeneralInfo>
  <Options>
    <Option name="V" modified="Yes">True</Option>
    <Option name="VerbosityLevel" modified="No">Verbose</Option>
    <Option name="VarTransform" modified="Yes">N</Option>
    <Option name="H" modified="Yes">False</Option>
    <Option name="CreateMVAPdfs" modified="No">False</Option>
    <Option name="IgnoreNegWeightsInTraining" modified="No">False</Option>
    <Option name="Layout" modified="Yes">SIGMOID|32,TANH|16,TANH|16,LINEAR</Option>
    <Option name="ValidationSize" modified="No">20%</Option>
    <Option name="ErrorStrategy" modified="Yes">CROSSENTROPY</Option>
    <Option name="WeightInitialization" modified="Yes">XAVIERUNIFORM</Option>
    <Option name="Architecture" modified="Yes">CPU</Option>
    <Option name="TrainingStrategy" modified="Yes">LearningRate=1e-1,Momentum=0.5,Repetitions=1,ConvergenceSteps=20,BatchSize=256,TestRepetitions=10,WeightDecay=1e-4,Regularization=L2,DropConfig=0.0+0.1+0.25+0.5,</Option>
  </Options>
  <Variables NVar="9">
    <Variable VarIndex="0" Expression="j1QGL" Label="j1QGL" Title="j1QGL" Unit="" Internal="j1QGL" Type="F" Min="-1.00000000e+00" Max="1.00000000e+00"/>
    <Variable VarIndex="1" Expression="j2QGL" Label="j2QGL" Title="j2QGL" Unit="" Internal="j2QGL" Type="F" Min="-1.00000000e+00" Max="1.00000000e+00"/>
    <Variable VarIndex="2" Expression="varMjj" Label="varMjj" Title="varMjj" Unit="" Internal="varMjj" Type="F" Min="5.00129761e+02" Max="6.16059277e+03"/>
    <Variable VarIndex="3" Expression="varDetajj" Label="varDetajj" Title="varDetajj" Unit="" Internal="varDetajj" Type="F" Min="2.50000000e+00" Max="8.77441406e+00"/>
    <Variable VarIndex="4" Expression="varJet1Pt" Label="varJet1Pt" Title="varJet1Pt" Unit="" Internal="varJet1Pt" Type="F" Min="5.24687500e+01" Max="1.72900000e+03"/>
    <Variable VarIndex="5" Expression="varJet2Pt" Label="varJet2Pt" Title="varJet2Pt" Unit="" Internal="varJet2Pt" Type="F" Min="5.00000000e+01" Max="1.01000000e+03"/>
    <Variable VarIndex="6" Expression="varMTVV" Label="varMTVV" Title="varMTVV" Unit="" Internal="varMTVV" Type="F" Min="5.83142395e+02" Max="4.61553369e+03"/>
    <Variable VarIndex="7" Expression="varCen" Label="varCen" Title="varCen" Unit="" Internal="varCen" Type="F" Min="-1.57360840e+00" Max="4.02624512e+00"/>
    <Variable VarIndex="8" Expression="varnormPTVVjj" Label="varnormPTVVjj" Title="varnormPTVVjj" Unit="" Internal="varnormPTVVjj" Type="F" Min="3.10590345e-04" Max="2.48427317e-01"/>
  </Variables>
  <Spectators NSpec="0"/>
  <Classes NClass="2">
    <Class Name="Signal" Index="0"/>
    <Class Name="Background" Index="1"/>
  </Classes>
  <Transformations NTransformations="1">
    <Transform Name="Normalize">
      <Selection>
        <Input NInputs="9">
          <Input Type="Variable" Label="j1QGL" Expression="j1QGL"/>
          <Input Type="Variable" Label="j2QGL" Expression="j2QGL"/>
          <Input Type="Variable" Label="varMjj" Expression="varMjj"/>
          <Input Type="Variable" Label="varDetajj" Expression="varDetajj"/>
          <Input Type="Variable" Label="varJet1Pt" Expression="varJet1Pt"/>
          <Input Type="Variable" Label="varJet2Pt" Expression="varJet2Pt"/>
          <Input Type="Variable" Label="varMTVV" Expression="varMTVV"/>
          <Input Type="Variable" Label="varCen" Expression="varCen"/>
          <Input Type="Variable" Label="varnormPTVVjj" Expression="varnormPTVVjj"/>
        </Input>
        <Output NOutputs="9">
          <Output Type="Variable" Label="j1QGL" Expression="j1QGL"/>
          <Output Type="Variable" Label="j2QGL" Expression="j2QGL"/>
          <Output Type="Variable" Label="varMjj" Expression="varMjj"/>
          <Output Type="Variable" Label="varDetajj" Expression="varDetajj"/>
          <Output Type="Variable" Label="varJet1Pt" Expression="varJet1Pt"/>
          <Output Type="Variable" Label="varJet2Pt" Expression="varJet2Pt"/>
          <Output Type="Variable" Label="varMTVV" Expression="varMTVV"/>
          <Output Type="Variable" Label="varCen" Expression="varCen"/>
          <Output Type="Variable" Label="varnormPTVVjj" Expression="varnormPTVVjj"/>
        </Output>
      </Selection>
      <Class ClassIndex="0">
        <Ranges>
          <Range Index="0" Min="-1.0000000000000000e+00" Max="1.0000000000000000e+00"/>
          <Range Index="1" Min="-1.0000000000000000e+00" Max="9.9951171875000000e-01"/>
          <Range Index="2" Min="5.0042843627929688e+02" Max="6.1024248046875000e+03"/>
          <Range Index="3" Min="2.5004882812500000e+00" Max="8.7744140625000000e+00"/>
          <Range Index="4" Min="5.4156250000000000e+01" Max="1.5440000000000000e+03"/>
          <Range Index="5" Min="5.0000000000000000e+01" Max="7.7550000000000000e+02"/>
          <Range Index="6" Min="5.8314239501953125e+02" Max="2.9092182617187500e+03"/>
          <Range Index="7" Min="-1.5736083984375000e+00" Max="4.0262451171875000e+00"/>
          <Range Index="8" Min="3.1059034517966211e-04" Max="2.4842731654644012e-01"/>
        </Ranges>
      </Class>
      <Class ClassIndex="1">
        <Ranges>
          <Range Index="0" Min="-1.0000000000000000e+00" Max="9.9951171875000000e-01"/>
          <Range Index="1" Min="-1.0000000000000000e+00" Max="1.0000000000000000e+00"/>
          <Range Index="2" Min="5.0012976074218750e+02" Max="6.1605927734375000e+03"/>
          <Range Index="3" Min="2.5000000000000000e+00" Max="7.1586914062500000e+00"/>
          <Range Index="4" Min="5.2468750000000000e+01" Max="1.7290000000000000e+03"/>
          <Range Index="5" Min="5.0062500000000000e+01" Max="1.0100000000000000e+03"/>
          <Range Index="6" Min="5.8432653808593750e+02" Max="4.6155336914062500e+03"/>
          <Range Index="7" Min="-1.5415039062500000e+00" Max="3.3737792968750000e+00"/>
          <Range Index="8" Min="2.4279847275465727e-03" Max="2.4823673069477081e-01"/>
        </Ranges>
      </Class>
      <Class ClassIndex="2">
        <Ranges>
          <Range Index="0" Min="-1.0000000000000000e+00" Max="1.0000000000000000e+00"/>
          <Range Index="1" Min="-1.0000000000000000e+00" Max="1.0000000000000000e+00"/>
          <Range Index="2" Min="5.0012976074218750e+02" Max="6.1605927734375000e+03"/>
          <Range Index="3" Min="2.5000000000000000e+00" Max="8.7744140625000000e+00"/>
          <Range Index="4" Min="5.2468750000000000e+01" Max="1.7290000000000000e+03"/>
          <Range Index="5" Min="5.0000000000000000e+01" Max="1.0100000000000000e+03"/>
          <Range Index="6" Min="5.8314239501953125e+02" Max="4.6155336914062500e+03"/>
          <Range Index="7" Min="-1.5736083984375000e+00" Max="4.0262451171875000e+00"/>
          <Range Index="8" Min="3.1059034517966211e-04" Max="2.4842731654644012e-01"/>
        </Ranges>
      </Class>
    </Transform>
  </Transformations>
  <MVAPdfs/>
  <Weights InputWidth="9" Depth="4" LossFunction="C" OutputFunction="S">
    <Layer ActivationFunction="2">
      <Weights rows="32" cols="9">
        -1.5686202049255371e-01 -7.2482600808143616e-02 -9.6610762178897858e-02 3.0824467539787292e-01 -2.5008949637413025e-01 -4.2939019203186035e-01 -6.0144418478012085e-01 -5.2826344966888428e-01 3.7719699740409851e-01 1.6302597522735596e-01 -1.4695408940315247e-01 1.7902213335037231e-01 -1.2015211582183838e-01 6.4035099744796753e-01 4.4828155636787415e-01 6.8513023853302002e-01 -1.7707863822579384e-02 -5.0826889276504517e-01 -2.1649149060249329e-01 1.5566146373748779e-01 6.4897209405899048e-01 4.2007356882095337e-01 -1.9114889204502106e-01 3.2093563675880432e-01 5.7932591438293457e-01 5.9551890939474106e-02 -2.9642531275749207e-01 -3.9635801315307617e-01 -1.0964254289865494e-01 2.7480128407478333e-01 -1.0725426673889160e-01 -2.6133527979254723e-02 2.7804577350616455e-01 -1.4760530553758144e-02 2.0526926219463348e-01 -3.8810473680496216e-01 -5.1563632488250732e-01 -1.2481506913900375e-01 -7.2601914405822754e-01 -1.4823718369007111e-01 -2.2208881378173828e-01 7.5985856354236603e-02 -8.8193160295486450e-01 1.3668976724147797e-01 6.0542112588882446e-01 -3.6404263973236084e-01 4.1002425551414490e-01 -1.5781490504741669e-01 3.3321094512939453e-01 3.6432873457670212e-02 1.7877985537052155e-01 -6.4765609800815582e-02 3.5672378540039062e-01 4.1343033313751221e-01 -2.8529664874076843e-01 2.3839032649993896e-01 -2.0011271536350250e-01 -2.6173236966133118e-01 -5.0999164581298828e-01 -1.6985429823398590e-01 -3.8556247949600220e-02 -3.3614483475685120e-01 -2.7134862542152405e-01 1.8100468814373016e-01 -1.8662869930267334e-02 6.5587913990020752e-01 1.8050503730773926e-01 2.4411754310131073e-01 2.0378603041172028e-01 6.1381065845489502e-01 5.1011747121810913e-01 -2.2433166205883026e-01 2.8575658798217773e-01 3.3022511005401611e-01 -2.9868915677070618e-01 9.3871138989925385e-02 -4.2518427968025208e-01 -1.8816433846950531e-01 1.5435728430747986e-01 -3.6137145757675171e-01 -2.6065680384635925e-01 4.6221515536308289e-01 4.7572714090347290e-01 5.0990992784500122e-01 -9.9194981157779694e-02 7.5275534391403198e-01 3.8398316502571106e-01 8.0961632728576660e-01 -1.6209283471107483e-01 -3.8717776536941528e-01 1.5815439820289612e-01 2.8753152489662170e-01 1.0252641439437866e+00 -3.9716887474060059e-01 1.6065019369125366e-01 2.0528143271803856e-02 6.5203940868377686e-01 5.9190529584884644e-01 6.6023029386997223e-02 -3.8964852690696716e-01 -2.0183973014354706e-01 3.2674813270568848e-01 -3.3044224977493286e-01 2.0728164911270142e-01 -3.9215511083602905e-01 -2.6976293325424194e-01 3.5845121741294861e-01 9.0978771448135376e-02 3.3673113584518433e-01 8.8816247880458832e-02 6.4881223440170288e-01 6.7269995808601379e-02 -1.8601933121681213e-01 1.1377497017383575e-01 1.5034568309783936e-01 2.5933101773262024e-02 2.7901455760002136e-01 9.1571453958749771e-03 2.3925974965095520e-01 -5.7402127981185913e-01 -4.4379144906997681e-02 -2.1671795845031738e-01 9.8475605249404907e-02 -2.2638705372810364e-01 -4.4346883893013000e-01 -1.9902312755584717e-01 2.6563227176666260e-01 -1.5281456708908081e-01 -3.6624142527580261e-01 -2.3170704022049904e-02 -3.7175163626670837e-01 -5.3333599120378494e-02 -4.7812070697546005e-03 -2.7701839804649353e-01 6.9900624454021454e-02 2.7473509311676025e-01 -7.6970621943473816e-02 -5.1474034786224365e-01 -2.9284629225730896e-01 -3.6373269557952881e-01 -2.4544069543480873e-02 2.2818346321582794e-01 -2.9783865809440613e-01 2.0842385292053223e-01 2.5324386358261108e-01 -3.7906417250633240e-01 -6.2286692857742310e-01 -1.4986850321292877e-01 -3.7020403146743774e-01 -4.0134939551353455e-01 -4.4080380350351334e-02 1.3578684628009796e-01 -1.4097969233989716e-01 1.7375816404819489e-01 -2.1376964449882507e-01 8.1040889024734497e-01 3.9779204130172729e-01 -2.6744738221168518e-02 2.8521588444709778e-01 1.2170626968145370e-01 2.2742535173892975e-01 -5.1952433586120605e-01 -2.6426860690116882e-01 -2.6186770200729370e-01 -1.7396250739693642e-02 -2.0410169661045074e-01 -3.6835876107215881e-01 -3.7066978216171265e-01 1.3206200674176216e-02 -3.2687786221504211e-01 1.4875718951225281e-01 1.8645325303077698e-01 -1.3080218434333801e-01 5.6062501668930054e-01 -1.9937945902347565e-01 -6.6541567444801331e-02 4.0590456128120422e-01 3.3859181404113770e-01 1.7857199907302856e-01 2.2488038986921310e-02 2.7077859640121460e-01 8.0758310854434967e-02 -1.8630935251712799e-01 2.6736712455749512e-01 -3.3993449807167053e-01 4.7669035196304321e-01 -3.2219228148460388e-01 2.4155615270137787e-01 1.8498198688030243e-01 -1.1221936345100403e-01 -4.9395874142646790e-01 -7.9996937513351440e-01 1.7413108050823212e-01 -9.0709418058395386e-02 -1.8218147754669189e-01 -6.6291648149490356e-01 7.3597401380538940e-02 2.6486563682556152e-01 9.1311797499656677e-02 -1.1843736283481121e-02 3.4280747175216675e-01 6.7897066473960876e-02 4.3951314687728882e-01 1.0249797999858856e-01 2.9674106836318970e-01 -2.8627309948205948e-02 3.5446551442146301e-01 -8.2487478852272034e-02 3.1392899155616760e-01 2.5672325491905212e-01 2.3989658057689667e-01 2.9998034238815308e-01 -3.6860871315002441e-01 -3.7638753652572632e-01 3.6792758107185364e-01 -1.0232467204332352e-02 1.3457694649696350e-01 5.5649220943450928e-01 7.3814648389816284e-01 9.7372069954872131e-02 2.8789362311363220e-01 3.6926731467247009e-02 1.1191405057907104e+00 1.7024815082550049e-01 -3.9094135165214539e-01 -2.7773812413215637e-02 1.8016690015792847e-01 7.0626217126846313e-01 -4.0661606192588806e-01 2.0079961419105530e-01 -9.7373627126216888e-02 7.8069859743118286e-01 3.1730929017066956e-01 -2.5349676609039307e-01 6.5398998558521271e-02 4.6196749806404114e-01 1.1451297998428345e+00 2.8421545028686523e-01 5.4960834980010986e-01 -1.3825501501560211e-01 7.9003828763961792e-01 2.5040501728653908e-02 -7.2362774610519409e-01 2.8564622998237610e-01 2.0430377125740051e-01 9.7659868001937866e-01 2.5771939754486084e-01 5.7742172479629517e-01 2.5547838211059570e-01 6.1454690992832184e-02 5.8840179443359375e-01 -3.7119856476783752e-01 -2.2181002795696259e-01 -3.2501786947250366e-01 -5.7782202959060669e-01 3.7899252772331238e-01 -3.9228808879852295e-01 -4.7067156434059143e-01 -4.1657257080078125e-01 1.3619394600391388e-01 1.1817531287670135e-01 1.2618762440979481e-02 -4.6716326475143433e-01 -5.4887229204177856e-01 2.2776514291763306e-01 -2.7129632234573364e-01 -5.3070973604917526e-02 8.5200527682900429e-03 5.0648164004087448e-02 3.3718973398208618e-01 -9.7141060978174210e-03 6.5017551183700562e-02 2.1008476614952087e-01 -8.8562719523906708e-02 -3.2021427154541016e-01 -2.8992879390716553e-01 1.0808313637971878e-01 1.0154111683368683e-01 -3.5274693369865417e-01 -2.3342294991016388e-01 -4.4276052713394165e-01 2.4289849400520325e-01 2.9947039484977722e-01 2.3091454803943634e-01 -2.2058238089084625e-01 2.6656607165932655e-02 -3.6122877150774002e-02 -2.3883505165576935e-01 
      </Weights>
      <Biases rows="32" cols="1">
        -1.4496487379074097e-01 1.8620494008064270e-01 1.2105657160282135e-01 -4.8998020589351654e-02 -1.3311283290386200e-01 -5.5020615458488464e-02 -1.5657803416252136e-01 3.3423656225204468e-01 -8.5870958864688873e-02 1.8841381371021271e-01 2.6171123981475830e-01 -5.3629487752914429e-02 -4.3723642826080322e-02 -1.7558090388774872e-01 -9.3019403517246246e-02 -1.1216000467538834e-01 -2.2993481159210205e-01 5.6268335320055485e-03 -5.7554583996534348e-02 7.6733957976102829e-03 -5.8838821947574615e-02 -1.9410546123981476e-01 2.6631776243448257e-02 -6.4601957798004150e-02 3.3982262015342712e-01 6.1185829341411591e-02 4.3334463238716125e-01 2.7789190411567688e-01 -2.4902057647705078e-01 -5.7369936257600784e-02 -7.9504750669002533e-02 -6.6343992948532104e-02 
      </Biases>
    </Layer>
    <Layer ActivationFunction="3">
      <Weights rows="16" cols="32">
        -3.7501990795135498e-02 -1.1903850734233856e-01 2.2624302655458450e-02 1.1639640480279922e-01 -5.0274450331926346e-02 -2.1494171023368835e-01 -1.7773956060409546e-01 -3.2089325785636902e-01 1.4553618431091309e-01 -1.6474948823451996e-01 -1.9539774954319000e-01 -1.3720588386058807e-01 -8.7747037410736084e-02 2.4545295536518097e-01 1.8801881372928619e-01 9.9332831799983978e-02 -7.1774557232856750e-02 -2.4798707664012909e-01 -9.4363942742347717e-02 -9.4755226746201515e-03 1.1672282963991165e-01 2.8458809852600098e-01 -2.3556399345397949e-01 1.2869143486022949e-01 -5.1528979092836380e-02 -1.7181032896041870e-01 -1.9704981148242950e-01 -2.7531981468200684e-01 -4.1979935020208359e-02 6.5001592040061951e-02 -1.2348402291536331e-02 -6.9945655763149261e-02 1.4098154008388519e-01 -2.1333062648773193e-01 3.0095623806118965e-02 -2.5762996077537537e-01 -1.5038819611072540e-01 5.8939061127603054e-03 -4.4296048581600189e-02 -1.9852791726589203e-01 -2.1109683439135551e-03 -1.4201183617115021e-01 -3.7943884730339050e-01 2.1139402687549591e-01 1.6479416191577911e-01 -1.5649354457855225e-01 2.6412460207939148e-01 -1.4989247918128967e-01 1.8131582438945770e-01 -1.3279595971107483e-01 1.1650150269269943e-01 -1.6319531202316284e-01 1.2729837000370026e-01 3.1351494789123535e-01 -1.8488028645515442e-01 1.6617853939533234e-01 -1.9033563137054443e-01 -3.3312869071960449e-01 -3.7234836816787720e-01 -2.0238502323627472e-01 1.0904643684625626e-01 -1.2485529482364655e-01 -1.7747536301612854e-01 7.6631039381027222e-02 -7.8505270183086395e-02 2.3003729060292244e-02 1.2634606659412384e-01 4.3896664865314960e-03 1.2415039539337158e-01 1.1167121678590775e-01 2.1067787706851959e-01 -8.5754290223121643e-02 1.3551682233810425e-01 3.9794892072677612e-02 -2.2083131968975067e-01 5.2543554455041885e-02 -2.5766795873641968e-01 -1.0115990042686462e-01 1.1357954144477844e-01 -1.7161504924297333e-01 -1.6274917125701904e-01 1.1802241951227188e-01 2.5390565395355225e-01 -1.0313477367162704e-01 -8.2657732069492340e-02 2.5993669033050537e-01 4.7537699341773987e-02 5.9726428240537643e-02 -3.6223241686820984e-01 -3.0984449386596680e-01 -1.0030221939086914e-01 -7.2257839143276215e-02 2.1265199780464172e-01 -1.9089959561824799e-01 -7.4936985969543457e-02 -9.1505654156208038e-02 -4.2295452207326889e-02 4.1811510920524597e-01 2.3006379604339600e-01 -1.2215340882539749e-01 -1.8859721720218658e-01 1.5885587036609650e-01 -2.3138225078582764e-01 4.0009978413581848e-01 -1.5234665572643280e-01 3.5065582394599915e-01 4.3533504009246826e-01 5.0056550651788712e-02 2.2958828508853912e-01 -4.4192820787429810e-02 9.5642879605293274e-02 1.1793473735451698e-02 -2.6345172524452209e-01 1.5152716636657715e-01 -9.9667862057685852e-02 9.0027041733264923e-02 2.2629345953464508e-01 -1.8680503964424133e-01 2.2473515570163727e-01 -1.1302354186773300e-01 3.8073065876960754e-01 2.0191021263599396e-01 4.4723105430603027e-01 3.4934031963348389e-01 -1.9839027523994446e-01 -1.8769411742687225e-01 4.3461825698614120e-02 -7.6945215463638306e-02 -1.4659802429378033e-02 -3.8311690092086792e-01 -2.9310542345046997e-01 -1.0269277542829514e-01 2.3316524922847748e-01 -6.2123920768499374e-02 1.6989611089229584e-01 -1.7281675338745117e-01 2.2392386570572853e-02 -8.4009230136871338e-01 -4.8181772232055664e-01 -9.5489434897899628e-02 -3.8512133061885834e-02 2.9778209328651428e-01 8.0210216343402863e-02 6.0209326446056366e-02 3.4208938479423523e-01 -2.1245986223220825e-01 8.7177101522684097e-03 -2.4691444635391235e-01 -1.8185883760452271e-01 5.8394104242324829e-02 -3.4026227891445160e-02 1.5220725536346436e-01 -7.7197909355163574e-01 -2.5449156761169434e-01 -5.7183527946472168e-01 -1.6587170958518982e-01 2.6681309938430786e-01 -5.4007660597562790e-02 2.1443527936935425e-01 -1.0172121971845627e-01 1.3291120529174805e-01 -5.4378420114517212e-01 -2.4227859079837799e-01 -2.1313099563121796e-01 2.7947694063186646e-01 -6.1669144779443741e-02 5.1245279610157013e-02 -4.7864708304405212e-01 1.1398902535438538e-01 -7.2032070159912109e-01 -2.7131855487823486e-01 1.0455297678709030e-01 -1.1942010372877121e-01 2.0926707983016968e-01 2.0877934992313385e-02 -9.7571030259132385e-02 2.4769814312458038e-01 -1.7371717095375061e-01 2.0552304387092590e-01 -1.4214704930782318e-01 7.9774297773838043e-02 2.9503029584884644e-01 -2.5522589683532715e-01 7.6221480965614319e-02 -8.0414825677871704e-01 -1.5493905544281006e-01 -6.5388900041580200e-01 -2.6849693059921265e-01 8.0853380262851715e-02 4.3690145015716553e-02 -4.1942317038774490e-02 -2.2210028767585754e-01 -2.8739722445607185e-02 2.8737691044807434e-01 2.9611378908157349e-02 -1.1796711385250092e-01 2.8986078687012196e-03 6.4036413095891476e-04 -6.6485226154327393e-02 2.1310657262802124e-01 2.3572541773319244e-02 4.5915612578392029e-01 3.5707050561904907e-01 -5.4346967488527298e-02 8.2027286291122437e-02 -1.5737529098987579e-01 5.6337598711252213e-02 -3.2380040735006332e-02 3.7093762308359146e-02 2.2866231203079224e-01 -1.4282356947660446e-02 2.3092742264270782e-01 -2.0398595929145813e-01 -4.0282630920410156e-01 2.7442625164985657e-01 -3.3898703753948212e-02 4.4956088066101074e-01 4.3035513162612915e-01 3.0553296208381653e-01 3.1731194257736206e-01 -1.4073614776134491e-01 -1.5891985595226288e-01 1.4620766043663025e-02 -1.2327227741479874e-01 -1.8500831723213196e-01 2.6352804899215698e-01 2.1474088728427887e-01 1.8128891289234161e-01 -3.9821195602416992e-01 -9.1155841946601868e-02 -2.2853671014308929e-01 3.8321343064308167e-01 8.3867542445659637e-02 3.3082211017608643e-01 1.6844302415847778e-01 9.4768337905406952e-02 2.8960058093070984e-01 7.0033475756645203e-02 -9.2498205602169037e-02 -1.7151640355587006e-01 -8.3325266838073730e-02 -1.1464369297027588e-01 -2.9783505201339722e-01 2.5999957323074341e-01 4.6278014779090881e-02 1.7607722431421280e-02 2.4857985973358154e-01 1.4189556241035461e-01 5.0911968946456909e-01 3.2561600208282471e-02 5.5897009372711182e-01 1.6299419105052948e-01 -9.5990277826786041e-02 -1.2015531957149506e-01 -2.2495134174823761e-01 1.8635399639606476e-01 -1.4051707088947296e-01 -1.6240380704402924e-01 -3.3671665936708450e-02 2.2886945307254791e-01 -4.6962242573499680e-02 4.8730976879596710e-02 -1.9102363288402557e-01 -5.9135176241397858e-02 2.0523202419281006e-01 7.6050177216529846e-02 8.2631558179855347e-02 1.3024836778640747e-01 1.1222884058952332e-01 1.1325827240943909e-01 -3.1136969104409218e-02 2.0302601158618927e-02 5.8951467275619507e-02 2.4602107703685760e-02 -2.1557445824146271e-01 -1.3991115987300873e-01 9.9128708243370056e-02 -2.4496393278241158e-02 -1.2700410187244415e-01 -2.0668014883995056e-02 -8.0212071537971497e-02 1.2195932865142822e-01 2.7075600624084473e-01 2.1609118580818176e-01 -1.5629838407039642e-01 -9.0828999876976013e-02 -6.7961327731609344e-02 -1.0480872541666031e-01 5.8501917868852615e-02 5.6008383631706238e-02 9.4972923398017883e-02 1.3100129365921021e-01 1.1077292263507843e-01 9.3986056745052338e-02 7.6040148735046387e-02 -1.3616241514682770e-01 1.2192372977733612e-01 -4.5121587812900543e-02 -1.4976766705513000e-01 -2.3438705131411552e-02 6.1240617185831070e-02 7.1901150047779083e-02 -1.5753298997879028e-01 -1.8263983726501465e-01 -7.4959866702556610e-02 1.1104501783847809e-02 1.1952843517065048e-01 -2.0097316801548004e-01 -1.7585840821266174e-01 1.7737002670764923e-01 -1.0830342769622803e-01 1.1288473755121231e-01 2.3631010204553604e-02 -2.0433005690574646e-01 9.1207019984722137e-02 -2.9574307799339294e-01 1.7644536495208740e-01 -5.5403061211109161e-02 -1.4447224140167236e-01 -1.5228791534900665e-01 1.4775750227272511e-02 2.0283861458301544e-01 1.3786050677299500e-01 -1.3179124891757965e-01 1.5145273506641388e-01 -2.0398131012916565e-01 3.1693566590547562e-02 -6.6225931048393250e-02 1.5956465899944305e-01 4.6524503827095032e-01 2.9759493470191956e-01 -1.6763859987258911e-01 7.7498601749539375e-03 -2.7914935722947121e-02 -2.0522819459438324e-01 -1.4537481963634491e-01 -1.4494402706623077e-01 1.6600877279415727e-03 -1.7813080549240112e-01 1.0433590412139893e-01 1.3901595771312714e-01 -8.4791973233222961e-02 -9.4894491136074066e-02 -2.3243460804224014e-02 4.6391043066978455e-01 3.2687154412269592e-01 3.8803804665803909e-02 -8.0995105206966400e-02 -1.2787820398807526e-01 6.8913117051124573e-02 7.5851134955883026e-02 -1.6873636841773987e-01 -2.6256832480430603e-01 3.7976241111755371e-01 2.6182582974433899e-01 1.1577844619750977e-01 -2.7966275811195374e-01 1.3809630274772644e-01 -2.2191861271858215e-01 4.1494712233543396e-01 2.0339615643024445e-01 4.5047309994697571e-01 4.7696194052696228e-01 -1.7929099500179291e-01 -1.2877425551414490e-01 -2.0285077393054962e-01 -1.1595412343740463e-01 -1.2931562960147858e-01 -1.1300774663686752e-01 2.1930719912052155e-01 -1.5709654986858368e-01 3.1087180972099304e-01 2.4200292304158211e-02 -6.4505532383918762e-02 -6.1358112841844559e-02 3.0397929251194000e-02 6.5783429145812988e-01 4.7336784005165100e-01 5.2909296751022339e-01 4.9628254771232605e-01 1.8659560382366180e-01 1.0351794213056564e-01 -1.8446780741214752e-01 1.8737637996673584e-01 6.3659653067588806e-02 3.7504956126213074e-01 -9.4924166798591614e-02 -1.5975767374038696e-01 -6.8559184670448303e-02 1.0393328033387661e-02 -1.6046750545501709e-01 1.1800397187471390e-01 -9.5089480280876160e-02 2.5490099191665649e-01 3.3546751737594604e-01 -1.8716853857040405e-01 -7.9328581690788269e-02 -7.9067880287766457e-03 -1.9430033862590790e-02 1.6054776310920715e-01 -8.0358177423477173e-02 -2.4031504988670349e-01 -1.9612360000610352e-01 -8.7834827601909637e-02 1.9989943504333496e-01 -3.1905317306518555e-01 1.9582776352763176e-02 1.7039127647876740e-01 6.7518301308155060e-02 3.3259791135787964e-01 1.4619599282741547e-01 1.1760748922824860e-01 -8.1448815762996674e-02 -2.3520569503307343e-01 2.0196166634559631e-01 4.0762487798929214e-02 1.4878119528293610e-01 -8.9799918234348297e-02 -9.9018335342407227e-02 1.4657279849052429e-01 -4.3784946203231812e-02 -1.8359695374965668e-01 -1.4002640545368195e-01 8.6928434669971466e-02 -4.6980690211057663e-02 -7.4712075293064117e-02 1.2500669062137604e-01 9.3160644173622131e-02 -1.4094746112823486e-01 4.8149727284908295e-02 1.7041029036045074e-01 -5.8211833238601685e-02 4.4537326321005821e-03 1.1188390851020813e-01 -1.9858253002166748e-01 -8.3774574100971222e-02 7.9942107200622559e-02 -2.3132792115211487e-01 -4.5612242072820663e-02 9.4672404229640961e-02 8.6428105831146240e-02 -1.4933431148529053e-01 -3.4478452056646347e-02 1.7110444605350494e-01 2.2123439610004425e-01 1.7925682663917542e-01 7.7298186719417572e-02 -7.4891388416290283e-02 9.3897134065628052e-02 1.9075531745329499e-03 2.1798968315124512e-01 9.8421156406402588e-02 -2.9810202121734619e-01 -1.0113579034805298e-01 4.5371055603027344e-02 1.5297292172908783e-01 -1.6957584023475647e-01 1.7237444221973419e-01 1.4255742728710175e-01 -6.7423768341541290e-02 2.0167583227157593e-01 -2.8877841308712959e-02 -6.3628897070884705e-02 -1.0338570177555084e-01 -1.0922254621982574e-01 1.3724884390830994e-01 -9.2050246894359589e-02 4.8466946929693222e-02 -5.4210841655731201e-02 -1.9298592209815979e-01 -1.8554957211017609e-01 1.7613218724727631e-01 3.7117660045623779e-01 -7.6422519981861115e-02 1.8062375485897064e-01 4.1805228590965271e-01 1.1020140349864960e-01 -2.6747807860374451e-01 1.5645116567611694e-01 -2.0684963464736938e-01 -5.3201619535684586e-02 3.3036820590496063e-02 1.5585742890834808e-01 -1.9587606191635132e-01 1.1506257951259613e-01 -4.4239565730094910e-02 3.5077810287475586e-02 -1.9780261814594269e-01 6.5047040581703186e-02 -1.8181063234806061e-01 -2.3266326636075974e-02 -4.9312040209770203e-02 7.0026248693466187e-02 2.1760793030261993e-01 2.1035356819629669e-01 -9.0977221727371216e-02 3.7939287722110748e-02 -1.7485502362251282e-01 1.0556023567914963e-01 -2.0471699535846710e-01 3.8767412304878235e-02 -1.2504360638558865e-02 -2.3382371664047241e-01 -1.2722033262252808e-01 -3.9514416456222534e-01 -7.6326127164065838e-03 -2.9857769608497620e-01 1.2366934865713120e-01 1.6999690234661102e-01 -1.7133986949920654e-01 8.3962507545948029e-02 2.1930346265435219e-02 
      </Weights>
      <Biases rows="16" cols="1">
        1.6895819455385208e-02 -2.4924520403146744e-04 -1.1716370470821857e-02 1.4779709279537201e-02 9.5929063856601715e-02 4.0019538253545761e-02 -9.8697759211063385e-02 -7.5514964759349823e-02 6.9990292191505432e-02 -2.9809782281517982e-03 -3.0428383499383926e-02 -2.0173843950033188e-03 -7.7219702303409576e-02 1.9475603476166725e-02 -1.8164679408073425e-02 6.3996545970439911e-02 
      </Biases>
    </Layer>
    <Layer ActivationFunction="3">
      <Weights rows="16" cols="16">
        1.2024763971567154e-02 1.0828842967748642e-01 1.4790245890617371e-01 9.9221639335155487e-02 -5.0816882401704788e-02 -7.3036432266235352e-02 -2.9146620631217957e-01 -4.3991097807884216e-01 2.1716189384460449e-01 3.7447117269039154e-02 -3.4835895895957947e-01 -4.1978144645690918e-01 -1.5574733912944794e-01 2.7807971835136414e-01 2.3034225404262543e-01 2.4934390187263489e-01 -8.3252854645252228e-02 -1.8724359571933746e-01 -1.4026132225990295e-01 -3.2818384468555450e-02 2.5271740555763245e-01 4.5204529166221619e-01 -2.8542011976242065e-01 8.6869560182094574e-02 1.9730006158351898e-01 -7.6494149863719940e-02 -2.4499715864658356e-01 -4.2410099506378174e-01 -7.4657604098320007e-02 6.6062763333320618e-02 -1.0748945921659470e-01 -3.5998124629259109e-02 7.7498793601989746e-02 -1.9273424148559570e-01 5.1864966750144958e-02 -2.3392619192600250e-01 -3.6525398492813110e-01 -1.6100645065307617e-01 -1.3032494485378265e-01 4.3798852711915970e-02 1.0046111792325974e-01 2.0749226212501526e-01 -1.7029690742492676e-01 4.1566655039787292e-01 3.2774126529693604e-01 -2.5641256570816040e-01 3.3613792061805725e-01 -2.6254078745841980e-01 2.2949101030826569e-01 2.5686198845505714e-02 1.0817236453294754e-01 -1.7048338055610657e-01 2.9141661524772644e-01 4.1742298007011414e-01 -1.9993986189365387e-01 2.2238059341907501e-01 9.7261935472488403e-02 -2.1964062750339508e-01 -3.3115449547767639e-01 -1.6055478155612946e-01 1.6995649039745331e-01 -1.9858160614967346e-01 -2.6760604977607727e-01 1.5568982064723969e-01 -8.4520407021045685e-02 1.9538177549839020e-01 2.4279138445854187e-01 -1.8021518364548683e-02 1.3639813661575317e-01 2.2069327533245087e-01 2.6421886682510376e-01 -3.5403497517108917e-02 2.5257948040962219e-01 2.9893499612808228e-01 -2.7793294191360474e-01 -5.0333894789218903e-02 -3.3721980452537537e-01 -1.7746499180793762e-01 9.4030901789665222e-02 -2.0490537583827972e-01 -2.2406019270420074e-01 2.8205859661102295e-01 2.9206612706184387e-01 -8.5615396499633789e-02 -6.5697684884071350e-02 2.7823659777641296e-01 8.5110940039157867e-02 1.0945539921522141e-01 -3.0077892541885376e-01 -3.0526408553123474e-01 5.7533845305442810e-02 5.8523375540971756e-02 3.2032406330108643e-01 -2.7807396650314331e-01 -1.8672823905944824e-01 -1.1560407280921936e-01 2.3217432200908661e-01 4.2147153615951538e-01 2.0677630603313446e-01 -4.1374322772026062e-01 5.2101779729127884e-02 5.0268453359603882e-01 -3.3907380700111389e-01 6.4701810479164124e-02 -3.2854595780372620e-01 -1.8489977717399597e-01 8.0423712730407715e-02 -2.8044718503952026e-01 2.3402059078216553e-01 -6.6500365734100342e-02 2.7990350127220154e-01 1.4631880819797516e-01 -1.5166644752025604e-01 6.4770400524139404e-02 7.4739777483046055e-03 -1.0462328046560287e-01 2.8976047039031982e-01 1.4146974682807922e-01 2.1228598058223724e-01 -3.3723995089530945e-01 -9.2960625886917114e-02 -8.1419356167316437e-02 -1.5115023590624332e-02 -1.5327589213848114e-01 -2.8460034728050232e-01 -2.3648123443126678e-01 1.4790290594100952e-01 -6.6516228020191193e-02 -3.3804592490196228e-01 -1.2966711819171906e-01 -2.8599184751510620e-01 4.9120943993330002e-02 -3.7200439721345901e-02 -3.3356168866157532e-01 6.7256510257720947e-02 3.3215180039405823e-01 2.0514678210020065e-02 -2.3083034157752991e-01 -6.5951175987720490e-02 1.6199853271245956e-02 1.6211841255426407e-02 3.1763020157814026e-01 -1.3024471700191498e-01 -3.0506312847137451e-02 2.5106739997863770e-01 -2.2673346102237701e-01 -3.1315624713897705e-01 -8.3064474165439606e-02 -2.7098765969276428e-01 -3.7648925185203552e-01 6.8772710859775543e-02 2.6418453454971313e-01 -1.7422780394554138e-01 1.6536645591259003e-01 -1.1917178332805634e-01 4.0335372090339661e-01 2.8647249937057495e-01 -1.8918403983116150e-01 9.3507751822471619e-02 -2.0009882748126984e-01 1.4708481729030609e-01 -2.5810769200325012e-01 -1.3950645923614502e-01 -2.4334728717803955e-01 2.6915979385375977e-01 -2.2058391477912664e-03 -1.5400004386901855e-01 -2.7502483129501343e-01 1.9806775450706482e-01 -1.5599597990512848e-01 -3.4749142825603485e-02 3.0479526147246361e-02 -1.0816526412963867e-01 1.3896204531192780e-01 -2.0405748486518860e-01 -1.8057148158550262e-01 2.9843002557754517e-01 9.3695074319839478e-02 8.3047650754451752e-02 -9.7265161573886871e-02 3.4957337379455566e-01 2.4413494765758514e-01 -2.5848713517189026e-01 7.8991375863552094e-02 -3.2824477553367615e-01 2.9618695378303528e-01 -4.6850952506065369e-01 -5.9158612042665482e-02 8.8317103683948517e-02 -7.4474401772022247e-02 -3.3797433972358704e-01 -1.7027099430561066e-01 1.4094904065132141e-01 1.0333736240863800e-01 -5.9909157454967499e-02 -2.1986387670040131e-01 2.1702861785888672e-01 1.0094331949949265e-01 6.0364142060279846e-02 -2.3746607825160027e-02 9.9366560578346252e-02 3.4404061734676361e-02 2.3096080124378204e-01 -5.1326649263501167e-03 7.3645628988742828e-02 -7.5562216341495514e-02 2.6386630535125732e-01 -1.8342226743698120e-02 1.4640350639820099e-01 1.1747895926237106e-01 1.3391172885894775e-01 3.5526534914970398e-01 -3.6244171857833862e-01 -4.4067794084548950e-01 3.0355447530746460e-01 9.1936640441417694e-02 1.1279128491878510e-01 2.9987785220146179e-01 9.2087715864181519e-02 3.0007159709930420e-01 -4.2343605309724808e-02 -9.6256390213966370e-02 3.3810985088348389e-01 -1.8552412092685699e-01 -2.7432808279991150e-01 -1.5606507658958435e-01 1.8093414604663849e-01 3.1561955809593201e-01 -4.8737964034080505e-01 -2.2063508629798889e-01 -1.4803516864776611e-01 3.3513027429580688e-01 1.6226160526275635e-01 -2.0441275835037231e-01 1.2138844281435013e-01 4.4905823469161987e-01 2.9017767310142517e-01 2.9811823368072510e-01 1.9241735339164734e-01 -3.3170640468597412e-01 3.7267055362462997e-02 -3.4572994709014893e-01 -2.7619588375091553e-01 3.1815764307975769e-01 -7.9908959567546844e-02 1.5432988107204437e-01 2.8295823931694031e-01 2.8244739770889282e-01 9.1152325272560120e-02 -3.0954065918922424e-01 4.5796680450439453e-01 1.0650856792926788e-01 1.6520293429493904e-02 -4.8740517348051071e-02 -1.5436922013759613e-01 1.7194886505603790e-01 
      </Weights>
      <Biases rows="16" cols="1">
        9.2925801873207092e-02 6.1503183096647263e-02 -1.0568527877330780e-01 2.3887546733021736e-02 3.9233777672052383e-02 -2.1805884316563606e-02 1.3286040164530277e-02 3.5134170204401016e-02 -3.9912972599267960e-02 -3.0588690191507339e-02 3.2717857509851456e-02 -1.8368477001786232e-02 2.0923405885696411e-02 -6.9404311478137970e-02 -7.5532250106334686e-02 -4.2299464344978333e-02 
      </Biases>
    </Layer>
    <Layer ActivationFunction="0">
      <Weights rows="1" cols="16">
        -5.3353685140609741e-01 -3.6724194884300232e-01 4.7061848640441895e-01 -2.0480941236019135e-01 -6.9786466658115387e-02 6.5386176109313965e-02 -3.0353927612304688e-01 -2.3430794477462769e-01 3.5287994146347046e-01 -5.7712510228157043e-02 -2.4102684855461121e-01 -1.8364070355892181e-01 4.3830592185258865e-02 1.0836803168058395e-01 3.3514094352722168e-01 1.7498086392879486e-01 
      </Weights>
      <Biases rows="1" cols="1">
        -2.2202129662036896e-01 
      </Biases>
    </Layer>
  </Weights>
</MethodSetup>
