<?xml version="1.0"?>
<MethodSetup Method="DNN::DNN_NanoV9_VAUG_2020_BB_x2">
  <GeneralInfo>
    <Info name="TMVA Release" value="4.2.1 [262657]"/>
    <Info name="ROOT Release" value="6.12/07 [396295]"/>
    <Info name="Creator" value="hum"/>
    <Info name="Date" value="Wed Aug  3 07:53:17 2022"/>
    <Info name="Host" value="Linux vocms0301.cern.ch 2.6.32-696.30.1.el6.x86_64 #1 SMP Tue May 22 06:09:36 CEST 2018 x86_64 x86_64 x86_64 GNU/Linux"/>
    <Info name="Dir" value="/afs/cern.ch/work/h/hum/public/CMSSW_10_2_13/src/ChargedHiggs/Analysis"/>
    <Info name="Training events" value="25102"/>
    <Info name="TrainingTime" value="2.41033792e+00"/>
    <Info name="AnalysisType" value="Classification"/>
  </GeneralInfo>
  <Options>
    <Option name="V" modified="Yes">True</Option>
    <Option name="VerbosityLevel" modified="No">Verbose</Option>
    <Option name="VarTransform" modified="Yes">N</Option>
    <Option name="H" modified="Yes">False</Option>
    <Option name="CreateMVAPdfs" modified="No">False</Option>
    <Option name="IgnoreNegWeightsInTraining" modified="No">False</Option>
    <Option name="Layout" modified="Yes">TANH|32,ReLU|16,SIGMOID|16,LINEAR</Option>
    <Option name="ValidationSize" modified="No">20%</Option>
    <Option name="ErrorStrategy" modified="Yes">CROSSENTROPY</Option>
    <Option name="WeightInitialization" modified="Yes">XAVIERUNIFORM</Option>
    <Option name="Architecture" modified="Yes">CPU</Option>
    <Option name="TrainingStrategy" modified="Yes">LearningRate=1e-1,Momentum=0.9,Repetitions=1,ConvergenceSteps=20,BatchSize=256,TestRepetitions=10,WeightDecay=1e-4,Regularization=L2,DropConfig=0.0+0.1+0.25+0.5,</Option>
  </Options>
  <Variables NVar="17">
    <Variable VarIndex="0" Expression="j1QGL" Label="j1QGL" Title="j1QGL" Unit="" Internal="j1QGL" Type="F" Min="-1.00000000e+00" Max="1.00000000e+00"/>
    <Variable VarIndex="1" Expression="j2QGL" Label="j2QGL" Title="j2QGL" Unit="" Internal="j2QGL" Type="F" Min="-1.00000000e+00" Max="9.99511719e-01"/>
    <Variable VarIndex="2" Expression="varMjj" Label="varMjj" Title="varMjj" Unit="" Internal="varMjj" Type="F" Min="5.00043091e+02" Max="8.20146387e+03"/>
    <Variable VarIndex="3" Expression="varDetajj" Label="varDetajj" Title="varDetajj" Unit="" Internal="varDetajj" Type="F" Min="2.50000000e+00" Max="8.87304688e+00"/>
    <Variable VarIndex="4" Expression="abs(varJet1Eta)" Label="abs(varJet1Eta)" Title="abs(varJet1Eta)" Unit="" Internal="abs_varJet1Eta_" Type="F" Min="3.16202641e-04" Max="4.65234375e+00"/>
    <Variable VarIndex="5" Expression="varJet1Pt" Label="varJet1Pt" Title="varJet1Pt" Unit="" Internal="varJet1Pt" Type="F" Min="5.03437500e+01" Max="1.73800000e+03"/>
    <Variable VarIndex="6" Expression="abs(varJet2Eta)" Label="abs(varJet2Eta)" Title="abs(varJet2Eta)" Unit="" Internal="abs_varJet2Eta_" Type="F" Min="8.81195068e-04" Max="4.67968750e+00"/>
    <Variable VarIndex="7" Expression="varJet2Pt" Label="varJet2Pt" Title="varJet2Pt" Unit="" Internal="varJet2Pt" Type="F" Min="5.00000000e+01" Max="8.78000000e+02"/>
    <Variable VarIndex="8" Expression="varMVV" Label="varMVV" Title="varMVV" Unit="" Internal="varMVV" Type="F" Min="5.00731873e+02" Max="5.06114746e+03"/>
    <Variable VarIndex="9" Expression="varPTV1" Label="varPTV1" Title="varPTV1" Unit="" Internal="varPTV1" Type="F" Min="4.00000000e+02" Max="2.26800000e+03"/>
    <Variable VarIndex="10" Expression="varPTV2" Label="varPTV2" Title="varPTV2" Unit="" Internal="varPTV2" Type="F" Min="3.00000000e+02" Max="2.19400000e+03"/>
    <Variable VarIndex="11" Expression="max(abs(bosV1Eta),abs(bosV2Eta))" Label="max(abs(bosV1Eta),abs(bosV2Eta))" Title="varEtaMaxV" Unit="" Internal="max_abs_bosV1Eta_,abs_bosV2Eta__" Type="F" Min="5.03540039e-03" Max="2.49804688e+00"/>
    <Variable VarIndex="12" Expression="varCen" Label="varCen" Title="varCen" Unit="" Internal="varCen" Type="F" Min="-2.45392704e+00" Max="3.74798584e+00"/>
    <Variable VarIndex="13" Expression="varzepVV" Label="varzepVV" Title="varzepVV" Unit="" Internal="varzepVV" Type="F" Min="3.58285579e-05" Max="2.26069021e+00"/>
    <Variable VarIndex="14" Expression="varDRV1j" Label="varDRV1j" Title="varDRV1j" Unit="" Internal="varDRV1j" Type="F" Min="1.20034230e+00" Max="4.76362371e+00"/>
    <Variable VarIndex="15" Expression="varDRV2j" Label="varDRV2j" Title="varDRV2j" Unit="" Internal="varDRV2j" Type="F" Min="1.20000470e+00" Max="4.35735178e+00"/>
    <Variable VarIndex="16" Expression="varnormPTVVjj" Label="varnormPTVVjj" Title="varnormPTVVjj" Unit="" Internal="varnormPTVVjj" Type="F" Min="4.66845493e-04" Max="5.65597773e-01"/>
  </Variables>
  <Spectators NSpec="0"/>
  <Classes NClass="2">
    <Class Name="Signal" Index="0"/>
    <Class Name="Background" Index="1"/>
  </Classes>
  <Transformations NTransformations="1">
    <Transform Name="Normalize">
      <Selection>
        <Input NInputs="17">
          <Input Type="Variable" Label="j1QGL" Expression="j1QGL"/>
          <Input Type="Variable" Label="j2QGL" Expression="j2QGL"/>
          <Input Type="Variable" Label="varMjj" Expression="varMjj"/>
          <Input Type="Variable" Label="varDetajj" Expression="varDetajj"/>
          <Input Type="Variable" Label="abs(varJet1Eta)" Expression="abs(varJet1Eta)"/>
          <Input Type="Variable" Label="varJet1Pt" Expression="varJet1Pt"/>
          <Input Type="Variable" Label="abs(varJet2Eta)" Expression="abs(varJet2Eta)"/>
          <Input Type="Variable" Label="varJet2Pt" Expression="varJet2Pt"/>
          <Input Type="Variable" Label="varMVV" Expression="varMVV"/>
          <Input Type="Variable" Label="varPTV1" Expression="varPTV1"/>
          <Input Type="Variable" Label="varPTV2" Expression="varPTV2"/>
          <Input Type="Variable" Label="max(abs(bosV1Eta),abs(bosV2Eta))" Expression="max(abs(bosV1Eta),abs(bosV2Eta))"/>
          <Input Type="Variable" Label="varCen" Expression="varCen"/>
          <Input Type="Variable" Label="varzepVV" Expression="varzepVV"/>
          <Input Type="Variable" Label="varDRV1j" Expression="varDRV1j"/>
          <Input Type="Variable" Label="varDRV2j" Expression="varDRV2j"/>
          <Input Type="Variable" Label="varnormPTVVjj" Expression="varnormPTVVjj"/>
        </Input>
        <Output NOutputs="17">
          <Output Type="Variable" Label="j1QGL" Expression="j1QGL"/>
          <Output Type="Variable" Label="j2QGL" Expression="j2QGL"/>
          <Output Type="Variable" Label="varMjj" Expression="varMjj"/>
          <Output Type="Variable" Label="varDetajj" Expression="varDetajj"/>
          <Output Type="Variable" Label="abs(varJet1Eta)" Expression="abs(varJet1Eta)"/>
          <Output Type="Variable" Label="varJet1Pt" Expression="varJet1Pt"/>
          <Output Type="Variable" Label="abs(varJet2Eta)" Expression="abs(varJet2Eta)"/>
          <Output Type="Variable" Label="varJet2Pt" Expression="varJet2Pt"/>
          <Output Type="Variable" Label="varMVV" Expression="varMVV"/>
          <Output Type="Variable" Label="varPTV1" Expression="varPTV1"/>
          <Output Type="Variable" Label="varPTV2" Expression="varPTV2"/>
          <Output Type="Variable" Label="max(abs(bosV1Eta),abs(bosV2Eta))" Expression="max(abs(bosV1Eta),abs(bosV2Eta))"/>
          <Output Type="Variable" Label="varCen" Expression="varCen"/>
          <Output Type="Variable" Label="varzepVV" Expression="varzepVV"/>
          <Output Type="Variable" Label="varDRV1j" Expression="varDRV1j"/>
          <Output Type="Variable" Label="varDRV2j" Expression="varDRV2j"/>
          <Output Type="Variable" Label="varnormPTVVjj" Expression="varnormPTVVjj"/>
        </Output>
      </Selection>
      <Class ClassIndex="0">
        <Ranges>
          <Range Index="0" Min="-1.0000000000000000e+00" Max="1.0000000000000000e+00"/>
          <Range Index="1" Min="-1.0000000000000000e+00" Max="9.9951171875000000e-01"/>
          <Range Index="2" Min="5.0027105712890625e+02" Max="8.2014638671875000e+03"/>
          <Range Index="3" Min="2.5008544921875000e+00" Max="8.7324218750000000e+00"/>
          <Range Index="4" Min="2.0717620849609375e-02" Max="4.5556640625000000e+00"/>
          <Range Index="5" Min="5.2062500000000000e+01" Max="1.6330000000000000e+03"/>
          <Range Index="6" Min="2.5711059570312500e-02" Max="4.6796875000000000e+00"/>
          <Range Index="7" Min="5.0031250000000000e+01" Max="8.3100000000000000e+02"/>
          <Range Index="8" Min="5.0111190795898438e+02" Max="3.9676821289062500e+03"/>
          <Range Index="9" Min="4.0000000000000000e+02" Max="1.9660000000000000e+03"/>
          <Range Index="10" Min="3.0000000000000000e+02" Max="1.7280000000000000e+03"/>
          <Range Index="11" Min="1.3483047485351562e-02" Max="2.4902343750000000e+00"/>
          <Range Index="12" Min="-2.0267944335937500e+00" Max="3.7479858398437500e+00"/>
          <Range Index="13" Min="1.3411913823802024e-04" Max="1.5267158746719360e+00"/>
          <Range Index="14" Min="1.2003422975540161e+00" Max="4.7009482383728027e+00"/>
          <Range Index="15" Min="1.2000939846038818e+00" Max="4.3373780250549316e+00"/>
          <Range Index="16" Min="8.9556601596996188e-04" Max="4.9039798974990845e-01"/>
        </Ranges>
      </Class>
      <Class ClassIndex="1">
        <Ranges>
          <Range Index="0" Min="-1.0000000000000000e+00" Max="1.0000000000000000e+00"/>
          <Range Index="1" Min="-1.0000000000000000e+00" Max="9.9951171875000000e-01"/>
          <Range Index="2" Min="5.0004309082031250e+02" Max="6.6567504882812500e+03"/>
          <Range Index="3" Min="2.5000000000000000e+00" Max="8.8730468750000000e+00"/>
          <Range Index="4" Min="3.1620264053344727e-04" Max="4.6523437500000000e+00"/>
          <Range Index="5" Min="5.0343750000000000e+01" Max="1.7380000000000000e+03"/>
          <Range Index="6" Min="8.8119506835937500e-04" Max="4.6757812500000000e+00"/>
          <Range Index="7" Min="5.0000000000000000e+01" Max="8.7800000000000000e+02"/>
          <Range Index="8" Min="5.0073187255859375e+02" Max="5.0611474609375000e+03"/>
          <Range Index="9" Min="4.0000000000000000e+02" Max="2.2680000000000000e+03"/>
          <Range Index="10" Min="3.0000000000000000e+02" Max="2.1940000000000000e+03"/>
          <Range Index="11" Min="5.0354003906250000e-03" Max="2.4980468750000000e+00"/>
          <Range Index="12" Min="-2.4539270401000977e+00" Max="3.6582031250000000e+00"/>
          <Range Index="13" Min="3.5828557884087786e-05" Max="2.2606902122497559e+00"/>
          <Range Index="14" Min="1.2007080316543579e+00" Max="4.7636237144470215e+00"/>
          <Range Index="15" Min="1.2000046968460083e+00" Max="4.3573517799377441e+00"/>
          <Range Index="16" Min="4.6684549306519330e-04" Max="5.6559777259826660e-01"/>
        </Ranges>
      </Class>
      <Class ClassIndex="2">
        <Ranges>
          <Range Index="0" Min="-1.0000000000000000e+00" Max="1.0000000000000000e+00"/>
          <Range Index="1" Min="-1.0000000000000000e+00" Max="9.9951171875000000e-01"/>
          <Range Index="2" Min="5.0004309082031250e+02" Max="8.2014638671875000e+03"/>
          <Range Index="3" Min="2.5000000000000000e+00" Max="8.8730468750000000e+00"/>
          <Range Index="4" Min="3.1620264053344727e-04" Max="4.6523437500000000e+00"/>
          <Range Index="5" Min="5.0343750000000000e+01" Max="1.7380000000000000e+03"/>
          <Range Index="6" Min="8.8119506835937500e-04" Max="4.6796875000000000e+00"/>
          <Range Index="7" Min="5.0000000000000000e+01" Max="8.7800000000000000e+02"/>
          <Range Index="8" Min="5.0073187255859375e+02" Max="5.0611474609375000e+03"/>
          <Range Index="9" Min="4.0000000000000000e+02" Max="2.2680000000000000e+03"/>
          <Range Index="10" Min="3.0000000000000000e+02" Max="2.1940000000000000e+03"/>
          <Range Index="11" Min="5.0354003906250000e-03" Max="2.4980468750000000e+00"/>
          <Range Index="12" Min="-2.4539270401000977e+00" Max="3.7479858398437500e+00"/>
          <Range Index="13" Min="3.5828557884087786e-05" Max="2.2606902122497559e+00"/>
          <Range Index="14" Min="1.2003422975540161e+00" Max="4.7636237144470215e+00"/>
          <Range Index="15" Min="1.2000046968460083e+00" Max="4.3573517799377441e+00"/>
          <Range Index="16" Min="4.6684549306519330e-04" Max="5.6559777259826660e-01"/>
        </Ranges>
      </Class>
    </Transform>
  </Transformations>
  <MVAPdfs/>
  <Weights InputWidth="17" Depth="4" LossFunction="C" OutputFunction="S">
    <Layer ActivationFunction="3">
      <Weights rows="32" cols="17">
        3.4784415364265442e-01 1.3640052080154419e-01 5.7053756713867188e-01 -1.8045984208583832e-01 -4.0988761931657791e-02 1.3692450523376465e-01 -1.1843314021825790e-01 1.4937472343444824e-01 3.6703702062368393e-02 -6.6515072248876095e-03 1.8286478519439697e-01 3.2909407746046782e-03 2.3841637372970581e-01 1.0716912895441055e-01 -2.5673800706863403e-01 -1.0494908783584833e-03 -4.4941994547843933e-01 -1.7176671326160431e-01 3.1308174133300781e-01 2.4635590612888336e-01 -1.7767003178596497e-01 -3.0993571504950523e-02 -1.6751541197299957e-01 -5.4411310702562332e-02 2.1731695532798767e-01 8.1495203077793121e-02 2.8748655319213867e-01 1.0795938968658447e-01 -1.5419271588325500e-01 1.9075576961040497e-01 -5.3267702460289001e-02 -1.5702287852764130e-01 6.1302604153752327e-03 -1.8735444545745850e-01 -3.3748623728752136e-01 -1.4138147234916687e-01 -7.4520036578178406e-02 -1.7052406072616577e-01 -2.4255535006523132e-01 -1.0762249678373337e-01 -3.4336563199758530e-02 1.0321232676506042e-01 3.8675751537084579e-02 8.8402047753334045e-02 -1.2587103247642517e-01 1.7108379304409027e-01 -2.6782134547829628e-02 6.9317944347858429e-02 -1.6370850801467896e-01 -1.7696501314640045e-01 2.2620847821235657e-01 1.3022361695766449e-01 3.0606740713119507e-01 4.2946177721023560e-01 7.1914024651050568e-02 -1.0914548300206661e-02 9.9408268928527832e-02 1.8605497479438782e-01 1.2272103130817413e-01 8.1582140410318971e-04 3.9969104528427124e-01 3.1391248106956482e-02 -7.0978686213493347e-02 -4.5412927865982056e-02 6.7566983401775360e-02 -8.8792510330677032e-02 -1.8968695402145386e-01 -5.3404718637466431e-01 3.7029486149549484e-02 -1.1941114813089371e-01 -2.8820434212684631e-01 1.1854068934917450e-01 -5.1725197583436966e-02 5.7339877821505070e-03 4.1912682354450226e-02 -4.4725518673658371e-02 1.4580252766609192e-01 -6.6893979907035828e-02 1.0976083576679230e-01 7.3186174035072327e-02 -1.2234745919704437e-01 -7.6703801751136780e-02 1.1543843150138855e-01 -1.9793707132339478e-01 1.9817224144935608e-01 -1.6256903111934662e-01 3.5792052745819092e-02 8.2347191870212555e-02 1.3439899682998657e-01 -9.2311643064022064e-02 -2.0306520164012909e-01 1.4256657660007477e-01 1.3397343456745148e-01 1.1098951101303101e-01 -6.5844580531120300e-02 1.5468454221263528e-03 9.8018266260623932e-02 -1.3731823861598969e-01 1.9217294454574585e-01 -1.1288296431303024e-01 -1.0913427919149399e-01 2.1040953695774078e-01 -1.2921561300754547e-01 -3.4770506620407104e-01 -5.3889101743698120e-01 9.3384869396686554e-03 1.7052906751632690e-01 -1.7684677243232727e-01 7.4794903397560120e-02 5.0447396934032440e-02 -5.3045071661472321e-02 -2.1851444616913795e-02 -7.4046151712536812e-03 -1.9527898728847504e-01 -9.9980615079402924e-02 9.2560552060604095e-02 -1.4638903737068176e-01 -1.2352505326271057e-01 3.7702396512031555e-01 -2.0072755217552185e-01 3.3749839663505554e-01 2.5470343232154846e-01 1.3727326691150665e-01 5.8818843215703964e-02 -2.5383778847754002e-03 -2.3845532536506653e-01 7.9760432243347168e-02 -7.8943692147731781e-02 2.0257520675659180e-01 2.3980404436588287e-01 -5.4414328187704086e-03 9.6459820866584778e-02 1.2228837609291077e-01 -1.0908425599336624e-01 -4.9009539186954498e-02 -9.7317174077033997e-02 2.1687687933444977e-01 -1.4081986248493195e-01 3.4422531723976135e-01 -1.8285775184631348e-01 1.6671919822692871e-01 1.3075229525566101e-01 -2.7721080183982849e-01 -7.2225853800773621e-02 1.5435218811035156e-01 -1.1356379091739655e-01 -1.3592773675918579e-01 1.4697485603392124e-02 6.5451100468635559e-02 -2.0309479534626007e-01 -2.1390269696712494e-01 -4.0216602385044098e-02 -2.4936297535896301e-01 7.0537067949771881e-02 -6.8252325057983398e-02 -1.7599496245384216e-01 -1.6851370036602020e-01 1.4062661677598953e-02 -8.9144058525562286e-02 -1.3172666728496552e-01 -2.2334394976496696e-02 3.7742227315902710e-02 2.1817819774150848e-01 -7.9481445252895355e-02 -1.5691608190536499e-01 3.1503334641456604e-02 -1.5816265344619751e-01 -1.8679632246494293e-01 -1.5047214925289154e-01 7.7740915119647980e-02 -5.1998663693666458e-02 7.3008164763450623e-02 1.9450549036264420e-02 1.8446244299411774e-01 4.0437232702970505e-02 -1.0700884461402893e-01 -1.5120576322078705e-01 2.2452291101217270e-02 6.9379523396492004e-02 1.3583913445472717e-02 -8.7760098278522491e-02 -3.8110970053821802e-03 9.4766400754451752e-02 -1.6263638436794281e-01 6.4267687499523163e-02 -2.0859077572822571e-01 -1.1712022870779037e-01 3.0016082525253296e-01 -1.6628307104110718e-01 -8.3715274930000305e-02 -1.0642167180776596e-02 -7.7955603599548340e-02 -7.1768075227737427e-02 7.6735958456993103e-02 -6.0875952243804932e-02 1.3202721253037453e-02 -6.4509041607379913e-02 -5.7921353727579117e-02 7.7038601040840149e-02 -1.1044169962406158e-01 -4.0468979626893997e-02 -6.1990123242139816e-02 -7.0702973753213882e-03 1.4285676181316376e-01 -1.6820211708545685e-01 7.0141956210136414e-02 -5.4644197225570679e-02 7.4214980006217957e-02 -1.7004059255123138e-01 -3.4716412425041199e-02 1.6015802323818207e-01 1.3843967020511627e-01 1.5232077240943909e-01 -4.1561499238014221e-02 -1.6860094666481018e-01 8.4893852472305298e-02 1.6708578169345856e-01 -1.6333222389221191e-01 -1.1411922425031662e-01 -1.5906521677970886e-01 7.2846949100494385e-02 -4.4709327816963196e-01 1.4254517853260040e-01 -4.5875313878059387e-01 -2.0694350823760033e-02 2.0656546950340271e-01 2.0443996787071228e-01 -8.9576624333858490e-02 -2.5202113389968872e-01 -9.9708095192909241e-02 -3.0734717845916748e-01 -1.2258199602365494e-01 9.3161165714263916e-02 -6.6906370222568512e-02 -4.4071108102798462e-02 1.0566098242998123e-01 1.1941718310117722e-01 2.4262180924415588e-01 3.6930972337722778e-01 -1.6135454177856445e-01 8.1820452213287354e-01 7.8831039369106293e-02 -3.4250271320343018e-01 1.6162106394767761e-01 3.0682197213172913e-01 1.5172074735164642e-01 2.4961638450622559e-01 4.3370318412780762e-01 6.3140638172626495e-02 -6.7003995180130005e-02 4.0318611264228821e-01 -2.8404471278190613e-01 -2.0049762725830078e-01 -9.6322737634181976e-02 -5.5647349357604980e-01 -1.7339441180229187e-01 1.0488753765821457e-01 -4.1263526678085327e-01 -7.8086048364639282e-02 1.3041077554225922e-01 1.8397322297096252e-01 -2.2621090710163116e-01 -1.1218725889921188e-01 -1.1021768301725388e-01 -2.2654244303703308e-01 -1.2239012867212296e-03 -4.1801195591688156e-02 -7.6057530939579010e-02 -5.1746528595685959e-02 -7.3567934334278107e-02 -9.5055967569351196e-02 3.8411551713943481e-01 2.0970679819583893e-01 1.7475914955139160e-01 5.0096791237592697e-02 2.2584483027458191e-02 1.8510472774505615e-01 1.5007333457469940e-01 -1.2858515977859497e-01 2.0558057352900505e-02 -6.3763938844203949e-02 3.2109272480010986e-01 1.5534065663814545e-01 1.0397476144134998e-02 -4.5727111399173737e-02 -1.1443723738193512e-01 -1.2038145959377289e-01 1.4679223299026489e-01 -3.7861195206642151e-01 2.9562342166900635e-01 1.4241819083690643e-01 2.6592946052551270e-01 9.4491608440876007e-02 9.9200338125228882e-02 -1.9817420840263367e-01 8.0161720514297485e-02 5.4129943251609802e-02 9.9767267704010010e-02 1.9916266202926636e-01 -1.5602910518646240e-01 3.9437603205442429e-02 1.5652373433113098e-01 -1.6518973279744387e-03 9.5074765384197235e-02 -6.3428737223148346e-02 -1.2907695770263672e-01 1.4369839429855347e-01 2.5561382994055748e-02 5.3362417966127396e-02 1.3315632939338684e-01 5.4104231297969818e-02 1.1493355780839920e-01 -2.0121513307094574e-01 8.7783239781856537e-02 -2.8794001787900925e-02 -8.1155836582183838e-02 -2.2436083853244781e-01 1.4409270137548447e-02 1.4420580863952637e-01 1.3771489262580872e-01 1.7827220261096954e-01 2.6716685295104980e-01 2.7650892734527588e-01 5.8772929012775421e-02 9.1416686773300171e-02 1.0910025984048843e-01 7.0470370352268219e-02 -1.7341723432764411e-03 -7.8300714492797852e-02 -2.0600166171789169e-02 2.9376503080129623e-02 1.3349355757236481e-01 -2.7007281780242920e-02 2.0136699080467224e-01 1.8244232982397079e-02 5.6754596531391144e-02 1.6526715457439423e-01 -1.4785757660865784e-01 -1.2511159479618073e-01 2.9809636995196342e-02 5.0140555948019028e-02 -6.7900465801358223e-03 3.6278462409973145e-01 -1.5306337177753448e-01 -1.3398255407810211e-01 2.5857578963041306e-02 5.9716880321502686e-02 8.4413208067417145e-02 1.5766215324401855e-01 6.9825284183025360e-02 7.5882524251937866e-02 7.2048604488372803e-02 2.4651025235652924e-01 1.0195223242044449e-01 1.2627615034580231e-01 -8.9314125478267670e-02 -1.7507833242416382e-01 8.5667163133621216e-02 -2.3047016561031342e-01 -4.8871082067489624e-01 -4.6435367316007614e-02 -1.4793838560581207e-01 6.7086264491081238e-02 1.8983645737171173e-01 -3.3451148867607117e-01 -1.6199128329753876e-01 -2.1868044137954712e-01 -9.2567116022109985e-02 1.5575776994228363e-01 2.2991068661212921e-02 9.7378799691796303e-03 -8.7138190865516663e-02 8.2450821995735168e-02 5.9243422746658325e-01 2.9334703087806702e-01 3.2809514552354813e-02 2.1216878294944763e-01 1.9345533102750778e-02 -5.2517350763082504e-02 -2.2565028071403503e-01 -1.1278247833251953e-01 1.7689643800258636e-01 2.0714841783046722e-01 3.2496523112058640e-02 1.7621549963951111e-01 8.5372515022754669e-02 2.3194963112473488e-02 8.2170531153678894e-02 -2.1087265014648438e-01 4.5695990324020386e-02 -2.0180101692676544e-01 5.1995337009429932e-01 1.4390569925308228e-01 7.0954459905624390e-01 1.1982449889183044e-01 -1.8948832154273987e-01 1.8624845147132874e-01 1.5144607424736023e-01 4.0093046426773071e-01 -4.4117718935012817e-03 1.0149080306291580e-01 9.9143758416175842e-03 2.0485758781433105e-01 1.4462287724018097e-01 1.1238716542720795e-01 -3.0419945716857910e-01 -3.0613011121749878e-01 -4.6681919693946838e-01 -7.3510125279426575e-02 4.0597239136695862e-01 5.7834100723266602e-01 -1.0281360149383545e-01 1.5038785338401794e-01 3.7129569798707962e-02 -1.8388880789279938e-01 2.2995924949645996e-01 1.9923491775989532e-01 1.8012535572052002e-01 1.7433741688728333e-01 5.5945352651178837e-03 2.6135733723640442e-01 -2.7513606473803520e-02 -2.0897373557090759e-01 -4.3474894016981125e-02 -5.9665799140930176e-01 -2.6582919061183929e-02 1.0821839421987534e-01 1.1088076978921890e-01 4.7106973826885223e-02 6.7018218338489532e-02 -3.0467297881841660e-02 -9.1835968196392059e-02 -6.1716627329587936e-02 -1.1604794114828110e-01 1.0345469228923321e-02 -8.8251911103725433e-02 -7.8342184424400330e-02 -2.1331392228603363e-01 -1.0404983907938004e-01 -1.5010786056518555e-01 -8.2741871476173401e-02 2.2152422368526459e-01 3.5886049270629883e-02 -1.0788116604089737e-01 -6.9749429821968079e-02 1.5252375602722168e-01 6.8081028759479523e-02 1.0245388746261597e-01 -6.2267206609249115e-02 9.3226000666618347e-02 1.5580843389034271e-01 -5.4265074431896210e-02 1.1971155181527138e-02 3.7137344479560852e-02 8.4624074399471283e-02 -1.5232007205486298e-01 1.8091965466737747e-02 -2.0147095620632172e-01 -3.6026228219270706e-02 8.3098866045475006e-02 -3.1443125009536743e-01 -8.7200164794921875e-01 2.0893895626068115e-01 -2.9228088259696960e-01 1.0442556440830231e-01 -1.6747814416885376e-01 -4.5273822546005249e-01 -1.5878443419933319e-01 -4.4703140854835510e-01 -1.4922353625297546e-01 -1.8333351612091064e-01 -6.3867025077342987e-02 3.4353265166282654e-01 2.1160030364990234e-01 1.3355673849582672e-01 8.8528323173522949e-01 -8.9991778135299683e-02 7.4053041636943817e-02 -4.5269417762756348e-01 -1.6729030013084412e-01 1.4042060077190399e-01 -1.9369061291217804e-01 -1.6611392796039581e-01 -1.8712364137172699e-01 7.6838262379169464e-02 -3.3012464642524719e-01 3.8715850561857224e-02 -9.6727952361106873e-02 -1.8646474182605743e-01 1.7021006345748901e-01 3.4286029636859894e-02 1.3965708017349243e-01 5.2161544561386108e-01 -1.7724126577377319e-01 -2.7429381385445595e-02 2.2778180241584778e-01 -1.2937292456626892e-01 1.2171231955289841e-01 9.9163372069597244e-03 -8.4773525595664978e-02 -1.6621579229831696e-01 1.4795096218585968e-01 2.2554148733615875e-01 4.8512811190448701e-04 1.4877200126647949e-01 2.1753104031085968e-01 -1.1540085822343826e-01 -7.5682424008846283e-02 7.1676649153232574e-02 2.1150870248675346e-02 -5.5365765094757080e-01 -2.2735418379306793e-01 -3.9962059259414673e-01 5.5653274059295654e-02 -2.0857839286327362e-01 -1.0070479661226273e-01 1.3528902828693390e-01 -4.1045048832893372e-01 7.2708591818809509e-02 -2.8882661461830139e-01 4.9805913120508194e-02 7.6175622642040253e-02 -2.2201351821422577e-01 3.4969982504844666e-01 -8.7603375315666199e-02 -2.9461234807968140e-01 5.7003903388977051e-01 -6.7869484424591064e-02 1.5964871644973755e-01 4.4390147924423218e-01 -3.4424122422933578e-02 -2.7257749810814857e-02 6.2019195407629013e-02 9.2938765883445740e-02 1.7913232743740082e-01 -6.5363183617591858e-02 1.1032711714506149e-01 2.4995639920234680e-01 8.5294194519519806e-02 2.3091596364974976e-01 -1.1103123426437378e-01 -2.6080572977662086e-02 5.9369128197431564e-02 -4.2510825395584106e-01 
      </Weights>
      <Biases rows="32" cols="1">
        2.1015620231628418e-01 5.6077554821968079e-02 -1.3483595848083496e-01 1.5687437355518341e-01 -4.3740626424551010e-02 3.0353832989931107e-03 -2.3470436036586761e-01 1.0295010358095169e-01 6.8462833762168884e-02 -2.6717880740761757e-02 -4.7141853719949722e-02 -4.7050997614860535e-02 7.3274471797049046e-03 -1.7724996805191040e-01 2.4969112873077393e-01 -1.3396485149860382e-01 9.0729080140590668e-02 1.2966342270374298e-01 -2.3464575409889221e-02 7.0716291666030884e-02 1.9486491382122040e-01 -2.0733875036239624e-01 1.1071646958589554e-01 2.4956159293651581e-01 8.2000099122524261e-02 -6.7968204617500305e-02 4.5249685645103455e-02 -2.6948019862174988e-01 -2.8440382331609726e-02 3.8963615894317627e-02 -3.5741370916366577e-01 1.3728450238704681e-01 
      </Biases>
    </Layer>
    <Layer ActivationFunction="3">
      <Weights rows="16" cols="32">
        3.6407634615898132e-02 -7.5585588812828064e-02 1.7617128789424896e-01 -1.6548685729503632e-01 2.5299064815044403e-02 1.1586403101682663e-01 5.1893377676606178e-03 -5.1331087946891785e-02 -3.7752293050289154e-02 -4.2488485574722290e-02 1.4080595970153809e-01 -3.0363477766513824e-02 1.6831573843955994e-01 2.5774267315864563e-01 -2.6699963212013245e-01 1.5028665959835052e-01 -6.9432564079761505e-02 -1.9279649853706360e-01 8.0898642539978027e-02 -7.0148542523384094e-02 -1.8365801870822906e-01 5.3586713969707489e-02 -1.8889413774013519e-01 -1.6029870510101318e-01 -1.4237893745303154e-02 5.6277934461832047e-02 1.0055763274431229e-01 1.9554212689399719e-01 -8.4630744531750679e-03 4.6249967068433762e-02 6.9933123886585236e-02 -2.0653200149536133e-01 1.4130616188049316e-01 4.7089040279388428e-02 -1.4474378526210785e-01 9.0170279145240784e-02 5.5399727076292038e-02 -7.5861066579818726e-02 -2.3825564980506897e-01 -3.0807385221123695e-02 5.5076088756322861e-02 1.9897259771823883e-02 1.4351729303598404e-02 9.8660677671432495e-02 -1.4985083043575287e-01 3.9437167346477509e-02 1.8966500461101532e-01 -9.4760119915008545e-02 -3.0101917684078217e-02 -1.7960606142878532e-02 6.8774558603763580e-02 1.1341693997383118e-01 1.5739779174327850e-01 -1.0435399413108826e-01 1.6689352691173553e-01 1.1496764421463013e-01 1.6140475869178772e-01 1.2232059240341187e-01 -3.0863840132951736e-02 -2.3174475133419037e-01 3.0942481011152267e-02 -1.7625754699110985e-03 -2.2871477901935577e-01 2.5852341204881668e-03 1.9953063130378723e-01 3.4546192735433578e-02 -1.3656853139400482e-01 3.6540657281875610e-02 -9.1797250206582248e-05 -8.4805160760879517e-02 -1.9608466327190399e-01 1.0787552595138550e-01 -3.2341487705707550e-02 -4.1718728840351105e-02 1.3810360804200172e-02 2.0462362095713615e-02 8.8660895824432373e-02 -8.2725606858730316e-02 2.4748162925243378e-01 -8.5920153651386499e-05 -7.0086197229102254e-04 1.4271049760282040e-02 8.9979082345962524e-02 -1.0477840900421143e-01 6.8358831107616425e-02 -1.5049178898334503e-01 9.4382889568805695e-02 2.7763709425926208e-01 2.2545011341571808e-01 -6.3759587705135345e-02 -1.0727734118700027e-01 -7.6913617551326752e-02 5.7703894563019276e-03 1.3635092973709106e-01 -1.1570654809474945e-01 1.3668841123580933e-01 -2.0941980183124542e-02 -9.6840515732765198e-02 1.8913643062114716e-01 -1.6161063313484192e-01 -2.0880553871393204e-02 1.3664729893207550e-01 7.8513383865356445e-02 -1.4535634219646454e-01 -1.6497445106506348e-01 1.9374269992113113e-02 1.4320380985736847e-01 -1.4526961743831635e-01 8.6560048162937164e-02 2.3002478480339050e-01 -1.3550777733325958e-01 1.7230391502380371e-01 -5.3839288651943207e-02 -2.0041239261627197e-01 -2.8463177382946014e-02 -5.6344479322433472e-02 -1.6345192492008209e-01 -3.7152681499719620e-02 -1.0418510437011719e-01 -2.1567034721374512e-01 2.0262517035007477e-02 8.2833006978034973e-02 1.0710228979587555e-01 1.1546117812395096e-01 1.4361003041267395e-01 -1.4348712563514709e-01 1.2128412723541260e-01 -1.5849955379962921e-01 2.0018257200717926e-01 3.1240558624267578e-01 -4.0925443172454834e-02 1.8971277773380280e-01 4.6519547700881958e-02 -2.7850851416587830e-02 -1.1567370593547821e-01 2.4442443251609802e-01 7.4354507029056549e-02 -2.2855648398399353e-01 9.5047600567340851e-02 -2.1124787628650665e-01 2.6305172592401505e-02 -2.3553114384412766e-02 1.1867395369336009e-03 -1.8468852341175079e-01 1.7024032771587372e-01 -7.5692966580390930e-02 -9.3293510377407074e-02 1.0940811038017273e-01 7.8961931169033051e-02 -3.3444133400917053e-01 -3.4329786896705627e-02 5.7267971336841583e-02 2.0038656890392303e-01 1.5195501036942005e-02 -2.1329125389456749e-02 -4.6567848324775696e-01 -3.0240869522094727e-01 1.2512016296386719e-01 -1.6190794110298157e-01 1.0934481024742126e-01 -1.0597141832113266e-01 -2.4082470685243607e-02 1.8856222927570343e-01 -1.3134111464023590e-01 -1.0088393837213516e-01 3.4848958253860474e-02 -6.4388200640678406e-02 -2.0753180980682373e-01 -1.6349153220653534e-01 9.6081957221031189e-02 6.2790073454380035e-02 5.5598173290491104e-02 -1.5681037679314613e-02 1.7745202779769897e-01 -6.4376309514045715e-02 -2.5826187804341316e-02 -1.4344638586044312e-01 -8.2706622779369354e-02 -1.7507856711745262e-02 -7.8507550060749054e-02 -1.5737408399581909e-01 8.5984684526920319e-02 4.2189646046608686e-04 -2.0345333218574524e-01 -2.3900158703327179e-02 -1.4266763627529144e-01 -7.3979966342449188e-02 2.5400298833847046e-01 -7.7035902068018913e-03 -5.8163013309240341e-02 1.4451755210757256e-02 -1.0689684748649597e-01 -1.7225773632526398e-01 -5.0858492031693459e-03 2.5166919454932213e-02 -5.7642877101898193e-02 2.3184379097074270e-03 -2.2021496668457985e-02 1.2063547223806381e-01 -1.2489289045333862e-01 -7.0044033229351044e-02 1.6295708715915680e-02 1.0997300036251545e-02 3.2498054206371307e-02 -6.4011670649051666e-02 1.1970173567533493e-01 -2.0455327630043030e-01 1.3970109820365906e-01 -1.7867031693458557e-01 -1.0898901522159576e-01 5.4807152599096298e-02 -1.0900313500314951e-03 1.9453575834631920e-02 3.7484239786863327e-02 -2.1301287412643433e-01 -5.0886835902929306e-02 3.5003021359443665e-02 -8.2678489387035370e-02 -9.6564032137393951e-02 2.8800012543797493e-02 2.0903104543685913e-01 -2.0446808636188507e-01 1.7292395234107971e-01 -2.3793430626392365e-01 1.7571473121643066e-01 1.6908074915409088e-01 1.1281746625900269e-01 1.1799356341362000e-01 -2.2667779028415680e-01 -1.1449291557073593e-01 -2.6152130961418152e-01 -5.2707172930240631e-02 1.9676993787288666e-01 -4.2558643966913223e-02 -1.2123551219701767e-01 9.4089016318321228e-02 1.6226244042627513e-05 -2.1113434433937073e-01 2.6786702871322632e-01 -1.7497259378433228e-01 2.4170605838298798e-01 2.0363360643386841e-01 -1.4653871953487396e-01 1.8266488611698151e-01 1.5708474814891815e-01 -2.7742356061935425e-01 2.2224399447441101e-01 2.9825502634048462e-01 1.4198802411556244e-01 -5.7413186877965927e-02 9.3838416039943695e-02 -3.6523252725601196e-01 -3.1812238693237305e-01 3.1722150743007660e-02 -5.3818214684724808e-02 1.4172956347465515e-01 1.4540600776672363e-01 -2.1538056433200836e-02 -6.7437566816806793e-02 1.2381847947835922e-01 1.2408376485109329e-01 -1.3277697563171387e-01 7.5140595436096191e-03 -2.0033437758684158e-02 -4.8954535275697708e-02 1.2544941157102585e-02 -5.0901580601930618e-02 2.7898445725440979e-02 -1.2156880646944046e-01 -8.7283827364444733e-02 -5.0700955092906952e-02 -1.6638030065223575e-03 9.5849938690662384e-02 9.9861457943916321e-02 -1.3127803802490234e-01 5.2885502576828003e-02 1.6170653700828552e-01 7.1490116417407990e-02 -8.5456490516662598e-02 -3.1830493360757828e-02 -5.1647212356328964e-02 1.2922300398349762e-01 8.9855737984180450e-02 -7.5517177581787109e-02 -1.0843010991811752e-01 -4.1463345289230347e-02 -9.2527799308300018e-02 1.5303044021129608e-01 -1.9430194795131683e-01 6.6786251962184906e-02 1.1184826493263245e-01 -6.5025091171264648e-02 7.6212704181671143e-02 5.7392522692680359e-02 -3.5072043538093567e-02 -1.4016600325703621e-02 -2.3452149704098701e-02 9.8306298255920410e-02 9.1600678861141205e-02 -1.1712582409381866e-01 2.9871853068470955e-02 1.1621803790330887e-01 -9.3367151916027069e-02 1.3102233409881592e-01 -1.1796236038208008e-01 1.3635148061439395e-03 6.3742518424987793e-02 -5.8470102958381176e-03 7.8419931232929230e-02 1.5208242833614349e-01 -4.2183052748441696e-02 -3.6997314542531967e-02 -2.0929405093193054e-01 1.2169023603200912e-01 -1.4723923057317734e-02 9.6753634512424469e-02 -5.4099738597869873e-02 1.3014088384807110e-02 2.0563729107379913e-01 2.4730538949370384e-02 -1.9931685179471970e-02 8.5424304008483887e-02 1.7447441816329956e-01 -6.2313530594110489e-02 7.7416375279426575e-02 5.0624113529920578e-02 1.9899415969848633e-01 -2.0694008097052574e-02 -8.9058578014373779e-02 1.1197354644536972e-01 3.3089682459831238e-02 1.1613418906927109e-01 -8.4863364463672042e-05 2.9934102296829224e-01 -1.9049011170864105e-01 1.7468021810054779e-01 8.5464306175708771e-02 -1.5350681543350220e-01 -7.7353544533252716e-02 5.2888553589582443e-02 -1.5908142924308777e-01 1.1939688771963120e-01 4.6340964734554291e-02 -2.4658267199993134e-01 -2.2625909745693207e-01 1.4827381074428558e-01 2.7399037498980761e-03 2.8363469243049622e-01 3.1610345840454102e-01 -4.8320885747671127e-02 1.7050120234489441e-01 -5.7627055794000626e-02 1.0424333810806274e-01 1.5166576206684113e-01 1.1655674129724503e-01 -2.8162611648440361e-02 7.9046390950679779e-02 5.4939161054790020e-03 -2.0168747287243605e-03 -3.8999490439891815e-02 -8.1422314047813416e-02 -1.1728477478027344e-01 3.4934066236019135e-02 1.2173164635896683e-01 -1.1990365386009216e-01 -6.5512806177139282e-02 2.3277120664715767e-02 -2.3414056748151779e-02 1.6536736488342285e-01 9.3545861542224884e-02 -4.0413461625576019e-02 -1.2138473987579346e-01 -1.5337642282247543e-02 7.0611402392387390e-02 8.6496792733669281e-02 -3.0819287057965994e-03 8.1939809024333954e-02 3.7152245640754700e-02 -2.9009331483393908e-03 -1.3993775844573975e-01 -1.1628473550081253e-01 1.1570392549037933e-01 1.2537586688995361e-01 8.7159741669893265e-03 2.6163312792778015e-01 2.2672484815120697e-01 4.3460153043270111e-02 2.1296799182891846e-01 -2.3444063961505890e-01 4.9903027713298798e-02 -1.4551562070846558e-01 3.0899283289909363e-01 2.5563508272171021e-02 3.2831285148859024e-02 1.3596193492412567e-01 -2.6944908499717712e-01 7.3582261800765991e-02 4.7424994409084320e-02 2.0169974863529205e-01 -1.0314413905143738e-01 -2.7664411813020706e-02 -1.2054808437824249e-02 7.0309445261955261e-02 1.2385636568069458e-01 1.7003096640110016e-01 -3.7336283922195435e-01 -6.3585996627807617e-02 1.1593350768089294e-01 3.0899283289909363e-01 8.5952557623386383e-02 5.0911564379930496e-02 -4.9463033676147461e-01 -1.3169993460178375e-01 1.6082276403903961e-01 -1.7769519984722137e-01 2.6464000344276428e-01 1.9651226699352264e-02 -7.5950376689434052e-02 4.4995360076427460e-02 -5.7069193571805954e-02 1.3742727041244507e-01 -1.2765374965965748e-02 -1.1164423823356628e-01 -1.1786988936364651e-02 -1.6543035209178925e-01 1.2249868363142014e-02 6.3824057579040527e-02 7.1098804473876953e-02 1.0953800752758980e-02 5.1847562193870544e-02 -7.1069814264774323e-02 -3.3089499920606613e-02 -7.3429107666015625e-02 -1.2627880275249481e-01 -1.5366870909929276e-02 -1.0491219162940979e-01 -7.9769141972064972e-02 -1.2401880323886871e-01 -1.1476413160562515e-01 -1.5149550139904022e-01 -1.0506684333086014e-01 1.1454252153635025e-01 4.6417694538831711e-02 -3.5901997238397598e-02 -2.4784561246633530e-02 1.1646609008312225e-01 8.8028319180011749e-02 6.6976174712181091e-02 -4.0180832147598267e-02 6.4793512225151062e-02 1.2957046926021576e-01 -4.5871187001466751e-02 2.1307375282049179e-02 1.9429115578532219e-02 6.6301397979259491e-02 -1.0557568818330765e-01 3.3839453011751175e-02 -1.1924020946025848e-01 1.3933897018432617e-02 1.0158047825098038e-01 -8.1672966480255127e-03 -1.0438962280750275e-01 1.2025669217109680e-01 -1.5542839467525482e-01 9.2780068516731262e-03 -1.4487569034099579e-01 -1.2259060889482498e-01 -2.9059136286377907e-02 -7.5029730796813965e-02 4.6911449171602726e-03 -1.4053036272525787e-01 1.2480919808149338e-01 1.3693654537200928e-01 1.1913473904132843e-01 6.2105260789394379e-02 9.6087232232093811e-02 -6.8619497120380402e-02 4.7721121460199356e-02 -8.3285346627235413e-03 -1.2300971150398254e-01 1.4418692886829376e-01 -1.2571915984153748e-01 -1.3884209096431732e-01 6.6004127264022827e-02 1.2580543756484985e-01 -7.4130818247795105e-02 8.0784298479557037e-02 -4.0548738092184067e-02 -3.6776114255189896e-02 8.0785647034645081e-02 -7.5535657815635204e-03 9.9758051335811615e-02 1.3170395791530609e-01 -1.7243328690528870e-01 -4.3400763534009457e-03 6.4936615526676178e-02 -6.1302229762077332e-02 1.2042867392301559e-01 5.3587332367897034e-02 -4.8604369163513184e-02 -1.1804191768169403e-01 6.4090892672538757e-02 1.7173507809638977e-01 5.1358465105295181e-02 1.6498458385467529e-01 1.2403830140829086e-01 -5.0389107316732407e-02 -1.0037961602210999e-01 2.5769021362066269e-02 9.1340743005275726e-02 -2.1802835166454315e-01 7.2324037551879883e-02 
      </Weights>
      <Biases rows="16" cols="1">
        -3.5247735679149628e-02 2.8393782675266266e-02 6.0654316097497940e-02 -6.3080102205276489e-02 3.9983272552490234e-02 -2.1283837035298347e-02 -1.4045769348740578e-03 2.5334995985031128e-01 -4.2740633944049478e-04 -3.8340520113706589e-02 -1.1144062876701355e-01 1.6604321077466011e-02 1.1196001619100571e-01 -2.4916013702750206e-02 1.1457682587206364e-02 6.2953098677098751e-03 
      </Biases>
    </Layer>
    <Layer ActivationFunction="2">
      <Weights rows="16" cols="16">
        8.4143795073032379e-02 5.2825231105089188e-02 3.3213660120964050e-01 -2.8328141570091248e-01 1.4837679266929626e-01 2.0353661850094795e-02 -2.9676386713981628e-01 2.7345702052116394e-01 1.7772100865840912e-02 -2.7618023753166199e-01 -6.7599192261695862e-02 2.6249932125210762e-02 4.3064853549003601e-01 1.9508622586727142e-01 -1.8119665980339050e-01 1.2955787777900696e-01 1.4956058561801910e-01 -3.1514751911163330e-01 1.0046752169728279e-02 2.1289551258087158e-01 -4.0158775448799133e-01 1.1309952288866043e-01 9.9474765360355377e-02 -3.4739074110984802e-01 8.3311021327972412e-02 1.5802446007728577e-01 3.9060017466545105e-01 -5.9426825493574142e-02 -3.8656768202781677e-01 1.5428341925144196e-01 -5.3832866251468658e-03 -2.2843137383460999e-01 5.4731659591197968e-02 -3.0125115066766739e-02 -1.3372571766376495e-01 4.9299180507659912e-02 7.1560837328433990e-02 -6.4386002719402313e-02 -1.2945067882537842e-01 -1.8229854106903076e-01 2.8051959350705147e-02 1.7035733163356781e-01 1.2118919938802719e-01 1.4361290633678436e-01 -1.8737977743148804e-01 2.0689783990383148e-01 9.6061810851097107e-02 -5.1533568650484085e-02 -3.0753618478775024e-01 4.3104968965053558e-02 1.8959209322929382e-01 -1.7791292071342468e-01 3.8169720768928528e-01 -1.9130246341228485e-01 -1.3322310149669647e-01 2.4919886887073517e-01 1.3588389754295349e-01 7.9785242676734924e-02 -3.1554022431373596e-01 -6.6641336306929588e-03 4.2417645454406738e-01 -7.4309490621089935e-02 -1.8248079717159271e-01 -5.6468147784471512e-02 6.6830493509769440e-02 4.6700458973646164e-02 -6.5461568534374237e-02 -1.7264637351036072e-01 1.4161215722560883e-01 -1.5366676449775696e-01 -2.0245473086833954e-01 1.5921047329902649e-01 -7.2936728596687317e-02 -2.1071448922157288e-02 -4.3596860021352768e-02 8.0292634665966034e-02 2.6410460472106934e-01 1.1722064577043056e-02 1.3828428089618683e-01 1.1947607249021530e-01 -1.9297893345355988e-01 -1.9660943653434515e-03 2.0271594822406769e-01 -3.4743082523345947e-01 1.9901049137115479e-01 -1.5037263929843903e-01 -1.0834342241287231e-01 4.2837879061698914e-01 1.7912891507148743e-01 -1.1404102295637131e-01 -3.4223878383636475e-01 2.0255970954895020e-01 3.8558471202850342e-01 1.3688080012798309e-01 -3.8291639648377895e-03 8.2595035433769226e-02 1.9098964333534241e-01 -1.6937153041362762e-01 1.0027257353067398e-01 -1.6820078715682030e-02 -1.6551312804222107e-01 2.2291333973407745e-01 1.0420376807451248e-01 -3.3929669857025146e-01 -1.9673481583595276e-01 8.8900160044431686e-03 3.1177544593811035e-01 -2.3639313876628876e-01 -8.8600471615791321e-02 2.1103602647781372e-01 -1.3892223127186298e-02 9.3171261250972748e-02 6.2485229223966599e-02 -2.3724694550037384e-01 -5.3119424730539322e-02 5.6018270552158356e-02 -2.7520805597305298e-01 -1.3105806708335876e-01 -1.9615238124970347e-04 -2.6952335238456726e-01 1.2183482944965363e-01 1.3681635260581970e-01 2.7142164111137390e-01 -5.0769168883562088e-02 -9.7037814557552338e-02 -1.5458156168460846e-01 5.0728932023048401e-02 -1.3629962503910065e-01 1.5715399384498596e-01 1.8894314765930176e-01 -4.0882270783185959e-02 9.3617230653762817e-02 1.4841546118259430e-01 -2.4729955941438675e-02 3.9963826537132263e-02 7.0582561194896698e-02 8.0525189638137817e-02 -1.2056257575750351e-01 1.9947759807109833e-01 -1.4467197656631470e-01 9.4865269958972931e-02 1.1858520656824112e-01 -1.9378721714019775e-01 -1.9410851597785950e-01 1.9175940752029419e-01 -2.5648176670074463e-01 -2.5560250878334045e-01 1.1328570544719696e-01 -7.7474549412727356e-02 -7.8829281032085419e-02 -7.2108171880245209e-02 -2.3388046026229858e-01 -6.7318908870220184e-02 1.3745033740997314e-01 8.3389267325401306e-02 -2.4364548921585083e-01 -3.9909663796424866e-01 7.9334061592817307e-03 -1.2780588865280151e-01 -1.7186370491981506e-01 -1.4260549843311310e-01 9.8809167742729187e-02 2.9988184571266174e-01 -2.4135901033878326e-01 -8.0727539956569672e-02 -8.0870054662227631e-02 -3.1537264585494995e-01 -5.3348649293184280e-02 -1.6572278738021851e-01 -2.1408652886748314e-02 -9.6748888492584229e-02 9.7743853926658630e-02 9.5523305237293243e-02 1.3555891811847687e-01 -3.5937782377004623e-03 -1.0618373006582260e-01 3.9196006953716278e-02 -2.3470844328403473e-01 -1.6923081874847412e-01 2.2005413472652435e-01 -3.5625097155570984e-01 2.1335041522979736e-01 3.5499259829521179e-01 -4.8944914340972900e-01 1.3514598831534386e-02 -6.1355758458375931e-02 1.8339371681213379e-01 8.1487707793712616e-02 -3.6359262466430664e-01 2.2182241082191467e-02 -1.6591729363426566e-03 -1.5585859119892120e-01 -2.0889060199260712e-01 1.2902374565601349e-01 7.0880420506000519e-02 -1.1532202363014221e-01 8.4137097001075745e-02 -1.4696183800697327e-01 -7.3097668588161469e-02 1.1514234542846680e-01 -4.5235246419906616e-02 -1.8170943856239319e-01 -2.2998246550559998e-01 7.6711282134056091e-02 5.0289921462535858e-02 -3.0501752626150846e-03 -1.3636118173599243e-01 9.1362662613391876e-02 -3.0517536401748657e-01 7.0664368569850922e-02 2.8348374366760254e-01 -1.1955204606056213e-01 2.6298090815544128e-01 -2.5838056206703186e-01 -4.3482509255409241e-01 3.3898842334747314e-01 1.5571901202201843e-01 -2.3754237592220306e-01 -3.3241283893585205e-01 -6.1881124973297119e-02 3.2048138976097107e-01 -2.0707616209983826e-01 1.4816917479038239e-01 -1.4794492721557617e-01 -7.0842333137989044e-02 1.3140675425529480e-01 1.6977395117282867e-01 -2.5794357061386108e-03 -1.6726320981979370e-01 -9.6476219594478607e-02 -2.1962220966815948e-01 -1.4768163859844208e-01 1.7560972273349762e-01 -9.5552001148462296e-03 -1.0952634364366531e-01 1.2194339931011200e-01 7.1609258651733398e-02 -5.6043840944766998e-02 2.1257652342319489e-01 -1.3866797089576721e-01 1.0246921330690384e-01 2.9597350955009460e-01 -8.7867476046085358e-02 -2.9624052345752716e-02 3.4496679902076721e-01 -3.0199873447418213e-01 -8.3606885746121407e-03 3.4326809644699097e-01 1.1542657390236855e-02 -1.3916863501071930e-01 -2.2588305175304413e-02 -5.8888766914606094e-02 8.8236890733242035e-03 -4.3448213487863541e-02 4.7871541231870651e-02 2.3010579869151115e-02 
      </Weights>
      <Biases rows="16" cols="1">
        -3.1181551516056061e-02 -1.5726080164313316e-03 -2.7923924848437309e-02 -6.1743002384901047e-02 -3.7477638572454453e-02 2.2266712039709091e-02 -3.3124025911092758e-02 -2.3591101169586182e-02 -2.4130152538418770e-02 -1.1859782971441746e-02 -4.6080853790044785e-02 -4.5868782326579094e-03 -3.9924513548612595e-02 -8.4501353558152914e-04 -3.1993232667446136e-02 -4.7038279473781586e-02 
      </Biases>
    </Layer>
    <Layer ActivationFunction="0">
      <Weights rows="1" cols="16">
        3.2565733790397644e-01 -1.1303091049194336e+00 -1.5764328837394714e-01 9.3788635730743408e-01 1.5062698721885681e-01 3.4133797883987427e-01 -1.1501555144786835e-01 -7.8949525952339172e-02 -3.4014616161584854e-02 1.6610887832939625e-03 2.5616279244422913e-01 -1.1388679742813110e+00 1.5159656107425690e-01 1.0280628204345703e+00 9.8622769117355347e-02 3.9640155434608459e-01 
      </Weights>
      <Biases rows="1" cols="1">
        -3.7003254890441895e-01 
      </Biases>
    </Layer>
  </Weights>
</MethodSetup>
