<?xml version="1.0"?>
<MethodSetup Method="DNN::DNN_NanoV9_V1_2020_BBtag_x0">
  <GeneralInfo>
    <Info name="TMVA Release" value="4.2.1 [262657]"/>
    <Info name="ROOT Release" value="6.12/07 [396295]"/>
    <Info name="Creator" value="hum"/>
    <Info name="Date" value="Sun Feb 27 23:47:13 2022"/>
    <Info name="Host" value="Linux vocms0301.cern.ch 2.6.32-696.30.1.el6.x86_64 #1 SMP Tue May 22 06:09:36 CEST 2018 x86_64 x86_64 x86_64 GNU/Linux"/>
    <Info name="Dir" value="/afs/cern.ch/work/h/hum/public/CMSSW_10_2_13/src/ChargedHiggs/Analysis"/>
    <Info name="Training events" value="4457"/>
    <Info name="TrainingTime" value="1.72459292e+00"/>
    <Info name="AnalysisType" value="Classification"/>
  </GeneralInfo>
  <Options>
    <Option name="V" modified="Yes">True</Option>
    <Option name="VerbosityLevel" modified="No">Verbose</Option>
    <Option name="VarTransform" modified="Yes">N</Option>
    <Option name="H" modified="Yes">False</Option>
    <Option name="CreateMVAPdfs" modified="No">False</Option>
    <Option name="IgnoreNegWeightsInTraining" modified="No">False</Option>
    <Option name="Layout" modified="Yes">SIGMOID|32,TANH|16,TANH|16,LINEAR</Option>
    <Option name="ValidationSize" modified="No">20%</Option>
    <Option name="ErrorStrategy" modified="Yes">CROSSENTROPY</Option>
    <Option name="WeightInitialization" modified="Yes">XAVIERUNIFORM</Option>
    <Option name="Architecture" modified="Yes">CPU</Option>
    <Option name="TrainingStrategy" modified="Yes">LearningRate=1e-1,Momentum=0.4,Repetitions=1,ConvergenceSteps=20,BatchSize=256,TestRepetitions=10,WeightDecay=1e-4,Regularization=L2,DropConfig=0.0+0.1+0.25+0.5,</Option>
  </Options>
  <Variables NVar="13">
    <Variable VarIndex="0" Expression="j1QGL" Label="j1QGL" Title="j1QGL" Unit="" Internal="j1QGL" Type="F" Min="-1.00000000e+00" Max="1.00000000e+00"/>
    <Variable VarIndex="1" Expression="j2QGL" Label="j2QGL" Title="j2QGL" Unit="" Internal="j2QGL" Type="F" Min="-1.00000000e+00" Max="9.99511719e-01"/>
    <Variable VarIndex="2" Expression="varMjj" Label="varMjj" Title="varMjj" Unit="" Internal="varMjj" Type="F" Min="5.00547974e+02" Max="6.45378076e+03"/>
    <Variable VarIndex="3" Expression="varDetajj" Label="varDetajj" Title="varDetajj" Unit="" Internal="varDetajj" Type="F" Min="2.50183105e+00" Max="8.39355469e+00"/>
    <Variable VarIndex="4" Expression="varJet1Pt" Label="varJet1Pt" Title="varJet1Pt" Unit="" Internal="varJet1Pt" Type="F" Min="5.23437500e+01" Max="1.75300000e+03"/>
    <Variable VarIndex="5" Expression="abs(varJet2Eta)" Label="abs(varJet2Eta)" Title="abs(varJet2Eta)" Unit="" Internal="abs_varJet2Eta_" Type="F" Min="1.67369843e-03" Max="4.67480469e+00"/>
    <Variable VarIndex="6" Expression="varJet2Pt" Label="varJet2Pt" Title="varJet2Pt" Unit="" Internal="varJet2Pt" Type="F" Min="5.00312500e+01" Max="9.18000000e+02"/>
    <Variable VarIndex="7" Expression="varPTV1" Label="varPTV1" Title="varPTV1" Unit="" Internal="varPTV1" Type="F" Min="3.00000000e+02" Max="1.85000000e+03"/>
    <Variable VarIndex="8" Expression="varPTV2" Label="varPTV2" Title="varPTV2" Unit="" Internal="varPTV2" Type="F" Min="3.00000000e+02" Max="1.85400000e+03"/>
    <Variable VarIndex="9" Expression="varCen" Label="varCen" Title="varCen" Unit="" Internal="varCen" Type="F" Min="0.00000000e+00" Max="3.69934082e+00"/>
    <Variable VarIndex="10" Expression="varzepVV" Label="varzepVV" Title="varzepVV" Unit="" Internal="varzepVV" Type="F" Min="2.39181390e-04" Max="1.78776300e+00"/>
    <Variable VarIndex="11" Expression="varDRV1j" Label="varDRV1j" Title="varDRV1j" Unit="" Internal="varDRV1j" Type="F" Min="1.20024276e+00" Max="4.52280712e+00"/>
    <Variable VarIndex="12" Expression="varnormPTVVjj" Label="varnormPTVVjj" Title="varnormPTVVjj" Unit="" Internal="varnormPTVVjj" Type="F" Min="1.14961163e-04" Max="5.42132974e-01"/>
  </Variables>
  <Spectators NSpec="0"/>
  <Classes NClass="2">
    <Class Name="Signal" Index="0"/>
    <Class Name="Background" Index="1"/>
  </Classes>
  <Transformations NTransformations="1">
    <Transform Name="Normalize">
      <Selection>
        <Input NInputs="13">
          <Input Type="Variable" Label="j1QGL" Expression="j1QGL"/>
          <Input Type="Variable" Label="j2QGL" Expression="j2QGL"/>
          <Input Type="Variable" Label="varMjj" Expression="varMjj"/>
          <Input Type="Variable" Label="varDetajj" Expression="varDetajj"/>
          <Input Type="Variable" Label="varJet1Pt" Expression="varJet1Pt"/>
          <Input Type="Variable" Label="abs(varJet2Eta)" Expression="abs(varJet2Eta)"/>
          <Input Type="Variable" Label="varJet2Pt" Expression="varJet2Pt"/>
          <Input Type="Variable" Label="varPTV1" Expression="varPTV1"/>
          <Input Type="Variable" Label="varPTV2" Expression="varPTV2"/>
          <Input Type="Variable" Label="varCen" Expression="varCen"/>
          <Input Type="Variable" Label="varzepVV" Expression="varzepVV"/>
          <Input Type="Variable" Label="varDRV1j" Expression="varDRV1j"/>
          <Input Type="Variable" Label="varnormPTVVjj" Expression="varnormPTVVjj"/>
        </Input>
        <Output NOutputs="13">
          <Output Type="Variable" Label="j1QGL" Expression="j1QGL"/>
          <Output Type="Variable" Label="j2QGL" Expression="j2QGL"/>
          <Output Type="Variable" Label="varMjj" Expression="varMjj"/>
          <Output Type="Variable" Label="varDetajj" Expression="varDetajj"/>
          <Output Type="Variable" Label="varJet1Pt" Expression="varJet1Pt"/>
          <Output Type="Variable" Label="abs(varJet2Eta)" Expression="abs(varJet2Eta)"/>
          <Output Type="Variable" Label="varJet2Pt" Expression="varJet2Pt"/>
          <Output Type="Variable" Label="varPTV1" Expression="varPTV1"/>
          <Output Type="Variable" Label="varPTV2" Expression="varPTV2"/>
          <Output Type="Variable" Label="varCen" Expression="varCen"/>
          <Output Type="Variable" Label="varzepVV" Expression="varzepVV"/>
          <Output Type="Variable" Label="varDRV1j" Expression="varDRV1j"/>
          <Output Type="Variable" Label="varnormPTVVjj" Expression="varnormPTVVjj"/>
        </Output>
      </Selection>
      <Class ClassIndex="0">
        <Ranges>
          <Range Index="0" Min="-1.0000000000000000e+00" Max="1.0000000000000000e+00"/>
          <Range Index="1" Min="-1.0000000000000000e+00" Max="9.9951171875000000e-01"/>
          <Range Index="2" Min="5.0183966064453125e+02" Max="6.4537807617187500e+03"/>
          <Range Index="3" Min="2.5019531250000000e+00" Max="8.3432617187500000e+00"/>
          <Range Index="4" Min="5.2718750000000000e+01" Max="1.7530000000000000e+03"/>
          <Range Index="5" Min="1.6736984252929688e-03" Max="4.6748046875000000e+00"/>
          <Range Index="6" Min="5.0031250000000000e+01" Max="6.1750000000000000e+02"/>
          <Range Index="7" Min="3.0000000000000000e+02" Max="1.8500000000000000e+03"/>
          <Range Index="8" Min="3.0000000000000000e+02" Max="1.8540000000000000e+03"/>
          <Range Index="9" Min="4.1503906250000000e-03" Max="3.6877441406250000e+00"/>
          <Range Index="10" Min="2.3918139049783349e-04" Max="1.7877629995346069e+00"/>
          <Range Index="11" Min="1.2002427577972412e+00" Max="4.5228071212768555e+00"/>
          <Range Index="12" Min="1.1496116349007934e-04" Max="4.6569132804870605e-01"/>
        </Ranges>
      </Class>
      <Class ClassIndex="1">
        <Ranges>
          <Range Index="0" Min="-1.0000000000000000e+00" Max="1.0000000000000000e+00"/>
          <Range Index="1" Min="-1.0000000000000000e+00" Max="9.9951171875000000e-01"/>
          <Range Index="2" Min="5.0054797363281250e+02" Max="5.3762480468750000e+03"/>
          <Range Index="3" Min="2.5018310546875000e+00" Max="8.3935546875000000e+00"/>
          <Range Index="4" Min="5.2343750000000000e+01" Max="1.4100000000000000e+03"/>
          <Range Index="5" Min="1.1056518554687500e-01" Max="4.6113281250000000e+00"/>
          <Range Index="6" Min="5.0031250000000000e+01" Max="9.1800000000000000e+02"/>
          <Range Index="7" Min="3.0000000000000000e+02" Max="1.5960000000000000e+03"/>
          <Range Index="8" Min="3.0000000000000000e+02" Max="1.6150000000000000e+03"/>
          <Range Index="9" Min="0.0000000000000000e+00" Max="3.6993408203125000e+00"/>
          <Range Index="10" Min="4.2094607488252223e-04" Max="1.5011012554168701e+00"/>
          <Range Index="11" Min="1.2006403207778931e+00" Max="4.3695983886718750e+00"/>
          <Range Index="12" Min="9.6079817740246654e-04" Max="5.4213297367095947e-01"/>
        </Ranges>
      </Class>
      <Class ClassIndex="2">
        <Ranges>
          <Range Index="0" Min="-1.0000000000000000e+00" Max="1.0000000000000000e+00"/>
          <Range Index="1" Min="-1.0000000000000000e+00" Max="9.9951171875000000e-01"/>
          <Range Index="2" Min="5.0054797363281250e+02" Max="6.4537807617187500e+03"/>
          <Range Index="3" Min="2.5018310546875000e+00" Max="8.3935546875000000e+00"/>
          <Range Index="4" Min="5.2343750000000000e+01" Max="1.7530000000000000e+03"/>
          <Range Index="5" Min="1.6736984252929688e-03" Max="4.6748046875000000e+00"/>
          <Range Index="6" Min="5.0031250000000000e+01" Max="9.1800000000000000e+02"/>
          <Range Index="7" Min="3.0000000000000000e+02" Max="1.8500000000000000e+03"/>
          <Range Index="8" Min="3.0000000000000000e+02" Max="1.8540000000000000e+03"/>
          <Range Index="9" Min="0.0000000000000000e+00" Max="3.6993408203125000e+00"/>
          <Range Index="10" Min="2.3918139049783349e-04" Max="1.7877629995346069e+00"/>
          <Range Index="11" Min="1.2002427577972412e+00" Max="4.5228071212768555e+00"/>
          <Range Index="12" Min="1.1496116349007934e-04" Max="5.4213297367095947e-01"/>
        </Ranges>
      </Class>
    </Transform>
  </Transformations>
  <MVAPdfs/>
  <Weights InputWidth="13" Depth="4" LossFunction="C" OutputFunction="S">
    <Layer ActivationFunction="2">
      <Weights rows="32" cols="13">
        1.5372830629348755e-01 3.6092394590377808e-01 2.9373598098754883e-01 1.2400528043508530e-01 1.1770112067461014e-01 -3.2119762897491455e-01 3.3824652433395386e-01 3.7052771449089050e-01 2.1390725672245026e-01 2.4266971647739410e-01 2.6262667775154114e-01 6.4554475247859955e-02 -2.8095445036888123e-01 4.3929433822631836e-01 -1.4928331971168518e-01 2.9405754804611206e-01 -2.5264403223991394e-01 3.2947796583175659e-01 2.4759136140346527e-01 3.9220580458641052e-01 2.6685804128646851e-01 3.2077804207801819e-01 -4.8646561801433563e-02 2.1609477698802948e-01 1.1105401813983917e-01 -1.6200134158134460e-01 -7.0551797747612000e-02 -2.4953936040401459e-01 -1.1043880879878998e-01 3.7988230586051941e-01 4.0644901990890503e-01 2.1939942613244057e-02 1.5364356338977814e-01 1.6393662989139557e-01 4.5891970396041870e-01 3.7051713466644287e-01 8.6034364998340607e-02 2.9322770237922668e-01 -5.7260233163833618e-01 1.5713657438755035e-01 6.4285799860954285e-02 1.0361547023057938e-01 2.0928215980529785e-01 1.8822565674781799e-01 -1.1079772561788559e-01 -2.7159389853477478e-01 9.0415425598621368e-02 4.6751552820205688e-01 -8.6822614073753357e-02 -3.5297939181327820e-01 3.0618670582771301e-01 2.2183832526206970e-01 1.4275674521923065e-01 6.6817805171012878e-02 -4.1301032900810242e-01 2.4457885324954987e-01 -1.7415158450603485e-02 2.8955495357513428e-01 -5.7867221534252167e-02 -4.0171012282371521e-01 -4.1052886843681335e-01 2.6846966147422791e-01 2.3582655191421509e-01 -1.7724969983100891e-01 2.5276190042495728e-01 -2.7312174439430237e-01 7.4708625674247742e-02 2.8423273563385010e-01 -7.3993600904941559e-02 -3.6261923611164093e-02 2.2680585086345673e-01 -1.2856039404869080e-01 -2.5705739855766296e-01 -2.3095728829503059e-02 1.3172212243080139e-01 -1.3102616183459759e-02 -2.4646718800067902e-01 1.1144787073135376e-01 -6.0914095491170883e-02 1.8921231850981712e-02 -5.8862835168838501e-01 3.6035057902336121e-01 -2.2331213951110840e-01 -2.1204222738742828e-01 -2.0385143160820007e-01 -4.4714000821113586e-01 -4.0782567858695984e-01 2.1111819148063660e-01 3.7718904018402100e-01 1.6873638331890106e-01 6.1517542600631714e-01 1.3416212797164917e-01 4.3782797455787659e-01 8.3040934801101685e-01 -5.9984169900417328e-02 6.0614717006683350e-01 1.3371576368808746e-01 1.5900563448667526e-02 6.5772271156311035e-01 1.5375167131423950e-01 3.5455584526062012e-01 -2.9520580545067787e-02 -2.8922599554061890e-01 -1.1121119260787964e+00 1.4812216162681580e-02 -1.9771920051425695e-05 -1.4405292272567749e-01 -3.2413855195045471e-01 -4.1801026463508606e-01 -3.6682990193367004e-01 6.8901665508747101e-02 -1.6643373668193817e-01 -9.3854859471321106e-02 -1.2317392230033875e-01 3.5104092955589294e-01 7.1852967143058777e-02 2.8201377391815186e-01 2.1211521327495575e-01 2.5165313482284546e-01 4.8247754573822021e-01 -2.6382768154144287e-01 3.6440455913543701e-01 1.8158042803406715e-02 4.5680361986160278e-01 1.3561597093939781e-02 3.0988404154777527e-01 4.8506431281566620e-02 -2.5158739089965820e-01 -3.9585381746292114e-01 -3.2562515139579773e-01 -3.9392378926277161e-01 1.8756854534149170e-01 -5.9828346967697144e-01 -3.4316450357437134e-01 -7.8482136130332947e-02 -1.8080170266330242e-03 2.6178697124123573e-02 -4.0323910117149353e-01 -1.5281023085117340e-01 -3.5181325674057007e-01 2.4522434175014496e-01 -1.4522527158260345e-01 7.1599161624908447e-01 -1.7319685220718384e-01 3.5318097472190857e-01 -1.4771957695484161e-01 -1.1619535833597183e-01 -2.3641537129878998e-01 1.4835117757320404e-01 -1.4482691884040833e-01 -2.6900416612625122e-01 -1.6704200208187103e-01 2.7506902813911438e-01 3.4434461593627930e-01 3.8579455018043518e-01 4.7452073544263840e-02 -7.0219732820987701e-02 3.1551095843315125e-01 4.3728190660476685e-01 2.1387170255184174e-01 -2.8972139954566956e-01 -1.0148827731609344e-01 3.9598825573921204e-01 -6.7190513014793396e-02 5.4489672183990479e-02 3.0922478437423706e-01 2.7072736993432045e-02 1.7095884680747986e-01 2.3893055319786072e-01 1.9425809383392334e-01 3.3391961455345154e-01 -4.7170758247375488e-02 -2.9661178588867188e-01 1.8207179009914398e-01 2.3984326422214508e-01 5.1934745162725449e-02 -1.1640167795121670e-02 3.4793171286582947e-01 2.1688278019428253e-01 -1.0435810685157776e-01 -1.9025136530399323e-01 1.3895127177238464e-01 -2.7920025587081909e-01 -3.2530653476715088e-01 -1.7618229985237122e-01 1.3001033663749695e-01 3.3768531680107117e-01 -3.3056432008743286e-01 -2.1214897930622101e-01 2.9405167698860168e-01 -1.3014441728591919e-01 -3.2480084896087646e-01 -2.2851845622062683e-01 -3.5963013768196106e-01 6.3748620450496674e-02 3.5139071941375732e-01 -5.8985520154237747e-03 5.8991277217864990e-01 -4.0095448493957520e-03 3.7816214561462402e-01 -4.7709245234727859e-02 -1.2258982285857201e-02 4.7981625795364380e-01 9.8090529441833496e-02 6.2919862568378448e-02 -1.1133641749620438e-01 1.5230233967304230e-01 -5.5619353055953979e-01 -1.9713029265403748e-01 6.4199283719062805e-02 -4.3665859103202820e-01 -2.5826174020767212e-01 -2.8503483533859253e-01 -8.8385030627250671e-02 -1.3048809766769409e-01 6.4630933105945587e-02 -4.2764511704444885e-01 1.6498261690139771e-01 -2.1112538874149323e-01 3.1112515926361084e-01 6.2669116258621216e-01 -4.5266631245613098e-01 -9.2881694436073303e-02 -2.6133972406387329e-01 -3.3291649818420410e-01 -3.9476007223129272e-01 8.0059684813022614e-02 2.5335431098937988e-01 -1.6866628825664520e-01 -2.9519689083099365e-01 7.1383439004421234e-02 -3.8961261510848999e-02 1.9934937357902527e-01 1.1007457971572876e-02 -3.7056651711463928e-01 -3.8855811953544617e-01 -5.3486430644989014e-01 -1.7549587786197662e-01 1.1493152379989624e-01 -3.9496055245399475e-01 -1.0124932043254375e-02 2.7337798383086920e-03 -1.9118256866931915e-01 -6.3063532114028931e-02 -2.4216663837432861e-01 -1.9609659910202026e-01 2.1357208024710417e-03 -2.0202554762363434e-01 -1.8430143594741821e-01 4.6604100614786148e-02 -1.5951497480273247e-03 -9.1029278934001923e-02 -2.8191569447517395e-01 2.7181121706962585e-01 -1.2497240304946899e-01 1.2678842246532440e-01 -3.5550966858863831e-01 2.7382579445838928e-01 3.7332415580749512e-01 -1.4575487375259399e-01 2.7610409259796143e-01 2.4199204146862030e-01 1.9321057200431824e-01 -1.4083553850650787e-01 -3.0752784013748169e-01 -7.3580503463745117e-02 1.7955997586250305e-01 -2.4349933862686157e-01 -1.2245514988899231e-01 1.5187542140483856e-01 -2.5841632485389709e-01 2.1426884829998016e-01 2.8096300363540649e-01 2.3429377377033234e-01 4.0878820419311523e-01 4.7913119196891785e-01 1.8591307103633881e-01 -1.6403026878833771e-02 -7.3001414537429810e-02 -2.2041748464107513e-01 1.5162956714630127e-01 5.6770708411931992e-02 -9.7682580351829529e-02 1.2746381759643555e-01 -2.8828233480453491e-01 2.5519099831581116e-01 -3.6778268218040466e-01 -3.5543230175971985e-01 -1.6560395061969757e-01 -3.3799293637275696e-01 3.7843007594347000e-02 -3.4067240357398987e-01 -2.7937170863151550e-01 -1.5672448277473450e-01 4.5058336108922958e-02 -3.0154314637184143e-01 3.9954337477684021e-01 -2.6990395784378052e-01 4.5531129837036133e-01 2.5575914978981018e-01 -3.2338517904281616e-01 -1.5005098283290863e-01 2.4438524246215820e-01 -1.6718886792659760e-01 3.1111270189285278e-02 -1.0522177815437317e-01 2.9401004314422607e-01 -1.9526948034763336e-01 5.2071489393711090e-02 -3.0378219485282898e-01 3.6250847578048706e-01 4.1503125429153442e-01 3.2878237962722778e-01 1.7839023470878601e-01 -6.6222533583641052e-02 -2.9608911275863647e-01 3.8241449743509293e-02 -3.8281396031379700e-01 -1.8376852571964264e-01 -4.6750962734222412e-02 -7.5343966484069824e-02 -1.7590919137001038e-01 -2.4259962141513824e-01 2.8033277392387390e-01 -3.0617034435272217e-01 -4.1229408979415894e-01 2.3067681491374969e-01 -4.2135635018348694e-01 9.7900606691837311e-02 -2.8618708252906799e-01 1.1190548539161682e-02 -9.6596784889698029e-02 -2.2952916100621223e-02 -4.1153082251548767e-01 -2.8582785278558731e-02 5.0722856074571609e-02 -2.1781235933303833e-01 6.3936954736709595e-01 -5.1075235009193420e-02 3.2996720075607300e-01 4.9527195096015930e-01 3.3571147918701172e-01 -5.6781880557537079e-02 1.4248567819595337e-01 4.0315791964530945e-01 6.7601692676544189e-01 4.6355625987052917e-01 -2.5330176949501038e-01 -2.4813085794448853e-01 2.1591143310070038e-01 -8.1650346517562866e-01 -5.2222961187362671e-01 -2.1198566257953644e-01 -5.9935420751571655e-01 2.3895707726478577e-01 -2.9139220714569092e-01 -3.5388350486755371e-02 -1.8524642288684845e-01 -6.7520630359649658e-01 6.3501736149191856e-03 -3.0593606829643250e-01 9.0024225413799286e-02 2.3742948472499847e-01 6.9230204820632935e-01 5.6047344207763672e-01 2.8826835751533508e-01 8.6944627761840820e-01 1.1933100223541260e-01 1.6732564568519592e-01 -1.6022901237010956e-01 1.0770333558320999e-01 6.9815194606781006e-01 4.9753335118293762e-01 -2.5500850751996040e-02 -2.9836925864219666e-01 -4.7491902112960815e-01 -7.5464308261871338e-01 3.0056443810462952e-01 3.5411003232002258e-01 2.9315167665481567e-01 -2.7015757560729980e-01 9.7779026255011559e-03 3.6406776309013367e-01 2.8300866484642029e-01 -1.9834497570991516e-01 -1.5667045116424561e-01 -2.1468448638916016e-01 -2.4085517227649689e-01 3.7627342343330383e-01 2.4705143272876740e-01 -2.7787750959396362e-01 -2.9283013939857483e-01 3.5734283924102783e-01 -3.7455090880393982e-01 2.4830628931522369e-01 -3.8074180483818054e-01 -2.1065561473369598e-01 -2.7512905001640320e-01 3.2336905598640442e-01 9.3775294721126556e-02 3.5242536664009094e-01 1.5958009660243988e-01 2.4075089395046234e-01 1.4828809536993504e-02 -2.3614843189716339e-01 -3.8507485389709473e-01 -3.5116851329803467e-01 -8.5202574729919434e-02 3.3057481050491333e-01 3.0807134509086609e-01 1.6800919175148010e-01 -2.1555569022893906e-02 -3.3826336264610291e-01 2.0179978013038635e-01 9.7179286181926727e-02 4.0286192297935486e-01 
      </Weights>
      <Biases rows="32" cols="1">
        7.5635336339473724e-02 9.9679015576839447e-02 5.3842917084693909e-02 -2.0620774477720261e-02 -1.3950429856777191e-01 -3.2897897064685822e-02 -1.9411665201187134e-01 2.2184397280216217e-01 -4.1917182505130768e-02 2.0319705829024315e-02 -4.4297300279140472e-02 -5.1854159682989120e-02 -2.1659325808286667e-02 -4.0846463292837143e-02 -2.8452435508370399e-02 5.5606063455343246e-02 -1.3838571310043335e-01 -8.1624113023281097e-02 -4.6358730643987656e-02 -4.2196463793516159e-02 -6.6539563238620758e-02 -4.1395548731088638e-02 7.2925654239952564e-03 -3.1084772199392319e-02 -3.2664544880390167e-02 -1.0067840665578842e-01 1.3709263503551483e-01 -9.2003203928470612e-02 1.9462920725345612e-01 -5.0221029669046402e-02 -1.0663471184670925e-02 -2.1644007414579391e-02 
      </Biases>
    </Layer>
    <Layer ActivationFunction="3">
      <Weights rows="16" cols="32">
        2.7537861838936806e-02 1.6942958533763885e-01 2.1851103752851486e-02 6.4715780317783356e-02 -1.8329598009586334e-02 -2.6003095507621765e-01 1.3932541012763977e-01 1.2012474238872528e-01 5.5436763912439346e-02 1.1939310282468796e-01 1.6012474894523621e-01 2.4803722277283669e-02 -3.1409092247486115e-02 1.6414567828178406e-01 -1.5669532120227814e-01 4.7501932829618454e-02 -1.5420794486999512e-01 9.9482417106628418e-02 9.9307201802730560e-02 1.8235673010349274e-01 9.2208124697208405e-02 1.5567833185195923e-01 -5.3215757012367249e-02 1.4937181770801544e-01 5.0191618502140045e-02 4.0227752178907394e-02 -1.5809930860996246e-01 -1.7682275176048279e-01 -2.7250626683235168e-01 2.2238546609878540e-01 1.3027884066104889e-01 -5.1549278199672699e-02 9.2153973877429962e-02 5.0397034734487534e-02 2.5594180822372437e-01 1.9559375941753387e-01 4.4087283313274384e-02 2.2639378905296326e-01 -3.5405656695365906e-01 1.9385230541229248e-01 -5.4914928972721100e-02 -2.4724841117858887e-02 2.7993846684694290e-02 -1.6347415745258331e-02 -9.7688920795917511e-02 -2.5171107053756714e-01 -7.2144128382205963e-02 3.0250340700149536e-01 -1.2564642727375031e-01 -2.6675236225128174e-01 1.5687827765941620e-01 1.9030708074569702e-01 1.1751646548509598e-01 6.3729599118232727e-02 -2.0068082213401794e-01 9.4224244356155396e-02 3.9724338799715042e-02 1.2767700850963593e-01 7.1147970855236053e-02 -3.2197371125221252e-01 -9.9080398678779602e-02 1.1774177104234695e-01 1.0266046226024628e-01 -2.0489144325256348e-01 1.0745874792337418e-01 -1.2649496085941792e-02 2.2125045955181122e-01 1.5301670134067535e-01 -1.3177965581417084e-01 1.0656803846359253e-01 -5.0337996333837509e-02 2.1420782804489136e-01 -3.9160281419754028e-01 6.0951538383960724e-02 -8.9284881949424744e-02 -1.3827855885028839e-01 -1.3455598056316376e-01 5.6030530482530594e-02 -3.3005839213728905e-05 3.1726098060607910e-01 -2.1238893270492554e-01 1.7443726956844330e-01 -9.9369920790195465e-02 -1.2391924113035202e-01 -1.9075052440166473e-01 -2.6475784182548523e-01 -3.1652447581291199e-01 8.1481620669364929e-02 2.6203602552413940e-01 -8.0044940114021301e-02 4.3665492534637451e-01 -3.5388636589050293e-01 4.7274625301361084e-01 2.5532068684697151e-02 1.0121803730726242e-01 8.7830655276775360e-02 -3.5445306450128555e-02 -2.2954750061035156e-01 4.5949682593345642e-02 -1.5649409592151642e-01 3.1414514780044556e-01 -9.7030498087406158e-02 1.0867656767368317e-01 -5.1053816080093384e-01 1.9772481918334961e-01 -1.0430796444416046e-01 2.3274332284927368e-01 -1.3791623711585999e-01 -1.7054893076419830e-01 -2.1384592354297638e-01 1.5844792127609253e-01 -1.9803650677204132e-01 5.7920422405004501e-02 -5.6805260479450226e-02 2.2733499109745026e-01 -1.9887730479240417e-02 9.8225995898246765e-02 1.3952796161174774e-01 2.2103668749332428e-01 1.0051618516445160e-01 -2.3762476444244385e-01 1.8080541491508484e-01 -2.8511470556259155e-01 3.9613044261932373e-01 -4.3233433365821838e-01 1.0115064680576324e-01 -8.2640230655670166e-02 -9.1782473027706146e-02 -2.4466231465339661e-01 -1.9185520708560944e-02 -2.1137309074401855e-01 1.4390401542186737e-01 -1.0143736749887466e-01 -2.7512609958648682e-01 1.1149642616510391e-01 -3.1460974365472794e-02 1.5766102075576782e-01 -1.1601708829402924e-01 7.2101011872291565e-02 -2.1070407330989838e-01 1.3975204527378082e-01 -1.4016088843345642e-01 2.4089497327804565e-01 -1.2954413890838623e-01 2.2080750763416290e-01 -1.4685699343681335e-01 -9.2886857688426971e-02 -1.9832226634025574e-01 1.1184526979923248e-01 -8.8887251913547516e-02 -1.8864965438842773e-01 -1.2714020907878876e-01 1.4708165824413300e-01 2.2826242446899414e-01 1.7060089111328125e-01 4.6599958091974258e-02 -8.3068236708641052e-02 2.2201158106327057e-01 1.6701576113700867e-01 1.3699473440647125e-01 -5.3776830434799194e-02 1.0169135034084320e-01 3.6848115921020508e-01 -5.1482189446687698e-02 -6.8982884287834167e-02 3.7282693386077881e-01 -2.3244971036911011e-01 5.3876459598541260e-01 3.3790296874940395e-03 2.6894253492355347e-01 1.1626883409917355e-02 -2.9612004756927490e-01 -1.7883615195751190e-01 1.4294771477580070e-02 7.8223630785942078e-02 2.6522669196128845e-01 -1.3569951057434082e-01 1.1950159817934036e-01 9.0789780020713806e-02 -1.6182290390133858e-02 -2.1105253696441650e-01 1.0881307721138000e-01 -2.8948658704757690e-01 -2.2512733936309814e-01 5.3295869380235672e-02 -6.4187385141849518e-02 6.1819821596145630e-01 -4.8017880320549011e-01 2.5923410058021545e-01 1.6511835157871246e-01 1.4995814301073551e-02 -3.0452764034271240e-01 -1.8637922406196594e-01 -2.5074914097785950e-01 -2.9331721365451813e-02 1.6536736488342285e-01 4.0565203875303268e-02 9.6127375960350037e-02 1.0095980763435364e-01 1.7681863158941269e-02 2.4581380188465118e-02 -1.2251834571361542e-01 2.0712645351886749e-01 -4.6658325940370560e-02 4.2672306299209595e-02 -2.1899914368987083e-02 1.7823278903961182e-01 -1.5738455951213837e-01 1.5023214742541313e-02 1.4741007983684540e-01 -1.1784093081951141e-01 -1.8994939327239990e-01 -7.4149958789348602e-02 2.6589082553982735e-02 -2.7962980791926384e-02 1.2436560541391373e-01 -2.0075148344039917e-01 1.6653005778789520e-01 -2.9738613963127136e-01 2.5280147790908813e-01 1.3384924829006195e-01 -1.7061044275760651e-01 -2.4145865812897682e-02 -4.7799404710531235e-02 -2.5421932339668274e-01 -2.2106873989105225e-01 5.3679466247558594e-02 1.9802793860435486e-01 1.9397098571062088e-02 -1.6656833887100220e-01 1.4828889071941376e-01 -1.5156170725822449e-01 1.9358935952186584e-01 -1.2193807214498520e-01 -6.5510720014572144e-02 -1.1207495629787445e-01 -1.2138088047504425e-01 -6.3318461179733276e-02 2.3654705286026001e-01 -2.6636502146720886e-01 1.0836037248373032e-01 1.5081843733787537e-01 3.1931862235069275e-02 -6.4724273979663849e-03 -1.2416455149650574e-01 -8.1367202103137970e-02 -9.8236702382564545e-02 -3.8797870278358459e-02 -4.6109110116958618e-02 1.3316515088081360e-01 -7.9803749918937683e-02 6.2910974025726318e-02 -2.1919108927249908e-01 2.3834989964962006e-01 -8.8451027870178223e-02 1.3997735083103180e-01 -4.6108970046043396e-01 -6.0186054557561874e-02 1.7128495499491692e-02 -2.0615275204181671e-01 2.8235533833503723e-01 -1.2181718647480011e-01 4.8436978459358215e-01 -6.4523625373840332e-01 5.6494660675525665e-02 -2.7036216855049133e-01 3.4570500254631042e-01 1.1030226014554501e-02 -7.5473539531230927e-02 5.4997254163026810e-02 -1.4379203319549561e-01 -2.9045143723487854e-01 6.5458677709102631e-02 9.7358897328376770e-02 2.3777256906032562e-01 1.1042635142803192e-01 2.3966716229915619e-01 -6.3721053302288055e-03 6.4214877784252167e-02 -1.4967305958271027e-01 -2.0281149446964264e-01 9.8654739558696747e-02 -6.0478508472442627e-01 4.4747027754783630e-01 -6.6630458831787109e-01 3.0398634076118469e-01 -3.6238375306129456e-01 -1.0411189496517181e-01 5.7944431900978088e-02 -2.1687483787536621e-01 1.3426205515861511e-01 -2.3451745510101318e-01 -5.6805301457643509e-02 -2.2074157372117043e-02 1.1524561047554016e-01 -1.8214221298694611e-01 2.6688843965530396e-01 -2.3213653266429901e-01 1.5408572554588318e-01 1.6873198747634888e-01 -1.7981727421283722e-01 -4.8991795629262924e-02 1.3478265702724457e-01 -8.6095124483108521e-02 1.0394402779638767e-02 -1.1364774405956268e-01 1.9594688713550568e-01 -1.2497425079345703e-01 5.8601390570402145e-02 -1.6643853485584259e-01 1.9685059785842896e-01 2.1249496936798096e-01 2.0690493285655975e-01 1.2707929313182831e-01 -1.5985429286956787e-01 -1.7024543881416321e-01 -2.6829687878489494e-02 -2.0092384517192841e-01 -2.2629016637802124e-01 -9.7398005425930023e-02 -1.4257192611694336e-01 -1.7010015249252319e-01 -2.0396056771278381e-01 1.5721072256565094e-01 -1.4428578317165375e-01 -2.4808809161186218e-01 2.6648405194282532e-01 -2.1951156854629517e-01 1.0081584006547928e-01 -1.5729109942913055e-01 7.4967242777347565e-02 1.9344057654961944e-03 6.7048884928226471e-02 -1.8776805698871613e-01 -7.8854328021407127e-03 -9.2411614954471588e-02 -1.7823487520217896e-01 2.1809235215187073e-01 -1.4423060417175293e-01 1.3042578101158142e-01 2.0521773025393486e-02 2.5221523642539978e-01 -1.6518339514732361e-01 1.0875777155160904e-01 1.2516185641288757e-01 2.6219308376312256e-01 1.7687784507870674e-02 -9.8637737333774567e-02 -2.0868623256683350e-01 2.1591025590896606e-01 -2.0468485355377197e-01 -1.8108245730400085e-01 -7.2540096007287502e-03 1.0641025379300117e-02 1.9207456707954407e-01 -1.3730665668845177e-03 -7.3515310883522034e-02 7.5100190937519073e-02 -3.5897758603096008e-01 3.5125848650932312e-01 -2.6384356617927551e-01 6.6836655139923096e-02 1.4545476064085960e-02 5.6489873677492142e-02 1.8238382041454315e-01 6.5154902637004852e-02 1.2884166836738586e-01 2.3170644044876099e-01 -1.1852762848138809e-01 -1.4606985449790955e-01 -6.1363663524389267e-02 2.2799593210220337e-01 3.6347284913063049e-02 -7.9869747161865234e-02 -1.7512394487857819e-01 -2.5912231206893921e-01 -1.2908540666103363e-02 1.1654893308877945e-01 3.7714636325836182e-01 2.6555420830845833e-02 -4.3475065380334854e-02 -8.2650311291217804e-02 2.8155547380447388e-01 1.0647300630807877e-01 -4.1709804534912109e-01 -3.3789455890655518e-01 -3.4302029013633728e-01 -1.8526989221572876e-01 3.0358430743217468e-01 -2.1206770837306976e-01 2.0921777188777924e-01 -7.4689972400665283e-01 4.4918468594551086e-01 -5.1419675350189209e-01 4.0114825963973999e-01 -5.8332864195108414e-02 -1.4259472489356995e-01 -1.6098037362098694e-01 2.5010770559310913e-01 -3.8464006781578064e-01 2.0738169550895691e-01 9.3678832054138184e-02 1.9992095232009888e-01 -2.5622475892305374e-02 -4.9622174352407455e-02 -6.3037589192390442e-02 -1.2824180303141475e-03 7.5745761394500732e-02 1.3701947405934334e-02 3.6427822709083557e-01 -4.0897300839424133e-01 4.2149904370307922e-01 -7.5112181901931763e-01 1.3394193351268768e-01 -7.8924521803855896e-02 3.2001966238021851e-01 -7.3901474475860596e-02 2.9709348082542419e-01 1.0756265372037888e-01 -2.2657293826341629e-02 -2.7492217719554901e-02 -7.5089953839778900e-02 -1.1134640872478485e-01 4.6247166395187378e-01 -3.5040715336799622e-01 8.7189733982086182e-02 -3.4835767745971680e-01 8.6139775812625885e-03 -1.2550689280033112e-01 -1.1263380199670792e-01 7.9270564019680023e-02 8.0213516950607300e-02 8.8258124887943268e-02 -3.5963986068964005e-02 1.7401821911334991e-02 2.5365436077117920e-01 -2.3018807172775269e-01 1.2249050661921501e-02 -2.0276218652725220e-01 -1.2321542203426361e-01 9.0842910110950470e-02 -2.3846146464347839e-01 4.2332375049591064e-01 -3.6985170096158981e-02 2.9938593506813049e-01 1.0671242326498032e-01 1.1196370236575603e-02 -6.3396684825420380e-02 -3.8576580584049225e-02 -1.0210335999727249e-01 9.0417318046092987e-02 -2.0481278002262115e-01 1.5135702490806580e-01 6.9393925368785858e-02 7.9793214797973633e-02 2.3115904629230499e-01 5.7372774928808212e-02 -1.2767899036407471e-01 -5.7941976934671402e-02 -9.1563099995255470e-03 -8.8209189474582672e-02 1.5455977059900761e-02 1.5684518218040466e-01 1.9470162689685822e-01 4.7639925032854080e-02 1.3802340626716614e-01 -8.0794505774974823e-02 2.9630351811647415e-02 -1.2256650626659393e-01 1.4543706178665161e-01 -2.2345767915248871e-01 1.0315407812595367e-01 -4.9626003950834274e-02 -1.3635069131851196e-01 -3.0012916773557663e-02 1.5647004544734955e-01 1.4128263294696808e-01 1.2408122420310974e-01 1.4912451803684235e-01 3.4268930554389954e-02 -1.6588754951953888e-01 4.0916025638580322e-02 -1.7028020322322845e-01 -4.9394670873880386e-02 1.3108667731285095e-01 4.4138476252555847e-02 2.6425467804074287e-02 1.8294230103492737e-03 -1.4133517444133759e-01 -1.9745878875255585e-01 1.8104992806911469e-01 2.0407040417194366e-01 -1.6689352691173553e-01 -2.3822268843650818e-01 1.9762472808361053e-01 -2.2578640282154083e-01 -1.1664406210184097e-01 -7.9523950815200806e-02 1.2112408131361008e-01 -9.1454908251762390e-02 1.8961094319820404e-01 7.6132997870445251e-02 1.8474282324314117e-01 1.7088054120540619e-01 -2.6999508962035179e-02 2.1641705185174942e-02 -1.8038098514080048e-01 3.3602789044380188e-01 4.3617252260446548e-02 -2.0179846882820129e-01 9.8255844786763191e-03 -1.3339945673942566e-01 
      </Weights>
      <Biases rows="16" cols="1">
        -6.4399547874927521e-02 -2.5317991152405739e-02 6.1771985143423080e-02 -5.6966852396726608e-02 -7.0161358453333378e-03 9.8725743591785431e-02 2.8960311785340309e-02 6.3923284411430359e-02 -1.3738709688186646e-01 -8.0304406583309174e-03 -1.9063616171479225e-02 -4.7842459753155708e-03 -1.2523597478866577e-01 4.6928565949201584e-02 -2.6318473741412163e-02 -5.1994513720273972e-02 
      </Biases>
    </Layer>
    <Layer ActivationFunction="3">
      <Weights rows="16" cols="16">
        1.1574178189039230e-01 2.4935038387775421e-01 2.9945120215415955e-02 1.7236012220382690e-01 2.6718532666563988e-02 -3.2802835106849670e-01 2.7217665314674377e-01 2.2414973378181458e-01 1.4944180846214294e-01 2.5597649812698364e-01 2.6974993944168091e-01 8.8819958269596100e-02 7.4028810486197472e-03 2.7607101202011108e-01 -1.9696067273616791e-01 1.2398007512092590e-01 -2.2839689254760742e-01 2.7350503206253052e-01 2.6332399249076843e-01 2.1631929278373718e-01 1.1676023155450821e-01 2.6872959733009338e-01 -9.5520697534084320e-02 2.2446995973587036e-01 5.4740197956562042e-02 -1.8502116203308105e-02 -1.6541196405887604e-01 -1.7998625338077545e-01 -4.5994639396667480e-01 3.9054098725318909e-01 3.1028863787651062e-01 -5.0432186573743820e-02 7.1271970868110657e-02 1.8665984272956848e-02 2.9121986031532288e-01 3.0622118711471558e-01 1.4228793978691101e-01 2.7505517005920410e-01 -2.8454089164733887e-01 1.0832362622022629e-01 4.9741119146347046e-02 -4.6278074383735657e-02 1.6632558405399323e-01 5.5185608565807343e-02 -1.1701765656471252e-01 -3.0683118104934692e-01 -3.0666632577776909e-02 3.1787961721420288e-01 -1.3833476603031158e-01 -2.8282150626182556e-01 3.0711850523948669e-01 2.4266390502452850e-01 2.4103368818759918e-01 1.7502276599407196e-01 -2.1735811233520508e-01 1.7699900269508362e-01 -5.1519209519028664e-03 2.3529072105884552e-01 -4.8528745770454407e-02 -2.5022643804550171e-01 -3.5015606880187988e-01 2.3278371989727020e-01 1.5204358100891113e-01 -2.2943834960460663e-01 -1.0662883520126343e-01 -1.7446708679199219e-01 2.1109789609909058e-01 8.0976136028766632e-02 -8.2964308559894562e-02 -2.8311092406511307e-02 1.7872188985347748e-01 -2.0250463485717773e-01 -4.1010662913322449e-01 -1.9663985073566437e-01 9.9826440215110779e-02 -2.9629342257976532e-02 -3.0020803213119507e-01 1.3240906596183777e-01 1.2890823185443878e-01 7.7369883656501770e-02 -1.1426611989736557e-01 1.7556104063987732e-01 -2.4777826666831970e-01 -2.2073304280638695e-02 -1.2144995480775833e-01 -4.2951127886772156e-01 -1.7693848907947540e-01 1.9773577153682709e-01 4.8372003436088562e-01 2.4717101454734802e-01 2.0744764804840088e-01 -2.7687907218933105e-01 4.8237550258636475e-01 2.4486186448484659e-03 -9.0106509625911713e-02 2.7258336544036865e-01 6.5342694520950317e-02 -1.5624113380908966e-01 2.5905823707580566e-01 -2.5648707151412964e-01 3.0920052528381348e-01 1.2213835865259171e-01 -1.5675930678844452e-01 -2.8894832730293274e-01 1.8012413755059242e-02 -6.9005727767944336e-02 1.1066799610853195e-01 -2.5568354129791260e-01 -3.2569241523742676e-01 -2.8394776582717896e-01 1.8117824196815491e-01 1.7717499285936356e-03 -2.4448228999972343e-02 -3.3129882067441940e-02 4.0527322888374329e-01 -1.1258988827466965e-01 -1.4449541456997395e-02 1.9830630719661713e-01 1.0606363415718079e-01 4.1710294783115387e-02 -3.7512528896331787e-01 -3.4702379256486893e-02 -3.8607925176620483e-02 3.5249546170234680e-01 -3.9213725924491882e-01 1.4960938692092896e-01 9.3074247241020203e-02 -2.5003769993782043e-01 -2.5351607799530029e-01 -3.1852625310420990e-02 -3.3231356739997864e-01 2.6372423768043518e-01 -1.7025928199291229e-01 -3.8427743315696716e-01 1.7077679932117462e-01 3.3337384462356567e-02 2.4687214195728302e-01 -9.1890476644039154e-02 9.5154352486133575e-02 -3.2894292473793030e-01 2.4901492893695831e-01 -2.3032312095165253e-01 2.7644902467727661e-01 -1.3563358783721924e-01 3.1901788711547852e-01 -1.6013595461845398e-01 -1.4004068076610565e-01 -2.6686838269233704e-01 1.1204743385314941e-01 -1.6919980943202972e-01 -2.5944459438323975e-01 -1.8308803439140320e-01 2.3292957246303558e-01 3.1865897774696350e-01 3.1162405014038086e-01 1.7282206565141678e-02 -9.1614849865436554e-02 3.2868278026580811e-01 3.0167764425277710e-01 1.8123470246791840e-01 -3.7560471892356873e-01 -3.6481544375419617e-02 3.7574225664138794e-01 -2.3934949934482574e-01 -4.9410820007324219e-02 3.1820526719093323e-01 -4.4085871428251266e-02 1.2100520730018616e-01 1.2947160005569458e-01 1.8038315698504448e-02 2.3909820616245270e-01 -1.7515613138675690e-01 -4.3151780962944031e-01 7.2889141738414764e-02 2.7294152975082397e-01 -8.8988982141017914e-02 -2.3001882433891296e-01 2.0477969944477081e-01 2.4187502264976501e-01 -2.0005822181701660e-01 -1.9991029798984528e-01 3.0376818776130676e-01 -2.9172664880752563e-01 -3.0488538742065430e-01 -2.3924529552459717e-01 -1.3619166798889637e-02 2.8843498229980469e-01 -2.0820491015911102e-01 -3.4310519695281982e-01 3.4596702456474304e-01 -3.8227993994951248e-02 -3.2366475462913513e-01 -1.5417487919330597e-01 -3.5707089304924011e-01 -5.2379876375198364e-02 3.0383172631263733e-01 -2.3736203089356422e-02 1.2089782953262329e-01 5.5429995059967041e-02 1.5880760550498962e-01 2.1953333169221878e-02 -6.4855515956878662e-02 2.2179582715034485e-01 -1.6840682923793793e-01 1.3513007760047913e-01 -1.0851247608661652e-01 1.7000268399715424e-01 -1.5606282651424408e-01 -1.0111047327518463e-01 2.6544907689094543e-01 -1.3737948238849640e-01 -4.1625410318374634e-01 -2.2167436778545380e-01 3.5862378776073456e-02 -1.7476211488246918e-01 6.3656806945800781e-02 -5.0206035375595093e-01 -4.0234118700027466e-02 -4.0530854463577271e-01 3.6453443765640259e-01 8.6954057216644287e-02 -2.2112116217613220e-01 1.1129613220691681e-01 -1.5259909629821777e-01 -2.5190591812133789e-01 -3.3805701136589050e-01 1.9995426759123802e-02 3.7312635779380798e-01 -6.1237409710884094e-02 -2.8947609663009644e-01 1.2988248467445374e-01 -8.6855821311473846e-02 2.7426555752754211e-01 -2.4976139888167381e-02 -1.8098264932632446e-01 -3.4460803866386414e-01 -6.1210609972476959e-02 -2.0253942906856537e-01 2.2173365950584412e-01 -3.0569106340408325e-01 -2.6318443939089775e-02 1.9634135067462921e-01 7.2441235184669495e-02 -1.5538203716278076e-01 -2.9988533258438110e-01 -1.3169240951538086e-01 -2.8421434760093689e-01 -1.4527213573455811e-01 -2.4401195347309113e-01 -5.1565773785114288e-02 -4.3070640414953232e-02 7.1983668021857738e-04 -3.8275012373924255e-01 2.8439944982528687e-01 -4.8712033778429031e-02 8.3289213478565216e-02 
      </Weights>
      <Biases rows="16" cols="1">
        1.1605764739215374e-02 1.4457124285399914e-02 -5.3071002475917339e-03 1.0355976410210133e-02 1.1530729010701180e-02 -1.2098627164959908e-02 -3.0369102954864502e-02 2.2078279405832291e-02 -9.4191962853074074e-03 -1.3718979433178902e-02 5.2015349268913269e-02 6.9937608204782009e-03 8.7818522006273270e-03 4.8059444874525070e-02 6.1873039230704308e-03 -2.6472473517060280e-02 
      </Biases>
    </Layer>
    <Layer ActivationFunction="0">
      <Weights rows="1" cols="16">
        -1.5478806197643280e-01 8.1595711410045624e-02 -1.8386660516262054e-01 2.3617783188819885e-01 4.6935489773750305e-01 -4.6056947112083435e-01 1.8064092099666595e-01 2.7358067035675049e-01 -1.6437233984470367e-01 -3.9327847957611084e-01 2.2961461544036865e-01 2.2721990942955017e-01 -2.4600343406200409e-01 3.3153349161148071e-01 -4.7402092814445496e-01 5.3422260284423828e-01 
      </Weights>
      <Biases rows="1" cols="1">
        -9.2636056244373322e-02 
      </Biases>
    </Layer>
  </Weights>
</MethodSetup>
