<?xml version="1.0"?>
<MethodSetup Method="DNN::DNN_NanoV9_V1_2020_BMET_x0_test">
  <GeneralInfo>
    <Info name="TMVA Release" value="4.2.1 [262657]"/>
    <Info name="ROOT Release" value="6.12/07 [396295]"/>
    <Info name="Creator" value="hum"/>
    <Info name="Date" value="Tue Mar  8 11:37:53 2022"/>
    <Info name="Host" value="Linux vocms0301.cern.ch 2.6.32-696.30.1.el6.x86_64 #1 SMP Tue May 22 06:09:36 CEST 2018 x86_64 x86_64 x86_64 GNU/Linux"/>
    <Info name="Dir" value="/afs/cern.ch/work/h/hum/public/CMSSW_10_2_13/src/ChargedHiggs/Analysis"/>
    <Info name="Training events" value="26606"/>
    <Info name="TrainingTime" value="1.28490431e+01"/>
    <Info name="AnalysisType" value="Classification"/>
  </GeneralInfo>
  <Options>
    <Option name="V" modified="Yes">True</Option>
    <Option name="VerbosityLevel" modified="No">Verbose</Option>
    <Option name="VarTransform" modified="Yes">N</Option>
    <Option name="H" modified="Yes">False</Option>
    <Option name="CreateMVAPdfs" modified="No">False</Option>
    <Option name="IgnoreNegWeightsInTraining" modified="No">False</Option>
    <Option name="Layout" modified="Yes">SIGMOID|16,TANH|16,TANH|16,LINEAR</Option>
    <Option name="ValidationSize" modified="No">20%</Option>
    <Option name="ErrorStrategy" modified="Yes">CROSSENTROPY</Option>
    <Option name="WeightInitialization" modified="Yes">XAVIERUNIFORM</Option>
    <Option name="Architecture" modified="Yes">CPU</Option>
    <Option name="TrainingStrategy" modified="Yes">LearningRate=1e-1,Momentum=0.4,Repetitions=1,ConvergenceSteps=20,BatchSize=256,TestRepetitions=10,WeightDecay=1e-4,Regularization=L2,DropConfig=0.0+0.1+0.25+0.5,</Option>
  </Options>
  <Variables NVar="12">
    <Variable VarIndex="0" Expression="j1QGL" Label="j1QGL" Title="j1QGL" Unit="" Internal="j1QGL" Type="F" Min="-1.00000000e+00" Max="1.00000000e+00"/>
    <Variable VarIndex="1" Expression="j2QGL" Label="j2QGL" Title="j2QGL" Unit="" Internal="j2QGL" Type="F" Min="-1.00000000e+00" Max="1.00000000e+00"/>
    <Variable VarIndex="2" Expression="varMjj" Label="varMjj" Title="varMjj" Unit="" Internal="varMjj" Type="F" Min="5.00006653e+02" Max="7.07509961e+03"/>
    <Variable VarIndex="3" Expression="varDetajj" Label="varDetajj" Title="varDetajj" Unit="" Internal="varDetajj" Type="F" Min="2.50024414e+00" Max="8.68750000e+00"/>
    <Variable VarIndex="4" Expression="varJet1Pt" Label="varJet1Pt" Title="varJet1Pt" Unit="" Internal="varJet1Pt" Type="F" Min="5.08437500e+01" Max="1.95400000e+03"/>
    <Variable VarIndex="5" Expression="abs(varJet2Eta)" Label="abs(varJet2Eta)" Title="abs(varJet2Eta)" Unit="" Internal="abs_varJet2Eta_" Type="F" Min="2.68816948e-04" Max="4.69531250e+00"/>
    <Variable VarIndex="6" Expression="varJet2Pt" Label="varJet2Pt" Title="varJet2Pt" Unit="" Internal="varJet2Pt" Type="F" Min="5.00000000e+01" Max="1.31400000e+03"/>
    <Variable VarIndex="7" Expression="varMTVV" Label="varMTVV" Title="varMTVV" Unit="" Internal="varMTVV" Type="F" Min="5.83394165e+02" Max="4.15952832e+03"/>
    <Variable VarIndex="8" Expression="varCen" Label="varCen" Title="varCen" Unit="" Internal="varCen" Type="F" Min="-2.30087280e+00" Max="4.30202484e+00"/>
    <Variable VarIndex="9" Expression="varDRV2j" Label="varDRV2j" Title="varDRV2j" Unit="" Internal="varDRV2j" Type="F" Min="1.20020103e+00" Max="4.58880568e+00"/>
    <Variable VarIndex="10" Expression="varnormPTVVjj" Label="varnormPTVVjj" Title="varnormPTVVjj" Unit="" Internal="varnormPTVVjj" Type="F" Min="4.41970478e-04" Max="2.49424726e-01"/>
    <Variable VarIndex="11" Expression="varFW2j" Label="varFW2j" Title="varnormFW2j" Unit="" Internal="varFW2j" Type="F" Min="1.53346792e-01" Max="9.99646008e-01"/>
  </Variables>
  <Spectators NSpec="0"/>
  <Classes NClass="2">
    <Class Name="Signal" Index="0"/>
    <Class Name="Background" Index="1"/>
  </Classes>
  <Transformations NTransformations="1">
    <Transform Name="Normalize">
      <Selection>
        <Input NInputs="12">
          <Input Type="Variable" Label="j1QGL" Expression="j1QGL"/>
          <Input Type="Variable" Label="j2QGL" Expression="j2QGL"/>
          <Input Type="Variable" Label="varMjj" Expression="varMjj"/>
          <Input Type="Variable" Label="varDetajj" Expression="varDetajj"/>
          <Input Type="Variable" Label="varJet1Pt" Expression="varJet1Pt"/>
          <Input Type="Variable" Label="abs(varJet2Eta)" Expression="abs(varJet2Eta)"/>
          <Input Type="Variable" Label="varJet2Pt" Expression="varJet2Pt"/>
          <Input Type="Variable" Label="varMTVV" Expression="varMTVV"/>
          <Input Type="Variable" Label="varCen" Expression="varCen"/>
          <Input Type="Variable" Label="varDRV2j" Expression="varDRV2j"/>
          <Input Type="Variable" Label="varnormPTVVjj" Expression="varnormPTVVjj"/>
          <Input Type="Variable" Label="varFW2j" Expression="varFW2j"/>
        </Input>
        <Output NOutputs="12">
          <Output Type="Variable" Label="j1QGL" Expression="j1QGL"/>
          <Output Type="Variable" Label="j2QGL" Expression="j2QGL"/>
          <Output Type="Variable" Label="varMjj" Expression="varMjj"/>
          <Output Type="Variable" Label="varDetajj" Expression="varDetajj"/>
          <Output Type="Variable" Label="varJet1Pt" Expression="varJet1Pt"/>
          <Output Type="Variable" Label="abs(varJet2Eta)" Expression="abs(varJet2Eta)"/>
          <Output Type="Variable" Label="varJet2Pt" Expression="varJet2Pt"/>
          <Output Type="Variable" Label="varMTVV" Expression="varMTVV"/>
          <Output Type="Variable" Label="varCen" Expression="varCen"/>
          <Output Type="Variable" Label="varDRV2j" Expression="varDRV2j"/>
          <Output Type="Variable" Label="varnormPTVVjj" Expression="varnormPTVVjj"/>
          <Output Type="Variable" Label="varFW2j" Expression="varFW2j"/>
        </Output>
      </Selection>
      <Class ClassIndex="0">
        <Ranges>
          <Range Index="0" Min="-1.0000000000000000e+00" Max="1.0000000000000000e+00"/>
          <Range Index="1" Min="-1.0000000000000000e+00" Max="9.9951171875000000e-01"/>
          <Range Index="2" Min="5.0001364135742188e+02" Max="7.0750996093750000e+03"/>
          <Range Index="3" Min="2.5003662109375000e+00" Max="8.6875000000000000e+00"/>
          <Range Index="4" Min="5.1593750000000000e+01" Max="1.7640000000000000e+03"/>
          <Range Index="5" Min="3.4251213073730469e-03" Max="4.6855468750000000e+00"/>
          <Range Index="6" Min="5.0000000000000000e+01" Max="8.0950000000000000e+02"/>
          <Range Index="7" Min="5.8472991943359375e+02" Max="4.1595283203125000e+03"/>
          <Range Index="8" Min="-1.7744750976562500e+00" Max="4.3020248413085938e+00"/>
          <Range Index="9" Min="1.2011519670486450e+00" Max="4.5888056755065918e+00"/>
          <Range Index="10" Min="4.4197047827765346e-04" Max="2.3935316503047943e-01"/>
          <Range Index="11" Min="1.6055543720722198e-01" Max="9.9964600801467896e-01"/>
        </Ranges>
      </Class>
      <Class ClassIndex="1">
        <Ranges>
          <Range Index="0" Min="-1.0000000000000000e+00" Max="1.0000000000000000e+00"/>
          <Range Index="1" Min="-1.0000000000000000e+00" Max="1.0000000000000000e+00"/>
          <Range Index="2" Min="5.0000665283203125e+02" Max="6.1605927734375000e+03"/>
          <Range Index="3" Min="2.5002441406250000e+00" Max="8.3325195312500000e+00"/>
          <Range Index="4" Min="5.0843750000000000e+01" Max="1.9540000000000000e+03"/>
          <Range Index="5" Min="2.6881694793701172e-04" Max="4.6953125000000000e+00"/>
          <Range Index="6" Min="5.0000000000000000e+01" Max="1.3140000000000000e+03"/>
          <Range Index="7" Min="5.8339416503906250e+02" Max="3.0335588378906250e+03"/>
          <Range Index="8" Min="-2.3008728027343750e+00" Max="3.9577636718750000e+00"/>
          <Range Index="9" Min="1.2002010345458984e+00" Max="4.3700041770935059e+00"/>
          <Range Index="10" Min="6.2057346804067492e-04" Max="2.4942472577095032e-01"/>
          <Range Index="11" Min="1.5334679186344147e-01" Max="9.9940288066864014e-01"/>
        </Ranges>
      </Class>
      <Class ClassIndex="2">
        <Ranges>
          <Range Index="0" Min="-1.0000000000000000e+00" Max="1.0000000000000000e+00"/>
          <Range Index="1" Min="-1.0000000000000000e+00" Max="1.0000000000000000e+00"/>
          <Range Index="2" Min="5.0000665283203125e+02" Max="7.0750996093750000e+03"/>
          <Range Index="3" Min="2.5002441406250000e+00" Max="8.6875000000000000e+00"/>
          <Range Index="4" Min="5.0843750000000000e+01" Max="1.9540000000000000e+03"/>
          <Range Index="5" Min="2.6881694793701172e-04" Max="4.6953125000000000e+00"/>
          <Range Index="6" Min="5.0000000000000000e+01" Max="1.3140000000000000e+03"/>
          <Range Index="7" Min="5.8339416503906250e+02" Max="4.1595283203125000e+03"/>
          <Range Index="8" Min="-2.3008728027343750e+00" Max="4.3020248413085938e+00"/>
          <Range Index="9" Min="1.2002010345458984e+00" Max="4.5888056755065918e+00"/>
          <Range Index="10" Min="4.4197047827765346e-04" Max="2.4942472577095032e-01"/>
          <Range Index="11" Min="1.5334679186344147e-01" Max="9.9964600801467896e-01"/>
        </Ranges>
      </Class>
    </Transform>
  </Transformations>
  <MVAPdfs/>
  <Weights InputWidth="12" Depth="4" LossFunction="C" OutputFunction="S">
    <Layer ActivationFunction="2">
      <Weights rows="16" cols="12">
        1.8414393067359924e-02 -1.0303172469139099e-01 3.6195954680442810e-01 1.5187822282314301e-01 1.9358943402767181e-01 -2.3569245636463165e-01 4.3640917539596558e-01 -3.9011247456073761e-02 -1.8832987546920776e-01 3.2152794301509857e-02 2.4301393330097198e-01 -1.5235155820846558e-01 3.7182161211967468e-01 2.2140480577945709e-01 5.1605749130249023e-01 3.1948199868202209e-01 2.1584364771842957e-01 -6.4273998141288757e-02 5.3925019502639771e-01 3.0331254005432129e-01 4.3936226516962051e-02 9.0992964804172516e-02 -4.9880903959274292e-01 -5.7947151362895966e-02 -2.6222288608551025e-01 2.3239558562636375e-02 3.5238537192344666e-01 9.7591942176222801e-03 3.7027159333229065e-01 7.9944729804992676e-03 1.0140568017959595e-01 3.7718448042869568e-01 -1.0834292508661747e-02 1.0229258984327316e-01 -1.1184088140726089e-01 9.7728282213211060e-02 1.9385105371475220e-01 2.5148451328277588e-01 1.5444444417953491e+00 -7.0302754640579224e-02 1.3452510535717010e-01 -8.5701957345008850e-02 4.5432326197624207e-01 9.2167496681213379e-01 3.9796367287635803e-01 -2.6452356576919556e-01 -9.6575796604156494e-01 3.2637482881546021e-01 -2.4672529101371765e-01 -8.5482988506555557e-03 -7.6948916912078857e-01 -2.4392287433147430e-01 -1.5325403213500977e-01 -2.5794583559036255e-01 1.3928939402103424e-01 -2.8503653407096863e-01 -4.6146270632743835e-01 3.2293495535850525e-01 3.4084357321262360e-03 -1.2357698380947113e-01 2.7434822916984558e-01 3.0856552720069885e-01 1.5811008214950562e+00 -2.4590766429901123e-01 -1.3238114118576050e-01 -1.9021250307559967e-01 6.1457153409719467e-02 8.9999729394912720e-01 4.7423586249351501e-01 -1.1909446865320206e-01 -3.3858004212379456e-01 -1.1477141827344894e-01 8.8662609457969666e-02 2.2025412321090698e-01 -1.9435648620128632e-01 -2.6907190680503845e-01 -5.2717193961143494e-02 -2.3136200010776520e-01 -2.2663776576519012e-01 -3.6432483792304993e-01 -1.0642710328102112e-01 1.4403228461742401e-01 3.8041347265243530e-01 1.4508931338787079e-01 -2.2377587854862213e-01 5.9699643403291702e-02 3.2589480280876160e-01 2.1985888481140137e-01 7.8247331082820892e-02 -3.9953237865120173e-04 1.1838589608669281e-01 3.8406407833099365e-01 2.5176578760147095e-01 3.6512270569801331e-02 6.1899829655885696e-02 -1.2196211516857147e-01 3.1300610303878784e-01 -4.6572047472000122e-01 -8.3320862054824829e-01 6.3793003559112549e-02 2.1635274589061737e-01 3.5448005795478821e-01 -3.2521596550941467e-01 -5.3854668140411377e-01 -3.1365019083023071e-01 -8.0262102186679840e-02 2.5611221790313721e-01 -2.8737917542457581e-02 -7.6528616249561310e-02 -2.1495969593524933e-01 -3.4933912754058838e-01 -1.7920337617397308e-01 3.0240749940276146e-02 3.5137555003166199e-01 -1.8555429577827454e-01 -4.7002848982810974e-01 1.9632467627525330e-01 -1.9076545536518097e-01 2.6040741801261902e-01 1.1409340798854828e-01 -2.8797950595617294e-02 1.7216512933373451e-02 -7.9942023754119873e-01 2.6612093672156334e-02 1.1503323167562485e-01 -1.9593009352684021e-01 -3.7548783421516418e-01 2.8500689659267664e-03 -2.8255695104598999e-01 3.2323545217514038e-01 1.4829620718955994e-01 5.1699921488761902e-02 -4.1255840659141541e-01 -4.7923862934112549e-01 -8.7268644571304321e-01 -3.8744341582059860e-02 -8.0084994435310364e-02 2.4669066071510315e-01 -4.7245740890502930e-01 -6.9930201768875122e-01 -4.8121497035026550e-01 2.0381428301334381e-01 3.9987140893936157e-01 7.3123283684253693e-02 -1.4538307487964630e-01 -3.6890265345573425e-01 6.6766031086444855e-02 1.7257484793663025e-01 2.8853433206677437e-02 1.2123121321201324e-01 1.8828007578849792e-01 1.6269318759441376e-01 -2.5284948945045471e-01 -1.9390431046485901e-01 6.2414988875389099e-02 -3.1480437517166138e-01 -5.8314681053161621e-01 -2.4197596311569214e-01 -1.4608249664306641e+00 -3.3975732326507568e-01 4.7441445291042328e-02 9.8269730806350708e-03 -1.0859250277280807e-01 -4.6771857142448425e-01 -6.3234901428222656e-01 3.7760016322135925e-01 4.2613381147384644e-01 1.0845202952623367e-01 1.7350643873214722e-01 2.0252290368080139e-01 8.7808752059936523e-01 2.4715855717658997e-01 3.5768660902976990e-01 -1.1985124647617340e-01 2.1008510887622833e-01 6.7859542369842529e-01 9.4823509454727173e-02 -2.5372278690338135e-01 -7.7697533369064331e-01 1.8132986128330231e-01 -2.0499385893344879e-01 2.0442342758178711e-01 1.4282682538032532e-01 -7.9503916203975677e-02 -3.8446620106697083e-02 -2.3958215117454529e-01 -2.2217807173728943e-01 -1.1322442442178726e-01 2.6052069664001465e-01 -1.2597073614597321e-01 9.4531454145908356e-02 7.2741828858852386e-02 
      </Weights>
      <Biases rows="16" cols="1">
        6.1440240591764450e-02 1.2829440832138062e-01 3.4539911895990372e-02 8.4600186347961426e-01 -3.1425857543945312e-01 7.8870409727096558e-01 -1.4480929076671600e-01 2.4893719702959061e-02 -2.0529492199420929e-01 -1.4702619612216949e-01 -1.9010215997695923e-01 -5.0950592756271362e-01 -3.1473297625780106e-02 -7.0287209749221802e-01 3.0314061045646667e-01 -4.7522492706775665e-02 
      </Biases>
    </Layer>
    <Layer ActivationFunction="3">
      <Weights rows="16" cols="16">
        -2.8772037476301193e-02 -2.5564870238304138e-01 -2.1551197767257690e-01 -3.7184643745422363e-01 1.3363978266716003e-01 -6.2333863973617554e-01 3.0855298042297363e-01 -4.5163288712501526e-01 -1.3360179960727692e-01 1.0395988076925278e-01 2.8516218066215515e-01 2.8970893472433090e-02 1.0630240291357040e-01 3.7774595618247986e-01 -2.7488788962364197e-01 1.3555777072906494e-01 2.2874226793646812e-02 8.4340132772922516e-02 2.8467956185340881e-01 2.1823965013027191e-01 -1.9348664581775665e-01 5.5471873283386230e-01 -3.3991730213165283e-01 1.4272114634513855e-01 -3.8993939757347107e-01 -1.4091926626861095e-02 -1.0430844873189926e-01 -1.1716687679290771e-01 2.4744254350662231e-01 -6.4514748752117157e-02 -7.5798071920871735e-02 4.9828138202428818e-02 -1.6979150474071503e-02 1.2577061355113983e-01 -7.6780334115028381e-02 2.2447605431079865e-01 -1.6121080517768860e-01 6.3960596919059753e-02 1.3376063108444214e-01 -9.8230406641960144e-02 1.6655375063419342e-01 2.6282884180545807e-02 6.0637243092060089e-02 2.0324026048183441e-01 1.1388950794935226e-01 -2.0716790109872818e-02 -2.0663902163505554e-01 2.5555112957954407e-01 1.1603112518787384e-01 1.3147941231727600e-01 -4.3151099234819412e-02 3.2656446099281311e-01 -9.3702122569084167e-02 3.9603721350431442e-02 1.4727853238582611e-01 1.3214476406574249e-01 -3.5540458559989929e-01 3.8818456232547760e-02 -3.4733960032463074e-01 -2.2150516510009766e-01 7.3331408202648163e-02 -9.0012736618518829e-02 3.6520096659660339e-01 -3.8449797034263611e-01 -2.5946673005819321e-02 -2.7001528069376945e-02 -1.8975287675857544e-01 2.8823542594909668e-01 1.1092890053987503e-01 2.5558584928512573e-01 1.8893972039222717e-02 -1.1024427413940430e-01 7.5353719294071198e-02 1.5066149830818176e-01 7.6804332435131073e-02 -2.1415907144546509e-01 -5.0508193671703339e-02 -2.2591264545917511e-01 -1.3844875991344452e-01 -2.3367983102798462e-01 1.2501397170126438e-02 1.8141470849514008e-01 3.4947928786277771e-01 4.9558955430984497e-01 -2.7217718958854675e-01 4.6206125617027283e-01 -1.6278611123561859e-01 3.3172652125358582e-01 -1.2815742194652557e-01 -1.8817115575075150e-02 -1.8869234621524811e-01 -5.2638228982686996e-02 1.6520187258720398e-01 -2.5077790021896362e-01 6.4767509698867798e-02 -4.0599349886178970e-02 2.6912719011306763e-01 -1.8883898854255676e-01 1.8207632005214691e-02 5.2385115623474121e-01 2.3637764155864716e-01 5.2197223901748657e-01 -1.2077759951353073e-01 1.3993529975414276e-01 -3.1103685498237610e-01 -2.8377100825309753e-01 1.9510110840201378e-02 -1.8295751512050629e-01 -2.5555348023772240e-02 -2.3656480014324188e-01 6.0292538255453110e-02 -1.7731219530105591e-01 8.0814138054847717e-02 1.9777593016624451e-01 -1.1983139812946320e-01 -5.7884711027145386e-01 2.5284355878829956e-01 -5.1966673135757446e-01 2.0197847485542297e-01 -2.0702535286545753e-02 2.6328200101852417e-01 8.7052099406719208e-02 -8.8728599250316620e-02 1.9495406746864319e-01 2.0022048056125641e-01 -8.7932243943214417e-02 -2.3772360384464264e-01 2.9548758268356323e-01 1.1928314715623856e-01 4.8551717400550842e-01 3.7920135259628296e-01 7.3073732852935791e-01 -3.2994040846824646e-01 5.7558476924896240e-01 -1.3369001448154449e-02 3.8164776563644409e-01 -9.5223635435104370e-02 8.9448168873786926e-02 -4.1165748238563538e-01 -4.6172824501991272e-01 -8.2831017673015594e-02 -4.1981127858161926e-01 1.3841655850410461e-01 2.0845206081867218e-01 -1.6599772870540619e-01 -2.8517046570777893e-01 -9.9781170487403870e-02 1.2640092521905899e-02 1.4576011337339878e-02 -4.8301227390766144e-02 8.2733757793903351e-02 -4.7907223924994469e-03 -2.2311711311340332e-01 -1.9834424555301666e-01 -9.5290904864668846e-03 -2.6999861001968384e-01 -2.4656815826892853e-01 1.2903595343232155e-02 -2.7273702621459961e-01 -2.2462266683578491e-01 3.4491021186113358e-02 -1.2083407491445541e-02 2.1401795744895935e-01 3.2251355051994324e-01 -2.1295155584812164e-01 2.1418567001819611e-01 -1.7232063412666321e-01 2.6348719000816345e-01 -7.4277259409427643e-02 -9.6579611301422119e-02 -6.0845863074064255e-02 -1.0367006808519363e-01 2.0568341016769409e-01 -1.9361075758934021e-01 -1.6468059271574020e-02 2.0377461612224579e-01 -3.5233665257692337e-02 1.3124366104602814e-01 -7.6483577489852905e-02 5.6842279434204102e-01 -2.7957126498222351e-01 6.2961643934249878e-01 1.6485424339771271e-01 1.8681216239929199e-01 -1.5608049929141998e-01 -2.1660144627094269e-01 -2.6505807042121887e-01 -1.2795907258987427e-01 2.8092986345291138e-01 -2.9375874996185303e-01 1.1492073535919189e-01 6.9528967142105103e-02 -2.2648863494396210e-01 2.6096847653388977e-01 8.4375247359275818e-02 -3.0538505315780640e-01 -2.6313635706901550e-01 -3.4591242671012878e-01 9.0037800371646881e-02 -1.9396364688873291e-01 3.2316827774047852e-01 1.8649242818355560e-01 1.1731096357107162e-01 2.9398620128631592e-01 2.8126931190490723e-01 4.5031046867370605e-01 -1.9646160304546356e-01 2.0283219218254089e-01 6.5598472952842712e-02 2.7827069163322449e-01 -2.7688266709446907e-02 -3.4573189914226532e-02 -1.4822667837142944e-01 2.0742994546890259e-01 6.6919565200805664e-02 -7.0877946913242340e-02 -1.1241290718317032e-02 -1.3874311745166779e-01 2.1632601320743561e-01 -3.7875391542911530e-02 9.9573038518428802e-02 -3.4841465950012207e-01 -9.0220294892787933e-02 5.1894817501306534e-02 1.4757366478443146e-01 -1.1618374288082123e-01 -1.9159455597400665e-01 -4.2559689283370972e-01 1.0679501295089722e-01 -2.9757976531982422e-01 -2.9626037925481796e-02 1.6222284734249115e-01 -1.4218241907656193e-02 2.2827334702014923e-01 3.0788240954279900e-02 -1.1383026838302612e-02 1.2212715297937393e-01 9.5489189028739929e-02 1.6565291583538055e-01 2.2008532285690308e-01 -2.6604688167572021e-01 5.5878773331642151e-02 2.2301761433482170e-02 -5.5945301055908203e-01 1.6256753355264664e-02 -1.6948918998241425e-01 -6.6848948597908020e-02 -2.1036230027675629e-01 2.1451072394847870e-01 1.0831795632839203e-01 -3.0983848497271538e-02 3.5561868548393250e-01 3.6694634705781937e-02 3.7180545926094055e-01 -3.2270139455795288e-01 1.6137325763702393e-01 
      </Weights>
      <Biases rows="16" cols="1">
        -2.0726902782917023e-01 5.7740937918424606e-02 2.1999154239892960e-02 6.6862322390079498e-02 1.9743060693144798e-03 8.0327287316322327e-02 8.7762936949729919e-02 -5.5544890463352203e-02 4.4144979119300842e-01 -8.7982691824436188e-02 8.5116773843765259e-02 2.0175501704216003e-01 -9.6499875187873840e-02 7.8821629285812378e-02 -1.2590547092258930e-02 -9.0062312781810760e-02 
      </Biases>
    </Layer>
    <Layer ActivationFunction="3">
      <Weights rows="16" cols="16">
        2.2971184551715851e-01 -2.0727130770683289e-01 -8.9853189885616302e-02 -1.4491938054561615e-01 2.3271575570106506e-02 -4.2779645323753357e-01 1.9304355606436729e-02 -1.4342962205410004e-01 -5.4595792293548584e-01 2.0269089937210083e-01 3.8271460682153702e-02 -3.6967369914054871e-01 3.0719667673110962e-01 8.5631363093852997e-02 2.1132513938937336e-04 2.8236076235771179e-01 5.6517247110605240e-02 -8.8968202471733093e-02 1.4769193716347218e-02 -3.0530461668968201e-01 -2.2267697751522064e-01 6.3300117850303650e-02 -4.6285820007324219e-01 9.1033972799777985e-02 -5.3844684362411499e-01 1.6626442968845367e-01 -1.0833173990249634e-01 -2.0686607062816620e-01 4.8288950324058533e-01 -2.7235334739089012e-02 1.4425815641880035e-01 1.5581721067428589e-01 -7.4149154126644135e-02 1.3873909413814545e-01 -7.1218103170394897e-02 1.9853545725345612e-01 -8.0079540610313416e-02 -1.9611539319157600e-02 2.3118014633655548e-01 -1.5514130890369415e-01 2.7634122967720032e-01 4.1345227509737015e-02 1.5127870440483093e-01 2.9594153165817261e-01 6.9543379358947277e-03 1.0701000690460205e-01 -2.9608857631683350e-01 2.5954619050025940e-01 6.8115256726741791e-02 1.7817139625549316e-01 -1.9252049922943115e-01 3.1411953270435333e-02 2.1257912740111351e-02 -7.1032039821147919e-02 3.7384340167045593e-01 -1.6313010454177856e-01 -1.9722599536180496e-02 1.1485461145639420e-01 -1.7400048673152924e-01 -1.5835482627153397e-02 -1.0380674898624420e-01 3.1659193336963654e-02 1.4269548654556274e-01 -3.1266343593597412e-01 -5.2979871630668640e-02 4.6530831605195999e-02 -1.4871819317340851e-01 3.0693206191062927e-01 1.7005841434001923e-01 2.6692149043083191e-01 1.0455520451068878e-01 -2.2235396504402161e-01 2.4124264717102051e-01 1.3415090739727020e-01 1.0375267267227173e-01 -1.5304222702980042e-01 -1.3490539789199829e-01 -2.3667547106742859e-01 -1.8141736090183258e-01 -2.0351377129554749e-01 7.8009227290749550e-03 7.0663526654243469e-02 2.1315798163414001e-01 1.5521767735481262e-01 -2.2034324705600739e-01 1.4043541252613068e-01 -3.8081441074609756e-02 1.3516815006732941e-01 -2.4546256288886070e-02 7.1481592953205109e-02 -5.3747843950986862e-02 1.3071408867835999e-01 1.4196906983852386e-01 2.6390634477138519e-02 -1.4995119534432888e-02 -4.3614864349365234e-02 2.5487375259399414e-01 -2.7073329687118530e-01 -1.0879334062337875e-01 5.0808895379304886e-02 2.5807690620422363e-01 1.6465871036052704e-01 -7.0866331458091736e-02 -5.3100839257240295e-02 -1.7311926186084747e-01 -1.7782059311866760e-01 6.1054550111293793e-02 -1.1373291909694672e-01 3.6736074835062027e-02 -1.5511235594749451e-01 8.2323566079139709e-02 -9.9010184407234192e-02 1.9451768696308136e-01 9.8325878381729126e-02 -2.2123366594314575e-01 -4.6373516321182251e-01 1.1743716150522232e-01 -4.3044966459274292e-01 -9.6477687358856201e-02 2.0248565077781677e-01 -2.3069603741168976e-01 1.2024745345115662e-01 -2.5114309787750244e-01 -9.9163755774497986e-02 4.4313511252403259e-01 -3.2525056600570679e-01 1.3809141702950001e-02 3.3039778470993042e-01 -1.5591476112604141e-02 1.2214983254671097e-01 1.1479224078357220e-02 -4.1886605322360992e-02 -2.8511661291122437e-01 -2.1896933019161224e-01 -9.1700121760368347e-02 1.2270714156329632e-02 -2.2661384940147400e-01 1.6779813170433044e-01 -2.7026528120040894e-01 -3.0580517649650574e-01 -1.1258729547262192e-01 -1.5471428632736206e-01 3.2721616327762604e-02 1.2259234488010406e-01 -1.7215515673160553e-01 -1.8978701531887054e-01 -1.9258180633187294e-02 2.3684784770011902e-01 3.7294983863830566e-02 1.7301253974437714e-01 1.7517110705375671e-01 1.8452376127243042e-02 -1.1707675457000732e-01 -2.3747275769710541e-01 -3.6694991867989302e-03 -2.0681357383728027e-01 -3.1630501151084900e-01 -1.7464775592088699e-02 -3.1588116288185120e-01 -2.3820367455482483e-01 7.4093258008360863e-03 -2.8219148516654968e-01 8.1940598785877228e-02 -1.8132531642913818e-01 -2.6742210984230042e-01 -1.7356936633586884e-01 -2.5925758481025696e-01 2.6955124735832214e-01 -1.4945222437381744e-01 -3.8424920290708542e-02 -8.5018776357173920e-02 -4.1364535689353943e-02 5.0676673650741577e-01 -5.4275196045637131e-02 1.2949581444263458e-01 1.7017593979835510e-01 -8.5660167038440704e-02 -7.7731110155582428e-02 -2.8950423002243042e-01 1.8278727307915688e-02 -3.0073016881942749e-01 1.2243989109992981e-01 1.4135657250881195e-01 1.8749563023447990e-02 -2.2724823653697968e-01 -1.6424866020679474e-01 -1.8684138357639313e-01 -8.5436806082725525e-02 3.4755471348762512e-01 -1.5155023336410522e-01 1.2651833891868591e-01 1.1292188614606857e-01 -3.9784002304077148e-01 3.1456035375595093e-01 3.0854105949401855e-01 3.3376652002334595e-01 -1.5023046731948853e-01 1.4772607386112213e-01 1.6635939478874207e-01 1.6864994540810585e-02 3.2760125398635864e-01 -4.7366032958962023e-04 9.2426702380180359e-02 3.9585137367248535e-01 3.8083259016275406e-02 3.2846876978874207e-01 -2.1107590198516846e-01 9.3857452273368835e-02 -2.6321569457650185e-02 3.1736046075820923e-01 -2.7706224471330643e-02 -4.6337042003870010e-02 1.7771737650036812e-02 1.4834617078304291e-01 3.1709262728691101e-01 -1.7314723134040833e-01 4.1734674572944641e-01 -2.2135986387729645e-01 3.8248461484909058e-01 2.2046604752540588e-01 -2.0702190697193146e-01 -1.1274922639131546e-01 -3.1072351336479187e-01 1.0034210979938507e-02 3.3185672760009766e-01 -1.9795109331607819e-01 -3.8822364807128906e-01 -4.3214952945709229e-01 -5.5258441716432571e-02 -2.2636617720127106e-01 -3.3881533145904541e-01 2.9052758216857910e-01 -4.5675805211067200e-01 2.8600051999092102e-01 -1.4240019023418427e-01 -4.0102770924568176e-01 4.3863430619239807e-01 -1.8125744163990021e-01 3.0767557024955750e-01 2.4242880940437317e-01 -3.9534926414489746e-01 2.6965853571891785e-01 2.3065464198589325e-01 1.2941952049732208e-01 8.2033678889274597e-02 3.2172822952270508e-01 -5.9588003903627396e-02 -8.4022328257560730e-02 2.0796014368534088e-01 -7.2454228997230530e-02 -1.0199324786663055e-01 3.0192494392395020e-01 -1.5720862150192261e-01 2.7420708537101746e-01 -2.9893255233764648e-01 5.9399493038654327e-03 
      </Weights>
      <Biases rows="16" cols="1">
        -1.7770558595657349e-02 -7.8032940626144409e-02 3.3790508750826120e-03 -5.6246038526296616e-02 2.9256530106067657e-02 -4.2499378323554993e-02 -4.8251717817038298e-04 -8.3892382681369781e-02 -5.5152387358248234e-03 -6.9233542308211327e-03 -2.0493663847446442e-02 8.5617760196328163e-03 1.2483729049563408e-02 -1.3682221993803978e-02 -1.1006189137697220e-01 1.4262536540627480e-02 
      </Biases>
    </Layer>
    <Layer ActivationFunction="0">
      <Weights rows="1" cols="16">
        -4.9749943614006042e-01 -5.8116716146469116e-01 2.3802165687084198e-01 4.6086350083351135e-01 1.7808413505554199e-01 3.8224723190069199e-02 5.6474328041076660e-02 -4.1349998116493225e-01 -4.2147494852542877e-02 8.1578344106674194e-02 -4.3545365333557129e-01 -1.7035591602325439e-01 1.3615758717060089e-01 5.2344685792922974e-01 -2.5218161940574646e-01 6.4798314124345779e-03 
      </Weights>
      <Biases rows="1" cols="1">
        -3.3442035317420959e-02 
      </Biases>
    </Layer>
  </Weights>
</MethodSetup>
