<?xml version="1.0"?>
<MethodSetup Method="DNN::DNN_NanoV9_V2_2020_RMET_multi_x1">
  <GeneralInfo>
    <Info name="TMVA Release" value="4.2.1 [262657]"/>
    <Info name="ROOT Release" value="6.12/07 [396295]"/>
    <Info name="Creator" value="hum"/>
    <Info name="Date" value="Tue Mar 15 17:03:59 2022"/>
    <Info name="Host" value="Linux vocms0301.cern.ch 2.6.32-696.30.1.el6.x86_64 #1 SMP Tue May 22 06:09:36 CEST 2018 x86_64 x86_64 x86_64 GNU/Linux"/>
    <Info name="Dir" value="/afs/cern.ch/work/h/hum/public/CMSSW_10_2_13/src/ChargedHiggs/Analysis"/>
    <Info name="Training events" value="559497"/>
    <Info name="TrainingTime" value="3.88589712e+02"/>
    <Info name="AnalysisType" value="Multiclass"/>
  </GeneralInfo>
  <Options>
    <Option name="V" modified="Yes">True</Option>
    <Option name="VerbosityLevel" modified="No">Verbose</Option>
    <Option name="VarTransform" modified="Yes">N</Option>
    <Option name="H" modified="Yes">False</Option>
    <Option name="CreateMVAPdfs" modified="No">False</Option>
    <Option name="IgnoreNegWeightsInTraining" modified="No">False</Option>
    <Option name="Layout" modified="Yes">TANH|64,TANH|64,TANH|32,TANH|32,LINEAR</Option>
    <Option name="ValidationSize" modified="No">20%</Option>
    <Option name="ErrorStrategy" modified="Yes">CROSSENTROPY</Option>
    <Option name="WeightInitialization" modified="Yes">XAVIERUNIFORM</Option>
    <Option name="Architecture" modified="Yes">CPU</Option>
    <Option name="TrainingStrategy" modified="Yes">LearningRate=1e-1,Momentum=0.2,Repetitions=1,ConvergenceSteps=20,BatchSize=256,TestRepetitions=10,WeightDecay=1e-4,Regularization=L2,DropConfig=0.05+0.1+0.2+0.25+0.5,</Option>
  </Options>
  <Variables NVar="15">
    <Variable VarIndex="0" Expression="j1QGL" Label="j1QGL" Title="j1QGL" Unit="" Internal="j1QGL" Type="F" Min="1.55414455e-07" Max="1.00000000e+00"/>
    <Variable VarIndex="1" Expression="j2QGL" Label="j2QGL" Title="j2QGL" Unit="" Internal="j2QGL" Type="F" Min="9.14093107e-07" Max="1.00000000e+00"/>
    <Variable VarIndex="2" Expression="varMjj" Label="varMjj" Title="varMjj" Unit="" Internal="varMjj" Type="F" Min="5.00000519e+02" Max="7.38575146e+03"/>
    <Variable VarIndex="3" Expression="varDetajj" Label="varDetajj" Title="varDetajj" Unit="" Internal="varDetajj" Type="F" Min="2.50000000e+00" Max="8.71777344e+00"/>
    <Variable VarIndex="4" Expression="varJet1Eta" Label="varJet1Eta" Title="abs(varJet1Eta)" Unit="" Internal="varJet1Eta" Type="F" Min="-4.66308594e+00" Max="4.69628906e+00"/>
    <Variable VarIndex="5" Expression="varJet1Pt" Label="varJet1Pt" Title="varJet1Pt" Unit="" Internal="varJet1Pt" Type="F" Min="5.01875000e+01" Max="2.78800000e+03"/>
    <Variable VarIndex="6" Expression="varJet2Eta" Label="varJet2Eta" Title="abs(varJet2Eta)" Unit="" Internal="varJet2Eta" Type="F" Min="-4.69824219e+00" Max="4.69921875e+00"/>
    <Variable VarIndex="7" Expression="varJet2Pt" Label="varJet2Pt" Title="varJet2Pt" Unit="" Internal="varJet2Pt" Type="F" Min="5.00312500e+01" Max="1.29300000e+03"/>
    <Variable VarIndex="8" Expression="varMTVV" Label="varMTVV" Title="varMTVV" Unit="" Internal="varMTVV" Type="F" Min="3.42204254e+02" Max="2.89005078e+03"/>
    <Variable VarIndex="9" Expression="varPTV2" Label="varPTV2" Title="varPTV2" Unit="" Internal="varPTV2" Type="F" Min="1.57054436e+00" Max="8.30599243e+02"/>
    <Variable VarIndex="10" Expression="varCenRes" Label="varCenRes" Title="varCenRes" Unit="" Internal="varCenRes" Type="F" Min="-2.63580322e+00" Max="4.08306885e+00"/>
    <Variable VarIndex="11" Expression="varDRV2j" Label="varDRV2j" Title="varDRV2j" Unit="" Internal="varDRV2j" Type="F" Min="3.06231622e-03" Max="4.71517086e+00"/>
    <Variable VarIndex="12" Expression="varnormPTVVjj" Label="varnormPTVVjj" Title="varnormPTVVjj" Unit="" Internal="varnormPTVVjj" Type="F" Min="1.52695575e-04" Max="2.49984488e-01"/>
    <Variable VarIndex="13" Expression="varFW2j" Label="varFW2j" Title="varnormFW2j" Unit="" Internal="varFW2j" Type="F" Min="2.19692551e-02" Max="9.99766946e-01"/>
    <Variable VarIndex="14" Expression="bosV2discr" Label="bosV2discr" Title="bosV2discr" Unit="" Internal="bosV2discr" Type="F" Min="6.00000799e-01" Max="9.93170857e-01"/>
  </Variables>
  <Spectators NSpec="0"/>
  <Classes NClass="3">
    <Class Name="VVEWK" Index="0"/>
    <Class Name="VVQCD" Index="1"/>
    <Class Name="NonVV" Index="2"/>
  </Classes>
  <Transformations NTransformations="1">
    <Transform Name="Normalize">
      <Selection>
        <Input NInputs="15">
          <Input Type="Variable" Label="j1QGL" Expression="j1QGL"/>
          <Input Type="Variable" Label="j2QGL" Expression="j2QGL"/>
          <Input Type="Variable" Label="varMjj" Expression="varMjj"/>
          <Input Type="Variable" Label="varDetajj" Expression="varDetajj"/>
          <Input Type="Variable" Label="varJet1Eta" Expression="varJet1Eta"/>
          <Input Type="Variable" Label="varJet1Pt" Expression="varJet1Pt"/>
          <Input Type="Variable" Label="varJet2Eta" Expression="varJet2Eta"/>
          <Input Type="Variable" Label="varJet2Pt" Expression="varJet2Pt"/>
          <Input Type="Variable" Label="varMTVV" Expression="varMTVV"/>
          <Input Type="Variable" Label="varPTV2" Expression="varPTV2"/>
          <Input Type="Variable" Label="varCenRes" Expression="varCenRes"/>
          <Input Type="Variable" Label="varDRV2j" Expression="varDRV2j"/>
          <Input Type="Variable" Label="varnormPTVVjj" Expression="varnormPTVVjj"/>
          <Input Type="Variable" Label="varFW2j" Expression="varFW2j"/>
          <Input Type="Variable" Label="bosV2discr" Expression="bosV2discr"/>
        </Input>
        <Output NOutputs="15">
          <Output Type="Variable" Label="j1QGL" Expression="j1QGL"/>
          <Output Type="Variable" Label="j2QGL" Expression="j2QGL"/>
          <Output Type="Variable" Label="varMjj" Expression="varMjj"/>
          <Output Type="Variable" Label="varDetajj" Expression="varDetajj"/>
          <Output Type="Variable" Label="varJet1Eta" Expression="varJet1Eta"/>
          <Output Type="Variable" Label="varJet1Pt" Expression="varJet1Pt"/>
          <Output Type="Variable" Label="varJet2Eta" Expression="varJet2Eta"/>
          <Output Type="Variable" Label="varJet2Pt" Expression="varJet2Pt"/>
          <Output Type="Variable" Label="varMTVV" Expression="varMTVV"/>
          <Output Type="Variable" Label="varPTV2" Expression="varPTV2"/>
          <Output Type="Variable" Label="varCenRes" Expression="varCenRes"/>
          <Output Type="Variable" Label="varDRV2j" Expression="varDRV2j"/>
          <Output Type="Variable" Label="varnormPTVVjj" Expression="varnormPTVVjj"/>
          <Output Type="Variable" Label="varFW2j" Expression="varFW2j"/>
          <Output Type="Variable" Label="bosV2discr" Expression="bosV2discr"/>
        </Output>
      </Selection>
      <Class ClassIndex="0">
        <Ranges>
          <Range Index="0" Min="1.0117888450622559e-05" Max="1.0000000000000000e+00"/>
          <Range Index="1" Min="3.1900405883789062e-04" Max="1.0000000000000000e+00"/>
          <Range Index="2" Min="5.0009631347656250e+02" Max="7.3857514648437500e+03"/>
          <Range Index="3" Min="2.5000000000000000e+00" Max="8.7060546875000000e+00"/>
          <Range Index="4" Min="-4.6425781250000000e+00" Max="4.6406250000000000e+00"/>
          <Range Index="5" Min="5.0937500000000000e+01" Max="1.6260000000000000e+03"/>
          <Range Index="6" Min="-4.6943359375000000e+00" Max="4.6972656250000000e+00"/>
          <Range Index="7" Min="5.0031250000000000e+01" Max="1.0860000000000000e+03"/>
          <Range Index="8" Min="3.5199847412109375e+02" Max="2.2491921386718750e+03"/>
          <Range Index="9" Min="7.4791884422302246e+00" Max="7.1715795898437500e+02"/>
          <Range Index="10" Min="-2.3409423828125000e+00" Max="4.0407714843750000e+00"/>
          <Range Index="11" Min="2.1582545712590218e-02" Max="4.7151708602905273e+00"/>
          <Range Index="12" Min="2.7475302340462804e-04" Max="2.4834136664867401e-01"/>
          <Range Index="13" Min="8.5790216922760010e-02" Max="9.9971139430999756e-01"/>
          <Range Index="14" Min="6.0001701116561890e-01" Max="9.8910206556320190e-01"/>
        </Ranges>
      </Class>
      <Class ClassIndex="1">
        <Ranges>
          <Range Index="0" Min="5.8650970458984375e-04" Max="9.9951171875000000e-01"/>
          <Range Index="1" Min="9.6321105957031250e-05" Max="9.9951171875000000e-01"/>
          <Range Index="2" Min="5.0037951660156250e+02" Max="4.9648232421875000e+03"/>
          <Range Index="3" Min="2.5007324218750000e+00" Max="7.4233398437500000e+00"/>
          <Range Index="4" Min="-4.4287109375000000e+00" Max="3.9975585937500000e+00"/>
          <Range Index="5" Min="5.2593750000000000e+01" Max="1.2140000000000000e+03"/>
          <Range Index="6" Min="-4.6318359375000000e+00" Max="4.4941406250000000e+00"/>
          <Range Index="7" Min="5.0031250000000000e+01" Max="5.0800000000000000e+02"/>
          <Range Index="8" Min="3.4685272216796875e+02" Max="1.5779642333984375e+03"/>
          <Range Index="9" Min="1.7290786743164062e+01" Max="5.7581182861328125e+02"/>
          <Range Index="10" Min="-2.5603065490722656e+00" Max="3.2814941406250000e+00"/>
          <Range Index="11" Min="3.7702582776546478e-02" Max="4.0286154747009277e+00"/>
          <Range Index="12" Min="6.5188598819077015e-04" Max="2.4895171821117401e-01"/>
          <Range Index="13" Min="1.7338004708290100e-01" Max="9.9752414226531982e-01"/>
          <Range Index="14" Min="6.0014706850051880e-01" Max="9.7661632299423218e-01"/>
        </Ranges>
      </Class>
      <Class ClassIndex="2">
        <Ranges>
          <Range Index="0" Min="1.5541445463895798e-07" Max="1.0000000000000000e+00"/>
          <Range Index="1" Min="9.1409310698509216e-07" Max="1.0000000000000000e+00"/>
          <Range Index="2" Min="5.0000051879882812e+02" Max="7.2468603515625000e+03"/>
          <Range Index="3" Min="2.5000000000000000e+00" Max="8.7177734375000000e+00"/>
          <Range Index="4" Min="-4.6630859375000000e+00" Max="4.6962890625000000e+00"/>
          <Range Index="5" Min="5.0187500000000000e+01" Max="2.7880000000000000e+03"/>
          <Range Index="6" Min="-4.6982421875000000e+00" Max="4.6992187500000000e+00"/>
          <Range Index="7" Min="5.0031250000000000e+01" Max="1.2930000000000000e+03"/>
          <Range Index="8" Min="3.4220425415039062e+02" Max="2.8900507812500000e+03"/>
          <Range Index="9" Min="1.5705443620681763e+00" Max="8.3059924316406250e+02"/>
          <Range Index="10" Min="-2.6358032226562500e+00" Max="4.0830688476562500e+00"/>
          <Range Index="11" Min="3.0623162165284157e-03" Max="4.5788445472717285e+00"/>
          <Range Index="12" Min="1.5269557479768991e-04" Max="2.4998448789119720e-01"/>
          <Range Index="13" Min="2.1969255059957504e-02" Max="9.9976694583892822e-01"/>
          <Range Index="14" Min="6.0000079870223999e-01" Max="9.9317085742950439e-01"/>
        </Ranges>
      </Class>
      <Class ClassIndex="3">
        <Ranges>
          <Range Index="0" Min="1.5541445463895798e-07" Max="1.0000000000000000e+00"/>
          <Range Index="1" Min="9.1409310698509216e-07" Max="1.0000000000000000e+00"/>
          <Range Index="2" Min="5.0000051879882812e+02" Max="7.3857514648437500e+03"/>
          <Range Index="3" Min="2.5000000000000000e+00" Max="8.7177734375000000e+00"/>
          <Range Index="4" Min="-4.6630859375000000e+00" Max="4.6962890625000000e+00"/>
          <Range Index="5" Min="5.0187500000000000e+01" Max="2.7880000000000000e+03"/>
          <Range Index="6" Min="-4.6982421875000000e+00" Max="4.6992187500000000e+00"/>
          <Range Index="7" Min="5.0031250000000000e+01" Max="1.2930000000000000e+03"/>
          <Range Index="8" Min="3.4220425415039062e+02" Max="2.8900507812500000e+03"/>
          <Range Index="9" Min="1.5705443620681763e+00" Max="8.3059924316406250e+02"/>
          <Range Index="10" Min="-2.6358032226562500e+00" Max="4.0830688476562500e+00"/>
          <Range Index="11" Min="3.0623162165284157e-03" Max="4.7151708602905273e+00"/>
          <Range Index="12" Min="1.5269557479768991e-04" Max="2.4998448789119720e-01"/>
          <Range Index="13" Min="2.1969255059957504e-02" Max="9.9976694583892822e-01"/>
          <Range Index="14" Min="6.0000079870223999e-01" Max="9.9317085742950439e-01"/>
        </Ranges>
      </Class>
    </Transform>
  </Transformations>
  <MVAPdfs/>
  <Weights InputWidth="15" Depth="5" LossFunction="C" OutputFunction="M">
    <Layer ActivationFunction="3">
      <Weights rows="64" cols="15">
        5.6977368891239166e-02 2.6899322867393494e-02 8.6609609425067902e-02 -2.5152470916509628e-02 -1.9170169252902269e-03 5.5837977677583694e-02 -5.7421941310167313e-03 2.5885542854666710e-02 5.3881149739027023e-02 6.9758825004100800e-02 -7.8278139233589172e-02 -5.9705998748540878e-02 -1.8385969102382660e-02 1.3674637302756310e-03 3.1635373830795288e-02 4.6035861596465111e-03 4.5642085373401642e-02 4.8602029681205750e-02 7.4004367925226688e-03 -2.4401446804404259e-02 3.9003711193799973e-02 -8.0281672999262810e-03 3.2706458587199450e-03 -6.2110580503940582e-02 -5.6323662400245667e-02 -4.1790362447500229e-02 -5.1232434809207916e-02 3.0041301622986794e-02 1.3878670521080494e-02 3.4162264317274094e-02 4.6892758458852768e-02 6.2463391572237015e-02 1.9670808315277100e-01 7.3314771056175232e-02 -3.1648006290197372e-02 2.7822679840028286e-03 2.2830167785286903e-02 6.9781847298145294e-02 6.2953308224678040e-03 -9.5261655747890472e-02 9.6142090857028961e-02 5.7140756398439407e-02 -1.4203554391860962e-01 5.0160989165306091e-02 4.2735509574413300e-02 -3.9040371775627136e-03 5.1313113421201706e-02 1.0076995939016342e-02 -3.0535833910107613e-02 3.4074731171131134e-02 -1.6993625089526176e-02 -3.8345001637935638e-02 -1.2596570886671543e-02 6.5715864300727844e-02 7.1754455566406250e-02 -4.3249607086181641e-02 -6.7033164203166962e-02 3.1792644411325455e-02 4.9914196133613586e-02 4.1846558451652527e-02 6.4341418445110321e-02 8.2002170383930206e-02 1.5663705766201019e-01 -1.4069718308746815e-02 -2.5210162624716759e-02 -2.5183862075209618e-02 -2.2485844790935516e-02 5.2020638249814510e-03 7.6438367366790771e-02 1.9568189978599548e-02 5.2170418202877045e-02 2.0813466981053352e-02 -8.9430451393127441e-02 6.6810525953769684e-02 5.8317162096500397e-02 4.4381182640790939e-02 4.1129473596811295e-02 -3.4832907840609550e-04 -8.4297262132167816e-02 -3.0788527801632881e-02 3.7590877618640661e-03 -2.0925011485815048e-02 -4.0891941636800766e-02 -2.9629690572619438e-02 8.3450369536876678e-02 -9.5298647880554199e-02 -4.4579796493053436e-02 2.0365463569760323e-02 -4.9817990511655807e-02 1.6968257725238800e-02 -3.8035023957490921e-02 -2.0951267331838608e-02 -1.1785461753606796e-01 -1.6391966491937637e-02 2.6587769389152527e-02 -6.7021466791629791e-02 -5.7550817728042603e-03 2.4510672315955162e-02 -1.1229651421308517e-01 -4.7908206470310688e-03 6.3110948540270329e-03 -1.4431129675358534e-03 8.6941808462142944e-02 2.6823922526091337e-03 -1.0296183079481125e-01 4.5107952319085598e-03 5.9478651732206345e-02 1.1408576369285583e-01 8.6156819015741348e-03 -1.2787575833499432e-02 5.7172670960426331e-02 5.2047967910766602e-03 2.1346775814890862e-02 6.0038574039936066e-02 -4.4528707861900330e-02 9.4610765576362610e-02 6.4893402159214020e-03 -1.1240022629499435e-01 -2.4940653238445520e-03 7.8769035637378693e-02 3.3950265496969223e-02 2.7118476107716560e-02 -2.3511960171163082e-03 3.3026710152626038e-03 5.6389242410659790e-02 -1.7120242118835449e-02 -1.7782920971512794e-02 -2.0509999245405197e-02 4.6398632228374481e-02 -2.7997337281703949e-02 -7.6979831792414188e-03 1.7880372703075409e-02 1.6650216653943062e-02 4.1793948039412498e-03 -3.3443734049797058e-02 1.0202338919043541e-02 9.6243787556886673e-03 2.4987834692001343e-01 1.7176683247089386e-01 -2.4486025795340538e-02 1.4533042907714844e-02 -4.5861948281526566e-02 1.5313358604907990e-01 5.7894725352525711e-02 -1.6392806172370911e-01 1.4966645836830139e-01 4.6074710786342621e-02 -2.9867422580718994e-01 1.5401622280478477e-02 8.6538963019847870e-02 -4.8865132033824921e-02 -4.1253071278333664e-02 5.1660228520631790e-02 1.3380578160285950e-01 -1.7635550349950790e-02 -4.8037137836217880e-02 -5.3565395064651966e-03 2.7623630594462156e-03 -9.4143621623516083e-02 -6.5019011497497559e-02 1.4172160625457764e-01 -2.6880947872996330e-02 -1.3272118568420410e-01 -4.9712236970663071e-02 -4.4090315699577332e-02 3.7182047963142395e-02 4.2468138039112091e-02 1.4506709575653076e-01 7.7370718121528625e-02 -5.1966011524200439e-02 -9.4352588057518005e-03 4.0452037006616592e-02 2.9241701588034630e-02 4.5812122523784637e-02 -9.7214065492153168e-02 1.4839409291744232e-01 -3.4175412729382515e-03 -7.6963670551776886e-02 -3.8358300924301147e-02 -1.7943542916327715e-03 7.9312935471534729e-02 6.9485962390899658e-02 1.2313124537467957e-01 -4.8065464943647385e-02 -4.7654397785663605e-02 2.3119356483221054e-03 -9.6567621221765876e-04 -3.2474040985107422e-02 1.1260294914245605e-01 1.2559828162193298e-01 -1.4812054112553596e-02 -8.7007805705070496e-02 1.3864778913557529e-02 1.0093134827911854e-02 7.0373006165027618e-02 -3.2686445862054825e-02 -6.7114643752574921e-02 -3.7952743470668793e-02 2.6375751942396164e-02 -4.0879640728235245e-03 -7.4129238724708557e-02 9.5372144132852554e-03 1.5298780053853989e-02 -9.6221983432769775e-02 -1.0007514059543610e-01 6.9622695446014404e-02 1.0444308817386627e-01 -6.0344059020280838e-02 -1.8620656803250313e-02 -1.0108913481235504e-01 2.1609429270029068e-02 5.6953210383653641e-02 2.0840635895729065e-01 1.0543075948953629e-01 6.7177310585975647e-02 -2.2281534038484097e-03 6.0100398957729340e-02 1.1777108162641525e-01 -3.9041578769683838e-02 -7.8663423657417297e-02 1.2627060711383820e-01 1.1925915256142616e-02 -2.3349066078662872e-01 2.5236964225769043e-02 -1.8280938267707825e-02 6.9987073540687561e-02 9.0215131640434265e-02 1.3104520738124847e-01 3.5257537383586168e-03 4.5987103134393692e-02 1.5476439148187637e-02 -1.6665177419781685e-02 6.0974843800067902e-02 1.0306543856859207e-01 7.1435712277889252e-02 -3.5697236657142639e-02 -1.6930092126131058e-02 -1.0503792762756348e-01 3.7580329924821854e-02 3.6308921407908201e-03 -1.1132140457630157e-01 -7.3148980736732483e-02 1.8341336399316788e-02 1.1778624355792999e-01 4.4985977001488209e-03 -4.8130840063095093e-02 -5.4481446743011475e-02 4.7978453338146210e-02 -7.8304409980773926e-02 -2.3720036447048187e-01 1.6244488954544067e-01 1.1079730093479156e-01 -1.2477649003267288e-01 -4.6773210167884827e-02 -9.6782162785530090e-02 -2.7672080323100090e-02 -7.5449489057064056e-02 -2.4911005049943924e-02 -3.8261838257312775e-02 -6.4919024705886841e-02 -2.8322882950305939e-02 -4.2519744485616684e-02 1.4981159474700689e-03 -9.1940753161907196e-02 -9.6766084432601929e-02 -1.7127076163887978e-02 2.0502733066678047e-02 5.8273482136428356e-03 -4.2148996144533157e-02 -1.0157437622547150e-01 1.0241883248090744e-01 1.0632670670747757e-01 5.2912183105945587e-02 -8.6649775505065918e-02 -4.7821715474128723e-02 1.2636664323508739e-02 -7.1110664866864681e-03 -1.1628825217485428e-02 9.1978155076503754e-02 1.2458395212888718e-01 -9.2476442456245422e-02 2.4873148649930954e-02 1.0277948528528214e-01 -1.0821492411196232e-02 -2.1200327202677727e-02 -5.4139932617545128e-03 -5.2254520356655121e-02 -4.8815853893756866e-02 -1.5641152858734131e-03 -2.0788693800568581e-02 5.4266866296529770e-02 -1.3683841563761234e-02 -5.8655943721532822e-02 2.6603491976857185e-02 -2.6249632239341736e-02 -4.6068906784057617e-02 -1.8527340143918991e-02 1.5493654645979404e-02 -9.5430519431829453e-03 5.0694920122623444e-02 -1.5841692686080933e-02 -6.3633076846599579e-02 -1.6351116821169853e-02 4.3622691184282303e-02 5.8618739247322083e-02 -3.2253358513116837e-02 5.2705638110637665e-02 -5.0119105726480484e-03 -9.2668466269969940e-02 -1.1985701322555542e-01 1.0297974199056625e-01 -1.1879228055477142e-02 -7.1102976799011230e-02 -6.5419554710388184e-02 -4.8851218074560165e-02 -3.6294534802436829e-02 -2.4607736617326736e-02 -4.9300886690616608e-02 -6.8865809589624405e-04 -1.0078061372041702e-02 -3.1524088233709335e-02 -3.1014005653560162e-03 3.2956041395664215e-02 5.2912950515747070e-02 3.3902212977409363e-02 8.3601661026477814e-03 -3.0839066952466965e-02 -3.0939249321818352e-02 3.4881249070167542e-02 -4.8612479120492935e-02 -4.7476716339588165e-02 -6.6977990791201591e-03 8.6015880107879639e-02 9.2822395265102386e-02 2.9720466583967209e-02 -7.2611264884471893e-02 6.6968724131584167e-02 1.7400011420249939e-02 6.1305962502956390e-02 -6.0588859021663666e-02 8.4629490971565247e-02 -3.9174631237983704e-02 -1.2696895003318787e-01 -2.2991336882114410e-02 3.4738454967737198e-02 8.0235250294208527e-02 9.9881760776042938e-02 1.1530141532421112e-01 5.3628701716661453e-03 -6.1965454369783401e-02 -4.2701259255409241e-02 -3.0591594055294991e-02 5.4383650422096252e-02 9.9163174629211426e-02 7.5276888906955719e-02 6.3439919613301754e-03 2.7003752067685127e-02 -9.6864916384220123e-02 -4.7289822250604630e-02 -6.7798895761370659e-03 1.7210287973284721e-02 8.2359373569488525e-02 1.5345503389835358e-01 7.4870131909847260e-02 1.9667658954858780e-02 -5.4860852658748627e-02 2.9955789446830750e-02 7.1078203618526459e-02 4.9300443381071091e-02 4.7007143497467041e-02 -1.2064016424119473e-02 -5.4067950695753098e-02 -6.2427155673503876e-02 -2.2420853376388550e-02 5.7098310440778732e-02 -2.3685801774263382e-02 3.7497639656066895e-02 1.9012926518917084e-01 1.0527192056179047e-01 4.4016715139150620e-02 -3.8783601485192776e-03 -2.5484785437583923e-02 9.9070072174072266e-02 3.2002206891775131e-02 -1.3031832873821259e-01 9.9430702626705170e-02 4.4272765517234802e-02 -2.3550391197204590e-01 1.3369744643568993e-02 3.7400074303150177e-02 5.7164777070283890e-02 5.3508255630731583e-02 1.9589163362979889e-02 -7.2320587933063507e-02 3.2624159008264542e-02 5.0951879471540451e-02 3.0990257859230042e-02 -2.2730898112058640e-02 -1.8760439008474350e-02 1.2116161733865738e-01 -1.9113294780254364e-02 -5.7436730712652206e-02 3.3502914011478424e-02 -3.7799369543790817e-02 8.0113202333450317e-02 5.2564114332199097e-02 6.5428733825683594e-02 5.3448490798473358e-02 -1.8533309921622276e-02 4.2173672467470169e-02 1.7029177397489548e-02 -3.7112705409526825e-02 -1.1149021796882153e-02 8.2214966416358948e-02 6.6087350249290466e-02 -1.0971240699291229e-01 1.7580943182110786e-02 -1.6689494252204895e-02 4.3185181915760040e-02 -3.1900528818368912e-02 8.8807232677936554e-03 -2.1165959537029266e-02 -2.4092641472816467e-01 -2.0171298086643219e-01 -1.5367903746664524e-02 -4.4174745678901672e-02 6.3301203772425652e-03 -1.0020434856414795e-01 -5.5465131998062134e-02 6.7038357257843018e-02 -1.9383721053600311e-01 -3.8956362754106522e-02 3.0016645789146423e-01 -2.4313528090715408e-02 -9.5310457050800323e-02 -4.7365773469209671e-02 -6.4974188804626465e-02 -4.5448526740074158e-02 7.1659907698631287e-02 -6.2204297631978989e-02 -1.3468188233673573e-02 -4.7123944386839867e-03 7.3134936392307281e-02 -2.8169361874461174e-02 -6.7949987947940826e-02 9.2962831258773804e-03 6.0514189302921295e-02 -9.5741815865039825e-02 4.6353489160537720e-03 -7.4055410921573639e-02 -1.3829328119754791e-02 3.3938553184270859e-02 7.1685098111629486e-02 7.8616052865982056e-02 2.6391265913844109e-02 3.1129976734519005e-02 -4.4800303876399994e-02 4.1410610079765320e-02 4.0765877813100815e-02 -4.0305219590663910e-02 9.0986497700214386e-02 -4.3419323861598969e-02 -1.6854157671332359e-02 2.6255996897816658e-02 7.5762838125228882e-02 3.8251355290412903e-02 -1.5071080997586250e-02 8.9304424822330475e-02 -2.8516044840216637e-02 6.8122059106826782e-02 7.7821598388254642e-03 -4.5281879603862762e-02 5.1008582115173340e-02 5.5306438356637955e-02 7.0525132119655609e-02 -3.1127484515309334e-02 7.6713236048817635e-03 -7.9005487263202667e-02 -1.7733527347445488e-02 2.3387795314192772e-02 3.6705855280160904e-02 5.2028756588697433e-02 2.1771316230297089e-01 1.4374661445617676e-01 -2.8305882588028908e-02 3.2841574400663376e-02 9.1086365282535553e-03 7.5553834438323975e-02 7.4224971234798431e-02 -6.6802121698856354e-02 1.5118870139122009e-01 -2.7695761993527412e-02 -2.0436438918113708e-01 -3.5785842686891556e-02 9.2300832271575928e-02 7.3820807039737701e-02 1.6296610236167908e-02 -4.6410780400037766e-02 -1.1045178025960922e-01 4.9170915037393570e-02 -8.4903987590223551e-04 -2.7070611715316772e-02 -7.3336780071258545e-02 7.8812889754772186e-02 1.4508064091205597e-01 -8.2082487642765045e-02 -1.2669329531490803e-02 7.4507191777229309e-02 1.7645800486207008e-02 2.3412240669131279e-02 2.8420442715287209e-02 3.5167768597602844e-02 -1.6980214044451714e-02 -9.7281165421009064e-02 -5.3740557283163071e-02 2.8995497152209282e-02 -2.5928344111889601e-03 -5.2013870328664780e-02 -4.3486084789037704e-02 2.2786129266023636e-02 -5.5664665997028351e-02 3.4475233405828476e-02 6.5104156732559204e-02 4.9992412328720093e-02 -9.4828307628631592e-03 -6.5569512546062469e-02 -1.0305116325616837e-01 4.2629167437553406e-03 1.7669601365923882e-02 4.7481361776590347e-02 -3.1535122543573380e-02 -5.5951811373233795e-02 -7.0047095417976379e-02 -4.4983193278312683e-02 -3.4115415066480637e-02 -3.5611353814601898e-02 2.2444199770689011e-02 -5.7438753545284271e-02 -2.4890035390853882e-02 1.7710877582430840e-02 1.7059110105037689e-02 1.5695974230766296e-02 -1.3053691387176514e-01 -8.7831348180770874e-02 -1.5117536298930645e-02 6.5023519098758698e-02 -1.5064748004078865e-02 1.7280589789152145e-02 3.5439044237136841e-02 3.3622652292251587e-02 -7.0454739034175873e-02 1.3119056820869446e-02 1.1223899573087692e-01 -3.8468368351459503e-02 6.3718862831592560e-02 2.9273858293890953e-02 4.2287770658731461e-02 5.0309609621763229e-02 9.6883997321128845e-02 8.6785377934575081e-03 7.3471845826134086e-04 -4.3335191905498505e-02 -7.5579355470836163e-03 4.7932215034961700e-02 -4.0363039821386337e-02 1.4771538972854614e-01 7.3089987039566040e-02 -1.3609997928142548e-01 -3.6151688545942307e-02 -4.0250305086374283e-02 5.5928338319063187e-02 6.0830913484096527e-02 -8.0796167254447937e-02 5.6842644698917866e-04 5.3717945702373981e-03 -8.9144073426723480e-03 -1.3868638779968023e-03 -4.3780475854873657e-02 3.3266261219978333e-02 -2.6659714058041573e-03 -2.5800554081797600e-02 7.1014836430549622e-03 8.6024671792984009e-02 1.9684525206685066e-02 6.0131293721497059e-03 2.3172738030552864e-02 -4.6804595738649368e-02 1.0091617703437805e-02 -4.1485790163278580e-02 -1.6778554767370224e-02 -1.4783761464059353e-02 -1.0236040689051151e-02 -8.4277698770165443e-03 -4.7594178467988968e-02 -5.6697327643632889e-02 -5.5105078965425491e-02 5.3663905709981918e-02 1.0220018215477467e-02 2.8281392529606819e-02 -4.1835658252239227e-02 -9.2353142797946930e-02 -9.4077758491039276e-02 -9.8075851798057556e-02 2.4238364771008492e-02 -1.3894495554268360e-02 -7.1773320436477661e-02 4.6193380840122700e-03 3.4603226929903030e-02 -6.4537882804870605e-02 -9.9275931715965271e-02 2.8096213936805725e-02 8.0074451863765717e-02 -4.8819500952959061e-02 -1.6223374754190445e-02 -6.9064632058143616e-02 2.5840165093541145e-02 -6.9288402795791626e-02 -1.3991908729076385e-01 -7.1068860590457916e-02 -4.9715105444192886e-02 4.5101359486579895e-02 2.9419215396046638e-02 -7.0616610348224640e-02 -8.3964489400386810e-02 -2.5141714140772820e-02 -1.1408458650112152e-01 -5.5403426289558411e-02 1.3830220699310303e-01 1.8076607957482338e-02 -1.1448856443166733e-01 1.2934674322605133e-01 -9.8847234621644020e-03 1.4410480856895447e-01 1.6593503952026367e-01 -3.7153471261262894e-02 -7.4970893561840057e-02 -4.0424857288599014e-02 5.2339583635330200e-03 -3.6937292665243149e-02 -5.0991460680961609e-02 5.0741571933031082e-02 -2.8292587026953697e-02 -1.8302008509635925e-01 4.8173428513109684e-03 1.2978010810911655e-02 6.7854300141334534e-02 4.3669477105140686e-02 1.9806489348411560e-02 -1.3922203332185745e-02 3.8486752659082413e-02 7.9729147255420685e-03 6.3546247780323029e-02 5.1262039691209793e-02 5.7270549237728119e-02 4.7211565077304840e-02 3.8523215800523758e-02 1.4668324030935764e-02 -4.2685654014348984e-02 -3.0661720782518387e-02 -4.0137980133295059e-02 -5.4614864289760590e-02 -1.1801724135875702e-01 -2.0515818148851395e-02 9.0880617499351501e-03 2.3694129660725594e-02 5.9070494025945663e-03 -1.1519257910549641e-02 -4.4096063822507858e-02 -1.2525767087936401e-01 -9.6152544021606445e-02 7.5974151492118835e-02 9.3269214034080505e-02 -2.4860763922333717e-02 -5.2238881587982178e-02 -9.9357619881629944e-02 9.4585577026009560e-03 -6.4238280057907104e-02 -5.6487292051315308e-02 6.4386405050754547e-02 4.0341593325138092e-02 8.4569621831178665e-03 -3.1608261168003082e-02 3.9575085975229740e-03 -7.8057013452053070e-02 -8.0433413386344910e-02 8.7659068405628204e-02 -4.3197631835937500e-02 2.8338016942143440e-02 2.9986165463924408e-02 -5.2016746252775192e-02 -3.3453203737735748e-02 3.4244775772094727e-02 -3.9282135665416718e-02 -1.3335966505110264e-02 1.6152499243617058e-02 -5.6294328533113003e-03 8.2647604867815971e-03 -6.0428906232118607e-02 -4.1046611964702606e-02 -9.7426958382129669e-03 -7.3105439543724060e-02 1.5201489441096783e-02 2.2170029580593109e-02 4.8388987779617310e-02 -6.2341138720512390e-02 4.0065210312604904e-02 -4.6740446239709854e-02 -4.5272495597600937e-02 -8.2757413387298584e-02 3.8085844367742538e-02 1.8207831308245659e-02 -2.3865697905421257e-02 5.4826252162456512e-03 -6.8138718605041504e-02 4.2939234524965286e-02 -9.7002618014812469e-02 6.2994442880153656e-02 3.8098353892564774e-02 5.9080183506011963e-02 -5.4406810551881790e-02 1.4523773454129696e-02 -2.3722190409898758e-02 1.3912628591060638e-01 1.2038756161928177e-01 2.2389837540686131e-03 -2.3669509217143059e-02 -3.6290410906076431e-02 1.1189827322959900e-01 5.2396588027477264e-02 -8.3061322569847107e-02 1.6570976376533508e-01 3.8164343684911728e-02 -2.2410240769386292e-01 -6.4965471625328064e-02 6.0054209083318710e-02 -4.9242749810218811e-02 2.8597237542271614e-02 4.8880930989980698e-03 3.3417280763387680e-02 4.9267396330833435e-02 -1.6449296846985817e-02 -5.3318098187446594e-02 2.0907200872898102e-02 -1.9402451813220978e-02 6.8619504570960999e-02 1.8088322132825851e-02 -7.1113325655460358e-02 4.0360372513532639e-02 -5.1202014088630676e-02 6.7869350314140320e-02 -2.8746433556079865e-02 -2.3556422442197800e-02 -7.3333002626895905e-02 5.5617131292819977e-02 1.4895276166498661e-02 -5.4521601647138596e-02 3.3405166119337082e-02 -5.8394605293869972e-03 -5.0299957394599915e-02 -5.6887656450271606e-02 5.0491411238908768e-02 -4.0320679545402527e-03 -2.4222372099757195e-02 4.9973879009485245e-02 -5.9267345815896988e-02 -4.0874432772397995e-02 -4.6111293137073517e-02 1.1223490349948406e-02 -3.9295848459005356e-02 -2.6280408725142479e-02 -4.3117363005876541e-02 8.4257414564490318e-03 2.0208146423101425e-02 -3.8388807326555252e-02 1.9683588296175003e-02 5.3847651928663254e-02 5.0162862986326218e-02 -8.2017034292221069e-03 5.5220909416675568e-02 -2.6004340499639511e-02 -4.0658168494701385e-02 -4.2934339493513107e-02 8.2831501960754395e-02 1.0944422334432602e-01 -5.7670015841722488e-02 -5.3471300750970840e-02 -8.2629537209868431e-03 5.3926791995763779e-02 -4.6773772686719894e-02 -6.6066741943359375e-02 4.7787304967641830e-02 2.8631798923015594e-02 -4.7412924468517303e-02 1.9167300313711166e-02 2.0570587366819382e-02 7.8374303877353668e-02 8.2938529551029205e-02 -2.9569666832685471e-02 -2.2104565054178238e-02 -6.1815347522497177e-02 -1.3706337660551071e-02 7.8584589064121246e-03 -6.4143082126975060e-03 5.9311069548130035e-02 4.9716841429471970e-02 -8.0398023128509521e-02 -2.8477977961301804e-02 1.1226031184196472e-01 4.8716157674789429e-02 8.5072312504053116e-03 6.8507164716720581e-02 7.3517151176929474e-02 4.0035441517829895e-02 -6.3441492617130280e-02 -4.7050755470991135e-02 1.5388923697173595e-02 4.7834582626819611e-02 4.7082365490496159e-03 -8.5180914029479027e-03 -1.3904010411351919e-03 8.0604506656527519e-03 6.3401605002582073e-03 9.2292122542858124e-02 -3.8619447499513626e-02 -1.6263527795672417e-02 -4.5802414417266846e-02 -6.6844418644905090e-02 -1.0750506818294525e-01 -9.3844503164291382e-02 -2.8291877242736518e-04 4.3679069727659225e-02 5.2211657166481018e-02 1.8529980443418026e-03 1.9830513745546341e-02 1.2233297340571880e-02 -8.9441135525703430e-02 1.1973087675869465e-02 -3.7033860571682453e-03 3.3184897154569626e-02 -4.1056416928768158e-02 -8.0448305234313011e-03 3.0657848343253136e-02 2.4930007755756378e-02 -1.2201189994812012e-01 -1.5869861468672752e-02 3.8816637243144214e-04 -5.0607822835445404e-02 3.7824109196662903e-02 7.6403275132179260e-02 -3.0558290891349316e-03 -9.7275480628013611e-02 -5.5539276450872421e-02 8.5438653826713562e-02 -5.1596175879240036e-02 -2.1824000403285027e-02 3.5445623099803925e-02 -5.1128551363945007e-02 -9.8732031881809235e-02 -7.9465329647064209e-02 -2.6621123775839806e-02 7.6486088335514069e-02 -2.5643877685070038e-02 -5.1294054836034775e-02 -8.7923677638173103e-03 5.2431046962738037e-02 -6.7892804741859436e-02 5.9958134079352021e-04 1.1483148485422134e-01 5.3858391940593719e-02 6.1974342912435532e-02 5.0835173577070236e-02 8.5932068526744843e-02 1.8905834853649139e-01 8.5182249546051025e-02 3.3033579587936401e-02 4.6463776379823685e-03 5.9972252696752548e-02 1.0678271204233170e-01 8.5147328674793243e-02 -1.3620202429592609e-02 8.4294974803924561e-02 -7.4360094964504242e-02 -1.8052600324153900e-01 -7.5696674175560474e-03 1.0694063454866409e-01 4.0725730359554291e-02 3.7393815815448761e-02 1.5959683060646057e-01 1.1827488243579865e-01 -2.6901187375187874e-02 3.2871700823307037e-02 -1.4254131820052862e-03 6.9161877036094666e-02 -3.7840809673070908e-02 -1.0916992276906967e-01 1.1908557265996933e-01 -3.0672239139676094e-02 -1.2818072736263275e-01 3.7472959607839584e-02 2.9193939641118050e-02 7.1714401245117188e-02 -4.9545415677130222e-03 4.3658562004566193e-02 -1.4258876442909241e-02 -1.1620164848864079e-02 1.0265895165503025e-02 4.1989579796791077e-02 -2.7116959914565086e-02 2.5433516129851341e-03 1.4166156947612762e-01 -2.8284531086683273e-02 -8.8188640773296356e-02 8.6980931460857391e-02 3.7978727370500565e-02 3.9019580930471420e-02 6.4840972423553467e-02 -8.6324401199817657e-03 -4.6749699860811234e-02 -4.0194820612668991e-02 -3.1405854970216751e-02 2.3542186245322227e-02 -4.9852780997753143e-02 -4.2254935950040817e-02 3.7001337856054306e-02 -1.0191946290433407e-02 -2.5639245286583900e-03 -5.0067219883203506e-02 5.6805383414030075e-02 2.0818663761019707e-03 7.1682825684547424e-02 -3.4965865314006805e-02 6.1988938599824905e-02 1.3212151825428009e-02 7.6542971655726433e-03 -2.5506742298603058e-02 6.3944808207452297e-03 2.6779431849718094e-02 3.4688170999288559e-02 -1.3896218501031399e-02 -6.5272287465631962e-03 5.7369224727153778e-02 -2.5012131780385971e-02 6.5686074085533619e-03 1.2932199053466320e-02 6.5401561558246613e-02 4.9710344523191452e-02 7.0291776210069656e-03 3.3605493605136871e-02 -1.5445883385837078e-02 2.5305375456809998e-02 -2.2484624758362770e-02 5.0871115177869797e-02 -4.8005502671003342e-02 1.6843667253851891e-02 -3.4143798053264618e-02 7.6803609728813171e-02 -2.4004792794585228e-03 8.7318336591124535e-03 -4.7764427959918976e-02 3.8644308224320412e-03 
      </Weights>
      <Biases rows="64" cols="1">
        2.7535749599337578e-02 1.8838223069906235e-02 6.9928229786455631e-03 2.7328282594680786e-02 1.3835836201906204e-02 6.1215851455926895e-03 -2.9937604442238808e-02 -1.4155046083033085e-02 2.8972697327844799e-04 2.1674714982509613e-02 -4.6350467950105667e-02 1.0981998406350613e-02 8.3056986331939697e-02 -6.5195530652999878e-02 4.7090090811252594e-02 5.8543212711811066e-02 -4.7034919261932373e-02 -7.1271583437919617e-02 5.0948794931173325e-02 -1.8350236117839813e-02 -7.4027851223945618e-02 -8.9759007096290588e-03 8.9088547974824905e-03 6.9130122661590576e-02 7.3157168924808502e-02 1.7027679132297635e-03 2.6469118893146515e-03 3.9956539869308472e-02 -3.3832028508186340e-02 -2.8424886986613274e-02 3.0724428594112396e-02 2.9735103249549866e-02 3.5860139876604080e-02 -2.4492144584655762e-02 1.1405213735997677e-02 -1.4599112793803215e-02 1.9533175975084305e-02 -2.8754664584994316e-02 -2.7961838990449905e-02 -1.0108320973813534e-02 -7.0197686553001404e-02 -4.1194662451744080e-02 4.5452632009983063e-02 3.8562677800655365e-02 -5.7012040168046951e-02 -4.0364373475313187e-02 -6.5691363997757435e-03 7.0828665047883987e-03 -2.7814362198114395e-02 2.2574365139007568e-02 -3.6988712847232819e-02 -3.4045405685901642e-02 2.2205810993909836e-02 8.6076185107231140e-03 8.3140563219785690e-03 -1.3514335267245770e-02 -1.0188538581132889e-02 -1.7824914306402206e-02 7.3842227458953857e-02 4.1810698807239532e-02 1.7656520009040833e-02 -1.0678480379283428e-02 -1.1190892197191715e-02 -2.2268292959779501e-03 
      </Biases>
    </Layer>
    <Layer ActivationFunction="3">
      <Weights rows="64" cols="64">
        -2.9543956741690636e-02 -1.5320129692554474e-02 -2.5820577517151833e-02 -2.5761215016245842e-02 -3.4029457718133926e-02 1.8292220309376717e-02 2.7011152356863022e-02 -5.3014857694506645e-03 -5.1607340574264526e-03 -3.9886739104986191e-02 -1.6166321933269501e-02 -4.1669871658086777e-02 -1.5172701328992844e-02 1.7550487071275711e-02 -3.7464782595634460e-02 -3.2538037747144699e-02 5.1561594009399414e-02 5.7185225188732147e-02 -2.2145161405205727e-02 -9.9599724635481834e-03 4.5443974435329437e-02 -8.2654710859060287e-03 -2.4552127346396446e-02 -4.8309791833162308e-02 -5.7791832834482193e-02 -3.4767616540193558e-02 -3.7975534796714783e-02 -1.7327746609225869e-03 4.2610589414834976e-02 2.8145618736743927e-02 3.7258130032569170e-03 4.3774335645139217e-03 -1.8881438300013542e-02 -2.2771026939153671e-02 -9.5983054488897324e-03 1.6237718984484673e-02 1.0555326938629150e-02 -1.0283833369612694e-02 -5.8141108602285385e-03 -4.2495159432291985e-03 2.8004623949527740e-02 5.2976053208112717e-02 -5.9281643480062485e-02 1.9410720095038414e-02 3.2016526907682419e-02 1.5643411315977573e-03 3.2028935849666595e-02 -6.2386156059801579e-03 -3.5035237669944763e-02 1.2638875283300877e-02 -2.7310862205922604e-03 -1.4825099147856236e-02 -1.2394876219332218e-02 1.2073406949639320e-02 7.1313385851681232e-03 6.4550973474979401e-03 -2.6157287880778313e-02 2.0529747009277344e-02 -2.4624282494187355e-02 -1.3271681033074856e-02 4.6618948690593243e-03 2.5658076629042625e-02 2.5485288351774216e-02 -2.8838986530900002e-02 -4.0004506707191467e-02 -2.1460562944412231e-02 -3.5100731998682022e-02 -2.7391217648983002e-02 -6.4437710680067539e-03 -5.0772945396602154e-03 3.5100031644105911e-02 8.6300522089004517e-03 -2.0209267735481262e-02 1.8058015033602715e-02 2.4561841040849686e-02 8.8194133713841438e-03 -4.6822321601212025e-03 3.4770391881465912e-02 -3.6168664693832397e-02 -3.8471471518278122e-02 2.4291718378663063e-02 1.2264180928468704e-02 -4.2471166700124741e-02 -2.3621393367648125e-02 4.2169287800788879e-02 -2.7935663238167763e-02 -3.2767768949270248e-02 -3.2525908201932907e-02 -4.8766005784273148e-02 3.4766660537570715e-03 -1.5700228512287140e-02 3.0148641671985388e-03 -1.9308764603920281e-04 2.1402556449174881e-02 1.9167027203366160e-03 -3.8768813014030457e-02 -2.2421242669224739e-02 1.1680582538247108e-02 -2.6996493339538574e-02 2.3760020732879639e-02 1.9190362654626369e-03 -1.5159159898757935e-02 1.5748741105198860e-02 1.1602663435041904e-02 7.9640522599220276e-03 1.3557713478803635e-02 -2.4424979928880930e-03 1.9230201141908765e-03 -4.9844449386000633e-03 5.9422557242214680e-03 3.0822757631540298e-02 2.2451884578913450e-03 -1.3026371598243713e-02 1.2170691974461079e-02 2.3241750895977020e-03 2.4270391091704369e-02 1.8856377573683858e-03 -2.5234403088688850e-02 -5.7920455001294613e-03 2.8958329930901527e-02 6.1880890280008316e-03 9.2789251357316971e-03 -4.1146688163280487e-02 -6.2956665642559528e-03 1.3065771199762821e-02 -1.5313709154725075e-02 -1.3159603811800480e-02 -1.2596447952091694e-02 4.1649647057056427e-02 -1.8866542726755142e-02 9.9307596683502197e-03 2.8760788962244987e-02 2.3055609315633774e-02 1.2937607243657112e-02 -4.4601880013942719e-02 3.4676108509302139e-02 -1.8005773425102234e-02 2.4042317643761635e-02 -1.8967956304550171e-02 -1.3482427224516869e-02 3.4507330507040024e-02 -5.3145788609981537e-02 2.3493792861700058e-02 4.5854039490222931e-02 -7.2939686477184296e-02 -4.9077603965997696e-02 3.5197045654058456e-02 -2.5623569265007973e-02 -2.0031640306115150e-02 1.9976951181888580e-02 3.6829924210906029e-03 1.7603101208806038e-02 2.3932373151183128e-02 2.2603826597332954e-02 8.5909226909279823e-03 4.1730008088052273e-03 -5.3419638425111771e-03 -3.6622781306505203e-02 -1.3292594812810421e-02 4.1454970836639404e-02 3.2191149890422821e-02 -4.8132538795471191e-03 -1.7478866502642632e-02 -2.5676483288407326e-02 3.0731353908777237e-03 2.3735892027616501e-02 1.5232224948704243e-02 1.5187785029411316e-02 -3.7155486643314362e-02 -3.6169439554214478e-02 2.1633600816130638e-02 2.8114216402173042e-02 -4.0837261825799942e-02 1.0050006676465273e-03 -2.6792412623763084e-02 2.3203177377581596e-02 -1.0362738743424416e-02 3.1538333743810654e-02 -4.0033835917711258e-02 -2.7570942416787148e-02 1.1946713551878929e-02 1.5259821899235249e-02 2.7500756084918976e-02 -2.4487592279911041e-02 -1.4683109708130360e-02 -1.5494003891944885e-02 2.0172731950879097e-02 -2.1660923957824707e-02 3.8025300949811935e-02 1.9283505156636238e-02 1.9132001325488091e-02 -2.6842113584280014e-02 -3.0023770406842232e-02 -1.0129482485353947e-02 1.1429970152676105e-02 -1.7822246998548508e-02 -2.4403864517807961e-02 -3.1818907707929611e-02 1.6118945553898811e-02 -1.1471258476376534e-02 -3.1503450125455856e-02 4.6611856669187546e-02 4.1516028344631195e-02 -1.3004560023546219e-02 -5.5078748613595963e-02 4.8509996384382248e-02 5.1065806299448013e-02 -4.5675214380025864e-02 7.7367320656776428e-02 1.3602590188384056e-02 -3.9050903171300888e-02 1.7477599903941154e-02 7.8098215162754059e-02 1.0173262562602758e-03 4.4825375080108643e-02 -2.3018181324005127e-02 7.1506563108414412e-04 4.5992612838745117e-02 -5.9977538883686066e-02 -2.8856616467237473e-02 -2.2167408838868141e-02 3.9403792470693588e-02 -2.9996298253536224e-02 -1.1383327655494213e-02 -2.4512881413102150e-02 -2.3944843560457230e-02 1.7989004263654351e-03 3.7184022367000580e-02 -2.7852397412061691e-02 3.4714974462985992e-02 -9.7048282623291016e-03 -5.4458416998386383e-03 7.6524786651134491e-02 2.1795503795146942e-02 3.2674834132194519e-02 -2.9624611139297485e-02 5.7763092219829559e-02 8.6556319147348404e-03 9.7509436309337616e-03 -2.5272279977798462e-02 2.9137879610061646e-03 -1.4028315432369709e-02 3.6173611879348755e-02 3.1607713550329208e-02 2.1388703957200050e-02 -3.1500950455665588e-02 -4.1892800480127335e-02 3.7675269413739443e-04 -1.4817925170063972e-02 -4.3888330459594727e-02 -1.0951685719192028e-02 4.8187192529439926e-02 -3.8640704005956650e-02 -2.3727830499410629e-02 -2.3346891626715660e-02 1.2741544283926487e-02 -3.7362448871135712e-02 1.4186463318765163e-02 -1.2743215775117278e-03 -4.6540100127458572e-02 -1.8080808222293854e-02 -3.2891958951950073e-02 1.5574619174003601e-02 -2.8124302625656128e-02 -3.0337288975715637e-02 1.7126904800534248e-02 2.8046365827322006e-02 -5.7284808717668056e-03 -5.1775801926851273e-02 4.6419696882367134e-03 4.4442243874073029e-02 1.2684015557169914e-02 7.6864980161190033e-02 8.9955357834696770e-03 -5.7052187621593475e-02 -7.1558747440576553e-03 2.7592169120907784e-02 1.2439048849046230e-02 3.3281318843364716e-02 -9.4458889216184616e-03 -1.4476371929049492e-02 4.6207282692193985e-02 -4.4259834103286266e-03 -3.0967539176344872e-02 -4.6843156218528748e-02 2.1140586584806442e-02 -2.7898063883185387e-02 -2.6333702728152275e-02 1.7097942531108856e-02 -3.4001741558313370e-02 1.7554504796862602e-02 2.1593934434349649e-05 -3.9293169975280762e-02 2.7214249595999718e-02 -2.7987103909254074e-02 -7.1451216936111450e-03 2.0473603159189224e-02 -7.9374639317393303e-03 2.1809140220284462e-02 1.8973587080836296e-02 4.2296383529901505e-02 1.2236968614161015e-02 1.4807190746068954e-03 2.1340106613934040e-03 5.2165795117616653e-02 -1.5936464071273804e-02 4.8715710639953613e-02 -1.9769510254263878e-03 -7.8023602254688740e-03 -4.3213710188865662e-02 1.1323126964271069e-02 -2.6599023491144180e-02 -4.1914232075214386e-02 -4.1038606315851212e-02 -5.5044875480234623e-03 -5.5405977182090282e-03 -3.5401586443185806e-02 -2.9351565986871719e-02 1.0485081002116203e-03 6.0729065444320440e-04 -7.9125361517071724e-03 -1.8428805051371455e-03 1.6164049506187439e-02 2.8477339074015617e-02 2.0157862454652786e-02 7.0256819017231464e-03 -1.6874706372618675e-02 -1.5874020755290985e-02 1.9764320924878120e-02 -2.7885686606168747e-02 -2.4156769737601280e-02 -9.8046930506825447e-03 -3.6247780080884695e-03 4.2404234409332275e-04 9.1759301722049713e-03 -2.8376800939440727e-02 1.7343092709779739e-02 -2.0597526803612709e-02 2.8862308710813522e-02 5.2112137200310826e-04 -6.2923501245677471e-03 -1.7643909901380539e-02 -7.5545953586697578e-03 -6.6056596115231514e-03 1.7128271982073784e-02 1.9267929717898369e-02 3.0282281339168549e-02 2.8317656368017197e-02 -8.0776622053235769e-04 -3.4710668027400970e-02 -2.8101904317736626e-02 -2.1057227626442909e-02 2.6059621945023537e-02 3.2459158450365067e-02 2.0055234432220459e-02 4.3947924859821796e-03 2.6126543059945107e-02 -3.0375652015209198e-02 -2.5463216006755829e-02 -2.9221711680293083e-02 -2.2568238899111748e-02 2.8101351112127304e-02 3.1721748411655426e-02 1.0415994562208652e-02 2.4722730740904808e-03 -3.2200369983911514e-02 1.2588021345436573e-02 2.4778932332992554e-02 3.1614839099347591e-03 2.9996294528245926e-02 -3.0638670548796654e-02 -1.8810413777828217e-02 1.8722614273428917e-02 -1.0343628004193306e-02 2.5716414675116539e-03 -1.4448250643908978e-02 1.9731814041733742e-02 2.3347590118646622e-02 -8.8951615616679192e-03 1.6401225700974464e-02 4.3052951805293560e-03 -1.3237634673714638e-02 1.2505513615906239e-02 1.3609058223664761e-02 -1.9878739491105080e-02 -2.9109477996826172e-02 3.7721522152423859e-02 -3.6889970302581787e-02 1.8809715285897255e-02 -1.0597876273095608e-02 9.3464469537138939e-03 1.9580950960516930e-02 3.7019371520727873e-03 2.1816907450556755e-02 3.6126989871263504e-02 2.9964191839098930e-02 -8.1553533673286438e-03 5.1346663385629654e-03 -1.2107107322663069e-03 3.3367246389389038e-02 4.8252604901790619e-02 -1.4481393620371819e-02 -1.1601408943533897e-02 -2.2435070946812630e-02 3.8177959620952606e-02 1.6235221177339554e-02 4.0320754051208496e-02 2.4668546393513680e-02 8.4759145975112915e-03 4.7366656363010406e-02 -1.2448634020984173e-02 -3.3335521817207336e-02 -2.9268877580761909e-02 3.8584303110837936e-02 8.1757381558418274e-03 -2.7976689860224724e-02 4.7541704028844833e-02 -4.7833681106567383e-02 8.8046919554471970e-03 -2.5659414008259773e-02 -6.1452402733266354e-03 2.5370825082063675e-02 -3.6297261714935303e-02 -2.8906950727105141e-02 1.6631750389933586e-02 -3.3628664910793304e-02 2.9862767085433006e-02 -2.3314096033573151e-03 -1.2598368339240551e-02 -1.6456238925457001e-02 -1.2974888086318970e-02 -8.6391372606158257e-03 6.0778055340051651e-02 -2.3325961083173752e-02 -1.8244927749037743e-02 -7.7657336369156837e-03 -9.1093247756361961e-03 -4.7664158046245575e-02 1.0152447037398815e-02 -3.9360661059617996e-02 -8.9270481839776039e-03 -1.2948679737746716e-02 4.6326231211423874e-02 2.7802396565675735e-02 -6.7745316773653030e-03 -3.3059988170862198e-02 2.3120887577533722e-02 -1.9607156515121460e-02 -8.7024504318833351e-03 -2.6198433712124825e-02 -4.4010978192090988e-02 1.4395810663700104e-02 -1.3868973590433598e-02 1.8128408119082451e-02 2.6478741317987442e-02 8.8926162570714951e-03 -2.7078406885266304e-02 -2.4951502680778503e-02 1.2546434067189693e-02 -1.8306830897927284e-02 2.0166076719760895e-02 -1.8474170938134193e-02 4.0601142682135105e-03 -3.8973893970251083e-03 2.3312287405133247e-02 1.9794596359133720e-02 -2.0913664251565933e-02 3.0185241252183914e-02 -1.8200851976871490e-02 2.7257967740297318e-02 -2.2022867575287819e-02 -3.1993273645639420e-02 1.1692145839333534e-02 2.8208729345351458e-03 3.0634991824626923e-02 -2.1166164427995682e-02 3.7444658577442169e-02 -2.2164532914757729e-02 -1.9258296117186546e-02 -1.1718425666913390e-03 -1.8186393426731229e-03 4.3083783239126205e-03 2.6755366474390030e-02 1.0262013413012028e-02 -8.8306404650211334e-03 1.3600889360532165e-03 6.4576314762234688e-03 7.3774026532191783e-07 2.8732297942042351e-02 1.0224172845482826e-02 -4.0110986679792404e-02 -1.6822010278701782e-02 -3.2094242051243782e-03 -1.2778992764651775e-02 2.1507458761334419e-02 3.0778305605053902e-02 -3.4995473921298981e-02 -1.7011564224958420e-02 -2.9926614835858345e-02 2.8027001768350601e-02 -2.5938116014003754e-02 -1.1884182691574097e-02 -2.4710543453693390e-02 2.1249417215585709e-02 2.5567729026079178e-02 1.5151779167354107e-02 -2.4836141616106033e-02 -2.4632444605231285e-02 -1.2525583151727915e-03 -5.7015381753444672e-04 1.2272408232092857e-02 1.4226738363504410e-02 3.2580297440290451e-02 -3.0085181817412376e-02 -1.5304348198696971e-03 1.3780655339360237e-02 1.1438494548201561e-02 -1.6409592702984810e-02 -4.3597914278507233e-02 -1.9622885156422853e-03 4.3954205466434360e-04 4.2511254549026489e-02 -5.4471748881042004e-03 3.4265633672475815e-02 7.0220017805695534e-03 -2.8054118156433105e-02 -1.2055310420691967e-02 4.3314781039953232e-02 1.2035868130624294e-03 9.1741140931844711e-03 5.7123336009681225e-03 -2.5763560086488724e-02 -4.2825024574995041e-02 7.8749926760792732e-03 2.5160629302263260e-02 -1.9466655328869820e-02 1.4173075556755066e-02 -1.8255181610584259e-02 -1.0460411431267858e-03 3.4137569367885590e-02 -2.1193386986851692e-02 -1.1164640309289098e-03 -1.6698667779564857e-02 -4.8687825910747051e-03 1.7798889428377151e-02 3.1071519479155540e-02 -1.1518307030200958e-02 2.3014664649963379e-02 9.0274466201663017e-03 -7.7531835995614529e-03 1.6133484896272421e-03 7.8525152057409286e-03 6.7031010985374451e-03 -4.1246995329856873e-02 5.7743344455957413e-02 2.5277202948927879e-02 1.0829297825694084e-02 -2.3046351969242096e-02 2.6901538949459791e-03 -6.1494633882830385e-06 1.6110589727759361e-02 -1.7675615847110748e-02 -3.6319375038146973e-02 2.1313590928912163e-02 1.1760595254600048e-02 2.6158712804317474e-02 2.9710920527577400e-02 -2.0390361547470093e-02 -1.8194418400526047e-02 -3.1698577105998993e-02 4.8865530639886856e-02 3.5091396421194077e-02 -2.0902177318930626e-02 1.8923450261354446e-02 3.4539843909442425e-03 -1.3937095180153847e-02 -6.5152016468346119e-03 -2.1591516211628914e-02 2.1877421531826258e-03 -3.3427894115447998e-02 5.9518530033528805e-03 2.7576659340411425e-03 2.4376008659601212e-02 9.4982434529811144e-04 2.6629783678799868e-03 2.3056890815496445e-02 -3.8837203755974770e-03 3.1010854989290237e-02 -2.8597591444849968e-02 2.6002901140600443e-03 -2.5890746619552374e-03 -1.3139461167156696e-02 1.9514469429850578e-02 1.0778606520034373e-04 -2.1379726007580757e-02 -3.0454477295279503e-02 3.0422216281294823e-02 4.6890418161638081e-05 1.7751298844814301e-02 -1.6162646934390068e-02 -2.9357938095927238e-02 -1.7408272251486778e-02 -2.3647772148251534e-02 -2.8494109865278006e-03 -3.5660802386701107e-03 -1.4645213261246681e-02 4.8848376609385014e-03 8.6137484759092331e-03 -3.9165178313851357e-03 -1.6712669283151627e-02 -1.2318196706473827e-02 1.3605928048491478e-02 -2.6567589491605759e-02 8.1613915972411633e-04 -1.1049493215978146e-02 3.1411215662956238e-02 -1.0225254110991955e-02 5.7398322969675064e-03 8.1204883754253387e-03 -2.2793931886553764e-02 4.2693253606557846e-02 2.5629339739680290e-02 -6.4762774854898453e-03 -2.0247489213943481e-02 -2.5280853733420372e-02 -2.0726479589939117e-02 -2.3330982774496078e-02 1.1925629340112209e-02 8.1893354654312134e-03 -3.2532677054405212e-02 2.8675207868218422e-02 -1.7248177900910378e-02 -1.5534008853137493e-02 3.7350724451243877e-03 -2.5969408452510834e-02 -3.0855987221002579e-02 -3.6114294081926346e-02 -2.7000579982995987e-02 -3.1215727329254150e-02 1.6629794612526894e-02 -1.4725388959050179e-02 -1.6055759042501450e-02 5.5895589292049408e-02 -1.9695466384291649e-02 1.9527813419699669e-02 -1.5459495596587658e-02 -1.4174579642713070e-02 2.0255247130990028e-02 -9.4405021518468857e-03 1.3866838812828064e-01 4.8396311700344086e-02 7.2478584945201874e-02 -2.8636539354920387e-02 4.5068018138408661e-02 9.5327004790306091e-02 5.8298051357269287e-02 9.3631431460380554e-02 -8.3389701321721077e-03 -4.3681662529706955e-02 -3.6352925002574921e-02 1.5624701045453548e-02 -1.4703143388032913e-02 7.8085511922836304e-02 -4.7051412984728813e-03 2.2438554093241692e-02 8.5443615913391113e-02 -3.4815695136785507e-02 -3.7569016218185425e-02 -1.1053260415792465e-01 4.8555843532085419e-02 3.1037647277116776e-02 2.4929905310273170e-02 7.2306364774703979e-02 -6.4454697072505951e-02 -5.2806802093982697e-02 2.2818449884653091e-02 -4.3226901441812515e-02 3.9292879402637482e-02 3.2515292987227440e-03 1.0390138253569603e-02 3.3960752189159393e-02 -6.0633938759565353e-02 1.1517959088087082e-01 -2.3701079189777374e-02 1.3432301580905914e-02 3.2623376697301865e-02 -5.8607708662748337e-02 1.0232836939394474e-02 1.0028043389320374e-01 -8.3921374753117561e-03 -2.2625741548836231e-03 3.9203789085149765e-02 4.1647788137197495e-02 -4.3498814105987549e-02 -1.4707327820360661e-02 -1.8985237926244736e-02 -2.4890469387173653e-02 -6.1448965221643448e-02 4.2319335043430328e-02 5.1181420683860779e-02 -4.5596882700920105e-02 -2.1501090377569199e-02 -7.1500330232083797e-03 2.2293012589216232e-02 -2.9156731907278299e-03 1.9365528598427773e-02 1.2500981800258160e-02 1.9545727409422398e-03 -4.6588382683694363e-03 1.7593216150999069e-02 -3.8768020458519459e-03 -7.6471073552966118e-03 1.8571933731436729e-02 1.3192149810492992e-02 2.2291447967290878e-02 -3.6684803199023008e-03 2.5807688012719154e-02 -6.0582002624869347e-03 5.4224085062742233e-02 -2.4867439642548561e-03 2.7908014133572578e-02 -2.6909515261650085e-02 3.0343343969434500e-03 -1.6117516206577420e-03 -8.2887383177876472e-03 -8.8329249992966652e-03 1.4744585379958153e-02 2.2475710138678551e-02 4.0285162627696991e-02 1.7924033105373383e-02 7.3725883848965168e-03 8.0600444925948977e-04 -5.7885497808456421e-02 -2.2061564028263092e-02 1.9352303817868233e-02 -3.3576007932424545e-02 4.6276491135358810e-02 -1.1380742304027081e-02 8.9139649644494057e-03 1.7295325174927711e-02 -2.0791223272681236e-02 -1.5781888738274574e-02 7.1097877807915211e-03 -2.0552726462483406e-02 1.6378678381443024e-02 -4.7156629152595997e-03 2.6752419769763947e-02 1.7872849479317665e-02 -3.2002314925193787e-02 2.4424897506833076e-02 -1.0719107463955879e-02 7.2057143552228808e-04 -2.4608564563095570e-03 2.2569265216588974e-02 8.0516943708062172e-03 -2.0705543458461761e-02 3.3364705741405487e-02 -1.1131408624351025e-02 -3.9718486368656158e-03 -1.6928113996982574e-02 3.7366251926869154e-03 -2.2966356948018074e-02 1.7914265394210815e-02 4.7168910503387451e-02 -4.8926500603556633e-03 -1.6138838604092598e-02 -1.5227710828185081e-02 1.5538766980171204e-02 1.2372591532766819e-02 -1.6527272760868073e-02 2.2888714447617531e-02 1.3485451228916645e-02 3.5191487520933151e-02 -1.3395291753113270e-02 -8.2667395472526550e-03 2.9249303042888641e-02 2.1154947578907013e-02 4.4816367328166962e-02 2.5529341772198677e-02 2.0925065502524376e-02 -1.0480582714080811e-03 -2.8955070301890373e-02 4.3522212654352188e-02 5.8936990797519684e-02 -4.0569100528955460e-02 -3.8851913064718246e-02 1.6638932749629021e-02 1.0861507616937160e-02 -3.2125629484653473e-02 1.6549764201045036e-02 1.2027380988001823e-02 2.4351509287953377e-02 4.8059273511171341e-02 2.9292201623320580e-02 2.0140219479799271e-02 3.3027675002813339e-02 -1.2630660086870193e-02 -1.6007579863071442e-02 2.5459611788392067e-02 -1.8598578870296478e-02 2.3552518337965012e-02 4.1219387203454971e-03 -5.7320315390825272e-03 -6.3744611106812954e-03 -2.5829430669546127e-02 1.1446405202150345e-02 -8.7046436965465546e-03 1.4387069270014763e-02 -8.7072681635618210e-03 -3.2311577349901199e-02 8.5519745945930481e-02 3.3843360841274261e-02 3.8229862693697214e-03 -3.2274719327688217e-02 -4.1570886969566345e-02 -2.6276733260601759e-03 4.5820683240890503e-02 1.1701781302690506e-02 -2.3702681064605713e-02 -2.1841617301106453e-02 3.1036118045449257e-02 5.3677549585700035e-03 3.2030794769525528e-02 -3.1535468995571136e-02 -1.2555334717035294e-02 -3.2354682683944702e-02 1.7948668450117111e-02 7.5916820205748081e-03 -6.9244038313627243e-03 -5.3371051326394081e-03 2.7186915278434753e-02 2.6789709925651550e-02 -1.5862548723816872e-02 2.7894739061594009e-02 -4.3548986315727234e-02 -3.0539914965629578e-02 -2.5455132126808167e-02 -1.7696173861622810e-02 5.4469678550958633e-02 -2.6461942121386528e-02 -1.1779550462961197e-02 -4.9282655119895935e-02 2.6683950796723366e-02 -5.6527342647314072e-02 -1.0029725730419159e-02 9.6445111557841301e-03 -5.6056056171655655e-02 -7.2713592089712620e-03 3.0092241242527962e-02 -7.3227062821388245e-03 -3.0151218175888062e-02 -1.8622661009430885e-02 3.1283333897590637e-02 -3.0652843415737152e-02 -5.0073992460966110e-02 -3.8208479527384043e-03 -5.6792635470628738e-02 -5.1214337348937988e-02 -1.6210187226533890e-02 -1.9327340647578239e-02 7.6300740242004395e-02 -1.6779752448201180e-02 -3.4217439591884613e-02 -2.6024969294667244e-02 -6.1036884784698486e-02 7.3649864643812180e-03 1.6042143106460571e-02 2.1354271098971367e-02 3.0768683180212975e-02 1.0023484937846661e-02 1.8778750672936440e-02 2.5785077363252640e-02 3.9024312049150467e-02 2.7461001649498940e-02 -5.4734304547309875e-02 -7.5249713845551014e-03 4.3282486498355865e-02 3.9960507303476334e-02 3.7233423441648483e-02 5.2078692242503166e-03 -3.2087009400129318e-02 -3.5219002515077591e-02 -6.8356348201632500e-03 -4.4505856931209564e-03 3.7929422687739134e-03 4.1332650929689407e-02 1.4173279516398907e-02 4.1728489100933075e-02 2.4237377569079399e-02 2.3221615701913834e-03 -2.6738282293081284e-02 -2.8416667133569717e-02 4.0869071381166577e-04 -1.3298667035996914e-02 -2.3560065776109695e-02 1.3318678364157677e-02 -7.1634128689765930e-02 -4.2103477753698826e-03 -1.2712494470179081e-02 -2.4701496586203575e-02 -2.2320654243230820e-02 -4.1610747575759888e-02 6.4360298216342926e-02 -3.0011082999408245e-03 -8.2326503470540047e-03 -2.6156378909945488e-02 5.1431231200695038e-02 -2.4051850661635399e-02 -7.1602396667003632e-02 7.5229711830615997e-02 1.2657805345952511e-02 -8.1289902329444885e-02 8.3176076412200928e-02 6.3294254243373871e-02 -5.0635479390621185e-02 3.0003760010004044e-02 4.4196590781211853e-02 -2.7146432548761368e-02 -3.2056193798780441e-02 -4.9066919833421707e-02 -4.0705904364585876e-02 -3.0319506302475929e-02 -5.0654448568820953e-02 -2.3008912801742554e-02 -4.9159554764628410e-03 4.1372545063495636e-02 -4.2929153889417648e-02 -1.5942137688398361e-02 -4.3192353099584579e-02 -3.0114103574305773e-03 -2.1900068968534470e-02 3.7685554474592209e-02 -2.1698592230677605e-02 -7.1901702322065830e-03 -1.7765022814273834e-02 1.3420852832496166e-02 7.5948804616928101e-02 3.4739729017019272e-02 -7.1491084992885590e-02 -2.0124115049839020e-02 7.5969256460666656e-02 2.4366313591599464e-02 3.2733824104070663e-02 6.1509204097092152e-03 2.3890841752290726e-02 1.1701445095241070e-02 3.7438694387674332e-02 1.6133585944771767e-02 -8.7144896388053894e-03 -3.1431762035936117e-03 -2.0587474107742310e-02 3.1352739781141281e-02 -4.2092610150575638e-02 6.7115793935954571e-03 -6.2777146697044373e-02 2.7614461258053780e-02 -3.7819251418113708e-02 8.6047034710645676e-03 -2.6085693389177322e-02 7.7820927836000919e-03 3.5360328853130341e-02 -2.0766524598002434e-02 3.3202517777681351e-02 6.8878745660185814e-03 6.5195061266422272e-02 -3.1589560210704803e-02 -5.1930245012044907e-02 5.1730843260884285e-03 2.4926370009779930e-02 3.1098550185561180e-02 -3.9447687566280365e-02 2.0865885540843010e-02 3.8736909627914429e-02 -2.8720809146761894e-02 5.7539261877536774e-02 7.5768299400806427e-02 -5.4460924118757248e-02 -1.2882398441433907e-02 1.8722146749496460e-02 1.5247816219925880e-02 -2.9880437999963760e-02 2.0943436771631241e-02 6.7235574126243591e-02 5.0680030137300491e-02 7.0464655756950378e-02 1.8158892169594765e-02 -1.6277933493256569e-02 -9.2600658535957336e-03 -4.6555764973163605e-02 9.8027419298887253e-03 1.1005158303305507e-03 2.4487528949975967e-02 8.8705927133560181e-02 2.3282133042812347e-02 -2.6673540472984314e-02 -4.0276721119880676e-02 3.3004991710186005e-03 -9.2991515994071960e-03 3.9365827105939388e-03 -4.1332319378852844e-02 -6.4083740115165710e-02 -6.0370177030563354e-02 9.6218168735504150e-02 1.0408146772533655e-03 -1.1170702055096626e-02 -7.3834892828017473e-04 1.2849862687289715e-03 1.7885952256619930e-03 2.0608788356184959e-02 1.8573405221104622e-02 -3.4197114408016205e-02 2.1516622975468636e-02 -6.6260234452784061e-03 -5.4837916977703571e-03 -2.6835424825549126e-02 -2.8327476233243942e-02 -1.7367890104651451e-02 -1.9405387574806809e-03 7.6732665300369263e-02 4.7918535768985748e-02 2.3815814405679703e-02 2.4925008416175842e-02 2.7580051682889462e-03 1.4964184723794460e-02 -2.2771313786506653e-02 1.3237246312201023e-02 2.3372378200292587e-02 -3.9665892720222473e-02 1.6456918790936470e-02 -6.5364949405193329e-03 1.7928002402186394e-02 1.9294193014502525e-02 1.7716817557811737e-02 7.9358682036399841e-02 6.3462883234024048e-02 2.7464716695249081e-03 -4.8991069197654724e-02 4.5293375849723816e-02 6.2089644372463226e-02 -1.3067019172012806e-02 1.0166998952627182e-01 3.4636922180652618e-02 -6.4333498477935791e-02 5.3622759878635406e-03 2.1242896094918251e-02 -4.5397076755762100e-03 1.8948549404740334e-02 6.7751649767160416e-03 -1.3632494024932384e-02 2.7105402201414108e-02 -1.9320337101817131e-02 -1.6510818153619766e-02 -6.6744975745677948e-02 1.3992447406053543e-02 1.9449295476078987e-02 1.2357221916317940e-02 3.9492785930633545e-02 -4.4765215367078781e-02 -2.7708392590284348e-02 1.7794182524085045e-02 -2.1397080272436142e-02 4.2707350105047226e-02 -7.0073455572128296e-03 -2.0610108971595764e-02 1.0091317817568779e-02 -1.0611162520945072e-02 4.2712267488241196e-02 2.7260521892458200e-03 4.2162623256444931e-02 2.0041273906826973e-02 -1.0125979315489531e-03 -3.7648200988769531e-02 6.8560317158699036e-02 -2.9815005138516426e-02 2.7853952720761299e-02 2.2547397762537003e-02 2.9060171917080879e-02 -3.7986285984516144e-02 -3.9873397909104824e-03 -2.4386124685406685e-02 -3.5873860120773315e-02 -1.1366841383278370e-02 3.8657005876302719e-02 4.6310435980558395e-02 -2.8803661465644836e-02 -2.3823274299502373e-02 2.1290483418852091e-03 1.9906392320990562e-02 4.9746178090572357e-02 1.6279790550470352e-02 9.6537964418530464e-03 1.1479359818622470e-03 -1.5191378071904182e-02 -5.6308060884475708e-03 -9.8516969010233879e-03 1.4861552976071835e-02 -2.9341090470552444e-02 1.7718661576509476e-02 9.2928018420934677e-03 -2.3152690380811691e-02 2.7689348906278610e-02 -4.9987670034170151e-02 1.4111208729445934e-02 -9.2656956985592842e-03 -5.0024267286062241e-02 -1.0835032910108566e-02 4.4897146522998810e-02 -2.0657941699028015e-02 3.4597599878907204e-03 1.2401366606354713e-02 9.5188571140170097e-03 3.0394067987799644e-02 1.1961934156715870e-02 1.8048033118247986e-02 3.8198702037334442e-02 1.1400072835385799e-03 -2.7338063344359398e-02 1.3374238274991512e-02 3.2719068229198456e-02 -1.3794491067528725e-02 -4.0171407163143158e-03 3.9551608264446259e-02 -1.2455687858164310e-02 5.4697357118129730e-03 -4.4927489943802357e-03 2.5113670155405998e-02 1.9586401060223579e-02 9.4811571761965752e-03 -3.2443788368254900e-03 -2.4301867932081223e-02 -1.2888734228909016e-02 3.6134224385023117e-02 -3.2114133238792419e-02 1.3076013885438442e-02 6.5090386196970940e-03 -7.3082018643617630e-03 1.6081916168332100e-02 1.2916384264826775e-02 -2.3027082905173302e-02 1.3339109718799591e-02 -2.9606318101286888e-02 6.2376470305025578e-03 1.2722113169729710e-02 2.9985824599862099e-02 9.8469946533441544e-03 -1.7708890140056610e-02 -1.2072154320776463e-02 -2.4821399711072445e-03 -7.5221173465251923e-03 2.3196507245302200e-02 2.6774704456329346e-02 2.5903491303324699e-02 -4.1146893054246902e-02 4.1591902263462543e-03 -5.3147796541452408e-02 -2.1037284284830093e-02 -3.4465435892343521e-02 -1.2749481946229935e-02 6.8811267614364624e-02 -8.0705778673291206e-03 3.8369491230696440e-03 -6.9626204669475555e-02 1.3440642505884171e-03 -4.7897234559059143e-02 -5.0792068243026733e-02 5.5320166051387787e-02 -4.2854923754930496e-02 -3.2156746834516525e-02 4.7588344663381577e-02 6.4660288393497467e-02 -4.3105620890855789e-02 1.4690225943922997e-03 1.8060402944684029e-02 -7.7916705049574375e-03 -4.8765186220407486e-02 -3.1377305276691914e-04 -6.4218804240226746e-02 -4.7639299184083939e-02 -1.8385216593742371e-02 -4.2188722640275955e-02 2.8317738324403763e-02 2.1784346550703049e-02 -4.3400645256042480e-02 3.4812525846064091e-03 -4.0989730507135391e-02 4.8808562569320202e-03 1.6051415354013443e-02 2.4061752483248711e-02 1.0744791477918625e-02 -2.7843417599797249e-02 2.6769973337650299e-02 8.6762486025691032e-03 4.3294969946146011e-02 3.8394950330257416e-02 -9.1981343924999237e-02 -2.1170442923903465e-02 3.8915067911148071e-02 4.8695132136344910e-02 2.3136833682656288e-02 3.0348099768161774e-02 -5.0395321100950241e-02 -2.8814043849706650e-02 4.3006163090467453e-02 3.0062934383749962e-03 8.2458136603236198e-03 6.8764961324632168e-03 -1.4510003384202719e-03 2.1236281841993332e-02 1.2048372998833656e-02 -1.0240393690764904e-02 -3.2434422522783279e-02 -1.6703426372259855e-03 -2.8760075569152832e-02 1.7195271328091621e-02 2.7745429426431656e-02 1.2807595543563366e-02 6.8663932383060455e-02 -1.1612807400524616e-02 3.1365536153316498e-02 2.5205690413713455e-02 5.9906437993049622e-02 7.2869532741606236e-03 -3.5998843610286713e-02 -9.7523285076022148e-03 -5.8686044067144394e-03 4.2804148048162460e-02 -1.7240702873095870e-03 4.5948091894388199e-02 -2.3739403113722801e-03 -5.8935277163982391e-02 3.6732040345668793e-02 3.7751905620098114e-02 -2.4363087490200996e-02 -5.1522403955459595e-02 3.8372278213500977e-02 -2.4270212277770042e-02 -2.4544628337025642e-02 2.2680182009935379e-02 4.5728180557489395e-02 4.9785964190959930e-02 6.7396037280559540e-02 4.3575674295425415e-02 3.9073985069990158e-02 -1.3933428563177586e-02 -7.8510083258152008e-02 4.6633412130177021e-03 1.7230520024895668e-02 2.4968700483441353e-02 7.1265451610088348e-02 3.5774506628513336e-02 -2.9833799228072166e-02 -2.0048985257744789e-02 2.1154338493943214e-02 3.6130582448095083e-03 -1.3793759047985077e-02 -2.6929449290037155e-02 -5.1638524979352951e-02 -6.0505241155624390e-02 1.0999090969562531e-01 2.8139720670878887e-03 -2.5764307007193565e-02 -3.8733314722776413e-02 -4.4965306296944618e-03 -5.2009429782629013e-03 5.9190757572650909e-02 3.3888932317495346e-02 4.1129109449684620e-03 2.4710763245820999e-03 -7.0774871855974197e-03 6.3793142326176167e-03 1.8642473965883255e-02 -1.2280246242880821e-02 -1.0583657771348953e-02 -4.0909677743911743e-02 7.0945933461189270e-02 2.9862763360142708e-02 -8.0982865765690804e-03 -3.1260740011930466e-02 -8.6936671286821365e-03 -8.0558918416500092e-03 -1.9739368930459023e-02 -2.0628448575735092e-02 2.2576499730348587e-02 2.0159309729933739e-02 2.9519401490688324e-02 -3.0067250132560730e-02 2.6107230223715305e-03 1.8937584012746811e-02 -3.3023371361196041e-03 6.2131956219673157e-02 -1.4506899751722813e-02 3.2350942492485046e-02 1.3621503487229347e-02 1.9792221486568451e-02 -2.9543456621468067e-03 3.5331149119883776e-03 9.6044763922691345e-03 6.2991785816848278e-03 -3.2099496573209763e-02 -1.5707977116107941e-02 2.7848744764924049e-02 1.8785137683153152e-02 3.4008156508207321e-02 -3.1067861244082451e-02 -1.6625000163912773e-02 1.2433453463017941e-02 -2.5421120226383209e-02 -2.0369466394186020e-02 -5.3620349615812302e-02 1.1824641376733780e-02 -1.7230575904250145e-02 -1.3843759894371033e-02 5.2413780242204666e-02 1.6749134287238121e-02 -8.5623804479837418e-03 2.4474514648318291e-03 -3.7909678649157286e-03 1.8003974109888077e-02 -2.7186876162886620e-02 2.0419342443346977e-02 4.2363419197499752e-03 -3.2231710851192474e-02 7.0662789046764374e-02 -8.0605344846844673e-03 -2.5604644790291786e-02 1.5645712614059448e-02 -3.1465411186218262e-02 -1.9472105428576469e-02 1.6202958300709724e-02 2.9064286500215530e-02 2.8251329436898232e-02 6.3768988475203514e-03 2.0162051543593407e-02 1.0912406258285046e-02 -3.1803667545318604e-02 6.1177029274404049e-03 2.1330229938030243e-02 -3.6799777299165726e-02 -5.3583772387355566e-04 1.6194676980376244e-02 1.1630190536379814e-02 2.5212870910763741e-02 -1.4479230158030987e-02 -1.1052334681153297e-02 -2.5311161298304796e-03 -1.2387611903250217e-02 -1.5773791819810867e-02 8.4723979234695435e-03 -1.4099940657615662e-02 2.9004976153373718e-02 1.5325404237955809e-03 -2.7273703366518021e-02 2.9988083988428116e-03 -2.6818243786692619e-02 -6.0016911476850510e-02 -1.5500080771744251e-02 6.5227918326854706e-02 -2.8515841811895370e-02 -5.6854851543903351e-02 4.3171912431716919e-02 -9.6822224557399750e-02 -2.2396905347704887e-02 6.3470587134361267e-02 7.3999608866870403e-04 -4.4013489037752151e-02 -5.4166256450116634e-03 7.3699662461876869e-03 4.2671207338571548e-02 1.5869555063545704e-03 -6.2446179799735546e-03 5.8561101555824280e-02 4.8852521926164627e-02 3.4989822655916214e-02 -3.7310834974050522e-02 -9.7507368773221970e-03 1.4566950500011444e-02 -3.2724794000387192e-02 4.9958162009716034e-02 5.0217905081808567e-03 -3.5562902688980103e-02 -6.7829713225364685e-03 -8.3999941125512123e-03 1.5079487115144730e-02 -1.8338996917009354e-02 -4.9437392503023148e-02 -1.5735080465674400e-02 -1.0119379498064518e-02 -1.7783215269446373e-02 -6.2869973480701447e-02 -5.2973337471485138e-02 -2.2251542657613754e-02 -1.8729420378804207e-02 -1.2328302487730980e-02 9.5046991482377052e-03 -2.7452060952782631e-02 -1.8727486953139305e-02 -8.7192775681614876e-03 4.6796035021543503e-02 2.3047098889946938e-02 1.1305516585707664e-02 2.2580220829695463e-03 3.2637406140565872e-02 1.3317581266164780e-02 -2.5799697265028954e-02 2.4708110839128494e-02 1.3045774772763252e-02 -9.4222445040941238e-03 1.6271691769361496e-02 7.2718732059001923e-02 -1.9343351945281029e-02 1.2488247826695442e-02 3.9998769760131836e-02 2.8038524091243744e-02 1.0516844689846039e-02 -4.9770347774028778e-02 1.5200852416455746e-02 2.6602795347571373e-02 -5.6414257735013962e-02 -8.7655253708362579e-02 -3.7664931267499924e-02 8.3296597003936768e-02 -7.7583700418472290e-02 -1.3300303369760513e-02 2.3038668558001518e-02 -9.8187938332557678e-02 -5.5278129875659943e-02 7.4274122714996338e-02 2.2617641836404800e-02 -8.6365148425102234e-02 -8.3780465647578239e-03 -2.0226292312145233e-02 4.3707843869924545e-02 1.7243750393390656e-02 -6.2967941164970398e-02 2.6145732030272484e-02 4.8865247517824173e-02 4.6519342809915543e-02 -2.9090151190757751e-02 -1.6252298373728991e-03 3.7834804505109787e-02 -2.4956451728940010e-02 8.0464661121368408e-02 1.2941752560436726e-02 -2.7131956070661545e-02 5.5369082838296890e-03 -3.6140337586402893e-02 2.7709549292922020e-02 -3.5626839846372604e-02 -5.0499357283115387e-02 1.7357019707560539e-02 -3.2650675624608994e-02 1.0661984793841839e-02 -6.9625839591026306e-02 -6.2821358442306519e-02 -1.7108865082263947e-02 -8.1798778846859932e-03 -7.3914051055908203e-02 1.0541508905589581e-02 -6.5976127982139587e-02 6.9634350948035717e-03 -5.6761741638183594e-02 6.3701488077640533e-02 1.7166394740343094e-02 -2.2055076435208321e-02 4.3471828103065491e-02 1.5331022950704210e-05 3.3102821558713913e-02 -5.8809246867895126e-02 6.0969378799200058e-02 -2.5917496532201767e-03 2.6070442050695419e-02 2.9982803389430046e-03 2.8333896771073341e-02 4.1268114000558853e-02 -6.0178726911544800e-02 4.4797670096158981e-02 2.1141057834029198e-02 -1.1622317833825946e-04 -2.4087153375148773e-02 -2.2856244817376137e-02 -2.4915527552366257e-02 -4.2089499533176422e-02 -4.8365615308284760e-02 -2.3600162938237190e-02 7.7927052974700928e-02 -5.9614207595586777e-02 -1.1956625618040562e-02 3.2221730798482895e-02 -4.6392504125833511e-02 -1.7498157918453217e-02 2.1582758054137230e-02 3.2321389764547348e-02 -5.2011806517839432e-02 -1.5344936400651932e-03 -6.8655632436275482e-02 7.0387835148721933e-04 2.5759397074580193e-02 -5.0300724804401398e-02 1.2777236290276051e-02 6.2438741326332092e-02 3.0043063685297966e-02 -6.0267563909292221e-02 -6.1671701259911060e-03 2.4181643500924110e-02 -9.2167388647794724e-03 2.8549501672387123e-02 1.5088199637830257e-02 -4.7837267629802227e-03 4.9087468534708023e-02 -1.4680241001769900e-03 2.5869190692901611e-02 -1.4682974666357040e-02 -4.2876396328210831e-02 3.6053344607353210e-02 -8.2252793014049530e-02 -9.7348159179091454e-03 -6.1463102698326111e-02 -2.5882394984364510e-02 -1.1052857153117657e-02 -1.2098829029127955e-03 -3.2481830567121506e-02 -8.1844888627529144e-03 -3.1306579709053040e-02 -2.2495072335004807e-03 1.8697326304391026e-03 3.2562058418989182e-02 1.3930160552263260e-02 1.8787739798426628e-02 4.0312699973583221e-02 3.5438783466815948e-02 -3.6249998956918716e-02 -3.2729305326938629e-02 4.2214374989271164e-02 2.2611977532505989e-02 1.0729322209954262e-02 6.6716955043375492e-03 -1.5349700115621090e-02 1.5147601254284382e-02 1.6045404598116875e-02 1.7133690416812897e-02 8.5297795012593269e-03 -3.8418902549892664e-03 -4.5674848370254040e-03 -2.7497813105583191e-02 -1.6783315222710371e-03 3.2631061971187592e-02 1.6267199069261551e-02 3.4640091471374035e-03 -2.0073646679520607e-02 3.5845886915922165e-02 2.8512848541140556e-02 1.5179281122982502e-02 6.5039098262786865e-02 6.8055982701480389e-03 -2.5862343609333038e-02 2.8830964118242264e-02 3.8559526205062866e-02 -2.1695899777114391e-03 7.8508220613002777e-03 -4.6506389044225216e-03 1.7267398536205292e-02 4.8509766347706318e-03 -4.3400749564170837e-02 -1.0437358170747757e-02 -2.4048585444688797e-02 3.0965812504291534e-02 1.8870443105697632e-02 5.3386106155812740e-03 4.2810499668121338e-02 -1.7131034284830093e-02 2.2329635918140411e-02 2.0701771602034569e-02 -3.3488601446151733e-02 -4.2429482564330101e-03 6.9662877358496189e-03 4.2021232657134533e-03 -1.2396482750773430e-02 -5.3830123506486416e-03 4.4760365039110184e-02 -7.4347932823002338e-03 4.1638027876615524e-02 -1.1947224847972393e-02 -6.5531567670404911e-03 8.3111533895134926e-03 1.4213234186172485e-02 2.2527098190039396e-03 4.0159005671739578e-02 -3.8623118307441473e-03 4.7540441155433655e-02 -3.5889018326997757e-02 1.4618857763707638e-02 -2.7008211240172386e-02 -2.7384191751480103e-02 -6.5461304038763046e-03 3.3896297216415405e-02 -5.0927074626088142e-03 2.1260399371385574e-02 -4.4903275556862354e-04 2.4927688762545586e-02 1.6344292089343071e-02 4.8260387033224106e-02 4.9602068029344082e-03 4.1689027100801468e-02 -1.8818594515323639e-02 3.7428785115480423e-02 -1.5270870178937912e-02 -4.4864736497402191e-02 3.5036139190196991e-02 1.2572052888572216e-02 9.1410085558891296e-02 8.6782304570078850e-03 2.7189711108803749e-02 1.7299076542258263e-02 3.5160782281309366e-03 7.1872241795063019e-02 1.4820257201790810e-02 3.0421379487961531e-03 -3.2525006681680679e-02 -9.1094337403774261e-03 -7.5780455954372883e-03 -4.1057765483856201e-02 2.9953565448522568e-02 7.0526167750358582e-02 1.0000122711062431e-02 8.2752630114555359e-03 2.1755192428827286e-02 -1.1465371586382389e-02 9.1159688308835030e-03 -5.7932175695896149e-02 3.9499845355749130e-02 1.9371863454580307e-02 2.7188459411263466e-02 8.1714846193790436e-02 -9.3888174742460251e-03 6.4176465384662151e-03 -2.2143512964248657e-02 -3.0354281887412071e-02 3.1757995486259460e-02 -4.0350630879402161e-02 1.0190352797508240e-02 -4.1217889636754990e-02 -2.1484212949872017e-02 8.5811793804168701e-02 -2.5853870436549187e-02 1.9022783264517784e-02 2.3177936673164368e-03 -1.1171562364324927e-03 -3.0500734224915504e-02 3.9932418614625931e-02 3.4574229270219803e-02 -1.6113083809614182e-02 -8.5997646674513817e-03 6.1686139088124037e-04 -1.7328046262264252e-02 4.3893614783883095e-03 -3.4697316586971283e-02 -1.5567718073725700e-03 -3.2031379640102386e-02 6.2571279704570770e-02 5.5809069424867630e-02 9.0266315964981914e-04 -1.0919638443738222e-03 -1.5318480320274830e-02 1.9419517368078232e-02 -8.0652991309762001e-03 -7.3459316045045853e-03 4.7137653455138206e-03 -2.3599209263920784e-02 2.8133291751146317e-02 2.7684080414474010e-03 2.0728234201669693e-02 -8.7413564324378967e-03 2.5453066453337669e-02 5.3549695760011673e-02 3.1291522085666656e-02 -1.8135856837034225e-02 2.1190712228417397e-02 -9.0566510334610939e-03 2.2877113893628120e-02 5.1113762892782688e-03 -6.3162180595099926e-03 -1.2082318775355816e-02 -2.7374923229217529e-02 -1.8956114072352648e-03 2.0461123436689377e-02 -1.1989872902631760e-02 -1.5399560332298279e-02 -2.4771818891167641e-02 2.1484995260834694e-02 1.3362487778067589e-02 -2.6540780439972878e-02 -3.0137222260236740e-02 8.6955018341541290e-03 2.2069702390581369e-03 3.2207746058702469e-02 7.9910336062312126e-03 3.7101820111274719e-02 1.1842577718198299e-02 -4.4389214599505067e-04 6.9407967384904623e-04 4.2535485699772835e-03 3.3731192350387573e-02 -1.1771215358749032e-03 1.5423332341015339e-02 8.5171405225992203e-03 -3.3075656741857529e-02 3.6545123904943466e-02 -2.9301101341843605e-02 -3.0059501528739929e-02 -2.6299560442566872e-02 3.9599714800715446e-03 2.0074417814612389e-02 -1.0554508306086063e-02 -1.4825029298663139e-02 2.9724365100264549e-02 3.8484192918986082e-03 -1.0265244171023369e-02 2.1676006726920605e-03 7.9951211810112000e-03 -2.2208099253475666e-03 -1.3737314147874713e-03 -3.7270821630954742e-02 -4.4253724627196789e-03 1.2365842238068581e-02 7.6534822583198547e-03 -1.2669811025261879e-02 1.9638873636722565e-02 1.0463843122124672e-02 5.0918692722916603e-03 -2.1882859990000725e-02 7.1354792453348637e-04 -2.2014057263731956e-02 1.5183447394520044e-03 1.2652705423533916e-02 -1.9341064617037773e-02 1.0890722274780273e-02 2.2135658189654350e-02 -2.1766707301139832e-02 -1.8753005191683769e-02 -2.0554525777697563e-02 -2.6267949491739273e-02 -9.1594094410538673e-03 9.8113920539617538e-03 1.0906455107033253e-02 -9.4424188137054443e-03 -9.9895056337118149e-03 -1.9676705822348595e-02 1.0652063414454460e-02 4.3300641700625420e-03 1.6882881522178650e-02 -3.3609811216592789e-02 -2.5459615513682365e-02 -2.0035412162542343e-02 1.1524738743901253e-02 1.7729718238115311e-02 -2.7098419144749641e-02 -4.9466979689896107e-03 -9.9401157349348068e-03 -2.2097997367382050e-02 3.6409823223948479e-03 -2.5502067059278488e-02 -1.1453673243522644e-02 -2.9420902952551842e-02 -5.4698982276022434e-03 2.4540755897760391e-02 -7.0226006209850311e-03 7.1000293828547001e-03 -4.0551102720201015e-03 -2.2186130285263062e-02 3.4005794674158096e-02 -1.9603215157985687e-02 -2.4883816018700600e-02 -1.7982477322220802e-02 2.2985564544796944e-02 1.6073340550065041e-02 1.5085919760167599e-02 -3.4731801133602858e-03 1.3349833898246288e-02 2.3575802333652973e-03 -1.4268197119235992e-02 -3.1965103000402451e-02 -1.1273039504885674e-02 -1.7945844680070877e-02 2.1361097693443298e-02 4.6875467523932457e-03 -2.0004909485578537e-02 3.8162411656230688e-03 2.2014426067471504e-02 7.3735881596803665e-03 2.5739038828760386e-03 -3.6862306296825409e-03 -7.4427318759262562e-03 5.5921021848917007e-02 2.1135482937097549e-02 -1.3167963363230228e-02 3.7304881960153580e-02 5.2546352148056030e-02 2.0026115700602531e-02 -4.6295442734844983e-04 4.2081564664840698e-02 2.0155346021056175e-02 1.2162046507000923e-02 -8.9725218713283539e-03 -2.3097170051187277e-03 7.7761160209774971e-03 -5.0123866647481918e-02 2.9923865571618080e-02 2.9394289478659630e-02 -2.5444310158491135e-02 -3.7867855280637741e-02 5.6791018694639206e-02 -1.9936373457312584e-02 -5.7771813124418259e-02 1.5075306408107281e-02 -2.1864958107471466e-02 3.6055710166692734e-02 2.1259592846035957e-02 -1.3251742348074913e-02 2.0357477478682995e-03 2.0073948428034782e-02 -1.7137205228209496e-02 -3.5917911678552628e-02 1.5924341976642609e-02 1.0838694870471954e-02 3.6268206313252449e-03 2.2596994414925575e-02 1.0248146019876003e-02 -4.2503662407398224e-03 -4.2069624178111553e-03 -2.7905791997909546e-02 -1.0268660262227058e-02 -1.5636377036571503e-02 -3.8123872131109238e-02 1.1747898533940315e-02 1.3548259623348713e-02 -7.0422845892608166e-03 -5.2326139062643051e-02 -4.4622670859098434e-02 -8.1981997936964035e-03 1.2503704056143761e-02 1.0821453761309385e-03 5.8481644373387098e-04 -1.0671299882233143e-02 -1.6276665031909943e-02 -4.2005153372883797e-03 2.7523497119545937e-02 -2.5445591658353806e-02 1.6655461862683296e-02 -1.7712030559778214e-02 1.5643272548913956e-02 4.4933371245861053e-02 1.4754789881408215e-02 -6.9206259213387966e-03 9.7156623378396034e-03 -3.5089170560240746e-03 -1.5037577832117677e-03 2.2146381437778473e-02 -1.4241412281990051e-03 2.6001144200563431e-02 2.9378838837146759e-02 2.8472028672695160e-02 3.1638164073228836e-03 -6.0818053781986237e-02 2.0754516590386629e-03 -3.3933322411030531e-03 -7.6868557371199131e-03 -1.8623217940330505e-02 1.9397870637476444e-03 5.7592574506998062e-02 -4.9781285226345062e-02 -2.0051004365086555e-02 5.7594947516918182e-02 -9.3455590307712555e-02 -1.7512872815132141e-02 5.8182846754789352e-02 -3.1496193259954453e-03 -3.7725709378719330e-02 -1.6152942553162575e-02 1.0434715077280998e-02 4.4092010706663132e-02 2.3051558062434196e-02 1.4743865467607975e-02 5.4042334668338299e-03 3.7245187908411026e-02 -8.1591783091425896e-03 -4.2734216898679733e-02 -7.0385313592851162e-03 2.7935322374105453e-02 2.6769000105559826e-03 3.6552038043737411e-02 -1.3477716129273176e-03 -4.3811653740704060e-03 1.3344690203666687e-02 -3.0930271372199059e-02 2.7372524142265320e-02 -2.1122505422681570e-03 -8.3645105361938477e-02 -3.3875823020935059e-02 1.6014071181416512e-02 6.7088962532579899e-03 -7.6734215021133423e-02 -4.6481762081384659e-02 5.8407490141689777e-03 2.4781640619039536e-02 -4.8259194009006023e-03 7.5089093297719955e-03 -8.1566013395786285e-03 -3.2628919929265976e-02 -9.5919789746403694e-03 3.6226030439138412e-02 5.8160461485385895e-03 -2.7945190668106079e-02 3.6896485835313797e-02 -2.6659078430384398e-03 5.6401588022708893e-02 1.7781950533390045e-02 5.3230375051498413e-02 6.0780751518905163e-03 -9.3087553977966309e-03 -1.7802586778998375e-02 -2.5717975571751595e-02 2.0829562097787857e-02 -1.4346324838697910e-02 5.2199815399944782e-03 -3.7330988794565201e-02 -1.6899950802326202e-02 1.5972316265106201e-02 1.0228337720036507e-02 1.3590778224170208e-02 3.4568328410387039e-02 3.5657640546560287e-02 1.2676329351961613e-02 -2.2629026323556900e-02 2.3764375597238541e-02 -5.2723581902682781e-03 -3.9320316165685654e-02 4.1556555777788162e-02 1.3007274828851223e-03 -1.6292886808514595e-02 1.4739813283085823e-02 1.5090106986463070e-02 -1.4586895122192800e-04 1.2755490839481354e-02 -2.8025299310684204e-02 -6.5875253640115261e-03 3.2280325889587402e-02 -2.7902025729417801e-02 -2.7830537408590317e-02 -3.3158719539642334e-02 -8.0298893153667450e-03 -5.3314855322241783e-03 -4.1773386299610138e-02 -1.9497746601700783e-02 -3.5631456412374973e-03 1.3100183568894863e-02 4.4982377439737320e-03 -3.6157216876745224e-02 6.7087903153151274e-04 -2.0689353346824646e-02 2.7184991165995598e-02 5.3222164511680603e-02 -9.8892860114574432e-03 3.4449093043804169e-02 -2.8176966588944197e-03 2.6320470497012138e-02 2.5217051152139902e-03 2.0891247317194939e-02 -1.4051469974219799e-02 3.2005362212657928e-02 1.7538091167807579e-02 1.5331055968999863e-02 1.4363715425133705e-02 3.3842612057924271e-02 -2.2800756618380547e-02 -2.7594741433858871e-02 -1.3506995746865869e-03 -1.5707407146692276e-02 -2.7765614911913872e-02 1.3598377117887139e-03 -1.2364087626338005e-02 -7.6687876135110855e-03 2.6405457174405456e-04 -2.6042622048407793e-03 -1.3038454577326775e-02 -3.9199907332658768e-02 2.4168053641915321e-03 -5.2042130380868912e-02 -2.5343384593725204e-02 -5.8587197214365005e-02 4.2592640966176987e-02 3.4614909440279007e-02 -4.0092654526233673e-02 1.2543176300823689e-02 -7.4375748634338379e-02 -4.2830321937799454e-02 -5.9465460479259491e-02 -1.0929984971880913e-02 -1.3585573062300682e-02 -8.7976984679698944e-02 -5.8916453272104263e-02 -2.1734116598963737e-03 4.5822594314813614e-02 -2.9182756319642067e-02 4.2860214598476887e-03 7.7942558564245701e-03 -3.2945312559604645e-03 -4.8408210277557373e-02 6.6745956428349018e-03 -5.4213326424360275e-02 -7.4912175536155701e-02 1.1633497197180986e-03 8.7427664548158646e-03 1.0685217380523682e-01 1.0552926920354366e-02 -4.3071027845144272e-02 -4.3839514255523682e-02 -7.1441553533077240e-02 -6.2609966844320297e-03 3.1076868996024132e-02 1.8633071333169937e-02 -2.1507565397769213e-03 -5.3733628243207932e-02 3.9321601390838623e-02 -9.8458183929324150e-03 2.0807096734642982e-02 6.3322015106678009e-02 -1.0867687314748764e-01 -5.1846411079168320e-03 3.7426978349685669e-02 3.6625888198614120e-02 3.7389382719993591e-02 3.6168854683637619e-02 -8.2631841301918030e-02 2.0275089889764786e-02 8.3398874849081039e-03 2.7201261371374130e-02 -2.3874325677752495e-02 2.2705396637320518e-02 1.9165126606822014e-02 1.9040472805500031e-02 1.1294919066131115e-02 3.1021390110254288e-02 -8.0828890204429626e-02 -5.9124413877725601e-02 -1.4168603345751762e-02 2.9316874220967293e-02 -5.9242751449346542e-03 8.0375457182526588e-03 1.0614125989377499e-02 8.5359215736389160e-03 -1.6766883432865143e-02 2.3230120539665222e-02 1.6541510820388794e-02 5.8161555789411068e-03 -1.8714293837547302e-02 -3.3325448632240295e-02 -7.4480571784079075e-03 2.0827736705541611e-02 3.2082986086606979e-02 -1.9648922607302666e-02 -6.3563324511051178e-04 3.3184434287250042e-03 -1.5879575163125992e-02 -2.4630172178149223e-02 1.8118813633918762e-02 3.2825846225023270e-02 -3.2778733875602484e-03 -2.4426348507404327e-02 7.6296222396194935e-03 -2.1356623619794846e-02 2.2724354639649391e-02 -3.2829973846673965e-02 1.3821210712194443e-02 1.5352954156696796e-02 -7.3069278150796890e-03 8.3215385675430298e-03 7.7246706932783127e-03 -8.2413470372557640e-03 -1.4268815517425537e-02 4.5716073364019394e-03 1.8660126253962517e-02 -1.0824325494468212e-02 -5.8565945364534855e-03 -1.5518263913691044e-02 1.3552255928516388e-02 1.4453937183134258e-04 1.1121452786028385e-02 2.3035436868667603e-02 2.0582476630806923e-02 2.3879550397396088e-02 -2.2012699395418167e-02 -2.2705378010869026e-02 1.5242254361510277e-02 3.5249311476945877e-02 -1.5310026705265045e-02 1.3439006172120571e-02 2.3942764848470688e-02 6.7547163926064968e-03 3.3680617809295654e-02 -2.7295311912894249e-02 -2.6880208402872086e-02 -2.9135722666978836e-02 -9.7214980050921440e-03 -2.0048543810844421e-02 -1.7549563199281693e-02 1.4696986414492130e-02 1.2783415615558624e-02 2.5898883119225502e-02 1.0672386735677719e-02 -4.5450776815414429e-03 8.8492203503847122e-03 -2.9343800619244576e-02 -3.6773720057681203e-04 2.5615207850933075e-02 -6.3040526583790779e-03 -6.7009478807449341e-03 -1.5891714021563530e-02 -2.1422293037176132e-02 4.5557852834463120e-02 -3.1744450330734253e-02 -3.4504630602896214e-03 2.5446310639381409e-02 4.4724240899085999e-02 6.3725402578711510e-03 -4.8412427306175232e-02 1.3978493399918079e-02 2.1951831877231598e-02 -1.9923878833651543e-02 9.2794010415673256e-03 -6.8961298093199730e-03 -4.9210362136363983e-02 2.2522140294313431e-02 9.4592217355966568e-03 2.1219644695520401e-02 -2.2590006701648235e-03 -2.9220003634691238e-02 -3.1463749706745148e-02 1.6878351569175720e-02 8.4910094738006592e-03 -7.6210014522075653e-03 8.7486543634440750e-05 1.0399483144283295e-02 -1.5517435967922211e-02 -3.3570270985364914e-02 -4.8190183937549591e-02 -3.0167335644364357e-02 -2.6818044483661652e-02 1.5790695324540138e-02 2.1426381543278694e-02 2.8594001196324825e-03 -3.1552515923976898e-02 -1.0088435374200344e-02 6.1173412948846817e-02 3.8906097412109375e-02 9.5611121505498886e-03 -7.0380931720137596e-03 5.6062180548906326e-02 -9.0416446328163147e-03 2.2178744897246361e-02 1.2797211296856403e-02 -1.4225731603801250e-02 -2.1812835708260536e-02 3.5478230565786362e-02 -9.8730809986591339e-03 9.3164620921015739e-03 -3.7742841988801956e-02 1.7431309446692467e-02 1.9575390964746475e-02 4.5531714567914605e-04 -1.8989425152540207e-02 -4.3289750814437866e-02 -2.1432809531688690e-02 -8.3415815606713295e-03 -3.2423152588307858e-03 7.5663416646420956e-03 2.9479290824383497e-03 -2.5098111946135759e-03 2.8107021003961563e-02 2.4843273684382439e-02 2.9904933646321297e-02 -3.6819761153310537e-03 2.3569755256175995e-02 -1.7105389852076769e-03 5.0214049406349659e-04 -1.4591949991881847e-02 6.2329915817826986e-04 -1.8363071605563164e-02 -4.6281544491648674e-03 1.4407353475689888e-02 -3.7121366709470749e-02 1.6679152846336365e-02 3.9598196744918823e-02 -3.1276181340217590e-02 -2.3550521582365036e-02 -7.0802215486764908e-04 -2.9616700485348701e-02 -2.0410981029272079e-02 -5.8085848577320576e-03 -1.5934413298964500e-02 2.4175122380256653e-02 2.5390161201357841e-02 -3.0848383903503418e-03 1.3237272389233112e-02 -2.3578582331538200e-02 -3.8382280617952347e-02 2.5296250358223915e-02 3.3217079937458038e-02 -4.5080361887812614e-03 9.6333269029855728e-03 -7.1057472378015518e-03 -3.2912313938140869e-02 -1.9973593298345804e-03 -1.2348672375082970e-02 -1.9287722185254097e-02 1.8255272880196571e-02 1.2827508151531219e-02 -2.3956192657351494e-02 4.3390365317463875e-03 5.2331008017063141e-02 -3.4568067640066147e-03 8.2215917063876987e-04 -2.6120979338884354e-02 -9.3724876642227173e-03 2.3746326565742493e-02 3.8014970719814301e-02 1.3483740389347076e-02 -9.0687815099954605e-03 -6.5728640183806419e-03 2.7757490053772926e-02 2.0820612553507090e-03 2.3412629961967468e-02 -1.7269959673285484e-02 -2.0060284063220024e-02 2.4054130539298058e-02 -1.4944659778848290e-03 1.3167067663744092e-04 2.5603368878364563e-02 -1.1414064094424248e-02 1.6810437664389610e-02 1.5992997214198112e-02 -3.1231714412570000e-02 -3.5339921712875366e-02 1.4671954326331615e-02 5.2313711494207382e-03 -1.6171216964721680e-02 -4.6687629073858261e-02 3.0749277211725712e-03 -1.7683589830994606e-02 -1.0500093922019005e-02 1.5158271417021751e-02 4.0084041655063629e-02 1.5125067904591560e-02 -4.0205784142017365e-02 3.7072584033012390e-02 2.9425639659166336e-02 -2.9881084337830544e-02 6.8843722343444824e-02 2.4347940459847450e-02 -6.1038002371788025e-02 -2.6793919503688812e-02 2.7823163196444511e-02 5.4481443949043751e-03 2.6939993724226952e-02 -3.5256229341030121e-02 -1.8519755452871323e-02 1.3962808996438980e-02 -4.2293183505535126e-02 -2.6819195598363876e-02 -5.0094705075025558e-02 8.4931735182181001e-04 2.6263944804668427e-02 -7.3954053223133087e-03 -8.2271248102188110e-03 -3.0288679525256157e-02 -2.6058709248900414e-02 3.3882047981023788e-02 -3.1806949526071548e-02 2.5796875357627869e-02 -1.2341899797320366e-02 1.4004994183778763e-02 2.3082427680492401e-02 -8.8487872853875160e-03 2.8739864006638527e-02 5.1523661240935326e-03 5.8529660105705261e-02 4.7475531697273254e-02 -1.7435261979699135e-02 -1.6110502183437347e-02 4.5098003000020981e-02 -2.5465480983257294e-02 3.1565118581056595e-02 3.8174707442522049e-02 4.6643901616334915e-02 -4.0727149695158005e-02 -5.4720379412174225e-03 -2.2435517981648445e-02 -3.5026028752326965e-02 -1.1051418259739876e-02 -2.5107674300670624e-02 4.5247670263051987e-02 -5.4599877446889877e-02 1.1891132220625877e-02 6.7301155067980289e-03 3.0439395457506180e-02 1.4516918919980526e-02 1.2875642627477646e-02 5.9476945549249649e-02 -1.2165771797299385e-02 -1.8952993676066399e-02 4.4865394011139870e-03 4.9605779349803925e-03 5.7264412753283978e-03 -3.0860919505357742e-02 5.6955985724925995e-02 5.0956025719642639e-02 -1.8934527179226279e-03 -7.5051477178931236e-03 3.5173378884792328e-02 2.2822890430688858e-02 -8.9857438579201698e-03 3.4568417817354202e-02 6.3228653743863106e-03 -4.2218249291181564e-02 -1.4798386022448540e-02 4.1133191436529160e-02 2.9895707964897156e-02 2.9381791129708290e-02 1.8673367798328400e-02 1.7537839710712433e-02 7.2550601325929165e-03 -5.0013461150228977e-03 -6.4027435146272182e-03 -7.1498095989227295e-02 1.1728996410965919e-02 3.7182688713073730e-02 -3.3775594085454941e-02 5.1231570541858673e-02 -2.7432965114712715e-02 -3.8232691586017609e-02 -6.7452550865709782e-03 -1.9748209044337273e-02 4.7368399798870087e-02 1.1019201017916203e-02 -1.3658124022185802e-02 2.2545212879776955e-02 -1.5809172764420509e-02 5.7503174990415573e-02 -2.4315051268786192e-03 -3.4945837687700987e-03 -9.0418104082345963e-03 -2.0376384258270264e-02 -3.8617782294750214e-02 2.4993764236569405e-02 1.9312940537929535e-02 2.0707633346319199e-02 1.5242844820022583e-02 1.5443395823240280e-02 -2.9269000515341759e-02 7.6919412240386009e-03 -9.6723493188619614e-03 -9.2319780960679054e-03 -4.3679591268301010e-02 4.2743936181068420e-02 5.9077225625514984e-02 -4.0242549031972885e-02 -1.6165168955922127e-02 -5.6695251259952784e-04 6.2153786420822144e-03 -2.8739333152770996e-02 5.7746875099837780e-03 -3.8389168679714203e-02 2.7524584904313087e-02 6.1171357519924641e-03 2.9419962316751480e-02 1.5219874680042267e-02 -9.3634221702814102e-03 2.4656690657138824e-02 -5.6666661985218525e-03 1.0868459939956665e-02 2.2028215229511261e-02 3.6799341440200806e-02 4.7664484009146690e-03 4.3631452135741711e-03 6.8430062383413315e-03 -3.4588411450386047e-02 2.4149157106876373e-02 1.0630377568304539e-02 -2.5694362819194794e-02 -1.1102128773927689e-02 -1.3758588582277298e-02 1.8831754103302956e-02 -7.5900992378592491e-03 -1.5158095397055149e-02 -1.9003048539161682e-02 1.1804322712123394e-02 1.1851955205202103e-02 1.5915069961920381e-03 2.2003719583153725e-02 2.1187823265790939e-02 2.0043889060616493e-02 -1.7588367685675621e-02 3.6646161228418350e-02 7.9464158043265343e-03 -3.1949039548635483e-03 -1.3233515433967113e-02 -2.1553708240389824e-02 -2.6033872272819281e-03 2.1886600181460381e-02 1.5157002024352551e-02 1.4955674996599555e-03 -3.7183113396167755e-02 6.4792172051966190e-03 1.5196525491774082e-02 4.2032087221741676e-03 1.5904856845736504e-02 2.0839100703597069e-02 1.1249118484556675e-02 2.1666934713721275e-02 -1.6802778467535973e-02 2.2060595452785492e-02 -1.2756660580635071e-02 2.4342264980077744e-02 3.1563695520162582e-02 6.5849372185766697e-03 2.5808075442910194e-02 -1.6212994232773781e-02 -1.5875848010182381e-02 3.9486740715801716e-03 2.0249184221029282e-02 3.0170977115631104e-02 -2.5050478056073189e-02 2.1453794091939926e-02 1.7577795311808586e-02 -2.7603862807154655e-02 1.3450659811496735e-02 1.6423476859927177e-02 -6.0914186760783195e-03 -1.0442655533552170e-02 -2.4477241560816765e-02 2.2254114970564842e-02 -1.5483598224818707e-02 3.5259786993265152e-02 -2.9886616393923759e-03 -9.7335651516914368e-03 2.8179015964269638e-02 -1.1383946985006332e-02 2.3617019876837730e-02 -3.3677846658974886e-03 -3.2075058668851852e-02 -3.7725169211626053e-02 3.1115032732486725e-02 8.4727061912417412e-03 8.2524577155709267e-03 -1.0323117487132549e-02 -7.8396908938884735e-03 3.7425201386213303e-02 3.3091280609369278e-02 2.7468621265143156e-03 2.8611781075596809e-02 1.3627028092741966e-02 -7.4914292781613767e-05 -2.5480019394308329e-03 -9.4416122883558273e-03 3.2562904059886932e-02 -4.7728358767926693e-03 1.7205661162734032e-02 -2.5120504200458527e-02 -2.4176221340894699e-02 -1.7802100628614426e-02 5.7148528285324574e-03 -2.9320137575268745e-02 1.9529229030013084e-02 1.1007913388311863e-02 -3.8292587851174176e-04 2.7829617261886597e-02 3.0849151313304901e-02 -1.8198911100625992e-02 -3.1368460506200790e-02 -3.1543364748358727e-03 -3.1110486015677452e-02 1.8441151827573776e-02 -2.2891692817211151e-02 1.1349481530487537e-02 -6.9968802854418755e-03 -1.0394732467830181e-02 -2.7317635249346495e-03 6.7173899151384830e-03 -1.5850728377699852e-02 2.8504822403192520e-03 9.0700769796967506e-03 2.7441220358014107e-02 2.3781418800354004e-02 2.9995201155543327e-02 2.0699208602309227e-02 5.2380547858774662e-03 2.8409884544089437e-04 1.8961051478981972e-02 -3.8281991146504879e-04 -1.7897982150316238e-02 -2.0939821377396584e-02 -3.4333750605583191e-02 8.6487308144569397e-03 -5.8902695309370756e-04 1.9956152886152267e-02 1.5291544608771801e-02 -4.3944086879491806e-02 1.1947770603001118e-02 -4.0384400635957718e-02 1.8744898959994316e-02 -2.1263122558593750e-02 -3.5802196711301804e-02 -5.4525323212146759e-03 -3.2905209809541702e-02 1.0414204560220242e-02 2.3956079035997391e-02 8.4970816969871521e-03 7.3785823769867420e-03 1.6050739213824272e-02 6.8439487367868423e-03 -2.1735349670052528e-02 -3.1546682119369507e-02 -3.8056924939155579e-02 2.9355589300394058e-02 -3.5041992086917162e-03 2.4228770285844803e-02 -1.9259160384535789e-02 1.0198169387876987e-02 -1.1228001676499844e-03 -1.7162278294563293e-02 6.3714520074427128e-03 1.5855284407734871e-02 -1.8129913136363029e-02 9.1866943985223770e-03 -3.9785224944353104e-02 -1.7466798424720764e-02 9.1054599033668637e-04 -1.5872851945459843e-03 1.3853257521986961e-02 -5.7502109557390213e-02 -1.4946332201361656e-02 -1.2952082790434361e-02 -1.0732226073741913e-02 3.1740073114633560e-02 -9.3644149601459503e-03 6.6446578130125999e-03 2.4691633880138397e-02 -1.4773946255445480e-02 1.7427394166588783e-02 -1.1817134218290448e-03 -1.2343991547822952e-02 -1.9189959391951561e-02 -1.4082107692956924e-02 -2.5812029838562012e-02 2.3361854255199432e-03 -3.8070159498602152e-03 -3.8968589156866074e-02 -9.0386001393198967e-03 -2.1491477265954018e-02 1.5853838995099068e-02 2.0017700735479593e-03 4.3171167373657227e-02 -8.2805063575506210e-03 1.0382690280675888e-01 -3.2945618033409119e-02 3.5844285041093826e-02 -1.1480264365673065e-02 -2.7620645239949226e-02 4.3231748044490814e-02 3.0562744941562414e-03 1.3569104671478271e-01 2.1363239735364914e-02 5.9105277061462402e-02 -1.0402604937553406e-02 6.8227276206016541e-03 9.2022269964218140e-02 6.7465670406818390e-02 6.1541825532913208e-02 -2.9708849266171455e-02 5.1900409162044525e-03 2.5845557451248169e-02 -2.7137247845530510e-02 7.8995311632752419e-03 8.1806324422359467e-02 1.4976549893617630e-02 1.7063980922102928e-02 7.2409898042678833e-02 1.0081885382533073e-02 -1.3710517436265945e-02 -8.8966973125934601e-02 4.0988840162754059e-02 2.5015741586685181e-02 3.0861135572195053e-02 9.8108679056167603e-02 -5.3984388709068298e-02 -2.2418711334466934e-02 -3.3532872796058655e-02 -3.2483041286468506e-02 5.4222092032432556e-02 -1.4244955964386463e-02 -3.8580831140279770e-02 -3.7128657102584839e-02 -5.5212851613759995e-02 1.1456457525491714e-01 1.7250956967473030e-02 1.2833888642489910e-02 -2.9595993459224701e-02 -1.2254141271114349e-02 1.4331194572150707e-02 7.1716926991939545e-02 -6.4898896962404251e-03 2.1369671449065208e-03 1.3859146274626255e-02 3.3803295344114304e-02 -5.4644420742988586e-02 -2.7968402951955795e-02 -3.5379592329263687e-02 -3.7910945713520050e-02 -5.5188842117786407e-02 7.9483479261398315e-02 3.5017613321542740e-02 6.7754331976175308e-03 5.8505907654762268e-03 2.4743970483541489e-02 5.4530287161469460e-03 -7.0216931402683258e-02 2.1236516535282135e-02 -8.6747899651527405e-02 -2.6300086174160242e-03 -4.3102279305458069e-02 2.4916185066103935e-02 5.8395862579345703e-02 -3.6443009972572327e-02 -8.6279585957527161e-04 -1.4184202253818512e-01 -1.9478345289826393e-02 -7.1249350905418396e-02 -2.0974971354007721e-02 5.5351499468088150e-02 -5.9824410825967789e-02 -7.4267737567424774e-02 -1.4233354479074478e-02 1.9320454448461533e-02 -7.9774335026741028e-03 1.1709148529917002e-03 2.8527708724141121e-02 1.3794887345284224e-03 -7.4326850473880768e-02 -3.5289995372295380e-02 -3.2554525882005692e-02 -8.4199048578739166e-02 -2.2568661719560623e-02 -1.8903251737356186e-02 1.3115556538105011e-01 -2.7991073206067085e-02 -4.0990527719259262e-02 6.5207527950406075e-03 -1.3985042273998260e-01 -1.6256697475910187e-02 5.2730344235897064e-02 2.6215985417366028e-02 4.8107915790751576e-04 -3.2924260944128036e-02 4.2129289358854294e-02 5.3824078291654587e-02 4.2109865695238113e-02 1.0190556198358536e-01 -1.7047600448131561e-01 -2.5067746639251709e-02 2.4224556982517242e-02 4.6899393200874329e-03 4.2504329234361649e-02 3.6296866834163666e-02 -5.4389014840126038e-02 -1.6298020258545876e-02 5.2802689373493195e-02 2.1619757171720266e-04 -2.2360876202583313e-02 1.1475631967186928e-02 6.3405195251107216e-03 4.1053663939237595e-02 9.6919313073158264e-03 4.2034573853015900e-02 -1.0392978042364120e-01 -6.6901206970214844e-02 -4.3710470199584961e-02 4.2912242934107780e-03 -1.7544634640216827e-02 2.3024834692478180e-02 