<?xml version="1.0"?>
<MethodSetup Method="DNN::DNN">
  <GeneralInfo>
    <Info name="TMVA Release" value="4.2.1 [262657]"/>
    <Info name="ROOT Release" value="6.12/07 [396295]"/>
    <Info name="Creator" value="apettit"/>
    <Info name="Date" value="Thu May 20 08:38:01 2021"/>
    <Info name="Host" value="Linux cmsbuild06.cern.ch 3.10.0-1062.9.1.el7.x86_64 #1 SMP Fri Dec 6 15:49:49 UTC 2019 x86_64 x86_64 x86_64 GNU/Linux"/>
    <Info name="Dir" value="/home/apettit/UROP/BHAD/May"/>
    <Info name="Training events" value="5014"/>
    <Info name="TrainingTime" value="9.70517399e+01"/>
    <Info name="AnalysisType" value="Multiclass"/>
  </GeneralInfo>
  <Options>
    <Option name="V" modified="Yes">True</Option>
    <Option name="VerbosityLevel" modified="No">Verbose</Option>
    <Option name="VarTransform" modified="Yes">N</Option>
    <Option name="H" modified="Yes">False</Option>
    <Option name="CreateMVAPdfs" modified="No">False</Option>
    <Option name="IgnoreNegWeightsInTraining" modified="No">False</Option>
    <Option name="Layout" modified="Yes">TANH|128,RELU|128,SIGMOID|128,LINEAR</Option>
    <Option name="ValidationSize" modified="No">20%</Option>
    <Option name="ErrorStrategy" modified="Yes">MUTUALEXCLUSIVE</Option>
    <Option name="WeightInitialization" modified="Yes">XAVIERUNIFORM</Option>
    <Option name="Architecture" modified="Yes">CPU</Option>
    <Option name="TrainingStrategy" modified="Yes">LearningRate=1e-3,Momentum=0.9,Repetitions=1,ConvergenceSteps=100,BatchSize=50,TestRepetitions=10,WeightDecay=1e-4,Regularization=L2,DropConfig=0.0+0.5+0.5+0.5,</Option>
  </Options>
  <Variables NVar="6">
    <Variable VarIndex="0" Expression="varMjj" Label="varMjj" Title="varMjj" Unit="" Internal="varMjj" Type="F" Min="5.00212372e+02" Max="6.56720557e+03"/>
    <Variable VarIndex="1" Expression="varJet2Pt" Label="varJet2Pt" Title="varJet2Pt" Unit="" Internal="varJet2Pt" Type="F" Min="3.00000000e+01" Max="7.61500000e+02"/>
    <Variable VarIndex="2" Expression="varPTV1" Label="varPTV1" Title="varPTV1" Unit="" Internal="varPTV1" Type="F" Min="2.50000000e+02" Max="1.79800000e+03"/>
    <Variable VarIndex="3" Expression="varnormPTVVjj" Label="varnormPTVVjj" Title="varnormPTVVjj" Unit="" Internal="varnormPTVVjj" Type="F" Min="9.14252189e-04" Max="9.13397312e-01"/>
    <Variable VarIndex="4" Expression="bosV2discr" Label="bosV2discr" Title="bosV2discr" Unit="" Internal="bosV2discr" Type="F" Min="7.00038671e-01" Max="9.94729400e-01"/>
    <Variable VarIndex="5" Expression="NBJets" Label="NBJets" Title="NBJets" Unit="" Internal="NBJets" Type="F" Min="0.00000000e+00" Max="3.00000000e+00"/>
  </Variables>
  <Spectators NSpec="0"/>
  <Classes NClass="3">
    <Class Name="WZewk" Index="0"/>
    <Class Name="WZqcd" Index="1"/>
    <Class Name="bkg" Index="2"/>
  </Classes>
  <Transformations NTransformations="1">
    <Transform Name="Normalize">
      <Selection>
        <Input NInputs="6">
          <Input Type="Variable" Label="varMjj" Expression="varMjj"/>
          <Input Type="Variable" Label="varJet2Pt" Expression="varJet2Pt"/>
          <Input Type="Variable" Label="varPTV1" Expression="varPTV1"/>
          <Input Type="Variable" Label="varnormPTVVjj" Expression="varnormPTVVjj"/>
          <Input Type="Variable" Label="bosV2discr" Expression="bosV2discr"/>
          <Input Type="Variable" Label="NBJets" Expression="NBJets"/>
        </Input>
        <Output NOutputs="6">
          <Output Type="Variable" Label="varMjj" Expression="varMjj"/>
          <Output Type="Variable" Label="varJet2Pt" Expression="varJet2Pt"/>
          <Output Type="Variable" Label="varPTV1" Expression="varPTV1"/>
          <Output Type="Variable" Label="varnormPTVVjj" Expression="varnormPTVVjj"/>
          <Output Type="Variable" Label="bosV2discr" Expression="bosV2discr"/>
          <Output Type="Variable" Label="NBJets" Expression="NBJets"/>
        </Output>
      </Selection>
      <Class ClassIndex="0">
        <Ranges>
          <Range Index="0" Min="5.0094879150390625e+02" Max="6.5672055664062500e+03"/>
          <Range Index="1" Min="3.0000000000000000e+01" Max="7.6150000000000000e+02"/>
          <Range Index="2" Min="2.5000000000000000e+02" Max="1.2420000000000000e+03"/>
          <Range Index="3" Min="1.0238491231575608e-03" Max="7.0108270645141602e-01"/>
          <Range Index="4" Min="7.0005786418914795e-01" Max="9.9472939968109131e-01"/>
          <Range Index="5" Min="0.0000000000000000e+00" Max="3.0000000000000000e+00"/>
        </Ranges>
      </Class>
      <Class ClassIndex="1">
        <Ranges>
          <Range Index="0" Min="5.0029931640625000e+02" Max="5.3831533203125000e+03"/>
          <Range Index="1" Min="3.0234375000000000e+01" Max="4.3700000000000000e+02"/>
          <Range Index="2" Min="2.5037500000000000e+02" Max="8.8900000000000000e+02"/>
          <Range Index="3" Min="4.6699647791683674e-03" Max="6.5261381864547729e-01"/>
          <Range Index="4" Min="7.0069283246994019e-01" Max="9.8138171434402466e-01"/>
          <Range Index="5" Min="0.0000000000000000e+00" Max="2.0000000000000000e+00"/>
        </Ranges>
      </Class>
      <Class ClassIndex="2">
        <Ranges>
          <Range Index="0" Min="5.0021237182617188e+02" Max="5.7731313476562500e+03"/>
          <Range Index="1" Min="3.0000000000000000e+01" Max="6.5550000000000000e+02"/>
          <Range Index="2" Min="2.5037500000000000e+02" Max="1.7980000000000000e+03"/>
          <Range Index="3" Min="9.1425218852236867e-04" Max="9.1339731216430664e-01"/>
          <Range Index="4" Min="7.0003867149353027e-01" Max="9.9445724487304688e-01"/>
          <Range Index="5" Min="0.0000000000000000e+00" Max="3.0000000000000000e+00"/>
        </Ranges>
      </Class>
      <Class ClassIndex="3">
        <Ranges>
          <Range Index="0" Min="5.0021237182617188e+02" Max="6.5672055664062500e+03"/>
          <Range Index="1" Min="3.0000000000000000e+01" Max="7.6150000000000000e+02"/>
          <Range Index="2" Min="2.5000000000000000e+02" Max="1.7980000000000000e+03"/>
          <Range Index="3" Min="9.1425218852236867e-04" Max="9.1339731216430664e-01"/>
          <Range Index="4" Min="7.0003867149353027e-01" Max="9.9472939968109131e-01"/>
          <Range Index="5" Min="0.0000000000000000e+00" Max="3.0000000000000000e+00"/>
        </Ranges>
      </Class>
    </Transform>
  </Transformations>
  <MVAPdfs/>
  <Weights InputWidth="6" Depth="4" LossFunction="S" OutputFunction="M">
    <Layer ActivationFunction="3">
      <Weights rows="128" cols="6">
        6.2804818153381348e-02 3.5685440897941589e-01 -6.2620127201080322e-01 5.3098838776350021e-02 -2.2274057846516371e-03 4.5402711257338524e-03 -8.3590753376483917e-02 1.6449266672134399e-01 -1.3475213944911957e-01 7.0552609860897064e-02 -5.7779377698898315e-01 -4.7083014249801636e-01 -2.3116075992584229e-01 -1.2017732858657837e-01 -8.2282856106758118e-02 -5.0277507305145264e-01 -4.6220472455024719e-01 -2.2216310724616051e-02 -3.1524568796157837e-01 1.5423423051834106e-01 -3.9090952277183533e-01 -3.4522378444671631e-01 2.0602132380008698e-01 3.3990421891212463e-01 1.7142795026302338e-01 2.7461733669042587e-02 1.8473811447620392e-01 2.6349747180938721e-01 1.2215563654899597e-01 2.2818756103515625e-01 9.9817730486392975e-02 4.1931447386741638e-01 -4.9062398076057434e-01 -1.0798969864845276e-01 2.7343061566352844e-01 7.9020299017429352e-03 5.5359381437301636e-01 6.5252862870693207e-02 -2.0019952952861786e-01 1.2864476442337036e-01 4.9348235130310059e-01 -1.5518678724765778e-01 -5.5958342552185059e-01 -4.8550775647163391e-01 6.8420529365539551e-01 4.8579087853431702e-01 1.0067321360111237e-01 -3.5399985313415527e-01 -4.8202145099639893e-01 3.3966988325119019e-01 2.5955551862716675e-01 -4.6902552247047424e-01 2.0908099412918091e-01 5.5030095577239990e-01 3.0108615756034851e-01 5.4146164655685425e-01 -5.4060590267181396e-01 2.7602887153625488e-01 -4.0614476799964905e-01 2.4702101945877075e-01 3.2757791876792908e-01 -3.7122991681098938e-01 -4.3178173899650574e-01 3.5715028643608093e-01 5.4723832756280899e-02 3.6622610688209534e-01 -9.2567518353462219e-02 4.7069498896598816e-01 -4.8996067047119141e-01 3.2258293032646179e-01 -5.0516372919082642e-01 6.3969767093658447e-01 7.8856311738491058e-02 2.3040378093719482e-01 2.8179556131362915e-01 1.8918994069099426e-01 2.4061474204063416e-01 8.3832077682018280e-02 3.9988011121749878e-01 -4.8229432106018066e-01 2.0727092027664185e-01 -3.3510938286781311e-01 4.3219503760337830e-01 1.1661948263645172e-01 -2.1143533289432526e-01 3.8865447044372559e-01 4.4657227396965027e-01 -2.6534211635589600e-01 -1.3525099493563175e-02 4.5011055469512939e-01 2.3840671777725220e-01 5.9472256898880005e-01 -6.3906508684158325e-01 4.2103384621441364e-03 -4.3019303679466248e-01 -1.5521799027919769e-01 2.1080764010548592e-02 -3.9402729272842407e-01 -9.5852315425872803e-02 -4.4557967782020569e-01 -1.3861876726150513e-01 -3.3502422273159027e-02 2.6624286174774170e-01 4.5878684520721436e-01 4.2965033650398254e-01 -4.3882071971893311e-01 -3.6587634682655334e-01 3.2635462284088135e-01 5.6091022491455078e-01 -4.7138068079948425e-01 -8.7653070688247681e-02 5.4489545524120331e-02 1.5574994683265686e-01 -1.6644836962223053e-01 4.4736370444297791e-01 -1.6996951401233673e-01 -1.4787666499614716e-01 -2.0473514497280121e-01 -2.6640847325325012e-01 4.8533630371093750e-01 4.6702736616134644e-01 -1.0815132409334183e-01 3.8709679245948792e-01 -5.1681029796600342e-01 -2.6908856630325317e-01 2.3241955786943436e-02 -2.8934839367866516e-01 -6.5539404749870300e-03 -3.3381313085556030e-01 4.0382257103919983e-01 -4.7716638445854187e-01 3.6811056733131409e-01 -3.8303130865097046e-01 9.3795143067836761e-02 -2.4633269011974335e-01 5.4016936570405960e-02 3.9273196458816528e-01 2.9907307028770447e-01 -3.8664039969444275e-01 5.8277314901351929e-01 -3.3465948700904846e-01 4.8762187361717224e-01 -2.3568987846374512e-01 -3.4597471356391907e-01 -1.4921267330646515e-01 1.7087461054325104e-01 -3.0532914400100708e-01 -3.7002933025360107e-01 -3.3128780126571655e-01 -5.2960753440856934e-01 -1.3949859142303467e-01 2.9443067312240601e-01 4.0127304196357727e-01 -2.8201945126056671e-02 -2.2165447473526001e-01 -2.6132231950759888e-01 -7.5255155563354492e-02 -5.7121139764785767e-01 2.8622132539749146e-01 -2.3909507691860199e-01 3.8948351144790649e-01 4.7667971253395081e-01 3.3054265379905701e-01 4.7937965393066406e-01 -4.0754023939371109e-02 4.6389630436897278e-01 -1.4879256486892700e-01 -6.6484250128269196e-02 -1.5172472596168518e-01 4.9666556715965271e-01 3.9345967769622803e-01 -6.5643422305583954e-02 2.7778086066246033e-01 -4.4797813892364502e-01 2.5975450873374939e-01 -3.2488450407981873e-01 -9.4774700701236725e-02 2.0017285645008087e-01 -3.4249272942543030e-01 5.5199682712554932e-01 4.4987234473228455e-01 -1.6763211786746979e-01 -1.0346528142690659e-01 -3.5202220082283020e-01 -5.9162545204162598e-01 5.2945733070373535e-01 1.4485028386116028e-01 -3.7225805222988129e-02 -3.1158557534217834e-01 1.3177195191383362e-01 -4.2070195078849792e-01 -3.1449136137962341e-01 2.6415159925818443e-02 2.6678588986396790e-01 -1.4228788018226624e-01 8.5368596017360687e-02 3.3484238386154175e-01 2.6574215292930603e-01 1.5311712026596069e-01 -3.0727648735046387e-01 5.9991663694381714e-01 1.3665132224559784e-01 7.7903747558593750e-02 -3.5978692770004272e-01 1.6649810969829559e-01 -3.1432470679283142e-01 -4.9929454922676086e-01 3.4539240598678589e-01 2.9383614659309387e-01 2.0802444219589233e-01 2.4065342545509338e-01 -5.6185042858123779e-01 -1.2040048837661743e-01 2.5892946124076843e-01 3.6916259676218033e-02 3.8934838771820068e-01 4.4466727972030640e-01 5.8976447582244873e-01 -1.5270665287971497e-01 -6.9006937742233276e-01 -4.4352948665618896e-01 1.2535935640335083e-01 -5.0568938255310059e-01 3.3891633152961731e-01 -3.5016417503356934e-01 -2.2604328393936157e-01 -2.4221664667129517e-01 -5.2699750661849976e-01 1.5405672788619995e-01 4.6994528174400330e-01 -4.6457496285438538e-01 -5.1445680856704712e-01 -6.7227042745798826e-04 -4.6051347255706787e-01 2.8854563832283020e-01 -4.2975398898124695e-01 -4.6360102295875549e-01 3.2727636396884918e-02 2.9448798298835754e-01 6.1845317482948303e-02 5.8239154517650604e-02 -4.0419092774391174e-01 -9.8699972033500671e-02 4.0270593762397766e-01 -4.0889486670494080e-02 -8.0453664064407349e-02 5.0517183542251587e-01 2.6392027735710144e-01 7.6649658381938934e-02 -5.4405432939529419e-01 4.6136823296546936e-01 1.9740529358386993e-01 1.0065764933824539e-01 -1.8675585091114044e-01 -2.0685002207756042e-01 -4.7768369317054749e-01 -1.1569898575544357e-01 4.5899122953414917e-01 -1.0640590637922287e-01 3.1025820970535278e-01 1.5159308910369873e-01 -5.6543439626693726e-01 2.4215647578239441e-01 2.3370270431041718e-01 -3.0567583441734314e-01 -1.4643523097038269e-01 2.3218296468257904e-01 7.6020464301109314e-02 1.7328551039099693e-02 -2.8122714161872864e-01 -1.3574409484863281e-01 5.0624734163284302e-01 4.0733743458986282e-02 -2.4391397833824158e-01 4.1165697574615479e-01 2.0524027943611145e-01 3.6003708839416504e-01 -3.8167795538902283e-01 3.4240692853927612e-01 -2.6525467634201050e-01 -3.4124079346656799e-01 -3.4240469336509705e-02 3.6225393414497375e-01 -4.2803800106048584e-01 3.4511449933052063e-01 5.0151604413986206e-01 1.5946725010871887e-01 4.8350232839584351e-01 1.7967806756496429e-01 -4.8357352614402771e-02 1.2182067148387432e-02 -4.7634862363338470e-02 2.7185955643653870e-01 -1.8431705236434937e-01 7.6542049646377563e-02 4.5691674947738647e-01 7.0347197353839874e-02 3.3050778508186340e-01 2.5051888823509216e-01 1.3290184736251831e-01 4.7769466042518616e-01 2.7401766180992126e-01 -9.9449403584003448e-02 -5.2896094322204590e-01 3.9582565426826477e-01 3.3514475822448730e-01 -1.9409325718879700e-01 3.1670430302619934e-01 4.1482940316200256e-01 -4.0294912457466125e-01 -5.2551407366991043e-02 -4.0698045492172241e-01 4.9813339114189148e-01 2.5269791483879089e-01 -2.4596707522869110e-01 6.4532835967838764e-03 5.2035379409790039e-01 2.2170071303844452e-01 -4.6851611137390137e-01 3.1536671519279480e-01 -9.1719277203083038e-02 -3.8376849889755249e-01 3.7250760942697525e-02 -3.1147572398185730e-01 -5.7042789459228516e-01 -1.0449355095624924e-01 6.0200142860412598e-01 5.6007742881774902e-01 7.4493974447250366e-02 -4.9301108717918396e-01 7.7576175332069397e-02 -2.9146584868431091e-01 3.5806611180305481e-02 4.5739784836769104e-01 2.1333828568458557e-01 5.3401321172714233e-01 2.6543694734573364e-01 1.6651304066181183e-01 3.3699627965688705e-02 -5.7828241586685181e-01 -5.3545093536376953e-01 2.6755603030323982e-02 4.7078330069780350e-02 1.1489401757717133e-01 -4.8303368687629700e-01 1.0706825554370880e-01 -4.0931355208158493e-02 5.2175515890121460e-01 3.4243497252464294e-01 3.4115663170814514e-01 -3.7356856465339661e-01 3.3172002434730530e-01 -3.9426589012145996e-01 3.9333951473236084e-01 1.7621664330363274e-02 -4.8298084735870361e-01 5.1794862747192383e-01 -1.1228604614734650e-01 5.6435996294021606e-01 3.2364508509635925e-01 -3.3622053265571594e-01 1.5523612499237061e-01 -4.8577719926834106e-01 -2.8076288104057312e-01 3.4383448958396912e-01 -3.1685212254524231e-01 3.6761024594306946e-01 -5.3271657228469849e-01 1.3230535387992859e-01 -3.9710956811904907e-01 1.6718371212482452e-01 2.8664165735244751e-01 1.5203672647476196e-01 3.7810066342353821e-01 1.1552703380584717e-01 -1.2283828109502792e-01 2.8696548938751221e-01 -4.3669360876083374e-01 3.6215838044881821e-02 5.9472155570983887e-01 -3.4378829598426819e-01 -1.8719592690467834e-01 2.8726702928543091e-01 -4.0137666463851929e-01 7.8129597008228302e-02 3.5762813687324524e-01 2.1064005792140961e-01 1.1715570092201233e-01 1.0309331864118576e-01 2.2184540331363678e-01 -3.7702009081840515e-01 -1.3986167311668396e-01 -5.4475718736648560e-01 5.5926263332366943e-01 3.1640824675559998e-01 2.3906273767352104e-02 -4.4685900211334229e-01 6.8816803395748138e-02 3.0755558609962463e-01 4.0412250161170959e-01 2.6658281683921814e-01 -5.5813528597354889e-02 6.0828882455825806e-01 5.8892127126455307e-02 -2.1551601588726044e-01 -5.6053161621093750e-01 -2.7775597572326660e-01 -1.9919781386852264e-01 -3.9971756935119629e-01 3.4744432568550110e-01 2.1113906800746918e-01 -2.8913131356239319e-01 4.1561546921730042e-01 9.7331538796424866e-02 -2.3891432583332062e-01 -1.7726238071918488e-01 6.2617850303649902e-01 2.9956179857254028e-01 -2.1709622442722321e-01 -2.5885424017906189e-01 2.9523980617523193e-01 -3.5634964704513550e-01 2.5434482097625732e-01 4.9462375044822693e-01 -3.2439169287681580e-01 -7.8943386673927307e-02 2.6744082570075989e-01 6.7493177950382233e-02 -2.4157463014125824e-01 -1.1157920211553574e-01 2.3787768185138702e-01 -3.7091770768165588e-01 -2.1165147423744202e-01 -5.3909039497375488e-01 1.9761011004447937e-01 5.0216233730316162e-01 -1.1644405871629715e-01 4.1957196593284607e-01 -1.7235423624515533e-01 1.5025298297405243e-01 2.4592483043670654e-01 -3.1885674595832825e-01 1.2693236768245697e-01 1.9316665828227997e-01 -4.6170857548713684e-01 4.8941969871520996e-03 1.0252359323203564e-02 5.5262571573257446e-01 5.3995156288146973e-01 4.0563201904296875e-01 -7.4293576180934906e-02 5.0076597929000854e-01 -6.7794069647789001e-02 2.2386845946311951e-01 6.1952747404575348e-02 5.4035174846649170e-01 6.0205012559890747e-03 2.1508647501468658e-01 2.5207689404487610e-01 1.8802329897880554e-01 -2.6965871453285217e-01 7.6619960367679596e-02 -1.3172677159309387e-01 4.7809812426567078e-01 -2.7089947462081909e-01 3.5848173499107361e-01 -5.5671179294586182e-01 4.9114468693733215e-01 -3.1504988670349121e-01 -4.8476812243461609e-01 1.3707180321216583e-01 -1.1241801828145981e-01 1.4037897810339928e-02 -3.1393256038427353e-02 2.3020684719085693e-01 -1.3625305891036987e-01 -2.9339817166328430e-01 -3.5362496972084045e-01 4.6231202781200409e-02 4.4430622458457947e-01 -4.6826979517936707e-01 2.2435012459754944e-01 1.7672155797481537e-01 1.6119180619716644e-01 -2.9526898264884949e-01 3.5432130098342896e-01 4.4461187720298767e-01 -2.9546588659286499e-01 -5.4262346029281616e-01 5.3796386718750000e-01 -4.7435325384140015e-01 2.5746524333953857e-01 2.0153081417083740e-01 -4.0972527861595154e-01 -1.3641540706157684e-01 2.1792411804199219e-01 -4.5189924538135529e-02 -4.0372499823570251e-01 1.7425869405269623e-01 1.6538515686988831e-01 -1.0932578146457672e-01 5.1840752363204956e-01 6.6271048784255981e-01 -2.1851919591426849e-01 2.7592682838439941e-01 1.9443567097187042e-01 -1.9350443035364151e-02 1.4151057600975037e-01 -7.2887212038040161e-02 2.6249390840530396e-01 -4.1404676437377930e-01 -5.2428597211837769e-01 5.3819370269775391e-01 5.5283695459365845e-02 5.0691679120063782e-02 2.0977489650249481e-01 -1.6555616632103920e-02 -4.7061130404472351e-01 5.2469569444656372e-01 -1.6875247657299042e-01 -1.0405205935239792e-01 2.4770861864089966e-01 3.0928403139114380e-01 3.7961047887802124e-01 -4.4516396522521973e-01 -4.8076376318931580e-01 -1.0608036071062088e-01 -2.0918112993240356e-01 -3.3461749553680420e-01 3.8946005702018738e-01 -5.9115070104598999e-01 1.1992745846509933e-01 6.4534410834312439e-02 1.3178282976150513e-01 -3.5534873604774475e-02 5.7460039854049683e-01 4.5980045199394226e-01 3.3611342310905457e-01 3.4326139092445374e-01 -3.9755195379257202e-01 1.2613524496555328e-01 -4.3949571251869202e-01 8.4259599447250366e-02 -4.2774578928947449e-01 3.0468076467514038e-01 2.9755708575248718e-01 3.4897801280021667e-01 8.5526540875434875e-02 6.4008250832557678e-02 -3.0951610207557678e-01 -3.7906903028488159e-01 2.1643389761447906e-01 5.3191483020782471e-01 -3.8460808992385864e-01 -5.4491198062896729e-01 2.6391470432281494e-01 -5.5605840682983398e-01 1.7611487209796906e-01 -8.5120603442192078e-02 -5.3337365388870239e-01 1.8806636333465576e-01 -7.3593862354755402e-02 4.5112317800521851e-01 -6.6126145422458649e-02 2.8187438845634460e-01 -2.2093167901039124e-01 -3.6204133182764053e-02 1.5031622350215912e-01 -4.4337686896324158e-01 -3.0667266249656677e-01 1.1019326001405716e-01 1.3030350208282471e-01 2.2430467605590820e-01 -3.1496804952621460e-01 1.9177377223968506e-01 -3.1030508875846863e-01 3.1765627861022949e-01 7.4273169040679932e-02 2.8889641165733337e-01 5.2333712577819824e-01 2.9207885265350342e-01 4.7565138339996338e-01 1.7986333370208740e-01 -6.0106325894594193e-02 -1.2186573445796967e-01 4.0995070338249207e-01 -2.0495103299617767e-01 -3.8812416791915894e-01 3.6646574735641479e-01 -4.2268048971891403e-02 -8.0299355089664459e-02 -1.5611734986305237e-01 -2.6969620585441589e-01 -2.9574501514434814e-01 4.6822914481163025e-01 3.1036907434463501e-01 -4.2496868968009949e-01 4.5852255821228027e-01 3.3000573515892029e-01 -3.9963871240615845e-01 3.6778148263692856e-02 1.4692275226116180e-01 -2.2580562531948090e-01 5.9097516536712646e-01 -1.7020748555660248e-01 -5.6013566255569458e-01 -5.1463896036148071e-01 -1.0258358716964722e-01 -5.7628577947616577e-01 1.2374433130025864e-01 8.4258012473583221e-02 3.1165143847465515e-01 4.6276822686195374e-01 8.7381079792976379e-02 -1.5040312707424164e-01 -3.6292520165443420e-01 -1.2332611950114369e-03 9.5860548317432404e-02 5.0527036190032959e-01 2.2756291925907135e-01 -3.4873121976852417e-01 6.9248020648956299e-02 -3.4918329119682312e-01 1.3696236908435822e-01 4.7901654243469238e-01 -5.4509317874908447e-01 4.6370422840118408e-01 2.1872684359550476e-01 1.5095178782939911e-01 1.2466457486152649e-01 -3.5952800512313843e-01 -4.1257089376449585e-01 3.6377847194671631e-01 -1.5768256783485413e-01 -1.6106481850147247e-01 2.1603988483548164e-02 4.7434672713279724e-01 -2.0804520696401596e-02 2.0405066013336182e-01 -2.3899577558040619e-01 -5.0605726242065430e-01 1.4205604791641235e-01 3.0365601181983948e-01 -3.6449235677719116e-01 4.0969732403755188e-01 3.7592297792434692e-01 1.3681631535291672e-02 1.9029271602630615e-01 6.0016375035047531e-02 -6.1153495311737061e-01 1.8085178732872009e-01 6.8705433607101440e-01 -4.6302840113639832e-02 4.6327942609786987e-01 -3.3200106024742126e-01 5.0302964448928833e-01 -3.2561489939689636e-01 -1.7017009854316711e-01 3.9039072394371033e-01 1.5076725743710995e-02 5.3956240415573120e-01 -1.3622716069221497e-01 2.1012769639492035e-01 -3.5823425650596619e-01 3.9802345633506775e-01 4.6899393200874329e-01 9.5270596444606781e-02 2.8135660290718079e-01 -5.9189873933792114e-01 -8.0981843173503876e-02 -7.6655134558677673e-02 -1.0568199679255486e-02 5.0645297765731812e-01 -3.2177406549453735e-01 3.0177605152130127e-01 1.8238596618175507e-01 -1.8570339307188988e-02 -4.4043287634849548e-01 -3.7339070439338684e-01 -4.9903428554534912e-01 2.2713820636272430e-01 -1.2822854518890381e-01 2.7547326683998108e-01 -2.7613756060600281e-01 -1.6555815935134888e-01 -1.8444932997226715e-01 6.0262945480644703e-03 -4.6847033500671387e-01 -1.4237968623638153e-01 -1.5204162895679474e-01 3.6932036280632019e-01 2.7908453345298767e-01 2.7064859867095947e-01 -6.4961355924606323e-01 -4.2223682999610901e-01 -3.3234345912933350e-01 -3.1153672933578491e-01 4.5621553063392639e-01 -2.4291735887527466e-01 -4.7802945971488953e-01 2.1176040172576904e-01 4.0798345208168030e-01 -1.8774840235710144e-01 -5.2808254957199097e-01 5.2985721826553345e-01 -1.1282576620578766e-01 -2.6056689023971558e-01 1.7421847581863403e-01 -3.8118678331375122e-01 3.3780699968338013e-01 3.0220106244087219e-01 -3.3377453684806824e-01 -2.9229861497879028e-01 1.2687526643276215e-01 -1.8985639512538910e-01 1.1749862879514694e-01 -3.4302353858947754e-01 1.3098829984664917e-01 -8.2418188452720642e-02 1.6526026651263237e-02 1.3721211254596710e-01 2.6469829678535461e-01 3.4285390377044678e-01 4.6912652254104614e-01 7.4237875640392303e-02 2.2992084920406342e-01 4.8031339049339294e-01 -5.3311544656753540e-01 -2.1903273463249207e-01 7.1076892316341400e-02 1.1497922986745834e-01 6.0544587671756744e-02 -5.1210081577301025e-01 -2.7521389722824097e-01 3.2453898340463638e-02 4.9836081266403198e-01 6.1352711170911789e-02 -1.0620409995317459e-01 1.5965068340301514e-01 4.2783564329147339e-01 -1.9071847200393677e-01 -7.3555625975131989e-02 1.4266200363636017e-01 4.1608953475952148e-01 3.5025125741958618e-01 3.6588412523269653e-01 4.7870033979415894e-01 4.7521390020847321e-02 3.3043557405471802e-01 7.1371451020240784e-02 -1.2124944478273392e-01 3.4845061600208282e-02 5.1417392492294312e-01 1.9740822911262512e-01 -3.0909338593482971e-01 -5.2017933130264282e-01 1.8039251863956451e-01 -1.3679052889347076e-01 3.4931722283363342e-01 -3.5754626989364624e-01 -3.7135788798332214e-01 -2.9291331768035889e-01 -4.7596526145935059e-01 -1.9285149872303009e-01 -3.7055951356887817e-01 4.7929742932319641e-01 -3.0712375044822693e-01 -9.2249497771263123e-02 
      </Weights>
      <Biases rows="128" cols="1">
        -1.9414039328694344e-02 1.2820893526077271e-01 -9.4217516481876373e-02 -1.4069654047489166e-01 5.1637545228004456e-02 4.7183507122099400e-03 -1.0880220681428909e-02 6.3117216341197491e-03 -1.0963159799575806e-01 1.2238094210624695e-01 -3.0689597129821777e-02 1.5305019915103912e-01 -2.6640288531780243e-02 -8.2923740148544312e-02 2.2191764786839485e-02 1.3236486911773682e-01 -3.2675545662641525e-02 1.4418609440326691e-01 8.9498599991202354e-03 -4.0492195636034012e-02 4.7432547435164452e-03 3.2541118562221527e-02 -7.6635167002677917e-02 1.8500493466854095e-01 2.1621005143970251e-03 1.1593116819858551e-01 -1.5419614315032959e-01 1.6808794438838959e-01 4.5312743633985519e-02 5.9967726469039917e-02 6.1579849570989609e-02 8.3986908197402954e-02 -9.6663422882556915e-03 1.0149281471967697e-01 -5.2191101014614105e-02 -6.2449676916003227e-03 1.7510712146759033e-01 3.3587052021175623e-03 -1.2352384626865387e-01 -8.6131364107131958e-02 2.5141419842839241e-02 -2.2620044648647308e-02 -1.6880115866661072e-01 -4.3834634125232697e-02 -2.1926179528236389e-02 -5.2431374788284302e-03 -3.6381632089614868e-02 8.7858930230140686e-02 -5.0811294466257095e-02 1.2930037081241608e-01 -1.5967376530170441e-01 7.4304431676864624e-02 -5.7528298348188400e-02 -1.0330445319414139e-01 1.8151265382766724e-01 5.7470899075269699e-02 1.5390136279165745e-02 -4.5352257788181305e-02 1.0427317768335342e-01 -1.5846058726310730e-01 -1.3518179953098297e-01 -1.3527546823024750e-01 7.6726295053958893e-02 -2.3369029164314270e-02 5.0611563026905060e-02 -4.2380108498036861e-03 1.0130864381790161e-01 -6.1079654842615128e-02 -6.3113845884799957e-02 1.0224788635969162e-01 1.4094622433185577e-01 -3.5399027168750763e-02 4.0577299892902374e-02 -4.4068619608879089e-02 -6.0521591454744339e-02 8.6521200835704803e-02 1.6889780759811401e-01 -3.7017459981143475e-03 -1.5584439039230347e-01 -1.3914819061756134e-01 1.2201382778584957e-02 7.6340384781360626e-02 -1.3994448818266392e-02 7.3225133121013641e-02 6.0307193547487259e-02 -7.4258200824260712e-02 -1.5798246487975121e-02 -7.5465127825737000e-02 -4.1846749372780323e-03 7.9593636095523834e-02 -1.2370836734771729e-01 6.2733568251132965e-02 6.3065774738788605e-02 -1.3351862132549286e-01 8.3545468747615814e-02 2.5962613523006439e-02 2.7431732043623924e-02 1.1007523536682129e-01 7.5025603175163269e-02 6.5055266022682190e-02 8.5207395255565643e-02 -2.9257245361804962e-02 -6.0180004686117172e-02 1.1488075554370880e-01 5.3265385329723358e-02 -1.0094339400529861e-01 4.5789703726768494e-02 2.2446744143962860e-01 2.0556339621543884e-01 -4.1217118501663208e-02 -1.1803901195526123e-01 -2.6406278833746910e-02 1.8133039772510529e-01 -1.5307022631168365e-01 -1.9271041452884674e-01 7.8036032617092133e-02 -9.5455303788185120e-02 -4.6978142112493515e-02 -7.8232474625110626e-02 -1.5779403969645500e-02 3.4907128661870956e-02 -5.5131938308477402e-02 -1.3800160028040409e-02 4.8781618475914001e-02 9.5698535442352295e-02 1.9742639362812042e-01 -9.3198735266923904e-03 4.3324291706085205e-02 
      </Biases>
    </Layer>
    <Layer ActivationFunction="1">
      <Weights rows="128" cols="128">
        -3.6350274458527565e-03 4.9634557217359543e-02 -1.4430433511734009e-01 4.7234561294317245e-02 1.5577799640595913e-02 -1.0739518329501152e-02 8.5061052814126015e-03 8.3445623517036438e-02 -1.7097322270274162e-02 4.3532557785511017e-02 -9.4310127198696136e-02 -5.2618388086557388e-02 -5.7137262076139450e-02 -2.6882221922278404e-02 -1.6152068972587585e-02 -1.1082697659730911e-01 -9.4869248569011688e-02 -5.3312270902097225e-03 -8.3819732069969177e-02 -1.2809322215616703e-03 -1.0653692483901978e-01 -5.3549513220787048e-02 5.8157980442047119e-02 7.9303711652755737e-02 -8.3962008357048035e-03 -2.1039193496108055e-02 5.7433892041444778e-02 5.6851942092180252e-02 2.7615610510110855e-02 5.0018932670354843e-02 6.7043635062873363e-03 6.1279296875000000e-02 -7.2285898029804230e-02 -1.6733698546886444e-02 5.5409282445907593e-02 2.7184439823031425e-02 6.3569009304046631e-02 -3.7876479327678680e-02 -5.7785425335168839e-02 5.2317295223474503e-02 1.0146687924861908e-01 -2.9197914525866508e-02 -1.1563897132873535e-01 -9.4742812216281891e-02 1.0598427802324295e-01 7.0180587470531464e-02 7.0025292225182056e-03 -1.6388405114412308e-02 -9.3233704566955566e-02 6.9026671350002289e-02 4.9078382551670074e-02 -9.1487534344196320e-02 5.7584729045629501e-02 8.7132990360260010e-02 9.2316657304763794e-02 1.3954843580722809e-01 -1.2313095480203629e-01 9.8586015403270721e-02 -6.1901539564132690e-02 7.0989362895488739e-02 2.7866728603839874e-02 -8.4775634109973907e-02 -9.7240857779979706e-02 5.1588542759418488e-02 1.4525967650115490e-02 1.1149145662784576e-01 1.3630223460495472e-02 4.7011710703372955e-02 -9.1137424111366272e-02 1.1530748754739761e-01 -7.1469150483608246e-02 1.0995621979236603e-01 6.2789112329483032e-02 4.2845685034990311e-02 1.0167249292135239e-01 4.3186910450458527e-02 6.4151734113693237e-02 2.2483231499791145e-02 9.4557076692581177e-02 -1.2165284901857376e-01 4.8006929457187653e-02 -5.6674003601074219e-02 9.5180749893188477e-02 6.4214669167995453e-02 -2.4055134505033493e-02 9.8244629800319672e-02 1.0228681564331055e-01 -6.7553304135799408e-02 -4.7100977972149849e-03 8.8513724505901337e-02 3.8938317447900772e-02 7.6137572526931763e-02 -1.1499757319688797e-01 2.1157879382371902e-02 -8.4357142448425293e-02 -6.1343800276517868e-02 4.3977912515401840e-02 -5.8846391737461090e-02 -3.9367899298667908e-02 -8.1065349280834198e-02 -1.8947763368487358e-02 4.5576170086860657e-03 3.3325832337141037e-02 9.9765121936798096e-02 1.1765196174383163e-01 -6.3088245689868927e-02 -8.7831407785415649e-02 1.1063931137323380e-01 1.7960666120052338e-01 -1.0485175997018814e-01 -1.8251016736030579e-02 -1.3246956281363964e-02 4.3840240687131882e-02 -1.7223507165908813e-02 8.0650545656681061e-02 -6.0084395110607147e-02 -3.3514577895402908e-02 -2.3377547040581703e-02 -5.3542606532573700e-02 9.5924779772758484e-02 1.0476428270339966e-01 -3.3667460083961487e-02 1.0416863113641739e-01 -6.5307125449180603e-02 -5.8284305036067963e-02 1.7414715141057968e-02 -8.0508343875408173e-02 1.2524662539362907e-02 -8.7783426046371460e-02 7.7409267425537109e-02 -1.2165655195713043e-01 5.0311882048845291e-02 -6.8221457302570343e-02 -1.3504888862371445e-02 -3.5196296870708466e-02 2.2913457825779915e-02 6.2461957335472107e-02 7.5329072773456573e-02 -1.0046009719371796e-01 7.5508683919906616e-02 -4.2484059929847717e-02 7.0636108517646790e-02 -6.1579652130603790e-02 -7.6775409281253815e-02 -4.6085160225629807e-02 3.9672512561082840e-02 -5.9944745153188705e-02 -8.4067963063716888e-02 -6.0600757598876953e-02 -1.2169744819402695e-01 -5.8508604764938354e-02 5.4734513163566589e-02 4.9796432256698608e-02 4.8453332856297493e-03 -6.5240085124969482e-02 -3.5948526114225388e-02 1.8467713380232453e-03 -1.0853437334299088e-01 3.0822712928056717e-02 -6.1886440962553024e-02 8.9170284569263458e-02 1.2454687058925629e-01 8.0410942435264587e-02 1.0523056983947754e-01 6.7144352942705154e-03 8.5951730608940125e-02 -7.4323065578937531e-02 -2.7280349284410477e-02 -3.2944597303867340e-02 9.2599079012870789e-02 6.5228179097175598e-02 -2.6148743927478790e-02 7.0855498313903809e-02 -1.0446389019489288e-01 5.6979589164257050e-02 -3.0209152027964592e-02 -2.5542616844177246e-02 5.3943313658237457e-02 -6.3713014125823975e-02 1.0911618918180466e-01 7.4872814118862152e-02 -6.1840876936912537e-02 1.3984135352075100e-02 -4.8224873840808868e-02 -1.1365137994289398e-01 8.4495961666107178e-02 3.1893879175186157e-02 -3.7091276608407497e-03 -8.6984470486640930e-02 1.9820885732769966e-02 -6.5503336489200592e-02 -6.8798512220382690e-02 1.8025089055299759e-02 5.4884087294340134e-02 -2.2147407289594412e-03 1.9851028919219971e-02 3.9070516824722290e-02 8.2081303000450134e-02 5.2736561745405197e-02 -6.2585785984992981e-02 1.1370189487934113e-01 1.4997893013060093e-02 3.5750884562730789e-02 -7.6227694749832153e-02 6.8069003522396088e-02 -5.3099419921636581e-02 -1.1352904140949249e-01 4.4507618993520737e-02 4.5025218278169632e-02 4.6486239880323410e-02 5.6769117712974548e-02 -9.2353299260139465e-02 -3.1066769734025002e-02 4.0603477507829666e-02 1.5645792707800865e-02 7.5942732393741608e-02 6.1584822833538055e-02 1.2984804809093475e-01 -1.3081287033855915e-02 -9.8792985081672668e-02 -9.7902849316596985e-02 3.0638296157121658e-02 -8.1919148564338684e-02 8.7746091187000275e-02 -6.2448933720588684e-02 -2.5002570822834969e-02 -3.9982236921787262e-02 -9.8784655332565308e-02 2.2193847224116325e-02 4.7772847115993500e-02 -1.1059685051441193e-01 -9.0148568153381348e-02 2.9240923002362251e-02 -9.3089058995246887e-02 7.7251121401786804e-02 -7.2069175541400909e-02 -8.5402920842170715e-02 -1.7841221764683723e-02 6.9512367248535156e-02 -6.4440113492310047e-03 5.0214055925607681e-02 -8.6232617497444153e-02 -5.3525380790233612e-02 5.8175578713417053e-02 -5.4811812937259674e-02 -5.6167710572481155e-03 8.6336828768253326e-02 1.6119962558150291e-02 3.5588439553976059e-02 -1.0200579464435577e-01 1.0828417539596558e-01 4.3422959744930267e-02 3.5840518772602081e-02 -1.5092052519321442e-02 -2.1296378225088120e-02 -8.8145852088928223e-02 -1.4270886778831482e-01 8.6302459239959717e-02 -2.1766850259155035e-03 2.0515372976660728e-02 2.7918489649891853e-02 -1.2184498459100723e-01 3.8150556385517120e-02 1.5099994838237762e-01 -8.2124561071395874e-02 -3.4609399735927582e-02 3.7303786724805832e-02 -5.6599665433168411e-02 4.0739318355917931e-03 -7.9579818993806839e-03 -4.2061995714902878e-02 8.6935572326183319e-02 4.6020571142435074e-02 -5.7747069746255875e-02 1.0098627209663391e-01 -1.1321373749524355e-03 8.2578308880329132e-02 -1.0791341960430145e-01 2.0453931763768196e-02 -1.0386498272418976e-01 -5.1192604005336761e-02 1.2571122497320175e-02 1.5142658352851868e-01 -1.1735612899065018e-01 1.2156084924936295e-01 1.0662022978067398e-01 2.3176735267043114e-02 9.9477857351303101e-02 -9.0419715270400047e-03 5.4741743952035904e-02 -3.3716399222612381e-02 -1.2301960028707981e-02 -4.9309808760881424e-02 -2.9504833742976189e-02 2.8816843405365944e-03 8.7861634790897369e-02 4.6964742243289948e-02 8.0804735422134399e-02 7.1194781921803951e-03 -2.1733341272920370e-03 1.0117536038160324e-01 -1.6796598210930824e-03 2.9235616326332092e-02 -9.5463924109935760e-02 9.1228261590003967e-02 5.7746827602386475e-02 -5.6545134633779526e-02 1.0416973382234573e-01 2.3460827767848969e-02 -8.3026386797428131e-02 3.3720728009939194e-02 -5.8074213564395905e-02 4.4255092740058899e-02 -1.1729431338608265e-02 -5.9259392321109772e-02 7.3357053101062775e-02 1.0006855428218842e-01 4.4162213802337646e-02 -1.5043444931507111e-01 2.4198109284043312e-02 -3.4259408712387085e-02 -7.3137998580932617e-02 1.5634948387742043e-02 -6.6138178110122681e-02 -1.1512377858161926e-01 7.3756143450737000e-02 1.2835182249546051e-01 7.7465541660785675e-02 9.3516387045383453e-02 -9.2675283551216125e-02 2.6519112288951874e-02 -1.0176259279251099e-01 1.2199922464787960e-02 4.0914066135883331e-02 7.3671787977218628e-02 7.6472222805023193e-02 1.3286127708852291e-02 -7.8953076153993607e-03 3.5580046474933624e-02 -1.1785223335027695e-01 -1.0148348659276962e-01 1.0022545605897903e-01 4.3220106512308121e-02 -2.5833658874034882e-02 -1.7445117235183716e-01 1.0884051211178303e-02 -2.1463332697749138e-02 6.2271725386381149e-02 8.2540415227413177e-02 8.8675938546657562e-02 -4.0612403303384781e-02 8.1719920039176941e-02 -1.2673036754131317e-01 1.1092202365398407e-01 -1.0538156144320965e-02 -1.1706930398941040e-01 1.1123382300138474e-01 -4.9621328711509705e-02 9.2402949929237366e-02 6.5943151712417603e-02 -2.8066344559192657e-02 6.1153963208198547e-02 -1.1127687245607376e-01 -3.5452168434858322e-02 1.7959813773632050e-01 -1.0863431543111801e-01 7.1980215609073639e-02 -1.7929029464721680e-01 4.7537993639707565e-02 -4.6497374773025513e-02 5.0083745270967484e-02 5.4779864847660065e-02 -1.3392346911132336e-02 1.3890011608600616e-01 2.7888964861631393e-02 -3.7621594965457916e-02 7.6937645673751831e-02 -7.4289180338382721e-02 -1.8490487709641457e-02 8.0297358334064484e-02 -7.1673445403575897e-02 -2.8142001247033477e-04 8.3092153072357178e-02 -5.9474479407072067e-02 2.6942579075694084e-02 6.4141757786273956e-02 5.3155880421400070e-02 2.3122556507587433e-02 -1.9581196829676628e-03 5.2230454981327057e-02 -7.5311958789825439e-02 -8.2162953913211823e-02 -7.1628853678703308e-02 7.6333537697792053e-02 5.4963462054729462e-02 -2.5875244289636612e-02 -7.9692587256431580e-02 2.5036068633198738e-02 4.6373587101697922e-02 4.4944711029529572e-02 4.6262960880994797e-02 -5.7418756186962128e-03 1.0392194986343384e-01 2.7624480426311493e-02 1.6844874480739236e-03 -6.4985014498233795e-02 -4.9713227897882462e-02 -7.5499355792999268e-02 -4.0953956544399261e-02 4.2371243238449097e-02 3.1734507530927658e-02 -8.2921057939529419e-02 6.3471265137195587e-02 4.3622311204671860e-03 -4.0876552462577820e-02 -1.6922174021601677e-02 1.1848298460245132e-01 2.2013656795024872e-02 -6.3065350055694580e-02 -3.6768343299627304e-02 1.0490635782480240e-01 -4.1811075061559677e-02 9.2026472091674805e-02 1.0408582538366318e-01 -1.1579705774784088e-01 -9.5807323232293129e-03 9.0807825326919556e-02 4.3365031480789185e-02 -3.5525001585483551e-02 -9.4179213047027588e-03 6.1979960650205612e-02 -1.2709228694438934e-01 -3.6247868090867996e-02 -1.0359144955873489e-01 6.2932148575782776e-02 7.4698045849800110e-02 6.0413223691284657e-03 1.0745770484209061e-01 -8.5349105298519135e-02 -6.8879369646310806e-03 1.1950239539146423e-01 -4.8274375498294830e-02 6.5702013671398163e-03 4.4117867946624756e-02 -6.9711096584796906e-02 3.2706372439861298e-02 1.9232122227549553e-02 1.1544007062911987e-01 8.0731391906738281e-02 2.1400922909379005e-02 -6.0058772563934326e-02 1.4111368358135223e-01 1.3638132251799107e-02 3.4058026969432831e-02 -5.0494741648435593e-02 1.1316137760877609e-01 -4.0380414575338364e-02 7.6060324907302856e-02 4.1601113975048065e-02 2.9977209866046906e-02 -9.1181516647338867e-02 1.8293768167495728e-02 -3.6733526736497879e-02 1.3572731614112854e-01 -4.3101985007524490e-02 6.8265266716480255e-02 -8.9721463620662689e-02 4.0092904120683670e-02 -7.4540466070175171e-02 -1.0391450673341751e-01 2.7344806119799614e-02 1.4563832664862275e-03 1.7402766272425652e-02 -4.9710072576999664e-02 6.7299574613571167e-02 -1.3481234200298786e-02 -9.1450013220310211e-02 -5.0499428063631058e-02 6.7878188565373421e-03 1.1442402750253677e-01 -1.1536595225334167e-01 6.0886316932737827e-03 6.4312614500522614e-02 -3.0514230951666832e-02 -1.2248290330171585e-01 3.1050911173224449e-02 1.2987539172172546e-01 -7.7610388398170471e-02 -1.0469877719879150e-01 1.3052827119827271e-01 -7.0885002613067627e-02 5.5827029049396515e-02 -4.5886993408203125e-02 -7.1214452385902405e-02 -4.0628205984830856e-02 4.0666125714778900e-02 -4.9972411245107651e-02 -6.3504904508590698e-02 5.6363642215728760e-02 8.7374918162822723e-02 2.7233779430389404e-02 1.0129418224096298e-01 1.2286548316478729e-01 -4.3388865888118744e-02 5.1948562264442444e-02 4.6953976154327393e-02 -7.6458919793367386e-03 3.2335158437490463e-02 -8.7578827515244484e-03 3.2767921686172485e-02 -7.7081806957721710e-02 -1.3198730349540710e-01 9.8381288349628448e-02 -9.6093248575925827e-03 1.8779652193188667e-02 2.9886506497859955e-02 2.1513419051188976e-04 -8.5784859955310822e-02 1.0680162906646729e-01 -1.1612020432949066e-02 -2.3886600509285927e-02 4.2466465383768082e-02 3.9247140288352966e-02 4.3727625161409378e-02 -8.5491128265857697e-02 -9.8838478326797485e-02 -1.0959180071949959e-02 -5.9931185096502304e-02 -5.2383292466402054e-02 7.9627782106399536e-02 -7.9074412584304810e-02 9.1019766405224800e-03 1.4641605317592621e-02 8.6759645491838455e-03 3.8798409514129162e-03 1.4474873244762421e-01 9.5595136284828186e-02 7.7127575874328613e-02 6.0947578400373459e-02 -6.9326512515544891e-02 5.7800918817520142e-02 -1.1428351700305939e-01 -5.1204115152359009e-03 -1.0688639432191849e-01 7.8366868197917938e-02 7.2345763444900513e-02 6.5285637974739075e-02 2.3888235446065664e-03 8.5719190537929535e-03 -5.1844783127307892e-02 -7.6611690223217010e-02 3.5065099596977234e-02 1.1406841874122620e-01 -5.5718060582876205e-02 -1.3842789828777313e-01 5.2778970450162888e-02 -8.3750613033771515e-02 3.7024781107902527e-02 -3.0401710420846939e-02 -1.1449771374464035e-01 3.1272001564502716e-02 -3.5353813320398331e-02 9.1754123568534851e-02 -1.7484442796558142e-03 5.0300456583499908e-02 -4.9542617052793503e-02 7.9837171360850334e-03 9.7278971225023270e-03 -1.0116598010063171e-01 -8.9306175708770752e-02 -1.8474228680133820e-02 5.5229212157428265e-03 4.9766521900892258e-02 -7.9216949641704559e-02 4.6718951314687729e-02 -8.5057057440280914e-02 5.4537307471036911e-02 2.0780129358172417e-02 9.5153979957103729e-02 1.0048557072877884e-01 5.5096589028835297e-02 1.3064770400524139e-01 3.2964985817670822e-02 5.3782374598085880e-03 -1.9922483712434769e-02 6.2250874936580658e-02 -3.7905961275100708e-02 -6.7544959485530853e-02 6.6901944577693939e-02 -5.3389463573694229e-02 -3.7587903439998627e-02 -7.2004280984401703e-02 -6.6797822713851929e-02 -7.1551457047462463e-02 9.8854228854179382e-02 9.2116974294185638e-02 -9.8981633782386780e-02 1.0419995337724686e-01 8.3821840584278107e-02 -7.7775552868843079e-02 4.0618064813315868e-03 5.9330746531486511e-02 -3.0894143506884575e-02 9.8869815468788147e-02 -6.4101383090019226e-02 -7.7141843736171722e-02 -1.0519941151142120e-01 -2.9615670442581177e-02 -1.3776466250419617e-01 2.3154918104410172e-02 8.5457181558012962e-03 9.2701807618141174e-02 8.8127024471759796e-02 1.5261077322065830e-02 -5.4272677749395370e-02 -7.1907326579093933e-02 -1.1619659140706062e-02 2.1342329680919647e-02 8.5507519543170929e-02 2.6294903829693794e-02 -4.0114656090736389e-02 3.1570132821798325e-02 -8.7250456213951111e-02 1.4165405184030533e-02 1.3003389537334442e-01 -8.0948710441589355e-02 9.6365347504615784e-02 4.6061616390943527e-02 2.3994948714971542e-02 1.1708835139870644e-02 -6.5551407635211945e-02 -7.4244439601898193e-02 5.2433479577302933e-02 -6.5500244498252869e-02 -3.1838994473218918e-02 5.2865274483337998e-04 1.0664688050746918e-01 1.9160887226462364e-02 4.5019347220659256e-02 -2.7172653004527092e-02 -7.9658910632133484e-02 -5.5162580683827400e-03 8.0547221004962921e-02 -1.0883846320211887e-02 8.0854199826717377e-02 7.6389223337173462e-02 1.5877556055784225e-02 2.2869249805808067e-02 4.6182438731193542e-02 -1.1726266890764236e-01 4.8637587577104568e-02 6.9237649440765381e-02 -3.6550331860780716e-03 1.2284808605909348e-01 -9.2635132372379303e-02 7.2362266480922699e-02 -1.4467719011008739e-02 -7.1447081863880157e-02 1.1707329750061035e-01 4.2903903871774673e-02 1.0618797689676285e-01 -6.5016813576221466e-02 5.7498674839735031e-02 -1.0833387076854706e-01 8.8766828179359436e-02 8.7541207671165466e-02 4.7698136419057846e-02 1.2519591487944126e-02 -1.2141525000333786e-01 -4.4082300737500191e-03 -2.8826802968978882e-02 -2.6303762570023537e-03 1.1101958155632019e-01 -8.3939902484416962e-02 8.2119330763816833e-02 6.4210057258605957e-02 5.3329914808273315e-03 -1.1297689378261566e-01 -5.6036081165075302e-02 -6.4153812825679779e-02 2.9451236128807068e-02 -2.6679249480366707e-02 1.2262902408838272e-01 -4.3791078031063080e-02 -4.4273119419813156e-02 -4.1273072361946106e-02 -1.6059732064604759e-02 -9.5533378422260284e-02 -2.4454262107610703e-02 -6.9346182048320770e-02 1.0083469003438950e-01 3.9467312395572662e-02 8.4366969764232635e-02 -1.0982143133878708e-01 -9.2329509556293488e-02 -7.6696753501892090e-02 -7.3994703590869904e-02 7.4835315346717834e-02 -7.8124023973941803e-02 -7.1915857493877411e-02 6.9609060883522034e-02 1.0582347959280014e-01 -4.7069802880287170e-02 -9.4246968626976013e-02 7.9325065016746521e-02 -2.2137435153126717e-02 -5.7768326252698898e-02 4.5061185956001282e-02 -6.4153641462326050e-02 3.9259124547243118e-02 5.3258385509252548e-02 -4.9526400864124298e-02 -8.2135953009128571e-02 2.2950224578380585e-02 -5.3371544927358627e-02 -9.1823982074856758e-03 -9.0463027358055115e-02 -7.1466236840933561e-04 1.0852755978703499e-02 3.5858500748872757e-02 1.3134499080479145e-02 6.4189165830612183e-02 9.1346286237239838e-02 1.2071845680475235e-01 3.7514131981879473e-03 4.9762941896915436e-02 9.7791634500026703e-02 -8.1443846225738525e-02 -3.9477735757827759e-02 -1.5313387848436832e-02 6.0250144451856613e-02 2.3406779393553734e-02 -9.5053397119045258e-02 -1.6215223819017410e-02 -8.0193318426609039e-03 8.7931364774703979e-02 2.5549322366714478e-02 -3.6176491528749466e-02 4.2380869388580322e-02 8.2640171051025391e-02 -4.6782523393630981e-02 2.0909378305077553e-02 4.0189065039157867e-02 7.5192816555500031e-02 6.9179348647594452e-02 8.6456760764122009e-02 1.1456379294395447e-01 5.4078777320683002e-03 4.8903886228799820e-02 2.1749684587121010e-02 -1.1457915417850018e-02 3.8680955767631531e-02 1.0212858021259308e-01 7.2670429944992065e-02 -4.3060179799795151e-02 -1.0057278722524643e-01 2.7027072384953499e-02 -5.5661886930465698e-02 4.8112522810697556e-02 -7.6292008161544800e-02 -9.7895652055740356e-02 -2.3532232269644737e-02 -1.0506262630224228e-01 -4.4786632061004639e-02 -1.3150769472122192e-01 3.9704173803329468e-02 -5.8853495866060257e-02 -1.6890671104192734e-02 5.5490620434284210e-02 -1.0973540693521500e-01 -1.1373461037874222e-01 4.8912460915744305e-03 1.6845194622874260e-02 -2.6352291926741600e-02 -4.1709259152412415e-02 6.8359963595867157e-02 -9.4135053455829620e-02 -2.0556470379233360e-02 6.5877676010131836e-02 5.3788360208272934e-02 -2.7686277404427528e-02 -8.5773043334484100e-02 -1.2525451183319092e-01 -9.3253083527088165e-02 -5.8199241757392883e-03 2.2831961512565613e-02 -9.2659838497638702e-02 8.6741037666797638e-03 -1.6624790430068970e-01 2.7880247682332993e-02 -3.3147100359201431e-02 7.0869959890842438e-02 -1.2312126159667969e-01 2.3106927052140236e-02 -9.2245325446128845e-02 7.8189382329583168e-03 -4.6367999166250229e-02 1.2545117735862732e-01 -2.8337903320789337e-02 -8.6948163807392120e-02 -7.1917407214641571e-02 -5.8407440781593323e-02 1.2106575816869736e-01 7.2835035622119904e-02 -1.5299341082572937e-01 -1.1719927191734314e-01 -8.0195851624011993e-02 1.1205679923295975e-01 -2.5999350473284721e-02 -7.9320393502712250e-02 -1.4797707088291645e-02 -1.7141537740826607e-02 1.2684883177280426e-01 3.7719525396823883e-02 1.6723187640309334e-02 1.2983262538909912e-01 5.9901876375079155e-03 -9.1656304895877838e-02 -1.4617924392223358e-01 -1.1359987407922745e-01 9.9834986031055450e-02 -1.6213282942771912e-02 -6.4597919583320618e-02 -3.1951464712619781e-02 -1.5367516875267029e-01 -1.5030070208013058e-02 -1.1421013623476028e-01 1.5533190965652466e-01 -5.1638439297676086e-02 1.0655355639755726e-02 3.2730016391724348e-03 -1.2374164909124374e-01 -7.9229146242141724e-02 -1.1905493587255478e-01 1.2623623013496399e-01 -1.2079400569200516e-01 6.8045258522033691e-03 1.3975746929645538e-01 -1.5689076855778694e-02 -3.2933603972196579e-02 4.4300001114606857e-02 -1.1190239340066910e-02 -1.1047647148370743e-01 7.2562163695693016e-03 2.8708999976515770e-02 -7.5628340244293213e-02 5.5433935485780239e-03 -1.5248338878154755e-01 -9.4182595610618591e-02 -5.3988683968782425e-02 -3.9562489837408066e-03 1.1070259660482407e-01 9.7587220370769501e-02 1.5187223255634308e-01 -1.0404167324304581e-01 9.6833646297454834e-02 -1.0881537944078445e-01 5.1038634032011032e-02 4.1324552148580551e-02 9.6909686923027039e-02 1.1805751360952854e-02 -7.0558883249759674e-02 1.0412120819091797e-01 4.7093264758586884e-02 6.0749076306819916e-02 -8.8603124022483826e-02 2.0556015893816948e-02 -5.8963317424058914e-02 -1.0368065908551216e-02 7.7646441757678986e-02 -1.2822033464908600e-01 -8.9703589677810669e-02 1.3303439132869244e-02 -7.9842217266559601e-02 -7.9180642962455750e-02 -2.9963402077555656e-02 3.9765514433383942e-02 -6.7104034125804901e-02 7.5313448905944824e-02 7.9368777573108673e-02 -4.6829182654619217e-02 1.1013919115066528e-01 -1.3735781610012054e-01 -1.6968034207820892e-01 5.1045767962932587e-02 4.3044969439506531e-02 -9.6392370760440826e-02 -6.3475497066974640e-02 -3.1487815082073212e-02 1.2758207321166992e-01 1.4582027494907379e-01 6.7992717027664185e-02 4.5369081199169159e-02 7.4209541082382202e-02 5.4690849035978317e-02 4.5283839106559753e-02 -1.0466831177473068e-01 -1.0493444651365280e-01 1.3446919620037079e-01 5.5936861783266068e-02 2.7445850428193808e-03 4.9196302890777588e-02 8.1184223294258118e-02 -5.8187274262309074e-03 -4.8963349312543869e-02 -1.1925287544727325e-01 1.3327790796756744e-01 -7.3955044150352478e-02 1.5885308384895325e-02 2.6839481666684151e-02 6.1904173344373703e-02 -4.9687828868627548e-02 1.5008198097348213e-02 -1.1748377978801727e-01 -2.9239777475595474e-02 -2.8792288154363632e-02 -4.7708008438348770e-02 -6.2506332993507385e-02 -9.5458641648292542e-02 -8.2781977951526642e-02 -3.3395469188690186e-02 7.4682235717773438e-02 -4.7716692090034485e-02 8.6575876921415329e-03 -7.8220799565315247e-02 3.4624650143086910e-03 -3.4200638532638550e-02 -9.9878944456577301e-03 -6.5877877175807953e-02 -1.9488520920276642e-02 1.0665302723646164e-01 -6.2743932008743286e-02 7.6898187398910522e-02 -7.9602137207984924e-02 1.2374977767467499e-01 3.0192793929018080e-04 -5.2108194679021835e-02 -2.7674913406372070e-02 5.3875532001256943e-02 -2.1581163629889488e-02 -7.7983163297176361e-02 4.9279645085334778e-02 -6.5933503210544586e-02 7.2457410395145416e-02 6.9649375975131989e-02 -2.7193732559680939e-02 -3.7688281387090683e-02 -9.0365149080753326e-03 5.2859190851449966e-02 1.0096338577568531e-02 -8.3838507533073425e-02 1.0441407561302185e-01 7.8189214691519737e-03 1.9796943292021751e-02 7.4946917593479156e-02 7.4789434671401978e-02 4.3441923335194588e-03 1.9184434786438942e-02 -9.0498313307762146e-02 2.1200522780418396e-02 -1.4731018245220184e-01 -4.8927422612905502e-02 -8.6545199155807495e-03 4.9334831535816193e-02 -4.8847075551748276e-02 9.9246904253959656e-02 3.9500392973423004e-02 7.9422704875469208e-02 -4.4134650379419327e-02 1.2089207023382187e-01 5.2713442593812943e-02 4.6985395252704620e-02 -8.1047624349594116e-02 -6.7834861576557159e-02 1.7637483775615692e-02 -1.8339047208428383e-02 -5.8261241763830185e-02 -5.9901494532823563e-02 -4.8646978102624416e-03 -7.2550073266029358e-02 5.3488638252019882e-02 -3.5987108945846558e-02 9.8808519542217255e-02 9.9886000156402588e-02 -5.3170748054981232e-02 -6.0823976993560791e-02 1.1030326783657074e-01 3.2947458326816559e-02 -7.4028231203556061e-02 8.5017487406730652e-02 -8.2241661846637726e-02 3.8235034793615341e-02 7.7953062951564789e-02 -3.6692265421152115e-02 1.0935245081782341e-03 3.6961104720830917e-02 -6.1691738665103912e-02 1.6281327232718468e-02 1.8569258973002434e-02 7.9969845712184906e-02 1.6168322414159775e-02 1.1552109383046627e-02 1.1404176056385040e-01 -3.3426076173782349e-02 1.1279875040054321e-01 5.9267088770866394e-02 3.5165222361683846e-03 -4.4283699244260788e-02 -1.7548708710819483e-03 1.0068982839584351e-01 -9.5329023897647858e-02 1.0658631473779678e-01 -5.9583727270364761e-02 -5.0317458808422089e-02 3.3985000103712082e-02 -7.1485854685306549e-02 -6.5578646957874298e-02 7.3407597839832306e-02 9.1229014098644257e-02 1.0859100148081779e-02 1.2912186980247498e-01 -4.4282138347625732e-02 -9.4000972807407379e-02 -1.3977156579494476e-01 -2.0028446614742279e-01 -1.5584400296211243e-01 -5.5139154195785522e-02 -1.4639073610305786e-01 5.3688619285821915e-02 -2.2058059275150299e-01 -1.3948278129100800e-01 2.6035079360008240e-01 -5.6242018938064575e-02 -1.2832243740558624e-01 4.5587055385112762e-02 -8.7813280522823334e-02 -2.5622986722737551e-03 1.3216251134872437e-01 3.0856231227517128e-02 -2.3722362518310547e-01 1.9912147894501686e-02 -8.8776595890522003e-02 -1.6834950074553490e-02 7.1993812918663025e-02 1.9360177218914032e-02 2.5393357500433922e-02 -1.3592834770679474e-01 -2.0873233675956726e-01 -3.6794699728488922e-02 3.9885491132736206e-02 1.7517796158790588e-01 -1.2506684660911560e-01 -9.5695219933986664e-02 9.2267945408821106e-02 8.4244452416896820e-02 2.3935558274388313e-03 1.8292823806405067e-02 1.1255020648241043e-01 -3.8378320634365082e-02 1.9560283422470093e-01 -1.3235904276371002e-01 5.2317868918180466e-02 -1.5638987720012665e-01 1.6211366280913353e-02 1.2534558773040771e-01 1.0421057790517807e-01 -1.0528900474309921e-01 5.4609768092632294e-02 1.1207020282745361e-01 -7.6208896934986115e-02 1.8617889285087585e-01 6.5498434007167816e-02 -1.0364736616611481e-01 -1.4908975362777710e-01 9.0234249830245972e-02 -1.0317836888134480e-02 -1.8214717507362366e-01 3.2346796244382858e-02 4.0545638650655746e-02 1.5178723260760307e-02 -2.7406023815274239e-02 -5.8978054672479630e-02 -1.1971087008714676e-01 1.3304126262664795e-01 -5.5635701864957809e-02 1.1457554996013641e-01 -2.3824216332286596e-03 -2.4320837855339050e-01 -2.3922396358102560e-03 -6.1622198671102524e-02 3.4874625504016876e-02 -1.1406603455543518e-01 2.9815392568707466e-02 6.7419111728668213e-02 6.6777974367141724e-02 -5.2600800991058350e-02 1.1904281377792358e-01 -9.6833733841776848e-03 2.9581520706415176e-02 -7.7807116322219372e-03 3.5451006144285202e-02 3.0264381319284439e-02 1.0534247756004333e-01 -9.2800684273242950e-02 -6.6995345056056976e-02 -7.0869386196136475e-02 -9.4344019889831543e-03 -2.8876382857561111e-02 -7.2654141113162041e-03 2.4603925645351410e-01 2.4259303510189056e-01 -1.1149283498525620e-01 -2.4883183836936951e-01 -1.7155917361378670e-02 -6.3890814781188965e-02 4.4262878596782684e-02 1.6481736674904823e-02 7.5023345649242401e-02 -1.0325098410248756e-02 4.1864976286888123e-02 -2.6668785139918327e-02 -3.2685656100511551e-02 -6.2917466275393963e-03 -1.0205751657485962e-01 -9.2561408877372742e-02 -5.4294671863317490e-02 3.1399797648191452e-02 -7.0766523480415344e-02 9.6411362290382385e-02 2.4950374662876129e-01 -6.2948890030384064e-02 1.5652017295360565e-01 2.0595440268516541e-01 -1.8993464112281799e-01 -1.2273423373699188e-02 -2.6900631189346313e-01 3.3919334411621094e-02 1.4655998349189758e-01 1.2676234357059002e-02 2.0975681021809578e-02 -5.2428621798753738e-02 2.7449649572372437e-01 -6.8769954144954681e-02 -1.1988671869039536e-01 2.7734423056244850e-02 1.4982560276985168e-01 5.2390910685062408e-02 -1.0350193083286285e-01 7.4058391153812408e-02 1.0002675652503967e-01 3.9664905518293381e-02 5.7053375989198685e-02 7.5410023331642151e-02 -6.4353562891483307e-02 -4.6133849769830704e-02 9.3538567423820496e-02 1.7035366967320442e-02 -7.1572043001651764e-02 -4.9595810472965240e-02 7.5416942127048969e-04 -1.2321176379919052e-01 6.2797084450721741e-02 -7.7856659889221191e-02 -1.0421513020992279e-01 -1.0005893558263779e-01 1.4344517141580582e-02 -9.9134437739849091e-02 -9.5336131751537323e-02 6.6943757236003876e-02 1.2961871922016144e-02 3.4323435276746750e-02 1.8813343718647957e-02 1.0450235009193420e-01 7.4011936783790588e-02 3.0676107853651047e-02 -6.9293297827243805e-02 -8.5669673979282379e-02 3.1447194516658783e-02 -1.8645804375410080e-02 1.6540927812457085e-02 -8.0311484634876251e-02 3.6317579448223114e-02 9.5824345946311951e-02 -8.0228284001350403e-02 -9.8818682134151459e-02 5.6269261986017227e-02 -1.4421796798706055e-01 -2.9519813135266304e-02 3.0216867104172707e-02 5.6357994675636292e-02 -1.2435123324394226e-02 -5.6950520724058151e-02 -1.2143947184085846e-02 1.8536888062953949e-02 2.9580833390355110e-02 1.2800633907318115e-01 -6.4156770706176758e-02 -4.9992636777460575e-03 6.1444833874702454e-02 -8.4439650177955627e-02 -1.1042974889278412e-01 7.2749324142932892e-02 -8.2215808331966400e-02 1.4070110023021698e-01 8.4115445613861084e-02 1.0375441052019596e-02 -9.8009638488292694e-02 2.9852591454982758e-02 4.4390760362148285e-02 -7.8213490545749664e-02 -1.2014576047658920e-01 -6.2413629144430161e-02 7.0490621030330658e-02 -6.5627075731754303e-02 8.6793296039104462e-02 -7.4825443327426910e-02 1.6772810369729996e-02 1.5432509593665600e-02 -7.8013844788074493e-02 7.2313085198402405e-02 -9.3531146645545959e-02 9.2650793492794037e-02 -1.0007370263338089e-01 4.5435678213834763e-02 -4.5923214405775070e-02 8.9435890316963196e-02 -2.6959462091326714e-02 6.5713018178939819e-02 -2.0760243758559227e-02 -5.1320597529411316e-02 -8.6760245263576508e-02 8.9041618630290031e-03 -1.5635551884770393e-02 -7.6943673193454742e-02 -4.1216451674699783e-02 -3.6706928163766861e-02 -6.3297919929027557e-02 1.2890368700027466e-01 -6.7971885204315186e-02 4.5103363692760468e-02 -1.0446678847074509e-01 -6.7672923207283020e-02 3.1866040080785751e-03 1.4564789831638336e-02 8.8872916996479034e-02 1.0344476439058781e-02 1.0674896836280823e-01 -9.3937039375305176e-02 -8.1418873742222786e-03 1.0645215399563313e-02 5.6689262390136719e-02 3.3056214451789856e-02 6.5205864608287811e-02 1.9792959094047546e-02 1.1987048387527466e-01 -5.6475888937711716e-02 -7.4159801006317139e-02 -3.4099437296390533e-02 1.7972367350012064e-03 8.5469312965869904e-02 -3.6846414208412170e-02 -3.6893550306558609e-02 7.5460970401763916e-02 5.6287426501512527e-02 -1.0807480430230498e-03 -1.0508947819471359e-01 -7.0732034742832184e-02 1.4313767850399017e-01 -4.6018484979867935e-02 7.3793523013591766e-02 -2.6040125638246536e-02 -9.6273913979530334e-02 -4.1220214217901230e-02 9.3853682279586792e-02 -8.8393809273838997e-03 -4.6847134828567505e-02 -2.9289677739143372e-02 -2.6330530643463135e-02 1.1959502100944519e-01 8.6604006588459015e-02 -8.2408420741558075e-02 -1.0150176286697388e-01 -7.5699374079704285e-02 -6.1667889356613159e-02 7.9078175127506256e-02 5.9639338403940201e-02 -4.3236680328845978e-02 9.8022194579243660e-03 -3.0133858323097229e-02 2.5678951293230057e-02 -2.8127746190875769e-03 -6.3057288527488708e-02 -7.7234596014022827e-02 -9.8143823444843292e-02 -3.4352768212556839e-02 -1.9006360322237015e-02 -1.1258552782237530e-02 -1.1985605582594872e-02 -1.1484920978546143e-01 -3.7186678498983383e-02 -9.3698389828205109e-02 -7.2631210088729858e-02 8.4899971261620522e-03 -1.0155973583459854e-01 -9.8358236253261566e-02 4.6399575658142567e-03 -3.9106201380491257e-02 -5.1493510603904724e-02 7.4645340442657471e-02 -1.3698785565793514e-02 -5.4314441978931427e-02 -2.1225668489933014e-02 1.3471089303493500e-02 7.8775197267532349e-02 -2.1733352914452553e-03 9.1419726610183716e-02 -1.4791709370911121e-02 -5.2522741258144379e-02 -1.1074054241180420e-01 -1.8009036779403687e-02 -4.0001623332500458e-02 -5.1198787987232208e-02 -3.7541217170655727e-03 -8.6464874446392059e-02 -6.1967991292476654e-02 -2.2659244015812874e-02 -3.3523377031087875e-02 4.2598221451044083e-02 5.3030559793114662e-03 1.0847467184066772e-01 -7.5484193861484528e-02 -8.7816603481769562e-03 7.1874357759952545e-02 1.4807538129389286e-02 -1.3367112725973129e-02 7.4454106390476227e-02 2.0888987928628922e-02 4.5615408569574356e-02 1.1690488085150719e-02 -1.6489196568727493e-02 -1.0670231282711029e-01 -4.9677256494760513e-02 -8.4092564880847931e-02 -6.2505930662155151e-02 6.0188375413417816e-02 -4.7851976007223129e-02 2.0076472312211990e-02 2.5591580197215080e-02 -6.9908335804939270e-02 -9.5720246434211731e-02 2.8300574049353600e-02 -1.0119209438562393e-01 1.1217565089464188e-01 1.0515427589416504e-01 8.9209541678428650e-02 -2.0299481227993965e-02 -5.4790809750556946e-02 3.1102048233151436e-02 -2.3132134228944778e-02 -6.9499120116233826e-02 -9.4488658010959625e-02 6.5645866096019745e-02 -3.0275452882051468e-03 7.1042100898921490e-04 9.6471950411796570e-02 -1.6998926177620888e-02 -3.0135666951537132e-02 -4.3281465768814087e-03 -5.1102638244628906e-02 -2.6557534933090210e-02 1.5172411687672138e-02 -9.8524160683155060e-02 -7.7235653996467590e-02 1.0597457736730576e-01 -3.4298740327358246e-02 2.0482052117586136e-02 -3.0357405543327332e-02 -9.4167977571487427e-02 -5.0891106948256493e-03 4.8045597970485687e-02 -6.7028805613517761e-02 7.6220810413360596e-02 9.0822637081146240e-02 3.5024657845497131e-02 -7.7859289012849331e-03 -1.1565821617841721e-01 -2.9509320855140686e-02 8.2362107932567596e-02 -1.2489034794270992e-02 9.5496475696563721e-02 3.0350051820278168e-03 7.8871689736843109e-02 3.2369859516620636e-02 -4.2103346437215805e-02 -8.6830310523509979e-02 8.9249955490231514e-03 1.8968667834997177e-02 8.1206530332565308e-02 -1.0618709772825241e-01 -8.5485070943832397e-02 -1.0475229471921921e-01 -1.0840344429016113e-01 1.2433598749339581e-02 4.2238768190145493e-02 6.4856611192226410e-02 6.7941695451736450e-02 -5.3530264645814896e-02 -2.0020326599478722e-02 1.1853171885013580e-01 3.9230596274137497e-02 -2.8663070872426033e-02 -1.1992285028100014e-02 7.0398256182670593e-02 -4.3498147279024124e-02 2.2337380796670914e-02 5.5589795112609863e-02 -2.1906774491071701e-02 -7.0583023130893707e-02 5.8779507875442505e-02 1.9153617322444916e-02 1.0730049014091492e-01 -1.0415063239634037e-02 -5.8197103440761566e-02 7.2728343307971954e-02 -4.8538923263549805e-02 2.5778351351618767e-02 -8.0361142754554749e-02 -6.7715108394622803e-02 6.9700092077255249e-02 -7.5168572366237640e-02 9.1422930359840393e-02 -3.9037663489580154e-02 -7.5507819652557373e-02 5.3617525845766068e-02 7.5309425592422485e-02 8.5425794124603271e-02 2.8020720928907394e-02 6.3888229429721832e-02 7.8610487282276154e-02 -2.8176879510283470e-02 -1.0920169949531555e-01 3.8541511166840792e-03 -9.5087960362434387e-03 -2.8816747944802046e-03 7.1660034358501434e-02 -3.9815373718738556e-02 1.0483687371015549e-01 -9.5267921686172485e-02 3.6066219210624695e-02 2.1909780800342560e-02 9.2653185129165649e-02 7.1189478039741516e-02 1.0661472380161285e-01 -1.4770341105759144e-02 1.0015372931957245e-01 -7.6339744031429291e-02 -2.6130776852369308e-02 -1.1039967834949493e-01 9.4060316681861877e-02 -8.7634809315204620e-02 -7.4771703220903873e-03 2.2547481581568718e-02 1.0702351480722427e-01 -3.3927328884601593e-02 -6.3665978610515594e-02 9.1949127614498138e-02 1.0645268112421036e-01 7.2881462983787060e-03 -9.7613118588924408e-02 1.0416584461927414e-01 -2.2408831864595413e-02 8.4149837493896484e-02 9.8739042878150940e-02 -1.0182414948940277e-01 -1.0625073313713074e-01 3.5100318491458893e-02 8.2440212368965149e-02 1.4413752593100071e-02 4.6120095998048782e-02 4.6557698398828506e-02 -4.0092831477522850e-03 -1.1305297911167145e-01 5.9861868619918823e-02 -7.8670300543308258e-02 -5.0859186798334122e-02 6.8334445357322693e-02 -3.7176452577114105e-02 4.1090570390224457e-02 3.5664651542901993e-02 2.0895630121231079e-02 5.5560186505317688e-02 -4.0972623974084854e-02 -4.1485536843538284e-02 -3.3147770911455154e-02 7.6478034257888794e-02 -3.6827847361564636e-02 -1.0577568411827087e-01 -2.1043788641691208e-02 -6.0931142419576645e-02 1.1854213476181030e-01 9.2688837321475148e-04 6.0186395421624184e-03 -3.5287652164697647e-02 -1.1477833241224289e-01 2.1052870899438858e-02 6.5030157566070557e-02 2.4183094501495361e-02 1.1153116077184677e-01 8.1411100924015045e-02 5.4949846118688583e-02 -4.7641664743423462e-02 1.8597496673464775e-02 -2.2884979844093323e-02 6.1238473281264305e-03 -5.2688331343233585e-03 -6.5215945243835449e-02 2.6101034134626389e-02 3.1182579696178436e-02 1.0065920650959015e-01 7.2563581168651581e-02 -9.5423191785812378e-02 8.1915082409977913e-03 -7.7245451509952545e-02 1.0247695446014404e-01 7.8818120062351227e-02 3.1944312155246735e-02 4.3403591960668564e-02 -1.0634294897317886e-01 9.0630523860454559e-02 3.7122823297977448e-02 -1.9866142421960831e-02 -3.6582298576831818e-02 1.0294178873300552e-01 -1.0617295280098915e-02 -6.7664273083209991e-02 5.2587758749723434e-02 -8.0910228192806244e-02 8.0538198351860046e-02 1.8827842548489571e-02 5.6041866540908813e-02 -1.0347151756286621e-01 6.8357954733073711e-03 4.7577034682035446e-02 -5.6017339229583740e-02 1.1370631866157055e-02 8.3476707339286804e-02 -9.7381055355072021e-02 -9.0363726019859314e-02 2.3235226050019264e-02 1.0970830917358398e-01 5.4217763245105743e-02 9.6119984984397888e-02 -7.0312783122062683e-02 7.5338862836360931e-02 3.2294735312461853e-02 -1.2312075123190880e-02 2.7748525142669678e-02 1.7815776169300079e-02 -7.1524806320667267e-02 8.5653275251388550e-02 2.2151658311486244e-02 1.5564119443297386e-02 -8.8812679052352905e-02 -6.7768499255180359e-02 -2.6527076959609985e-02 5.2697110921144485e-02 3.0728576239198446e-03 -1.1227629147469997e-03 -2.6474166661500931e-02 8.0961018800735474e-02 -2.3103938437998295e-03 -8.4900381043553352e-03 -1.0513196885585785e-01 -2.3131828755140305e-02 2.4051047861576080e-02 -5.2653089165687561e-02 5.0803672522306442e-02 1.1656650155782700e-01 -9.9742494523525238e-02 8.8095523416996002e-02 -3.3727645874023438e-02 7.2851151227951050e-02 -2.6418447494506836e-02 -5.2976857870817184e-02 -2.5864085182547569e-02 9.5044463872909546e-02 1.3435909152030945e-01 -7.1590468287467957e-02 -7.9167826334014535e-04 -8.0333143472671509e-02 -1.9463294744491577e-01 -5.6350752711296082e-02 5.5286619812250137e-02 -3.2633323222398758e-02 -2.1907255053520203e-02 1.6298435628414154e-02 5.0329647958278656e-02 -2.9549965634942055e-02 7.4119471013545990e-02 -1.1751400306820869e-02 1.0909941047430038e-01 6.5283454954624176e-02 -6.0591585934162140e-02 1.6129866242408752e-01 5.3698778152465820e-02 1.2162038683891296e-01 3.6279503256082535e-02 2.9439641162753105e-02 -9.5018573105335236e-02 -1.6422219574451447e-02 -5.3600735962390900e-02 7.0883162319660187e-02 1.0042912326753139e-02 -6.7431546747684479e-02 8.3130106329917908e-02 -1.7775388434529305e-02 -8.1854984164237976e-02 -3.2535675913095474e-02 6.6168949007987976e-02 -1.3440175354480743e-01 1.0069293528795242e-01 1.7892574891448021e-02 -1.0049583762884140e-01 -5.2946504205465317e-02 4.6059610322117805e-03 3.6662675440311432e-02 3.6087449640035629e-02 -1.1037560552358627e-01 8.4785163402557373e-02 -6.5086379647254944e-02 6.1838410794734955e-02 8.6703039705753326e-02 -9.2936955392360687e-02 -2.6970045641064644e-02 5.6583948433399200e-02 2.5425184518098831e-02 -7.9320974647998810e-02 6.0977887362241745e-02 3.2597437500953674e-02 -5.9680204838514328e-02 -4.1149601340293884e-02 -3.3565685153007507e-02 1.3273464143276215e-01 6.1814531683921814e-02 -1.0001000761985779e-01 3.0267747119069099e-02 -6.1764657497406006e-02 -1.1825486272573471e-01 -6.5342191373929381e-04 -1.5151857398450375e-02 9.1015398502349854e-02 2.3349478840827942e-02 8.6473107337951660e-02 6.4733609557151794e-02 4.5378323644399643e-02 8.5127487778663635e-02 -5.6910019367933273e-02 -5.5101044476032257e-02 -7.7671729028224945e-02 -7.0644095540046692e-02 1.2033887952566147e-01 -2.7952479198575020e-02 3.1686015427112579e-02 -7.7861793339252472e-02 5.1461163820931688e-05 2.4295452982187271e-02 3.6958198994398117e-02 -1.9714241847395897e-02 -4.2494170367717743e-02 7.3133066296577454e-02 5.5951301008462906e-02 -1.7319227755069733e-01 8.3567544817924500e-02 5.2618615329265594e-02 8.1870816648006439e-02 -6.3406199216842651e-02 6.5368570387363434e-02 3.4773029386997223e-02 5.2068412303924561e-02 1.0472773574292660e-02 5.7626303285360336e-02 -4.0513429790735245e-02 -3.2748885452747345e-02 -4.4463884085416794e-02 1.3933138549327850e-01 5.7492438703775406e-02 -8.2861021161079407e-02 -1.6195297241210938e-01 -1.5858621336519718e-03 -4.9222905188798904e-02 9.1025661677122116e-03 -9.3549668788909912e-02 -1.6749950125813484e-02 4.1445530951023102e-02 1.5741482377052307e-01 -1.0413384437561035e-01 -5.7987283915281296e-02 -1.2159510515630245e-03 -1.9288638606667519e-02 -5.5020987987518311e-02 1.3271966576576233e-01 1.2255562096834183e-01 1.3652722537517548e-01 1.0898983478546143e-01 -1.3492968678474426e-01 5.0315581262111664e-02 -5.2729889750480652e-02 8.3734042942523956e-02 1.5439150854945183e-02 4.2005591094493866e-03 5.0266094505786896e-02 -2.4470554664731026e-02 -3.0628282576799393e-02 -5.9913113713264465e-02 -5.4631661623716354e-02 8.3178244531154633e-02 -4.9307875335216522e-02 6.6638834774494171e-02 -1.5534581243991852e-01 2.3822095245122910e-02 -3.7247792351990938e-03 -7.6278679072856903e-02 6.3759535551071167e-02 5.4386474192142487e-02 3.8944382686167955e-03 1.0571251809597015e-01 7.6375842094421387e-02 1.8659325316548347e-02 -1.1896179988980293e-02 -6.7368529736995697e-02 -1.2972682714462280e-01 1.1754647642374039e-01 -5.1277704536914825e-02 1.0064850747585297e-01 -7.8835740685462952e-02 4.3757654726505280e-02 -8.0902934074401855e-02 -6.1516338028013706e-03 -1.4847587049007416e-01 -1.3196441531181335e-01 -6.4784809947013855e-02 -4.5957040041685104e-02 7.9821199178695679e-02 5.4904907941818237e-02 -8.6893759667873383e-02 -1.0920730978250504e-01 -6.1867758631706238e-02 -1.3079035282135010e-01 -3.6865614354610443e-02 -8.1388223916292191e-03 -2.6083167642354965e-02 8.8848672807216644e-02 -7.9323872923851013e-02 6.6880203783512115e-02 -1.8614040687680244e-02 1.3427737355232239e-01 1.5451882965862751e-02 -1.8298519775271416e-02 9.4544347375631332e-03 2.9725264757871628e-02 2.9327448457479477e-02 3.4762434661388397e-02 3.5615514963865280e-02 -6.1162747442722321e-02 -2.2004335187375546e-03 -1.2698704004287720e-01 1.7670853435993195e-01 1.2008236348628998e-01 2.3430675268173218e-02 -1.9027145579457283e-02 1.2986026704311371e-01 -9.2245645821094513e-02 4.4360917061567307e-02 -1.0120719671249390e-01 -4.8471048474311829e-02 -7.8564509749412537e-02 1.1145469546318054e-01 -6.4758308231830597e-02 1.6094473004341125e-01 2.4851807951927185e-01 1.0700609534978867e-01 1.1465850472450256e-01 -4.6943682245910168e-03 -1.1472078971564770e-02 -9.1019555926322937e-02 1.1278706043958664e-01 -4.7409866005182266e-02 3.1357780098915100e-02 4.3103113770484924e-02 7.6937839388847351e-02 1.4351790770888329e-02 -2.0075384527444839e-02 -6.6599890589714050e-02 3.1907618045806885e-02 2.5921808555722237e-02 4.4042188674211502e-02 -1.4734767377376556e-01 1.3381925225257874e-01 1.0086752474308014e-01 -1.4544606208801270e-01 4.0807861834764481e-02 1.4271163940429688e-01 -8.5677161812782288e-02 -7.7407926321029663e-02 -6.4918667078018188e-02 -5.5436521768569946e-02 -8.5285067558288574e-02 1.6050052642822266e-01 3.3971112221479416e-02 -9.8468460142612457e-02 3.4671880304813385e-02 -5.9144012629985809e-04 1.0704010725021362e-01 5.4507840424776077e-02 7.4228748679161072e-02 3.1444355845451355e-02 1.3820034265518188e-01 3.8726886268705130e-03 1.5818620100617409e-02 -8.6270019412040710e-02 5.0957981497049332e-02 -3.8560375571250916e-02 -3.2937753945589066e-02 7.4528127908706665e-02 9.6824415028095245e-02 -4.1396159678697586e-02 -1.0354912281036377e-01 4.2946212925016880e-03 9.0740241110324860e-02 1.2982231378555298e-01 1.2281602621078491e-01 -7.6330073177814484e-02 4.5074000954627991e-02 9.0686745941638947e-02 -1.1017342656850815e-01 1.3892479240894318e-02 6.6078238189220428e-02 1.0961216688156128e-01 -7.4687965214252472e-02 -7.5685054063796997e-02 -9.6917510032653809e-02 1.9127329811453819e-02 3.4429829567670822e-02 -3.6447491496801376e-02 6.2608279287815094e-02 -2.9514817520976067e-02 6.3823476433753967e-02 -7.0530683733522892e-03 1.2387874722480774e-01 -1.0179162770509720e-01 1.1760757118463516e-01 -1.0889101773500443e-01 -5.1395986229181290e-02 3.5749964416027069e-02 9.9998265504837036e-02 1.0701485909521580e-02 9.3788160011172295e-03 9.4076447188854218e-02 -8.5233531892299652e-02 1.1912522464990616e-01 1.1546196788549423e-01 9.3202330172061920e-02 -7.8857457265257835e-03 -6.1477158218622208e-02 -1.1268023401498795e-01 -2.6925526559352875e-02 5.5469542741775513e-02 -1.2783125042915344e-01 -7.3056884109973907e-02 -7.4457496404647827e-02 -1.0806127637624741e-01 -4.1832584887742996e-02 2.0496923476457596e-02 -8.3613637834787369e-03 5.9698060154914856e-02 -1.0162559337913990e-02 -7.5857549905776978e-02 3.2131411135196686e-02 -7.9973913729190826e-02 -1.4930182136595249e-02 3.7305150181055069e-02 5.8454107493162155e-02 5.2406605333089828e-02 -1.4277569018304348e-02 -7.4460320174694061e-02 -9.3222886323928833e-02 2.7754861861467361e-02 -6.0359449125826359e-03 -1.2848562002182007e-01 -1.0396177321672440e-01 5.1540274173021317e-02 8.2171052694320679e-02 1.5988798812031746e-02 4.7953963279724121e-02 -8.4045350551605225e-02 -2.6651998050510883e-03 -7.8715056180953979e-02 -7.0624714717268944e-03 -6.8025581538677216e-02 -1.0268510133028030e-01 -1.2531119585037231e-01 -5.8451656252145767e-02 4.7482583671808243e-02 5.5611468851566315e-02 8.5510544478893280e-02 -1.1066560447216034e-01 -1.0962102562189102e-01 -3.7580180913209915e-02 3.9684437215328217e-02 -7.5454600155353546e-02 -6.3046336174011230e-02 -5.9379797428846359e-02 -6.3156679272651672e-02 -5.1811471581459045e-02 -2.7906047180294991e-02 8.4762893617153168e-02 4.5695109292864799e-03 6.1232727020978928e-02 -4.0251657366752625e-02 9.2434227466583252e-02 -9.7891697660088539e-03 -3.2269507646560669e-02 8.3895571529865265e-02 1.0816151648759842e-01 -3.9365435950458050e-03 6.4839529804885387e-03 -1.8007960170507431e-02 -5.5755838751792908e-02 2.9588656499981880e-02 -9.4566769897937775e-02 -9.3170844018459320e-02 3.7687297444790602e-03 -1.2163499742746353e-01 -4.4551897794008255e-02 9.5734067261219025e-02 -9.4773665070533752e-02 -8.5124701261520386e-02 -1.2044037878513336e-01 -2.1503966301679611e-02 -7.6464459300041199e-02 4.7459103167057037e-02 1.3134561479091644e-01 7.4715450406074524e-02 -1.7782783135771751e-02 8.2078725099563599e-03 -1.0653860121965408e-01 -2.6277065277099609e-02 -6.8834356963634491e-02 4.2140454053878784e-02 -1.0084971785545349e-01 -5.1975138485431671e-02 -5.5981792509555817e-02 -1.6277913004159927e-02 -5.3785968571901321e-02 1.0490497946739197e-01 -2.2930525243282318e-02 -7.8969798982143402e-02 2.0185783505439758e-02 1.1352534592151642e-01 6.4332537353038788e-02 -5.1730189472436905e-02 -1.4348360896110535e-01 1.8440837040543556e-02 7.8995265066623688e-02 8.8739112019538879e-02 1.7664702609181404e-02 3.9684399962425232e-03 -5.7223342359066010e-02 -9.5447987318038940e-02 -1.3630008697509766e-01 5.2381832152605057e-02 2.9593713581562042e-02 -5.9440050274133682e-02 1.2322816252708435e-01 -1.0486835613846779e-02 7.2013355791568756e-02 -7.6566413044929504e-03 -3.3600788563489914e-02 1.3119268231093884e-02 2.9653783887624741e-02 7.5884968042373657e-02 -8.7829396128654480e-02 -4.2374446056783199e-03 -9.7901351749897003e-02 2.3975461721420288e-02 1.2249185889959335e-01 -9.1358795762062073e-02 -8.9791946113109589e-02 -3.0747883021831512e-02 -9.9567836150527000e-04 -1.0857723653316498e-01 3.8362995255738497e-03 7.5896814465522766e-02 6.9697752594947815e-02 4.7672796994447708e-02 -7.8256390988826752e-02 -3.0810093507170677e-02 9.4014336355030537e-04 1.3312931358814240e-01 1.0764445364475250e-01 9.7579434514045715e-03 5.6204877793788910e-02 9.3928284943103790e-02 -5.7265963405370712e-02 6.2829725444316864e-02 -4.2286518961191177e-02 -8.2497194409370422e-02 1.0161124169826508e-01 9.4729229807853699e-02 -1.4952534437179565e-01 8.0017849802970886e-02 -7.9701840877532959e-02 8.2607954740524292e-02 -5.8681625872850418e-02 -1.2481598556041718e-01 -8.4362663328647614e-02 -6.2398102134466171e-02 1.7410913482308388e-02 5.4167397320270538e-02 3.3828724175691605e-02 -5.1557406783103943e-02 1.1168953776359558e-01 -7.2831220924854279e-02 -8.7616473436355591e-02 3.4502267837524414e-02 5.6571215391159058e-02 3.2600581645965576e-02 -4.4370796531438828e-02 -3.8683462888002396e-02 1.0866425186395645e-01 6.8415746092796326e-02 1.4224818348884583e-01 -9.6652731299400330e-02 2.3555384948849678e-02 7.4572004377841949e-02 3.6959941498935223e-03 4.8192515969276428e-02 -4.2482253164052963e-02 3.2251540571451187e-02 9.6114993095397949e-02 1.9167266786098480e-02 1.5460856957361102e-03 1.2589992582798004e-01 7.7716365456581116e-02 -6.3816599547863007e-02 -1.4773634076118469e-01 -8.3118537440896034e-04 -7.4823357164859772e-02 -1.0493075847625732e-01 1.5646217390894890e-02 9.1876260936260223e-02 6.2803708016872406e-02 8.1714674830436707e-02 -7.6731294393539429e-02 8.7021090090274811e-02 3.7272058427333832e-02 5.5944039486348629e-03 5.1880117505788803e-02 7.0639275014400482e-02 4.4336181133985519e-02 -1.0754684358835220e-01 1.0805862396955490e-01 -9.0708598494529724e-02 6.6847115755081177e-02 1.7965910956263542e-02 9.6926046535372734e-03 -3.7376299500465393e-02 8.1150293350219727e-02 1.0721065849065781e-01 8.0282956361770630e-02 -3.4298311918973923e-02 5.5997584015130997e-02 1.5526263043284416e-02 1.0239790380001068e-01 -3.9309680461883545e-02 1.2669923901557922e-01 -2.5533722713589668e-02 -1.0303782671689987e-01 -6.9363303482532501e-02 -5.1745953969657421e-03 -9.3583114445209503e-02 2.7030626311898232e-02 -2.7828972786664963e-02 -3.4114405512809753e-02 9.5265530049800873e-02 1.1846101842820644e-02 -1.1052804440259933e-01 6.3921757042407990e-02 6.7415740340948105e-03 7.9484179615974426e-02 -1.1462707072496414e-01 -7.3597997426986694e-02 4.7463946044445038e-02 -7.9475127160549164e-02 -7.5822714716196060e-03 8.1289976835250854e-02 5.3317211568355560e-02 1.0745452344417572e-01 9.4556078314781189e-02 3.8364797830581665e-02 -8.9292302727699280e-02 1.6435747966170311e-02 -8.1727892160415649e-02 -2.9085157439112663e-02 -1.0780755430459976e-01 -1.2088365107774734e-01 4.7825071960687637e-02 3.0343404505401850e-03 -6.7327551543712616e-02 2.0020274445414543e-02 -7.5047075748443604e-02 -2.4164799600839615e-02 6.5223023295402527e-02 -5.5650971829891205e-02 2.8241811320185661e-02 3.0439635738730431e-02 -7.5544372200965881e-02 1.0248631983995438e-01 -4.2618911713361740e-02 -3.7047538906335831e-02 -8.2191467285156250e-02 9.4161249697208405e-02 -9.6506051719188690e-02 1.0155081003904343e-01 -1.8825981765985489e-02 5.9963840991258621e-02 7.2364948689937592e-02 -9.3827068805694580e-02 -7.1880117058753967e-02 -6.2485802918672562e-02 1.8126416951417923e-02 -3.7931192666292191e-02 8.2636401057243347e-02 -9.5989018678665161e-02 -3.9201468229293823e-02 -8.6611129343509674e-02 2.8640318661928177e-02 -5.9361148625612259e-02 -7.8507966827601194e-04 -1.0434379428625107e-01 -8.0505691468715668e-02 -6.4913630485534668e-02 1.7246872186660767e-02 -5.3641669452190399e-02 6.9358520209789276e-02 7.0287309587001801e-02 5.0845630466938019e-02 -1.0754951834678650e-01 -9.5231086015701294e-02 -8.4180116653442383e-02 -1.0405631363391876e-01 -1.4879707247018814e-02 4.6757105737924576e-02 -1.9796589389443398e-02 1.0002963989973068e-01 1.0648203641176224e-01 4.0502518415451050e-02 -4.7399189323186874e-02 -1.0213070549070835e-02 -1.9602533429861069e-02 8.5728615522384644e-02 -3.2885547727346420e-02 7.1879334747791290e-02 2.9373863711953163e-02 3.4282866865396500e-02 6.7543655633926392e-02 -8.6201019585132599e-02 -7.3874726891517639e-02 2.6935102418065071e-02 -9.5773838460445404e-02 -1.0444492101669312e-01 -6.3554815948009491e-02 -5.8600459247827530e-02 -3.8933925330638885e-02 -1.0521166026592255e-01 -5.5176351219415665e-02 -6.1612591147422791e-02 2.4629810824990273e-02 -8.5609331727027893e-02 -6.2967412173748016e-02 -1.1332169920206070e-01 -7.1029835380613804e-03 -8.5243277251720428e-02 -1.1245532333850861e-01 8.8209152221679688e-02 -3.1572725623846054e-02 7.6015884988009930e-03 -1.1413838365115225e-04 1.1838065087795258e-01 -4.9732793122529984e-02 -6.0395598411560059e-02 -6.5453457646071911e-03 -8.6836457252502441e-02 -3.7874191999435425e-02 -9.0177558362483978e-02 -8.3952061831951141e-02 9.7065277397632599e-02 -8.9219726622104645e-02 -9.9114358425140381e-02 -5.8062717318534851e-02 3.5144479479640722e-03 -9.5705881714820862e-02 1.4001679420471191e-01 -8.9671239256858826e-02 -5.2951890975236893e-02 -8.2180604338645935e-02 6.3148707151412964e-02 -1.5012294985353947e-02 2.8608076274394989e-02 -1.7537992680445313e-03 -1.0759873315691948e-02 1.1097270250320435e-01 -3.2139372080564499e-02 5.5972095578908920e-02 9.5831707119941711e-02 -1.8423935398459435e-02 -8.1145696341991425e-02 -1.9689818844199181e-02 -6.0412865132093430e-02 4.3802183121442795e-02 7.3440000414848328e-03 -1.4804750389885157e-04 7.4709385633468628e-02 -2.1733488887548447e-02 -2.0107973366975784e-02 8.3550795912742615e-02 7.6541796326637268e-02 -1.0570530593395233e-01 -8.6597040295600891e-02 9.8730027675628662e-02 1.0256160981953144e-02 -4.5619700103998184e-02 1.2562507390975952e-01 3.9518974721431732e-02 9.4943232834339142e-02 7.8068561851978302e-02 4.8829592764377594e-02 -3.7450205534696579e-02 -3.9546489715576172e-02 -3.9940498769283295e-02 4.1001275181770325e-02 -1.0747195035219193e-01 -1.1052846163511276e-01 2.7339642867445946e-02 6.5014339983463287e-02 1.0576751083135605e-01 4.0767353028059006e-02 -5.4320074617862701e-02 6.6478729248046875e-02 -8.3241082727909088e-02 -8.9362561702728271e-02 -5.4569248110055923e-02 3.4388568252325058e-02 8.3125613629817963e-02 1.0697872936725616e-01 -5.1763717085123062e-02 3.8106791675090790e-02 -7.6529614627361298e-02 -1.9399052485823631e-02 -3.3829052001237869e-02 1.0884255170822144e-01 -6.8083822727203369e-02 -3.1039752066135406e-02 -4.4629812240600586e-02 -1.1581119149923325e-01 -4.0610603988170624e-02 3.9102051407098770e-02 2.7059221640229225e-02 4.8024520277976990e-02 8.9025706052780151e-02 -6.6524617373943329e-02 -5.6792601943016052e-02 3.5621937364339828e-02 -6.7990183830261230e-02 1.2842996418476105e-01 1.1973943561315536e-01 -1.4299985952675343e-02 -9.5820382237434387e-02 9.9342204630374908e-02 -5.5817138403654099e-02 8.6793437600135803e-02 -8.5434786975383759e-02 7.7357077971100807e-03 -4.3112289160490036e-02 -1.0708567500114441e-01 8.2998732104897499e-03 2.1839940454810858e-03 5.6920751929283142e-02 1.5314142219722271e-02 -8.9762315154075623e-02 1.3028801977634430e-01 7.0248112082481384e-02 7.0944987237453461e-02 3.6643553525209427e-02 1.1011435091495514e-01 -2.9973201453685760e-02 2.0294578745961189e-02 -2.0745817571878433e-02 -1.0812513530254364e-01 -4.9307290464639664e-02 -8.7705127894878387e-02 -4.0184441953897476e-02 -4.1647017933428288e-03 -7.1143455803394318e-02 5.1947303116321564e-02 -9.1905981302261353e-02 -1.6040710732340813e-02 -7.6006434857845306e-02 3.9690431207418442e-02 -7.8519158065319061e-02 1.0520713031291962e-01 3.6661732941865921e-02 -2.7736270800232887e-02 -5.7619486004114151e-02 5.0735872238874435e-02 -1.2164551764726639e-01 1.2631283700466156e-01 1.3500677049160004e-01 -2.6291601359844208e-02 -2.2346610203385353e-02 -5.9137966483831406e-02 -1.2410412728786469e-01 -8.3001084625720978e-02 -4.2593181133270264e-02 5.4980110377073288e-02 8.5147954523563385e-03 -2.8690202161669731e-02 -1.2133062630891800e-01 -1.0422240011394024e-02 -1.5562616288661957e-01 1.2264611199498177e-02 -8.3672724664211273e-02 -6.7080512642860413e-02 5.1957005634903908e-03 2.8832029551267624e-02 -2.7187250554561615e-02 1.4017207920551300e-01 -1.6204153001308441e-01 8.1714786589145660e-02 1.0955058038234711e-02 5.8144140988588333e-02 3.0025426298379898e-02 1.8622906506061554e-01 -4.2435526847839355e-03 -9.2648332938551903e-03 1.5530729293823242e-01 -6.1249602586030960e-03 1.2704285979270935e-01 2.2624495904892683e-03 1.5361775457859039e-01 -4.5242574065923691e-02 -8.4788054227828979e-02 1.1892963945865631e-01 6.1043273657560349e-02 1.4085969328880310e-01 -9.8041437566280365e-02 2.2459785640239716e-01 1.4462057501077652e-02 -1.8089872598648071e-01 3.3310960978269577e-02 -1.1591108515858650e-02 1.0110169649124146e-01 -8.6616016924381256e-02 3.0878832563757896e-02 1.9255755469202995e-02 8.4582567214965820e-03 8.8380865752696991e-02 1.2972232699394226e-01 -5.4026760160923004e-02 1.1130829900503159e-01 -4.0593713521957397e-02 1.9272276759147644e-01 1.3394398987293243e-01 -2.3140083998441696e-02 -9.4532646238803864e-02 -5.0551863387227058e-03 -2.7401324361562729e-02 9.8169527947902679e-02 7.0278503000736237e-02 -4.6924345195293427e-02 -4.4779576361179352e-02 7.4076145887374878e-02 -1.0467079281806946e-01 9.2318713665008545e-02 8.6711600422859192e-02 -6.5147481858730316e-02 1.2379445880651474e-01 -1.6583506017923355e-02 4.5726001262664795e-02 -5.5994022637605667e-02 5.3584713488817215e-02 4.2040430009365082e-02 -6.0768272727727890e-02 -2.0192943513393402e-02 1.0136330127716064e-01 3.7367064505815506e-02 -4.1084084659814835e-02 7.1013253182172775e-03 -5.9025688096880913e-03 -1.3477626256644726e-02 -5.0900276750326157e-02 -3.2086567953228951e-03 -5.9569176286458969e-02 1.3312791474163532e-02 -5.9868046082556248e-03 -1.3950042426586151e-01 1.2490686029195786e-01 -3.0859174206852913e-02 1.1848784238100052e-01 -1.8578933551907539e-02 -7.7089332044124603e-03 -9.6278741955757141e-02 -1.5200996398925781e-01 1.1231964081525803e-01 1.5080851316452026e-01 -7.9581988975405693e-03 4.3134395033121109e-02 6.9526515901088715e-02 7.1467645466327667e-02 1.1471953988075256e-01 -4.2165685445070267e-02 -4.4494070112705231e-02 2.7046414092183113e-02 9.4043007120490074e-03 7.6460748910903931e-02 8.5415765643119812e-02 -4.4971734285354614e-02 1.1987731605768204e-01 -7.2983816266059875e-02 -9.3988277018070221e-02 6.4565137028694153e-02 -1.2074439972639084e-01 1.3143427670001984e-01 4.3182659894227982e-02 2.6922494173049927e-02 6.1121419072151184e-02 1.0967676341533661e-01 -2.3880233988165855e-02 2.6581995189189911e-02 9.5633104443550110e-02 3.4826116170734167e-03 7.1407988667488098e-02 8.5135839879512787e-02 9.0687930583953857e-02 8.5345461964607239e-02 -5.1665995270013809e-02 -1.1496002972126007e-01 -5.1215507090091705e-02 9.6498049795627594e-02 1.4204781502485275e-02 -2.9498089104890823e-02 -8.3307571709156036e-02 9.0722106397151947e-03 3.3502038568258286e-02 2.7057509869337082e-02 6.7935734987258911e-02 2.0802146755158901e-03 -1.1636606603860855e-01 6.7943274974822998e-02 5.8382183313369751e-02 6.9300390779972076e-02 4.9583766609430313e-02 -1.1808531731367111e-01 7.5851045548915863e-02 -2.8087543323636055e-02 -7.5685046613216400e-02 -1.1340739578008652e-01 9.9378831684589386e-02 -3.7394583225250244e-02 6.7539259791374207e-02 2.5732761248946190e-02 1.9847627729177475e-02 8.0124497413635254e-02 1.1069717258214951e-01 -6.7369587719440460e-02 -8.5470467805862427e-02 8.2413535565137863e-03 -8.7826095521450043e-02 -4.1796524077653885e-02 -3.7100132554769516e-02 -9.9230036139488220e-02 -2.2931238345336169e-04 5.9223257005214691e-02 -5.8530528098344803e-02 2.1785387769341469e-02 -8.4400158375501633e-03 -3.1474277377128601e-02 -2.7457825839519501e-02 1.3788295909762383e-02 3.5284709185361862e-02 4.5487251132726669e-02 -3.3097829669713974e-02 -3.1281810253858566e-02 1.3200433552265167e-01 4.4124118983745575e-02 9.9815271794795990e-02 -1.2396397441625595e-01 1.1844442784786224e-01 6.3043795526027679e-02 -5.7263553142547607e-02 5.6071374565362930e-02 -1.3676340691745281e-02 -6.9499909877777100e-02 -2.1415734663605690e-02 3.8377631455659866e-02 -5.8543194085359573e-02 3.6310480209067464e-04 -3.7996087223291397e-02 1.1307076364755630e-01 1.2444946914911270e-02 -2.5863643735647202e-02 -1.8868817016482353e-02 9.0181203559041023e-03 5.4393142461776733e-02 1.1895666271448135e-01 -2.3340664803981781e-02 -7.9280257225036621e-02 5.6341692805290222e-02 5.8297712355852127e-02 -5.0626579672098160e-02 -4.6447109431028366e-02 -6.0580126941204071e-02 1.1262892931699753e-01 -6.7684508860111237e-02 4.5263409614562988e-02 -6.7894652485847473e-02 -5.6557998061180115e-02 -9.7994066774845123e-02 8.9319333434104919e-02 -8.8625006377696991e-02 -4.1319094598293304e-02 1.0110004246234894e-01 2.3156946524977684e-02 6.0410041362047195e-02 8.7110502645373344e-03 7.4588239192962646e-02 6.3137821853160858e-02 8.8535465300083160e-02 4.5067649334669113e-03 -1.0294460505247116e-01 7.7290125191211700e-02 -5.5424567312002182e-02 -8.2386359572410583e-02 6.9198384881019592e-02 1.4074000716209412e-01 -9.5300666987895966e-02 1.2230098247528076e-01 5.1192753016948700e-02 4.9755573272705078e-02 1.4221212267875671e-01 3.7295658141374588e-02 -1.2229763902723789e-02 -3.1906776130199432e-02 -6.9262176752090454e-02 -7.3164381086826324e-02 -5.1985763013362885e-02 -7.5281642377376556e-02 -3.6885812878608704e-02 -5.5788133293390274e-02 1.6698189079761505e-01 -7.8296795487403870e-02 -6.2647112645208836e-03 -4.7316331416368484e-02 -3.9561204612255096e-02 2.6405327022075653e-02 -3.3732198178768158e-02 -1.2481628358364105e-01 3.9244588464498520e-02 -6.3266009092330933e-02 -4.0145128965377808e-02 6.9990955293178558e-02 5.0011973828077316e-02 -1.2491129338741302e-01 7.7618807554244995e-02 -3.1523343175649643e-02 5.5159058421850204e-02 1.3136322796344757e-01 6.3664622604846954e-02 -6.7640960216522217e-02 -5.2871681749820709e-02 6.7015513777732849e-02 7.1044497191905975e-02 -7.3087625205516815e-02 -3.6480627954006195e-02 -6.3261352479457855e-02 2.4602381512522697e-02 -5.3594604134559631e-02 -2.0266965031623840e-02 6.3885353505611420e-02 -6.7170374095439911e-02 1.1387643963098526e-01 -5.4968681186437607e-02 -7.5153864920139313e-02 3.8846176117658615e-02 4.4236946851015091e-02 1.3297059573233128e-02 -5.1088280975818634e-02 4.6461708843708038e-02 -4.2713314294815063e-02 -3.1717941164970398e-02 -9.6686653792858124e-02 7.7721476554870605e-02 -6.1591502279043198e-02 9.6606113016605377e-02 2.3661540821194649e-02 3.7974622100591660e-02 -2.2341610863804817e-02 7.7055744826793671e-02 1.0433721542358398e-01 -1.2574493885040283e-01 7.2295941412448883e-02 7.7586144208908081e-02 -7.5851961970329285e-02 -5.7934287935495377e-02 -3.9158731698989868e-02 -1.1484667658805847e-01 1.5198828279972076e-01 -4.2340219952166080e-03 -1.7254607751965523e-02 -8.0483585596084595e-02 -5.4112143814563751e-02 -7.0297963917255402e-02 -6.4392790198326111e-02 1.0690720379352570e-01 -8.3698563277721405e-02 4.7311779111623764e-02 -1.4535096287727356e-01 8.2794979214668274e-02 -4.6819966286420822e-02 -1.1056886613368988e-01 -8.2134380936622620e-02 9.0703003108501434e-02 -1.1155889183282852e-01 1.0311139374971390e-01 -5.3989958018064499e-02 -1.3223448395729065e-01 -9.6404351294040680e-02 -7.4151732027530670e-02 -3.4174881875514984e-02 -2.1607130765914917e-02 -1.8163373693823814e-02 5.8294136077165604e-02 -7.7219620347023010e-02 -8.6013883352279663e-02 -3.7662093527615070e-03 -1.2752079963684082e-01 4.3060645461082458e-02 1.2756775319576263e-01 -2.1780304610729218e-02 4.8208750784397125e-02 -4.5339394360780716e-02 4.3068531900644302e-02 8.2865422591567039e-03 7.0489592850208282e-02 4.1209306567907333e-02 -4.0086619555950165e-02 -9.1433025896549225e-02 7.1660354733467102e-03 7.4027314782142639e-02 -2.4231608957052231e-02 4.1019037365913391e-02 -6.8349406123161316e-02 5.8763273060321808e-02 4.6447493135929108e-02 -1.0820557922124863e-01 2.0169341936707497e-02 1.1955255642533302e-02 -7.9934217035770416e-02 -1.0275731980800629e-01 9.5769405364990234e-02 6.1500422656536102e-02 -2.7530565857887268e-02 -5.9504490345716476e-03 -6.1751581728458405e-02 -4.2123217135667801e-02 6.1987612396478653e-02 1.1247323825955391e-02 2.4224234744906425e-02 -1.9042553380131721e-02 -7.4593968689441681e-02 6.0392454266548157e-02 5.8238923549652100e-02 -6.9371044635772705e-02 -1.0262960940599442e-01 -1.5133239328861237e-02 4.4826189987361431e-03 7.1694911457598209e-03 8.4876634180545807e-02 7.6625570654869080e-02 -5.9714678674936295e-02 2.6975991204380989e-03 1.4137005805969238e-01 7.0187188684940338e-02 -3.7264283746480942e-02 9.4468742609024048e-02 -1.1557264626026154e-01 5.3591679781675339e-02 -8.4562674164772034e-02 -3.8438115268945694e-02 -1.6404585540294647e-01 -3.6879364401102066e-02 -8.3377644419670105e-02 2.9056435450911522e-02 9.6794217824935913e-03 1.3095995783805847e-01 9.2025890946388245e-02 5.1396366208791733e-02 9.3918554484844208e-02 7.5489401817321777e-02 4.6601258218288422e-02 3.0830683186650276e-02 -7.2029702365398407e-02 4.0554121136665344e-02 8.6219184100627899e-02 1.0666865855455399e-01 5.1799289882183075e-02 -2.0513603463768959e-02 -1.8368501216173172e-02 -1.4184741675853729e-01 -1.2721420824527740e-01 -8.8364049792289734e-02 1.2640706263482571e-02 7.2025842964649200e-02 7.1613490581512451e-02 1.0636423528194427e-01 -8.9728534221649170e-02 -2.0647896453738213e-02 -6.4679674804210663e-02 -1.1628222465515137e-01 1.4021782577037811e-01 -6.3270283862948418e-03 1.4308538287878036e-02 1.2997999787330627e-01 1.3701044023036957e-02 1.5102868899703026e-02 -2.8792550787329674e-02 -9.8381422460079193e-02 -9.8727203905582428e-02 1.4219406247138977e-01 6.2161557376384735e-02 -5.1513802260160446e-02 7.2339206933975220e-02 -7.9729840159416199e-02 -3.2959721982479095e-02 9.6487939357757568e-02 4.4342748820781708e-02 -1.2407794594764709e-01 -6.9653005339205265e-03 4.5142710208892822e-02 -6.5134033560752869e-02 9.6403732895851135e-02 -3.4398630261421204e-02 -6.9159992039203644e-02 -9.4442248344421387e-02 -5.1274798810482025e-02 -3.2873515039682388e-02 7.4691243469715118e-02 -1.0096120089292526e-01 6.6062420606613159e-02 -4.4175591319799423e-02 -4.3897569179534912e-02 -6.6157065331935883e-02 3.3360708039253950e-03 1.1424465104937553e-02 4.8213373869657516e-02 5.1387336105108261e-02 -6.2982112169265747e-02 1.1377669125795364e-01 -7.9780168831348419e-02 3.8117025047540665e-02 1.0953031480312347e-01 1.3231448829174042e-01 -1.1831442266702652e-01 -6.1056725680828094e-02 -4.5301418751478195e-02 1.8430387601256371e-02 -6.4117334783077240e-02 9.5160797238349915e-02 -9.5557123422622681e-02 9.5308959484100342e-02 -3.7945955991744995e-02 1.0938405990600586e-01 5.8289788663387299e-02 -8.1301495432853699e-02 8.3978272974491119e-02 -1.3366997241973877e-02 -7.2135306894779205e-02 9.6086263656616211e-03 -4.2256720364093781e-02 8.4405561210587621e-04 -5.7257458567619324e-02 5.4581072181463242e-02 -8.0724351108074188e-02 3.5796076059341431e-02 -8.8038168847560883e-02 -8.4125377237796783e-02 -1.0859565436840057e-01 1.2423158437013626e-01 3.5605177283287048e-02 3.1754799187183380e-02 -8.2328289747238159e-02 8.3675794303417206e-02 1.3561330735683441e-01 -2.4170117452740669e-02 5.4357614368200302e-02 -8.0930843949317932e-02 -6.7147441208362579e-02 3.6507546901702881e-02 1.0766673833131790e-02 -7.4873782694339752e-02 -5.3098395466804504e-02 -4.8479758203029633e-02 -5.8600805699825287e-02 8.2557700574398041e-02 -4.7355063259601593e-02 -1.1251892149448395e-01 9.9962525069713593e-02 2.9013551771640778e-02 9.5955222845077515e-02 -3.7039536982774734e-02 4.0400107391178608e-03 9.6176095306873322e-02 8.1751234829425812e-02 -7.9754196107387543e-02 1.0200539976358414e-01 7.4615247547626495e-02 1.0409276187419891e-01 8.8708996772766113e-02 8.2378819584846497e-02 4.2634800076484680e-02 2.2404825314879417e-02 -7.9720564186573029e-02 1.2378088384866714e-01 1.7539346590638161e-03 -5.4010659456253052e-02 -7.8766800463199615e-02 -4.7168951481580734e-02 -6.5913419239223003e-03 -7.2952367365360260e-02 -1.4804216101765633e-02 1.2981700710952282e-02 6.2876329757273197e-03 -5.2948273718357086e-02 -1.3415588438510895e-01 -7.2571150958538055e-02 1.9928602501749992e-02 -1.7288981005549431e-02 1.1317292600870132e-01 6.1444427818059921e-02 -2.5307338219136000e-03 3.9729103446006775e-02 8.0509223043918610e-02 -1.0542280226945877e-01 5.7009328156709671e-02 -9.4502888619899750e-02 6.1023928225040436e-02 6.7788772284984589e-02 1.4056091196835041e-02 1.2983526289463043e-01 4.6231217682361603e-02 3.3493025694042444e-03 3.2017666846513748e-02 6.8885304033756256e-02 -5.4110765457153320e-02 -6.8029679358005524e-02 3.4188020974397659e-02 -8.8291965425014496e-02 -3.8401193916797638e-02 1.1484827846288681e-01 1.1402290314435959e-01 -1.1660351417958736e-02 -1.1595772951841354e-01 1.8985759466886520e-02 8.0431811511516571e-02 -6.1389181762933731e-02 1.2935993261635303e-02 -5.1655005663633347e-02 7.7465564012527466e-02 6.3067816197872162e-02 -6.0132376849651337e-02 1.0873110592365265e-01 -2.7622222900390625e-02 8.3807095885276794e-02 5.5168122053146362e-02 8.4469668567180634e-02 -1.3688997924327850e-01 1.0013817995786667e-01 7.2189040482044220e-02 7.4654400348663330e-02 -6.7595116794109344e-02 -9.5894560217857361e-02 -4.8647563904523849e-02 -5.7338360697031021e-02 2.9163740575313568e-02 9.1952815651893616e-02 7.1643374860286713e-02 7.9697832465171814e-02 -3.4875459969043732e-02 -7.9579055309295654e-03 9.4619102776050568e-02 -6.3403829932212830e-02 2.0627932623028755e-02 8.8310025632381439e-02 4.9654375761747360e-02 9.0252302587032318e-02 3.9235249161720276e-02 -4.2424306273460388e-02 6.2473318539559841e-03 -2.7682537212967873e-02 -4.7988925129175186e-02 1.8543161451816559e-02 -9.5169387757778168e-02 2.5979926809668541e-02 -8.0698303878307343e-02 -2.5026503950357437e-02 -2.5597646832466125e-02 -2.2011851891875267e-02 -7.4265763396397233e-04 1.0600177943706512e-01 -1.6368662938475609e-02 -7.4909351766109467e-02 -3.0649409163743258e-03 1.1245983839035034e-01 4.7477232292294502e-03 -1.2970617413520813e-01 -6.4954720437526703e-02 -3.7748616188764572e-02 -8.0248020589351654e-02 6.8518362939357758e-02 2.9413787648081779e-02 -2.7226964011788368e-02 1.3086877763271332e-02 -1.0987048596143723e-01 1.0798581689596176e-01 -1.6750330105423927e-02 -1.0914609581232071e-01 3.5806132946163416e-03 -5.7422075420618057e-02 1.0091971606016159e-01 1.0856414586305618e-01 -6.6468454897403717e-02 4.5312594622373581e-02 1.1073341220617294e-01 2.0722402259707451e-02 -1.6087591648101807e-01 7.6007053256034851e-02 -3.3118568826466799e-03 -1.1028153449296951e-01 6.6436015069484711e-02 1.0466987639665604e-01 -1.4902891218662262e-01 8.0121837556362152e-02 1.2236088514328003e-02 -1.1175666935741901e-02 -1.0083619272336364e-03 8.6955919861793518e-02 9.3605685979127884e-03 -3.6461032927036285e-02 1.9210389582440257e-03 -6.8408204242587090e-03 7.3611363768577576e-02 -1.0658789426088333e-01 2.6982834562659264e-02 -6.6661953926086426e-02 8.3034507930278778e-02 -1.1466053873300552e-01 -2.1817084401845932e-02 -1.2384736537933350e-01 5.6090239435434341e-02 4.2729832231998444e-02 1.4619964361190796e-01 -1.0309731960296631e-01 8.8082097470760345e-02 7.3387950658798218e-02 -7.8214913606643677e-02 -6.9679774343967438e-02 6.3083671033382416e-02 4.1243817657232285e-02 -8.5730209946632385e-02 8.5207447409629822e-02 -1.1185989528894424e-01 1.0925495624542236e-01 -9.1822542250156403e-02 -2.9985444620251656e-02 1.8841071054339409e-02 -9.9410705268383026e-02 -9.7212910652160645e-02 -1.0362425446510315e-01 -4.4734932482242584e-02 -1.3671572506427765e-01 -6.3760720193386078e-02 -5.4859407246112823e-02 -3.0422758311033249e-02 -3.0942976009100676e-03 -7.6549865305423737e-02 1.1727482825517654e-01 3.0437259003520012e-02 -2.6313187554478645e-02 -6.1889369040727615e-02 9.8150290548801422e-02 -6.0305930674076080e-02 -9.3365058302879333e-02 -1.9629625603556633e-02 1.2912246398627758e-02 -8.4519363939762115e-02 -3.0253757722675800e-03 3.4056056290864944e-02 1.2590166181325912e-02 -2.7867041528224945e-02 1.1451921612024307e-01 1.1748902499675751e-01 2.9592219740152359e-02 4.7789834439754486e-02 7.7952884137630463e-02 1.1040563695132732e-02 -2.1986406296491623e-02 1.4418657124042511e-01 9.1249048709869385e-03 -2.7658248320221901e-02 -1.0957910120487213e-01 4.9336208030581474e-03 4.2933557182550430e-02 -2.0186685025691986e-02 8.3853386342525482e-02 -1.1827071011066437e-01 5.4828274995088577e-02 9.3628667294979095e-02 -8.6210453882813454e-03 8.7440432980656624e-03 1.5121118724346161e-01 5.7824399322271347e-02 1.1390564963221550e-02 -6.4146324992179871e-02 7.9572990536689758e-02 -7.5042091310024261e-02 -2.6079520583152771e-02 7.7178895473480225e-02 -5.7191304862499237e-02 -1.7369503155350685e-02 2.2432437166571617e-02 -1.9447186961770058e-02 -1.9171254709362984e-02 1.1380912363529205e-01 -6.7791581386700273e-04 -3.2835654914379120e-02 -8.3706140518188477e-02 -1.1979904025793076e-01 -2.8148282319307327e-02 1.5003497712314129e-02 1.1630132794380188e-02 4.5850746333599091e-02 -2.9223199933767319e-02 1.0795313119888306e-01 -7.3643729090690613e-02 1.0343215614557266e-01 -1.2328707426786423e-01 -6.0031734406948090e-02 9.2577777802944183e-02 3.0866777524352074e-02 -5.4763339459896088e-02 8.3789706230163574e-02 1.7897957563400269e-01 8.2014054059982300e-02 -8.4084749221801758e-02 -3.7195660173892975e-02 1.4406283199787140e-01 3.6300718784332275e-02 3.0858783051371574e-02 1.6554100438952446e-02 9.7824387252330780e-02 -5.5726673454046249e-02 4.4409703463315964e-02 7.3072016239166260e-02 -6.2964111566543579e-02 -1.5029399655759335e-03 