<?xml version="1.0"?>
<MethodSetup Method="DNN::DNN_NanoV9_V1_2020_BMET_multi_x1">
  <GeneralInfo>
    <Info name="TMVA Release" value="4.2.1 [262657]"/>
    <Info name="ROOT Release" value="6.12/07 [396295]"/>
    <Info name="Creator" value="hum"/>
    <Info name="Date" value="Mon Mar  7 11:51:16 2022"/>
    <Info name="Host" value="Linux vocms0301.cern.ch 2.6.32-696.30.1.el6.x86_64 #1 SMP Tue May 22 06:09:36 CEST 2018 x86_64 x86_64 x86_64 GNU/Linux"/>
    <Info name="Dir" value="/afs/cern.ch/work/h/hum/public/CMSSW_10_2_13/src/ChargedHiggs/Analysis"/>
    <Info name="Training events" value="27363"/>
    <Info name="TrainingTime" value="1.12773809e+01"/>
    <Info name="AnalysisType" value="Multiclass"/>
  </GeneralInfo>
  <Options>
    <Option name="V" modified="Yes">True</Option>
    <Option name="VerbosityLevel" modified="No">Verbose</Option>
    <Option name="VarTransform" modified="Yes">N</Option>
    <Option name="H" modified="Yes">False</Option>
    <Option name="CreateMVAPdfs" modified="No">False</Option>
    <Option name="IgnoreNegWeightsInTraining" modified="No">False</Option>
    <Option name="Layout" modified="Yes">SIGMOID|32,TANH|32,TANH|16,LINEAR</Option>
    <Option name="ValidationSize" modified="No">20%</Option>
    <Option name="ErrorStrategy" modified="Yes">CROSSENTROPY</Option>
    <Option name="WeightInitialization" modified="Yes">XAVIERUNIFORM</Option>
    <Option name="Architecture" modified="Yes">CPU</Option>
    <Option name="TrainingStrategy" modified="Yes">LearningRate=1e-1,Momentum=0.5,Repetitions=1,ConvergenceSteps=20,BatchSize=256,TestRepetitions=10,WeightDecay=1e-4,Regularization=L2,DropConfig=0.0+0.1+0.25,</Option>
  </Options>
  <Variables NVar="13">
    <Variable VarIndex="0" Expression="j1QGL" Label="j1QGL" Title="j1QGL" Unit="" Internal="j1QGL" Type="F" Min="-1.00000000e+00" Max="1.00000000e+00"/>
    <Variable VarIndex="1" Expression="j2QGL" Label="j2QGL" Title="j2QGL" Unit="" Internal="j2QGL" Type="F" Min="-1.00000000e+00" Max="9.99511719e-01"/>
    <Variable VarIndex="2" Expression="varMjj" Label="varMjj" Title="varMjj" Unit="" Internal="varMjj" Type="F" Min="5.00006653e+02" Max="7.04330469e+03"/>
    <Variable VarIndex="3" Expression="varDetajj" Label="varDetajj" Title="varDetajj" Unit="" Internal="varDetajj" Type="F" Min="2.50036621e+00" Max="8.62402344e+00"/>
    <Variable VarIndex="4" Expression="varJet1Eta" Label="varJet1Eta" Title="abs(varJet1Eta)" Unit="" Internal="varJet1Eta" Type="F" Min="-4.67382812e+00" Max="4.66113281e+00"/>
    <Variable VarIndex="5" Expression="varJet1Pt" Label="varJet1Pt" Title="varJet1Pt" Unit="" Internal="varJet1Pt" Type="F" Min="5.00312500e+01" Max="1.95400000e+03"/>
    <Variable VarIndex="6" Expression="varJet2Eta" Label="varJet2Eta" Title="abs(varJet2Eta)" Unit="" Internal="varJet2Eta" Type="F" Min="-4.66015625e+00" Max="4.68847656e+00"/>
    <Variable VarIndex="7" Expression="varJet2Pt" Label="varJet2Pt" Title="varJet2Pt" Unit="" Internal="varJet2Pt" Type="F" Min="5.00000000e+01" Max="1.31400000e+03"/>
    <Variable VarIndex="8" Expression="varMTVV" Label="varMTVV" Title="varMTVV" Unit="" Internal="varMTVV" Type="F" Min="5.79389221e+02" Max="4.15952832e+03"/>
    <Variable VarIndex="9" Expression="varCen" Label="varCen" Title="varCen" Unit="" Internal="varCen" Type="F" Min="-2.30087280e+00" Max="4.30202484e+00"/>
    <Variable VarIndex="10" Expression="varDRV2j" Label="varDRV2j" Title="varDRV2j" Unit="" Internal="varDRV2j" Type="F" Min="1.20020103e+00" Max="4.76206589e+00"/>
    <Variable VarIndex="11" Expression="varnormPTVVjj" Label="varnormPTVVjj" Title="varnormPTVVjj" Unit="" Internal="varnormPTVVjj" Type="F" Min="2.90104537e-04" Max="2.49216720e-01"/>
    <Variable VarIndex="12" Expression="varFW2j" Label="varFW2j" Title="varnormFW2j" Unit="" Internal="varFW2j" Type="F" Min="1.25253111e-01" Max="9.99646008e-01"/>
  </Variables>
  <Spectators NSpec="0"/>
  <Classes NClass="3">
    <Class Name="VVEWK" Index="0"/>
    <Class Name="VVQCD" Index="1"/>
    <Class Name="NonVV" Index="2"/>
  </Classes>
  <Transformations NTransformations="1">
    <Transform Name="Normalize">
      <Selection>
        <Input NInputs="13">
          <Input Type="Variable" Label="j1QGL" Expression="j1QGL"/>
          <Input Type="Variable" Label="j2QGL" Expression="j2QGL"/>
          <Input Type="Variable" Label="varMjj" Expression="varMjj"/>
          <Input Type="Variable" Label="varDetajj" Expression="varDetajj"/>
          <Input Type="Variable" Label="varJet1Eta" Expression="varJet1Eta"/>
          <Input Type="Variable" Label="varJet1Pt" Expression="varJet1Pt"/>
          <Input Type="Variable" Label="varJet2Eta" Expression="varJet2Eta"/>
          <Input Type="Variable" Label="varJet2Pt" Expression="varJet2Pt"/>
          <Input Type="Variable" Label="varMTVV" Expression="varMTVV"/>
          <Input Type="Variable" Label="varCen" Expression="varCen"/>
          <Input Type="Variable" Label="varDRV2j" Expression="varDRV2j"/>
          <Input Type="Variable" Label="varnormPTVVjj" Expression="varnormPTVVjj"/>
          <Input Type="Variable" Label="varFW2j" Expression="varFW2j"/>
        </Input>
        <Output NOutputs="13">
          <Output Type="Variable" Label="j1QGL" Expression="j1QGL"/>
          <Output Type="Variable" Label="j2QGL" Expression="j2QGL"/>
          <Output Type="Variable" Label="varMjj" Expression="varMjj"/>
          <Output Type="Variable" Label="varDetajj" Expression="varDetajj"/>
          <Output Type="Variable" Label="varJet1Eta" Expression="varJet1Eta"/>
          <Output Type="Variable" Label="varJet1Pt" Expression="varJet1Pt"/>
          <Output Type="Variable" Label="varJet2Eta" Expression="varJet2Eta"/>
          <Output Type="Variable" Label="varJet2Pt" Expression="varJet2Pt"/>
          <Output Type="Variable" Label="varMTVV" Expression="varMTVV"/>
          <Output Type="Variable" Label="varCen" Expression="varCen"/>
          <Output Type="Variable" Label="varDRV2j" Expression="varDRV2j"/>
          <Output Type="Variable" Label="varnormPTVVjj" Expression="varnormPTVVjj"/>
          <Output Type="Variable" Label="varFW2j" Expression="varFW2j"/>
        </Output>
      </Selection>
      <Class ClassIndex="0">
        <Ranges>
          <Range Index="0" Min="-1.0000000000000000e+00" Max="1.0000000000000000e+00"/>
          <Range Index="1" Min="-1.0000000000000000e+00" Max="9.9951171875000000e-01"/>
          <Range Index="2" Min="5.0001364135742188e+02" Max="7.0433046875000000e+03"/>
          <Range Index="3" Min="2.5003662109375000e+00" Max="8.6240234375000000e+00"/>
          <Range Index="4" Min="-4.3847656250000000e+00" Max="4.6025390625000000e+00"/>
          <Range Index="5" Min="5.0031250000000000e+01" Max="1.7640000000000000e+03"/>
          <Range Index="6" Min="-4.6601562500000000e+00" Max="4.6884765625000000e+00"/>
          <Range Index="7" Min="5.0000000000000000e+01" Max="1.2130000000000000e+03"/>
          <Range Index="8" Min="5.8350665283203125e+02" Max="4.1595283203125000e+03"/>
          <Range Index="9" Min="-1.9912719726562500e+00" Max="4.3020248413085938e+00"/>
          <Range Index="10" Min="1.2007284164428711e+00" Max="4.7620658874511719e+00"/>
          <Range Index="11" Min="4.4197047827765346e-04" Max="2.4731655418872833e-01"/>
          <Range Index="12" Min="1.2525311112403870e-01" Max="9.9964600801467896e-01"/>
        </Ranges>
      </Class>
      <Class ClassIndex="1">
        <Ranges>
          <Range Index="0" Min="-1.0000000000000000e+00" Max="9.9951171875000000e-01"/>
          <Range Index="1" Min="-1.0000000000000000e+00" Max="9.9951171875000000e-01"/>
          <Range Index="2" Min="5.0045034790039062e+02" Max="3.8134384765625000e+03"/>
          <Range Index="3" Min="2.5024414062500000e+00" Max="6.6181640625000000e+00"/>
          <Range Index="4" Min="-4.0400390625000000e+00" Max="3.5644531250000000e+00"/>
          <Range Index="5" Min="5.2000000000000000e+01" Max="1.1920000000000000e+03"/>
          <Range Index="6" Min="-4.3349609375000000e+00" Max="4.2373046875000000e+00"/>
          <Range Index="7" Min="5.0000000000000000e+01" Max="4.8525000000000000e+02"/>
          <Range Index="8" Min="5.9020672607421875e+02" Max="3.8760300292968750e+03"/>
          <Range Index="9" Min="-1.6933593750000000e+00" Max="2.7826538085937500e+00"/>
          <Range Index="10" Min="1.2057169675827026e+00" Max="3.7369019985198975e+00"/>
          <Range Index="11" Min="1.3207579031586647e-03" Max="2.4659518897533417e-01"/>
          <Range Index="12" Min="1.7123755812644958e-01" Max="9.9320447444915771e-01"/>
        </Ranges>
      </Class>
      <Class ClassIndex="2">
        <Ranges>
          <Range Index="0" Min="-1.0000000000000000e+00" Max="1.0000000000000000e+00"/>
          <Range Index="1" Min="-1.0000000000000000e+00" Max="9.9951171875000000e-01"/>
          <Range Index="2" Min="5.0000665283203125e+02" Max="5.8036440429687500e+03"/>
          <Range Index="3" Min="2.5004882812500000e+00" Max="8.3325195312500000e+00"/>
          <Range Index="4" Min="-4.6738281250000000e+00" Max="4.6611328125000000e+00"/>
          <Range Index="5" Min="5.0843750000000000e+01" Max="1.9540000000000000e+03"/>
          <Range Index="6" Min="-4.6552734375000000e+00" Max="4.6835937500000000e+00"/>
          <Range Index="7" Min="5.0000000000000000e+01" Max="1.3140000000000000e+03"/>
          <Range Index="8" Min="5.7938922119140625e+02" Max="2.8000776367187500e+03"/>
          <Range Index="9" Min="-2.3008728027343750e+00" Max="3.9577636718750000e+00"/>
          <Range Index="10" Min="1.2002010345458984e+00" Max="4.4494380950927734e+00"/>
          <Range Index="11" Min="2.9010453727096319e-04" Max="2.4921672046184540e-01"/>
          <Range Index="12" Min="1.2670148909091949e-01" Max="9.9896293878555298e-01"/>
        </Ranges>
      </Class>
      <Class ClassIndex="3">
        <Ranges>
          <Range Index="0" Min="-1.0000000000000000e+00" Max="1.0000000000000000e+00"/>
          <Range Index="1" Min="-1.0000000000000000e+00" Max="9.9951171875000000e-01"/>
          <Range Index="2" Min="5.0000665283203125e+02" Max="7.0433046875000000e+03"/>
          <Range Index="3" Min="2.5003662109375000e+00" Max="8.6240234375000000e+00"/>
          <Range Index="4" Min="-4.6738281250000000e+00" Max="4.6611328125000000e+00"/>
          <Range Index="5" Min="5.0031250000000000e+01" Max="1.9540000000000000e+03"/>
          <Range Index="6" Min="-4.6601562500000000e+00" Max="4.6884765625000000e+00"/>
          <Range Index="7" Min="5.0000000000000000e+01" Max="1.3140000000000000e+03"/>
          <Range Index="8" Min="5.7938922119140625e+02" Max="4.1595283203125000e+03"/>
          <Range Index="9" Min="-2.3008728027343750e+00" Max="4.3020248413085938e+00"/>
          <Range Index="10" Min="1.2002010345458984e+00" Max="4.7620658874511719e+00"/>
          <Range Index="11" Min="2.9010453727096319e-04" Max="2.4921672046184540e-01"/>
          <Range Index="12" Min="1.2525311112403870e-01" Max="9.9964600801467896e-01"/>
        </Ranges>
      </Class>
    </Transform>
  </Transformations>
  <MVAPdfs/>
  <Weights InputWidth="13" Depth="4" LossFunction="C" OutputFunction="M">
    <Layer ActivationFunction="2">
      <Weights rows="32" cols="13">
        1.1983802169561386e-01 -2.5601863861083984e-01 -3.1355610489845276e-01 2.6863530278205872e-01 4.0054827928543091e-02 1.4748211205005646e-01 -2.4231615662574768e-01 1.1745213717222214e-01 -3.2323187589645386e-01 2.7295798063278198e-01 3.0756419897079468e-01 1.4580467343330383e-01 2.4501772597432137e-02 1.7185282707214355e-01 1.7977898940443993e-02 3.1632500886917114e-01 4.3255203962326050e-01 1.9348706305027008e-01 -4.8363007605075836e-02 -1.0110714286565781e-01 3.0053785443305969e-01 6.1758287250995636e-02 5.4868799448013306e-01 1.2600243091583252e-01 -3.8929209113121033e-01 7.7174152247607708e-03 -2.2793595492839813e-01 -2.3198084905743599e-02 9.1102421283721924e-02 4.0279313921928406e-01 -2.1922855079174042e-01 -2.3064297437667847e-01 -9.6749700605869293e-02 -2.0179119706153870e-01 -5.3033119440078735e-01 5.0919145345687866e-01 3.3780977129936218e-01 -2.0424507558345795e-01 3.0941614508628845e-01 1.2236399948596954e-01 1.4481306076049805e-01 1.4242860078811646e+00 4.5815244317054749e-01 -1.6609348356723785e-01 -3.2656627893447876e-01 -5.2679494023323059e-02 7.0672309398651123e-01 2.5834995508193970e-01 1.2224707603454590e+00 -1.7209242284297943e-01 -1.2682012319564819e+00 -1.9170472025871277e-01 -2.4994699656963348e-01 -4.3790452182292938e-02 -5.5759835243225098e-01 3.3381310105323792e-01 2.0614005625247955e-01 -1.9599308073520660e-01 1.3947956264019012e-01 -6.3241884112358093e-02 -1.8971177935600281e-01 -2.6886793784797192e-03 1.8320843577384949e-01 -4.6591449063271284e-05 1.6553521156311035e-01 2.0178246498107910e-01 6.0501880943775177e-02 5.0738029181957245e-02 -6.5954720973968506e-01 -2.7399712800979614e-01 1.8214109539985657e-01 2.5513085722923279e-01 3.0145397782325745e-01 2.3364402353763580e-01 -1.1806911230087280e-01 -3.1557315587997437e-01 5.9693640470504761e-01 9.2368282377719879e-02 3.1762385368347168e-01 -4.0120825171470642e-02 -1.5332581102848053e-01 -2.2152213752269745e-01 -2.2781257331371307e-01 -1.2092913687229156e-01 3.9374504238367081e-02 5.8874435722827911e-02 1.5911115705966949e-01 3.1596366316080093e-02 2.3823063075542450e-01 3.2076528668403625e-01 2.6448017358779907e-01 3.9091193675994873e-01 -1.2677022814750671e-01 -5.9964805841445923e-01 -5.1978343725204468e-01 2.4078577756881714e-01 9.1238178312778473e-02 -1.7316547036170959e-01 1.7585560679435730e-02 2.2426317632198334e-01 -2.8424024581909180e-01 3.2253965735435486e-01 5.5965983867645264e-01 -1.4369097352027893e-01 -5.5338036268949509e-02 -4.4859230518341064e-02 -2.6236557960510254e-01 3.7711212038993835e-01 -1.7489299178123474e-01 2.5408329442143440e-02 -3.2274317741394043e-01 -2.3224534094333649e-01 -1.1725126951932907e-01 2.0497454702854156e-01 2.7220845222473145e-01 -2.7240747213363647e-01 -6.4913325011730194e-02 2.8192281723022461e-01 2.3086880147457123e-01 1.0228481292724609e+00 -4.1165187954902649e-02 2.2796891629695892e-01 4.4985972344875336e-02 2.8088038787245750e-02 9.0299509465694427e-02 5.2323794364929199e-01 1.7287470400333405e-01 5.1195817068219185e-03 -3.1462326645851135e-01 6.5445721149444580e-02 -4.0861919522285461e-01 1.1429011821746826e-01 -2.8824043273925781e-01 6.6644877195358276e-01 -1.4823740720748901e-01 6.5888002514839172e-02 -2.2402587532997131e-01 -1.3990174233913422e-01 -3.2209810614585876e-01 3.5633856058120728e-01 -2.4192221462726593e-02 -4.7280076146125793e-01 1.4268754422664642e-01 3.7274867296218872e-01 2.3770643770694733e-01 8.8010495901107788e-01 -1.7016609013080597e-01 -2.4613261222839355e-01 -1.1165509372949600e-01 -6.8163529038429260e-02 2.7442869544029236e-01 5.9856563806533813e-01 4.4178023934364319e-01 2.3583553731441498e-02 -2.5961497426033020e-01 -5.2539270371198654e-02 -1.8585498631000519e-01 1.9287465512752533e-01 -5.5088877677917480e-01 1.4534804224967957e-01 -5.8448869735002518e-02 -2.4077852070331573e-01 -1.1693078279495239e-01 -3.7198469042778015e-01 -4.8133332282304764e-02 -2.7269996702671051e-02 8.7322190403938293e-02 3.5200536251068115e-01 -2.8285914659500122e-01 -3.4073987603187561e-01 1.4256879687309265e-02 -1.1264172382652760e-02 1.9546078145503998e-01 2.6591676473617554e-01 1.7264993488788605e-01 -7.8528672456741333e-02 -2.3075406253337860e-01 -7.1407496929168701e-02 7.0504270493984222e-02 6.6682279109954834e-02 5.1027581095695496e-02 9.7920931875705719e-02 1.6080574691295624e-01 -2.6579642668366432e-02 -8.6162769794464111e-01 -1.6417510807514191e-01 1.1117205955088139e-02 -1.3597819209098816e-01 -3.6376960575580597e-02 -2.8707534074783325e-01 -4.1655531525611877e-01 -7.4297833442687988e-01 3.0776992440223694e-02 9.1608214378356934e-01 -1.1744706332683563e-01 -4.7650820016860962e-01 -8.5709169507026672e-02 -3.3853542804718018e-01 2.1443784236907959e-01 2.7818411588668823e-01 -2.0650993287563324e-01 -2.1816958487033844e-01 -2.7052932977676392e-01 -1.6196179389953613e-01 3.0339187011122704e-02 -6.0715107247233391e-03 -5.9721514116972685e-04 -7.1738590486347675e-03 -3.1701022386550903e-01 9.0304054319858551e-02 -3.4471429884433746e-02 1.0516986250877380e-01 -1.9569535553455353e-01 2.2738611698150635e-01 1.5656283497810364e-01 -1.1475062370300293e-01 -3.3553650975227356e-01 1.9712674617767334e-01 -7.4610926210880280e-02 7.3484778404235840e-02 -4.7922421246767044e-02 1.9031190872192383e-01 1.1690051108598709e-01 -1.4208666980266571e-01 -1.6254398226737976e-01 -1.6759787499904633e-01 -1.5271261334419250e-01 9.8056584596633911e-02 5.9683084487915039e-02 3.2330450415611267e-01 -2.9494026303291321e-01 2.6640540361404419e-01 3.6996042728424072e-01 -2.2615014016628265e-01 -4.8812404274940491e-03 -4.0644001215696335e-02 -5.0704151391983032e-01 -2.3413759469985962e-01 9.5941767096519470e-02 3.3288195729255676e-01 8.7356217205524445e-02 -2.3715949058532715e-01 -1.1538532376289368e-01 -1.8597882986068726e-01 7.7102899551391602e-02 8.4512710571289062e-02 -5.5206133984029293e-03 -6.1953337863087654e-03 2.3972707986831665e-01 2.3879991471767426e-01 -2.5112777948379517e-01 -2.0388276875019073e-01 8.4835186600685120e-02 4.7555506229400635e-02 1.1415971070528030e-01 1.2574051320552826e-01 2.3771455883979797e-01 -2.9145476222038269e-01 -5.4112013429403305e-02 4.3458830565214157e-02 -9.7174324095249176e-02 -1.4605784416198730e-01 -6.1769223213195801e-01 1.6396152973175049e-01 -2.1708434820175171e-01 -3.7909649312496185e-02 -9.3753099441528320e-02 -3.7136277556419373e-01 9.4360299408435822e-02 -5.2745729684829712e-01 -1.6655032336711884e-01 4.5060575008392334e-01 -2.3687408864498138e-01 -8.1119686365127563e-02 -1.5689951181411743e-01 5.6715542078018188e-01 2.3861739039421082e-01 2.7435116469860077e-02 8.7256066501140594e-02 -1.7967122793197632e-01 3.0587458610534668e-01 2.4958144128322601e-01 2.3738457262516022e-01 -2.6907977461814880e-01 -3.8435745239257812e-01 4.6328376978635788e-02 4.9089518189430237e-01 2.7639877796173096e-01 3.9641991257667542e-01 -6.5706306695938110e-01 -2.3108738660812378e-01 5.0428736209869385e-01 7.3487333953380585e-02 2.6508438587188721e-01 3.7639212608337402e-01 1.6702236607670784e-02 -3.7481674551963806e-01 5.1273506879806519e-01 -1.0187990963459015e-01 2.8441715240478516e-01 2.4029453098773956e-01 -2.2271191701292992e-02 -2.4909436702728271e-01 -1.6235440969467163e-01 2.6686668395996094e-01 -6.1053875833749771e-02 -4.5306161046028137e-02 5.9376531839370728e-01 -4.2599618434906006e-01 -1.3929863274097443e-01 1.7403757572174072e-01 2.1962861716747284e-01 1.3467320799827576e-01 1.9569729268550873e-01 7.7272379398345947e-01 -6.9694602862000465e-03 1.3887122273445129e-01 2.5972744822502136e-01 6.7139707505702972e-02 5.5482327938079834e-01 3.7984728813171387e-01 3.1291955709457397e-01 9.5737120136618614e-03 -6.1378002166748047e-01 3.2341554760932922e-01 2.6800298690795898e-01 3.1513307243585587e-02 4.7011488676071167e-01 -2.3932856321334839e-01 -2.0081123709678650e-01 2.5166088342666626e-01 1.7100104689598083e-01 9.3078352510929108e-02 4.1721495985984802e-01 -1.6717773675918579e-01 -1.6939742863178253e-01 5.0826203823089600e-01 -8.8027685880661011e-02 3.8987390697002411e-02 4.5377606153488159e-01 6.4878994226455688e-01 2.7812430635094643e-02 1.2034844607114792e-02 3.8970497250556946e-01 -1.1920307576656342e-01 3.1043151021003723e-01 3.7927770614624023e-01 1.8698236346244812e-01 -3.5503712296485901e-01 -3.2479459047317505e-01 -1.2358701974153519e-01 -2.0273202657699585e-01 2.7107882499694824e-01 2.6421391963958740e-01 6.2692993879318237e-01 1.8005548417568207e-01 -2.0576007664203644e-01 -2.3885354399681091e-01 1.2799051403999329e-01 -3.6219011992216110e-02 7.8328263759613037e-01 -1.9541147351264954e-01 -3.3967009186744690e-01 -1.9568681716918945e-01 7.1926333010196686e-02 6.4604751765727997e-02 -6.4073927700519562e-02 3.0473104119300842e-01 3.7550799548625946e-02 1.0111995041370392e-01 -1.3663373887538910e-01 2.3232594132423401e-02 -4.4634647667407990e-02 -3.0480447411537170e-01 1.0840998031198978e-02 1.7503172159194946e-01 1.3711506128311157e-01 -3.3029335737228394e-01 -3.4171527624130249e-01 4.9866415560245514e-02 2.7219798415899277e-02 1.1513082683086395e-01 -1.6687732934951782e-01 -2.4864476919174194e-01 -2.7973338961601257e-01 -1.5504384040832520e-01 4.6558731794357300e-01 2.5042068958282471e-01 -4.4416120648384094e-01 2.1368063986301422e-01 1.4165759086608887e-01 -3.1638830900192261e-01 -4.1915974020957947e-01 1.1417060345411301e-01 2.7013623714447021e-01 -1.7660391330718994e-01 7.1271121501922607e-02 -3.0838662385940552e-01 -9.7251981496810913e-02 -3.5881909728050232e-01 -4.4991806149482727e-02 4.7865983843803406e-01 -2.3360770195722580e-02 3.2363045215606689e-01 -2.5934907793998718e-01 -8.0224663019180298e-01 -3.2468125224113464e-01 5.3661264479160309e-02 1.9428595900535583e-01 -1.1129064112901688e-01 -1.9311448931694031e-01 1.9114334881305695e-01 -3.9661699533462524e-01 2.1541956812143326e-02 7.1825748682022095e-01 8.1431075930595398e-02 
      </Weights>
      <Biases rows="32" cols="1">
        -7.3414057493209839e-02 2.7371328324079514e-02 -1.1352388560771942e-01 4.9069306254386902e-01 -1.6456823050975800e-01 -2.7524031698703766e-02 -7.1444004774093628e-02 -8.6827665567398071e-02 -1.1172887682914734e-01 1.8658192455768585e-01 -6.9684058427810669e-02 1.6721783578395844e-01 -1.2829269468784332e-01 -7.1006737649440765e-02 -3.3686533570289612e-01 -1.3058531284332275e-01 -5.4680038243532181e-02 -6.6911146044731140e-02 -1.5729907155036926e-01 -8.3699889481067657e-02 -6.1471909284591675e-02 6.1232648789882660e-02 1.4317151904106140e-01 -9.5606625080108643e-02 1.8211176991462708e-01 1.5291778743267059e-01 8.9567333459854126e-02 2.2351915016770363e-02 -6.6072136163711548e-02 -9.3679457902908325e-02 -1.1435950547456741e-01 -4.8917066305875778e-02 
      </Biases>
    </Layer>
    <Layer ActivationFunction="3">
      <Weights rows="32" cols="32">
        1.6676291823387146e-01 -2.7933744713664055e-03 -2.5824114680290222e-01 3.4137701988220215e-01 -1.3950396096333861e-03 1.7957355082035065e-01 -2.0606115460395813e-01 5.8800909668207169e-02 -2.4359734356403351e-01 2.5344204902648926e-01 1.1227653920650482e-01 3.1340360641479492e-01 -6.3055858016014099e-02 1.6091029345989227e-01 -1.3090158998966217e-01 -1.1890982091426849e-01 -1.3023793697357178e-02 6.2520489096641541e-02 -1.2160572409629822e-01 8.2069681957364082e-03 -4.8811204731464386e-02 1.0609109699726105e-01 1.7410418391227722e-01 1.5960332751274109e-01 2.1492263674736023e-01 1.3650296628475189e-01 1.7799215018749237e-01 7.3789820075035095e-02 1.1909351497888565e-01 -1.1202729493379593e-01 -2.7421891689300537e-01 -1.4631703495979309e-01 3.5655479878187180e-02 -9.0629428625106812e-02 -1.0896646976470947e-01 1.8194279074668884e-01 2.2649680078029633e-01 -4.0715895593166351e-03 2.1011926233768463e-01 1.6165928542613983e-01 3.0541464686393738e-02 8.4653139114379883e-02 1.8119630217552185e-01 -1.5160104632377625e-01 -1.1459840834140778e-01 1.6711028292775154e-02 2.2904789447784424e-01 5.0670288503170013e-02 1.2189902365207672e-01 6.5109133720397949e-02 -1.8272051215171814e-01 -1.4126490056514740e-01 -8.1601493060588837e-02 3.7179566919803619e-02 -2.1020440757274628e-01 1.8660828471183777e-01 9.3089818954467773e-02 -1.4738193154335022e-01 7.8275620937347412e-02 1.0775365680456161e-01 -3.6952223628759384e-02 1.1913472414016724e-01 7.1787834167480469e-02 -1.0292354971170425e-01 1.6117581725120544e-01 1.5669664368033409e-02 -1.3563627377152443e-02 9.6961960196495056e-02 -1.7224119603633881e-01 -1.2219467759132385e-01 -3.0039031058549881e-02 1.4649318158626556e-01 1.0132236778736115e-01 5.8085162192583084e-02 8.2273535430431366e-02 -9.0047873556613922e-02 1.5658041834831238e-01 1.0563492774963379e-01 2.0950503647327423e-01 -2.4743296205997467e-02 -1.1831651628017426e-01 -8.9439064264297485e-02 -1.7599882185459137e-01 -1.2315177917480469e-01 8.1476144492626190e-02 4.9576751887798309e-02 1.3422848284244537e-01 2.0369686186313629e-01 2.3432889580726624e-01 2.0099057257175446e-01 2.2188726067543030e-01 1.5208418667316437e-01 -3.1075607985258102e-02 -2.3676355183124542e-01 -1.3897897303104401e-01 2.1661315858364105e-01 -1.0875287652015686e-01 -5.7743482291698456e-02 -1.2031777948141098e-01 1.7912325263023376e-01 1.6756385564804077e-02 3.5039821267127991e-01 -1.1721163056790829e-02 2.7851970866322517e-02 -4.3402358889579773e-02 2.5724157691001892e-01 -2.6787269115447998e-01 2.3817005753517151e-01 -2.1908009052276611e-01 1.0867232456803322e-02 -3.2496836781501770e-01 -1.3049842417240143e-01 -1.3163843750953674e-01 5.0720367580652237e-02 1.6443774104118347e-01 6.3761353492736816e-02 -8.2722373306751251e-02 2.5066819787025452e-01 2.2747348248958588e-01 3.0795016884803772e-01 2.7371683716773987e-01 4.0396335721015930e-01 1.1274398118257523e-01 -5.4095782339572906e-02 -1.3581340014934540e-01 -3.9063360542058945e-02 -1.0838098824024200e-01 3.0259391292929649e-02 6.1117806471884251e-03 3.5293914377689362e-02 -1.1957347393035889e-01 8.7530553340911865e-02 -1.8069900572299957e-01 1.6210900247097015e-01 -1.5329690277576447e-01 2.0143954455852509e-01 -9.7880467772483826e-02 -6.4091511070728302e-02 -8.3952814340591431e-02 -1.3011882081627846e-02 -7.2082050144672394e-02 -1.5364466607570648e-01 4.2378470301628113e-02 1.7937156558036804e-01 4.1671555489301682e-02 5.5018138140439987e-02 -3.4168642014265060e-02 -1.4850212633609772e-01 -1.6712383925914764e-01 -7.9253420233726501e-02 -9.1466486454010010e-02 1.1602307856082916e-01 6.4012855291366577e-02 1.1271936446428299e-01 2.2396605461835861e-02 -1.6543280333280563e-02 -1.0551262646913528e-01 2.0552033185958862e-01 -3.2455015927553177e-02 6.3959568738937378e-02 -2.9066580533981323e-01 -2.3712070286273956e-01 -1.6458009183406830e-01 -4.1658750176429749e-01 3.5398963838815689e-02 2.7366197109222412e-01 5.7993233203887939e-03 1.5251274406909943e-01 -1.8161214888095856e-01 -2.8245401382446289e-01 1.0628848336637020e-02 -1.9513207674026489e-01 2.6943558827042580e-02 9.7243912518024445e-02 2.3225834965705872e-01 -6.4837768673896790e-02 -1.6149794682860374e-02 -2.4324679747223854e-02 1.7308843135833740e-01 -5.9950336813926697e-02 -2.2317836061120033e-02 8.2717626355588436e-04 2.0346178114414215e-01 5.9052605181932449e-02 -1.8416768312454224e-01 -3.8733240216970444e-02 -9.3190476298332214e-02 -3.0671054124832153e-01 -3.2049424946308136e-02 4.0114026516675949e-02 -1.2464290112257004e-01 -1.8141852319240570e-01 -2.4903091788291931e-01 1.0822555981576443e-02 -2.4307970702648163e-01 -4.7379636764526367e-01 -1.5728583559393883e-02 8.9842453598976135e-02 4.7705169767141342e-02 2.4508842825889587e-01 -7.6327815651893616e-02 -1.5630643069744110e-01 -2.1692666411399841e-01 -9.1349340975284576e-02 2.3064510896801949e-03 -1.3965575397014618e-01 1.0556040331721306e-02 -3.8705885410308838e-02 -1.1494704335927963e-01 1.2484136968851089e-01 2.1655909717082977e-01 -5.0469093024730682e-02 -7.1364380419254303e-02 7.0364601910114288e-02 2.4331903457641602e-01 6.4230360090732574e-02 -1.7524890601634979e-01 1.6348440945148468e-01 -1.3627305626869202e-01 -1.5648627281188965e-01 -2.0436106249690056e-02 3.9834190160036087e-02 1.5714922547340393e-01 7.8221358358860016e-02 -1.6767920553684235e-01 -2.5116991996765137e-01 -1.7062291502952576e-01 -2.6827061176300049e-01 5.6827371008694172e-03 2.5042015314102173e-01 -4.4443076476454735e-03 2.0444944500923157e-01 9.4850726425647736e-02 -2.5872138142585754e-01 2.0333444699645042e-02 -1.3669584691524506e-01 -9.6899174153804779e-02 -1.2320665270090103e-01 1.8869584798812866e-01 1.3885942101478577e-01 1.6656374931335449e-01 -6.8741880357265472e-02 7.8411698341369629e-02 -5.3315446712076664e-03 6.8912878632545471e-02 -2.0530371367931366e-01 7.7426850795745850e-02 3.6579654552042484e-03 1.8365681171417236e-02 -8.8346816599369049e-02 -2.6707938313484192e-01 -2.5956210494041443e-01 -5.8402936905622482e-02 5.3882349282503128e-02 3.2701194286346436e-02 5.2703380584716797e-02 1.1964261531829834e-01 -1.7997735738754272e-01 -1.5009959042072296e-01 7.1966916322708130e-02 -5.7392738759517670e-02 3.7273485213518143e-02 -9.2379048466682434e-02 2.4865701794624329e-01 -1.8943211436271667e-01 1.1237524449825287e-01 -1.1899106949567795e-01 -1.2802897952497005e-02 1.5078872442245483e-01 -1.1436888575553894e-01 -1.2499778717756271e-01 1.2720414996147156e-01 -1.8944033980369568e-01 4.0978319942951202e-02 -6.6139034926891327e-02 1.4311936497688293e-01 2.3784050345420837e-01 7.3593594133853912e-02 1.4450688660144806e-01 1.7971010878682137e-02 1.9430606067180634e-01 1.5217505395412445e-01 1.3369931280612946e-01 -1.9069080054759979e-01 -1.0697478801012039e-01 -4.1184019297361374e-02 1.8753556907176971e-01 1.2497384101152420e-01 4.4004134833812714e-02 -2.8785094618797302e-01 -2.3341052234172821e-01 -3.2709222286939621e-02 -3.1471706926822662e-02 1.6266623139381409e-01 9.9179558455944061e-02 2.5822472572326660e-01 -2.1455128490924835e-01 1.5119729936122894e-01 -1.7958258092403412e-01 1.8413010984659195e-02 1.3899219036102295e-01 -1.6841524839401245e-01 -4.9271779134869576e-03 -6.2633909285068512e-02 8.0627668648958206e-03 -9.3738147988915443e-03 -5.0272446125745773e-02 1.7513504624366760e-01 -7.7168606221675873e-02 -1.7756935954093933e-01 -1.3018470257520676e-02 2.2743187844753265e-01 1.1513026803731918e-01 9.4029359519481659e-02 -8.4660172462463379e-02 -1.4401975274085999e-01 1.2833747267723083e-01 5.7516045868396759e-02 1.1276549845933914e-01 1.4786653220653534e-01 -1.1260971426963806e-01 -9.6817485988140106e-02 -1.1226490885019302e-01 -2.7465850114822388e-01 7.4116796255111694e-02 1.7991542816162109e-01 -2.5534529238939285e-02 2.2824837267398834e-01 -8.2388333976268768e-02 1.5409960411489010e-02 -6.1858296394348145e-02 1.4177623391151428e-01 -5.8198440819978714e-02 5.6874219328165054e-02 -4.6842772513628006e-02 -7.1559973061084747e-02 1.3956430554389954e-01 2.5904847308993340e-02 3.3936999738216400e-02 2.1843813359737396e-01 4.0245119482278824e-02 2.6595134288072586e-02 2.3303301632404327e-01 3.3863264322280884e-01 6.2747314572334290e-02 1.3704824447631836e-01 8.2024559378623962e-02 -2.2144034504890442e-01 -1.1804758012294769e-01 -3.0145996809005737e-01 -4.0644574910402298e-02 -3.2141268253326416e-02 2.8366097807884216e-01 -6.0604680329561234e-02 4.6816745400428772e-01 2.6313742995262146e-01 2.2115731611847878e-02 -2.5944212079048157e-01 -5.2664406597614288e-02 -1.5015779435634613e-01 3.2380929589271545e-01 -3.1872284412384033e-01 2.9360073804855347e-01 -1.6764003038406372e-01 1.1419305950403214e-01 9.5662780106067657e-02 -1.4041970483958721e-02 1.5324594080448151e-01 1.0235605388879776e-01 -8.2808047533035278e-02 -1.2985034286975861e-01 -3.5856172442436218e-02 -1.0754080116748810e-01 -1.4385174214839935e-01 -3.2320874929428101e-01 -1.7897917330265045e-01 -1.1939214915037155e-01 -2.7025979757308960e-01 -2.1901281177997589e-01 3.4056058526039124e-01 -1.7517237365245819e-01 2.5325563549995422e-01 -1.1653994768857956e-01 -1.7558175325393677e-01 -1.2994262576103210e-01 8.9213386178016663e-02 1.3970091938972473e-01 3.4311828017234802e-01 -1.6777905821800232e-01 1.4035871624946594e-01 3.8496945053339005e-02 -2.0656466484069824e-01 -9.7685389220714569e-02 1.9660337269306183e-01 1.5709252655506134e-01 3.2404214143753052e-02 -7.4800467118620872e-03 -1.1421716213226318e-01 -9.1689087450504303e-02 -8.3235338330268860e-02 -1.9783520698547363e-01 1.2471198290586472e-01 -1.3720031082630157e-01 1.8375644087791443e-01 -2.7008029818534851e-01 -1.1709676682949066e-01 -1.4562009833753109e-02 9.8180338740348816e-02 2.5917053222656250e-01 -2.6286911219358444e-02 1.5446400642395020e-01 2.3869629204273224e-01 5.9734020382165909e-02 -8.8483065366744995e-02 1.0406954586505890e-01 -6.4276479184627533e-02 2.0572966337203979e-01 1.6846016049385071e-01 -1.6592805087566376e-01 5.1567691564559937e-01 -2.2980090975761414e-01 -1.4714495278894901e-02 -9.7420206293463707e-03 -1.4186455309391022e-01 1.3459558784961700e-01 3.5016521811485291e-01 -1.1289164423942566e-01 2.3553694784641266e-01 -1.7919243872165680e-01 -1.4122848212718964e-01 -3.5901579260826111e-01 -3.8907676935195923e-02 -2.2827281057834625e-01 -1.0052718222141266e-01 -1.0543825477361679e-01 1.6968938708305359e-01 -3.2174700498580933e-01 5.9673234820365906e-02 8.4511578083038330e-02 -1.5413141250610352e-01 4.2890718579292297e-01 2.5451314449310303e-01 2.2759419679641724e-01 1.8423154950141907e-01 4.2049329727888107e-02 1.6746641695499420e-01 -3.1829398870468140e-01 -3.1612265110015869e-01 4.6098381280899048e-02 -1.1728383833542466e-04 1.3550975918769836e-01 -2.2559678554534912e-01 1.2577702105045319e-01 -1.5097285807132721e-01 1.3930906541645527e-02 -1.1706332862377167e-01 2.4727305769920349e-01 -3.9532348513603210e-01 1.2254838831722736e-02 -4.4429492205381393e-02 2.4703040719032288e-02 8.5681146010756493e-03 2.4416080117225647e-01 -1.2083848565816879e-01 1.2520168721675873e-01 -1.0828715562820435e-01 2.0010668039321899e-01 -1.3035455346107483e-01 6.6467292606830597e-02 -2.0692797005176544e-01 -2.5284755229949951e-01 -9.1891139745712280e-02 -3.9629793167114258e-01 -2.7466207742691040e-01 -9.0309873223304749e-02 -2.0315587520599365e-02 4.9143973737955093e-02 8.8520132005214691e-02 4.2138364166021347e-02 1.4827688038349152e-01 -1.1186850816011429e-01 1.6278198361396790e-01 -1.0438209772109985e-01 2.6087838411331177e-01 8.6606072727590799e-05 -1.6112219542264938e-02 1.0932248085737228e-01 -4.8473700881004333e-02 9.5769025385379791e-02 3.9153364300727844e-01 -1.5208500623703003e-01 2.9977345466613770e-01 -2.5565308332443237e-01 1.6296076774597168e-01 -1.1298770084977150e-02 -1.2839707732200623e-01 -1.7324280738830566e-01 4.3534740805625916e-02 -1.7767554521560669e-01 1.7893828451633453e-01 8.8569775223731995e-02 2.6443386077880859e-01 1.3410361111164093e-01 1.8525733053684235e-01 1.9201388955116272e-01 5.5881012231111526e-02 3.0547097325325012e-02 -9.1379053890705109e-02 1.0977146029472351e-01 -2.5313580036163330e-01 -1.5857848525047302e-01 -1.7288304865360260e-01 -8.3801582455635071e-02 1.6665478050708771e-01 5.8628764003515244e-02 -2.9173612594604492e-02 -1.6655990481376648e-01 -1.1050528287887573e-01 4.5493394136428833e-02 -2.3390814661979675e-01 -3.4448351711034775e-02 5.8455530554056168e-02 -1.3414527475833893e-01 1.8235024809837341e-01 8.4748724475502968e-03 -1.6572695225477219e-02 -1.5690767765045166e-01 9.5119498670101166e-02 -9.7867116332054138e-02 6.0366000980138779e-02 -3.9811842143535614e-02 -8.2215666770935059e-02 -2.1942771971225739e-01 -4.7615353018045425e-02 -1.8383544683456421e-01 -1.8921764194965363e-01 1.5806296467781067e-01 -9.0503394603729248e-02 3.5468932241201401e-02 -5.5884893983602524e-02 -1.3108536601066589e-01 1.5978501737117767e-01 -9.8958693444728851e-02 -1.5201254189014435e-01 1.1988206207752228e-01 -4.0231611579656601e-02 9.2106953263282776e-02 -1.9280746579170227e-01 -1.5468671917915344e-01 -1.1996328830718994e-01 -9.2961996793746948e-02 -3.8952350616455078e-02 9.3858782202005386e-03 -5.8166109025478363e-02 1.7006689310073853e-01 -4.3204554822295904e-04 6.7882865667343140e-02 -8.1286422908306122e-02 4.1621230542659760e-02 6.4682744443416595e-02 6.1195213347673416e-02 1.8768420442938805e-02 -3.6911513656377792e-02 4.6432610601186752e-02 2.4598866701126099e-01 -2.3667526245117188e-01 -4.3294236063957214e-02 -1.0667483508586884e-01 -1.4910902082920074e-01 -1.9494411349296570e-01 -6.2723219394683838e-02 -1.8213036656379700e-01 -3.9171036332845688e-02 -1.1746448278427124e-01 -1.0292413644492626e-02 2.8685861825942993e-01 2.2123238444328308e-01 -1.2565116584300995e-01 2.8878840804100037e-01 2.1566773951053619e-01 1.3133504986763000e-01 9.1696009039878845e-02 -4.8700246959924698e-02 7.1270398795604706e-02 1.4246407151222229e-01 8.4094405174255371e-02 1.6447377204895020e-01 -1.1032272875308990e-01 -6.8272508680820465e-02 7.1319133043289185e-02 -1.2279994785785675e-01 1.6718631982803345e-01 -1.6845262050628662e-01 1.1183557659387589e-01 -1.7981061339378357e-01 -3.6135673522949219e-02 1.4547894895076752e-01 2.4130895733833313e-02 -5.9431951493024826e-02 -2.6640635728836060e-01 8.4758780896663666e-02 -9.7950026392936707e-02 2.1890956908464432e-02 -4.2691957205533981e-02 -3.1630717217922211e-02 9.9405176937580109e-02 9.3293771147727966e-02 -1.0904533416032791e-01 -1.2282615900039673e-01 1.7598883807659149e-01 6.2079515308141708e-02 2.4375852197408676e-02 -1.9098350778222084e-02 8.1345193088054657e-02 -7.8907735645771027e-02 -1.8430052697658539e-01 -1.8194342032074928e-02 -2.0510490238666534e-01 9.4078801572322845e-02 2.9725160449743271e-02 7.5591318309307098e-02 -3.7681907415390015e-02 2.9754757881164551e-02 -5.5288691073656082e-03 -1.2854127585887909e-01 -2.2013610601425171e-01 4.0745433419942856e-02 -1.3988003134727478e-01 3.8614418357610703e-02 1.0465411096811295e-01 7.3305658996105194e-02 -2.6438096165657043e-01 4.0978407487273216e-03 -7.0490829646587372e-02 -7.3502272367477417e-02 -5.7972799986600876e-02 -8.8517636060714722e-02 -5.2466440945863724e-02 -7.0372205227613449e-03 9.9789634346961975e-02 5.9540968388319016e-02 1.6805921494960785e-01 2.9444026947021484e-01 8.2004278898239136e-02 1.0523980110883713e-01 -3.2310679554939270e-01 1.0147383064031601e-01 -2.5050464272499084e-01 3.8994919508695602e-02 -2.1829817444086075e-02 2.5274747610092163e-01 -1.7904746532440186e-01 1.6908508539199829e-01 -5.8674518018960953e-02 1.6882959008216858e-01 -2.7551440522074699e-02 1.3277789950370789e-01 -1.4861182868480682e-01 6.7657515406608582e-02 4.1184268891811371e-02 -1.6309665143489838e-01 1.6151154041290283e-01 -3.6081525683403015e-01 -2.3574148118495941e-01 -3.2674509286880493e-01 -3.8073383271694183e-02 -2.5122591853141785e-01 4.9013916403055191e-02 -5.4833818227052689e-02 2.4877613782882690e-01 -1.6301783919334412e-01 -1.3712245225906372e-01 4.7070793807506561e-02 -2.0140895247459412e-01 6.2974907457828522e-02 -1.9446550309658051e-01 1.3207085430622101e-01 5.6961588561534882e-02 2.3442816734313965e-01 7.1332514286041260e-02 -5.6471612304449081e-02 -3.4568986296653748e-01 4.5121654868125916e-02 -3.4064236283302307e-01 1.1572570353746414e-01 1.2058495730161667e-01 1.2431877851486206e-01 -4.0429033339023590e-02 -5.1420316100120544e-02 6.9113843142986298e-02 5.1846634596586227e-02 -1.2200719863176346e-01 1.4500522613525391e-01 -8.8745310902595520e-02 -4.3753754347562790e-02 -1.9063035026192665e-02 -1.4473871886730194e-01 6.1993952840566635e-02 -8.5042618215084076e-02 -1.7529568076133728e-01 2.8929088264703751e-02 4.5804334804415703e-03 2.3331521451473236e-01 1.4699903130531311e-01 -1.3905006647109985e-01 -1.7687253654003143e-01 -2.5220869109034538e-02 1.3728611171245575e-01 1.7458623647689819e-01 1.4256382361054420e-02 2.1963472664356232e-01 2.2829250991344452e-01 -1.5582931041717529e-01 -1.2277112342417240e-02 -7.6525464653968811e-02 -1.7923755943775177e-01 1.4597497880458832e-01 -1.5066568553447723e-01 1.9456721842288971e-02 1.2509252130985260e-01 -2.7967125177383423e-02 1.2208676338195801e-01 -3.5911161452531815e-02 -1.5329442918300629e-01 1.6482461988925934e-01 -1.6364383697509766e-01 1.4634427428245544e-01 2.1555431187152863e-01 2.3694185540080070e-02 9.9814325571060181e-02 -2.1393476054072380e-02 -5.8651998639106750e-02 1.9245918095111847e-01 -1.6113412380218506e-01 -1.2498407159000635e-04 3.3234804868698120e-02 -2.8752991557121277e-01 -1.2308239936828613e-02 -2.1301956474781036e-01 5.2075140178203583e-02 -1.9414141774177551e-02 1.2612582743167877e-01 3.5436343401670456e-02 -1.1468298733234406e-02 5.4114393889904022e-02 2.4409116804599762e-01 -1.2054859846830368e-01 -1.3890407979488373e-01 1.1434228718280792e-01 -1.7150345444679260e-01 -1.2009245343506336e-02 -1.0450480878353119e-01 -1.9288846850395203e-01 1.8140254914760590e-01 -1.6402132809162140e-01 4.5965258032083511e-02 1.4683340489864349e-01 2.0390903949737549e-01 -1.3905322551727295e-01 2.3412518203258514e-02 -1.0243666917085648e-01 9.5988884568214417e-02 9.6929632127285004e-02 2.0718745887279510e-02 -1.4724521897733212e-02 -1.8333913385868073e-01 -1.4206987619400024e-01 -2.8422516584396362e-01 -8.8065350428223610e-03 1.5488022565841675e-01 -1.6621217131614685e-01 -8.0591425299644470e-02 -2.4716484546661377e-01 3.1825092434883118e-01 6.8204954266548157e-02 7.9512849450111389e-02 -2.5066202878952026e-01 3.1341451406478882e-01 -2.8636670112609863e-01 1.8928198516368866e-01 -1.8245573341846466e-01 -5.3400546312332153e-03 -1.0693939030170441e-01 -1.3685089349746704e-01 8.5007146000862122e-02 -7.9278312623500824e-02 -4.0901046246290207e-02 -4.4578962028026581e-02 -2.0500957965850830e-01 1.9020785391330719e-01 2.9018688201904297e-01 3.0967846512794495e-01 2.4600750207901001e-01 2.8262716531753540e-01 1.2980493903160095e-01 -2.8033229708671570e-01 5.0784689374268055e-03 -6.7260146141052246e-02 1.8292917311191559e-01 1.2794937193393707e-01 -2.4340142309665680e-01 -2.0260176062583923e-01 6.7987561225891113e-02 -3.5013982653617859e-01 5.4874397814273834e-02 2.0462828874588013e-01 -4.4273536652326584e-02 5.3221184760332108e-02 1.1986164748668671e-01 3.7127420306205750e-02 3.6881305277347565e-02 -1.6646040976047516e-01 2.5011956691741943e-01 -3.5320784896612167e-02 3.1679189205169678e-01 -9.4720050692558289e-02 1.1826564371585846e-01 6.7660272121429443e-02 -5.4126337170600891e-02 -3.3601056784391403e-02 -7.2692707180976868e-02 -1.0877037048339844e-01 4.6277418732643127e-02 1.7101772129535675e-02 -2.3146951198577881e-01 6.5096318721771240e-02 -3.2547479867935181e-01 -3.2387959957122803e-01 -5.7694971561431885e-02 -1.3256078958511353e-01 1.1298579722642899e-01 3.1879860162734985e-01 1.4642405509948730e-01 2.7064236998558044e-01 2.7461856603622437e-01 3.0046373605728149e-01 -8.2993425428867340e-02 -5.0898272544145584e-02 -8.8992990553379059e-02 -1.7106750607490540e-01 5.7657856494188309e-02 1.7571008205413818e-01 2.8614744544029236e-01 1.5639907121658325e-01 -1.4801552891731262e-01 -4.4048305600881577e-02 -2.5096288323402405e-01 1.1781264096498489e-01 -5.2988819777965546e-02 -4.4988963752985001e-02 -1.3384772837162018e-01 -1.2259464710950851e-01 3.2270114868879318e-02 1.4878714084625244e-01 -2.4295102059841156e-01 -7.1971371769905090e-02 1.6609936952590942e-02 -1.1287141591310501e-01 -7.3886983096599579e-02 -9.6917804330587387e-03 -5.3455471061170101e-03 -1.0954055935144424e-01 -1.6229046508669853e-02 -2.8112593293190002e-01 8.6250983178615570e-02 -1.6927130520343781e-02 -2.0273949205875397e-01 -1.6667537391185760e-01 -1.8379572033882141e-01 2.0498936995863914e-02 -5.1917236298322678e-02 1.2978725135326385e-01 7.2199352085590363e-02 2.0976319909095764e-01 -9.8483480513095856e-02 1.2736861594021320e-02 -1.3432678580284119e-01 -4.6290911734104156e-02 1.2059560418128967e-01 -4.2547602206468582e-02 -1.7342025041580200e-01 -2.2529136389493942e-02 1.6276641190052032e-01 8.0187216401100159e-02 2.3368357215076685e-03 -6.7358665168285370e-02 3.1695386767387390e-01 1.1143734306097031e-01 -2.3768350481987000e-02 2.2925035655498505e-01 1.9003146886825562e-01 -1.9488735496997833e-01 3.9205979555845261e-02 4.3275333940982819e-02 1.5875007212162018e-01 8.8113583624362946e-02 -6.1869911849498749e-02 -6.2329884618520737e-02 -1.4396198093891144e-01 -2.9596850275993347e-01 2.2570870816707611e-02 5.5768214166164398e-02 -1.3205444812774658e-01 1.4600104093551636e-01 9.7431384027004242e-02 -8.2447536289691925e-02 6.2115937471389771e-02 6.6460259258747101e-02 -1.7032237350940704e-01 1.0452056676149368e-01 1.8547907471656799e-01 1.3242733478546143e-01 -2.3773960769176483e-02 -4.2476989328861237e-02 9.7637653350830078e-02 -9.3209721148014069e-02 -8.0137737095355988e-03 -4.8822113312780857e-03 9.5142699778079987e-02 1.4540867507457733e-01 7.1265943348407745e-02 -1.4899472892284393e-01 7.2714619338512421e-02 -9.4216264784336090e-02 2.5342760607600212e-02 -6.1783604323863983e-02 -4.5205622911453247e-02 1.2689250707626343e-01 9.2492148280143738e-02 1.0758619010448456e-01 -7.3479488492012024e-02 -1.5010893344879150e-01 7.8754715621471405e-02 -1.3925114274024963e-01 5.2181928185746074e-04 4.4440925121307373e-02 1.2896278500556946e-01 -7.6695889234542847e-02 6.2960729002952576e-02 -1.1523311585187912e-01 2.4365860223770142e-01 6.1886023730039597e-02 9.0373620390892029e-02 -3.5249684005975723e-02 1.3127359747886658e-01 -9.5682293176651001e-02 -9.0545654296875000e-02 7.9667486250400543e-02 -1.5758849680423737e-01 -1.3845045864582062e-01 -1.2531359493732452e-01 -5.0239287316799164e-02 -3.4343087673187256e-01 -2.7450621128082275e-01 -1.5083292126655579e-01 1.8128812313079834e-01 -2.1121546626091003e-01 1.2053995160385966e-03 1.5618568658828735e-01 1.9732559099793434e-02 -9.3954242765903473e-02 -3.2009783387184143e-01 -6.1225179582834244e-02 -7.1273255348205566e-01 -2.9709100723266602e-02 3.7141580134630203e-02 1.2999868392944336e-01 -4.9926389008760452e-02 -2.5160321965813637e-02 -4.0555384010076523e-02 -5.4621290415525436e-02 -2.9159834980964661e-01 2.4513453245162964e-01 1.0518113151192665e-02 4.6066018939018250e-01 1.4383988082408905e-01 1.0124582797288895e-02 2.5070086121559143e-01 3.4452518820762634e-01 -2.5547868013381958e-01 3.1136190891265869e-01 -5.1438793540000916e-02 3.3625438809394836e-02 1.8612177670001984e-01 -2.4474976956844330e-01 -5.5292576551437378e-02 -2.3243688046932220e-01 -3.6830836534500122e-01 -3.4707784652709961e-02 -4.7380883246660233e-02 2.3679828643798828e-01 1.8466711044311523e-01 5.5817313492298126e-02 -4.5640036463737488e-01 -1.9437227398157120e-02 -6.1045807600021362e-01 1.1985454708337784e-01 -1.5444098040461540e-02 1.2806989252567291e-01 -1.5127560123801231e-02 1.1670213192701340e-02 -3.9603763818740845e-01 -7.9927191138267517e-02 -5.1593959331512451e-01 2.5462591648101807e-01 -7.3240689933300018e-02 2.9236531257629395e-01 1.0754167288541794e-01 2.5809901952743530e-01 2.0079742372035980e-01 1.2441424280405045e-01 -1.6249954700469971e-01 2.3891758918762207e-01 -2.0440524816513062e-01 8.4528177976608276e-02 -5.8508805930614471e-02 -2.6514890789985657e-01 -1.0380716621875763e-01 -3.7824773788452148e-01 -2.4471493065357208e-01 1.0306926071643829e-01 1.4765009284019470e-01 2.3763122037053108e-02 3.7696605920791626e-01 
      </Weights>
      <Biases rows="32" cols="1">
        -1.4313918538391590e-02 -1.9560949876904488e-03 1.7767988145351410e-02 3.5520326346158981e-02 -2.0927485078573227e-02 -8.0389799550175667e-03 -1.8466675654053688e-02 1.2723134830594063e-02 7.2087243199348450e-02 -2.3531861603260040e-02 1.8916912376880646e-03 1.3375094160437584e-02 -1.7243312671780586e-02 -4.1547538712620735e-03 4.7074992209672928e-02 8.9333895593881607e-03 -6.1082743108272552e-02 1.7829222604632378e-02 -2.0451093092560768e-02 -3.0395317822694778e-02 -3.6694832146167755e-02 -2.3867490235716105e-03 3.2871901988983154e-02 -4.5731872320175171e-02 1.2221990153193474e-02 1.3517434708774090e-03 3.4698575735092163e-02 -1.7924848943948746e-02 -3.3832799643278122e-02 -6.7715398967266083e-02 1.0194656439125538e-02 -4.0630169212818146e-02 
      </Biases>
    </Layer>
    <Layer ActivationFunction="3">
      <Weights rows="16" cols="32">
        1.2888021767139435e-01 -9.3457944691181183e-02 -2.5347694754600525e-01 9.1992549598217010e-02 7.1907185018062592e-02 4.2167834937572479e-02 -1.1426415294408798e-01 2.7457019314169884e-02 -9.1060020029544830e-02 7.9114526510238647e-02 1.6435967385768890e-01 6.4439229667186737e-02 1.7816871404647827e-02 2.1123637259006500e-01 -1.0070759057998657e-01 -9.4024159014225006e-02 1.1055886000394821e-01 3.6671042442321777e-02 -8.0754816532135010e-02 -1.0098228603601456e-01 2.4339165538549423e-02 -4.3076272122561932e-03 2.1468792110681534e-02 1.4584365487098694e-01 1.4814422465860844e-02 -1.1524993926286697e-02 6.8126887083053589e-02 7.3286801576614380e-02 1.2509723007678986e-01 -6.7333832383155823e-02 -1.0725294053554535e-01 -2.9363665729761124e-02 2.4321412667632103e-02 -1.4419089257717133e-01 -1.4944772422313690e-01 1.8370966613292694e-01 2.5249791145324707e-01 2.8623244166374207e-01 3.2943597435951233e-01 3.0466258525848389e-01 1.3412168622016907e-01 1.4162431657314301e-01 2.7503424882888794e-01 -2.7517625689506531e-01 -2.2624470293521881e-01 -4.4771213084459305e-02 1.2915231287479401e-01 4.2898608371615410e-03 -2.5259241461753845e-02 5.8670993894338608e-03 -2.0959985256195068e-01 -1.9223725795745850e-01 -1.9136388599872589e-01 6.1407037079334259e-02 -6.2893167138099670e-02 2.5450065732002258e-01 1.7854686081409454e-01 4.5027244836091995e-02 -3.7764340639114380e-02 1.1229176819324493e-01 2.0542733371257782e-02 4.0082111954689026e-02 1.4243806898593903e-01 -5.6122019886970520e-03 1.7032009363174438e-01 -1.5683332458138466e-02 1.4215902984142303e-01 7.8195773065090179e-02 -1.7712779343128204e-01 9.4435870647430420e-02 -2.3058421909809113e-02 1.8213865160942078e-01 2.3666751384735107e-01 -3.8350701332092285e-02 1.9255106151103973e-01 -1.1177024990320206e-01 1.4037430286407471e-01 2.9883874580264091e-02 9.9752768874168396e-02 2.3632584139704704e-02 -8.7331414222717285e-02 -2.2320596873760223e-01 -9.4457544386386871e-02 -2.1384394168853760e-01 -1.7376920208334923e-02 3.4009214490652084e-02 7.8808717429637909e-02 1.5499316155910492e-01 1.2318280339241028e-01 1.9914083182811737e-01 5.0882425159215927e-02 1.9182176887989044e-01 1.8786780536174774e-02 -2.2159586846828461e-01 -1.6266113519668579e-01 1.7235961556434631e-01 -3.7417855113744736e-02 -1.6758911311626434e-01 3.0212789773941040e-02 5.9679307043552399e-02 1.2118881195783615e-01 2.2102521359920502e-01 1.1903561651706696e-01 -7.3837734758853912e-02 6.6114917397499084e-02 -3.4795340150594711e-02 -1.7268513143062592e-01 6.8018555641174316e-02 -1.5457314252853394e-01 4.9693342298269272e-02 -9.8690032958984375e-02 -2.5024452805519104e-01 -9.9954754114151001e-02 7.6976105570793152e-02 1.3375081121921539e-01 -6.2170997262001038e-02 -1.0542610660195351e-02 1.0755047947168350e-01 4.7155715525150299e-02 1.0376411676406860e-01 -1.1985204182565212e-02 1.8394675850868225e-01 -5.9803090989589691e-02 2.7753468602895737e-03 -2.1670448780059814e-01 1.1508395522832870e-01 -1.0653623193502426e-01 1.6629691421985626e-01 1.7714881105348468e-03 -1.6171168535947800e-02 -2.3165413737297058e-01 2.2138128057122231e-02 -1.8513900041580200e-01 1.4068032801151276e-01 -1.1055873334407806e-01 1.7561392486095428e-01 -1.3954098522663116e-01 -1.0283356159925461e-01 -8.1130154430866241e-02 1.4540019445121288e-02 -3.4947920590639114e-02 -1.1683931201696396e-01 2.2057186067104340e-01 7.7170714735984802e-02 -2.3088154848664999e-03 2.0050951838493347e-01 -5.9128351509571075e-02 -8.2369819283485413e-02 -9.6103906631469727e-02 -1.4359235763549805e-01 -2.3564137518405914e-02 1.1235336959362030e-01 5.3100690245628357e-02 1.0347313433885574e-01 8.6836345493793488e-02 -9.5853246748447418e-02 -1.4168146252632141e-01 2.5986042618751526e-01 -1.1610782705247402e-02 7.9887263476848602e-02 -3.3036477863788605e-02 -1.6667534410953522e-01 -2.2475242614746094e-01 6.9764867424964905e-02 1.1169208586215973e-01 -1.4259719848632812e-01 -1.4518535137176514e-01 -1.4862303622066975e-02 -1.7441935837268829e-01 -1.7991726100444794e-01 -6.0418620705604553e-02 -6.2824431806802750e-03 1.1089255660772324e-01 3.2903712987899780e-01 -5.9445429593324661e-02 8.7859302759170532e-02 1.8750170245766640e-02 -6.7205235362052917e-02 -4.2745873332023621e-02 9.1939024627208710e-02 5.0711274147033691e-02 -1.7266487702727318e-02 -8.0931618809700012e-02 1.5439260005950928e-01 4.6170532703399658e-02 -2.5461351871490479e-01 1.7699979245662689e-01 -8.0100946128368378e-02 -7.8196085989475250e-02 -5.5886264890432358e-02 -3.1083825230598450e-01 -3.0908545851707458e-01 -9.7013577818870544e-02 2.8021973371505737e-01 2.2262363135814667e-01 -3.3466115593910217e-01 4.4154904782772064e-02 3.1770214438438416e-01 2.3721525073051453e-01 2.2610972821712494e-01 9.3007376417517662e-03 1.1346698738634586e-02 8.6035519838333130e-02 -7.8333720564842224e-02 -1.5613918006420135e-01 -4.3755760788917542e-01 2.9850059747695923e-01 -1.8888723850250244e-01 -5.1835334300994873e-01 2.1106064319610596e-01 1.3000537455081940e-01 -6.1999946832656860e-02 -1.2313682585954666e-01 3.0825409293174744e-01 3.9936241507530212e-01 -2.1301031112670898e-01 -2.1864432096481323e-01 3.9272937178611755e-01 -2.4830688536167145e-01 1.1341153085231781e-01 1.0035740211606026e-02 1.8710026144981384e-01 3.9290943741798401e-01 3.4522160887718201e-01 -7.0013217628002167e-02 -1.8088707327842712e-01 -2.5645014643669128e-01 5.4583963006734848e-02 8.3543300628662109e-02 1.9235746562480927e-01 7.5889553409069777e-04 1.5159142017364502e-01 7.5772948563098907e-02 -1.9337499141693115e-01 7.6517499983310699e-03 -1.4302602037787437e-02 -1.7481879889965057e-01 -4.0393833070993423e-02 1.2446220219135284e-01 1.0406479239463806e-01 7.3109455406665802e-02 -2.9094349592924118e-02 -1.4896887540817261e-01 1.0541383177042007e-01 -4.7823693603277206e-03 -1.5111163258552551e-01 2.3874385282397270e-02 8.7283983826637268e-02 1.9587315618991852e-01 -6.8265490233898163e-02 -7.7783845365047455e-02 -1.6784070432186127e-01 -8.7967947125434875e-02 4.0977932512760162e-02 -4.7692641615867615e-02 -6.6329225897789001e-02 1.2818330526351929e-01 -2.1131421625614166e-01 -5.8344624936580658e-02 -8.2537129521369934e-02 -1.1219414323568344e-01 1.0331467539072037e-01 -1.6780370846390724e-02 2.6444652676582336e-01 -1.5425528585910797e-01 -2.3980403784662485e-03 -3.8478005677461624e-02 -1.2782050669193268e-01 1.0381824523210526e-01 -2.2656148672103882e-01 4.1743494570255280e-02 -5.8065075427293777e-02 -2.4187138676643372e-01 6.4895711839199066e-02 -6.8748056888580322e-02 8.9912340044975281e-02 1.4886526763439178e-01 2.0423296838998795e-02 1.0693114995956421e-01 -2.1490424871444702e-01 -9.7302272915840149e-03 1.2294983863830566e-01 -7.3887079954147339e-02 -1.6250811517238617e-01 -1.3930931687355042e-01 8.3369374275207520e-02 1.6168372333049774e-01 2.1386082470417023e-01 1.4127780497074127e-01 -1.6750073432922363e-01 -2.0036801695823669e-01 1.4290945231914520e-01 2.1515829488635063e-02 9.9557884037494659e-02 9.4621911644935608e-02 1.4954338967800140e-01 -2.1740271151065826e-01 1.0297984629869461e-01 -6.9306612014770508e-02 9.1889359056949615e-02 1.7713481187820435e-01 -7.0894062519073486e-02 1.1123755015432835e-02 -9.8827585577964783e-02 7.1347136981785297e-03 -4.3954845517873764e-02 -1.9232396781444550e-01 1.8702635169029236e-01 -5.5821627378463745e-02 -1.1434096843004227e-01 -1.2704452872276306e-01 1.8383897840976715e-01 1.1729259043931961e-01 4.2287956923246384e-02 5.4501920938491821e-02 -5.2743148058652878e-02 6.4388141036033630e-02 1.5517969429492950e-01 4.9535699188709259e-02 4.8142731189727783e-02 -3.8570091128349304e-02 3.0277241021394730e-03 5.7385899126529694e-02 -1.3692545890808105e-01 1.4439484477043152e-01 -1.6942571103572845e-01 -7.9014569520950317e-02 6.9483377039432526e-02 -2.1840060129761696e-02 -6.0768317431211472e-02 7.0121496915817261e-02 8.4839589893817902e-02 3.2337993383407593e-02 1.4656084775924683e-01 -4.3288398534059525e-02 -6.6259108483791351e-02 2.2694349288940430e-01 -5.2317693829536438e-02 -2.8114335611462593e-02 2.1166262030601501e-01 2.2516084834933281e-02 6.6610530018806458e-02 -4.9812566488981247e-02 1.3678108155727386e-01 -5.4980356246232986e-02 -9.8216384649276733e-02 1.4552068710327148e-01 1.6397539526224136e-02 -1.9942887127399445e-01 -1.1639716476202011e-01 -6.6780664026737213e-02 -6.8138748407363892e-02 3.5744678974151611e-01 -4.8341397196054459e-02 3.6367210745811462e-01 5.0502830743789673e-01 2.0461631938815117e-02 -2.3918665945529938e-01 -1.0660434514284134e-01 -1.4071193337440491e-01 3.1916487216949463e-01 -2.7715047821402550e-02 2.1606762707233429e-01 -2.7264973521232605e-01 9.3888655304908752e-02 1.3799524307250977e-01 -4.9673768877983093e-01 5.0003129243850708e-01 8.5553266108036041e-02 -1.6458390653133392e-01 -1.4791268110275269e-01 -5.2803672850131989e-02 -2.4586629867553711e-01 -1.3298456370830536e-01 -7.7209115028381348e-02 1.2156636267900467e-01 3.6295124888420105e-01 -1.0404314845800400e-01 -1.2221220880746841e-01 2.5525808334350586e-01 -4.5925755053758621e-02 -2.0004840195178986e-01 -1.0377998463809490e-02 -3.7449657917022705e-01 -1.4304000139236450e-01 -5.3775180131196976e-02 1.4144168794155121e-01 1.6517521440982819e-01 -7.8980773687362671e-02 4.3800380825996399e-01 2.0321418344974518e-01 -3.0088318511843681e-02 9.3444630503654480e-02 1.6230296343564987e-02 2.4527527391910553e-01 -1.9905988872051239e-01 -3.9021663367748260e-02 -1.1502060294151306e-01 -4.8363361507654190e-02 -1.0489819198846817e-01 -1.8573735654354095e-01 6.1679754406213760e-02 -1.1706423014402390e-01 2.5620810687541962e-02 -2.4654586613178253e-01 -1.7644949257373810e-01 -4.9905080348253250e-02 2.0980721712112427e-01 1.3918069005012512e-01 4.3689351528882980e-02 -3.5240016877651215e-02 1.9729283452033997e-01 9.3679435551166534e-02 -7.4007473886013031e-02 2.5407463312149048e-01 9.6362657845020294e-02 2.3251289129257202e-01 6.1389818787574768e-02 -3.8327600806951523e-02 3.0936974287033081e-01 -1.2494651228189468e-01 -2.0705612003803253e-01 5.2382484078407288e-02 -1.7199534177780151e-01 1.9724699854850769e-01 1.9197474420070648e-01 -1.3711363077163696e-01 -6.0708474367856979e-02 1.4259752817451954e-02 -2.5578681379556656e-02 -2.9893410205841064e-01 1.5377721190452576e-01 -8.3374939858913422e-03 -1.4616239070892334e-01 -3.5377800464630127e-02 -1.8066475167870522e-02 -2.1830478310585022e-01 -9.4901412725448608e-02 -2.2501783445477486e-02 -2.4848023429512978e-02 2.9089054465293884e-01 2.7604324743151665e-02 9.4647265970706940e-02 1.4496670663356781e-01 4.9185398966073990e-02 7.6231352984905243e-02 -1.5671217441558838e-01 -2.0006689429283142e-01 6.0212355107069016e-02 1.6629555821418762e-01 3.1706176698207855e-02 -1.3200867176055908e-01 -5.6133739650249481e-02 -3.2275149226188660e-01 -2.3060134053230286e-01 -1.3736681640148163e-01 -4.9908641725778580e-02 -1.4662997424602509e-01 -1.6090030968189240e-01 2.6157519221305847e-01 3.2113529741764069e-02 4.3304758146405220e-03 2.0108868181705475e-01 -1.3594493269920349e-01 3.5237342119216919e-02 -4.1289340704679489e-02 2.0028646290302277e-01 5.3258545696735382e-02 6.4054735004901886e-02 -1.1941183358430862e-01 -1.3800792396068573e-01 -1.3265779614448547e-01 -2.4046680331230164e-01 -2.3826810717582703e-01 1.3634151220321655e-01 -8.5900999605655670e-02 -1.2543944641947746e-02 2.4685684591531754e-02 -1.5912371873855591e-01 -2.6226965710520744e-02 -1.5591822564601898e-01 3.0747372657060623e-02 -1.3827004469931126e-02 -4.2315755039453506e-02 2.9358232393860817e-02 2.6476106140762568e-03 2.5208017230033875e-01 -1.4918285422027111e-02 1.7042952775955200e-01 1.4257854223251343e-01 -5.3054191172122955e-02 1.0373590886592865e-01 -2.3087918758392334e-01 1.2283606082201004e-01 2.4186794459819794e-01 -2.8086054325103760e-01 -1.5037025511264801e-01 8.7222322821617126e-02 -7.3235943913459778e-02 8.9658312499523163e-02 1.2779347598552704e-01 1.5697422623634338e-01 7.5449712574481964e-02 1.4735368080437183e-02 -9.2827044427394867e-02 -5.9357546269893646e-02 -2.2345855832099915e-01 -1.3686965405941010e-01 7.9287603497505188e-02 -7.7753879129886627e-02 -1.0066435486078262e-01 8.9599704369902611e-03 
      </Weights>
      <Biases rows="16" cols="1">
        -9.8727919161319733e-02 5.1990915089845657e-03 1.5837082266807556e-01 -5.8593276888132095e-02 -1.4444819092750549e-01 -1.4843738079071045e-01 1.8760217726230621e-01 -2.7066525816917419e-01 5.0712779164314270e-02 -1.5702828764915466e-01 -7.3788516223430634e-02 1.2133035808801651e-01 -1.1825875937938690e-01 -3.8510445505380630e-02 1.0176772624254227e-01 8.7698791176080704e-03 
      </Biases>
    </Layer>
    <Layer ActivationFunction="0">
      <Weights rows="3" cols="16">
        3.7783220410346985e-01 -3.5022056102752686e-01 -2.3684838414192200e-01 -2.0140177011489868e-01 -1.3108921051025391e-01 4.6263164281845093e-01 -5.3722345829010010e-01 1.4794822037220001e-01 -4.0604543685913086e-01 9.5693372189998627e-02 3.7532386183738708e-01 8.2967019081115723e-01 -2.6386979222297668e-01 4.8692926764488220e-01 1.6865466535091400e-01 -3.2180210947990417e-01 1.7108957469463348e-01 4.0668708086013794e-01 2.4180514737963676e-02 1.5999872982501984e-01 1.8043018877506256e-01 -2.9750877618789673e-01 8.1460666656494141e-01 3.8919553160667419e-01 -5.3971214219927788e-03 2.6177117228507996e-01 -2.9969703406095505e-02 1.5449683368206024e-01 3.4908699989318848e-01 6.2163718044757843e-02 -3.4877014160156250e-01 6.4382575452327728e-02 2.4082291871309280e-02 -1.9274562597274780e-01 -4.4530168175697327e-01 9.5216162502765656e-02 4.0969634056091309e-01 -1.8849919736385345e-01 9.6005719900131226e-01 4.4909811019897461e-01 1.5693384408950806e-01 3.3279484510421753e-01 2.1462811529636383e-01 -6.0526496171951294e-01 -1.6851273179054260e-01 -1.8241882324218750e-01 2.5501862168312073e-01 1.6148762404918671e-01 
      </Weights>
      <Biases rows="3" cols="1">
        -3.5390570759773254e-01 -6.0253137350082397e-01 -5.3992789983749390e-01 
      </Biases>
    </Layer>
  </Weights>
</MethodSetup>
