<?xml version="1.0"?>
<MethodSetup Method="DNN::DNN_NanoV2_2020_taufix_RMET_x0">
  <GeneralInfo>
    <Info name="TMVA Release" value="4.2.1 [262657]"/>
    <Info name="ROOT Release" value="6.12/07 [396295]"/>
    <Info name="Creator" value="hum"/>
    <Info name="Date" value="Sat Sep 11 09:22:58 2021"/>
    <Info name="Host" value="Linux vocms0301.cern.ch 2.6.32-696.30.1.el6.x86_64 #1 SMP Tue May 22 06:09:36 CEST 2018 x86_64 x86_64 x86_64 GNU/Linux"/>
    <Info name="Dir" value="/afs/cern.ch/work/h/hum/public/CMSSW_10_2_13/src/ChargedHiggs/Analysis"/>
    <Info name="Training events" value="50489"/>
    <Info name="TrainingTime" value="2.62402470e+01"/>
    <Info name="AnalysisType" value="Classification"/>
  </GeneralInfo>
  <Options>
    <Option name="V" modified="Yes">True</Option>
    <Option name="VerbosityLevel" modified="No">Verbose</Option>
    <Option name="VarTransform" modified="Yes">N</Option>
    <Option name="H" modified="Yes">False</Option>
    <Option name="CreateMVAPdfs" modified="No">False</Option>
    <Option name="IgnoreNegWeightsInTraining" modified="No">False</Option>
    <Option name="Layout" modified="Yes">TANH|64,TANH|32,TANH|32,LINEAR</Option>
    <Option name="ValidationSize" modified="No">20%</Option>
    <Option name="ErrorStrategy" modified="Yes">CROSSENTROPY</Option>
    <Option name="WeightInitialization" modified="Yes">XAVIERUNIFORM</Option>
    <Option name="Architecture" modified="Yes">CPU</Option>
    <Option name="TrainingStrategy" modified="Yes">LearningRate=1e-1,Momentum=0.9,Repetitions=1,ConvergenceSteps=20,BatchSize=256,TestRepetitions=10,WeightDecay=1e-4,Regularization=L2,DropConfig=0.0+0.1+0.25+0.5,</Option>
  </Options>
  <Variables NVar="12">
    <Variable VarIndex="0" Expression="j1QGL" Label="j1QGL" Title="j1QGL" Unit="" Internal="j1QGL" Type="F" Min="7.64131546e-05" Max="1.00000000e+00"/>
    <Variable VarIndex="1" Expression="j2QGL" Label="j2QGL" Title="j2QGL" Unit="" Internal="j2QGL" Type="F" Min="1.50799751e-04" Max="1.00000000e+00"/>
    <Variable VarIndex="2" Expression="varMjj" Label="varMjj" Title="varMjj" Unit="" Internal="varMjj" Type="F" Min="5.00016327e+02" Max="9.21655664e+03"/>
    <Variable VarIndex="3" Expression="varDetajj" Label="varDetajj" Title="varDetajj" Unit="" Internal="varDetajj" Type="F" Min="2.50012207e+00" Max="8.75097656e+00"/>
    <Variable VarIndex="4" Expression="abs(varJet1Eta)" Label="abs(varJet1Eta)" Title="abs(varJet1Eta)" Unit="" Internal="abs_varJet1Eta_" Type="F" Min="7.79628754e-05" Max="4.66015625e+00"/>
    <Variable VarIndex="5" Expression="varJet1Pt" Label="varJet1Pt" Title="varJet1Pt" Unit="" Internal="varJet1Pt" Type="F" Min="5.10312500e+01" Max="1.69700000e+03"/>
    <Variable VarIndex="6" Expression="varJet2Pt" Label="varJet2Pt" Title="varJet2Pt" Unit="" Internal="varJet2Pt" Type="F" Min="5.00312500e+01" Max="1.40600000e+03"/>
    <Variable VarIndex="7" Expression="varMVV" Label="varMVV" Title="varMVV" Unit="" Internal="varMVV" Type="F" Min="2.50002090e+02" Max="1.75793018e+03"/>
    <Variable VarIndex="8" Expression="varPTV1" Label="varPTV1" Title="varPTV1" Unit="" Internal="varPTV1" Type="F" Min="2.50003601e+02" Max="1.78318713e+03"/>
    <Variable VarIndex="9" Expression="varCenRes" Label="varCenRes" Title="varCenRes" Unit="" Internal="varCenRes" Type="F" Min="-2.58837891e+00" Max="3.96649170e+00"/>
    <Variable VarIndex="10" Expression="varnormPTVVjj" Label="varnormPTVVjj" Title="varnormPTVVjj" Unit="" Internal="varnormPTVVjj" Type="F" Min="1.27360967e-04" Max="2.49587357e-01"/>
    <Variable VarIndex="11" Expression="bosV2discr" Label="bosV2discr" Title="bosV2discr" Unit="" Internal="bosV2discr" Type="F" Min="7.00013816e-01" Max="9.96583045e-01"/>
  </Variables>
  <Spectators NSpec="0"/>
  <Classes NClass="2">
    <Class Name="Signal" Index="0"/>
    <Class Name="Background" Index="1"/>
  </Classes>
  <Transformations NTransformations="1">
    <Transform Name="Normalize">
      <Selection>
        <Input NInputs="12">
          <Input Type="Variable" Label="j1QGL" Expression="j1QGL"/>
          <Input Type="Variable" Label="j2QGL" Expression="j2QGL"/>
          <Input Type="Variable" Label="varMjj" Expression="varMjj"/>
          <Input Type="Variable" Label="varDetajj" Expression="varDetajj"/>
          <Input Type="Variable" Label="abs(varJet1Eta)" Expression="abs(varJet1Eta)"/>
          <Input Type="Variable" Label="varJet1Pt" Expression="varJet1Pt"/>
          <Input Type="Variable" Label="varJet2Pt" Expression="varJet2Pt"/>
          <Input Type="Variable" Label="varMVV" Expression="varMVV"/>
          <Input Type="Variable" Label="varPTV1" Expression="varPTV1"/>
          <Input Type="Variable" Label="varCenRes" Expression="varCenRes"/>
          <Input Type="Variable" Label="varnormPTVVjj" Expression="varnormPTVVjj"/>
          <Input Type="Variable" Label="bosV2discr" Expression="bosV2discr"/>
        </Input>
        <Output NOutputs="12">
          <Output Type="Variable" Label="j1QGL" Expression="j1QGL"/>
          <Output Type="Variable" Label="j2QGL" Expression="j2QGL"/>
          <Output Type="Variable" Label="varMjj" Expression="varMjj"/>
          <Output Type="Variable" Label="varDetajj" Expression="varDetajj"/>
          <Output Type="Variable" Label="abs(varJet1Eta)" Expression="abs(varJet1Eta)"/>
          <Output Type="Variable" Label="varJet1Pt" Expression="varJet1Pt"/>
          <Output Type="Variable" Label="varJet2Pt" Expression="varJet2Pt"/>
          <Output Type="Variable" Label="varMVV" Expression="varMVV"/>
          <Output Type="Variable" Label="varPTV1" Expression="varPTV1"/>
          <Output Type="Variable" Label="varCenRes" Expression="varCenRes"/>
          <Output Type="Variable" Label="varnormPTVVjj" Expression="varnormPTVVjj"/>
          <Output Type="Variable" Label="bosV2discr" Expression="bosV2discr"/>
        </Output>
      </Selection>
      <Class ClassIndex="0">
        <Ranges>
          <Range Index="0" Min="4.0650367736816406e-04" Max="1.0000000000000000e+00"/>
          <Range Index="1" Min="5.4216384887695312e-04" Max="9.9951171875000000e-01"/>
          <Range Index="2" Min="5.0009844970703125e+02" Max="9.2165566406250000e+03"/>
          <Range Index="3" Min="2.5001831054687500e+00" Max="8.7509765625000000e+00"/>
          <Range Index="4" Min="7.8356266021728516e-04" Max="4.6113281250000000e+00"/>
          <Range Index="5" Min="5.1843750000000000e+01" Max="1.6970000000000000e+03"/>
          <Range Index="6" Min="5.0031250000000000e+01" Max="8.8500000000000000e+02"/>
          <Range Index="7" Min="2.5006166076660156e+02" Max="1.7022464599609375e+03"/>
          <Range Index="8" Min="2.5000360107421875e+02" Max="1.7831871337890625e+03"/>
          <Range Index="9" Min="-2.4938354492187500e+00" Max="3.9664916992187500e+00"/>
          <Range Index="10" Min="6.4437231048941612e-04" Max="2.4837855994701385e-01"/>
          <Range Index="11" Min="7.0005828142166138e-01" Max="9.9658304452896118e-01"/>
        </Ranges>
      </Class>
      <Class ClassIndex="1">
        <Ranges>
          <Range Index="0" Min="7.6413154602050781e-05" Max="1.0000000000000000e+00"/>
          <Range Index="1" Min="1.5079975128173828e-04" Max="1.0000000000000000e+00"/>
          <Range Index="2" Min="5.0001632690429688e+02" Max="7.2468603515625000e+03"/>
          <Range Index="3" Min="2.5001220703125000e+00" Max="8.3789062500000000e+00"/>
          <Range Index="4" Min="7.7962875366210938e-05" Max="4.6601562500000000e+00"/>
          <Range Index="5" Min="5.1031250000000000e+01" Max="1.6440000000000000e+03"/>
          <Range Index="6" Min="5.0031250000000000e+01" Max="1.4060000000000000e+03"/>
          <Range Index="7" Min="2.5000209045410156e+02" Max="1.7579301757812500e+03"/>
          <Range Index="8" Min="2.5000625610351562e+02" Max="1.5973469238281250e+03"/>
          <Range Index="9" Min="-2.5883789062500000e+00" Max="3.7379989624023438e+00"/>
          <Range Index="10" Min="1.2736096687149256e-04" Max="2.4958735704421997e-01"/>
          <Range Index="11" Min="7.0001381635665894e-01" Max="9.9533987045288086e-01"/>
        </Ranges>
      </Class>
      <Class ClassIndex="2">
        <Ranges>
          <Range Index="0" Min="7.6413154602050781e-05" Max="1.0000000000000000e+00"/>
          <Range Index="1" Min="1.5079975128173828e-04" Max="1.0000000000000000e+00"/>
          <Range Index="2" Min="5.0001632690429688e+02" Max="9.2165566406250000e+03"/>
          <Range Index="3" Min="2.5001220703125000e+00" Max="8.7509765625000000e+00"/>
          <Range Index="4" Min="7.7962875366210938e-05" Max="4.6601562500000000e+00"/>
          <Range Index="5" Min="5.1031250000000000e+01" Max="1.6970000000000000e+03"/>
          <Range Index="6" Min="5.0031250000000000e+01" Max="1.4060000000000000e+03"/>
          <Range Index="7" Min="2.5000209045410156e+02" Max="1.7579301757812500e+03"/>
          <Range Index="8" Min="2.5000360107421875e+02" Max="1.7831871337890625e+03"/>
          <Range Index="9" Min="-2.5883789062500000e+00" Max="3.9664916992187500e+00"/>
          <Range Index="10" Min="1.2736096687149256e-04" Max="2.4958735704421997e-01"/>
          <Range Index="11" Min="7.0001381635665894e-01" Max="9.9658304452896118e-01"/>
        </Ranges>
      </Class>
    </Transform>
  </Transformations>
  <MVAPdfs/>
  <Weights InputWidth="12" Depth="4" LossFunction="C" OutputFunction="S">
    <Layer ActivationFunction="3">
      <Weights rows="64" cols="12">
        -4.2164862155914307e-02 -1.4541513286530972e-02 -4.2358863353729248e-01 3.0130329541862011e-03 -1.0680943727493286e-01 1.4511722326278687e-01 1.5374159812927246e-01 3.7797212600708008e-01 -5.4572713375091553e-01 2.0011936128139496e-01 6.2400605529546738e-02 -3.6244800686836243e-01 -2.8897844254970551e-02 3.6789692938327789e-02 -1.3673038780689240e-01 -7.3052190244197845e-02 -2.4140808731317520e-02 -9.2640798538923264e-03 8.3001352846622467e-02 3.2338097691535950e-02 -1.3881310820579529e-01 1.2349583953619003e-01 2.3332670331001282e-02 -4.5236259698867798e-02 -2.6440212503075600e-02 1.5441482886672020e-02 -3.0585274100303650e-01 -2.5389639660716057e-02 1.9464118406176567e-02 1.7091801762580872e-01 7.9641588032245636e-02 3.6546248197555542e-01 -4.1117566823959351e-01 -5.2091863006353378e-02 7.3091886937618256e-02 -4.2969244718551636e-01 -2.1771879866719246e-02 -3.1731095165014267e-02 -2.4856486916542053e-01 7.3525565676391125e-03 -8.9605592191219330e-02 1.2062929570674896e-01 1.0633087158203125e-01 1.9001519680023193e-01 -3.0427008867263794e-01 3.6642521619796753e-02 1.1881306022405624e-01 -2.9957073926925659e-01 1.5065437182784081e-02 2.4259693920612335e-02 1.7453704774379730e-01 -1.8284354358911514e-02 -6.8373726680874825e-03 6.8994820117950439e-02 -3.6766439676284790e-02 -7.6791673898696899e-02 1.4598335325717926e-01 -1.4542235434055328e-01 -1.0854406654834747e-01 7.9703122377395630e-02 8.4577971696853638e-01 -6.0198831558227539e-01 1.6795952618122101e-01 -8.4720179438591003e-04 5.3096902370452881e-01 -2.6610618829727173e-01 -2.0171180367469788e-01 -1.2673784792423248e-01 5.7195462286472321e-02 -8.0824330449104309e-02 -2.5334510207176208e-01 1.5697626769542694e-01 -5.6440569460391998e-03 3.9094298699637875e-05 2.7931798249483109e-03 5.1879432052373886e-02 6.5426990389823914e-02 -3.3073497470468283e-03 -4.5626837760210037e-02 3.8574755191802979e-02 -5.9960164129734039e-02 -6.6397659480571747e-02 4.7720775008201599e-02 -8.6955860257148743e-02 1.8443252891302109e-02 -1.8498286604881287e-02 2.5720143318176270e-01 -3.7041329778730869e-03 5.2315913140773773e-02 1.2329410761594772e-01 2.4580243043601513e-03 -4.3734092265367508e-02 6.0273367911577225e-02 -1.9649808108806610e-01 -4.5912433415651321e-02 -1.0958762466907501e-01 -5.9984106570482254e-02 6.4308650791645050e-02 -2.9414343833923340e-01 -2.1977711468935013e-02 -6.4644925296306610e-02 3.3437721431255341e-02 7.7937424182891846e-02 1.3936302065849304e-01 -1.7670850455760956e-01 1.0369609296321869e-01 3.6473430693149567e-02 -6.9086052477359772e-02 -9.7443908452987671e-03 -9.1288983821868896e-03 2.3178854584693909e-01 8.6200777441263199e-03 7.5392156839370728e-02 5.1572803407907486e-02 -9.1597130522131920e-03 -1.7183257639408112e-01 1.9085583090782166e-01 -1.0468008369207382e-01 -5.1510896533727646e-02 8.8334605097770691e-02 -1.8626259407028556e-03 2.9409222770482302e-03 -2.5557941198348999e-01 -5.2706439048051834e-02 -8.0626390874385834e-02 2.2328989580273628e-02 3.3599775284528732e-02 2.1593871712684631e-01 -1.8898546695709229e-01 1.4265403151512146e-01 1.7365680541843176e-03 -1.3057550787925720e-01 -7.1160480380058289e-02 -3.2677132636308670e-02 -5.1503020524978638e-01 -1.2390875071287155e-01 -7.3287576436996460e-02 -1.1055112630128860e-01 7.0488497614860535e-02 2.1040292084217072e-01 -2.6027414202690125e-01 4.2975586652755737e-01 8.8818840682506561e-02 1.3347990810871124e-01 6.9146724417805672e-03 -4.3300557881593704e-03 -1.7269754409790039e-01 -9.4757907092571259e-02 -1.1623886227607727e-01 8.1890942528843880e-03 2.0306478254497051e-03 1.2999534606933594e-01 -1.3342367112636566e-01 1.9334529340267181e-01 9.6135228872299194e-02 -8.4641762077808380e-02 6.5927535295486450e-02 1.3971290551126003e-02 3.7080973386764526e-01 1.8489144742488861e-02 -7.7832072973251343e-02 -3.1211486458778381e-01 3.0047789216041565e-02 -4.7851207852363586e-01 6.5428125858306885e-01 2.2195293009281158e-01 2.5272700935602188e-02 9.5570021867752075e-01 -3.1986784189939499e-02 -2.0330809056758881e-02 -1.6366075724363327e-02 5.2753217518329620e-02 1.8444484099745750e-02 4.6908911317586899e-03 2.0540833473205566e-02 1.1502016335725784e-01 -1.9234526157379150e-01 -6.7223533987998962e-02 2.6266518980264664e-02 -1.8151319026947021e-01 -4.9159981310367584e-02 -2.8320191428065300e-02 -2.6771807670593262e-01 -1.0777045041322708e-01 -1.1009746789932251e-01 -3.8836218416690826e-02 5.7536561042070389e-02 1.2153480201959610e-01 -1.6206349432468414e-01 2.8290379047393799e-01 2.7228314429521561e-02 3.5810038447380066e-02 -1.1853104224428535e-03 -1.3522356748580933e-02 -2.1580374240875244e-01 -5.5886078625917435e-02 -1.5441931784152985e-01 2.0987277850508690e-02 1.1322803050279617e-01 1.7493465542793274e-01 -3.4220266342163086e-01 1.1920453608036041e-01 1.2923845648765564e-01 -2.3723292350769043e-01 1.2983164750039577e-02 -6.4488225616514683e-03 -2.2450838238000870e-02 -3.6014914512634277e-02 -5.8381550014019012e-02 -3.8198735564947128e-02 -5.3085990250110626e-02 -1.1139431595802307e-01 1.2994898855686188e-01 1.2984894216060638e-01 -2.4242311716079712e-02 1.6825909912586212e-01 4.6647004783153534e-02 2.6796646416187286e-02 4.8336422443389893e-01 1.2272138893604279e-01 1.1325865238904953e-01 1.1103210598230362e-01 -1.2667157687246799e-02 -1.2743580341339111e-01 2.4399219453334808e-01 -4.6244892477989197e-01 -1.4011040329933167e-01 -2.4187153577804565e-01 -9.2904306948184967e-02 2.9783849604427814e-03 1.2681508436799049e-02 -2.7356326580047607e-02 -3.0350137501955032e-02 8.1729754805564880e-02 -1.8977304920554161e-02 2.9848096892237663e-02 -9.1471850872039795e-02 -2.0445878803730011e-01 -1.1858497746288776e-02 -2.7508336305618286e-01 -1.2994644045829773e-01 -5.6984402239322662e-02 5.4619675874710083e-01 1.1192624270915985e-01 3.6772462725639343e-01 -9.5519483089447021e-02 -1.0359095782041550e-01 -4.3477734923362732e-01 5.5906826257705688e-01 -6.2035337090492249e-02 -1.9229550659656525e-01 2.8318831324577332e-01 -7.7411942183971405e-03 -2.7137058787047863e-03 4.3497699499130249e-01 8.4249377250671387e-02 8.0646410584449768e-02 -1.0169227607548237e-02 -1.2971723079681396e-01 -1.6255691647529602e-01 3.1328776478767395e-01 -2.8562226891517639e-01 -1.5154471993446350e-01 1.2336268275976181e-01 -2.0356379449367523e-02 2.9814973473548889e-02 -1.2750330567359924e-01 3.0368238687515259e-02 6.7014903761446476e-03 3.7672739475965500e-02 -2.0651929080486298e-03 6.5507426857948303e-02 -4.2705640196800232e-02 7.0224426686763763e-02 -3.0732974410057068e-02 -1.8780983984470367e-02 -2.0898710936307907e-02 -1.6453973948955536e-02 -2.9984745383262634e-01 5.8255158364772797e-04 -1.4969484508037567e-01 -1.1179135181009769e-02 7.7626086771488190e-02 2.1880120038986206e-01 -2.3566305637359619e-01 1.9848871231079102e-01 1.0477189719676971e-01 -1.3777016103267670e-01 -1.4327768981456757e-01 -7.1984648704528809e-02 5.1005202531814575e-01 1.1094889044761658e-01 3.6258369684219360e-01 -1.1431154608726501e-01 -1.6968129575252533e-01 -4.5402398705482483e-01 5.7032126188278198e-01 -4.2843006551265717e-02 -1.5525197982788086e-01 3.8992869853973389e-01 -2.4992981925606728e-03 1.3557711616158485e-02 -2.1320384740829468e-01 -9.8104871809482574e-02 -1.2393746525049210e-01 -6.7557409405708313e-02 4.9124848097562790e-02 3.3464938402175903e-02 -1.0042510926723480e-01 2.5783497095108032e-01 7.9128287732601166e-02 8.9994207024574280e-02 2.3267552256584167e-02 -1.9548282027244568e-02 2.8404158353805542e-01 -3.4242611378431320e-02 6.3175678253173828e-02 -8.4534801542758942e-02 -4.6662725508213043e-02 -2.3593838512897491e-01 2.5072324275970459e-01 -7.5161322951316833e-02 -1.9261160865426064e-02 1.9920441508293152e-01 -3.6004278808832169e-02 -2.5152901187539101e-02 -2.0579737424850464e-01 9.1248825192451477e-03 2.6642421260476112e-02 4.1701048612594604e-02 8.6644411087036133e-02 1.5374335646629333e-01 -1.7454364895820618e-01 3.4074142575263977e-02 2.4519851431250572e-02 -8.1914588809013367e-02 2.4307033047080040e-02 2.8085866943001747e-02 1.1180169135332108e-01 -3.1777424737811089e-03 9.7049087285995483e-02 8.0907955765724182e-02 -3.6378711462020874e-02 -3.6064766347408295e-02 5.2783343940973282e-02 -1.0956492274999619e-01 9.8888278007507324e-03 -3.2748769968748093e-02 2.8769530355930328e-02 2.4511063471436501e-02 1.9255076348781586e-01 7.4090175330638885e-02 7.6717853546142578e-02 -3.1998768448829651e-02 -5.6606619618833065e-03 -1.2610065937042236e-01 1.5201151371002197e-01 -1.2439141422510147e-01 -5.7067736983299255e-02 3.8088832050561905e-02 -1.1778298765420914e-02 -7.4697006493806839e-03 -1.8370032310485840e-02 5.3152330219745636e-02 -3.7739041727036238e-03 2.5362069718539715e-03 7.0674880407750607e-03 -1.8135223537683487e-02 -3.5786665976047516e-02 4.7643348574638367e-02 9.1865621507167816e-03 -7.0701971650123596e-02 6.0915518552064896e-03 -4.0736544877290726e-02 6.3327419757843018e-01 1.0105188190937042e-01 1.4411185681819916e-01 -7.9304061830043793e-02 -1.6677360236644745e-01 -4.5242354273796082e-01 5.5507832765579224e-01 -3.4243455529212952e-01 -9.1304548084735870e-02 2.2258183360099792e-01 -3.1561537180095911e-03 -3.0800409615039825e-02 1.9406346976757050e-01 -1.1856920085847378e-02 8.5883080959320068e-02 9.0981602668762207e-02 -3.7342093884944916e-02 -8.0774508416652679e-02 9.0703412890434265e-02 -2.3092626035213470e-01 -7.6287619769573212e-02 1.5709118451923132e-03 -1.0504137724637985e-01 3.5052880644798279e-02 2.2267936170101166e-01 1.3461405411362648e-02 2.0662525668740273e-02 7.6229199767112732e-02 -5.3594842553138733e-02 -8.4036089479923248e-02 1.0025402158498764e-01 -2.3235824704170227e-01 1.0133916512131691e-02 -1.5624725818634033e-01 1.1155614629387856e-02 9.9125513806939125e-03 7.6247721910476685e-02 6.5607383847236633e-02 3.0009619891643524e-02 4.1985679417848587e-02 -7.7127978205680847e-02 -1.8086446216329932e-03 6.2082853168249130e-02 -1.5440820157527924e-01 -6.7327536642551422e-02 -8.8806729763746262e-03 -2.3179234936833382e-02 -5.3738295100629330e-03 -2.9460886120796204e-01 -5.9250369668006897e-02 -9.7633309662342072e-02 -7.1307166945189238e-04 1.0892026871442795e-01 1.6643239557743073e-01 -2.4883721768856049e-01 1.3414314389228821e-01 1.3195317238569260e-02 -1.3811303675174713e-01 -1.1181324720382690e-02 1.6212902963161469e-02 -3.0423438549041748e-01 -1.0517550259828568e-01 -1.3425466418266296e-01 5.5927101522684097e-02 3.0622022226452827e-02 1.8961229920387268e-01 -2.4607579410076141e-01 2.3380468785762787e-01 7.6909750699996948e-02 -7.3773130774497986e-02 -3.9765160530805588e-02 3.6052167415618896e-02 -1.7182505130767822e-01 1.2317404150962830e-02 -3.5270188003778458e-02 8.0580031499266624e-03 2.6242474559694529e-03 9.2376530170440674e-02 -1.6323731839656830e-01 1.6324624419212341e-01 8.7106265127658844e-03 2.9004272073507309e-02 -8.6693800985813141e-02 8.5806427523493767e-03 3.3512440323829651e-01 6.4598388969898224e-02 6.9277533330023289e-03 1.8917433917522430e-02 -1.1562496423721313e-01 -1.8008752167224884e-01 2.7214536070823669e-01 -2.8710210323333740e-01 -1.2999691069126129e-01 1.5360023081302643e-01 -1.8181968480348587e-02 -1.2988666072487831e-02 -2.4132728576660156e-01 -1.4972399920225143e-02 -6.7988783121109009e-02 5.0417575985193253e-02 9.6327058970928192e-02 1.7484693229198456e-01 -2.4314416944980621e-01 7.2847910225391388e-02 3.4086491912603378e-02 -1.3523221015930176e-01 1.0196281969547272e-01 -3.2759003341197968e-02 -2.4901555478572845e-01 9.1610744595527649e-02 6.8704657256603241e-02 1.4093653298914433e-02 3.9218720048666000e-02 2.1153376996517181e-01 -2.5213259458541870e-01 2.9817290604114532e-02 1.3659612834453583e-01 -3.6284354329109192e-01 1.1965258978307247e-02 7.9763820394873619e-04 2.0377300679683685e-01 -1.5785861760377884e-02 7.4609957635402679e-02 7.5683183968067169e-02 -2.0085880532860756e-02 -1.0192476212978363e-01 1.6006872057914734e-01 -1.6614499688148499e-01 -3.3776741474866867e-02 -1.7556082457304001e-02 3.6053728312253952e-02 -2.1684882231056690e-03 1.8050920963287354e-01 5.1138576120138168e-02 -3.3316224813461304e-02 -2.0009046792984009e-01 -4.9132443964481354e-03 -3.0977612733840942e-01 4.1465395689010620e-01 9.1257281601428986e-02 -6.3675902783870697e-02 4.7824478149414062e-01 -1.7875915393233299e-02 2.1529060322791338e-03 -2.9636454582214355e-01 -7.5684130191802979e-02 -8.3872206509113312e-02 -8.1663958728313446e-02 1.0651210695505142e-01 1.2191799283027649e-01 -1.9510257244110107e-01 1.1667063832283020e-01 3.1930036842823029e-02 -4.8167061060667038e-02 2.9991252347826958e-02 1.5200960449874401e-02 2.3939906060695648e-01 8.0927863717079163e-02 9.4756148755550385e-02 2.2555235773324966e-02 -6.8181253969669342e-02 -1.5071113407611847e-01 2.7333781123161316e-01 -2.0154662430286407e-01 -1.0295137763023376e-01 9.6316829323768616e-02 -4.4727725908160210e-03 1.5786516014486551e-03 -3.8520121574401855e-01 -1.0386671125888824e-01 -1.2657554447650909e-01 -1.0019380599260330e-01 6.3996262848377228e-02 9.5200411975383759e-02 -1.9619311392307281e-01 3.4937855601310730e-01 6.8234726786613464e-02 1.6299258172512054e-01 -2.4769714102149010e-02 -3.8036547601222992e-02 -7.2087544202804565e-01 -1.7574464902281761e-02 -3.2177603244781494e-01 4.1207887232303619e-02 1.4412692189216614e-01 4.2712020874023438e-01 -6.8736773729324341e-01 4.5662823319435120e-01 2.0846411585807800e-01 -2.0754450559616089e-01 2.1264564245939255e-02 -2.1302768960595131e-02 6.7309111356735229e-02 4.5415084809064865e-02 1.3790370430797338e-03 -1.6164328157901764e-01 6.4839157275855541e-03 -1.0059887915849686e-01 2.2396032512187958e-01 -1.9106171093881130e-03 -3.8519535213708878e-02 2.5739780068397522e-01 4.4621329754590988e-02 3.6392305046319962e-02 2.6973104476928711e-01 8.1154070794582367e-02 8.7930217385292053e-02 5.8272361755371094e-02 -6.1555830761790276e-03 -1.4350880682468414e-01 2.5525364279747009e-01 -2.6898857951164246e-01 -1.3214311003684998e-01 -7.8631877899169922e-02 -9.6887499094009399e-02 1.3482278585433960e-01 -1.6057771444320679e-01 -6.0086869634687901e-03 -4.5495707541704178e-02 8.6533881723880768e-02 7.5216524302959442e-02 1.3692951202392578e-01 -2.2908511757850647e-01 5.0892528146505356e-02 9.4641037285327911e-02 -8.2839407026767731e-02 -4.3312795460224152e-02 -2.4806089699268341e-02 -3.4004300832748413e-01 -2.5028431788086891e-02 -1.1098722368478775e-01 -4.5010399073362350e-02 1.1076299101114273e-01 1.5869900584220886e-01 -2.0325715839862823e-01 2.1816286444664001e-01 5.8014221489429474e-02 4.2454344220459461e-03 -7.3559820652008057e-02 -1.5859581530094147e-02 2.4596026539802551e-01 4.7998014837503433e-02 1.1734182015061378e-02 1.3758561015129089e-01 -2.1631404757499695e-02 -8.3551265299320221e-02 5.3486991673707962e-02 -3.0312612652778625e-01 -4.4859021902084351e-02 -1.6800072789192200e-01 -8.6451739072799683e-02 -2.4610202759504318e-02 -4.9800503253936768e-01 -4.4980168342590332e-02 8.8675692677497864e-02 3.0208599567413330e-01 3.8584705442190170e-02 4.2542108893394470e-01 -7.0556682348251343e-01 7.8980550169944763e-02 5.5928815156221390e-02 -6.2850302457809448e-01 2.5877986103296280e-02 -1.7351679271087050e-03 4.6820491552352905e-02 -7.5195856392383575e-02 -4.4670287519693375e-02 -1.2367758899927139e-01 4.1040573269128799e-02 -1.0260225832462311e-01 1.1146517843008041e-01 1.0272503644227982e-01 -3.2230418175458908e-02 2.4810181558132172e-01 2.3167774081230164e-02 -2.8320562094449997e-02 1.9916354119777679e-01 -2.0479228347539902e-02 8.4412228316068649e-03 4.9519926309585571e-02 4.0500696748495102e-02 -1.2635861337184906e-01 1.0652361810207367e-01 -7.5858734548091888e-02 -6.6168919205665588e-02 3.1442832201719284e-02 -9.3526039272546768e-03 -1.1419191025197506e-02 -1.3774769008159637e-01 -3.8232851773500443e-02 6.9671534001827240e-03 -1.6513826325535774e-02 -2.0759116858243942e-02 1.1743058264255524e-01 -1.5331862866878510e-01 1.7682263255119324e-01 1.6242055222392082e-02 4.6732466667890549e-02 -6.5848603844642639e-03 -9.3921029474586248e-04 -3.5326483845710754e-01 -3.8391612470149994e-02 -9.6144728362560272e-02 3.6457709968090057e-02 8.0142162740230560e-02 2.8871569037437439e-01 -3.6324852705001831e-01 1.8677200376987457e-01 1.1425022780895233e-01 -2.6323384046554565e-01 5.4814040660858154e-02 3.1519476324319839e-02 -1.1441555805504322e-02 -1.4531316701322794e-03 -1.2344895862042904e-02 -1.0229644924402237e-01 -3.7377814296633005e-03 -1.7844589054584503e-01 2.5287595391273499e-01 1.6709023714065552e-01 -1.3302846811711788e-02 3.4112837910652161e-01 -3.0947718769311905e-02 -3.0143849551677704e-02 -4.0243515372276306e-01 -8.2339253276586533e-03 -1.6518676280975342e-01 4.7196153551340103e-02 7.6534692198038101e-04 2.1300545334815979e-01 -2.2245621681213379e-01 2.1658895909786224e-01 1.1712083965539932e-01 -8.9838221669197083e-02 -3.5848837345838547e-02 4.6998485922813416e-02 -1.9630707800388336e-01 -9.8243029788136482e-03 -7.2247972711920738e-03 6.9082461297512054e-02 3.0526548624038696e-02 1.5221452713012695e-01 -1.5277345478534698e-01 3.7327803671360016e-02 6.2455609440803528e-02 -8.3040215075016022e-02 -4.8317234963178635e-02 -1.3272759504616261e-02 -5.7617735862731934e-01 -6.8448677659034729e-02 -2.0495164394378662e-01 -8.9429527521133423e-02 1.1141787469387054e-01 3.4013935923576355e-01 -4.6389439702033997e-01 3.8145354390144348e-01 8.6413770914077759e-02 -7.5741626322269440e-02 2.8062818571925163e-02 5.6907441467046738e-03 -2.4066774174571037e-02 1.7814980819821358e-02 -3.6072969436645508e-02 -9.8644033074378967e-02 -7.7517102472484112e-03 -9.6535213291645050e-02 4.1283085942268372e-02 1.5124802291393280e-01 4.8195850104093552e-02 1.4240798354148865e-01 8.1384386867284775e-03 -8.0252913758158684e-03 -5.0574111938476562e-01 1.4488077722489834e-02 -1.9791898131370544e-01 1.4676100015640259e-01 1.5188248455524445e-01 4.2513379454612732e-01 -6.4519798755645752e-01 1.1462151259183884e-01 7.5211226940155029e-02 -5.2578717470169067e-01 3.1811729073524475e-02 -2.2234663367271423e-02 4.8199243843555450e-02 6.1968550086021423e-02 -6.9983294233679771e-03 1.1476359330117702e-02 -1.9753247499465942e-02 -7.4817158281803131e-02 1.0182545334100723e-01 -7.6669178903102875e-02 -3.6112345755100250e-02 -2.0564312580972910e-03 
      </Weights>
      <Biases rows="64" cols="1">
        -1.1894682049751282e-01 -1.6886617243289948e-01 1.5728846192359924e-01 4.7890305519104004e-02 1.4173628389835358e-01 7.0079374313354492e-01 1.6085641458630562e-02 3.2559874653816223e-01 -2.0036463439464569e-01 2.5861269235610962e-01 -1.8393963575363159e-01 -5.0956213474273682e-01 -1.4320462942123413e-01 -4.1349485516548157e-01 3.7493817508220673e-02 -2.8093048930168152e-01 -1.4699986577033997e-01 -1.5793259441852570e-01 5.6896561384201050e-01 5.7795040309429169e-02 2.5428894162178040e-01 3.4869766235351562e-01 -5.5818665772676468e-02 -1.5320132672786713e-01 1.3884930312633514e-01 -2.7868801355361938e-01 9.5542185008525848e-02 -1.8835714086890221e-02 1.5334028005599976e-01 1.6820462048053741e-01 3.1930019613355398e-03 4.8177334666252136e-01 1.8642848730087280e-01 3.1411540508270264e-01 6.7125439643859863e-02 -2.4093444645404816e-01 -2.8084486722946167e-01 -2.0049308240413666e-01 3.1586191058158875e-01 -9.7161948680877686e-02 -7.9573556780815125e-02 2.6388448476791382e-01 -1.8775589764118195e-01 -3.1954035162925720e-01 2.5057676434516907e-01 -4.5668831467628479e-01 -6.4641261100769043e-01 2.3866647388786077e-03 3.3610767126083374e-01 -9.7752563655376434e-02 -2.3497006297111511e-01 3.5160273313522339e-01 -9.7276289016008377e-03 -1.4132198691368103e-01 1.9552156329154968e-01 -2.0955078303813934e-01 -2.0496155321598053e-01 -1.4252680540084839e-01 -2.6739746332168579e-01 -4.1541580110788345e-02 -6.2701928615570068e-01 -1.5093599259853363e-01 -1.2299460917711258e-01 6.0831222683191299e-02 
      </Biases>
    </Layer>
    <Layer ActivationFunction="3">
      <Weights rows="32" cols="64">
        -5.3929641842842102e-02 -2.3889482021331787e-02 -4.3875481933355331e-02 7.9167820513248444e-03 1.6169602051377296e-02 7.6050199568271637e-02 2.7158567681908607e-02 3.4620936959981918e-02 -5.8105207979679108e-02 4.0924996137619019e-02 -4.6411532908678055e-02 -7.1779899299144745e-02 -3.3058773726224899e-02 8.2458466291427612e-02 1.3321408070623875e-02 -5.0989165902137756e-02 -1.9611071795225143e-02 -2.5488735991530120e-04 7.1504935622215271e-02 -4.2880754917860031e-03 5.9812542051076889e-02 5.2096743136644363e-02 -1.8900379538536072e-02 -3.1997960060834885e-02 7.0379398763179779e-02 -6.4338031224906445e-03 1.5544495545327663e-02 -2.8793327510356903e-02 3.2689880579710007e-02 3.6405589431524277e-02 1.8119746819138527e-02 9.5505036413669586e-02 8.1066247075796127e-03 1.4558619819581509e-02 2.5779372081160545e-02 -4.6585269272327423e-02 -2.7425624430179596e-02 -5.1256485283374786e-02 3.0266579240560532e-02 -3.1097715720534325e-02 -3.3151339739561081e-02 3.1807720661163330e-02 5.0070147961378098e-02 -4.2598336935043335e-02 2.3326748982071877e-02 -4.7265198081731796e-02 -6.5532125532627106e-02 -1.4089414849877357e-02 3.0654938891530037e-02 -1.6709664836525917e-02 -4.5093119144439697e-02 3.8063134998083115e-03 -6.3923723995685577e-02 1.9929284229874611e-02 1.3782621361315250e-02 -1.1055160313844681e-02 -4.1243590414524078e-02 -3.1628709286451340e-02 -5.9237584471702576e-02 -1.2764471583068371e-02 -5.1648993045091629e-02 -2.3163383826613426e-02 -4.9690008163452148e-02 -3.1030350364744663e-03 4.5105800032615662e-02 2.2276842501014471e-03 4.0938995778560638e-02 -4.3546380475163460e-03 -1.6635866835713387e-02 -7.4607834219932556e-02 -6.3594477251172066e-03 -2.2864472121000290e-02 2.1180905401706696e-02 -1.4112678356468678e-02 9.9045140668749809e-03 5.4265685379505157e-02 3.4126490354537964e-02 -6.3739679753780365e-02 -2.3826163262128830e-02 2.2735962644219398e-02 9.2751560732722282e-03 1.0267889592796564e-03 -9.6200481057167053e-03 4.1624321602284908e-03 -3.1738534569740295e-02 -4.7645654529333115e-02 2.9870118945837021e-02 -4.0669720619916916e-03 -4.4946700334548950e-02 4.7129929065704346e-02 -6.6882879473268986e-03 1.3549887575209141e-02 -1.1030273512005806e-02 -1.9152754917740822e-02 -6.3674189150333405e-03 -6.8105608224868774e-02 -2.9357751831412315e-02 -4.5950589701533318e-03 -3.0926274135708809e-02 3.5087224096059799e-02 3.6793608218431473e-02 2.6927750557661057e-02 -1.8343506380915642e-02 2.7843974530696869e-02 2.8931675478816032e-02 -2.3032279685139656e-02 -3.7308596074581146e-02 3.3652368932962418e-02 -4.8184338957071304e-02 3.1043043360114098e-02 6.6936783492565155e-02 -1.6025241464376450e-02 -1.6695860773324966e-02 4.6561188995838165e-02 3.7618234753608704e-02 -2.4756643921136856e-02 4.1927590966224670e-02 9.3840919435024261e-03 -9.6605541184544563e-03 2.8153732419013977e-02 5.5577885359525681e-02 -4.0913503617048264e-03 3.6014176439493895e-03 -8.7460437789559364e-03 3.4943521022796631e-02 -6.1756325885653496e-04 4.8124615103006363e-02 1.4009839855134487e-02 -5.9063792228698730e-02 2.0719401072710752e-04 -8.4966965019702911e-02 -2.7680801227688789e-02 -4.9932920373976231e-03 4.4391080737113953e-02 -1.5905711799860001e-02 -1.6041122376918793e-02 -8.8473111391067505e-03 7.0728384889662266e-03 -2.6612853631377220e-02 2.0340527407824993e-03 -1.4645081944763660e-02 9.2416971921920776e-02 -1.2110071256756783e-02 -4.6130805276334286e-03 -1.9509620964527130e-02 2.3018787615001202e-03 2.9384665191173553e-02 -2.8146872296929359e-02 5.6762155145406723e-02 3.7932928651571274e-02 -2.8218388557434082e-02 -2.0603086799383163e-02 7.5465135276317596e-02 7.9459343105554581e-03 4.7385532408952713e-02 -3.6490950733423233e-02 -2.3909268900752068e-02 1.5608527697622776e-02 1.5553468838334084e-02 7.0943132042884827e-02 -9.2532215639948845e-03 -4.0165516547858715e-03 2.6323007419705391e-02 -2.5968881323933601e-02 -4.5653223991394043e-02 -9.9120112136006355e-03 6.0949120670557022e-02 -6.1308927834033966e-03 -3.4720577299594879e-02 -7.5827329419553280e-03 7.7967286109924316e-02 1.9846220966428518e-03 2.8380334377288818e-02 -3.7109062075614929e-02 -5.0266820937395096e-02 3.0264271423220634e-02 -1.4862524345517159e-02 -5.2461471408605576e-02 -1.6246870160102844e-02 -1.4543942175805569e-02 -8.1754252314567566e-02 -1.1413321830332279e-02 2.5180501863360405e-02 -2.6380803436040878e-02 -4.9192994832992554e-02 1.7938848584890366e-02 -1.4587771147489548e-02 -1.7906611785292625e-02 -3.5456020385026932e-02 4.0787182748317719e-02 -9.0422317385673523e-02 1.1994263157248497e-02 -5.2854297682642937e-03 -8.6364392191171646e-03 1.2657598592340946e-02 -2.7400488033890724e-02 -8.2445610314607620e-03 3.7718901876360178e-03 1.7373593524098396e-02 7.2080134414136410e-03 -2.8699284419417381e-02 1.8024299293756485e-02 1.2800474651157856e-02 -6.7348182201385498e-02 -8.9441388845443726e-03 -1.2697561644017696e-02 -9.5304660499095917e-03 -3.3043928444385529e-02 -3.0512999743223190e-02 2.6600463315844536e-03 2.0684352144598961e-02 -6.0861459933221340e-03 3.6478593945503235e-02 4.3637335300445557e-02 -1.6589755192399025e-02 -4.0397308766841888e-03 2.5156334042549133e-02 -1.9860357046127319e-02 2.1911710500717163e-02 2.8376234695315361e-03 7.0114731788635254e-03 8.2159200683236122e-03 2.0189540460705757e-02 1.5315423719584942e-02 4.2937923222780228e-02 -6.1464780010282993e-03 -1.3783971779048443e-02 -3.8089975714683533e-02 -3.6615062505006790e-02 -1.2921529822051525e-02 -3.9186426438391209e-03 -2.1042730659246445e-02 -1.5610502101480961e-02 -2.8094449080526829e-03 -2.4608235806226730e-02 -3.6162681877613068e-02 6.2240455299615860e-03 -5.1116589456796646e-02 -5.3087182343006134e-02 -3.2190378755331039e-02 6.4902016893029213e-03 -1.9245665520429611e-02 -9.3645052984356880e-03 2.1602276712656021e-02 6.9065238349139690e-03 -1.4255368150770664e-02 2.1466555073857307e-02 -2.3795239627361298e-02 6.0647735372185707e-03 9.4406427815556526e-03 -3.5779487341642380e-02 -2.8698896130663343e-05 -5.6324172765016556e-02 -2.8248000890016556e-02 5.2425721660256386e-03 2.0201878622174263e-02 5.9204474091529846e-02 1.3471897691488266e-02 2.2088740020990372e-02 4.6171098947525024e-02 -2.6339692994952202e-02 -8.2009181380271912e-02 -2.0667456090450287e-02 -3.2659653574228287e-02 1.3072732836008072e-02 -8.3861555904150009e-03 1.0837626643478870e-02 1.1317189782857895e-01 4.8807717859745026e-02 -3.5489037632942200e-02 -9.8569188266992569e-03 5.6249756366014481e-02 4.6874903142452240e-02 2.3036878556013107e-02 -1.2204697728157043e-01 -4.1494041681289673e-02 -1.1246839910745621e-01 -6.7560188472270966e-02 1.5117594972252846e-02 6.3002683222293854e-02 -9.9581450223922729e-02 5.2671384066343307e-02 -1.4869873411953449e-02 3.4488059580326080e-02 -2.5173292960971594e-03 -1.8876336514949799e-02 1.9539013504981995e-02 -1.1647628247737885e-01 -6.3541926443576813e-02 -4.9057688564062119e-02 -2.3989640176296234e-02 5.5901922285556793e-02 6.3879989087581635e-02 3.9908450096845627e-02 -7.5887791812419891e-02 3.1374037265777588e-02 3.3794187009334564e-02 -2.7930192649364471e-02 -3.1326089054346085e-02 4.7911625355482101e-02 -4.2639486491680145e-02 9.9396117031574249e-02 1.2459964305162430e-01 -1.1779311113059521e-02 -7.9585537314414978e-02 3.9888858795166016e-02 7.0183508098125458e-02 -3.8482151925563812e-02 5.1036361604928970e-02 2.3533595725893974e-02 -6.6802361980080605e-03 3.4140340983867645e-02 6.2918528914451599e-02 1.8248083069920540e-02 6.8434558808803558e-02 -2.9307436197996140e-03 1.0420979559421539e-01 1.1245524510741234e-02 9.2995941638946533e-02 -3.5421412438154221e-02 5.7275593280792236e-02 2.8534404933452606e-02 6.8911567330360413e-02 3.5675313323736191e-02 -2.7482137084007263e-02 -9.5631055533885956e-02 -2.1805569529533386e-02 -1.2847832404077053e-02 5.7771101593971252e-02 -1.6303520649671555e-02 5.5513303726911545e-02 7.4663504958152771e-02 2.0624486729502678e-02 -8.2866013050079346e-02 -5.7766097597777843e-03 4.5000072568655014e-02 5.6161895394325256e-02 2.0156014710664749e-02 -5.6431096047163010e-02 -7.5744451023638248e-03 -5.2852936089038849e-02 -3.3525224775075912e-02 2.6276253629475832e-04 3.8986884057521820e-02 -6.7535750567913055e-02 3.2903619110584259e-02 -8.3113759756088257e-03 2.1987758576869965e-02 -2.0850757136940956e-03 5.6857033632695675e-04 5.1187588833272457e-03 -5.1109593361616135e-02 -8.9729093015193939e-03 -3.2632686197757721e-02 1.8631340935826302e-03 2.1149909123778343e-02 4.3604709208011627e-02 1.8797380849719048e-02 -4.8510260879993439e-02 2.7746424078941345e-02 2.8291689231991768e-02 -2.4065719917416573e-02 -4.8566125333309174e-02 5.7702254503965378e-02 -3.9088286459445953e-02 4.6519838273525238e-02 8.8446915149688721e-02 -3.1597279012203217e-02 -3.4393951296806335e-02 5.8257233351469040e-02 3.5505332052707672e-02 -3.0601000413298607e-02 5.7701852172613144e-02 -2.9589094221591949e-02 -1.2389613548293710e-03 3.7175323814153671e-02 4.7533668577671051e-02 -7.0209600962698460e-03 1.8841655924916267e-02 7.9903984442353249e-03 8.0893203616142273e-02 -8.5151055827736855e-03 7.6607294380664825e-02 -3.0541836749762297e-03 -1.8643085658550262e-01 2.5253679603338242e-02 -2.9184311628341675e-01 -1.8537516891956329e-01 1.5860568732023239e-02 -4.0029704570770264e-02 -9.6313886344432831e-02 -1.7389662563800812e-01 4.5990115031599998e-03 3.9441031403839588e-03 -4.9020424485206604e-02 2.2019864618778229e-01 1.6972634941339493e-02 5.1833093166351318e-01 -1.8014566600322723e-01 1.2708634138107300e-01 -1.0513854771852493e-01 1.7781776189804077e-01 -3.1975737214088440e-01 -2.2720159590244293e-01 9.9221065640449524e-02 -3.7676088511943817e-02 1.1337421834468842e-02 -3.7157893180847168e-02 9.9332161247730255e-02 1.5911525487899780e-01 9.1096103191375732e-02 -6.0215104371309280e-02 -7.3526658117771149e-02 -1.2981514446437359e-02 -5.3155764937400818e-02 4.5932542532682419e-02 -1.1352737247943878e-01 -1.8277324736118317e-01 -8.3844944834709167e-02 -1.4023464173078537e-02 3.6826681345701218e-02 4.1735567152500153e-02 -4.9539483152329922e-03 -8.1318110227584839e-02 -2.3466911911964417e-01 -9.1961972415447235e-02 3.2825466990470886e-01 1.1247931048274040e-02 2.8009687084704638e-03 2.2142256796360016e-01 -2.8153169900178909e-02 1.6819173097610474e-01 -1.2184285372495651e-01 -5.6372031569480896e-02 6.8728767335414886e-02 -2.4096824228763580e-01 -3.7158441543579102e-01 2.3451203107833862e-01 -6.4413067884743214e-03 6.6941536962985992e-02 -1.1044558137655258e-01 3.3326634764671326e-01 3.1026398763060570e-02 -5.7058192789554596e-02 8.0990403890609741e-02 1.7034342885017395e-01 -2.5867477059364319e-01 5.8314776979386806e-03 5.1539842039346695e-02 3.3733654767274857e-02 3.0193114653229713e-02 1.9890030845999718e-02 -3.7964235991239548e-02 -6.0341063886880875e-02 -8.3414437249302864e-03 -2.1656705066561699e-02 1.0771813802421093e-02 -1.2745694257318974e-02 3.7460681051015854e-02 8.5220634937286377e-02 1.0604442097246647e-02 -3.1478185206651688e-02 -1.7832703888416290e-02 5.4944291710853577e-02 3.8767624646425247e-02 -1.3045314699411392e-02 -8.2006052136421204e-02 2.5817230343818665e-03 -6.4813949167728424e-02 -5.5643640458583832e-02 6.1746803112328053e-03 3.3464133739471436e-02 -7.0301949977874756e-02 5.1883973181247711e-02 -3.6889938637614250e-03 1.9305039197206497e-02 -2.1907646209001541e-02 -3.3950198441743851e-02 -1.2691075913608074e-02 -7.0613473653793335e-02 -1.4339406043291092e-03 -4.8013541847467422e-02 -3.7572029978036880e-02 5.4274238646030426e-02 5.8137878775596619e-02 7.5834011659026146e-03 -4.5281782746315002e-02 9.4622047618031502e-03 2.9114102944731712e-02 -2.8401587158441544e-02 -5.0043216906487942e-03 8.5205193608999252e-03 -4.2924582958221436e-02 5.9536766260862350e-02 1.0279541462659836e-01 -2.8236856684088707e-02 -3.1603656709194183e-02 5.9966560453176498e-02 5.2599996328353882e-02 -3.0181238427758217e-02 6.8009175360202789e-02 -5.8421888388693333e-03 -1.4943940564990044e-02 1.4441356994211674e-02 6.3356332480907440e-02 -7.0732343010604382e-04 1.8726654350757599e-02 4.1734848171472549e-02 5.3843937814235687e-02 -9.0508498251438141e-03 8.3844751119613647e-02 -2.4551464244723320e-02 6.6793724894523621e-02 3.5123068839311600e-02 2.8056845068931580e-02 3.5593423992395401e-02 -1.6682930290699005e-02 -6.1480477452278137e-02 -2.1774770691990852e-02 -4.2200677096843719e-02 2.3507382720708847e-02 -4.8777084797620773e-02 5.2380032837390900e-02 3.8340743631124496e-02 2.5495888665318489e-02 -7.1070745587348938e-02 -1.9438453018665314e-02 3.3685684204101562e-02 4.8999123275279999e-02 8.4370151162147522e-03 -6.5959930419921875e-02 1.1690456420183182e-02 -5.8349072933197021e-02 -3.2428987324237823e-02 4.1269166395068169e-03 4.2512215673923492e-02 -3.8381267338991165e-02 2.3670077323913574e-02 -3.9767734706401825e-02 3.6196008324623108e-02 1.6681890701875091e-03 -3.0159750953316689e-02 -1.5187548473477364e-02 -8.0077379941940308e-02 -1.9174203276634216e-02 -2.8950003907084465e-02 -1.0028350166976452e-02 2.5833943858742714e-02 2.1134026348590851e-02 3.6065246909856796e-02 -4.0699794888496399e-02 4.5523341745138168e-02 1.6601424664258957e-02 -4.3548356741666794e-02 -4.7482009977102280e-02 3.1749892979860306e-02 -4.9196965992450714e-02 4.7231584787368774e-02 7.4544198811054230e-02 4.4927890412509441e-03 -5.5188000202178955e-02 5.5875692516565323e-02 3.6520607769489288e-02 -3.6166742444038391e-02 2.6006275787949562e-02 -2.2135727107524872e-02 -2.7072366327047348e-02 3.3961974084377289e-02 2.8988497331738472e-02 -4.7435136511921883e-03 5.3619462996721268e-02 4.0437579154968262e-02 8.1918545067310333e-02 -1.9089661538600922e-02 5.5174268782138824e-02 1.5853380318731070e-03 7.5612254440784454e-02 3.0909143388271332e-02 1.9775694236159325e-02 3.7538174539804459e-02 -2.3520659655332565e-02 -6.9345258176326752e-02 2.1305061876773834e-02 -4.1826814413070679e-02 5.6568924337625504e-02 -3.6515496671199799e-02 1.6258342191576958e-02 5.3326789289712906e-02 2.3293009027838707e-02 -2.5761255994439125e-02 8.5727423429489136e-03 5.3433105349540710e-02 6.1840068548917770e-02 3.4883633255958557e-02 -6.9349750876426697e-02 -2.4671183899044991e-02 -1.2122441828250885e-01 -7.1609444916248322e-02 3.3101763576269150e-02 4.7942046076059341e-02 -9.1992624104022980e-02 3.8039837032556534e-02 -3.9838604629039764e-02 3.3180110156536102e-02 -2.9479522258043289e-02 -3.3750429749488831e-02 2.5619605556130409e-02 -7.2045363485813141e-02 -2.4994214996695518e-02 -4.4925633817911148e-02 -2.6257725432515144e-02 5.0740730017423630e-02 3.1809732317924500e-02 3.7819601129740477e-03 -5.5099312216043472e-02 3.8849014788866043e-02 1.3061183504760265e-02 -3.2148029655218124e-02 -3.3704418689012527e-02 1.5534749254584312e-02 -5.5119730532169342e-02 6.8180814385414124e-02 1.1260933429002762e-01 -7.7072461135685444e-03 -6.4970709383487701e-02 2.2415282204747200e-02 2.7561400085687637e-02 -4.2109023779630661e-02 7.2868078947067261e-02 2.4471916258335114e-02 -3.5370338708162308e-02 3.6113172769546509e-02 4.8462174832820892e-02 3.5727445036172867e-02 5.1945772022008896e-02 1.1328627355396748e-02 8.6636476218700409e-02 1.4604107476770878e-02 9.8152175545692444e-02 -3.6702360957860947e-02 -6.8850591778755188e-02 -2.6756752282381058e-02 -2.3970754817128181e-02 -1.7682769102975726e-03 9.0100839734077454e-03 5.8962956070899963e-02 -1.2967169284820557e-02 4.8669837415218353e-02 -1.1121154762804508e-02 1.3783519156277180e-02 -2.4424355477094650e-02 -8.6727268993854523e-02 -4.3155632913112640e-02 5.8522127568721771e-02 2.5778021663427353e-02 -4.8438046127557755e-02 -5.0806768238544464e-02 1.0732579976320267e-02 4.3582260608673096e-02 3.1351309269666672e-02 8.4330037236213684e-02 3.8992993533611298e-02 -6.0381810180842876e-04 -4.0046121925115585e-02 7.9580932855606079e-02 -3.8021504878997803e-02 8.0639291554689407e-03 3.4647260326892138e-03 -1.1242397129535675e-02 4.3087467551231384e-02 -5.3912559524178505e-03 9.3474581837654114e-02 3.9463825523853302e-02 2.0090512931346893e-02 9.9048204720020294e-03 -4.6855345368385315e-02 -4.8224717378616333e-02 -4.0932230651378632e-02 4.6062827110290527e-02 -2.4056071415543556e-02 -1.6933077946305275e-02 3.4752931445837021e-02 3.9336889982223511e-02 -5.1682256162166595e-02 4.2575236409902573e-02 -3.8800116628408432e-02 -1.0877289623022079e-01 3.6862837150692940e-03 4.1252635419368744e-02 -1.7928419634699821e-02 -3.9378575980663300e-02 1.8487175926566124e-02 -1.7746526747941971e-02 4.8490529297851026e-04 2.1412922069430351e-02 -9.5695732161402702e-03 -5.4081477224826813e-02 -3.3531632274389267e-02 -5.6674741208553314e-02 -5.7121962308883667e-03 -9.7534313797950745e-02 1.2050177901983261e-02 -9.6151053905487061e-02 1.9773351028561592e-02 6.7656807601451874e-02 3.0197293963283300e-03 4.3446291238069534e-02 1.3162849936634302e-03 -1.4455298893153667e-02 -1.2692218646407127e-02 -4.3093506246805191e-03 -2.3098399862647057e-02 4.6182826161384583e-02 7.6860305853188038e-03 2.9339781031012535e-02 8.3565056324005127e-02 1.2331373989582062e-02 -5.3398851305246353e-02 2.0752089098095894e-02 2.3318851366639137e-02 8.1226425245404243e-03 -1.1733107268810272e-02 -6.5717093646526337e-02 -4.0340542793273926e-02 -7.6321542263031006e-02 -5.3739342838525772e-02 1.5574262477457523e-02 3.7423543632030487e-02 -5.5079158395528793e-02 3.0703082680702209e-02 -4.9742918461561203e-02 3.3514920622110367e-02 -8.4830541163682938e-04 -1.6060573980212212e-02 -1.5124708879739046e-03 -4.3186716735363007e-02 -3.0284630134701729e-02 -4.6983633190393448e-02 -9.7456220537424088e-03 6.6007408313453197e-03 2.1220598369836807e-02 5.2426770329475403e-02 -5.4721049964427948e-03 2.2196751087903976e-02 -2.4145201314240694e-03 -3.7040136754512787e-02 -3.0752038583159447e-02 3.6085270345211029e-02 -3.6387767642736435e-02 2.7738837525248528e-02 7.7090196311473846e-02 8.3467504009604454e-03 -3.7986442446708679e-02 3.5017080605030060e-02 2.4440903216600418e-02 -5.2894670516252518e-02 7.2103574872016907e-02 -1.3330840505659580e-02 -4.1605837643146515e-02 5.1750849932432175e-02 1.9627492874860764e-02 1.4890834689140320e-02 1.9300855696201324e-02 7.3087345808744431e-03 7.3207214474678040e-02 2.0017460919916630e-03 4.0322694927453995e-02 -2.3348757997155190e-02 -4.3280117213726044e-02 -4.3523736298084259e-02 -3.8542490452528000e-02 -7.6722223311662674e-03 3.6191988736391068e-02 6.1567880213260651e-02 1.7990892753005028e-02 3.8229662925004959e-02 -1.4182389713823795e-02 4.9297675490379333e-02 -3.7681572139263153e-02 -7.6094649732112885e-02 -5.0945114344358444e-02 6.0558721423149109e-02 1.6202839091420174e-02 -5.1431756466627121e-02 -3.8476664572954178e-02 -1.9232315942645073e-02 3.3501327037811279e-02 -1.7290906980633736e-03 5.5498577654361725e-02 4.5494027435779572e-02 -2.7891865000128746e-02 -5.2510526031255722e-02 3.9723433554172516e-02 -2.9177093878388405e-02 5.1422342658042908e-02 -1.1355583555996418e-02 -7.1665751747786999e-03 2.4722663685679436e-02 -5.3910063579678535e-03 6.1423581093549728e-02 -3.7069246172904968e-03 1.4733767136931419e-02 9.5684304833412170e-03 -4.1332703083753586e-02 -3.6758299916982651e-02 -2.6001617312431335e-02 5.9245027601718903e-02 -3.0039332807064056e-02 1.2546126963570714e-03 2.9121700674295425e-02 4.8559039831161499e-02 -2.2933781147003174e-02 2.3899845778942108e-02 -3.0928947031497955e-02 -6.2249995768070221e-02 1.4077575877308846e-02 4.8595752567052841e-02 -1.7896812409162521e-02 -4.3981082737445831e-02 1.7765656113624573e-02 -6.0874745249748230e-02 -3.2580043189227581e-03 1.0164573788642883e-02 -9.1279484331607819e-03 -5.9360712766647339e-02 -7.5671863742172718e-03 -4.2198527604341507e-02 -4.6855367720127106e-02 -5.9213247150182724e-02 3.2369743566960096e-03 -8.6305066943168640e-02 3.4406971186399460e-02 7.2314128279685974e-02 3.0453223735094070e-02 5.2583005279302597e-02 3.5986956208944321e-02 -3.7172302603721619e-02 -5.6315813213586807e-02 2.2901954129338264e-02 -4.2980570346117020e-02 9.0384026989340782e-03 -5.3945737890899181e-03 7.1114595048129559e-03 5.3747225552797318e-02 5.0174542702734470e-03 -4.2178247123956680e-02 -1.3153044506907463e-02 5.2238490432500839e-02 7.4897268787026405e-03 -7.3941294103860855e-03 -5.6992493569850922e-02 -7.2724558413028717e-03 -6.5544761717319489e-02 -5.6145939975976944e-02 9.7775431349873543e-03 1.7358945682644844e-02 -4.9608677625656128e-02 2.0231587812304497e-02 -2.6442686095833778e-02 -9.1058909893035889e-03 -2.2413171827793121e-02 -1.7118766903877258e-02 2.5646330788731575e-02 -7.8590452671051025e-02 -5.0839941948652267e-02 -4.2637601494789124e-02 -4.5417342334985733e-02 2.6439696550369263e-02 5.7975016534328461e-02 2.4046383798122406e-02 -5.4479554295539856e-02 -1.7161041032522917e-03 1.6319246497005224e-03 -2.0766947418451309e-02 -4.4378533959388733e-02 5.2529867738485336e-02 -6.0441203415393829e-02 7.6591819524765015e-02 8.8036835193634033e-02 -2.5846378877758980e-02 -5.2610363811254501e-02 5.0734076648950577e-02 5.8955397456884384e-02 -5.4054003208875656e-02 3.7072543054819107e-02 2.9350060969591141e-02 -9.7650671377778053e-03 4.1478134691715240e-02 5.6665141135454178e-02 3.1126528978347778e-02 6.0747332870960236e-02 6.7437766119837761e-03 9.8680689930915833e-02 5.1097385585308075e-03 6.3105195760726929e-02 -1.3171136379241943e-04 1.8661308288574219e-01 -2.2776234894990921e-02 2.8191831707954407e-01 1.9529953598976135e-01 5.7501657865941525e-03 4.4413644820451736e-02 7.4264258146286011e-02 1.6699382662773132e-01 1.4645994640886784e-02 -5.9163174591958523e-03 2.1053545176982880e-02 -1.6330844163894653e-01 -3.2782997936010361e-02 -5.4295498132705688e-01 1.4801190793514252e-01 -9.8954685032367706e-02 1.3796129822731018e-01 -1.7004948854446411e-01 2.9587796330451965e-01 2.0649607479572296e-01 -9.0902954339981079e-02 1.1594345793128014e-02 -1.1699077673256397e-02 7.3336930945515633e-03 -1.5696233510971069e-01 -1.3952542841434479e-01 -1.3104103505611420e-01 6.9403573870658875e-02 7.0147439837455750e-02 8.7888882262632251e-04 8.0935303121805191e-03 -1.6718378290534019e-02 6.6584378480911255e-02 1.7213234305381775e-01 3.8245286792516708e-02 3.1484004110097885e-02 -1.5081753954291344e-02 -6.4866237342357635e-02 -3.0725544784218073e-03 5.1270138472318649e-02 2.0941323041915894e-01 5.2010476589202881e-02 -3.3955240249633789e-01 -5.4858323186635971e-02 2.7800545096397400e-02 -2.0674455165863037e-01 1.7418578267097473e-02 -1.8868587911128998e-01 1.0332634299993515e-01 6.8548873066902161e-02 -7.5454942882061005e-02 2.0944821834564209e-01 3.7381470203399658e-01 -1.7425055801868439e-01 2.0435297861695290e-02 -6.2314640730619431e-02 1.1582780629396439e-01 -2.7307289838790894e-01 -4.2672501876950264e-03 5.5132839828729630e-02 -8.5744619369506836e-02 -1.5221346914768219e-01 2.7133157849311829e-01 1.5079883858561516e-02 -5.7571858167648315e-02 -2.3512579500675201e-02 -5.4513111710548401e-02 -1.9560005515813828e-02 1.4290732331573963e-02 7.9040266573429108e-02 -7.3983711190521717e-03 2.7152962982654572e-02 -1.1984527111053467e-02 1.2363629415631294e-02 -5.6895809248089790e-03 -4.4948305934667587e-02 -1.0474292561411858e-02 5.0889961421489716e-02 2.5744652375578880e-03 -1.6127243638038635e-02 -1.8398767337203026e-02 -1.4455003663897514e-02 6.2555916607379913e-02 5.8049331419169903e-03 5.2143346518278122e-02 6.3034422695636749e-02 -1.8177004531025887e-02 -3.0705040320754051e-02 5.4538182914257050e-02 -5.8505415916442871e-02 1.6682973131537437e-02 -8.3199487999081612e-03 2.6168406009674072e-02 1.0501905344426632e-03 -1.9376205280423164e-02 8.4382303059101105e-02 2.2459741681814194e-02 1.5373620204627514e-02 2.6516959071159363e-02 -1.1737876571714878e-02 -5.9938792139291763e-02 -4.3073501437902451e-02 6.5081469714641571e-02 -5.2799675613641739e-02 -3.1283460557460785e-02 1.2840936891734600e-02 4.9705296754837036e-02 -4.6923559159040451e-02 7.9640895128250122e-03 -3.7202659994363785e-02 -6.5950445830821991e-02 -7.9411398619413376e-03 3.2361622899770737e-02 1.5405482845380902e-03 -2.9848510399460793e-02 1.2826758436858654e-02 -5.8466725051403046e-02 1.3442575931549072e-02 1.6357885673642159e-02 -6.0269478708505630e-03 -4.8898950219154358e-02 -8.5875988006591797e-03 -5.3388930857181549e-02 -2.6973761618137360e-02 -8.4104746580123901e-02 -2.8557714074850082e-02 -8.6780995130538940e-02 2.8016468510031700e-02 -7.1086324751377106e-02 -2.8680235147476196e-02 -3.1179333105683327e-02 -5.3507080301642418e-03 4.7203909605741501e-02 5.8137115091085434e-02 1.4105585869401693e-03 2.2629270330071449e-02 -4.5281954109668732e-02 3.3118929713964462e-02 -2.3388568311929703e-02 -6.2265399843454361e-02 -2.4231228977441788e-02 5.5093809962272644e-02 -2.4206418544054031e-02 -3.2954834401607513e-02 -7.2299670428037643e-03 -1.7711278051137924e-02 6.6393777728080750e-02 -1.8554095178842545e-02 7.0760063827037811e-02 5.0442859530448914e-02 -1.6297671943902969e-02 -1.3799837790429592e-02 7.2824232280254364e-02 -5.3542643785476685e-02 1.7370520159602165e-02 3.6371231544762850e-04 2.0777327939867973e-02 1.4928237535059452e-02 4.9802679568529129e-03 4.7781441360712051e-02 4.2975813150405884e-02 1.1810226133093238e-03 1.6770219430327415e-02 -1.1470573022961617e-02 -4.0101885795593262e-02 -9.5863854512572289e-03 3.7981040775775909e-02 -4.4032804667949677e-02 -3.1125700101256371e-02 1.5200286172330379e-02 1.0858974419534206e-02 -1.2116543948650360e-02 4.8015732318162918e-02 -5.4213009774684906e-02 -1.0535783320665359e-01 2.1824831143021584e-02 3.6116518080234528e-02 -3.5432495176792145e-02 -4.6885170042514801e-02 2.8690425679087639e-02 -4.9298614263534546e-02 1.2784495018422604e-02 3.6457702517509460e-02 8.6037870496511459e-03 -4.4620763510465622e-02 -4.5392013271339238e-04 -3.0747309327125549e-02 -1.5617783181369305e-02 -7.9447455704212189e-02 1.2144603766500950e-02 -5.1499217748641968e-02 -8.9866584166884422e-03 -5.1249455660581589e-02 -2.8487445786595345e-02 -4.2212598025798798e-02 -3.0781846493482590e-02 2.3267632350325584e-02 5.1277905702590942e-02 1.4314599335193634e-02 7.7826934866607189e-03 -2.8252538293600082e-02 2.6934750378131866e-02 -3.0830575153231621e-02 -5.4696146398782730e-02 7.1225729770958424e-03 7.4328452348709106e-02 1.7849847674369812e-02 -2.4063503369688988e-02 -3.5260424017906189e-02 1.6009908169507980e-02 4.0862467139959335e-02 -1.4818890020251274e-02 2.8550734743475914e-02 1.4019289053976536e-02 -2.0235890522599220e-02 -4.7956433147192001e-02 4.1852045804262161e-02 -4.1823033243417740e-03 2.0784573629498482e-02 -2.8122527524828911e-02 6.4195441082119942e-03 2.2874809801578522e-02 2.6408148929476738e-02 6.7364640533924103e-02 1.6295636072754860e-02 1.2529102154076099e-02 -8.2830423489212990e-03 -2.0760737359523773e-02 -1.0775763541460037e-02 -1.7790058627724648e-02 1.7917413264513016e-02 -2.1248156204819679e-02 4.9092601984739304e-03 1.7700836062431335e-02 2.0280674099922180e-02 -3.5272050648927689e-02 1.3378775911405683e-03 -1.8696570768952370e-02 -6.4962230622768402e-02 2.7975393459200859e-02 3.6447618622332811e-03 -2.1379224956035614e-02 -4.1053447872400284e-02 1.1291846632957458e-02 -4.3343231081962585e-02 -9.4712795689702034e-03 3.2563999295234680e-02 -1.8241215497255325e-02 -4.3014120310544968e-02 7.7751418575644493e-03 -2.6965087279677391e-02 5.1522315479815006e-03 -4.9820218235254288e-02 -2.6506917551159859e-02 -6.7955292761325836e-02 2.8907770290970802e-02 -1.3061788864433765e-02 -2.0788194611668587e-02 1.5637401957064867e-03 2.0524831488728523e-03 2.6071000844240189e-02 3.5483680665493011e-02 -1.6489405184984207e-02 2.3396832868456841e-02 -4.1098743677139282e-02 1.2661051936447620e-02 -1.8934771418571472e-02 -6.6604346036911011e-02 -2.0360440015792847e-02 1.7443066462874413e-02 -3.2474659383296967e-04 -3.6877788603305817e-02 -4.5811511576175690e-02 1.1386268772184849e-02 7.3738023638725281e-02 5.2180355414748192e-03 4.6359434723854065e-02 5.5238944478332996e-03 1.1369918473064899e-02 -4.9411512911319733e-02 5.4481405764818192e-02 -4.5159857720136642e-02 9.3815000727772713e-03 8.3137918263673782e-03 2.3297866806387901e-02 1.6643835231661797e-02 1.5879895538091660e-02 5.2223224192857742e-02 1.8595873843878508e-03 1.0356444865465164e-02 3.1160451471805573e-02 -2.3656668781768531e-04 -5.1687389612197876e-02 3.6693760193884373e-03 3.4057177603244781e-02 -3.7161637097597122e-02 -2.9419612139463425e-02 3.9585966616868973e-02 -1.2595827691257000e-02 1.6510344576090574e-03 3.1701400876045227e-02 -5.7818528264760971e-02 -6.2592007219791412e-02 -2.4163868278264999e-02 3.2445907592773438e-02 -3.7171687930822372e-02 -7.8820176422595978e-03 2.0807085558772087e-02 -3.4926991909742355e-02 -2.0540044642984867e-03 2.2825706750154495e-02 -2.6375891640782356e-02 -2.1862220019102097e-02 1.7014160752296448e-02 -4.6716369688510895e-02 -3.0465587973594666e-02 -4.9662861973047256e-02 -7.3971170932054520e-03 -5.2163682878017426e-02 -2.5041881017386913e-03 -6.7710652947425842e-02 -4.0260560810565948e-02 -4.6653080731630325e-02 -1.7499698325991631e-02 3.3278476446866989e-02 6.5719924867153168e-02 1.2436893768608570e-02 6.1575103551149368e-02 -5.3638700395822525e-02 2.7695162221789360e-02 -4.2021952569484711e-02 -9.9966965615749359e-02 -3.6180209368467331e-02 3.9827186614274979e-02 1.2511183507740498e-02 -7.5484044849872589e-02 -4.6141948550939560e-02 -3.2766357064247131e-02 1.0665578395128250e-01 4.0208209306001663e-02 6.8913884460926056e-02 8.0725304782390594e-02 9.6515826880931854e-03 -4.2378921061754227e-02 7.8681200742721558e-02 -4.0878899395465851e-02 2.8016842901706696e-02 -9.4355465844273567e-03 4.9281012266874313e-02 4.0453355759382248e-02 -1.1252001859247684e-02 9.6464335918426514e-02 6.5669439733028412e-02 2.8119457885622978e-02 9.9135749042034149e-03 -2.2788796573877335e-02 -5.0616875290870667e-02 -4.1909892112016678e-02 6.9613464176654816e-02 -2.4605676531791687e-02 -3.5119559615850449e-02 5.3888004273176193e-02 3.4482311457395554e-02 -6.3956566154956818e-02 4.0122836828231812e-02 -8.9675396680831909e-02 -1.3077460229396820e-01 -1.9152125343680382e-02 5.5155634880065918e-02 -1.0920497588813305e-02 -6.4956523478031158e-02 3.5933610051870346e-02 -1.3617000542581081e-02 -3.6157332360744476e-02 1.4470220543444157e-02 -3.0758793000131845e-03 -3.3077165484428406e-02 -3.0123610049486160e-02 -2.9946090653538704e-02 5.6462027132511139e-03 -8.1250481307506561e-02 -5.0305031239986420e-02 -7.1970328688621521e-02 1.6750186681747437e-02 4.4168524444103241e-02 3.7943911738693714e-03 1.6586445271968842e-02 2.9449407011270523e-02 -3.7557557225227356e-02 -6.4086660742759705e-02 -7.3781278915703297e-03 -4.3632730841636658e-02 3.8242958486080170e-02 -4.0152668952941895e-02 2.6760792825371027e-03 8.9933075010776520e-02 4.2304180562496185e-02 -3.5862311720848083e-02 1.5386421000584960e-03 6.6328853368759155e-02 1.8362374976277351e-02 3.5433489829301834e-02 -6.9296658039093018e-02 6.6400808282196522e-04 -8.8030517101287842e-02 -6.9127500057220459e-02 -1.0384603403508663e-02 1.7585942521691322e-02 -2.5782518088817596e-02 4.8809517174959183e-02 5.5297613143920898e-03 8.7383966892957687e-03 -4.0273953229188919e-02 -3.8927286863327026e-02 -1.3917702017351985e-03 -5.2243389189243317e-02 -1.7384389415383339e-02 -2.9147647321224213e-02 -3.7688679993152618e-02 2.1448651328682899e-02 6.4902752637863159e-02 8.5909590125083923e-03 -3.4890372306108475e-02 4.1560672223567963e-02 6.5873698331415653e-03 -4.4619217514991760e-02 4.2085265158675611e-04 1.4183740131556988e-02 -3.7369340658187866e-02 3.3771060407161713e-02 9.6498057246208191e-02 -6.4295846968889236e-03 -3.8722243160009384e-02 3.6112308502197266e-02 6.1770785599946976e-02 -3.2312233000993729e-02 2.8634903952479362e-02 2.9032580554485321e-02 -1.2951277196407318e-02 1.5574980527162552e-02 5.1154118031263351e-02 -3.5446295514702797e-03 2.6134636253118515e-02 3.7327080965042114e-02 5.5117171257734299e-02 1.9406426697969437e-02 4.1098814457654953e-02 -8.7628969922661781e-03 -1.0693318396806717e-01 -1.9713325425982475e-02 -6.3986077904701233e-02 4.4066817499697208e-03 8.4737516939640045e-02 7.1850456297397614e-02 -3.5369306802749634e-02 9.2635296285152435e-02 -2.8543854132294655e-02 7.7127628028392792e-02 -6.7149072885513306e-02 -1.4259070158004761e-01 -2.5378212332725525e-02 8.2998052239418030e-02 -2.2425176575779915e-02 -7.3081649839878082e-02 3.6521118599921465e-03 -4.1808593086898327e-03 1.6445137560367584e-01 9.5263153314590454e-02 8.4476269781589508e-02 6.7563034594058990e-02 -3.9160307496786118e-02 -7.1559309959411621e-02 5.2359841763973236e-02 -4.4706057757139206e-02 7.3173820972442627e-02 -5.4923247545957565e-02 5.0292108207941055e-02 4.4756699353456497e-03 -3.3611293882131577e-02 1.3862954080104828e-01 8.0676518380641937e-02 1.0774726420640945e-01 4.2063854634761810e-03 -2.2248754277825356e-02 -2.7353176847100258e-02 -8.6295656859874725e-02 9.7898460924625397e-02 -5.0449471920728683e-02 -6.6280238330364227e-02 7.0338942110538483e-02 -9.7749242559075356e-03 -4.6143870800733566e-02 5.8395434170961380e-02 -1.2133131176233292e-01 -1.6833841800689697e-01 -5.5538829416036606e-02 1.0239452868700027e-01 -2.1604681387543678e-02 -7.1346543729305267e-02 1.0648149996995926e-01 -9.6281923353672028e-02 1.6642615199089050e-02 9.1948226094245911e-02 -1.0252799838781357e-01 -9.1448687016963959e-02 -5.5509913712739944e-02 -5.0495106726884842e-02 -3.9108168333768845e-02 -1.5286451578140259e-01 -5.4961163550615311e-02 -1.2434411793947220e-01 4.7321286983788013e-03 4.8696778714656830e-02 -3.5101021640002728e-03 2.7552949264645576e-02 -3.2711776439100504e-03 -3.1273268163204193e-02 -8.7775446474552155e-02 -3.4795381128787994e-02 -3.9759691804647446e-02 3.4525237977504730e-02 -3.9379436522722244e-02 4.2641814798116684e-02 7.1417227387428284e-02 2.8681233525276184e-02 -7.7139131724834442e-02 -5.1390384323894978e-03 3.9519164711236954e-02 1.2863595038652420e-02 -2.5858059525489807e-03 -6.2023982405662537e-02 -2.3249521851539612e-02 -1.1035364866256714e-01 -4.9883294850587845e-02 2.4161456152796745e-02 2.8054162859916687e-02 -9.1449901461601257e-02 5.9957534074783325e-02 -3.2624423503875732e-02 1.6973858699202538e-02 -1.6011824831366539e-02 -2.9279248788952827e-02 1.9718725234270096e-03 -1.0975732654333115e-01 -3.8870569318532944e-02 -6.2716923654079437e-02 2.1765572018921375e-03 5.9391796588897705e-02 5.2209507673978806e-02 2.4461444467306137e-02 -7.4461214244365692e-02 4.9852374941110611e-02 4.6439133584499359e-03 -3.9061740040779114e-02 -5.6234672665596008e-02 5.9462387114763260e-02 -2.1079264581203461e-02 7.9796947538852692e-02 9.2834368348121643e-02 -1.6069548204541206e-02 -5.5089090019464493e-02 3.0639115720987320e-02 7.0212945342063904e-02 -2.9352910816669464e-02 6.4399830996990204e-02 4.8236967995762825e-03 -3.1643465161323547e-02 1.7735039815306664e-02 5.7048443704843521e-02 1.3920480385422707e-02 3.7220206111669540e-02 4.2985238134860992e-02 9.4828024506568909e-02 2.4992484599351883e-02 6.1197392642498016e-02 1.5251020668074489e-03 9.3629539012908936e-02 4.1914258152246475e-02 2.5307150557637215e-02 8.3881868049502373e-03 -5.9987839311361313e-02 -9.5827661454677582e-02 2.7522621676325798e-02 -4.1670273989439011e-02 4.2928297072649002e-02 -2.8564266860485077e-02 5.4406147450208664e-02 1.2302149832248688e-01 5.9198338538408279e-02 -4.0133133530616760e-02 -5.1718279719352722e-03 7.6917834579944611e-02 1.2274842709302902e-02 1.8252987414598465e-02 -1.0621140897274017e-01 -3.5736169666051865e-02 -8.6215250194072723e-02 -5.1536481827497482e-02 2.9532220214605331e-02 6.6221989691257477e-02 -7.6180197298526764e-02 6.4601190388202667e-02 -1.3372909277677536e-02 2.3846965283155441e-02 -1.4035361818969250e-02 -4.2489174753427505e-02 7.2687985375523567e-03 -1.2168228626251221e-01 -1.9931914284825325e-02 -6.7661762237548828e-02 -3.7666786462068558e-02 6.6786833107471466e-02 6.7956775426864624e-02 4.5833617448806763e-02 -4.7051098197698593e-02 5.8246605098247528e-02 8.8453795760869980e-03 -4.5061226934194565e-02 -4.9422398209571838e-02 3.2872192561626434e-02 -5.8356896042823792e-02 9.2996627092361450e-02 1.1737637966871262e-01 1.8152866512537003e-02 -6.3508018851280212e-02 1.3313026167452335e-02 7.1141727268695831e-02 -7.2336629033088684e-02 6.6906489431858063e-02 2.9951136559247971e-02 -3.2941039651632309e-02 3.3057216554880142e-02 7.7684514224529266e-02 6.3454970717430115e-02 6.1631318181753159e-02 7.2799515910446644e-03 1.2614226341247559e-01 8.2667069509625435e-03 1.0541020333766937e-01 -4.4285748153924942e-02 2.8268015012145042e-03 1.4582110568881035e-02 -1.0058299638330936e-02 -1.9858930259943008e-02 -2.7731241658329964e-02 -2.5064919143915176e-02 1.4276511967182159e-02 -2.3198535665869713e-02 5.6084268726408482e-03 -2.4911435320973396e-02 -1.2638964690268040e-02 1.1767306365072727e-02 1.4652891084551811e-02 2.5285862386226654e-02 2.5175964459776878e-02 1.5050128102302551e-02 5.7517690584063530e-03 1.5054453164339066e-02 -4.6275109052658081e-03 2.6041131466627121e-02 -2.8213169425725937e-02 2.6300561148673296e-03 -2.3765752092003822e-02 -1.2176040327176452e-03 -3.0479690060019493e-02 -1.6008766368031502e-02 2.4962520226836205e-02 -8.8409399613738060e-03 -1.1828315444290638e-02 -6.4125569770112634e-04 -1.5957919880747795e-02 1.7597327008843422e-02 -2.4618211318738759e-04 -1.7091389745473862e-02 3.6254727747291327e-03 -1.1316383257508278e-02 -5.8249279391020536e-04 2.4930333718657494e-02 -3.1671106815338135e-02 7.7035892754793167e-03 -1.7628001049160957e-02 9.8193967714905739e-03 3.7122450303286314e-03 -1.4284085482358932e-02 -8.6831143125891685e-03 1.8698854371905327e-02 1.4242883771657944e-02 2.1173434332013130e-02 1.3515595346689224e-03 1.1880595702677965e-03 3.2434216700494289e-03 1.8974585458636284e-02 -3.1984108500182629e-03 1.9424838945269585e-02 2.5798171758651733e-02 -2.1376518532633781e-02 3.0861495062708855e-02 2.5811530649662018e-02 2.7099233120679855e-03 -3.1126681715250015e-03 2.6251928880810738e-02 6.1693494208157063e-03 -1.0338415391743183e-02 -1.0626422241330147e-02 7.3652185499668121e-02 1.8047193298116326e-03 5.8721996843814850e-02 4.2224325239658356e-02 1.2689894996583462e-02 -7.4772365391254425e-02 -3.5163417458534241e-02 -3.3116936683654785e-02 3.8778886198997498e-02 -5.2051145583391190e-02 7.4864320456981659e-02 6.7532733082771301e-02 7.3390595614910126e-02 -5.2302442491054535e-02 -9.6777928993105888e-03 2.1276175975799561e-02 9.0316876769065857e-02 1.8572788685560226e-02 -7.0279307663440704e-02 -2.9075054451823235e-02 -1.9209094345569611e-01 -8.1564217805862427e-02 1.4641541987657547e-02 6.4763642847537994e-02 -1.4915044605731964e-01 7.2135567665100098e-02 -5.0788022577762604e-02 3.3452867064625025e-03 -4.2798321694135666e-02 -5.6414678692817688e-02 -1.6730733215808868e-02 -1.0440052300691605e-01 -4.9139801412820816e-02 -5.8347377926111221e-02 -5.6282551959156990e-03 4.8469834029674530e-02 8.6596637964248657e-02 1.9526047632098198e-02 -7.3871947824954987e-02 4.5818112790584564e-02 3.2636731863021851e-02 -3.6918219178915024e-02 -4.2692817747592926e-02 4.6258479356765747e-02 -5.7777263224124908e-02 1.2312748283147812e-01 1.6656601428985596e-01 -7.6518207788467407e-03 -8.3238713443279266e-02 1.0442113503813744e-02 5.4276943206787109e-02 -4.5860651880502701e-02 4.1131574660539627e-02 6.1157122254371643e-03 -1.6726564615964890e-02 1.3538030907511711e-02 5.0682652741670609e-02 4.2502339929342270e-02 6.7565612494945526e-02 3.1164608895778656e-02 1.2904076278209686e-01 2.0825127139687538e-02 1.4604337513446808e-01 -2.0115420222282410e-02 3.6173440515995026e-02 -2.3178220726549625e-03 4.0534645318984985e-02 3.1621973961591721e-02 -2.1787328645586967e-02 -6.0269415378570557e-02 -2.4004772305488586e-02 -1.3098270865157247e-03 3.8207862526178360e-02 -5.0380967557430267e-02 4.7485576942563057e-03 7.5232245028018951e-02 2.2271871566772461e-02 -8.7030470371246338e-02 1.8439125269651413e-02 5.5352609604597092e-02 2.4191832169890404e-02 -3.3807295840233564e-03 -5.9921115636825562e-02 -1.5624664723873138e-02 -7.4080787599086761e-02 -5.0736952573060989e-02 1.1432651430368423e-02 3.7817031145095825e-02 -6.4482033252716064e-02 5.7901624590158463e-02 -2.0789915695786476e-02 -6.6468049772083759e-03 -2.4551734328269958e-02 -3.2647922635078430e-02 2.4435702711343765e-02 -5.4564781486988068e-02 -1.6199897974729538e-02 -1.5166486613452435e-02 -2.3172393441200256e-02 2.8178794309496880e-02 3.2257858663797379e-02 3.0535917729139328e-02 -6.2809906899929047e-02 2.0435435697436333e-02 1.1553214862942696e-02 4.4910646975040436e-03 -3.4840192645788193e-02 4.2647130787372589e-02 -4.7841168940067291e-02 6.4465701580047607e-02 8.4697820246219635e-02 -2.7347074821591377e-02 -5.1722660660743713e-02 2.8592066839337349e-02 3.8396328687667847e-02 -3.7735275924205780e-02 5.2725858986377716e-02 6.1748451553285122e-03 -4.2519599199295044e-02 1.9562127068638802e-02 7.0804260671138763e-02 9.0731913223862648e-03 5.3401749581098557e-02 2.7799122035503387e-02 7.9256810247898102e-02 2.2736364975571632e-02 6.1607290059328079e-02 -2.0427165552973747e-02 6.7674398422241211e-02 1.4476308599114418e-02 2.4353355169296265e-02 4.1032372973859310e-03 -3.1780287623405457e-02 -8.6901403963565826e-02 -9.2566432431340218e-03 -3.4950200468301773e-02 1.7068769782781601e-02 -3.6216638982295990e-02 6.3490485772490501e-03 8.3899028599262238e-02 3.1426478177309036e-02 -6.0510363429784775e-02 4.5455233193933964e-03 3.6087408661842346e-02 6.0635097324848175e-02 1.3758827000856400e-02 -5.9234213083982468e-02 -2.5018418207764626e-02 -1.0136843472719193e-01 -5.4940607398748398e-02 -7.7687986195087433e-03 2.2527655586600304e-02 -5.2061554044485092e-02 6.2450658529996872e-02 -2.2101264446973801e-02 3.7303872406482697e-02 -3.2056819647550583e-02 -1.5040817670524120e-02 -9.1215586289763451e-03 -9.8911792039871216e-02 -2.7648527175188065e-03 -2.7494773268699646e-02 -3.4557964652776718e-02 1.9657172262668610e-02 5.0092726945877075e-02 3.7628576159477234e-02 -5.2638325840234756e-02 1.0746740736067295e-02 3.7339683622121811e-02 -4.7397684305906296e-02 -4.4018819928169250e-02 6.2364086508750916e-02 -4.4603139162063599e-02 8.0194875597953796e-02 1.1522575467824936e-01 1.5516192652285099e-02 -5.9051472693681717e-02 4.0731213986873627e-02 2.7145477011799812e-02 -4.3229456990957260e-02 1.9213987514376640e-02 -1.2602168135344982e-02 2.2314651869237423e-03 3.6175802350044250e-02 2.1501163020730019e-02 4.4778708368539810e-02 3.4634627401828766e-02 2.6862392202019691e-02 1.1036344617605209e-01 2.4124670308083296e-03 8.1399716436862946e-02 -6.2815670389682055e-04 2.5538932532072067e-02 2.1245775744318962e-02 6.8876609206199646e-02 2.2164592519402504e-02 -4.1113300248980522e-03 -6.9480493664741516e-02 -1.3141424395143986e-02 -3.1462014885619283e-04 1.9853437319397926e-02 -2.6430202648043633e-02 1.6015332192182541e-02 2.0695528015494347e-02 3.8530752062797546e-02 -6.8585470318794250e-02 -1.6309918137267232e-03 5.6626191362738609e-03 2.0169671624898911e-02 1.4168205671012402e-02 -3.5500280559062958e-02 1.8137922510504723e-02 -7.8233867883682251e-02 -4.0706500411033630e-02 5.3714909590780735e-03 3.9043795317411423e-02 -5.2316281944513321e-02 1.8010092899203300e-02 -1.2572843581438065e-02 1.1739154346287251e-02 -1.3073024339973927e-02 -1.8713922472670674e-03 -2.4620562791824341e-02 -5.5823907256126404e-02 -3.3638432621955872e-02 -2.1292148157954216e-02 -1.4824125915765762e-02 4.0154807269573212e-02 2.8036959469318390e-02 2.3643001914024353e-02 -2.4193232879042625e-02 2.4835340445861220e-04 5.7136118412017822e-03 -2.4163233116269112e-02 -5.0927426666021347e-02 5.1440473645925522e-02 -3.4601293504238129e-02 1.7870718613266945e-02 8.1680417060852051e-02 -1.4777990058064461e-02 -4.1327327489852905e-03 2.0218558609485626e-02 3.0608473345637321e-02 -1.3546231202781200e-02 7.3313675820827484e-02 -1.1653334833681583e-02 -3.4859009087085724e-02 2.3035852238535881e-02 6.9311000406742096e-02 1.4736915007233620e-02 3.7243809551000595e-02 3.4839760512113571e-02 4.8363927751779556e-02 7.0404666475951672e-03 6.1592794954776764e-02 6.3353381119668484e-03 3.8882333785295486e-02 2.7275664731860161e-02 5.1576700061559677e-02 1.0340116918087006e-02 -4.9371093511581421e-02 -7.0167399942874908e-02 2.2328847553580999e-03 -6.7365474998950958e-02 1.9419440999627113e-02 -4.4104967266321182e-02 4.0197372436523438e-02 6.6539540886878967e-02 3.3987894654273987e-02 -3.7840303033590317e-02 5.8119683526456356e-03 4.7745738178491592e-02 4.0874905884265900e-02 3.9611000567674637e-02 -6.9576457142829895e-02 -3.1769135966897011e-03 -5.5033404380083084e-02 -6.9457530975341797e-02 -3.1349940691143274e-03 4.8255514353513718e-02 -2.3140231147408485e-02 2.6382487267255783e-02 -7.6360157690942287e-03 3.1732279807329178e-02 -2.4731917306780815e-02 -2.3798817768692970e-02 -2.9007889679633081e-04 -4.9483615905046463e-02 -5.8524850755929947e-02 -3.2773006707429886e-02 -1.1250320822000504e-02 4.4626124203205109e-02 2.0987739786505699e-02 2.8052194043993950e-02 -2.3305902257561684e-02 1.5614823438227177e-02 1.3918360695242882e-02 -3.8770608603954315e-02 1.1804038658738136e-02 4.7923419624567032e-02 -5.3475659340620041e-02 7.3266945779323578e-02 1.0829260945320129e-01 2.1172962151467800e-03 -7.3267623782157898e-02 1.0196645744144917e-02 6.1722327023744583e-02 -5.6997917592525482e-02 4.7122132033109665e-02 5.3875222802162170e-03 -1.9918907433748245e-02 6.9573237560689449e-03 1.8071332946419716e-02 3.0084855854511261e-02 6.1479415744543076e-02 2.8774224221706390e-02 7.4334889650344849e-02 4.2976923286914825e-02 4.9718376249074936e-02 -2.4460807442665100e-02 1.2190639227628708e-01 1.2799327261745930e-02 1.4864349365234375e-01 7.9196810722351074e-02 1.7624488100409508e-02 7.0496974512934685e-03 3.4742530435323715e-02 4.7508545219898224e-02 1.9545530900359154e-02 -2.2100513800978661e-02 1.7229346558451653e-02 -6.9185361266136169e-02 2.5801319628953934e-02 -2.4107182025909424e-01 2.2800600156188011e-02 -1.5421213582158089e-02 5.9636075049638748e-02 -7.3151342570781708e-02 8.0923035740852356e-02 5.7715345174074173e-02 -1.3834953308105469e-01 6.4653996378183365e-03 -2.5676235090941191e-03 3.9900884032249451e-02 -1.2654986977577209e-01 -3.3707980066537857e-02 -6.4897090196609497e-02 4.3340805917978287e-02 6.6621415317058563e-03 -5.4899486713111401e-03 -6.8722218275070190e-03 -6.7407637834548950e-02 3.7086587399244308e-02 1.2534451670944691e-02 3.2636117190122604e-02 2.0538058131933212e-02 3.4431282430887222e-02 -2.7362419292330742e-02 -4.3391786515712738e-02 4.4503647834062576e-02 9.6873693168163300e-02 3.9233785122632980e-02 -1.6451476514339447e-01 -2.0963443443179131e-02 -3.2669778913259506e-02 -4.5858930796384811e-02 3.9991654455661774e-02 -1.0039740055799484e-01 2.2841293364763260e-02 5.2412118762731552e-02 -2.5855362415313721e-02 7.6536782085895538e-02 1.6427661478519440e-01 -4.8211362212896347e-02 3.7111728452146053e-03 -8.5988324135541916e-03 4.9839764833450317e-02 -1.0907159745693207e-01 3.8595665246248245e-02 8.2180108875036240e-03 -2.6268996298313141e-02 -4.9469247460365295e-02 1.3704691827297211e-01 2.4432517588138580e-02 -1.3356866547837853e-03 1.2548156082630157e-02 -5.0971806049346924e-03 1.0378192178905010e-02 4.9514635466039181e-03 -4.7714367508888245e-02 -7.5326128862798214e-03 -4.5856799930334091e-02 1.5183741226792336e-02 -1.1211855337023735e-02 -1.6699892003089190e-03 6.3562721014022827e-02 1.5646886080503464e-02 -1.9378080964088440e-02 -1.1741445399820805e-02 3.7495948374271393e-02 2.7123685926198959e-02 1.6438888385891914e-02 -2.8283219784498215e-02 -3.3492188900709152e-02 -2.5969062000513077e-02 -1.6869053244590759e-02 7.5616822578012943e-03 7.1595152840018272e-03 -4.5943256467580795e-02 4.4930841773748398e-02 -2.8828207403421402e-02 2.4166421964764595e-02 -1.9255654886364937e-02 -2.9331263154745102e-02 1.5145176090300083e-02 -4.0864083915948868e-02 -3.1549748033285141e-02 -2.7360426262021065e-02 -7.1793762035667896e-03 -6.7268713610246778e-04 -5.3847357630729675e-03 1.2532385997474194e-02 5.7844427647069097e-04 -8.8143488392233849e-03 7.0148641243577003e-03 -7.5014913454651833e-03 5.1155900582671165e-03 2.6565402746200562e-02 -2.0922215655446053e-02 3.2102331519126892e-02 4.5695126056671143e-02 1.5824710950255394e-02 -4.9781717360019684e-02 1.8187046051025391e-02 4.4819068163633347e-02 -3.4086819738149643e-02 3.6977022886276245e-02 1.7698006704449654e-02 2.8981044888496399e-03 -4.4203740544617176e-03 1.2103336863219738e-02 4.5280144549906254e-03 3.5297688096761703e-02 1.0411005467176437e-02 3.3592026680707932e-02 1.1412228923290968e-03 4.2924698442220688e-02 -1.5600826591253281e-02 
      </Weights>
      <Biases rows="32" cols="1">
        1.7647407948970795e-01 -6.2200278043746948e-02 6.7051433026790619e-02 5.4516669362783432e-02 -1.8154996633529663e-01 -6.6703200340270996e-02 -5.6720316410064697e-01 -1.3384902477264404e-01 -1.0773317515850067e-01 -1.4395886659622192e-01 1.5803700685501099e-01 -2.6677268743515015e-01 1.1650066077709198e-01 -1.1103249341249466e-01 5.0275492668151855e-01 1.1557572335004807e-01 1.1659927666187286e-01 1.1643248796463013e-01 1.0612944513559341e-01 1.6652011871337891e-01 -9.4864614307880402e-02 4.3948796391487122e-01 -1.6054870188236237e-01 -2.1324011683464050e-01 3.0719220638275146e-02 -1.1185846477746964e-01 -1.4236387610435486e-01 -1.0634954273700714e-01 -9.0587854385375977e-02 -1.3329063355922699e-01 1.3084907829761505e-01 -6.7392386496067047e-02 
      </Biases>
    </Layer>
    <Layer ActivationFunction="3">
      <Weights rows="32" cols="32">
        1.7714239656925201e-02 -5.0958197563886642e-02 1.9132111221551895e-02 4.1247274726629257e-02 -2.5692136958241463e-02 -3.7093546241521835e-02 3.9382118731737137e-02 -1.5186378732323647e-02 -6.3992738723754883e-02 -6.1857006512582302e-03 2.9292730614542961e-02 -4.2376268655061722e-02 3.4039217978715897e-02 9.9769122898578644e-03 -5.2431676536798477e-02 -3.2287542708218098e-03 4.5257616788148880e-02 2.5805920362472534e-02 6.3524946570396423e-02 -5.7790675200521946e-03 -3.5374723374843597e-02 5.5845323950052261e-02 -3.8399990648031235e-02 -6.4414963126182556e-02 2.0454222336411476e-02 -3.9026100188493729e-02 -4.2838402092456818e-02 -4.6571962535381317e-02 6.5086549147963524e-03 -5.7944678701460361e-03 -4.0129676461219788e-02 2.5426901876926422e-02 7.2767720557749271e-03 -4.2252834886312485e-02 4.6241275966167450e-02 -2.1774308755993843e-02 -3.0095033347606659e-02 -6.0400616377592087e-02 4.5103710144758224e-02 -1.2648143805563450e-02 -4.8637405037879944e-02 -1.8201531842350960e-02 4.5807793736457825e-02 -3.4433487802743912e-02 1.5064841136336327e-02 -3.9918601512908936e-02 -1.1843077838420868e-02 1.9950998947024345e-02 6.9249351508915424e-03 6.1604615300893784e-02 7.2869134601205587e-04 -1.3716301880776882e-02 -5.5961243808269501e-02 4.3754111975431442e-02 -4.9407970160245895e-02 -6.6413963213562965e-03 -3.0647297389805317e-03 -4.0882762521505356e-02 -7.6088480651378632e-02 -3.2140227267518640e-04 -1.6793152317404747e-02 -4.8381254076957703e-02 -1.2655845843255520e-02 -3.4828398376703262e-02 -2.0558806136250496e-02 3.1256880611181259e-02 -1.1655044741928577e-02 -3.5527456551790237e-02 4.0237221866846085e-02 4.5211218297481537e-02 -3.5843439400196075e-03 3.8542825728654861e-02 3.1262319535017014e-02 6.0329779982566833e-02 -7.3658980429172516e-02 3.2531403005123138e-02 -4.1669335216283798e-02 1.0794281959533691e-02 7.6773710548877716e-02 -3.2697185873985291e-02 -7.1865409612655640e-02 -2.4521069601178169e-02 1.7446427373215556e-03 -2.0658172667026520e-02 7.2912849485874176e-02 -7.4188865721225739e-02 6.7022450268268585e-02 5.4230507463216782e-02 -8.4398323670029640e-03 1.3718199729919434e-01 5.7811506092548370e-02 5.2577175199985504e-02 1.2713504955172539e-02 3.9075803011655807e-02 5.0975229591131210e-02 -5.4790554568171501e-03 -3.9936058223247528e-02 3.6100648343563080e-02 -4.7418512403964996e-02 2.7181338518857956e-03 3.4830372780561447e-02 4.4137597084045410e-02 -1.9374886527657509e-02 2.9607973992824554e-02 4.6281151473522186e-02 8.3522060886025429e-03 -3.3206902444362640e-02 2.5239860638976097e-02 -5.8947090059518814e-02 2.2607561200857162e-02 1.4996004290878773e-02 -4.5914407819509506e-02 -1.2958872132003307e-02 4.4537708163261414e-03 2.8233418706804514e-03 -4.1758909821510315e-02 3.3657692372798920e-02 -5.3516700863838196e-03 2.4700624868273735e-02 3.0640628188848495e-02 3.3624432981014252e-02 1.4451067894697189e-02 8.8286893442273140e-03 -9.3915266916155815e-03 1.2111718766391277e-02 2.2222161293029785e-02 1.6943091526627541e-02 3.3142730593681335e-02 -4.2498148977756500e-02 5.1255680620670319e-02 -5.6626316159963608e-02 -2.4629523977637291e-02 3.1588230282068253e-02 4.8182036727666855e-02 -3.8411669433116913e-02 3.1787395477294922e-02 4.6744987368583679e-02 6.4792089164257050e-02 -2.9583223164081573e-02 4.7185365110635757e-02 -3.6970626562833786e-02 6.7330211400985718e-02 6.8462468683719635e-02 -1.2224927777424455e-03 -2.7686394751071930e-02 -3.0512534081935883e-02 -1.4636974781751633e-02 -4.2094845324754715e-02 1.7038868740200996e-02 -2.5505803525447845e-02 2.6694649830460548e-02 7.7967949211597443e-02 3.4886129200458527e-02 1.3308966159820557e-01 4.3150410056114197e-02 4.5123498886823654e-02 -2.2343881428241730e-02 4.5905970036983490e-02 4.6955894678831100e-02 2.2568490356206894e-02 -3.2066009938716888e-02 1.6842944547533989e-02 3.2328805536963046e-04 -1.6157813370227814e-02 4.3211210519075394e-02 4.9834761768579483e-02 -2.2514287382364273e-02 5.1667880266904831e-02 3.9495665580034256e-02 1.5432726591825485e-02 -1.7007689923048019e-02 3.2075632363557816e-02 -3.4509595483541489e-02 1.5811149030923843e-02 5.6478675454854965e-02 -4.5907568186521530e-02 -5.6818202137947083e-02 -6.5848827362060547e-02 -6.7564873024821281e-03 -5.1177527755498886e-02 -1.3669883832335472e-02 -7.6218836009502411e-02 5.0963595509529114e-02 1.9281243905425072e-02 -1.1108818463981152e-02 5.3575113415718079e-02 7.5932882726192474e-02 3.8176920264959335e-02 4.5572470873594284e-02 5.6679230183362961e-02 4.5929640531539917e-02 1.1850944720208645e-03 6.1718493700027466e-02 -3.4642204642295837e-02 6.2566608190536499e-02 -2.0252328366041183e-02 -1.0561671853065491e-01 -9.3153670430183411e-02 2.9457885771989822e-02 -7.3807999491691589e-02 -6.0930043458938599e-02 -6.8580850958824158e-02 5.7123266160488129e-02 -4.2773082852363586e-02 4.2506966739892960e-02 -6.0725118964910507e-02 -1.0074755549430847e-01 2.7670323848724365e-02 2.6763793081045151e-02 3.5430625081062317e-02 2.9235025867819786e-03 -1.0477791540324688e-02 -2.0521109923720360e-02 5.9506338089704514e-02 -8.1469520926475525e-02 -5.5160373449325562e-02 1.8372735008597374e-02 -1.3018274307250977e-01 -1.2253648601472378e-02 -5.7018127292394638e-02 -2.6846215128898621e-02 -4.7994941473007202e-02 -2.2478029131889343e-03 -3.3033523708581924e-02 4.3770518153905869e-02 -6.5049231052398682e-02 -1.6783516854047775e-02 -2.8648268431425095e-02 -7.5845994055271149e-02 -3.5411421209573746e-02 2.7206977829337120e-02 -3.1729094684123993e-02 -6.0811445116996765e-02 -4.4975873082876205e-02 5.0968178547918797e-03 -2.7373408898711205e-02 2.2914925590157509e-02 -4.9225974828004837e-02 -6.5904118120670319e-02 3.4338063560426235e-03 -7.1676033549010754e-03 1.5801561996340752e-02 2.8627924621105194e-02 3.3129509538412094e-02 1.5948815271258354e-02 3.4788124263286591e-02 -3.5499751102179289e-03 -5.9751689434051514e-02 3.3991966396570206e-02 -2.2480532526969910e-02 -6.6474005579948425e-02 -1.9705807790160179e-02 -7.0445060729980469e-02 -3.5764764994382858e-02 -2.5158541277050972e-02 1.1646642349660397e-02 2.0374454557895660e-02 -2.6337301358580589e-02 -1.0114784352481365e-02 4.5816428959369659e-02 -4.1168518364429474e-02 -6.7184209823608398e-02 2.2095327731221914e-03 -1.2284696102142334e-02 -4.9925394356250763e-02 -9.9935485050082207e-03 1.0874343104660511e-02 -8.0613764002919197e-03 6.1035823076963425e-02 -7.7194822952151299e-03 -3.9719060063362122e-02 5.4065078496932983e-02 4.2665302753448486e-02 4.7737270593643188e-02 2.0114229992032051e-03 1.2758700177073479e-02 -4.6943746507167816e-02 3.4785848110914230e-02 -3.0885633081197739e-02 -1.9406717270612717e-02 -3.3275064080953598e-02 -4.7867886722087860e-02 -2.0756080746650696e-02 -8.8203195482492447e-03 -1.1014360003173351e-02 -2.2445999085903168e-02 -1.5834681689739227e-02 -4.5124527066946030e-02 -4.7817382961511612e-02 3.3416509628295898e-02 -9.6493989229202271e-02 7.0095546543598175e-02 -2.2490056231617928e-02 8.5562817752361298e-02 -5.1973825693130493e-01 3.0816849321126938e-02 4.5106619596481323e-02 2.5318589061498642e-02 -2.3034401237964630e-02 -5.6869951076805592e-03 -5.4398950189352036e-02 1.6885997727513313e-02 5.7338941097259521e-01 -3.1982228159904480e-02 -6.7564815282821655e-02 -3.2025814056396484e-02 3.4153848886489868e-02 6.5872482955455780e-02 -1.9092107191681862e-02 9.4127595424652100e-02 1.9690189510583878e-02 -2.2511161863803864e-02 -1.9743325188755989e-02 5.3491827100515366e-02 3.8457714021205902e-02 -1.5523993410170078e-02 7.0251412689685822e-02 -5.5964842438697815e-02 2.4742579460144043e-01 -5.1567271351814270e-02 7.2363987565040588e-03 5.3299274295568466e-03 3.1201191246509552e-02 2.7157971635460854e-02 -1.4062997885048389e-02 -4.4568136334419250e-02 -1.2183083221316338e-02 -7.2072809562087059e-03 2.0790012553334236e-02 -4.8587354831397533e-03 5.7312317192554474e-02 9.0527571737766266e-03 1.0668535716831684e-02 -3.3430453389883041e-02 -1.9999876618385315e-02 2.0221443846821785e-02 5.1953207701444626e-02 4.3741736561059952e-02 -3.9782859385013580e-03 -8.2865627482533455e-03 1.5866186469793320e-02 3.7915270775556564e-02 -2.7376566082239151e-02 -1.3595618307590485e-02 -9.5212124288082123e-03 -1.7896557226777077e-02 6.5413299016654491e-03 -9.7529161721467972e-03 1.4854319160804152e-03 1.8458476290106773e-02 -8.2139903679490089e-03 3.4792475402355194e-02 2.7262517251074314e-03 3.3101276494562626e-03 1.3220903463661671e-02 -1.6649601981043816e-02 2.0126491785049438e-02 2.7795240283012390e-02 -1.9154347479343414e-02 2.7494411915540695e-02 1.7946608364582062e-02 2.1162049844861031e-02 -2.1814275532960892e-02 2.5138905271887779e-02 -3.2429970800876617e-02 1.0748729109764099e-02 4.9719803035259247e-02 -4.1081897914409637e-02 -2.6310328394174576e-02 1.7159482464194298e-02 -2.3171802982687950e-02 -2.6153888553380966e-02 9.8495511338114738e-03 -5.6489318609237671e-02 3.9796039462089539e-02 7.3846347630023956e-02 -1.7793608130887151e-03 4.4934716075658798e-02 -1.8218422308564186e-02 1.6427189111709595e-02 2.7891078963875771e-02 8.8085830211639404e-03 4.4001512229442596e-02 2.4390555918216705e-02 -3.5238493233919144e-02 7.9862382262945175e-03 -4.3308820575475693e-02 -3.2288137823343277e-02 8.9343555271625519e-02 5.6284405291080475e-02 -6.4693033695220947e-02 7.0713814347982407e-03 3.0929351225495338e-02 1.0437182150781155e-02 -5.3489156067371368e-02 2.9397986829280853e-02 -5.6482389569282532e-02 7.5112938880920410e-02 5.9017885476350784e-02 -4.8787478357553482e-02 -1.3655310496687889e-02 -5.1614552736282349e-02 -3.8437545299530029e-02 -5.4107945412397385e-02 5.2896644920110703e-02 -3.0417926609516144e-02 7.1626439690589905e-02 1.9874272868037224e-02 1.0156330652534962e-02 6.4814396202564240e-02 1.9629159942269325e-02 5.2676085382699966e-02 3.1442023813724518e-02 3.6156252026557922e-02 2.2891785949468613e-02 3.6329850554466248e-02 -5.0259493291378021e-03 -2.9209997504949570e-02 -2.4383662268519402e-02 1.9782174378633499e-02 1.2021210975944996e-02 5.0538149662315845e-03 -1.4308059588074684e-02 -1.7171435058116913e-02 -6.7411079071462154e-03 -2.3444341495633125e-02 -1.3984888792037964e-03 1.4729341492056847e-02 -2.6818227022886276e-02 1.6881680116057396e-02 -2.3843746632337570e-02 -2.6990354061126709e-02 -1.5130880288779736e-02 1.7277583479881287e-02 -4.6143522486090660e-03 -5.5702745914459229e-02 -1.8087616190314293e-02 9.8774470388889313e-03 -6.2183593399822712e-03 2.2694062441587448e-02 -4.7815162688493729e-03 3.6287624388933182e-02 2.1561855450272560e-02 6.8082301877439022e-03 -8.6111258715391159e-03 3.3957064151763916e-02 1.1705009266734123e-02 2.4824922904372215e-02 4.5121205039322376e-04 5.1784645766019821e-02 -2.1105585619807243e-02 8.7491078302264214e-03 7.4345427565276623e-03 3.7858925759792328e-02 -5.3214151412248611e-02 1.5650380402803421e-02 8.0054085701704025e-03 2.7205992490053177e-02 -1.3182115741074085e-02 2.3908054456114769e-02 -4.2302913963794708e-02 4.4882439076900482e-02 -4.0658228099346161e-03 -3.8987419102340937e-03 3.4106678795069456e-03 -6.7215226590633392e-02 -1.3139650225639343e-02 3.9357692003250122e-03 3.2608594745397568e-02 -3.2612551003694534e-02 9.9963163956999779e-03 2.2597925737500191e-02 -8.2463473081588745e-03 2.4406202137470245e-02 6.3547261059284210e-02 2.0557589828968048e-02 2.0890943706035614e-02 -1.2328352779150009e-02 3.8269963115453720e-02 1.1102893389761448e-02 -2.3318735882639885e-02 7.2719743475317955e-03 -8.8705942034721375e-02 1.1945873498916626e-02 1.0672400146722794e-01 5.0066407769918442e-02 -2.9885002877563238e-03 4.8797152936458588e-02 5.4181106388568878e-02 9.3505539000034332e-02 -1.3341524638235569e-02 -2.9223531484603882e-02 -5.6688092648983002e-02 5.8987274765968323e-02 1.5316802263259888e-01 -7.9384416341781616e-02 -5.5262230336666107e-02 3.1487897504121065e-03 -3.6017388105392456e-02 -2.3613480851054192e-02 9.0507261455059052e-02 -4.5349854975938797e-02 7.4904821813106537e-02 7.0986196398735046e-02 2.5223636999726295e-02 1.3655307888984680e-01 2.4806115776300430e-02 1.1521577835083008e-01 5.5384435690939426e-03 1.6907233744859695e-02 5.4807770997285843e-02 5.3961779922246933e-03 3.6338638514280319e-02 -2.5129096582531929e-02 7.4005788192152977e-03 3.4893140196800232e-02 -9.8159782588481903e-02 -4.2365830391645432e-02 -1.6942119225859642e-02 -3.4771140664815903e-02 -7.4370905756950378e-02 -8.5031062364578247e-02 8.2001179456710815e-02 -4.4945101253688335e-03 4.3759539723396301e-02 -8.5490316152572632e-02 -7.0823095738887787e-02 5.7643942534923553e-02 4.9548547714948654e-02 5.8786913752555847e-02 -2.3890510201454163e-02 8.0449469387531281e-02 -2.9674613848328590e-02 8.6500130593776703e-02 -6.4482480287551880e-02 -5.6467752903699875e-02 9.1271270066499710e-03 -6.7792713642120361e-02 -8.6459919810295105e-02 -1.4208936132490635e-02 -2.3594025522470474e-02 -4.3710436671972275e-02 -8.7614402174949646e-02 -3.6398075520992279e-02 -5.6890819221735001e-02 1.9220637157559395e-02 -5.9613835066556931e-02 -7.5851120054721832e-03 8.4711022675037384e-02 1.0231488198041916e-01 -3.1467121094465256e-02 9.5041491091251373e-02 3.2000806182622910e-02 7.1440681815147400e-02 -6.5720193088054657e-02 1.5202097594738007e-02 -7.1026891469955444e-02 8.5517369210720062e-02 1.1847890168428421e-01 -4.7221787273883820e-02 -1.0039336234331131e-01 4.9074436537921429e-03 -4.2791016399860382e-02 -2.7005774900317192e-02 5.6627470999956131e-02 -4.7760117799043655e-02 8.0289363861083984e-02 9.4877608120441437e-02 -9.5543125644326210e-03 1.0367643088102341e-01 9.0868420898914337e-02 1.1449736356735229e-01 5.6643974035978317e-02 1.7013682052493095e-02 6.2362752854824066e-02 3.7139870226383209e-02 3.4477889537811279e-02 -3.4868210554122925e-02 -1.5218788757920265e-02 2.5270536541938782e-02 -5.9774540364742279e-02 -5.9232976287603378e-02 3.8683984428644180e-02 -2.7775155380368233e-02 -2.1563556045293808e-02 -4.3278954923152924e-02 3.9850097149610519e-02 -2.9442423954606056e-02 4.7288857400417328e-02 -8.4969112649559975e-03 -8.6011491715908051e-02 5.3840130567550659e-02 5.0492212176322937e-02 6.5914683043956757e-02 3.2370440661907196e-02 5.0543636083602905e-02 -6.0004752129316330e-02 3.4494902938604355e-02 8.5326860425993800e-04 -8.0625109374523163e-02 -2.4869779124855995e-02 -1.0638147592544556e-01 -6.5790072083473206e-02 -1.9199032336473465e-02 -6.3895903527736664e-02 -3.0077390372753143e-02 -7.0117361843585968e-02 -9.6650992054492235e-04 -4.8933755606412888e-02 2.8180100023746490e-02 -8.4893025457859039e-02 2.3077384103089571e-03 8.4942445158958435e-02 2.3641733452677727e-02 -5.0363212823867798e-02 5.0742771476507187e-02 2.0320367068052292e-02 8.8278785347938538e-02 -3.9784096181392670e-02 -2.1967228502035141e-02 -4.7574270516633987e-02 5.5449597537517548e-02 4.6610798686742783e-02 -7.7402092516422272e-02 -5.5839676409959793e-02 -4.8813521862030029e-02 -6.8781308829784393e-02 -3.1068172305822372e-02 8.2946456968784332e-02 -1.0955894365906715e-02 6.3525646924972534e-02 7.5785309076309204e-02 -1.9307387992739677e-02 1.0814935714006424e-01 6.5650507807731628e-02 5.7453099638223648e-02 2.6686422526836395e-02 3.4217525273561478e-02 5.0463791936635971e-02 -9.5881372690200806e-03 -1.7897242680191994e-02 8.6923688650131226e-03 2.3573188111186028e-02 4.1381441988050938e-03 4.2380906641483307e-02 5.0248537212610245e-02 -3.7348814308643341e-02 4.4795054942369461e-02 5.7875677943229675e-02 2.9414452146738768e-03 -3.2418943941593170e-02 -3.9093364030122757e-02 -5.7885695248842239e-02 3.9061941206455231e-02 8.4925547242164612e-02 -4.2626373469829559e-02 -4.2953129857778549e-02 -2.9371010605245829e-03 -4.4440034776926041e-02 -2.9242470860481262e-02 1.3496982865035534e-02 -5.6619998067617416e-02 3.6788199096918106e-02 5.9610042721033096e-02 3.3700950443744659e-02 7.0679642260074615e-02 -9.6167605370283127e-03 6.9103211164474487e-02 -7.7151451259851456e-03 4.3909698724746704e-02 6.7785896360874176e-02 2.9369389638304710e-02 5.7234961539506912e-02 -5.7121992111206055e-02 1.4692579209804535e-01 -5.0103977322578430e-02 4.1456343606114388e-03 -7.7337063848972321e-02 5.1032358407974243e-01 -1.9880719482898712e-02 -2.9500542208552361e-02 -1.3755316846072674e-02 2.9913730919361115e-02 2.5306324823759496e-04 5.0608802586793900e-02 2.7850501239299774e-02 -3.9599740505218506e-01 3.5928033292293549e-02 3.0781961977481842e-02 6.7220069468021393e-02 -1.5680171549320221e-02 -8.9051537215709686e-02 4.9986425787210464e-02 -3.5827238112688065e-02 -2.8407953679561615e-02 2.4382229894399643e-02 3.5660047084093094e-02 -6.3240610063076019e-02 -4.9413096159696579e-02 -9.1615784913301468e-03 -8.3015225827693939e-02 5.9026584029197693e-02 -2.3266522586345673e-01 4.5265324413776398e-02 1.8919320777058601e-02 2.4806646630167961e-02 5.1012256881222129e-04 -1.0623757727444172e-02 2.9136206954717636e-02 7.6056845486164093e-02 -2.2080464288592339e-02 3.1471293419599533e-02 4.5788802206516266e-02 7.0647917687892914e-02 -1.4195843599736691e-02 2.0880650728940964e-02 -2.9439263045787811e-02 -5.7181348092854023e-03 6.4249597489833832e-02 -1.9057137891650200e-02 -3.8146551698446274e-02 -2.4444080889225006e-02 -3.2626077532768250e-02 -1.7352251335978508e-02 -6.9300122559070587e-03 -6.2358338385820389e-02 2.8232347220182419e-02 7.8912422060966492e-02 -2.1627841517329216e-02 6.9522507488727570e-02 -1.7428176477551460e-02 5.3714469075202942e-02 1.5493468381464481e-02 1.9523749127984047e-02 4.1741564869880676e-02 3.2754756510257721e-02 -2.5124209001660347e-02 -4.7222478315234184e-03 -3.0650453642010689e-02 -2.8008894994854927e-02 3.3930163830518723e-02 5.8007046580314636e-02 -3.0717145651578903e-02 1.1159378103911877e-02 1.5522286295890808e-02 -1.7371376743540168e-03 -4.7404937446117401e-02 3.3501684665679932e-02 -3.7633772939443588e-02 8.1163449212908745e-03 2.3190097883343697e-02 -4.0771789848804474e-02 -2.6114255189895630e-02 -2.3830825462937355e-02 -3.0217949301004410e-02 -5.3089931607246399e-02 5.8084119111299515e-02 -3.8211144506931305e-02 9.2533929273486137e-03 3.7284679710865021e-02 -2.3735135793685913e-02 9.8550999537110329e-03 3.8202922791242599e-02 -6.9282893091440201e-03 5.2181899547576904e-02 1.3230281881988049e-02 1.7859265208244324e-02 4.9319001846015453e-03 3.8715358823537827e-02 -5.4425664246082306e-02 3.0306050553917885e-02 1.7131082713603973e-02 -8.6979996412992477e-03 -6.5428234636783600e-02 4.9369361251592636e-02 -1.8736552447080612e-02 1.4932862482964993e-02 -1.6598174348473549e-02 1.2917306274175644e-02 -3.3552277833223343e-02 -4.0993122383952141e-03 -1.0137984529137611e-02 -3.9893213659524918e-02 -8.3943558856844902e-03 1.8096715211868286e-02 -1.0480839759111404e-02 8.7616359815001488e-03 4.0762121789157391e-03 -5.5407479405403137e-02 2.6119871065020561e-02 -5.1871504634618759e-02 -8.8875032961368561e-02 -2.7747267857193947e-02 -6.7033268511295319e-02 1.8315363675355911e-02 -3.9137098938226700e-02 -2.8977908194065094e-02 -3.5204302519559860e-02 -3.9054803550243378e-02 -3.4503776580095291e-02 -4.8881646245718002e-02 3.3496111631393433e-02 -2.4141810834407806e-02 -2.9213570058345795e-02 1.0188896954059601e-01 4.7536104917526245e-02 -2.4312123656272888e-02 1.9171399995684624e-02 9.2161379754543304e-02 5.1155652850866318e-02 -4.6536568552255630e-02 2.0006136968731880e-02 -6.0433972626924515e-02 8.7196253240108490e-02 6.5265655517578125e-02 -6.0670837759971619e-02 -1.4822392724454403e-02 -2.6040958240628242e-02 -3.4726325422525406e-02 -5.6502841413021088e-02 1.7847584560513496e-02 -6.0864191502332687e-02 3.4821119159460068e-02 7.2891093790531158e-02 -2.1621355786919594e-02 5.3560964763164520e-02 6.3832513988018036e-02 1.4879259979352355e-03 6.6180743277072906e-02 4.9790486693382263e-02 6.6917628049850464e-02 3.1255085021257401e-02 4.1584830731153488e-02 6.4517036080360413e-03 2.9219198971986771e-02 3.7877295166254044e-02 -3.1859043985605240e-02 5.0974432379007339e-03 3.0829429626464844e-02 -2.7994006872177124e-02 -4.9211964011192322e-02 1.0491714812815189e-02 -1.4762912876904011e-02 -3.3302549272775650e-02 -1.7285725101828575e-02 -3.0284117907285690e-02 -2.4096770212054253e-02 2.9260331764817238e-02 -4.3840948492288589e-03 -1.2218809686601162e-02 3.0211385339498520e-02 1.4357017353177071e-02 -8.2851126790046692e-03 1.0385421104729176e-02 -1.1616484262049198e-02 -4.1727345436811447e-02 -8.8821898680180311e-04 -5.7473786175251007e-02 -2.7730062603950500e-02 -5.0497416406869888e-02 -1.7190301790833473e-02 2.4536537239328027e-04 2.3783193901181221e-02 -1.1262516491115093e-02 -3.5998959094285965e-02 2.2884098812937737e-02 -4.4165767729282379e-02 -9.8376795649528503e-03 8.2888729870319366e-02 4.3397553265094757e-02 -2.1301805973052979e-02 -2.1600743755698204e-02 3.6280822008848190e-02 4.4389192014932632e-02 -6.3183382153511047e-02 9.2680016532540321e-03 -7.5457453727722168e-02 5.5691115558147430e-02 5.9727821499109268e-02 -8.0709710717201233e-02 -3.3074781298637390e-02 -1.6972102224826813e-02 7.2631398215889931e-03 -7.7923759818077087e-02 2.2533018141984940e-02 -3.6433678120374680e-02 4.1790541261434555e-02 1.0086322575807571e-01 2.8157869353890419e-02 7.8183799982070923e-02 7.6495356857776642e-02 1.9390653818845749e-02 8.0247439444065094e-02 3.2683729659765959e-03 6.0675062239170074e-02 3.0098099261522293e-02 6.7358292639255524e-02 -2.5883836671710014e-02 3.7956103682518005e-02 3.5396438091993332e-02 -7.9439811408519745e-02 -2.2821703925728798e-02 2.3665547370910645e-02 -3.6116492003202438e-02 2.6853573508560658e-03 -7.1248896420001984e-02 2.3208374157547951e-02 7.7907689847052097e-03 5.0564203411340714e-03 -7.7890373766422272e-02 -5.4867476224899292e-02 6.5908208489418030e-02 6.4723663032054901e-02 1.2060316279530525e-02 6.8311534821987152e-02 5.2535887807607651e-02 -2.2351117804646492e-02 3.3114589750766754e-02 -9.3423582613468170e-02 -8.7591096758842468e-02 -3.0815318226814270e-02 -1.1189150810241699e-01 -7.2225093841552734e-02 -4.8015501350164413e-02 -2.2542923688888550e-02 -7.2626873850822449e-02 -5.6848552078008652e-02 