<?xml version="1.0"?>
<MethodSetup Method="DNN::DNN_NanoV9_V1_2020_BMET_multi_x2">
  <GeneralInfo>
    <Info name="TMVA Release" value="4.2.1 [262657]"/>
    <Info name="ROOT Release" value="6.12/07 [396295]"/>
    <Info name="Creator" value="hum"/>
    <Info name="Date" value="Mon Mar  7 11:47:04 2022"/>
    <Info name="Host" value="Linux vocms0301.cern.ch 2.6.32-696.30.1.el6.x86_64 #1 SMP Tue May 22 06:09:36 CEST 2018 x86_64 x86_64 x86_64 GNU/Linux"/>
    <Info name="Dir" value="/afs/cern.ch/work/h/hum/public/CMSSW_10_2_13/src/ChargedHiggs/Analysis"/>
    <Info name="Training events" value="27216"/>
    <Info name="TrainingTime" value="9.26385713e+00"/>
    <Info name="AnalysisType" value="Multiclass"/>
  </GeneralInfo>
  <Options>
    <Option name="V" modified="Yes">True</Option>
    <Option name="VerbosityLevel" modified="No">Verbose</Option>
    <Option name="VarTransform" modified="Yes">N</Option>
    <Option name="H" modified="Yes">False</Option>
    <Option name="CreateMVAPdfs" modified="No">False</Option>
    <Option name="IgnoreNegWeightsInTraining" modified="No">False</Option>
    <Option name="Layout" modified="Yes">SIGMOID|32,TANH|32,TANH|16,LINEAR</Option>
    <Option name="ValidationSize" modified="No">20%</Option>
    <Option name="ErrorStrategy" modified="Yes">CROSSENTROPY</Option>
    <Option name="WeightInitialization" modified="Yes">XAVIERUNIFORM</Option>
    <Option name="Architecture" modified="Yes">CPU</Option>
    <Option name="TrainingStrategy" modified="Yes">LearningRate=1e-1,Momentum=0.5,Repetitions=1,ConvergenceSteps=20,BatchSize=256,TestRepetitions=10,WeightDecay=1e-4,Regularization=L2,DropConfig=0.0+0.1+0.25,</Option>
  </Options>
  <Variables NVar="13">
    <Variable VarIndex="0" Expression="j1QGL" Label="j1QGL" Title="j1QGL" Unit="" Internal="j1QGL" Type="F" Min="-1.00000000e+00" Max="1.00000000e+00"/>
    <Variable VarIndex="1" Expression="j2QGL" Label="j2QGL" Title="j2QGL" Unit="" Internal="j2QGL" Type="F" Min="-1.00000000e+00" Max="1.00000000e+00"/>
    <Variable VarIndex="2" Expression="varMjj" Label="varMjj" Title="varMjj" Unit="" Internal="varMjj" Type="F" Min="5.00027679e+02" Max="7.07509961e+03"/>
    <Variable VarIndex="3" Expression="varDetajj" Label="varDetajj" Title="varDetajj" Unit="" Internal="varDetajj" Type="F" Min="2.50024414e+00" Max="8.68750000e+00"/>
    <Variable VarIndex="4" Expression="varJet1Eta" Label="varJet1Eta" Title="abs(varJet1Eta)" Unit="" Internal="varJet1Eta" Type="F" Min="-4.65039062e+00" Max="4.68945312e+00"/>
    <Variable VarIndex="5" Expression="varJet1Pt" Label="varJet1Pt" Title="varJet1Pt" Unit="" Internal="varJet1Pt" Type="F" Min="5.00312500e+01" Max="1.94400000e+03"/>
    <Variable VarIndex="6" Expression="varJet2Eta" Label="varJet2Eta" Title="abs(varJet2Eta)" Unit="" Internal="varJet2Eta" Type="F" Min="-4.65820312e+00" Max="4.69531250e+00"/>
    <Variable VarIndex="7" Expression="varJet2Pt" Label="varJet2Pt" Title="varJet2Pt" Unit="" Internal="varJet2Pt" Type="F" Min="5.00000000e+01" Max="1.21300000e+03"/>
    <Variable VarIndex="8" Expression="varMTVV" Label="varMTVV" Title="varMTVV" Unit="" Internal="varMTVV" Type="F" Min="5.79389221e+02" Max="4.00659546e+03"/>
    <Variable VarIndex="9" Expression="varCen" Label="varCen" Title="varCen" Unit="" Internal="varCen" Type="F" Min="-2.13400269e+00" Max="4.08085442e+00"/>
    <Variable VarIndex="10" Expression="varDRV2j" Label="varDRV2j" Title="varDRV2j" Unit="" Internal="varDRV2j" Type="F" Min="1.20044696e+00" Max="4.76206589e+00"/>
    <Variable VarIndex="11" Expression="varnormPTVVjj" Label="varnormPTVVjj" Title="varnormPTVVjj" Unit="" Internal="varnormPTVVjj" Type="F" Min="2.90104537e-04" Max="2.49424726e-01"/>
    <Variable VarIndex="12" Expression="varFW2j" Label="varFW2j" Title="varnormFW2j" Unit="" Internal="varFW2j" Type="F" Min="1.25253111e-01" Max="9.99524117e-01"/>
  </Variables>
  <Spectators NSpec="0"/>
  <Classes NClass="3">
    <Class Name="VVEWK" Index="0"/>
    <Class Name="VVQCD" Index="1"/>
    <Class Name="NonVV" Index="2"/>
  </Classes>
  <Transformations NTransformations="1">
    <Transform Name="Normalize">
      <Selection>
        <Input NInputs="13">
          <Input Type="Variable" Label="j1QGL" Expression="j1QGL"/>
          <Input Type="Variable" Label="j2QGL" Expression="j2QGL"/>
          <Input Type="Variable" Label="varMjj" Expression="varMjj"/>
          <Input Type="Variable" Label="varDetajj" Expression="varDetajj"/>
          <Input Type="Variable" Label="varJet1Eta" Expression="varJet1Eta"/>
          <Input Type="Variable" Label="varJet1Pt" Expression="varJet1Pt"/>
          <Input Type="Variable" Label="varJet2Eta" Expression="varJet2Eta"/>
          <Input Type="Variable" Label="varJet2Pt" Expression="varJet2Pt"/>
          <Input Type="Variable" Label="varMTVV" Expression="varMTVV"/>
          <Input Type="Variable" Label="varCen" Expression="varCen"/>
          <Input Type="Variable" Label="varDRV2j" Expression="varDRV2j"/>
          <Input Type="Variable" Label="varnormPTVVjj" Expression="varnormPTVVjj"/>
          <Input Type="Variable" Label="varFW2j" Expression="varFW2j"/>
        </Input>
        <Output NOutputs="13">
          <Output Type="Variable" Label="j1QGL" Expression="j1QGL"/>
          <Output Type="Variable" Label="j2QGL" Expression="j2QGL"/>
          <Output Type="Variable" Label="varMjj" Expression="varMjj"/>
          <Output Type="Variable" Label="varDetajj" Expression="varDetajj"/>
          <Output Type="Variable" Label="varJet1Eta" Expression="varJet1Eta"/>
          <Output Type="Variable" Label="varJet1Pt" Expression="varJet1Pt"/>
          <Output Type="Variable" Label="varJet2Eta" Expression="varJet2Eta"/>
          <Output Type="Variable" Label="varJet2Pt" Expression="varJet2Pt"/>
          <Output Type="Variable" Label="varMTVV" Expression="varMTVV"/>
          <Output Type="Variable" Label="varCen" Expression="varCen"/>
          <Output Type="Variable" Label="varDRV2j" Expression="varDRV2j"/>
          <Output Type="Variable" Label="varnormPTVVjj" Expression="varnormPTVVjj"/>
          <Output Type="Variable" Label="varFW2j" Expression="varFW2j"/>
        </Output>
      </Selection>
      <Class ClassIndex="0">
        <Ranges>
          <Range Index="0" Min="-1.0000000000000000e+00" Max="1.0000000000000000e+00"/>
          <Range Index="1" Min="-1.0000000000000000e+00" Max="9.9951171875000000e-01"/>
          <Range Index="2" Min="5.0002767944335938e+02" Max="7.0750996093750000e+03"/>
          <Range Index="3" Min="2.5007324218750000e+00" Max="8.6875000000000000e+00"/>
          <Range Index="4" Min="-4.6386718750000000e+00" Max="4.6894531250000000e+00"/>
          <Range Index="5" Min="5.0031250000000000e+01" Max="1.6860000000000000e+03"/>
          <Range Index="6" Min="-4.6582031250000000e+00" Max="4.6884765625000000e+00"/>
          <Range Index="7" Min="5.0000000000000000e+01" Max="1.2130000000000000e+03"/>
          <Range Index="8" Min="5.8350665283203125e+02" Max="4.0065954589843750e+03"/>
          <Range Index="9" Min="-1.9912719726562500e+00" Max="4.0808544158935547e+00"/>
          <Range Index="10" Min="1.2007284164428711e+00" Max="4.7620658874511719e+00"/>
          <Range Index="11" Min="9.0885261306539178e-04" Max="2.4731655418872833e-01"/>
          <Range Index="12" Min="1.2525311112403870e-01" Max="9.9952411651611328e-01"/>
        </Ranges>
      </Class>
      <Class ClassIndex="1">
        <Ranges>
          <Range Index="0" Min="-1.0000000000000000e+00" Max="9.9951171875000000e-01"/>
          <Range Index="1" Min="-1.0000000000000000e+00" Max="9.9951171875000000e-01"/>
          <Range Index="2" Min="5.0045034790039062e+02" Max="3.1715068359375000e+03"/>
          <Range Index="3" Min="2.5024414062500000e+00" Max="7.1630859375000000e+00"/>
          <Range Index="4" Min="-4.0400390625000000e+00" Max="3.9121093750000000e+00"/>
          <Range Index="5" Min="5.2000000000000000e+01" Max="1.1260000000000000e+03"/>
          <Range Index="6" Min="-4.2460937500000000e+00" Max="4.2587890625000000e+00"/>
          <Range Index="7" Min="5.0000000000000000e+01" Max="4.9525000000000000e+02"/>
          <Range Index="8" Min="5.8005749511718750e+02" Max="3.8760300292968750e+03"/>
          <Range Index="9" Min="-1.7420043945312500e+00" Max="3.0473022460937500e+00"/>
          <Range Index="10" Min="1.2038096189498901e+00" Max="3.6669819355010986e+00"/>
          <Range Index="11" Min="1.9505716627463698e-03" Max="2.4528732895851135e-01"/>
          <Range Index="12" Min="2.2725899517536163e-01" Max="9.9320447444915771e-01"/>
        </Ranges>
      </Class>
      <Class ClassIndex="2">
        <Ranges>
          <Range Index="0" Min="-1.0000000000000000e+00" Max="1.0000000000000000e+00"/>
          <Range Index="1" Min="-1.0000000000000000e+00" Max="1.0000000000000000e+00"/>
          <Range Index="2" Min="5.0003332519531250e+02" Max="6.1605927734375000e+03"/>
          <Range Index="3" Min="2.5002441406250000e+00" Max="8.2651367187500000e+00"/>
          <Range Index="4" Min="-4.6503906250000000e+00" Max="4.6611328125000000e+00"/>
          <Range Index="5" Min="5.1281250000000000e+01" Max="1.9440000000000000e+03"/>
          <Range Index="6" Min="-4.6552734375000000e+00" Max="4.6953125000000000e+00"/>
          <Range Index="7" Min="5.0000000000000000e+01" Max="9.4700000000000000e+02"/>
          <Range Index="8" Min="5.7938922119140625e+02" Max="3.0335588378906250e+03"/>
          <Range Index="9" Min="-2.1340026855468750e+00" Max="3.7065429687500000e+00"/>
          <Range Index="10" Min="1.2004469633102417e+00" Max="4.4494380950927734e+00"/>
          <Range Index="11" Min="2.9010453727096319e-04" Max="2.4942472577095032e-01"/>
          <Range Index="12" Min="1.2670148909091949e-01" Max="9.9940288066864014e-01"/>
        </Ranges>
      </Class>
      <Class ClassIndex="3">
        <Ranges>
          <Range Index="0" Min="-1.0000000000000000e+00" Max="1.0000000000000000e+00"/>
          <Range Index="1" Min="-1.0000000000000000e+00" Max="1.0000000000000000e+00"/>
          <Range Index="2" Min="5.0002767944335938e+02" Max="7.0750996093750000e+03"/>
          <Range Index="3" Min="2.5002441406250000e+00" Max="8.6875000000000000e+00"/>
          <Range Index="4" Min="-4.6503906250000000e+00" Max="4.6894531250000000e+00"/>
          <Range Index="5" Min="5.0031250000000000e+01" Max="1.9440000000000000e+03"/>
          <Range Index="6" Min="-4.6582031250000000e+00" Max="4.6953125000000000e+00"/>
          <Range Index="7" Min="5.0000000000000000e+01" Max="1.2130000000000000e+03"/>
          <Range Index="8" Min="5.7938922119140625e+02" Max="4.0065954589843750e+03"/>
          <Range Index="9" Min="-2.1340026855468750e+00" Max="4.0808544158935547e+00"/>
          <Range Index="10" Min="1.2004469633102417e+00" Max="4.7620658874511719e+00"/>
          <Range Index="11" Min="2.9010453727096319e-04" Max="2.4942472577095032e-01"/>
          <Range Index="12" Min="1.2525311112403870e-01" Max="9.9952411651611328e-01"/>
        </Ranges>
      </Class>
    </Transform>
  </Transformations>
  <MVAPdfs/>
  <Weights InputWidth="13" Depth="4" LossFunction="C" OutputFunction="M">
    <Layer ActivationFunction="2">
      <Weights rows="32" cols="13">
        -3.7028419971466064e-01 -7.9518043994903564e-01 -1.2080205678939819e+00 1.9146598875522614e-01 -7.3026537895202637e-02 -3.7519806623458862e-01 -2.7020466327667236e-01 -3.2562056183815002e-01 -2.2563795745372772e-01 -1.2198950350284576e-01 2.0082968473434448e-01 5.8074289560317993e-01 3.2624747604131699e-02 -5.0971228629350662e-02 9.9784396588802338e-02 5.5972152948379517e-01 3.9599560201168060e-02 -1.4115931093692780e-01 1.5216778218746185e-01 -2.7883103489875793e-01 2.2964689880609512e-02 4.4396612048149109e-01 6.6568784415721893e-02 -2.7850291132926941e-01 -1.0104732215404510e-01 4.5918244868516922e-02 1.8078333139419556e-01 -1.5431702136993408e-01 -3.1807419657707214e-01 -9.4950795173645020e-02 -2.2051349282264709e-01 8.8570557534694672e-02 -2.7421471476554871e-01 2.9330500960350037e-01 1.8508365750312805e-01 -4.5728631317615509e-02 1.9222104921936989e-02 -2.0266000926494598e-01 6.9327712059020996e-02 1.5656113624572754e-01 9.9851213395595551e-02 -4.4884407520294189e-01 -4.5170718431472778e-01 -2.3480838537216187e-01 1.2422522157430649e-01 -2.4802124500274658e-01 1.8963539600372314e-01 6.8039290606975555e-02 -5.0655007362365723e-01 -1.5294113755226135e-01 5.7558405399322510e-01 -1.0599017143249512e-01 2.4154802784323692e-02 -3.6549779772758484e-01 1.0133723914623260e-01 -1.3830492272973061e-02 -7.7905960381031036e-02 -1.2901282310485840e-01 6.0989828780293465e-03 -8.6665682494640350e-02 2.1554531157016754e-01 -2.0638166368007660e-01 -2.7678364515304565e-01 6.8084597587585449e-02 3.2264748215675354e-01 1.2961401045322418e-01 1.0205729305744171e-01 -4.1038730740547180e-01 2.2137340903282166e-01 2.9702398180961609e-01 -1.5221729874610901e-01 -7.5153902173042297e-02 1.0211254656314850e-01 -2.8689777851104736e-01 -3.4745579957962036e-01 6.9882564246654510e-02 2.7382779121398926e-01 2.3895120620727539e-01 1.7206008732318878e-01 -2.0367863774299622e-01 -3.8148183375597000e-02 -1.4849530160427094e-01 -3.6584254354238510e-02 1.8160444498062134e-01 2.0514184236526489e-01 -1.8232099711894989e-01 3.6564731597900391e-01 -2.8104729950428009e-02 1.4738577604293823e-01 -2.1282054483890533e-01 4.2514283210039139e-02 -5.3521627187728882e-01 -2.0009253919124603e-01 -1.0718547105789185e+00 -1.4624471962451935e-01 1.5801133215427399e-01 -2.4141083657741547e-01 2.2451840341091156e-01 -1.7162080109119415e-01 -5.1304811239242554e-01 -6.4265275001525879e-01 7.8010588884353638e-02 7.1839612722396851e-01 -1.0182724893093109e-01 -5.4759550839662552e-02 2.8849774599075317e-01 -6.4945653080940247e-02 -1.6072352230548859e-01 -1.2813727557659149e-01 -3.4207519143819809e-02 1.7342400550842285e-01 8.1755436956882477e-02 1.9802568852901459e-01 -4.1161730885505676e-01 -8.1165105104446411e-02 4.4477587938308716e-01 -2.4381259083747864e-01 4.8747190833091736e-01 1.0359709709882736e-01 -4.0054309368133545e-01 -3.5032367706298828e-01 -4.8637721687555313e-02 3.1878408789634705e-01 7.7640235424041748e-02 2.0889218151569366e-01 6.5366536378860474e-01 -6.6582816839218140e-01 1.6804744303226471e-01 7.7989202737808228e-01 -4.5162764191627502e-01 2.2694486379623413e-01 1.4033003151416779e-01 -6.7676508426666260e-01 -3.8107016682624817e-01 4.4456914067268372e-02 4.5191887021064758e-01 -1.2467192858457565e-01 -2.9800093173980713e-01 4.4073018431663513e-01 -6.6894680261611938e-01 1.2748000025749207e-01 4.7456297278404236e-01 3.0911965295672417e-02 4.8027908802032471e-01 2.1570132672786713e-01 4.4892737269401550e-01 1.6409829258918762e-01 1.2318961322307587e-01 1.1243653297424316e-01 1.1896961182355881e-01 1.0560388118028641e-01 3.6897358298301697e-01 -9.9567025899887085e-03 -2.6990169286727905e-01 3.1144809722900391e-01 -1.0626434348523617e-02 -4.8493322730064392e-01 -5.5912971496582031e-01 -4.2394566535949707e-01 -1.0660390555858612e-01 -7.6404497027397156e-02 -2.5309562683105469e-01 -2.5398712605237961e-02 -4.6210488677024841e-01 -2.5598514080047607e-01 -1.1782836169004440e-01 5.5238939821720123e-02 -6.3961640000343323e-02 -7.3237493634223938e-02 3.2296159863471985e-01 3.3683082461357117e-01 2.5110751390457153e-01 -3.9625659584999084e-02 -2.8573187068104744e-02 -1.2081854790449142e-01 2.3281891644001007e-01 3.9939597249031067e-01 2.9823654890060425e-01 -1.3840563595294952e-01 1.2368305027484894e-01 -2.9262456297874451e-01 -1.9296519458293915e-02 3.7098076194524765e-02 7.9307079315185547e-02 6.8865591287612915e-01 -2.9718086123466492e-01 -2.7803459763526917e-01 1.0358940809965134e-01 2.5081685185432434e-01 -6.6875770688056946e-02 5.3671640157699585e-01 3.4510263800621033e-01 -3.6732655763626099e-01 2.3367150127887726e-01 -2.5993704795837402e-01 2.9113847017288208e-01 2.5032085180282593e-01 2.8921931982040405e-01 -3.2361796498298645e-01 -2.2826384752988815e-02 -1.0802345350384712e-02 9.9366754293441772e-02 4.6414732933044434e-01 6.1844366788864136e-01 -1.9550465047359467e-01 -2.5062006711959839e-01 2.8030177950859070e-01 -1.1201146990060806e-02 3.5211336612701416e-01 2.2933934628963470e-01 4.1414827108383179e-01 1.2091725319623947e-01 3.3197276294231415e-02 3.6296885460615158e-02 1.8879874050617218e-01 3.5844478011131287e-01 6.9741010665893555e-01 6.3212074339389801e-02 -3.3529242873191833e-01 -2.5968334078788757e-01 -3.6790460348129272e-02 5.1423199474811554e-02 -2.6621565222740173e-01 -4.0917977690696716e-02 -2.5702136754989624e-01 2.3629097640514374e-01 -1.9024191796779633e-01 -1.1926129460334778e-02 2.1728128194808960e-01 2.7361190319061279e-01 -2.0484449341893196e-02 3.1461474299430847e-01 3.5231691598892212e-01 1.7618474364280701e-01 2.8421914577484131e-01 -9.9206998944282532e-02 7.3264795541763306e-01 6.5207496285438538e-02 2.8340104222297668e-01 3.1160193681716919e-01 1.4124564826488495e-01 2.3199243843555450e-01 -6.0292049311101437e-03 1.3210265338420868e-01 -3.7768095731735229e-01 -3.9977955818176270e-01 -8.2018360495567322e-02 9.0867616236209869e-02 -3.1543567776679993e-01 1.8645892851054668e-03 3.1661469489336014e-02 1.6058586537837982e-01 -2.8617280721664429e-01 -1.2632483243942261e-01 5.6701009161770344e-03 -2.4002440273761749e-02 -3.2255923748016357e-01 -1.3988736271858215e-01 2.5234597921371460e-01 -2.8236585855484009e-01 9.1846056282520294e-02 4.1285717487335205e-01 1.2858086824417114e+00 8.0158673226833344e-02 2.3501802980899811e-01 1.2812320888042450e-01 -2.2295238077640533e-01 5.3173136711120605e-01 -1.6088357567787170e-01 6.6352337598800659e-01 -1.0150132328271866e-01 -6.9124329090118408e-01 2.9965800046920776e-01 2.6058533787727356e-01 -1.4344707131385803e-01 2.8610289096832275e-01 4.1628265380859375e-01 -5.6141950190067291e-02 -1.2683224678039551e-01 1.2891426682472229e-01 -2.4529926478862762e-01 -3.5767129063606262e-01 2.3289465904235840e-01 6.5548047423362732e-02 5.9323176741600037e-02 1.4073041081428528e-01 3.0670398473739624e-01 3.0618086457252502e-01 -9.5860980451107025e-02 -1.9481349736452103e-02 -2.1055428683757782e-01 1.2611435353755951e-01 -2.2814042866230011e-01 -2.2331723570823669e-01 -9.0797379612922668e-02 2.4707311391830444e-01 1.8508292734622955e-02 2.1684916317462921e-01 -1.9919338822364807e-01 -1.7041498422622681e-01 -2.7419755235314369e-02 7.5893938541412354e-01 6.9505833089351654e-02 -1.3452874124050140e-01 -7.0572331547737122e-02 -2.4553310871124268e-01 1.2069681286811829e-01 9.1426327824592590e-02 6.6308301687240601e-01 2.3926913738250732e-01 -6.1243844032287598e-01 -1.8911132216453552e-01 -3.4241092205047607e-01 -2.9770037531852722e-01 -5.8609670400619507e-01 -4.6551680564880371e-01 1.1166358739137650e-01 -2.4744725227355957e-01 1.2317270040512085e-01 -6.7013883590698242e-01 4.2112868279218674e-02 -4.9515160918235779e-01 2.4922873079776764e-01 8.2814031839370728e-01 -3.8398835808038712e-02 -3.2538545131683350e-01 -4.0960785001516342e-02 1.6752932965755463e-01 5.3596448898315430e-01 1.9708549976348877e-01 -1.2180394679307938e-01 1.3972988724708557e-01 3.2146528363227844e-01 -4.9304947257041931e-01 5.9052202850580215e-02 -2.9950273036956787e-01 -4.7329249978065491e-01 1.0602110624313354e-01 2.3205773532390594e-01 -1.2278698384761810e-01 -8.2606679201126099e-01 -4.5414008200168610e-02 -1.0463673621416092e-01 -4.4177573174238205e-02 3.2664856314659119e-01 -2.5504687428474426e-01 2.2192901372909546e-01 -2.2563482820987701e-01 -2.9856218025088310e-02 5.8648401498794556e-01 -1.6436339914798737e-01 3.7946370244026184e-01 -1.7900520563125610e-01 8.0963844060897827e-01 9.8735027015209198e-02 -1.4036495983600616e-01 -2.7221015095710754e-01 -1.1169460415840149e-01 2.8346240520477295e-01 3.6919778585433960e-01 3.3067613840103149e-01 -4.7718968242406845e-02 -7.8238874673843384e-02 4.6324342489242554e-02 -5.3982079029083252e-02 1.5575332939624786e-01 1.2309083342552185e-01 3.9996784925460815e-01 2.0326727628707886e-01 2.5044837594032288e-01 2.7660354971885681e-02 3.8529589772224426e-01 4.4180024415254593e-02 1.3629211485385895e-01 2.7631255984306335e-01 -1.0311287641525269e-01 2.6974963024258614e-02 -1.8879349529743195e-01 -2.3574912548065186e-01 -2.9612493515014648e-01 5.3552669286727905e-01 7.5131714344024658e-02 -3.7326073646545410e-01 2.3502866923809052e-01 1.0410034656524658e-01 -1.8415747582912445e-01 5.6003588438034058e-01 2.9939657449722290e-01 -2.9565903544425964e-01 1.8654704093933105e-01 -2.2449187934398651e-01 4.4560283422470093e-02 5.0945693254470825e-01 3.9046078454703093e-03 -2.6260596513748169e-01 -2.6956412196159363e-01 -3.6438989639282227e-01 -1.3646546006202698e-01 -3.0579477548599243e-01 3.9381006360054016e-01 6.5157443284988403e-02 -3.0482527613639832e-01 -1.4136958122253418e-01 1.2294314056634903e-01 2.1635790169239044e-01 5.9330195188522339e-01 8.6236879229545593e-02 -3.0815443396568298e-01 3.2073611021041870e-01 -1.2292529642581940e-01 1.1213853210210800e-01 4.6544688940048218e-01 3.1006523966789246e-01 -9.0843467041850090e-03 -3.9913168549537659e-01 8.0617427825927734e-02 
      </Weights>
      <Biases rows="32" cols="1">
        -2.2375810146331787e-01 3.5095900297164917e-02 -5.3207099437713623e-02 -1.0258755832910538e-01 -4.0392961353063583e-02 -7.7229447662830353e-02 -3.9947971701622009e-02 -3.1004372239112854e-01 -7.4261374771595001e-02 -2.1552953869104385e-02 -1.3485507667064667e-01 -1.8248915672302246e-02 -1.5640741586685181e-01 -7.1737691760063171e-02 1.0428390651941299e-01 6.9077380001544952e-02 2.7460981160402298e-02 -3.8478195667266846e-02 5.0663258880376816e-02 -7.4089795351028442e-02 2.3592284321784973e-01 -2.5078022852540016e-02 -7.7941462397575378e-02 3.8176044821739197e-02 -1.5360422432422638e-01 3.3736277371644974e-02 -1.6151861846446991e-01 1.1885773390531540e-01 1.9224364310503006e-02 6.8088121712207794e-02 -5.5224008858203888e-02 4.3897975236177444e-02 
      </Biases>
    </Layer>
    <Layer ActivationFunction="3">
      <Weights rows="32" cols="32">
        4.9853824079036713e-02 -1.0732085257768631e-01 -1.3081441819667816e-01 2.4941129982471466e-01 -1.0148999094963074e-01 1.3979444280266762e-02 -4.6610359102487564e-02 2.3710988461971283e-01 2.7486047148704529e-01 4.2766284942626953e-01 2.8661057353019714e-01 1.5328229963779449e-01 -3.9311457425355911e-02 3.5472024232149124e-02 9.2360094189643860e-02 7.0568837225437164e-02 -2.1190922707319260e-02 4.9310352653264999e-02 -3.9857227355241776e-02 -2.5372716784477234e-01 -3.2479616999626160e-01 1.3836120069026947e-01 -5.6055475026369095e-02 -4.3541672825813293e-01 2.2275359928607941e-01 -1.8181942403316498e-01 2.7925652265548706e-01 -1.9823867082595825e-01 -2.0778802037239075e-01 -2.5826957821846008e-01 -2.3507265746593475e-01 3.7079653702676296e-03 -1.5917710959911346e-01 1.8962082266807556e-01 1.2711872160434723e-01 -1.2867020070552826e-01 4.0963818319141865e-03 -2.3422075808048248e-01 6.7154192365705967e-03 5.2758071571588516e-02 -1.2214495800435543e-02 -2.6575425267219543e-01 -2.9952976107597351e-01 -1.5021817386150360e-01 1.6065834090113640e-02 -2.0527204871177673e-01 1.6098436713218689e-01 -8.5614711046218872e-02 -1.6023777425289154e-01 -1.5783794224262238e-01 2.0682112872600555e-01 -2.5797344744205475e-02 1.3717587292194366e-01 -1.6300921142101288e-01 -9.1931940987706184e-03 4.5565653592348099e-02 -1.0387951880693436e-01 -4.9580885097384453e-03 -4.0119528770446777e-02 -4.2473867535591125e-02 1.5558423101902008e-01 -6.5261535346508026e-02 -1.5151230990886688e-01 1.0277486592531204e-01 2.5308126211166382e-01 4.8454411327838898e-02 1.1576072871685028e-01 -4.7983538359403610e-02 3.9959024637937546e-02 2.6088356971740723e-01 -7.6253630220890045e-02 8.1029735505580902e-02 1.6061970591545105e-01 -1.0592100024223328e-01 -1.3854618370532990e-01 -1.1083965748548508e-01 7.6111607253551483e-02 2.4993905797600746e-02 -1.9945908337831497e-02 -3.6117619276046753e-01 -2.5602018833160400e-01 -1.5056243538856506e-01 -1.4149598777294159e-01 1.7889598384499550e-02 -2.5757897645235062e-02 -1.1600555479526520e-01 1.5675072371959686e-01 -1.7799685895442963e-01 1.6652043163776398e-01 -1.2318888306617737e-01 9.0557351708412170e-02 -3.3488243818283081e-01 5.9502918273210526e-02 -1.5404200553894043e-01 -1.1939816921949387e-01 -7.1694605052471161e-02 -2.1591293811798096e-01 2.5912204384803772e-01 1.2901251018047333e-01 -1.0257560014724731e-01 -2.0072630047798157e-01 -1.1982411146163940e-01 1.4574073255062103e-01 -1.1371474713087082e-01 5.5741127580404282e-02 3.9590069651603699e-01 1.5217423439025879e-01 7.5077623128890991e-02 -1.3880150020122528e-01 -4.3708376586437225e-02 2.0570144057273865e-01 1.7758828401565552e-01 6.0778073966503143e-02 -7.9955667257308960e-02 -8.1781096756458282e-02 1.0441640019416809e-01 -1.5907828509807587e-01 1.1358465999364853e-01 -5.6012496352195740e-02 -2.2926753759384155e-01 4.3826773762702942e-02 -1.3223950564861298e-01 5.1480751484632492e-02 3.8258775603026152e-03 1.4749178290367126e-01 -4.3795242905616760e-02 -2.6373875141143799e-01 1.7027512192726135e-01 4.6291169524192810e-01 -1.9160160422325134e-01 1.4967380464076996e-01 2.8466820716857910e-01 -1.6988056898117065e-01 1.0098762810230255e-01 1.1369691044092178e-01 4.5965281128883362e-01 -2.2152755409479141e-02 1.3196116685867310e-01 3.6359539628028870e-01 -2.1788528561592102e-01 1.3389746844768524e-01 -2.3088252171874046e-02 -1.9931536167860031e-02 8.0328267067670822e-03 -1.5612819790840149e-01 1.7096228897571564e-01 -5.1086876541376114e-02 9.5328919589519501e-02 -3.0388578772544861e-01 7.8198894858360291e-02 -3.8874670863151550e-02 -3.0346709489822388e-01 2.1684873104095459e-01 -2.5609952211380005e-01 3.0268636345863342e-01 -1.6892202198505402e-01 -1.8284401297569275e-01 -3.0812004208564758e-01 -5.9686686843633652e-02 -2.8411319851875305e-01 -5.3415498696267605e-03 -6.2429450452327728e-02 3.8185458630323410e-02 -1.5084849298000336e-01 6.1004206538200378e-02 4.2005907744169235e-03 -8.0091068521142006e-03 -1.0010813176631927e-01 -1.0854528099298477e-01 2.4961970746517181e-01 2.1503332257270813e-01 -1.0971301794052124e-01 -1.4515328221023083e-02 7.1899622678756714e-02 -1.6029369831085205e-01 1.7846649885177612e-01 9.7415804862976074e-02 2.5117246434092522e-02 -1.3561613857746124e-01 7.9402580857276917e-02 -1.5910202264785767e-01 2.2534698247909546e-02 -7.0750460028648376e-02 -1.3186600804328918e-01 2.4483644962310791e-01 -1.4294318854808807e-01 -1.7342160642147064e-01 2.6305220089852810e-03 1.6225124895572662e-01 -1.6047149896621704e-01 1.2664127349853516e-01 2.2505402565002441e-01 -2.3744457960128784e-01 1.4849196374416351e-01 -1.8296530842781067e-01 1.7066016793251038e-02 5.3119556978344917e-03 1.7759779002517462e-03 -3.4567017108201981e-02 -9.2073410749435425e-02 -1.3045133650302887e-01 1.0773345129564404e-03 1.2876144051551819e-01 1.1287220567464828e-01 -8.0448210239410400e-02 -1.2625704705715179e-01 1.5421940945088863e-02 2.0404651761054993e-02 1.4152446389198303e-01 -1.0650692507624626e-02 -3.9635054767131805e-02 9.4350270926952362e-02 6.0451585799455643e-02 -7.6388515532016754e-02 8.6470909416675568e-02 5.2366413176059723e-02 1.0725484043359756e-01 6.7101586610078812e-03 -2.1592222154140472e-01 -1.2200223654508591e-01 -2.9649047646671534e-03 7.0842981338500977e-02 -1.7106550931930542e-01 1.3627921231091022e-02 -1.9855940341949463e-01 1.8486659228801727e-01 -1.3718296587467194e-01 8.4772170521318913e-04 1.7944270372390747e-01 1.1739300936460495e-01 2.7086731046438217e-02 1.1863864958286285e-01 1.7642353475093842e-01 1.4270010590553284e-01 1.7100688815116882e-01 -3.5759080201387405e-02 1.7628122866153717e-01 2.9856313019990921e-02 2.4597030878067017e-01 2.7044364809989929e-01 1.6416737437248230e-01 1.0422941297292709e-02 -5.8422084897756577e-02 -2.5420421734452248e-02 -1.3404208421707153e-01 -1.4110480248928070e-01 -7.7596187591552734e-02 1.2311073392629623e-01 -1.6037829220294952e-01 4.3879803270101547e-02 3.0070194974541664e-02 1.3861468434333801e-01 -1.9085502624511719e-01 -1.0601718723773956e-01 -3.6199647933244705e-02 4.3707199394702911e-02 -1.8327073752880096e-01 -6.6636525094509125e-02 2.0152788609266281e-02 -2.0285595953464508e-01 -4.1834115982055664e-02 4.1351858526468277e-02 1.5197196602821350e-01 -1.5365870296955109e-01 1.9374415278434753e-01 1.6128315031528473e-01 -1.8427190184593201e-01 9.0888947248458862e-02 -2.1648547053337097e-01 1.2621456384658813e-01 1.2771059572696686e-01 1.1822945624589920e-01 2.3052546381950378e-01 1.8700845539569855e-01 -4.5924667268991470e-02 1.7364671826362610e-01 2.1341545879840851e-01 -9.9421449005603790e-02 -1.2512367963790894e-01 1.2602496147155762e-01 -1.9683171808719635e-01 -1.4928585290908813e-01 3.4115137532353401e-03 1.0660962015390396e-01 1.3020421564579010e-01 4.1142906993627548e-02 1.5131881833076477e-01 2.2847644984722137e-01 -1.6014564037322998e-01 1.2668022885918617e-02 -1.3691687583923340e-01 -4.0745478123426437e-02 -1.1310066282749176e-01 -2.9892635345458984e-01 -1.7124347388744354e-01 2.1607486531138420e-02 -2.5747086852788925e-02 5.4747872054576874e-02 -2.0717427134513855e-01 -1.9600413739681244e-02 -5.0933472812175751e-02 9.8373524844646454e-02 -4.4218394905328751e-02 5.1438480615615845e-02 4.6236280351877213e-02 -1.9991454482078552e-01 -6.0424640774726868e-02 9.0819723904132843e-02 2.9158821702003479e-01 1.4662757515907288e-01 -9.1861084103584290e-02 -3.7489600479602814e-02 -2.4269737303256989e-01 -5.2122365683317184e-02 2.3590045049786568e-02 -7.0155777037143707e-02 5.4803058505058289e-02 -1.5846726298332214e-01 6.3577190041542053e-02 -1.2785829603672028e-01 1.1824747174978256e-01 -1.7181618511676788e-01 6.6601730883121490e-02 2.1957315504550934e-01 -8.2414850592613220e-02 -2.9154518619179726e-02 7.2297945618629456e-02 1.8996195495128632e-01 1.8810822069644928e-01 1.1624947935342789e-01 9.3399234116077423e-02 4.2719677090644836e-02 2.0270337164402008e-01 -2.4906292557716370e-01 -2.2475418448448181e-01 -4.1809552907943726e-01 -2.8757727146148682e-01 1.8580619245767593e-02 3.6430526524782181e-02 -8.8828697800636292e-02 -3.3206090331077576e-01 1.4452667534351349e-01 -1.0498509556055069e-01 -2.4678729474544525e-01 2.8970769047737122e-01 -7.6471485197544098e-02 2.4432477355003357e-01 -1.0931249707937241e-01 -8.1510096788406372e-02 2.4465413764119148e-02 -1.0606867820024490e-01 7.2866022586822510e-02 -2.9396131634712219e-01 2.9307889938354492e-01 2.7497563511133194e-02 -7.0953615009784698e-02 -1.7851692438125610e-01 -1.7628942430019379e-01 -3.8559306412935257e-03 -1.5430904924869537e-02 1.2966391444206238e-01 1.6975773870944977e-01 1.3995151221752167e-01 1.1017776280641556e-01 -1.0551564395427704e-01 1.4180813729763031e-01 -2.2026263177394867e-02 3.4142726659774780e-01 2.5910562276840210e-01 1.9755892455577850e-01 9.5940791070461273e-02 1.2824155390262604e-01 5.9143792837858200e-02 -2.0108842849731445e-01 1.4242504537105560e-01 7.9978421330451965e-02 -1.0373983532190323e-01 -1.1532562971115112e-01 -1.8729653954505920e-01 -9.8586201667785645e-02 1.2853355705738068e-01 -9.9561519920825958e-02 -1.8729729950428009e-01 2.7056849002838135e-01 2.0353251695632935e-01 1.6557499766349792e-01 2.2811231017112732e-01 2.5727504491806030e-01 -3.8992717862129211e-02 1.8975874781608582e-01 3.3019632101058960e-02 2.8482812643051147e-01 1.5943315625190735e-01 -5.5814683437347412e-02 -1.8554996699094772e-02 -1.6953310370445251e-01 -1.5011772513389587e-01 -1.8616499006748199e-01 -1.2445110082626343e-01 -4.8141900449991226e-02 -5.4422628134489059e-02 6.1847776174545288e-02 -3.1519088149070740e-01 -2.0039713010191917e-02 -1.6552260518074036e-01 2.1943147294223309e-03 4.2971476912498474e-02 -3.8402119278907776e-01 2.8149488568305969e-01 -1.9262620806694031e-01 -3.0272111296653748e-02 -7.5245961546897888e-02 4.9103140830993652e-02 -2.4257855489850044e-02 -1.8565598130226135e-01 -5.3700003772974014e-02 -1.9960682094097137e-01 -1.9269227981567383e-01 -1.5084952116012573e-01 -1.8424999713897705e-01 1.4281708002090454e-01 -1.4399345219135284e-01 -4.6812791377305984e-02 1.9597886502742767e-01 1.4449317753314972e-01 7.7619906514883041e-03 -1.5574115514755249e-01 -6.2104534357786179e-02 -1.3873694837093353e-01 -1.7504842579364777e-01 -1.2071444839239120e-01 -2.0648884773254395e-01 -1.5335517935454845e-02 7.7871218323707581e-02 -1.7408092319965363e-01 -1.3896507211029530e-02 1.0330902785062790e-01 -5.8926913887262344e-02 -8.5271038115024567e-02 -2.2835157811641693e-01 -9.2896550893783569e-02 -2.6899250224232674e-02 7.0397377014160156e-02 -1.6211505979299545e-02 -1.1244090646505356e-01 -5.9570600278675556e-03 -2.1451960504055023e-01 -1.6434471309185028e-01 2.7438575029373169e-01 -2.3496337234973907e-01 1.2226013094186783e-01 -1.8510256707668304e-01 -1.2935063242912292e-01 1.1529013514518738e-01 7.7157139778137207e-02 2.8021779656410217e-01 -1.6860570013523102e-01 -2.6333850622177124e-01 4.6413477510213852e-02 -3.4393176436424255e-01 1.0510089248418808e-01 -2.3311118781566620e-01 -3.3673435449600220e-01 -2.1267727017402649e-01 -3.1383877992630005e-01 -1.0757005214691162e-01 -2.8493521735072136e-02 4.2177930474281311e-02 -2.2081361711025238e-01 6.7550405859947205e-02 -2.1124605089426041e-02 -4.2719714343547821e-02 4.5902971178293228e-02 2.4162431061267853e-01 1.5556862950325012e-01 -2.4515219032764435e-01 -6.9134093821048737e-02 3.1532189249992371e-01 1.0778290778398514e-01 -1.5233802795410156e-01 5.3105037659406662e-02 2.2384889423847198e-02 3.8758229464292526e-02 -5.5015571415424347e-03 -1.6384201124310493e-02 -4.2707163840532303e-02 6.1944834887981415e-02 7.0598572492599487e-02 -5.5899307131767273e-02 -3.8271775841712952e-01 -4.0653035044670105e-01 -1.3015383481979370e-01 -1.2841916084289551e-01 -6.0862530022859573e-02 1.1096235364675522e-01 1.7651860415935516e-01 6.1794761568307877e-02 7.3184050619602203e-02 1.6364878416061401e-01 -8.8265717029571533e-02 2.3973581194877625e-01 2.8497897088527679e-02 -3.6983512341976166e-02 1.1902961134910583e-01 -2.8580674529075623e-01 2.3039880394935608e-01 -7.2996050119400024e-02 -2.5210663676261902e-02 1.6931191086769104e-01 -1.1259580962359905e-02 2.5716581940650940e-01 2.8964826464653015e-01 1.6995474696159363e-01 -4.6267285943031311e-03 -1.4066572487354279e-01 -1.1002714186906815e-01 4.0241070091724396e-02 7.6509170234203339e-02 7.6699025928974152e-02 -2.7508464455604553e-01 -1.8917034566402435e-01 -9.1208048164844513e-02 -9.3794785439968109e-02 -9.9385147914290428e-03 1.0223130136728287e-01 1.0066471993923187e-01 -1.4315137267112732e-01 -9.9364832043647766e-02 7.1379989385604858e-03 -5.4982431232929230e-02 2.0025782287120819e-01 2.3987145721912384e-01 7.7970802783966064e-02 1.1337324231863022e-01 -1.4842234551906586e-01 1.0113752633333206e-01 -2.0288689434528351e-01 4.2440116405487061e-02 -2.4671161174774170e-01 2.4426333606243134e-01 1.9734136760234833e-01 1.1223058402538300e-01 1.6952915489673615e-01 1.3201242685317993e-01 5.5498134344816208e-02 -6.1536625027656555e-02 8.8929273188114166e-02 1.1485163122415543e-01 6.5422907471656799e-02 -6.2379132956266403e-02 8.5310675203800201e-02 -2.7664387226104736e-01 1.6281092166900635e-01 1.3632465898990631e-01 -1.8180663883686066e-01 -1.0408029705286026e-01 8.6845703423023224e-02 -8.4606803953647614e-02 6.1499819159507751e-02 1.1347720026969910e-01 1.3008344173431396e-01 -1.0534748435020447e-01 6.3747018575668335e-02 -1.3875937089323997e-02 1.6236709058284760e-01 5.0914153456687927e-02 1.0879905521869659e-01 1.9709941744804382e-01 1.1945896595716476e-01 3.6291617900133133e-02 -1.0372469574213028e-01 1.1481597274541855e-01 1.9786965847015381e-01 -2.1976073086261749e-01 7.5239643454551697e-02 2.8097203373908997e-01 1.5116751194000244e-01 -1.7541125416755676e-01 -1.7135518789291382e-01 1.1460363119840622e-01 2.1790478378534317e-02 3.3899086713790894e-01 -1.3648781180381775e-01 3.8250380754470825e-01 -1.9629558920860291e-01 1.8676351755857468e-02 1.4551779627799988e-01 -1.7785367369651794e-01 8.3533547818660736e-02 -2.9741266369819641e-01 -2.6442918181419373e-01 -3.1661689281463623e-01 -3.6903110146522522e-01 8.4232762455940247e-03 -4.1157579421997070e-01 8.7533481419086456e-02 -2.4453787505626678e-01 -2.7588041499257088e-02 2.4648750200867653e-02 -6.2952138483524323e-02 2.8791514039039612e-01 2.8900392353534698e-03 1.2919598817825317e-01 -1.4987620711326599e-01 7.1999572217464447e-02 1.0525271296501160e-01 2.0529076457023621e-02 -2.2558474540710449e-01 -2.2157409787178040e-01 1.5872591733932495e-01 -4.4550240039825439e-02 -3.3845362067222595e-01 2.0611127838492393e-02 5.3568523377180099e-02 -6.9251939654350281e-02 -2.4539972841739655e-01 -5.7334225624799728e-02 -3.6205106973648071e-01 -2.6779830455780029e-01 6.1175446026027203e-03 -1.1350417882204056e-01 -1.5457126498222351e-01 4.8986341804265976e-02 -6.5540798008441925e-02 -1.4041799306869507e-01 -1.2140209972858429e-01 2.8512051701545715e-01 1.2205741554498672e-01 3.6586034297943115e-01 1.0116616636514664e-01 7.2812840342521667e-02 5.0607609748840332e-01 -1.7257305979728699e-01 8.2408748567104340e-02 -2.4174162745475769e-01 2.2038336098194122e-01 2.1089087426662445e-01 1.9258898496627808e-01 1.4813141897320747e-02 1.5555796027183533e-01 7.4217833578586578e-02 -1.2097551673650742e-01 8.0776475369930267e-03 1.8018047511577606e-01 1.3616682589054108e-01 7.1086831390857697e-02 5.8206491172313690e-02 -5.7400133460760117e-02 7.0740260183811188e-02 2.8732699155807495e-01 1.8860688805580139e-01 1.8166361749172211e-01 -9.0965837240219116e-02 -3.6770801991224289e-02 1.9116988778114319e-01 2.3403896391391754e-01 2.5852860882878304e-02 1.2988025322556496e-02 -3.3248707652091980e-02 -1.0930493474006653e-01 -9.5269687473773956e-02 -2.0174130797386169e-01 1.5719312429428101e-01 -2.4403913319110870e-01 1.4471997320652008e-01 -3.1434366106987000e-01 -1.4037970453500748e-02 -7.4524268507957458e-02 -3.8774721324443817e-03 2.1955933421850204e-02 -1.7530913650989532e-01 -1.7513345181941986e-01 -4.0543371438980103e-01 1.4614094793796539e-01 -2.2390890866518021e-02 1.5739360451698303e-01 2.2999301552772522e-01 -1.3967144489288330e-01 1.1219606548547745e-01 -3.1142172217369080e-01 -9.5776893198490143e-02 3.1044238805770874e-01 3.2175324857234955e-02 3.8187289237976074e-01 -1.9595007598400116e-01 2.5661984086036682e-01 4.0928220748901367e-01 2.5573143362998962e-01 1.7308910191059113e-01 -5.6575477123260498e-02 3.3440098166465759e-01 6.0312911868095398e-02 4.1342830657958984e-01 -2.5479128956794739e-01 7.6497845351696014e-02 6.1727773398160934e-02 -1.2622384727001190e-01 -1.1410006135702133e-01 -3.0191209912300110e-01 4.2194333672523499e-01 -1.7929221689701080e-01 -2.0621468126773834e-01 -1.0799398273229599e-01 3.1827703118324280e-01 1.5089428424835205e-01 3.7287414073944092e-02 4.9109064042568207e-02 1.2213787063956261e-02 1.4872870407998562e-02 -8.3996571600437164e-02 2.2003207355737686e-02 1.2295444309711456e-01 -5.8910381048917770e-02 9.9447771906852722e-02 7.0524804294109344e-02 -1.3071861863136292e-01 -9.1928318142890930e-02 -2.0761400461196899e-01 1.3563166558742523e-01 -1.1366733908653259e-01 -5.4901139810681343e-03 1.7160856723785400e-01 -1.9684292376041412e-01 1.6890068352222443e-01 9.4517193734645844e-02 -3.2307982444763184e-02 2.6093894615769386e-02 1.4119337312877178e-02 5.6720387190580368e-02 3.9433855563402176e-02 -2.1331655979156494e-01 -2.8160691261291504e-02 9.6530415117740631e-02 1.7866624891757965e-01 1.1088581383228302e-01 -1.7242619395256042e-01 1.3542689383029938e-02 -1.0789151489734650e-01 -6.4756507053971291e-03 -1.8925401568412781e-01 1.9971723854541779e-01 -9.6950702369213104e-02 1.1129199713468552e-01 7.3879115283489227e-02 -2.0085508003830910e-02 -7.0924222469329834e-02 -3.0012613534927368e-01 -6.7575901746749878e-02 2.2690401971340179e-01 2.0582174882292747e-02 -1.9767235219478607e-01 -1.8277861177921295e-01 -2.1527640521526337e-01 -1.8443448841571808e-01 -7.8902401030063629e-02 -3.5935722291469574e-02 2.2204771637916565e-01 2.2785761952400208e-01 1.6103549301624298e-01 3.0590006709098816e-01 -2.1445783972740173e-01 2.2406497597694397e-01 -1.5801206231117249e-01 -1.7535148561000824e-01 1.0737259872257710e-02 4.2517956346273422e-02 1.5698069334030151e-01 3.5580165684223175e-02 1.8394547700881958e-01 -1.1986885219812393e-01 -5.8614928275346756e-03 -2.1742684766650200e-02 -1.0782393813133240e-01 2.7686047554016113e-01 7.1792826056480408e-02 1.1479131132364273e-01 7.7590167522430420e-02 4.7760808467864990e-01 4.5176619291305542e-01 -1.3645559549331665e-02 -1.8203885853290558e-01 -8.8308937847614288e-02 2.1620754897594452e-01 4.2108748108148575e-02 5.7682376354932785e-02 6.7000769078731537e-02 -5.9738080948591232e-02 3.3947769552469254e-02 -5.0444066524505615e-01 -2.8890597820281982e-01 -3.2090287655591965e-02 -1.9691392779350281e-01 2.7685475349426270e-01 -3.4571763873100281e-01 2.4809351563453674e-01 -2.5573149323463440e-01 -2.4997965991497040e-01 -4.4058749079704285e-01 -2.4926829338073730e-01 -2.0463490858674049e-02 -1.4900605380535126e-01 5.1830291748046875e-02 -6.0899939388036728e-02 4.7749664634466171e-02 9.4729848206043243e-03 2.7159970998764038e-01 3.3915815874934196e-03 1.9046482443809509e-01 1.4699101448059082e-01 3.0876582860946655e-01 2.1922703087329865e-01 8.5617169737815857e-02 1.4878439903259277e-01 -1.9406290352344513e-01 6.8275831639766693e-02 -1.6167052090167999e-01 6.2522754073143005e-02 -1.4588066935539246e-01 8.9274950325489044e-02 1.1118379235267639e-01 -1.0046081244945526e-01 2.8412360697984695e-02 -2.4638631939888000e-01 -1.6057305037975311e-01 1.6364142298698425e-01 -1.5210780501365662e-01 6.1585329473018646e-02 -2.8483808040618896e-01 4.0687650442123413e-02 -1.2431042641401291e-01 -2.1712462604045868e-01 -2.7462375164031982e-01 -1.6087953746318817e-01 -3.0182154849171638e-02 1.4752160012722015e-01 -3.2380333542823792e-01 2.8959201648831367e-02 -9.8619110882282257e-02 -1.0943479835987091e-01 -2.8690603375434875e-01 -2.6163843274116516e-01 -4.0394905209541321e-01 -3.4853363037109375e-01 2.5542920455336571e-02 -2.4289773777127266e-02 1.2751908600330353e-01 1.4436289668083191e-01 -5.7706754654645920e-02 2.2056683897972107e-01 -2.0197477936744690e-01 2.0025166869163513e-01 -6.1980903148651123e-02 4.3942865729331970e-01 1.7686530947685242e-01 4.4808506965637207e-02 3.0533212423324585e-01 -3.0241382122039795e-01 7.5343452394008636e-02 -2.5441285967826843e-01 1.9710707664489746e-01 1.4682748913764954e-01 2.8622528910636902e-01 2.4275118112564087e-01 2.2513521835207939e-02 1.9648462533950806e-02 -1.2969990074634552e-01 -1.5067799389362335e-01 2.1175848320126534e-02 1.3127638399600983e-01 1.0461408644914627e-01 8.9954398572444916e-02 2.2135083377361298e-01 -1.7821832001209259e-01 3.7430231459438801e-03 3.5673066973686218e-02 1.1790900677442551e-01 3.0430995393544436e-03 -1.5680836141109467e-01 -1.2216476351022720e-01 8.0349057912826538e-02 -2.3367893695831299e-01 -9.3703620135784149e-02 3.8680080324411392e-02 5.8790247887372971e-02 1.0387259721755981e-01 -1.0338413715362549e-01 -9.9385283887386322e-02 -1.2578590214252472e-01 -4.1223466396331787e-02 -8.4530435502529144e-02 -1.3364815711975098e-01 -5.0326354801654816e-02 1.2862694263458252e-01 1.9898673892021179e-01 1.9359803199768066e-01 -1.0230488330125809e-01 -6.9092385470867157e-02 1.5004658699035645e-01 -1.2563376128673553e-01 -3.2887578010559082e-02 -1.7427568137645721e-01 -1.7302438616752625e-02 1.4246839284896851e-01 -2.3423108458518982e-01 -1.3232159614562988e-01 1.4797024428844452e-01 -3.7178061902523041e-02 6.1330772936344147e-02 -1.1933657526969910e-01 5.3613081574440002e-02 2.5722566246986389e-01 3.1983140110969543e-01 -6.7371569573879242e-02 1.1232054233551025e-01 -1.4305840432643890e-01 -4.7139216214418411e-02 1.2287539988756180e-01 -1.5574249625205994e-01 -6.1488386243581772e-02 -1.0308974236249924e-01 -2.2841188311576843e-01 3.9620544761419296e-02 -2.8605794534087181e-02 -6.7571759223937988e-02 -4.9016620032489300e-03 -2.1761837601661682e-01 -1.6804788261651993e-02 1.7770344018936157e-01 1.3964642584323883e-01 1.0961796157062054e-02 -1.5380936861038208e-01 3.3865649253129959e-02 4.3060258030891418e-02 -2.8064453601837158e-01 5.1987841725349426e-03 -2.4495172500610352e-01 5.0854827277362347e-03 -2.5101625919342041e-01 5.0409942865371704e-02 -1.3014474511146545e-01 -1.6462850570678711e-01 -2.2280368208885193e-01 1.0223813354969025e-01 8.4830857813358307e-03 5.9276361018419266e-02 5.4193448275327682e-02 1.7648123204708099e-01 2.1007421612739563e-01 2.2705337032675743e-02 -8.2636602222919464e-02 -1.8522281944751740e-01 7.7363915741443634e-02 5.2721239626407623e-02 1.9347651302814484e-01 -1.2452516704797745e-01 2.8159835934638977e-01 -1.1896514892578125e-01 1.7166504636406898e-02 -7.1447633206844330e-02 -1.1075121164321899e-01 7.0921435952186584e-02 -1.4780022203922272e-01 -2.8466118499636650e-02 8.3274366334080696e-03 -1.9739827513694763e-01 -9.9168032407760620e-02 2.0487387478351593e-01 1.1074221134185791e-01 -1.3473414815962315e-02 1.5423549339175224e-02 2.2212406992912292e-01 7.8624673187732697e-02 1.3868317008018494e-01 -1.7175792157649994e-01 5.6715798564255238e-03 2.6675866916775703e-02 4.0924940258264542e-02 3.6851186305284500e-02 -8.1235773861408234e-02 5.3819399327039719e-02 -1.2081935256719589e-01 1.3069708645343781e-01 1.6212427616119385e-01 -1.1961647868156433e-01 -1.1539831012487411e-01 6.1309291049838066e-03 2.5696095824241638e-01 -2.5558212399482727e-01 8.3320915699005127e-02 -2.4366936087608337e-01 -4.9205463379621506e-02 -2.3117986321449280e-01 -3.0413112044334412e-01 1.0589431971311569e-01 4.7169182449579239e-02 -2.0297722518444061e-01 9.4359576702117920e-02 -2.4620711803436279e-01 -8.8703483343124390e-02 -2.5936684012413025e-01 -1.2032713741064072e-01 -6.6474311053752899e-02 6.0811161994934082e-02 2.4615371227264404e-01 -2.1202717721462250e-01 6.8718986585736275e-03 -5.6472518481314182e-03 -5.8047793805599213e-02 1.1967815458774567e-01 1.5789951384067535e-01 -3.1981151551008224e-02 -1.7302589491009712e-02 2.7844202518463135e-01 -2.1363237872719765e-02 7.8777477145195007e-02 2.8644813224673271e-02 3.9434179663658142e-02 -6.6539913415908813e-02 -2.4879710376262665e-01 1.0811110958456993e-02 1.8144764006137848e-01 -1.5439864993095398e-01 -3.4142576158046722e-02 2.2585357725620270e-01 
      </Weights>
      <Biases rows="32" cols="1">
        -3.8092002272605896e-02 2.3930598050355911e-02 -4.4736143201589584e-02 -5.2491288632154465e-02 -2.5222655385732651e-02 2.7192343026399612e-02 -3.9675194770097733e-02 1.1916968971490860e-02 -5.1637735217809677e-02 -2.4170339107513428e-02 -5.0942353904247284e-02 -1.1543922871351242e-01 -3.5447277128696442e-02 -3.7986848503351212e-02 1.6698315739631653e-02 7.6814398169517517e-02 7.9602994024753571e-02 -2.3389855399727821e-02 -4.8714451491832733e-02 9.7431674599647522e-02 -5.4152689874172211e-02 1.0247763246297836e-02 -4.7231767326593399e-02 6.2349691987037659e-02 -1.6048730909824371e-01 -7.8555822372436523e-02 5.3450606763362885e-02 4.8984501510858536e-02 -5.1678352057933807e-02 1.6161266714334488e-02 -5.6753303855657578e-02 -2.5292748585343361e-02 
      </Biases>
    </Layer>
    <Layer ActivationFunction="3">
      <Weights rows="16" cols="32">
        1.0410033166408539e-02 -2.2561064362525940e-01 -1.9235694408416748e-01 3.6201581358909607e-02 -6.8621486425399780e-02 -1.2861825525760651e-01 -1.8697498738765717e-01 1.7338421940803528e-01 2.0443990826606750e-01 6.9474063813686371e-02 -5.6458469480276108e-03 1.9844035804271698e-01 1.2677743099629879e-02 -1.0260095447301865e-01 -2.5066906586289406e-02 1.1723729223012924e-01 -4.0136888623237610e-02 -4.6198917552828789e-03 9.0786457061767578e-02 -2.4033480882644653e-01 -8.8272280991077423e-02 1.4434616267681122e-01 -1.0284278541803360e-02 -1.8324999511241913e-01 8.8192850351333618e-02 1.7576657235622406e-02 9.8663061857223511e-02 -5.5797081440687180e-02 -1.7399320006370544e-01 -1.0991608351469040e-01 -1.8974995613098145e-01 1.3769404962658882e-02 -2.0151945948600769e-01 2.6432606577873230e-01 3.1014841794967651e-01 -8.1399276852607727e-02 8.6818315088748932e-02 -2.9839190840721130e-01 -2.1990692242980003e-02 -1.0662746429443359e-01 -1.0079932957887650e-01 -1.2456497550010681e-01 2.0617473870515823e-02 -3.5114321112632751e-01 3.0663629993796349e-02 -4.4519070535898209e-02 4.3953928351402283e-01 -1.1727607995271683e-01 -2.0598657429218292e-01 -2.3041158914566040e-01 3.9466780424118042e-01 -2.1059014834463596e-03 3.4411050379276276e-02 -4.4399544596672058e-01 -7.2932722978293896e-03 3.6624935455620289e-03 -6.6383130848407745e-02 -6.7262584343552589e-03 -1.2247448787093163e-02 -1.1896693147718906e-02 4.3023925274610519e-02 -9.3010760843753815e-02 1.3930981047451496e-02 4.8385981470346451e-02 2.1906536817550659e-01 -1.5113884583115578e-02 2.1731580793857574e-01 -2.7600338682532310e-02 9.0685963630676270e-02 5.0667323172092438e-02 -3.5447575151920319e-02 1.3139691948890686e-01 1.5725277364253998e-01 -2.7237161993980408e-01 1.1122177354991436e-02 -1.2916670739650726e-01 1.0710018128156662e-01 1.6167761385440826e-01 2.1621526777744293e-01 -2.1018423140048981e-01 -1.8114075064659119e-01 -3.1032299995422363e-01 1.0059599578380585e-01 -3.1440716236829758e-02 2.5297373533248901e-01 -2.1274876594543457e-01 1.2177736312150955e-01 -1.0861518234014511e-01 1.4495828747749329e-01 1.0737198591232300e-01 -3.3593561500310898e-02 -1.9350589811801910e-01 7.2041535750031471e-03 -2.2688953578472137e-01 6.4448118209838867e-03 -1.8206559121608734e-02 -4.0921932458877563e-01 3.7651214003562927e-01 -1.0976026952266693e-01 -1.4978444576263428e-01 -4.5194303989410400e-01 -1.3281501829624176e-01 1.3302221894264221e-01 -2.7853029966354370e-01 -1.3157131150364876e-02 3.8479262590408325e-01 -2.6332524418830872e-01 6.6396154463291168e-02 -2.2599720954895020e-01 -4.1852734982967377e-02 -3.4845106303691864e-02 1.1806533485651016e-01 7.3872968554496765e-02 -1.1711690574884415e-01 -2.4521194398403168e-01 4.1079267859458923e-01 -3.2342091202735901e-01 3.0868443846702576e-01 -3.8116108626127243e-02 -4.0851246565580368e-02 -1.5827251970767975e-01 -2.6222455501556396e-01 3.8037633895874023e-01 -5.3367972373962402e-02 2.8551954030990601e-01 2.3127554357051849e-01 -2.8357028961181641e-01 3.3224728703498840e-01 1.4784707129001617e-01 -2.4418081343173981e-01 1.3739039003849030e-01 6.5771892666816711e-02 -1.4882418513298035e-01 -1.3367080688476562e-01 1.7806161195039749e-02 1.2599764764308929e-01 -1.3875001668930054e-01 -1.2233892828226089e-01 1.6917170584201813e-01 -1.7731955647468567e-01 3.8460433483123779e-02 -5.3905054926872253e-02 6.2832854688167572e-02 2.1870794892311096e-01 1.0848679579794407e-02 1.1508221924304962e-01 2.2884352505207062e-01 1.6977921128273010e-01 -8.3052434027194977e-02 3.7055637687444687e-02 -2.4642989039421082e-02 -1.4486263506114483e-02 -4.5373387634754181e-02 -1.2108793854713440e-01 1.9255934655666351e-01 1.0809354484081268e-01 -2.3501922190189362e-01 -1.6284769773483276e-01 3.4060616046190262e-02 -1.7383530735969543e-01 5.8707568794488907e-02 -1.3934819400310516e-01 4.9877196550369263e-02 -1.0967391729354858e-01 3.4431535750627518e-02 3.7596940994262695e-02 4.0120989084243774e-02 1.6236554831266403e-02 -5.6884203106164932e-02 1.1775714159011841e-01 2.4302636086940765e-01 -1.2965781986713409e-01 2.9030730947852135e-02 8.1628158688545227e-02 -2.1050547063350677e-01 1.0491187125444412e-01 -2.0237036049365997e-02 -1.0085690766572952e-01 -1.0379841178655624e-01 -8.9140050113201141e-02 1.6529114916920662e-02 7.9667247831821442e-02 -1.3496543467044830e-01 -2.0315091311931610e-01 3.3734726905822754e-01 7.5844906270503998e-02 -3.2004192471504211e-01 -6.5754540264606476e-03 1.9000941514968872e-01 -2.0645721256732941e-01 1.7962414026260376e-01 1.4059355854988098e-01 -1.7005313932895660e-01 9.7095146775245667e-02 -6.5598830580711365e-02 7.0017509162425995e-02 3.0991494655609131e-02 -1.6025541350245476e-02 7.4485782533884048e-03 -1.3947920873761177e-02 -7.4391886591911316e-02 -1.3935338938608766e-03 2.8187128901481628e-01 9.2084348201751709e-02 1.7581002786755562e-02 -2.2578578442335129e-02 1.0636481642723083e-01 2.6874637231230736e-02 1.0320390015840530e-01 1.0710519738495350e-02 4.8179034143686295e-02 1.0972746461629868e-01 6.3056267797946930e-02 -1.4332480728626251e-01 1.4439031481742859e-01 4.1950605809688568e-02 1.6074940562248230e-01 1.0228959470987320e-01 -2.0163699984550476e-01 -1.2024311721324921e-01 -3.7353020161390305e-02 1.9967216998338699e-02 -5.9899765998125076e-02 -3.5590048879384995e-02 -2.6950705051422119e-01 1.0289441049098969e-01 -1.3534289598464966e-01 -9.9092826247215271e-02 1.7508742213249207e-01 1.8890753854066133e-03 -8.2252927124500275e-02 3.4982182085514069e-02 9.0643323957920074e-02 6.7519031465053558e-02 1.1994090676307678e-01 -1.7146967351436615e-01 7.6619572937488556e-02 -1.3893114030361176e-01 2.5671008229255676e-01 2.3140108585357666e-01 1.6997697949409485e-01 4.8431437462568283e-02 -6.0611464083194733e-02 1.3416178524494171e-01 -3.3273458480834961e-01 -2.0531386137008667e-01 2.1128952503204346e-03 2.1042422950267792e-01 -3.0786168575286865e-01 -1.2920993566513062e-01 1.6719263792037964e-01 1.2808509171009064e-01 -2.2935472428798676e-01 -8.5603468120098114e-02 -2.6180347427725792e-02 -5.3738649934530258e-02 -2.1049438416957855e-01 -8.3539135754108429e-02 -2.5593176484107971e-02 -2.0098045468330383e-01 -1.0234479792416096e-02 9.5043644309043884e-02 1.2308817356824875e-01 -9.4730831682682037e-02 1.6433799266815186e-01 1.9994331896305084e-01 -2.8442382812500000e-01 9.9207311868667603e-02 -2.1380712091922760e-01 -1.0558871552348137e-02 3.0786005780100822e-02 2.3640153929591179e-02 2.3490434885025024e-01 2.7097386121749878e-01 -1.2761157751083374e-01 2.0422025024890900e-01 6.6391550004482269e-02 -1.0145043022930622e-02 -7.6815776992589235e-04 1.1975848674774170e-01 -2.3558618128299713e-01 -2.6982802152633667e-01 1.3668221235275269e-01 2.5568826124072075e-02 1.5071013569831848e-01 7.4212908744812012e-02 6.1391118913888931e-02 1.9291031360626221e-01 -5.6445937603712082e-02 7.2257816791534424e-02 -2.6953402161598206e-01 6.6893540322780609e-02 -1.7115506529808044e-01 -2.4745369330048561e-02 -1.4074251055717468e-01 1.3911905884742737e-01 8.3526730537414551e-02 1.8370954692363739e-01 -2.9308366775512695e-01 8.6292169988155365e-02 -5.5781635455787182e-03 -1.2042718380689621e-01 -2.6929879188537598e-01 -6.5447933971881866e-02 4.4530523009598255e-03 -1.4705835841596127e-02 -3.5536715388298035e-01 9.5328062772750854e-02 1.6560186445713043e-01 3.3235910534858704e-01 -8.0602124333381653e-02 -9.7897261381149292e-02 -2.0997869968414307e-01 -2.2765131294727325e-01 1.3939563930034637e-01 -2.3182833194732666e-01 1.5432806313037872e-01 -1.8887180089950562e-01 -8.3655945956707001e-02 -1.2848325073719025e-01 2.3828965425491333e-01 3.2268725335597992e-03 5.9444215148687363e-02 2.8035971522331238e-01 -4.3528404086828232e-02 3.1161937862634659e-02 1.5574495494365692e-01 1.5205506980419159e-01 2.8757354617118835e-01 1.9580857455730438e-01 2.8958322480320930e-02 2.4733582139015198e-01 3.0651679635047913e-01 2.6931315660476685e-02 -2.1565985679626465e-01 -2.5899782776832581e-01 -1.8777392804622650e-01 -1.0132594965398312e-02 1.5223371982574463e-01 -1.7497892677783966e-01 -6.2523405067622662e-03 1.8364791572093964e-01 -1.0529112070798874e-01 -2.0257726311683655e-01 3.6690905690193176e-01 1.2615902721881866e-01 3.7771951407194138e-02 2.9908388853073120e-02 -1.3275532051920891e-02 6.9527074694633484e-02 -5.6788697838783264e-02 2.6204028725624084e-01 -2.7498397231101990e-01 3.9406529068946838e-01 -1.0187877714633942e-01 -4.1263375431299210e-02 -2.9536861181259155e-01 1.4911090023815632e-02 3.6988560110330582e-02 -4.5196834951639175e-02 1.0183799266815186e-01 2.2565421462059021e-01 -1.0752609372138977e-01 1.1594878882169724e-01 -8.8123388588428497e-02 -5.6383293122053146e-03 -2.8498038649559021e-01 1.6900674998760223e-01 1.5338298678398132e-01 2.0346949994564056e-01 -1.1598315089941025e-01 2.5293681025505066e-01 -8.3576463162899017e-02 2.4468557909131050e-02 2.1737301349639893e-01 1.7496085166931152e-01 -1.6265743970870972e-01 -2.0561139285564423e-01 8.1683427095413208e-02 -2.2664181888103485e-01 2.8871491551399231e-01 1.2564124166965485e-01 -1.9713826477527618e-01 2.8908166289329529e-01 8.7677039206027985e-02 1.3794381916522980e-01 2.0458401739597321e-01 1.2701214849948883e-01 6.0424329712986946e-03 6.5351195633411407e-02 -9.0952627360820770e-02 6.1269305646419525e-02 1.9103328883647919e-01 -1.9037492573261261e-01 -1.9122505187988281e-01 -8.1197619438171387e-02 -1.5928700566291809e-01 -2.2879347205162048e-01 -9.0230241417884827e-02 1.3357174396514893e-01 4.4411376118659973e-02 1.2529513239860535e-01 -1.2832155823707581e-01 4.3959356844425201e-02 -1.4296095818281174e-02 -9.1666273772716522e-02 1.2250326573848724e-01 -1.6037560999393463e-01 1.2674839794635773e-01 -1.5846271812915802e-01 -1.5073947608470917e-01 9.7055844962596893e-02 7.5685948133468628e-02 5.2863068878650665e-02 -1.5742157399654388e-01 6.3764713704586029e-02 -1.4299276471138000e-01 -3.1544986367225647e-01 -1.3655133545398712e-01 -2.1069307625293732e-01 1.9311134517192841e-01 -1.7523446679115295e-01 -8.0005474388599396e-02 2.8357893228530884e-01 1.9611863791942596e-01 -8.5358798503875732e-02 -1.1849400401115417e-01 2.1290538832545280e-02 -6.1745539307594299e-02 -3.0275472998619080e-01 -1.1615214496850967e-01 -1.5774416923522949e-01 -2.2231120616197586e-02 1.8213665485382080e-01 -9.9958509206771851e-02 -5.3017027676105499e-02 1.7899289727210999e-01 -1.2871572375297546e-01 -6.4901546575129032e-03 -2.1194081008434296e-01 -9.9468566477298737e-02 7.1523733437061310e-02 -6.4580650068819523e-03 2.0172791555523872e-02 -1.6121014952659607e-01 -2.0669311285018921e-02 -2.1657401323318481e-01 -1.8573988974094391e-01 8.6226791143417358e-02 -4.3430693447589874e-02 2.2470760345458984e-01 -1.5846748650074005e-01 -1.3219354674220085e-02 -8.3848729729652405e-02 3.7084728479385376e-02 -4.0707461535930634e-02 -1.4071527123451233e-01 -2.3999970406293869e-02 2.0813022553920746e-01 -2.6957011222839355e-01 1.9832020625472069e-02 -6.6237494349479675e-02 2.8140246868133545e-02 1.3228410482406616e-01 -5.4693661630153656e-02 -6.2733709812164307e-02 2.1808809041976929e-01 2.0023368299007416e-01 -1.9885443150997162e-01 -1.7542125284671783e-01 3.0469855293631554e-02 4.5981574803590775e-02 -7.1826450526714325e-02 1.5017627179622650e-01 1.1727122962474823e-01 -6.6808341071009636e-03 -1.6725891828536987e-01 1.9488576054573059e-01 1.6752603650093079e-01 -2.6140663772821426e-02 1.2732200324535370e-01 5.1299821585416794e-02 -3.0226191505789757e-02 1.4772813022136688e-01 -1.0781577229499817e-01 1.6913187503814697e-01 1.7626366019248962e-01 2.6862362027168274e-01 8.3010338246822357e-02 -9.4136402010917664e-02 -2.7958154678344727e-01 -7.4513174593448639e-02 -1.5403842926025391e-01 -9.2417590320110321e-02 5.7239257730543613e-03 1.1654198914766312e-01 4.1582010686397552e-02 1.7059962451457977e-01 -6.6417098045349121e-02 -1.6434988379478455e-01 4.5444771647453308e-02 9.0900450944900513e-02 -5.7756274938583374e-02 -1.5298834443092346e-01 -1.5299165248870850e-01 4.5913957059383392e-02 2.9161591082811356e-02 -2.1899093687534332e-01 1.7743888497352600e-01 -1.6275714337825775e-01 9.5041990280151367e-02 2.1988196671009064e-01 
      </Weights>
      <Biases rows="16" cols="1">
        1.9155949354171753e-01 -9.8903961479663849e-02 6.8795327097177505e-03 -4.5492611825466156e-02 1.7526772618293762e-01 -1.2697990238666534e-01 7.8681081533432007e-02 2.2255182266235352e-01 9.8700664937496185e-02 1.5564687550067902e-02 -2.2009260952472687e-01 -7.6548844575881958e-02 1.8882907927036285e-01 2.5419947504997253e-01 8.3475172519683838e-02 -2.9446726664900780e-02 
      </Biases>
    </Layer>
    <Layer ActivationFunction="0">
      <Weights rows="3" cols="16">
        -2.2905737161636353e-02 -5.0434666872024536e-01 -4.8587140440940857e-01 4.8866647481918335e-01 -3.0923342704772949e-01 -2.5072365999221802e-01 -2.7088794112205505e-01 2.2446016967296600e-01 5.3200441598892212e-01 5.2387863397598267e-01 -1.2583699822425842e-01 3.8302403688430786e-01 1.2460737675428391e-01 -1.5791304409503937e-01 -2.6363992691040039e-01 1.9904460012912750e-01 -2.6478555798530579e-01 -1.4267675578594208e-01 2.7474862337112427e-01 -9.4916045665740967e-01 -3.9265531301498413e-01 2.1743944287300110e-01 -1.3607814908027649e-01 -3.5892638564109802e-01 -1.9267985224723816e-01 -1.7208820208907127e-02 3.5025277733802795e-01 -5.0233328342437744e-01 -2.3376992344856262e-01 -5.1331239938735962e-01 -2.0546197891235352e-01 1.4905641973018646e-01 -4.9363422393798828e-01 4.5581403374671936e-01 1.2623162567615509e-01 -3.9604362845420837e-01 -4.5197360217571259e-02 -1.1367931216955185e-01 -1.2293797917664051e-02 2.1211971342563629e-01 2.5653138756752014e-02 -3.4364429116249084e-01 -4.2606502771377563e-01 -4.4281864166259766e-01 -2.8032800555229187e-01 -6.0673218965530396e-01 2.9444041848182678e-01 -2.2302149236202240e-01 
      </Weights>
      <Biases rows="3" cols="1">
        -2.5313976407051086e-01 -7.8968805074691772e-01 -4.6830081939697266e-01 
      </Biases>
    </Layer>
  </Weights>
</MethodSetup>
