<?xml version="1.0"?>
<MethodSetup Method="DNN::DNN_NanoV9_V1_2020_RMET_x2">
  <GeneralInfo>
    <Info name="TMVA Release" value="4.2.1 [262657]"/>
    <Info name="ROOT Release" value="6.12/07 [396295]"/>
    <Info name="Creator" value="hum"/>
    <Info name="Date" value="Sat Mar 12 14:30:56 2022"/>
    <Info name="Host" value="Linux vocms0301.cern.ch 2.6.32-696.30.1.el6.x86_64 #1 SMP Tue May 22 06:09:36 CEST 2018 x86_64 x86_64 x86_64 GNU/Linux"/>
    <Info name="Dir" value="/afs/cern.ch/work/h/hum/public/CMSSW_10_2_13/src/ChargedHiggs/Analysis"/>
    <Info name="Training events" value="556282"/>
    <Info name="TrainingTime" value="2.23558599e+02"/>
    <Info name="AnalysisType" value="Classification"/>
  </GeneralInfo>
  <Options>
    <Option name="V" modified="Yes">True</Option>
    <Option name="VerbosityLevel" modified="No">Verbose</Option>
    <Option name="VarTransform" modified="Yes">N</Option>
    <Option name="H" modified="Yes">False</Option>
    <Option name="CreateMVAPdfs" modified="No">False</Option>
    <Option name="IgnoreNegWeightsInTraining" modified="No">False</Option>
    <Option name="Layout" modified="Yes">TANH|32,TANH|32,TANH|32,TANH|32,LINEAR</Option>
    <Option name="ValidationSize" modified="No">20%</Option>
    <Option name="ErrorStrategy" modified="Yes">CROSSENTROPY</Option>
    <Option name="WeightInitialization" modified="Yes">XAVIERUNIFORM</Option>
    <Option name="Architecture" modified="Yes">CPU</Option>
    <Option name="TrainingStrategy" modified="Yes">LearningRate=1e-1,Momentum=0.2,Repetitions=1,ConvergenceSteps=20,BatchSize=256,TestRepetitions=10,WeightDecay=1e-4,Regularization=L2,DropConfig=0.0+0.05+0.1+0.2+0.5,</Option>
  </Options>
  <Variables NVar="14">
    <Variable VarIndex="0" Expression="j1QGL" Label="j1QGL" Title="j1QGL" Unit="" Internal="j1QGL" Type="F" Min="3.26195732e-07" Max="1.00000000e+00"/>
    <Variable VarIndex="1" Expression="j2QGL" Label="j2QGL" Title="j2QGL" Unit="" Internal="j2QGL" Type="F" Min="3.66242602e-07" Max="1.00000000e+00"/>
    <Variable VarIndex="2" Expression="varMjj" Label="varMjj" Title="varMjj" Unit="" Internal="varMjj" Type="F" Min="5.00002350e+02" Max="8.14033545e+03"/>
    <Variable VarIndex="3" Expression="varDetajj" Label="varDetajj" Title="varDetajj" Unit="" Internal="varDetajj" Type="F" Min="2.50000000e+00" Max="8.71777344e+00"/>
    <Variable VarIndex="4" Expression="abs(varJet1Eta)" Label="abs(varJet1Eta)" Title="abs(varJet1Eta)" Unit="" Internal="abs_varJet1Eta_" Type="F" Min="8.37072730e-06" Max="4.69628906e+00"/>
    <Variable VarIndex="5" Expression="varJet1Pt" Label="varJet1Pt" Title="varJet1Pt" Unit="" Internal="varJet1Pt" Type="F" Min="5.00937500e+01" Max="2.78800000e+03"/>
    <Variable VarIndex="6" Expression="abs(varJet2Eta)" Label="abs(varJet2Eta)" Title="abs(varJet2Eta)" Unit="" Internal="abs_varJet2Eta_" Type="F" Min="1.02501363e-05" Max="4.69824219e+00"/>
    <Variable VarIndex="7" Expression="varJet2Pt" Label="varJet2Pt" Title="varJet2Pt" Unit="" Internal="varJet2Pt" Type="F" Min="5.00312500e+01" Max="1.36500000e+03"/>
    <Variable VarIndex="8" Expression="varMTVV" Label="varMTVV" Title="varMTVV" Unit="" Internal="varMTVV" Type="F" Min="3.42204254e+02" Max="2.57048779e+03"/>
    <Variable VarIndex="9" Expression="varCenRes" Label="varCenRes" Title="varCenRes" Unit="" Internal="varCenRes" Type="F" Min="-2.62265015e+00" Max="4.08361816e+00"/>
    <Variable VarIndex="10" Expression="varDRV2j" Label="varDRV2j" Title="varDRV2j" Unit="" Internal="varDRV2j" Type="F" Min="3.06231622e-03" Max="4.61143923e+00"/>
    <Variable VarIndex="11" Expression="varnormPTVVjj" Label="varnormPTVVjj" Title="varnormPTVVjj" Unit="" Internal="varnormPTVVjj" Type="F" Min="9.02203101e-05" Max="2.49923110e-01"/>
    <Variable VarIndex="12" Expression="varFW2j" Label="varFW2j" Title="varnormFW2j" Unit="" Internal="varFW2j" Type="F" Min="3.65079232e-02" Max="9.99682844e-01"/>
    <Variable VarIndex="13" Expression="bosV2discr" Label="bosV2discr" Title="bosV2discr" Unit="" Internal="bosV2discr" Type="F" Min="6.00000799e-01" Max="9.93170857e-01"/>
  </Variables>
  <Spectators NSpec="0"/>
  <Classes NClass="2">
    <Class Name="Signal" Index="0"/>
    <Class Name="Background" Index="1"/>
  </Classes>
  <Transformations NTransformations="1">
    <Transform Name="Normalize">
      <Selection>
        <Input NInputs="14">
          <Input Type="Variable" Label="j1QGL" Expression="j1QGL"/>
          <Input Type="Variable" Label="j2QGL" Expression="j2QGL"/>
          <Input Type="Variable" Label="varMjj" Expression="varMjj"/>
          <Input Type="Variable" Label="varDetajj" Expression="varDetajj"/>
          <Input Type="Variable" Label="abs(varJet1Eta)" Expression="abs(varJet1Eta)"/>
          <Input Type="Variable" Label="varJet1Pt" Expression="varJet1Pt"/>
          <Input Type="Variable" Label="abs(varJet2Eta)" Expression="abs(varJet2Eta)"/>
          <Input Type="Variable" Label="varJet2Pt" Expression="varJet2Pt"/>
          <Input Type="Variable" Label="varMTVV" Expression="varMTVV"/>
          <Input Type="Variable" Label="varCenRes" Expression="varCenRes"/>
          <Input Type="Variable" Label="varDRV2j" Expression="varDRV2j"/>
          <Input Type="Variable" Label="varnormPTVVjj" Expression="varnormPTVVjj"/>
          <Input Type="Variable" Label="varFW2j" Expression="varFW2j"/>
          <Input Type="Variable" Label="bosV2discr" Expression="bosV2discr"/>
        </Input>
        <Output NOutputs="14">
          <Output Type="Variable" Label="j1QGL" Expression="j1QGL"/>
          <Output Type="Variable" Label="j2QGL" Expression="j2QGL"/>
          <Output Type="Variable" Label="varMjj" Expression="varMjj"/>
          <Output Type="Variable" Label="varDetajj" Expression="varDetajj"/>
          <Output Type="Variable" Label="abs(varJet1Eta)" Expression="abs(varJet1Eta)"/>
          <Output Type="Variable" Label="varJet1Pt" Expression="varJet1Pt"/>
          <Output Type="Variable" Label="abs(varJet2Eta)" Expression="abs(varJet2Eta)"/>
          <Output Type="Variable" Label="varJet2Pt" Expression="varJet2Pt"/>
          <Output Type="Variable" Label="varMTVV" Expression="varMTVV"/>
          <Output Type="Variable" Label="varCenRes" Expression="varCenRes"/>
          <Output Type="Variable" Label="varDRV2j" Expression="varDRV2j"/>
          <Output Type="Variable" Label="varnormPTVVjj" Expression="varnormPTVVjj"/>
          <Output Type="Variable" Label="varFW2j" Expression="varFW2j"/>
          <Output Type="Variable" Label="bosV2discr" Expression="bosV2discr"/>
        </Output>
      </Selection>
      <Class ClassIndex="0">
        <Ranges>
          <Range Index="0" Min="3.6507844924926758e-05" Max="1.0000000000000000e+00"/>
          <Range Index="1" Min="4.4727325439453125e-04" Max="1.0000000000000000e+00"/>
          <Range Index="2" Min="5.0012048339843750e+02" Max="7.2076352539062500e+03"/>
          <Range Index="3" Min="2.5000000000000000e+00" Max="8.7021484375000000e+00"/>
          <Range Index="4" Min="3.0355453491210938e-03" Max="4.6611328125000000e+00"/>
          <Range Index="5" Min="5.0531250000000000e+01" Max="2.1520000000000000e+03"/>
          <Range Index="6" Min="1.1297225952148438e-02" Max="4.6943359375000000e+00"/>
          <Range Index="7" Min="5.0031250000000000e+01" Max="1.0860000000000000e+03"/>
          <Range Index="8" Min="3.4411193847656250e+02" Max="2.5704877929687500e+03"/>
          <Range Index="9" Min="-2.6226501464843750e+00" Max="4.0836181640625000e+00"/>
          <Range Index="10" Min="1.9538836553692818e-02" Max="4.6114392280578613e+00"/>
          <Range Index="11" Min="2.7475302340462804e-04" Max="2.4992311000823975e-01"/>
          <Range Index="12" Min="5.6534782052040100e-02" Max="9.9957537651062012e-01"/>
          <Range Index="13" Min="6.0009175539016724e-01" Max="9.9165242910385132e-01"/>
        </Ranges>
      </Class>
      <Class ClassIndex="1">
        <Ranges>
          <Range Index="0" Min="3.2619573175907135e-07" Max="1.0000000000000000e+00"/>
          <Range Index="1" Min="3.6624260246753693e-07" Max="1.0000000000000000e+00"/>
          <Range Index="2" Min="5.0000234985351562e+02" Max="8.1403354492187500e+03"/>
          <Range Index="3" Min="2.5000000000000000e+00" Max="8.7177734375000000e+00"/>
          <Range Index="4" Min="8.3707273006439209e-06" Max="4.6962890625000000e+00"/>
          <Range Index="5" Min="5.0093750000000000e+01" Max="2.7880000000000000e+03"/>
          <Range Index="6" Min="1.0250136256217957e-05" Max="4.6982421875000000e+00"/>
          <Range Index="7" Min="5.0031250000000000e+01" Max="1.3650000000000000e+03"/>
          <Range Index="8" Min="3.4220425415039062e+02" Max="2.4138569335937500e+03"/>
          <Range Index="9" Min="-2.5576782226562500e+00" Max="3.9206542968750000e+00"/>
          <Range Index="10" Min="3.0623162165284157e-03" Max="4.4727630615234375e+00"/>
          <Range Index="11" Min="9.0220310084987432e-05" Max="2.4987158179283142e-01"/>
          <Range Index="12" Min="3.6507923156023026e-02" Max="9.9968284368515015e-01"/>
          <Range Index="13" Min="6.0000079870223999e-01" Max="9.9317085742950439e-01"/>
        </Ranges>
      </Class>
      <Class ClassIndex="2">
        <Ranges>
          <Range Index="0" Min="3.2619573175907135e-07" Max="1.0000000000000000e+00"/>
          <Range Index="1" Min="3.6624260246753693e-07" Max="1.0000000000000000e+00"/>
          <Range Index="2" Min="5.0000234985351562e+02" Max="8.1403354492187500e+03"/>
          <Range Index="3" Min="2.5000000000000000e+00" Max="8.7177734375000000e+00"/>
          <Range Index="4" Min="8.3707273006439209e-06" Max="4.6962890625000000e+00"/>
          <Range Index="5" Min="5.0093750000000000e+01" Max="2.7880000000000000e+03"/>
          <Range Index="6" Min="1.0250136256217957e-05" Max="4.6982421875000000e+00"/>
          <Range Index="7" Min="5.0031250000000000e+01" Max="1.3650000000000000e+03"/>
          <Range Index="8" Min="3.4220425415039062e+02" Max="2.5704877929687500e+03"/>
          <Range Index="9" Min="-2.6226501464843750e+00" Max="4.0836181640625000e+00"/>
          <Range Index="10" Min="3.0623162165284157e-03" Max="4.6114392280578613e+00"/>
          <Range Index="11" Min="9.0220310084987432e-05" Max="2.4992311000823975e-01"/>
          <Range Index="12" Min="3.6507923156023026e-02" Max="9.9968284368515015e-01"/>
          <Range Index="13" Min="6.0000079870223999e-01" Max="9.9317085742950439e-01"/>
        </Ranges>
      </Class>
    </Transform>
  </Transformations>
  <MVAPdfs/>
  <Weights InputWidth="14" Depth="5" LossFunction="C" OutputFunction="S">
    <Layer ActivationFunction="3">
      <Weights rows="32" cols="14">
        -7.3720812797546387e-03 4.2940046638250351e-02 2.9114302992820740e-01 5.8520555496215820e-02 1.4856110326945782e-02 -9.3444131314754486e-02 3.1971614807844162e-02 1.3061228394508362e-01 6.2906332314014435e-02 4.6120423823595047e-02 -3.1995709985494614e-02 -1.4446614682674408e-01 -4.3860461562871933e-02 1.6000140458345413e-02 2.4267369881272316e-02 -1.6785232350230217e-02 4.6777207404375076e-02 -4.0334336459636688e-02 -2.6611760258674622e-02 -3.6609947681427002e-02 4.7064635902643204e-02 4.0416501462459564e-02 -5.4599784314632416e-02 -5.7496547698974609e-02 4.5051846653223038e-02 4.2315993458032608e-02 1.1750743724405766e-02 5.3003314882516861e-02 4.4841744005680084e-02 -6.8592287600040436e-02 -1.1118531972169876e-01 1.4397137798368931e-02 6.7181438207626343e-02 6.2741592526435852e-02 -2.1729789674282074e-02 -7.5045968405902386e-03 -6.2869809567928314e-02 4.2966719716787338e-02 5.7003002613782883e-02 6.3872337341308594e-02 3.0241033062338829e-02 -2.5040216278284788e-03 -1.6839910298585892e-02 4.0705680847167969e-02 -1.4595413208007812e-01 5.1998822018504143e-03 1.2415212579071522e-02 4.1667561978101730e-02 -3.1999818980693817e-02 -2.9448699206113815e-02 -1.0480147600173950e-01 -3.4597359597682953e-02 -4.0767800062894821e-02 1.4523846097290516e-02 6.4406298100948334e-02 1.0364169254899025e-02 5.2899806760251522e-03 -8.5526093840599060e-02 -3.2440534234046936e-01 -4.7230735421180725e-02 -9.4778552651405334e-02 -2.3306969087570906e-03 1.0428631305694580e-01 -6.3841223716735840e-02 -9.3268826603889465e-02 6.4909253269433975e-03 7.5563453137874603e-03 1.0594671964645386e-01 -5.8986380696296692e-02 3.5704061388969421e-02 -2.8722085058689117e-02 -8.0653563141822815e-02 -2.7883905172348022e-01 4.5905020087957382e-02 -9.4084270298480988e-02 2.1618705242872238e-02 -3.0173892155289650e-02 -7.5181417167186737e-02 -1.4788174629211426e-01 -8.7657459080219269e-02 8.3235956728458405e-02 1.6420401632785797e-01 3.5030528903007507e-02 -6.4430676400661469e-02 4.8909362405538559e-02 7.2013966739177704e-02 5.2401699125766754e-02 -5.5141776800155640e-02 -1.3494256883859634e-02 3.0536506325006485e-02 -2.9570564627647400e-02 6.2298454344272614e-02 7.7331662178039551e-02 -1.5757270157337189e-02 -5.8744784444570541e-02 -9.3578388914465904e-03 2.8721401467919350e-02 3.9917003363370895e-02 -7.0300064980983734e-02 -9.9912419915199280e-02 -1.6703467071056366e-01 -1.0169705748558044e-01 -4.2331464588642120e-02 4.9380067735910416e-02 -7.4669942259788513e-02 4.5932579785585403e-02 -4.7749750316143036e-02 -6.6279731690883636e-02 -8.2526661455631256e-02 2.8784703463315964e-02 -9.3913778662681580e-02 -8.4352061152458191e-02 -2.4747911840677261e-02 -7.6108885696157813e-04 1.9225706160068512e-01 6.9822520017623901e-02 8.5515893995761871e-02 -7.3921427130699158e-02 -3.7248075008392334e-02 8.9843407273292542e-02 1.3580268621444702e-01 -3.6245152354240417e-02 -8.4644556045532227e-02 7.5290156528353691e-03 8.6735807359218597e-02 -3.7318762391805649e-02 8.2565434277057648e-02 9.8008610308170319e-02 2.6254871487617493e-01 3.3414978533983231e-02 -1.2842017225921154e-02 -7.4144020676612854e-02 8.6038656532764435e-02 3.4825056791305542e-02 1.5228080749511719e-01 1.9837260246276855e-02 -2.4455044418573380e-02 -1.2613251805305481e-01 -3.0409380793571472e-02 5.7548847049474716e-02 4.5333601534366608e-02 3.9336092770099640e-02 -9.5949038863182068e-02 -4.4356349855661392e-02 -4.1627332568168640e-02 -3.5858035087585449e-02 -2.2534202784299850e-02 -2.5634868070483208e-02 -4.2010005563497543e-02 -8.8359331712126732e-03 4.3364003067836165e-04 3.2753419131040573e-02 4.1815914213657379e-02 -1.1846410110592842e-02 -7.5918763875961304e-02 -5.0421815365552902e-02 -3.5438799858093262e-01 2.9144216328859329e-02 -1.1987148970365524e-01 1.1694570630788803e-01 4.9135193228721619e-02 -6.2099993228912354e-02 -1.1232937872409821e-01 -4.7002624720335007e-02 -2.6627250015735626e-02 7.9779684543609619e-02 -6.5075524151325226e-02 -9.6896491944789886e-02 -6.8238027393817902e-02 -6.3065690919756889e-03 -1.2643876671791077e-01 -6.1569679528474808e-03 -8.1851240247488022e-03 1.5335345640778542e-02 3.9628971368074417e-02 -5.7687394320964813e-02 -3.5593055188655853e-02 -1.9048089161515236e-02 2.5155607610940933e-02 2.2636163979768753e-02 -3.2688431441783905e-02 1.4727516099810600e-02 -2.1519651636481285e-02 2.2897420451045036e-02 -2.4956400692462921e-01 1.7759472131729126e-02 -1.0369431227445602e-02 1.5313038602471352e-02 -9.2218825593590736e-03 -4.2192377150058746e-02 -1.1087474972009659e-01 -9.1737493872642517e-02 3.4850459545850754e-02 3.0897598713636398e-02 9.3582672998309135e-03 -1.0155334323644638e-01 -2.5993766263127327e-02 -8.6705923080444336e-02 -2.1542127430438995e-01 -1.0989487171173096e-02 -1.0597880184650421e-01 6.1649799346923828e-02 5.5965505540370941e-02 -7.2287760674953461e-02 -1.2461360543966293e-01 5.7078101672232151e-03 4.0163636207580566e-02 4.1916053742170334e-02 -1.5908448025584221e-02 6.4803741872310638e-02 -5.6474976241588593e-02 -8.6846277117729187e-02 -1.8494412302970886e-01 -3.5182595252990723e-02 4.3818995356559753e-02 5.4148703813552856e-02 -6.8492911756038666e-02 -2.8632484376430511e-02 -1.2039863504469395e-02 1.4542817138135433e-02 6.1535146087408066e-02 4.5969117432832718e-02 -3.7193402647972107e-02 -7.0109367370605469e-02 -6.6561773419380188e-02 -3.9899051189422607e-02 3.0492120981216431e-01 2.0246504573151469e-04 6.2269989401102066e-02 -1.7800815403461456e-03 1.9084993749856949e-02 1.1309456825256348e-01 8.4730669856071472e-02 5.3857214748859406e-02 8.7992571294307709e-02 -1.6548138856887817e-01 -8.8761314749717712e-02 1.1327930539846420e-01 6.1798837035894394e-02 6.2869149260222912e-03 1.0657624155282974e-01 6.3666023313999176e-02 6.8108141422271729e-02 -1.9276821985840797e-02 -2.1817756816744804e-02 9.5451734960079193e-03 3.6421246826648712e-02 4.3146055191755295e-02 -2.6231933385133743e-02 -5.7365279644727707e-02 -2.9496736824512482e-02 -8.7882429361343384e-03 -8.7132956832647324e-03 3.4284975379705429e-02 2.7422437071800232e-01 -3.6395363509654999e-02 1.1804314330220222e-02 1.5046731568872929e-03 -6.4600422978401184e-02 4.6679332852363586e-02 1.2100569158792496e-01 4.8887640237808228e-02 3.0995624139904976e-02 -1.2638300657272339e-01 2.6094991713762283e-02 7.6896682381629944e-02 1.6814645379781723e-02 3.7454321980476379e-02 -3.7522071599960327e-01 2.7058135718107224e-02 -9.7969599068164825e-02 1.1869540810585022e-01 -5.5595204234123230e-02 -1.2299363315105438e-01 -1.5632078051567078e-01 -5.8946710079908371e-02 1.2726576067507267e-02 1.1513343453407288e-01 -3.5438492894172668e-02 -6.3163921236991882e-02 -2.9217824339866638e-02 -4.1737504303455353e-02 -1.8668259680271149e-01 1.7969975247979164e-02 -6.7893348634243011e-02 4.0775727480649948e-02 -1.7483420670032501e-02 -1.0195174068212509e-01 -8.3595588803291321e-02 -2.6350058615207672e-03 -3.9967864751815796e-02 1.0233691334724426e-01 6.5748848021030426e-02 -3.1330004334449768e-02 3.5012196749448776e-02 7.5820654630661011e-02 3.8530912995338440e-01 -2.6595713570713997e-02 1.2506303191184998e-01 -1.4348660409450531e-01 -2.0202312618494034e-02 1.5961661934852600e-01 2.0732195675373077e-01 1.9122272729873657e-02 -8.5642419755458832e-02 -1.8006849288940430e-01 1.0237747803330421e-02 6.5273359417915344e-02 3.8532033562660217e-02 3.0776906758546829e-02 -1.1088903993368149e-01 -4.3210443109273911e-02 1.7982596764340997e-03 2.8954146429896355e-02 1.1866351589560509e-02 -7.8800372779369354e-02 -5.8925431221723557e-03 2.8608571738004684e-02 2.3468224331736565e-02 7.9005479812622070e-02 3.8345757871866226e-02 -1.3500427827239037e-02 -4.5189626514911652e-02 3.2578461105003953e-04 -2.9010942578315735e-01 -4.4963512569665909e-02 2.6424175594002008e-03 1.0234159976243973e-01 1.7078708857297897e-02 -2.9826652258634567e-02 -1.4357335865497589e-01 4.2726512998342514e-02 -2.2237252444028854e-02 1.1713048070669174e-01 5.7039547711610794e-02 -5.9217263013124466e-02 -1.1735534295439720e-02 -5.7025920599699020e-02 -3.4553676843643188e-02 5.3493730723857880e-02 5.5470183491706848e-02 2.4845260195434093e-03 -2.0410152152180672e-02 -5.0385490059852600e-02 -4.0297407656908035e-02 3.3870216459035873e-02 2.1476354449987411e-02 7.9537956044077873e-03 -2.2892916575074196e-02 9.6128527075052261e-03 3.7151146680116653e-03 7.2851097211241722e-03 1.0263472795486450e-01 3.5021331161260605e-02 -2.2031815722584724e-02 -4.0001697838306427e-02 1.5260697342455387e-02 6.1591964215040207e-02 1.0238925367593765e-01 -4.0485497564077377e-02 -1.4822003431618214e-02 1.7685547471046448e-02 7.3017537593841553e-02 -5.6470796465873718e-02 -9.7333163022994995e-02 -9.1668345034122467e-02 -2.4865815043449402e-01 2.0285783335566521e-02 -2.9085801914334297e-02 4.9842622131109238e-02 -4.5558147132396698e-02 -5.0890337675809860e-02 -1.2141605466604233e-01 -1.6585242003202438e-02 4.0589474141597748e-02 5.7513792067766190e-02 1.9341418519616127e-02 -2.4035196751356125e-02 -5.7237282395362854e-02 -1.1194390058517456e-01 -2.7927321195602417e-01 -2.9385516420006752e-02 -2.5633882731199265e-02 4.3845124542713165e-02 9.0027287602424622e-02 -5.4489612579345703e-02 -6.4715042710304260e-02 2.1057676523923874e-02 -6.9694397971034050e-03 9.8872676491737366e-02 -2.7769017964601517e-02 3.8003709167242050e-02 9.7013525664806366e-02 1.0832946002483368e-01 4.5663309097290039e-01 2.8635479509830475e-02 2.6169994845986366e-02 -9.6145644783973694e-02 2.7114575728774071e-02 8.4325373172760010e-02 1.1955682188272476e-01 8.2486644387245178e-03 -1.8413605168461800e-02 -1.2172666937112808e-01 -2.2579962387681007e-02 1.6578381881117821e-02 4.2625479400157928e-02 1.9590832293033600e-02 -2.3452128469944000e-01 -6.2282569706439972e-03 -4.2792465537786484e-02 3.1668718904256821e-02 -2.0952653139829636e-02 -7.4324563145637512e-02 -3.6558914929628372e-02 -6.9447427988052368e-02 5.6209027767181396e-02 -7.5605628080666065e-04 -8.6629530414938927e-03 -7.6704591512680054e-02 3.9739403873682022e-02 -5.9610843658447266e-02 2.2136841714382172e-01 8.4887325763702393e-02 -1.8499059602618217e-02 -1.9397905096411705e-02 7.7251389622688293e-02 7.0985712110996246e-02 1.1247234046459198e-01 -6.8672634661197662e-03 -6.5953977406024933e-02 -1.3668775558471680e-01 8.6133172735571861e-03 9.8148345947265625e-02 9.4980686902999878e-02 9.7164645791053772e-02 -4.3397027254104614e-01 -9.5333263278007507e-02 -9.8645262420177460e-02 2.4669190868735313e-02 -1.4318577945232391e-02 -6.9701276719570160e-02 -1.2863294780254364e-01 -8.1372238695621490e-02 4.8428479582071304e-02 1.9688086211681366e-01 5.3144801408052444e-02 -2.0612105727195740e-01 
      </Weights>
      <Biases rows="32" cols="1">
        2.1917575597763062e-01 1.2627136893570423e-02 -1.3053762912750244e-01 -8.2513496279716492e-02 -2.4025438725948334e-01 -1.3873790204524994e-01 6.5437391400337219e-02 -3.2911854982376099e-01 8.4017679095268250e-02 2.2696430981159210e-01 -1.0239533334970474e-01 -2.5823765993118286e-01 -8.3978101611137390e-02 -1.2434385716915131e-01 -9.9530406296253204e-02 -1.2565782666206360e-01 1.3928253948688507e-01 1.3750824332237244e-01 1.6325865685939789e-01 -2.0937295258045197e-01 -1.3354007899761200e-01 2.6579788327217102e-01 -1.7277479171752930e-02 -1.2059704214334488e-01 -3.9649624377489090e-02 9.7729086875915527e-02 -2.0157040655612946e-01 -8.4037080407142639e-02 4.1723981499671936e-01 -9.4763666391372681e-02 5.6502748280763626e-02 -1.3120363652706146e-01 
      </Biases>
    </Layer>
    <Layer ActivationFunction="3">
      <Weights rows="32" cols="32">
        -4.6358536928892136e-02 5.8998833410441875e-03 1.0346952825784683e-02 3.3717740327119827e-02 -1.0612243786454201e-02 -1.5410514548420906e-02 2.3160818964242935e-02 5.0489466637372971e-02 -4.4837757945060730e-02 8.2009825855493546e-03 -4.5048943720757961e-03 -6.2045180238783360e-03 -2.0986197516322136e-02 -2.1460878197103739e-03 2.2811077535152435e-02 -7.0956861600279808e-03 2.1815132349729538e-02 -3.0260335654020309e-02 -2.7380038052797318e-02 -5.0295465625822544e-03 4.1810683906078339e-02 1.0844071395695210e-02 -2.8047034516930580e-02 -2.3861637338995934e-02 3.1783223152160645e-02 3.2067753374576569e-02 1.7835771664977074e-02 4.5466858893632889e-02 1.3352544978260994e-02 -2.3747913539409637e-02 -3.2260909676551819e-02 1.5193214640021324e-02 6.0118939727544785e-02 2.1026672795414925e-02 -1.9009986892342567e-02 -1.2044739909470081e-02 -4.7989971935749054e-02 6.3496073707938194e-03 3.0621422454714775e-02 1.1492273770272732e-02 3.3123809844255447e-02 2.9948892071843147e-02 -1.0189996100962162e-03 2.9312383849173784e-03 -1.2985924258828163e-02 -1.0506709106266499e-02 -1.1137884575873613e-03 -6.2312525697052479e-03 -1.0542435338720679e-03 8.5707437247037888e-03 -1.3464311137795448e-02 -4.6471770852804184e-02 -4.9062121659517288e-02 1.3059223070740700e-02 2.9373740777373314e-02 5.5188015103340149e-03 -6.8036289885640144e-03 -8.8060209527611732e-03 -6.0910634696483612e-02 -5.9092838317155838e-02 1.2454233132302761e-02 -4.7912523150444031e-02 5.8508470654487610e-02 -2.6037843897938728e-02 1.0470942407846451e-01 1.7224924638867378e-02 -6.4242608845233917e-02 -5.2651930600404739e-02 -1.2646506726741791e-01 -8.7408833205699921e-02 2.6172753423452377e-02 -7.1196042001247406e-02 9.1516263782978058e-02 1.3760274648666382e-01 -4.3223526328802109e-02 -1.4828841388225555e-01 -7.5738638639450073e-02 -6.8807162344455719e-02 -8.4525130689144135e-02 -9.6200644969940186e-02 1.0613700002431870e-01 5.8296333998441696e-02 1.0875146836042404e-01 -1.6503974795341492e-01 -5.3612437099218369e-02 1.7839984595775604e-01 -6.6563017666339874e-02 -1.6228735446929932e-01 -3.6068711429834366e-02 5.5075142532587051e-02 -1.1042306572198868e-01 -6.5283998847007751e-02 1.7549708485603333e-01 -7.4254751205444336e-02 5.6045323610305786e-02 -7.4015155434608459e-02 7.1309141814708710e-02 2.8794554993510246e-02 -2.2766990587115288e-02 -7.0286646485328674e-02 -8.3256185054779053e-02 -1.1281932890415192e-01 1.8164645880460739e-02 -5.8211464434862137e-02 3.5279966890811920e-02 8.0902382731437683e-02 -1.5809990465641022e-02 -1.1242907494306564e-01 -5.2769675850868225e-02 -6.4910672605037689e-02 -8.2923911511898041e-02 -7.2616957128047943e-02 1.1800031177699566e-02 -4.5865802094340324e-03 6.9295056164264679e-02 -4.8721343278884888e-02 -1.6057828441262245e-02 6.4513489603996277e-02 -5.3760908544063568e-02 -4.3644182384014130e-02 2.9844123870134354e-02 -6.1031407676637173e-03 -9.8275743424892426e-02 -4.5205548405647278e-02 1.3159996271133423e-01 -5.4670587182044983e-02 8.9394606649875641e-02 -4.0480673313140869e-02 -8.2258604466915131e-02 -6.9298531161621213e-04 -6.1174067668616772e-03 2.2378766909241676e-02 9.8642647266387939e-02 6.1393219977617264e-02 -1.4468247536569834e-03 3.5940807312726974e-02 -6.2368679791688919e-02 -7.8773230314254761e-02 -1.2239885516464710e-02 1.1306502670049667e-01 6.2519438564777374e-02 7.0536643266677856e-02 3.7484508007764816e-02 4.5961439609527588e-03 -7.0601522922515869e-02 -4.7557421028614044e-02 -7.6413333415985107e-02 8.3018369972705841e-02 3.8742769509553909e-02 -9.3589738011360168e-02 4.3377451598644257e-02 7.7551983296871185e-02 4.0366515517234802e-02 -5.2234944887459278e-03 2.6420792564749718e-02 6.6117160022258759e-02 -1.1927346885204315e-01 8.1079028546810150e-02 -9.7403116524219513e-02 9.0801410377025604e-02 6.5431132912635803e-02 -2.1807975135743618e-03 -4.6227416023612022e-03 -3.6239128559827805e-02 -6.4052298665046692e-02 -6.6195450723171234e-02 -6.5301810391247272e-03 -5.6369166821241379e-02 -3.5869402345269918e-03 6.0634747147560120e-02 -1.5561109408736229e-02 -5.7273708283901215e-02 -1.3579335995018482e-02 -3.7491507828235626e-02 -7.0808720774948597e-03 -3.8017284125089645e-02 4.7519639134407043e-02 3.5487320274114609e-03 5.1220495253801346e-02 -7.8291043639183044e-02 -6.1112485826015472e-02 8.8717840611934662e-02 -5.1179330796003342e-02 -2.8315052390098572e-02 -1.0987255722284317e-02 4.3699316680431366e-02 -2.1004498004913330e-02 -6.4348347485065460e-02 6.7754007875919342e-02 -2.1169293671846390e-02 3.4671626985073090e-02 -8.7318286299705505e-02 1.5223722904920578e-02 -3.3645540475845337e-02 -1.0220532305538654e-02 -2.8990676626563072e-02 -1.6615018248558044e-02 -8.6674755439162254e-03 -6.9936104118824005e-03 -1.1027228320017457e-03 -3.8709674030542374e-02 2.5050550699234009e-02 2.7228921651840210e-02 -2.4913365021348000e-02 -1.6875989735126495e-02 2.8704334981739521e-03 8.2564260810613632e-03 -9.3480022624135017e-03 8.0180130898952484e-03 3.7269454449415207e-02 -1.5101930126547813e-02 -3.7044104188680649e-02 -3.1152715906500816e-02 -1.3429254759103060e-03 4.0084604173898697e-02 1.0338520631194115e-02 -3.4013587981462479e-02 -2.2939592599868774e-04 2.4627242237329483e-02 3.7577899638563395e-03 4.4214520603418350e-02 -6.0373488813638687e-03 -1.3575306162238121e-02 -4.5522000640630722e-02 -1.3261510990560055e-02 -9.6304239705204964e-03 -1.8263311358168721e-03 -3.5973962396383286e-02 -3.3228859305381775e-02 -2.8092794120311737e-02 2.7206007391214371e-02 1.2976812431588769e-03 1.3162864372134209e-02 3.2724067568778992e-02 3.2964698970317841e-02 -7.2746872901916504e-02 -4.6644423156976700e-02 -2.3070115596055984e-02 8.7058357894420624e-03 -2.7540624141693115e-02 4.8764748498797417e-03 4.1519917547702789e-02 5.4446291178464890e-02 -5.0118461251258850e-02 -4.3475117534399033e-02 3.8904681801795959e-02 -3.6508042365312576e-02 -1.9624439999461174e-02 -2.0761584863066673e-02 3.1047957018017769e-03 -5.4377987980842590e-02 -5.2979264408349991e-02 2.7326520532369614e-02 -3.2293122261762619e-02 4.1485942900180817e-02 -8.0599635839462280e-02 -4.5616064220666885e-02 2.7973158285021782e-02 -3.7419740110635757e-02 6.1844510491937399e-04 3.5322468727827072e-02 4.0469344705343246e-02 1.6665561124682426e-02 -4.2811697348952293e-03 6.2902374193072319e-03 9.2596001923084259e-03 1.4907948672771454e-02 6.2796160578727722e-02 -1.3553319498896599e-02 4.1373576968908310e-02 -1.7158133909106255e-02 5.0258569419384003e-02 -5.6294735521078110e-02 -3.5985041409730911e-02 -3.9348531514406204e-02 1.2888788245618343e-02 -2.8353473171591759e-03 -3.6868244409561157e-02 -2.9806138947606087e-02 2.6807924732565880e-02 -8.3262715488672256e-03 -1.7348494380712509e-02 2.1211836487054825e-02 3.7287957966327667e-02 -6.1902556568384171e-02 1.2735917232930660e-02 -4.1813593357801437e-02 -2.0008817315101624e-02 -4.9556519836187363e-02 7.2303013876080513e-03 -2.0279938355088234e-02 4.1343163698911667e-02 7.4630126357078552e-02 5.2585612982511520e-02 1.1236561462283134e-02 2.7920087799429893e-02 -5.1220301538705826e-02 -6.1867136508226395e-02 5.8674998581409454e-02 1.9110048189759254e-02 1.2985929846763611e-02 8.0029919743537903e-02 5.0924446433782578e-02 1.7443291842937469e-02 -7.8161403536796570e-02 -3.4392844885587692e-02 -3.2467305660247803e-02 9.6195988357067108e-02 7.3387391865253448e-02 -3.9599128067493439e-02 1.2468384578824043e-02 3.1439516693353653e-02 6.1045251786708832e-03 1.9784870091825724e-03 4.5015446841716766e-02 -2.2102966904640198e-03 -3.4931186586618423e-02 6.2299486249685287e-02 -3.1629126518964767e-02 9.7635991871356964e-02 6.1500594019889832e-03 7.5728807132691145e-04 -1.7519718036055565e-02 3.5200528800487518e-02 -5.8300473028793931e-05 1.3354752445593476e-03 7.0863636210560799e-03 4.7028686851263046e-02 -1.0472420603036880e-02 -4.9487575888633728e-03 -1.9824773073196411e-02 7.2212748229503632e-02 -1.7917929217219353e-02 4.4792480766773224e-02 4.8538353294134140e-02 -5.1212427206337452e-03 -1.9262913614511490e-02 -4.1400782763957977e-02 -2.4853490293025970e-02 6.9688126444816589e-02 5.9762120246887207e-02 -4.2521998286247253e-02 -1.6890412662178278e-03 -2.4189241230487823e-03 -1.5940470620989799e-02 1.7636293545365334e-02 3.4984719008207321e-02 2.0263601094484329e-02 -4.8877894878387451e-02 3.1325764954090118e-02 -4.5018866658210754e-02 3.2365173101425171e-02 5.0475213676691055e-02 3.0535595491528511e-02 -3.9210230112075806e-02 -3.0525876209139824e-02 -1.9644323736429214e-02 -1.7171170562505722e-02 5.6310396641492844e-02 -4.5713447034358978e-02 3.9752870798110962e-02 7.3712348937988281e-02 3.1999390572309494e-02 -8.4996491670608521e-02 -5.2212607115507126e-02 -7.0583768188953400e-02 -4.5663908123970032e-02 -1.1585772968828678e-02 3.1085498631000519e-02 2.0039055962115526e-03 2.0368711557239294e-03 -6.5847776830196381e-02 -5.2120987325906754e-02 6.2222883105278015e-02 -8.7220687419176102e-03 -6.6194690763950348e-02 1.0001594200730324e-02 6.1447909101843834e-03 -7.1931630373001099e-02 -8.1259317696094513e-02 2.0587351173162460e-02 -4.7025274485349655e-02 5.1288146525621414e-02 -3.7736359983682632e-02 5.1213964819908142e-02 9.3037245096638799e-04 2.4058530107140541e-02 1.3868513517081738e-02 -3.3609192818403244e-02 3.4062166232615709e-03 -1.2878095731139183e-02 8.3126202225685120e-03 3.8491696119308472e-02 4.5985002070665359e-02 2.7347547933459282e-02 -5.2557373419404030e-03 -1.9426096230745316e-02 -3.7257010117173195e-03 9.9656428210437298e-04 2.3387190885841846e-03 -1.6321746632456779e-02 -4.4492105953395367e-03 1.8336879089474678e-02 5.8343932032585144e-03 -2.4346351623535156e-02 4.0343208238482475e-03 3.5108093172311783e-02 -1.2926651164889336e-02 -3.9761967957019806e-02 9.0949498116970062e-03 -1.3833184726536274e-02 -1.5461284667253494e-02 -1.0542318923398852e-03 -3.2955132424831390e-02 3.4008622169494629e-02 -3.5937253385782242e-02 7.2381399571895599e-02 -3.3308312296867371e-02 -2.6259008795022964e-02 -4.1065927594900131e-02 -1.1309701018035412e-02 -8.4281586110591888e-02 1.3414197601377964e-02 1.4297619462013245e-02 9.7000887617468834e-03 5.0692975521087646e-02 2.7978682890534401e-02 -6.0392830520868301e-02 -7.2605740278959274e-03 -4.9092181026935577e-02 -6.8798087537288666e-02 -6.7592144012451172e-02 4.8107877373695374e-02 4.5569051057100296e-02 5.5165722966194153e-02 -5.5282007902860641e-02 -7.6170831918716431e-02 4.7972816973924637e-02 -4.8154998570680618e-02 -5.1897328346967697e-02 -2.6511254254728556e-03 3.7918720394372940e-02 -2.7040464803576469e-02 -4.1846793144941330e-02 1.0968970507383347e-01 1.5843065921217203e-03 6.1616938561201096e-02 -8.5240393877029419e-02 5.7435676455497742e-02 2.0766612142324448e-02 -5.7486347854137421e-02 -7.8696697950363159e-02 -7.6495677232742310e-02 -7.7911153435707092e-02 1.8042584881186485e-02 -1.6328966245055199e-02 3.2072115689516068e-02 5.0746042281389236e-02 -4.1480813175439835e-02 -9.3920074403285980e-02 -5.6662727147340775e-02 -6.0030318796634674e-02 -3.7192072719335556e-02 -2.5769937783479691e-02 9.3882128596305847e-02 7.9357012873515487e-04 8.9147865772247314e-02 -1.3563378155231476e-01 -2.4698086082935333e-02 1.2266777455806732e-01 -3.1739380210638046e-02 -4.6228822320699692e-02 -1.5815723687410355e-02 -8.3431331440806389e-03 -4.9717955291271210e-02 -5.3250841796398163e-02 9.1673299670219421e-02 -9.8747946321964264e-03 9.6120879054069519e-02 -1.1376526951789856e-01 2.0449778065085411e-02 -3.7899989634752274e-02 2.5168314576148987e-02 -3.6929633468389511e-02 2.6191782206296921e-02 -1.8449053168296814e-02 1.4447445981204510e-02 -1.0103919543325901e-02 1.5268074348568916e-02 -2.0253010094165802e-02 -1.3029786059632897e-03 -1.1137831024825573e-02 -9.1858394443988800e-03 3.6942090839147568e-02 -3.5179425030946732e-02 3.3250588923692703e-02 -3.9739824831485748e-02 2.1445874124765396e-02 -2.3197026923298836e-02 -1.4399169012904167e-03 7.8866928815841675e-03 -1.2771680951118469e-02 3.8064171094447374e-03 -4.0140148252248764e-02 1.3588182628154755e-02 2.0538868382573128e-02 1.6805585473775864e-02 -2.0724533125758171e-02 2.0109336823225021e-02 -3.2480347901582718e-02 1.7233032733201981e-02 -1.4076070860028267e-02 8.6587257683277130e-02 -4.0964371873997152e-04 6.9367936812341213e-03 -7.7478617429733276e-02 -5.9500783681869507e-02 -1.1082873493432999e-01 2.2626329213380814e-02 -5.0595238804817200e-02 3.1918577849864960e-02 9.5177546143531799e-02 7.0918169803917408e-03 -1.0686866194009781e-01 -1.9524311646819115e-02 -7.7121473848819733e-02 -4.5679502189159393e-02 -5.5297695100307465e-02 9.2837251722812653e-02 3.2947897911071777e-02 9.7188025712966919e-02 -1.0334718972444534e-01 -5.9691995382308960e-02 1.3829658925533295e-01 -4.9165975302457809e-02 -1.2539757788181305e-01 -1.2673896737396717e-02 3.0289646238088608e-02 -9.8959431052207947e-02 -8.9217640459537506e-02 1.4316289126873016e-01 -7.9281367361545563e-02 3.7181131541728973e-02 -6.6019780933856964e-02 1.9621474668383598e-02 2.7732819318771362e-02 2.3638071492314339e-02 1.9422248005867004e-02 -7.0981815457344055e-02 -1.9686259329319000e-02 2.7684338390827179e-02 -7.1048699319362640e-03 5.7626524940133095e-03 8.0024162307381630e-03 -1.3390600681304932e-02 -6.0198429971933365e-02 -3.4746371209621429e-02 -1.5793526545166969e-02 -1.4393199235200882e-02 -5.7161346077919006e-02 3.8439076393842697e-02 1.9832013640552759e-03 7.1844910271465778e-03 -5.8654531836509705e-02 -3.4213449805974960e-02 7.9181872308254242e-02 -3.0466759577393532e-02 -6.2377005815505981e-02 3.5319220274686813e-02 5.1053594797849655e-02 1.5697669005021453e-03 -6.7602783441543579e-02 8.6007677018642426e-02 -6.5344303846359253e-02 1.7762830248102546e-03 -4.4641342014074326e-02 1.8563617020845413e-02 1.0494271293282509e-02 7.5816363096237183e-03 1.8756823614239693e-02 7.3103844188153744e-03 -5.9322588145732880e-02 -2.9726205393671989e-02 -9.6114650368690491e-03 3.5820449702441692e-03 -1.9662201404571533e-02 -3.3955130726099014e-02 -4.3773889541625977e-02 -1.4593223109841347e-02 -7.3705008253455162e-03 1.9231792539358139e-02 -1.5572154894471169e-02 5.2008170634508133e-02 1.6942128539085388e-02 3.3841494470834732e-02 -1.7507040873169899e-02 1.1733524501323700e-02 6.4317360520362854e-02 -3.2318077981472015e-02 -1.2373085133731365e-02 -3.9720781147480011e-02 -1.5272100456058979e-02 7.7202231623232365e-03 -1.4307153411209583e-02 4.9487382173538208e-02 6.2631289474666119e-03 3.3823061734437943e-02 -1.0828240774571896e-03 -4.2250365018844604e-02 4.0447313338518143e-02 3.8462534546852112e-02 7.4319908162578940e-04 3.1415089964866638e-02 4.9348235130310059e-02 2.6080887764692307e-02 2.5841815397143364e-02 -4.9337513744831085e-02 -6.7180417478084564e-02 7.8457100316882133e-03 8.2340436056256294e-03 1.0841306298971176e-02 2.2264214232563972e-02 6.5245844423770905e-02 -1.5345534309744835e-02 1.0985382832586765e-02 2.3985354229807854e-02 -2.4583909660577774e-02 4.9325432628393173e-02 -7.8841634094715118e-03 -4.1586294770240784e-02 -5.6302030570805073e-03 4.2028862982988358e-02 3.7961404770612717e-02 6.0636936686933041e-03 6.8618752062320709e-02 7.8227883204817772e-03 -3.8493968546390533e-02 -4.7591673210263252e-03 -2.8935113921761513e-02 2.8301887214183807e-02 8.4156394004821777e-03 8.2141151651740074e-03 3.8547154515981674e-02 -1.0362152010202408e-02 1.1306905187666416e-02 4.2395060881972313e-03 9.0159205719828606e-03 7.3251374997198582e-03 -9.0515660122036934e-03 5.4476208984851837e-02 4.1172378696501255e-03 1.9825443159788847e-03 -5.1729213446378708e-03 -4.3429438024759293e-02 -5.3417854011058807e-02 -4.9664743244647980e-02 -1.1296716518700123e-02 4.6125832945108414e-02 -5.0815357826650143e-03 -4.5802695676684380e-03 2.6850244030356407e-03 1.4073600992560387e-02 3.2528985291719437e-02 2.4688901379704475e-02 -1.5839487314224243e-02 4.5666806399822235e-02 -1.0333269834518433e-02 -6.4293579198420048e-03 -3.3366584684699774e-03 8.8958591222763062e-03 -1.4254744164645672e-02 -6.0035038739442825e-02 1.1192353814840317e-01 2.0834209397435188e-02 -6.8570792675018311e-02 -5.7427342981100082e-02 -7.4857518076896667e-02 -1.1439899355173111e-01 2.7644200250506401e-02 -4.5315720140933990e-02 1.0675211250782013e-01 6.9451317191123962e-02 -2.4285839870572090e-02 -1.5456266701221466e-01 -4.6375817619264126e-03 -9.8357960581779480e-02 -8.7238729000091553e-02 -1.9846089184284210e-02 1.0203322023153305e-01 2.7829870581626892e-02 9.8935827612876892e-02 -1.4741167426109314e-01 -9.9433973431587219e-02 1.5465179085731506e-01 -1.4808515086770058e-02 -1.3150811195373535e-01 -2.4545287713408470e-02 1.7504567280411720e-02 -8.2621566951274872e-02 -1.0057853162288666e-01 1.2578265368938446e-01 -6.0448605567216873e-02 7.8174158930778503e-02 -9.2617206275463104e-02 7.9339593648910522e-03 -2.5230774655938148e-02 -2.9610358178615570e-02 1.3215119950473309e-02 -4.7380629926919937e-02 -2.9030853882431984e-02 2.4894529953598976e-02 1.7855303362011909e-02 4.1146002709865570e-02 1.5345014631748199e-02 1.7543038353323936e-02 -3.7317439913749695e-02 -1.9668595865368843e-02 -3.5963200032711029e-02 -4.6719133853912354e-02 1.2688367627561092e-02 3.5577416419982910e-02 4.2334657162427902e-02 4.9843285232782364e-02 -7.4892066419124603e-02 -1.1599465273320675e-02 6.2725596129894257e-02 -3.2613776624202728e-02 -1.7700798809528351e-02 3.3740185201168060e-02 -1.1492726393043995e-02 -6.2237787991762161e-02 -3.3984404057264328e-02 5.1370054483413696e-02 -6.8732134997844696e-02 3.3286273479461670e-02 -2.7550403028726578e-02 8.7218154221773148e-03 3.7416755221784115e-03 3.1094267964363098e-02 2.0151942968368530e-02 2.0026408135890961e-02 1.0363417677581310e-02 4.5722998678684235e-02 2.9953557532280684e-03 3.5838250070810318e-02 2.5063442066311836e-02 3.8244631141424179e-02 1.2012723833322525e-02 9.4910543411970139e-03 1.8994031473994255e-02 6.8687456659972668e-03 -4.5137074775993824e-03 -2.1084463223814964e-02 1.3719510287046432e-02 7.6454682275652885e-03 -1.1264712549746037e-02 1.7779162153601646e-02 2.4230221286416054e-02 -4.7086335718631744e-02 -1.3833674602210522e-02 3.6449484527111053e-02 1.9748989492654800e-02 2.5030061602592468e-02 -2.6395242661237717e-02 4.7961492091417313e-02 3.0641336925327778e-03 3.0548835173249245e-02 -4.8059836030006409e-02 4.0063183754682541e-02 2.9539441689848900e-02 -3.7738621234893799e-02 -3.1227074563503265e-02 -6.3770405948162079e-02 -1.0146181285381317e-01 3.8897085934877396e-02 -3.2216116786003113e-02 7.6485887169837952e-02 8.9375942945480347e-02 -4.6075221151113510e-02 -6.8712525069713593e-02 -4.4543318450450897e-02 -6.0960162431001663e-02 -6.1897441744804382e-02 -1.5590081457048655e-03 2.3136241361498833e-02 -1.0295411571860313e-02 6.5595328807830811e-02 -6.2296759337186813e-02 -3.4515038132667542e-02 1.3432177901268005e-01 -3.2515428960323334e-02 -7.4478194117546082e-02 -3.9253789931535721e-02 5.3775694221258163e-02 -4.8997905105352402e-02 -6.5239422023296356e-02 1.0575710982084274e-01 -4.3882178142666817e-03 6.6005401313304901e-02 -4.7126356512308121e-02 -4.8677828162908554e-03 1.3963020406663418e-02 1.3403635472059250e-02 5.8153243735432625e-03 5.3321119397878647e-02 -8.7879542261362076e-03 -1.7749110236763954e-02 4.7142910771071911e-03 -4.6766560524702072e-02 -4.2808987200260162e-03 4.1836522519588470e-02 3.5049304366111755e-02 1.6281226649880409e-02 4.9136456102132797e-02 9.3235019594430923e-03 -3.0417453497648239e-02 1.4888558536767960e-02 -5.1259403117001057e-03 -1.8314626067876816e-03 3.1657021492719650e-02 3.1603436917066574e-02 -4.6268779784440994e-02 -2.0236564800143242e-02 2.8784440830349922e-02 -1.5016766265034676e-03 3.0306460335850716e-02 -2.8318243101239204e-02 -1.7890345305204391e-02 -1.5778744593262672e-02 -3.7210877053439617e-04 1.2971755117177963e-02 2.7803469449281693e-02 4.4544056057929993e-02 -1.0380508378148079e-02 -8.2218423485755920e-03 -5.9057530015707016e-02 -5.2500311285257339e-03 -2.0717797800898552e-02 9.5064053311944008e-03 -2.9230287298560143e-02 4.3730616569519043e-02 3.1423565000295639e-02 -3.7953455001115799e-02 -3.0983345583081245e-02 -9.5868129283189774e-03 -6.1739202588796616e-02 -2.2402817383408546e-02 1.1661817319691181e-02 -1.0779305361211300e-02 -3.1345158815383911e-02 1.2353786267340183e-02 -3.4359678626060486e-02 -5.0944183021783829e-02 6.7236997187137604e-02 -5.0223622471094131e-02 -1.4925256371498108e-02 7.6729939319193363e-03 1.9973292946815491e-02 -1.9972668960690498e-02 -1.7173204571008682e-02 1.6689786687493324e-02 -6.4660154283046722e-02 1.0082606226205826e-02 -3.2521616667509079e-02 -3.6968570202589035e-02 1.2811777181923389e-02 2.4555479176342487e-03 2.3977800738066435e-03 4.2618513107299805e-02 8.9854992926120758e-02 -4.7189574688673019e-02 3.9247535169124603e-02 -6.7286163568496704e-02 -2.7605047449469566e-02 4.5206222683191299e-02 5.9187401086091995e-02 -4.1128355078399181e-03 7.4943117797374725e-02 6.9227963685989380e-02 6.2620900571346283e-02 -6.5501458942890167e-02 -5.4268214851617813e-02 -1.9863532856106758e-02 9.9343895912170410e-02 2.0561011508107185e-02 -6.7152567207813263e-02 -1.6471121460199356e-02 2.1915443241596222e-02 -1.4644339680671692e-03 -3.0133951455354691e-02 3.2296456396579742e-02 6.0906559228897095e-02 -8.0553650856018066e-02 2.8467241674661636e-02 -6.1056055128574371e-02 2.4352604523301125e-03 4.6946875751018524e-02 -3.5306300967931747e-02 -1.4601372182369232e-02 1.4574197120964527e-02 -5.3829777985811234e-02 -1.4231776818633080e-02 -2.5719045661389828e-03 -6.2035262584686279e-02 4.4545304030179977e-02 7.1896903216838837e-02 -3.6248676478862762e-02 -5.7268895208835602e-02 -3.1230268999934196e-02 -3.5336683504283428e-04 -4.5144565403461456e-02 8.3043240010738373e-03 1.3807085342705250e-02 -1.6587303951382637e-02 2.6094211265444756e-02 -6.0052912682294846e-02 -5.9417471289634705e-02 3.5316240042448044e-02 -4.1387811303138733e-02 -7.4630782008171082e-02 -1.2118451995775104e-03 -1.6030468046665192e-02 -6.3253566622734070e-02 -6.3872635364532471e-02 8.7105356156826019e-02 -9.4058206304907799e-03 1.5555269084870815e-02 -5.3409505635499954e-02 -2.1880777552723885e-02 1.0064160451292992e-02 3.1047262251377106e-02 -1.7463495954871178e-02 4.2718914337456226e-03 1.9184565171599388e-02 -2.4877907708287239e-02 1.8312236294150352e-02 -5.3201444447040558e-02 -5.0971299409866333e-02 3.7068396806716919e-02 6.1774380505084991e-02 -1.5781613066792488e-02 1.3562841340899467e-02 3.7638004869222641e-04 6.1554696410894394e-02 -4.7116436064243317e-02 2.0166574046015739e-02 -3.6271352320909500e-02 5.7523299008607864e-02 6.4447475597262383e-03 -4.6823132783174515e-02 4.1301329620182514e-03 2.6851953938603401e-02 2.7972511947154999e-02 -7.2693414986133575e-03 5.8221187442541122e-02 7.8318811953067780e-02 -8.7953910231590271e-02 5.2474994212388992e-02 -2.3146608844399452e-02 2.5308324024081230e-02 8.2770936191082001e-02 4.1629571467638016e-02 1.1608807835727930e-03 -6.1342034488916397e-02 -8.4456093609333038e-02 -8.8358499109745026e-02 4.1845645755529404e-02 -2.2912824526429176e-02 6.9735622964799404e-03 8.6175777018070221e-02 -3.8643732666969299e-02 -2.7828179299831390e-02 -4.6111922711133957e-02 3.7791375070810318e-03 -4.8347037285566330e-02 -2.1772518754005432e-02 3.4330122172832489e-02 4.8390977084636688e-02 8.1880643963813782e-02 -4.0881209075450897e-02 -4.7738105058670044e-02 8.3987109363079071e-02 1.9583031535148621e-03 -6.5736800432205200e-02 8.3644511178135872e-03 4.4448889791965485e-02 -6.3883371651172638e-02 -5.1506254822015762e-02 1.0541045665740967e-01 4.4236038811504841e-03 3.3570673316717148e-02 -2.8954789042472839e-02 1.4869996346533298e-02 -2.4385457858443260e-02 1.1951310560107231e-02 -4.5434697531163692e-03 -3.3614937216043472e-02 -6.1893340200185776e-02 1.1585881933569908e-02 -2.8970791026949883e-04 4.5662362128496170e-02 1.1198692955076694e-02 -2.6977194473147392e-02 -2.8258964419364929e-02 4.2852531187236309e-03 -3.9724566042423248e-02 -3.2497882843017578e-02 -1.0282123461365700e-02 3.8244351744651794e-02 4.3573487550020218e-02 3.6554388701915741e-02 -1.8854971975088120e-02 -3.8090342422947288e-04 5.9096906334161758e-02 -1.2566393241286278e-02 -5.4337024688720703e-02 3.6735773086547852e-02 2.8114009648561478e-02 -1.8513631075620651e-02 -8.7854973971843719e-03 7.4416838586330414e-02 -6.1159726232290268e-02 4.5361276715993881e-02 -3.2207991927862167e-02 
      </Weights>
      <Biases rows="32" cols="1">
        -1.8960572779178619e-02 4.1037697345018387e-02 2.6323986053466797e-01 1.3701507449150085e-01 -1.1161649972200394e-01 6.6229283809661865e-02 3.3181961625814438e-02 6.0457795858383179e-02 -1.3647088780999184e-02 -7.6134465634822845e-02 -2.4679543450474739e-02 5.4838288575410843e-02 1.3416444882750511e-02 6.5849594771862030e-02 8.9432477951049805e-02 -3.1332394573837519e-03 1.4206998050212860e-01 5.2644193172454834e-02 -2.8420244343578815e-03 -2.1565651521086693e-02 4.3513784185051918e-03 2.0039945840835571e-01 9.6587836742401123e-03 3.1341959256678820e-03 1.5757447481155396e-01 -1.9926389679312706e-02 2.4265836924314499e-02 -9.2238008975982666e-02 3.9448805153369904e-02 -9.5010221004486084e-02 8.2656793296337128e-02 4.5548181980848312e-02 
      </Biases>
    </Layer>
    <Layer ActivationFunction="3">
      <Weights rows="32" cols="32">
        -4.2194880545139313e-02 1.7863981425762177e-02 6.3209846615791321e-02 6.0682844370603561e-02 -5.9962846338748932e-02 -1.2760692043229938e-03 2.7396410703659058e-02 6.1948772519826889e-02 -4.8274978995323181e-02 -1.7624897882342339e-03 -2.1875239908695221e-02 7.0356465876102448e-03 -1.5347821637988091e-02 1.7212798818945885e-02 4.7267980873584747e-02 -7.7219181694090366e-03 7.3929138481616974e-02 -6.3084969297051430e-03 -1.0739699006080627e-02 -3.6775574088096619e-02 3.7064641714096069e-02 8.4712050855159760e-02 -1.1407413519918919e-02 -3.3086806535720825e-02 6.3388936221599579e-02 2.8225801885128021e-02 2.6445031166076660e-02 3.5411785356700420e-03 4.7685079276561737e-02 -4.9597576260566711e-02 1.1795838363468647e-02 1.3866558670997620e-02 3.7444781512022018e-02 3.0392851680517197e-02 4.2587775737047195e-02 2.7482984587550163e-02 -6.3625708222389221e-02 5.9040427207946777e-02 2.4025414139032364e-02 3.9761736989021301e-02 3.2965377904474735e-03 -1.4720530249178410e-02 -1.0836527682840824e-02 6.4175255596637726e-02 7.0096282288432121e-03 3.5932496190071106e-02 5.1549423485994339e-02 1.3657663948833942e-02 2.7012526988983154e-02 2.0673241466283798e-02 -2.6626255363225937e-02 -3.0688421800732613e-02 -2.7649393305182457e-02 3.6034934222698212e-02 6.3002273440361023e-02 3.8701735436916351e-02 2.7684461325407028e-02 -2.0524948835372925e-02 -1.8657704815268517e-02 -6.3542254269123077e-02 -1.4715364668518305e-03 -5.1854085177183151e-02 6.7222796380519867e-02 7.8785372897982597e-03 1.8560737371444702e-02 8.5722766816616058e-03 -2.2380238398909569e-02 1.5474621905013919e-03 -3.8065209984779358e-02 1.4506076462566853e-02 -6.8520372733473778e-03 -3.9972156286239624e-02 2.1329462528228760e-02 3.9793245494365692e-02 -2.3020913824439049e-02 -1.8459262326359749e-02 -3.3199321478605270e-02 1.0298973647877574e-03 -8.1794336438179016e-03 -4.1310116648674011e-02 3.8933411240577698e-02 3.6456774920225143e-02 1.8881333991885185e-02 -3.0452322214841843e-02 2.1171107888221741e-02 3.1857196241617203e-02 -6.6957445815205574e-03 -3.8619309663772583e-02 -1.5880269929766655e-02 3.5132020711898804e-02 -1.7778806388378143e-02 3.7001017481088638e-02 3.5177335143089294e-02 -1.4044345356523991e-02 -3.6808088421821594e-02 7.3782247491180897e-03 2.3549923673272133e-02 5.5679958313703537e-03 -1.0179793834686279e-01 -9.3930035829544067e-02 5.2550148218870163e-02 -9.3362070620059967e-02 -4.5738583430647850e-03 -5.3114779293537140e-02 4.4175344519317150e-03 5.4879028350114822e-02 2.6736693456768990e-02 -7.6294206082820892e-02 -4.6670623123645782e-02 -7.4531674385070801e-02 -9.2871814966201782e-02 -4.5761428773403168e-02 -1.0901762545108795e-01 -5.4247163236141205e-02 2.7238696347922087e-03 6.9834500551223755e-02 3.2380923628807068e-02 -1.3834960758686066e-01 -6.2329512089490891e-02 2.3035993799567223e-02 -1.8709803000092506e-02 -1.0745881125330925e-02 -6.8068951368331909e-02 7.6842918992042542e-02 3.8832712452858686e-03 2.2104533389210701e-02 -3.5294331610202789e-02 1.9764162134379148e-03 -1.5832563862204552e-02 -1.1102302931249142e-02 -8.5467517375946045e-02 -4.0022995322942734e-02 6.8970993161201477e-02 -3.3808484673500061e-02 1.8710164353251457e-02 -1.0347576811909676e-02 3.7798983976244926e-03 1.3991666492074728e-04 -2.1574024111032486e-02 1.3678291579708457e-03 3.4653533250093460e-02 1.7615745309740305e-03 -4.5909050852060318e-02 -3.3859569579362869e-02 -6.0870010405778885e-02 -5.7439818978309631e-02 -2.2753566503524780e-02 4.9145687371492386e-03 -1.8467364832758904e-02 -4.7975312918424606e-02 -2.2539047524333000e-02 -1.2682431843131781e-03 -1.0162329272134230e-04 1.7712200060486794e-02 -5.1408361643552780e-02 2.8208734467625618e-02 -5.0014253705739975e-02 4.7376066446304321e-02 -6.5136939287185669e-02 1.1806552298367023e-02 2.7452809736132622e-02 -2.5435409042984247e-03 7.8598111867904663e-03 -1.0239771567285061e-02 -1.7569195479154587e-02 -1.8015339970588684e-02 -2.1371338516473770e-02 -4.1422933340072632e-02 -4.2741585522890091e-02 2.2127658128738403e-02 -5.1506469026207924e-04 4.9475729465484619e-03 7.1109021082520485e-03 -3.8598640821874142e-03 3.0375570058822632e-02 -1.9035967066884041e-02 1.1836935766041279e-02 -1.0251459665596485e-02 1.0155862197279930e-02 -1.2786068953573704e-02 -2.2132003679871559e-02 1.6747165471315384e-02 -2.2248392924666405e-02 3.1024230644106865e-02 -7.9515660181641579e-03 3.5602398216724396e-02 1.8630063161253929e-02 -1.6081595793366432e-02 6.0820593498647213e-03 8.6026405915617943e-03 -1.2832773849368095e-02 -3.8673296570777893e-02 1.7330838367342949e-02 -4.8583272844552994e-02 -8.5505202412605286e-02 -6.6064395010471344e-02 4.0965288877487183e-02 -4.2427867650985718e-02 -1.0287169367074966e-02 -2.3014534264802933e-02 -2.7380110695958138e-02 4.5940157026052475e-02 4.7602783888578415e-02 -5.6285556405782700e-02 -2.6237610727548599e-02 -3.1338747590780258e-02 -3.0002033337950706e-02 -1.6026256605982780e-02 -5.5165726691484451e-02 1.1250778101384640e-02 -3.0481906607747078e-02 -6.0091554187238216e-03 -2.9961237683892250e-02 -8.9686930179595947e-02 1.1187812313437462e-02 7.9560652375221252e-03 -7.5482517480850220e-02 5.2216886542737484e-03 7.2919148951768875e-03 5.0347317010164261e-02 8.9170625433325768e-03 2.3848475888371468e-02 -6.5081357955932617e-02 -5.4331049323081970e-02 -3.9096724241971970e-02 -2.0869791507720947e-02 -4.1945800185203552e-02 -4.9070410430431366e-02 3.8915954530239105e-02 -1.4055135659873486e-02 1.3772438280284405e-02 4.1936272755265236e-03 -4.3416242115199566e-03 1.6973759979009628e-02 5.6148760020732880e-02 -5.0780743360519409e-02 -4.3068498373031616e-02 -2.4219626560807228e-02 7.1459407918155193e-03 -1.2147685512900352e-02 -6.1957985162734985e-02 1.5050020068883896e-02 1.6372058540582657e-02 1.4345575124025345e-02 -1.8406482413411140e-02 -6.7361861467361450e-02 -3.9176307618618011e-02 1.7269922420382500e-02 -4.4954285025596619e-02 -7.3937996057793498e-04 -3.6468673497438431e-02 1.2980926781892776e-02 -3.9637878537178040e-02 9.9475886672735214e-03 -2.3604651913046837e-02 -5.3369458764791489e-02 -2.0627822726964951e-02 1.3510981574654579e-02 -1.2536697089672089e-01 -4.9920018762350082e-02 6.4651280641555786e-02 -2.6157857850193977e-02 2.6371452957391739e-02 -4.2746681720018387e-02 4.1123926639556885e-02 6.2479525804519653e-02 2.7524193748831749e-02 -9.2497905716300011e-03 -3.5234276205301285e-02 -1.4089128002524376e-02 -8.4839232265949249e-02 2.6086403056979179e-02 -1.0306952893733978e-01 -5.6889556348323822e-02 -3.1373012810945511e-02 3.7667923606932163e-03 -2.5971667841076851e-02 -8.6391426622867584e-02 -7.5350753962993622e-02 -9.7087072208523750e-03 -5.8114040642976761e-02 2.1756037313025445e-04 -3.4431230276823044e-02 5.2602834999561310e-02 -5.7288117706775665e-02 2.6049835607409477e-02 -6.2048818916082382e-02 -6.2246415764093399e-02 -8.4834853187203407e-03 1.1282827705144882e-02 -3.2599642872810364e-02 1.8869088962674141e-02 3.6334622651338577e-02 1.0200955148320645e-04 2.1116200834512711e-02 7.1401763707399368e-03 -1.6788946464657784e-02 -2.0625421777367592e-02 4.1753660887479782e-02 -4.2922087013721466e-02 6.1366771114990115e-04 4.0853276848793030e-02 2.1542292088270187e-02 -6.8151783198118210e-03 -3.9182599633932114e-02 -2.5429090484976768e-02 1.1662990786135197e-02 3.1151060014963150e-02 3.8953233510255814e-02 2.6998255401849747e-02 -1.9655125215649605e-02 -2.3966332897543907e-02 7.3152966797351837e-03 6.4354613423347473e-03 9.1412663459777832e-03 -4.1255168616771698e-02 1.7171639949083328e-02 2.5378152728080750e-02 1.7840560525655746e-02 3.7583764642477036e-02 2.9911765828728676e-02 3.9657353772781789e-04 -2.9579473659396172e-02 2.0362086594104767e-02 -2.2515753284096718e-02 -2.9965374618768692e-02 1.4813781715929508e-02 3.0603734776377678e-02 1.3506486080586910e-02 2.1411161869764328e-02 -2.6259703561663628e-02 3.6452218890190125e-02 -2.6219606399536133e-02 2.3563329130411148e-02 2.4716861546039581e-02 -2.0080804824829102e-02 -3.9164265617728233e-03 -3.9039637893438339e-02 -3.1406071502715349e-03 3.6027535796165466e-02 3.9214324206113815e-02 -1.0760853998363018e-02 -1.8282759934663773e-02 -3.0463421717286110e-02 -2.2178344428539276e-02 2.5638639926910400e-02 9.8462942987680435e-03 -3.1278778333216906e-03 -1.6558598726987839e-02 1.1915259994566441e-02 -2.3836577311158180e-02 4.7253477387130260e-03 1.8423743546009064e-02 1.4129593968391418e-02 -9.9793471395969391e-02 -4.8217099159955978e-02 7.2286941111087799e-02 -8.4477718919515610e-03 4.2741045355796814e-02 -4.3945468962192535e-02 1.9516723230481148e-02 5.9590943157672882e-02 6.1268102377653122e-02 -6.3915595412254333e-02 -4.8003423959016800e-02 -7.5062721967697144e-02 -5.5604059249162674e-02 4.5029334723949432e-03 -5.5875264108181000e-02 -3.3907301723957062e-02 -4.4034324586391449e-02 1.2766493484377861e-02 -2.2587558254599571e-02 -7.5104042887687683e-02 -1.8303783610463142e-02 -2.6955798268318176e-02 -2.5029873475432396e-02 4.6028913930058479e-03 -5.6864690035581589e-02 1.1146558681502938e-03 -6.6257566213607788e-02 7.6514077372848988e-03 -2.9864277690649033e-02 -1.5553023666143417e-02 3.8826722651720047e-02 4.4895582832396030e-03 4.2426086962223053e-02 2.5619894266128540e-02 -3.1602978706359863e-02 2.7806034311652184e-02 -1.6135921701788902e-02 2.1766731515526772e-02 2.5294344872236252e-02 2.7048416435718536e-02 2.5911480188369751e-02 2.0261026918888092e-02 -1.3179344125092030e-02 1.1690702289342880e-02 1.9264495000243187e-02 1.2389875948429108e-02 -1.2903898954391479e-02 -3.8701815064996481e-03 1.0817617177963257e-02 1.7934277653694153e-02 -1.2822852469980717e-02 5.9521757066249847e-04 4.8018842935562134e-02 4.9133189022541046e-03 -3.1058266758918762e-02 5.8495257981121540e-03 2.3791051935404539e-03 -1.0067149996757507e-02 -1.1434025131165981e-02 -3.1257744878530502e-02 2.9251514002680779e-02 -1.6791984438896179e-02 4.0264412760734558e-02 -5.5348515510559082e-02 -1.1450111865997314e-01 -6.9992013275623322e-02 1.0873389989137650e-01 -8.5466787219047546e-02 -3.7542288191616535e-03 6.9699240848422050e-03 -1.0666467249393463e-02 4.6379230916500092e-02 6.8101197481155396e-02 -4.7418553382158279e-02 -4.9972143024206161e-03 -6.5841197967529297e-02 -9.3332342803478241e-02 -5.5824533104896545e-02 -6.7887268960475922e-02 6.1656761681661010e-04 -1.4853641623631120e-03 4.3207462877035141e-02 -4.3231345713138580e-02 -1.3127288222312927e-01 -6.6000498831272125e-02 -7.2607146576046944e-03 -5.4043300449848175e-02 3.6164797842502594e-02 -2.0204745233058929e-02 6.1525575816631317e-02 6.0509336180984974e-03 7.2310343384742737e-02 -4.1225537657737732e-02 -6.1808004975318909e-02 -9.8903570324182510e-03 2.9290748760104179e-02 1.9926697015762329e-02 -1.3306636363267899e-02 -4.4632665812969208e-02 2.4426212534308434e-02 -1.5283812535926700e-03 3.3412601798772812e-02 -3.5482902079820633e-02 -3.1973615288734436e-02 -3.0138541013002396e-02 2.6551213115453720e-02 -2.6025621220469475e-02 1.5031700953841209e-02 4.4805552810430527e-02 1.4854958280920982e-02 7.9048775136470795e-02 6.1328853480517864e-03 3.2898638397455215e-02 -5.1014274358749390e-02 3.7991236895322800e-02 7.4079677462577820e-02 3.6144495010375977e-02 4.2567864060401917e-02 2.0735707134008408e-02 -2.9979275539517403e-02 2.9983330518007278e-02 -1.4668363146483898e-02 1.8815981224179268e-02 2.4087266996502876e-02 5.6735090911388397e-02 -2.2515889257192612e-02 2.5833262130618095e-02 -5.8129265904426575e-02 -6.8140804767608643e-02 -7.9956330358982086e-02 8.9868076145648956e-02 -6.4176514744758606e-02 1.3463553972542286e-02 -4.0701434016227722e-02 3.2238531857728958e-02 1.3999518007040024e-02 2.3138560354709625e-02 -5.6168559938669205e-02 -2.1542696282267570e-02 -1.5291685704141855e-03 -8.6977384984493256e-02 2.2181658074259758e-02 -1.1529243737459183e-01 -1.1050149798393250e-02 -3.9638478308916092e-02 2.8042625635862350e-02 1.5864856541156769e-03 -1.0833778977394104e-01 -3.4149948507547379e-02 -4.8813223838806152e-02 -3.7973623722791672e-02 3.0731352046132088e-02 -1.4565982855856419e-02 2.9377862811088562e-02 -1.7310727387666702e-02 3.4710555337369442e-03 -3.3443026244640350e-02 -3.8179960101842880e-02 7.1270442567765713e-03 1.5468717552721500e-02 1.3454371690750122e-01 1.6404237598180771e-02 -4.5419082045555115e-02 1.9263001158833504e-02 -1.3133864849805832e-03 1.4327265322208405e-02 -5.3419068455696106e-02 -1.3159182853996754e-02 6.0289767570793629e-03 4.9324151128530502e-02 2.5259066373109818e-02 2.2723346948623657e-02 7.1781732141971588e-02 -4.6367333270609379e-03 1.1092922091484070e-01 5.0963114947080612e-02 3.7889316678047180e-02 -1.6290571540594101e-02 1.2240987271070480e-02 1.1664654314517975e-01 4.2210165411233902e-02 -1.9489020109176636e-02 5.4028578102588654e-02 1.0594893246889114e-03 5.6949453428387642e-03 -6.0578435659408569e-02 6.5178669989109039e-02 -5.5986635386943817e-02 1.6442574560642242e-02 3.0288865789771080e-02 -2.9815323650836945e-02 5.6217301636934280e-02 1.8688201904296875e-01 1.1780570447444916e-01 -1.2489750236272812e-01 9.8247751593589783e-02 1.2545540928840637e-02 6.6554784774780273e-02 -6.0776326805353165e-02 -8.2620963454246521e-02 -3.7788871675729752e-02 7.4048794806003571e-02 1.8166876398026943e-03 8.0896191298961639e-02 1.0897268354892731e-01 -1.5092305839061737e-02 1.2486913800239563e-01 4.4736299663782120e-02 -6.1457548290491104e-03 -4.3447200208902359e-02 1.6992967575788498e-02 1.6299661993980408e-01 5.5961605161428452e-02 2.7708048000931740e-03 1.2580354511737823e-01 2.4571904912590981e-02 9.7977146506309509e-02 -9.4108559191226959e-02 7.9725734889507294e-02 -8.5886962711811066e-02 3.7593077868223190e-02 3.6549460142850876e-02 -6.3462131656706333e-03 3.5397250205278397e-02 1.3717919588088989e-01 9.0128384530544281e-02 -5.5642191320657730e-02 2.2043308243155479e-02 -3.7482738494873047e-02 3.9556227624416351e-02 -3.8148667663335800e-02 -7.9732082784175873e-02 -5.6790117174386978e-02 4.0237024426460266e-02 9.7476076334714890e-03 6.0302272439002991e-02 1.0561075806617737e-01 7.0871347561478615e-03 1.3564611971378326e-01 5.6501053273677826e-02 3.8019061088562012e-02 -2.8443032875657082e-02 3.6338146775960922e-02 1.6252511739730835e-01 2.8121676295995712e-02 1.9945038482546806e-02 3.3214882016181946e-02 -3.4626353532075882e-02 6.9559223949909210e-02 -5.7910755276679993e-02 6.9091752171516418e-02 -2.4807769805192947e-02 8.1675715744495392e-02 4.7848839312791824e-02 -2.5640713050961494e-02 6.2444314360618591e-02 1.3705408573150635e-01 3.9598040282726288e-02 -7.0145964622497559e-02 6.8331457674503326e-02 3.7837330251932144e-02 4.6387318521738052e-02 -4.7269988805055618e-02 -7.5784772634506226e-02 -2.8473960235714912e-02 2.1337799727916718e-02 1.3986970297992229e-02 4.9784839153289795e-02 1.0425845533609390e-01 -1.8720651045441628e-02 1.1603338271379471e-01 6.8054281175136566e-02 1.7529614269733429e-02 -2.1506305783987045e-02 -2.4303462356328964e-02 1.0765247792005539e-01 2.4582086130976677e-02 1.9808966666460037e-02 9.2461243271827698e-02 2.3055165074765682e-03 7.5186729431152344e-02 -7.5196124613285065e-02 4.1065610945224762e-02 -6.0362044721841812e-02 5.7358834892511368e-02 2.3235362023115158e-02 -1.9179821247234941e-03 1.3738739071413875e-03 1.1056550778448582e-02 -2.2454066202044487e-02 4.9022883176803589e-02 8.7850028648972511e-03 3.4684392157942057e-03 8.4307948127388954e-03 -1.5290702693164349e-02 5.0878953188657761e-02 1.6600109636783600e-02 7.4018952436745167e-03 -5.7038650847971439e-03 -4.8689540475606918e-02 -6.2624447047710419e-02 -4.2366228997707367e-02 -4.7608256340026855e-02 3.0544063076376915e-02 -2.2230807691812515e-02 2.6014050468802452e-02 1.1484617367386818e-02 -4.0295507758855820e-02 2.5932710617780685e-02 4.0337525308132172e-02 -3.2380759716033936e-02 4.4517781585454941e-02 -7.5612491928040981e-03 2.5714581832289696e-02 -3.5085894167423248e-02 2.9807366430759430e-02 -4.7124128788709641e-02 -4.9133189022541046e-02 3.2209038734436035e-02 7.9468833282589912e-03 -7.5786642730236053e-02 -2.8613829985260963e-02 3.9378773421049118e-02 -3.9744917303323746e-02 1.1800794163718820e-03 -2.6403103023767471e-02 4.4950414448976517e-02 7.0902297738939524e-04 9.6974940970540047e-03 -5.5558230727910995e-02 2.3291796445846558e-02 -5.1860373467206955e-02 -4.2447693645954132e-02 1.9334970042109489e-02 2.3575385566800833e-03 -4.0367888286709785e-03 7.0677055045962334e-03 -8.2058608531951904e-03 -3.2176613807678223e-02 -2.4993268772959709e-02 2.5970146059989929e-02 -2.9648065567016602e-02 -3.4475691616535187e-02 5.7467692531645298e-03 -1.7650984227657318e-02 1.0981730185449123e-02 -1.4397368766367435e-02 1.9189314916729927e-02 -2.8425544500350952e-02 -1.9852109253406525e-02 -2.7784522622823715e-02 -7.2221015579998493e-03 8.0637797713279724e-02 8.0199420452117920e-02 -8.2815155386924744e-02 5.5092342197895050e-02 1.5997217968106270e-02 6.4336255192756653e-02 -5.8218236081302166e-03 -5.0286408513784409e-02 1.9596416968852282e-03 5.4741058498620987e-02 8.3815855905413628e-03 3.8811754435300827e-02 3.6427069455385208e-02 4.3290719389915466e-02 8.7129421532154083e-02 6.7134320735931396e-02 3.4024711698293686e-02 -5.9220496565103531e-02 1.4291384257376194e-02 1.2310697883367538e-01 2.4277217686176300e-02 2.9308214783668518e-02 9.5478154718875885e-02 -3.2849628478288651e-02 -9.1804284602403641e-04 -5.3611930459737778e-02 4.1855715215206146e-02 -7.8106850385665894e-02 6.5012894570827484e-02 2.1138470619916916e-02 -4.7643114812672138e-03 2.3900097236037254e-02 1.3417176902294159e-01 7.5373902916908264e-02 -4.0757354348897934e-02 6.6805139183998108e-02 4.5814514160156250e-02 3.7993602454662323e-02 8.8698063045740128e-03 -1.5224983915686607e-02 1.5295728109776974e-02 7.0932164788246155e-02 2.7132598683238029e-02 7.1098715066909790e-02 7.0308960974216461e-02 9.3431137502193451e-03 5.1617048680782318e-02 4.6028982847929001e-02 1.7164427787065506e-02 -3.1040079891681671e-02 3.0461551621556282e-02 1.1600137501955032e-01 -2.7386436704546213e-03 5.7065356522798538e-03 9.3241572380065918e-02 7.5481133535504341e-03 6.1695743352174759e-02 -7.0429883897304535e-02 7.5497813522815704e-02 -2.6999637484550476e-02 8.0809317529201508e-02 -1.8283063545823097e-02 8.6966797243803740e-04 1.8083105096593499e-03 -1.5090586245059967e-01 -7.3796205222606659e-02 8.3217494189739227e-02 -1.0105217993259430e-01 1.8256017938256264e-02 -4.7307848930358887e-02 5.8513976633548737e-02 7.5421862304210663e-02 -2.6123409625142813e-03 -5.3509503602981567e-02 -3.9067603647708893e-02 -8.2964614033699036e-02 -8.8886685669422150e-02 1.6567239537835121e-02 -1.1883163452148438e-01 -7.3058657348155975e-02 -4.0778685361146927e-03 5.7377122342586517e-02 2.6730140671133995e-03 -9.3619123101234436e-02 -5.7981092482805252e-02 -1.7512658610939980e-02 -1.0490352660417557e-01 5.6758262217044830e-02 -3.4056637436151505e-02 6.8467661738395691e-02 -2.6219243183732033e-02 7.6133474707603455e-02 -6.7867182195186615e-02 -1.9530700519680977e-02 7.2221187874674797e-03 7.7553777955472469e-03 -2.3139027878642082e-02 -1.3562651351094246e-02 6.3676074147224426e-02 -3.8938988000154495e-02 -1.4721080660820007e-02 -1.3482588343322277e-02 -3.2120157033205032e-02 1.7732096835970879e-02 4.6725004911422729e-02 5.4975636303424835e-03 9.7849825397133827e-03 2.7785865589976311e-02 -1.6316384077072144e-02 -4.1730377823114395e-02 -2.5687008164823055e-03 -1.3963050208985806e-02 1.4367448166012764e-03 2.7408838272094727e-02 2.0752204582095146e-02 -6.2429618090391159e-02 -3.6550421267747879e-02 1.3623049482703209e-02 -2.1062666550278664e-02 3.5344056785106659e-02 -4.8994153738021851e-02 -1.3460052199661732e-02 -1.2409497983753681e-02 2.9077329672873020e-03 5.7711792178452015e-03 7.4447137303650379e-03 2.7449585497379303e-02 -3.6764256656169891e-02 -1.1048588901758194e-01 -9.5663808286190033e-02 9.2566996812820435e-02 -3.9586734026670456e-02 -8.8629385572858155e-05 -4.4852927327156067e-02 4.0623836219310760e-02 3.6192577332258224e-02 -5.5676852352917194e-03 -3.9207454770803452e-02 -9.4993012025952339e-03 -7.9408809542655945e-02 -5.8463390916585922e-02 1.8315471708774567e-02 -1.1457031220197678e-01 -7.7740989625453949e-02 -3.1002087518572807e-02 3.9339058101177216e-02 -3.4835111349821091e-02 -8.2712315022945404e-02 -7.9678401350975037e-02 9.4878831878304482e-03 -4.8113364726305008e-02 2.3677481338381767e-02 -2.5682266801595688e-02 6.7759945988655090e-02 -6.6439695656299591e-02 -5.0981570966541767e-03 -7.8534543514251709e-02 -2.9966864734888077e-02 8.0338483676314354e-03 -7.6855707447975874e-04 -8.1587530672550201e-02 -5.7059891521930695e-02 4.6837352216243744e-02 5.9722904115915298e-03 -3.4578796476125717e-02 -1.6073337756097317e-03 -1.6390804201364517e-02 4.1231792420148849e-02 5.4202258586883545e-02 -3.8871601223945618e-02 -3.4346837550401688e-02 9.6242381259799004e-03 -7.2944886051118374e-03 3.0648570507764816e-02 -9.0312898159027100e-02 -6.6441550850868225e-02 1.0127693414688110e-02 5.7783380150794983e-02 -1.9407764077186584e-02 -6.8408600986003876e-02 -6.9988153874874115e-02 -3.8668002933263779e-02 -4.6256724745035172e-02 -1.5006192028522491e-02 -3.2240480184555054e-02 5.1852524280548096e-02 -4.3013922870159149e-02 2.2645067423582077e-02 -5.7496845722198486e-02 -5.7617399841547012e-02 7.3894942179322243e-03 -2.9311845079064369e-02 3.5009600222110748e-02 5.6908529251813889e-02 -3.2866001129150391e-02 5.4334677755832672e-02 -1.8747819587588310e-02 -2.8894359245896339e-02 -1.6465334920212626e-03 1.4934401027858257e-02 -3.2692726701498032e-02 2.2432655096054077e-02 -6.7690457217395306e-03 4.9929361790418625e-02 1.3528577983379364e-02 3.6810025572776794e-02 8.1192329525947571e-03 -1.4086178503930569e-02 -8.6708748713135719e-03 -6.9280718453228474e-03 -2.0437004044651985e-02 7.3856818489730358e-03 -2.7897623367607594e-03 -1.7437463626265526e-02 2.6590585708618164e-02 -3.5889610648155212e-02 -8.0699501559138298e-03 -3.7201561033725739e-02 3.7607185542583466e-02 1.0176157578825951e-02 -6.2229721806943417e-03 2.9776371084153652e-03 6.3070324249565601e-03 1.4479937963187695e-02 3.2606795430183411e-02 -2.9826665297150612e-02 -3.5653844475746155e-02 -1.1920544318854809e-02 -1.3331844471395016e-02 1.1450166814029217e-02 -3.1236322596669197e-02 -2.0052704960107803e-02 2.7736531570553780e-02 2.0306529477238655e-02 -3.0643168836832047e-02 -6.8082478828728199e-03 -2.1861877292394638e-02 4.3604068458080292e-02 -1.2875951826572418e-02 3.5498026758432388e-02 -3.1364823225885630e-03 6.3795070163905621e-03 -1.9002726301550865e-02 1.9892048090696335e-02 -9.6965767443180084e-03 -1.5271080657839775e-02 3.0225349590182304e-02 -3.3369194716215134e-03 2.7764700353145599e-02 3.4892596304416656e-02 -3.4764934331178665e-02 2.6969226077198982e-02 1.9449390470981598e-02 -5.8133681304752827e-03 3.4578908234834671e-02 5.9792004525661469e-02 1.1848779022693634e-01 1.3567148707807064e-02 -1.1054140329360962e-01 8.6950846016407013e-03 2.9228433966636658e-02 2.8674868866801262e-02 -4.6483013778924942e-02 4.4837393797934055e-03 -5.4278064519166946e-02 8.2188107073307037e-02 -1.2811184860765934e-02 8.2055173814296722e-02 4.4389806687831879e-02 1.4609325677156448e-02 8.1929020583629608e-02 7.3810912668704987e-02 5.4845627397298813e-02 -9.9245896562933922e-03 -7.6403422281146049e-03 1.2227246910333633e-01 6.6912665963172913e-02 -5.0232638604938984e-03 7.3568768799304962e-02 2.4774970486760139e-02 1.2680921703577042e-02 -5.9891551733016968e-02 7.7873066067695618e-02 -2.2538183256983757e-03 4.9345791339874268e-02 3.1780097633600235e-02 -1.5819942578673363e-02 -1.3644930906593800e-02 7.7005900442600250e-02 3.6244474351406097e-02 -4.1559364646673203e-02 -8.9475879212841392e-04 3.2338374294340611e-03 3.4088704735040665e-02 1.0053093545138836e-02 -3.5867474973201752e-02 -3.1691711395978928e-02 3.6978848278522491e-02 2.0124042406678200e-02 5.6145549751818180e-03 2.1952060982584953e-02 1.3064352795481682e-02 5.9481710195541382e-02 5.7369165122509003e-02 1.9891075789928436e-02 5.6860810145735741e-03 2.6231646537780762e-02 7.1681894361972809e-02 2.7291862294077873e-02 -1.5136996284127235e-02 7.0725791156291962e-02 1.4517683535814285e-02 2.6699271053075790e-02 -7.4287615716457367e-03 5.7217374444007874e-02 -5.7690732181072235e-02 4.6436522156000137e-02 1.4943092130124569e-02 
      </Weights>
      <Biases rows="32" cols="1">
        8.9610703289508820e-03 2.9142461717128754e-02 -1.2245752848684788e-02 -5.3759451955556870e-02 3.9877584204077721e-03 1.0185088030993938e-02 -5.8910440653562546e-02 -1.4447069726884365e-02 -3.4806042909622192e-02 -3.0492844525724649e-03 -2.5574134197086096e-03 -5.9929564595222473e-03 5.1787071861326694e-03 -4.7160740941762924e-02 -1.5110641252249479e-03 4.2324941605329514e-03 1.8990157404914498e-03 9.1443166136741638e-02 3.4955862909555435e-02 5.8764178305864334e-02 -1.2457887642085552e-02 -2.1721061319112778e-02 7.4167035520076752e-02 6.2449991703033447e-02 -6.7994527518749237e-02 -2.4415055289864540e-02 -3.5995878279209137e-02 -6.2866196967661381e-03 -2.0979274064302444e-02 9.5077035948634148e-03 2.8164710849523544e-02 1.6527665778994560e-02 
      </Biases>
    </Layer>
    <Layer ActivationFunction="3">
      <Weights rows="32" cols="32">
        -7.4326954782009125e-02 -2.6879342272877693e-02 7.4536348693072796e-03 9.1051124036312103e-02 2.2262373939156532e-02 -3.8051009178161621e-02 6.6140748560428619e-02 7.8619778156280518e-02 1.2845464982092381e-02 2.3907778784632683e-02 1.9539885688573122e-03 2.1655956283211708e-02 -3.8556210696697235e-02 5.7846125215291977e-02 -1.7177833244204521e-02 4.4568832963705063e-02 -2.1564194932579994e-02 -1.2227191030979156e-01 -9.6273258328437805e-02 -1.0112781077623367e-01 5.5586893111467361e-02 5.2130348980426788e-02 -8.1084311008453369e-02 -9.3773439526557922e-02 1.0797487199306488e-01 4.9435138702392578e-02 7.3302850127220154e-02 8.0856576561927795e-02 2.1561000496149063e-02 -3.1395610421895981e-02 -8.4972836077213287e-02 -3.7976581603288651e-02 7.9370446503162384e-02 4.8964392393827438e-02 -1.3303072191774845e-02 -5.8767698705196381e-02 -6.8520613014698029e-02 3.8846872746944427e-02 -1.3748415745794773e-02 -1.3126315549015999e-02 -3.4170072525739670e-02 4.2104353196918964e-03 -5.0873016007244587e-03 -8.1532318145036697e-03 1.0761548765003681e-02 -5.6078162044286728e-02 4.7747470438480377e-02 -5.1284179091453552e-02 3.5216070711612701e-02 9.7862549126148224e-02 4.5057620853185654e-02 6.8712487816810608e-02 -5.6258119642734528e-02 -4.3575394898653030e-02 8.6742639541625977e-02 8.9379109442234039e-02 -7.8645937144756317e-02 -3.2036218792200089e-02 -1.0310959815979004e-01 -8.4011554718017578e-02 -1.5008341521024704e-02 -2.9487932100892067e-02 1.0048995167016983e-01 3.4782405942678452e-02 3.3409375697374344e-02 2.0600825548171997e-02 -2.0609276369214058e-02 -2.1153263747692108e-02 -5.5698070675134659e-02 1.8673878163099289e-02 -1.9151670858263969e-02 -5.2746746689081192e-02 1.3745627366006374e-03 3.8988057523965836e-02 -2.6508782058954239e-02 -3.5838395357131958e-02 -2.8287522494792938e-02 -2.3066351190209389e-02 4.2613912373781204e-03 -6.5435171127319336e-02 6.1601944267749786e-02 7.3569357395172119e-02 5.1565032452344894e-02 1.4337796019390225e-03 1.2173106893897057e-02 2.4501331150531769e-02 1.2163863517343998e-02 -1.5196788124740124e-02 -4.4745970517396927e-02 2.8614239767193794e-02 -4.4418215751647949e-02 1.6726044937968254e-02 3.8645111024379730e-02 -1.3826918788254261e-02 -9.2752175405621529e-03 2.3155625909566879e-02 4.6353433281183243e-02 5.2069500088691711e-02 2.0576510578393936e-03 -9.4549119472503662e-02 -5.6144487112760544e-02 -3.4057363867759705e-02 -3.4594099968671799e-02 -5.0077226012945175e-02 -5.7591471821069717e-02 1.3462515547871590e-02 -8.7352441623806953e-03 -6.2127679586410522e-02 -1.9733015447854996e-02 -8.3084106445312500e-02 -8.5504148155450821e-03 -8.0148376524448395e-02 1.4353579841554165e-02 6.0792710632085800e-02 8.4002733230590820e-02 1.1105886101722717e-01 1.5252553857862949e-02 -5.0730865448713303e-02 2.2118324413895607e-02 8.2114897668361664e-02 -2.4709349498152733e-02 -3.6787718534469604e-02 -8.7089568376541138e-02 -1.6606997698545456e-02 4.5733779668807983e-02 -1.1322190985083580e-02 7.7809303998947144e-02 6.0592640191316605e-02 -6.0583788901567459e-02 -3.4067314118146896e-02 -3.4288514405488968e-02 5.4114673286676407e-02 8.2331620156764984e-02 -1.9432205706834793e-02 5.8566659688949585e-02 4.6344075351953506e-02 4.4069278985261917e-02 -1.5016847290098667e-02 -2.4089567363262177e-02 7.3309376835823059e-02 2.7932878583669662e-02 9.5400385558605194e-02 -4.7042343765497208e-02 3.4096684306859970e-02 -7.4765011668205261e-02 -1.4216257631778717e-01 -1.0092841088771820e-01 -9.9174782633781433e-02 1.4329873956739902e-02 2.7249097824096680e-02 -4.9363654106855392e-02 -5.9797856956720352e-02 1.1159394681453705e-01 3.0526345595717430e-02 4.0096517652273178e-02 5.6493710726499557e-02 -3.7662588059902191e-02 2.6980299502611160e-02 -1.0860039293766022e-01 -1.8847372382879257e-02 4.3432181701064110e-03 -2.5247279554605484e-02 9.8450947552919388e-03 2.9257779940962791e-02 9.4275185838341713e-03 -2.2204220294952393e-02 2.8430034872144461e-03 -1.8565792590379715e-02 -8.5993055254220963e-03 2.3252861574292183e-02 5.2288458682596684e-03 3.4978985786437988e-02 -1.5654437011107802e-03 4.1727289557456970e-02 1.2015099637210369e-02 1.9391478970646858e-02 -2.0542113110423088e-02 -7.1601800620555878e-02 -4.1579741984605789e-02 -6.7981913685798645e-02 -5.5594053119421005e-03 3.4082535654306412e-02 -5.3077910095453262e-02 -4.5704054646193981e-03 4.1466645896434784e-02 4.5391868799924850e-02 6.2059637159109116e-02 1.5639029443264008e-02 1.9065488595515490e-03 8.1123802810907364e-03 -5.6739822030067444e-02 -6.4403228461742401e-02 4.1591323912143707e-02 -6.5104570239782333e-03 -8.2088978961110115e-03 -7.7718235552310944e-02 -4.6555686742067337e-02 3.6691809073090553e-03 -3.8934949785470963e-02 -2.8156269341707230e-02 -8.4560938179492950e-02 1.6231950372457504e-02 2.0513458177447319e-02 -5.4527334868907928e-02 -3.9024786092340946e-03 -5.0216883420944214e-02 3.8659658282995224e-02 -5.3671251982450485e-02 4.7315809875726700e-02 1.1410483717918396e-01 4.7026120126247406e-02 4.0110990405082703e-02 -4.7031544148921967e-02 -3.0121054500341415e-02 8.2974426448345184e-02 6.5939202904701233e-02 -9.4916835427284241e-02 -1.6512587666511536e-02 -2.1441815420985222e-02 -2.9804028570652008e-02 4.2562264949083328e-02 -1.5514382394030690e-03 3.3712595701217651e-02 -3.5756139550358057e-03 -5.9035010635852814e-03 2.2372270002961159e-02 9.2515125870704651e-03 -8.3693064749240875e-02 -4.1886370629072189e-02 2.0791955292224884e-02 -2.2934852167963982e-02 -1.5882095322012901e-02 -6.5894126892089844e-02 -6.3509168103337288e-03 3.2468810677528381e-02 -7.0475034415721893e-02 -2.0850954577326775e-02 -6.9358155131340027e-02 6.7448548972606659e-02 -6.5216965973377228e-02 3.3265881240367889e-02 1.3186533749103546e-01 1.0620623826980591e-01 8.4556490182876587e-02 -3.9560385048389435e-02 -3.8236092776060104e-02 3.2263107597827911e-02 8.1109300255775452e-02 -9.3649730086326599e-02 -2.3693246766924858e-02 -8.4637060761451721e-02 -6.5918512642383575e-02 -1.4637619256973267e-02 -6.0000005178153515e-03 7.3358878493309021e-02 1.1595269897952676e-03 -5.1533397287130356e-02 1.9432500703260303e-03 -4.0681015700101852e-02 3.6164477467536926e-02 4.3447762727737427e-02 8.7762540206313133e-03 5.1841512322425842e-02 7.1560940705239773e-03 6.3173204660415649e-02 3.5099748522043228e-02 1.7530487850308418e-02 6.0522988438606262e-02 -3.5172209143638611e-02 7.4681632220745087e-02 -5.9349652379751205e-02 7.8047566115856171e-02 -7.6571337878704071e-02 -9.7267597913742065e-02 -7.6904363930225372e-02 -8.0105334520339966e-02 -3.7349341437220573e-03 1.4814530499279499e-02 -7.4568286538124084e-02 -4.2328551411628723e-02 4.2201131582260132e-02 4.6615093015134335e-03 4.1707187891006470e-02 4.6576175838708878e-02 -3.3943995833396912e-02 -4.8411153256893158e-03 -6.7537695169448853e-02 -7.2129204869270325e-02 6.4598623430356383e-04 2.0771117880940437e-02 -3.2818708568811417e-02 3.1910552643239498e-03 2.4447519332170486e-02 2.5548532139509916e-03 1.0330166667699814e-02 -1.7917110817506909e-03 -3.0584897845983505e-02 -2.2793805226683617e-02 3.9628703147172928e-02 -5.5091518908739090e-02 4.2016068473458290e-03 2.3537276312708855e-02 3.1298596411943436e-02 -2.1463967859745026e-02 -2.5706943124532700e-02 -4.8534508096054196e-05 3.2779656350612640e-02 5.2634868770837784e-02 3.2444648444652557e-02 2.1423650905489922e-02 -5.9453095309436321e-03 -1.0381297208368778e-02 -1.1766754090785980e-02 2.0071975886821747e-03 -6.1720535159111023e-03 -5.4012902081012726e-02 1.9144890829920769e-02 2.5403309613466263e-02 3.5584207624197006e-02 4.8666201531887054e-02 -2.9062340036034584e-03 -2.5116743519902229e-02 -2.5990191847085953e-02 7.5547002255916595e-02 1.1070875450968742e-02 -3.3970981836318970e-02 4.5026645064353943e-02 6.2978081405162811e-02 5.3865112364292145e-02 2.1840538829565048e-02 -2.0771462470293045e-02 7.8129343688488007e-02 -3.5968836396932602e-02 8.3458110690116882e-02 2.8196964412927628e-03 3.1489394605159760e-02 -4.5236583799123764e-02 -1.1948624253273010e-01 -7.1314409375190735e-02 -3.7600412964820862e-02 6.2164098024368286e-02 1.3163940049707890e-02 -5.7229414582252502e-02 -7.9889342188835144e-02 4.4890962541103363e-02 4.1277546435594559e-02 6.7219868302345276e-02 3.7551581859588623e-02 -2.0718537271022797e-02 8.2599157467484474e-03 -7.8136906027793884e-02 -2.8391778469085693e-02 3.9716465398669243e-03 1.8872290849685669e-02 -2.5298656895756721e-02 3.7688708398491144e-03 3.3854711800813675e-02 2.7884270995855331e-02 5.3572613745927811e-02 -1.2144052423536777e-02 1.9674805924296379e-02 3.3014338463544846e-02 4.5015934854745865e-02 -1.6070056706666946e-02 -4.1014030575752258e-02 -2.2846447303891182e-02 -2.1409286186099052e-02 2.9034228995442390e-02 -1.1320160701870918e-02 -3.3923186361789703e-02 -5.4000571370124817e-02 -2.9969915747642517e-02 -1.2796639464795589e-02 7.1900309994816780e-03 -6.1137054581195116e-04 -3.1281318515539169e-02 3.5742454230785370e-02 -1.5447955229319632e-04 -1.4797535724937916e-02 -2.4605860933661461e-02 -4.1329298168420792e-02 -1.8341448158025742e-02 -6.9197844713926315e-03 -8.4089795127511024e-03 3.4451000392436981e-02 -6.5852720290422440e-03 2.7612354606389999e-02 2.8377143666148186e-02 -1.2348064221441746e-02 1.7076751217246056e-02 -9.0493122115731239e-03 2.2789534181356430e-02 3.9447970688343048e-02 3.4664396196603775e-02 3.2823164016008377e-02 1.9834082573652267e-02 -1.8799679353833199e-02 1.7144743353128433e-02 4.6569127589464188e-03 2.0170934498310089e-02 -3.3789262175559998e-02 -2.5904078036546707e-02 -5.4599763825535774e-03 7.3156999424099922e-03 -9.0477829799056053e-03 -1.1059603653848171e-02 3.2689873129129410e-02 -6.4190193079411983e-03 -2.6155976578593254e-02 9.7196511924266815e-03 9.4886524602770805e-03 7.5211538933217525e-03 -1.8704999238252640e-02 -2.4943137541413307e-02 7.5036422349512577e-03 -2.8254499658942223e-02 5.3937625139951706e-02 -1.9339533522725105e-02 -7.3537006974220276e-03 -5.1155071705579758e-02 1.4989224262535572e-02 -3.0175970867276192e-02 -2.0864227786660194e-02 2.1017586812376976e-02 -5.6037694215774536e-02 6.7340135574340820e-03 3.9534155279397964e-02 -2.2611750289797783e-02 1.6017101705074310e-02 -5.2679441869258881e-02 -1.4914602041244507e-02 -7.6125666499137878e-02 4.5138265937566757e-02 8.7775558233261108e-02 5.9751991182565689e-02 5.7844948023557663e-02 -5.0499726086854935e-02 -3.4835238009691238e-02 6.0778739862143993e-03 3.7364255636930466e-02 -3.5049423575401306e-02 1.2992070987820625e-02 -1.6147533431649208e-02 -1.8792949616909027e-02 4.7595132142305374e-02 3.7864282727241516e-02 5.2316989749670029e-02 -1.5443320386111736e-02 2.4296261370182037e-02 4.3156944215297699e-02 -3.3000346273183823e-02 -8.8681638240814209e-02 -4.2718768119812012e-02 4.1373218409717083e-03 -2.9972024261951447e-02 -1.0939263738691807e-02 -6.4963221549987793e-02 -1.3565581291913986e-02 -2.2210944443941116e-02 -3.7571784108877182e-02 -2.4462604895234108e-02 -6.2111441045999527e-02 3.8120158016681671e-02 -3.9042904973030090e-02 7.9396471381187439e-02 6.3027709722518921e-02 9.0031519532203674e-02 3.0448975041508675e-02 1.3395691290497780e-02 2.2996689658612013e-03 5.2908945828676224e-02 8.2090340554714203e-02 -6.8782992660999298e-02 -3.8211580365896225e-02 -4.0447738021612167e-02 -2.5559609755873680e-02 5.7883053086698055e-03 4.4414028525352478e-02 8.0237545073032379e-02 -3.0444683507084846e-03 -2.0915834233164787e-02 -7.0405177772045135e-02 2.5473225861787796e-02 3.0162893235683441e-02 7.0444524288177490e-02 -2.5204084813594818e-02 5.1176600158214569e-02 2.5395406410098076e-02 6.2911182641983032e-02 -1.9209353253245354e-02 7.7264513820409775e-03 3.6733996123075485e-02 -2.0448777824640274e-02 1.0879968851804733e-01 -6.4285613596439362e-02 9.3334890902042389e-02 -9.6363581717014313e-02 -7.6629079878330231e-02 -1.0890120267868042e-01 -8.3695560693740845e-02 3.3316586166620255e-02 9.6216853708028793e-03 -4.4017218053340912e-02 -9.8068363964557648e-02 9.2403054237365723e-02 3.8125216960906982e-02 8.3978697657585144e-02 3.0879274010658264e-02 1.0503324680030346e-02 -3.2147724181413651e-02 -4.9696147441864014e-02 -5.6148324161767960e-02 4.6799715608358383e-02 2.4474538862705231e-02 4.0154401212930679e-02 -8.7375804781913757e-02 -1.9993146881461143e-02 -2.0441163331270218e-02 -3.3149160444736481e-02 -4.7431424260139465e-02 -7.6303564012050629e-02 1.9523065537214279e-02 2.2782750427722931e-02 -3.7404242902994156e-02 2.2356202825903893e-02 -7.9341270029544830e-02 4.2189531028270721e-02 -6.6740609705448151e-02 8.1610091030597687e-02 1.0038433223962784e-01 9.4074741005897522e-02 8.3310887217521667e-02 -1.8156660720705986e-02 1.2036915868520737e-03 4.4568095356225967e-02 2.1316226571798325e-02 -6.5460048615932465e-02 -4.1773659177124500e-03 -8.2972630858421326e-02 -5.4243315011262894e-02 3.7496399134397507e-02 -2.0765434950590134e-02 2.3170240223407745e-02 4.3029818683862686e-02 -4.2254015803337097e-02 5.3057917393743992e-03 3.6665502935647964e-02 7.8710384666919708e-02 3.2807528041303158e-03 2.4831006303429604e-02 3.5899873822927475e-02 4.0138538926839828e-02 3.1276287045329809e-03 -2.9867967590689659e-02 4.6702818945050240e-03 2.9936144128441811e-02 -2.8482686728239059e-02 5.7917032390832901e-02 1.0215941583737731e-03 7.4479551985859871e-03 -2.8596881777048111e-02 -7.2231836616992950e-02 -8.2596436142921448e-02 -5.5117905139923096e-02 1.8914505839347839e-02 2.9370112344622612e-02 -4.0235914289951324e-02 -4.9098223447799683e-02 8.9992843568325043e-02 5.1940545439720154e-02 8.5817106068134308e-02 1.2428966350853443e-02 2.2456554695963860e-02 -3.6935131996870041e-02 -8.7124697864055634e-02 -2.2987782955169678e-02 2.8608862310647964e-02 2.7438275516033173e-02 1.4192142523825169e-02 -1.0396674275398254e-02 2.7875611558556557e-03 -3.6719430238008499e-02 -5.6527148932218552e-02 -2.0341128110885620e-02 -4.0970727801322937e-02 -3.4920245409011841e-02 -2.9462341219186783e-02 -5.0589356571435928e-02 -2.9338854365050793e-03 -3.5239927470684052e-02 5.3094960749149323e-02 -4.4507179409265518e-02 7.1867115795612335e-02 7.1981668472290039e-02 7.0060260593891144e-02 5.7780675590038300e-02 1.2502696365118027e-02 2.5281094014644623e-02 6.4235571771860123e-03 4.4213064014911652e-02 -8.1826642155647278e-02 -3.5636804997920990e-02 -1.3841833919286728e-02 -2.4226570501923561e-02 3.0560180544853210e-02 2.2656492888927460e-02 5.5684357881546021e-02 4.3691635131835938e-02 -1.3336552074179053e-03 5.3890999406576157e-02 3.1599521636962891e-02 -3.9787914603948593e-02 -1.4746154658496380e-02 1.9177220761775970e-02 2.3607688024640083e-02 -3.5957931540906429e-03 -4.4410042464733124e-02 -3.8959216326475143e-02 -3.5096646752208471e-03 -5.1960315555334091e-02 2.7333039324730635e-03 -2.8212986886501312e-02 5.4278399795293808e-02 -5.6825235486030579e-02 5.4876700043678284e-02 7.0329837501049042e-02 3.4975297749042511e-02 4.3598879128694534e-02 -4.3160047382116318e-02 -7.6927039772272110e-03 -1.1716731823980808e-03 3.0754713341593742e-02 2.4778186343610287e-03 5.2240570075809956e-03 1.2689241208136082e-02 -4.2630739510059357e-02 5.9870281256735325e-03 -2.3493392392992973e-02 2.7022475376725197e-02 1.4631758444011211e-02 1.1472683399915695e-02 2.4258106946945190e-02 4.1088271886110306e-02 -3.2992642372846603e-02 7.8365840017795563e-03 2.6988284662365913e-02 -1.4309939928352833e-02 3.7682910915464163e-03 -4.5644469559192657e-02 3.6630671471357346e-02 4.2721107602119446e-03 3.0277571640908718e-03 5.5170492269098759e-03 -6.5156072378158569e-02 -2.8196055442094803e-02 -6.4981304109096527e-02 1.0312562808394432e-03 8.4873743355274200e-02 1.8765406683087349e-02 5.3678479045629501e-02 4.5984471216797829e-03 -1.9630836322903633e-02 6.2175780534744263e-02 6.6504150629043579e-02 -4.8052728176116943e-02 3.4306652843952179e-02 -2.3507919162511826e-02 -1.2184642255306244e-02 -2.1365277469158173e-02 1.9064459949731827e-02 1.7767053213901818e-04 -2.3525912314653397e-02 5.1541283726692200e-02 3.9594024419784546e-02 -3.0701093375682831e-02 -4.7142006456851959e-02 -1.8368907272815704e-02 -1.0155906900763512e-02 -2.2197460755705833e-02 -3.5575721412897110e-02 3.0049828346818686e-03 -1.8626367673277855e-02 -7.7407918870449066e-03 -6.1469465494155884e-02 3.8610525429248810e-02 -7.4592322111129761e-02 1.1933732312172651e-03 -1.1513915844261646e-02 6.8444974720478058e-02 7.0717588067054749e-02 6.3381522893905640e-02 3.3408574759960175e-02 -4.8023406416177750e-02 5.6785023771226406e-03 7.3800735175609589e-02 1.2530463747680187e-02 -5.7243634015321732e-02 -9.6446992829442024e-03 -4.6323306858539581e-02 -4.4328607618808746e-02 6.6596823744475842e-03 3.3422885462641716e-03 4.1501872241497040e-02 1.5923140570521355e-02 -4.5758303254842758e-02 -5.1589928567409515e-02 -1.9563030451536179e-02 7.6139852404594421e-02 1.5974109992384911e-02 -2.3645963519811630e-03 4.3922606855630875e-02 5.9691261500120163e-02 5.0386469811201096e-02 -1.0619820095598698e-02 3.4935120493173599e-02 3.6142438650131226e-02 -1.6151318326592445e-02 4.0271282196044922e-02 -4.3340105563402176e-02 6.9227918982505798e-02 -2.4376945570111275e-02 -3.3965788781642914e-02 -3.6886416375637054e-02 -9.0977691113948822e-02 2.9764866456389427e-02 3.6295693367719650e-02 -5.1066312938928604e-02 -2.2628271952271461e-02 9.4691559672355652e-02 -1.0738616809248924e-02 1.3616185635328293e-02 3.2759547233581543e-02 1.8493352690711617e-03 -4.4182952493429184e-02 -4.0118962526321411e-02 -3.0560854822397232e-02 -3.5563446581363678e-02 -3.2075233757495880e-02 3.3605106174945831e-02 9.2382356524467468e-02 7.4631571769714355e-02 7.1729747578501701e-03 8.2566611468791962e-02 4.2670518159866333e-02 8.2969129085540771e-02 2.4862335994839668e-02 5.1151376217603683e-02 6.6925950348377228e-02 -3.4541811328381300e-03 9.4439409673213959e-02 -2.1082570776343346e-02 6.0698367655277252e-02 -8.1029936671257019e-02 -8.8292345404624939e-02 -8.1733189523220062e-02 -8.9018590748310089e-02 4.9916002899408340e-02 4.0775023400783539e-02 -9.2453032732009888e-02 -6.7761160433292389e-02 1.1827129870653152e-01 3.6203190684318542e-02 1.0012327134609222e-01 3.1504508107900620e-02 3.2057918608188629e-02 5.7465769350528717e-03 -4.6525523066520691e-02 -8.2047201693058014e-02 6.1188074760138988e-03 4.4097509235143661e-02 -1.6549402847886086e-02 -3.1723495572805405e-02 -2.6042429730296135e-02 -3.0868433415889740e-02 2.1652169525623322e-03 -2.0512804388999939e-02 8.1960866227746010e-03 2.6810158044099808e-02 -4.2056296020746231e-02 -5.0995969213545322e-03 -1.2973552569746971e-02 -5.1942832767963409e-02 1.1181511217728257e-03 8.0344881862401962e-03 8.3757927641272545e-03 1.4776796102523804e-02 5.1157690584659576e-02 5.6814339011907578e-02 2.3339458857662976e-04 3.1874381005764008e-02 1.8526073545217514e-02 2.2705718874931335e-02 -6.4082257449626923e-02 3.6832004785537720e-02 -2.0571030676364899e-02 -2.3275021463632584e-02 2.4328617379069328e-02 2.9544178396463394e-02 3.9124950766563416e-02 2.8822738677263260e-02 3.2396487891674042e-02 3.9387803524732590e-02 7.8717609867453575e-03 -4.2485229671001434e-02 9.7570363432168961e-03 -1.6602152958512306e-02 -4.0775716304779053e-02 -2.9644556343555450e-02 -7.4984952807426453e-02 3.3080552238970995e-03 3.1898751854896545e-02 -1.2696039862930775e-02 2.4939101189374924e-02 -8.5911042988300323e-03 2.3306153714656830e-02 -8.1589691340923309e-02 6.1324436217546463e-02 6.7075163125991821e-02 6.5152533352375031e-02 8.0153852701187134e-02 4.8657148145139217e-03 -4.7674261033535004e-02 1.3684916310012341e-02 6.0057982802391052e-02 -6.0363549739122391e-02 2.0112827420234680e-02 -8.6508736014366150e-02 -6.6894017159938812e-02 3.6028034519404173e-03 -7.4767558835446835e-03 7.3801174759864807e-02 4.5167963951826096e-02 -5.8518797159194946e-03 -3.4378476440906525e-02 -4.5286361128091812e-03 -3.0969462823122740e-03 4.9365743994712830e-02 9.4613945111632347e-03 2.1356415003538132e-02 9.2232571914792061e-03 4.9589321017265320e-02 2.1002422727178782e-04 -2.7620837092399597e-02 4.3583087623119354e-02 -7.2607496986165643e-04 9.1625219210982323e-03 -1.8956970423460007e-02 6.8637900054454803e-02 -6.6532872617244720e-02 -1.0134907066822052e-01 -6.7666813731193542e-02 -4.3580327183008194e-02 -1.2560161761939526e-02 3.7368904799222946e-02 -6.7822530865669250e-02 -1.5665702521800995e-02 5.7819344103336334e-02 2.6559460908174515e-02 4.9471966922283173e-02 4.3765600770711899e-02 -3.3136121928691864e-02 -4.6057820320129395e-02 -6.2338989228010178e-02 -3.1436406075954437e-02 -1.1804644018411636e-02 6.4636692404747009e-03 -1.3786114752292633e-02 -1.2190557317808270e-03 1.2437381781637669e-02 3.9207804948091507e-02 -2.5203030556440353e-02 3.1889397650957108e-02 -1.7370630055665970e-02 1.4684951864182949e-02 3.6966040730476379e-02 1.2781594879925251e-02 -2.5728454813361168e-02 6.0830093920230865e-02 2.3326791822910309e-02 5.9067539870738983e-02 -5.3737051784992218e-02 -7.2149135172367096e-02 -6.8212682381272316e-03 1.0444731451570988e-02 -4.5921653509140015e-03 7.0547224022448063e-03 -5.6726969778537750e-02 -5.2204225212335587e-02 1.6709512099623680e-02 -1.4490815810859203e-02 1.2365276925265789e-02 3.0620340257883072e-02 -2.0923478528857231e-02 -4.2886738665401936e-03 -4.0551766753196716e-02 -5.3826585412025452e-02 3.3401686232537031e-03 -3.9619319140911102e-02 -2.2863182239234447e-03 4.8253659158945084e-02 -1.4770755078643560e-03 3.4170653671026230e-02 -1.5498097054660320e-02 -3.4665353596210480e-02 1.1722245253622532e-02 3.0322307720780373e-02 -2.1530861034989357e-02 1.1501853354275227e-02 -1.3437590561807156e-02 4.3085467070341110e-02 -1.1572305113077164e-02 4.0738973766565323e-02 -2.8399124741554260e-02 -4.0396861732006073e-02 -2.6421513408422470e-02 -1.0002606548368931e-02 -1.8220825120806694e-02 -2.7850624173879623e-02 -2.4208104237914085e-02 -3.0805848538875580e-02 1.7487451434135437e-02 -2.6587443426251411e-02 -9.7701903432607651e-03 -9.4678979367017746e-03 2.3661553859710693e-02 2.1397378295660019e-02 -3.6767832934856415e-02 -1.2480306439101696e-02 -2.2075131535530090e-02 -1.4811950735747814e-02 1.9857022911310196e-02 1.2538474053144455e-02 7.8913960605859756e-03 -2.5559337809681892e-02 1.5153709799051285e-02 3.5116039216518402e-02 1.2414023280143738e-02 -1.2223627418279648e-02 3.8451977074146271e-02 4.9598686397075653e-02 -4.3282318860292435e-02 4.0124498307704926e-02 -5.2981209009885788e-02 8.8964805006980896e-02 -6.4672723412513733e-02 -4.5077297836542130e-02 -6.9054633378982544e-02 -5.6764557957649231e-02 -2.2698836983181536e-04 2.5294009596109390e-02 -5.3363040089607239e-02 -6.2768630683422089e-02 8.2997262477874756e-02 1.1248062364757061e-02 7.7060669660568237e-02 8.2020126283168793e-02 -4.5164518058300018e-02 3.0678903684020042e-02 -4.2136617004871368e-02 -4.1376166045665741e-02 6.0053255409002304e-02 4.8870518803596497e-02 1.9168885424733162e-02 -6.2233708798885345e-02 -6.0300663113594055e-02 -3.8974728435277939e-02 1.6995403915643692e-02 -1.7031781375408173e-02 -4.4522665441036224e-02 4.2685393244028091e-02 -3.1373262405395508e-02 1.2019048444926739e-02 -2.4605117738246918e-02 1.1088213883340359e-02 -2.2449954412877560e-03 -2.2744171321392059e-02 2.5817576795816422e-02 7.6851025223731995e-02 7.4907563626766205e-02 5.3521625697612762e-02 -2.5682941079139709e-02 1.2220229022204876e-02 4.4901646673679352e-02 9.8470915108919144e-03 -1.3898785226047039e-02 2.6542246341705322e-02 -4.9914635717868805e-02 -2.6843382045626640e-02 4.5279592275619507e-02 3.6920998245477676e-02 2.1520463749766350e-02 2.5014441460371017e-02 4.2539113201200962e-03 -1.1666498146951199e-02 2.3233197629451752e-02 -1.6454521566629410e-02 -2.1837878972291946e-02 -2.6058854535222054e-02 -1.1938570998609066e-02 1.9907646346837282e-03 1.4105762820690870e-03 -1.6566012054681778e-02 -2.0722683519124985e-02 -8.9867245405912399e-03 1.6673261299729347e-02 -4.7749798744916916e-02 2.1045319736003876e-03 -1.8076654523611069e-02 3.8106873631477356e-02 7.7676802873611450e-02 4.4886875897645950e-02 5.6138861924409866e-02 1.2026210315525532e-02 7.2097759693861008e-03 2.3696709424257278e-02 1.5461242292076349e-03 9.7440686076879501e-03 1.3077523559331894e-02 -1.8763275817036629e-02 -1.4225524500943720e-04 3.9987951517105103e-02 -3.8000874221324921e-02 4.4186823070049286e-02 1.8185747787356377e-02 
      </Weights>
      <Biases rows="32" cols="1">
        -6.3126519322395325e-02 -1.1224182322621346e-02 -2.2384226322174072e-02 8.3021521568298340e-03 -1.6324885189533234e-02 1.9913885742425919e-02 -1.5035857446491718e-02 -1.2192954309284687e-02 -2.2316148504614830e-02 -2.8273791540414095e-03 2.4685623124241829e-02 3.4128190018236637e-03 -7.4988962151110172e-03 -3.7247918546199799e-02 -1.7798755317926407e-02 -1.4747318346053362e-03 -7.0671890862286091e-03 1.0545302182435989e-02 -4.5325305312871933e-02 -2.5483507663011551e-02 1.0321458801627159e-02 -8.1802392378449440e-04 -9.3049360439181328e-03 -5.4247356951236725e-02 -9.2940749600529671e-03 -7.5954073108732700e-03 2.2644514217972755e-02 3.9717514067888260e-02 8.4735546261072159e-03 2.0460678264498711e-02 -3.3149618655443192e-02 -2.3228537291288376e-02 
      </Biases>
    </Layer>
    <Layer ActivationFunction="0">
      <Weights rows="1" cols="32">
        -2.4369722604751587e-01 2.6963686943054199e-01 1.1888513714075089e-01 2.2868575155735016e-01 -2.8189516067504883e-01 -1.7135150730609894e-01 2.3453520238399506e-01 3.0074322223663330e-01 -2.1632227301597595e-01 5.8903943747282028e-02 -2.7053284645080566e-01 -6.6163323819637299e-02 -4.3824978172779083e-02 2.1847589313983917e-01 2.4115039408206940e-01 -2.8464013338088989e-01 2.6661732792854309e-01 -2.0542287826538086e-01 2.2451125085353851e-01 1.4474636316299438e-01 1.1319041252136230e-01 1.7825160920619965e-01 -1.4900749921798706e-01 -3.2321184873580933e-01 1.0980676114559174e-01 2.2475169599056244e-01 -2.0570504665374756e-01 -1.2281513959169388e-01 -6.5843023359775543e-02 -2.1747887134552002e-01 1.5025928616523743e-01 1.2206946313381195e-01 
      </Weights>
      <Biases rows="1" cols="1">
        -1.4483749866485596e-01 
      </Biases>
    </Layer>
  </Weights>
</MethodSetup>
