<?xml version="1.0"?>
<MethodSetup Method="DNN::DNN">
  <GeneralInfo>
    <Info name="TMVA Release" value="4.2.1 [262657]"/>
    <Info name="ROOT Release" value="6.12/07 [396295]"/>
    <Info name="Creator" value="hum"/>
    <Info name="Date" value="Sun Sep 20 09:49:44 2020"/>
    <Info name="Host" value="Linux vocms0301.cern.ch 2.6.32-696.30.1.el6.x86_64 #1 SMP Tue May 22 06:09:36 CEST 2018 x86_64 x86_64 x86_64 GNU/Linux"/>
    <Info name="Dir" value="/afs/cern.ch/work/h/hum/public/CMSSW_10_2_13/src/ChargedHiggs/Analysis/resTagger"/>
    <Info name="Training events" value="71095"/>
    <Info name="TrainingTime" value="1.00144242e+02"/>
    <Info name="AnalysisType" value="Classification"/>
  </GeneralInfo>
  <Options>
    <Option name="V" modified="Yes">True</Option>
    <Option name="VerbosityLevel" modified="No">Verbose</Option>
    <Option name="VarTransform" modified="Yes">N</Option>
    <Option name="H" modified="Yes">False</Option>
    <Option name="CreateMVAPdfs" modified="No">False</Option>
    <Option name="IgnoreNegWeightsInTraining" modified="No">False</Option>
    <Option name="Layout" modified="Yes">TANH|128,RELU|128,SIGMOID|128,LINEAR</Option>
    <Option name="ValidationSize" modified="No">20%</Option>
    <Option name="ErrorStrategy" modified="Yes">CROSSENTROPY</Option>
    <Option name="WeightInitialization" modified="Yes">XAVIERUNIFORM</Option>
    <Option name="Architecture" modified="Yes">CPU</Option>
    <Option name="TrainingStrategy" modified="Yes">LearningRate=1e-1,Momentum=0.9,Repetitions=5,ConvergenceSteps=20,BatchSize=256,TestRepetitions=10,WeightDecay=1e-4,Regularization=L2,DropConfig=0.0+0.5+0.5+0.5,</Option>
  </Options>
  <Variables NVar="23">
    <Variable VarIndex="0" Expression="j1_pT" Label="j1_pT" Title="jet1 pT" Unit="" Internal="j1_pT" Type="F" Min="3.00050583e+01" Max="1.46118616e+03"/>
    <Variable VarIndex="1" Expression="j1_Eta" Label="j1_Eta" Title="jet1 eta" Unit="" Internal="j1_Eta" Type="F" Min="-4.67791176e+00" Max="4.69723415e+00"/>
    <Variable VarIndex="2" Expression="j1_Unc" Label="j1_Unc" Title="jet1 Unc" Unit="" Internal="j1_Unc" Type="F" Min="6.55297609e-03" Max="1.09374374e-01"/>
    <Variable VarIndex="3" Expression="j1_axis2" Label="j1_axis2" Title="jet1 axis2" Unit="" Internal="j1_axis2" Type="F" Min="0.00000000e+00" Max="1.65261194e-01"/>
    <Variable VarIndex="4" Expression="j1_ptD" Label="j1_ptD" Title="jet1 ptD" Unit="" Internal="j1_ptD" Type="F" Min="0.00000000e+00" Max="1.00000000e+00"/>
    <Variable VarIndex="5" Expression="j2_pT" Label="j2_pT" Title="jet2 pT" Unit="" Internal="j2_pT" Type="F" Min="3.07089520e+01" Max="1.75571106e+03"/>
    <Variable VarIndex="6" Expression="j2_Unc" Label="j2_Unc" Title="jet2 Unc" Unit="" Internal="j2_Unc" Type="F" Min="6.50117500e-03" Max="1.22522019e-01"/>
    <Variable VarIndex="7" Expression="j2_axis2" Label="j2_axis2" Title="jet2 axis2" Unit="" Internal="j2_axis2" Type="F" Min="0.00000000e+00" Max="1.65261194e-01"/>
    <Variable VarIndex="8" Expression="j2_ptD" Label="j2_ptD" Title="jet2 ptD" Unit="" Internal="j2_ptD" Type="F" Min="1.77203298e-01" Max="1.00000000e+00"/>
    <Variable VarIndex="9" Expression="j3_pT" Label="j3_pT" Title="jet3 pT" Unit="" Internal="j3_pT" Type="F" Min="3.00003796e+01" Max="4.55177673e+02"/>
    <Variable VarIndex="10" Expression="j3_Eta" Label="j3_Eta" Title="jet3 eta" Unit="" Internal="j3_Eta" Type="F" Min="-4.67453861e+00" Max="4.68811989e+00"/>
    <Variable VarIndex="11" Expression="j3_Unc" Label="j3_Unc" Title="jet3 Unc" Unit="" Internal="j3_Unc" Type="F" Min="6.61964621e-03" Max="9.05662775e-02"/>
    <Variable VarIndex="12" Expression="j3_axis2" Label="j3_axis2" Title="jet3 axis2" Unit="" Internal="j3_axis2" Type="F" Min="0.00000000e+00" Max="1.76428184e-01"/>
    <Variable VarIndex="13" Expression="j3_ptD" Label="j3_ptD" Title="jet3 ptD" Unit="" Internal="j3_ptD" Type="F" Min="0.00000000e+00" Max="1.00000000e+00"/>
    <Variable VarIndex="14" Expression="j4_pT" Label="j4_pT" Title="jet4 pT" Unit="" Internal="j4_pT" Type="F" Min="3.00997219e+01" Max="1.20029651e+03"/>
    <Variable VarIndex="15" Expression="j4_Unc" Label="j4_Unc" Title="jet4 Unc" Unit="" Internal="j4_Unc" Type="F" Min="6.51369477e-03" Max="1.18152030e-01"/>
    <Variable VarIndex="16" Expression="j4_axis2" Label="j4_axis2" Title="jet4 axis2" Unit="" Internal="j4_axis2" Type="F" Min="0.00000000e+00" Max="1.76428184e-01"/>
    <Variable VarIndex="17" Expression="j4_ptD" Label="j4_ptD" Title="jet4 ptD" Unit="" Internal="j4_ptD" Type="F" Min="0.00000000e+00" Max="1.00000000e+00"/>
    <Variable VarIndex="18" Expression="DEta_f12" Label="DEta_f12" Title="DEta_f12" Unit="" Internal="DEta_f12" Type="F" Min="2.88265903e-04" Max="8.28162670e+00"/>
    <Variable VarIndex="19" Expression="DEta_v34" Label="DEta_v34" Title="DEta_v34" Unit="" Internal="DEta_v34" Type="F" Min="1.09552019e-07" Max="5.15746593e+00"/>
    <Variable VarIndex="20" Expression="DPhi_f12" Label="DPhi_f12" Title="DPhi_f12" Unit="" Internal="DPhi_f12" Type="F" Min="-3.14156270e+00" Max="3.14132929e+00"/>
    <Variable VarIndex="21" Expression="DPhi_v34" Label="DPhi_v34" Title="DPhi_v34" Unit="" Internal="DPhi_v34" Type="F" Min="-3.14125824e+00" Max="3.14107990e+00"/>
    <Variable VarIndex="22" Expression="DR_v34" Label="DR_v34" Title="DR_v34" Unit="" Internal="DR_v34" Type="F" Min="3.98250878e-01" Max="5.15766382e+00"/>
  </Variables>
  <Spectators NSpec="0"/>
  <Classes NClass="2">
    <Class Name="Signal" Index="0"/>
    <Class Name="Background" Index="1"/>
  </Classes>
  <Transformations NTransformations="1">
    <Transform Name="Normalize">
      <Selection>
        <Input NInputs="23">
          <Input Type="Variable" Label="j1_pT" Expression="j1_pT"/>
          <Input Type="Variable" Label="j1_Eta" Expression="j1_Eta"/>
          <Input Type="Variable" Label="j1_Unc" Expression="j1_Unc"/>
          <Input Type="Variable" Label="j1_axis2" Expression="j1_axis2"/>
          <Input Type="Variable" Label="j1_ptD" Expression="j1_ptD"/>
          <Input Type="Variable" Label="j2_pT" Expression="j2_pT"/>
          <Input Type="Variable" Label="j2_Unc" Expression="j2_Unc"/>
          <Input Type="Variable" Label="j2_axis2" Expression="j2_axis2"/>
          <Input Type="Variable" Label="j2_ptD" Expression="j2_ptD"/>
          <Input Type="Variable" Label="j3_pT" Expression="j3_pT"/>
          <Input Type="Variable" Label="j3_Eta" Expression="j3_Eta"/>
          <Input Type="Variable" Label="j3_Unc" Expression="j3_Unc"/>
          <Input Type="Variable" Label="j3_axis2" Expression="j3_axis2"/>
          <Input Type="Variable" Label="j3_ptD" Expression="j3_ptD"/>
          <Input Type="Variable" Label="j4_pT" Expression="j4_pT"/>
          <Input Type="Variable" Label="j4_Unc" Expression="j4_Unc"/>
          <Input Type="Variable" Label="j4_axis2" Expression="j4_axis2"/>
          <Input Type="Variable" Label="j4_ptD" Expression="j4_ptD"/>
          <Input Type="Variable" Label="DEta_f12" Expression="DEta_f12"/>
          <Input Type="Variable" Label="DEta_v34" Expression="DEta_v34"/>
          <Input Type="Variable" Label="DPhi_f12" Expression="DPhi_f12"/>
          <Input Type="Variable" Label="DPhi_v34" Expression="DPhi_v34"/>
          <Input Type="Variable" Label="DR_v34" Expression="DR_v34"/>
        </Input>
        <Output NOutputs="23">
          <Output Type="Variable" Label="j1_pT" Expression="j1_pT"/>
          <Output Type="Variable" Label="j1_Eta" Expression="j1_Eta"/>
          <Output Type="Variable" Label="j1_Unc" Expression="j1_Unc"/>
          <Output Type="Variable" Label="j1_axis2" Expression="j1_axis2"/>
          <Output Type="Variable" Label="j1_ptD" Expression="j1_ptD"/>
          <Output Type="Variable" Label="j2_pT" Expression="j2_pT"/>
          <Output Type="Variable" Label="j2_Unc" Expression="j2_Unc"/>
          <Output Type="Variable" Label="j2_axis2" Expression="j2_axis2"/>
          <Output Type="Variable" Label="j2_ptD" Expression="j2_ptD"/>
          <Output Type="Variable" Label="j3_pT" Expression="j3_pT"/>
          <Output Type="Variable" Label="j3_Eta" Expression="j3_Eta"/>
          <Output Type="Variable" Label="j3_Unc" Expression="j3_Unc"/>
          <Output Type="Variable" Label="j3_axis2" Expression="j3_axis2"/>
          <Output Type="Variable" Label="j3_ptD" Expression="j3_ptD"/>
          <Output Type="Variable" Label="j4_pT" Expression="j4_pT"/>
          <Output Type="Variable" Label="j4_Unc" Expression="j4_Unc"/>
          <Output Type="Variable" Label="j4_axis2" Expression="j4_axis2"/>
          <Output Type="Variable" Label="j4_ptD" Expression="j4_ptD"/>
          <Output Type="Variable" Label="DEta_f12" Expression="DEta_f12"/>
          <Output Type="Variable" Label="DEta_v34" Expression="DEta_v34"/>
          <Output Type="Variable" Label="DPhi_f12" Expression="DPhi_f12"/>
          <Output Type="Variable" Label="DPhi_v34" Expression="DPhi_v34"/>
          <Output Type="Variable" Label="DR_v34" Expression="DR_v34"/>
        </Output>
      </Selection>
      <Class ClassIndex="0">
        <Ranges>
          <Range Index="0" Min="3.0044113159179688e+01" Max="1.4611861572265625e+03"/>
          <Range Index="1" Min="-4.6779117584228516e+00" Max="4.5896077156066895e+00"/>
          <Range Index="2" Min="6.5937228500843048e-03" Max="1.0937437415122986e-01"/>
          <Range Index="3" Min="0.0000000000000000e+00" Max="1.5294563770294189e-01"/>
          <Range Index="4" Min="2.1820680797100067e-01" Max="1.0000000000000000e+00"/>
          <Range Index="5" Min="3.8487083435058594e+01" Max="1.5582602539062500e+03"/>
          <Range Index="6" Min="6.5062912181019783e-03" Max="1.1582065373659134e-01"/>
          <Range Index="7" Min="0.0000000000000000e+00" Max="1.1066143214702606e-01"/>
          <Range Index="8" Min="1.8499943614006042e-01" Max="9.8080879449844360e-01"/>
          <Range Index="9" Min="3.0000379562377930e+01" Max="2.1476504516601562e+02"/>
          <Range Index="10" Min="-4.1948699951171875e+00" Max="4.4535570144653320e+00"/>
          <Range Index="11" Min="7.9155983403325081e-03" Max="6.8521462380886078e-02"/>
          <Range Index="12" Min="0.0000000000000000e+00" Max="1.7642818391323090e-01"/>
          <Range Index="13" Min="2.1614554524421692e-01" Max="9.6880424022674561e-01"/>
          <Range Index="14" Min="3.1148328781127930e+01" Max="8.5410815429687500e+02"/>
          <Range Index="15" Min="6.5787020139396191e-03" Max="9.5013894140720367e-02"/>
          <Range Index="16" Min="0.0000000000000000e+00" Max="1.2115385383367538e-01"/>
          <Range Index="17" Min="2.0936183631420135e-01" Max="9.6624851226806641e-01"/>
          <Range Index="18" Min="3.6573440302163363e-03" Max="7.8846068382263184e+00"/>
          <Range Index="19" Min="5.1472434279276058e-05" Max="2.3926243782043457e+00"/>
          <Range Index="20" Min="-3.1415534019470215e+00" Max="3.1402392387390137e+00"/>
          <Range Index="21" Min="-3.1206541061401367e+00" Max="3.1404860019683838e+00"/>
          <Range Index="22" Min="4.0167981386184692e-01" Max="3.4810862541198730e+00"/>
        </Ranges>
      </Class>
      <Class ClassIndex="1">
        <Ranges>
          <Range Index="0" Min="3.0005058288574219e+01" Max="1.4427041015625000e+03"/>
          <Range Index="1" Min="-4.6779117584228516e+00" Max="4.6972341537475586e+00"/>
          <Range Index="2" Min="6.5529760904610157e-03" Max="1.0793504118919373e-01"/>
          <Range Index="3" Min="0.0000000000000000e+00" Max="1.6526119410991669e-01"/>
          <Range Index="4" Min="0.0000000000000000e+00" Max="1.0000000000000000e+00"/>
          <Range Index="5" Min="3.0708951950073242e+01" Max="1.7557110595703125e+03"/>
          <Range Index="6" Min="6.5011749975383282e-03" Max="1.2252201884984970e-01"/>
          <Range Index="7" Min="0.0000000000000000e+00" Max="1.6526119410991669e-01"/>
          <Range Index="8" Min="1.7720329761505127e-01" Max="1.0000000000000000e+00"/>
          <Range Index="9" Min="3.0004014968872070e+01" Max="4.5517767333984375e+02"/>
          <Range Index="10" Min="-4.6745386123657227e+00" Max="4.6881198883056641e+00"/>
          <Range Index="11" Min="6.6196462139487267e-03" Max="9.0566277503967285e-02"/>
          <Range Index="12" Min="0.0000000000000000e+00" Max="1.7642818391323090e-01"/>
          <Range Index="13" Min="0.0000000000000000e+00" Max="1.0000000000000000e+00"/>
          <Range Index="14" Min="3.0099721908569336e+01" Max="1.2002965087890625e+03"/>
          <Range Index="15" Min="6.5136947669088840e-03" Max="1.1815202981233597e-01"/>
          <Range Index="16" Min="0.0000000000000000e+00" Max="1.7642818391323090e-01"/>
          <Range Index="17" Min="0.0000000000000000e+00" Max="1.0000000000000000e+00"/>
          <Range Index="18" Min="2.8826590278185904e-04" Max="8.2816267013549805e+00"/>
          <Range Index="19" Min="1.0955201901197142e-07" Max="5.1574659347534180e+00"/>
          <Range Index="20" Min="-3.1415627002716064e+00" Max="3.1413292884826660e+00"/>
          <Range Index="21" Min="-3.1412582397460938e+00" Max="3.1410799026489258e+00"/>
          <Range Index="22" Min="3.9825087785720825e-01" Max="5.1576638221740723e+00"/>
        </Ranges>
      </Class>
      <Class ClassIndex="2">
        <Ranges>
          <Range Index="0" Min="3.0005058288574219e+01" Max="1.4611861572265625e+03"/>
          <Range Index="1" Min="-4.6779117584228516e+00" Max="4.6972341537475586e+00"/>
          <Range Index="2" Min="6.5529760904610157e-03" Max="1.0937437415122986e-01"/>
          <Range Index="3" Min="0.0000000000000000e+00" Max="1.6526119410991669e-01"/>
          <Range Index="4" Min="0.0000000000000000e+00" Max="1.0000000000000000e+00"/>
          <Range Index="5" Min="3.0708951950073242e+01" Max="1.7557110595703125e+03"/>
          <Range Index="6" Min="6.5011749975383282e-03" Max="1.2252201884984970e-01"/>
          <Range Index="7" Min="0.0000000000000000e+00" Max="1.6526119410991669e-01"/>
          <Range Index="8" Min="1.7720329761505127e-01" Max="1.0000000000000000e+00"/>
          <Range Index="9" Min="3.0000379562377930e+01" Max="4.5517767333984375e+02"/>
          <Range Index="10" Min="-4.6745386123657227e+00" Max="4.6881198883056641e+00"/>
          <Range Index="11" Min="6.6196462139487267e-03" Max="9.0566277503967285e-02"/>
          <Range Index="12" Min="0.0000000000000000e+00" Max="1.7642818391323090e-01"/>
          <Range Index="13" Min="0.0000000000000000e+00" Max="1.0000000000000000e+00"/>
          <Range Index="14" Min="3.0099721908569336e+01" Max="1.2002965087890625e+03"/>
          <Range Index="15" Min="6.5136947669088840e-03" Max="1.1815202981233597e-01"/>
          <Range Index="16" Min="0.0000000000000000e+00" Max="1.7642818391323090e-01"/>
          <Range Index="17" Min="0.0000000000000000e+00" Max="1.0000000000000000e+00"/>
          <Range Index="18" Min="2.8826590278185904e-04" Max="8.2816267013549805e+00"/>
          <Range Index="19" Min="1.0955201901197142e-07" Max="5.1574659347534180e+00"/>
          <Range Index="20" Min="-3.1415627002716064e+00" Max="3.1413292884826660e+00"/>
          <Range Index="21" Min="-3.1412582397460938e+00" Max="3.1410799026489258e+00"/>
          <Range Index="22" Min="3.9825087785720825e-01" Max="5.1576638221740723e+00"/>
        </Ranges>
      </Class>
    </Transform>
  </Transformations>
  <MVAPdfs/>
  <Weights InputWidth="23" Depth="4" LossFunction="C" OutputFunction="S">
    <Layer ActivationFunction="3">
      <Weights rows="128" cols="23">
        -1.5292345546185970e-02 2.0613225176930428e-02 1.5660023316740990e-02 -2.1703256294131279e-02 1.5049044974148273e-02 -4.8797812312841415e-02 1.6551310196518898e-02 -1.2410170165821910e-03 -9.3597564846277237e-03 2.9870210215449333e-02 8.5214441642165184e-03 -7.0057243108749390e-02 -4.2845074087381363e-02 -4.5270916074514389e-02 -3.4636639058589935e-02 -6.5278545022010803e-02 -4.8673354089260101e-02 -7.7863959595561028e-03 1.0258138924837112e-01 -2.9886895790696144e-02 -1.2485328130424023e-02 -1.2674446217715740e-02 4.6466484665870667e-02 -1.1345907300710678e-01 1.6889394819736481e-01 4.3010123074054718e-02 3.4939382225275040e-02 4.3677262961864471e-02 2.5298431515693665e-02 3.6446582525968552e-02 8.9564420282840729e-02 3.4764867275953293e-02 8.4131658077239990e-02 -1.9853636622428894e-01 2.2787839174270630e-02 9.2164129018783569e-02 -1.0846279561519623e-01 7.6660513877868652e-02 3.1462326645851135e-02 4.9970082938671112e-02 -5.7206477969884872e-02 -4.1205216199159622e-02 1.6670623421669006e-01 -2.2378820925951004e-02 -1.1031635105609894e-02 1.2752175331115723e-01 -6.6841006278991699e-02 6.8141981959342957e-02 2.3624034598469734e-02 7.7614642679691315e-02 -2.9926391318440437e-02 -2.6334002614021301e-02 2.8270544484257698e-02 8.9567415416240692e-02 3.9751073345541954e-03 6.5511167049407959e-02 -9.2659063637256622e-02 6.0922559350728989e-03 4.5715209096670151e-02 -4.6969139948487282e-03 7.6031811535358429e-02 3.0598097946494818e-03 7.3413938283920288e-02 1.6159167513251305e-02 -1.1880771070718765e-01 1.1307273805141449e-01 -3.4371774643659592e-02 2.6357534807175398e-03 8.8814616203308105e-02 3.3574122935533524e-02 1.6974737867712975e-02 3.3085826784372330e-02 -5.5426601320505142e-02 1.5873001888394356e-02 -6.0131862759590149e-02 -1.7002698034048080e-02 -2.4892995133996010e-02 1.6210079193115234e-02 -4.1476350277662277e-02 -3.2855723053216934e-02 -5.6886523962020874e-02 -5.1651500165462494e-02 9.8732961341738701e-03 -6.9804796949028969e-03 -5.9402503073215485e-02 -1.9958360120654106e-02 1.6374625265598297e-02 6.2386684119701385e-02 -6.9740854203701019e-02 6.5642157569527626e-03 -1.1590307578444481e-02 -4.7383699566125870e-02 5.0739601254463196e-02 -1.1851283907890320e-01 -3.2241784036159515e-02 -4.3239433318376541e-02 3.7716064602136612e-02 -4.6387426555156708e-02 -1.4216882176697254e-02 -6.4005605876445770e-02 -1.3273648917675018e-02 -3.5430639982223511e-02 1.5110041201114655e-01 -5.6831266731023788e-02 -8.4738083183765411e-02 5.7546526193618774e-02 -7.9286806285381317e-02 -7.6757602393627167e-02 -7.9769082367420197e-02 3.7648938596248627e-02 1.1349207907915115e-01 -9.1590762138366699e-02 1.7825871706008911e-02 4.6593055129051208e-02 -3.4030329436063766e-02 1.2900950014591217e-01 -7.9206183552742004e-02 -4.7960758209228516e-02 -7.3349669575691223e-02 -1.7636701464653015e-02 -1.2554114684462547e-02 -3.0446711927652359e-02 -7.9658754169940948e-02 1.0043683869298548e-04 -8.7494067847728729e-02 1.0740565508604050e-01 -2.1175730507820845e-03 -3.1902827322483063e-02 3.1820517033338547e-02 -7.1482412517070770e-02 -5.3502149879932404e-02 -5.3906194865703583e-02 3.1609833240509033e-02 1.0489039868116379e-01 -6.8586304783821106e-02 -1.2208689004182816e-02 -9.3909399583935738e-03 -8.4253281354904175e-02 2.2852988541126251e-01 -5.9018866159021854e-03 -2.8502451255917549e-02 -1.1430272459983826e-01 4.8115458339452744e-02 6.0786690562963486e-02 -2.0799228921532631e-02 -1.6445277631282806e-01 -4.3123558163642883e-02 -1.0085578262805939e-01 1.4610087964683771e-04 -1.0032279789447784e-01 -9.2594295740127563e-02 -1.1261233128607273e-02 -1.2665708363056183e-01 -5.2116945385932922e-02 -1.3193975389003754e-01 1.2658542022109032e-02 2.0288799703121185e-01 -1.8274487555027008e-01 3.1703520566225052e-02 2.2121103480458260e-02 -8.7733037769794464e-02 1.7345277592539787e-02 -2.2276828065514565e-02 1.5684369951486588e-02 -4.2655862867832184e-02 -3.6157665308564901e-03 -4.6573445200920105e-02 -6.7156651057302952e-03 -1.9778246060013771e-02 -4.4699799269437790e-02 -3.6408536136150360e-02 3.6237902939319611e-02 1.1775264283642173e-03 -4.5777890831232071e-02 3.8829967379570007e-02 -2.3983428254723549e-02 1.2595540611073375e-03 -2.2562976926565170e-02 -1.9203918054699898e-02 3.4966766834259033e-02 -7.0766501128673553e-02 2.9576724395155907e-02 1.2103216722607613e-02 -6.9542236626148224e-02 -1.4577164314687252e-02 -5.3573776036500931e-02 1.6509830951690674e-02 1.4717440120875835e-02 -1.7075214534997940e-02 -5.7532042264938354e-02 -3.2938586082309484e-03 4.2655203491449356e-02 -2.0123424474149942e-03 8.5590397939085960e-03 2.6147138327360153e-02 1.9397640600800514e-02 -1.2384281493723392e-02 -2.4441697169095278e-03 2.9757026582956314e-02 5.0497185438871384e-03 -2.0928446203470230e-02 2.8234297409653664e-02 -2.1831629797816277e-02 9.3453833833336830e-03 -1.9291583448648453e-02 -3.8756662979722023e-03 1.2013266794383526e-02 5.5242229253053665e-02 3.7737579550594091e-03 -2.4168260395526886e-02 -7.1803458034992218e-02 -3.5316895693540573e-02 6.4596623182296753e-02 -5.9628924354910851e-03 -7.6481886208057404e-02 -8.3437785506248474e-03 -3.7558637559413910e-02 -9.1916974633932114e-03 7.3908176273107529e-03 -3.4032106399536133e-02 4.7927312552928925e-02 -2.6363063603639603e-02 -2.4544853717088699e-02 -1.2741816230118275e-02 -5.6060929782688618e-03 2.5616457685828209e-02 -6.8994991481304169e-02 -2.6288945227861404e-02 8.0682709813117981e-04 -6.1230424791574478e-02 1.5158002078533173e-01 -9.9457369651645422e-04 -4.7788634896278381e-02 -8.3341896533966064e-02 -2.3530716076493263e-02 6.5316550433635712e-02 -4.3531082570552826e-02 -9.5993764698505402e-02 -3.9606705307960510e-02 -5.4218765348196030e-02 -2.8926663100719452e-02 -5.3289178758859634e-03 -7.2211407124996185e-02 8.8780354708433151e-03 -1.0816883295774460e-01 -3.1546186655759811e-02 -2.8366904705762863e-02 -1.2888751924037933e-02 9.3261949717998505e-02 -1.2938044965267181e-01 -1.7732301726937294e-02 -4.7124330885708332e-03 -1.0238331556320190e-01 2.7692836523056030e-01 8.5448719561100006e-02 -7.0800997316837311e-02 -1.6643345355987549e-01 3.6355901509523392e-02 8.5274860262870789e-02 -2.6856901124119759e-02 -1.9924333691596985e-01 -2.9108462855219841e-02 -1.2541167438030243e-01 -1.6371402144432068e-01 -9.4423748552799225e-02 -1.0651161521673203e-01 8.1681303679943085e-02 -1.4643874764442444e-01 -3.2590162009000778e-02 -1.4607971906661987e-01 4.2811661958694458e-02 1.6241222620010376e-01 -2.6472601294517517e-01 -5.8397050015628338e-03 -1.7408574000000954e-02 -1.2292310595512390e-01 9.7093187272548676e-02 -3.8863718509674072e-02 -7.6280280947685242e-02 -4.0924113243818283e-02 -3.2544314861297607e-02 8.6755514144897461e-02 -4.8626912757754326e-03 -9.8600506782531738e-02 5.1643755286931992e-03 -4.3040055781602859e-02 7.8854396939277649e-02 -4.9522235058248043e-03 -1.6238821670413017e-02 1.5557599253952503e-02 -4.9927756190299988e-02 1.4146399684250355e-02 3.6599092185497284e-02 4.3954071588814259e-03 -3.5069011151790619e-02 -7.3636531829833984e-02 2.1512400358915329e-02 -7.4096708558499813e-03 -8.5422754287719727e-02 4.3192069977521896e-02 3.0304323881864548e-02 -1.9931614398956299e-02 -1.3245426118373871e-02 2.1036739926785231e-03 2.8905211016535759e-02 7.7924989163875580e-03 -5.9101145714521408e-02 -2.5010153651237488e-02 -4.5735154300928116e-02 1.1225712951272726e-03 -2.0118119195103645e-02 3.7040489260107279e-03 -1.1979631148278713e-02 -3.3000253140926361e-02 -2.7390351518988609e-02 -4.4191785156726837e-02 1.5867644920945168e-02 5.4670345038175583e-02 -5.6504052132368088e-02 1.2675905600190163e-02 -1.1161795817315578e-02 -4.7114714980125427e-02 -4.8794586211442947e-02 -1.1056101322174072e-01 -2.7693582233041525e-03 8.3162128925323486e-02 -6.5773203969001770e-02 5.7868700474500656e-02 1.1341563425958157e-02 5.0237942487001419e-02 1.0843740310519934e-03 2.3377191275358200e-02 1.2485784292221069e-01 9.2523328959941864e-02 6.5668389201164246e-02 4.0643448010087013e-03 4.9104571342468262e-02 7.1105636656284332e-02 7.4658706784248352e-02 -2.8778100386261940e-02 -1.4459215104579926e-01 1.0133119672536850e-01 -2.5819107890129089e-02 -1.9463488832116127e-02 -1.9030226394534111e-02 8.6203701794147491e-03 1.6468262299895287e-02 -3.1063659116625786e-02 2.7634192258119583e-02 -1.2218930758535862e-02 2.0010886713862419e-02 -8.0169206485152245e-03 1.6684377565979958e-02 1.0633961297571659e-02 2.7400244027376175e-02 4.1799554601311684e-03 -1.7135292291641235e-02 1.3397105969488621e-02 6.3586146570742130e-03 -2.8192669153213501e-02 3.1625784933567047e-02 -1.3047301210463047e-02 1.0726985521614552e-02 -4.2452268302440643e-02 -3.1885069329291582e-03 -1.3911711983382702e-02 -1.3500795699656010e-02 1.6022616764530540e-03 8.7888836860656738e-02 -6.7927688360214233e-02 -5.5554535239934921e-02 -5.4678361862897873e-02 -4.3120399117469788e-02 6.6788032650947571e-02 -3.8121405988931656e-02 -6.7370019853115082e-02 -7.7321291901171207e-03 -2.1175364032387733e-02 8.8588431477546692e-02 -2.3169184103608131e-02 -2.4758724495768547e-02 4.2276758700609207e-02 -2.7215097099542618e-02 -3.8034276803955436e-04 3.5883922129869461e-02 1.7825370654463768e-02 6.5824827179312706e-03 -9.1122509911656380e-03 3.3117025159299374e-03 2.3866955190896988e-02 -3.5065133124589920e-02 3.8656758260913193e-04 6.3313995487987995e-03 -1.9846554845571518e-02 3.3636491745710373e-02 2.1022684872150421e-02 1.1489329859614372e-02 1.9966000691056252e-02 -7.2775240987539291e-03 3.9667237550020218e-02 -1.3619590317830443e-03 -2.2455189377069473e-02 4.7374609857797623e-02 4.2004689574241638e-02 9.9411550909280777e-03 1.1037229560315609e-02 -1.2786972336471081e-02 1.7839767038822174e-02 -1.9058054313063622e-02 -4.5064788311719894e-02 2.5596607476472855e-02 3.9409054443240166e-03 2.5599580258131027e-02 2.0776262972503901e-03 -9.6137769520282745e-02 1.0278235375881195e-01 3.3818047493696213e-02 5.6167721748352051e-02 -1.5231550787575543e-04 2.1089760586619377e-02 2.0500641316175461e-02 6.3920199871063232e-02 2.5174083188176155e-02 3.1108153983950615e-02 -1.2029287964105606e-01 1.3174620456993580e-02 5.4937086999416351e-02 -5.4053440690040588e-02 9.3276776373386383e-02 1.7823463305830956e-02 7.2716148570179939e-03 -1.7837703227996826e-02 -9.1449864208698273e-02 4.5302465558052063e-02 -2.5036789476871490e-02 1.7293624579906464e-02 2.1118750795722008e-02 7.3380335234105587e-03 -4.9895934760570526e-02 7.4380664154887199e-03 -3.8958967197686434e-03 -3.5636700689792633e-02 -3.3365964889526367e-02 2.1750081330537796e-02 -4.1063364595174789e-02 6.1932974494993687e-03 -8.4561137482523918e-03 7.1756534278392792e-02 1.6532637178897858e-02 -3.3009376376867294e-02 1.1596069671213627e-02 -4.7944828867912292e-02 -4.1258085519075394e-02 -3.6384491249918938e-03 -1.3996923342347145e-02 1.4026101678609848e-02 -4.9566980451345444e-02 6.1438134871423244e-03 8.6452988907694817e-03 -5.4305609315633774e-02 -2.0441070199012756e-02 7.1223303675651550e-02 8.3652362227439880e-03 -1.7272299155592918e-02 3.3769857138395309e-02 -3.6133527755737305e-02 2.6619231328368187e-02 -1.4796048402786255e-02 -1.0718859732151031e-02 6.1927335336804390e-03 -9.3366101384162903e-02 -7.1539089083671570e-02 -2.7180559933185577e-02 -6.0943160206079483e-03 6.6622165031731129e-03 -3.6064859479665756e-02 -6.3237369060516357e-02 6.5198033116757870e-03 6.3492976129055023e-02 -1.6508445143699646e-02 5.7294014841318130e-03 1.9402535632252693e-02 4.1676431894302368e-02 4.4950366020202637e-02 -1.7892768606543541e-02 -3.1060408800840378e-02 -5.3577877581119537e-02 1.2469008797779679e-03 7.0814910577610135e-04 -2.3616749793291092e-02 -6.6990852355957031e-02 -3.9906008169054985e-04 -4.5137364417314529e-02 -1.8135353457182646e-03 7.1239531971514225e-03 -6.4932033419609070e-02 4.0495559573173523e-02 -6.6480584442615509e-02 -4.2257294058799744e-02 -1.5199297107756138e-02 4.5133749954402447e-03 5.6139972060918808e-02 -5.5579323321580887e-02 -3.9692837744951248e-02 -3.0739029869437218e-02 -2.8889512643218040e-02 -3.6635842174291611e-02 1.2747775763273239e-02 3.5287160426378250e-02 -1.7921412363648415e-02 3.5512037575244904e-02 -5.2666883915662766e-02 2.3095315322279930e-02 4.3479401618242264e-02 -2.5498582981526852e-03 -6.9122891873121262e-03 5.3105063736438751e-02 1.2908170931041241e-02 -3.6935523152351379e-02 1.5068294480443001e-02 1.4791662804782391e-02 -7.1300379931926727e-03 2.2860765457153320e-03 7.2440522490069270e-04 4.1678763926029205e-02 -1.2684084475040436e-02 -1.3117171823978424e-02 -5.5415113456547260e-03 2.6705974712967873e-02 -2.4744679033756256e-01 -9.6356607973575592e-02 5.5842887610197067e-02 1.4474640786647797e-01 1.4452732168138027e-02 -9.2742204666137695e-02 5.8231923729181290e-02 1.4539933204650879e-01 3.9412569254636765e-02 1.2417645007371902e-01 1.5614399313926697e-01 8.9684486389160156e-02 3.5564299672842026e-02 -2.0639302209019661e-02 1.7180509865283966e-01 3.7771522998809814e-02 1.1745461821556091e-01 -1.1900158599019051e-02 -1.4489389955997467e-01 2.5901204347610474e-01 -1.0478273965418339e-02 -1.7912300303578377e-02 1.6341383755207062e-01 -3.4062121994793415e-03 3.5377390682697296e-02 8.3881784230470657e-03 3.0639329925179482e-02 -6.8875314900651574e-04 4.8810534179210663e-02 -2.4351840838789940e-02 3.0869385227560997e-02 2.2881822660565376e-02 -1.8283530371263623e-03 7.4979821220040321e-03 3.9870239794254303e-02 -1.0947508271783590e-03 2.1604444831609726e-02 2.4180481210350990e-02 3.3078912645578384e-02 2.9024830088019371e-02 6.5991156734526157e-03 -1.9746651872992516e-02 1.5809239819645882e-02 -1.8402868881821632e-02 1.4712558127939701e-02 2.7702348306775093e-03 -2.4994080886244774e-02 4.3808754533529282e-02 3.4944766666740179e-03 3.7458922713994980e-02 5.5966293439269066e-03 6.4650271087884903e-03 -7.8341290354728699e-03 1.8966486677527428e-02 -1.0835682973265648e-02 -3.9038143586367369e-03 -5.3409174084663391e-02 1.0324771516025066e-02 7.0093944668769836e-02 -6.4787482842803001e-03 5.3302254527807236e-02 3.6540698260068893e-02 7.0916861295700073e-02 1.7090974375605583e-02 -4.1121933609247208e-02 6.5345428884029388e-02 -3.4428421407938004e-02 -3.0445523560047150e-02 4.4775482267141342e-02 -1.3224473595619202e-01 5.9268757700920105e-02 4.0498483926057816e-02 7.3733635246753693e-02 8.1169568002223969e-03 -6.5903696231544018e-03 4.2744375765323639e-02 9.9567659199237823e-02 5.9829231351613998e-02 8.7141543626785278e-02 -7.4472151696681976e-02 7.9696159809827805e-03 8.4091842174530029e-02 -8.8333025574684143e-02 7.1007721126079559e-02 5.6328540667891502e-03 9.1353349387645721e-02 -4.8581760376691818e-02 -4.2391367256641388e-02 1.6657008230686188e-01 -6.0401237569749355e-03 -5.6184814311563969e-03 1.0530439764261246e-01 1.7262016236782074e-01 -3.3547095954418182e-02 -2.5256725028157234e-02 -1.2333519756793976e-01 4.4534102082252502e-02 -4.7813408076763153e-02 -4.1105384007096291e-03 -9.9493116140365601e-02 -4.2895048856735229e-02 -6.2189828604459763e-02 4.7899492084980011e-02 -3.6261167377233505e-02 -9.4981670379638672e-02 4.8418484628200531e-02 -1.3800184428691864e-01 -5.3809437900781631e-02 -1.1336722224950790e-01 7.9128397628664970e-03 1.9775153696537018e-01 -1.9182476401329041e-01 3.1416386365890503e-02 -1.4738290570676327e-02 -1.0869002342224121e-01 -1.7434747517108917e-01 -5.2431583404541016e-02 5.3799524903297424e-02 1.1638352274894714e-01 -3.7003766745328903e-02 -4.4837959110736847e-02 3.8645904511213303e-02 1.3433200120925903e-01 -9.0478814672678709e-04 1.1119154840707779e-01 6.5189331769943237e-02 6.5662086009979248e-02 4.6468984335660934e-02 -2.7494600042700768e-02 1.0602865368127823e-01 1.1790006101364270e-04 9.4232186675071716e-02 -5.9541944414377213e-02 -1.0496141761541367e-01 1.8132437765598297e-01 2.6873501483350992e-03 8.7366858497262001e-03 9.9043451249599457e-02 9.0373650193214417e-02 -4.1620723903179169e-02 -1.7362335696816444e-02 -2.8346413746476173e-03 -7.2677298448979855e-03 4.6347077935934067e-02 -3.7106022238731384e-02 -1.6254279762506485e-02 -1.9079783931374550e-02 -7.3322109878063202e-02 4.7133963555097580e-02 -1.7004996538162231e-02 -2.7921143919229507e-02 4.2317971587181091e-02 -3.2947145402431488e-02 1.0626083239912987e-02 -3.9134968072175980e-02 4.3963473290205002e-03 -1.6453091055154800e-02 -4.7991394996643066e-02 4.7509605064988136e-03 -3.0990203842520714e-02 -7.4886761605739594e-02 -5.2562322467565536e-02 -1.6347020864486694e-02 5.1011452451348305e-03 8.7724514305591583e-02 -3.6762036383152008e-02 4.7815740108489990e-02 2.0569123327732086e-02 4.4207103550434113e-02 -3.9117322303354740e-03 5.1374528557062149e-02 6.7725047469139099e-02 4.1903756558895111e-02 2.3935295641422272e-02 -2.2009960375726223e-03 7.6286770403385162e-02 4.3492283672094345e-02 5.7249043136835098e-02 -8.8385697454214096e-03 -1.3469964265823364e-01 7.0427678525447845e-02 3.1876500695943832e-02 1.9484993070363998e-02 2.6234854012727737e-02 -1.1296310275793076e-01 5.6527376174926758e-02 2.5836054235696793e-02 9.4006724655628204e-02 -1.3269674964249134e-02 3.4339029341936111e-02 2.4162784218788147e-02 7.3079749941825867e-02 7.1324454620480537e-03 3.7199582904577255e-02 -9.0234510600566864e-02 7.5719192624092102e-02 7.0724569261074066e-02 -7.3873857036232948e-03 6.9525651633739471e-02 3.3828269690275192e-02 4.0361516177654266e-02 7.5883604586124420e-04 -1.3583128154277802e-01 5.8677218854427338e-02 -1.4294921420514584e-03 1.1705318465828896e-02 6.6753095015883446e-03 -9.2090755701065063e-02 5.8330666273832321e-02 1.8500927835702896e-02 3.7177536636590958e-02 -1.5917563810944557e-02 -2.2935502231121063e-02 -1.6638954402878881e-03 4.0347129106521606e-02 8.2898782566189766e-03 8.3955898880958557e-02 -6.7337468266487122e-02 3.7378236651420593e-02 7.7722780406475067e-02 -5.7059995830059052e-02 1.0362249612808228e-01 4.6203341335058212e-02 4.2326204478740692e-02 -2.6524066925048828e-02 -1.1693284660577774e-01 1.0451404005289078e-01 -2.6537133380770683e-03 -1.5297855250537395e-02 9.9763534963130951e-02 1.2654657475650311e-02 -2.3804781958460808e-02 1.9983621314167976e-02 9.2534261057153344e-04 -6.5556759946048260e-03 8.6375344544649124e-03 -6.4351814216934144e-05 -3.0122820287942886e-02 -9.1910846531391144e-03 1.4934210106730461e-02 -3.4475840628147125e-02 -1.1404193937778473e-02 -3.9227563887834549e-02 -2.6504598557949066e-02 -2.9022429138422012e-02 7.4610016308724880e-03 -1.7982058925554156e-03 8.0909291282296181e-03 3.6599215120077133e-02 -2.8519764542579651e-02 1.1905370280146599e-02 2.6513056829571724e-02 1.0507163591682911e-02 -7.3924019932746887e-02 1.7810629680752754e-02 1.8863642588257790e-02 5.2962332963943481e-02 1.6125522553920746e-02 7.3509979993104935e-03 2.2223573178052902e-02 7.7245324850082397e-02 2.7264812961220741e-02 2.3788684979081154e-02 -2.4784414097666740e-02 1.8350882455706596e-02 4.0268182754516602e-02 -3.9126075804233551e-02 4.9516145139932632e-02 4.6339932829141617e-02 6.9457069039344788e-02 -1.3409767299890518e-02 -5.1706425845623016e-02 9.0174913406372070e-02 -2.8883181512355804e-02 -2.3411564528942108e-02 1.8260784447193146e-02 -1.7418044805526733e-01 7.6011374592781067e-02 5.7957429438829422e-02 1.1389949172735214e-01 -4.0133882313966751e-02 6.4470572397112846e-03 3.9551053196191788e-02 1.3603325188159943e-01 5.5722936987876892e-02 1.0004820674657822e-01 -1.0109233111143112e-01 3.2084524631500244e-02 5.4346371442079544e-02 -3.3531993627548218e-02 1.3105852901935577e-01 4.2075827717781067e-02 7.4525065720081329e-02 -6.5912944264709949e-03 -1.6271083056926727e-01 9.2308983206748962e-02 2.5158947333693504e-02 -3.3538034185767174e-03 6.7817062139511108e-02 2.8673309832811356e-02 -1.7132770270109177e-02 -4.1517107747495174e-03 -2.6987856253981590e-02 2.8996594250202179e-02 -2.4441039189696312e-02 1.4747922308743000e-02 -3.8717553019523621e-02 1.7896272474899888e-03 -3.5275246948003769e-02 -1.4297549612820148e-02 -4.9287788569927216e-02 -3.0987357720732689e-02 2.7344371192157269e-03 -3.5359017550945282e-02 -5.4016899317502975e-02 -2.8795864433050156e-02 9.5351636409759521e-03 8.3435542881488800e-02 -6.9573760032653809e-02 -2.4934388697147369e-02 2.8644051402807236e-02 -3.5181645303964615e-02 2.8199976310133934e-02 -3.7694234400987625e-02 5.2393451333045959e-03 -2.1467654034495354e-02 1.4590640552341938e-02 -4.8882532864809036e-02 -2.0462634041905403e-02 -2.0146612077951431e-02 4.2004787246696651e-04 -8.6933159036561847e-04 5.4266262799501419e-02 -4.0770377963781357e-02 -6.6772878170013428e-02 -1.3792024925351143e-02 -7.2679847478866577e-02 -8.0580860376358032e-02 -8.8843055069446564e-02 -2.6671435683965683e-02 1.3726116716861725e-01 -8.8445320725440979e-02 -1.4394295401871204e-02 3.4468073397874832e-02 2.5091666728258133e-02 5.9168856590986252e-02 -3.4726131707429886e-03 -9.6934828907251358e-03 -8.1284366548061371e-02 4.0361344814300537e-02 3.3591762185096741e-02 4.2328559793531895e-03 -7.1261979639530182e-02 -2.9042387381196022e-02 -6.8656794726848602e-02 -7.6307752169668674e-03 -2.9445681720972061e-02 -1.6165193170309067e-02 -2.1107640117406845e-02 -7.1069791913032532e-02 -4.1923124343156815e-02 -3.1207175925374031e-02 -1.3739584013819695e-02 8.8123761117458344e-02 -9.8279088735580444e-02 7.1306903846561909e-03 -1.9122717902064323e-02 -1.0815268382430077e-02 -8.2745380699634552e-02 -9.4063334167003632e-02 -2.8304958716034889e-02 1.3261593878269196e-01 -8.4403030574321747e-02 7.0829361677169800e-02 1.1349446140229702e-02 6.8879373371601105e-02 1.2596084736287594e-02 1.8284959718585014e-02 1.4643129706382751e-01 1.1502549797296524e-01 4.2645018547773361e-02 2.6513345539569855e-02 5.9010557830333710e-02 9.5459297299385071e-02 1.1974480003118515e-01 1.1899309232831001e-02 -1.9796423614025116e-01 1.5868033468723297e-01 1.4572903513908386e-02 1.7024468630552292e-02 -9.1028157621622086e-03 -1.6856414079666138e-01 -4.2691882699728012e-02 5.1154103130102158e-02 1.0760861635208130e-01 -1.2973410077393055e-02 -5.2039910107851028e-02 3.1729629263281822e-03 1.2377507239580154e-01 4.3866146355867386e-02 7.7972844243049622e-02 6.8936027586460114e-02 2.8399804607033730e-02 5.5292461067438126e-02 -1.6018226742744446e-02 1.4064058661460876e-01 1.6244726255536079e-02 1.1936288326978683e-01 -5.2199840545654297e-02 -1.5100333094596863e-01 1.7739522457122803e-01 1.2716445140540600e-02 -6.8322299048304558e-03 1.2614583969116211e-01 2.0433160662651062e-01 1.4267303049564362e-01 -6.0196347534656525e-02 -1.7685469985008240e-01 2.2167026996612549e-02 6.2701433897018433e-02 -5.1490541547536850e-02 -1.5764011442661285e-01 -3.6746244877576828e-02 -8.9643567800521851e-02 -2.1730968356132507e-01 -4.9194738268852234e-02 -1.0878099501132965e-01 6.0591954737901688e-02 -1.0815041512250900e-01 -5.1219534128904343e-02 -1.5540513396263123e-01 5.5065590888261795e-02 1.3636380434036255e-01 -2.1296316385269165e-01 -4.1399942710995674e-03 6.3359998166561127e-03 -7.0669583976268768e-02 8.0213062465190887e-03 4.7789346426725388e-03 2.4568133056163788e-02 -8.0014793202280998e-03 -8.3862785249948502e-03 1.5976528811734170e-04 -1.4259725809097290e-02 -7.2091701440513134e-03 8.3982301875948906e-03 -2.8670435771346092e-02 7.0523172616958618e-03 -1.8126437440514565e-02 -1.8341999966651201e-03 2.7538286522030830e-02 9.5436461269855499e-03 -1.7085935920476913e-02 -4.9294617027044296e-02 -1.7102509737014771e-02 2.8540112078189850e-02 -2.1402081474661827e-03 3.1558714807033539e-02 -8.9624645188450813e-03 -3.5475227981805801e-02 -9.3295678496360779e-02 -1.2348925694823265e-02 4.1633393615484238e-02 4.7324322164058685e-02 3.3156167715787888e-02 -4.4961243867874146e-02 3.6389254033565521e-02 7.4004754424095154e-02 3.4785619936883450e-03 3.7069164216518402e-02 -8.1110540777444839e-03 5.1844544708728790e-02 1.7093285918235779e-02 -4.3356623500585556e-02 2.6677319779992104e-02 8.5223140195012093e-03 7.6809234917163849e-02 -3.0263226479291916e-02 -8.2905041053891182e-03 7.6082900166511536e-02 -3.4702499397099018e-03 -2.6198938488960266e-02 5.9869498945772648e-03 1.3414798304438591e-02 3.6224152892827988e-02 -1.1534309946000576e-02 -2.5291536003351212e-02 -1.3371535576879978e-02 -1.5814196318387985e-02 1.1018780991435051e-02 -2.4511458352208138e-02 7.8139854595065117e-03 -2.4364577606320381e-02 -5.9908255934715271e-02 -4.1516188532114029e-02 -8.4222909063100815e-03 -1.1037146672606468e-02 2.0137296989560127e-02 -8.5994200780987740e-03 -3.7320652045309544e-03 -9.8774824291467667e-03 -7.0465398021042347e-03 -4.8882000148296356e-02 1.0559108108282089e-02 3.4927541855722666e-03 -4.5166715979576111e-02 -4.5764181017875671e-01 -8.6348056793212891e-03 1.1976718902587891e-01 2.7330809831619263e-01 -5.4741416126489639e-02 -1.9122612476348877e-01 6.6321864724159241e-02 2.9974034428596497e-01 5.3348198533058167e-02 2.1609123051166534e-01 4.2210802435874939e-02 1.4185868203639984e-01 1.4463679492473602e-01 -1.9935468211770058e-02 2.3593126237392426e-01 8.0002173781394958e-02 1.7874392867088318e-01 -3.3224225044250488e-02 -2.6518380641937256e-01 2.8676635026931763e-01 3.2599557191133499e-02 -3.2744079828262329e-02 6.7220047116279602e-02 -3.6280900239944458e-01 -3.7403244525194168e-02 6.8162389099597931e-02 2.3128129541873932e-01 -2.9456814751029015e-02 -1.0014432668685913e-01 4.0074910968542099e-02 2.3248916864395142e-01 7.1996554732322693e-02 1.3856703042984009e-01 5.8029502630233765e-02 6.0226168483495712e-02 1.1413449794054031e-01 -4.4062621891498566e-02 2.1675726771354675e-01 6.8351626396179199e-02 1.5857689082622528e-01 -4.3370518833398819e-02 -2.1646212041378021e-01 2.5453707575798035e-01 3.3840861171483994e-02 -4.0948141366243362e-02 1.5899172425270081e-01 8.5336804389953613e-02 4.8865586519241333e-02 -3.2484434545040131e-02 -5.2619528025388718e-02 1.8241539597511292e-02 2.3959459736943245e-02 -1.7246596515178680e-02 -3.8035251200199127e-02 4.4555044732987881e-03 -2.2510332986712456e-02 -7.9381227493286133e-02 -6.4411936327815056e-03 -2.5447661057114601e-02 4.0571443736553192e-02 -6.3939452171325684e-02 -2.5361279025673866e-02 -7.4497029185295105e-02 -1.7157308757305145e-02 5.7584796100854874e-02 -9.8691679537296295e-02 -2.9459515586495399e-02 2.4000480771064758e-02 -7.7119432389736176e-02 9.5489129424095154e-02 -4.1687846183776855e-02 -2.1582903340458870e-02 -7.9337447881698608e-02 1.8175842240452766e-02 1.8238537013530731e-02 5.8115273714065552e-03 -7.8941039741039276e-02 -6.7417141981422901e-03 -5.5181410163640976e-02 4.8394417390227318e-03 -1.5988780185580254e-02 -2.5798773393034935e-02 4.7137841582298279e-02 -7.4451804161071777e-02 -3.7688959389925003e-02 -1.0137511417269707e-02 2.6681819930672646e-02 4.0115240961313248e-02 -1.1420529335737228e-01 4.8469128087162971e-03 -3.4938663244247437e-02 -5.7784922420978546e-02 1.1690565198659897e-01 -1.7167983576655388e-02 -3.0119266360998154e-02 -8.5583269596099854e-02 7.3019466362893581e-03 1.0253448039293289e-02 -3.8576051592826843e-02 -8.2091890275478363e-02 -5.9069576673209667e-03 -7.9995498061180115e-02 -2.4511745199561119e-02 -6.3728980720043182e-02 -6.1716888099908829e-02 -2.2495221346616745e-02 -7.5099937617778778e-02 -6.2498852610588074e-02 -6.0735162347555161e-02 4.1980918496847153e-02 1.2927734851837158e-01 -1.0684720426797867e-01 4.4685311615467072e-02 1.2373564764857292e-02 -5.8713857084512711e-02 -1.2751452624797821e-01 2.5894397869706154e-02 5.1750834099948406e-03 7.4606433510780334e-02 -9.7911711782217026e-03 -3.6410070024430752e-03 6.6282348707318306e-03 9.6569605171680450e-02 1.2349591590464115e-02 3.3825360238552094e-02 8.4434831514954567e-03 7.3599420487880707e-02 6.2576033174991608e-02 5.0267525948584080e-03 5.3536284714937210e-02 3.0082032084465027e-02 6.9341592490673065e-02 -3.7331447005271912e-02 -8.6552418768405914e-02 9.9881812930107117e-02 -3.0386352911591530e-02 8.2670180127024651e-03 7.4170552194118500e-02 -2.1017080545425415e-01 2.7140155434608459e-02 6.6885225474834442e-02 1.6074813902378082e-01 -8.3494493737816811e-03 -7.8815631568431854e-02 4.3639898300170898e-02 1.7139527201652527e-01 3.4461904317140579e-02 1.3759595155715942e-01 1.9827991724014282e-02 3.1242180615663528e-02 5.9666965156793594e-02 -7.0648238062858582e-02 9.4730883836746216e-02 1.7912168055772781e-02 9.3749724328517914e-02 -1.9857648760080338e-02 -9.3929275870323181e-02 2.2456710040569305e-01 1.9623277708888054e-02 3.1637955456972122e-02 1.0743317008018494e-01 9.2414051294326782e-02 -5.7682976126670837e-02 -5.2759036421775818e-02 -6.0985673218965530e-02 2.0162161439657211e-02 3.0615551397204399e-02 -1.0747024789452553e-02 -9.4602249562740326e-02 -3.8149002939462662e-02 -8.1160642206668854e-02 7.4251689016819000e-02 -2.8390247374773026e-02 -6.2052711844444275e-02 6.3458949327468872e-02 -5.7466875761747360e-02 -3.1339339911937714e-02 -3.5773243755102158e-02 2.3541694507002831e-02 9.2142581939697266e-02 -1.2412177771329880e-01 1.1828958056867123e-02 -1.0530403815209866e-02 -6.3212536275386810e-02 -2.8109116479754448e-02 -6.3024230301380157e-02 -1.1533094570040703e-02 5.2387267351150513e-02 -4.3193686753511429e-02 5.3668893873691559e-02 2.7404859662055969e-02 3.2880920916795731e-03 -8.2903578877449036e-03 -1.9987005740404129e-02 8.3147354423999786e-02 6.0025095939636230e-02 -5.3773554973304272e-03 -5.0355861894786358e-03 -1.1569070629775524e-02 1.9055917859077454e-02 6.3643388450145721e-02 -1.1700437404215336e-02 -5.5997479707002640e-02 5.0511050969362259e-02 7.3782438412308693e-03 4.8959404230117798e-03 -3.7605781108140945e-03 4.5599184930324554e-02 2.1652786061167717e-02 -3.5530082881450653e-02 -2.5915281847119331e-02 2.5944121181964874e-02 2.5555511936545372e-02 -2.2947857156395912e-02 -2.6032749563455582e-02 -2.2035961970686913e-02 -4.2610552161931992e-02 -9.3595841899514198e-03 -2.0020585507154465e-02 -6.9114640355110168e-02 1.9588336348533630e-02 -7.1427896618843079e-02 -4.0423355996608734e-02 -4.2900502681732178e-02 4.4556535780429840e-02 9.5810376107692719e-02 -9.2881575226783752e-02 1.8439393490552902e-02 7.8653367236256599e-03 -3.8225539028644562e-02 -4.4952042400836945e-02 4.1234631091356277e-02 3.1094038859009743e-03 4.5778926461935043e-02 -2.5256440043449402e-02 3.0605211853981018e-02 7.9638343304395676e-03 3.7073655985295773e-03 1.9752634689211845e-02 5.1790438592433929e-02 -6.7339383065700531e-02 4.0603324770927429e-02 4.8277240246534348e-02 -3.1830143183469772e-02 5.4473828524351120e-02 6.2698975205421448e-02 2.9248535633087158e-02 -1.9143573939800262e-02 -9.5939412713050842e-02 6.9460943341255188e-02 -3.3530443906784058e-02 -1.7621744424104691e-02 -1.2162181548774242e-02 2.3590801656246185e-01 -1.4799351990222931e-01 -6.9768756628036499e-02 -1.1717338114976883e-01 -6.5617919899523258e-03 6.0941603034734726e-02 -3.7709657102823257e-02 -1.7317138612270355e-01 -6.5392173826694489e-02 -1.6396416723728180e-01 1.4683417975902557e-01 -4.6361498534679413e-02 -6.6652327775955200e-02 9.8412707448005676e-02 -1.6428454220294952e-01 -5.4606873542070389e-02 -4.0340945124626160e-02 5.1575820893049240e-02 8.5288770496845245e-02 -2.0629218220710754e-01 -7.3925213655456901e-04 1.6672858968377113e-02 -1.8142984807491302e-01 1.6146151721477509e-01 -3.2834582030773163e-02 -5.7669412344694138e-02 -1.1387392878532410e-01 -7.1961809881031513e-03 3.5159736871719360e-02 -4.7448884695768356e-02 -8.6385041475296021e-02 -3.3070344477891922e-02 -8.9183166623115540e-02 6.1299543827772141e-02 -2.6690550148487091e-03 -4.9617916345596313e-02 7.8101016581058502e-02 -1.1854101717472076e-01 -5.0143532454967499e-02 -5.1330517977476120e-02 4.8538375645875931e-02 9.3693181872367859e-02 -1.0210504382848740e-01 -3.0451044440269470e-02 -3.1972486525774002e-02 -9.3838572502136230e-02 7.8231245279312134e-02 5.3349779918789864e-03 -3.0736945569515228e-02 -8.8022239506244659e-02 2.4595482274889946e-02 6.7063227295875549e-02 -4.7099380753934383e-03 -8.9757546782493591e-02 -2.3858346976339817e-03 -4.5620184391736984e-02 -3.9807934314012527e-02 -1.6565151512622833e-02 -7.1631915867328644e-02 2.8378769755363464e-02 -7.9468831419944763e-02 -2.5971995666623116e-02 -7.4910074472427368e-02 1.6530773136764765e-03 4.4274386018514633e-02 -6.4227469265460968e-02 4.4914591126143932e-03 1.1857823468744755e-02 -3.9519384503364563e-02 -4.8012159764766693e-02 -1.0534170083701611e-02 2.2081381175667048e-03 5.0504606217145920e-02 -1.8386149778962135e-02 -4.1460998356342316e-02 -1.6457433812320232e-03 3.5685569047927856e-02 1.9927155226469040e-02 1.0353557299822569e-03 -3.1749129295349121e-02 -1.5632748603820801e-02 -2.3250065278261900e-03 -3.7810404319316149e-03 3.6680348217487335e-02 3.3899422734975815e-02 6.6561591811478138e-03 -2.8428643941879272e-02 -3.0619759112596512e-02 -3.8860458880662918e-03 -5.3668031468987465e-03 -1.9169433042407036e-02 2.4418421089649200e-02 6.3710168004035950e-02 2.6387045159935951e-02 5.2005643956363201e-03 -8.8979817926883698e-02 3.9943940937519073e-02 3.8707572966814041e-02 9.2083867639303207e-04 -8.0798178911209106e-02 1.2211487628519535e-02 -5.2167534828186035e-02 -2.9298907145857811e-02 -5.9666689485311508e-02 -4.1917137801647186e-02 -2.2871844470500946e-02 -2.5914810597896576e-02 -4.8294756561517715e-02 -4.7500520944595337e-02 -1.6975490376353264e-02 6.0605071485042572e-02 -6.6235698759555817e-02 7.2579184779897332e-04 -6.9402791559696198e-03 -1.9401350989937782e-02 -1.2690004706382751e-01 7.0244416594505310e-02 2.8988013043999672e-02 3.7278823554515839e-02 3.4341007471084595e-02 -5.8441586792469025e-02 2.2216152399778366e-02 9.8458610475063324e-02 1.3594875112175941e-02 1.0889949649572372e-01 -9.4706617295742035e-02 -4.6673188917338848e-03 5.6703869253396988e-02 -5.1119510084390640e-02 1.0208660364151001e-01 1.0313083417713642e-02 4.6762481331825256e-02 -5.9075318276882172e-03 -5.1454793661832809e-02 1.1755990982055664e-01 -1.8514819443225861e-02 -6.6463504917919636e-03 1.2924553453922272e-01 1.6325017809867859e-01 -4.3883055448532104e-02 -4.1762731969356537e-02 -1.1138474196195602e-01 -1.1032405309379101e-02 6.9359526038169861e-02 -1.2118200771510601e-02 -1.2530460953712463e-01 -5.6517548859119415e-02 -8.1304498016834259e-02 4.7733575105667114e-02 -1.1809002608060837e-02 -4.8574864864349365e-02 7.6944477856159210e-02 -1.2594908475875854e-01 -1.2457937933504581e-02 -2.6303363963961601e-02 -1.2053110636770725e-02 9.0395301580429077e-02 -1.4949746429920197e-01 2.7033708989620209e-02 1.7779046669602394e-02 -1.2630340456962585e-01 4.8385158181190491e-02 7.5027965009212494e-02 -2.2449925541877747e-02 -8.8475123047828674e-02 5.5209759622812271e-02 -4.5001443475484848e-02 -2.4668350815773010e-02 -5.4073285311460495e-02 8.0831022933125496e-03 -1.1093904264271259e-02 -1.1457943916320801e-01 -7.0293605327606201e-02 -4.0791984647512436e-02 2.8453350067138672e-02 -2.7039753273129463e-02 -2.4822594597935677e-02 -6.3937872648239136e-02 3.4660061355680227e-03 1.1497469246387482e-01 -1.0127372294664383e-01 -2.2013437002897263e-02 -6.9564586738124490e-04 -4.3592412024736404e-02 2.2907691076397896e-02 -3.3717465121299028e-03 -4.9747627228498459e-02 -3.4605208784341812e-02 -1.3592867180705070e-02 4.4469021260738373e-02 1.4176958240568638e-02 -4.7254733741283417e-02 -3.6223724484443665e-02 -1.9958626944571733e-03 4.4472232460975647e-02 -2.3938685655593872e-02 -3.3732399344444275e-02 4.4008187949657440e-02 -6.5844762139022350e-03 -2.1055918186903000e-02 5.1913689821958542e-03 -8.4212170913815498e-03 5.1416140049695969e-02 -4.6197418123483658e-02 -1.2573347426950932e-02 -9.7507592290639877e-03 -6.5577715635299683e-02 1.1211942881345749e-01 3.7645161151885986e-02 3.0115344561636448e-03 -7.3895290493965149e-02 2.9751779511570930e-02 1.5520652756094933e-02 -1.4120515435934067e-02 -8.8352575898170471e-02 -2.6618402916938066e-03 -5.1348969340324402e-02 1.8786573782563210e-03 -3.1427182257175446e-02 -6.7229971289634705e-02 1.3458640314638615e-02 -4.2075958102941513e-02 -2.4157522246241570e-02 -9.3279637396335602e-02 -3.1994902528822422e-03 1.1268791556358337e-01 -1.0729973763227463e-01 -1.3084574602544308e-02 -1.6632230952382088e-02 -6.2340404838323593e-02 7.0573128759860992e-02 -3.5450883209705353e-02 7.5942990370094776e-03 -6.3229255378246307e-02 -2.3857368156313896e-02 -2.4126732721924782e-02 -1.3238209299743176e-02 -7.7111214399337769e-02 -1.5236887149512768e-02 -6.5225869417190552e-02 6.2209233641624451e-02 -5.2630320191383362e-02 -7.6957590878009796e-02 1.0473192669451237e-02 -5.5082902312278748e-02 -2.4538626894354820e-02 -8.7864622473716736e-02 2.4246031418442726e-02 8.8582269847393036e-02 -7.7648475766181946e-02 3.6594938486814499e-02 -8.1385178491473198e-03 -5.8127909898757935e-02 -5.8162167668342590e-02 3.0401663854718208e-02 -3.5186679451726377e-04 4.6663001179695129e-02 1.5505211427807808e-02 3.5301849246025085e-02 1.0581039823591709e-02 8.0698253586888313e-03 -8.9354487136006355e-03 2.9802912846207619e-02 -1.3098761439323425e-02 3.6611642688512802e-02 2.5728000327944756e-03 -7.8010461293160915e-03 3.2480955123901367e-02 5.0461161881685257e-02 1.0472739115357399e-02 -1.7646733671426773e-02 -7.8739278018474579e-02 1.7503011971712112e-02 1.0482016950845718e-02 1.4249572530388832e-02 1.8477264791727066e-02 -1.5174302458763123e-01 2.7234202250838280e-02 7.4612288735806942e-03 5.9852253645658493e-02 -2.5754194706678391e-02 3.7445765919983387e-03 2.3263346403837204e-02 1.0476649552583694e-01 1.0564934462308884e-02 6.7327961325645447e-02 1.1490678414702415e-02 5.1561143249273300e-02 8.3206258714199066e-02 -3.9519906044006348e-02 9.6159532666206360e-02 4.0023472160100937e-02 6.2624953687191010e-02 -2.5643497705459595e-02 -1.3272099196910858e-01 1.3852196931838989e-01 2.5131044909358025e-02 2.3072354495525360e-02 4.8963222652673721e-02 -2.1129736676812172e-02 -7.9686112701892853e-02 8.0003598704934120e-03 6.3903629779815674e-02 -8.3686253055930138e-03 5.7284001260995865e-02 -2.5420598685741425e-02 -5.3973300382494926e-03 1.8444998189806938e-02 -1.3290438801050186e-02 1.0048074275255203e-01 7.0863634347915649e-02 4.1822269558906555e-02 -8.5896132513880730e-03 1.7624603351578116e-03 5.4076358675956726e-02 9.7265347838401794e-02 8.6774090304970741e-03 -6.4422883093357086e-02 9.6204303205013275e-02 1.5760272741317749e-02 -1.2992762960493565e-02 4.8165027052164078e-02 2.0419871807098389e-01 -6.9823421537876129e-02 -6.9110617041587830e-02 -1.0864645242691040e-01 1.7526553943753242e-02 7.1801118552684784e-02 -4.7144524753093719e-02 -1.7322129011154175e-01 -1.5940796583890915e-02 -1.3963590562343597e-01 6.0980316251516342e-02 -2.9099429026246071e-02 -8.0166384577751160e-02 7.4540451169013977e-02 -1.0721284151077271e-01 -4.5485645532608032e-02 -5.4904308170080185e-02 4.2526569217443466e-02 1.3046579062938690e-01 -1.6362266242504120e-01 -1.2599383480846882e-02 -2.0698741078376770e-02 -1.3890877366065979e-01 4.9235314130783081e-02 1.6840646043419838e-02 1.8932351667899638e-04 -9.3329921364784241e-03 2.6686972007155418e-02 -5.9997081756591797e-02 9.9704889580607414e-03 -9.4026410952210426e-03 -2.3014321923255920e-02 -2.3893620818853378e-02 -2.1512378007173538e-02 -5.5344570428133011e-02 -4.5777518302202225e-02 1.4607993885874748e-02 -1.5760380774736404e-02 -5.6026693433523178e-02 -7.5379647314548492e-02 2.5179460644721985e-02 7.8002586960792542e-02 -6.8091101944446564e-02 1.0648126713931561e-02 -2.4849690496921539e-02 -1.4550242573022842e-02 1.0110591351985931e-01 -3.8151055574417114e-02 -4.0737863630056381e-02 -4.8133965581655502e-02 2.0255057141184807e-02 6.3486397266387939e-02 4.0337271057069302e-03 -8.5255838930606842e-02 -2.0495580509305000e-02 -7.0538401603698730e-02 3.7441376596689224e-02 -5.6831371039152145e-02 -7.4327260255813599e-02 -7.0768008008599281e-03 -9.9913366138935089e-02 -1.0350431315600872e-02 -8.2176074385643005e-02 2.4555302225053310e-03 9.1331489384174347e-02 -9.2828437685966492e-02 -2.3131154011934996e-03 -1.7647001892328262e-02 -9.0613044798374176e-02 2.0707949995994568e-02 3.8145244121551514e-02 -2.9891977086663246e-02 -3.8714304566383362e-02 2.9248928651213646e-02 -2.5499265640974045e-02 1.2792362831532955e-02 -1.4042063616216183e-02 -5.9063150547444820e-03 1.2253911234438419e-02 -1.4586335048079491e-02 1.3492126949131489e-02 6.9709622766822577e-04 -1.7168702557682991e-02 2.1480750292539597e-02 6.4912089146673679e-03 -4.7481674700975418e-02 3.0615454539656639e-02 2.1404415369033813e-02 -2.6584543287754059e-02 -2.6928639039397240e-02 2.5616385042667389e-02 3.2527490984648466e-03 3.2158169895410538e-02 5.3547818213701248e-02 -7.1423854678869247e-03 -6.9613240659236908e-02 4.6132002025842667e-02 -5.5258490145206451e-02 -2.7931775897741318e-02 -1.9071886315941811e-02 -8.2115996628999710e-03 -3.6782864481210709e-02 -8.5035160183906555e-02 -7.8845061361789703e-02 -1.9043846055865288e-02 -1.7049046233296394e-02 -3.0771369114518166e-02 -2.0680002868175507e-02 -9.0501286089420319e-02 4.0827933116815984e-04 1.0854398459196091e-01 -7.5846351683139801e-02 2.1720277145504951e-02 -8.4886979311704636e-03 -4.0618772618472576e-04 1.5404281020164490e-01 4.6535193920135498e-02 -4.8505764454603195e-02 -9.5475561916828156e-02 2.6899009943008423e-02 5.3684573620557785e-02 -3.6856286227703094e-02 -1.2777617573738098e-01 8.3020897582173347e-03 -5.8093938976526260e-02 -6.0177579522132874e-02 -2.2413257509469986e-02 -3.7785645574331284e-02 2.0737906917929649e-02 -7.5444199144840240e-02 -1.0927003808319569e-02 -8.1185832619667053e-02 -5.3282018052414060e-04 8.9719861745834351e-02 -1.0305985063314438e-01 5.6177768856287003e-03 -9.4314292073249817e-03 -1.0087500512599945e-01 -4.0117092430591583e-02 6.1705778352916241e-03 3.4288205206394196e-03 3.2018639147281647e-02 2.0954478532075882e-02 -1.7047662287950516e-02 6.2552974559366703e-03 6.1445865780115128e-02 -1.8484380561858416e-03 1.6096772626042366e-02 -3.2024871557950974e-02 4.9893040210008621e-02 9.9266823381185532e-03 -2.7385050430893898e-02 4.5344065874814987e-02 3.4774333238601685e-02 3.6065839231014252e-02 -3.7469785660505295e-02 -5.3238179534673691e-02 7.8454568982124329e-02 2.1694907918572426e-03 -3.2731123268604279e-02 -8.8829137384891510e-03 -2.8295565396547318e-02 5.7015303522348404e-02 3.0937600880861282e-02 3.9487753063440323e-02 5.4591014049947262e-03 2.3275405168533325e-02 3.5663375165313482e-03 4.8316635191440582e-02 4.3767545372247696e-02 3.8852315396070480e-02 -7.9278908669948578e-02 2.9607314616441727e-02 4.7538302838802338e-02 -3.9363067597150803e-02 6.5824829041957855e-02 2.8917742893099785e-02 5.2528092637658119e-03 2.5922806933522224e-02 -8.5833802819252014e-02 8.3421200513839722e-02 -2.8516631573438644e-02 -1.2093846686184406e-02 5.4596997797489166e-02 2.4387820065021515e-01 1.4266860671341419e-02 -2.7090087532997131e-02 -1.6887736320495605e-01 5.6793835014104843e-02 2.5840243324637413e-02 -1.2237148359417915e-02 -1.1275749653577805e-01 -3.9031576365232468e-02 -1.0815655440092087e-01 -4.9571536481380463e-02 -9.9956519901752472e-02 -1.0036122798919678e-01 -7.6489378698170185e-03 -1.6995342075824738e-01 -8.6856417357921600e-02 -7.6826512813568115e-02 -2.2955151507630944e-04 2.1426135301589966e-01 -1.6051876544952393e-01 -2.2091399878263474e-02 1.5211465768516064e-02 -1.1837361752986908e-01 -3.6209651827812195e-01 -5.3313463926315308e-02 8.6549594998359680e-02 2.2015386819839478e-01 -2.5200836360454559e-02 -1.4480805397033691e-01 4.0972724556922913e-02 2.1464838087558746e-01 4.1617907583713531e-02 1.7402282357215881e-01 1.1801190674304962e-01 9.8200932145118713e-02 1.2979127466678619e-01 -8.4741845726966858e-02 1.9233708083629608e-01 2.1327504888176918e-02 1.5032652020454407e-01 -3.6593686789274216e-02 -1.8587833642959595e-01 2.8785026073455811e-01 6.7117065191268921e-03 -1.4302652329206467e-02 1.3204352557659149e-01 2.4849837645888329e-02 -3.5994169302284718e-03 -2.4235272780060768e-02 -2.8777679428458214e-02 2.1981598809361458e-02 3.5617720335721970e-02 -3.0737249180674553e-03 -6.7960314452648163e-02 -3.7974633276462555e-02 -2.6211153715848923e-02 2.6991100981831551e-02 -5.6048374623060226e-02 -4.6551734209060669e-02 -1.6873210668563843e-02 -2.6504859328269958e-02 -2.8548415750265121e-02 -4.0836118161678314e-02 3.1018259003758430e-02 6.7882217466831207e-02 -3.2770697027444839e-02 1.9573478028178215e-02 3.6969561129808426e-02 5.0060107605531812e-04 -1.1593301594257355e-01 -7.1747243404388428e-02 2.7061339467763901e-02 4.6075694262981415e-02 1.4010556973516941e-02 3.0286381021142006e-02 2.6213996112346649e-02 7.0792883634567261e-02 -7.0002828724682331e-03 1.1700586415827274e-02 8.5771769285202026e-02 5.9729721397161484e-02 7.2649359703063965e-02 -1.4769422821700573e-02 1.8947046250104904e-02 5.2732780575752258e-02 1.0867294669151306e-01 -2.3654107004404068e-02 -7.9986184835433960e-02 1.3528656959533691e-01 -2.3267338052392006e-02 -2.3650450631976128e-02 2.4327548220753670e-02 7.2070941329002380e-02 1.3442534208297729e-01 1.5210331417620182e-02 -5.5616211146116257e-02 2.2108722478151321e-03 1.5300102531909943e-02 -2.8872549533843994e-02 -9.3755997717380524e-02 1.0601321235299110e-02 -3.0149156227707863e-02 -1.7408803105354309e-01 -2.9315713793039322e-02 -4.8825062811374664e-02 -3.1568426638841629e-02 -3.7507317960262299e-02 -1.7204077914357185e-02 -1.0027537494897842e-01 6.6163460724055767e-03 6.7953042685985565e-02 -1.0283127427101135e-01 -8.3211855962872505e-03 7.0323315449059010e-03 -6.7889213562011719e-02 -3.0241066589951515e-02 -1.4825289137661457e-02 1.3654671609401703e-02 2.2301182150840759e-02 -2.1311134099960327e-02 1.8778409808874130e-02 3.4741654992103577e-02 2.9056470841169357e-02 2.1982196718454361e-02 -5.1790932193398476e-03 -1.6202855855226517e-02 3.2549973577260971e-02 1.3961250660941005e-03 -1.6196953132748604e-02 -1.0502254590392113e-02 1.0447841137647629e-02 4.8447544686496258e-03 -1.1560285463929176e-02 -2.8876530006527901e-02 5.0271905958652496e-02 9.4871232286095619e-03 -2.6166001334786415e-02 -9.7678033635020256e-03 1.8415765464305878e-01 -6.3338212668895721e-02 -5.5732432752847672e-02 -1.1281152069568634e-01 -4.9842419102787971e-03 3.3982176333665848e-02 -1.9062038511037827e-02 -1.2323257327079773e-01 -4.0445744991302490e-02 -5.4741539061069489e-02 9.0128168463706970e-02 -2.7163492515683174e-02 -1.1091937869787216e-01 6.9158844649791718e-02 -1.1080992966890335e-01 -6.5081149339675903e-02 -1.0203285515308380e-01 3.3438488841056824e-02 1.2034580856561661e-01 -1.6814936697483063e-01 5.7748355902731419e-04 -2.5318501517176628e-02 -7.5536362826824188e-02 -9.7034871578216553e-02 -4.7107927501201630e-02 3.3210225403308868e-02 8.5947491228580475e-02 -1.9142881035804749e-02 -7.8851833939552307e-02 4.4663693755865097e-02 1.0256335884332657e-01 3.7086438387632370e-02 5.4571293294429779e-02 7.4450448155403137e-02 1.3313109986484051e-02 6.4518891274929047e-02 -3.3306892961263657e-02 1.1070030927658081e-01 -1.8063565716147423e-02 2.9644792899489403e-02 -1.4044791460037231e-03 -3.7097781896591187e-02 7.7314525842666626e-02 2.2318156436085701e-02 2.9020491987466812e-02 1.0765507072210312e-01 -1.4064897596836090e-01 -8.4398701786994934e-02 2.6519197970628738e-02 7.3937915265560150e-02 -2.6360617950558662e-02 -3.6806765943765640e-02 -3.6850309697911143e-04 1.0601582378149033e-01 5.4532658308744431e-02 7.4090525507926941e-02 1.3785520195960999e-01 8.5915334522724152e-02 7.3506452143192291e-02 1.3501644134521484e-02 5.9513181447982788e-02 6.8612344563007355e-02 1.0131660848855972e-01 -4.2080156505107880e-02 -1.3986340165138245e-01 1.0154358297586441e-01 -1.5672260895371437e-02 -2.3765986785292625e-02 2.3022197186946869e-02 -9.0501196682453156e-02 -4.6007052063941956e-02 1.0287089273333549e-02 7.9758405685424805e-02 -5.8328555896878242e-03 -4.6321973204612732e-02 3.9691202342510223e-02 7.7992253005504608e-02 -1.1186503805220127e-02 3.9096299558877945e-02 8.6054578423500061e-02 4.4722845777869225e-03 -5.8433176018297672e-03 -1.0883403010666370e-02 5.2756797522306442e-02 9.2948982492089272e-03 3.8767587393522263e-02 -1.3621989637613297e-02 -4.4581137597560883e-02 7.1221716701984406e-02 2.7605470269918442e-02 -1.8591096624732018e-02 6.3243769109249115e-02 -2.4333747103810310e-02 6.5701776184141636e-03 2.6247598230838776e-02 -1.4378892257809639e-02 -9.0374248102307320e-03 -6.1808716505765915e-02 -1.6238339245319366e-02 3.1933475285768509e-02 2.1983559709042311e-03 1.4401555061340332e-02 -4.0537480264902115e-02 4.3844562023878098e-03 1.6260309144854546e-02 -2.8647551313042641e-02 4.1602548211812973e-02 -3.3039748668670654e-02 -3.8838591426610947e-02 3.1557247042655945e-02 2.4126645177602768e-02 3.5819437354803085e-02 -3.2245253678411245e-03 6.0587376356124878e-03 2.3389257490634918e-02 1.6805218160152435e-01 1.6371696256101131e-03 -3.0906828120350838e-02 -1.3865241408348083e-01 5.3712055087089539e-02 -2.4746825918555260e-02 -1.1221927590668201e-02 -1.2549625337123871e-01 -2.3996472358703613e-02 -7.7420979738235474e-02 -3.1527079641819000e-02 -1.1467859148979187e-01 -1.0330354422330856e-01 -1.1734286323189735e-02 -5.3500480949878693e-02 -1.0071621835231781e-01 -1.1106912046670914e-01 2.5155957788228989e-02 1.8752567470073700e-01 -9.4384849071502686e-02 -3.8907852023839951e-02 2.4066435173153877e-02 2.0830668509006500e-02 -6.7154616117477417e-02 -2.4466685950756073e-02 9.9369967356324196e-03 4.8158708959817886e-02 -3.1731575727462769e-02 8.2443542778491974e-03 4.2155027389526367e-02 5.0305154174566269e-02 1.7218321561813354e-02 7.6548825018107891e-03 6.8570449948310852e-02 -1.5790782868862152e-02 -1.1560939252376556e-02 7.4595543555915356e-03 5.1686625927686691e-02 -5.6458888575434685e-03 1.9456604495644569e-02 8.0287978053092957e-03 -2.5292314589023590e-02 3.8275200873613358e-02 1.6581760719418526e-02 1.6158279031515121e-02 5.1233608275651932e-02 7.2395406663417816e-02 -1.1684489436447620e-02 -1.5180881135165691e-02 -2.4216886609792709e-02 -5.8540855534374714e-03 4.9560437910258770e-03 -1.7796911299228668e-02 -5.4266646504402161e-02 -3.6247279495000839e-02 -4.8849958926439285e-02 4.0828093187883496e-04 7.0888441987335682e-03 9.4149661890696734e-05 3.1793098896741867e-02 -4.9905810505151749e-02 -1.7072830349206924e-02 -4.5463524758815765e-02 -1.3094910420477390e-02 1.2415183708071709e-02 -9.3821734189987183e-02 1.1891680769622326e-02 1.0090379044413567e-02 -8.3464190363883972e-02 2.3818819224834442e-01 -4.9827523529529572e-02 -5.1396094262599945e-02 -1.1819547414779663e-01 1.1401222087442875e-02 8.2202866673469543e-02 -5.7755564339458942e-03 -1.3755805790424347e-01 -6.9210194051265717e-02 -8.9577756822109222e-02 4.3310057371854782e-02 -5.4655984044075012e-02 -1.1939433962106705e-01 7.0769593119621277e-02 -1.5385691821575165e-01 -7.5183898210525513e-02 -1.2262799590826035e-01 5.6837279349565506e-02 1.5708768367767334e-01 -2.1218025684356689e-01 -1.7714472487568855e-02 3.6196321249008179e-02 -8.4445431828498840e-02 5.0226796418428421e-02 6.3878938555717468e-02 -1.2738952413201332e-02 -1.6387667506933212e-02 1.6252541914582253e-02 -4.8341620713472366e-02 -2.5370687246322632e-02 -4.0391411632299423e-02 -3.1966090202331543e-02 -4.1702639311552048e-02 -6.2987379729747772e-02 -5.8150820434093475e-02 -5.3040090948343277e-02 -1.9514137879014015e-02 -5.8175148442387581e-03 -6.1765126883983612e-03 -8.7329097092151642e-02 2.7069818228483200e-02 8.4998689591884613e-02 -7.9641744494438171e-02 3.1161664053797722e-02 -1.0485557140782475e-03 -3.8492144085466862e-03 -3.7621878087520599e-02 4.0862523019313812e-02 2.4358861148357391e-02 4.5781109482049942e-02 -1.1255409568548203e-02 2.9423711821436882e-02 1.9272455945611000e-02 4.9897469580173492e-03 2.8395755216479301e-02 1.7145465826615691e-03 -1.2202455662190914e-02 3.5640101879835129e-02 2.2415617480874062e-02 -9.8802074790000916e-03 6.1023924499750137e-02 6.3934236764907837e-02 4.8635292798280716e-02 -4.1162576526403427e-02 -9.4558976590633392e-02 6.9175340235233307e-02 -1.7115497961640358e-02 -5.6381216272711754e-03 8.5405390709638596e-03 -5.1892124116420746e-02 8.3475774154067039e-03 1.3864348875358701e-04 2.4308703839778900e-02 -1.4025149866938591e-02 5.8431024663150311e-03 1.7666418105363846e-02 5.4897904396057129e-02 -1.2479306198656559e-02 3.7323124706745148e-02 4.6779077500104904e-02 4.0794245898723602e-02 3.9536867290735245e-02 -2.5520041584968567e-02 3.2090034335851669e-02 -2.2318821400403976e-02 4.7063633799552917e-02 2.7813927736133337e-03 -3.2785474322736263e-03 9.1193839907646179e-02 2.0264646038413048e-02 1.2905982322990894e-02 7.7215172350406647e-02 1.4183975756168365e-02 -6.8785208277404308e-03 -1.4583109878003597e-02 -3.0468733981251717e-02 1.0930616408586502e-02 3.0542675405740738e-02 4.2312862351536751e-03 -7.9697864130139351e-03 -4.7204350121319294e-03 1.3849780894815922e-02 -1.3948406558483839e-03 1.5974644571542740e-02 -3.0947690829634666e-02 3.2458342611789703e-02 7.5542610138654709e-03 2.7521742507815361e-02 -8.4550045430660248e-03 5.6120739318430424e-03 -4.4491991400718689e-02 -4.1131082922220230e-02 -2.4274595081806183e-02 -1.8192451447248459e-02 -1.4434831216931343e-02 -6.7221991717815399e-02 3.4387115389108658e-02 3.8133095949888229e-03 3.1105522066354752e-02 -6.5136123448610306e-03 4.3037184514105320e-03 -3.5255923867225647e-03 4.7068513929843903e-02 1.6807258129119873e-02 2.9910072684288025e-02 -5.8223802596330643e-02 -1.3675634749233723e-02 1.9954198971390724e-02 -2.2831520065665245e-02 5.6763920933008194e-02 -2.8849560767412186e-03 1.0076244361698627e-03 1.1483014561235905e-02 -3.5440951585769653e-02 1.0941220447421074e-02 1.2785512022674084e-02 5.3500840440392494e-03 4.5242812484502792e-02 1.4773668721318245e-02 -7.0904898457229137e-03 3.7426659837365150e-03 -1.3416207395493984e-02 -2.9801556840538979e-02 6.2808357179164886e-02 -2.2893171757459641e-02 -5.1971312612295151e-02 1.4638409949839115e-02 -3.9172898977994919e-02 4.8252187669277191e-02 1.1835208162665367e-02 5.0082546658813953e-03 4.7776952385902405e-02 -1.0854430496692657e-02 -1.4474113704636693e-03 2.8656393289566040e-02 2.4998346343636513e-02 -6.8802493624389172e-03 -1.6931686550378799e-02 -1.4137841761112213e-02 -3.3474475145339966e-02 -6.8354114890098572e-02 9.5706328749656677e-02 -6.8739295005798340e-02 -4.5355271548032761e-02 -7.7214270830154419e-02 -4.2287129908800125e-02 3.0127141624689102e-02 -2.0873904228210449e-02 -8.5088312625885010e-02 -3.8535971194505692e-02 -4.1544910520315170e-02 6.9893591105937958e-02 -1.7916299402713776e-02 -6.1133362352848053e-02 4.1523486375808716e-02 -5.5234536528587341e-02 -3.5059634596109390e-02 -8.6120530962944031e-02 5.6915923953056335e-02 6.6315144300460815e-02 -1.4667388796806335e-01 9.2391381040215492e-03 1.2443197891116142e-02 -1.1274500936269760e-01 2.3869998753070831e-02 -1.0027074068784714e-01 -9.4080707058310509e-03 3.1807543709874153e-03 -1.7210222780704498e-02 3.3576294779777527e-02 -6.6631813533604145e-03 -2.3189095780253410e-02 -4.6703256666660309e-02 -6.2493503093719482e-02 1.1441976577043533e-01 -2.4393117055296898e-02 -4.9734055995941162e-02 3.0356876552104950e-02 -4.5693986117839813e-02 -4.2501881718635559e-02 -2.1210109815001488e-02 2.4607822299003601e-02 6.4084626734256744e-02 -2.0378628745675087e-02 4.4276077300310135e-02 -1.7028324306011200e-02 -5.8595217764377594e-02 3.3745642751455307e-02 -2.4799117818474770e-02 -1.9210353493690491e-02 1.0833046399056911e-02 8.7878694757819176e-03 4.5480914413928986e-02 -1.0066867806017399e-02 -2.5039415806531906e-02 9.2381648719310760e-03 -5.2754417993128300e-04 6.9931380450725555e-02 5.0411459058523178e-02 1.5664177015423775e-02 4.6013399958610535e-02 -1.1957270093262196e-02 4.1358333081007004e-02 1.5899475663900375e-02 -1.9025115296244621e-02 -3.3693056553602219e-02 -2.0349323749542236e-02 3.9081736467778683e-03 -2.0107075572013855e-02 -6.6764163784682751e-03 -1.1034990847110748e-01 6.4650259912014008e-02 2.6507060974836349e-02 5.4450508207082748e-02 3.3077713102102280e-02 3.1935419887304306e-02 7.0382007397711277e-03 7.9091317951679230e-02 3.8904123008251190e-02 8.6684554815292358e-02 -4.5788433402776718e-02 1.9134707748889923e-02 8.5241727530956268e-02 -3.7745960056781769e-02 7.0976428687572479e-02 2.1822551265358925e-02 8.8049292564392090e-02 -5.1290445029735565e-02 -6.9775432348251343e-02 1.7114293575286865e-01 3.6739651113748550e-03 -1.0406735353171825e-02 1.1524733155965805e-01 -1.4612977206707001e-01 2.3139920085668564e-02 5.2836854010820389e-02 8.5687369108200073e-02 4.1644689626991749e-03 -1.5016090124845505e-02 2.7932289987802505e-02 1.2050577998161316e-01 2.9350159689784050e-02 5.2198451012372971e-02 -2.1894036326557398e-03 5.3005978465080261e-02 3.4601971507072449e-02 -4.7251153737306595e-02 1.1873310059309006e-01 -3.0178525485098362e-03 2.9970660805702209e-02 -1.4572715386748314e-02 -7.0481322705745697e-02 1.3496644794940948e-01 7.0900241844356060e-03 1.3263669796288013e-02 1.2961179018020630e-01 -7.8892052173614502e-02 -5.5326692759990692e-02 1.1379840783774853e-02 5.9751413762569427e-02 -1.3838344253599644e-02 -2.6735784485936165e-02 2.2844171151518822e-02 6.7185968160629272e-02 1.9904702901840210e-02 4.9558192491531372e-02 4.5066025108098984e-02 5.1051333546638489e-02 3.7076115608215332e-02 2.9124900698661804e-02 7.1758307516574860e-02 3.5736870020627975e-02 6.1522945761680603e-02 -2.0312543492764235e-03 -7.1030229330062866e-02 7.3317453265190125e-02 3.5377407912164927e-03 -4.2376085184514523e-03 3.0629385262727737e-02 -7.5946025550365448e-02 3.1850088387727737e-02 3.3864133059978485e-02 5.0815589725971222e-02 5.5340738035738468e-03 -5.3190600126981735e-02 1.5973562374711037e-02 3.4240696579217911e-02 6.1010713689029217e-03 4.3147176504135132e-02 2.4155536666512489e-03 -4.6961815096437931e-03 2.6550648733973503e-02 -4.5595239847898483e-02 8.0088235437870026e-02 -3.1316555105149746e-03 5.3794030100107193e-03 3.9308955892920494e-03 -2.4735508486628532e-02 6.7162387073040009e-02 1.6470743343234062e-02 1.5347984619438648e-02 3.5504717379808426e-02 5.6925863027572632e-02 2.0066199824213982e-02 -7.0439050905406475e-03 -5.8271214365959167e-02 -1.5687486156821251e-02 5.3879555314779282e-02 -1.9205970689654350e-02 -5.4471574723720551e-02 1.0529839200899005e-03 -6.9194585084915161e-02 -1.0565256699919701e-02 3.0414411798119545e-02 -1.6390435397624969e-02 1.7776768654584885e-02 -1.2357350438833237e-02 2.3910030722618103e-02 -3.6051377654075623e-02 3.7361858412623405e-03 -2.3495607078075409e-02 -8.4151379764080048e-02 5.1661245524883270e-03 -3.0824121087789536e-02 -7.2273582220077515e-02 -6.4210422337055206e-02 -1.0138687491416931e-01 -2.3510605096817017e-02 2.6141714304685593e-02 -5.8950670063495636e-02 3.9160296320915222e-02 -9.8949251696467400e-03 3.3960133790969849e-02 4.3313734233379364e-02 4.4653285294771194e-02 1.3202473521232605e-01 6.3159346580505371e-02 4.2630553245544434e-02 3.3355265855789185e-02 7.5481265783309937e-02 6.7796505987644196e-02 1.0876014828681946e-01 -4.4347837567329407e-02 -9.8953105509281158e-02 7.6597973704338074e-02 8.4677319973707199e-03 -3.9216764271259308e-02 2.5144508108496666e-02 4.3514475226402283e-02 -2.7128996327519417e-02 -1.9346231594681740e-02 -8.1356063485145569e-02 -1.1571428738534451e-02 2.3704329505562782e-02 7.2184898890554905e-03 -4.4622134417295456e-02 -1.8246995285153389e-02 -5.0688348710536957e-02 3.0281143262982368e-02 -2.4818820878863335e-02 -2.6019843295216560e-02 4.5350175350904465e-02 -3.9003856480121613e-02 -1.3549744151532650e-02 -3.7525206804275513e-02 -1.5326839638873935e-03 9.0595096349716187e-02 -9.0127594769001007e-02 3.0339173972606659e-02 2.0028909668326378e-02 -8.8219583034515381e-02 -1.5143354237079620e-01 1.8929963931441307e-02 5.9889864176511765e-02 8.4509074687957764e-02 2.5718448683619499e-02 -6.6567279398441315e-02 4.9015555530786514e-02 8.9615434408187866e-02 -1.7021789681166410e-03 7.0213571190834045e-02 4.9443100579082966e-03 4.6775404363870621e-02 4.4684190303087234e-02 -3.8731412496417761e-03 7.7405951917171478e-02 4.3326281011104584e-02 8.3834022283554077e-02 -1.3531342148780823e-02 -1.0053516924381256e-01 1.1080190539360046e-01 1.9533794373273849e-02 -3.7060506641864777e-02 7.7758401632308960e-02 -1.1567106097936630e-01 1.4160701632499695e-01 4.8244655132293701e-02 1.0093946009874344e-01 -3.2082139514386654e-03 -1.3986545614898205e-02 3.2416798174381256e-02 1.0964585840702057e-01 3.4077938646078110e-02 6.2524132430553436e-02 -1.5984481573104858e-01 5.4164819419384003e-02 6.4375884830951691e-02 -3.6095451563596725e-02 1.0865066945552826e-01 6.4590878784656525e-02 1.8234988674521446e-02 -1.8233580514788628e-02 -1.0704491287469864e-01 1.4392963051795959e-01 -6.8498611450195312e-02 1.1255070567131042e-02 1.1933417618274689e-01 1.2665039300918579e-01 -1.4310593903064728e-01 -6.3884429633617401e-02 -1.0161560773849487e-01 1.4942845329642296e-02 3.0378732830286026e-02 -2.8380580246448517e-02 -1.4896079897880554e-01 -2.8116142377257347e-02 -8.5045635700225830e-02 1.4628010988235474e-01 -6.8298377096652985e-02 -1.0451032221317291e-01 3.5797391086816788e-02 -1.3698796927928925e-01 -4.4486332684755325e-02 -1.5559663064777851e-02 -1.2389976764097810e-03 1.5650221705436707e-01 -1.5530316531658173e-01 1.8897149711847305e-02 2.1569689735770226e-02 -1.3538727164268494e-01 -7.9080656170845032e-02 -6.3679032027721405e-02 3.8734704256057739e-02 5.0294298678636551e-02 -4.2610256932675838e-03 -3.1346939504146576e-02 1.3398230075836182e-02 4.7738935798406601e-02 -8.7901726365089417e-03 3.5330332815647125e-02 9.5346622169017792e-02 3.6772403866052628e-02 4.4915680773556232e-03 -3.2912902534008026e-02 3.7713501602411270e-02 2.8681062161922455e-02 7.4419476091861725e-02 8.3059044554829597e-03 -1.8325170502066612e-02 4.8032049089670181e-02 3.0435319989919662e-02 -2.3009408265352249e-02 4.1153211146593094e-02 -2.3052044212818146e-01 -1.4797149226069450e-02 1.9198240712285042e-02 1.4466276764869690e-01 2.0404066890478134e-02 -4.0985301136970520e-02 3.3602643758058548e-02 1.7223344743251801e-01 5.3888861089944839e-02 9.7161367535591125e-02 1.2281170114874840e-02 6.9025948643684387e-02 8.9018352329730988e-02 -3.3855881541967392e-02 1.3556283712387085e-01 1.0811200365424156e-02 8.7000966072082520e-02 -4.9612461589276791e-03 -1.7182977497577667e-01 1.9830539822578430e-01 6.0834190808236599e-03 2.4525750428438187e-02 1.3056905567646027e-01 -6.4656790345907211e-03 -3.4056954085826874e-02 -5.0348527729511261e-03 1.4595621265470982e-02 -1.4604430645704269e-02 3.8479682058095932e-02 -8.7029049172997475e-03 -2.0445436239242554e-02 3.0220928601920605e-03 -5.2039604634046555e-03 2.1144105121493340e-02 2.6382228359580040e-02 1.9867081195116043e-02 -1.7176380380988121e-02 -1.8501913174986839e-02 2.5053711142390966e-03 -2.3098442703485489e-02 3.1324569135904312e-02 2.2754192352294922e-02 -4.7046888619661331e-02 1.4315534383058548e-02 1.7336988821625710e-02 -1.6756363213062286e-02 -9.0477265417575836e-02 -2.0091095939278603e-02 5.3443558514118195e-02 8.0524019896984100e-02 -1.5938160941004753e-02 -7.7619180083274841e-02 2.4397486820816994e-02 8.4843620657920837e-02 5.4032322950661182e-03 8.5333377122879028e-02 2.5155574083328247e-02 3.9836928248405457e-02 5.9967178851366043e-02 -2.4294195696711540e-02 5.2356362342834473e-02 -3.2265908084809780e-03 3.2480902969837189e-02 -3.3325668424367905e-02 -3.0935283750295639e-02 1.0661745816469193e-01 2.6563979685306549e-02 1.7307490110397339e-02 9.2414751648902893e-02 -9.9420100450515747e-03 2.8617957606911659e-02 -2.1395753137767315e-03 1.9415179267525673e-02 2.6089809834957123e-02 -3.4995310008525848e-02 9.3047460541129112e-03 -7.5060026720166206e-03 2.0285940263420343e-03 1.4272500993683934e-03 -3.2679145224392414e-03 3.0209392309188843e-02 2.1220065653324127e-02 -3.1414069235324860e-02 4.2021151632070541e-02 3.1369782984256744e-02 1.1194777674973011e-02 -3.4005653113126755e-02 1.7593961674720049e-03 4.2903546243906021e-02 -2.1157767623662949e-02 -3.7351150531321764e-03 -5.2377535030245781e-03 -8.2469722256064415e-03 -3.2932717353105545e-02 1.3348310254514217e-02 -3.0204933136701584e-02 -1.2808817438781261e-02 -4.7115710913203657e-04 2.3853864520788193e-02 -2.9812958091497421e-02 8.1938840448856354e-03 -2.2212442010641098e-02 3.9541546255350113e-02 -1.1284709908068180e-02 -3.9906844496726990e-02 3.3645376563072205e-02 1.3568833470344543e-02 2.0423426758497953e-03 1.1020393110811710e-02 1.6319723799824715e-02 -1.0044468799605966e-03 -3.4219678491353989e-04 -1.5368416206911206e-03 1.3953032903373241e-02 -1.6872745007276535e-02 -2.0083917677402496e-01 8.2634180784225464e-02 1.7931740731000900e-02 9.1928698122501373e-02 -3.3068861812353134e-03 2.6287075132131577e-02 4.0195737034082413e-02 1.1658006161451340e-01 3.6309678107500076e-02 1.1298518627882004e-01 -1.1447035521268845e-01 3.7639725953340530e-02 7.7422626316547394e-02 -1.9317822530865669e-02 1.4466279745101929e-01 2.6470119133591652e-02 9.9563337862491608e-02 1.0986725799739361e-02 -1.8150441348552704e-01 1.7459353804588318e-01 -1.8831385532394052e-03 8.0923214554786682e-03 1.2708783149719238e-01 1.0060728341341019e-01 4.4279590249061584e-02 5.6762564927339554e-03 -1.3189026713371277e-01 7.0232413709163666e-02 -4.4735524803400040e-02 -8.9299147948622704e-03 -1.1553978174924850e-01 -5.6589571759104729e-03 -5.9652328491210938e-02 -6.7142292857170105e-02 -8.8259369134902954e-02 -5.9233374893665314e-02 -3.1118782237172127e-02 -1.2714298069477081e-01 -5.0695043057203293e-02 -4.2754139751195908e-02 -2.1395906805992126e-02 2.1601670980453491e-01 -1.6299363970756531e-01 -5.4697293788194656e-02 2.6932502165436745e-02 -5.0091080367565155e-02 4.8101218417286873e-03 -2.2575631737709045e-02 -2.3691963404417038e-02 5.3123021498322487e-03 4.2381542734801769e-03 3.0690815299749374e-02 -2.7422378771007061e-03 3.3434033393859863e-02 2.9994383454322815e-02 2.6916470378637314e-02 6.4682222902774811e-02 2.6930788531899452e-02 3.0341420322656631e-02 2.3068990558385849e-03 2.3424565792083740e-02 1.2867773184552789e-03 5.8096356689929962e-02 -1.3843872584402561e-02 -3.5307962447404861e-02 1.6208505257964134e-02 9.9193872883915901e-03 1.8294572830200195e-02 2.2460125386714935e-02 -2.5538772344589233e-02 -1.8367300508543849e-03 1.3478275388479233e-02 -2.4158751592040062e-02 1.4743157662451267e-02 -3.4031327813863754e-02 -2.0673109218478203e-02 1.8938435241580009e-02 3.0683288350701332e-03 2.6884706690907478e-02 -3.1205050647258759e-02 -2.7729123830795288e-02 3.2652097288519144e-03 -3.1382858753204346e-02 1.6395383281633258e-03 -2.7286976575851440e-02 -5.2619706839323044e-02 1.3853587210178375e-02 2.5793546810746193e-02 1.1411352083086967e-02 7.2840005159378052e-03 2.1163709461688995e-02 -1.4552508480846882e-02 -1.8712387979030609e-01 -9.9959209561347961e-02 3.9050135761499405e-02 1.4993450045585632e-01 -3.1252935528755188e-02 -7.5520917773246765e-02 3.6665126681327820e-02 1.3657562434673309e-01 2.9516521841287613e-02 1.1172261089086533e-01 1.6687448322772980e-01 7.1670092642307281e-02 3.1820971518754959e-02 -5.0429336726665497e-02 1.1839789152145386e-01 3.3678200095891953e-02 1.2938167154788971e-01 -4.2570810765028000e-02 -1.1039213836193085e-01 2.2284083068370819e-01 -1.1828381568193436e-02 -1.3132682943250984e-04 1.0476387292146683e-01 -5.3628899157047272e-02 -6.8433601409196854e-03 1.7667474225163460e-02 7.1641556918621063e-02 -1.6968600451946259e-02 2.8685715049505234e-02 2.6614855974912643e-02 4.1606042534112930e-02 2.8666496276855469e-02 2.0389229059219360e-02 -3.0317112803459167e-02 3.9549473673105240e-02 4.3189704418182373e-02 1.6356322914361954e-02 5.5524125695228577e-02 6.4683124423027039e-02 8.6612962186336517e-02 -8.9868605136871338e-03 -1.2597572803497314e-01 3.5750433802604675e-02 -1.6824588179588318e-02 8.0738645046949387e-03 5.4962192662060261e-03 2.8349947929382324e-01 8.9725174009799957e-02 -7.9840064048767090e-02 -1.7552022635936737e-01 -1.1324072256684303e-02 1.4506152272224426e-01 -5.3651161491870880e-02 -2.0362439751625061e-01 -5.1506545394659042e-02 -1.4658115804195404e-01 -1.7373292148113251e-01 -7.1468718349933624e-02 -8.3449698984622955e-02 -8.8378516957163811e-03 -1.2354729324579239e-01 -6.3941977918148041e-02 -9.3201845884323120e-02 3.1311701983213425e-02 9.5812492072582245e-02 -2.5488033890724182e-01 -4.1447090916335583e-03 -4.7610620968043804e-03 -1.1812263727188110e-01 9.2195766046643257e-03 -1.8666477873921394e-02 -2.7682203799486160e-02 -1.8157150596380234e-02 -1.1233049444854259e-02 -2.5134259834885597e-02 -1.2781448662281036e-02 -6.1389041366055608e-04 2.2572191432118416e-02 6.4103421755135059e-03 -2.8319880366325378e-02 -7.2473492473363876e-03 1.6806809231638908e-02 4.4645415619015694e-03 6.2362067401409149e-03 3.2585185021162033e-02 -6.9143492728471756e-03 -2.3021766915917397e-02 1.7564650624990463e-02 -3.4470889717340469e-02 1.1899956502020359e-02 -1.9924258813261986e-03 -4.9512796103954315e-02 -8.0663725733757019e-02 -1.1302313767373562e-02 3.4286763519048691e-02 5.8264337480068207e-02 -3.5896286368370056e-02 2.3232074454426765e-02 -1.7729442566633224e-02 7.6422713696956635e-02 -6.3081216067075729e-03 6.3087098300457001e-02 -4.0127556771039963e-02 2.2952934727072716e-02 2.2816782817244530e-02 -1.8973389640450478e-02 5.4096054285764694e-02 5.3166553378105164e-02 3.4561950713396072e-02 1.1111944913864136e-03 -8.2212828099727631e-02 4.3084561824798584e-02 -4.8862658441066742e-03 -8.8262949138879776e-03 6.1108579393476248e-04 1.3108758628368378e-01 3.0625706538558006e-02 -6.0870591551065445e-02 -7.4278205633163452e-02 2.2973222658038139e-02 5.3819984197616577e-02 -3.5074267536401749e-02 -1.0720283538103104e-01 -4.4881440699100494e-02 -4.0523894131183624e-02 -2.7197327464818954e-02 -2.5641586631536484e-02 -7.5886994600296021e-02 -5.7313428260385990e-03 -7.4286706745624542e-02 -8.3973761647939682e-03 -9.9469557404518127e-02 4.2113624513149261e-02 1.1451438069343567e-01 -9.8035596311092377e-02 1.0407501831650734e-02 -2.7580788359045982e-02 -6.7640155553817749e-02 
      </Weights>
      <Biases rows="128" cols="1">
        -3.3953960984945297e-02 2.0017778873443604e-01 1.7298460006713867e-01 -8.9031860232353210e-02 -1.8158015608787537e-01 -1.6650509834289551e-01 -3.3780136704444885e-01 -8.4654316306114197e-02 4.5860968530178070e-02 -8.7939731776714325e-02 -1.9490978121757507e-01 -4.6864426136016846e-01 -7.7944301068782806e-02 -9.4637520611286163e-02 1.7283861339092255e-01 -1.0944335721433163e-02 -5.0591699779033661e-02 2.9815599322319031e-02 5.6848205626010895e-02 -5.6261785328388214e-02 -1.4275272376835346e-02 -1.2935571372509003e-01 2.9101515188813210e-02 4.1157686710357666e-01 5.8450121432542801e-02 8.3973549306392670e-02 2.4574099481105804e-01 -3.3525341749191284e-01 3.2602906227111816e-01 -9.4176471233367920e-02 1.1548131704330444e-01 1.0165153443813324e-01 1.6320854425430298e-01 -3.3798791468143463e-02 1.3467538356781006e-01 2.3271332681179047e-01 -1.1163110285997391e-01 -9.9750950932502747e-02 -9.9326431751251221e-02 2.0885717868804932e-01 2.7319118380546570e-01 -3.6545720696449280e-01 -3.6961134523153305e-02 7.7543206512928009e-02 -5.4723050445318222e-02 6.6954457759857178e-01 5.7097750902175903e-01 -8.1188604235649109e-02 -1.3971467316150665e-01 -2.1735063195228577e-01 1.3168972730636597e-01 3.6191797256469727e-01 -1.9683800637722015e-01 4.1793044656515121e-02 -1.5480656921863556e-01 9.4184070825576782e-02 -3.7161672115325928e-01 -1.9539956748485565e-01 -1.4038209617137909e-01 1.3167182914912701e-02 -9.2402271926403046e-02 1.6230040788650513e-01 -1.9902256131172180e-01 -1.4040482044219971e-01 -8.4733329713344574e-02 -1.3016092777252197e-01 -1.3585105538368225e-01 6.0840047895908356e-02 1.8526704609394073e-01 1.2211228162050247e-01 -3.2107743620872498e-01 -5.0227865576744080e-02 -1.9496642053127289e-01 1.3622364960610867e-02 -1.2761524319648743e-01 -1.4604653418064117e-01 6.6537149250507355e-02 1.2398365139961243e-01 -3.8020610809326172e-01 5.3613603115081787e-01 -8.0825343728065491e-02 1.6534948348999023e-01 -1.3244107365608215e-01 5.1921706646680832e-02 -3.0584144592285156e-01 1.8710969388484955e-01 1.7010481655597687e-01 6.8594634532928467e-02 3.2383766025304794e-02 -2.4726717174053192e-01 2.9721442610025406e-02 -1.3875393569469452e-01 -3.4199261665344238e-01 -1.0259521007537842e-01 1.0665394365787506e-01 1.2065468728542328e-01 -2.2590858861804008e-02 4.5829959213733673e-02 -2.8602726757526398e-02 -2.0544359087944031e-01 -7.3611296713352203e-02 -8.3689261227846146e-03 2.1769316494464874e-01 2.2991922497749329e-01 1.2472724169492722e-01 8.9865408837795258e-02 -7.4597232043743134e-02 1.0384196788072586e-01 -9.1027960181236267e-02 1.7165218293666840e-01 2.2850462794303894e-01 -2.8265264630317688e-01 8.2745537161827087e-02 3.6489564180374146e-01 -2.4824861437082291e-02 1.7472365498542786e-01 5.3774617612361908e-02 -2.4228660389780998e-02 3.2058668136596680e-01 -2.5277632474899292e-01 3.0021419748663902e-02 3.8756586145609617e-03 3.3140519261360168e-01 1.4454367756843567e-01 -4.2015653848648071e-01 -3.7769354879856110e-02 1.0330229252576828e-01 -1.8235567212104797e-01 
      </Biases>
    </Layer>
    <Layer ActivationFunction="1">
      <Weights rows="128" cols="128">
