<?xml version="1.0"?>
<MethodSetup Method="DNN::DNN">
  <GeneralInfo>
    <Info name="TMVA Release" value="4.2.1 [262657]"/>
    <Info name="ROOT Release" value="6.12/07 [396295]"/>
    <Info name="Creator" value="hum"/>
    <Info name="Date" value="Mon Sep 21 07:20:31 2020"/>
    <Info name="Host" value="Linux vocms0301.cern.ch 2.6.32-696.30.1.el6.x86_64 #1 SMP Tue May 22 06:09:36 CEST 2018 x86_64 x86_64 x86_64 GNU/Linux"/>
    <Info name="Dir" value="/afs/cern.ch/work/h/hum/public/CMSSW_10_2_13/src/ChargedHiggs/Analysis/resTagger"/>
    <Info name="Training events" value="325097"/>
    <Info name="TrainingTime" value="3.34234126e+02"/>
    <Info name="AnalysisType" value="Classification"/>
  </GeneralInfo>
  <Options>
    <Option name="V" modified="Yes">True</Option>
    <Option name="VerbosityLevel" modified="No">Verbose</Option>
    <Option name="VarTransform" modified="Yes">N</Option>
    <Option name="H" modified="Yes">False</Option>
    <Option name="CreateMVAPdfs" modified="No">False</Option>
    <Option name="IgnoreNegWeightsInTraining" modified="No">False</Option>
    <Option name="Layout" modified="Yes">TANH|128,RELU|128,SIGMOID|128,LINEAR</Option>
    <Option name="ValidationSize" modified="No">20%</Option>
    <Option name="ErrorStrategy" modified="Yes">CROSSENTROPY</Option>
    <Option name="WeightInitialization" modified="Yes">XAVIERUNIFORM</Option>
    <Option name="Architecture" modified="Yes">CPU</Option>
    <Option name="TrainingStrategy" modified="Yes">LearningRate=1e-1,Momentum=0.9,Repetitions=1,ConvergenceSteps=20,BatchSize=256,TestRepetitions=10,WeightDecay=1e-4,Regularization=L2,DropConfig=0.0+0.5+0.5+0.5,</Option>
  </Options>
  <Variables NVar="24">
    <Variable VarIndex="0" Expression="j1_pT" Label="j1_pT" Title="jet1 pT" Unit="" Internal="j1_pT" Type="F" Min="3.00003204e+01" Max="1.83329016e+03"/>
    <Variable VarIndex="1" Expression="j1_Eta" Label="j1_Eta" Title="jet1 eta" Unit="" Internal="j1_Eta" Type="F" Min="-4.69249010e+00" Max="4.69461536e+00"/>
    <Variable VarIndex="2" Expression="j1_Unc" Label="j1_Unc" Title="jet1 Unc" Unit="" Internal="j1_Unc" Type="F" Min="6.50207000e-03" Max="1.16903067e-01"/>
    <Variable VarIndex="3" Expression="j1_axis2" Label="j1_axis2" Title="jet1 axis2" Unit="" Internal="j1_axis2" Type="F" Min="0.00000000e+00" Max="1.82255715e-01"/>
    <Variable VarIndex="4" Expression="j1_ptD" Label="j1_ptD" Title="jet1 ptD" Unit="" Internal="j1_ptD" Type="F" Min="0.00000000e+00" Max="1.00000000e+00"/>
    <Variable VarIndex="5" Expression="j2_pT" Label="j2_pT" Title="jet2 pT" Unit="" Internal="j2_pT" Type="F" Min="3.00899544e+01" Max="2.04499731e+03"/>
    <Variable VarIndex="6" Expression="j2_Unc" Label="j2_Unc" Title="jet2 Unc" Unit="" Internal="j2_Unc" Type="F" Min="6.50110980e-03" Max="1.28909126e-01"/>
    <Variable VarIndex="7" Expression="j2_axis2" Label="j2_axis2" Title="jet2 axis2" Unit="" Internal="j2_axis2" Type="F" Min="0.00000000e+00" Max="1.64295241e-01"/>
    <Variable VarIndex="8" Expression="j2_ptD" Label="j2_ptD" Title="jet2 ptD" Unit="" Internal="j2_ptD" Type="F" Min="0.00000000e+00" Max="1.00000000e+00"/>
    <Variable VarIndex="9" Expression="j3_pT" Label="j3_pT" Title="jet3 pT" Unit="" Internal="j3_pT" Type="F" Min="3.00000572e+01" Max="5.17205261e+02"/>
    <Variable VarIndex="10" Expression="j3_Eta" Label="j3_Eta" Title="jet3 eta" Unit="" Internal="j3_Eta" Type="F" Min="-4.69974709e+00" Max="4.68871212e+00"/>
    <Variable VarIndex="11" Expression="j3_Unc" Label="j3_Unc" Title="jet3 Unc" Unit="" Internal="j3_Unc" Type="F" Min="6.65693218e-03" Max="9.56844464e-02"/>
    <Variable VarIndex="12" Expression="j3_axis2" Label="j3_axis2" Title="jet3 axis2" Unit="" Internal="j3_axis2" Type="F" Min="0.00000000e+00" Max="1.85581133e-01"/>
    <Variable VarIndex="13" Expression="j3_ptD" Label="j3_ptD" Title="jet3 ptD" Unit="" Internal="j3_ptD" Type="F" Min="0.00000000e+00" Max="1.00000000e+00"/>
    <Variable VarIndex="14" Expression="j4_pT" Label="j4_pT" Title="jet4 pT" Unit="" Internal="j4_pT" Type="F" Min="3.00899544e+01" Max="3.20155273e+03"/>
    <Variable VarIndex="15" Expression="j4_Unc" Label="j4_Unc" Title="jet4 Unc" Unit="" Internal="j4_Unc" Type="F" Min="6.50171191e-03" Max="1.17660142e-01"/>
    <Variable VarIndex="16" Expression="j4_axis2" Label="j4_axis2" Title="jet4 axis2" Unit="" Internal="j4_axis2" Type="F" Min="0.00000000e+00" Max="1.79574594e-01"/>
    <Variable VarIndex="17" Expression="j4_ptD" Label="j4_ptD" Title="jet4 ptD" Unit="" Internal="j4_ptD" Type="F" Min="0.00000000e+00" Max="1.00000000e+00"/>
    <Variable VarIndex="18" Expression="DEta_f12" Label="DEta_f12" Title="DEta_f12" Unit="" Internal="DEta_f12" Type="F" Min="1.34560933e-05" Max="9.12983799e+00"/>
    <Variable VarIndex="19" Expression="DEta_v34" Label="DEta_v34" Title="DEta_v34" Unit="" Internal="DEta_v34" Type="F" Min="7.58157785e-06" Max="5.98262882e+00"/>
    <Variable VarIndex="20" Expression="DPhi_f12" Label="DPhi_f12" Title="DPhi_f12" Unit="" Internal="DPhi_f12" Type="F" Min="-3.14152002e+00" Max="3.14155769e+00"/>
    <Variable VarIndex="21" Expression="DPhi_v34" Label="DPhi_v34" Title="DPhi_v34" Unit="" Internal="DPhi_v34" Type="F" Min="-3.14143205e+00" Max="3.14157677e+00"/>
    <Variable VarIndex="22" Expression="DR_v34" Label="DR_v34" Title="DR_v34" Unit="" Internal="DR_v34" Type="F" Min="3.94752711e-01" Max="6.73688078e+00"/>
    <Variable VarIndex="23" Expression="M_v34" Label="M_v34" Title="M_v34" Unit="" Internal="M_v34" Type="F" Min="1.55530767e+01" Max="1.07502527e+03"/>
  </Variables>
  <Spectators NSpec="0"/>
  <Classes NClass="2">
    <Class Name="Signal" Index="0"/>
    <Class Name="Background" Index="1"/>
  </Classes>
  <Transformations NTransformations="1">
    <Transform Name="Normalize">
      <Selection>
        <Input NInputs="24">
          <Input Type="Variable" Label="j1_pT" Expression="j1_pT"/>
          <Input Type="Variable" Label="j1_Eta" Expression="j1_Eta"/>
          <Input Type="Variable" Label="j1_Unc" Expression="j1_Unc"/>
          <Input Type="Variable" Label="j1_axis2" Expression="j1_axis2"/>
          <Input Type="Variable" Label="j1_ptD" Expression="j1_ptD"/>
          <Input Type="Variable" Label="j2_pT" Expression="j2_pT"/>
          <Input Type="Variable" Label="j2_Unc" Expression="j2_Unc"/>
          <Input Type="Variable" Label="j2_axis2" Expression="j2_axis2"/>
          <Input Type="Variable" Label="j2_ptD" Expression="j2_ptD"/>
          <Input Type="Variable" Label="j3_pT" Expression="j3_pT"/>
          <Input Type="Variable" Label="j3_Eta" Expression="j3_Eta"/>
          <Input Type="Variable" Label="j3_Unc" Expression="j3_Unc"/>
          <Input Type="Variable" Label="j3_axis2" Expression="j3_axis2"/>
          <Input Type="Variable" Label="j3_ptD" Expression="j3_ptD"/>
          <Input Type="Variable" Label="j4_pT" Expression="j4_pT"/>
          <Input Type="Variable" Label="j4_Unc" Expression="j4_Unc"/>
          <Input Type="Variable" Label="j4_axis2" Expression="j4_axis2"/>
          <Input Type="Variable" Label="j4_ptD" Expression="j4_ptD"/>
          <Input Type="Variable" Label="DEta_f12" Expression="DEta_f12"/>
          <Input Type="Variable" Label="DEta_v34" Expression="DEta_v34"/>
          <Input Type="Variable" Label="DPhi_f12" Expression="DPhi_f12"/>
          <Input Type="Variable" Label="DPhi_v34" Expression="DPhi_v34"/>
          <Input Type="Variable" Label="DR_v34" Expression="DR_v34"/>
          <Input Type="Variable" Label="M_v34" Expression="M_v34"/>
        </Input>
        <Output NOutputs="24">
          <Output Type="Variable" Label="j1_pT" Expression="j1_pT"/>
          <Output Type="Variable" Label="j1_Eta" Expression="j1_Eta"/>
          <Output Type="Variable" Label="j1_Unc" Expression="j1_Unc"/>
          <Output Type="Variable" Label="j1_axis2" Expression="j1_axis2"/>
          <Output Type="Variable" Label="j1_ptD" Expression="j1_ptD"/>
          <Output Type="Variable" Label="j2_pT" Expression="j2_pT"/>
          <Output Type="Variable" Label="j2_Unc" Expression="j2_Unc"/>
          <Output Type="Variable" Label="j2_axis2" Expression="j2_axis2"/>
          <Output Type="Variable" Label="j2_ptD" Expression="j2_ptD"/>
          <Output Type="Variable" Label="j3_pT" Expression="j3_pT"/>
          <Output Type="Variable" Label="j3_Eta" Expression="j3_Eta"/>
          <Output Type="Variable" Label="j3_Unc" Expression="j3_Unc"/>
          <Output Type="Variable" Label="j3_axis2" Expression="j3_axis2"/>
          <Output Type="Variable" Label="j3_ptD" Expression="j3_ptD"/>
          <Output Type="Variable" Label="j4_pT" Expression="j4_pT"/>
          <Output Type="Variable" Label="j4_Unc" Expression="j4_Unc"/>
          <Output Type="Variable" Label="j4_axis2" Expression="j4_axis2"/>
          <Output Type="Variable" Label="j4_ptD" Expression="j4_ptD"/>
          <Output Type="Variable" Label="DEta_f12" Expression="DEta_f12"/>
          <Output Type="Variable" Label="DEta_v34" Expression="DEta_v34"/>
          <Output Type="Variable" Label="DPhi_f12" Expression="DPhi_f12"/>
          <Output Type="Variable" Label="DPhi_v34" Expression="DPhi_v34"/>
          <Output Type="Variable" Label="DR_v34" Expression="DR_v34"/>
          <Output Type="Variable" Label="M_v34" Expression="M_v34"/>
        </Output>
      </Selection>
      <Class ClassIndex="0">
        <Ranges>
          <Range Index="0" Min="3.0015743255615234e+01" Max="1.6870897216796875e+03"/>
          <Range Index="1" Min="-4.6751227378845215e+00" Max="4.6946153640747070e+00"/>
          <Range Index="2" Min="6.5020699985325336e-03" Max="1.1606975644826889e-01"/>
          <Range Index="3" Min="0.0000000000000000e+00" Max="1.5252888202667236e-01"/>
          <Range Index="4" Min="2.0389144122600555e-01" Max="1.0000000000000000e+00"/>
          <Range Index="5" Min="3.1474065780639648e+01" Max="2.0449973144531250e+03"/>
          <Range Index="6" Min="6.5038842149078846e-03" Max="1.1766014248132706e-01"/>
          <Range Index="7" Min="0.0000000000000000e+00" Max="1.2361104041337967e-01"/>
          <Range Index="8" Min="1.9637253880500793e-01" Max="9.8135709762573242e-01"/>
          <Range Index="9" Min="3.0000057220458984e+01" Max="2.4685237121582031e+02"/>
          <Range Index="10" Min="-4.5846686363220215e+00" Max="4.6887121200561523e+00"/>
          <Range Index="11" Min="7.4645904824137688e-03" Max="8.4273904561996460e-02"/>
          <Range Index="12" Min="0.0000000000000000e+00" Max="1.5656676888465881e-01"/>
          <Range Index="13" Min="2.1379874646663666e-01" Max="1.0000000000000000e+00"/>
          <Range Index="14" Min="3.0571872711181641e+01" Max="1.1361234130859375e+03"/>
          <Range Index="15" Min="6.5454384312033653e-03" Max="1.0556808114051819e-01"/>
          <Range Index="16" Min="0.0000000000000000e+00" Max="1.5595012903213501e-01"/>
          <Range Index="17" Min="1.9498836994171143e-01" Max="1.0000000000000000e+00"/>
          <Range Index="18" Min="1.3456093256536406e-05" Max="8.7230577468872070e+00"/>
          <Range Index="19" Min="5.4365271353162825e-05" Max="2.7657678127288818e+00"/>
          <Range Index="20" Min="-3.1410660743713379e+00" Max="3.1414384841918945e+00"/>
          <Range Index="21" Min="-3.1377520561218262e+00" Max="3.1407136917114258e+00"/>
          <Range Index="22" Min="3.9884114265441895e-01" Max="3.6485905647277832e+00"/>
          <Range Index="23" Min="2.2702516555786133e+01" Max="2.8288265991210938e+02"/>
        </Ranges>
      </Class>
      <Class ClassIndex="1">
        <Ranges>
          <Range Index="0" Min="3.0000320434570312e+01" Max="1.8332901611328125e+03"/>
          <Range Index="1" Min="-4.6924901008605957e+00" Max="4.6895585060119629e+00"/>
          <Range Index="2" Min="6.5020699985325336e-03" Max="1.1690306663513184e-01"/>
          <Range Index="3" Min="0.0000000000000000e+00" Max="1.8225571513175964e-01"/>
          <Range Index="4" Min="0.0000000000000000e+00" Max="1.0000000000000000e+00"/>
          <Range Index="5" Min="3.0089954376220703e+01" Max="1.9505639648437500e+03"/>
          <Range Index="6" Min="6.5011098049581051e-03" Max="1.2890912592411041e-01"/>
          <Range Index="7" Min="0.0000000000000000e+00" Max="1.6429524123668671e-01"/>
          <Range Index="8" Min="0.0000000000000000e+00" Max="1.0000000000000000e+00"/>
          <Range Index="9" Min="3.0001066207885742e+01" Max="5.1720526123046875e+02"/>
          <Range Index="10" Min="-4.6997470855712891e+00" Max="4.6878681182861328e+00"/>
          <Range Index="11" Min="6.6569321788847446e-03" Max="9.5684446394443512e-02"/>
          <Range Index="12" Min="0.0000000000000000e+00" Max="1.8558113276958466e-01"/>
          <Range Index="13" Min="0.0000000000000000e+00" Max="1.0000000000000000e+00"/>
          <Range Index="14" Min="3.0089954376220703e+01" Max="3.2015527343750000e+03"/>
          <Range Index="15" Min="6.5017119050025940e-03" Max="1.1766014248132706e-01"/>
          <Range Index="16" Min="0.0000000000000000e+00" Max="1.7957459390163422e-01"/>
          <Range Index="17" Min="0.0000000000000000e+00" Max="1.0000000000000000e+00"/>
          <Range Index="18" Min="1.3456093256536406e-05" Max="9.1298379898071289e+00"/>
          <Range Index="19" Min="7.5815778473042883e-06" Max="5.9826288223266602e+00"/>
          <Range Index="20" Min="-3.1415200233459473e+00" Max="3.1415576934814453e+00"/>
          <Range Index="21" Min="-3.1414320468902588e+00" Max="3.1415767669677734e+00"/>
          <Range Index="22" Min="3.9475271105766296e-01" Max="6.7368807792663574e+00"/>
          <Range Index="23" Min="1.5553076744079590e+01" Max="1.0750252685546875e+03"/>
        </Ranges>
      </Class>
      <Class ClassIndex="2">
        <Ranges>
          <Range Index="0" Min="3.0000320434570312e+01" Max="1.8332901611328125e+03"/>
          <Range Index="1" Min="-4.6924901008605957e+00" Max="4.6946153640747070e+00"/>
          <Range Index="2" Min="6.5020699985325336e-03" Max="1.1690306663513184e-01"/>
          <Range Index="3" Min="0.0000000000000000e+00" Max="1.8225571513175964e-01"/>
          <Range Index="4" Min="0.0000000000000000e+00" Max="1.0000000000000000e+00"/>
          <Range Index="5" Min="3.0089954376220703e+01" Max="2.0449973144531250e+03"/>
          <Range Index="6" Min="6.5011098049581051e-03" Max="1.2890912592411041e-01"/>
          <Range Index="7" Min="0.0000000000000000e+00" Max="1.6429524123668671e-01"/>
          <Range Index="8" Min="0.0000000000000000e+00" Max="1.0000000000000000e+00"/>
          <Range Index="9" Min="3.0000057220458984e+01" Max="5.1720526123046875e+02"/>
          <Range Index="10" Min="-4.6997470855712891e+00" Max="4.6887121200561523e+00"/>
          <Range Index="11" Min="6.6569321788847446e-03" Max="9.5684446394443512e-02"/>
          <Range Index="12" Min="0.0000000000000000e+00" Max="1.8558113276958466e-01"/>
          <Range Index="13" Min="0.0000000000000000e+00" Max="1.0000000000000000e+00"/>
          <Range Index="14" Min="3.0089954376220703e+01" Max="3.2015527343750000e+03"/>
          <Range Index="15" Min="6.5017119050025940e-03" Max="1.1766014248132706e-01"/>
          <Range Index="16" Min="0.0000000000000000e+00" Max="1.7957459390163422e-01"/>
          <Range Index="17" Min="0.0000000000000000e+00" Max="1.0000000000000000e+00"/>
          <Range Index="18" Min="1.3456093256536406e-05" Max="9.1298379898071289e+00"/>
          <Range Index="19" Min="7.5815778473042883e-06" Max="5.9826288223266602e+00"/>
          <Range Index="20" Min="-3.1415200233459473e+00" Max="3.1415576934814453e+00"/>
          <Range Index="21" Min="-3.1414320468902588e+00" Max="3.1415767669677734e+00"/>
          <Range Index="22" Min="3.9475271105766296e-01" Max="6.7368807792663574e+00"/>
          <Range Index="23" Min="1.5553076744079590e+01" Max="1.0750252685546875e+03"/>
        </Ranges>
      </Class>
    </Transform>
  </Transformations>
  <MVAPdfs/>
  <Weights InputWidth="24" Depth="4" LossFunction="C" OutputFunction="S">
    <Layer ActivationFunction="3">
      <Weights rows="128" cols="24">
        -5.2407987415790558e-02 9.1212699189782143e-03 1.3357254676520824e-02 3.7692070007324219e-02 -3.5009409766644239e-03 -6.5383496694266796e-03 1.0747552849352360e-02 4.2826812714338303e-02 5.8451085351407528e-03 1.9906952977180481e-02 -1.4109626412391663e-02 3.8360238075256348e-02 3.5932004451751709e-02 -4.0126116946339607e-03 3.3313259482383728e-02 1.7256664112210274e-02 4.1270244866609573e-02 -5.4399669170379639e-03 -4.8948839306831360e-02 4.6389333903789520e-02 -1.4894960913807154e-03 3.1539644114673138e-03 1.5497121028602123e-02 9.2618167400360107e-02 5.3355030715465546e-02 -7.7967466786503792e-03 -1.2124008499085903e-02 -3.5855527967214584e-02 2.7895933017134666e-03 8.0681210383772850e-03 -8.8345324620604515e-03 -4.1857734322547913e-02 -5.9221987612545490e-03 -1.8917385488748550e-02 1.0413347743451595e-02 -3.6126643419265747e-02 -3.5140234977006912e-02 4.8134815879166126e-03 -3.1664058566093445e-02 -1.5686074271798134e-02 -3.9653081446886063e-02 5.6811901740729809e-03 4.9226105213165283e-02 -4.5178711414337158e-02 2.0787658286280930e-04 -3.6374516785144806e-03 -1.4916782267391682e-02 -9.1114096343517303e-02 -7.2048716247081757e-02 5.2119479514658451e-03 1.5053984709084034e-02 4.7689087688922882e-02 -3.0791605822741985e-03 -1.2094116769731045e-02 1.2182590551674366e-02 5.5998947471380234e-02 8.0823097378015518e-03 2.5076156482100487e-02 -8.6102709174156189e-03 4.7342997044324875e-02 4.4991340488195419e-02 -5.7470742613077164e-03 4.2002644389867783e-02 1.9862443208694458e-02 5.1426678895950317e-02 -7.4060237966477871e-03 -6.4321495592594147e-02 6.0182433575391769e-02 -3.2953376648947597e-04 3.7577224429696798e-03 2.0137278363108635e-02 1.2232151627540588e-01 1.3358162343502045e-01 1.2145054060965776e-03 -3.1804267317056656e-02 -8.9797563850879669e-02 1.5510137891396880e-03 2.1242346614599228e-02 -2.5944592431187630e-02 -1.1009929329156876e-01 -1.6813876107335091e-02 -5.4175674915313721e-02 2.5858606677502394e-03 -8.8349342346191406e-02 -8.4062829613685608e-02 1.0912043042480946e-02 -8.5734054446220398e-02 -3.7965580821037292e-02 -9.4162657856941223e-02 1.3191222213208675e-02 1.1676979809999466e-01 -1.2019864469766617e-01 -2.8290579211898148e-04 -6.3575720414519310e-03 -4.5950565487146378e-02 -2.4052648246288300e-01 -9.6053153276443481e-02 1.6641950234770775e-02 2.3602562025189400e-02 6.6543564200401306e-02 -5.2796197123825550e-03 -1.3582876883447170e-02 1.8773950636386871e-02 7.6636515557765961e-02 1.2188792228698730e-02 3.6918666213750839e-02 -2.4429861456155777e-02 6.6486023366451263e-02 6.2387574464082718e-02 -7.3663746006786823e-03 6.0356765985488892e-02 2.8710156679153442e-02 7.0495635271072388e-02 -8.3442339673638344e-03 -8.7372094392776489e-02 8.2518205046653748e-02 -4.8030095058493316e-05 6.4334087073802948e-03 2.7403563261032104e-02 1.6861830651760101e-01 1.0750518180429935e-02 4.7105643898248672e-03 -2.1273763850331306e-03 -7.2222971357405186e-03 -3.2577646197751164e-04 2.0784400403499603e-03 -1.8609766848385334e-03 -9.2967906966805458e-03 -1.2157454621046782e-03 -4.2259059846401215e-03 -6.7199915647506714e-03 -6.7850681953132153e-03 -6.9026206620037556e-03 1.0568189900368452e-03 -6.8216016516089439e-03 -3.0504367314279079e-03 -7.8388554975390434e-03 1.3444103533402085e-03 8.8122105225920677e-03 -1.0547205805778503e-02 2.9938857187516987e-04 3.2221458968706429e-04 -4.7346027567982674e-03 -1.9832303747534752e-02 3.9568640291690826e-02 -4.4318269938230515e-03 -9.3413488939404488e-03 -2.7437537908554077e-02 2.2601638920605183e-03 5.6826011277735233e-03 -7.1675870567560196e-03 -3.1505934894084930e-02 -4.4498546048998833e-03 -1.4362207613885403e-02 5.8303619734942913e-03 -2.7630724012851715e-02 -2.6899365708231926e-02 3.4731146879494190e-03 -2.4259930476546288e-02 -1.2200030498206615e-02 -3.0285971239209175e-02 4.0789353661239147e-03 3.6386642605066299e-02 -3.4448802471160889e-02 1.5987912775017321e-04 -2.1578108426183462e-03 -1.1280708014965057e-02 -6.8637236952781677e-02 -2.3461888730525970e-01 -2.9468977823853493e-02 5.2863873541355133e-02 1.5049123764038086e-01 5.8842226862907410e-03 -4.1552428156137466e-02 4.4871233403682709e-02 1.9341538846492767e-01 2.9868870973587036e-02 1.0228912532329559e-01 3.3020015805959702e-02 1.4282485842704773e-01 1.3548785448074341e-01 -1.9630659371614456e-02 1.5360528230667114e-01 5.8154974132776260e-02 1.4909704029560089e-01 -2.0841762423515320e-02 -1.9320586323738098e-01 2.1372401714324951e-01 -6.1756098875775933e-04 7.1790618821978569e-03 9.1832071542739868e-02 4.3169966340065002e-01 1.8672193586826324e-01 1.2347849458456039e-01 -5.2039377391338348e-02 -1.3274903595447540e-01 -1.8393624573945999e-02 2.8966914862394333e-02 -4.7002591192722321e-02 -1.8123899400234222e-01 -2.9035229235887527e-02 -1.0655979067087173e-01 -1.5621155500411987e-01 -1.0783320665359497e-01 -1.1171273887157440e-01 1.9862899556756020e-02 -1.4631271362304688e-01 -4.6336356550455093e-02 -1.2045612931251526e-01 2.5581697002053261e-02 1.2438448518514633e-01 -2.1230991184711456e-01 -1.9038256141357124e-04 8.4676621481776237e-03 -1.2202890962362289e-01 -4.0090566873550415e-01 9.1318361461162567e-02 -1.7086979001760483e-02 -2.5127308443188667e-02 -6.6820353269577026e-02 5.4178722202777863e-03 1.1005757376551628e-02 -2.1100874990224838e-02 -7.7762134373188019e-02 -1.1671215295791626e-02 -3.8433182984590530e-02 2.5926528498530388e-02 -6.7389041185379028e-02 -6.3030362129211426e-02 7.5512635521590710e-03 -6.1480678617954254e-02 -3.1156435608863831e-02 -7.1781262755393982e-02 8.9953551068902016e-03 8.4183827042579651e-02 -8.3529561758041382e-02 1.3911065179854631e-03 -6.6991033963859081e-03 -2.8939563781023026e-02 -1.6721467673778534e-01 2.7402726933360100e-02 3.2974108762573451e-05 -6.2249451875686646e-03 -1.8676310777664185e-02 7.4376293923705816e-04 4.2795576155185699e-03 -4.7505144029855728e-03 -2.1947946399450302e-02 -3.0234509613364935e-03 -9.8947538062930107e-03 -1.5592519775964320e-04 -1.8726417794823647e-02 -1.8347794190049171e-02 2.4761368986219168e-03 -1.6612980514764786e-02 -8.2628028467297554e-03 -2.0699676126241684e-02 2.9913405887782574e-03 2.4511342868208885e-02 -2.4148372933268547e-02 -2.9343638743739575e-05 -1.0787374339997768e-03 -8.6474977433681488e-03 -4.7533404082059860e-02 -3.7879958748817444e-02 -6.5858238376677036e-03 6.9418991915881634e-03 2.3922890424728394e-02 -2.8224181733094156e-04 -7.3522171005606651e-03 5.6274062953889370e-03 2.8878962621092796e-02 4.3672411702573299e-03 1.2448918074369431e-02 8.3698881790041924e-03 2.3251205682754517e-02 2.2300934419035912e-02 -3.1035034917294979e-03 2.1027786657214165e-02 9.2733176425099373e-03 2.5898613035678864e-02 -4.0857773274183273e-03 -3.0972972512245178e-02 3.2317969948053360e-02 -1.0048577096313238e-03 4.8336965846829116e-05 1.2242550961673260e-02 6.3589140772819519e-02 2.9608774930238724e-02 3.8933721370995045e-03 -6.4306347630918026e-03 -1.9919136539101601e-02 4.6313251368701458e-04 4.7382754273712635e-03 -4.9895192496478558e-03 -2.3832444101572037e-02 -3.4530269913375378e-03 -1.0867618024349213e-02 -5.6332759559154510e-03 -1.9556798040866852e-02 -1.9197398796677589e-02 2.7345151174813509e-03 -1.8008219078183174e-02 -8.3484947681427002e-03 -2.1866388618946075e-02 3.3448217436671257e-03 2.5304820388555527e-02 -2.6990201324224472e-02 3.7140148924663663e-04 -2.9643718153238297e-04 -1.0425594635307789e-02 -5.2016627043485641e-02 1.0576806217432022e-01 1.1900961399078369e-02 -2.4064410477876663e-02 -7.1102231740951538e-02 9.4120868016034365e-04 1.7798021435737610e-02 -1.9954416900873184e-02 -8.6949415504932404e-02 -1.2555895373225212e-02 -4.1711155325174332e-02 -1.3414933346211910e-02 -6.8608291447162628e-02 -6.5865151584148407e-02 8.9414855465292931e-03 -6.6569477319717407e-02 -2.9373092576861382e-02 -7.4857823550701141e-02 1.0707712732255459e-02 9.0136073529720306e-02 -9.5491476356983185e-02 6.9823081139475107e-04 -3.2120270188897848e-03 -3.7537194788455963e-02 -1.8982426822185516e-01 -2.4970036000013351e-02 4.6155760064721107e-03 6.2936563044786453e-03 1.7438443377614021e-02 -1.4263836201280355e-03 -3.3552432432770729e-03 4.7028642147779465e-03 2.0238699391484261e-02 2.6135605294257402e-03 8.9951632544398308e-03 -6.6291377879679203e-03 1.8143698573112488e-02 1.7314098775386810e-02 -2.1436896640807390e-03 1.5327855013310909e-02 8.1917392089962959e-03 1.9910130649805069e-02 -2.7334715705364943e-03 -2.3609343916177750e-02 2.1845184266567230e-02 -5.0539697986096144e-04 1.8718427745625377e-03 7.1890968829393387e-03 4.3292164802551270e-02 -7.9353414475917816e-02 1.7339987680315971e-02 1.8244333565235138e-02 5.3170498460531235e-02 -4.8322621732950211e-03 -1.1884522624313831e-02 1.3967659324407578e-02 6.0996260493993759e-02 9.5385620370507240e-03 2.8029296547174454e-02 -2.4395138025283813e-02 5.3782805800437927e-02 5.0724655389785767e-02 -6.5930099226534367e-03 4.7176893800497055e-02 2.2810202091932297e-02 5.7175856083631516e-02 -6.9474922493100166e-03 -7.2717294096946716e-02 6.5760917961597443e-02 7.1102447691373527e-05 5.5287838913500309e-03 2.0686317235231400e-02 1.3484276831150055e-01 -1.4247071743011475e-01 -6.7214176058769226e-02 3.2560817897319794e-02 9.4150632619857788e-02 7.1805524639785290e-03 -2.7065835893154144e-02 2.7325119823217392e-02 1.2334494292736053e-01 1.8629258498549461e-02 6.2270384281873703e-02 8.1822521984577179e-02 8.3823159337043762e-02 8.2743562757968903e-02 -1.2242725118994713e-02 9.4076044857501984e-02 3.4438841044902802e-02 9.2064894735813141e-02 -1.6773123294115067e-02 -1.0550870001316071e-01 1.3920149207115173e-01 -1.7915169009938836e-03 -3.8520956877619028e-03 6.7681558430194855e-02 2.6926708221435547e-01 -1.2583328783512115e-01 2.5461710989475250e-02 2.8409304097294807e-02 8.2922592759132385e-02 -6.4488598145544529e-03 -1.9222799688577652e-02 2.2612281143665314e-02 9.7136557102203369e-02 1.5848398208618164e-02 4.6676471829414368e-02 -3.7073336541652679e-02 8.2801863551139832e-02 7.8342393040657043e-02 -1.0200350545346737e-02 7.6373398303985596e-02 3.4723281860351562e-02 8.7239891290664673e-02 -1.0548206977546215e-02 -1.1492967605590820e-01 1.0402274131774902e-01 1.8532617250457406e-03 9.9335825070738792e-03 3.3721290528774261e-02 2.1638983488082886e-01 -1.5062182210385799e-02 9.6625704318284988e-03 5.3435838781297207e-03 1.2502226047217846e-02 -2.0436728373169899e-03 -7.4981898069381714e-04 4.3009407818317413e-03 1.3302262872457504e-02 1.6615642234683037e-03 6.5514096058905125e-03 -1.4020236209034920e-02 1.3472340069711208e-02 1.2422858737409115e-02 -1.3117165071889758e-03 1.0690647177398205e-02 6.8329046480357647e-03 1.4233686961233616e-02 -1.4064395800232887e-03 -1.6083158552646637e-02 1.3675133697688580e-02 -4.6703973202966154e-04 2.2690703626722097e-03 3.4636913333088160e-03 2.7526907622814178e-02 -6.4287558197975159e-03 3.3363648690283298e-03 4.0349192568100989e-04 2.7191962581127882e-03 -6.3695461722090840e-04 -1.5947418287396431e-03 -2.5642191758379340e-04 2.8366066981106997e-03 5.2722258260473609e-04 5.0662149442359805e-04 -4.5897900126874447e-03 3.1648459844291210e-03 2.9517139773815870e-03 -5.5468053324148059e-04 1.7261675093322992e-03 6.5816735150292516e-04 3.2862829975783825e-03 -5.6359928566962481e-04 -6.0498593375086784e-03 2.9395450837910175e-03 1.5324994456022978e-04 7.3548161890357733e-04 -1.1442370305303484e-04 7.2818361222743988e-03 1.4550568163394928e-01 3.0940726399421692e-02 -3.0893476679921150e-02 -9.2493914067745209e-02 -1.5963155310600996e-03 2.7725357562303543e-02 -2.5125231593847275e-02 -1.1691678315401077e-01 -1.8001081421971321e-02 -5.6306738406419754e-02 -3.5540953278541565e-02 -8.6107663810253143e-02 -8.2265771925449371e-02 1.1577504687011242e-02 -8.8834203779697418e-02 -3.3591087907552719e-02 -9.1928459703922272e-02 1.5389105305075645e-02 1.1659329384565353e-01 -1.2977750599384308e-01 1.6199820674955845e-03 -8.1173761282116175e-04 -5.5191349238157272e-02 -2.5857463479042053e-01 4.6146176755428314e-02 1.2814109213650227e-02 -8.0736838281154633e-03 -2.8502294793725014e-02 -1.6360639710910618e-04 9.3084275722503662e-03 -5.7151205837726593e-03 -3.5735037177801132e-02 -5.0211697816848755e-03 -1.5276571735739708e-02 -1.8291898071765900e-02 -2.6751764118671417e-02 -2.7778077870607376e-02 4.7564380802214146e-03 -2.5748865678906441e-02 -1.0770835913717747e-02 -3.0957302078604698e-02 5.6756739504635334e-03 3.7770632654428482e-02 -4.0544152259826660e-02 5.2683951798826456e-04 7.7231856994330883e-04 -1.6351692378520966e-02 -7.8517921268939972e-02 9.0029768645763397e-02 -5.6321318261325359e-03 -1.9704416394233704e-02 -5.9443734586238861e-02 3.5783688072115183e-03 1.5223560854792595e-02 -1.5416624955832958e-02 -7.0120304822921753e-02 -1.0524633340537548e-02 -3.2288644462823868e-02 9.7195189446210861e-03 -5.8771625161170959e-02 -5.5722683668136597e-02 7.2467094287276268e-03 -5.3488180041313171e-02 -2.4566493928432465e-02 -6.2736608088016510e-02 8.5464715957641602e-03 7.9239644110202789e-02 -7.5756251811981201e-02 8.9583417866379023e-04 -4.7889370471239090e-03 -2.5877501815557480e-02 -1.5436527132987976e-01 -8.6001880466938019e-02 -1.2261806987226009e-03 1.9781600683927536e-02 5.7751890271902084e-02 -1.8374556675553322e-03 -1.4107960276305676e-02 1.5738865360617638e-02 6.9172136485576630e-02 1.0505037382245064e-02 3.2413464039564133e-02 3.9266917156055570e-04 5.6666020303964615e-02 5.4632090032100677e-02 -7.5451806187629700e-03 5.2832156419754028e-02 2.4141034111380577e-02 6.1390765011310577e-02 -9.1703692451119423e-03 -7.5072564184665680e-02 7.6428130269050598e-02 -6.3336582388728857e-04 2.9414782766252756e-03 2.8048206120729446e-02 1.5120005607604980e-01 -1.1012864857912064e-01 6.2932441942393780e-03 2.5954842567443848e-02 7.5109697878360748e-02 -3.9566466584801674e-03 -1.6996042802929878e-02 2.1455258131027222e-02 8.8569894433021545e-02 1.3809480704367161e-02 4.2902387678623199e-02 -1.1300265789031982e-02 7.3319837450981140e-02 6.9826349616050720e-02 -9.0855825692415237e-03 6.8890012800693512e-02 3.1465396285057068e-02 7.8212879598140717e-02 -1.0387014597654343e-02 -9.6933253109455109e-02 9.6028149127960205e-02 6.0383870732039213e-05 5.5291759781539440e-03 3.4300252795219421e-02 1.9470405578613281e-01 1.8672211468219757e-01 -2.7749503497034311e-03 -4.4637519866228104e-02 -1.2430540472269058e-01 1.4408134156838059e-03 2.8858121484518051e-02 -3.6478646099567413e-02 -1.5468673408031464e-01 -2.2914785891771317e-02 -7.8891247510910034e-02 1.1233470402657986e-02 -1.2313131988048553e-01 -1.1615163087844849e-01 1.5314681455492973e-02 -1.2224324047565460e-01 -5.3025871515274048e-02 -1.3004933297634125e-01 1.6922531649470329e-02 1.6402302682399750e-01 -1.6792421042919159e-01 -7.7770277857780457e-04 -1.0987899266183376e-02 -6.4136944711208344e-02 -3.3979448676109314e-01 7.6716676354408264e-02 7.5834378367289901e-04 -1.8680423498153687e-02 -5.3522825241088867e-02 2.0187981426715851e-03 1.1302686296403408e-02 -1.5427136793732643e-02 -6.3901126384735107e-02 -9.2820608988404274e-03 -3.0794698745012283e-02 -1.0191971668973565e-03 -5.3133629262447357e-02 -5.1213514059782028e-02 6.9461534731090069e-03 -4.9499079585075378e-02 -2.3671187460422516e-02 -5.7681962847709656e-02 8.0163851380348206e-03 6.8796873092651367e-02 -7.0589706301689148e-02 -2.0376119937282056e-04 -2.6585878804326057e-03 -2.6620170101523399e-02 -1.3880969583988190e-01 6.7481003701686859e-02 1.1061043478548527e-02 -1.3096990995109081e-02 -4.2134959250688553e-02 -9.5344410510733724e-05 1.3212591409683228e-02 -9.3282917514443398e-03 -5.1339983940124512e-02 -7.8320335596799850e-03 -2.2465294227004051e-02 -1.3319868594408035e-02 -4.0636125952005386e-02 -3.9715748280286789e-02 5.7514063082635403e-03 -3.7786222994327545e-02 -1.5799028798937798e-02 -4.4886905699968338e-02 7.6732714660465717e-03 5.5901288986206055e-02 -5.7498693466186523e-02 1.6282917931675911e-03 -1.0447172680869699e-03 -2.1692743524909019e-02 -1.1358543485403061e-01 -1.0288374871015549e-01 1.2181038036942482e-02 2.5348287075757980e-02 7.1016497910022736e-02 -4.2953230440616608e-03 -1.4303858391940594e-02 2.0118763670325279e-02 8.3920061588287354e-02 1.2561922892928123e-02 4.0760777890682220e-02 -1.8447365611791611e-02 7.1224063634872437e-02 6.7137770354747772e-02 -7.9899290576577187e-03 6.5649218857288361e-02 3.1235726550221443e-02 7.5802363455295563e-02 -9.8512629047036171e-03 -9.3771815299987793e-02 9.0828448534011841e-02 9.4465311849489808e-04 6.4491075463593006e-03 3.1833980232477188e-02 1.8342123925685883e-01 -6.0970548540353775e-02 -8.1612002104520798e-03 1.1642709374427795e-02 3.9036773145198822e-02 -1.1719817994162440e-03 -1.1762644164264202e-02 9.7764106467366219e-03 4.7055892646312714e-02 7.1817678399384022e-03 2.0548865199089050e-02 9.4895064830780029e-03 3.7847146391868591e-02 3.6777883768081665e-02 -5.2662063390016556e-03 3.4792922437191010e-02 1.5412318520247936e-02 4.2066920548677444e-02 -6.8196295760571957e-03 -5.0897102802991867e-02 5.2355468273162842e-02 -1.7961265984922647e-03 6.4331124303862453e-04 2.0091667771339417e-02 1.0350239276885986e-01 -1.0678990185260773e-01 -1.1710458435118198e-02 2.7530550956726074e-02 7.5605757534503937e-02 1.1836887279059738e-04 -1.5519248321652412e-02 2.3248821496963501e-02 9.2848226428031921e-02 1.3377117924392223e-02 4.6805877238512039e-02 1.3849038630723953e-02 7.3849000036716461e-02 7.1151182055473328e-02 -9.6204830333590508e-03 7.2603277862071991e-02 3.3542212098836899e-02 8.0365777015686035e-02 -1.1032204143702984e-02 -9.2784605920314789e-02 1.0257274657487869e-01 6.1210722196847200e-04 3.4564733505249023e-03 4.1830092668533325e-02 2.0049865543842316e-01 -7.8766293823719025e-02 -5.8598476462066174e-03 1.7382295802235603e-02 5.2618026733398438e-02 -1.4941432746127248e-03 -1.3067164458334446e-02 1.4456230215728283e-02 6.3204579055309296e-02 9.4770146533846855e-03 2.9307186603546143e-02 5.6656748056411743e-03 5.1628082990646362e-02 4.9169238656759262e-02 -6.1371135525405407e-03 4.8141989856958389e-02 2.2050103172659874e-02 5.6479096412658691e-02 -8.3509711548686028e-03 -6.7079819738864899e-02 6.9719605147838593e-02 -1.5423899749293923e-03 2.4771541357040405e-03 2.6389621198177338e-02 1.3830861449241638e-01 -1.4956212043762207e-01 -3.7315353751182556e-02 3.0914157629013062e-02 9.3384943902492523e-02 3.2894087489694357e-03 -2.8948847204446793e-02 2.4508021771907806e-02 1.1892867833375931e-01 1.8505839630961418e-02 5.7625297456979752e-02 4.4847425073385239e-02 8.6771078407764435e-02 8.4984347224235535e-02 -1.2660260312259197e-02 9.0785309672355652e-02 3.3624537289142609e-02 9.3991667032241821e-02 -1.6202706843614578e-02 -1.2083074450492859e-01 1.3297741115093231e-01 5.6534638861194253e-04 9.2926429351791739e-04 5.7123214006423950e-02 2.6541221141815186e-01 -1.4988245069980621e-01 -5.3040562197566032e-03 3.1603068113327026e-02 9.5376543700695038e-02 -1.6855226131156087e-03 -2.6852387934923172e-02 2.5607498362660408e-02 1.1753491312265396e-01 1.7805660143494606e-02 5.6806612759828568e-02 1.6087623080238700e-03 9.1666184365749359e-02 8.7404005229473114e-02 -1.2222888879477978e-02 9.0643033385276794e-02 3.6671359091997147e-02 9.7959943115711212e-02 -1.3869891874492168e-02 -1.2792380154132843e-01 1.2736691534519196e-01 4.2152719106525183e-04 6.4900978468358517e-03 4.8315443098545074e-02 2.6121386885643005e-01 1.6538460552692413e-01 -6.2142452225089073e-03 -4.1684832423925400e-02 -1.1272767931222916e-01 1.9137010676786304e-03 2.3790832608938217e-02 -3.4117095172405243e-02 -1.3934491574764252e-01 -2.0859891548752785e-02 -7.0930898189544678e-02 1.4809950254857540e-02 -1.1264176666736603e-01 -1.0583281517028809e-01 1.3814089819788933e-02 -1.1028363555669785e-01 -4.9569867551326752e-02 -1.1870215833187103e-01 1.5208565630018711e-02 1.4715176820755005e-01 -1.5132547914981842e-01 -4.1055158362723887e-04 -1.0281696915626526e-02 -5.7815443724393845e-02 -3.0415362119674683e-01 1.1021433025598526e-01 -1.0508048580959439e-04 -2.6065519079566002e-02 -7.5402937829494476e-02 2.8408924117684364e-03 1.7134785652160645e-02 -2.1862119436264038e-02 -8.9458085596561432e-02 -1.4304388314485550e-02 -4.3429493904113770e-02 2.3720511235296726e-03 -7.3019258677959442e-02 -6.9282427430152893e-02 9.1623384505510330e-03 -6.9521263241767883e-02 -3.1320847570896149e-02 -7.7829279005527496e-02 1.0355390608310699e-02 9.5880188047885895e-02 -9.8028317093849182e-02 2.9061167151667178e-04 -4.5202923938632011e-03 -3.6846816539764404e-02 -1.9677701592445374e-01 -1.6789373755455017e-01 -7.4719727039337158e-02 3.7280477583408356e-02 1.0750564932823181e-01 9.4176474958658218e-03 -3.3181041479110718e-02 3.1077807769179344e-02 1.4207126200199127e-01 2.2006744518876076e-02 7.2712182998657227e-02 9.0134866535663605e-02 9.4683930277824402e-02 9.3884669244289398e-02 -1.5116874128580093e-02 1.0915480554103851e-01 3.7248525768518448e-02 1.0280240327119827e-01 -1.9071381539106369e-02 -1.2254783511161804e-01 1.6107527911663055e-01 -1.3166259741410613e-03 -3.2648716587573290e-03 7.9418808221817017e-02 3.1444850564002991e-01 1.4064808189868927e-01 9.6850255504250526e-03 -3.1689550727605820e-02 -9.2997647821903229e-02 1.0761562734842300e-03 2.3166988044977188e-02 -2.6331445202231407e-02 -1.1473735421895981e-01 -1.7373148351907730e-02 -5.6466918438673019e-02 -8.9463880285620689e-03 -8.9205764234066010e-02 -8.5963435471057892e-02 1.2144860811531544e-02 -8.8916540145874023e-02 -3.7754494696855545e-02 -9.6178069710731506e-02 1.3676320202648640e-02 1.2064572423696518e-01 -1.2594749033451080e-01 -9.6650142222642899e-04 -4.6682516112923622e-03 -4.9658384174108505e-02 -2.5236257910728455e-01 9.3955606222152710e-02 -2.0660428330302238e-02 -2.6979157701134682e-02 -7.0097677409648895e-02 5.4128076881170273e-03 1.0404665954411030e-02 -2.2814821451902390e-02 -8.1617936491966248e-02 -1.1919155716896057e-02 -4.1200984269380569e-02 3.0347544699907303e-02 -7.1042969822883606e-02 -6.6777572035789490e-02 8.3798570558428764e-03 -6.4940713346004486e-02 -3.3409010618925095e-02 -7.5795873999595642e-02 9.1812377795577049e-03 8.8709868490695953e-02 -8.7368585169315338e-02 9.2619063798338175e-04 -8.5472445935010910e-03 -3.0338749289512634e-02 -1.7482121288776398e-01 1.0527564212679863e-02 -4.2908894829452038e-03 -2.6448050048202276e-03 -7.3878201656043530e-03 9.6832937560975552e-04 1.3232250930741429e-03 -1.8720127409324050e-03 -7.8978473320603371e-03 -1.0801845928654075e-03 -3.3853102941066027e-03 5.9770527295768261e-03 -7.7980626374483109e-03 -7.3036910034716129e-03 9.0719980653375387e-04 -6.0308785177767277e-03 -3.5242415033280849e-03 -8.2628270611166954e-03 9.0625073062255979e-04 1.0409211739897728e-02 -8.4013417363166809e-03 -1.2276555935386568e-05 -1.1678563896566629e-03 -2.1911237854510546e-03 -1.7228871583938599e-02 -1.7727716267108917e-01 2.9406880494207144e-03 4.0721703320741653e-02 1.1597885936498642e-01 -2.5139893405139446e-03 -2.9498899355530739e-02 3.3744294196367264e-02 1.4267620444297791e-01 2.2460920736193657e-02 7.1177370846271515e-02 -1.0657224804162979e-02 1.1309330910444260e-01 1.0626582801342010e-01 -1.3887158595025539e-02 1.1187987774610519e-01 4.6754140406847000e-02 1.1890729516744614e-01 -1.6305377706885338e-02 -1.5281651914119720e-01 1.5502952039241791e-01 -5.8651005383580923e-04 8.0089569091796875e-03 5.8865495026111603e-02 3.1600549817085266e-01 5.9379640966653824e-02 -3.6591729149222374e-03 -1.5036206692457199e-02 -4.2131569236516953e-02 2.2495449520647526e-03 8.2461731508374214e-03 -1.2077354826033115e-02 -4.9487594515085220e-02 -6.8031102418899536e-03 -2.3333193734288216e-02 5.1268720999360085e-03 -4.2285006493330002e-02 -4.0720656514167786e-02 5.5958530865609646e-03 -3.8018837571144104e-02 -1.9023373723030090e-02 -4.6024959534406662e-02 6.2908851541578770e-03 5.4612968116998672e-02 -5.4061539471149445e-02 -1.0856878361664712e-05 -3.2606071326881647e-03 -1.9286496564745903e-02 -1.0632164031267166e-01 9.3090578913688660e-02 -2.8063787147402763e-02 -2.2233897820115089e-02 -6.3439890742301941e-02 6.6021648235619068e-03 1.3153220526874065e-02 -1.7624648287892342e-02 -7.2963774204254150e-02 -1.0849191807210445e-02 -3.4028057008981705e-02 4.0598381310701370e-02 -6.4861401915550232e-02 -6.0751408338546753e-02 7.6236748136579990e-03 -5.6863203644752502e-02 -2.8044803068041801e-02 -6.8221442401409149e-02 7.8880330547690392e-03 8.7511010468006134e-02 -7.6682820916175842e-02 -2.0733087148983032e-04 -9.2290174216032028e-03 -2.2448763251304626e-02 -1.5950086712837219e-01 -1.5276600606739521e-02 5.4449550807476044e-03 4.4259950518608093e-03 1.1424475349485874e-02 -1.3003137428313494e-03 -1.5093071851879358e-03 3.2252923119813204e-03 1.2587971054017544e-02 1.7282633343711495e-03 5.8337599039077759e-03 -7.6782368123531342e-03 1.2168182991445065e-02 1.1268141679465771e-02 -1.2324482668191195e-03 9.8482826724648476e-03 5.7674273848533630e-03 1.2935964390635490e-02 -1.5559545718133450e-03 -1.5268909744918346e-02 1.3584787957370281e-02 -2.8354008099995553e-04 1.4493328053504229e-03 3.8894005119800568e-03 2.6761926710605621e-02 -2.1343411505222321e-01 -2.9303543269634247e-02 4.5582767575979233e-02 1.3480050861835480e-01 3.8628405891358852e-03 -4.0088355541229248e-02 3.8347665220499039e-02 1.7058104276657104e-01 2.7097847312688828e-02 8.7854057550430298e-02 3.2843712717294693e-02 1.2520699203014374e-01 1.1927862465381622e-01 -1.7095105722546577e-02 1.3383196294307709e-01 4.9109488725662231e-02 1.3140204548835754e-01 -1.8580568954348564e-02 -1.7443355917930603e-01 1.8838402628898621e-01 6.1814277432858944e-04 5.0072274170815945e-03 7.9521842300891876e-02 3.8348829746246338e-01 -4.2199008166790009e-02 1.1369282146915793e-03 9.4224847853183746e-03 2.8328496962785721e-02 -1.3149481965228915e-03 -6.6838739439845085e-03 7.2987186722457409e-03 3.4082923084497452e-02 4.2315740138292313e-03 1.5260308980941772e-02 -1.8160301260650158e-03 2.8729990124702454e-02 2.8075437992811203e-02 -3.8179846014827490e-03 2.5404712185263634e-02 1.2461110018193722e-02 3.1764965504407883e-02 -4.9223145470023155e-03 -3.8345519453287125e-02 3.7051912397146225e-02 -6.1633478617295623e-04 2.1683915983885527e-03 1.3017570599913597e-02 7.2975367307662964e-02 1.4718481898307800e-01 -6.3169755041599274e-02 -3.2866857945919037e-02 -9.4699941575527191e-02 1.0755559429526329e-02 2.0825747400522232e-02 -2.7794359251856804e-02 -1.1111051589250565e-01 -2.0526535809040070e-02 -5.7640772312879562e-02 8.5675939917564392e-02 -9.4815880060195923e-02 -9.0585738420486450e-02 1.2975006364285946e-02 -9.1288343071937561e-02 -3.8743257522583008e-02 -9.8523780703544617e-02 1.0263040661811829e-02 1.4008490741252899e-01 -1.1731790006160736e-01 -4.6273800544440746e-03 -1.8547844141721725e-02 -3.5713061690330505e-02 -2.5468438863754272e-01 -1.4290292561054230e-01 2.9024273157119751e-02 3.5450968891382217e-02 9.7463764250278473e-02 -6.1565847136080265e-03 -1.9845137372612953e-02 2.9484078288078308e-02 1.1602613329887390e-01 1.8518593162298203e-02 5.8670155704021454e-02 -4.4155254960060120e-02 9.7417473793029785e-02 9.1401442885398865e-02 -1.2067431584000587e-02 9.2457957565784454e-02 4.1873168200254440e-02 1.0256689041852951e-01 -1.3205529190599918e-02 -1.3058415055274963e-01 1.2425842881202698e-01 1.3207865413278341e-04 1.3335422612726688e-02 4.2826972901821136e-02 2.5617361068725586e-01 8.2072399556636810e-02 -1.9671004265546799e-02 -1.9681531935930252e-02 -5.6341692805290222e-02 5.3607667796313763e-03 1.1312595568597317e-02 -1.5387957915663719e-02 -6.4453966915607452e-02 -9.7954012453556061e-03 -3.0287772417068481e-02 2.8211079537868500e-02 -5.7503543794155121e-02 -5.4156940430402756e-02 6.2261102721095085e-03 -5.0278171896934509e-02 -2.4932112544775009e-02 -6.0859024524688721e-02 7.1455510333180428e-03 7.6767459511756897e-02 -6.9071196019649506e-02 -6.1621132772415876e-04 -6.3716969452798367e-03 -2.1316623315215111e-02 -1.4133071899414062e-01 -1.2148909270763397e-01 2.9311399906873703e-02 3.3889222890138626e-02 8.9216209948062897e-02 -6.9740111939609051e-03 -1.3987159356474876e-02 2.9187843203544617e-02 1.0485868155956268e-01 1.5872314572334290e-02 5.3763061761856079e-02 -4.3790582567453384e-02 8.9704655110836029e-02 8.4015563130378723e-02 -1.0473348200321198e-02 8.4119550883769989e-02 4.1022121906280518e-02 9.5189720392227173e-02 -1.1558973230421543e-02 -1.1319130659103394e-01 1.1158472299575806e-01 -6.9071666803210974e-04 1.0781076736748219e-02 3.7968505173921585e-02 2.2591294348239899e-01 8.8137947022914886e-02 -1.5423282980918884e-02 -2.0468607544898987e-02 -5.9236563742160797e-02 3.9354874752461910e-03 1.3180312700569630e-02 -1.5758162364363670e-02 -6.9219626486301422e-02 -1.0153163224458694e-02 -3.2778922468423843e-02 2.1395983174443245e-02 -6.0138024389743805e-02 -5.7090781629085541e-02 7.7576208859682083e-03 -5.3834732621908188e-02 -2.5700559839606285e-02 -6.3946291804313660e-02 7.9497992992401123e-03 8.1658892333507538e-02 -7.4461117386817932e-02 -1.0085559915751219e-03 -7.1857119910418987e-03 -2.4228412657976151e-02 -1.5237100422382355e-01 1.5784972906112671e-01 8.3928681910037994e-02 -3.3899266272783279e-02 -1.0043413937091827e-01 -9.6275573596358299e-03 3.1704563647508621e-02 -2.9152413830161095e-02 -1.3327597081661224e-01 -2.0675625652074814e-02 -6.7666992545127869e-02 -1.0171032696962357e-01 -8.7251149117946625e-02 -8.5750229656696320e-02 1.3505630195140839e-02 -1.0168489813804626e-01 -3.3293195068836212e-02 -9.5625974237918854e-02 1.9598226994276047e-02 1.1145073175430298e-01 -1.5216848254203796e-01 2.1290937438607216e-03 6.8341013975441456e-03 -7.6877146959304810e-02 -2.9533264040946960e-01 6.3255876302719116e-02 -3.3276355825364590e-03 -1.6910668462514877e-02 -4.6315673738718033e-02 2.3451759479939938e-03 7.9696485772728920e-03 -1.3855732046067715e-02 -5.4259188473224640e-02 -7.6995259150862694e-03 -2.6554327458143234e-02 4.8467344604432583e-03 -4.6019401401281357e-02 -4.4317126274108887e-02 5.3960606455802917e-03 -4.2306866496801376e-02 -2.1241240203380585e-02 -5.0160400569438934e-02 6.9674169644713402e-03 5.7839315384626389e-02 -5.9359788894653320e-02 5.6544505059719086e-04 -3.1349717173725367e-03 -2.2071106359362602e-02 -1.1640847474336624e-01 1.0087662190198898e-01 -1.2344742193818092e-02 -2.0779997110366821e-02 -6.4964421093463898e-02 4.5987530611455441e-03 1.7009122297167778e-02 -1.6821037977933884e-02 -7.6534159481525421e-02 -1.1603872291743755e-02 -3.5189229995012283e-02 1.9360760226845741e-02 -6.4597368240356445e-02 -6.1632715165615082e-02 8.0953063443303108e-03 -5.8726768940687180e-02 -2.6424918323755264e-02 -6.9460362195968628e-02 9.7832167521119118e-03 9.0184822678565979e-02 -8.2348167896270752e-02 7.6894459198229015e-05 -6.3599310815334320e-03 -2.6951910927891731e-02 -1.7047287523746490e-01 1.3399194180965424e-01 2.2575307637453079e-02 -2.9550755396485329e-02 -8.6064793169498444e-02 -1.5465145697817206e-03 2.4470308795571327e-02 -2.3307781666517258e-02 -1.0876414179801941e-01 -1.6470948234200478e-02 -5.2432697266340256e-02 -2.5515953078866005e-02 -8.2286909222602844e-02 -7.9767256975173950e-02 1.1314245872199535e-02 -8.3075813949108124e-02 -3.3541951328516006e-02 -8.8310211896896362e-02 1.3651004992425442e-02 1.1105346679687500e-01 -1.2044528871774673e-01 4.3513829587027431e-04 -2.6837992481887341e-03 -4.9644727259874344e-02 -2.3906533420085907e-01 -1.4809021353721619e-01 -3.3705637324601412e-03 3.5631444305181503e-02 1.0081314295530319e-01 -2.0631852094084024e-03 -2.2878775373101234e-02 2.9899692162871361e-02 1.2224307656288147e-01 1.9488874822854996e-02 6.1424072831869125e-02 3.2633694354444742e-04 9.7411364316940308e-02 9.1933600604534149e-02 -1.1903363279998302e-02 9.6085563302040100e-02 4.1819825768470764e-02 1.0367266833782196e-01 -1.3605170883238316e-02 -1.2826699018478394e-01 1.3399386405944824e-01 -3.6223206552676857e-04 5.8934967964887619e-03 5.1877718418836594e-02 2.6926156878471375e-01 5.8899678289890289e-02 -2.8270552866160870e-03 -1.3166725635528564e-02 -3.9931781589984894e-02 2.3330249823629856e-03 9.2224478721618652e-03 -1.0481560602784157e-02 -4.7063432633876801e-02 -6.3597145490348339e-03 -2.1283531561493874e-02 5.3680138662457466e-03 -3.9971433579921722e-02 -3.8598887622356415e-02 4.9004759639501572e-03 -3.5393193364143372e-02 -1.7367370426654816e-02 -4.4018689543008804e-02 6.3505815342068672e-03 5.3149282932281494e-02 -5.1221825182437897e-02 1.5325811691582203e-03 -3.2739997841417789e-03 -1.7885614186525345e-02 -1.0166587680578232e-01 9.2947505414485931e-02 8.9089218527078629e-03 -2.3765139281749725e-02 -6.6515378654003143e-02 1.4567081816494465e-03 1.3124370016157627e-02 -2.0350394770503044e-02 -8.1097342073917389e-02 -1.1491967365145683e-02 -4.0035258978605270e-02 -1.0705148801207542e-02 -6.5038032829761505e-02 -6.2694407999515533e-02 8.2156546413898468e-03 -6.2985487282276154e-02 -2.9934592545032501e-02 -7.0862196385860443e-02 9.3734730035066605e-03 8.1398367881774902e-02 -8.9292325079441071e-02 1.8991253455169499e-05 -2.1976546850055456e-03 -3.5580541938543320e-02 -1.7382588982582092e-01 4.6115733683109283e-02 -1.3894847594201565e-02 -1.5017914585769176e-02 -3.6966189742088318e-02 3.3830611500889063e-03 3.7878607399761677e-03 -1.2603676877915859e-02 -4.2248856276273727e-02 -5.3703337907791138e-03 -2.0936310291290283e-02 2.0197834819555283e-02 -3.8638193160295486e-02 -3.6118093878030777e-02 3.9289230480790138e-03 -3.3438310027122498e-02 -1.9307637587189674e-02 -4.1470479220151901e-02 4.8683979548513889e-03 4.5771472156047821e-02 -4.4854406267404556e-02 1.0348006617277861e-03 -4.7829085960984230e-03 -1.5021534636616707e-02 -8.7718382477760315e-02 3.6678344011306763e-02 -2.9480208177119493e-03 -8.4529519081115723e-03 -2.4878153577446938e-02 1.6947680851444602e-03 5.4657096043229103e-03 -5.9911506250500679e-03 -2.8718605637550354e-02 -3.9692386053502560e-03 -1.2784774415194988e-02 3.9713238365948200e-03 -2.5177480652928352e-02 -2.4352051317691803e-02 3.1293311621993780e-03 -2.1805813536047935e-02 -1.0974152013659477e-02 -2.7351867407560349e-02 3.6981247831135988e-03 3.3534664660692215e-02 -3.1619984656572342e-02 6.0891587054356933e-05 -2.0702318288385868e-03 -1.0624115355312824e-02 -6.2647536396980286e-02 -1.1594706773757935e-01 5.2273934707045555e-03 2.9695136472582817e-02 8.1069141626358032e-02 -3.9336862973868847e-03 -1.6821706667542458e-02 2.4604965001344681e-02 9.6981301903724670e-02 1.4947206713259220e-02 4.7777801752090454e-02 -1.1090748943388462e-02 8.0078177154064178e-02 7.5495310127735138e-02 -9.0358909219503403e-03 7.5907811522483826e-02 3.5509031265974045e-02 8.5375934839248657e-02 -1.1492083780467510e-02 -1.0180407762527466e-01 1.0549733787775040e-01 -1.5715253539383411e-03 5.5396114476025105e-03 3.9275031536817551e-02 2.1059720218181610e-01 -6.0382243245840073e-02 -1.0462583974003792e-02 1.3948002830147743e-02 4.1275855153799057e-02 -3.2273703254759312e-04 -1.0193544439971447e-02 1.0972459800541401e-02 5.0331369042396545e-02 7.3038516566157341e-03 2.3371160030364990e-02 1.4112504199147224e-02 3.9784524589776993e-02 3.9663705974817276e-02 -5.7169548235833645e-03 3.7765350192785263e-02 1.7519043758511543e-02 4.4386718422174454e-02 -6.6076987423002720e-03 -5.1412995904684067e-02 5.5987112224102020e-02 -4.9199035856872797e-05 8.7385193910449743e-04 2.2064136341214180e-02 1.0829731822013855e-01 -7.6333782635629177e-03 -1.3811388052999973e-03 1.3543115928769112e-03 4.6970313414931297e-03 -6.6592234361451119e-05 -1.5719773946329951e-03 9.0578198432922363e-04 5.5612893775105476e-03 8.6526339873671532e-04 2.3214977700263262e-03 1.9675528164952993e-03 4.6320823021233082e-03 4.4196527451276779e-03 -7.5045676203444600e-04 4.0705744177103043e-03 1.8238807097077370e-03 5.1438594236969948e-03 -9.1622938634827733e-04 -6.1164242215454578e-03 6.4580938778817654e-03 -2.2216382785700262e-04 2.6735753635875881e-05 2.4016692768782377e-03 1.2441300787031651e-02 1.3117809593677521e-01 1.6015896573662758e-02 -3.0858222395181656e-02 -8.6678095161914825e-02 -7.9432869097217917e-04 2.2127883508801460e-02 -2.4275770410895348e-02 -1.0772151499986649e-01 -1.6594843938946724e-02 -5.2805997431278229e-02 -1.7536316066980362e-02 -8.3475343883037567e-02 -8.0918550491333008e-02 1.1674810200929642e-02 -8.3318807184696198e-02 -3.5337958484888077e-02 -8.9549906551837921e-02 1.3097441755235195e-02 1.1058939993381500e-01 -1.1928714811801910e-01 4.4302910100668669e-04 -3.9278473705053329e-03 -4.8319719731807709e-02 -2.3655819892883301e-01 1.6242969036102295e-01 -1.7493857070803642e-02 -3.7556111812591553e-02 -1.0721883177757263e-01 4.8189153894782066e-03 2.5810459628701210e-02 -3.1094979494810104e-02 -1.2907958030700684e-01 -2.0611843094229698e-02 -6.4914301037788391e-02 2.8276022523641586e-02 -1.0488407313823700e-01 -9.9352434277534485e-02 1.3381063938140869e-02 -1.0232439637184143e-01 -4.4094402343034744e-02 -1.1068365722894669e-01 1.3587394729256630e-02 1.4382298290729523e-01 -1.3930229842662811e-01 -6.4147642115131021e-04 -1.0594465769827366e-02 -5.0164237618446350e-02 -2.8780466318130493e-01 -1.6196314245462418e-02 3.3417169470340014e-03 3.0883268918842077e-03 1.0162722319364548e-02 -9.7800686489790678e-04 -2.6927874423563480e-03 2.1328884176909924e-03 1.1840935796499252e-02 1.5625344822183251e-03 4.7367564402520657e-03 -4.9618030898272991e-03 1.0591263882815838e-02 1.0482712648808956e-02 -1.5446789329871535e-03 8.6099905893206596e-03 4.5241382904350758e-03 1.1861691251397133e-02 -1.9264308502897620e-03 -1.5089466236531734e-02 1.2734837830066681e-02 -2.2747345792595297e-04 1.2567079393193126e-03 3.6478375550359488e-03 2.5806806981563568e-02 -4.8874993808567524e-03 3.6741730291396379e-03 8.8602706091478467e-04 2.9902255628257990e-03 -8.5416226647794247e-04 -7.6308666029945016e-04 4.2305703391321003e-04 2.8303526341915131e-03 4.1835135198198259e-04 8.2718388875946403e-04 -5.3016929887235165e-03 3.2088924199342728e-03 2.9871687293052673e-03 -3.3469471964053810e-04 2.0129070617258549e-03 1.1313445866107941e-03 3.3147276844829321e-03 -3.7656788481399417e-04 -5.0341808237135410e-03 2.8039149474352598e-03 6.0744961956515908e-05 7.8164227306842804e-04 -1.9130391592625529e-05 6.6228671930730343e-03 1.1803722381591797e-01 1.8380284309387207e-02 -2.7169909328222275e-02 -7.8603193163871765e-02 -6.0487841255962849e-04 2.0294113084673882e-02 -2.2267788648605347e-02 -9.7708240151405334e-02 -1.4477663673460484e-02 -4.7150835394859314e-02 -2.0201481878757477e-02 -7.5894698500633240e-02 -7.2060219943523407e-02 9.7102522850036621e-03 -7.4589259922504425e-02 -3.2042648643255234e-02 -8.1704363226890564e-02 1.2704961001873016e-02 9.8371282219886780e-02 -1.0801085829734802e-01 1.2961905449628830e-03 -2.4317731149494648e-03 -4.4221442192792892e-02 -2.1300153434276581e-01 -9.2812843620777130e-02 3.1342569738626480e-02 2.0485648885369301e-02 6.1027906835079193e-02 -7.2571062482893467e-03 -1.3320784084498882e-02 1.5581155195832253e-02 6.8565562367439270e-02 1.1328116990625858e-02 3.1723614782094955e-02 -4.3462265282869339e-02 6.2349885702133179e-02 5.8658037334680557e-02 -7.3440717533230782e-03 5.3873401135206223e-02 2.5798577815294266e-02 6.5458260476589203e-02 -7.6195318251848221e-03 -8.7467692792415619e-02 7.2989240288734436e-02 1.2311423197388649e-03 8.9467773213982582e-03 2.0238282158970833e-02 1.5403202176094055e-01 -5.6242033839225769e-02 6.7082291934639215e-04 1.3601218350231647e-02 3.9524629712104797e-02 -2.0527201704680920e-03 -8.3669908344745636e-03 1.1492465622723103e-02 4.6936180442571640e-02 6.5171509049832821e-03 2.1958259865641594e-02 -2.4447855539619923e-03 3.9536979049444199e-02 3.7713814526796341e-02 -4.9551259726285934e-03 3.5928830504417419e-02 1.8022539094090462e-02 4.3527938425540924e-02 -6.0130003839731216e-03 -5.0085365772247314e-02 5.1370125263929367e-02 -1.3582275714725256e-03 2.2438871674239635e-03 1.8779836595058441e-02 1.0074109584093094e-01 -3.7895973771810532e-02 6.0934438370168209e-03 8.8801197707653046e-03 2.6130873709917068e-02 -1.8148081144317985e-03 -5.4895454086363316e-03 6.5880031324923038e-03 2.9869310557842255e-02 3.9769676513969898e-03 1.3434362597763538e-02 -8.4025952965021133e-03 2.6748383417725563e-02 2.5504510849714279e-02 -3.2578709069639444e-03 2.2729529067873955e-02 1.1563565582036972e-02 2.8881896287202835e-02 -3.6992805544286966e-03 -3.5500179976224899e-02 3.2379701733589172e-02 2.0341666822787374e-04 2.4936224799603224e-03 1.0296723805367947e-02 6.4844727516174316e-02 -9.3008102849125862e-03 3.8095834315754473e-04 1.3402765616774559e-03 5.3444537334144115e-03 -5.3076969925314188e-04 -1.8535741837695241e-03 8.1542838597670197e-04 6.0660867020487785e-03 8.5177615983411670e-04 2.1209176629781723e-03 -8.5108319763094187e-04 5.3104781545698643e-03 5.1380442455410957e-03 -6.4828002359718084e-04 4.2994739487767220e-03 1.9353773677721620e-03 6.0443338006734848e-03 -1.0090717114508152e-03 -7.8710978850722313e-03 6.8113547749817371e-03 -4.0657326462678611e-04 2.5956486933864653e-04 2.0036832429468632e-03 1.3994642533361912e-02 1.2740290164947510e-01 -6.1390013433992863e-03 -2.8824361041188240e-02 -8.3513446152210236e-02 2.9073897749185562e-03 2.0790357142686844e-02 -2.2755535319447517e-02 -1.0169088840484619e-01 -1.5636114403605461e-02 -4.9326594918966293e-02 1.0839380323886871e-02 -8.2090809941291809e-02 -7.8848794102668762e-02 1.1087764054536819e-02 -7.8831084072589874e-02 -3.4812565892934799e-02 -8.8082179427146912e-02 1.2058929540216923e-02 1.1367213726043701e-01 -1.0995611548423767e-01 -9.1984192840754986e-04 -7.9341800883412361e-03 -3.9974633604288101e-02 -2.2399622201919556e-01 -4.8477392643690109e-02 -1.7609300557523966e-03 1.1272415518760681e-02 3.3986095339059830e-02 -1.7408196581527591e-03 -7.5111323967576027e-03 9.2867100611329079e-03 4.0257025510072708e-02 5.4446877911686897e-03 1.8581673502922058e-02 1.7240099841728806e-03 3.3395424485206604e-02 3.2116319984197617e-02 -4.0823468007147312e-03 3.0386867001652718e-02 1.4881059527397156e-02 3.6757752299308777e-02 -5.3457091562449932e-03 -4.2469527572393417e-02 4.3891750276088715e-02 -6.6001847153529525e-04 1.4861823292449117e-03 1.6214888542890549e-02 8.6459718644618988e-02 -1.3711723685264587e-01 2.8152992948889732e-02 3.2279357314109802e-02 9.1121464967727661e-02 -5.7064322754740715e-03 -2.0175222307443619e-02 2.6477830484509468e-02 1.0931608825922012e-01 1.7625516280531883e-02 5.4101694375276566e-02 -4.1887059807777405e-02 9.1842360794544220e-02 8.6420230567455292e-02 -1.1308411136269569e-02 8.6359821259975433e-02 3.9233345538377762e-02 9.6692070364952087e-02 -1.2332652695477009e-02 -1.2612915039062500e-01 1.1691653728485107e-01 1.3015925651416183e-03 1.2094081379473209e-02 3.9381451904773712e-02 2.4118532240390778e-01 2.9476215131580830e-03 2.2773756645619869e-03 -9.0253131929785013e-04 -2.4868156760931015e-03 -2.6099995011463761e-04 4.1246716864407063e-04 -1.0458751348778605e-03 -3.3763975370675325e-03 -5.1333796000108123e-04 -1.8041989533230662e-03 -3.1547974795103073e-03 -2.4313405156135559e-03 -2.3181689903140068e-03 3.2109091989696026e-04 -2.5817500427365303e-03 -1.2606838718056679e-03 -2.6383970398455858e-03 4.0737856761552393e-04 2.3060503881424665e-03 -3.8392900023609400e-03 1.2719862752419431e-05 3.4179157228209078e-04 -2.0146102178841829e-03 -6.8398034200072289e-03 -5.2175439894199371e-02 2.5571032892912626e-05 1.0904279537498951e-02 3.4391429275274277e-02 -1.6524720704182982e-03 -8.8551929220557213e-03 8.3644259721040726e-03 4.0871113538742065e-02 5.6514525786042213e-03 1.7909497022628784e-02 -1.0393685661256313e-03 3.4187518060207367e-02 3.3472783863544464e-02 -4.5282165519893169e-03 3.0252337455749512e-02 1.4596421271562576e-02 3.8150690495967865e-02 -6.0104834847152233e-03 -4.6654500067234039e-02 4.4683914631605148e-02 -9.4456510851159692e-04 2.5095392484217882e-03 1.5536168590188026e-02 8.8561072945594788e-02 -1.4561274647712708e-01 5.6491014547646046e-03 3.3533766865730286e-02 9.5838926732540131e-02 -2.8451757971197367e-03 -2.3268802091479301e-02 2.6821387931704521e-02 1.1658694595098495e-01 1.8394978716969490e-02 5.7639334350824356e-02 -1.1096288450062275e-02 9.3466587364673615e-02 8.9827813208103180e-02 -1.2424693442881107e-02 9.1463252902030945e-02 3.9215497672557831e-02 9.9744871258735657e-02 -1.3229215517640114e-02 -1.2866176664829254e-01 1.2689271569252014e-01 1.1873557232320309e-03 7.8001385554671288e-03 4.6612437814474106e-02 2.5831192731857300e-01 -1.6194900870323181e-01 -1.0734050301834941e-03 3.6957420408725739e-02 1.0565704852342606e-01 -1.0558462236076593e-03 -2.7530990540981293e-02 3.0370377004146576e-02 1.3058026134967804e-01 1.9810345023870468e-02 6.4997240900993347e-02 -4.0880264714360237e-03 1.0277585685253143e-01 9.7546458244323730e-02 -1.3295477256178856e-02 1.0190015286207199e-01 4.2680755257606506e-02 1.0886796563863754e-01 -1.5124642290174961e-02 -1.3982942700386047e-01 1.4184956252574921e-01 -3.5065098199993372e-04 8.4980186074972153e-03 5.4486893117427826e-02 2.8874558210372925e-01 -1.5645444393157959e-01 5.2491616457700729e-02 3.3961050212383270e-02 9.8933137953281403e-02 -8.6416583508253098e-03 -2.3496923968195915e-02 2.7597535401582718e-02 1.1733783781528473e-01 2.0632490515708923e-02 5.9207074344158173e-02 -7.3212511837482452e-02 1.0014802217483521e-01 9.4444558024406433e-02 -1.2297816574573517e-02 9.4864547252655029e-02 4.0542237460613251e-02 1.0312938690185547e-01 -1.0663910768926144e-02 -1.4802075922489166e-01 1.2406551837921143e-01 4.3344623409211636e-03 1.8940288573503494e-02 3.7976812571287155e-02 2.6762872934341431e-01 -1.1868713051080704e-01 1.5908097848296165e-02 3.0247047543525696e-02 8.2959666848182678e-02 -5.5159609764814377e-03 -1.6976123675704002e-02 2.5163609534502029e-02 9.8011828958988190e-02 1.5089129097759724e-02 4.8299815505743027e-02 -2.5589503347873688e-02 8.2476019859313965e-02 7.7413946390151978e-02 -9.4914799556136131e-03 7.7039346098899841e-02 3.6514315754175186e-02 8.7595857679843903e-02 -1.1257749982178211e-02 -1.0655058920383453e-01 1.0547470301389694e-01 -1.2183680664747953e-03 8.0623887479305267e-03 3.7112254649400711e-02 2.1330319344997406e-01 -5.0323780626058578e-02 -3.6459683906286955e-03 1.1236056685447693e-02 3.3877126872539520e-02 -7.1577378548681736e-04 -8.4898043423891068e-03 8.6084241047501564e-03 4.0660094469785690e-02 5.8149383403360844e-03 1.8691174685955048e-02 5.1564089953899384e-03 3.3377297222614288e-02 3.2657053321599960e-02 -4.6020597219467163e-03 3.0670443549752235e-02 1.4470421709120274e-02 3.6988206207752228e-02 -5.3770067170262337e-03 -4.3875649571418762e-02 4.4968456029891968e-02 2.6017523487098515e-04 1.5109471278265119e-03 1.6809653490781784e-02 8.8250249624252319e-02 -1.6882686316967010e-01 6.2237158417701721e-02 4.0283769369125366e-02 1.1260740458965302e-01 -1.0981521569192410e-02 -2.2622536867856979e-02 3.5546842962503433e-02 1.3361048698425293e-01 2.3108653724193573e-02 7.0362910628318787e-02 -8.9792735874652863e-02 1.1269937455654144e-01 1.0578032582998276e-01 -1.3858994469046593e-02 1.0982356220483780e-01 4.7997724264860153e-02 1.1698915809392929e-01 -1.1858562007546425e-02 -1.5807673335075378e-01 1.4049673080444336e-01 2.8130770660936832e-03 2.1103354170918465e-02 4.4922512024641037e-02 3.0051240324974060e-01 -2.2590555250644684e-02 9.3302456662058830e-04 5.3336913697421551e-03 1.5714235603809357e-02 -8.2063738955184817e-04 -3.3010218758136034e-03 4.0973564609885216e-03 1.8261024728417397e-02 2.6357776951044798e-03 8.2528954371809959e-03 -1.1658191215246916e-03 1.5819007530808449e-02 1.5388359315693378e-02 -1.9119118805974722e-03 1.3894629664719105e-02 6.9535356014966965e-03 1.7428601160645485e-02 -2.4756223428994417e-03 -2.0483644679188728e-02 2.0170874893665314e-02 -2.8780891443602741e-04 9.2365074669942260e-04 7.0863971486687660e-03 3.9595089852809906e-02 -8.3001822233200073e-02 1.6295917332172394e-02 1.9226487725973129e-02 5.6218277662992477e-02 -4.7242534346878529e-03 -1.2046676129102707e-02 1.5228132717311382e-02 6.5198242664337158e-02 9.5876092091202736e-03 3.0448345467448235e-02 -2.4206725880503654e-02 5.7301562279462814e-02 5.4430525749921799e-02 -6.7660068161785603e-03 5.0630077719688416e-02 2.5075484067201614e-02 6.1638228595256805e-02 -7.3400465771555901e-03 -7.7073611319065094e-02 6.9763831794261932e-02 -2.5523710064589977e-04 7.1309641934931278e-03 2.2242549806833267e-02 1.4318160712718964e-01 8.0479860305786133e-02 -1.2686582282185555e-02 -1.7704673111438751e-02 -5.2333258092403412e-02 3.4285204019397497e-03 1.3113562017679214e-02 -1.3165747746825218e-02 -6.2096066772937775e-02 -8.8423686102032661e-03 -2.7961244806647301e-02 1.8726764246821404e-02 -5.3368099033832550e-02 -5.0821673125028610e-02 6.9000395014882088e-03 -4.7056585550308228e-02 -2.2270429879426956e-02 -5.7503107935190201e-02 8.1330789253115654e-03 7.4121139943599701e-02 -6.6799491643905640e-02 6.7981524625793099e-04 -6.0597467236220837e-03 -2.1673822775483131e-02 -1.3598173856735229e-01 1.1528011411428452e-01 2.9282178729772568e-02 -2.6088627055287361e-02 -7.7256448566913605e-02 -1.7606791807338595e-03 2.0164040848612785e-02 -2.2174140438437462e-02 -9.6419580280780792e-02 -1.4819410629570484e-02 -4.7042857855558395e-02 -3.6946713924407959e-02 -7.1953348815441132e-02 -6.9602064788341522e-02 1.0244389064610004e-02 -7.3678329586982727e-02 -3.0083347111940384e-02 -7.8685559332370758e-02 1.2436578050255775e-02 9.2996962368488312e-02 -1.0789263993501663e-01 5.7513709180057049e-04 4.8668149975128472e-04 -4.6533003449440002e-02 -2.1102353930473328e-01 -6.2548860907554626e-02 5.8532832190394402e-03 1.4279532246291637e-02 4.2370550334453583e-02 -2.9014574829488993e-03 -9.8605798557400703e-03 1.0961067862808704e-02 4.9638260155916214e-02 6.9057117216289043e-03 2.2139821201562881e-02 -1.0221208445727825e-02 4.2336508631706238e-02 4.0332999080419540e-02 -5.0435033626854420e-03 3.7251733243465424e-02 1.8185159191489220e-02 4.6291548758745193e-02 -6.6480091772973537e-03 -5.6061271578073502e-02 5.3050544112920761e-02 -1.5918961726129055e-03 3.8110199384391308e-03 1.7640601843595505e-02 1.0705313831567764e-01 -1.4060050249099731e-01 -2.1512736380100250e-01 4.3822851032018661e-02 1.0925948619842529e-01 2.4703057482838631e-02 -2.2805089130997658e-02 4.0759935975074768e-02 1.5548229217529297e-01 2.2696947678923607e-02 8.9967414736747742e-02 2.6752042770385742e-01 7.4125550687313080e-02 8.6913608014583588e-02 -2.0966155454516411e-02 1.1977259069681168e-01 3.3928383141756058e-02 9.6096321940422058e-02 -3.1334303319454193e-02 -6.1100512742996216e-02 1.9169120490550995e-01 -1.2681015068665147e-03 -2.7635307982563972e-02 1.2852065265178680e-01 3.3266583085060120e-01 -9.4236679375171661e-02 -2.3086087778210640e-02 1.7704233527183533e-02 5.8283597230911255e-02 1.3605289859697223e-03 -1.9150143489241600e-02 1.4541646465659142e-02 7.3263093829154968e-02 1.0814163833856583e-02 3.2900508493185043e-02 2.7372824028134346e-02 5.5291414260864258e-02 5.4764788597822189e-02 -9.0151056647300720e-03 5.4224573075771332e-02 2.2028956562280655e-02 6.1819791793823242e-02 -1.0234395042061806e-02 -7.6897926628589630e-02 8.1570014357566833e-02 -1.7764329677447677e-03 6.1378761893138289e-04 3.2934907823801041e-02 1.6145212948322296e-01 -1.3273394107818604e-01 3.2567527145147324e-02 2.5307593867182732e-02 8.0087028443813324e-02 -5.9297941625118256e-03 -2.3184562101960182e-02 1.9099555909633636e-02 9.5637261867523193e-02 1.5954095870256424e-02 4.4851243495941162e-02 -4.5370116829872131e-02 8.0915130674839020e-02 7.6611466705799103e-02 -1.0861213319003582e-02 7.4544973671436310e-02 3.1120575964450836e-02 8.4465295076370239e-02 -1.0173664428293705e-02 -1.2300993502140045e-01 1.0157269984483719e-01 3.5307316575199366e-03 1.2908383272588253e-02 3.0729210004210472e-02 2.1825607120990753e-01 4.4080648571252823e-02 -1.6160575672984123e-02 -1.1262542568147182e-02 -3.1538531184196472e-02 4.4087124988436699e-03 5.2249575965106487e-03 -8.7307328358292580e-03 -3.4824054688215256e-02 -4.8588062636554241e-03 -1.5478809364140034e-02 2.3749906569719315e-02 -3.2869696617126465e-02 -3.0754452571272850e-02 3.3098708372563124e-03 -2.6650507003068924e-02 -1.4556909911334515e-02 -3.5031463950872421e-02 4.3094367720186710e-03 4.2629059404134750e-02 -3.6775596439838409e-02 1.1606457410380244e-03 -4.3014087714254856e-03 -1.0133828967809677e-02 -7.4687980115413666e-02 7.0254720747470856e-02 1.2061310932040215e-02 -1.4292282983660698e-02 -4.5374862849712372e-02 5.4095213999971747e-04 1.2966955080628395e-02 -1.0625938884913921e-02 -5.5593665689229965e-02 -7.8908009454607964e-03 -2.4971239268779755e-02 -1.6353677958250046e-02 -4.3152406811714172e-02 -4.3364074081182480e-02 6.8573709577322006e-03 -4.1192971169948578e-02 -1.7811384052038193e-02 -4.8369113355875015e-02 8.1585021689534187e-03 5.9363953769207001e-02 -6.2092665582895279e-02 4.8328298726119101e-04 -5.1385018741711974e-04 -2.4297036230564117e-02 -1.2185108661651611e-01 7.6177291572093964e-02 6.8145669065415859e-03 -1.8468454480171204e-02 -5.2953209728002548e-02 1.2497333809733391e-03 1.1962726712226868e-02 -1.5336694195866585e-02 -6.3972629606723785e-02 -9.3428213149309158e-03 -3.0578585341572762e-02 -7.8965397551655769e-03 -5.1864195615053177e-02 -4.9331005662679672e-02 6.5094893798232079e-03 -4.8882674425840378e-02 -2.2886725142598152e-02 -5.6108824908733368e-02 8.0428607761859894e-03 6.5313950181007385e-02 -7.0416226983070374e-02 1.3955262256786227e-03 -1.8197091994807124e-03 -2.7458183467388153e-02 -1.3822709023952484e-01 1.9814914464950562e-01 1.8675506114959717e-01 -5.8163333684206009e-02 -1.4076825976371765e-01 -2.8807345777750015e-02 3.2752390950918198e-02 -5.1924590021371841e-02 -1.9931194186210632e-01 -3.2639753073453903e-02 -1.2296024709939957e-01 -2.3437732458114624e-01 -1.0406289249658585e-01 -1.1249706149101257e-01 2.2685931995511055e-02 -1.6265316307544708e-01 -4.2911402881145477e-02 -1.1744166165590286e-01 2.9649555683135986e-02 1.1147756129503250e-01 -2.4188576638698578e-01 1.2644445523619652e-03 1.8172625452280045e-02 -1.5598331391811371e-01 -4.4692313671112061e-01 -8.0301985144615173e-02 2.0410160068422556e-03 1.8561022356152534e-02 5.5131867527961731e-02 -2.9465213883668184e-03 -1.2536359019577503e-02 1.5231586992740631e-02 6.4697377383708954e-02 9.9498070776462555e-03 3.0486846342682838e-02 -4.4338903389871120e-03 5.3906891494989395e-02 5.1718428730964661e-02 -6.5866154618561268e-03 4.9721080809831619e-02 2.3221738636493683e-02 5.8395165950059891e-02 -8.0432174727320671e-03 -7.0557713508605957e-02 7.0464700460433960e-02 -4.0394111420027912e-04 3.3139151055365801e-03 2.5055488571524620e-02 1.4145261049270630e-01 1.1383349448442459e-01 -2.8388854116201401e-03 -2.3942654952406883e-02 -7.1448244154453278e-02 1.9320599967613816e-03 2.0203581079840660e-02 -1.7785757780075073e-02 -8.8365525007247925e-02 -1.2670095078647137e-02 -4.0812671184539795e-02 7.6059903949499130e-03 -7.1175135672092438e-02 -6.8380638957023621e-02 9.4726644456386566e-03 -6.6915176808834076e-02 -2.8694495558738708e-02 -7.6759316027164459e-02 1.1581283062696457e-02 1.0001115500926971e-01 -9.5243632793426514e-02 3.3071250072680414e-04 -6.1666145920753479e-03 -3.3680591732263565e-02 -1.9411577284336090e-01 -2.1847538650035858e-02 -4.5636422000825405e-03 5.9995949268341064e-03 1.6770256683230400e-02 -1.9530107965692878e-04 -2.6975148357450962e-03 5.4693319834768772e-03 2.0192572847008705e-02 2.6278530713170767e-03 1.0108218528330326e-02 6.9071343168616295e-03 1.6347987577319145e-02 1.6047609969973564e-02 -2.1785595454275608e-03 1.5781268477439880e-02 8.0799981951713562e-03 1.8286118283867836e-02 -2.5377036072313786e-03 -1.9260071218013763e-02 2.2768210619688034e-02 -1.8840326811186969e-04 -9.4380211521638557e-06 9.6496967598795891e-03 4.2666245251893997e-02 9.7864270210266113e-02 -2.2592451423406601e-02 -2.9075507074594498e-02 -7.3824599385261536e-02 5.4794177412986755e-03 1.0333064012229443e-02 -2.4330608546733856e-02 -8.6063943803310394e-02 -1.2509067542850971e-02 -4.3925676494836807e-02 3.3620379865169525e-02 -7.5395166873931885e-02 -7.0376098155975342e-02 8.1372829154133797e-03 -6.9044329226016998e-02 -3.5433113574981689e-02 -7.9911887645721436e-02 9.4987656921148300e-03 9.2574961483478546e-02 -9.2181719839572906e-02 9.7064743749797344e-04 -9.1400658711791039e-03 -3.1958475708961487e-02 -1.8426498770713806e-01 -5.3914029151201248e-02 8.7064141407608986e-03 1.3904636725783348e-02 3.8618341088294983e-02 -3.1702695414423943e-03 -6.8274070508778095e-03 1.0739321820437908e-02 4.4378474354743958e-02 6.2286104075610638e-03 2.0862866193056107e-02 -1.2091200798749924e-02 3.9378926157951355e-02 3.7177566438913345e-02 -4.1870665736496449e-03 3.4413885325193405e-02 1.7667327076196671e-02 4.2018055915832520e-02 -5.5317552760243416e-03 -5.0111245363950729e-02 4.8133153468370438e-02 1.9358232384547591e-04 3.2392989378422499e-03 1.6220055520534515e-02 9.5690637826919556e-02 -8.0022737383842468e-02 5.0693941302597523e-03 1.8539708107709885e-02 5.4519351571798325e-02 -3.4389907959848642e-03 -1.2248284183442593e-02 1.5581727027893066e-02 6.4584933221340179e-02 9.6877012401819229e-03 3.0321266502141953e-02 -9.5503116026520729e-03 5.4685037583112717e-02 5.2052170038223267e-02 -6.4738350920379162e-03 4.9741439521312714e-02 2.3767912760376930e-02 5.9539891779422760e-02 -8.4064956754446030e-03 -7.1324147284030914e-02 7.0311352610588074e-02 -1.4251482207328081e-03 3.9359866641461849e-03 2.4754092097282410e-02 1.4051431417465210e-01 2.4256277829408646e-02 4.9259100342169404e-04 -6.1238100752234459e-03 -1.7398320138454437e-02 6.3669844530522823e-04 3.3308821730315685e-03 -4.9903849139809608e-03 -2.0599115639925003e-02 -2.7145801577717066e-03 -9.6848653629422188e-03 -8.5053371731191874e-04 -1.7612744122743607e-02 -1.6929985955357552e-02 2.3006661795079708e-03 -1.5869721770286560e-02 -8.0841332674026489e-03 -1.9273726269602776e-02 2.5473884306848049e-03 2.1963693201541901e-02 -2.2711727768182755e-02 -6.5319080022163689e-05 -9.8987470846623182e-04 -8.4038553759455681e-03 -4.4156357645988464e-02 1.1190903931856155e-01 -8.8987639173865318e-03 -2.5766231119632721e-02 -7.4737280607223511e-02 4.0195547044277191e-03 1.7872616648674011e-02 -2.0736591890454292e-02 -8.9322365820407867e-02 -1.3661921955645084e-02 -4.2522959411144257e-02 1.5823360532522202e-02 -7.4290670454502106e-02 -6.9964535534381866e-02 8.5110990330576897e-03 -6.9069959223270416e-02 -3.1584866344928741e-02 -7.9104237258434296e-02 1.0585416108369827e-02 9.8566152155399323e-02 -9.6366845071315765e-02 9.7746611572802067e-04 -6.6205663606524467e-03 -3.3918891102075577e-02 -1.9586436450481415e-01 -1.7718598246574402e-01 1.4612153172492981e-01 4.5596666634082794e-02 1.2295633554458618e-01 -1.9308516755700111e-02 -1.1714507825672626e-02 4.7413874417543411e-02 1.4682070910930634e-01 3.3054843544960022e-02 9.4320490956306458e-02 -1.9106595218181610e-01 1.2114027887582779e-01 1.1734896898269653e-01 -1.9272645935416222e-02 1.3446404039859772e-01 5.3763773292303085e-02 1.2554016709327698e-01 -9.7361588850617409e-03 -1.8005865812301636e-01 1.5527322888374329e-01 1.0188248008489609e-02 4.0597759187221527e-02 5.1543984562158585e-02 3.4689041972160339e-01 -2.3301905393600464e-01 -7.6056361198425293e-02 5.0577379763126373e-02 1.4549475908279419e-01 1.2365564703941345e-02 -4.5000631362199783e-02 4.3906077742576599e-02 1.9433175027370453e-01 3.0389729887247086e-02 1.0577365010976791e-01 9.2148140072822571e-02 1.2877300381660461e-01 1.2391839176416397e-01 -1.9265901297330856e-02 1.5409585833549500e-01 4.9117933958768845e-02 1.3497053086757660e-01 -2.2625997662544250e-02 -1.7718099057674408e-01 2.1832728385925293e-01 5.0281314179301262e-04 -3.0518611310981214e-04 1.0729744285345078e-01 4.3890434503555298e-01 -1.2450780719518661e-01 -3.2635722309350967e-03 3.0839381739497185e-02 8.4519319236278534e-02 -1.0661993874236941e-03 -1.9240394234657288e-02 2.4667713791131973e-02 1.0454382747411728e-01 1.5308723784983158e-02 5.1381107419729233e-02 2.2782084124628454e-04 8.3782359957695007e-02 7.9673409461975098e-02 -1.0640918277204037e-02 8.1240676343441010e-02 3.6665283143520355e-02 8.9650854468345642e-02 -1.2731277383863926e-02 -1.0872728377580643e-01 1.1429125815629959e-01 -3.0125415651127696e-04 5.7862121611833572e-03 4.4754572212696075e-02 2.2707708179950714e-01 -8.9673794806003571e-02 1.3083102181553841e-02 2.2048054262995720e-02 6.3310027122497559e-02 -5.1136603578925133e-03 -1.2431407347321510e-02 1.8411295488476753e-02 7.2226747870445251e-02 1.1688097380101681e-02 3.4855775535106659e-02 -1.9136073067784309e-02 6.2379743903875351e-02 5.8912396430969238e-02 -7.4726999737322330e-03 5.6711889803409576e-02 2.7459677308797836e-02 6.6278263926506042e-02 -8.2821464166045189e-03 -8.1511653959751129e-02 7.8701928257942200e-02 -4.4432992581278086e-05 5.6852754205465317e-03 2.6878310367465019e-02 1.5859457850456238e-01 -3.6345131695270538e-02 3.9190831594169140e-03 1.1052469722926617e-02 2.8504788875579834e-02 -1.8052195664495230e-03 -3.6934905219823122e-03 9.3230977654457092e-03 3.3289950340986252e-02 4.0863123722374439e-03 1.6281969845294952e-02 -6.2920143827795982e-03 2.9215153306722641e-02 2.7544550597667694e-02 -2.9568851459771395e-03 2.5949116796255112e-02 1.4553171582520008e-02 3.1781710684299469e-02 -3.7977721076458693e-03 -3.4215703606605530e-02 3.5916715860366821e-02 -1.0819358285516500e-03 2.4841427803039551e-03 1.3077081181108952e-02 6.9036409258842468e-02 1.3527765870094299e-01 -1.5914317220449448e-02 -3.0750054866075516e-02 -8.9804992079734802e-02 4.9766944721341133e-03 2.0920149981975555e-02 -2.5212710723280907e-02 -1.0723552107810974e-01 -1.6799984499812126e-02 -5.2262093871831894e-02 2.4727085605263710e-02 -8.8219642639160156e-02 -8.3966106176376343e-02 1.1220782063901424e-02 -8.3928309381008148e-02 -3.7263598293066025e-02 -9.3825235962867737e-02 1.1875698342919350e-02 1.2153334170579910e-01 -1.1569899320602417e-01 -1.4379490166902542e-03 -9.0153859928250313e-03 -4.0636453777551651e-02 -2.3723572492599487e-01 -9.4919539988040924e-03 -9.5612946897745132e-03 -4.4484113459475338e-04 3.4477449953556061e-03 1.2654082383960485e-03 -3.5139715764671564e-03 -4.3321293196640909e-04 5.5569531396031380e-03 9.5987628446891904e-04 1.5161302872002125e-03 1.3381473720073700e-02 2.4034788366407156e-03 3.2156330998986959e-03 -9.5673708710819483e-04 3.1164207030087709e-03 5.6551249144831672e-05 3.7123549263924360e-03 -1.1927882442250848e-03 -5.5441795848309994e-03 7.1041206829249859e-03 -3.1927123200148344e-04 -1.2440492864698172e-03 3.6138815339654684e-03 1.3433316722512245e-02 6.0184147208929062e-02 1.9876218866556883e-03 -1.6559461131691933e-02 -4.4679224491119385e-02 1.2131775729358196e-03 7.6560899615287781e-03 -1.3528262265026569e-02 -5.3075835108757019e-02 -7.0888837799429893e-03 -2.5970203801989555e-02 -2.7494612149894238e-03 -4.4033404439687729e-02 -4.2439326643943787e-02 5.5564180947840214e-03 -4.1171509772539139e-02 -2.0871656015515327e-02 -4.7991547733545303e-02 6.3747563399374485e-03 5.4543178528547287e-02 -5.8358207345008850e-02 1.3482403301168233e-04 -2.4195623118430376e-03 -2.2570097818970680e-02 -1.1276534944772720e-01 -2.0491523668169975e-02 5.1546160830184817e-04 5.5135772563517094e-03 1.5227098949253559e-02 -9.8963314667344093e-04 -2.6379530318081379e-03 4.6982956118881702e-03 1.7718078568577766e-02 2.4717580527067184e-03 8.2629527896642685e-03 -1.2421541614457965e-03 1.5372334979474545e-02 1.4530104584991932e-02 -1.7495175125077367e-03 1.3617134653031826e-02 7.2283279150724411e-03 1.6842788085341454e-02 -2.2595245391130447e-03 -1.8577652052044868e-02 1.9508376717567444e-02 -7.3340075323358178e-04 7.2101061232388020e-04 7.2873132303357124e-03 3.7431430071592331e-02 1.0757047683000565e-01 -1.7315946519374847e-02 -2.6406945660710335e-02 -7.3504909873008728e-02 4.3640481308102608e-03 1.5428890474140644e-02 -2.1384857594966888e-02 -8.6887724697589874e-02 -1.3175440952181816e-02 -4.2371675372123718e-02 2.5248104706406593e-02 -7.3810063302516937e-02 -7.0036605000495911e-02 9.4091752544045448e-03 -6.8050548434257507e-02 -3.2170895487070084e-02 -7.8616008162498474e-02 9.7998064011335373e-03 9.9369317293167114e-02 -9.3574248254299164e-02 -9.6415134612470865e-04 -8.5476851090788841e-03 -3.2039824873209000e-02 -1.9017110764980316e-01 -9.6002645790576935e-02 -3.1074064318090677e-03 2.1515740081667900e-02 6.3653439283370972e-02 -1.7297674203291535e-03 -1.6158271580934525e-02 1.7273908481001854e-02 7.7316313982009888e-02 1.1125354096293449e-02 3.6128152161836624e-02 1.0859734611585736e-03 6.2840044498443604e-02 5.9476919472217560e-02 -8.0104637891054153e-03 5.8873258531093597e-02 2.6597429066896439e-02 6.7627102136611938e-02 -9.4142807647585869e-03 -8.3213284611701965e-02 8.4136605262756348e-02 -7.2907219873741269e-04 3.7138487678021193e-03 3.0873812735080719e-02 1.6840061545372009e-01 -1.4380957186222076e-01 3.1184399500489235e-02 3.9947319775819778e-02 1.0382763296365738e-01 -5.9762694872915745e-03 -1.6611305996775627e-02 3.3945139497518539e-02 1.2336371839046478e-01 1.9498782232403755e-02 6.4182825386524200e-02 -4.7148343175649643e-02 1.0503303259611130e-01 9.7933404147624969e-02 -1.2122260406613350e-02 9.9690206348896027e-02 4.8284139484167099e-02 1.1005324125289917e-01 -1.1972218751907349e-02 -1.3456290960311890e-01 1.3255493342876434e-01 1.2334119528532028e-03 1.3805999420583248e-02 4.6885572373867035e-02 2.6797631382942200e-01 1.5061926841735840e-01 -1.3977112248539925e-03 -3.4831844270229340e-02 -1.0098988562822342e-01 2.7499378193169832e-03 2.4216540157794952e-02 -2.9312936589121819e-02 -1.2201509624719620e-01 -1.8918681889772415e-02 -6.0932211577892303e-02 5.9412019327282906e-03 -9.7438119351863861e-02 -9.2533640563488007e-02 1.2163992971181870e-02 -9.5562145113945007e-02 -4.0970787405967712e-02 -1.0382164269685745e-01 1.3810791075229645e-02 1.3122026622295380e-01 -1.3287891447544098e-01 -2.3072594194673002e-04 -7.1653253398835659e-03 -4.9967009574174881e-02 -2.6985043287277222e-01 8.0944724380970001e-02 -2.3393572773784399e-03 -1.8385596573352814e-02 -5.4060719907283783e-02 2.0879118237644434e-03 1.2847767211496830e-02 -1.4349199831485748e-02 -6.5387964248657227e-02 -8.7923090904951096e-03 -3.0222488567233086e-02 4.7892001457512379e-03 -5.4252438247203827e-02 -5.2636936306953430e-02 7.1962424553930759e-03 -4.9632735550403595e-02 -2.3346673697233200e-02 -5.9207875281572342e-02 8.9337565004825592e-03 7.2991766035556793e-02 -7.0883452892303467e-02 5.6131242308765650e-04 -4.5567746274173260e-03 -2.5261940434575081e-02 -1.4159399271011353e-01 1.3140670955181122e-01 1.9726501777768135e-02 -3.0196595937013626e-02 -8.6901903152465820e-02 -8.1056187627837062e-04 2.2393058985471725e-02 -2.4694513529539108e-02 -1.0831569880247116e-01 -1.6752367839217186e-02 -5.3243838250637054e-02 -2.3388037458062172e-02 -8.3042748272418976e-02 -7.9951040446758270e-02 1.1458190158009529e-02 -8.3675652742385864e-02 -3.4925982356071472e-02 -8.9729815721511841e-02 1.3385112397372723e-02 1.1041637510061264e-01 -1.1978407949209213e-01 -4.0439268923364580e-04 -2.1952586248517036e-03 -4.8956353217363358e-02 -2.3796160519123077e-01 1.0123459249734879e-01 1.7143024131655693e-02 -2.0094443112611771e-02 -6.3194930553436279e-02 -4.6029759687371552e-04 1.9592760130763054e-02 -1.5283084474503994e-02 -7.8234665095806122e-02 -1.1916775256395340e-02 -3.5448029637336731e-02 -1.9278956577181816e-02 -6.0104869306087494e-02 -5.8358494192361832e-02 8.4887528792023659e-03 -5.8131445199251175e-02 -2.3343533277511597e-02 -6.5986216068267822e-02 1.1398875154554844e-02 8.3554975688457489e-02 -8.6660876870155334e-02 1.7088808817788959e-03 -1.8808483146131039e-03 -3.4110166132450104e-02 -1.7310196161270142e-01 -9.7767122089862823e-02 8.4824496880173683e-03 2.4377699941396713e-02 6.8352080881595612e-02 -3.6858271341770887e-03 -1.3672349974513054e-02 1.9756454974412918e-02 8.0651894211769104e-02 1.2338910251855850e-02 3.9356194436550140e-02 -1.3642191886901855e-02 6.7937776446342468e-02 6.4520686864852905e-02 -7.7478941529989243e-03 6.3021577894687653e-02 2.9986061155796051e-02 7.2491280734539032e-02 -9.1472370550036430e-03 -8.8217802345752716e-02 8.7624423205852509e-02 4.6148078399710357e-04 5.1828026771545410e-03 3.1412653625011444e-02 1.7573939263820648e-01 2.2312870249152184e-02 3.1318089459091425e-03 -5.2157044410705566e-03 -1.5728292986750603e-02 3.8555343053303659e-04 3.4995186142623425e-03 -4.5629939995706081e-03 -1.8954496830701828e-02 -2.5828068610280752e-03 -8.7812142446637154e-03 -4.1313366964459419e-03 -1.5447538346052170e-02 -1.5089663676917553e-02 2.0221343729645014e-03 -1.4312192797660828e-02 -7.0829107426106930e-03 -1.7453871667385101e-02 2.7084611356258392e-03 1.9255081191658974e-02 -2.1007502451539040e-02 6.6951272310689092e-04 -1.5828106552362442e-04 -8.1968260928988457e-03 -4.0383078157901764e-02 -1.6481205821037292e-02 -2.7689030393958092e-03 3.5283910110592842e-03 1.1107646860182285e-02 -1.5262379747582600e-05 -2.7111843228340149e-03 2.7294156607240438e-03 1.3434325344860554e-02 1.8074560211971402e-03 6.0260477475821972e-03 4.2339698411524296e-03 1.0719037614762783e-02 1.0685210116207600e-02 -1.6092406585812569e-03 9.9540334194898605e-03 4.7106095589697361e-03 1.2109071947634220e-02 -1.7660571029409766e-03 -1.4060209505259991e-02 1.4929123222827911e-02 1.3086726539768279e-05 2.5788729544728994e-04 5.8021070435643196e-03 2.9071437194943428e-02 -4.6011999249458313e-02 -2.8536238241940737e-03 1.0018756613135338e-02 3.1343903392553329e-02 -1.3961454387754202e-03 -7.1126646362245083e-03 8.3677498623728752e-03 3.7199623882770538e-02 5.0062490627169609e-03 1.6808845102787018e-02 2.8646851424127817e-03 3.1186629086732864e-02 2.9819190502166748e-02 -3.6624637432396412e-03 2.8214912861585617e-02 1.3770789839327335e-02 3.4458287060260773e-02 -5.1390086300671101e-03 -4.0295619517564774e-02 4.1222140192985535e-02 -1.5420182608067989e-03 1.1676872381940484e-03 1.5326690860092640e-02 8.0714553594589233e-02 -1.4374844729900360e-01 1.8013523891568184e-02 3.5942114889621735e-02 9.8515406250953674e-02 -4.2359046638011932e-03 -2.0192615687847137e-02 2.9604716226458549e-02 1.1818033456802368e-01 1.8640374764800072e-02 5.9926927089691162e-02 -2.8146008029580116e-02 9.7594700753688812e-02 9.2643722891807556e-02 -1.2004619464278221e-02 9.3907967209815979e-02 4.2651150375604630e-02 1.0350019484758377e-01 -1.3004595413804054e-02 -1.3049061596393585e-01 1.2763351202011108e-01 1.2892482336610556e-03 1.0878887958824635e-02 4.5983511954545975e-02 2.6003658771514893e-01 -1.0575406253337860e-02 1.1037251679226756e-03 1.5915699768811464e-03 6.3788741827011108e-03 -5.7198881404474378e-04 -2.0678194705396891e-03 1.1095976224169135e-03 7.1624219417572021e-03 1.0955227771773934e-03 2.7266042307019234e-03 -1.7393408343195915e-03 6.4333588816225529e-03 6.1052115634083748e-03 -8.2704552914947271e-04 5.0545427948236465e-03 2.3378254845738411e-03 6.9725918583571911e-03 -1.1649220250546932e-03 -9.3952883034944534e-03 7.7381473965942860e-03 -8.1837679317686707e-05 5.8649573475122452e-04 2.1149297244846821e-03 1.6224930062890053e-02 -1.6358248889446259e-02 -8.2387489965185523e-04 2.4029295891523361e-03 9.4711594283580780e-03 -3.8228117045946419e-04 -3.5089445300400257e-03 1.3831519754603505e-03 1.1283992789685726e-02 1.6460408223792911e-03 4.2708702385425568e-03 1.0397596051916480e-03 9.1938506811857224e-03 9.3386527150869370e-03 -1.3841997133567929e-03 7.8306896612048149e-03 3.3646780066192150e-03 1.0545563884079456e-02 -1.7640145961195230e-03 -1.3933409936726093e-02 1.2746576219797134e-02 -3.6336696939542890e-04 2.7434781077317894e-04 4.2076827958226204e-03 2.5313649326562881e-02 1.0047119855880737e-01 8.6368238553404808e-03 -2.3971265181899071e-02 -6.9120511412620544e-02 1.5814483631402254e-03 1.5504091046750546e-02 -1.9850453361868858e-02 -8.3341322839260101e-02 -1.2905841693282127e-02 -4.0587846189737320e-02 -9.2293266206979752e-03 -6.7118383944034576e-02 -6.3607864081859589e-02 8.0507490783929825e-03 -6.4603991806507111e-02 -2.8980515897274017e-02 -7.2574257850646973e-02 1.0145373642444611e-02 8.6376957595348358e-02 -9.1934531927108765e-02 7.0975651033222675e-04 -2.4201271589845419e-03 -3.5810612142086029e-02 -1.8226554989814758e-01 1.4652983844280243e-01 -7.8373976051807404e-02 -3.4761238843202591e-02 -9.9265553057193756e-02 1.3004213571548462e-02 1.6925450414419174e-02 -3.1832061707973480e-02 -1.1581076681613922e-01 -2.0487967878580093e-02 -6.2039356678724289e-02 1.0823063552379608e-01 -1.0077819973230362e-01 -9.5173895359039307e-02 1.2861366383731365e-02 -9.6250601112842560e-02 -4.3974786996841431e-02 -1.0571829974651337e-01 1.0461807250976562e-02 1.4454159140586853e-01 -1.2015122175216675e-01 -2.3463722318410873e-03 -2.4816332384943962e-02 -3.4734703600406647e-02 -2.6101759076118469e-01 
      </Weights>
      <Biases rows="128" cols="1">
        1.5550094842910767e-01 -1.2155848741531372e-01 1.7946062982082367e-01 -5.0002115964889526e-01 3.2056260108947754e-01 -2.6689210906624794e-02 -1.0142508149147034e-01 9.9484819173812866e-01 -8.8436490297317505e-01 -3.4696045517921448e-01 -7.0775195956230164e-02 7.1035414934158325e-02 -7.7438853681087494e-02 -3.5380560159683228e-01 5.9446185827255249e-02 2.1517501771450043e-01 5.2494955062866211e-01 3.9700040221214294e-01 5.3966041654348373e-02 -1.1938269250094891e-02 -4.8622766137123108e-01 -9.1537304222583771e-02 -2.7057531476020813e-01 2.7464082837104797e-01 3.7373420596122742e-01 -7.7328515052795410e-01 -2.4353322386741638e-01 -1.4732316136360168e-01 3.5682690143585205e-01 1.3776154816150665e-01 4.3172279000282288e-01 2.2184702754020691e-01 4.8367887735366821e-01 4.9354156851768494e-01 -7.0373123884201050e-01 -3.9304649829864502e-01 6.0369050502777100e-01 -5.0022649765014648e-01 -3.8042867183685303e-01 -2.1486241370439529e-02 6.8742942810058594e-01 -1.8861643970012665e-01 -2.7705016732215881e-01 4.4208612293004990e-02 8.2633638381958008e-01 9.5065586268901825e-02 -4.4487392902374268e-01 5.4429697990417480e-01 -2.3775634169578552e-01 5.0736093521118164e-01 -2.6068279147148132e-01 -5.2222251892089844e-01 -2.2425174713134766e-01 -2.6845297217369080e-01 -4.6179220080375671e-01 5.8610057830810547e-01 -1.4587572216987610e-01 -3.5802841186523438e-01 -1.8032555282115936e-01 -8.4917910397052765e-02 4.4279500842094421e-01 1.8373133242130280e-01 1.3318364508450031e-02 -4.8028421401977539e-01 -6.0911834239959717e-01 1.7722066491842270e-02 1.3870304683223367e-03 -4.1523784399032593e-01 2.2929121553897858e-01 1.6057683527469635e-01 9.9634118378162384e-02 5.0493520684540272e-03 -4.2098626494407654e-01 1.4525640010833740e-01 4.7846585512161255e-01 -1.5870997682213783e-02 1.1203359812498093e-01 5.1878875494003296e-01 6.1506825685501099e-01 4.8170280456542969e-01 4.4615060091018677e-01 1.4069657027721405e-01 6.0385799407958984e-01 5.9420224279165268e-02 2.1621488034725189e-01 -2.0246167480945587e-01 -4.1482645273208618e-01 1.6363373398780823e-01 6.0922056436538696e-01 2.1253047883510590e-01 3.2273980975151062e-01 -1.0341080278158188e-01 -1.8076878786087036e-01 -2.6348352432250977e-01 -9.1090428829193115e-01 2.4093481898307800e-01 -3.1467112898826599e-01 8.1332497298717499e-02 -4.2152574658393860e-01 1.6574458777904510e-01 2.3477928340435028e-01 -7.4468977749347687e-02 -3.5508725047111511e-01 6.4224243164062500e-01 9.1468292474746704e-01 4.7725552320480347e-01 2.9939848184585571e-01 1.3131658732891083e-01 -4.6476119756698608e-01 -1.2925590388476849e-02 -2.2066876292228699e-01 5.9574913233518600e-02 -3.7308865785598755e-01 2.8796640038490295e-01 6.3670778274536133e-01 -5.6716984510421753e-01 -2.2459538280963898e-01 -4.7463437914848328e-01 -2.5164407491683960e-01 3.4659868478775024e-01 -5.9531334787607193e-02 4.1298352181911469e-02 1.0894326120615005e-01 5.6833457946777344e-01 1.0928060859441757e-02 1.3852993957698345e-02 -3.5435512661933899e-01 -4.8486462235450745e-01 
      </Biases>
    </Layer>
    <Layer ActivationFunction="1">
      <Weights rows="128" cols="128">
