<?xml version="1.0"?>
<MethodSetup Method="DNN::DNN">
  <GeneralInfo>
    <Info name="TMVA Release" value="4.2.1 [262657]"/>
    <Info name="ROOT Release" value="6.12/07 [396295]"/>
    <Info name="Creator" value="hum"/>
    <Info name="Date" value="Fri Oct  2 11:05:59 2020"/>
    <Info name="Host" value="Linux vocms0301.cern.ch 2.6.32-696.30.1.el6.x86_64 #1 SMP Tue May 22 06:09:36 CEST 2018 x86_64 x86_64 x86_64 GNU/Linux"/>
    <Info name="Dir" value="/afs/cern.ch/work/h/hum/public/CMSSW_10_2_13/src/ChargedHiggs/Analysis/resTagger"/>
    <Info name="Training events" value="84497"/>
    <Info name="TrainingTime" value="1.56740032e+02"/>
    <Info name="AnalysisType" value="Multiclass"/>
  </GeneralInfo>
  <Options>
    <Option name="V" modified="Yes">True</Option>
    <Option name="VerbosityLevel" modified="No">Verbose</Option>
    <Option name="VarTransform" modified="Yes">N</Option>
    <Option name="H" modified="Yes">False</Option>
    <Option name="CreateMVAPdfs" modified="No">False</Option>
    <Option name="IgnoreNegWeightsInTraining" modified="No">False</Option>
    <Option name="Layout" modified="Yes">TANH|128,RELU|128,SIGMOID|128,LINEAR</Option>
    <Option name="ValidationSize" modified="No">20%</Option>
    <Option name="ErrorStrategy" modified="Yes">CROSSENTROPY</Option>
    <Option name="WeightInitialization" modified="Yes">XAVIERUNIFORM</Option>
    <Option name="Architecture" modified="Yes">CPU</Option>
    <Option name="TrainingStrategy" modified="Yes">LearningRate=1e-1,Momentum=0.9,Repetitions=1,ConvergenceSteps=20,BatchSize=256,TestRepetitions=10,WeightDecay=1e-4,Regularization=L2,DropConfig=0.0+0.5+0.5+0.5,</Option>
  </Options>
  <Variables NVar="24">
    <Variable VarIndex="0" Expression="j1_pT" Label="j1_pT" Title="jet1 pT" Unit="" Internal="j1_pT" Type="F" Min="3.00050583e+01" Max="1.46118616e+03"/>
    <Variable VarIndex="1" Expression="j1_Eta" Label="j1_Eta" Title="jet1 eta" Unit="" Internal="j1_Eta" Type="F" Min="-4.67791176e+00" Max="4.69723415e+00"/>
    <Variable VarIndex="2" Expression="j1_Unc" Label="j1_Unc" Title="jet1 Unc" Unit="" Internal="j1_Unc" Type="F" Min="6.55297609e-03" Max="1.09374374e-01"/>
    <Variable VarIndex="3" Expression="j1_axis2" Label="j1_axis2" Title="jet1 axis2" Unit="" Internal="j1_axis2" Type="F" Min="0.00000000e+00" Max="1.76428184e-01"/>
    <Variable VarIndex="4" Expression="j1_ptD" Label="j1_ptD" Title="jet1 ptD" Unit="" Internal="j1_ptD" Type="F" Min="0.00000000e+00" Max="1.00000000e+00"/>
    <Variable VarIndex="5" Expression="j2_pT" Label="j2_pT" Title="jet2 pT" Unit="" Internal="j2_pT" Type="F" Min="3.07089520e+01" Max="1.75571106e+03"/>
    <Variable VarIndex="6" Expression="j2_Unc" Label="j2_Unc" Title="jet2 Unc" Unit="" Internal="j2_Unc" Type="F" Min="6.50117500e-03" Max="1.22522019e-01"/>
    <Variable VarIndex="7" Expression="j2_axis2" Label="j2_axis2" Title="jet2 axis2" Unit="" Internal="j2_axis2" Type="F" Min="0.00000000e+00" Max="1.76428184e-01"/>
    <Variable VarIndex="8" Expression="j2_ptD" Label="j2_ptD" Title="jet2 ptD" Unit="" Internal="j2_ptD" Type="F" Min="0.00000000e+00" Max="1.00000000e+00"/>
    <Variable VarIndex="9" Expression="j3_pT" Label="j3_pT" Title="jet3 pT" Unit="" Internal="j3_pT" Type="F" Min="3.00003796e+01" Max="4.55177673e+02"/>
    <Variable VarIndex="10" Expression="j3_Eta" Label="j3_Eta" Title="jet3 eta" Unit="" Internal="j3_Eta" Type="F" Min="-4.67453861e+00" Max="4.68811989e+00"/>
    <Variable VarIndex="11" Expression="j3_Unc" Label="j3_Unc" Title="jet3 Unc" Unit="" Internal="j3_Unc" Type="F" Min="6.61964621e-03" Max="9.05662775e-02"/>
    <Variable VarIndex="12" Expression="j3_axis2" Label="j3_axis2" Title="jet3 axis2" Unit="" Internal="j3_axis2" Type="F" Min="0.00000000e+00" Max="1.76428184e-01"/>
    <Variable VarIndex="13" Expression="j3_ptD" Label="j3_ptD" Title="jet3 ptD" Unit="" Internal="j3_ptD" Type="F" Min="0.00000000e+00" Max="1.00000000e+00"/>
    <Variable VarIndex="14" Expression="j4_pT" Label="j4_pT" Title="jet4 pT" Unit="" Internal="j4_pT" Type="F" Min="3.00997219e+01" Max="1.24597205e+03"/>
    <Variable VarIndex="15" Expression="j4_Unc" Label="j4_Unc" Title="jet4 Unc" Unit="" Internal="j4_Unc" Type="F" Min="6.50262693e-03" Max="1.18152030e-01"/>
    <Variable VarIndex="16" Expression="j4_axis2" Label="j4_axis2" Title="jet4 axis2" Unit="" Internal="j4_axis2" Type="F" Min="0.00000000e+00" Max="1.76428184e-01"/>
    <Variable VarIndex="17" Expression="j4_ptD" Label="j4_ptD" Title="jet4 ptD" Unit="" Internal="j4_ptD" Type="F" Min="0.00000000e+00" Max="1.00000000e+00"/>
    <Variable VarIndex="18" Expression="DEta_f12" Label="DEta_f12" Title="DEta_f12" Unit="" Internal="DEta_f12" Type="F" Min="4.78525399e-05" Max="8.28971195e+00"/>
    <Variable VarIndex="19" Expression="DEta_v34" Label="DEta_v34" Title="DEta_v34" Unit="" Internal="DEta_v34" Type="F" Min="1.09552019e-07" Max="4.24987268e+00"/>
    <Variable VarIndex="20" Expression="DPhi_f12" Label="DPhi_f12" Title="DPhi_f12" Unit="" Internal="DPhi_f12" Type="F" Min="-3.14156270e+00" Max="3.14132929e+00"/>
    <Variable VarIndex="21" Expression="DPhi_v34" Label="DPhi_v34" Title="DPhi_v34" Unit="" Internal="DPhi_v34" Type="F" Min="-3.14125824e+00" Max="3.14107990e+00"/>
    <Variable VarIndex="22" Expression="DR_v34" Label="DR_v34" Title="DR_v34" Unit="" Internal="DR_v34" Type="F" Min="3.98250878e-01" Max="4.95165586e+00"/>
    <Variable VarIndex="23" Expression="M_v34" Label="M_v34" Title="M_v34" Unit="" Internal="M_v34" Type="F" Min="1.83528690e+01" Max="7.36463257e+02"/>
  </Variables>
  <Spectators NSpec="0"/>
  <Classes NClass="4">
    <Class Name="All OK" Index="0"/>
    <Class Name="V OK F NOT" Index="1"/>
    <Class Name="F OK V NOT" Index="2"/>
    <Class Name="All NOT" Index="3"/>
  </Classes>
  <Transformations NTransformations="1">
    <Transform Name="Normalize">
      <Selection>
        <Input NInputs="24">
          <Input Type="Variable" Label="j1_pT" Expression="j1_pT"/>
          <Input Type="Variable" Label="j1_Eta" Expression="j1_Eta"/>
          <Input Type="Variable" Label="j1_Unc" Expression="j1_Unc"/>
          <Input Type="Variable" Label="j1_axis2" Expression="j1_axis2"/>
          <Input Type="Variable" Label="j1_ptD" Expression="j1_ptD"/>
          <Input Type="Variable" Label="j2_pT" Expression="j2_pT"/>
          <Input Type="Variable" Label="j2_Unc" Expression="j2_Unc"/>
          <Input Type="Variable" Label="j2_axis2" Expression="j2_axis2"/>
          <Input Type="Variable" Label="j2_ptD" Expression="j2_ptD"/>
          <Input Type="Variable" Label="j3_pT" Expression="j3_pT"/>
          <Input Type="Variable" Label="j3_Eta" Expression="j3_Eta"/>
          <Input Type="Variable" Label="j3_Unc" Expression="j3_Unc"/>
          <Input Type="Variable" Label="j3_axis2" Expression="j3_axis2"/>
          <Input Type="Variable" Label="j3_ptD" Expression="j3_ptD"/>
          <Input Type="Variable" Label="j4_pT" Expression="j4_pT"/>
          <Input Type="Variable" Label="j4_Unc" Expression="j4_Unc"/>
          <Input Type="Variable" Label="j4_axis2" Expression="j4_axis2"/>
          <Input Type="Variable" Label="j4_ptD" Expression="j4_ptD"/>
          <Input Type="Variable" Label="DEta_f12" Expression="DEta_f12"/>
          <Input Type="Variable" Label="DEta_v34" Expression="DEta_v34"/>
          <Input Type="Variable" Label="DPhi_f12" Expression="DPhi_f12"/>
          <Input Type="Variable" Label="DPhi_v34" Expression="DPhi_v34"/>
          <Input Type="Variable" Label="DR_v34" Expression="DR_v34"/>
          <Input Type="Variable" Label="M_v34" Expression="M_v34"/>
        </Input>
        <Output NOutputs="24">
          <Output Type="Variable" Label="j1_pT" Expression="j1_pT"/>
          <Output Type="Variable" Label="j1_Eta" Expression="j1_Eta"/>
          <Output Type="Variable" Label="j1_Unc" Expression="j1_Unc"/>
          <Output Type="Variable" Label="j1_axis2" Expression="j1_axis2"/>
          <Output Type="Variable" Label="j1_ptD" Expression="j1_ptD"/>
          <Output Type="Variable" Label="j2_pT" Expression="j2_pT"/>
          <Output Type="Variable" Label="j2_Unc" Expression="j2_Unc"/>
          <Output Type="Variable" Label="j2_axis2" Expression="j2_axis2"/>
          <Output Type="Variable" Label="j2_ptD" Expression="j2_ptD"/>
          <Output Type="Variable" Label="j3_pT" Expression="j3_pT"/>
          <Output Type="Variable" Label="j3_Eta" Expression="j3_Eta"/>
          <Output Type="Variable" Label="j3_Unc" Expression="j3_Unc"/>
          <Output Type="Variable" Label="j3_axis2" Expression="j3_axis2"/>
          <Output Type="Variable" Label="j3_ptD" Expression="j3_ptD"/>
          <Output Type="Variable" Label="j4_pT" Expression="j4_pT"/>
          <Output Type="Variable" Label="j4_Unc" Expression="j4_Unc"/>
          <Output Type="Variable" Label="j4_axis2" Expression="j4_axis2"/>
          <Output Type="Variable" Label="j4_ptD" Expression="j4_ptD"/>
          <Output Type="Variable" Label="DEta_f12" Expression="DEta_f12"/>
          <Output Type="Variable" Label="DEta_v34" Expression="DEta_v34"/>
          <Output Type="Variable" Label="DPhi_f12" Expression="DPhi_f12"/>
          <Output Type="Variable" Label="DPhi_v34" Expression="DPhi_v34"/>
          <Output Type="Variable" Label="DR_v34" Expression="DR_v34"/>
          <Output Type="Variable" Label="M_v34" Expression="M_v34"/>
        </Output>
      </Selection>
      <Class ClassIndex="0">
        <Ranges>
          <Range Index="0" Min="3.0044113159179688e+01" Max="1.4611861572265625e+03"/>
          <Range Index="1" Min="-4.6779117584228516e+00" Max="4.5896077156066895e+00"/>
          <Range Index="2" Min="6.5937228500843048e-03" Max="1.0937437415122986e-01"/>
          <Range Index="3" Min="0.0000000000000000e+00" Max="1.5294563770294189e-01"/>
          <Range Index="4" Min="2.2321750223636627e-01" Max="1.0000000000000000e+00"/>
          <Range Index="5" Min="3.8487083435058594e+01" Max="1.5582602539062500e+03"/>
          <Range Index="6" Min="6.5062912181019783e-03" Max="1.1582065373659134e-01"/>
          <Range Index="7" Min="0.0000000000000000e+00" Max="1.3275547325611115e-01"/>
          <Range Index="8" Min="2.0719362795352936e-01" Max="9.8080879449844360e-01"/>
          <Range Index="9" Min="3.0028533935546875e+01" Max="2.1476504516601562e+02"/>
          <Range Index="10" Min="-4.1948699951171875e+00" Max="3.9108448028564453e+00"/>
          <Range Index="11" Min="7.9155983403325081e-03" Max="6.6489502787590027e-02"/>
          <Range Index="12" Min="0.0000000000000000e+00" Max="1.2789362668991089e-01"/>
          <Range Index="13" Min="2.1614554524421692e-01" Max="9.6880424022674561e-01"/>
          <Range Index="14" Min="3.1770851135253906e+01" Max="8.5410815429687500e+02"/>
          <Range Index="15" Min="6.5401229076087475e-03" Max="8.0513849854469299e-02"/>
          <Range Index="16" Min="0.0000000000000000e+00" Max="1.2115385383367538e-01"/>
          <Range Index="17" Min="2.1325680613517761e-01" Max="9.6624851226806641e-01"/>
          <Range Index="18" Min="3.6573440302163363e-03" Max="7.8846068382263184e+00"/>
          <Range Index="19" Min="5.1472434279276058e-05" Max="2.0174906253814697e+00"/>
          <Range Index="20" Min="-3.1415534019470215e+00" Max="3.1402392387390137e+00"/>
          <Range Index="21" Min="-3.1206541061401367e+00" Max="3.1404860019683838e+00"/>
          <Range Index="22" Min="4.0167981386184692e-01" Max="3.4810862541198730e+00"/>
          <Range Index="23" Min="4.5048576354980469e+01" Max="1.5810531616210938e+02"/>
        </Ranges>
      </Class>
      <Class ClassIndex="1">
        <Ranges>
          <Range Index="0" Min="3.0005058288574219e+01" Max="8.4076684570312500e+02"/>
          <Range Index="1" Min="-4.6779117584228516e+00" Max="4.6664733886718750e+00"/>
          <Range Index="2" Min="6.6002830862998962e-03" Max="1.0480117052793503e-01"/>
          <Range Index="3" Min="0.0000000000000000e+00" Max="1.6901810467243195e-01"/>
          <Range Index="4" Min="0.0000000000000000e+00" Max="1.0000000000000000e+00"/>
          <Range Index="5" Min="3.0985515594482422e+01" Max="1.5073085937500000e+03"/>
          <Range Index="6" Min="6.5138512291014194e-03" Max="1.1687649041414261e-01"/>
          <Range Index="7" Min="0.0000000000000000e+00" Max="1.5937192738056183e-01"/>
          <Range Index="8" Min="0.0000000000000000e+00" Max="1.0000000000000000e+00"/>
          <Range Index="9" Min="3.0005674362182617e+01" Max="3.3043521118164062e+02"/>
          <Range Index="10" Min="-3.4964132308959961e+00" Max="3.9312117099761963e+00"/>
          <Range Index="11" Min="6.9538974203169346e-03" Max="7.4295848608016968e-02"/>
          <Range Index="12" Min="0.0000000000000000e+00" Max="1.5159498155117035e-01"/>
          <Range Index="13" Min="2.3570556938648224e-01" Max="1.0000000000000000e+00"/>
          <Range Index="14" Min="3.1886302947998047e+01" Max="1.2459720458984375e+03"/>
          <Range Index="15" Min="6.5026269294321537e-03" Max="1.0134508460760117e-01"/>
          <Range Index="16" Min="5.0463700063119177e-06" Max="1.4522519707679749e-01"/>
          <Range Index="17" Min="1.8230299651622772e-01" Max="9.7015076875686646e-01"/>
          <Range Index="18" Min="4.7852539864834398e-05" Max="8.2816267013549805e+00"/>
          <Range Index="19" Min="1.7171952640637755e-04" Max="2.0174906253814697e+00"/>
          <Range Index="20" Min="-3.1410057544708252e+00" Max="3.1411838531494141e+00"/>
          <Range Index="21" Min="-3.1206541061401367e+00" Max="3.1398570537567139e+00"/>
          <Range Index="22" Min="4.0459498763084412e-01" Max="3.3842000961303711e+00"/>
          <Range Index="23" Min="4.5048576354980469e+01" Max="3.7923385620117188e+02"/>
        </Ranges>
      </Class>
      <Class ClassIndex="2">
        <Ranges>
          <Range Index="0" Min="3.0012126922607422e+01" Max="1.2088837890625000e+03"/>
          <Range Index="1" Min="-4.6518759727478027e+00" Max="4.6248946189880371e+00"/>
          <Range Index="2" Min="6.5529760904610157e-03" Max="1.0793504118919373e-01"/>
          <Range Index="3" Min="0.0000000000000000e+00" Max="1.5912196040153503e-01"/>
          <Range Index="4" Min="2.2293300926685333e-01" Max="1.0000000000000000e+00"/>
          <Range Index="5" Min="3.1544372558593750e+01" Max="1.6077845458984375e+03"/>
          <Range Index="6" Min="6.5011749975383282e-03" Max="1.2052118033170700e-01"/>
          <Range Index="7" Min="2.6973982585332124e-06" Max="9.0161681175231934e-02"/>
          <Range Index="8" Min="1.9405408203601837e-01" Max="9.7111141681671143e-01"/>
          <Range Index="9" Min="3.0004014968872070e+01" Max="2.1889404296875000e+02"/>
          <Range Index="10" Min="-4.6442503929138184e+00" Max="4.5628776550292969e+00"/>
          <Range Index="11" Min="7.6739601790904999e-03" Max="6.7964978516101837e-02"/>
          <Range Index="12" Min="0.0000000000000000e+00" Max="1.6466589272022247e-01"/>
          <Range Index="13" Min="2.2452227771282196e-01" Max="1.0000000000000000e+00"/>
          <Range Index="14" Min="3.0099721908569336e+01" Max="7.9336383056640625e+02"/>
          <Range Index="15" Min="6.6010644659399986e-03" Max="9.5013894140720367e-02"/>
          <Range Index="16" Min="0.0000000000000000e+00" Max="1.4627686142921448e-01"/>
          <Range Index="17" Min="1.9852606952190399e-01" Max="1.0000000000000000e+00"/>
          <Range Index="18" Min="4.8640873283147812e-03" Max="7.6117582321166992e+00"/>
          <Range Index="19" Min="1.8762162653729320e-04" Max="3.9959936141967773e+00"/>
          <Range Index="20" Min="-3.1415534019470215e+00" Max="3.1376292705535889e+00"/>
          <Range Index="21" Min="-3.1345832347869873e+00" Max="3.1403205394744873e+00"/>
          <Range Index="22" Min="3.9825087785720825e-01" Max="4.5655050277709961e+00"/>
          <Range Index="23" Min="1.8352869033813477e+01" Max="7.1804431152343750e+02"/>
        </Ranges>
      </Class>
      <Class ClassIndex="3">
        <Ranges>
          <Range Index="0" Min="3.0005058288574219e+01" Max="1.4427041015625000e+03"/>
          <Range Index="1" Min="-4.6779117584228516e+00" Max="4.6972341537475586e+00"/>
          <Range Index="2" Min="6.6002658568322659e-03" Max="1.0749410837888718e-01"/>
          <Range Index="3" Min="0.0000000000000000e+00" Max="1.7642818391323090e-01"/>
          <Range Index="4" Min="0.0000000000000000e+00" Max="1.0000000000000000e+00"/>
          <Range Index="5" Min="3.0708951950073242e+01" Max="1.7557110595703125e+03"/>
          <Range Index="6" Min="6.5040905028581619e-03" Max="1.2252201884984970e-01"/>
          <Range Index="7" Min="0.0000000000000000e+00" Max="1.7642818391323090e-01"/>
          <Range Index="8" Min="1.7720329761505127e-01" Max="1.0000000000000000e+00"/>
          <Range Index="9" Min="3.0000379562377930e+01" Max="4.5517767333984375e+02"/>
          <Range Index="10" Min="-4.6745386123657227e+00" Max="4.6881198883056641e+00"/>
          <Range Index="11" Min="6.6196462139487267e-03" Max="9.0566277503967285e-02"/>
          <Range Index="12" Min="0.0000000000000000e+00" Max="1.7642818391323090e-01"/>
          <Range Index="13" Min="0.0000000000000000e+00" Max="1.0000000000000000e+00"/>
          <Range Index="14" Min="3.0189460754394531e+01" Max="1.2002965087890625e+03"/>
          <Range Index="15" Min="6.5136947669088840e-03" Max="1.1815202981233597e-01"/>
          <Range Index="16" Min="0.0000000000000000e+00" Max="1.7642818391323090e-01"/>
          <Range Index="17" Min="0.0000000000000000e+00" Max="1.0000000000000000e+00"/>
          <Range Index="18" Min="1.8118864682037383e-04" Max="8.2897119522094727e+00"/>
          <Range Index="19" Min="1.0955201901197142e-07" Max="4.2498726844787598e+00"/>
          <Range Index="20" Min="-3.1415627002716064e+00" Max="3.1413292884826660e+00"/>
          <Range Index="21" Min="-3.1412582397460938e+00" Max="3.1410799026489258e+00"/>
          <Range Index="22" Min="3.9825087785720825e-01" Max="4.9516558647155762e+00"/>
          <Range Index="23" Min="1.8837177276611328e+01" Max="7.3646325683593750e+02"/>
        </Ranges>
      </Class>
      <Class ClassIndex="4">
        <Ranges>
          <Range Index="0" Min="3.0005058288574219e+01" Max="1.4611861572265625e+03"/>
          <Range Index="1" Min="-4.6779117584228516e+00" Max="4.6972341537475586e+00"/>
          <Range Index="2" Min="6.5529760904610157e-03" Max="1.0937437415122986e-01"/>
          <Range Index="3" Min="0.0000000000000000e+00" Max="1.7642818391323090e-01"/>
          <Range Index="4" Min="0.0000000000000000e+00" Max="1.0000000000000000e+00"/>
          <Range Index="5" Min="3.0708951950073242e+01" Max="1.7557110595703125e+03"/>
          <Range Index="6" Min="6.5011749975383282e-03" Max="1.2252201884984970e-01"/>
          <Range Index="7" Min="0.0000000000000000e+00" Max="1.7642818391323090e-01"/>
          <Range Index="8" Min="0.0000000000000000e+00" Max="1.0000000000000000e+00"/>
          <Range Index="9" Min="3.0000379562377930e+01" Max="4.5517767333984375e+02"/>
          <Range Index="10" Min="-4.6745386123657227e+00" Max="4.6881198883056641e+00"/>
          <Range Index="11" Min="6.6196462139487267e-03" Max="9.0566277503967285e-02"/>
          <Range Index="12" Min="0.0000000000000000e+00" Max="1.7642818391323090e-01"/>
          <Range Index="13" Min="0.0000000000000000e+00" Max="1.0000000000000000e+00"/>
          <Range Index="14" Min="3.0099721908569336e+01" Max="1.2459720458984375e+03"/>
          <Range Index="15" Min="6.5026269294321537e-03" Max="1.1815202981233597e-01"/>
          <Range Index="16" Min="0.0000000000000000e+00" Max="1.7642818391323090e-01"/>
          <Range Index="17" Min="0.0000000000000000e+00" Max="1.0000000000000000e+00"/>
          <Range Index="18" Min="4.7852539864834398e-05" Max="8.2897119522094727e+00"/>
          <Range Index="19" Min="1.0955201901197142e-07" Max="4.2498726844787598e+00"/>
          <Range Index="20" Min="-3.1415627002716064e+00" Max="3.1413292884826660e+00"/>
          <Range Index="21" Min="-3.1412582397460938e+00" Max="3.1410799026489258e+00"/>
          <Range Index="22" Min="3.9825087785720825e-01" Max="4.9516558647155762e+00"/>
          <Range Index="23" Min="1.8352869033813477e+01" Max="7.3646325683593750e+02"/>
        </Ranges>
      </Class>
    </Transform>
  </Transformations>
  <MVAPdfs/>
  <Weights InputWidth="24" Depth="4" LossFunction="C" OutputFunction="M">
    <Layer ActivationFunction="3">
      <Weights rows="128" cols="24">
        2.1873880177736282e-02 -1.9779372960329056e-03 -1.4023385941982269e-02 -9.2045310884714127e-03 8.3021204918622971e-03 4.4229466468095779e-02 4.4972188770771027e-03 2.6840770151466131e-03 -6.3136210665106773e-03 -1.1724380776286125e-02 1.1438777670264244e-02 3.9886511862277985e-02 7.9615429043769836e-02 -1.7937082797288895e-02 9.2221647500991821e-03 3.6372784525156021e-02 6.9166667759418488e-02 -3.5667861811816692e-03 -1.2239553965628147e-02 1.0687948763370514e-01 2.9696086421608925e-03 -1.2873529456555843e-02 4.7283697873353958e-02 6.9206140935420990e-02 7.6573379337787628e-03 1.2075796257704496e-03 6.5097799524664879e-03 -7.5500141829252243e-03 1.4568586833775043e-02 3.6828242242336273e-02 2.1605696529150009e-02 2.1738924086093903e-02 7.7110724523663521e-03 9.9899945780634880e-03 8.4170335903763771e-03 4.3055344372987747e-02 6.4278505742549896e-02 -7.9297488555312157e-03 3.5542249679565430e-02 3.1579982489347458e-02 6.5576158463954926e-02 -1.1019184254109859e-02 1.1634075781330466e-03 8.6375430226325989e-02 -1.0267158038914204e-02 6.8957789335399866e-04 3.1180255115032196e-02 6.4173795282840729e-02 -3.3141232561320066e-03 2.8848794754594564e-03 1.7832534387707710e-02 2.3057376965880394e-02 1.3237829320132732e-02 -1.0247169993817806e-02 2.2227110341191292e-02 7.3508289642632008e-03 -4.3510268442332745e-03 9.4530554488301277e-03 8.2932185614481568e-04 -4.8289068043231964e-02 -6.4194642007350922e-02 2.6708858087658882e-02 8.5906748427078128e-04 -4.3143484741449356e-02 -4.0512919425964355e-02 1.0351645760238171e-02 3.4204218536615372e-02 -8.6317889392375946e-02 1.1049837339669466e-03 -1.2883439660072327e-02 -4.2400158941745758e-02 -5.3174864500761032e-02 1.8415205180644989e-01 -2.4387319572269917e-03 -3.1990133225917816e-02 -8.3368614315986633e-02 6.1386206652969122e-05 7.5159899890422821e-02 -4.5490995049476624e-02 -8.3561718463897705e-02 -3.6565235350281000e-03 -3.1515225768089294e-02 -1.8831260502338409e-02 -1.8437355756759644e-02 -4.3887879699468613e-02 9.9389161914587021e-03 -5.1086340099573135e-02 -2.9642671346664429e-02 -4.8629164695739746e-02 1.7472967505455017e-02 1.0352454334497452e-01 -6.3085980713367462e-02 -8.8699720799922943e-03 -6.3322498463094234e-03 5.0354232080280781e-03 -1.0365370661020279e-01 -1.4183670282363892e-01 2.3259218782186508e-02 5.1624085754156113e-02 1.0072526335716248e-01 -3.0763996765017509e-03 -9.5232054591178894e-02 3.6689538508653641e-02 4.4508766382932663e-02 9.5540359616279602e-03 5.9765893965959549e-02 1.1419397778809071e-02 -7.0137739181518555e-02 -1.1124943196773529e-01 2.7354402467608452e-02 1.3443049974739552e-02 -5.8191869407892227e-02 -7.5377650558948517e-02 1.8864968791604042e-02 -1.0531160980463028e-02 -1.5137414634227753e-01 1.1874236166477203e-02 -1.0981411673128605e-02 -4.6590007841587067e-02 -7.2339378297328949e-02 3.9333831518888474e-03 -2.4941354058682919e-03 -1.2001400813460350e-02 -3.6393485963344574e-02 -3.5768463276326656e-03 -1.8704062327742577e-02 -3.8078133016824722e-02 -3.0660919845104218e-02 2.6298284064978361e-03 -2.1730303764343262e-02 7.4971863068640232e-03 -3.5274516791105270e-02 -3.5709965974092484e-02 2.1519538015127182e-02 -4.2007330805063248e-02 -5.1150143146514893e-02 -4.2324502021074295e-02 -6.6245403140783310e-03 2.6036463677883148e-03 -4.5820485800504684e-02 9.0600429102778435e-03 -3.9229827234521508e-04 9.6390707767568529e-05 -6.4052820205688477e-02 -4.4096197932958603e-02 -1.1262916959822178e-02 -1.1797158047556877e-02 -2.0256113260984421e-02 -6.7799794487655163e-03 -3.9295360445976257e-02 -3.9634432643651962e-02 -7.4035115540027618e-03 -1.4512387104332447e-02 -3.2126650214195251e-02 -5.3710434585809708e-03 -8.6130322888493538e-03 -3.9695031009614468e-03 -2.0029768347740173e-03 -2.8880553320050240e-02 -1.0861809365451336e-02 3.0221595079638064e-04 -1.5478276181966066e-03 -3.9523124694824219e-02 1.9027624279260635e-02 -3.4570305142551661e-03 2.3775813169777393e-03 5.0568501465022564e-03 2.5284176226705313e-03 -5.6349128484725952e-02 -4.8827021382749081e-03 1.1838309001177549e-03 1.1951079359278083e-03 -1.0531319305300713e-02 -4.0500853210687637e-02 -2.2509071975946426e-02 -7.1410005912184715e-03 -8.6777415126562119e-03 -1.0846480727195740e-02 7.2823051596060395e-04 1.3711525825783610e-03 -5.3639248944818974e-03 -1.3569454662501812e-02 -1.9934939220547676e-02 1.2172560673207045e-03 -2.5780766736716032e-03 -1.0445309802889824e-02 -3.4920506179332733e-02 1.5378898009657860e-02 -6.2927883118391037e-03 -5.0340034067630768e-03 8.4302648901939392e-03 1.1301016435027122e-02 2.4961166083812714e-02 1.9739773124456406e-03 -3.3015619963407516e-02 -3.7753202021121979e-02 -2.1601989865303040e-03 6.5317689441144466e-03 -2.7171283960342407e-02 -3.3111311495304108e-02 -8.7448125705122948e-03 -3.3673137426376343e-02 -6.4473617821931839e-03 -6.9955969229340553e-03 8.4368616808205843e-04 -9.1047659516334534e-03 -2.4134978652000427e-02 -1.9987331703305244e-02 -1.6717517748475075e-02 -3.4485028591006994e-03 1.2392787262797356e-02 1.3801672495901585e-02 2.9614118393510580e-03 2.6963585987687111e-03 4.3259388767182827e-03 -2.4192269891500473e-02 1.3357070088386536e-01 1.3115700567141175e-03 -2.3195751011371613e-02 -8.0416038632392883e-02 4.5733777806162834e-03 6.2121059745550156e-02 -4.5363463461399078e-02 -4.0237758308649063e-02 -2.4818545207381248e-02 -3.8651403039693832e-02 -8.4412144497036934e-03 2.2762350738048553e-02 5.0623547285795212e-02 -7.3815062642097473e-03 -1.3533257879316807e-02 2.4172326549887657e-02 3.6741338670253754e-02 1.2313086772337556e-03 3.2136093825101852e-02 6.6841401159763336e-02 -1.4246579259634018e-02 -1.0911945253610611e-02 2.0146572962403297e-02 1.3888578396290541e-03 -1.1303118616342545e-01 7.8061288222670555e-03 2.8921065852046013e-02 5.8614898473024368e-02 1.7568614566698670e-03 -7.3882974684238434e-02 2.1132875233888626e-02 3.0842637643218040e-02 1.5169991180300713e-02 2.9456315562129021e-02 3.5336518194526434e-03 -5.8526590466499329e-02 -6.8815544247627258e-02 2.9198881238698959e-02 -1.1537616141140461e-02 -5.2238773554563522e-02 -7.7441126108169556e-02 2.0062740892171860e-02 -1.3096054084599018e-02 -1.2942479550838470e-01 9.4938520342111588e-03 9.5834378153085709e-03 -3.8452316075563431e-02 -7.3345467448234558e-02 -4.7351844608783722e-02 -4.3207066482864320e-04 -3.8897602353245020e-03 -1.3286478817462921e-02 -1.8709013238549232e-02 -3.4960005432367325e-02 -1.5729362145066261e-02 -1.6327917575836182e-02 -9.4106595497578382e-04 -1.5337536111474037e-02 7.0734866894781590e-03 -8.3612045273184776e-03 -1.4548669569194317e-02 -1.0674291290342808e-02 -2.8071450069546700e-02 -2.3424932733178139e-02 -5.0587635487318039e-03 2.4610916152596474e-03 -3.0365070328116417e-02 -2.5001695379614830e-02 -7.8650387004017830e-03 1.1263966560363770e-02 -4.5320070348680019e-03 -6.5008210949599743e-03 -1.6542729735374451e-01 7.3856832459568977e-03 5.6056197732686996e-02 9.9976003170013428e-02 -8.7154936045408249e-04 -8.9175574481487274e-02 4.4805340468883514e-02 4.9037575721740723e-02 2.3408606648445129e-02 5.0684567540884018e-02 7.1132922312244773e-04 -7.0569410920143127e-02 -1.0990158468484879e-01 2.0200524479150772e-02 1.5983227640390396e-02 -5.1308169960975647e-02 -8.2265153527259827e-02 1.2240878306329250e-02 -2.5593452155590057e-02 -1.4736452698707581e-01 1.2315244413912296e-02 8.8687855750322342e-03 -6.3624955713748932e-02 -5.5665768682956696e-02 -6.6166937351226807e-02 6.2576974742114544e-03 -1.0232865810394287e-02 3.7884034682065248e-03 -1.1064637452363968e-02 -1.5284514985978603e-02 -2.0135927945375443e-02 1.7396248877048492e-02 6.8900443147867918e-04 -3.1002268195152283e-02 -8.0788936465978622e-03 7.8490756452083588e-02 1.0161835700273514e-01 -3.3540472388267517e-02 2.1235544234514236e-02 4.3367426842451096e-02 1.0159109532833099e-01 -3.2309476286172867e-02 -8.8421724736690521e-02 1.5799804031848907e-01 4.7484217211604118e-03 -1.6564792022109032e-03 4.9081545323133469e-02 1.1946705728769302e-01 -2.1464958786964417e-01 8.2764793187379837e-03 1.0656863451004028e-02 5.2888561040163040e-02 -2.4620028212666512e-02 -8.5023261606693268e-02 1.1211147531867027e-02 8.8626086711883545e-02 3.8736534770578146e-03 -1.8979063257575035e-02 -2.9884795658290386e-03 6.6661268472671509e-02 9.8491378128528595e-02 -4.4769722968339920e-02 2.8607781976461411e-02 5.5735938251018524e-02 1.1634162813425064e-01 -3.6857489496469498e-02 -1.6058684885501862e-01 1.7076963186264038e-01 2.5047375820577145e-03 6.1048829229548573e-04 5.0915654748678207e-02 1.8355384469032288e-01 1.8990495800971985e-01 -1.8133467528969049e-03 -2.9103499837219715e-03 -6.6184274852275848e-02 3.6283623194321990e-04 6.3650503754615784e-02 -2.2618085145950317e-02 -7.3226332664489746e-02 -1.1683290824294090e-02 -1.1343680671416223e-04 -4.6906722709536552e-03 -6.7427068948745728e-02 -1.0139520466327667e-01 4.5797541737556458e-02 -5.3660549223423004e-02 -6.5184324979782104e-02 -1.0201299190521240e-01 3.2301422208547592e-02 1.2449582666158676e-01 -1.5917006134986877e-01 1.4356228522956371e-02 -1.8605258082970977e-03 -3.3329978585243225e-02 -1.8330989778041840e-01 9.8821967840194702e-02 5.0032041035592556e-03 -7.8011248260736465e-03 -4.4482745230197906e-02 1.5089831314980984e-02 6.1203580349683762e-02 -1.6405049711465836e-02 -3.5664957016706467e-02 -1.1578871868550777e-02 -1.1705475859344006e-02 3.9045233279466629e-04 2.0024944096803665e-02 3.0442394316196442e-02 -1.2324904091656208e-02 -9.1672893613576889e-03 2.5937605649232864e-02 1.4147066511213779e-02 -8.3299310063011944e-05 5.3813915699720383e-02 3.3284220844507217e-02 -9.4750028802081943e-04 3.2587413443252444e-06 1.5988362953066826e-02 6.8956813775002956e-03 -2.9835587367415428e-02 1.0294323787093163e-02 1.3855904340744019e-02 6.1235536122694612e-04 4.9533406272530556e-03 -3.0527208000421524e-02 6.4450530335307121e-03 -1.4530343003571033e-02 -1.0394706623628736e-03 1.0596364736557007e-02 -2.7461284771561623e-03 -4.8726812005043030e-02 -7.4752792716026306e-02 1.4451503753662109e-02 -1.8817549571394920e-02 -5.7689875364303589e-02 -6.8125069141387939e-02 2.3648075759410858e-02 1.8031556159257889e-02 -1.0359642654657364e-01 -8.3881104364991188e-03 9.4701368361711502e-03 -4.0596462786197662e-02 -8.8723964989185333e-02 -2.1197922527790070e-01 1.6628164798021317e-02 4.7622036188840866e-02 1.1845899373292923e-01 -2.5567118078470230e-02 -9.0814515948295593e-02 5.6023202836513519e-02 9.5492154359817505e-02 2.9501678422093391e-02 2.4474268779158592e-02 1.2887433171272278e-02 -2.7673862874507904e-02 -2.6408419013023376e-02 1.3700488954782486e-02 1.0528511367738247e-02 -1.3865320943295956e-03 5.2580062765628099e-04 -1.1331082321703434e-02 -9.3194790184497833e-02 -1.5068549662828445e-02 2.5847944198176265e-04 -7.5385505333542824e-03 -1.5579755418002605e-02 4.4631220400333405e-02 2.4656376242637634e-01 -2.4267431348562241e-02 -6.0258749872446060e-02 -1.3548459112644196e-01 5.3413361310958862e-03 1.1242969334125519e-01 -6.4260028302669525e-02 -8.1540785729885101e-02 -3.2365400344133377e-02 -5.7147238403558731e-02 -1.0113123571500182e-03 4.2010579258203506e-02 6.2339011579751968e-02 -2.5208050385117531e-02 -1.9664615392684937e-02 1.5219173394143581e-02 4.0349829941987991e-02 -1.7350304406136274e-03 7.8307278454303741e-02 9.1455012559890747e-02 -2.0593060180544853e-03 -6.3660955056548119e-03 2.8289489448070526e-02 -1.6850842162966728e-02 -2.1086394786834717e-02 1.2352994643151760e-02 2.2898215800523758e-02 3.7603732198476791e-02 1.6127428971230984e-03 -4.4418808072805405e-02 8.9613217860460281e-03 -9.1048663307446986e-05 1.5981869772076607e-02 3.6603622138500214e-02 -1.1284312233328819e-02 -7.3607429862022400e-02 -8.6597017943859100e-02 2.7293652296066284e-02 -2.7542963624000549e-02 -6.1868581920862198e-02 -9.1210126876831055e-02 2.5470821186900139e-02 2.1584931761026382e-02 -1.2865163385868073e-01 5.5077476426959038e-03 3.6851966287940741e-03 -5.5314451456069946e-02 -1.0167548060417175e-01 -8.7329111993312836e-02 4.5978142879903316e-03 2.7811896055936813e-02 6.5974131226539612e-02 9.8551670089364052e-03 -1.7037751153111458e-02 4.6121705323457718e-02 5.4228469729423523e-02 2.8248839080333710e-03 2.7460942044854164e-02 1.1637239716947079e-02 -9.7208693623542786e-03 2.4118613509926945e-05 -7.5291320681571960e-03 2.5351276621222496e-02 1.6132466495037079e-02 5.1913288189098239e-04 -3.0397637747228146e-03 -1.0453056544065475e-02 -3.9269505068659782e-03 4.4965045526623726e-03 -1.1751579120755196e-02 -8.4571464685723186e-04 3.9125390350818634e-02 9.0057164430618286e-02 -1.4026577584445477e-02 -2.9413675889372826e-02 -7.2278961539268494e-02 2.4916448164731264e-03 7.5040571391582489e-02 -4.1058834642171860e-02 -2.5273563340306282e-02 -9.1704102233052254e-03 -2.7832843363285065e-02 -4.4530048035085201e-03 7.0039696991443634e-02 1.0305964201688766e-01 -3.7824999541044235e-02 3.1069132965058088e-03 5.0230719149112701e-02 8.4501609206199646e-02 -1.5730168670415878e-02 2.4723662063479424e-03 1.4649789035320282e-01 -2.1502324379980564e-03 2.8781627770513296e-03 6.0798481106758118e-02 9.3618966639041901e-02 1.6079643368721008e-01 -1.0766126215457916e-02 -4.5561674982309341e-02 -8.2786783576011658e-02 -2.1054793614894152e-03 7.7330172061920166e-02 -4.0420461446046829e-02 -5.6572027504444122e-02 -1.2462267652153969e-02 -4.2032141238451004e-02 6.6377031616866589e-03 3.6701925098896027e-02 5.1751255989074707e-02 -1.7438914626836777e-02 -2.9009662102907896e-03 2.3891977965831757e-02 3.7452347576618195e-02 -1.3884239830076694e-02 5.1132731139659882e-02 9.1236025094985962e-02 -1.3659548945724964e-02 1.0520835407078266e-02 3.8343120366334915e-02 8.6389528587460518e-03 -7.5007937848567963e-02 8.4967240691184998e-03 -1.0512129403650761e-02 8.0509958788752556e-03 -1.3057889416813850e-02 -6.0214735567569733e-02 -1.3952886685729027e-02 8.0195553600788116e-03 2.6508697774261236e-03 2.1194294095039368e-03 5.7270089164376259e-03 -3.9132926613092422e-02 -3.9510734379291534e-02 1.6099875792860985e-02 -3.2112982124090195e-02 -3.0627677217125893e-02 -5.4156973958015442e-02 1.1524663306772709e-02 -2.2150279954075813e-02 -7.2592519223690033e-02 2.2814855910837650e-03 -3.4309579059481621e-03 -3.0330609530210495e-02 -4.0966838598251343e-02 5.4804952815175056e-03 1.3780609006062150e-03 9.1931419447064400e-03 1.4190060086548328e-02 2.7801757678389549e-03 1.0774662718176842e-02 3.3083286136388779e-02 3.6086689680814743e-02 6.7831547930836678e-03 1.2431714683771133e-02 3.8400441408157349e-03 3.4736964851617813e-02 4.9978468567132950e-02 -2.4689093232154846e-02 2.6789775118231773e-02 4.4191047549247742e-02 5.0245702266693115e-02 4.1156630031764507e-03 -1.7629396170377731e-03 6.0975782573223114e-02 4.4242101721465588e-03 3.7744638975709677e-03 3.4081544727087021e-03 7.6945945620536804e-02 1.7489463090896606e-01 -9.3960370868444443e-03 -4.3773062527179718e-02 -9.5595508813858032e-02 1.7702456563711166e-02 9.0195707976818085e-02 -2.7182603254914284e-02 -5.0049789249897003e-02 -1.6699044033885002e-02 -2.9940128326416016e-02 -8.4202336147427559e-03 6.6476739943027496e-02 8.2626074552536011e-02 -1.9480848684906960e-02 2.5085150264203548e-04 3.3638361841440201e-02 6.0095921158790588e-02 -1.5987956896424294e-02 4.3861981481313705e-02 9.8741985857486725e-02 7.1587096899747849e-03 -8.3748530596494675e-03 3.2384224236011505e-02 3.1773246824741364e-02 4.5018848031759262e-02 -3.3984282054007053e-03 2.0310925319790840e-02 1.2936401180922985e-02 6.1295535415410995e-03 -6.3202893361449242e-03 2.6355627924203873e-02 -2.5576706975698471e-02 3.0368166044354439e-03 4.7530069947242737e-02 -8.8333589956164360e-03 -7.7448330819606781e-02 -1.3684143126010895e-01 4.1547946631908417e-02 -2.8591245412826538e-02 -7.7755734324455261e-02 -1.1749303340911865e-01 4.3150682002305984e-02 7.2100110352039337e-02 -2.0355650782585144e-01 2.7574081905186176e-03 -7.2878850623965263e-03 -6.7704759538173676e-02 -1.6702403128147125e-01 2.3936283588409424e-01 -4.6364148147404194e-03 -1.5705514699220657e-02 -8.2931943237781525e-02 2.9377548024058342e-02 9.8147876560688019e-02 -1.4718700200319290e-02 -9.3972742557525635e-02 -2.0187996327877045e-02 2.5824909098446369e-03 8.1425538519397378e-04 -4.7807205468416214e-02 -9.8273381590843201e-02 3.9017766714096069e-02 -4.8378743231296539e-02 -5.4441016167402267e-02 -9.2560447752475739e-02 2.5322483852505684e-02 1.4850929379463196e-01 -1.5099383890628815e-01 5.8242389932274818e-03 5.7757686590775847e-04 -3.4425370395183563e-02 -1.7538835108280182e-01 4.1485216468572617e-02 -4.8263636417686939e-03 -1.9520580768585205e-02 -4.7713879495859146e-02 8.3861565217375755e-03 4.4807188212871552e-02 -2.2894721478223801e-02 -2.4748284369707108e-02 -9.7812367603182793e-03 -5.2455078810453415e-02 -9.6315089613199234e-03 9.1139502823352814e-02 1.1973641067743301e-01 -4.4014919549226761e-02 1.7729809507727623e-02 5.9556778520345688e-02 1.1469604074954987e-01 -3.0539702624082565e-02 -4.0182422846555710e-02 1.9523301720619202e-01 -2.2912069689482450e-03 -2.2847857326269150e-03 6.5275005996227264e-02 1.2596409022808075e-01 -3.2063156366348267e-02 2.4835681542754173e-03 4.0870262309908867e-03 1.1323589831590652e-02 -1.7853460740298033e-03 5.3954902105033398e-03 1.4132380019873381e-03 2.6033956557512283e-02 1.1740089394152164e-02 -3.7039598100818694e-04 -6.3331280834972858e-03 4.9736008048057556e-02 5.0721243023872375e-02 -2.3872170597314835e-02 2.3629648610949516e-02 3.7934806197881699e-02 5.7383444160223007e-02 -2.1291123703122139e-02 -4.2496327310800552e-02 7.5997926294803619e-02 -8.7938541546463966e-03 6.9778482429683208e-03 1.5840556472539902e-02 9.4149976968765259e-02 3.3868587017059326e-01 -4.8167980276048183e-03 -4.7998730093240738e-02 -1.4792858064174652e-01 1.9083665683865547e-02 1.5184797346591949e-01 -6.0656629502773285e-02 -1.4610427618026733e-01 -1.9947152584791183e-02 -3.0899733304977417e-02 -9.4993039965629578e-03 -3.1623125076293945e-02 -4.8964332789182663e-02 1.3621580787003040e-02 -4.3701358139514923e-02 -3.6910157650709152e-02 -7.8820578753948212e-02 2.4377765133976936e-02 1.8955168128013611e-01 -7.9977281391620636e-02 7.4653048068284988e-04 -1.4988491311669350e-03 1.5308147994801402e-03 -1.6504237055778503e-01 -1.4485010504722595e-01 4.1071753948926926e-03 2.4962546303868294e-02 6.9968409836292267e-02 -3.3948288764804602e-03 -7.0032104849815369e-02 2.7412332594394684e-02 3.1431276351213455e-02 2.1305309608578682e-02 6.6595226526260376e-03 -6.0978084802627563e-03 -3.7491071969270706e-02 -3.7317276000976562e-02 1.9984027370810509e-02 -1.0190723463892937e-02 -1.6071602702140808e-02 -4.4714991003274918e-02 9.9686393514275551e-03 -5.4837882518768311e-02 -6.3037246465682983e-02 1.4603178016841412e-02 -1.6163692343980074e-03 -2.7345869690179825e-02 -1.9281229004263878e-02 -4.1466258466243744e-02 7.9756658524274826e-03 3.2704774290323257e-02 5.1871057599782944e-02 7.3212697170674801e-03 -3.7896517664194107e-02 5.5337455123662949e-02 2.3099608719348907e-02 1.3528023846447468e-02 6.7345522344112396e-02 -1.1255108751356602e-02 -1.1051457375288010e-01 -1.4997985959053040e-01 5.6925740092992783e-02 -5.4344204254448414e-03 -7.9950205981731415e-02 -1.3060356676578522e-01 2.1479906514286995e-02 4.5997321605682373e-02 -2.2764585912227631e-01 1.5723504126071930e-02 -9.0247206389904022e-03 -6.6402137279510498e-02 -1.5744440257549286e-01 8.6191087961196899e-02 -1.2467621825635433e-02 -4.8427591100335121e-03 -3.3410135656595230e-02 1.4718141406774521e-02 6.9612935185432434e-02 -9.7450381144881248e-03 -5.2299285307526588e-03 6.0055556241422892e-04 -2.2974884137511253e-02 9.5898751169443130e-03 4.2108491063117981e-02 6.1327628791332245e-02 -1.2021654285490513e-02 1.0787584818899632e-02 5.3435314446687698e-02 7.1419388055801392e-02 8.8379520457237959e-04 2.0968900993466377e-02 1.1161611229181290e-01 8.0751823261380196e-03 -1.9752429798245430e-03 4.1295327246189117e-02 7.1212425827980042e-02 3.0094860121607780e-03 -9.7265187650918961e-03 -1.0756637901067734e-02 -1.0139070451259613e-02 -1.3272156007587910e-02 2.6925779879093170e-02 -1.9877445884048939e-03 8.8542448356747627e-03 1.7719296738505363e-03 -1.4435059390962124e-02 -6.7060766741633415e-03 6.3354276120662689e-02 1.0626117885112762e-01 -2.9312778264284134e-02 2.4874430149793625e-02 4.3761402368545532e-02 9.7612492740154266e-02 -1.6649834811687469e-02 -5.5817373096942902e-02 1.4597171545028687e-01 -1.6823226585984230e-02 -8.7324036285281181e-03 5.4893616586923599e-02 1.1377970129251480e-01 -1.0145516693592072e-01 -1.7651557573117316e-04 1.2017765082418919e-02 3.4597281366586685e-02 -5.9319790452718735e-03 -5.3900450468063354e-02 -5.0697487313300371e-04 1.4037243090569973e-02 5.3482176735997200e-04 -1.5822306275367737e-02 3.0496018007397652e-03 -1.5708744758740067e-03 7.1458397433161736e-03 -2.1416139788925648e-03 -1.2671419419348240e-02 7.8243471216410398e-04 1.4918832108378410e-02 -4.8831040039658546e-03 -5.1331639289855957e-02 2.2306982427835464e-02 9.1466521844267845e-03 -1.0792082175612450e-02 -4.9600806087255478e-03 2.4590082466602325e-02 -2.5288116931915283e-01 1.1834612116217613e-02 5.2241399884223938e-02 1.3608367741107941e-01 -1.7183460295200348e-02 -1.2302776426076889e-01 7.2399698197841644e-02 8.9888587594032288e-02 2.7012882754206657e-02 4.7579471021890640e-02 -7.6700756326317787e-03 -5.8253608644008636e-02 -8.0954909324645996e-02 2.4312706664204597e-02 7.2192861698567867e-03 -3.0601989477872849e-02 -5.7087238878011703e-02 9.3918470665812492e-03 -7.0818535983562469e-02 -1.3384862244129181e-01 1.2964825145900249e-02 2.3440902587026358e-03 -6.4998865127563477e-02 -1.7721308395266533e-02 -1.6334456205368042e-01 1.4279033988714218e-02 4.4852733612060547e-02 9.1846898198127747e-02 -1.3311672024428844e-02 -7.4533276259899139e-02 3.6477454006671906e-02 5.9310093522071838e-02 8.9250737801194191e-03 2.6880037039518356e-02 1.4254572801291943e-02 -6.2503265216946602e-03 -7.9510000068694353e-04 -2.6633909437805414e-03 3.4255359321832657e-02 1.3062529265880585e-02 7.3547493666410446e-03 -1.2476897798478603e-02 -7.4062712490558624e-02 7.4337515980005264e-04 -1.0320902802050114e-03 5.4095988161861897e-03 -2.0175518468022346e-02 4.2918786406517029e-02 2.3533479869365692e-01 -2.0238000899553299e-02 -6.5163537859916687e-02 -1.2871448695659637e-01 1.2156430631875992e-02 1.0900370031595230e-01 -8.7950691580772400e-02 -8.5335575044155121e-02 -2.4787433445453644e-02 -7.9866282641887665e-02 -1.1588014662265778e-02 1.1145972460508347e-01 1.3453097641468048e-01 -4.3246347457170486e-02 -9.6193617209792137e-03 5.8968912810087204e-02 1.1965394765138626e-01 -1.1937337927520275e-02 2.3643169552087784e-02 1.8980012834072113e-01 -6.9140978157520294e-03 -4.1922293603420258e-03 8.0421790480613708e-02 6.4880810678005219e-02 -1.6777414083480835e-01 3.2252032309770584e-02 7.8279040753841400e-02 1.2294483929872513e-01 1.6893614083528519e-02 -1.0602039098739624e-01 9.3053817749023438e-02 7.9830713570117950e-02 2.8298445045948029e-02 1.0918054729700089e-01 7.5657097622752190e-03 -1.4376680552959442e-01 -1.9913360476493835e-01 6.9252118468284607e-02 4.2307209223508835e-03 -8.3966143429279327e-02 -1.6921913623809814e-01 2.8470195829868317e-02 4.2749233543872833e-02 -2.7629247307777405e-01 1.4770790934562683e-02 -1.0897766798734665e-02 -1.1071582883596420e-01 -1.5401160717010498e-01 1.3512910902500153e-01 -1.1540290899574757e-02 -1.4830548316240311e-02 -7.1581728756427765e-02 9.6987998113036156e-03 6.8900734186172485e-02 -2.9668949544429779e-02 -4.4024292379617691e-02 -1.6462298110127449e-02 -3.1350012868642807e-02 6.3029848970472813e-03 2.5945935398340225e-02 3.3248901367187500e-02 -1.7201101407408714e-02 3.7737302482128143e-03 2.0812544971704483e-02 2.2585749626159668e-02 -2.7871129568666220e-03 2.9592562466859818e-02 5.3688157349824905e-02 -1.2705974280834198e-02 8.2938233390450478e-04 2.5537509471178055e-02 -5.8617838658392429e-03 -1.5139399096369743e-02 -1.6269190236926079e-02 -2.0193044096231461e-02 -2.1864449605345726e-02 -1.8943868577480316e-02 -3.9796918630599976e-02 -4.1770465672016144e-02 -3.3866513520479202e-02 -3.9949077181518078e-03 -2.1003713831305504e-02 1.9332759547978640e-03 -3.6289088428020477e-02 -3.2603893429040909e-02 2.5995699688792229e-03 -3.6412052810192108e-02 -4.0364649146795273e-02 -4.6735852956771851e-02 4.8933187499642372e-03 -3.1002353876829147e-02 -2.7355210855603218e-02 7.5300596654415131e-03 2.1611924748867750e-03 -7.2465473785996437e-03 -5.5644545704126358e-02 -7.5683392584323883e-02 -2.3341507185250521e-03 1.6784412786364555e-02 4.5282777398824692e-02 -9.4427270814776421e-03 -5.0184205174446106e-02 2.9384506866335869e-02 1.2373887002468109e-02 1.4969601295888424e-02 1.7418047413229942e-02 1.3760481029748917e-02 -6.4431704580783844e-02 -8.0916374921798706e-02 2.2893460467457771e-02 -2.1649695932865143e-02 -4.6592283993959427e-02 -7.6502099633216858e-02 7.0786457508802414e-03 4.4146343134343624e-03 -1.2606704235076904e-01 5.8190957643091679e-03 3.7689411547034979e-03 -4.5050512999296188e-02 -6.8094067275524139e-02 1.9928051531314850e-01 -1.0334522463381290e-02 -4.2887847870588303e-02 -1.1775877326726913e-01 1.4440309256315231e-02 9.6850946545600891e-02 -4.9361988902091980e-02 -8.0752298235893250e-02 -3.3749442547559738e-02 -5.4051946848630905e-02 5.0747133791446686e-03 7.5941979885101318e-02 9.2908941209316254e-02 -3.4570347517728806e-02 -2.1406067535281181e-02 5.0850242376327515e-02 9.5639601349830627e-02 -4.6809054911136627e-03 2.7904117479920387e-02 1.6298677027225494e-01 -4.3097753077745438e-03 -4.0917363949120045e-03 7.2935983538627625e-02 4.3018359690904617e-02 -9.0583413839340210e-02 -5.0878366455435753e-03 -1.3675956288352609e-03 2.7400180697441101e-02 -3.3336372580379248e-03 -1.8246484920382500e-02 4.2394413612782955e-03 2.2397937253117561e-02 5.5114678107202053e-03 -1.4006718061864376e-02 2.8219888918101788e-03 5.1288399845361710e-02 8.9996911585330963e-02 -3.8903005421161652e-02 2.0196463912725449e-02 4.0657054632902145e-02 7.6900370419025421e-02 -3.1979445368051529e-02 -8.3914473652839661e-02 1.3474474847316742e-01 6.4767445437610149e-03 2.6481747627258301e-03 4.1028644889593124e-02 1.1312809586524963e-01 3.2476392388343811e-01 -2.9637864790856838e-03 -4.4279076159000397e-02 -1.4370024204254150e-01 3.4034691751003265e-02 1.3757464289665222e-01 -5.2711639553308487e-02 -1.1774262040853500e-01 -1.7359307035803795e-02 -3.4992061555385590e-02 -5.6858980096876621e-03 -6.6111390478909016e-03 -3.1874544918537140e-02 2.4761591106653214e-02 -4.7092746943235397e-02 -3.7516210228204727e-02 -6.3265830278396606e-02 3.2466731965541840e-02 1.7795063555240631e-01 -6.4451299607753754e-02 -1.1796036735177040e-02 -3.6898306570947170e-03 8.7768714874982834e-03 -1.4777444303035736e-01 1.6341716051101685e-01 -2.8666613623499870e-02 -5.7835947722196579e-02 -9.7035951912403107e-02 -3.6680889315903187e-03 9.5101378858089447e-02 -5.2941966801881790e-02 -5.3035002201795578e-02 -2.2785069420933723e-02 -6.9961860775947571e-02 1.3802947476506233e-02 8.9821644127368927e-02 1.3464659452438354e-01 -5.1144979894161224e-02 -1.3521644286811352e-03 4.7441240400075912e-02 1.1380954086780548e-01 -3.3467531204223633e-02 -3.8642163854092360e-03 2.0443417131900787e-01 -1.8840079428628087e-03 -1.4087390154600143e-02 6.0534141957759857e-02 9.7032986581325531e-02 -1.8962052464485168e-01 1.1371308006346226e-02 9.6056219190359116e-03 7.6713658869266510e-02 -2.5458397343754768e-02 -7.2524413466453552e-02 1.7514724284410477e-02 7.4186541140079498e-02 1.5161875635385513e-03 -1.4933048514649272e-03 7.9811997711658478e-03 5.1564656198024750e-02 7.6814450323581696e-02 -1.8259890377521515e-02 3.6813531070947647e-02 4.5118529349565506e-02 8.9651241898536682e-02 -1.9918579608201981e-02 -1.1758375167846680e-01 1.1369535326957703e-01 7.9489620402455330e-03 -6.7871352657675743e-03 1.5847111120820045e-02 1.3136899471282959e-01 -7.8523457050323486e-02 7.3892279760912061e-04 1.4107828028500080e-02 5.4889567196369171e-02 -1.0215089423581958e-03 -5.8240324258804321e-02 1.8451182171702385e-02 1.7431385815143585e-02 4.6090488322079182e-03 1.0363962501287460e-02 6.2597929500043392e-03 -4.0633074939250946e-02 -5.2750926464796066e-02 1.6928991302847862e-02 -1.7378732562065125e-02 -3.0400425195693970e-02 -3.8395788520574570e-02 7.2217294946312904e-03 -2.8390416875481606e-02 -7.5888007879257202e-02 7.0367278531193733e-03 9.7216051071882248e-03 -2.8208307921886444e-02 -2.5427186861634254e-02 5.1659427583217621e-02 -5.9434557333588600e-03 -2.4312134832143784e-02 -3.3331993967294693e-02 1.1428928002715111e-02 3.4165609627962112e-02 -1.6784373670816422e-02 -1.7627986147999763e-02 -1.3296890072524548e-02 -2.7920423075556755e-02 -4.4309142976999283e-03 5.1009394228458405e-02 4.5281879603862762e-02 -1.4548042789101601e-02 -5.9103369712829590e-03 3.2538726925849915e-02 4.6944264322519302e-02 -6.9279978051781654e-03 1.2280893512070179e-02 7.4365630745887756e-02 1.1774115264415741e-03 -1.0181285440921783e-02 3.8882419466972351e-02 4.1572194546461105e-02 -3.0894085764884949e-02 1.3148905709385872e-02 1.6528263688087463e-02 3.2661885023117065e-02 -1.1002483079209924e-03 -4.6553061110898852e-04 2.6541126891970634e-02 3.6989226937294006e-02 -3.1378192361444235e-03 2.9963778331875801e-02 4.3458016589283943e-03 -1.7744213342666626e-02 -2.7093788608908653e-02 -1.9845769274979830e-03 2.1365365013480186e-02 -3.2767509110271931e-03 8.1821146886795759e-04 4.0444242767989635e-03 -8.0772489309310913e-03 -2.1714406087994576e-02 1.3994776643812656e-02 -8.5125921759754419e-04 -1.1896331794559956e-02 -4.8695751465857029e-03 -6.9725491106510162e-02 1.0095295496284962e-02 1.1161414906382561e-02 4.1429400444030762e-02 -1.4888498000800610e-02 -5.4134022444486618e-02 1.1579411104321480e-02 7.4548730626702309e-03 1.2676521437242627e-03 9.4270212575793266e-03 1.2940214946866035e-03 -6.4200900495052338e-02 -5.9781715273857117e-02 9.2142559587955475e-03 -3.8706019986420870e-03 -4.8914682120084763e-02 -5.2991796284914017e-02 2.0871071144938469e-02 -3.5543555859476328e-03 -1.1269960552453995e-01 -1.0000960901379585e-02 -4.3933792039752007e-03 -5.0896499305963516e-02 -5.9981267899274826e-02 2.4862123653292656e-02 4.6061240136623383e-03 -5.6481882929801941e-03 -9.9066933616995811e-03 8.2514835521578789e-03 -5.0561460666358471e-03 -2.3582948371767998e-02 -4.1102856397628784e-02 6.0019870288670063e-03 4.2853471823036671e-03 1.4428220456466079e-03 -3.4402608871459961e-02 -5.0882659852504730e-02 4.8878188244998455e-03 -2.6891984045505524e-02 -4.6708445996046066e-02 -5.0416629761457443e-02 1.5487128868699074e-02 3.6098662763834000e-02 -5.7483781129121780e-02 -6.3071479089558125e-03 -7.6329475268721581e-03 -1.4251613058149815e-02 -8.5776619613170624e-02 -4.8019587993621826e-02 2.6453572791069746e-03 3.4372411668300629e-02 6.3453271985054016e-02 5.8009293861687183e-03 -3.6406580358743668e-02 5.0803996622562408e-02 1.9248127937316895e-02 6.4581207698211074e-04 3.6344267427921295e-02 1.2298170477151871e-02 -9.2731051146984100e-02 -1.3655143976211548e-01 3.8026385009288788e-02 -2.1772133186459541e-02 -7.0630662143230438e-02 -1.0924740880727768e-01 3.4582778811454773e-02 5.0300378352403641e-02 -1.8595007061958313e-01 1.2868011370301247e-02 -5.0039477646350861e-03 -7.4884042143821716e-02 -1.4165732264518738e-01 -1.5763252973556519e-01 1.0364836081862450e-02 2.7893647551536560e-02 6.3521042466163635e-02 3.1124094966799021e-03 -6.5302155911922455e-02 4.5245189219713211e-02 6.5829046070575714e-02 1.9434003159403801e-02 2.4866806343197823e-02 6.7505300976336002e-03 2.6472363620996475e-02 3.6135032773017883e-02 -4.7962409444153309e-03 3.3935431391000748e-02 3.0189085751771927e-02 3.6564998328685760e-02 -2.0434951409697533e-02 -6.5712124109268188e-02 2.8989108279347420e-02 6.7205820232629776e-03 -8.2972012460231781e-03 -6.0938219539821148e-03 8.2035571336746216e-02 -8.4074936807155609e-02 8.3492659032344818e-03 3.8831681013107300e-02 5.8373931795358658e-02 -4.7459583729505539e-03 -6.7926220595836639e-02 4.1039165109395981e-02 3.4533418715000153e-02 4.9598398618400097e-03 6.8527862429618835e-02 1.0476411320269108e-02 -1.0021669417619705e-01 -1.4754778146743774e-01 5.7004936039447784e-02 -5.9100645594298840e-03 -6.6747769713401794e-02 -1.2535673379898071e-01 3.7051446735858917e-02 4.1197001934051514e-02 -1.9437454640865326e-01 1.6285536810755730e-02 7.5793736614286900e-03 -8.0254286527633667e-02 -1.2350460886955261e-01 -2.9476182535290718e-02 1.2498073047026992e-03 3.6643086932599545e-03 5.3340517915785313e-03 -4.5355795882642269e-03 -3.2794852741062641e-03 5.6417738087475300e-03 6.5164668485522270e-03 6.0397870838642120e-03 5.7586804032325745e-03 1.2095517013221979e-03 2.1341172978281975e-02 4.0223449468612671e-02 -3.6046910099685192e-04 2.3557186126708984e-02 2.7903808280825615e-02 2.5525290518999100e-02 -1.8289213767275214e-03 -2.0279971882700920e-02 5.3584523499011993e-02 3.5456046462059021e-03 -9.6287147607654333e-04 2.3879265412688255e-02 4.3178465217351913e-02 -2.4385528266429901e-01 1.0891376994550228e-02 5.2190568298101425e-02 1.1454282701015472e-01 -2.7523173019289970e-02 -8.8436394929885864e-02 5.0656948238611221e-02 1.0383645445108414e-01 2.1230241283774376e-02 3.7897519767284393e-02 5.1237805746495724e-03 1.5616851858794689e-02 2.4435708299279213e-02 -1.6819654032588005e-02 3.9752177894115448e-02 2.1536381915211678e-02 3.1405664980411530e-02 -9.6688438206911087e-03 -1.3379238545894623e-01 2.4353355169296265e-02 1.3433589600026608e-02 4.9618938937783241e-03 -8.8117402046918869e-03 1.1621078848838806e-01 1.4040765166282654e-01 4.4690282084047794e-03 -1.6740363091230392e-02 -6.6736243665218353e-02 5.4345699027180672e-03 6.1219148337841034e-02 -2.6091046631336212e-02 -4.4546235352754593e-02 -5.0816107541322708e-03 -3.3580761402845383e-02 -8.6057902080938220e-05 2.5924315676093102e-02 5.3620923310518265e-02 1.1592512601055205e-04 -1.2533078901469707e-02 2.5155913084745407e-02 4.2510136961936951e-02 -3.8095719646662474e-03 5.2605878561735153e-02 5.8485072106122971e-02 -3.0309155117720366e-03 -2.4037242401391268e-03 1.8896915018558502e-02 1.7280889675021172e-02 3.0444279313087463e-01 -1.6368472948670387e-02 -5.2087195217609406e-02 -1.3276702165603638e-01 1.7188431695103645e-02 1.1329769343137741e-01 -4.7326114028692245e-02 -1.2806850671768188e-01 -3.7005040794610977e-02 -2.7328578755259514e-02 -2.7159112505614758e-03 -8.4953038021922112e-03 -5.0058197230100632e-03 1.3584597967565060e-02 -4.6538382768630981e-02 -2.0665420219302177e-02 -4.1890930384397507e-02 1.6219582408666611e-02 1.5308251976966858e-01 -2.9079360887408257e-02 -1.4228990301489830e-02 2.1627724636346102e-03 -1.5631222631782293e-03 -1.3074752688407898e-01 1.6878424584865570e-01 -5.9851701371371746e-03 -4.2820490896701813e-02 -9.9796675145626068e-02 1.2876980938017368e-02 7.4571393430233002e-02 -5.6905049830675125e-02 -5.4575968533754349e-02 -2.7985794469714165e-02 -3.7351429462432861e-02 -2.1148642990738153e-03 7.4676401913166046e-02 8.4152720868587494e-02 -3.3121626824140549e-02 -9.9649829789996147e-03 3.4704517573118210e-02 7.1467086672782898e-02 -3.7604370154440403e-03 3.2427571713924408e-02 1.3110589981079102e-01 2.6379371411167085e-04 -8.0126058310270309e-03 5.0553794950246811e-02 5.6572403758764267e-02 -5.5640798062086105e-02 1.5354149509221315e-03 9.1666532680392265e-03 1.3327104970812798e-02 -6.3648340292274952e-03 -1.8535932525992393e-02 -2.3073158808983862e-04 1.2046397663652897e-02 -1.7118228133767843e-03 -5.8981156907975674e-03 -4.7304952749982476e-04 -2.1408416796475649e-03 -5.5554751306772232e-03 3.5009451676160097e-03 -1.5531890094280243e-02 -1.2775626033544540e-02 -8.3329603075981140e-03 -3.5901961382478476e-03 -1.2814654037356377e-02 -2.1052088588476181e-02 1.2055806815624237e-02 7.2702574543654919e-03 -1.4380789361894131e-02 -2.4567337241023779e-03 2.6886776089668274e-01 -1.5393839217722416e-02 -1.8612353131175041e-02 -1.0273272544145584e-01 2.3547483608126640e-02 9.9932409822940826e-02 -2.5043884292244911e-02 -1.0903807729482651e-01 -6.3207079656422138e-03 -4.4118479127064347e-04 -1.1224873363971710e-02 -5.5320672690868378e-02 -9.1173939406871796e-02 2.8490854427218437e-02 -5.7843334972858429e-02 -4.7160688787698746e-02 -1.0137976706027985e-01 3.6938186734914780e-02 1.6523778438568115e-01 -1.5209920704364777e-01 -2.4056914262473583e-03 -6.4704255200922489e-03 -3.4497931599617004e-02 -1.9327779114246368e-01 6.4389944076538086e-02 -6.5319524146616459e-03 8.9256688952445984e-03 -1.8953811377286911e-02 1.2650645337998867e-02 2.3283967748284340e-02 -8.5528409108519554e-03 -3.4075889736413956e-02 -9.7293676808476448e-03 1.3484828174114227e-02 5.0873737782239914e-03 -6.9806605577468872e-02 -9.7244568169116974e-02 2.5204008445143700e-02 -3.3547218888998032e-02 -4.0805794298648834e-02 -8.0437704920768738e-02 3.0788056552410126e-02 8.0866880714893341e-02 -1.3547450304031372e-01 -1.2448272900655866e-03 6.0093663632869720e-03 -2.0368328317999840e-02 -1.3221615552902222e-01 2.1188622713088989e-01 -5.8856066316366196e-03 -2.4348890408873558e-02 -9.7229517996311188e-02 2.9033496975898743e-02 9.3033522367477417e-02 -4.2178809642791748e-02 -8.5151478648185730e-02 -2.1577894687652588e-02 -1.5294847078621387e-02 1.8696750048547983e-03 -2.9012594372034073e-02 -5.8252722024917603e-02 1.1644152924418449e-02 -2.1005043759942055e-02 -2.9291884973645210e-02 -4.8564311116933823e-02 3.6131300032138824e-02 1.3586580753326416e-01 -7.7201902866363525e-02 -4.4714347459375858e-03 -1.7488836310803890e-03 -8.4694446995854378e-03 -1.1923018097877502e-01 8.5068657994270325e-02 9.6695544198155403e-04 1.1473948834463954e-03 -2.5478176772594452e-02 7.7769379131495953e-03 2.1301861852407455e-02 2.1478589624166489e-03 -3.5645879805088043e-02 -3.8717363495379686e-03 2.1178148686885834e-02 -6.3341623172163963e-03 -7.0139542222023010e-02 -9.1060608625411987e-02 3.0033333227038383e-02 -4.0816780179738998e-02 -6.1261113733053207e-02 -8.2182802259922028e-02 2.0572323352098465e-02 7.8573912382125854e-02 -1.2030072510242462e-01 1.1753391474485397e-02 -9.0721957385540009e-03 -4.2473450303077698e-02 -1.4653009176254272e-01 3.2831850647926331e-01 -1.7774950712919235e-02 -5.1293015480041504e-02 -1.5165907144546509e-01 2.7042644098401070e-02 1.3514465093612671e-01 -7.5773574411869049e-02 -1.3218118250370026e-01 -3.6795675754547119e-02 -3.4521758556365967e-02 -3.4903998021036386e-03 3.3597040455788374e-03 -2.0284790545701981e-02 1.6462475061416626e-02 -4.8339512199163437e-02 -2.1244486793875694e-02 -3.1427036970853806e-02 3.0929919332265854e-02 1.6293929517269135e-01 -2.6919133961200714e-02 -2.8565102256834507e-03 3.4765453892759979e-04 1.2565074488520622e-02 -1.2985561788082123e-01 -1.8629743158817291e-01 1.4394766651093960e-02 5.2632588893175125e-02 1.0556945204734802e-01 -8.2744341343641281e-03 -1.0178338736295700e-01 5.9023227542638779e-02 6.5965645015239716e-02 1.5481666661798954e-02 3.9754733443260193e-02 -3.1969973351806402e-03 -6.9342605769634247e-02 -9.3879252672195435e-02 2.0262381061911583e-02 7.4741719290614128e-03 -3.2953698188066483e-02 -6.9983378052711487e-02 2.0777717232704163e-02 -4.3140441179275513e-02 -1.4518855512142181e-01 -4.1097919456660748e-03 8.2098105922341347e-03 -6.2944531440734863e-02 -5.6191276758909225e-02 6.0884766280651093e-02 7.2794025763869286e-03 3.0117457732558250e-02 -4.4296621344983578e-03 1.0623645968735218e-02 4.8857413232326508e-02 1.5862569212913513e-02 2.4180540814995766e-02 9.7010433673858643e-03 2.3733902722597122e-02 -7.3009515181183815e-03 3.6023788154125214e-02 2.0967589691281319e-02 -7.2829192504286766e-03 3.5950209945440292e-02 4.1520953178405762e-02 3.3986326307058334e-02 -2.4585579521954060e-03 2.8486287221312523e-02 2.3869348689913750e-02 -1.4640850946307182e-02 6.2169143930077553e-03 1.1736584827303886e-02 3.8604114204645157e-02 -8.4734879434108734e-02 -6.3558956608176231e-03 4.5347250998020172e-03 4.4749509543180466e-02 -1.5705542638897896e-02 -1.9047338515520096e-02 2.3843742907047272e-02 4.9370758235454559e-02 1.1103522963821888e-02 1.8134348792955279e-03 1.8369127064943314e-02 4.6154547482728958e-02 5.5311176925897598e-02 -6.8752979859709740e-03 2.7272678911685944e-02 3.6518428474664688e-02 6.1850175261497498e-02 -2.0491961389780045e-02 -4.6317361295223236e-02 8.7083250284194946e-02 1.0903681628406048e-02 -2.6662059826776385e-04 3.8941348902881145e-03 1.0096707940101624e-01 -2.8780981898307800e-01 1.5382988378405571e-02 5.7624652981758118e-02 1.5862359106540680e-01 -2.6010535657405853e-02 -1.2697909772396088e-01 6.6405393183231354e-02 1.2026230990886688e-01 3.6824863404035568e-02 4.9849022179841995e-02 1.0460302233695984e-02 -3.5988222807645798e-02 -3.6518499255180359e-02 -3.2524520065635443e-03 2.1371068432927132e-02 3.9711655117571354e-03 -1.8387908115983009e-02 -6.4402888529002666e-03 -1.0549204796552658e-01 -4.7940135002136230e-02 3.9919125847518444e-03 5.2175512537360191e-03 -3.4893345087766647e-02 5.6621998548507690e-02 -2.9570564627647400e-01 1.6345396637916565e-02 5.1784798502922058e-02 1.4202883839607239e-01 -2.7173697948455811e-02 -1.3130681216716766e-01 7.6184481382369995e-02 1.2161306291818619e-01 2.4212688207626343e-02 4.4665586203336716e-02 -2.0062669645994902e-03 -1.5174799598753452e-02 -3.5297222435474396e-02 -6.2818122096359730e-03 3.5167921334505081e-02 -4.9364157021045685e-03 9.1589475050568581e-03 -1.7358001321554184e-02 -1.2469777464866638e-01 -3.9608631283044815e-02 7.8591089695692062e-03 -8.0639841035008430e-03 -2.7277117595076561e-02 7.4088901281356812e-02 -5.3282935172319412e-02 2.1236091852188110e-03 4.0048155933618546e-02 3.7983745336532593e-02 2.4973293766379356e-03 -3.8003269582986832e-02 3.1270012259483337e-02 3.1570725142955780e-02 1.6228437423706055e-02 3.7697099149227142e-02 1.0156115517020226e-02 -7.4347130954265594e-02 -1.0031348466873169e-01 3.4693438559770584e-02 1.8247414845973253e-03 -4.4131621718406677e-02 -8.0646671354770660e-02 5.4181786254048347e-03 3.8533329963684082e-02 -1.3471086323261261e-01 1.2062706984579563e-02 -2.3570302873849869e-03 -5.7115934789180756e-02 -7.1906454861164093e-02 5.8563612401485443e-02 -1.1802341789007187e-02 1.6807768261060119e-03 -3.5385131835937500e-02 6.3074566423892975e-03 1.3027911074459553e-02 -4.7390335239470005e-03 -4.1391950100660324e-02 -1.2234926223754883e-02 -1.9872875418514013e-03 1.8589390674605966e-03 -2.0631594583392143e-02 -2.3493243381381035e-02 7.3463586159050465e-04 -1.8247934058308601e-02 -1.7459198832511902e-02 -4.3710984289646149e-02 6.8028038367629051e-03 4.8603124916553497e-02 -4.0966872125864029e-02 1.8650518031790853e-03 -9.8049771040678024e-03 -1.1734656058251858e-02 -6.1734762042760849e-02 -1.0523614287376404e-01 7.1403393521904945e-03 2.7123577892780304e-02 7.2767846286296844e-02 -1.5244212001562119e-02 -5.8148965239524841e-02 3.6022532731294632e-02 5.7947758585214615e-02 1.2298979796469212e-02 2.5175297632813454e-02 2.4724241811782122e-03 -2.0452885655686259e-04 -5.8830599300563335e-03 5.0940145738422871e-03 2.3743618279695511e-02 3.9324294775724411e-03 1.3337044976651669e-02 -1.1898775584995747e-02 -4.2797390371561050e-02 -1.1616867035627365e-02 1.3594714924693108e-02 1.0348539799451828e-02 3.0333313625305891e-03 4.9185324460268021e-02 -8.0174118280410767e-02 -4.0878597646951675e-03 6.5278224647045135e-03 2.9401570558547974e-02 -3.7235261406749487e-03 -4.2539570480585098e-02 2.0397029817104340e-02 9.8688835278153419e-03 1.5166966244578362e-02 1.6389736905694008e-02 9.3706846237182617e-03 -5.1648396998643875e-02 -6.2639571726322174e-02 1.0338684543967247e-02 -3.0425756704062223e-03 -3.9297245442867279e-02 -4.1728895157575607e-02 6.7266756668686867e-03 -2.2095790132880211e-02 -8.1473581492900848e-02 4.3255328200757504e-03 -6.7841904237866402e-03 -2.0685436204075813e-02 -3.2435368746519089e-02 3.0339047312736511e-02 -1.5853635966777802e-02 -3.5558301955461502e-02 -5.3724315017461777e-02 -1.0050787590444088e-02 -3.4480979666113853e-03 -5.2169147878885269e-02 -2.7214575558900833e-02 -5.6220670230686665e-03 -3.6446966230869293e-02 1.1025650892406702e-03 -1.1058344505727291e-02 6.5251365303993225e-03 -7.6876506209373474e-03 -3.6378949880599976e-02 -1.8122261390089989e-02 5.2512907423079014e-03 7.9386485740542412e-03 -6.7081931047141552e-03 2.0053889602422714e-02 -1.0946938768029213e-02 3.5909183789044619e-03 8.8252602145075798e-03 -7.7693616040050983e-03 1.1533499509096146e-01 4.7317082062363625e-03 3.0654578004032373e-03 -3.9458964020013809e-02 5.5719763040542603e-03 3.7636477500200272e-02 -1.1497878469526768e-02 -4.0083631873130798e-02 -5.9088552370667458e-03 1.2863485142588615e-02 -7.6386653818190098e-03 -4.4856630265712738e-02 -8.0487057566642761e-02 1.6477886587381363e-02 -2.6183836162090302e-02 -4.0505334734916687e-02 -7.8337416052818298e-02 3.3764641731977463e-02 8.0585487186908722e-02 -1.3243997097015381e-01 1.2527325190603733e-02 -8.8944856543093920e-04 -4.0772296488285065e-02 -1.3669911026954651e-01 -5.5604875087738037e-02 1.8619777634739876e-02 2.9923772439360619e-02 4.5132167637348175e-02 3.6160289309918880e-03 -5.4937273263931274e-02 2.9098210856318474e-02 9.9607435986399651e-03 4.5720906928181648e-03 3.3902376890182495e-02 -1.4481826685369015e-02 -5.9806264936923981e-02 -1.0620742291212082e-01 2.7677631005644798e-02 -2.5259561836719513e-02 -5.7090964168310165e-02 -9.0469405055046082e-02 1.0591656900942326e-02 1.6496829688549042e-02 -1.3821282982826233e-01 1.7993323504924774e-02 3.0581473838537931e-03 -4.4144667685031891e-02 -1.0931690782308578e-01 -1.1561373621225357e-01 4.5073763467371464e-03 2.9881574213504791e-02 4.7012541443109512e-02 -1.0720219463109970e-02 -6.1924465000629425e-02 2.0707376301288605e-02 4.1236661374568939e-02 1.1567619629204273e-02 1.3807039707899094e-02 -1.0146383428946137e-03 -3.9390824735164642e-02 -5.4353646934032440e-02 1.3813815079629421e-02 4.3254941701889038e-03 -1.9999912008643150e-02 -3.0781362205743790e-02 -7.4953655712306499e-03 -2.3376196622848511e-02 -7.3921337723731995e-02 3.5291921813040972e-03 6.9699790328741074e-03 -1.6139984130859375e-02 -2.0510012283921242e-02 1.4956013858318329e-01 -1.2010552920401096e-02 -2.6087563484907150e-02 -8.7399810552597046e-02 6.1273435130715370e-03 7.2982631623744965e-02 -3.8336459547281265e-02 -4.6733051538467407e-02 -2.5928663089871407e-02 -3.2625675201416016e-02 -1.4554048888385296e-02 2.8539381921291351e-02 4.7769106924533844e-02 -9.1611519455909729e-03 -1.8498241901397705e-02 1.9145395606756210e-02 1.4380291104316711e-02 -5.3204600699245930e-03 5.7925328612327576e-02 5.5160276591777802e-02 -2.7342673274688423e-04 -8.1245498731732368e-03 2.7250085026025772e-02 -1.6403328627347946e-02 7.2944574058055878e-02 -8.6977221071720123e-03 4.2211441323161125e-03 -3.0017402023077011e-02 1.0788253508508205e-02 3.7927754223346710e-02 -5.3838109597563744e-03 -1.7426734557375312e-03 1.5837557148188353e-03 -5.7081165723502636e-03 8.0028250813484192e-03 2.8107888996601105e-02 3.0944239348173141e-02 -6.9218734279274940e-03 -1.6520832432433963e-03 2.8833184391260147e-02 3.2327417284250259e-02 -1.1785058304667473e-02 1.3091530650854111e-02 6.6020227968692780e-02 -9.0381666086614132e-04 -1.5967527870088816e-03 2.3908970877528191e-02 2.0929848775267601e-02 -5.2196845412254333e-02 -6.5595363266766071e-03 1.6326920595020056e-03 1.2627053074538708e-02 -1.0225947946310043e-02 8.3712553605437279e-03 -2.9397457838058472e-03 1.4571547508239746e-02 8.9711705222725868e-03 -2.2587310522794724e-02 9.9469646811485291e-03 5.2933201193809509e-02 8.8435254991054535e-02 -2.9586784541606903e-02 1.7005451023578644e-02 6.4148902893066406e-02 9.8504170775413513e-02 -3.1389739364385605e-02 -7.4014633893966675e-02 1.3242025673389435e-01 -1.1840598657727242e-02 -7.3755783960223198e-03 5.2152562886476517e-02 1.3871516287326813e-01 3.1156599521636963e-01 -7.4416608549654484e-03 -3.9243366569280624e-02 -1.3976924121379852e-01 2.0288681611418724e-02 1.3859200477600098e-01 -5.1591366529464722e-02 -1.3517573475837708e-01 -2.2141475230455399e-02 -6.5019866451621056e-03 -9.0814847499132156e-03 -4.4115737080574036e-02 -5.6133512407541275e-02 1.8050534650683403e-02 -5.5975887924432755e-02 -5.3722411394119263e-02 -8.3606705069541931e-02 2.8757210820913315e-02 1.8345925211906433e-01 -1.1156833916902542e-01 2.9742803890258074e-03 2.0937477238476276e-03 -1.5414288267493248e-02 -1.7199246585369110e-01 4.4654771685600281e-02 1.7804156523197889e-03 -1.9745063036680222e-02 -4.3924901634454727e-02 1.2899388559162617e-02 1.7727376893162727e-02 -2.0880300551652908e-02 -3.9473205804824829e-02 -1.6601845622062683e-02 -2.1985748782753944e-02 9.5508443191647530e-03 -1.1031941510736942e-02 -1.4038688503205776e-02 -1.7327165696769953e-03 -9.8289037123322487e-03 -2.5925854220986366e-02 -2.8127253055572510e-02 7.1261520497500896e-03 2.7734261006116867e-02 -2.0772019401192665e-02 9.9096214398741722e-03 -3.0307297129184008e-03 -1.4533710666000843e-02 -4.4610429555177689e-02 -1.7674500122666359e-02 1.8549442291259766e-02 3.4234493970870972e-02 3.3881369978189468e-02 1.4142991974949837e-02 2.3288581520318985e-02 3.8865260779857635e-02 5.1141217350959778e-02 -2.3540570400655270e-03 3.1878214329481125e-02 -9.7151286900043488e-03 3.3896449953317642e-02 4.0878873318433762e-02 -8.4461801452562213e-04 4.0336538106203079e-02 4.8676699399948120e-02 5.0120554864406586e-02 -9.0072043240070343e-03 -2.4737124331295490e-03 3.2618559896945953e-02 -3.6402645055204630e-03 1.7682607285678387e-03 -3.9076604880392551e-03 7.2712682187557220e-02 -2.9211831092834473e-01 1.2631276622414589e-02 5.1776375621557236e-02 1.5729965269565582e-01 -2.8426012024283409e-02 -1.2933446466922760e-01 6.6222541034221649e-02 1.2113180756568909e-01 2.9240084812045097e-02 4.2677070945501328e-02 1.2629940174520016e-02 -3.5994105041027069e-02 -3.3314831554889679e-02 -3.6395357456058264e-03 3.9271559566259384e-02 -1.1435241438448429e-02 -3.4135186579078436e-03 -3.9514140225946903e-03 -1.1271180957555771e-01 -4.0210548788309097e-02 1.5507148578763008e-02 2.6873876340687275e-03 -3.6974556744098663e-02 6.7151106894016266e-02 -4.4998627156019211e-02 -3.8593052886426449e-03 -9.0319635346531868e-03 -1.4254836365580559e-02 2.3310454562306404e-03 -3.6028232425451279e-02 -1.4878544025123119e-02 -1.6537750139832497e-02 -6.0668610967695713e-03 -7.6076220721006393e-03 -3.1225779093801975e-03 -2.3207494989037514e-02 -9.5467083156108856e-03 4.3812240473926067e-03 -2.9098683968186378e-02 -1.9769666716456413e-02 -2.9169155284762383e-02 7.7416603744495660e-05 -2.6136402040719986e-02 -7.5138341635465622e-03 2.1264420356601477e-03 8.9334212243556976e-03 2.1476130932569504e-03 -1.8135841935873032e-02 1.5935489535331726e-01 -2.2183516994118690e-02 -5.3727410733699799e-02 -8.9312605559825897e-02 -5.9142773970961571e-03 8.6053259670734406e-02 -5.6696861982345581e-02 -5.9500541538000107e-02 -2.5638975203037262e-02 -6.1211656779050827e-02 -6.1048842035233974e-03 6.4675822854042053e-02 8.8650666177272797e-02 -2.7527326717972755e-02 -1.2234813533723354e-02 3.1166728585958481e-02 6.9578789174556732e-02 -1.5080268494784832e-02 1.2622725218534470e-02 1.3808265328407288e-01 -1.6375722363591194e-02 -3.5304285120218992e-03 6.2713675200939178e-02 3.8789350539445877e-02 3.9088040590286255e-01 -1.4276402071118355e-02 -5.7067640125751495e-02 -1.8369783461093903e-01 2.9323840513825417e-02 1.7341277003288269e-01 -6.9070450961589813e-02 -1.6426500678062439e-01 -4.0378000587224960e-02 -3.7100270390510559e-02 -1.6197936609387398e-02 -1.7535470426082611e-02 -3.1277179718017578e-02 1.8180111423134804e-02 -4.3326701968908310e-02 -3.4726809710264206e-02 -6.9125205278396606e-02 3.2258655875921249e-02 1.9392029941082001e-01 -5.4893732070922852e-02 -2.4473064113408327e-03 -6.2607093714177608e-03 -3.2175800297409296e-03 -1.7625689506530762e-01 -7.0729300379753113e-02 3.7496788427233696e-03 -6.2154703773558140e-03 8.2355756312608719e-03 -1.1348404921591282e-02 -9.5564499497413635e-03 -2.4745475966483355e-03 2.8354166075587273e-02 6.4241131767630577e-03 -9.0007474645972252e-03 1.2213974259793758e-02 6.4784437417984009e-02 9.7211532294750214e-02 -3.7460453808307648e-02 4.0901079773902893e-02 5.3443819284439087e-02 9.3247286975383759e-02 -3.2503671944141388e-02 -5.5557414889335632e-02 1.5865953266620636e-01 -1.9578693434596062e-02 -4.8220246098935604e-03 4.7425668686628342e-02 1.5729704499244690e-01 6.2441524118185043e-02 -5.8972272090613842e-03 -3.1775727868080139e-02 -5.3238164633512497e-02 -3.9384625852108002e-03 5.7635929435491562e-02 -4.9468763172626495e-02 -2.5022486224770546e-02 -1.1741147376596928e-02 -5.1040973514318466e-02 1.0387345217168331e-02 8.4719628095626831e-02 1.3029871881008148e-01 -4.2977385222911835e-02 -2.5510792620480061e-03 5.9845410287380219e-02 1.0592656582593918e-01 -2.6446951553225517e-02 -4.2592611163854599e-02 1.8011364340782166e-01 -3.7050113314762712e-04 3.7197123747318983e-03 7.2490938007831573e-02 1.0274478793144226e-01 1.9676518440246582e-01 -1.1261489242315292e-02 -3.9484612643718719e-02 -9.3084603548049927e-02 2.2095629945397377e-02 6.7752338945865631e-02 -3.0672637745738029e-02 -7.5774870812892914e-02 -2.8968568891286850e-02 -6.3346899114549160e-03 -1.3371898792684078e-02 -1.8417214974761009e-02 -2.1081613376736641e-02 9.4285681843757629e-03 -3.2847564667463303e-02 -3.2939571887254715e-02 -4.5511838048696518e-02 2.3945989087224007e-02 1.0251763463020325e-01 -5.2463524043560028e-02 6.6068456508219242e-03 -1.0351854376494884e-02 -3.6141800228506327e-03 -1.0668364912271500e-01 5.5394139140844345e-02 -9.9909240379929543e-03 -5.7818549685180187e-03 -2.6583148166537285e-02 6.5958364866673946e-03 4.6045221388339996e-02 7.9781673848628998e-03 3.4088140819221735e-03 4.8151044175028801e-03 -5.6341756135225296e-03 -5.9352139942348003e-03 4.4413838535547256e-02 4.9437988549470901e-02 -2.6998450048267841e-03 7.8848842531442642e-03 4.3519098311662674e-02 4.1720956563949585e-02 3.7195135373622179e-03 2.6543188840150833e-02 6.9477781653404236e-02 9.9209113977849483e-04 -4.2432202026247978e-03 1.6835035756230354e-02 2.5889148935675621e-02 -4.3101674318313599e-01 1.6298608854413033e-02 6.4285948872566223e-02 1.8411466479301453e-01 -4.2531609535217285e-02 -1.8684445321559906e-01 7.3452346026897430e-02 1.6835935413837433e-01 2.2327929735183716e-02 3.3576145768165588e-02 1.4211509376764297e-02 5.2103288471698761e-02 1.0442814975976944e-01 -2.6044471189379692e-02 6.7599646747112274e-02 8.4183521568775177e-02 1.2483116984367371e-01 -5.8389540761709213e-02 -2.6190942525863647e-01 1.6065022349357605e-01 4.9276892095804214e-03 9.9426582455635071e-03 -4.6962997876107693e-03 2.5229886174201965e-01 2.0233021676540375e-01 -9.7498502582311630e-03 -3.5934712737798691e-02 -1.0414624214172363e-01 6.0600545257329941e-03 9.8521105945110321e-02 -6.1266399919986725e-02 -7.4415467679500580e-02 -2.5234689936041832e-02 -4.3278176337480545e-02 -3.4309390466660261e-03 6.6747672855854034e-02 7.4059993028640747e-02 -1.3670988380908966e-02 -6.1183432117104530e-03 1.6926702111959457e-02 4.3521869927644730e-02 -9.9799688905477524e-03 4.9251474440097809e-02 9.5394939184188843e-02 -1.1709755286574364e-02 9.7615793347358704e-03 4.8475403338670731e-02 1.8605234101414680e-02 -2.3536635935306549e-01 -8.5100851720198989e-04 3.3601026982069016e-02 1.0359428077936172e-01 -9.0989815071225166e-03 -9.9616907536983490e-02 4.5587029308080673e-02 8.9535668492317200e-02 2.2562198340892792e-02 2.2981472313404083e-02 5.9353946708142757e-03 2.9789377003908157e-02 2.7895385399460793e-02 -2.2202385589480400e-03 2.7873104438185692e-02 2.4259559810161591e-02 5.1105156540870667e-02 -2.7633460238575935e-02 -1.3139891624450684e-01 6.1737533658742905e-02 1.4004208147525787e-02 5.3530489094555378e-03 -5.6801014579832554e-03 1.1244731396436691e-01 -1.2868842482566833e-01 1.9367989152669907e-02 2.6730509474873543e-02 7.1360461413860321e-02 -4.3009016662836075e-03 -5.6196980178356171e-02 4.6074688434600830e-02 5.2668083459138870e-02 1.3561047613620758e-02 4.4716876000165939e-02 4.1985707357525826e-03 -1.8040593713521957e-02 -4.2290836572647095e-02 7.1786167100071907e-03 2.0525082945823669e-02 -1.1216077953577042e-02 -1.0709845460951328e-02 -5.4078591056168079e-03 -3.9160128682851791e-02 -6.1510521918535233e-02 8.5732964798808098e-03 8.0757914111018181e-03 -3.2440729439258575e-02 1.6905250027775764e-02 1.0375527292490005e-01 7.1350997313857079e-03 -6.7635630257427692e-03 -4.1232712566852570e-02 2.0939568057656288e-02 6.0660459101200104e-02 -1.2842468917369843e-02 -2.7575898915529251e-02 -2.4961351882666349e-03 -4.8259734176099300e-03 9.0834349393844604e-03 2.6799010112881660e-02 2.3470658808946609e-02 -1.0215579532086849e-02 -8.0356216058135033e-03 2.9862601310014725e-02 2.0937632769346237e-02 -8.9814960956573486e-03 4.2359575629234314e-02 4.8456359654664993e-02 1.9251824123784900e-03 8.1494329497218132e-03 1.0916196741163731e-02 -4.7084831749089062e-05 -1.1322561651468277e-01 5.0020343624055386e-03 1.2472543865442276e-02 5.1538977771997452e-02 -1.2522514909505844e-02 -6.5624006092548370e-02 2.0447639748454094e-02 2.8984831646084785e-02 6.2672826461493969e-03 2.1742198616266251e-02 -4.6393550001084805e-03 -4.6868517994880676e-02 -3.4779388457536697e-02 2.0123603753745556e-03 -6.0726008377969265e-03 -2.2843321785330772e-02 -3.7555612623691559e-02 -6.0624014586210251e-03 -2.1926298737525940e-02 -6.8244263529777527e-02 7.9806325957179070e-03 -3.4950890112668276e-03 -1.3357007876038551e-02 -2.5640197098255157e-02 2.5819617509841919e-01 -2.7061987668275833e-02 -5.5354025214910507e-02 -1.5233097970485687e-01 1.9062217324972153e-02 1.3227894902229309e-01 -5.8730863034725189e-02 -9.3347199261188507e-02 -2.3994237184524536e-02 -7.0813350379467010e-02 -4.4243098236620426e-03 7.8262113034725189e-02 1.0123710334300995e-01 -3.8870438933372498e-02 -2.7794906869530678e-02 5.2836123853921890e-02 9.6238225698471069e-02 -1.1203256435692310e-02 5.8061361312866211e-02 1.6964767873287201e-01 -6.6415122710168362e-03 -4.4720494188368320e-03 6.2233719974756241e-02 3.0034108087420464e-02 -3.9126968383789062e-01 2.4992505088448524e-02 7.3340959846973419e-02 1.9418470561504364e-01 -1.8788829445838928e-02 -1.5912255644798279e-01 8.6247369647026062e-02 1.5254297852516174e-01 4.1237253695726395e-02 4.7960758209228516e-02 4.6784202568233013e-03 -1.1716907843947411e-02 -6.8029179237782955e-03 -1.6211137175559998e-02 4.7551240772008896e-02 2.4374118074774742e-02 3.8205325603485107e-02 -3.2548271119594574e-02 -1.8196593225002289e-01 2.3477232083678246e-02 5.5424124002456665e-03 -1.3228036696091294e-03 -1.5183287672698498e-02 1.2223691493272781e-01 1.6980411112308502e-01 -9.0022925287485123e-03 3.4786132164299488e-04 -4.2966138571500778e-02 4.0915687568485737e-03 3.8203582167625427e-02 -5.9605687856674194e-03 -5.0664309412240982e-02 -4.5748553238809109e-03 2.0998593419790268e-02 -5.7822344824671745e-03 -6.8057253956794739e-02 -1.1471109092235565e-01 4.7751858830451965e-02 -4.2942725121974945e-02 -7.7577799558639526e-02 -1.0780920833349228e-01 4.5491099357604980e-02 1.3373607397079468e-01 -1.8543079495429993e-01 1.0382140986621380e-02 4.3344399891793728e-03 -3.5634808242321014e-02 -1.9237178564071655e-01 -2.4744887650012970e-01 -7.8722485341131687e-04 3.6759279668331146e-02 1.2195831537246704e-01 -2.2521391510963440e-02 -1.1564555764198303e-01 5.9998001903295517e-02 1.0821820050477982e-01 1.7677204683423042e-02 3.1153356656432152e-02 9.0931626036763191e-03 4.2855874635279179e-03 1.7693206667900085e-02 -2.8761879075318575e-03 3.7228744477033615e-02 2.3603439331054688e-02 2.9746180400252342e-02 -1.4709156937897205e-02 -1.1809764057397842e-01 3.3264674246311188e-02 3.3031576313078403e-03 -1.5179501497186720e-04 9.4005707651376724e-03 1.0142917186021805e-01 -4.1362836956977844e-01 1.1852853000164032e-02 8.0589853227138519e-02 2.0164969563484192e-01 -4.2387790977954865e-02 -1.9538982212543488e-01 7.8616946935653687e-02 1.7690598964691162e-01 4.1561070829629898e-02 5.1485631614923477e-02 6.9669662043452263e-03 1.4669307274743915e-03 1.9843384623527527e-02 -3.2472687307745218e-03 4.3866749852895737e-02 2.2789934650063515e-02 4.6638544648885727e-02 -4.0990576148033142e-02 -2.0362260937690735e-01 3.5803541541099548e-02 4.2717112228274345e-03 1.9430359825491905e-03 -1.2535447254776955e-02 1.5744578838348389e-01 2.2142811119556427e-01 2.3468084691558033e-04 -5.2827294915914536e-02 -1.0410273820161819e-01 2.8026752173900604e-02 9.7563527524471283e-02 -4.5401174575090408e-02 -7.9841934144496918e-02 -1.9802410155534744e-02 -2.7003332972526550e-02 -1.5558412298560143e-02 2.2258287295699120e-02 3.1442314386367798e-02 1.4966522576287389e-03 -2.7622837573289871e-02 2.3722054902464151e-03 -1.7164399614557624e-03 9.9434321746230125e-03 9.7374513745307922e-02 1.8865244463086128e-02 1.5561757027171552e-04 5.3887115791440010e-03 1.1170319281518459e-02 -4.8538364470005035e-02 -5.1632896065711975e-02 1.3070007553324103e-03 1.4241739176213741e-02 4.2666144669055939e-02 5.4761040955781937e-03 -1.8684042617678642e-02 1.4485474675893784e-02 2.6967354118824005e-02 1.1355525813996792e-02 1.7227305099368095e-02 -8.2862167619168758e-04 9.8560387268662453e-03 2.6730662211775780e-02 4.0696286596357822e-03 2.8833093121647835e-02 2.2380303591489792e-02 1.6401261091232300e-02 -2.1468952763825655e-03 -3.7579253315925598e-02 1.5565438196063042e-02 8.0604379763826728e-04 7.8774644061923027e-03 2.9295459389686584e-03 4.6053390949964523e-02 2.2867138683795929e-01 -2.7535635977983475e-02 -6.9761417806148529e-02 -1.2843398749828339e-01 2.3591495119035244e-03 1.1854034662246704e-01 -6.4633764326572418e-02 -7.9493775963783264e-02 -2.9483502730727196e-02 -7.9284131526947021e-02 1.1706045828759670e-02 9.2872768640518188e-02 1.0307474434375763e-01 -2.0962512120604515e-02 -2.4767525494098663e-02 6.4448632299900055e-02 1.0431797057390213e-01 -2.2894535213708878e-02 2.9976598918437958e-02 1.7523267865180969e-01 -1.0273818857967854e-02 7.0745507255196571e-03 6.8906567990779877e-02 6.1220530420541763e-02 -3.2928937673568726e-01 8.1413183361291885e-03 6.8768352270126343e-02 1.5338641405105591e-01 -3.5781897604465485e-02 -1.4816957712173462e-01 6.7521616816520691e-02 1.3825957477092743e-01 4.0759883821010590e-02 4.9933876842260361e-02 9.7314454615116119e-03 -8.5538197308778763e-03 -5.0469986163079739e-03 9.2769842594861984e-03 2.6590371504426003e-02 2.2762397304177284e-02 1.4774802140891552e-02 -3.0661687254905701e-02 -1.5715482831001282e-01 -8.3295414224267006e-03 6.2291664071381092e-03 4.9546505324542522e-03 -1.0678169317543507e-02 1.0283984243869781e-01 3.3953532576560974e-02 -9.5929624512791634e-03 1.5719968825578690e-02 -1.0488269850611687e-02 1.6020786017179489e-02 2.4911763146519661e-02 1.1719599366188049e-02 -2.7618780732154846e-03 -6.3485843129456043e-03 3.2736393623054028e-03 -7.1665965951979160e-03 3.3419534564018250e-02 3.2243229448795319e-02 -1.8752394244074821e-02 2.7971822768449783e-02 1.7809361219406128e-02 3.5404764115810394e-02 -9.8042367026209831e-03 1.2735329568386078e-02 4.0711607784032822e-02 8.4406547248363495e-03 -1.1303015053272247e-02 8.6500095203518867e-03 4.5292731374502182e-02 1.0629213601350784e-01 -1.0599288158118725e-02 -3.7685193121433258e-02 -6.3082307577133179e-02 5.3206160664558411e-03 5.2096828818321228e-02 -2.6880310848355293e-02 -4.5647341758012772e-02 -8.0138752236962318e-03 -1.6304045915603638e-02 6.6722221672534943e-03 1.9953727722167969e-02 1.8654858693480492e-02 -1.5490473015233874e-04 -3.3489922061562538e-03 1.6775052994489670e-02 1.5574862249195576e-02 -4.5342970406636596e-04 2.1572796627879143e-02 4.5665062963962555e-02 5.5171013809740543e-03 7.1466928347945213e-03 1.7238480970263481e-02 -2.3650010116398335e-03 1.0829878039658070e-02 7.8031915472820401e-04 7.6919035054743290e-03 8.5963215678930283e-03 7.2108097374439240e-03 2.2443171474151313e-04 2.5465993210673332e-02 4.5243679778650403e-04 1.5308918431401253e-02 2.7414485812187195e-02 1.1359706521034241e-02 -6.0225281864404678e-02 -1.1285801976919174e-01 2.5718444958329201e-02 -1.7834035679697990e-02 -5.9879831969738007e-02 -8.6707264184951782e-02 2.7521159499883652e-02 6.4434021711349487e-02 -1.5595960617065430e-01 7.8866826370358467e-03 -1.0589136742055416e-02 -5.6258771568536758e-02 -1.1913303285837173e-01 6.7803706042468548e-03 8.0209141597151756e-03 3.0280860140919685e-02 3.8005590438842773e-02 1.8423177301883698e-02 2.4081584066152573e-02 3.1418047845363617e-02 3.9153218269348145e-02 1.2741392478346825e-02 1.7973486334085464e-02 5.5292239412665367e-03 4.1144628077745438e-02 2.4329569190740585e-02 -1.2011696584522724e-02 5.2444610744714737e-02 3.6742933094501495e-02 5.0220437347888947e-02 -1.2270159088075161e-02 1.1775276623666286e-02 3.6145821213722229e-02 -1.1541817802935839e-03 -1.1092954082414508e-03 9.7141517326235771e-03 7.4593730270862579e-02 -9.0461358428001404e-02 1.9332112744450569e-02 1.3018839061260223e-02 5.5871091783046722e-02 4.1677430272102356e-03 -2.9596747830510139e-02 3.4290190786123276e-02 5.8021154254674911e-02 1.2983637861907482e-02 4.9007036723196507e-03 -2.6509854942560196e-03 3.9685882627964020e-02 3.5762023180723190e-02 -7.5959623791277409e-03 2.8299121186137199e-02 4.5885380357503891e-02 6.1920840293169022e-02 -2.1577529609203339e-02 -3.6368303000926971e-02 7.0730343461036682e-02 -3.2470287987962365e-04 -1.1467608623206615e-02 1.0363017208874226e-02 9.8187856376171112e-02 6.9332472980022430e-02 -1.1514805257320404e-02 -2.6447704061865807e-02 -2.6370249688625336e-02 -5.9073027223348618e-03 4.5409344136714935e-02 -9.7370892763137817e-03 -6.3235713168978691e-03 -3.4463526681065559e-03 -2.5551034137606621e-02 1.0608213022351265e-02 4.0937650948762894e-02 4.4126190245151520e-02 -1.6911577433347702e-02 -7.0067369379103184e-03 2.9282860457897186e-02 4.5381974428892136e-02 -1.6822557896375656e-02 3.1429829541593790e-03 6.2865622341632843e-02 3.4255306236445904e-03 6.0861925594508648e-03 3.2420217990875244e-02 4.6673450618982315e-02 -2.1317222714424133e-01 1.2617242755368352e-03 9.1969370841979980e-03 6.4170032739639282e-02 -2.3967934772372246e-02 -8.0381393432617188e-02 -5.4338430054485798e-03 8.1426426768302917e-02 -1.1455103522166610e-03 -2.7193816378712654e-02 4.4874404557049274e-03 7.9808540642261505e-02 1.4427146315574646e-01 -5.7512328028678894e-02 5.8142811059951782e-02 6.6653802990913391e-02 1.3951480388641357e-01 -5.1214445382356644e-02 -1.8573336303234100e-01 2.1889872848987579e-01 -7.3578418232500553e-03 6.2553491443395615e-03 6.3476964831352234e-02 2.3523136973381042e-01 1.0144016146659851e-01 5.3024417720735073e-03 3.7239042576402426e-03 -4.3923281133174896e-02 1.3288164511322975e-02 7.2106026113033295e-02 -8.1486124545335770e-03 -7.8385500237345695e-03 -1.4712732285261154e-02 8.1820215564221144e-04 1.3015704229474068e-02 4.8674941062927246e-02 4.3813765048980713e-02 8.4878719644621015e-04 2.1222410723567009e-02 3.4715402871370316e-02 4.2866341769695282e-02 5.5735982023179531e-03 4.6669717878103256e-02 6.9222316145896912e-02 6.0151880607008934e-03 -1.5375670045614243e-02 2.7299003675580025e-02 3.5986378788948059e-02 -2.5310982018709183e-02 1.1459243251010776e-03 -2.0927498117089272e-02 -1.2957788072526455e-02 -1.6658594831824303e-02 -3.8625493645668030e-02 -3.1480986624956131e-02 -1.7214031890034676e-02 9.3863665824756026e-04 -2.0161271095275879e-02 -6.1940778978168964e-03 -5.2890747785568237e-02 -5.9890605509281158e-02 2.1947320550680161e-02 -2.6025971397757530e-02 -5.3979385644197464e-02 -3.7743337452411652e-02 6.0638687573373318e-03 -1.7649548128247261e-02 -6.2741294503211975e-02 1.1362450197339058e-02 3.5232692025601864e-03 -2.5445630773901939e-02 -7.1177005767822266e-02 2.0926888100802898e-03 8.1863580271601677e-03 1.2468015775084496e-02 1.8374463543295860e-02 8.8669750839471817e-03 6.3094827346503735e-03 3.8642551749944687e-02 1.7352925613522530e-02 -6.8485597148537636e-03 3.1156411394476891e-02 4.1896696202456951e-03 2.8164256364107132e-02 2.6541030034422874e-02 -7.5035928748548031e-03 3.4900363534688950e-02 2.8410265222191811e-02 3.0241942033171654e-02 2.3482297547161579e-03 1.0772062465548515e-02 1.9479518756270409e-02 2.2170899901539087e-03 -7.4295927770435810e-03 -8.1515236524865031e-04 4.4759005308151245e-02 2.7167144417762756e-01 -1.1070317588746548e-02 -6.9635428488254547e-02 -1.6533899307250977e-01 1.8984150141477585e-02 1.4222961664199829e-01 -7.1696557104587555e-02 -1.0950070619583130e-01 -2.5426989421248436e-02 -7.2017207741737366e-02 -3.0346184503287077e-03 6.3090227544307709e-02 9.2403821647167206e-02 -1.7968041822314262e-02 -1.7381036654114723e-02 3.7564981728792191e-02 5.7653225958347321e-02 1.3342692982405424e-03 7.9600363969802856e-02 1.2195871770381927e-01 -1.7181418370455503e-03 8.6692180484533310e-03 5.0249729305505753e-02 6.1758924275636673e-03 1.4544993638992310e-01 1.9157018978148699e-03 -2.1402804180979729e-02 -4.8681616783142090e-02 1.9321605563163757e-02 4.1019443422555923e-02 -1.9362473860383034e-02 -5.3927801549434662e-02 -1.9740263000130653e-02 -1.2390534393489361e-02 -1.0914582759141922e-02 -4.4973365962505341e-02 -4.9801118671894073e-02 1.8253650516271591e-02 -2.0007941871881485e-02 -3.4255448728799820e-02 -5.6779067963361740e-02 3.3165335655212402e-02 1.0639616101980209e-01 -9.0235397219657898e-02 -7.8824125230312347e-03 1.0560342110693455e-02 -4.9097780138254166e-03 -1.1732347309589386e-01 -3.4043291816487908e-04 -1.3138194568455219e-02 1.9058170437347144e-04 -1.2119747698307037e-02 -1.5539032407104969e-02 -3.4725479781627655e-02 -2.4088736623525620e-02 -1.6539484262466431e-02 -1.0499618947505951e-03 -2.3887736722826958e-02 1.0642427951097488e-02 -3.8462787866592407e-02 -3.7250906229019165e-02 1.2560508213937283e-02 -2.5536580011248589e-02 -2.5493063032627106e-02 -3.9814017713069916e-02 -6.5835826098918915e-03 4.9795717932283878e-03 -3.9112381637096405e-02 -1.8308754079043865e-03 -5.0611980259418488e-04 -1.7533525824546814e-02 -6.1568155884742737e-02 1.1445865035057068e-01 -4.8933969810605049e-03 -2.2931559011340141e-02 -5.7432632893323898e-02 1.4637826010584831e-02 5.5962603539228439e-02 -1.0200053453445435e-02 -1.9731825217604637e-02 -1.2741475366055965e-03 -1.1543057858943939e-02 -9.0176044031977654e-03 4.2894188314676285e-02 3.5972155630588531e-02 -8.7500074878334999e-03 4.7221318818628788e-03 3.5715367645025253e-02 4.1575051844120026e-02 7.0267529226839542e-03 3.6784812808036804e-02 7.5493700802326202e-02 5.2455868571996689e-03 3.0041795689612627e-03 2.6575475931167603e-02 1.0456199757754803e-02 3.5441674292087555e-02 -1.3828174211084843e-02 -2.1841406822204590e-02 -4.1089098900556564e-02 -1.3319560093805194e-03 2.4071231484413147e-02 -2.8030242770910263e-02 -1.5552501194179058e-02 -5.9882113710045815e-03 -3.8608793169260025e-02 7.3645450174808502e-03 7.6945841312408447e-02 1.1496636271476746e-01 -3.7469774484634399e-02 5.9745004400610924e-03 5.8145612478256226e-02 8.5913278162479401e-02 -2.8471887111663818e-02 -5.5090371519327164e-02 1.6659019887447357e-01 -1.0896899737417698e-02 -1.1758299078792334e-03 4.4927541166543961e-02 1.0462222993373871e-01 4.7116667032241821e-02 2.3919430095702410e-03 -2.5602763518691063e-02 -4.5298095792531967e-02 -3.5883390810340643e-03 7.9210672993212938e-04 -2.2672014310956001e-02 -3.7011165171861649e-02 -1.7014848068356514e-02 -2.5235109031200409e-02 -1.1467359028756618e-02 -3.6305084824562073e-02 -3.5500317811965942e-02 2.0567309111356735e-02 -4.2389754205942154e-02 -4.9283612519502640e-02 -5.6123100221157074e-02 -1.8956266576424241e-03 2.4247925728559494e-02 -6.2556028366088867e-02 1.0446095839142799e-03 -4.9141650088131428e-03 -3.3621201291680336e-03 -9.3879304826259613e-02 -2.3555029183626175e-02 1.6234967857599258e-02 2.3705415427684784e-02 3.1704276800155640e-02 9.1101769357919693e-03 -4.3593822047114372e-03 2.4505697190761566e-02 2.5528209283947945e-02 2.0415806211531162e-03 2.1264536306262016e-02 1.0062574408948421e-02 3.3771593123674393e-02 1.8386509269475937e-02 4.2664729990065098e-03 3.8598001003265381e-02 3.5531233996152878e-02 3.4406695514917374e-02 3.1909293029457331e-03 4.4144201092422009e-03 3.5035371780395508e-02 3.8998203817754984e-03 -5.8528520166873932e-03 1.1768404394388199e-02 6.3902907073497772e-02 6.6580441780388355e-03 1.0201700031757355e-02 1.3863058760762215e-02 2.7540400624275208e-02 1.9587761198636144e-04 3.1788162887096405e-02 3.8453809916973114e-02 4.2939074337482452e-02 -5.8697261847555637e-03 3.6001965403556824e-02 9.3861352652311325e-03 3.5356111824512482e-02 3.1821098178625107e-02 -3.3941035508178174e-04 4.5507382601499557e-02 4.2616151273250580e-02 2.7733365073800087e-02 7.8786956146359444e-03 1.1345577426254749e-02 3.6861959844827652e-02 -1.1950874468311667e-03 -1.2170003727078438e-02 1.5840547159314156e-02 5.1947414875030518e-02 
      </Weights>
      <Biases rows="128" cols="1">
        1.0425788909196854e-01 4.8296503722667694e-02 -9.8244264721870422e-02 -3.7327479571104050e-02 -1.6957218945026398e-01 5.3078681230545044e-02 1.1462602019309998e-01 5.7090543210506439e-02 9.1858372092247009e-02 7.8364029526710510e-02 -1.5952888131141663e-01 7.2119586169719696e-02 -2.0931118726730347e-01 2.2520714998245239e-01 2.4366658926010132e-01 -2.5547063350677490e-01 -3.2603915315121412e-04 -9.1763712465763092e-02 -2.8284208849072456e-02 7.9127736389636993e-02 -1.6714628040790558e-01 -6.3237719237804413e-02 1.8884529173374176e-01 8.8251598179340363e-02 2.9110922478139400e-03 -1.3359913602471352e-02 1.2818187475204468e-01 -3.3430442214012146e-01 -1.9858594238758087e-01 2.5345733761787415e-01 5.8812081813812256e-02 -1.0344584286212921e-01 -4.4720239937305450e-02 -3.5049605369567871e-01 9.2253416776657104e-02 2.2608645260334015e-01 7.8361555933952332e-02 -1.9157947599887848e-01 -3.3475976437330246e-02 2.9850855469703674e-01 -4.2933541536331177e-01 6.0073256492614746e-02 6.9392912089824677e-02 -1.3481175899505615e-01 2.0145238935947418e-01 1.5620222687721252e-01 -5.8410432189702988e-02 2.6471370458602905e-01 1.5609385073184967e-01 -7.1828968822956085e-02 9.9174581468105316e-02 -6.5301328897476196e-02 -1.1660394817590714e-01 -7.3345126584172249e-03 -2.8079086542129517e-01 1.8933702260255814e-02 -3.0560022592544556e-01 3.0197640880942345e-02 5.7409487664699554e-02 6.3267707824707031e-02 -4.4470354914665222e-02 1.6800728440284729e-01 -7.5244758045300841e-04 -2.3254856467247009e-01 -1.9853040575981140e-01 -1.2594051659107208e-01 -1.7617239058017731e-01 -3.5032853484153748e-02 -1.6495996713638306e-01 -1.0852707177400589e-01 8.5501082241535187e-02 -6.8025976419448853e-02 -4.4668041169643402e-02 -2.0266762375831604e-01 -6.3969664275646210e-02 1.7815078608691692e-03 -6.0188837349414825e-02 1.2565730512142181e-01 -1.6972470283508301e-01 -1.8334758281707764e-01 -6.2085371464490891e-02 6.9733753800392151e-02 2.7676615864038467e-02 1.9663518667221069e-01 -1.9072927534580231e-01 8.4952358156442642e-03 -6.1749167740345001e-02 -7.8419499099254608e-02 7.1391366422176361e-02 1.7851492762565613e-01 -1.0994646698236465e-01 1.8702800571918488e-01 2.4619269371032715e-01 -7.1250565350055695e-02 5.2734492346644402e-03 2.9870361089706421e-01 1.4598429203033447e-01 6.8342857062816620e-02 -1.0461315512657166e-01 1.8904082477092743e-02 -6.1374656856060028e-02 2.4020718038082123e-01 2.9975823126733303e-03 -2.6213675737380981e-01 8.5052713751792908e-02 3.8349956274032593e-02 1.5191267244517803e-02 -3.3796906471252441e-02 2.3632806539535522e-01 -1.8520493060350418e-02 -4.0634367614984512e-02 6.7618705332279205e-02 -2.0640513300895691e-01 -8.3157330751419067e-02 5.5909708142280579e-02 7.5903475284576416e-02 3.6667793989181519e-01 1.3731544837355614e-02 -6.0466350987553596e-03 -6.8156138062477112e-02 1.7101174592971802e-01 -1.1195400357246399e-01 5.8186715468764305e-03 4.9441915005445480e-02 2.1087990701198578e-01 1.8893748521804810e-02 -4.7879159450531006e-02 -1.0668760538101196e-01 
      </Biases>
    </Layer>
    <Layer ActivationFunction="1">
      <Weights rows="128" cols="128">
