<?xml version="1.0"?>
<MethodSetup Method="DNN::DNN">
  <GeneralInfo>
    <Info name="TMVA Release" value="4.2.1 [262657]"/>
    <Info name="ROOT Release" value="6.12/07 [396295]"/>
    <Info name="Creator" value="hum"/>
    <Info name="Date" value="Sun Sep 20 05:31:56 2020"/>
    <Info name="Host" value="Linux vocms0301.cern.ch 2.6.32-696.30.1.el6.x86_64 #1 SMP Tue May 22 06:09:36 CEST 2018 x86_64 x86_64 x86_64 GNU/Linux"/>
    <Info name="Dir" value="/afs/cern.ch/work/h/hum/public/CMSSW_10_2_13/src/ChargedHiggs/Analysis/resTagger"/>
    <Info name="Training events" value="83750"/>
    <Info name="TrainingTime" value="9.46927669e+01"/>
    <Info name="AnalysisType" value="Classification"/>
  </GeneralInfo>
  <Options>
    <Option name="V" modified="Yes">True</Option>
    <Option name="VerbosityLevel" modified="No">Verbose</Option>
    <Option name="VarTransform" modified="Yes">N</Option>
    <Option name="H" modified="Yes">False</Option>
    <Option name="CreateMVAPdfs" modified="No">False</Option>
    <Option name="IgnoreNegWeightsInTraining" modified="No">False</Option>
    <Option name="Layout" modified="Yes">TANH|128,RELU|128,SIGMOID|128,LINEAR</Option>
    <Option name="ValidationSize" modified="No">20%</Option>
    <Option name="ErrorStrategy" modified="Yes">CROSSENTROPY</Option>
    <Option name="WeightInitialization" modified="Yes">XAVIERUNIFORM</Option>
    <Option name="Architecture" modified="Yes">CPU</Option>
    <Option name="TrainingStrategy" modified="Yes">LearningRate=1e-1,Momentum=0.9,Repetitions=5,ConvergenceSteps=20,BatchSize=256,TestRepetitions=10,WeightDecay=1e-4,Regularization=L2,DropConfig=0.0+0.5+0.5+0.5,</Option>
  </Options>
  <Variables NVar="25">
    <Variable VarIndex="0" Expression="j1_pT" Label="j1_pT" Title="jet1 pT" Unit="" Internal="j1_pT" Type="F" Min="3.00050583e+01" Max="1.46118616e+03"/>
    <Variable VarIndex="1" Expression="j1_Eta" Label="j1_Eta" Title="jet1 eta" Unit="" Internal="j1_Eta" Type="F" Min="-4.67791176e+00" Max="4.69723415e+00"/>
    <Variable VarIndex="2" Expression="j1_Unc" Label="j1_Unc" Title="jet1 Unc" Unit="" Internal="j1_Unc" Type="F" Min="6.55297609e-03" Max="1.09374374e-01"/>
    <Variable VarIndex="3" Expression="j1_axis2" Label="j1_axis2" Title="jet1 axis2" Unit="" Internal="j1_axis2" Type="F" Min="0.00000000e+00" Max="1.76428184e-01"/>
    <Variable VarIndex="4" Expression="j1_ptD" Label="j1_ptD" Title="jet1 ptD" Unit="" Internal="j1_ptD" Type="F" Min="0.00000000e+00" Max="1.00000000e+00"/>
    <Variable VarIndex="5" Expression="j2_pT" Label="j2_pT" Title="jet2 pT" Unit="" Internal="j2_pT" Type="F" Min="3.07089520e+01" Max="1.75571106e+03"/>
    <Variable VarIndex="6" Expression="j2_Unc" Label="j2_Unc" Title="jet2 Unc" Unit="" Internal="j2_Unc" Type="F" Min="6.50117500e-03" Max="1.22522019e-01"/>
    <Variable VarIndex="7" Expression="j2_axis2" Label="j2_axis2" Title="jet2 axis2" Unit="" Internal="j2_axis2" Type="F" Min="0.00000000e+00" Max="1.76428184e-01"/>
    <Variable VarIndex="8" Expression="j3_pT" Label="j3_pT" Title="jet3 pT" Unit="" Internal="j3_pT" Type="F" Min="3.00003796e+01" Max="4.55177673e+02"/>
    <Variable VarIndex="9" Expression="j3_Eta" Label="j3_Eta" Title="jet3 eta" Unit="" Internal="j3_Eta" Type="F" Min="-4.67453861e+00" Max="4.68811989e+00"/>
    <Variable VarIndex="10" Expression="j3_Unc" Label="j3_Unc" Title="jet3 Unc" Unit="" Internal="j3_Unc" Type="F" Min="6.61964621e-03" Max="9.05662775e-02"/>
    <Variable VarIndex="11" Expression="j3_axis2" Label="j3_axis2" Title="jet3 axis2" Unit="" Internal="j3_axis2" Type="F" Min="0.00000000e+00" Max="1.76428184e-01"/>
    <Variable VarIndex="12" Expression="j3_ptD" Label="j3_ptD" Title="jet3 ptD" Unit="" Internal="j3_ptD" Type="F" Min="0.00000000e+00" Max="1.00000000e+00"/>
    <Variable VarIndex="13" Expression="j4_pT" Label="j4_pT" Title="jet4 pT" Unit="" Internal="j4_pT" Type="F" Min="3.00997219e+01" Max="1.24597205e+03"/>
    <Variable VarIndex="14" Expression="j4_Unc" Label="j4_Unc" Title="jet4 Unc" Unit="" Internal="j4_Unc" Type="F" Min="6.50409050e-03" Max="1.18152030e-01"/>
    <Variable VarIndex="15" Expression="j4_axis2" Label="j4_axis2" Title="jet4 axis2" Unit="" Internal="j4_axis2" Type="F" Min="0.00000000e+00" Max="1.76428184e-01"/>
    <Variable VarIndex="16" Expression="j4_mult" Label="j4_mult" Title="jet4 mult" Unit="" Internal="j4_mult" Type="F" Min="0.00000000e+00" Max="6.90000000e+01"/>
    <Variable VarIndex="17" Expression="j4_ptD" Label="j4_ptD" Title="jet4 ptD" Unit="" Internal="j4_ptD" Type="F" Min="0.00000000e+00" Max="1.00000000e+00"/>
    <Variable VarIndex="18" Expression="DEta_f12" Label="DEta_f12" Title="DEta_f12" Unit="" Internal="DEta_f12" Type="F" Min="4.78525399e-05" Max="8.28162670e+00"/>
    <Variable VarIndex="19" Expression="DEta_v34" Label="DEta_v34" Title="DEta_v34" Unit="" Internal="DEta_v34" Type="F" Min="1.09552019e-07" Max="5.15746593e+00"/>
    <Variable VarIndex="20" Expression="DPhi_f12" Label="DPhi_f12" Title="DPhi_f12" Unit="" Internal="DPhi_f12" Type="F" Min="-3.14156270e+00" Max="3.14132929e+00"/>
    <Variable VarIndex="21" Expression="DPhi_v34" Label="DPhi_v34" Title="DPhi_v34" Unit="" Internal="DPhi_v34" Type="F" Min="-3.14125824e+00" Max="3.14107990e+00"/>
    <Variable VarIndex="22" Expression="DR_v34" Label="DR_v34" Title="DR_v34" Unit="" Internal="DR_v34" Type="F" Min="3.98250878e-01" Max="5.15766382e+00"/>
    <Variable VarIndex="23" Expression="M_f12" Label="M_f12" Title="M_f12" Unit="" Internal="M_f12" Type="F" Min="1.95235271e+01" Max="7.13133203e+03"/>
    <Variable VarIndex="24" Expression="M_v34" Label="M_v34" Title="M_v34" Unit="" Internal="M_v34" Type="F" Min="1.83528690e+01" Max="7.46245544e+02"/>
  </Variables>
  <Spectators NSpec="0"/>
  <Classes NClass="2">
    <Class Name="Signal" Index="0"/>
    <Class Name="Background" Index="1"/>
  </Classes>
  <Transformations NTransformations="1">
    <Transform Name="Normalize">
      <Selection>
        <Input NInputs="25">
          <Input Type="Variable" Label="j1_pT" Expression="j1_pT"/>
          <Input Type="Variable" Label="j1_Eta" Expression="j1_Eta"/>
          <Input Type="Variable" Label="j1_Unc" Expression="j1_Unc"/>
          <Input Type="Variable" Label="j1_axis2" Expression="j1_axis2"/>
          <Input Type="Variable" Label="j1_ptD" Expression="j1_ptD"/>
          <Input Type="Variable" Label="j2_pT" Expression="j2_pT"/>
          <Input Type="Variable" Label="j2_Unc" Expression="j2_Unc"/>
          <Input Type="Variable" Label="j2_axis2" Expression="j2_axis2"/>
          <Input Type="Variable" Label="j3_pT" Expression="j3_pT"/>
          <Input Type="Variable" Label="j3_Eta" Expression="j3_Eta"/>
          <Input Type="Variable" Label="j3_Unc" Expression="j3_Unc"/>
          <Input Type="Variable" Label="j3_axis2" Expression="j3_axis2"/>
          <Input Type="Variable" Label="j3_ptD" Expression="j3_ptD"/>
          <Input Type="Variable" Label="j4_pT" Expression="j4_pT"/>
          <Input Type="Variable" Label="j4_Unc" Expression="j4_Unc"/>
          <Input Type="Variable" Label="j4_axis2" Expression="j4_axis2"/>
          <Input Type="Variable" Label="j4_mult" Expression="j4_mult"/>
          <Input Type="Variable" Label="j4_ptD" Expression="j4_ptD"/>
          <Input Type="Variable" Label="DEta_f12" Expression="DEta_f12"/>
          <Input Type="Variable" Label="DEta_v34" Expression="DEta_v34"/>
          <Input Type="Variable" Label="DPhi_f12" Expression="DPhi_f12"/>
          <Input Type="Variable" Label="DPhi_v34" Expression="DPhi_v34"/>
          <Input Type="Variable" Label="DR_v34" Expression="DR_v34"/>
          <Input Type="Variable" Label="M_f12" Expression="M_f12"/>
          <Input Type="Variable" Label="M_v34" Expression="M_v34"/>
        </Input>
        <Output NOutputs="25">
          <Output Type="Variable" Label="j1_pT" Expression="j1_pT"/>
          <Output Type="Variable" Label="j1_Eta" Expression="j1_Eta"/>
          <Output Type="Variable" Label="j1_Unc" Expression="j1_Unc"/>
          <Output Type="Variable" Label="j1_axis2" Expression="j1_axis2"/>
          <Output Type="Variable" Label="j1_ptD" Expression="j1_ptD"/>
          <Output Type="Variable" Label="j2_pT" Expression="j2_pT"/>
          <Output Type="Variable" Label="j2_Unc" Expression="j2_Unc"/>
          <Output Type="Variable" Label="j2_axis2" Expression="j2_axis2"/>
          <Output Type="Variable" Label="j3_pT" Expression="j3_pT"/>
          <Output Type="Variable" Label="j3_Eta" Expression="j3_Eta"/>
          <Output Type="Variable" Label="j3_Unc" Expression="j3_Unc"/>
          <Output Type="Variable" Label="j3_axis2" Expression="j3_axis2"/>
          <Output Type="Variable" Label="j3_ptD" Expression="j3_ptD"/>
          <Output Type="Variable" Label="j4_pT" Expression="j4_pT"/>
          <Output Type="Variable" Label="j4_Unc" Expression="j4_Unc"/>
          <Output Type="Variable" Label="j4_axis2" Expression="j4_axis2"/>
          <Output Type="Variable" Label="j4_mult" Expression="j4_mult"/>
          <Output Type="Variable" Label="j4_ptD" Expression="j4_ptD"/>
          <Output Type="Variable" Label="DEta_f12" Expression="DEta_f12"/>
          <Output Type="Variable" Label="DEta_v34" Expression="DEta_v34"/>
          <Output Type="Variable" Label="DPhi_f12" Expression="DPhi_f12"/>
          <Output Type="Variable" Label="DPhi_v34" Expression="DPhi_v34"/>
          <Output Type="Variable" Label="DR_v34" Expression="DR_v34"/>
          <Output Type="Variable" Label="M_f12" Expression="M_f12"/>
          <Output Type="Variable" Label="M_v34" Expression="M_v34"/>
        </Output>
      </Selection>
      <Class ClassIndex="0">
        <Ranges>
          <Range Index="0" Min="3.0044113159179688e+01" Max="1.4611861572265625e+03"/>
          <Range Index="1" Min="-4.6779117584228516e+00" Max="4.5896077156066895e+00"/>
          <Range Index="2" Min="6.5937228500843048e-03" Max="1.0937437415122986e-01"/>
          <Range Index="3" Min="0.0000000000000000e+00" Max="1.5294563770294189e-01"/>
          <Range Index="4" Min="2.1820680797100067e-01" Max="1.0000000000000000e+00"/>
          <Range Index="5" Min="3.8487083435058594e+01" Max="1.5582602539062500e+03"/>
          <Range Index="6" Min="6.5062912181019783e-03" Max="1.1582065373659134e-01"/>
          <Range Index="7" Min="0.0000000000000000e+00" Max="1.1066143214702606e-01"/>
          <Range Index="8" Min="3.0000379562377930e+01" Max="2.1476504516601562e+02"/>
          <Range Index="9" Min="-4.1948699951171875e+00" Max="4.4535570144653320e+00"/>
          <Range Index="10" Min="7.9155983403325081e-03" Max="6.8521462380886078e-02"/>
          <Range Index="11" Min="0.0000000000000000e+00" Max="1.7642818391323090e-01"/>
          <Range Index="12" Min="2.1614554524421692e-01" Max="9.6880424022674561e-01"/>
          <Range Index="13" Min="3.1148328781127930e+01" Max="8.5410815429687500e+02"/>
          <Range Index="14" Min="6.5787020139396191e-03" Max="9.5013894140720367e-02"/>
          <Range Index="15" Min="0.0000000000000000e+00" Max="1.2115385383367538e-01"/>
          <Range Index="16" Min="2.0000000000000000e+00" Max="5.8000000000000000e+01"/>
          <Range Index="17" Min="2.0936183631420135e-01" Max="9.6624851226806641e-01"/>
          <Range Index="18" Min="3.6573440302163363e-03" Max="7.8846068382263184e+00"/>
          <Range Index="19" Min="5.1472434279276058e-05" Max="2.3926243782043457e+00"/>
          <Range Index="20" Min="-3.1415534019470215e+00" Max="3.1402392387390137e+00"/>
          <Range Index="21" Min="-3.1206541061401367e+00" Max="3.1404860019683838e+00"/>
          <Range Index="22" Min="4.0167981386184692e-01" Max="3.4810862541198730e+00"/>
          <Range Index="23" Min="3.8559677124023438e+01" Max="6.3829980468750000e+03"/>
          <Range Index="24" Min="2.6468816757202148e+01" Max="1.6249502563476562e+02"/>
        </Ranges>
      </Class>
      <Class ClassIndex="1">
        <Ranges>
          <Range Index="0" Min="3.0005058288574219e+01" Max="1.4427041015625000e+03"/>
          <Range Index="1" Min="-4.6779117584228516e+00" Max="4.6972341537475586e+00"/>
          <Range Index="2" Min="6.5529760904610157e-03" Max="1.0793504118919373e-01"/>
          <Range Index="3" Min="0.0000000000000000e+00" Max="1.7642818391323090e-01"/>
          <Range Index="4" Min="0.0000000000000000e+00" Max="1.0000000000000000e+00"/>
          <Range Index="5" Min="3.0708951950073242e+01" Max="1.7557110595703125e+03"/>
          <Range Index="6" Min="6.5011749975383282e-03" Max="1.2252201884984970e-01"/>
          <Range Index="7" Min="0.0000000000000000e+00" Max="1.7642818391323090e-01"/>
          <Range Index="8" Min="3.0004014968872070e+01" Max="4.5517767333984375e+02"/>
          <Range Index="9" Min="-4.6745386123657227e+00" Max="4.6881198883056641e+00"/>
          <Range Index="10" Min="6.6196462139487267e-03" Max="9.0566277503967285e-02"/>
          <Range Index="11" Min="0.0000000000000000e+00" Max="1.7642818391323090e-01"/>
          <Range Index="12" Min="0.0000000000000000e+00" Max="1.0000000000000000e+00"/>
          <Range Index="13" Min="3.0099721908569336e+01" Max="1.2459720458984375e+03"/>
          <Range Index="14" Min="6.5040905028581619e-03" Max="1.1815202981233597e-01"/>
          <Range Index="15" Min="0.0000000000000000e+00" Max="1.7642818391323090e-01"/>
          <Range Index="16" Min="0.0000000000000000e+00" Max="6.9000000000000000e+01"/>
          <Range Index="17" Min="0.0000000000000000e+00" Max="1.0000000000000000e+00"/>
          <Range Index="18" Min="4.7852539864834398e-05" Max="8.2816267013549805e+00"/>
          <Range Index="19" Min="1.0955201901197142e-07" Max="5.1574659347534180e+00"/>
          <Range Index="20" Min="-3.1415627002716064e+00" Max="3.1413292884826660e+00"/>
          <Range Index="21" Min="-3.1412582397460938e+00" Max="3.1410799026489258e+00"/>
          <Range Index="22" Min="3.9825087785720825e-01" Max="5.1576638221740723e+00"/>
          <Range Index="23" Min="1.9523527145385742e+01" Max="7.1313320312500000e+03"/>
          <Range Index="24" Min="1.8352869033813477e+01" Max="7.4624554443359375e+02"/>
        </Ranges>
      </Class>
      <Class ClassIndex="2">
        <Ranges>
          <Range Index="0" Min="3.0005058288574219e+01" Max="1.4611861572265625e+03"/>
          <Range Index="1" Min="-4.6779117584228516e+00" Max="4.6972341537475586e+00"/>
          <Range Index="2" Min="6.5529760904610157e-03" Max="1.0937437415122986e-01"/>
          <Range Index="3" Min="0.0000000000000000e+00" Max="1.7642818391323090e-01"/>
          <Range Index="4" Min="0.0000000000000000e+00" Max="1.0000000000000000e+00"/>
          <Range Index="5" Min="3.0708951950073242e+01" Max="1.7557110595703125e+03"/>
          <Range Index="6" Min="6.5011749975383282e-03" Max="1.2252201884984970e-01"/>
          <Range Index="7" Min="0.0000000000000000e+00" Max="1.7642818391323090e-01"/>
          <Range Index="8" Min="3.0000379562377930e+01" Max="4.5517767333984375e+02"/>
          <Range Index="9" Min="-4.6745386123657227e+00" Max="4.6881198883056641e+00"/>
          <Range Index="10" Min="6.6196462139487267e-03" Max="9.0566277503967285e-02"/>
          <Range Index="11" Min="0.0000000000000000e+00" Max="1.7642818391323090e-01"/>
          <Range Index="12" Min="0.0000000000000000e+00" Max="1.0000000000000000e+00"/>
          <Range Index="13" Min="3.0099721908569336e+01" Max="1.2459720458984375e+03"/>
          <Range Index="14" Min="6.5040905028581619e-03" Max="1.1815202981233597e-01"/>
          <Range Index="15" Min="0.0000000000000000e+00" Max="1.7642818391323090e-01"/>
          <Range Index="16" Min="0.0000000000000000e+00" Max="6.9000000000000000e+01"/>
          <Range Index="17" Min="0.0000000000000000e+00" Max="1.0000000000000000e+00"/>
          <Range Index="18" Min="4.7852539864834398e-05" Max="8.2816267013549805e+00"/>
          <Range Index="19" Min="1.0955201901197142e-07" Max="5.1574659347534180e+00"/>
          <Range Index="20" Min="-3.1415627002716064e+00" Max="3.1413292884826660e+00"/>
          <Range Index="21" Min="-3.1412582397460938e+00" Max="3.1410799026489258e+00"/>
          <Range Index="22" Min="3.9825087785720825e-01" Max="5.1576638221740723e+00"/>
          <Range Index="23" Min="1.9523527145385742e+01" Max="7.1313320312500000e+03"/>
          <Range Index="24" Min="1.8352869033813477e+01" Max="7.4624554443359375e+02"/>
        </Ranges>
      </Class>
    </Transform>
  </Transformations>
  <MVAPdfs/>
  <Weights InputWidth="25" Depth="4" LossFunction="C" OutputFunction="S">
    <Layer ActivationFunction="3">
      <Weights rows="128" cols="25">
        -1.0591148585081100e-01 4.3168656527996063e-02 1.4477686956524849e-02 8.9486762881278992e-02 -3.9439037442207336e-02 -7.8406576067209244e-03 5.5536415427923203e-02 4.2071253061294556e-02 3.4217145293951035e-02 -4.3505337089300156e-02 2.1198268979787827e-02 6.7460231482982635e-02 -2.1206894889473915e-02 2.6447221636772156e-02 -3.9500291459262371e-03 5.6962311267852783e-02 3.1216802075505257e-02 -1.3434465043246746e-02 -7.6069548726081848e-02 1.6757387667894363e-02 3.0739005655050278e-02 -1.1691592633724213e-02 1.4576667919754982e-02 -6.7917600274085999e-02 9.0996481478214264e-02 -1.1977624893188477e-01 -1.5300340950489044e-02 5.2406594157218933e-02 7.6828174293041229e-02 8.3677284419536591e-03 -4.0589649230241776e-02 6.3375741243362427e-02 7.0932500064373016e-02 -1.0559427551925182e-02 4.1186254471540451e-02 3.6464251577854156e-02 8.5944324731826782e-02 1.7115328228101134e-03 -2.5606442242860794e-02 1.6539859352633357e-03 1.0822920501232147e-01 6.1944868415594101e-02 -2.8216132894158363e-02 1.9179709255695343e-02 7.4205763638019562e-02 2.0241331309080124e-02 -2.1313044708222151e-03 2.6728846132755280e-02 2.0694301929324865e-03 1.4407883584499359e-01 1.9759616255760193e-01 9.4307782128453255e-03 -6.1405226588249207e-02 -9.5745995640754700e-02 1.9542921334505081e-02 6.8406112492084503e-02 -2.4729324504733086e-02 -1.0977893322706223e-01 -2.9957331717014313e-02 -2.3375831544399261e-02 -4.2806997895240784e-02 -8.8363103568553925e-02 5.4367590695619583e-02 -1.1797007173299789e-02 -2.0988199394196272e-03 -8.5144579410552979e-02 -6.4337097108364105e-02 9.2050433158874512e-03 1.4106187224388123e-01 -1.2420482188463211e-01 -2.3292655125260353e-02 1.1391916312277317e-02 -3.0448097735643387e-02 7.6096981763839722e-02 -2.5750476121902466e-01 -2.9249057173728943e-02 -1.8491019727662206e-03 3.1890418380498886e-02 4.8954226076602936e-03 3.4371875226497650e-02 -7.6187090016901493e-03 -4.6380013227462769e-03 5.1230490207672119e-02 2.7077866718173027e-02 -6.8635265342891216e-03 -1.8633292987942696e-02 -3.5829667467623949e-03 5.2496208809316158e-03 -2.8868788853287697e-02 3.2655421644449234e-02 4.4492907822132111e-02 6.3874009065330029e-03 3.6497276276350021e-02 -2.6469696313142776e-02 2.8485270217061043e-02 -6.1998944729566574e-03 -2.1072862669825554e-02 2.0637370645999908e-02 4.9510127864778042e-03 7.5068823993206024e-02 1.6998171806335449e-01 -1.8359638750553131e-02 -2.3055296391248703e-02 -1.1938939988613129e-01 2.0917411893606186e-02 1.2145644053816795e-02 -3.2439060509204865e-02 -9.0053044259548187e-02 -3.5444263368844986e-02 1.2171860784292221e-02 -6.9148458540439606e-02 -1.6338633373379707e-02 4.0596932172775269e-02 -5.0266169011592865e-02 -4.9121152609586716e-02 -8.0838605761528015e-02 -5.4402593523263931e-02 -1.8674647435545921e-02 9.8186247050762177e-02 -7.6049551367759705e-02 6.8189506419003010e-03 -1.7784975469112396e-02 -6.1354070901870728e-02 1.0252137482166290e-01 -1.4623035490512848e-01 1.3840696215629578e-01 -3.4933518618345261e-02 -1.7036739736795425e-02 -1.1940443515777588e-01 -2.4859511759132147e-03 2.9160909354686737e-02 -4.1581340134143829e-02 -9.2457860708236694e-02 -4.4467844069004059e-02 2.7513878419995308e-02 -3.0530449002981186e-02 -4.2059708386659622e-02 -1.4143430627882481e-02 -2.2863229736685753e-02 -7.1327392943203449e-03 -9.0736605226993561e-02 -7.0139832794666290e-02 -1.1046212166547775e-03 9.7726799547672272e-02 -3.9687704294919968e-02 1.7099412158131599e-02 8.3306687884032726e-05 -5.1389392465353012e-02 9.7272396087646484e-02 -1.7286796867847443e-01 -2.3495068773627281e-02 3.8026422262191772e-02 -9.1133937239646912e-03 3.6335002630949020e-02 3.9170207455754280e-03 -3.3793896436691284e-02 -2.6475101709365845e-02 2.1516464650630951e-02 7.1412301622331142e-03 -5.6118555366992950e-02 -1.8367331475019455e-02 -1.4808572828769684e-02 1.4327922835946083e-03 4.3475080281496048e-02 -1.8401364795863628e-03 -2.9394699260592461e-02 7.5082774274051189e-03 1.8369359895586967e-02 -5.5784039199352264e-02 -2.1372880786657333e-02 2.0759156905114651e-03 -1.8146699294447899e-02 4.0470965206623077e-02 -2.5477234274148941e-02 1.1060269549489021e-02 -2.2130316495895386e-01 -2.9287310317158699e-02 7.0656053721904755e-02 1.1352010816335678e-01 -4.2179167270660400e-02 -9.0164924040436745e-03 5.2118878811597824e-02 9.9009767174720764e-02 2.2951140999794006e-02 8.7752729654312134e-02 8.7833568453788757e-02 4.7088146209716797e-02 1.5151550062000751e-02 4.4468580745160580e-03 6.2134858220815659e-02 7.7475234866142273e-02 4.0293160825967789e-02 3.3383596688508987e-02 -7.7854700386524200e-02 1.3210763037204742e-01 1.1147103272378445e-02 1.4293897897005081e-02 1.9226357340812683e-02 -9.2535808682441711e-02 2.3383052647113800e-01 1.6753900051116943e-01 -1.9398415461182594e-02 -3.6749493330717087e-02 -5.0345595926046371e-02 -2.3599533364176750e-02 3.9306845515966415e-02 -7.1248419582843781e-02 -8.7974578142166138e-02 -6.4602382481098175e-02 -6.7186290398240089e-03 -4.2623125016689301e-02 -8.5205905139446259e-02 7.0285886526107788e-02 2.0893195644021034e-02 -2.6551190763711929e-02 -8.2188449800014496e-02 -4.1972510516643524e-02 -2.9517471790313721e-02 -8.6192619055509567e-03 -1.2751723825931549e-01 2.8308153152465820e-02 -3.8114018738269806e-02 -9.3140758574008942e-02 6.2723740935325623e-02 -1.4686639606952667e-01 -1.4548896253108978e-01 6.9632098078727722e-02 2.7742071077227592e-02 9.0293034911155701e-02 -1.3114615343511105e-02 -7.3410786688327789e-02 6.9696560502052307e-02 9.3459382653236389e-02 3.5174079239368439e-02 -3.3485222607851028e-02 3.3270306885242462e-02 8.5611514747142792e-02 -2.7506764978170395e-02 -1.6500204801559448e-02 -6.3388264970853925e-04 5.1705282181501389e-02 6.9375984370708466e-02 1.2499576434493065e-02 5.1977612078189850e-02 8.5395179688930511e-02 -3.8861781358718872e-02 1.1490130797028542e-02 1.1717610061168671e-01 1.7190337181091309e-02 2.0501331984996796e-01 -3.8136854767799377e-02 -8.6460281163454056e-03 1.8440799787640572e-02 5.5144503712654114e-02 -1.6582898795604706e-02 -1.2152539566159248e-02 2.8595380485057831e-02 2.3697353899478912e-03 1.3364968821406364e-02 -2.3683954030275345e-02 2.9049782082438469e-02 1.9728617742657661e-02 2.7702208608388901e-03 8.3485133945941925e-03 -4.6793048386462033e-04 1.9047962501645088e-02 -6.3850064761936665e-03 3.4387495368719101e-02 -5.1275834441184998e-02 5.0786178559064865e-02 -2.7217114344239235e-02 6.5555130131542683e-03 -1.4368089847266674e-02 -4.6131663024425507e-02 8.0954782664775848e-02 -2.2886696457862854e-01 4.0965501219034195e-02 4.3355364352464676e-02 1.4259900152683258e-01 -4.3770961463451385e-02 -1.3225826434791088e-02 6.7383065819740295e-02 7.5891412794589996e-02 8.8992506265640259e-02 -1.7618985846638680e-02 1.6818091273307800e-02 4.0577579289674759e-02 -3.3337990753352642e-03 2.0714582875370979e-02 3.1813934445381165e-02 5.0757080316543579e-02 9.1740325093269348e-02 3.7600524723529816e-02 -1.5267117321491241e-01 1.3789530098438263e-01 -3.5632364451885223e-02 1.3772173784673214e-02 1.0300529003143311e-01 -8.2529805600643158e-02 2.7851009368896484e-01 -4.0056664496660233e-02 1.1021481826901436e-02 2.4936221539974213e-02 7.2092816233634949e-02 2.2442333400249481e-02 -3.7528067827224731e-02 2.2846428677439690e-02 5.8855038136243820e-02 -1.0569550096988678e-02 3.8758337497711182e-02 3.0336454510688782e-03 -3.9920909330248833e-05 7.3969559744000435e-03 2.4876311421394348e-02 2.8251828625798225e-02 3.6977659910917282e-02 5.9493776410818100e-02 9.9162263795733452e-03 3.0977815389633179e-02 9.2638775706291199e-02 2.5240514427423477e-02 3.2950006425380707e-02 5.2358806133270264e-02 -4.1838832199573517e-02 5.4511934518814087e-02 -1.9371433183550835e-02 1.9564641639590263e-02 3.5857051610946655e-02 4.3503794819116592e-02 -2.5870317593216896e-02 1.5062972903251648e-02 2.2084850817918777e-02 3.4045893698930740e-02 1.2044867500662804e-02 -1.2261653319001198e-02 4.7438386827707291e-03 3.6074074450880289e-03 -2.3501934483647346e-02 8.1528406590223312e-03 3.0838936567306519e-02 1.8690960481762886e-02 2.3895846679806709e-02 -1.3656359165906906e-02 5.3528543561697006e-02 3.6295995116233826e-02 1.3702896423637867e-02 2.6265321299433708e-02 3.8834840059280396e-02 3.3221587538719177e-02 3.3207617700099945e-02 7.4501484632492065e-02 4.9358054995536804e-02 -2.6385115459561348e-02 -8.2821428775787354e-02 8.2069903146475554e-04 -2.1418888121843338e-02 -3.8713905960321426e-02 -8.3876907825469971e-02 9.9481074139475822e-03 -6.6084228456020355e-02 -5.3758800029754639e-02 -7.5373090803623199e-02 4.2390804737806320e-02 6.3927345909178257e-03 -3.3583808690309525e-03 -6.6718824207782745e-02 -1.0810280218720436e-02 -2.4576380848884583e-02 6.7449703812599182e-02 -8.8667534291744232e-02 3.6998990923166275e-02 -4.0260680019855499e-02 -4.0353745222091675e-02 6.3316315412521362e-02 -1.5359823405742645e-01 5.4895505309104919e-03 3.7423595786094666e-02 -1.1548176407814026e-02 -1.2736923992633820e-02 -2.3162612691521645e-02 -2.7142148464918137e-02 2.6777081191539764e-02 3.7945233285427094e-02 3.5062272101640701e-02 -4.5467406511306763e-02 -2.8598117642104626e-03 -2.2039242088794708e-02 1.6662508249282837e-02 -1.0249829851090908e-02 -1.2876171385869384e-03 1.7733119428157806e-02 3.1418744474649429e-02 -1.1194454506039619e-02 -3.1218133866786957e-02 -2.6577543467283249e-02 -6.9669228978455067e-03 -2.3250250145792961e-02 4.6789771295152605e-04 -6.5748514607548714e-03 4.1418101638555527e-02 1.0627588629722595e-01 2.1805923432111740e-02 -2.4752140045166016e-02 -6.5878421068191528e-02 1.6973286867141724e-02 7.3265549726784229e-03 2.1061841107439250e-04 -1.7663972452282906e-02 -4.1313517838716507e-02 2.9081478714942932e-02 4.5033385977149010e-03 -2.7545116841793060e-02 1.0767016559839249e-02 -4.6164166182279587e-02 -6.3998070545494556e-03 -1.8789722817018628e-03 -8.3572454750537872e-03 1.8049253150820732e-02 4.6492107212543488e-02 -7.3026970028877258e-02 1.4125938527286053e-02 -2.8752317652106285e-02 -5.8522772043943405e-02 5.8102905750274658e-02 -1.0397906601428986e-01 1.2267313152551651e-01 2.4843713268637657e-02 -3.0491845682263374e-02 -7.0040136575698853e-02 1.8970603123307228e-02 -2.2107870609033853e-04 -1.2980798259377480e-02 -6.3126720488071442e-02 -4.5812264084815979e-02 -7.4068903923034668e-02 -1.3989579863846302e-02 -2.5577109772711992e-03 6.8933730944991112e-03 -2.1568993106484413e-02 -1.8982313573360443e-02 -4.6192631125450134e-02 -5.1232095807790756e-02 -3.6666325759142637e-03 -1.3307121582329273e-02 -8.1863090395927429e-02 -2.7391139417886734e-02 -2.6980545371770859e-02 -1.3268733164295554e-03 1.5468725003302097e-02 -1.4568816125392914e-01 -4.8616048879921436e-03 2.9114173958078027e-04 -1.8066423013806343e-02 7.9642282798886299e-03 -1.5185866504907608e-02 1.5574648976325989e-02 -1.8972888938151300e-05 2.6548691675998271e-04 -1.8036169931292534e-02 3.1025219708681107e-02 -1.3622495345771313e-02 8.7224598973989487e-03 1.9969599321484566e-02 -3.3432815223932266e-02 -2.1602764725685120e-02 4.4824424549005926e-05 -2.6765312068164349e-03 2.6604924350976944e-02 2.0897623151540756e-02 -2.4137942120432854e-02 -1.2510862434282899e-03 -4.5752152800559998e-03 -2.4121070280671120e-02 4.7867354005575180e-02 -2.8880856931209564e-02 2.2406188771128654e-02 -3.3921375870704651e-02 2.0017769187688828e-02 3.9498959667980671e-03 -1.2482865713536739e-02 -2.1619979292154312e-02 3.8762222975492477e-02 -1.6624247655272484e-02 1.6598803922533989e-02 4.4770624488592148e-02 -2.5371780619025230e-02 9.4739412888884544e-03 1.7593735828995705e-02 -3.8099110126495361e-02 -3.0977509595686570e-05 -2.0698420703411102e-02 -6.8481271155178547e-03 6.7123780027031898e-03 2.6079868897795677e-02 5.1496151834726334e-02 -3.1953174620866776e-02 -1.9577255472540855e-02 2.3563591763377190e-02 3.5412710160017014e-02 3.0899280682206154e-02 -9.2463836073875427e-02 -2.3220267146825790e-02 1.6350226476788521e-02 8.7488859891891479e-02 9.2691797763109207e-03 -3.9377726614475250e-02 -9.8390132188796997e-04 7.6343426480889320e-03 2.3345386609435081e-02 -1.0021664202213287e-02 6.0690402984619141e-02 6.2765873968601227e-02 -7.5951828621327877e-03 -1.3498980551958084e-02 1.4559775590896606e-02 8.1341065466403961e-02 7.9514235258102417e-03 -1.3329625129699707e-02 -2.4027682840824127e-02 7.1633517742156982e-02 -1.6574960201978683e-02 5.4649687372148037e-03 3.6353040486574173e-02 -1.6274085268378258e-02 8.5031084716320038e-02 -1.0027273744344711e-01 -1.3354319147765636e-02 1.3420869596302509e-02 7.1969620883464813e-02 -3.6752659827470779e-02 -1.0044443188235164e-03 4.3872218579053879e-02 2.4172354489564896e-02 1.9682053476572037e-02 2.2143881767988205e-02 5.3396236151456833e-02 5.2965074777603149e-02 -3.3461321145296097e-02 -3.0583599582314491e-02 5.6560825556516647e-02 9.4766512513160706e-02 2.5924125220626593e-03 3.2872136216610670e-03 -3.3948227763175964e-02 9.4417676329612732e-02 -3.5095196217298508e-02 -3.1074327416718006e-03 2.3240316659212112e-02 -6.4422868192195892e-02 1.4025998115539551e-01 -1.7761210910975933e-03 1.8925117328763008e-02 3.0056720599532127e-02 -4.6117231249809265e-02 3.7458565086126328e-02 5.1507353782653809e-03 1.4298607595264912e-02 -2.2631615400314331e-02 1.1150331556564197e-04 -4.9120362848043442e-02 -9.2328293249011040e-03 -5.5813062936067581e-03 -3.0387168750166893e-02 -2.2802926599979401e-02 -4.2307004332542419e-02 -6.1204206198453903e-02 -3.9311181753873825e-02 -1.5135320834815502e-02 -3.0019306577742100e-03 -1.3349382206797600e-02 2.9985161498188972e-02 -1.4438540674746037e-02 3.0166408047080040e-02 -3.0191307887434959e-02 -3.4114271402359009e-02 9.2466503381729126e-02 -9.7615467384457588e-03 -5.6047096848487854e-02 -3.5798087716102600e-02 -2.3610953241586685e-02 6.0158584266901016e-02 -4.6132583171129227e-02 -5.1866229623556137e-02 -3.8296081125736237e-02 -1.0214209556579590e-02 -2.4988930672407150e-02 -4.7989759594202042e-02 -1.2508383020758629e-02 -3.5773243755102158e-02 -1.4626939781010151e-02 -5.9029627591371536e-03 -4.4233310967683792e-02 2.3316230624914169e-02 1.5872634947299957e-02 -8.7684653699398041e-02 -2.8721408918499947e-02 -1.4458448626101017e-02 -6.8870835006237030e-02 6.8647958338260651e-02 -1.7765462398529053e-01 1.9714629650115967e-01 -7.1623511612415314e-02 -7.4495680630207062e-02 -1.1476173251867294e-01 2.5344222784042358e-02 7.8866600990295410e-02 -3.9519362151622772e-02 -1.2024853378534317e-01 -4.0766425430774689e-02 7.2048574686050415e-02 -6.8906374275684357e-02 -1.0176324844360352e-01 6.8861447274684906e-02 -2.7083130553364754e-02 1.8605154473334551e-03 -1.0875992476940155e-01 -9.3599006533622742e-02 -5.5909898132085800e-02 1.4357340335845947e-01 -8.5122838616371155e-02 2.3979693651199341e-02 -9.4183804467320442e-03 -9.3262106180191040e-02 9.8717622458934784e-02 -2.4870021641254425e-01 2.5075995922088623e-01 2.9591899365186691e-03 -4.1582826524972916e-02 -1.6196247935295105e-01 3.7228245288133621e-02 7.7766366302967072e-02 -4.4989481568336487e-02 -1.2779031693935394e-01 -5.6212369352579117e-02 2.0607862621545792e-02 -9.1429844498634338e-02 -4.6830281615257263e-02 3.0077572911977768e-02 -1.6356326523236930e-04 -5.8805279433727264e-02 -1.2562552094459534e-01 -9.3931302428245544e-02 -2.7405383065342903e-02 1.3833737373352051e-01 -1.5500323474407196e-01 -2.7424154803156853e-02 3.4986682236194611e-02 -5.7897809892892838e-02 1.2235662341117859e-01 -3.1066039204597473e-01 -9.1134674847126007e-02 -1.4414920005947351e-03 2.6474678888916969e-03 8.6512863636016846e-02 9.0020149946212769e-03 3.0850108712911606e-02 4.6225469559431076e-03 6.7531391978263855e-02 1.1715780012309551e-02 5.1082815974950790e-02 4.2997039854526520e-03 3.1467705965042114e-02 -4.3695315718650818e-02 2.9247365891933441e-02 -1.0816744528710842e-02 3.6302715539932251e-02 5.5557131767272949e-02 1.2742199935019016e-02 -3.2670140266418457e-02 1.1740134656429291e-01 1.4900802634656429e-02 4.2329341173171997e-02 5.4886743426322937e-02 5.4787704721093178e-03 1.4394350349903107e-01 -6.7190729081630707e-02 -1.9634893164038658e-02 5.9241529554128647e-02 4.1487578302621841e-02 1.2941416352987289e-02 -2.5843430310487747e-02 4.1462127119302750e-02 1.6111973673105240e-02 3.5874955356121063e-02 3.5550817847251892e-02 -4.7377441078424454e-03 3.3500608056783676e-02 -8.1089613959193230e-03 -2.2458757739514112e-03 4.9472600221633911e-02 7.5569123029708862e-02 4.5277416706085205e-02 6.2653031200170517e-03 -6.5381817519664764e-02 8.6402170360088348e-02 3.7646152079105377e-02 -5.1949797198176384e-03 1.6392217949032784e-02 -6.3880145549774170e-02 1.0696748644113541e-01 -3.0990266799926758e-01 -1.4335016021504998e-04 8.7061651051044464e-02 1.9628109037876129e-01 -4.9375738948583603e-02 -3.4743960946798325e-02 8.8803775608539581e-02 1.3384160399436951e-01 2.9298024252057076e-02 -5.6167719885706902e-03 8.9072681963443756e-02 1.1655353754758835e-01 -7.3232777416706085e-02 -2.4001346901059151e-02 5.2249792963266373e-02 1.2239599972963333e-01 1.0771121829748154e-01 2.1653531584888697e-03 -1.1526332050561905e-01 1.5876488387584686e-01 2.4404546245932579e-02 -1.2614655308425426e-02 4.2412325739860535e-02 -1.6812327504158020e-01 3.0951288342475891e-01 -1.7847396433353424e-01 -1.2475579977035522e-02 4.8443056643009186e-02 1.1385413259267807e-01 -5.4217286407947540e-02 -5.2226256579160690e-02 2.1623134613037109e-02 1.1212397366762161e-01 2.6434706524014473e-02 -3.7376217544078827e-02 8.1644438207149506e-02 5.3840804845094681e-02 -4.5495897531509399e-02 3.6823958158493042e-02 3.9533633738756180e-02 4.6627994626760483e-02 4.8688560724258423e-02 3.1625207513570786e-02 -9.6977755427360535e-02 8.9633792638778687e-02 -1.2491973116993904e-02 -1.8601741641759872e-02 3.6201342009007931e-03 -1.1237011849880219e-01 1.7189954221248627e-01 9.2294469475746155e-02 2.1731192246079445e-02 -2.6343559846282005e-02 -7.8494019806385040e-02 -4.0313024073839188e-03 2.8699757531285286e-02 -2.6465343311429024e-02 -6.2411572784185410e-02 9.6584446728229523e-03 -7.7512878924608231e-03 1.7460928065702319e-03 4.9410932697355747e-03 3.5700161010026932e-02 -9.4967540353536606e-03 -3.2835036516189575e-02 -4.1209958493709564e-02 -4.0672264993190765e-02 6.7695458419620991e-03 5.6363388895988464e-02 -3.1558021903038025e-02 2.5978017598390579e-02 -2.1470962092280388e-03 -4.3080403702333570e-04 -5.3791031241416931e-03 -9.2817351222038269e-02 2.4621601914986968e-04 -2.5622926652431488e-02 1.3774125836789608e-02 1.8725300207734108e-02 -1.5183215029537678e-02 -1.2157708406448364e-03 1.2031653895974159e-02 -2.3405198007822037e-03 -2.7579525485634804e-02 3.1035738065838814e-03 -3.9321226067841053e-03 -4.1467647999525070e-02 -3.0526628717780113e-02 6.1476896516978741e-03 -6.8545173853635788e-03 -5.3961399942636490e-02 -2.8473535552620888e-02 -1.8888046906795353e-04 -1.6722179949283600e-02 -5.7394798845052719e-02 2.3591455072164536e-02 -2.1732484921813011e-02 -3.0140731483697891e-02 -4.7552257776260376e-02 2.5315739214420319e-02 1.4092029631137848e-01 5.1059871912002563e-02 -4.0603589266538620e-02 -7.2931796312332153e-02 9.5538701862096786e-03 -4.0170401334762573e-03 -3.4371010959148407e-02 -8.3556994795799255e-02 -5.8029964566230774e-02 -9.6579737961292267e-02 -8.4649128839373589e-03 -1.8734136596322060e-02 1.4869254082441330e-02 1.6003347933292389e-02 -3.9252683520317078e-02 -7.8042805194854736e-02 -7.8209891915321350e-02 1.1529305018484592e-02 6.1154440045356750e-02 -1.3231238722801208e-01 -5.2285123616456985e-02 -7.0724927354604006e-06 -8.8235773146152496e-02 2.3887616116553545e-03 -1.6291694343090057e-01 6.7490510642528534e-02 2.9258722439408302e-02 -1.7196238040924072e-03 -4.8064790666103363e-02 2.3588424548506737e-02 -2.3420678451657295e-02 -5.4997898638248444e-02 -1.3833238743245602e-02 -7.7431993559002876e-03 -3.2905086874961853e-02 -2.3361656814813614e-02 -2.1793143823742867e-02 4.4383788481354713e-03 -2.8303600847721100e-02 -2.1091349422931671e-02 -6.7935802042484283e-02 4.5756883919239044e-03 -9.5406156033277512e-03 -1.7641620710492134e-02 -4.7539915889501572e-02 -1.8221970647573471e-02 -3.0089857056736946e-02 1.8470233306288719e-02 7.3687327094376087e-03 -3.5962063819169998e-02 8.8886588811874390e-02 -1.5118813142180443e-02 8.4446417167782784e-03 -5.4897222667932510e-02 4.1871748864650726e-02 -2.4138944223523140e-02 -2.3929333314299583e-02 -2.6277249678969383e-02 -5.2457373589277267e-02 2.4545812979340553e-02 -6.1145354062318802e-02 -2.7188399806618690e-02 4.0775340050458908e-02 -3.2458152621984482e-02 -9.2283561825752258e-03 -6.1110779643058777e-02 -7.0112727582454681e-02 -3.8978099822998047e-02 7.6732039451599121e-02 -1.1273838579654694e-01 3.7729911506175995e-02 -2.4902783334255219e-02 -9.5314301550388336e-02 2.2304927930235863e-02 -1.6726738214492798e-01 2.0328462123870850e-01 -2.8399983420968056e-02 -6.7757278680801392e-02 -1.2428162992000580e-01 5.1776919513940811e-02 3.8455769419670105e-02 -2.4854855611920357e-02 -6.8374931812286377e-02 -3.3480707556009293e-02 2.0124278962612152e-02 -6.9047749042510986e-02 -2.3135472089052200e-02 -9.7883613780140877e-03 -2.6385884732007980e-02 5.7480912655591965e-03 -1.0644743591547012e-01 -4.8764303326606750e-02 -2.5101942941546440e-02 1.3260754942893982e-01 -1.1331318318843842e-01 2.5994019582867622e-02 1.5601295977830887e-02 -8.6697228252887726e-02 6.9775819778442383e-02 -2.4502407014369965e-01 -1.5791416168212891e-01 6.5521840006113052e-03 7.4852686375379562e-03 7.7150680124759674e-02 -1.2756039388477802e-02 1.7933448543772101e-03 3.9176784455776215e-02 5.3113169968128204e-02 1.3837607577443123e-02 1.8859984353184700e-02 4.6816978603601456e-02 3.2686837017536163e-02 -3.7349805235862732e-02 3.2873120158910751e-02 2.4160923436284065e-02 6.7448645830154419e-02 1.8088081851601601e-02 2.9743280261754990e-02 -7.0052482187747955e-02 1.1718747019767761e-01 -1.5048542991280556e-02 9.1557931154966354e-03 7.7450379729270935e-02 -1.6134701669216156e-02 1.9067694246768951e-01 1.6149272024631500e-01 -3.9661128073930740e-02 -3.4253660589456558e-02 -6.1179988086223602e-02 3.2124474644660950e-02 3.4802839159965515e-02 -6.5838754177093506e-02 -8.9692525565624237e-02 -3.2545588910579681e-02 1.7149440944194794e-02 -7.4395768344402313e-02 -1.0549344122409821e-02 2.6219440624117851e-02 -2.5896737352013588e-02 -1.4854067005217075e-02 -8.4243714809417725e-02 -8.1410638988018036e-02 -3.8026276975870132e-02 8.7877929210662842e-02 -6.7620575428009033e-02 2.5566490367054939e-02 9.1733746230602264e-03 -5.0339944660663605e-02 6.8588182330131531e-02 -2.1538257598876953e-01 4.2441030964255333e-03 -2.8601119294762611e-02 6.5048928372561932e-03 3.6177355796098709e-02 2.6433631777763367e-02 -1.3114669360220432e-02 2.8011493384838104e-02 -2.3052919656038284e-02 -2.4270443245768547e-03 1.6261473298072815e-02 4.4908221811056137e-02 1.6829170286655426e-02 -2.6977797970175743e-02 -3.2827530056238174e-02 -1.8506430089473724e-02 2.0643126219511032e-02 1.9858978688716888e-02 2.4345211684703827e-02 -2.1723652258515358e-02 -7.2364686056971550e-03 4.1475547477602959e-03 2.5083875283598900e-02 -2.9111052863299847e-03 9.4652008265256882e-03 1.7995463684201241e-02 -7.1257144212722778e-02 7.9110858496278524e-04 -7.5861117802560329e-03 5.4889902472496033e-02 1.2406418099999428e-02 -2.4489031638950109e-03 3.5233072936534882e-02 6.8903803825378418e-02 3.8631916046142578e-02 3.0262308195233345e-02 4.9284059554338455e-02 1.0185055434703827e-02 -4.0512904524803162e-02 2.7872681617736816e-02 3.8524046540260315e-02 6.5223261713981628e-02 1.1148768477141857e-02 -2.2234620526432991e-02 -1.1120378039777279e-02 2.4507762864232063e-02 -1.5067500062286854e-03 -2.3485848214477301e-03 2.9806416481733322e-02 -2.6577671989798546e-02 1.3612018525600433e-01 2.1206732094287872e-01 3.8312833756208420e-02 -8.3099365234375000e-02 -1.3252049684524536e-01 -4.5598067343235016e-02 9.4536833465099335e-02 -8.8755764067173004e-02 -7.1205362677574158e-02 -8.1846900284290314e-02 -1.0744964331388474e-01 3.3346309792250395e-03 -7.6747283339500427e-02 8.8551431894302368e-02 4.5576556585729122e-03 -2.6434393599629402e-02 -4.8615537583827972e-02 -7.9707682132720947e-02 3.7949774414300919e-02 -8.4720365703105927e-02 -1.9350861012935638e-01 2.1778557449579239e-02 -7.9132482409477234e-02 -1.3533981144428253e-01 1.9533946178853512e-03 -3.0312904715538025e-01 4.9848090857267380e-02 3.7527538836002350e-02 -3.4035939723253250e-02 -6.4563676714897156e-02 2.5355794932693243e-03 -1.2222000397741795e-02 -4.0323249995708466e-02 -5.4392162710428238e-02 8.7986662983894348e-03 -1.1622585356235504e-02 -1.5995867550373077e-02 -6.2827928923070431e-03 -6.9562504068017006e-03 1.8648112192749977e-02 -3.4409813582897186e-02 -5.7366028428077698e-02 -4.0419466793537140e-02 -2.5659339502453804e-02 3.7815690040588379e-02 -6.8505313247442245e-03 1.4029125683009624e-02 -2.1406970918178558e-02 -3.7601280957460403e-02 8.8910581544041634e-03 -4.5529875904321671e-02 -2.7632275223731995e-01 -4.5806422829627991e-02 7.0386998355388641e-02 1.8044628202915192e-01 -7.1177981793880463e-02 -1.2136355973780155e-02 7.9340301454067230e-02 1.2501358985900879e-01 4.9126520752906799e-02 7.1833342313766479e-02 6.8918310105800629e-02 5.6331694126129150e-02 -5.4394464939832687e-02 -2.9592630453407764e-03 5.3407907485961914e-02 1.4989061653614044e-01 8.0349855124950409e-02 -8.1526637077331543e-03 -1.8038707971572876e-01 1.4761269092559814e-01 1.5529751777648926e-02 -1.5274184755980968e-02 5.7013463228940964e-02 -1.4204964041709900e-01 3.2260850071907043e-01 -1.7404314130544662e-02 2.3847084492444992e-02 -3.3143945038318634e-02 -3.7537906318902969e-02 2.7520466595888138e-02 1.7419335199519992e-03 -2.3689072579145432e-02 1.1579783633351326e-02 1.8469182774424553e-02 1.5643505379557610e-02 -4.2946573346853256e-02 -3.4088671207427979e-02 -2.4136197753250599e-03 -9.9586574360728264e-03 -2.8642334043979645e-02 -2.2160582244396210e-02 1.1837518773972988e-02 1.1929279193282127e-02 1.7542963614687324e-03 1.0735552757978439e-02 -1.8696658662520349e-04 2.7491178363561630e-02 4.6756570227444172e-03 -4.0175389498472214e-02 1.6226983861997724e-03 -1.4400944113731384e-01 1.3008501380681992e-02 5.2041392773389816e-02 6.6882230341434479e-02 4.4175900518894196e-02 -1.2140783481299877e-02 5.8748185634613037e-02 3.3739168196916580e-02 2.9568163678050041e-02 2.4257814511656761e-02 5.0213169306516647e-03 7.2103306651115417e-02 5.7048965245485306e-03 1.2173616327345371e-02 -2.1416388452053070e-02 2.2165901958942413e-02 4.1947245597839355e-02 3.5088870208710432e-03 2.9966743662953377e-02 1.5327990055084229e-01 -4.9965459853410721e-02 3.1511071138083935e-03 1.4435848593711853e-01 -3.5024904645979404e-03 2.3674017190933228e-01 -1.2110140919685364e-01 -5.0659969449043274e-02 4.0351953357458115e-02 8.1381671130657196e-02 -2.3375680670142174e-02 -1.4995296485722065e-02 2.2870849817991257e-02 4.8410747200250626e-02 4.1198022663593292e-02 6.8249650299549103e-02 7.6383270323276520e-02 2.8456516563892365e-02 2.8307426720857620e-02 1.9305733963847160e-02 1.8804451450705528e-02 8.7049633264541626e-02 7.0757955312728882e-02 6.3825300894677639e-03 -5.7444620877504349e-02 7.8726775944232941e-02 -1.3530232012271881e-02 -7.4436906725168228e-03 4.8160810023546219e-02 -7.5194671750068665e-02 1.0815408825874329e-01 1.6854155063629150e-01 -6.3993036746978760e-02 -7.0663459599018097e-02 -1.1455515772104263e-01 1.6811186447739601e-02 3.4705948084592819e-02 -4.8985950648784637e-02 -9.6792161464691162e-02 -7.1262985467910767e-02 5.7693071663379669e-02 -3.1643580645322800e-02 -3.3027715981006622e-02 -1.2151316739618778e-02 1.0625457391142845e-02 -5.0150051712989807e-02 -7.4275359511375427e-02 -5.7432919740676880e-02 -2.7493458241224289e-02 8.0160938203334808e-02 -7.5620412826538086e-02 -1.8036238849163055e-02 3.8448840379714966e-02 -2.4471314623951912e-02 1.1291182041168213e-01 -2.1220864355564117e-01 6.6344693303108215e-02 -5.3806859999895096e-02 8.8601652532815933e-03 -5.0090957432985306e-02 2.0508600398898125e-02 1.8593402579426765e-02 -1.9158186390995979e-02 -4.4893857091665268e-02 -5.5079214274883270e-02 6.1073087155818939e-02 1.5073673799633980e-02 -1.5604658052325249e-02 4.4987020082771778e-03 -4.2013984173536301e-02 1.5607992187142372e-02 5.8961543254554272e-03 5.6341439485549927e-03 -2.3871518205851316e-03 1.1720374226570129e-02 -1.5151874395087361e-03 8.2013858482241631e-03 -1.2107738293707371e-02 -6.2639050185680389e-02 2.8022451326251030e-02 -9.7697965800762177e-02 1.9321516156196594e-01 -6.4662151038646698e-02 -4.7707218676805496e-02 -1.3112814724445343e-01 6.0769688338041306e-02 1.1557208374142647e-02 -5.8915082365274429e-02 -8.8348798453807831e-02 -3.7474744021892548e-02 5.7870134711265564e-02 -1.0356072336435318e-01 -3.6407195031642914e-02 -2.3240607231855392e-02 -3.7813026458024979e-02 -6.4883984625339508e-02 -1.3146434724330902e-01 -5.6687328964471817e-02 -3.0307384207844734e-02 1.6072167456150055e-01 -8.9318804442882538e-02 -4.7786083072423935e-02 3.9432123303413391e-02 3.7844009697437286e-02 6.1253570020198822e-02 -1.5178897976875305e-01 -1.5004242956638336e-01 6.0051035135984421e-02 4.0090288966894150e-02 6.0846749693155289e-02 -3.2986700534820557e-02 -2.9772158712148666e-02 4.2264927178621292e-02 7.4725106358528137e-02 9.2537989839911461e-03 -5.0159517675638199e-02 4.2828120291233063e-02 1.8072793260216713e-02 -2.9954927042126656e-02 4.8291783779859543e-02 5.4030682891607285e-02 7.3286384344100952e-02 5.4244682192802429e-02 -4.3179639615118504e-03 -8.0001309514045715e-02 1.1687485873699188e-01 3.0336378142237663e-02 -2.0309207960963249e-02 4.5734670013189316e-02 -5.0531130284070969e-02 1.8790686130523682e-01 -2.5805933400988579e-02 -3.5373128950595856e-02 2.9680639272555709e-04 -1.8679721280932426e-02 2.5357572361826897e-02 3.0181160196661949e-02 3.5560913383960724e-02 -4.0185335092246532e-03 -3.6292544100433588e-03 1.7816212028264999e-02 1.9306831061840057e-02 3.7781145423650742e-02 -2.1208964288234711e-02 2.8722343966364861e-02 -1.8902350217103958e-02 4.6359997242689133e-02 -2.4672400206327438e-02 7.1640298701822758e-03 -2.0517945289611816e-02 3.8971174508333206e-02 2.8895640280097723e-03 -2.5211272295564413e-03 -1.4570451341569424e-02 -1.0481578297913074e-02 2.1186960861086845e-02 5.3643725812435150e-02 9.5067219808697701e-04 -3.8908865302801132e-02 -6.6406801342964172e-02 3.3007897436618805e-02 2.0655019208788872e-02 -2.5310466066002846e-02 -5.0300903618335724e-02 -4.1557259857654572e-02 -5.8198116719722748e-02 -1.1296438984572887e-02 -2.4638618342578411e-03 -2.8249720111489296e-02 8.2549368962645531e-03 -2.8332771733403206e-02 -1.8239200115203857e-02 -1.6153752803802490e-02 1.1429347097873688e-02 2.1929424256086349e-02 -5.2936520427465439e-02 -2.1790942177176476e-02 -3.7445854395627975e-02 -1.6806412488222122e-02 3.0108505859971046e-02 -1.3303813338279724e-01 -1.5064818784594536e-02 -4.7187278978526592e-03 -2.6405548676848412e-02 3.7667735014110804e-03 -2.5733411312103271e-02 -1.4250514097511768e-02 1.1691262014210224e-02 -2.1980669349431992e-02 7.2753359563648701e-03 -3.1998753547668457e-02 -1.9164175027981400e-03 -4.2118478566408157e-02 -1.9753662869334221e-02 1.5045369975268841e-02 -1.9970808178186417e-02 -4.4320717453956604e-02 -3.5293873399496078e-02 -2.8893193230032921e-03 1.3554091565310955e-02 1.7560621723532677e-02 7.6931547373533249e-03 -2.7060044929385185e-02 -2.5948794558644295e-02 -1.1483706533908844e-02 -1.8776172772049904e-02 -1.8492050468921661e-01 -3.9117000997066498e-02 6.8866416811943054e-02 9.4050116837024689e-02 -6.1734247952699661e-02 -5.2877120673656464e-02 6.4574010670185089e-02 8.0206908285617828e-02 4.8139099031686783e-02 7.1632638573646545e-02 8.1504911184310913e-02 8.9185602962970734e-02 5.8372742496430874e-03 4.3865349143743515e-02 4.9988735467195511e-02 9.4242140650749207e-02 6.6074535250663757e-02 8.2010570913553238e-03 -1.4291147887706757e-01 5.6432019919157028e-02 2.1603668108582497e-02 1.1698874644935131e-02 4.3561350554227829e-02 -1.1645947396755219e-01 1.5747402608394623e-01 -1.6796220839023590e-01 7.5326733291149139e-02 7.6480664312839508e-02 1.5519757568836212e-01 -5.5441744625568390e-02 -8.7231799960136414e-02 6.6149897873401642e-02 1.1681313067674637e-01 5.4407037794589996e-02 -5.0490856170654297e-02 6.4223751425743103e-02 5.3936630487442017e-02 -2.2655481472611427e-02 5.1698677241802216e-02 2.1701175719499588e-02 6.3114568591117859e-02 6.6588886082172394e-02 2.7279878035187721e-02 -1.2317772209644318e-01 6.0489874333143234e-02 -2.2620191797614098e-02 1.1761629953980446e-02 9.1159425675868988e-02 -1.2101206928491592e-01 2.3736031353473663e-01 7.1933209896087646e-02 1.8899653106927872e-02 1.0255641303956509e-02 -1.9737400114536285e-02 3.1638186424970627e-02 9.2706223949790001e-03 -2.4898827075958252e-02 -5.4101128131151199e-02 -3.5074345767498016e-02 -1.3165837153792381e-02 3.9886166341602802e-03 9.6963774412870407e-03 -2.3197287227958441e-03 -1.9479088485240936e-02 -1.3483839109539986e-02 -5.1747284829616547e-02 1.1686865240335464e-02 1.0319035500288010e-02 -4.0523178875446320e-02 -5.4975058883428574e-02 3.3176228404045105e-02 -2.3740759119391441e-02 -5.4472625255584717e-02 -3.1886622309684753e-03 -7.2086930274963379e-02 5.2887231111526489e-02 7.3601305484771729e-03 -1.3640237040817738e-02 -6.2080942094326019e-02 1.2778135016560555e-02 2.4988964200019836e-02 -2.7632115408778191e-02 -1.2410615570843220e-02 3.3862397540360689e-03 1.7443424090743065e-02 -6.3197664916515350e-02 -6.2215797603130341e-02 2.7777181938290596e-02 -9.6481889486312866e-03 -8.9910104870796204e-03 -5.2784990519285202e-02 -5.8698374778032303e-04 -3.5483382642269135e-02 7.8064866364002228e-02 -6.2604621052742004e-02 -2.7328245341777802e-02 -2.7817528694868088e-02 7.6036853715777397e-03 3.2315876334905624e-02 -1.0735718905925751e-01 -6.4037658274173737e-02 -2.6850180700421333e-02 4.5610919594764709e-02 4.4702935963869095e-02 -2.4532085284590721e-02 -6.5222880803048611e-03 2.3233069106936455e-02 1.1316869407892227e-02 5.0235938280820847e-02 3.6442652344703674e-02 4.9185488373041153e-02 4.6605385839939117e-02 1.5568457543849945e-02 2.2225748747587204e-02 4.6232275664806366e-02 6.8782612681388855e-02 4.7387927770614624e-02 -1.6423627734184265e-02 -6.8081431090831757e-02 3.3087700605392456e-02 4.8085600137710571e-03 -3.1355019658803940e-02 4.2072471231222153e-02 -6.3298240303993225e-02 1.4889763295650482e-01 2.3522685468196869e-01 -9.8623838275671005e-03 -8.5979014635086060e-02 -1.3564155995845795e-01 2.5463890284299850e-02 -2.0540987607091665e-03 -7.4624881148338318e-02 -1.2201004475355148e-01 -3.6228347569704056e-02 4.7908511012792587e-02 -8.1318259239196777e-02 -6.9498315453529358e-02 5.3958911448717117e-02 -3.4123320132493973e-02 -5.3294170647859573e-02 -7.1800157427787781e-02 -1.0100433975458145e-01 6.0755717568099499e-03 2.1221093833446503e-01 -1.1286050081253052e-01 -3.5252343863248825e-02 4.1181184351444244e-02 -3.2638201955705881e-03 1.3616788387298584e-01 -2.3033162951469421e-01 -5.3143263794481754e-03 1.9321549683809280e-02 1.4924867078661919e-02 2.5971801951527596e-03 1.4944729395210743e-02 -3.9494428783655167e-02 3.8423638790845871e-02 1.6904015094041824e-02 2.7142208069562912e-02 3.2906547188758850e-02 -9.6936859190464020e-03 7.2137131355702877e-03 -1.8362272530794144e-02 5.5752811022102833e-03 3.2700844109058380e-02 -1.3505121693015099e-02 2.6049390435218811e-02 -3.2860091887414455e-03 2.6345402002334595e-03 -1.4074587263166904e-02 -3.1829439103603363e-02 3.2615184783935547e-02 2.3205902427434921e-02 -1.4022101648151875e-02 7.3471248149871826e-02 -5.1419857889413834e-02 5.5618513375520706e-02 4.0022641420364380e-02 2.7187587693333626e-02 1.8163494765758514e-02 1.6132332384586334e-02 1.7925415188074112e-02 6.7955926060676575e-02 -7.2616748511791229e-03 -6.1706621199846268e-02 5.1174838095903397e-02 6.4015708863735199e-02 -4.3689124286174774e-02 4.0736962109804153e-03 5.7473588734865189e-02 8.1068411469459534e-02 2.4380596354603767e-02 1.3815441168844700e-02 -6.3844159245491028e-02 7.7164456248283386e-02 -2.4110235273838043e-02 -2.5450121611356735e-02 -1.7748419195413589e-02 -6.2743291258811951e-02 1.0541085153818130e-01 3.2338049262762070e-02 -3.7675045430660248e-02 -5.2343807183206081e-03 -5.2450761198997498e-02 1.0565288364887238e-02 3.6586467176675797e-02 1.7041662707924843e-02 -4.6407092362642288e-02 -1.1944670230150223e-02 4.4975101947784424e-02 6.0479440726339817e-03 1.7627077177166939e-02 3.3556684851646423e-02 -4.4133029878139496e-02 -4.2786832898855209e-02 -1.2179836630821228e-02 -3.2219693064689636e-02 -4.0388301014900208e-02 3.6838948726654053e-02 1.2477993033826351e-02 -7.5417687185108662e-03 -8.2165319472551346e-03 -4.3532129377126694e-02 2.4301217868924141e-02 -7.2212003171443939e-02 4.8968479037284851e-02 -2.8341699391603470e-02 -3.9220239967107773e-02 -2.5100613012909889e-02 -2.8008518740534782e-02 8.6653235484845936e-06 -5.7647366076707840e-02 -2.1756865084171295e-02 -1.5475794672966003e-02 1.0290088132023811e-02 -2.9043691232800484e-02 -4.3413516134023666e-02 -1.1041542515158653e-02 -1.2404954992234707e-02 -4.3540190905332565e-02 -1.1618997901678085e-02 -3.5639829933643341e-02 -4.7856951132416725e-03 4.3239705264568329e-02 -2.6407251134514809e-02 4.1526336222887039e-02 -3.2142039388418198e-02 -6.3977010548114777e-02 4.7929126769304276e-02 -1.2269720435142517e-01 -2.7625894173979759e-02 4.7420363873243332e-02 -1.2742430903017521e-02 1.5445647761225700e-02 -2.9953747987747192e-02 -9.3026291579008102e-03 3.0760496854782104e-02 2.7254395186901093e-02 3.6165948957204819e-02 -5.6663684546947479e-02 1.2867251411080360e-02 2.0675683394074440e-02 -4.2990740388631821e-02 3.3054649829864502e-03 2.2920506075024605e-02 2.5314632803201675e-02 3.2389909029006958e-02 1.6483403742313385e-02 -7.8445777297019958e-02 5.4225038737058640e-02 -2.6162754744291306e-02 -1.5198742970824242e-02 2.9633475933223963e-03 -2.6842156425118446e-02 5.0119951367378235e-02 -5.6100752204656601e-02 1.9939266145229340e-02 -5.8146556839346886e-03 9.2736948281526566e-03 2.8136083856225014e-02 -4.4474415481090546e-02 -2.4892022833228111e-02 -2.0338585600256920e-02 2.3477630689740181e-02 8.0439560115337372e-03 -2.3953747004270554e-02 8.5422582924365997e-03 -6.3159735873341560e-03 -1.7377346754074097e-02 -2.0670212805271149e-02 -1.3725294731557369e-02 -1.1686497367918491e-02 -2.6807175949215889e-02 -2.4593940004706383e-02 -2.1534333005547523e-02 2.2413449361920357e-02 3.8264291360974312e-03 4.1713163256645203e-02 -3.6505777388811111e-02 6.7602954804897308e-02 3.0560625717043877e-02 -9.3576451763510704e-03 -2.8888221830129623e-02 2.9452932998538017e-02 1.9144184887409210e-02 3.7992283701896667e-02 -7.9581504687666893e-03 1.4429288916289806e-02 -4.6068849042057991e-03 5.3618393838405609e-02 1.1238629929721355e-02 -1.5470416285097599e-02 2.0964937284588814e-02 -2.7479942888021469e-02 2.0779909566044807e-02 -2.1022664383053780e-02 7.9627325758337975e-03 -1.0519563220441341e-03 3.6722626537084579e-02 2.5270223617553711e-02 2.2283541329670697e-04 -6.3173188827931881e-03 -2.6050256565213203e-02 2.9044847935438156e-02 -3.2980535179376602e-02 1.8826484680175781e-02 3.8200087845325470e-02 -3.1471699476242065e-02 -3.8916200399398804e-02 5.0846715457737446e-03 3.0072687193751335e-02 -1.0735833086073399e-02 -1.7718740273267031e-03 -2.7812413871288300e-02 -4.8501376062631607e-02 -3.1577677000313997e-03 -4.6804182231426239e-02 2.4752762168645859e-02 -8.8570415973663330e-03 -4.7262240201234818e-02 -1.5174320898950100e-02 1.3188789598643780e-02 2.3433340713381767e-02 -2.7081150561571121e-02 -6.2890620902180672e-03 -3.3588487654924393e-02 2.1769033744931221e-02 -8.2731302827596664e-03 -1.7762547358870506e-03 2.2263737395405769e-02 -7.1589872241020203e-02 -4.5966524630784988e-03 1.4939281158149242e-02 6.5336436033248901e-02 2.2854903712868690e-02 2.6780366897583008e-02 2.3189792409539223e-02 2.0015845075249672e-02 -1.1080998927354813e-02 -2.7973257005214691e-02 4.0982412174344063e-03 6.7789391614496708e-03 -9.9085485562682152e-03 -1.2848822399973869e-02 4.1076526045799255e-02 -3.0379991512745619e-03 4.3467480689287186e-02 1.5579341910779476e-02 -5.9286877512931824e-02 1.1295265518128872e-02 -1.6082262620329857e-02 2.8066717088222504e-02 4.6663801185786724e-03 -1.7187187448143959e-02 1.0509909689426422e-01 2.9829250648617744e-02 2.8116492554545403e-02 -2.6252606883645058e-02 2.2976698353886604e-02 -1.6122635453939438e-02 3.1064787879586220e-02 -3.1354632228612900e-02 1.1171505786478519e-02 -1.7113273963332176e-02 -8.3894971758127213e-03 -3.0185268260538578e-03 -2.3791939020156860e-02 -2.2666193544864655e-02 9.2411879450082779e-03 2.9834670946002007e-02 -1.6396761639043689e-03 1.0240862146019936e-02 2.7225725352764130e-02 -3.3496011048555374e-02 -3.6742605268955231e-02 -2.5889374315738678e-02 -2.8817182406783104e-02 -2.9979458078742027e-02 -6.4833504147827625e-03 -3.4616436809301376e-02 -4.2962092906236649e-02 -1.9753316417336464e-02 -7.8931142343208194e-04 3.8307689130306244e-02 2.4098027497529984e-02 3.0915437266230583e-02 -9.5634581521153450e-03 5.3085730178281665e-04 3.5415910184383392e-02 1.6808414831757545e-02 1.3870454858988523e-03 2.5705005973577499e-02 -9.4807473942637444e-03 -8.2142492756247520e-03 -1.3070438988506794e-02 2.9110422357916832e-02 -4.0861261077225208e-03 8.3544217050075531e-03 3.6851889453828335e-03 2.0184073597192764e-02 2.7717564254999161e-02 -2.4726012721657753e-02 1.7282389104366302e-02 1.3695606961846352e-02 5.5793508887290955e-02 -2.3126298189163208e-01 7.3163020424544811e-03 5.0802011042833328e-02 1.2318607419729233e-01 -1.0170941241085529e-02 -1.9246406853199005e-02 5.8665003627538681e-02 6.2328364700078964e-02 6.5717488527297974e-02 1.1355477385222912e-02 8.0152913928031921e-02 9.4935424625873566e-02 8.9851152151823044e-03 5.1517847925424576e-02 3.2499607652425766e-02 5.4636791348457336e-02 8.8136643171310425e-02 9.0681798756122589e-03 -1.5004682540893555e-01 1.3564124703407288e-01 1.1716908775269985e-02 9.9389040842652321e-03 5.5250365287065506e-02 -1.0309963673353195e-01 2.1900165081024170e-01 7.4084073305130005e-02 -1.4174904208630323e-03 -2.2870063781738281e-02 -4.0793765336275101e-02 -1.2600699439644814e-02 2.5809686630964279e-02 -3.9531372487545013e-02 -6.0708198696374893e-02 1.2229289859533310e-02 -5.2584372460842133e-02 -6.4150303602218628e-02 -5.2928205579519272e-02 -2.6678733527660370e-02 -8.4338318556547165e-03 -3.7001822143793106e-02 -4.6349134296178818e-02 -1.9932648167014122e-02 -3.0525974929332733e-02 -1.5527831390500069e-02 -3.0985314399003983e-02 -2.0440168678760529e-02 3.6115157417953014e-03 -1.7529302276670933e-03 4.3824162334203720e-02 -1.1084925383329391e-01 9.5621012151241302e-02 -6.5520763397216797e-02 -3.3359663211740553e-04 -8.4273047745227814e-02 2.7762550860643387e-02 2.2923849523067474e-02 -4.8755355179309845e-02 -7.4705317616462708e-02 -3.4192826598882675e-02 7.0722043514251709e-02 -5.2680610679090023e-03 1.5886558219790459e-02 1.7110126093029976e-02 -2.0192403346300125e-02 -3.4884229302406311e-02 -3.0899534467607737e-03 -2.8320595622062683e-02 -4.9728766083717346e-02 6.2606304883956909e-02 -5.6269586086273193e-02 -8.6651025339961052e-03 -1.9986122846603394e-02 -4.0258649736642838e-02 7.4986018240451813e-02 -7.8986473381519318e-02 1.3034161925315857e-01 3.6778900772333145e-02 3.8815962616354227e-03 -7.5054205954074860e-02 2.3560924455523491e-03 6.4820102415978909e-03 -3.5154916346073151e-02 -6.9652773439884186e-02 -4.7649111598730087e-02 -2.7557829394936562e-02 -1.7282923683524132e-02 -3.0461547896265984e-02 3.1648550182580948e-02 -3.5887707024812698e-02 -3.4455802291631699e-02 -6.6539496183395386e-02 -2.3312738165259361e-02 -1.4971335418522358e-02 4.6656779944896698e-02 -9.7091346979141235e-02 5.0880345515906811e-03 1.3583995401859283e-02 -2.3470344021916389e-02 3.7276197224855423e-02 -1.3335333764553070e-01 -1.2857796251773834e-01 -1.5860006213188171e-02 6.3433296978473663e-02 9.4820626080036163e-02 2.4593048729002476e-03 -2.8320800513029099e-02 1.9954167306423187e-02 2.9960196465253830e-02 5.5019836872816086e-02 5.7597260922193527e-02 6.5551735460758209e-02 1.0983933694660664e-02 -2.6272241026163101e-02 -1.2948613613843918e-02 -1.0992384515702724e-02 7.6574146747589111e-02 5.3826477378606796e-02 4.7911237925291061e-03 -1.3981776311993599e-02 4.6817954629659653e-02 -2.1812319755554199e-02 -1.4237232506275177e-02 6.6640049219131470e-02 -3.8227923214435577e-02 1.3398461043834686e-01 -6.2935292720794678e-02 2.7118016034364700e-02 -1.7120074480772018e-03 6.7219085991382599e-02 8.9775742962956429e-03 2.3184640333056450e-02 4.0603548288345337e-02 4.2587954550981522e-02 1.7499474808573723e-02 -2.2806042805314064e-02 2.4730639997869730e-03 -9.0610105544328690e-03 1.5603355132043362e-02 -3.6211356520652771e-02 4.4241525232791901e-02 5.8595489710569382e-02 4.0549028664827347e-02 3.4757703542709351e-02 9.5475716516375542e-03 5.1746975630521774e-02 -2.7509324252605438e-02 -2.7278741821646690e-02 1.5795500949025154e-02 -2.6969794183969498e-02 6.4333982765674591e-02 -1.5528687275946140e-02 -1.2365908361971378e-02 -1.2727649882435799e-02 -2.6264885440468788e-02 -2.2701721638441086e-02 1.1256185825914145e-03 3.6280965432524681e-03 1.0305603034794331e-02 -2.4656964465975761e-02 6.2010828405618668e-03 1.6076538711786270e-02 1.7169207334518433e-02 -2.0371722057461739e-02 -1.7734663560986519e-03 -1.3998115435242653e-02 -2.1409677341580391e-02 -1.2397009413689375e-03 1.4384167734533548e-03 2.1217839792370796e-02 1.0081158950924873e-02 -4.1326102800667286e-03 2.9170606285333633e-02 4.4384342618286610e-03 4.5776486396789551e-02 -4.7675264067947865e-03 -1.1289995163679123e-01 3.9087191224098206e-02 3.2056786119937897e-02 8.4727488458156586e-02 -2.1395623683929443e-02 -5.4436039179563522e-02 5.1867231726646423e-02 5.4109450429677963e-02 5.9136349707841873e-02 -2.1230539306998253e-02 -2.8981724753975868e-03 -4.0839514695107937e-03 2.1677197888493538e-02 2.3644490167498589e-02 3.7685956805944443e-02 8.2574756816029549e-03 1.4187274500727654e-02 2.0139968022704124e-02 -8.6706027388572693e-02 3.7869781255722046e-02 -2.7366248890757561e-02 -4.3135522864758968e-03 5.1355067640542984e-02 -4.5671373605728149e-02 1.5353286266326904e-01 -1.0389470495283604e-02 2.6010603178292513e-03 1.3973062857985497e-02 2.3400815203785896e-02 -1.0916939936578274e-02 2.8730949386954308e-02 4.6202572993934155e-03 -8.4060719236731529e-03 3.0770638957619667e-02 3.8411855697631836e-02 -3.9548808708786964e-03 5.1905866712331772e-02 -1.4721458777785301e-02 1.0746233165264130e-02 4.5169088989496231e-02 6.3471652567386627e-02 3.7437561899423599e-02 -2.3834982886910439e-02 2.0654210820794106e-02 4.3420545756816864e-02 1.1549222283065319e-02 6.1028115451335907e-03 -1.4503472484648228e-02 2.1771898493170738e-02 8.0617159605026245e-02 -7.4370518326759338e-02 5.3425678052008152e-03 4.9660149961709976e-03 1.9286736845970154e-02 -3.7284322082996368e-02 2.3832947015762329e-02 3.0676495283842087e-02 5.9862200170755386e-02 -1.4439609833061695e-02 -2.8978569433093071e-02 1.8742516636848450e-02 5.9450276196002960e-02 -9.9737569689750671e-03 8.0190123990178108e-03 5.0062369555234909e-02 5.5113160051405430e-03 5.1800790242850780e-03 -4.1486499831080437e-03 -7.4744850397109985e-02 2.0761115476489067e-02 2.9586050659418106e-02 -3.4275028854608536e-02 2.2232145071029663e-02 -1.4863024465739727e-02 1.0723339021205902e-01 -8.8995762169361115e-02 -8.3675989881157875e-03 1.6911996062844992e-03 7.2789035737514496e-02 9.1039305552840233e-03 -2.5267176330089569e-02 4.4791549444198608e-02 7.0869825780391693e-02 2.6534810662269592e-02 1.8406093120574951e-02 2.6828603819012642e-02 2.1352943032979965e-02 -3.4856047481298447e-02 -1.9306164234876633e-02 5.1057222299277782e-03 2.5343368761241436e-03 2.5802463293075562e-02 -5.2111176773905754e-03 -8.1644326448440552e-02 7.0361763238906860e-02 -1.1618710123002529e-02 1.7569252522662282e-03 -6.5698716789484024e-03 -3.0269389972090721e-02 7.2408735752105713e-02 1.1270987242460251e-01 -2.9550887644290924e-02 -3.9149262011051178e-02 -2.4583954364061356e-02 8.6713805794715881e-03 2.7243435382843018e-02 -5.3642477840185165e-02 -5.4803751409053802e-02 -3.8468502461910248e-02 3.5036440938711166e-02 -4.8977263271808624e-02 -3.5691246390342712e-02 -2.3568344768136740e-03 -2.3126430809497833e-02 -2.8445277363061905e-02 -1.9717378541827202e-02 -4.6568844467401505e-02 -2.5040924549102783e-02 5.1203224807977676e-02 -4.5881919562816620e-02 3.6506608128547668e-02 6.4013767987489700e-03 -2.7011675760149956e-02 -1.9899636972695589e-03 -1.2155245989561081e-01 -3.5896070301532745e-02 2.0025014877319336e-02 3.5465314984321594e-02 4.8043638467788696e-02 2.8776908293366432e-02 3.1967520713806152e-02 -1.0742470622062683e-02 3.7155590951442719e-02 3.3129187067970634e-04 4.5302860438823700e-02 3.9381746202707291e-02 2.5662686675786972e-02 7.1006133221089840e-03 1.3322146609425545e-02 4.0112718939781189e-02 3.6228809505701065e-02 3.8589918403886259e-04 -5.5307410657405853e-03 1.7048716545104980e-02 6.5628625452518463e-02 -8.1421425566077232e-03 -2.3722900077700615e-02 -2.8126738965511322e-02 1.3934238813817501e-02 4.9374390393495560e-02 9.7584642469882965e-02 5.2999020554125309e-03 -3.5034041851758957e-02 -7.6025389134883881e-02 1.2096542865037918e-02 -1.9622577354311943e-02 8.4929319564253092e-04 -3.8961626589298248e-02 -3.6745004355907440e-02 3.0040420591831207e-02 -3.7465735804289579e-03 -4.4691499322652817e-02 3.5399422049522400e-02 -1.2507325038313866e-02 -8.7105156853795052e-03 -9.4933770596981049e-03 -1.2666927650570869e-02 -3.4374583046883345e-03 6.2918104231357574e-02 -3.8617763668298721e-02 2.4588340893387794e-02 1.5865225344896317e-02 -5.6749235838651657e-02 5.6629125028848648e-02 -1.1318668723106384e-01 3.6056887358427048e-02 -4.5541755855083466e-02 5.7312473654747009e-03 2.2159554064273834e-02 -7.5868237763643265e-03 -2.8410870581865311e-02 1.9647382199764252e-02 1.6987539827823639e-02 -2.3216919973492622e-02 2.7872869744896889e-02 2.0945528522133827e-03 9.8430830985307693e-03 -2.2289805114269257e-02 -6.4306110143661499e-03 1.6233172500506043e-03 1.0799102485179901e-02 1.7404267564415932e-02 -9.5708882436156273e-03 1.4548008039128035e-04 2.6168584823608398e-02 -2.1412990987300873e-02 2.4244565516710281e-02 -3.6117769777774811e-02 2.0739328116178513e-02 -5.3988460451364517e-02 -2.3030330240726471e-01 3.4018825739622116e-02 7.9629890620708466e-02 1.3167902827262878e-01 5.3122728131711483e-03 -5.4573263972997665e-02 8.0796159803867340e-02 1.0982766747474670e-01 5.8268878608942032e-02 8.9024947956204414e-03 3.2562237232923508e-02 8.0027587711811066e-02 5.2722595864906907e-04 2.3389013949781656e-03 3.9981070905923843e-02 8.9758381247520447e-02 8.0449990928173065e-02 3.1684178858995438e-02 -8.3188928663730621e-02 6.7151218652725220e-02 -2.2849068045616150e-02 -9.8464079201221466e-03 1.5747154131531715e-02 -8.9012920856475830e-02 2.4703319370746613e-01 -1.6245667636394501e-01 1.2178868055343628e-02 1.9682610407471657e-02 9.3674868345260620e-02 -4.1411805897951126e-02 -5.0816908478736877e-02 6.5976537764072418e-02 5.5425249040126801e-02 5.9728391468524933e-02 -1.5178854577243328e-02 7.3446311056613922e-02 5.4541904479265213e-02 1.1220193468034267e-02 1.7915736883878708e-02 1.0694687254726887e-02 6.4081773161888123e-02 7.8045569360256195e-02 -1.2003392912447453e-02 -1.0149783641099930e-01 8.3272188901901245e-02 -9.3606915324926376e-03 -2.7002790942788124e-02 5.5521991103887558e-02 -6.1237879097461700e-02 1.7342446744441986e-01 9.1306753456592560e-02 -2.1208681166172028e-02 -1.0953851044178009e-02 -9.9652014672756195e-02 3.9059747010469437e-02 2.8891259804368019e-02 -2.5918688625097275e-02 -4.0173619985580444e-02 -1.5099722892045975e-02 -3.5084385424852371e-02 -1.2166408821940422e-02 -5.3059898316860199e-02 2.5224164128303528e-02 -5.5301515385508537e-03 -2.2512802854180336e-02 -6.4084224402904510e-02 -4.7882933169603348e-02 3.2003712840378284e-03 4.1933488100767136e-02 -5.9559434652328491e-02 -2.3367477115243673e-03 -2.6477392762899399e-02 -4.3541155755519867e-02 7.2686336934566498e-02 -1.7293195426464081e-01 7.4243694543838501e-02 -1.9320843741297722e-02 -3.4243896603584290e-02 -4.0575992316007614e-02 -3.6850499454885721e-03 -3.7354685366153717e-02 -2.8274934738874435e-02 -2.7920169755816460e-02 -2.5339607149362564e-02 -1.9086271524429321e-02 -2.0382963120937347e-02 -4.9949441105127335e-02 1.6694605350494385e-02 1.8394904211163521e-02 -2.7295766398310661e-02 -1.9192919135093689e-02 -5.0163801759481430e-02 1.1653741821646690e-02 3.3487815409898758e-02 -8.9906170964241028e-02 3.3421553671360016e-02 -3.7203796673566103e-03 -7.6287575066089630e-02 7.1504218503832817e-03 -1.6085545718669891e-01 -1.3461229205131531e-01 7.2682211175560951e-03 2.1311935037374496e-02 7.2490826249122620e-02 1.3605413027107716e-02 -4.6903781592845917e-02 6.5185584127902985e-02 4.4951874762773514e-02 2.9924232512712479e-02 2.8712963685393333e-02 7.2925806045532227e-02 5.5489163845777512e-02 1.7114099115133286e-02 -2.7204432990401983e-03 -2.4126346688717604e-03 9.1277875006198883e-02 5.0427950918674469e-02 4.8917979001998901e-02 -9.6129164099693298e-02 1.1098521947860718e-01 -3.0825275927782059e-02 -9.8870564252138138e-03 5.4630897939205170e-02 -8.4901496767997742e-02 1.4904858171939850e-01 -3.1477278470993042e-01 6.4528407528996468e-03 5.7715494185686111e-02 1.7847904562950134e-01 -3.1671293079853058e-02 -7.5514525175094604e-02 7.7450208365917206e-02 1.4897556602954865e-01 4.8478513956069946e-02 2.7166849467903376e-03 7.6768644154071808e-02 7.3267757892608643e-02 -4.1213624179363251e-02 3.6247421056032181e-02 5.2889727056026459e-02 1.0168160498142242e-01 8.3539836108684540e-02 1.0851786471903324e-02 -2.1721933782100677e-01 1.7139545083045959e-01 -2.5536676403135061e-03 -1.6118025407195091e-02 7.1724228560924530e-02 -1.7129008471965790e-01 3.5906809568405151e-01 -8.4038758650422096e-03 -2.0786754786968231e-02 3.8444043602794409e-03 -2.3962480947375298e-02 -3.4173972904682159e-02 1.8726797774434090e-02 2.0094469189643860e-02 -3.3233389258384705e-02 1.2486222200095654e-02 4.1789282113313675e-02 4.2237755842506886e-03 -8.8849099120125175e-04 3.1168915331363678e-02 -3.1117174774408340e-02 8.0829747021198273e-03 -3.4549225121736526e-02 -2.9475640039891005e-03 7.3099611327052116e-03 7.2520261164754629e-04 -5.9351287782192230e-02 6.7197456955909729e-03 -2.4490734562277794e-02 -4.4122647494077682e-02 -3.0079944059252739e-02 -4.2273227125406265e-02 8.5658654570579529e-02 7.8291874378919601e-03 -7.5500570237636566e-03 -9.5930933952331543e-02 1.5968309715390205e-02 5.3360488265752792e-02 -6.6390290856361389e-02 -4.3407049030065536e-02 -2.6618739590048790e-02 -7.9868109896779060e-03 -4.6398494392633438e-02 -3.2929822802543640e-02 9.7057549282908440e-03 2.2312039509415627e-02 -5.3598329424858093e-02 -6.7328453063964844e-02 -1.1843659915030003e-02 -2.4940153583884239e-02 2.9994152486324310e-02 -2.1244294941425323e-02 2.9933519661426544e-02 6.5653040073812008e-03 1.4647178351879120e-02 6.4485900104045868e-02 -1.1918069422245026e-01 -3.0629000067710876e-01 -5.2629876881837845e-03 7.7088266611099243e-02 1.8911363184452057e-01 -9.2722941190004349e-03 -7.6604768633842468e-02 7.8279532492160797e-02 1.4776845276355743e-01 9.8976574838161469e-02 5.7415917515754700e-02 8.1678800284862518e-02 9.3721255660057068e-02 -4.5771468430757523e-02 1.9908852875232697e-02 3.7157751619815826e-02 8.6767435073852539e-02 6.8820580840110779e-02 3.6128208041191101e-02 -1.3732758164405823e-01 1.6334554553031921e-01 7.9670343548059464e-03 2.9065992683172226e-02 6.7137941718101501e-02 -1.5582056343555450e-01 3.4356373548507690e-01 -1.6250431537628174e-02 8.9036915451288223e-03 -2.9458949342370033e-02 -1.5161716379225254e-02 -3.7224297411739826e-03 -1.5335174975916743e-03 -2.0329160615801811e-02 -3.1460519880056381e-02 2.0007425919175148e-02 4.3778277933597565e-02 -9.2166904360055923e-03 1.5943447127938271e-02 -1.8801167607307434e-02 2.0806612446904182e-02 -6.7099789157509804e-03 3.2177004963159561e-02 2.9934713616967201e-02 3.3244065707549453e-04 4.1677024215459824e-02 -1.4839855721220374e-03 2.5161733850836754e-02 2.1206254139542580e-02 2.2834734991192818e-02 1.0142011567950249e-02 -2.2813260555267334e-02 -5.0756372511386871e-02 7.4090887792408466e-03 -1.5192223712801933e-02 1.9109355285763741e-02 -3.2772142440080643e-02 -2.2054258733987808e-03 8.5552036762237549e-03 7.8919529914855957e-03 -2.3187439888715744e-02 3.4808501601219177e-02 4.1058558970689774e-02 7.1022720076143742e-03 -1.9925549626350403e-02 2.8619727119803429e-02 3.0996508896350861e-02 1.8617587164044380e-02 3.8529150187969208e-02 -1.4535148628056049e-02 2.0623546093702316e-02 6.4399391412734985e-02 -7.6521644368767738e-03 3.6110654473304749e-02 3.6037249956279993e-03 -9.9617624655365944e-03 8.9178510010242462e-02 -1.2736144661903381e-01 2.9143089428544044e-02 5.1180347800254822e-02 8.1360444426536560e-02 1.9282886758446693e-02 -2.4383718147873878e-02 5.5363312363624573e-02 3.6249909549951553e-02 1.9883409142494202e-02 -1.6607159748673439e-02 5.9712130576372147e-02 2.2393068298697472e-02 -4.1775278747081757e-02 3.6211583763360977e-02 5.0661537796258926e-02 8.3914749324321747e-02 6.6494837403297424e-02 -7.3423092253506184e-03 -4.9284260720014572e-02 3.8747832179069519e-02 -2.2190900519490242e-02 2.1223879884928465e-03 6.5353378653526306e-02 -5.6017860770225525e-02 1.3049198687076569e-01 5.2713334560394287e-02 6.9617591798305511e-03 -3.9930533617734909e-02 -4.2000588029623032e-02 -1.0106653906404972e-02 8.2373218610882759e-03 -1.2686165980994701e-02 -1.9301915541291237e-02 -2.6709785684943199e-02 -3.0331928282976151e-03 -5.9754636138677597e-02 -4.4981393963098526e-02 -2.1473621949553490e-02 -2.5488084182143211e-02 1.6745030879974365e-02 -6.3644707202911377e-02 -1.9797245040535927e-02 -2.0954163745045662e-02 -3.6023352295160294e-02 -5.7493366301059723e-02 4.6627301722764969e-02 -1.3281286694109440e-02 -4.9633234739303589e-02 1.7927231267094612e-02 -1.0750585049390793e-01 1.9008593633770943e-02 8.6452830582857132e-03 9.7664315253496170e-03 -4.1408807039260864e-02 -9.7048943862318993e-03 -1.9709186628460884e-02 -4.5035194605588913e-02 -4.6135388314723969e-02 4.2464733123779297e-02 -4.9592245370149612e-02 -7.0036619901657104e-02 -4.6491567045450211e-02 3.3462680876255035e-02 -1.1018380755558610e-03 -3.2006166875362396e-02 -7.4197120964527130e-02 -2.2772103548049927e-02 2.3364415392279625e-02 -5.3422067314386368e-02 -5.2330892533063889e-02 -2.6390286162495613e-02 -1.6869161278009415e-02 2.2271770983934402e-02 -3.1185377389192581e-02 -7.0188916288316250e-03 1.1165462434291840e-01 5.8637395501136780e-02 -4.2138218879699707e-02 -7.4249878525733948e-02 -6.3757388852536678e-03 2.8883310034871101e-02 -3.2237943261861801e-02 -2.7930524200201035e-02 -5.0822142511606216e-02 -7.4817880988121033e-02 -6.3292801380157471e-02 -3.6289837211370468e-02 1.0280181653797626e-02 -9.1700945049524307e-03 -5.3632080554962158e-02 -1.0440322011709213e-01 -3.0990682542324066e-02 6.1753508634865284e-03 3.8075126707553864e-02 -9.5924593508243561e-02 -4.8591442406177521e-02 3.4157566726207733e-02 7.0549855008721352e-03 4.7553040087223053e-02 -1.2122917920351028e-01 2.7719950675964355e-01 -9.5839807763695717e-03 -8.3197198808193207e-02 -1.6535426676273346e-01 5.0690099596977234e-02 6.1642482876777649e-02 -4.6984866261482239e-02 -1.4701084792613983e-01 -4.5894388109445572e-02 -3.6922332365065813e-03 -9.9138058722019196e-02 -8.5817821323871613e-02 2.4624017998576164e-02 -3.7457719445228577e-02 -2.5309376418590546e-02 -1.3461644947528839e-01 -6.2757723033428192e-02 -2.2227287292480469e-02 1.2427241355180740e-01 -1.1115111410617828e-01 -5.3136502392590046e-03 3.1908445060253143e-02 -4.4054456055164337e-02 1.3891386985778809e-01 -2.7495640516281128e-01 -2.2766572237014771e-01 4.0947511792182922e-02 4.0345415472984314e-02 1.4711816608905792e-01 -4.8743907362222672e-02 -6.8533822894096375e-02 7.0828199386596680e-02 1.1965323239564896e-01 9.7343541681766510e-02 -2.7301764115691185e-02 2.6553083211183548e-02 7.6590240001678467e-02 -2.9700966551899910e-02 4.6058680862188339e-02 4.3799493461847305e-02 3.0253622680902481e-02 4.0177650749683380e-02 1.2380491942167282e-02 -1.3053725659847260e-01 9.6941210329532623e-02 -1.9602682441473007e-02 3.0739936977624893e-02 8.0926001071929932e-02 -1.1918872594833374e-01 2.7706545591354370e-01 -2.0427951589226723e-02 3.1696174293756485e-02 9.6354197012260556e-04 3.6145377904176712e-02 -8.9584337547421455e-03 -2.9451176524162292e-03 2.0535709336400032e-02 5.5892810225486755e-02 -2.2183870896697044e-02 -1.0301209986209869e-02 2.9417179524898529e-02 3.6915767937898636e-02 -1.8016582354903221e-02 1.6188463196158409e-02 -1.0524724610149860e-02 7.6694801449775696e-02 5.1734000444412231e-02 -1.1546711437404156e-02 -2.5691205635666847e-02 6.9136530160903931e-02 5.2392473444342613e-03 -1.1655453592538834e-02 -1.2257813476026058e-02 1.2341886758804321e-04 3.3277604728937149e-02 -4.1366517543792725e-02 3.0711870640516281e-02 4.2161434888839722e-02 3.8820665213279426e-04 3.0672200024127960e-02 2.6771942153573036e-02 -1.3863944448530674e-02 3.7823438644409180e-02 2.7915855869650841e-02 1.7853371798992157e-02 2.6357535272836685e-02 4.4744022190570831e-02 -3.4860547631978989e-02 2.0656272768974304e-02 1.0247728787362576e-03 2.2313430905342102e-02 -1.3344392180442810e-02 -1.8140554428100586e-02 -2.2596251219511032e-02 4.5229248702526093e-02 2.6059996336698532e-02 1.4622451737523079e-02 -1.0715412907302380e-02 -3.2402414828538895e-02 9.6710875630378723e-02 1.4158159494400024e-01 3.2685392070561647e-03 -1.7877301434054971e-03 -9.6217490732669830e-02 1.0377177968621254e-02 6.0366322286427021e-03 -2.4284409359097481e-02 -5.8843918144702911e-02 -3.7443153560161591e-02 -3.1166028231382370e-02 -5.8460831642150879e-02 -2.6709048077464104e-02 2.1069906651973724e-03 -3.1136136502027512e-02 -5.2809312939643860e-02 -8.3676017820835114e-02 -6.7006260156631470e-02 -2.1263841539621353e-02 2.0511541515588760e-02 -4.7293212264776230e-02 3.6474030464887619e-02 -4.8417769372463226e-02 4.2707615648396313e-04 4.2358085513114929e-02 -1.4355924725532532e-01 -3.5172600299119949e-02 4.0066786110401154e-02 4.5653659850358963e-02 2.6482729241251945e-02 2.2033473476767540e-02 -5.6110997684299946e-03 -5.2129072137176991e-03 4.4480875134468079e-02 4.4660851359367371e-02 -1.6827082261443138e-02 3.3117979764938354e-02 4.8387080430984497e-02 -1.1815820820629597e-02 -9.8097883164882660e-03 -2.2629655897617340e-02 5.3245659917593002e-02 3.5959679633378983e-02 2.5496592745184898e-02 1.2106125243008137e-02 7.7228784561157227e-02 -5.1850927993655205e-03 -6.3816378824412823e-03 1.0916647501289845e-02 -3.9741363376379013e-02 8.8600866496562958e-02 1.4546374976634979e-01 4.3123792856931686e-03 -5.8928269892930984e-02 -6.2904305756092072e-02 2.3301133885979652e-02 1.5655618160963058e-02 -5.8885078877210617e-02 -5.6700151413679123e-02 -2.5082599371671677e-02 -4.7844585031270981e-02 -1.5197886154055595e-02 -1.6684945672750473e-02 -1.6913503408432007e-02 -3.7916423752903938e-03 -1.2592255137860775e-02 -7.4743010103702545e-02 -7.3675908148288727e-02 -4.9403437878936529e-04 7.5226373970508575e-02 -8.2172766327857971e-02 -2.0710393786430359e-02 -1.8180891871452332e-02 -8.2400050014257431e-03 6.9320835173130035e-02 -1.7448455095291138e-01 -2.5287637487053871e-02 -1.2998373247683048e-02 3.1076805666089058e-02 1.7933696508407593e-02 2.6424160227179527e-02 -7.1976566687226295e-03 -2.0480323582887650e-02 3.4608419984579086e-02 1.2451372109353542e-02 -2.1797129884362221e-02 8.8154780678451061e-04 -1.3582209066953510e-04 -2.2119788452982903e-02 -2.8052981942892075e-02 -3.4331511706113815e-02 1.7228618264198303e-02 1.3079727068543434e-02 -6.2617455841973424e-04 4.1370011866092682e-02 5.4971161298453808e-03 -1.4859857968986034e-02 1.5190554782748222e-02 1.5266438946127892e-02 3.1636562198400497e-02 6.5163816325366497e-03 -3.7249621003866196e-02 -8.5431067273020744e-03 2.4270191788673401e-03 3.2522067427635193e-02 1.6744084656238556e-02 1.3419780880212784e-02 3.0973559245467186e-02 -2.0520638674497604e-02 -8.9227408170700073e-03 -1.9694887101650238e-02 9.6833854913711548e-03 -1.5365670435130596e-02 8.7801022455096245e-03 1.4160150662064552e-02 -3.9784274995326996e-02 -2.8348954394459724e-02 -2.0595658570528030e-02 -2.7326740324497223e-02 -4.5487731695175171e-02 -3.6846563220024109e-02 -1.1474730446934700e-02 7.6913565862923861e-04 3.5746209323406219e-02 -4.8539210110902786e-03 -1.7448665574193001e-02 1.5337148308753967e-01 -2.9920591041445732e-02 -2.4109590798616409e-02 -6.5339937806129456e-02 2.2526195272803307e-02 3.1268376857042313e-02 -5.0813600420951843e-02 -9.3704015016555786e-02 -5.8066889643669128e-02 1.6729619354009628e-02 -1.4865208417177200e-02 -2.3310212418437004e-02 1.0297861881554127e-02 -2.7990283444523811e-02 -3.7608429789543152e-02 -3.9883285760879517e-02 -5.7540670037269592e-02 -2.1952167153358459e-02 6.9195725023746490e-02 -3.8571976125240326e-02 1.3386877253651619e-02 8.9198034256696701e-03 -4.3898362666368484e-02 5.5102180689573288e-02 -1.4235097169876099e-01 1.6720987856388092e-01 -2.4659197777509689e-02 -6.6113442182540894e-02 -1.0746219009160995e-01 -8.1500541418790817e-03 6.9058671593666077e-02 -7.2865977883338928e-02 -5.1622025668621063e-02 -1.8585717305541039e-02 -1.3551451265811920e-02 -7.0037908852100372e-02 -9.9099852144718170e-02 -4.8274751752614975e-03 -2.0927149802446365e-02 -3.0517820268869400e-02 -1.1642581224441528e-01 -8.1293985247612000e-02 -2.5288792327046394e-02 1.0570504516363144e-01 -9.4663888216018677e-02 -4.5398447662591934e-02 4.6218931674957275e-02 -1.5821496024727821e-02 4.2385783046483994e-02 -1.5560615062713623e-01 7.9188503324985504e-02 7.3506985791027546e-03 -5.6916843168437481e-03 -8.9676663279533386e-02 4.1966281831264496e-02 -8.3303134888410568e-03 -4.3950892984867096e-02 -7.0856794714927673e-02 -3.7503730505704880e-02 -1.3085094280540943e-02 -6.3134908676147461e-02 -5.9713173657655716e-02 -1.1301543563604355e-02 -3.5161625593900681e-02 -1.7342973500490189e-02 -4.9018606543540955e-02 -5.2310235798358917e-02 -1.5038112178444862e-02 7.9181239008903503e-02 -3.3393520861864090e-03 -1.6425823792815208e-02 2.4004634469747543e-02 3.9773095399141312e-02 7.5534909963607788e-02 -6.6064275801181793e-02 -1.3809294998645782e-01 3.6398214288055897e-03 5.2659366279840469e-02 1.0498808324337006e-01 -4.4106997549533844e-02 8.4403753280639648e-03 1.3931299559772015e-02 7.5423039495944977e-02 5.5959034711122513e-02 1.8894655629992485e-02 1.5238963067531586e-02 1.8876051530241966e-02 -5.3445246070623398e-02 -5.4591065272688866e-03 4.6848529018461704e-03 3.7095464766025543e-02 6.9050058722496033e-02 6.9315712898969650e-03 -9.5084987580776215e-02 8.7164260447025299e-02 1.2434286065399647e-02 1.3205926865339279e-02 6.0185592621564865e-02 -4.9434337764978409e-02 2.1507149934768677e-01 -1.7421562969684601e-01 -1.2489065527915955e-02 3.4127578139305115e-02 8.4743238985538483e-02 3.5741461906582117e-03 -6.3550777733325958e-02 3.8398064672946930e-02 6.2724225223064423e-02 3.5285051912069321e-02 5.9969361871480942e-02 6.3447445631027222e-02 6.1831396073102951e-02 -2.1281443536281586e-02 1.9484933465719223e-02 4.6245828270912170e-02 3.1654693186283112e-02 5.0283439457416534e-02 1.0077131912112236e-02 -7.4084945954382420e-03 1.1663723737001419e-01 7.7694002538919449e-03 1.7563143745064735e-02 5.9469372034072876e-02 -4.2546470649540424e-03 2.0902441442012787e-01 1.7695844173431396e-01 1.2804363854229450e-02 -6.8579092621803284e-02 -7.5853683054447174e-02 6.0459796804934740e-04 1.1025560088455677e-02 -4.3240718543529510e-02 -7.5475431978702545e-02 -3.6886982619762421e-02 -3.6150611937046051e-02 -7.5717382133007050e-02 -2.7960916981101036e-02 5.1341012120246887e-02 -3.6438763141632080e-02 -5.6071799248456955e-02 -4.7661878168582916e-02 -7.1357645094394684e-02 -8.6693568155169487e-03 1.0444279760122299e-01 -8.4976613521575928e-02 2.5291536003351212e-02 -3.1380463391542435e-02 -4.5072298496961594e-02 7.7185109257698059e-02 -1.9157479703426361e-01 -1.2768870592117310e-01 1.8855322152376175e-02 2.7042374014854431e-02 1.8535509705543518e-02 4.0364217013120651e-02 -2.9149562120437622e-02 3.0822094529867172e-02 5.1383480429649353e-02 1.3309303671121597e-02 2.9202727600932121e-02 3.4551881253719330e-02 3.4544300287961960e-02 -3.2792270183563232e-02 3.3754583448171616e-02 3.9968810975551605e-02 1.4251858927309513e-02 7.0133015513420105e-02 -3.1755600124597549e-02 3.5539507865905762e-02 1.2422419339418411e-01 -4.1494000703096390e-02 2.6417750865221024e-02 1.1109479516744614e-01 2.2891011089086533e-02 1.4832258224487305e-01 1.2279046326875687e-01 -7.1349367499351501e-02 -2.8637666255235672e-02 -2.3395916447043419e-02 -3.3193789422512054e-02 2.0783772692084312e-02 -6.3001811504364014e-02 -8.9083492755889893e-02 -5.2324354648590088e-02 5.7613078504800797e-02 -1.0247051715850830e-02 -5.6772530078887939e-02 4.1223656386137009e-02 9.5290020108222961e-03 -1.9641425460577011e-02 -5.0954818725585938e-02 -4.7018866986036301e-02 -1.7279831692576408e-02 -3.2869827002286911e-02 -1.0137790441513062e-01 3.3247459679841995e-02 1.3785358751192689e-03 -9.0650051832199097e-02 -5.0634322687983513e-03 -1.4239746332168579e-01 -3.0185524374246597e-02 2.5929342955350876e-02 2.3502245545387268e-02 2.2042743861675262e-02 2.4059878196567297e-03 -3.9721794426441193e-02 2.0866122096776962e-02 2.1220196038484573e-02 -1.9095083698630333e-02 -3.7725113332271576e-02 -5.0851080566644669e-02 -9.5606734976172447e-03 -1.5336293727159500e-02 -5.1084258593618870e-03 -3.9114329963922501e-02 -4.0728144347667694e-02 -1.9371567294001579e-02 -1.6497308388352394e-02 -3.0722912400960922e-02 -2.5010647252202034e-02 1.8301414325833321e-02 -1.3166490942239761e-02 -1.8117615953087807e-02 -4.1665315628051758e-02 2.1378112956881523e-02 -5.9770952910184860e-02 -1.8855949863791466e-02 3.1205642968416214e-02 4.9890100955963135e-02 -2.4706926196813583e-02 3.6738127470016479e-02 -7.0412934292107821e-04 1.7832327634096146e-02 1.6847239807248116e-02 6.0377389192581177e-02 5.8843959122896194e-02 3.3099368214607239e-02 -4.9486629664897919e-02 2.5463577359914780e-02 -1.0518711991608143e-02 5.1284749060869217e-02 6.1706833541393280e-02 1.5912264585494995e-02 -9.4094062224030495e-03 9.1946914792060852e-02 -9.2037506401538849e-03 1.9367754459381104e-02 5.5143099278211594e-02 -9.9440235644578934e-03 1.2062909454107285e-01 -2.3793657124042511e-01 -9.4172013923525810e-03 7.8882627189159393e-02 1.6116645932197571e-01 -6.2509283423423767e-02 -5.9940576553344727e-02 3.9788573980331421e-02 1.2201014906167984e-01 4.9113281071186066e-02 9.6212821081280708e-03 5.2400346845388412e-02 9.6993878483772278e-02 -2.9884813353419304e-02 -6.2923105433583260e-03 5.2660778164863586e-02 9.2585943639278412e-02 1.0345639288425446e-01 4.6183582395315170e-02 -1.6607114672660828e-01 1.3116823136806488e-01 3.0945849139243364e-03 -9.2955883592367172e-03 4.6457409858703613e-02 -1.4432196319103241e-01 2.7192300558090210e-01 -2.1424163877964020e-01 -3.2792534679174423e-02 6.2842063605785370e-02 1.6398976743221283e-01 -7.1956150233745575e-02 -1.5284467488527298e-02 3.7251476198434830e-02 1.2343475967645645e-01 1.1247804388403893e-02 5.6934662163257599e-02 1.0413621366024017e-01 1.1694370955228806e-01 -3.9092432707548141e-02 1.2637620791792870e-02 4.9068238586187363e-02 1.4951068162918091e-01 7.3816545307636261e-02 -3.7208150606602430e-03 -1.9611118733882904e-01 9.4342701137065887e-02 2.8409771621227264e-02 -1.8867932260036469e-02 3.2511044293642044e-02 -1.0587830841541290e-01 2.3294715583324432e-01 4.7368980944156647e-02 4.5695394277572632e-02 -2.1137010306119919e-02 -4.8703167587518692e-02 -1.9498836481943727e-03 -5.5957684526219964e-04 -4.0480466559529305e-03 -5.8779727667570114e-02 -1.1752571910619736e-02 -7.3936380445957184e-02 -2.7543183416128159e-02 -6.1038821935653687e-02 -9.0423083747737110e-05 2.1246435120701790e-02 -5.7004310190677643e-02 -8.2758739590644836e-02 -4.9159497022628784e-02 3.9632234722375870e-02 -4.1578847914934158e-02 -5.8187797665596008e-02 -1.0641839355230331e-02 -3.0114328488707542e-02 -1.1374761350452900e-02 -1.9795384258031845e-02 -2.9200211167335510e-02 -4.0252629667520523e-02 -6.0468832962214947e-03 -4.0842294692993164e-03 7.2078324854373932e-02 1.3572672381997108e-02 9.3228844925761223e-03 3.4020736813545227e-02 4.2677886784076691e-02 8.3102621138095856e-03 1.1570920833037235e-05 1.3703854754567146e-02 2.3624148219823837e-02 2.6384642347693443e-02 -9.9196098744869232e-03 3.7347495555877686e-02 6.1537053436040878e-02 -1.2786778388544917e-03 3.5136278718709946e-02 -5.8618482202291489e-02 5.8516412973403931e-02 -2.3112013936042786e-02 8.8056111708283424e-03 -1.5625221654772758e-02 1.1215942911803722e-02 6.8410754203796387e-02 6.1461023986339569e-02 7.3707237839698792e-02 -2.7446842286735773e-03 -9.1264434158802032e-02 2.9324509203433990e-02 1.1395004577934742e-02 -2.4051045998930931e-02 -7.4752323329448700e-02 -3.3855877816677094e-02 -1.0776855051517487e-01 -2.4161936715245247e-02 -1.7647976055741310e-02 1.2047531083226204e-02 2.0785452798008919e-03 -5.5132996290922165e-02 -9.8565980792045593e-02 -6.0773063451051712e-02 1.7697520088404417e-03 -1.9580751657485962e-02 -5.4324582219123840e-02 -1.3745476491749287e-02 -4.4963512569665909e-02 2.4553786963224411e-02 1.2274977751076221e-02 -8.1725798547267914e-02 1.2364365905523300e-01 -2.4478642735630274e-03 -5.2071869373321533e-02 -5.2385389804840088e-02 -2.8706910088658333e-02 5.4440446197986603e-02 -6.5878577530384064e-02 -6.7020103335380554e-02 4.9520083703100681e-03 1.0416467674076557e-02 -4.4580053538084030e-02 -6.8539962172508240e-02 4.3531823903322220e-02 -5.9848529053851962e-04 -1.3106508180499077e-02 -8.2659028470516205e-02 -7.1553900837898254e-02 6.8376986309885979e-03 6.8724177777767181e-02 -7.6069891452789307e-02 1.8760088831186295e-02 -2.9479784891009331e-02 -6.4555220305919647e-02 4.8183467239141464e-02 -1.2514874339103699e-01 2.8339924290776253e-02 -2.1087469533085823e-02 2.6072476059198380e-02 -6.6356961615383625e-03 2.4988152086734772e-02 -2.3971939459443092e-02 3.6200378090143204e-02 2.8352776542305946e-02 -1.2315297499299049e-02 1.2386719696223736e-02 4.5436188578605652e-02 1.8664684146642685e-02 -4.3032965622842312e-03 1.4243678888306022e-03 1.1197456158697605e-02 2.1080007776618004e-02 -2.4542871862649918e-02 1.2315182015299797e-02 4.1780859231948853e-02 -1.3146880082786083e-03 -1.7036972567439079e-02 -1.4078096486628056e-02 -1.1136705055832863e-02 4.4554397463798523e-02 -2.8168061748147011e-02 9.3851098790764809e-03 3.9325352758169174e-02 -1.4092277735471725e-02 4.2452853173017502e-02 -1.2539173476397991e-02 -2.0908830687403679e-02 1.2282780371606350e-02 9.5714144408702850e-03 -8.4195388481020927e-03 -4.9532994627952576e-02 1.5104877762496471e-02 1.7114941030740738e-02 1.3181477785110474e-02 1.6844233497977257e-02 2.3065866902470589e-02 8.3835506811738014e-03 -2.1081971004605293e-02 -2.2848989814519882e-02 8.6603732779622078e-03 -7.1366876363754272e-03 -1.7076779156923294e-02 -6.4237774349749088e-03 -7.4998820200562477e-03 -1.3285262510180473e-02 4.7976590692996979e-02 -1.8797707557678223e-01 1.1619342491030693e-02 6.3873037695884705e-02 1.1512202769517899e-01 -3.8987752050161362e-02 -4.9102466553449631e-02 4.7793038189411163e-02 8.5551604628562927e-02 1.1984953889623284e-03 2.3987170308828354e-02 7.7351786196231842e-02 8.6113527417182922e-02 -5.7741750031709671e-02 4.0584433823823929e-02 1.7943348735570908e-02 1.0997665673494339e-01 4.5276712626218796e-02 1.0826415382325649e-02 -1.0653020441532135e-01 1.3583056628704071e-01 2.1290803328156471e-02 -2.8108192607760429e-02 7.2828240692615509e-02 -5.6910220533609390e-02 1.8635158240795135e-01 
      </Weights>
      <Biases rows="128" cols="1">
        8.6588993668556213e-02 1.3924241065979004e-01 -2.2706918418407440e-01 2.7474617585539818e-02 -2.1500623226165771e-01 -1.6589374840259552e-01 3.8879584521055222e-02 2.7339223027229309e-01 -2.1946887671947479e-01 1.7553307116031647e-01 3.0486213043332100e-02 3.2212036848068237e-01 6.6416144371032715e-02 5.2510347217321396e-02 -1.2811368703842163e-01 6.2545366585254669e-02 -9.6933543682098389e-02 -1.2115023285150528e-01 -6.1863310635089874e-02 1.1424237862229347e-02 8.4985911846160889e-02 1.3281475007534027e-01 -3.2197970896959305e-02 -1.5549229085445404e-01 -2.7934479713439941e-01 -3.9465206861495972e-01 1.3478872179985046e-01 1.1031866818666458e-01 4.3418842554092407e-01 1.7384873330593109e-01 -7.5597561895847321e-02 4.7379471361637115e-03 -1.8969365954399109e-01 -3.6278292536735535e-02 -1.5702804923057556e-01 -2.4279873073101044e-01 2.1136595308780670e-01 -2.4075323343276978e-01 -2.8489474207162857e-03 1.3592660427093506e-01 -2.9722556471824646e-01 -7.7977493405342102e-02 3.9613664150238037e-01 -1.5572672709822655e-02 1.7708016932010651e-01 1.3428127765655518e-01 -2.4963936209678650e-01 -4.2706631124019623e-02 -2.0999170839786530e-01 1.8930441141128540e-01 9.5467083156108856e-03 -1.1129503697156906e-01 -4.0371373295783997e-02 2.1780881285667419e-01 3.0522948503494263e-01 -6.6571578383445740e-02 -8.1181913614273071e-02 1.2634110450744629e-01 -2.9605963826179504e-01 6.0467518866062164e-02 1.1435836553573608e-01 -5.0649140030145645e-02 -1.0389646887779236e-01 9.1975547373294830e-02 4.7035004943609238e-02 -2.1944845095276833e-02 3.9238510653376579e-03 5.1538277417421341e-02 -1.0718388482928276e-02 1.7402609810233116e-02 2.9913717508316040e-01 -8.8003709912300110e-02 -7.1079194545745850e-02 -1.6004768013954163e-01 9.5931351184844971e-02 7.4327304959297180e-02 -2.9631419107317924e-02 1.3890403509140015e-01 6.0330361127853394e-02 6.0029029846191406e-02 1.0083967447280884e-01 -1.0920558869838715e-01 4.2105305939912796e-02 -1.0207679867744446e-01 2.2117260843515396e-02 2.7192071080207825e-01 2.1756492555141449e-01 -1.3233132660388947e-01 -1.3037140667438507e-01 1.7225430905818939e-01 3.8399097323417664e-01 -3.2543968409299850e-02 -6.8043783307075500e-02 4.4690319895744324e-01 -1.6546534374356270e-02 6.6234529018402100e-02 1.5873776376247406e-01 -9.2622287571430206e-02 -1.1213243938982487e-02 -1.3684411346912384e-01 -3.5705536603927612e-01 2.7033340930938721e-01 3.4411393105983734e-02 6.2672093510627747e-02 -1.5690699219703674e-01 7.9447783529758453e-02 -1.4652235805988312e-01 2.1040143445134163e-02 6.2559451907873154e-04 -1.5918029844760895e-01 -2.5127074122428894e-01 -9.0078718960285187e-02 1.5013293921947479e-01 2.1444761753082275e-01 -1.9069656729698181e-01 1.4187015593051910e-01 -1.2062821537256241e-01 9.6708936616778374e-03 1.3505733013153076e-01 3.2226932048797607e-01 3.2409587502479553e-01 -6.4013585448265076e-02 6.1282142996788025e-02 -6.7662790417671204e-02 -1.6647592186927795e-01 -1.1978852562606335e-02 1.9714156165719032e-02 2.8659427165985107e-01 
      </Biases>
    </Layer>
    <Layer ActivationFunction="1">
      <Weights rows="128" cols="128">
