<?xml version="1.0"?>
<MethodSetup Method="DNN::DNN">
  <GeneralInfo>
    <Info name="TMVA Release" value="4.2.1 [262657]"/>
    <Info name="ROOT Release" value="6.12/07 [396295]"/>
    <Info name="Creator" value="hum"/>
    <Info name="Date" value="Tue Sep 15 09:33:02 2020"/>
    <Info name="Host" value="Linux vocms0301.cern.ch 2.6.32-696.30.1.el6.x86_64 #1 SMP Tue May 22 06:09:36 CEST 2018 x86_64 x86_64 x86_64 GNU/Linux"/>
    <Info name="Dir" value="/afs/cern.ch/work/h/hum/public/CMSSW_10_2_13/src/ChargedHiggs/Analysis"/>
    <Info name="Training events" value="385830"/>
    <Info name="TrainingTime" value="1.85110178e+03"/>
    <Info name="AnalysisType" value="Classification"/>
  </GeneralInfo>
  <Options>
    <Option name="V" modified="Yes">True</Option>
    <Option name="VerbosityLevel" modified="No">Verbose</Option>
    <Option name="VarTransform" modified="Yes">N</Option>
    <Option name="H" modified="Yes">False</Option>
    <Option name="CreateMVAPdfs" modified="No">False</Option>
    <Option name="IgnoreNegWeightsInTraining" modified="No">False</Option>
    <Option name="Layout" modified="Yes">TANH|128,TANH|128,TANH|128,LINEAR</Option>
    <Option name="ValidationSize" modified="No">20%</Option>
    <Option name="ErrorStrategy" modified="Yes">CROSSENTROPY</Option>
    <Option name="WeightInitialization" modified="Yes">XAVIERUNIFORM</Option>
    <Option name="Architecture" modified="Yes">CPU</Option>
    <Option name="TrainingStrategy" modified="Yes">LearningRate=1e-1,Momentum=0.9,Repetitions=5,ConvergenceSteps=100,BatchSize=256,TestRepetitions=10,WeightDecay=1e-4,Regularization=L2,DropConfig=0.0+0.5+0.5+0.5,</Option>
  </Options>
  <Variables NVar="22">
    <Variable VarIndex="0" Expression="j1_pT" Label="j1_pT" Title="jet1 pT" Unit="" Internal="j1_pT" Type="F" Min="3.00003204e+01" Max="1.83329016e+03"/>
    <Variable VarIndex="1" Expression="abs(j1_Eta)" Label="abs(j1_Eta)" Title="jet1 eta" Unit="" Internal="abs_j1_Eta_" Type="F" Min="3.77595097e-05" Max="4.69974709e+00"/>
    <Variable VarIndex="2" Expression="j1_M" Label="j1_M" Title="jet1 mass" Unit="" Internal="j1_M" Type="F" Min="3.34266126e-01" Max="2.05710403e+02"/>
    <Variable VarIndex="3" Expression="j1_Unc" Label="j1_Unc" Title="jet1 Unc" Unit="" Internal="j1_Unc" Type="F" Min="6.50207000e-03" Max="1.16903067e-01"/>
    <Variable VarIndex="4" Expression="j1_axis2" Label="j1_axis2" Title="jet1 axis2" Unit="" Internal="j1_axis2" Type="F" Min="0.00000000e+00" Max="1.85581133e-01"/>
    <Variable VarIndex="5" Expression="j1_ptD" Label="j1_ptD" Title="jet1 ptD" Unit="" Internal="j1_ptD" Type="F" Min="0.00000000e+00" Max="1.00000000e+00"/>
    <Variable VarIndex="6" Expression="j2_pT" Label="j2_pT" Title="jet2 pT" Unit="" Internal="j2_pT" Type="F" Min="3.00899544e+01" Max="2.04499731e+03"/>
    <Variable VarIndex="7" Expression="j2_M" Label="j2_M" Title="jet2 mass" Unit="" Internal="j2_M" Type="F" Min="8.16488802e-01" Max="3.44123840e+02"/>
    <Variable VarIndex="8" Expression="j2_Unc" Label="j2_Unc" Title="jet2 Unc" Unit="" Internal="j2_Unc" Type="F" Min="6.50110980e-03" Max="1.28909126e-01"/>
    <Variable VarIndex="9" Expression="j2_axis2" Label="j2_axis2" Title="jet2 axis2" Unit="" Internal="j2_axis2" Type="F" Min="0.00000000e+00" Max="1.79574594e-01"/>
    <Variable VarIndex="10" Expression="j2_ptD" Label="j2_ptD" Title="jet2 ptD" Unit="" Internal="j2_ptD" Type="F" Min="0.00000000e+00" Max="1.00000000e+00"/>
    <Variable VarIndex="11" Expression="j3_pT" Label="j3_pT" Title="jet3 pT" Unit="" Internal="j3_pT" Type="F" Min="3.00000572e+01" Max="6.29954895e+02"/>
    <Variable VarIndex="12" Expression="abs(j3_Eta)" Label="abs(j3_Eta)" Title="jet3 eta" Unit="" Internal="abs_j3_Eta_" Type="F" Min="8.83023495e-06" Max="4.68470287e+00"/>
    <Variable VarIndex="13" Expression="j3_Unc" Label="j3_Unc" Title="jet3 Unc" Unit="" Internal="j3_Unc" Type="F" Min="6.55410113e-03" Max="9.56844464e-02"/>
    <Variable VarIndex="14" Expression="j3_axis2" Label="j3_axis2" Title="jet3 axis2" Unit="" Internal="j3_axis2" Type="F" Min="0.00000000e+00" Max="1.85581133e-01"/>
    <Variable VarIndex="15" Expression="j3_mult" Label="j3_mult" Title="jet3 mult" Unit="" Internal="j3_mult" Type="F" Min="0.00000000e+00" Max="5.50000000e+01"/>
    <Variable VarIndex="16" Expression="j3_ptD" Label="j3_ptD" Title="jet3 ptD" Unit="" Internal="j3_ptD" Type="F" Min="0.00000000e+00" Max="1.00000000e+00"/>
    <Variable VarIndex="17" Expression="j4_pT" Label="j4_pT" Title="jet4 pT" Unit="" Internal="j4_pT" Type="F" Min="3.01075993e+01" Max="3.20155273e+03"/>
    <Variable VarIndex="18" Expression="abs(j4_Eta)" Label="abs(j4_Eta)" Title="jet4 eta" Unit="" Internal="abs_j4_Eta_" Type="F" Min="9.16526005e-06" Max="4.69974709e+00"/>
    <Variable VarIndex="19" Expression="j4_Unc" Label="j4_Unc" Title="jet4 Unc" Unit="" Internal="j4_Unc" Type="F" Min="6.50171191e-03" Max="1.17660142e-01"/>
    <Variable VarIndex="20" Expression="j4_axis2" Label="j4_axis2" Title="jet4 axis2" Unit="" Internal="j4_axis2" Type="F" Min="0.00000000e+00" Max="1.79574594e-01"/>
    <Variable VarIndex="21" Expression="j4_ptD" Label="j4_ptD" Title="jet4 ptD" Unit="" Internal="j4_ptD" Type="F" Min="0.00000000e+00" Max="1.00000000e+00"/>
  </Variables>
  <Spectators NSpec="0"/>
  <Classes NClass="2">
    <Class Name="Signal" Index="0"/>
    <Class Name="Background" Index="1"/>
  </Classes>
  <Transformations NTransformations="1">
    <Transform Name="Normalize">
      <Selection>
        <Input NInputs="22">
          <Input Type="Variable" Label="j1_pT" Expression="j1_pT"/>
          <Input Type="Variable" Label="abs(j1_Eta)" Expression="abs(j1_Eta)"/>
          <Input Type="Variable" Label="j1_M" Expression="j1_M"/>
          <Input Type="Variable" Label="j1_Unc" Expression="j1_Unc"/>
          <Input Type="Variable" Label="j1_axis2" Expression="j1_axis2"/>
          <Input Type="Variable" Label="j1_ptD" Expression="j1_ptD"/>
          <Input Type="Variable" Label="j2_pT" Expression="j2_pT"/>
          <Input Type="Variable" Label="j2_M" Expression="j2_M"/>
          <Input Type="Variable" Label="j2_Unc" Expression="j2_Unc"/>
          <Input Type="Variable" Label="j2_axis2" Expression="j2_axis2"/>
          <Input Type="Variable" Label="j2_ptD" Expression="j2_ptD"/>
          <Input Type="Variable" Label="j3_pT" Expression="j3_pT"/>
          <Input Type="Variable" Label="abs(j3_Eta)" Expression="abs(j3_Eta)"/>
          <Input Type="Variable" Label="j3_Unc" Expression="j3_Unc"/>
          <Input Type="Variable" Label="j3_axis2" Expression="j3_axis2"/>
          <Input Type="Variable" Label="j3_mult" Expression="j3_mult"/>
          <Input Type="Variable" Label="j3_ptD" Expression="j3_ptD"/>
          <Input Type="Variable" Label="j4_pT" Expression="j4_pT"/>
          <Input Type="Variable" Label="abs(j4_Eta)" Expression="abs(j4_Eta)"/>
          <Input Type="Variable" Label="j4_Unc" Expression="j4_Unc"/>
          <Input Type="Variable" Label="j4_axis2" Expression="j4_axis2"/>
          <Input Type="Variable" Label="j4_ptD" Expression="j4_ptD"/>
        </Input>
        <Output NOutputs="22">
          <Output Type="Variable" Label="j1_pT" Expression="j1_pT"/>
          <Output Type="Variable" Label="abs(j1_Eta)" Expression="abs(j1_Eta)"/>
          <Output Type="Variable" Label="j1_M" Expression="j1_M"/>
          <Output Type="Variable" Label="j1_Unc" Expression="j1_Unc"/>
          <Output Type="Variable" Label="j1_axis2" Expression="j1_axis2"/>
          <Output Type="Variable" Label="j1_ptD" Expression="j1_ptD"/>
          <Output Type="Variable" Label="j2_pT" Expression="j2_pT"/>
          <Output Type="Variable" Label="j2_M" Expression="j2_M"/>
          <Output Type="Variable" Label="j2_Unc" Expression="j2_Unc"/>
          <Output Type="Variable" Label="j2_axis2" Expression="j2_axis2"/>
          <Output Type="Variable" Label="j2_ptD" Expression="j2_ptD"/>
          <Output Type="Variable" Label="j3_pT" Expression="j3_pT"/>
          <Output Type="Variable" Label="abs(j3_Eta)" Expression="abs(j3_Eta)"/>
          <Output Type="Variable" Label="j3_Unc" Expression="j3_Unc"/>
          <Output Type="Variable" Label="j3_axis2" Expression="j3_axis2"/>
          <Output Type="Variable" Label="j3_mult" Expression="j3_mult"/>
          <Output Type="Variable" Label="j3_ptD" Expression="j3_ptD"/>
          <Output Type="Variable" Label="j4_pT" Expression="j4_pT"/>
          <Output Type="Variable" Label="abs(j4_Eta)" Expression="abs(j4_Eta)"/>
          <Output Type="Variable" Label="j4_Unc" Expression="j4_Unc"/>
          <Output Type="Variable" Label="j4_axis2" Expression="j4_axis2"/>
          <Output Type="Variable" Label="j4_ptD" Expression="j4_ptD"/>
        </Output>
      </Selection>
      <Class ClassIndex="0">
        <Ranges>
          <Range Index="0" Min="3.0015743255615234e+01" Max="1.6870897216796875e+03"/>
          <Range Index="1" Min="3.3656138111837208e-04" Max="4.6946153640747070e+00"/>
          <Range Index="2" Min="3.3426612615585327e-01" Max="1.9897315979003906e+02"/>
          <Range Index="3" Min="6.5020699985325336e-03" Max="1.1606975644826889e-01"/>
          <Range Index="4" Min="0.0000000000000000e+00" Max="1.5252888202667236e-01"/>
          <Range Index="5" Min="2.0389144122600555e-01" Max="1.0000000000000000e+00"/>
          <Range Index="6" Min="3.2672973632812500e+01" Max="2.0449973144531250e+03"/>
          <Range Index="7" Min="1.8853682279586792e+00" Max="2.4692414855957031e+02"/>
          <Range Index="8" Min="6.5038842149078846e-03" Max="1.1766014248132706e-01"/>
          <Range Index="9" Min="0.0000000000000000e+00" Max="1.2361104041337967e-01"/>
          <Range Index="10" Min="1.9637253880500793e-01" Max="9.8135709762573242e-01"/>
          <Range Index="11" Min="3.0000057220458984e+01" Max="2.4685237121582031e+02"/>
          <Range Index="12" Min="8.8302349467994645e-06" Max="4.5327100753784180e+00"/>
          <Range Index="13" Min="7.4645904824137688e-03" Max="8.4273904561996460e-02"/>
          <Range Index="14" Min="0.0000000000000000e+00" Max="1.5656676888465881e-01"/>
          <Range Index="15" Min="1.0000000000000000e+00" Max="3.2000000000000000e+01"/>
          <Range Index="16" Min="2.1379874646663666e-01" Max="1.0000000000000000e+00"/>
          <Range Index="17" Min="3.0571872711181641e+01" Max="1.1361234130859375e+03"/>
          <Range Index="18" Min="4.2639570892788470e-05" Max="4.6045575141906738e+00"/>
          <Range Index="19" Min="6.5211709588766098e-03" Max="1.0953317582607269e-01"/>
          <Range Index="20" Min="0.0000000000000000e+00" Max="1.5595012903213501e-01"/>
          <Range Index="21" Min="1.9498836994171143e-01" Max="1.0000000000000000e+00"/>
        </Ranges>
      </Class>
      <Class ClassIndex="1">
        <Ranges>
          <Range Index="0" Min="3.0000320434570312e+01" Max="1.8332901611328125e+03"/>
          <Range Index="1" Min="3.7759509723400697e-05" Max="4.6997470855712891e+00"/>
          <Range Index="2" Min="9.2667001485824585e-01" Max="2.0571040344238281e+02"/>
          <Range Index="3" Min="6.5020699985325336e-03" Max="1.1690306663513184e-01"/>
          <Range Index="4" Min="0.0000000000000000e+00" Max="1.8558113276958466e-01"/>
          <Range Index="5" Min="0.0000000000000000e+00" Max="1.0000000000000000e+00"/>
          <Range Index="6" Min="3.0089954376220703e+01" Max="1.9505639648437500e+03"/>
          <Range Index="7" Min="8.1648880243301392e-01" Max="3.4412384033203125e+02"/>
          <Range Index="8" Min="6.5011098049581051e-03" Max="1.2890912592411041e-01"/>
          <Range Index="9" Min="0.0000000000000000e+00" Max="1.7957459390163422e-01"/>
          <Range Index="10" Min="0.0000000000000000e+00" Max="1.0000000000000000e+00"/>
          <Range Index="11" Min="3.0000320434570312e+01" Max="6.2995489501953125e+02"/>
          <Range Index="12" Min="2.0333340216893703e-05" Max="4.6847028732299805e+00"/>
          <Range Index="13" Min="6.5541011281311512e-03" Max="9.5684446394443512e-02"/>
          <Range Index="14" Min="0.0000000000000000e+00" Max="1.8558113276958466e-01"/>
          <Range Index="15" Min="0.0000000000000000e+00" Max="5.5000000000000000e+01"/>
          <Range Index="16" Min="0.0000000000000000e+00" Max="1.0000000000000000e+00"/>
          <Range Index="17" Min="3.0107599258422852e+01" Max="3.2015527343750000e+03"/>
          <Range Index="18" Min="9.1652600531233475e-06" Max="4.6997470855712891e+00"/>
          <Range Index="19" Min="6.5017119050025940e-03" Max="1.1766014248132706e-01"/>
          <Range Index="20" Min="0.0000000000000000e+00" Max="1.7957459390163422e-01"/>
          <Range Index="21" Min="0.0000000000000000e+00" Max="1.0000000000000000e+00"/>
        </Ranges>
      </Class>
      <Class ClassIndex="2">
        <Ranges>
          <Range Index="0" Min="3.0000320434570312e+01" Max="1.8332901611328125e+03"/>
          <Range Index="1" Min="3.7759509723400697e-05" Max="4.6997470855712891e+00"/>
          <Range Index="2" Min="3.3426612615585327e-01" Max="2.0571040344238281e+02"/>
          <Range Index="3" Min="6.5020699985325336e-03" Max="1.1690306663513184e-01"/>
          <Range Index="4" Min="0.0000000000000000e+00" Max="1.8558113276958466e-01"/>
          <Range Index="5" Min="0.0000000000000000e+00" Max="1.0000000000000000e+00"/>
          <Range Index="6" Min="3.0089954376220703e+01" Max="2.0449973144531250e+03"/>
          <Range Index="7" Min="8.1648880243301392e-01" Max="3.4412384033203125e+02"/>
          <Range Index="8" Min="6.5011098049581051e-03" Max="1.2890912592411041e-01"/>
          <Range Index="9" Min="0.0000000000000000e+00" Max="1.7957459390163422e-01"/>
          <Range Index="10" Min="0.0000000000000000e+00" Max="1.0000000000000000e+00"/>
          <Range Index="11" Min="3.0000057220458984e+01" Max="6.2995489501953125e+02"/>
          <Range Index="12" Min="8.8302349467994645e-06" Max="4.6847028732299805e+00"/>
          <Range Index="13" Min="6.5541011281311512e-03" Max="9.5684446394443512e-02"/>
          <Range Index="14" Min="0.0000000000000000e+00" Max="1.8558113276958466e-01"/>
          <Range Index="15" Min="0.0000000000000000e+00" Max="5.5000000000000000e+01"/>
          <Range Index="16" Min="0.0000000000000000e+00" Max="1.0000000000000000e+00"/>
          <Range Index="17" Min="3.0107599258422852e+01" Max="3.2015527343750000e+03"/>
          <Range Index="18" Min="9.1652600531233475e-06" Max="4.6997470855712891e+00"/>
          <Range Index="19" Min="6.5017119050025940e-03" Max="1.1766014248132706e-01"/>
          <Range Index="20" Min="0.0000000000000000e+00" Max="1.7957459390163422e-01"/>
          <Range Index="21" Min="0.0000000000000000e+00" Max="1.0000000000000000e+00"/>
        </Ranges>
      </Class>
    </Transform>
  </Transformations>
  <MVAPdfs/>
  <Weights InputWidth="22" Depth="4" LossFunction="C" OutputFunction="S">
    <Layer ActivationFunction="3">
      <Weights rows="128" cols="22">
        5.5571269243955612e-02 1.9683223217725754e-02 3.4606430679559708e-02 -2.1937603130936623e-02 -5.7543136179447174e-02 1.1723671108484268e-02 4.7403280623257160e-03 -1.1425564298406243e-03 -8.1444100942462683e-04 -5.0500743091106415e-02 4.3494831770658493e-03 -4.5625129714608192e-03 -1.6760131344199181e-02 -3.5240117460489273e-02 -3.9783645421266556e-02 -3.4630246460437775e-02 -1.5353289199993014e-03 -2.3537913337349892e-02 -6.7508481442928314e-03 -1.4631864614784718e-02 -5.1173366606235504e-02 1.2577669695019722e-03 -8.8611528277397156e-02 -3.1083466485142708e-02 -5.5389821529388428e-02 3.4082334488630295e-02 9.1306857764720917e-02 -1.8459690734744072e-02 -7.9681752249598503e-03 1.3929696287959814e-03 1.1249991366639733e-03 7.9454228281974792e-02 -6.9401566870510578e-03 6.7854598164558411e-03 2.7268595993518829e-02 5.5084209889173508e-02 6.2827736139297485e-02 5.4114483296871185e-02 2.4427857715636492e-03 3.7068285048007965e-02 1.0074923746287823e-02 2.2931693121790886e-02 8.0576799809932709e-02 -2.0316885784268379e-03 1.2773002963513136e-03 4.5560472062788904e-04 7.9302472295239568e-04 -5.1090971101075411e-04 -1.3396810973063111e-03 2.6592463837005198e-04 9.9282660812605172e-05 -3.8428053812822327e-05 -2.6849542337004095e-05 -1.1787415714934468e-03 1.0565217962721363e-04 -1.1425046977819875e-04 -3.9749668212607503e-04 -8.2594063133001328e-04 -9.3268969794735312e-04 -8.0934370635077357e-04 -3.0057724870857783e-05 -5.5467803031206131e-04 -1.6509136185050011e-04 -3.4600944491103292e-04 -1.1851465096697211e-03 2.1776331777800806e-05 -1.0865442454814911e-01 -3.9254140108823776e-02 -6.7922718822956085e-02 4.1701458394527435e-02 1.1095731705427170e-01 -2.3234818130731583e-02 -1.0513783432543278e-02 1.1935259681195021e-03 1.0014427825808525e-03 9.6789360046386719e-02 -8.5125677287578583e-03 7.7565675601363182e-03 3.3003166317939758e-02 6.7249886691570282e-02 7.5643099844455719e-02 6.5685808658599854e-02 3.3312421292066574e-03 4.4944167137145996e-02 1.0949422605335712e-02 2.7295129373669624e-02 9.8420038819313049e-02 -2.8876317664980888e-03 1.0361144319176674e-02 3.6909873597323895e-03 6.4643607474863529e-03 -4.0743928402662277e-03 -1.0681832209229469e-02 2.1221027709543705e-03 9.6014287555590272e-04 -1.6348723147530109e-04 -1.6982795204967260e-04 -9.3865869566798210e-03 8.0351001815870404e-04 -7.9180218745023012e-04 -3.1119997147470713e-03 -6.4730294980108738e-03 -7.4577271007001400e-03 -6.4618219621479511e-03 -1.8374636420048773e-04 -4.3054576963186264e-03 -1.2315395288169384e-03 -2.6495268102735281e-03 -9.3834754079580307e-03 2.2573147725779563e-04 -1.0610401630401611e-01 -3.7434369325637817e-02 -6.6307425498962402e-02 4.0671378374099731e-02 1.1002991348505020e-01 -2.2677278146147728e-02 -9.1822473332285881e-03 2.1590706892311573e-03 8.0322910798713565e-04 9.5186710357666016e-02 -8.6811454966664314e-03 8.2794595509767532e-03 3.2666593790054321e-02 6.6306807100772858e-02 7.5042486190795898e-02 6.4420700073242188e-02 3.7856646813452244e-03 4.4918287545442581e-02 1.2087956070899963e-02 2.7427354827523232e-02 9.6727997064590454e-02 -2.1630257833749056e-03 1.0330670326948166e-01 3.5936493426561356e-02 6.4702406525611877e-02 -4.0537606924772263e-02 -1.0561336576938629e-01 2.1104468032717705e-02 9.9473325535655022e-03 -1.2692686868831515e-03 -1.5043574385344982e-03 -9.2874132096767426e-02 8.3278529345989227e-03 -7.8419269993901253e-03 -3.1119059771299362e-02 -6.4204722642898560e-02 -7.3555886745452881e-02 -6.3561439514160156e-02 -2.4400588590651751e-03 -4.2881995439529419e-02 -1.1438352987170219e-02 -2.6417579501867294e-02 -9.3957766890525818e-02 2.6721856556832790e-03 -2.1565290167927742e-02 -7.7729057520627975e-03 -1.3401906006038189e-02 8.4437197074294090e-03 2.2582594305276871e-02 -4.5645991340279579e-03 -1.7440181691199541e-03 5.1975797396153212e-04 2.2648586309514940e-04 1.9579136744141579e-02 -1.6352435341104865e-03 1.7017959617078304e-03 6.7022428847849369e-03 1.3735105283558369e-02 1.5397317707538605e-02 1.3301482424139977e-02 6.7862780997529626e-04 9.1834915801882744e-03 2.6194925885647535e-03 5.7099345140159130e-03 1.9799299538135529e-02 -5.4079474648460746e-04 1.3107703626155853e-01 4.5687634497880936e-02 8.2166403532028198e-02 -5.1139224320650101e-02 -1.3470605015754700e-01 2.6677681133151054e-02 1.2176955118775368e-02 -2.1894709207117558e-03 -2.0720111206173897e-03 -1.1793925613164902e-01 1.0485794395208359e-02 -1.0874370113015175e-02 -3.9555341005325317e-02 -8.1991709768772125e-02 -9.3323566019535065e-02 -8.0755822360515594e-02 -3.4584514796733856e-03 -5.5465392768383026e-02 -1.3446299359202385e-02 -3.3543795347213745e-02 -1.1977280676364899e-01 3.2735688146203756e-03 -8.5877524688839912e-03 -3.0537627171725035e-03 -5.3743338212370872e-03 3.2705334015190601e-03 8.7106628343462944e-03 -1.7802122747525573e-03 -8.0674502532929182e-04 7.7014105045236647e-05 -2.1743813704233617e-05 7.6268217526376247e-03 -7.0575944846495986e-04 5.8124080533161759e-04 2.5445066858083010e-03 5.3093843162059784e-03 6.0214889235794544e-03 5.2176942117512226e-03 2.2204355627764016e-04 3.4855443518608809e-03 9.5922884065657854e-04 2.1664672531187534e-03 7.7431653626263142e-03 -2.1786520665045828e-04 1.7723765969276428e-01 6.1653919517993927e-02 1.1147502064704895e-01 -6.9068841636180878e-02 -1.8228669464588165e-01 3.5715732723474503e-02 1.7534306272864342e-02 -2.7798910159617662e-03 -2.9323131311684847e-03 -1.5985916554927826e-01 1.4210898429155350e-02 -1.5156745910644531e-02 -5.4215598851442337e-02 -1.1082964390516281e-01 -1.2619616091251373e-01 -1.0881537944078445e-01 -5.0626918673515320e-03 -7.5862303376197815e-02 -1.7231240868568420e-02 -4.6842053532600403e-02 -1.6103233397006989e-01 2.7970906812697649e-03 1.8792450428009033e-02 6.7421630956232548e-03 1.1724798008799553e-02 -7.2841271758079529e-03 -1.9297866150736809e-02 3.9532356895506382e-03 1.7084473511204123e-03 -2.7419303660281003e-04 -1.4973893121350557e-04 -1.6912141814827919e-02 1.5501573216170073e-03 -1.4033908955752850e-03 -5.5608288384974003e-03 -1.1780989356338978e-02 -1.3362660072743893e-02 -1.1600852012634277e-02 -4.3831058428622782e-04 -7.7985944226384163e-03 -2.1936774719506502e-03 -4.8104063607752323e-03 -1.7188323661684990e-02 5.4911483312025666e-04 -6.4703978598117828e-02 -2.3330600932240486e-02 -4.0396109223365784e-02 2.4821972474455833e-02 6.6568300127983093e-02 -1.3816145248711109e-02 -5.9584183618426323e-03 7.9738325439393520e-04 6.1820039991289377e-04 5.7820186018943787e-02 -4.9624210223555565e-03 4.8054661601781845e-03 1.9325735047459602e-02 3.9885558187961578e-02 4.5493181794881821e-02 3.9465632289648056e-02 1.6828249208629131e-03 2.6803446933627129e-02 7.0953778922557831e-03 1.6448555514216423e-02 5.8885578066110611e-02 -1.8714545294642448e-03 -7.5856581330299377e-02 -2.6263445615768433e-02 -4.7492738813161850e-02 2.9405847191810608e-02 7.8305914998054504e-02 -1.5360450372099876e-02 -6.3348435796797276e-03 1.5808412572368979e-03 7.8629003837704659e-04 6.8424403667449951e-02 -6.2256567180156708e-03 6.3261426985263824e-03 2.3237217217683792e-02 4.7916550189256668e-02 5.4507743567228317e-02 4.7013331204652786e-02 1.7252559773623943e-03 3.2043684273958206e-02 9.7212260589003563e-03 2.0107243210077286e-02 6.8906806409358978e-02 -1.0179840028285980e-03 -7.3066040873527527e-02 -2.6284698396921158e-02 -4.5507904142141342e-02 2.8229560703039169e-02 7.5719900429248810e-02 -1.5636632218956947e-02 -6.0629080981016159e-03 1.5419150004163384e-03 6.5189762972295284e-04 6.5706454217433929e-02 -6.0562002472579479e-03 5.8751306496560574e-03 2.2270981222391129e-02 4.5952979475259781e-02 5.1621176302433014e-02 4.4665988534688950e-02 2.3677933495491743e-03 3.1030731275677681e-02 8.3802761510014534e-03 1.9299978390336037e-02 6.7482680082321167e-02 -1.8519776640459895e-03 3.7691671401262283e-02 1.3468487188220024e-02 2.3420074954628944e-02 -1.5305206179618835e-02 -3.9094761013984680e-02 7.6128859072923660e-03 3.3061995636671782e-03 -7.7880523167550564e-04 -9.3010393902659416e-04 -3.4577846527099609e-02 2.8822987806051970e-03 -3.2815698068588972e-03 -1.1490061879158020e-02 -2.4004815146327019e-02 -2.7321457862854004e-02 -2.3920783773064613e-02 -6.7429163027554750e-04 -1.6092710196971893e-02 -4.5529059134423733e-03 -1.0180487297475338e-02 -3.4918367862701416e-02 9.1222842456772923e-04 7.3891304433345795e-02 2.6715679094195366e-02 4.6095013618469238e-02 -2.8141263872385025e-02 -7.6690137386322021e-02 1.5811463817954063e-02 6.2302812002599239e-03 -1.5783893177285790e-03 -5.5806752061471343e-04 -6.6492356359958649e-02 5.9387441724538803e-03 -5.9036235325038433e-03 -2.2390659898519516e-02 -4.6483572572469711e-02 -5.2344545722007751e-02 -4.5266870409250259e-02 -2.2776301484555006e-03 -3.1303483992815018e-02 -8.5966233164072037e-03 -1.9355434924364090e-02 -6.7555613815784454e-02 1.4999662525951862e-03 -4.5425172895193100e-02 -1.6088424250483513e-02 -2.8326563537120819e-02 1.7876481637358665e-02 4.6694327145814896e-02 -9.4978399574756622e-03 -4.1412878781557083e-03 7.5508357258513570e-04 8.2063715672120452e-04 4.1109651327133179e-02 -3.8309509400278330e-03 3.6062377039343119e-03 1.3586120679974556e-02 2.8357960283756256e-02 3.2581318169832230e-02 2.8250582516193390e-02 9.4695150619372725e-04 1.9016033038496971e-02 5.1375571638345718e-03 1.1697766371071339e-02 4.1688062250614166e-02 -1.2427031761035323e-03 -1.3951133936643600e-02 -5.0181094557046890e-03 -8.6755091324448586e-03 5.4394612088799477e-03 1.4505497179925442e-02 -3.0002552084624767e-03 -1.1798954801633954e-03 3.0471556237898767e-04 1.4390787691809237e-04 1.2702703475952148e-02 -1.1544321896508336e-03 1.1115593370050192e-03 4.2905588634312153e-03 8.8482890278100967e-03 9.9705010652542114e-03 8.6514074355363846e-03 4.0204011020250618e-04 5.9104836545884609e-03 1.7244517803192139e-03 3.7264723796397448e-03 1.2812984175980091e-02 -2.8096185997128487e-04 8.2246981561183929e-02 2.9224744066596031e-02 5.1404029130935669e-02 -3.1626019626855850e-02 -8.4972895681858063e-02 1.7293445765972137e-02 7.4430345557630062e-03 -1.3723715674132109e-03 -1.3242921559140086e-03 -7.3719963431358337e-02 6.4005036838352680e-03 -6.2949750572443008e-03 -2.4645287543535233e-02 -5.1056191325187683e-02 -5.8638997375965118e-02 -5.0400383770465851e-02 -1.8766743596643209e-03 -3.4408152103424072e-02 -9.3748690560460091e-03 -2.1008193492889404e-02 -7.4942976236343384e-02 1.8825859297066927e-03 -4.6213638037443161e-02 -1.6270520165562630e-02 -2.8788629919290543e-02 1.8201721832156181e-02 4.7850996255874634e-02 -9.6282251179218292e-03 -3.9107324555516243e-03 9.4411912141367793e-04 6.0655095148831606e-04 4.1949156671762466e-02 -3.6479702685028315e-03 3.7143889348953962e-03 1.4032434672117233e-02 2.9281359165906906e-02 3.3074423670768738e-02 2.8726633638143539e-02 1.2267981655895710e-03 1.9533898681402206e-02 5.6577329523861408e-03 1.2140379287302494e-02 4.2494092136621475e-02 -1.1153012746945024e-03 7.0735462009906769e-02 2.5108005851507187e-02 4.4349797070026398e-02 -2.6662701740860939e-02 -7.2420574724674225e-02 1.4721002429723740e-02 6.5344157628715038e-03 -8.7405653903260827e-04 -4.9434095853939652e-04 -6.2848620116710663e-02 5.4411487653851509e-03 -5.0791315734386444e-03 -2.1224584430456161e-02 -4.3321963399648666e-02 -4.9620091915130615e-02 -4.2778529226779938e-02 -1.7449160804972053e-03 -2.9009671881794930e-02 -7.8501338139176369e-03 -1.7725842073559761e-02 -6.3572704792022705e-02 1.4642580645158887e-03 1.1045259982347488e-01 3.8361262530088425e-02 6.9266803562641144e-02 -4.2706970125436783e-02 -1.1287789791822433e-01 2.2467985749244690e-02 1.0353337973356247e-02 -1.6028869431465864e-03 -8.8226434309035540e-04 -9.8957084119319916e-02 8.9660016819834709e-03 -8.3025600761175156e-03 -3.3002652227878571e-02 -6.9007351994514465e-02 -7.8284271061420441e-02 -6.7512132227420807e-02 -3.0601508915424347e-03 -4.5989383012056351e-02 -1.2194624170660973e-02 -2.8298959136009216e-02 -9.9582538008689880e-02 2.0194684620946646e-03 -4.6531621366739273e-02 -1.7023660242557526e-02 -2.8966285288333893e-02 1.7996376380324364e-02 4.7934699803590775e-02 -1.0053991340100765e-02 -4.3437010608613491e-03 6.3054088968783617e-04 5.3626840235665441e-04 4.1731052100658417e-02 -3.6423562560230494e-03 3.3421213738620281e-03 1.3902617618441582e-02 2.8788048774003983e-02 3.2746031880378723e-02 2.8444273397326469e-02 1.2420390266925097e-03 1.9270192831754684e-02 4.9249939620494843e-03 1.1706563644111156e-02 4.2592145502567291e-02 -1.4966005692258477e-03 -4.0350668132305145e-02 -1.4136392623186111e-02 -2.5324033573269844e-02 1.5404165722429752e-02 4.0966425091028214e-02 -8.0867884680628777e-03 -4.0168771520256996e-03 2.9348611133173108e-04 3.5295885754749179e-04 3.5958413034677505e-02 -3.2816231250762939e-03 2.8246117290109396e-03 1.1586710810661316e-02 2.4748396128416061e-02 2.8739482164382935e-02 2.4801507592201233e-02 5.6062842486426234e-04 1.6330417245626450e-02 4.5905071310698986e-03 1.0076183825731277e-02 3.6170303821563721e-02 -7.8935094643384218e-04 -1.4649336040019989e-01 -5.0763268023729324e-02 -9.1930352151393890e-02 5.5766202509403229e-02 1.5073190629482269e-01 -3.1054096296429634e-02 -1.3417687267065048e-02 2.4220403283834457e-03 1.1348436819389462e-03 1.3084143400192261e-01 -1.1993163265287876e-02 1.1414576321840286e-02 4.5510597527027130e-02 9.1558344662189484e-02 1.0314089059829712e-01 8.8454023003578186e-02 5.3525841794908047e-03 6.1796192079782486e-02 1.6249852254986763e-02 3.7801135331392288e-02 1.3283956050872803e-01 -2.7228663675487041e-03 -1.0697516798973083e-01 -3.7410993129014969e-02 -6.6743128001689911e-02 4.3118737637996674e-02 1.1039366573095322e-01 -2.1556323394179344e-02 -9.7960894927382469e-03 1.8716285703703761e-03 2.2385653574019670e-03 9.7472354769706726e-02 -8.7652215734124184e-03 9.0155592188239098e-03 3.2608453184366226e-02 6.7562334239482880e-02 7.7408611774444580e-02 6.7183934152126312e-02 2.1575584542006254e-03 4.5456938445568085e-02 1.2278662994503975e-02 2.8541173785924911e-02 9.8614029586315155e-02 -2.5746077299118042e-03 -5.2634570747613907e-02 -1.8908683210611343e-02 -3.2921250909566879e-02 1.9840190187096596e-02 5.3987015038728714e-02 -1.0997222736477852e-02 -4.6930434182286263e-03 7.3490873910486698e-04 -6.0659709561150521e-05 4.6959251165390015e-02 -4.0842071175575256e-03 3.7641411181539297e-03 1.5992669388651848e-02 3.2662078738212585e-02 3.6896117031574249e-02 3.1923834234476089e-02 1.4905388234183192e-03 2.1655851975083351e-02 6.2019131146371365e-03 1.3446455821394920e-02 4.7429066151380539e-02 -1.1850707232952118e-03 -5.5004280060529709e-02 -1.9728884100914001e-02 -3.4365497529506683e-02 2.1246476098895073e-02 5.6675191968679428e-02 -1.1422194540500641e-02 -5.0315544940531254e-03 8.0506398808211088e-04 7.5909192673861980e-04 4.9298375844955444e-02 -4.3742051348090172e-03 4.2106388136744499e-03 1.6322845593094826e-02 3.4078840166330338e-02 3.9017129689455032e-02 3.3791784197092056e-02 1.2290768790990114e-03 2.2867256775498390e-02 6.1450521461665630e-03 1.3818317092955112e-02 5.0243843346834183e-02 -1.6629872843623161e-03 8.0546766519546509e-02 2.8729774057865143e-02 4.9941286444664001e-02 -3.2741073518991470e-02 -8.4838591516017914e-02 1.6828423365950584e-02 6.1028595082461834e-03 -2.5506694801151752e-03 -1.6626407159492373e-03 -7.4867531657218933e-02 6.3930070027709007e-03 -7.6636411249637604e-03 -2.5387270376086235e-02 -5.2306529134511948e-02 -5.8687206357717514e-02 -5.1316224038600922e-02 -2.3973705247044563e-03 -3.5601045936346054e-02 -1.0282301343977451e-02 -2.2627482190728188e-02 -7.5399100780487061e-02 1.6891009872779250e-03 2.5739701464772224e-02 9.3425996601581573e-03 1.6082180663943291e-02 -9.8298154771327972e-03 -2.6524480432271957e-02 5.4529304616153240e-03 2.3358971811830997e-03 -3.9740034844726324e-04 -2.6591590722091496e-04 -2.3057267069816589e-02 2.0857555791735649e-03 -1.9136702176183462e-03 -7.6592140831053257e-03 -1.5908958390355110e-02 -1.8270222470164299e-02 -1.5749491751194000e-02 -5.4204638581722975e-04 -1.0664622299373150e-02 -2.8670211322605610e-03 -6.5426020883023739e-03 -2.3444350808858871e-02 6.9119501858949661e-04 1.2985573709011078e-01 4.4840000569820404e-02 8.1107594072818756e-02 -5.1872923970222473e-02 -1.3405668735504150e-01 2.6883332058787346e-02 1.2116578407585621e-02 -2.2066610399633646e-03 -1.7926620785146952e-03 -1.1747907102108002e-01 1.0441982187330723e-02 -1.0806689970195293e-02 -3.9147917181253433e-02 -8.2148745656013489e-02 -9.2390291392803192e-02 -8.0490589141845703e-02 -4.1356850415468216e-03 -5.5225066840648651e-02 -1.4533949084579945e-02 -3.4124042838811874e-02 -1.1910215020179749e-01 3.1199625227600336e-03 -1.2842833995819092e-01 -4.5601937919855118e-02 -8.0150797963142395e-02 5.0582047551870346e-02 1.3325946033000946e-01 -2.6955854147672653e-02 -1.1479000560939312e-02 2.4956907145678997e-03 2.4377321824431419e-03 1.1649120599031448e-01 -1.0012827813625336e-02 1.1178184300661087e-02 3.9729546755552292e-02 8.0875717103481293e-02 9.1831147670745850e-02 7.9804211854934692e-02 3.5815222654491663e-03 5.5059265345335007e-02 1.4442813582718372e-02 3.4357834607362747e-02 1.1852871626615524e-01 -2.9670561198145151e-03 9.4390444457530975e-02 3.2779131084680557e-02 5.9050738811492920e-02 -3.6713033914566040e-02 -9.7537949681282043e-02 1.9312443211674690e-02 8.1441337242722511e-03 -1.9024893408641219e-03 -9.9472608417272568e-04 -8.5095554590225220e-02 7.6836976222693920e-03 -7.7481092885136604e-03 -2.9018679633736610e-02 -5.9751525521278381e-02 -6.7858561873435974e-02 -5.8496929705142975e-02 -2.3387896362692118e-03 -3.9940081536769867e-02 -1.1809192597866058e-02 -2.4881979450583458e-02 -8.5817895829677582e-02 1.4155866811051965e-03 1.5313106775283813e-01 5.4184656590223312e-02 9.6235714852809906e-02 -5.8370862156152725e-02 -1.5626314282417297e-01 3.2676875591278076e-02 1.4793392270803452e-02 -1.7240993911400437e-03 -8.0539926420897245e-04 -1.3591146469116211e-01 1.1790197342634201e-02 -1.1288597248494625e-02 -4.7359790652990341e-02 -9.5143496990203857e-02 -1.0600483417510986e-01 -9.1448344290256500e-02 -5.9449481777846813e-03 -6.3892692327499390e-02 -1.5470406040549278e-02 -3.9162848144769669e-02 -1.3843032717704773e-01 3.6616555880755186e-03 3.8493946194648743e-02 1.3750730082392693e-02 2.4035535752773285e-02 -1.5179573558270931e-02 -3.9515424519777298e-02 7.8249974176287651e-03 3.6043338477611542e-03 -5.3315225522965193e-04 -6.1810523038730025e-04 -3.4762095659971237e-02 2.9458163771778345e-03 -2.9172131326049566e-03 -1.1489262804389000e-02 -2.4041770026087761e-02 -2.7540517970919609e-02 -2.3919042199850082e-02 -7.0996052818372846e-04 -1.5962693840265274e-02 -4.4724284671247005e-03 -9.9553661420941353e-03 -3.4940052777528763e-02 8.6909771198406816e-04 4.7680482268333435e-02 1.7198320478200912e-02 2.9716949909925461e-02 -1.8136469647288322e-02 -4.9559518694877625e-02 1.0264964774250984e-02 3.9765476249158382e-03 -1.0429871035739779e-03 -3.6848432500846684e-04 -4.2846836149692535e-02 3.7143484223634005e-03 -3.7174473982304335e-03 -1.4505412429571152e-02 -2.9853876680135727e-02 -3.3678114414215088e-02 -2.9102386906743050e-02 -1.5820075059309602e-03 -2.0139424130320549e-02 -5.5163814686238766e-03 -1.2263008393347263e-02 -4.3441440910100937e-02 1.0438405442982912e-03 4.0338113903999329e-03 1.4374165330082178e-03 2.5227486621588469e-03 -1.5622370410710573e-03 -4.1089002043008804e-03 8.4518420044332743e-04 3.9290564018301666e-04 -3.7528403481701389e-05 -5.1026298024225980e-05 -3.5886084660887718e-03 3.3018321846611798e-04 -2.8239941457286477e-04 -1.1723799398168921e-03 -2.4776654317975044e-03 -2.8497737366706133e-03 -2.4640222545713186e-03 -8.5040919657330960e-05 -1.6435092547908425e-03 -4.3524033389985561e-04 -9.9766254425048828e-04 -3.6561849992722273e-03 1.1790429562097415e-04 3.4248139709234238e-02 1.2253844179213047e-02 2.1317455917596817e-02 -1.3344024308025837e-02 -3.5565964877605438e-02 7.3237349279224873e-03 2.9065245762467384e-03 -7.3385849827900529e-04 -2.9609168996103108e-04 -3.1093038618564606e-02 2.7779671363532543e-03 -2.7020764537155628e-03 -1.0470992885529995e-02 -2.1652987226843834e-02 -2.4487903341650963e-02 -2.1183243021368980e-02 -9.7380788065493107e-04 -1.4468985609710217e-02 -4.1475296020507812e-03 -9.1610997915267944e-03 -3.1338833272457123e-02 7.0043717278167605e-04 -4.9777496606111526e-02 -1.7759494483470917e-02 -3.1182739883661270e-02 1.8689304590225220e-02 5.0898764282464981e-02 -1.0469587519764900e-02 -4.6057151630520821e-03 5.9897074243053794e-04 3.9833411574363708e-04 4.4124189764261246e-02 -4.0606292895972729e-03 3.4269844181835651e-03 1.4809536747634411e-02 3.0633855611085892e-02 3.5103186964988708e-02 3.0108541250228882e-02 1.0821186006069183e-03 2.0326979458332062e-02 5.5146068334579468e-03 1.2281361967325211e-02 4.4892169535160065e-02 -1.2313211336731911e-03 -1.1905470164492726e-03 -4.2213997221551836e-04 -7.4462668271735311e-04 4.5333683374337852e-04 1.2130364775657654e-03 -2.4904415477067232e-04 -1.0909520642599091e-04 1.2732297363982070e-05 2.3378579498967156e-06 1.0583469411358237e-03 -9.4797207566443831e-05 8.1748119555413723e-05 3.5387536627240479e-04 7.3812197661027312e-04 8.3516619633883238e-04 7.2374375304207206e-04 3.2052132155513391e-05 4.8599814181216061e-04 1.3870261318515986e-04 2.9969852766953409e-04 1.0742249432951212e-03 -2.8453239792725071e-05 -1.6862553358078003e-01 -5.9089086949825287e-02 -1.0617381334304810e-01 6.4637027680873871e-02 1.7252309620380402e-01 -3.4276962280273438e-02 -1.6577811911702156e-02 2.2221652325242758e-03 2.4414472281932831e-03 1.5137095749378204e-01 -1.2985361739993095e-02 1.3704959303140640e-02 5.1751773804426193e-02 1.0476820170879364e-01 1.1933741718530655e-01 1.0286117345094681e-01 4.7779469750821590e-03 7.1312114596366882e-02 1.6814980655908585e-02 4.4046185910701752e-02 1.5219078958034515e-01 -2.2731146309524775e-03 6.0245115309953690e-04 2.1503274911083281e-04 3.8043042877689004e-04 -2.1795473003294319e-04 -5.9610098833218217e-04 1.2306995631661266e-04 6.3506508013233542e-05 2.0537304408208001e-06 7.4914660217473283e-06 -5.2065780619159341e-04 5.0250557251274586e-05 -3.1804971513338387e-05 -1.7082302656490356e-04 -3.6012369673699141e-04 -4.1190785123035312e-04 -3.5459399805404246e-04 -1.2973419870832004e-05 -2.3168892948888242e-04 -6.3233543187379837e-05 -1.4016972272656858e-04 -5.2770780166611075e-04 1.5557312508462928e-05 4.1623222641646862e-03 1.5172259882092476e-03 2.5941804051399231e-03 -1.6033251304179430e-03 -4.2746663093566895e-03 8.8980526197701693e-04 3.8472100277431309e-04 -5.3690153436036780e-05 -4.3579500925261527e-05 -3.7307715974748135e-03 3.2824536901898682e-04 -2.9861737857572734e-04 -1.2345701688900590e-03 -2.5641755200922489e-03 -2.9229535721242428e-03 -2.5403678882867098e-03 -1.0512139851925895e-04 -1.7156330868601799e-03 -4.4418862671591341e-04 -1.0491186985746026e-03 -3.8006447721272707e-03 1.3265106827020645e-04 -1.3965494930744171e-01 -4.6860903501510620e-02 -8.7651938199996948e-02 5.5401962250471115e-02 1.4434684813022614e-01 -2.7544675394892693e-02 -1.2737115845084190e-02 2.6803952641785145e-03 2.7252323925495148e-03 1.2674829363822937e-01 -1.1452485807240009e-02 1.2281293049454689e-02 4.1911050677299500e-02 8.8226564228534698e-02 1.0168080031871796e-01 8.7255053222179413e-02 3.0399449169635773e-03 5.9725198894739151e-02 1.6501633450388908e-02 3.7712428718805313e-02 1.2759304046630859e-01 -1.8871218198910356e-03 9.6170552074909210e-02 3.4101478755474091e-02 6.0076490044593811e-02 -3.6603361368179321e-02 -9.9147260189056396e-02 2.0486311987042427e-02 8.3410963416099548e-03 -1.7792461439967155e-03 -5.1790697034448385e-04 -8.6156778037548065e-02 8.1796245649456978e-03 -7.5455377809703350e-03 -2.9532711952924728e-02 -6.0199424624443054e-02 -6.7926645278930664e-02 -5.8560691773891449e-02 -3.0964738689363003e-03 -4.0508076548576355e-02 -1.0974503122270107e-02 -2.4859379976987839e-02 -8.8012613356113434e-02 2.3185359314084053e-03 -1.9766820967197418e-01 -6.7422278225421906e-02 -1.2461648136377335e-01 7.8726239502429962e-02 2.0128242671489716e-01 -3.9158191531896591e-02 -2.1142801269888878e-02 1.8325153505429626e-03 3.9489907212555408e-03 1.7875535786151886e-01 -1.5863679349422455e-02 1.6797179356217384e-02 6.0160517692565918e-02 1.2431819736957550e-01 1.4048525691032410e-01 1.2201586365699768e-01 5.6557878851890564e-03 8.3993703126907349e-02 1.9040353596210480e-02 5.2435148507356644e-02 1.7943392693996429e-01 -3.4597772173583508e-03 -1.4081716537475586e-01 -4.9059163779020309e-02 -8.8552698493003845e-02 5.3437486290931702e-02 1.4327768981456757e-01 -2.8638958930969238e-02 -1.3517991639673710e-02 1.5441138530150056e-03 3.4577585756778717e-04 1.2535440921783447e-01 -1.0594142600893974e-02 1.0399477556347847e-02 4.3103564530611038e-02 8.7349355220794678e-02 9.8186008632183075e-02 8.5008487105369568e-02 4.6057784929871559e-03 5.8393366634845734e-02 1.5288658440113068e-02 3.6124024540185928e-02 1.2631045281887054e-01 -2.2601785603910685e-03 1.2152429670095444e-01 4.2201068252325058e-02 7.6227441430091858e-02 -4.7003541141748428e-02 -1.2426231056451797e-01 2.4722132831811905e-02 1.1576572433114052e-02 -1.5477449633181095e-03 -1.9990713335573673e-03 -1.0916025936603546e-01 1.0039139539003372e-02 -9.6106128767132759e-03 -3.6233320832252502e-02 -7.5433544814586639e-02 -8.6367227137088776e-02 -7.4657402932643890e-02 -2.8679606039077044e-03 -5.0771094858646393e-02 -1.2991416268050671e-02 -3.1255654990673065e-02 -1.1096960306167603e-01 3.1188759021461010e-03 6.8949181586503983e-03 2.4909316562116146e-03 4.2849867604672909e-03 -2.7438178658485413e-03 -7.1804942563176155e-03 1.4557294780388474e-03 5.9372087707743049e-04 -1.4625277253799140e-04 -8.3436767454259098e-05 -6.3031753525137901e-03 5.5705680279061198e-04 -5.6524237152189016e-04 -2.0890552550554276e-03 -4.3597426265478134e-03 -4.9286033026874065e-03 -4.3104724027216434e-03 -1.9439104653429240e-04 -2.9288581572473049e-03 -8.3134806482121348e-04 -1.8434352241456509e-03 -6.3609126955270767e-03 1.7500354442745447e-04 4.6404197812080383e-02 1.6580658033490181e-02 2.8949033468961716e-02 -1.8026795238256454e-02 -4.8149242997169495e-02 9.6896449103951454e-03 4.0939156897366047e-03 -9.2041899915784597e-04 -7.3533598333597183e-04 -4.1992451995611191e-02 3.6955529358237982e-03 -3.6886383313685656e-03 -1.4089236035943031e-02 -2.8944753110408783e-02 -3.3271227031946182e-02 -2.8666837140917778e-02 -1.0323111200705171e-03 -1.9533352926373482e-02 -5.4266513325273991e-03 -1.1974947527050972e-02 -4.2517956346273422e-02 1.1858197394758463e-03 -6.9891490042209625e-02 -2.4556281045079231e-02 -4.3596319854259491e-02 2.7412058785557747e-02 7.2091594338417053e-02 -1.4748703688383102e-02 -6.1331395991146564e-03 1.2314654886722565e-03 8.4116455400362611e-04 6.3076131045818329e-02 -5.5191204883158207e-03 5.5011687800288200e-03 2.0953668281435966e-02 4.4100351631641388e-02 4.9817066639661789e-02 4.3231952935457230e-02 1.9471095874905586e-03 2.9366808012127876e-02 8.3068236708641052e-03 1.8184106796979904e-02 6.4050689339637756e-02 -1.7293536802753806e-03 -7.7709376811981201e-02 -2.7391998097300529e-02 -4.8706244677305222e-02 2.9356930404901505e-02 7.9342253506183624e-02 -1.6289439052343369e-02 -7.4813072569668293e-03 6.4895168179646134e-04 5.3794198902323842e-04 6.8730503320693970e-02 -5.9664342552423477e-03 5.3435587324202061e-03 2.3106124252080917e-02 4.7451920807361603e-02 5.4306004196405411e-02 4.6849064528942108e-02 1.9572363235056400e-03 3.1694646924734116e-02 8.3855642005801201e-03 1.9203111529350281e-02 6.9793932139873505e-02 -1.8489368958398700e-03 1.2083484232425690e-01 4.1707169264554977e-02 7.5878873467445374e-02 -4.6663071960210800e-02 -1.2310379743576050e-01 2.4298522621393204e-02 1.1436065658926964e-02 -1.6494799638167024e-03 -1.0308023774996400e-03 -1.0801420360803604e-01 9.8750172182917595e-03 -9.2980954796075821e-03 -3.6595016717910767e-02 -7.5816936790943146e-02 -8.6093731224536896e-02 -7.4005804955959320e-02 -3.2162785064429045e-03 -5.0333775579929352e-02 -1.3962713070213795e-02 -3.1523179262876511e-02 -1.0921722650527954e-01 1.8586509395390749e-03 2.0053803920745850e-01 7.0976205170154572e-02 1.2646718323230743e-01 -7.7509075403213501e-02 -2.0321275293827057e-01 4.2585048824548721e-02 2.2216165438294411e-02 -1.0325766634196043e-03 -2.3243518080562353e-03 -1.7850279808044434e-01 1.5014621429145336e-02 -1.5228423289954662e-02 -6.1744082719087601e-02 -1.2473394721746445e-01 -1.3828958570957184e-01 -1.1990194767713547e-01 -8.0735962837934494e-03 -8.4209538996219635e-02 -1.6572270542383194e-02 -5.1228180527687073e-02 -1.8075963854789734e-01 4.0066214278340340e-03 7.6932482421398163e-02 2.7020201086997986e-02 4.8149205744266510e-02 -2.9985226690769196e-02 -7.8746892511844635e-02 1.5711639076471329e-02 7.3622260242700577e-03 -9.2139688786119223e-04 -1.1678397422656417e-03 -6.9088868796825409e-02 5.9447814710438251e-03 -5.6185103021562099e-03 -2.3084327578544617e-02 -4.7794975340366364e-02 -5.4734263569116592e-02 -4.7403462231159210e-02 -1.6236505471169949e-03 -3.1708247959613800e-02 -8.9565450325608253e-03 -1.9753981381654739e-02 -6.9380253553390503e-02 1.5056165866553783e-03 8.2513146102428436e-02 2.9422365128993988e-02 5.1264140754938126e-02 -3.2367389649152756e-02 -8.6942464113235474e-02 1.7838459461927414e-02 6.5703876316547394e-03 -2.4166274815797806e-03 -1.2732049217447639e-03 -7.5362659990787506e-02 6.7611229605972767e-03 -7.1539455093443394e-03 -2.5431120768189430e-02 -5.2495907992124557e-02 -5.9348881244659424e-02 -5.1116544753313065e-02 -2.8889863751828671e-03 -3.5888146609067917e-02 -9.5724919810891151e-03 -2.2096475586295128e-02 -7.6462499797344208e-02 1.9328182097524405e-03 -7.8155860304832458e-02 -2.7500463649630547e-02 -4.8776902258396149e-02 3.0921036377549171e-02 8.0617561936378479e-02 -1.6334818676114082e-02 -7.2371186688542366e-03 1.1985417222604156e-03 1.3656832743436098e-03 7.0424087345600128e-02 -6.4964219927787781e-03 6.0437717474997044e-03 2.3668816313147545e-02 4.8825733363628387e-02 5.6068573147058487e-02 4.8322916030883789e-02 1.7342305509373546e-03 3.2667774707078934e-02 9.0792253613471985e-03 2.0126877352595329e-02 7.1587309241294861e-02 -2.0903225522488356e-03 2.4803811684250832e-02 8.9757284149527550e-03 1.5361394733190536e-02 -9.8464703187346458e-03 -2.6242321357131004e-02 5.3716856054961681e-03 1.8913175445050001e-03 -7.7455595601350069e-04 -3.8163145654834807e-04 -2.2813851013779640e-02 1.9480839837342501e-03 -2.1453849039971828e-03 -7.8196823596954346e-03 -1.6012299805879593e-02 -1.7913678660988808e-02 -1.5519633889198303e-02 -7.9917855327948928e-04 -1.0810427367687225e-02 -3.0950894579291344e-03 -6.7808516323566437e-03 -2.2998986765742302e-02 5.4326088866218925e-04 -1.0200531035661697e-01 -3.5690046846866608e-02 -6.4030304551124573e-02 3.8593176752328873e-02 1.0402366518974304e-01 -2.0995657891035080e-02 -9.3257278203964233e-03 1.3764693867415190e-03 9.1008475283160806e-04 9.0733282268047333e-02 -8.3055691793560982e-03 7.5951367616653442e-03 3.0789062380790710e-02 6.3335336744785309e-02 7.2262123227119446e-02 6.2078572809696198e-02 2.4094786494970322e-03 4.2222611606121063e-02 1.1340331286191940e-02 2.5856947526335716e-02 9.2497602105140686e-02 -2.3648268543183804e-03 -1.6411279141902924e-01 -5.7063937187194824e-02 -1.0348380357027054e-01 6.2466848641633987e-02 1.6459479928016663e-01 -3.3656924962997437e-02 -1.8067693337798119e-02 4.5217748265713453e-06 -2.6892579626291990e-05 1.4440965652465820e-01 -1.3771438971161842e-02 1.0993098840117455e-02 4.8754103481769562e-02 1.0096340626478195e-01 1.1407731473445892e-01 9.8291069269180298e-02 5.1619140431284904e-03 6.6576898097991943e-02 1.5656942501664162e-02 4.1628289967775345e-02 1.4664010703563690e-01 -3.2259989529848099e-03 -4.2301062494516373e-02 -1.5262040309607983e-02 -2.6568064466118813e-02 1.5601134859025478e-02 4.2991496622562408e-02 -8.7320283055305481e-03 -4.0288264863193035e-03 3.6506244214251637e-04 5.2031515224371105e-05 3.7310108542442322e-02 -3.3476199023425579e-03 2.8023864142596722e-03 1.2502199970185757e-02 2.5647124275565147e-02 2.9464593157172203e-02 2.5380782783031464e-02 9.0652657672762871e-04 1.7070394009351730e-02 4.5791347511112690e-03 1.0394955053925514e-02 3.7816789001226425e-02 -1.0213669156655669e-03 -1.2305300682783127e-01 -4.3558202683925629e-02 -7.7309451997280121e-02 4.7335397452116013e-02 1.2492334097623825e-01 -2.5279043242335320e-02 -1.2319681234657764e-02 1.1029475135728717e-03 5.9649522881954908e-04 1.0963655263185501e-01 -1.0016107000410557e-02 8.9779300615191460e-03 3.6028835922479630e-02 7.6161444187164307e-02 8.6364492774009705e-02 7.4914254248142242e-02 3.2783371862024069e-03 5.0605367869138718e-02 1.3090505264699459e-02 3.1051604077219963e-02 1.1087528616189957e-01 -2.6961502153426409e-03 1.3912816345691681e-01 4.9268532544374466e-02 8.7303169071674347e-02 -5.3478788584470749e-02 -1.4247831702232361e-01 2.9499165713787079e-02 1.3946907594799995e-02 -1.2578859459608793e-03 -1.4908890007063746e-03 -1.2410943955183029e-01 1.0555068030953407e-02 -1.0422199033200741e-02 -4.1352845728397369e-02 -8.5368432104587555e-02 -9.6918046474456787e-02 -8.4147922694683075e-02 -4.1858279146254063e-03 -5.7776119560003281e-02 -1.3548885472118855e-02 -3.4920297563076019e-02 -1.2574869394302368e-01 3.5899009089916945e-03 1.4490291476249695e-01 4.9005679786205292e-02 9.1049537062644958e-02 -5.6882862001657486e-02 -1.4926317334175110e-01 2.8781907632946968e-02 1.3270596973598003e-02 -2.6258279103785753e-03 -2.1568345837295055e-03 -1.3089819252490997e-01 1.1568252928555012e-02 -1.2554403394460678e-02 -4.3688621371984482e-02 -9.1311194002628326e-02 -1.0462434589862823e-01 -9.0050525963306427e-02 -3.5528813023120165e-03 -6.1755254864692688e-02 -1.7043828964233398e-02 -3.8768310099840164e-02 -1.3190133869647980e-01 1.9204075215384364e-03 -2.1715821698307991e-02 -7.8553762286901474e-03 -1.3574167154729366e-02 8.1688268110156059e-03 2.2248789668083191e-02 -4.6238866634666920e-03 -1.9311667419970036e-03 3.0351616442203522e-04 -1.2854885426349938e-05 1.9314533099532127e-02 -1.7969945911318064e-03 1.5545862261205912e-03 6.4588100649416447e-03 1.3414119370281696e-02 1.5212222933769226e-02 1.3120653107762337e-02 6.1708420980721712e-04 8.9462390169501305e-03 2.3925555869936943e-03 5.4413359612226486e-03 1.9763167947530746e-02 -6.3258298905566335e-04 3.5768505185842514e-02 1.2783402577042580e-02 2.2415556013584137e-02 -1.3746873475611210e-02 -3.6133199930191040e-02 7.2283321060240269e-03 3.5822801291942596e-03 -1.9000691827386618e-04 -2.5615407503210008e-04 -3.1861465424299240e-02 2.8481006156653166e-03 -2.4629074614495039e-03 -1.0401085950434208e-02 -2.1978076547384262e-02 -2.5209067389369011e-02 -2.1949088200926781e-02 -5.7825300609692931e-04 -1.4412469230592251e-02 -3.9297994226217270e-03 -8.9473715052008629e-03 -3.2198149710893631e-02 9.9420931655913591e-04 -6.2242008745670319e-02 -2.2537183016538620e-02 -3.8767330348491669e-02 2.4055169895291328e-02 6.4852118492126465e-02 -1.3165881857275963e-02 -5.0924713723361492e-03 1.5095358248800039e-03 6.8798096617683768e-04 5.6522067636251450e-02 -4.7213668003678322e-03 5.1643708720803261e-03 1.8953816965222359e-02 3.9445348083972931e-02 4.4339418411254883e-02 3.8507226854562759e-02 1.8759517697617412e-03 2.6584830135107040e-02 7.2366339154541492e-03 1.6451841220259666e-02 5.7131461799144745e-02 -1.4098708052188158e-03 -5.9872854501008987e-02 -2.1273342892527580e-02 -3.7445925176143646e-02 2.3184990510344505e-02 6.1277780681848526e-02 -1.2423025444149971e-02 -5.6027499958872795e-03 8.0098619218915701e-04 9.1178633738309145e-04 5.3875580430030823e-02 -5.0197993405163288e-03 4.6507082879543304e-03 1.7684672027826309e-02 3.7028100341558456e-02 4.2637757956981659e-02 3.7001952528953552e-02 1.1919053504243493e-03 2.4838920682668686e-02 6.7710168659687042e-03 1.5184500254690647e-02 5.4628908634185791e-02 -1.5580403851345181e-03 1.6234342753887177e-01 5.6607134640216827e-02 1.0174122452735901e-01 -6.4352706074714661e-02 -1.6701468825340271e-01 3.3547684550285339e-02 1.6322450712323189e-02 -2.1804592106491327e-03 -2.3675004485994577e-03 -1.4667473733425140e-01 1.2630194425582886e-02 -1.3250284828245640e-02 -4.9169413745403290e-02 -1.0182943940162659e-01 -1.1510251462459564e-01 -9.9740348756313324e-02 -5.5452967062592506e-03 -6.9097235798835754e-02 -1.6709573566913605e-02 -4.3201208114624023e-02 -1.4729192852973938e-01 2.6351721026003361e-03 1.5065065585076809e-02 5.3998059593141079e-03 9.4070415943861008e-03 -5.7963444851338863e-03 -1.5602933242917061e-02 3.1640469096601009e-03 1.3259495608508587e-03 -2.6798940962180495e-04 -2.4158862652257085e-04 -1.3560404069721699e-02 1.1647127103060484e-03 -1.1464782292023301e-03 -4.5726806856691837e-03 -9.3527194112539291e-03 -1.0708297602832317e-02 -9.2408563941717148e-03 -3.4181878436356783e-04 -6.2901116907596588e-03 -1.8415745580568910e-03 -3.8151182234287262e-03 -1.3692376203835011e-02 3.4782951115630567e-04 1.3815075159072876e-01 4.7749303281307220e-02 8.6542330682277679e-02 -5.4302286356687546e-02 -1.4153532683849335e-01 2.8665546327829361e-02 1.3028539717197418e-02 -2.0238570868968964e-03 -1.8869655905291438e-03 -1.2433665245771408e-01 1.0649041272699833e-02 -1.1197971180081367e-02 -4.1696187108755112e-02 -8.6998201906681061e-02 -9.7986049950122833e-02 -8.5072815418243408e-02 -4.4424212537705898e-03 -5.8284644037485123e-02 -1.5402114018797874e-02 -3.6169394850730896e-02 -1.2583798170089722e-01 2.5169828440994024e-03 -6.8727089092135429e-03 -2.4668106343597174e-03 -4.2901402339339256e-03 2.6205470785498619e-03 7.0820576511323452e-03 -1.4500529505312443e-03 -6.1358348466455936e-04 1.0118688078364357e-04 7.3683571827132255e-05 6.1436584219336510e-03 -5.3701805882155895e-04 5.0376047147437930e-04 2.0914382766932249e-03 4.2493366636335850e-03 4.8539438284933567e-03 4.1875345632433891e-03 1.7112096247728914e-04 2.8457227163016796e-03 8.0467999214306474e-04 1.7492010956630111e-03 6.2320665456354618e-03 -1.6395073907915503e-04 -5.4990295320749283e-02 -1.9389692693948746e-02 -3.4376427531242371e-02 2.1291332319378853e-02 5.6524299085140228e-02 -1.1227794922888279e-02 -4.8334458842873573e-03 1.0299449786543846e-03 5.1442562835291028e-04 4.9573730677366257e-02 -4.6073487028479576e-03 4.2399917729198933e-03 1.6641728579998016e-02 3.4609541296958923e-02 3.9291020482778549e-02 3.3954586833715439e-02 1.2952982215210795e-03 2.2975772619247437e-02 6.6508469171822071e-03 1.4201354235410690e-02 4.9990650266408920e-02 -9.8960171453654766e-04 -8.4976397454738617e-02 -3.0927941203117371e-02 -5.3117208182811737e-02 3.2380610704421997e-02 8.6567230522632599e-02 -1.8281081691384315e-02 -8.3302119746804237e-03 7.3940231231972575e-04 5.9373379917815328e-04 7.5369715690612793e-02 -6.5391268581151962e-03 5.7442057877779007e-03 2.5412952527403831e-02 5.2161086350679398e-02 5.8910649269819260e-02 5.1161639392375946e-02 2.4763641413301229e-03 3.4738656133413315e-02 8.3993300795555115e-03 2.0869325846433640e-02 7.6678775250911713e-02 -2.5102447252720594e-03 -1.5260665118694305e-01 -5.2478246390819550e-02 -9.5605626702308655e-02 6.1081860214471817e-02 1.5745903551578522e-01 -3.0604179948568344e-02 -1.4860712923109531e-02 2.6012135203927755e-03 3.3428014721721411e-03 1.3923506438732147e-01 -1.1823452077805996e-02 1.3082890771329403e-02 4.6731222420930862e-02 9.6357904374599457e-02 1.1039208620786667e-01 9.5589153468608856e-02 3.8035733159631491e-03 6.5178379416465759e-02 1.6600759699940681e-02 4.0459290146827698e-02 1.3862296938896179e-01 -2.5022458285093307e-03 -1.0218668729066849e-01 -3.6054763942956924e-02 -6.3893631100654602e-02 3.8965765386819839e-02 1.0582271218299866e-01 -2.1864244714379311e-02 -8.8808480650186539e-03 1.9895734731107950e-03 6.6366692772135139e-04 9.1456666588783264e-02 -8.3558624610304832e-03 7.8327711671590805e-03 3.1386923044919968e-02 6.3717216253280640e-02 7.2159409523010254e-02 6.1888720840215683e-02 3.5746633075177670e-03 4.3080814182758331e-02 1.1653460562229156e-02 2.6257919147610664e-02 9.2971332371234894e-02 -2.1076274570077658e-03 2.9086045920848846e-02 1.0232956148684025e-02 1.8192339688539505e-02 -1.1327493004500866e-02 -2.9659429565072060e-02 5.9498660266399384e-03 2.7869364712387323e-03 -2.8370128711685538e-04 -3.0942755984142423e-04 -2.6004092767834663e-02 2.3148376494646072e-03 -2.0208857022225857e-03 -8.6870724335312843e-03 -1.7942354083061218e-02 -2.0616274327039719e-02 -1.7817003652453423e-02 -6.0033000772818923e-04 -1.1860348284244537e-02 -3.3043234143406153e-03 -7.2649265639483929e-03 -2.6309510692954063e-02 8.3360029384493828e-04 -5.4550740867853165e-02 -1.9575320184230804e-02 -3.3966630697250366e-02 2.1247325465083122e-02 5.6812576949596405e-02 -1.1440207250416279e-02 -4.5649353414773941e-03 1.1613614624366164e-03 4.6871881932020187e-04 4.9254968762397766e-02 -4.1014580056071281e-03 4.2001293040812016e-03 1.6872910782694817e-02 3.4544028341770172e-02 3.8763754069805145e-02 3.3476028591394424e-02 1.7175785033032298e-03 2.3062177002429962e-02 6.5041952766478062e-03 1.4307623729109764e-02 4.9803294241428375e-02 -1.2926590861752629e-03 -6.5949372947216034e-02 -2.3488176986575127e-02 -4.1225772351026535e-02 2.5441344827413559e-02 6.7821584641933441e-02 -1.3593140058219433e-02 -5.9701288118958473e-03 9.9645229056477547e-04 7.3381676338613033e-04 5.9069301933050156e-02 -5.3675100207328796e-03 5.0106858834624290e-03 1.9671326503157616e-02 4.0895026177167892e-02 4.6851582825183868e-02 4.0471844375133514e-02 1.5007714973762631e-03 2.7416886761784554e-02 7.2342455387115479e-03 1.6626266762614250e-02 6.0183938592672348e-02 -1.9189760787412524e-03 6.4742088317871094e-02 2.2893959656357765e-02 4.0540833026170731e-02 -2.4758653715252876e-02 -6.5641157329082489e-02 1.3348688371479511e-02 6.1429627239704132e-03 -5.9503439115360379e-04 9.8147909739054739e-05 -5.7575177401304245e-02 5.3281169384717941e-03 -4.4912965968251228e-03 -1.9261654466390610e-02 -4.0106106549501419e-02 -4.5435387641191483e-02 -3.9369385689496994e-02 -1.7658808501437306e-03 -2.6402467861771584e-02 -7.1209226734936237e-03 -1.6461929306387901e-02 -5.8392338454723358e-02 1.5456152614206076e-03 -1.8376965075731277e-02 -6.6439947113394737e-03 -1.1469855904579163e-02 7.0518385618925095e-03 1.8983624875545502e-02 -3.8424758240580559e-03 -1.6547667328268290e-03 3.1115548335947096e-04 2.0996356033720076e-04 1.6507385298609734e-02 -1.4916093787178397e-03 1.4092989731580019e-03 5.5195433087646961e-03 1.1383065022528172e-02 1.3070943765342236e-02 1.1293571442365646e-02 3.8333155680447817e-04 7.6647852547466755e-03 2.0513893105089664e-03 4.6796374954283237e-03 1.6729850322008133e-02 -4.7223881119862199e-04 -5.5822592228651047e-02 -1.9997699186205864e-02 -3.4748744219541550e-02 2.2035105153918266e-02 5.7829212397336960e-02 -1.1737237684428692e-02 -4.8547927290201187e-03 1.1164679890498519e-03 7.6049205381423235e-04 5.0765134394168854e-02 -4.5881769619882107e-03 4.5644752681255341e-03 1.6751861199736595e-02 3.5428829491138458e-02 4.0076922625303268e-02 3.4868367016315460e-02 1.3746904442086816e-03 2.3672863841056824e-02 6.6270148381590843e-03 1.4675271697342396e-02 5.1524862647056580e-02 -1.5461649745702744e-03 -1.2314409948885441e-02 -4.4664843007922173e-03 -7.6764114201068878e-03 4.7278637066483498e-03 1.2689660303294659e-02 -2.6374037843197584e-03 -1.1265387292951345e-03 1.5030344366095960e-04 8.6837622802704573e-05 1.0990344919264317e-02 -9.5080659957602620e-04 8.9003518223762512e-04 3.6597154103219509e-03 7.5762099586427212e-03 8.6593562737107277e-03 7.5142830610275269e-03 3.0669060652144253e-04 5.0789858214557171e-03 1.3472500722855330e-03 3.1119592022150755e-03 1.1209347285330296e-02 -3.7334466469474137e-04 8.7797576561570168e-03 3.0623055063188076e-03 5.5060544982552528e-03 -3.3435495570302010e-03 -8.9817056432366371e-03 1.7752452986314893e-03 7.6704256935045123e-04 -1.3438588939607143e-04 -3.7299585528671741e-05 -7.8420741483569145e-03 7.2557403473183513e-04 -6.6186155891045928e-04 -2.6419633068144321e-03 -5.4723983630537987e-03 -6.2452629208564758e-03 -5.3781582973897457e-03 -1.8369432655163109e-04 -3.6204857751727104e-03 -1.1104345321655273e-03 -2.2602225653827190e-03 -7.9079000279307365e-03 1.4078324602451175e-04 1.4658148586750031e-01 5.1580429077148438e-02 9.1603539884090424e-02 -5.7262945920228958e-02 -1.5168824791908264e-01 3.0858894810080528e-02 1.2591989710927010e-02 -3.1701189000159502e-03 -1.9852048717439175e-03 -1.3212364912033081e-01 1.1884883977472782e-02 -1.2783044949173927e-02 -4.5287653803825378e-02 -9.2830315232276917e-02 -1.0380254685878754e-01 -8.9869499206542969e-02 -5.3125279955565929e-03 -6.3340768218040466e-02 -1.6019517555832863e-02 -3.9620518684387207e-02 -1.3535875082015991e-01 2.8683859854936600e-03 -8.1979237496852875e-02 -2.9118778184056282e-02 -5.1126006990671158e-02 3.2934714108705521e-02 8.4365695714950562e-02 -1.6439707949757576e-02 -7.6249111443758011e-03 1.3221190311014652e-03 1.6912808641791344e-03 7.4597738683223724e-02 -6.2759248539805412e-03 6.8351575173437595e-03 2.4435354396700859e-02 5.1591750234365463e-02 5.8949086815118790e-02 5.1516514271497726e-02 1.5574212884530425e-03 3.4608662128448486e-02 9.2858867719769478e-03 2.1793818101286888e-02 7.5251385569572449e-02 -1.8447316251695156e-03 1.6685606678947806e-03 6.0815451433882117e-04 1.0411312105134130e-03 -6.2787625938653946e-04 -1.7262499313801527e-03 3.5892310552299023e-04 1.4236482093110681e-04 -3.1429975933860987e-05 -6.8162612478772644e-06 -1.4939733082428575e-03 1.3476228923536837e-04 -1.2529839295893908e-04 -5.0048116827383637e-04 -1.0424812790006399e-03 -1.1766988318413496e-03 -1.0163580300286412e-03 -4.7922978410497308e-05 -6.9718208396807313e-04 -1.9498179608490318e-04 -4.2885937727987766e-04 -1.5192870050668716e-03 3.7384157622000203e-05 1.3173891603946686e-01 4.5744102448225021e-02 8.2475475966930389e-02 -5.2091069519519806e-02 -1.3523505628108978e-01 2.7234667912125587e-02 1.2672686949372292e-02 -2.0472472533583641e-03 -2.7287420816719532e-03 -1.1901605129241943e-01 1.0952392593026161e-02 -1.0802625678479671e-02 -3.9370868355035782e-02 -8.2432352006435394e-02 -9.4405218958854675e-02 -8.1621527671813965e-02 -3.3095183316618204e-03 -5.5753607302904129e-02 -1.3823188841342926e-02 -3.4254599362611771e-02 -1.2067937850952148e-01 2.9678568243980408e-03 -1.3028967380523682e-01 -4.5718215405941010e-02 -8.1184841692447662e-02 5.1798943430185318e-02 1.3552637398242950e-01 -2.7394022792577744e-02 -1.1256609112024307e-02 3.0988599173724651e-03 2.0536726806312799e-03 1.1910756677389145e-01 -1.0512417182326317e-02 1.1477006599307060e-02 4.0740020573139191e-02 8.3317711949348450e-02 9.3501821160316467e-02 8.1270389258861542e-02 4.4194520451128483e-03 5.6441482156515121e-02 1.5475530177354813e-02 3.5821411758661270e-02 1.1982353776693344e-01 -1.7854741308838129e-03 -4.6047445386648178e-02 -1.6369679942727089e-02 -2.8753573074936867e-02 1.7675261944532394e-02 4.7469817101955414e-02 -9.6292644739151001e-03 -4.0938891470432281e-03 7.7827280620113015e-04 6.4726528944447637e-04 4.1295405477285385e-02 -3.7485191132873297e-03 3.4661060199141502e-03 1.3864947482943535e-02 2.8655506670475006e-02 3.2898508012294769e-02 2.8287878260016441e-02 9.1460172552615404e-04 1.9163932651281357e-02 5.3645940497517586e-03 1.1792162433266640e-02 4.2030278593301773e-02 -1.0808217339217663e-03 1.6664180159568787e-01 5.6556861847639084e-02 1.0461172461509705e-01 -6.5719686448574066e-02 -1.7059120535850525e-01 3.3894252032041550e-02 1.6045102849602699e-02 -2.3692750837653875e-03 -2.3398492485284805e-03 -1.5006142854690552e-01 1.2880699709057808e-02 -1.3670882210135460e-02 -5.1072590053081512e-02 -1.0516676306724548e-01 -1.1819128692150116e-01 -1.0234668105840683e-01 -5.6760408915579319e-03 -7.0712357759475708e-02 -1.7977952957153320e-02 -4.3956972658634186e-02 -1.5144033730030060e-01 2.8907624073326588e-03 5.2028964273631573e-03 1.8621559720486403e-03 3.2569360919296741e-03 -1.9574214238673449e-03 -5.3261015564203262e-03 1.0842948686331511e-03 4.7319478471763432e-04 -6.4972344262059778e-05 -3.2875526812858880e-05 -4.6209595166146755e-03 4.0931787225417793e-04 -3.6550092045217752e-04 -1.5613411087542772e-03 -3.1867369543761015e-03 -3.6572124809026718e-03 -3.1514964066445827e-03 -1.1506481678225100e-04 -2.1273181773722172e-03 -5.9819017769768834e-04 -1.3062087818980217e-03 -4.6826014295220375e-03 1.0800290328916162e-04 8.0024525523185730e-02 2.8017640113830566e-02 5.0111003220081329e-02 -3.0864758417010307e-02 -8.1926897168159485e-02 1.6394391655921936e-02 7.3160110041499138e-03 -1.2327607255429029e-03 -5.9058639453724027e-04 -7.1781046688556671e-02 6.5468787215650082e-03 -5.9541994705796242e-03 -2.3854097351431847e-02 -4.9994118511676788e-02 -5.6745927780866623e-02 -4.8995960503816605e-02 -2.1084165200591087e-03 -3.3242668956518173e-02 -9.0988529846072197e-03 -2.0439188927412033e-02 -7.2276741266250610e-02 1.5671590808779001e-03 2.7758199721574783e-02 1.0120191611349583e-02 1.7298938706517220e-02 -1.0655177757143974e-02 -2.8467006981372833e-02 5.9679495170712471e-03 2.6224942412227392e-03 -3.2434306922368705e-04 -2.8354048845358193e-04 -2.4817172437906265e-02 2.1955014672130346e-03 -1.9421139732003212e-03 -8.2538723945617676e-03 -1.7106337472796440e-02 -1.9477955996990204e-02 -1.6916476190090179e-02 -6.9107004674151540e-04 -1.1409485712647438e-02 -2.9682193417102098e-03 -6.9430572912096977e-03 -2.5319835171103477e-02 8.6230901069939137e-04 7.1879550814628601e-02 2.5066675618290901e-02 4.5016162097454071e-02 -2.7974193915724754e-02 -7.3618359863758087e-02 1.4396682381629944e-02 6.8514654412865639e-03 -9.1693561989814043e-04 -1.0699105914682150e-03 -6.4728334546089172e-02 5.7980474084615707e-03 -5.5761085823178291e-03 -2.1012771874666214e-02 -4.4689625501632690e-02 -5.1773108541965485e-02 -4.4744357466697693e-02 -1.0746229672804475e-03 -2.9781384393572807e-02 -8.3920890465378761e-03 -1.8504619598388672e-02 -6.5139606595039368e-02 1.3104553800076246e-03 -5.7132523506879807e-02 -2.0242564380168915e-02 -3.5741243511438370e-02 2.1386163309216499e-02 5.8774217963218689e-02 -1.2264914810657501e-02 -4.9794446676969528e-03 9.2989974655210972e-04 7.2175491368398070e-05 5.0797928124666214e-02 -4.7984886914491653e-03 4.0320120751857758e-03 1.7493437975645065e-02 3.5406086593866348e-02 4.0110789239406586e-02 3.4376967698335648e-02 1.8190351547673345e-03 2.3603647947311401e-02 6.7281629890203476e-03 1.4372438192367554e-02 5.1687393337488174e-02 -1.3410396641120315e-03 1.1690927669405937e-02 4.1511422023177147e-03 7.2884284891188145e-03 -4.6414453536272049e-03 -1.2024944648146629e-02 2.3912333417683840e-03 1.0652148630470037e-03 -1.7291185213252902e-04 -1.8920138245448470e-04 -1.0598938912153244e-02 9.7887055017054081e-04 -9.0874952729791403e-04 -3.5307188518345356e-03 -7.3348148725926876e-03 -8.4208846092224121e-03 -7.3026567697525024e-03 -1.8727403949014843e-04 -4.8690964467823505e-03 -1.4181806473061442e-03 -3.0614694114774466e-03 -1.0750390589237213e-02 3.2010814175009727e-04 -1.7094396054744720e-01 -5.9448037296533585e-02 -1.0748841613531113e-01 6.5945789217948914e-02 1.7494769394397736e-01 -3.4768715500831604e-02 -1.6724154353141785e-02 2.1868005860596895e-03 1.1129982303828001e-03 1.5328039228916168e-01 -1.2920120730996132e-02 1.3774511404335499e-02 5.2910380065441132e-02 1.0708196461200714e-01 1.2009237706661224e-01 1.0392864048480988e-01 6.0531622730195522e-03 7.2141267359256744e-02 1.8206624314188957e-02 4.5186504721641541e-02 1.5414534509181976e-01 -2.5123166851699352e-03 -1.7118233442306519e-01 -5.9136372059583664e-02 -1.0739114880561829e-01 6.7846052348613739e-02 1.7706309258937836e-01 -3.4968372434377670e-02 -1.6294352710247040e-02 3.0593075789511204e-03 3.9682080969214439e-03 1.5522821247577667e-01 -1.3365034945309162e-02 1.5240271575748920e-02 5.2374158054590225e-02 1.0790605098009109e-01 1.2221124023199081e-01 1.0591893643140793e-01 5.3255446255207062e-03 7.3866575956344604e-02 1.7416674643754959e-02 4.4955212622880936e-02 1.5731720626354218e-01 -4.1518956422805786e-03 -1.7859725281596184e-02 -6.4457813277840614e-03 -1.1066365055739880e-02 7.2156707756221294e-03 1.8823225051164627e-02 -3.7654761690646410e-03 -1.3494064332917333e-03 5.5211829021573067e-04 3.4570941352285445e-04 1.6595445573329926e-02 -1.4325665542855859e-03 1.6493566799908876e-03 5.5912146344780922e-03 1.1573798954486847e-02 1.3000627048313618e-02 1.1361042037606239e-02 4.9133051652461290e-04 7.8394226729869843e-03 2.3091062903404236e-03 4.9677356146275997e-03 1.6728499904274940e-02 -4.1855307063087821e-04 -1.3728469610214233e-01 -4.8672668635845184e-02 -8.6092196404933929e-02 5.3489744663238525e-02 1.4149498939514160e-01 -2.8442934155464172e-02 -1.3083384372293949e-02 2.3026182316243649e-03 2.3401111830025911e-03 1.2397824972867966e-01 -1.0795233771204948e-02 1.1510711163282394e-02 4.1414491832256317e-02 8.5647165775299072e-02 9.7873099148273468e-02 8.4667399525642395e-02 3.4705009311437607e-03 5.8182079344987869e-02 1.4476981945335865e-02 3.6025680601596832e-02 1.2539218366146088e-01 -3.0103949829936028e-03 -1.1228328570723534e-02 -3.9828321896493435e-03 -6.9840755313634872e-03 4.4516837224364281e-03 1.1660917662084103e-02 -2.3693060502409935e-03 -9.7961083520203829e-04 2.1831318736076355e-04 1.3582488463725895e-04 1.0190953500568867e-02 -9.1832893667742610e-04 9.0261257719248533e-04 3.3510238863527775e-03 7.1030012331902981e-03 8.0204866826534271e-03 6.9928937591612339e-03 2.9219366842880845e-04 4.7388547100126743e-03 1.3477208558470011e-03 2.9149097390472889e-03 1.0354924015700817e-02 -3.2836131867952645e-04 -1.9022682681679726e-02 -6.8366276100277901e-03 -1.1856338009238243e-02 7.3079420253634453e-03 1.9666774198412895e-02 -4.0617478080093861e-03 -1.6815852141007781e-03 3.0581527971662581e-04 2.2288839682005346e-04 1.7079986631870270e-02 -1.5066852793097496e-03 1.4392248122021556e-03 5.7991566136479378e-03 1.1812421493232250e-02 1.3463063165545464e-02 1.1674430221319199e-02 4.6554591972380877e-04 7.9133016988635063e-03 2.2422084584832191e-03 4.8759845085442066e-03 1.7393475398421288e-02 -5.2371644414961338e-04 -1.5765272080898285e-01 -5.3534667938947678e-02 -9.8998144268989563e-02 6.1811819672584534e-02 1.6235944628715515e-01 -3.1691964715719223e-02 -1.4530623331665993e-02 2.9224765021353960e-03 1.9827508367598057e-03 1.4217896759510040e-01 -1.2798215262591839e-02 1.3494616374373436e-02 4.8820536583662033e-02 9.9926330149173737e-02 1.1301897466182709e-01 9.7389288246631622e-02 4.8007131554186344e-03 6.7396715283393860e-02 1.8340339884161949e-02 4.2104370892047882e-02 1.4291036128997803e-01 -1.7585200257599354e-03 1.3632819056510925e-01 4.8533495515584946e-02 8.5615277290344238e-02 -5.1619306206703186e-02 -1.3907815515995026e-01 2.9250958934426308e-02 1.2996510602533817e-02 -1.5023623127490282e-03 -5.0133961485698819e-04 -1.2083313614130020e-01 1.0441637597978115e-02 -9.8333340138196945e-03 -4.2017783969640732e-02 -8.4366582334041595e-02 -9.4035789370536804e-02 -8.1333681941032410e-02 -5.1725897938013077e-03 -5.6516893208026886e-02 -1.4023442752659321e-02 -3.4502718597650528e-02 -1.2303398549556732e-01 3.5055326297879219e-03 1.5333297848701477e-01 5.3072188049554825e-02 9.6290118992328644e-02 -6.0958720743656158e-02 -1.5697403252124786e-01 3.0651165172457695e-02 1.5605676919221878e-02 -1.8301355885341763e-03 -2.9289238154888153e-03 -1.3854637742042542e-01 1.1594815179705620e-02 -1.2387655675411224e-02 -4.5926336199045181e-02 -9.5824562013149261e-02 -1.0940614342689514e-01 -9.4826236367225647e-02 -3.9269048720598221e-03 -6.4536802470684052e-02 -1.5851436182856560e-02 -4.0349937975406647e-02 -1.3863070309162140e-01 2.6315329596400261e-03 -8.5118763148784637e-02 -3.0540207400918007e-02 -5.3093884140253067e-02 3.2570175826549530e-02 8.8336892426013947e-02 -1.8212363123893738e-02 -7.2930785827338696e-03 1.7827070550993085e-03 7.6165876816958189e-04 7.6484575867652893e-02 -6.5798703581094742e-03 6.7344713024795055e-03 2.5855027139186859e-02 5.3305301815271378e-02 6.0087092220783234e-02 5.1953759044408798e-02 2.9475858900696039e-03 3.6050632596015930e-02 9.5247682183980942e-03 2.1971741691231728e-02 7.7565759420394897e-02 -1.8388974713161588e-03 -6.8653859198093414e-02 -2.4483777582645416e-02 -4.2782235890626907e-02 2.7273444458842278e-02 7.1024149656295776e-02 -1.4433211646974087e-02 -6.2686903402209282e-03 1.2313970364630222e-03 1.4267179649323225e-03 6.2206957489252090e-02 -5.7390979491174221e-03 5.6019877083599567e-03 2.0559731870889664e-02 4.3121401220560074e-02 4.9467183649539948e-02 4.2769402265548706e-02 1.5029554488137364e-03 2.8997786343097687e-02 7.8766215592622757e-03 1.7894895747303963e-02 6.3255324959754944e-02 -1.8085270421579480e-03 1.3721975684165955e-01 4.7823525965213776e-02 8.5729174315929413e-02 -5.4176427423954010e-02 -1.4191247522830963e-01 2.8644444420933723e-02 1.2379088439047337e-02 -2.7768884319812059e-03 -1.6876587178558111e-03 -1.2454739212989807e-01 1.0845336131751537e-02 -1.1605444364249706e-02 -4.2453199625015259e-02 -8.7061569094657898e-02 -9.8062999546527863e-02 -8.4915362298488617e-02 -4.5723845250904560e-03 -5.8806881308555603e-02 -1.5629896894097328e-02 -3.7362847477197647e-02 -1.2519025802612305e-01 1.9363895989954472e-03 8.1175975501537323e-02 2.8638131916522980e-02 5.1072835922241211e-02 -3.0021889135241508e-02 -8.2342222332954407e-02 1.6885818913578987e-02 7.7256723307073116e-03 -7.0843356661498547e-04 -3.8872531149536371e-04 -7.1436628699302673e-02 6.5314206294715405e-03 -5.4495106451213360e-03 -2.3942917585372925e-02 -4.9609061330556870e-02 -5.7003688067197800e-02 -4.8734169453382492e-02 -1.6709954943507910e-03 -3.2823804765939713e-02 -8.8076414540410042e-03 -1.9778542220592499e-02 -7.2696119546890259e-02 1.9572293385863304e-03 -1.3715569674968719e-01 -4.7442577779293060e-02 -8.6165003478527069e-02 5.2638430148363113e-02 1.3911880552768707e-01 -2.8277136385440826e-02 -1.3534630648791790e-02 1.1374456807971001e-03 6.5254740184172988e-04 1.2183014303445816e-01 -1.0879119858145714e-02 9.8907668143510818e-03 4.1248366236686707e-02 8.5225798189640045e-02 9.5989674329757690e-02 8.3035074174404144e-02 4.4337813742458820e-03 5.6566134095191956e-02 1.4732649549841881e-02 3.5028118640184402e-02 1.2333489209413528e-01 -2.6473493780940771e-03 -8.9091859757900238e-02 -3.1927864998579025e-02 -5.5793862789869308e-02 3.3929735422134399e-02 9.1507486999034882e-02 -1.8320225179195404e-02 -8.1200208514928818e-03 1.3664087746292353e-03 9.4114698003977537e-04 7.9842276871204376e-02 -7.0086512714624405e-03 6.7459479905664921e-03 2.7138674631714821e-02 5.5061642080545425e-02 6.3023969531059265e-02 5.4414864629507065e-02 2.1390118636190891e-03 3.7111137062311172e-02 9.8233427852392197e-03 2.2849021479487419e-02 8.0521114170551300e-02 -1.7278806772083044e-03 3.7259113043546677e-02 1.3404562138020992e-02 2.3257926106452942e-02 -1.4505711384117603e-02 -3.8346555083990097e-02 7.7396305277943611e-03 3.2442002557218075e-03 -7.1838800795376301e-04 -3.9932137588039041e-04 -3.3723909407854080e-02 3.0598335433751345e-03 -2.9810725245624781e-03 -1.1173556558787823e-02 -2.3485627025365829e-02 -2.6575205847620964e-02 -2.3116255179047585e-02 -8.7500113295391202e-04 -1.5634562820196152e-02 -4.3937503360211849e-03 -9.6499212086200714e-03 -3.4012209624052048e-02 8.2960049621760845e-04 -4.0447529405355453e-02 -1.4602609910070896e-02 -2.5183044373989105e-02 1.5689458698034286e-02 4.1817102581262589e-02 -8.6265588179230690e-03 -3.6487181205302477e-03 6.5586122218519449e-04 5.0299841677770019e-04 3.6477874964475632e-02 -3.2190082129091024e-03 3.0479140114039183e-03 1.2142955325543880e-02 2.5063460692763329e-02 2.8518734499812126e-02 2.4788239970803261e-02 1.1030056048184633e-03 1.6883639618754387e-02 4.3618963100016117e-03 1.0250929743051529e-02 3.6974813789129257e-02 -1.2438278645277023e-03 6.7788571119308472e-02 2.3229947313666344e-02 4.2427916079759598e-02 -2.6567509397864342e-02 -7.0169486105442047e-02 1.3602931983768940e-02 5.9090228751301765e-03 -1.3030176050961018e-03 -1.1033974587917328e-03 -6.1367560178041458e-02 5.5736918002367020e-03 -5.6320060975849628e-03 -2.0183943212032318e-02 -4.2663298547267914e-02 -4.9354512244462967e-02 -4.2330708354711533e-02 -1.1323364451527596e-03 -2.8566814959049225e-02 -8.5752727463841438e-03 -1.7984731122851372e-02 -6.1978820711374283e-02 1.1647085193544626e-03 1.7946118488907814e-02 6.4512095414102077e-03 1.1188732460141182e-02 -6.7898742854595184e-03 -1.8577765673398972e-02 3.8821294438093901e-03 1.5100573655217886e-03 -3.5315795685164630e-04 -4.8752961447462440e-05 -1.6106404364109039e-02 1.5568584203720093e-03 -1.3676541857421398e-03 -5.4625854827463627e-03 -1.1215304955840111e-02 -1.2691282667219639e-02 -1.0929213836789131e-02 -5.4937327513471246e-04 -7.5201094150543213e-03 -2.0835038740187883e-03 -4.6177161857485771e-03 -1.6466336324810982e-02 5.0934188766404986e-04 -6.5251812338829041e-02 -2.3154562339186668e-02 -4.0870111435651779e-02 2.5288853794336319e-02 6.6218756139278412e-02 -1.3136187568306923e-02 -6.2865717336535454e-03 5.6028051767498255e-04 6.0679041780531406e-04 5.8315165340900421e-02 -5.1680002361536026e-03 4.6875895932316780e-03 1.9477805122733116e-02 4.0397562086582184e-02 4.6146325767040253e-02 4.0142241865396500e-02 1.2056847335770726e-03 2.6618160307407379e-02 7.4519664049148560e-03 1.6527850180864334e-02 5.8966621756553650e-02 -1.6559686046093702e-03 9.0336548164486885e-03 3.2280702143907547e-03 5.6549496948719025e-03 -3.3792513422667980e-03 -9.2351576313376427e-03 1.8788642482832074e-03 7.9811591422185302e-04 -1.2001611321466044e-04 1.7135176676674746e-05 -8.0346213653683662e-03 6.9349602563306689e-04 -6.1810499755665660e-04 -2.7344606351107359e-03 -5.5824643932282925e-03 -6.3056075014173985e-03 -5.4576639086008072e-03 -2.4885180755518377e-04 -3.6938763223588467e-03 -1.0601984104141593e-03 -2.2709108889102936e-03 -8.1183584406971931e-03 1.9895055447705090e-04 -1.0157023370265961e-01 -3.5541061311960220e-02 -6.3663139939308167e-02 3.9253730326890945e-02 1.0367009788751602e-01 -2.0753186196088791e-02 -9.6786329522728920e-03 1.2214127928018570e-03 1.6045682132244110e-03 9.1201096773147583e-02 -8.5790669545531273e-03 7.8802555799484253e-03 2.9998935759067535e-02 6.2821015715599060e-02 7.2268426418304443e-02 6.2468145042657852e-02 2.1485749166458845e-03 4.2134020477533340e-02 1.1051501147449017e-02 2.5970477610826492e-02 9.2800199985504150e-02 -2.7314210310578346e-03 2.4303354322910309e-02 8.7702805176377296e-03 1.5106220729649067e-02 -9.6699828281998634e-03 -2.5301299989223480e-02 5.1326658576726913e-03 2.1014912053942680e-03 -5.0776678835973144e-04 -2.9371640994213521e-04 -2.2202767431735992e-02 1.9576752092689276e-03 -1.9892293494194746e-03 -7.3601757176220417e-03 -1.5357948839664459e-02 -1.7363768070936203e-02 -1.5186415985226631e-02 -6.8668683525174856e-04 -1.0319143533706665e-02 -2.9238665010780096e-03 -6.4880833961069584e-03 -2.2410191595554352e-02 6.1765656573697925e-04 -1.2281128764152527e-01 -4.3014541268348694e-02 -7.6905362308025360e-02 4.7960650175809860e-02 1.2741924822330475e-01 -2.5368848815560341e-02 -1.1081959120929241e-02 2.5034253485500813e-03 2.6479554362595081e-03 1.1142150312662125e-01 -9.1856047511100769e-03 1.0416421107947826e-02 3.7535365670919418e-02 7.6987884938716888e-02 8.7805218994617462e-02 7.5816631317138672e-02 3.3796520438045263e-03 5.2470639348030090e-02 1.3827554881572723e-02 3.1893193721771240e-02 1.1223085969686508e-01 -2.6424874085932970e-03 -2.2597394883632660e-02 -8.0104833468794823e-03 -1.4045407995581627e-02 8.9716315269470215e-03 2.3541290313005447e-02 -4.8174811527132988e-03 -1.8637380562722683e-03 5.1690294640138745e-04 3.5996924270875752e-04 2.0611340180039406e-02 -1.7883217660710216e-03 1.8820023396983743e-03 6.8321572616696358e-03 1.4413553290069103e-02 1.6258222982287407e-02 1.4137123711407185e-02 6.1222707154229283e-04 9.6374452114105225e-03 2.7880806010216475e-03 5.9866644442081451e-03 2.0925903692841530e-02 -5.9298815904185176e-04 -3.0678508803248405e-02 -1.0839339345693588e-02 -1.9152799621224403e-02 1.1731658130884171e-02 3.1581670045852661e-02 -6.4426837489008904e-03 -2.7829871978610754e-03 4.0684870327822864e-04 2.8205005219206214e-04 2.7362024411559105e-02 -2.3507587611675262e-03 2.1813372150063515e-03 9.3003856018185616e-03 1.8908414989709854e-02 2.1625256165862083e-02 1.8628798425197601e-02 8.1295170821249485e-04 1.2660391628742218e-02 3.4503259230405092e-03 7.7552739530801773e-03 2.7784321457147598e-02 -8.1986107397824526e-04 -5.3374212235212326e-02 -1.8816124647855759e-02 -3.3315889537334442e-02 2.0885638892650604e-02 5.5108666419982910e-02 -1.0927870869636536e-02 -4.5522418804466724e-03 1.1297494638711214e-03 7.4216007487848401e-04 4.8345271497964859e-02 -4.3757311068475246e-03 4.3673706240952015e-03 1.6312941908836365e-02 3.3951107412576675e-02 3.8548383861780167e-02 3.3244948834180832e-02 1.2183604994788766e-03 2.2572761401534081e-02 6.7173158749938011e-03 1.4177775010466576e-02 4.8902224749326706e-02 -9.1801240341737866e-04 -1.0360429435968399e-01 -3.7795551121234894e-02 -6.4691610634326935e-02 3.9985824376344681e-02 1.0597768425941467e-01 -2.2237746044993401e-02 -9.9113574251532555e-03 1.2661822838708758e-03 7.9893181100487709e-04 9.2440851032733917e-02 -7.9828146845102310e-03 7.4348701164126396e-03 3.1551152467727661e-02 6.4251311123371124e-02 7.2019793093204498e-02 6.2689289450645447e-02 3.3967900089919567e-03 4.3036013841629028e-02 1.0206352919340134e-02 2.6065284386277199e-02 9.4100631773471832e-02 -3.0095276888459921e-03 -5.3480368107557297e-02 -1.8833385780453682e-02 -3.3470414578914642e-02 2.0743992179632187e-02 5.4654989391565323e-02 -1.0914813727140427e-02 -5.1284870132803917e-03 5.8169825933873653e-04 7.2327128145843744e-04 4.7882549464702606e-02 -4.1520134545862675e-03 3.7950007244944572e-03 1.5964951366186142e-02 3.3109147101640701e-02 3.7977647036314011e-02 3.2892249524593353e-02 1.0520356008782983e-03 2.1890826523303986e-02 6.3096228986978531e-03 1.3601958751678467e-02 4.8130713403224945e-02 -1.0922939982265234e-03 6.0058448463678360e-02 2.1560970693826675e-02 3.7330877035856247e-02 -2.3307701572775841e-02 -6.3061699271202087e-02 1.3030685484409332e-02 4.8325187526643276e-03 -1.6357512213289738e-03 -7.3118507862091064e-04 -5.4625194519758224e-02 5.0164842978119850e-03 -5.0011975690722466e-03 -1.8417250365018845e-02 -3.8007341325283051e-02 -4.2970631271600723e-02 -3.7035521119832993e-02 -2.0357265602797270e-03 -2.5854818522930145e-02 -7.0399329997599125e-03 -1.5929950401186943e-02 -5.5537883192300797e-02 1.4487990410998464e-03 
      </Weights>
      <Biases rows="128" cols="1">
        -1.5217804908752441e-01 2.2859764099121094e-01 -3.6989343352615833e-03 2.7357810735702515e-01 -2.7398718520998955e-02 2.7936246991157532e-01 -2.6439669728279114e-01 5.9033818542957306e-02 -3.4295031428337097e-01 2.1697800606489182e-02 -4.5718511939048767e-01 -4.9598846584558487e-02 1.6444501280784607e-01 2.0509508252143860e-01 1.9717794656753540e-01 -1.0556168109178543e-01 -1.9862104952335358e-01 1.2103281170129776e-01 3.8108795881271362e-02 -2.1449841558933258e-01 1.2578608095645905e-01 -1.7814062535762787e-01 -2.8806486725807190e-01 1.1988446861505508e-01 1.0113668441772461e-01 3.7240976095199585e-01 2.8728446364402771e-01 1.3506573438644409e-01 1.4269357919692993e-01 -2.3390708863735199e-01 -6.6843062639236450e-02 -3.4619337320327759e-01 3.3922562003135681e-01 -2.5276622176170349e-01 -3.8346475362777710e-01 -1.0129041224718094e-01 -1.2737929821014404e-01 -1.0227562859654427e-02 -9.3266971409320831e-02 1.2527191638946533e-01 3.0241252388805151e-03 4.2401543259620667e-01 -1.4025813434273005e-03 -1.0733096860349178e-02 3.7266907095909119e-01 -2.5166693329811096e-01 4.9991029500961304e-01 3.5191020369529724e-01 -3.1151986122131348e-01 -1.8963599577546120e-02 -1.2454278767108917e-01 1.8733897805213928e-01 1.9001559913158417e-01 -3.1358554959297180e-01 -4.9345222115516663e-01 -1.9663286209106445e-01 -2.3056870698928833e-01 2.0439174771308899e-01 -7.1116372942924500e-02 2.5830960273742676e-01 3.8888922333717346e-01 1.0374547541141510e-01 3.0963313579559326e-01 -3.4382939338684082e-01 -3.8389250636100769e-01 5.6008510291576385e-02 -8.9015722274780273e-02 1.7132826149463654e-01 1.5647816658020020e-01 -4.2032688856124878e-01 -3.9758764207363129e-02 -3.6107197403907776e-01 1.7686685547232628e-02 1.4742946624755859e-01 2.1135435998439789e-01 4.0116608142852783e-01 2.6718947291374207e-01 -7.3385767638683319e-02 1.4635522663593292e-01 1.7072853446006775e-01 -1.6339661180973053e-01 4.8248223960399628e-02 1.5226908028125763e-01 3.1271256506443024e-02 -2.3038107901811600e-02 -3.9443919062614441e-01 2.2125959396362305e-01 -4.4346125796437263e-03 -3.4405106306076050e-01 3.5623577237129211e-01 1.2112540006637573e-01 -4.3075680732727051e-01 -1.3186964206397533e-02 -2.1064111590385437e-01 -7.1001902222633362e-02 -1.8677380681037903e-01 1.4578260481357574e-01 -3.1165905296802521e-02 4.3276894092559814e-01 4.4890394806861877e-01 5.2005466073751450e-02 3.5946393013000488e-01 3.0710512772202492e-02 4.9296583980321884e-02 4.1473156213760376e-01 -3.4102752804756165e-01 -3.9421555399894714e-01 2.2602932155132294e-01 1.8339705467224121e-01 -3.6799940466880798e-01 -1.9839853048324585e-01 3.3977702260017395e-01 2.2849033772945404e-01 -1.0206849873065948e-01 1.0541418194770813e-01 -1.8276150524616241e-01 -4.7449931502342224e-02 1.6494336724281311e-01 -2.3083360865712166e-02 2.6082158088684082e-01 -6.6699169576168060e-02 3.2702773809432983e-01 6.2916010618209839e-02 7.7874287962913513e-02 1.4670240879058838e-01 2.6484856009483337e-01 1.3611394166946411e-01 -1.6615803539752960e-01 
      </Biases>
    </Layer>
    <Layer ActivationFunction="3">
      <Weights rows="128" cols="128">
